{"model_name": "echo_state", "model": {"n_readouts": 200, "output_layers": [], "activation": "relu", "n_components": 1000, "echo_state_seed": 21727}, "weights": [-7.698883064724375, -4.294894227218894, -6.225793390895584, -3.0152817570521493, 0.5992099283357608, -3.3692302160724172, -0.4216365666702804, -2.4883166625648037, 3.9445388850920633, -0.7106185168966013, -2.2602203777658967, 6.8050281803866, 2.0089759571174852, -2.373388823405919, -1.454467539761224, -2.4669210419087095, 7.066764655149881, 3.480982021130189, -3.5845849126411755, -9.809322520261949, 0.2183339043677058, 1.2360838260511517, 1.7585073812390866, -2.9624365458594184, -7.0420275214244965, 10.848906325760579, -5.495199783935212, -0.41435862691930064, 6.809998640532953, 3.0837556537042365, 5.511678321664506, 2.498598251822992, -9.22145808634722, -5.095540953095321, 4.310329386387406, 0.5059253876861051, 4.430545718692447, -2.3953738911523024, -1.3810111207274731, -4.8460442345126395, 4.5795233477453365, -2.434421345335051, -2.943704142388928, -0.6084063398539318, 2.4996629145392206, 10.39516066341448, -5.427203050651149, 0.7316790007271277, 7.336180222074829, 2.013044275335818, -3.9825400788033525, -5.820791320706023, -8.994410547101243, 1.9598653939061097, -2.3831751778283525, -2.5768563480493922, 4.379511757593247, -0.6202721551107788, -0.7431888254258687, -0.7831854871180793, 3.558212470582176, -0.35016639271297834, -1.012880871439062, 4.274493699366256, -0.48645133865463674, 0.8250277771849206, 2.4115125075869184, 7.276384029919373, -3.59258794377559, -5.775494814167346, -2.6196431264446405, 3.4293584499604064, -12.104662675011438, -1.7851615404297494, 2.4147690064123353, 3.469006993311581, 0.48625048799969095, -0.7226569888277489, 5.109571389972431, -4.4793947003583465, -5.42598931791377, 3.7373516251665144, -0.9115254940686789, 0.8861756931647657, 1.8393747997414227, -6.0743328382590684, 4.057216400939462, -2.4753190504994773, -3.877416167509485, -4.615162527551669, -1.57895659852388, -2.397497666558995, -1.034247044594035, -1.722592909791751, 1.9817047693480707, -1.224040239321754, 3.0723232064535235, -0.08259067016174876, 4.987345357693194, 3.5712356457616687, 0.027702995874099356, 2.9919883159395386, -0.1567846375607359, 5.4588331980142195, -2.628698274733128, -1.6665911259448472, 0.6590483637067392, 3.9632256289623395, -1.0087669396473096, 0.9101527805817551, -9.83301937892437, 3.940359661841795, -1.5475801443472874, -2.1999072768886463, 4.870311131667311, -1.5209677664103487, 11.047141947203851, 0.008598138821805046, -3.2859777521012683, -0.9374618674167321, 5.736074274532969, -3.3237362768725687, -0.2808833332485221, -0.5511975437597867, -10.926600547576424, 6.69740093184705, -2.6106570089115433, 0.2890820768900279, 3.1579175835673614, 6.1677466967609975, -4.7120356055677615, 5.068415055739944, -2.984654611444327, 0.7890194501264904, 7.480285490169901, -0.10934715073850265, 2.3690444339532695, 3.171307372841584, -0.5275865216960909, 0.9266640353296619, -6.243103955867255, -1.1290843426252668, -5.114551300069016, 3.503382739927723, 7.049182724135706, 3.7428056013206032, 3.616348410250722, 12.705167920172947, -1.8873768622999059, 5.329300712265103, 12.382665183355682, 0.029487810979366008, 7.089485811141859, -9.987666990313077, -3.4610552953952336, 5.69764510414152, 10.422239525275922, -6.178668404884555, -0.4902969027912606, -2.426921198627024, -5.314666121501327, 3.143826024442151, 6.009212380563348, 1.2925399099357835, -1.2552728676350469, 8.52160371307174, 3.574463089272979, -5.118398243007027, -0.5591244647271628, -0.9189581773080256, 1.1434783473270231, 1.0238878365944872, -1.6527455890201852, -1.3938931261183007, -2.131665418740259, -0.6791280574526819, -6.431521937869718, 0.6973284877257477, -1.3855471628841656, 4.6718696102151025, -1.1826951647143469, -3.2530840014352522, 6.429023458709049, -1.0395529111243607, 4.489559193562573, -2.8915868499908495, -8.354158677299527, 3.132300435198093, 4.679450241121998, 0.030436230605586367, 4.161026948869717, -4.462408015135062, -7.8998432916121795, 4.13781158730412, -7.293888410041043, -4.8239239523685775, 3.9629726252280504, -5.191721280069436, -6.257601529137931, -7.2847180042690765, -4.645653546271328, 5.1759405814931725, -2.991322257779015, -6.843580486224887, -0.7819060683808572, -2.1932200518726694, 5.63175413321591, 2.1877991099229535, 2.7109909290388163, -1.7376351555372544, -2.2644741558771875, 0.13187867451475085, 3.235926019412263, 3.328829755567031, 5.080220283951369, 3.7433269352138803, -8.582459453424779, 6.928383968165818, -5.817678433525023, -7.68078993289166, 6.770520559239292, -2.7737668990195687, -1.0701895849863206, -0.08358712336430063, -0.21553508247683117, 3.19677027006269, 2.1178746822650463, 1.892803975886315, 5.425637730133806, 1.642721161680888, 2.562732862962485, 3.6119854367697664, -3.2740985409051886, -5.329337102372289, 4.316114307134896, -6.474005611783997, 7.143911314819686, -0.10549507467862249, 11.501010578346694, 8.02254669329219, -3.781692492799254, -4.787993152257653, 7.9303881897376085, -0.16662840945968604, 4.357322598005914, -1.0245568281840418, 4.347090601564846, -8.936353917587232, -7.482340215665437, 5.897255099698747, -2.78846086848538, 2.598200892567633, -0.10679534813479408, -0.49436176228339146, 0.041371443772205474, -1.1921174535189332, -8.76124439888601, -9.53448717521584, -9.077942599246864, 3.1469790332839884, -9.36567424895448, 2.7177627256388894, -2.414370471698315, 1.6176452169425977, 0.4923677246513083, -1.4961333702756392, 3.688385454759568, 0.6726131664012919, -7.954067109597504, 6.367235308478552, 3.4188433440918247, 6.540737603358129, 5.57352323786482, -10.212127708954586, -1.9509005553252972, 0.45445466359216435, -3.976078947468056, -7.212547029866788, -7.106370521545244, -0.06032760341814253, -2.5760969457929592, -4.821436658976761, 6.712984246159196, 3.8010184915404692, -1.5269031405408735, 0.0944419709674369, -2.996354013307223, -7.26019917852043, 3.972382591168726, -3.1392492258246882, -1.065999344384479, 1.7462047425921017, -0.8436640251392443, 6.455566575230701, -1.6611496772103649, 6.585431451891322, 5.815887843346513, 2.4644232101772814, -4.260901032699779, -2.877693174333153, 9.166378547395539, -5.510696327251724, 3.064120624280358, 1.5881722346961102, -0.6371686666501832, -1.0655691148535922, 2.7217053681153125, -2.5347127312112425, -7.427974068839083, -3.1953633478543297, 2.106457424115554, -5.859421265851706, 0.17323999216654878, 1.8534787268625894, -2.535815018284078, 3.2943453888019962, 8.206707638440585, -4.935734470649894, -6.912483053399636, 0.8859909314498601, -6.100496568755943, -0.86569493908053, 3.5374121670913805, -4.981931376580308, -7.402996723935416, 7.741181509296769, -1.1527723098882139, -2.0951229919094545, 1.464532459638096, 6.5542042828758085, -5.5358195204239715, -2.347683029965224, 0.6672662849490889, 7.513426048180641, 7.779659745572351, 0.2893115612101304, -9.342467686315334, -7.507345417766089, 0.6031853191101642, 0.8367817271387432, 4.421197083776081, -7.3901928552232015, 1.351587575519567, -3.8559360480217335, 5.765182832447607, -12.08074944009851, -1.6662083260674452, -4.6301558614296665, -3.311042542150426, -8.540975400496574, 0.14982635593644245, -0.5918958017011802, -6.452700747119051, 4.625155259621895, 4.084877797763037, -5.091385173885891, -4.282673384742635, 2.1334839616142434, 2.314401795858706, 1.452135737395408, -3.05728356951892, 0.9705034859513461, 2.5965643472340476, -0.23292125904778516, -3.397809491973896, 5.358372848942667, -2.721785725261605, -1.0401387891925087, 1.282648356038542, -1.5905380021149345, -8.032545511138794, -1.8758172221382734, 1.7667975178555064, -6.047681797741262, 4.823485385439582, 5.456767129527261, 4.1676695345286925, -9.955870999171772, -2.367885411985926, -0.903925772068829, -7.104926595076475, 5.869250688980472, -0.18066253222768872, -0.9641203536066019, -6.208447359223619, -2.8998128643769663, 6.793759633222388, 1.4069133268146286, 6.378806733368073, 3.9764799298532645, 3.0502818513656127, -8.080539673156679, -0.5965768189583152, -3.4673259319251883, -0.3232505185786429, 5.275805367125518, -2.575488612073589, 4.983443590653807, -5.262430342578031, 7.396391455770787, -1.5864580384898181, 5.922959211611701, -5.743525685662489, -2.8179106622281593, 2.54901666796682, -6.440353498821997, -1.1459082424065676, 2.858791047855937, 4.148627650141409, 3.747415918861633, 7.552030100955224, -0.46063164333175954, -0.1585889674505855, 1.3289825014737053, 3.7516155049839126, 1.774275541499523, 6.540142772477039, -5.045344187413897, 1.1695165364566475, 0.39824927750675587, 4.651534859758836, 2.117665555259392, -3.9577937221717137, 1.934313563516466, 1.589295547019928, 6.460939882085308, 3.409860192255101, -3.9312353794066897, -4.290520877206967, -0.41554728150814446, -1.0800924308299857, 5.22838498310043, 0.170815447325123, 1.1380321923687375, -0.9188989388181372, 11.540670370846373, -2.5518231236868827, 8.606357943420385, -9.791568582862546, 1.1419340123677113, 3.291858642898779, 2.716951712152828, -4.559266732256782, 2.611958711715126, 5.795330743681758, -0.2504162796928892, -5.982025445624307, 1.4518059178607046, 0.9351969283402883, 2.4669977132650986, 3.083623449051095, 1.4080759540563093, 0.3485799844240195, 9.694242429993228, 2.5482995342880033, -0.23414993097843784, 3.0907295610445624, 1.6833582155858622, 0.734058163923393, 1.7996039271172342, 1.3915919041272728, 5.656842763530982, -8.004005594147104, 4.922471451478206, 3.104050254803818, 5.703183777561133, -7.876305770252136, -5.256829063272674, -3.3750002933204395, 4.201576356317501, 6.447670880973715, 2.6349482864373535, 3.5228364115893163, 1.2890538203520472, -2.6093167638898827, -1.232506783013576, 4.711372035500751, -3.055743530646247, -3.4766324410356217, -4.5151712393962224, -1.3730979590173158, -2.419336520233659, -1.282226584601101, 1.5979291157635767, -3.1956927994383393, 1.0300552078165306, 4.718328209722721, 5.976167849056493, 1.6298156652394782, 6.658990033483821, 0.414663707743039, -4.682598793209028, 5.823434314133984, -1.9609803852422325, -1.163052076764512, -0.9429058222782379, 0.37805773480603505, -0.44792557466883187, 0.20932203023058582, 4.282269895980618, -3.5242451344134462, 1.4469205896562338, 1.9124069719109256, -1.1131807474569495, -12.121022161337432, 5.650280508012981, -4.203434201440877, -0.8144095092647284, 4.213547850084342, 3.0225820904618423, -2.224860899395906, -3.4213451131665185, -2.9085385294200594, 2.0618054470250873, -5.108867357403602, -4.43983349208575, 1.2721197316606117, -1.9416117992951794, -4.758830619882092, 6.600344509354713, 4.45662260251572, 3.943402027733163, -5.079684768153452, 0.5286774941244031, 3.861045985319657, 5.365943734432332, -0.4642749573299907, 7.99607967589835, 1.026504651251598, -6.629921069771827, -6.037815051387304, 6.573841438667547, -0.6309553299343604, -0.7373928926684306, -3.6203256801187296, -3.0774109507316667, 1.1108913318003137, -1.342997978382522, -6.253255249967378, 6.713188336381793, -4.16542436299842, -13.28482417463846, -5.393867120907791, 0.4533803444697935, 0.47173035656805684, -3.0776024874933468, -11.657709088235217, -7.6695655510132115, 8.067732883242812, -3.264198960334488, -3.5890629364837823, -3.317145891392921, 4.912382007629479, -8.57014634187683, -2.333766119006551, 1.5045101185627041, -1.3014588138434253, -6.642781534398665, -4.717007119854462, 6.615674157865577, 2.1878829844879206, 2.088667435694715, 4.915856433218053, 8.56304386823493, 3.064310509060054, -0.4030817464675307, 6.993793373438994, 4.755658127166889, 2.902467297433544, -2.2108345841451706, 0.0761813550980811, 3.9638698142479596, 3.2550638314382145, -3.435502078257795, -1.65738954241895, 2.164670544182963, 1.1392768991101583, 11.41736147669163, 5.200191260010386, -6.068205182485749, -3.754402612991596, -5.946328994114091, -3.907334575663265, -2.9734933647934096, 2.0774975360170784, -1.0181487562628733, 8.076556351235661, -2.809738939846792, -4.636881736943559, 8.034479805679226, -3.8748536361909838, 0.5402037900565265, 2.1088360172454896, -1.7218021845734497, 7.6040226476342765, 8.177224191750515, 0.9586777160779045, -1.9621416712411732, 0.3340886655310418, -1.689677783197612, 8.005060863818477, 3.4647764564407293, 0.5071434491140205, 7.348022850018781, 2.4006462073690287, -3.854148586840417, -1.150156208761299, -4.944354709466861, -8.550274485265799, -5.08969361754746, -3.7700774896603257, -2.9628181754146543, 0.5843407463855503, 4.244394165481214, -1.0814356842277704, 0.8504923504626569, 3.312780081994794, 4.045575036597406, 6.3591433215201185, 1.3038807552631977, -1.2170655381334652, 7.1417255515546705, -1.9565836147548628, -0.27684307838961925, 2.7274349920947976, 1.4569826602742484, 1.678699086572136, 3.184446149322924, 1.1756359340770133, 8.69326478361074, -5.019495873162165, -4.620883383121948, -1.333721553840414, -1.8743939716762934, -4.589785711946636, 4.969937872889181, 2.7364612850077505, -4.258278437293906, 6.64799728826522, -1.4872083073137397, -7.483420841160381, -4.971710055008036, 3.1815014493468947, 1.548639581241989, -3.005077003775849, -0.6731654510881029, 2.2715351677397804, 3.9334854439313807, 2.0464141442375112, -3.672769750152456, -1.2966094844957112, -6.185537703471852, 1.44621380261031, -0.10549143198759692, 0.9711944705018929, -2.807723912695353, -3.7696173096777006, -7.43681139377516, -2.0745461803427996, -0.7896498345866643, -6.321423023864899, 2.0286104143552492, -0.6722113146574002, 7.503634227515742, -5.5650579231688, 3.8051799404300257, 6.430640497628255, -1.8961282155335497, -1.7277539671557467, -4.804286484048649, -3.4410513395712896, 3.306536194774528, -1.655461211652695, 3.232637890768538, -1.2506977535813584, -8.998129741806316, 3.704841524034484, 3.8899369980158864, 6.597313029770473, -7.864909656220389, -1.2595810282110578, 5.340008976122842, -1.624609765325495, 4.479685146151581, 5.130060601688665, -0.48834258120609425, 7.290699261377257, 2.280249087511372, -1.0480193028887428, 1.6723997566812292, 0.871582926106251, -1.188184196946167, 4.0261873082919735, 6.351195660832612, -7.892136858002489, -4.126083945686692, -5.183274142788751, 7.356334399471606, -4.89211861498338, -2.214882451216637, -1.9322505916434198, 5.367425041875712, -5.452895233127372, 8.54726711536122, -2.2187193553236395, 8.631299769101282, -2.986531751172909, 4.053578284125699, -6.722119369727879, 4.30914198619827, -2.5900578595049457, 1.9999002682473335, 0.6977708807708749, 2.202979625891314, -6.961455340300569, -4.26801579375263, -2.374423890834305, -0.47868177101323606, 1.6890408448965037, 7.982072374644108, 5.241254495007521, -4.113828237748476, -2.703775767681663, -0.7332652196830655, -3.8269696569943843, 5.861806163205321, 5.461812817648272, -5.087648553573705, 3.7591543148225948, -3.5017556187938403, 3.7418099936003455, -1.0210921216973654, 4.4183209710743245, -3.8226391401132473, 3.9788522634948125, 5.330039468611608, -0.08393159660580057, -7.5506178919518625, -2.5288700285754815, -1.1667250788555223, 6.7066872693735995, 0.7353586815247359, -6.07686482049385, -3.8398336578498027, 3.8847138829445726, -2.2355330552959645, -5.5619140552652, 8.564324896448937, 3.087468049315077, -2.0690057621205087, -5.533137764880843, 4.592147917804107, 0.4670978101436333, -1.8370635094659173, -2.5215859478818095, 6.128365906681349, -6.079884414040024, 0.16688965860472463, 4.042608998616312, -1.7257139007816802, -0.4540854806651995, -7.550504877676098, 1.4935991789245122, 7.727041503983001, 0.3744509121604376, 3.8298621097468066, -2.099487709727928, 4.764888656997095, -0.4111456733363686, 4.977206406308754, -0.5193179218356819, -3.2156468907861435, 4.956157124072351, 2.3728145019707525, 3.2607904670297687, 4.538352758313117, -0.26739443574160493, 4.677515681471437, -0.7012846967264237, -5.716174862035714, -1.3861807068302212, 2.46181867004146, 4.58922801334345, -8.18734904059032, -6.258041146479214, -4.632337255659532, 1.7755245627742982, 8.135862395088129, -3.194982454041077, -2.392509829404394, -1.5372741848099232, -5.672215969029651, 0.6368848334970416, -5.45108031728828, -4.595556205604851, -4.640386707122536, 0.8637437376464179, 3.578485432067253, 3.7245905714385117, -2.725640117519713, 6.857394104453169, 0.818809294023697, -0.294760754569534, -1.2995528573704183, 4.1786150332047205, 1.9090808092538114, -1.4244463508957073, -7.410686614120359, 8.757211341577753, -5.108060121996029, 4.59279905735759, 5.268913741564395, -4.511075377223172, 5.86097065760202, 5.352355165495868, -9.976777062070441, -4.638481941690374, -6.171125206175284, -0.6335878723870627, -2.3452032523060504, -9.50779028358221, -0.2596234677644529, -0.4743504909921773, 11.391352107944979, 1.683351768450959, -1.263474644603352, 1.8583441165728694, 7.0600265991453774, -2.7549177732184607, 5.142311209022152, -3.9312979472950813, 1.7643783263678212, -0.3345390375536463, 1.3003820437579927, -0.6743283592007716, -9.577587750827565, 2.6882302254088453, 0.02433532323266893, -2.159200668542767, -1.1607602528997052, 5.425841897799691, 3.0396388703589907, -2.4349867327638273, 0.8231172798547572, 2.969543849396263, -2.802847502230864, 2.5708046267881577, -2.9432839983533867, -1.5059139404576858, -4.647418046433841, 11.191551034743172, 3.7740029938315507, 0.042900270930087525, 5.2335299448485895, 0.0969589373893801, -1.3675954759003652, 8.498806195004395, 2.6195456214128194, -5.269234592027025, 0.9018156067410026, -2.3344555618184852, 0.06436833563327593, -4.285951085198103, 4.13465690237155, 2.13009657173866, 1.22935787891409, 7.058717036953427, 0.40140824756929394, 7.365586517434125, 5.3353306789419, 5.474919332154688, 0.46118610180978303, 1.9743361123662797, -5.525040835818537, 1.8205405129955836, -14.094945887773159, 1.9534942999671512, -0.48003152798542936, 0.5195401238943498, 0.4141563776636447, -8.82825690743535, 2.0371589490292736, -1.4859860088147432, 2.387909810859528, -3.578953136472903, -1.3043053015329915, -7.00556505767993, -1.4587580364606805, 0.2665583339780078, -0.9639901652527556, 7.1758730247311435, -3.0373729995764176, -3.1254079940202133, 3.2308879466693816, 1.7376615931168486, -4.674950946921343, 0.6958197826527305, 0.5424486671557389, 0.6602133853237594, -4.842118560595108, -0.404106355734728, 0.14297610570377767, -4.774573209875675, -4.23188614711313, -0.7088112620937825, -3.4919371878348775, -2.0460426578059328, 11.885744253532087, -0.9087367208360616, -8.343792290456902, 3.523936823544946, 3.5480453897648325, -4.991932231350178, 1.0992852077631758, -6.145562371177287, 2.1706923472020607, 0.18328589979014542, 7.89760057014819, -3.6072418950690635, -0.8712258813783658, 5.099300540410756, -0.3279216947590421, 3.1472284299286097, -4.188835807055421, 4.113687260413899, -8.189977175957383, -8.766539019951491, 6.527747189600548, 7.046157835766902, 5.40474737845243, -10.653484264049716, 1.6508783464725425, -3.5794042807189492, -1.500525288044749, 5.200144761393131, -3.1891501953982733, 4.332718946948934, -4.45671198220428, 4.445013120110042, 1.4770677402530086, 7.109324281886653, -3.727701313061064, -2.5566442208596984, 1.5053964465958063, -3.1565989725481827, -0.6353643016056616, 3.6739439156557774, -2.715358215226779, -2.4255063071699694, -3.7678519582596963, -2.3190624802302318, 4.202282152064143, -4.815622235669784, 9.44396236428643, 1.422014241970217, 4.194229569621418, 1.1055953423512042, -5.232483931678293, -2.7371026008139565, -6.390537860554564, 6.257945045191405, -2.3955135246191483, 1.7334952807674353, -5.8758541686023, 8.689244013905121, 5.006844137888591, 2.872461146236905, 0.5980485596884217, 0.8038018254163215, -4.191475930343351, 0.9606890169658865, 5.706014833809081, 5.539124807908263, 1.4213209720682605, 7.494686502009318, 1.2808920066369733, 0.32428579870993635, -2.2559736488950994, 5.954318157233793, -0.11801109162004353, -3.6653108887022197, 5.175983316697927, -5.623745824638869, -0.463305423409373, -5.112122304221108, 6.828930878171424, -4.6427795772053795, -2.5245792957425164, -2.889822070183499, 2.0800654478745986, 4.8381508970196805, -1.0171963797272725, 4.005413167547044, -7.515078025977303, 4.128606323020368, 4.648046657216027, 1.6907880252869654, -4.083495549011044, -3.1539824920805954, 1.9214292340104313, 1.4736941867852202, -5.567751553484549, 5.056146171483828, -5.069306167438009, -10.388993897620812]}