{"weights": [10.75583549423867, -8.495178456924137, 3.8088882243242046, -2.17494697240825, 18.994261939190963, -14.065336168752216, 0.7293637008390569, 10.149119817251574, -4.890240150119042, 0.45756931298417947, 0.08103524760214442, 30.98362819004851, 6.312265795127613, -5.777851491505568, -5.285553508011394, -25.68064454651292, 3.080931807586869, 5.375761161583324, -7.1124906169893585, -12.696668061568582, -1.3338508669563303, 2.996585342014993, -1.5574561560788212, 6.610115067572525, 9.882253345635904, -2.005921424021674, 12.766137380348093, -2.2111949980185486, 5.373312090265895, -8.02023859066379, -12.336867604307558, 2.712243736838283, 7.51886695849728, -21.595748571197905, -13.954949674728967, -7.9575519904965155, 14.305448068773797, -2.5895754601133327, -34.1725406255164, 5.403745653709843, -11.634698900925807, 8.353207330274449, -1.4606468881238526, -17.066715210886212, -14.166963547093156, -32.46714252555263, 2.4389935700848726, -3.6241110306080393, 4.995264689187242, 3.92697073552828, 30.097701160316053, -3.0239958329550514, -0.9141848662447254, 4.502272890302265, 36.74975298246608, -1.1123995328648322, -1.7937685043123512, -9.559175892039486, 6.787818672831396, -4.704891698052904, -17.42956956848247, -25.253268870271967, 3.1713167013582946, 7.196092944130905, -1.0210703906741823, 31.93765084792302, -9.580827413694376, -20.507467826722795, 7.541034110049019, -23.49098603853117, -5.9671701651333, 16.83447551253505, -13.327321536031771, 30.008794082618493, 14.634374293487184, 11.816556654138402, 16.061683985806468, 13.91923102678647, 14.716170734364136, -10.871187298057716, 9.185944752529245, 2.7445227606387568, 7.035975670528574, 4.630104323415257, 5.957178695180059, -3.12132486516224, -7.336137430092917, 20.21027951372723, 8.127793496940612, 23.27257455952978, 4.108537663698385, -5.372475120517686, -18.344355957726364, -10.717903496402705, -20.991683187170928, 13.616995801269471, 17.82243791100147, 4.755787159500074, 8.453968814802568, -28.516265011209605, -3.812419610547411, -17.058750574007636, -7.959477301583695, 14.968208767884878, -7.473367396667185, 21.583458163571848, 22.976830134278845, 23.42480438500646, -13.5144629359583, -15.24430984964625, 5.331463018026201, 11.96457649182582, -17.33220915905724, 12.365079275596196, -11.706634573348925, -10.20808029570844, -2.3323535118405485, -3.7717012109989017, -12.189252165469567, -5.794410667474626, -7.0504189336808, -18.93184542901851, -15.341599594703776, 13.324259826446854, 20.010146939646468, -4.214106090013047, -7.007967437470538, -7.755995304782225, -14.439909906923994, 13.006361082653699, -0.9691697318463143, 8.041709342999747, 6.055474747129991, 4.597156482565662, -18.707364498774112, 10.714870771718887, -2.6342667046224, -5.581380410735684, 15.75517028722175, 5.070184282131553, -24.182630469112198, 5.7405869242520176, -22.225710283857993, 20.534568417901387, -15.398506959867522, 6.798731803300739, -16.07020468521773, -0.262927177275809, -1.766003585788165, -19.03479896725437, -10.037745832727555, 4.0120254970435045, 5.867538193392694, -13.391492837701142, 5.456015714919458, 10.985754805006469, 8.968024650778073, -11.350375670082276, 7.722279243948573, 23.758305123657344, 5.893855393641662, -21.09592494272366, -2.842849804020765, 5.780123699623257, 29.547902543494768, -13.022402507291858, 14.530880558339785, 6.498865974524939, -15.900765738377054, -8.298204487008887, -6.326861703536911, -8.184602214049049, -2.523228070009231, -15.151555072919644, 7.433697556470249, 3.4120293727280164, 13.177319231285079, -1.0603198191155452, 8.092103477234163, 14.111722852275484, 3.009580315933924, 4.391153639417261, 5.49323899340967, -32.764475312982725, -17.73137201409678, 15.653353321220006, -6.541500686739275, 5.685128740392875, 20.405470560122737, 25.335437028926084, 6.173484756078933, 3.210796095936583, -13.120734696292361, -15.538608588363287, -25.67134392820377, 15.363059326229369, -15.714162157243898, 10.643436013485475, -12.70234758415, -14.365521206609131, -6.546252224945361, 12.339480990514323, 3.443335674700289, -8.046454874980249, 21.7866891695658, 4.201005825679699, 4.2984837100677655, -4.48980794097811, -6.527378652248316, -15.449879305742403, -8.844313856896118, 7.5242059665201, -0.566160321772737, 16.306759020815417, 16.23835889439825, -4.81014111446876, 13.358160225433725, -12.333625006509962, -0.303225936568686, -5.052414416736655, 20.31676045904548, -4.1640245942150695, 22.784896335861344, -0.11857340732980037, -22.69229387435905, -3.7287790442396154, 3.943560562975531, -0.5448437882651107, 18.562043547881466, -2.6151269670806476, -3.53236106448501, -1.9205983228818604, 1.291931941634695, -4.252622841970433, 14.858630664914157, 7.596650918992267, 17.68955099816636, -10.242930835984405, 17.352000768044938, 6.90926273179112, -0.34232768813418024, -1.3497712699527251, 6.5240912511690725, -25.930259936762106, 4.379257073313502, 4.159885995314846, -1.9991067905922484, 4.813068635061313, 25.0477032818128, -7.339106384003998, -20.440958095153842, 8.252810777773607, 11.985218253155251, -2.772547211462838, -9.318914720580201, 6.095311443961704, 12.302784493552656, 23.038101150833455, 12.738805579222007, 9.371523754985963, 7.164659342077039, 4.778204328843265, 4.506464916226719, 4.767683595489806, -14.109845095969616, 17.667447314697423, -8.98371159054762, 8.955523501207692, 0.8152757226635838, -23.017956077586017, -19.57221119300184, 4.9132082975686995, 17.42144452928269, -0.5844032427618985, 0.09151268756626674, 0.9661340131651311, -14.249763171262893, -9.29034282034623, 28.374804151364827, 1.875590482739774, 22.664017581357356, -21.023851505493074, -4.506848257214495, -7.940198567100917, -15.65836336616523, 28.989005168679583, 14.772952942404546, -7.887760544375442, -6.6730639810134225, 1.895413851222202, 27.718831724172333, 1.7289629033233611, 6.5561680876678965, 14.989700693391491, 31.02013931050333, 10.971618497889192, -4.852559729376086, -5.317063381064889, 23.6049122670782, 22.980337161530294, 8.099833147302697, -4.33464049059358, 3.2262447757493344, 8.168371022693771, -39.796268374163745, -5.38378914906505, 13.199971169640135, -19.803750590567642, 2.7436879135602994, -13.391202030319388, 2.4132835765451226, 7.792026985677753, -9.288201233022905, 9.03150371808743, 19.254280047561128, 13.778981417686763, -24.654360422768647, 15.916170584718591, 31.470933491815575, 10.00964639179189, -8.555997822183286, -24.515785150277548, 3.737364511140559, -7.719193876099435, -0.6352455590418039, 10.401243522612658, 25.07662806881184, -15.927318027080476, 10.202745396255226, 0.06111750993574816, 3.399987337091354, 1.4777596586914634, -26.714977780873948, 21.097538980883858, -6.322536780442086, -3.782019416236413, 25.797875487737798, -12.540427617840205, 22.365310965646522, -0.7549545712626619], "model": {"hidden_layers": [16], "activation": "relu"}, "model_name": "mlp"}