{"weights": [12.826572430853645, -8.162825235663213, 1.355551945574305, 1.135234124155427, 17.985554778118136, -15.508872805463444, 3.2471378349477984, 10.22205975487862, -9.374986091020787, 0.06662032561403819, -0.5258070804229114, 27.618102413389202, 6.701739670501377, -8.97388875770895, -10.921141744467173, -25.335603163298988, 4.077403172762546, 8.57938036563996, -12.042609686071247, -11.788559513196079, -7.835460388157215, 5.180434469978331, 0.44109243934588194, -0.3083504538098288, 6.197259683369729, 0.8738920260989569, 15.868236184031144, 1.7629436663899942, -0.46811415064357276, -8.126200367308101, -10.676516953002858, 5.468963587867239, 5.234060386694474, -15.626404235771707, -12.509966667705434, -10.9519974610703, 22.297989839140133, -7.920018902288253, -28.618799623189553, -3.52579344413782, -10.02306882607419, 6.86695532045033, 2.705714436474637, -24.06886404802115, -13.14409292665578, -31.52385696769747, 2.2623998334218527, 1.1864972986808273, -0.3547483274889599, 2.871185294545203, 26.170956328095887, -1.369304733838719, -1.040359924236815, 2.5364498620815854, 39.515439167508674, 0.8039626694841903, 0.6954320049666285, -10.809860904625593, 5.959627230821352, -6.927357055091293, -19.322454544940676, -27.29001603099863, 4.084630572530051, 8.50308743190142, 1.1536674363855284, 24.62565586457556, -9.251346410649955, -16.792105778869008, 2.649815461018312, -20.831713752739656, -8.812424182459294, 19.548504496961435, -8.854764181113781, 29.565553936013913, 19.865124527460328, 9.034530643964683, 16.802857506840866, 14.701993432876364, 12.548611525118233, -10.047396947345808, 10.398245258487016, 4.974381810147557, 6.226567335057499, 11.36606288259803, 10.708878326168666, -5.868589730941637, -5.751661414385665, 24.228426019028873, 4.5422264591809, 23.953281076049432, 6.4216361243798525, -0.8667514653639047, -16.91971681510218, -4.164598673180693, -20.148567545331005, 10.571648870254158, 21.825862107801285, -0.04237182587535726, 5.168430539755215, -33.66974481066799, -13.455102710634877, -18.946198633383716, -9.479974270882686, 14.255692724177901, -1.6097231646789045, 20.46604118164426, 22.52866952716678, 21.859166379723618, -2.6688684506222726, -9.303389605760602, 1.7527572707513963, 10.715172708779644, -12.94037231256428, 11.374516990282537, -9.6105014678185, -4.294798490785208, -3.8462873245853197, -6.7472450464932345, -13.690386055568885, -2.8179128381423815, -7.916997946973113, -18.547811952495632, -20.07581511044105, 10.429870463769712, 15.263256203307371, 0.01985045348846773, -4.484620202775941, -9.888140322246361, -15.77986216734556, 10.65269376681491, -0.6072028631938162, 9.365244486312193, -0.7102836870957281, 3.4114166033563675, -20.532561336027793, 8.54716530967922, 2.4059583919127405, -2.3538590900369805, 20.31325301328134, 2.291994399859943, -21.518528005007166, 6.303945688331212, -14.56888407759567, 20.937010495582783, -14.59378366142564, 9.238002448591796, -22.14750677481026, 2.8256121091566135, -2.3202624920907593, -16.76284666669258, -8.303804702522369, 3.3563763531508792, 8.754128195032349, -21.8139394004635, 4.812084640982954, 13.547398077724203, 6.482260935061431, -5.106176993535246, 5.749994915925274, 19.071642068361616, 5.542322674009875, -23.158767436474204, -4.402740213562019, 3.8295256816368326, 29.741348649425905, -17.092253137323883, 8.057146382178905, 8.973410531124701, -11.545240608909612, -8.281272311413108, -12.964372216951281, -8.817422508809923, -3.7726535902919047, -10.6804972515696, 5.994166897860499, 0.884081814887998, 9.106254402959078, -7.738606625674243, 3.7533548311595744, 16.014517514259563, 3.4423122039104816, 0.4830392109147462, 5.477443893648432, -29.300570731025125, -19.771009375259176, 13.637515089358878, -9.824644907316243, 2.226343243437152, 20.643331183871016, 24.32303184376307, 11.048470896324607, 4.743170706197348, -14.417932771270516, -20.46102271513475, -26.939131140649703, 12.759657654883824, -14.942985202522577, 10.577327200377965, -11.5833855649257, -10.736540220882608, -6.609569599728016, 8.952083366943528, 1.5155159332464065, -0.40920539115607635, 20.37107483607152, 6.6432592291529255, 9.337472080736863, -6.501955152328837, -14.233530063503128, -18.60509116866329, -8.56894870386412, 5.63592628390234, -3.275186430764922, 13.750708981743752, 12.139623069001402, -4.499584200145362, 13.543360057665035, -12.360690947057833, 0.28692359754471786, -2.927822166003996, 18.169796738858206, 1.562600640399765, 22.811907935918214, 1.0209539485996715, -16.74323075407328, -7.689859749375367, 8.592244500110603, 2.409674045521088, 18.30212791778686, -1.5191955629660148, -0.3367243429154214, -0.8945514078822906, -1.7291464346940724, -4.048680190397609, 19.229385627095052, 2.3102242458237985, 19.467676647591293, -11.588829024646769, 12.726704258926347, 8.881628900458988, -3.407577620769053, -6.547323849607176, 2.2705176856090947, -20.52480961069664, -0.013979321376236253, 8.970119729688985, -5.014003449552361, 8.341326320254243, 26.711190712744752, -6.3197348406979765, -18.910119781529847, 4.021841115830051, 6.665826498628147, -9.141331092595834, -5.494741600456482, 3.3250914771535083, 12.98562565206966, 21.32828676766899, 5.12792572117267, 13.120763905099455, 2.8875363777387815, 4.290358637862938, 5.199671977781604, 7.506261529317992, -10.75025343682386, 17.55004178561899, -3.1285923734982037, 11.720694360475946, 7.291269715378519, -19.80641020977061, -11.702841920994778, 1.6724984332856847, 16.471175009495365, -4.9995222860688076, -3.5475633623323066, -0.9088775839758085, -12.670030907842602, -5.723492658806213, 24.303992015929566, -1.45337219334988, 22.771760039201695, -27.446484625991648, 0.47185978161736336, -10.015271543297981, -9.956622694935772, 26.103071228224948, 18.39103976791768, -9.399401317609648, -10.034805940024205, -2.8085405011271196, 23.4670584960321, -3.5290637987318956, 6.470958555892564, 14.49685756247826, 26.56354797542075, 5.311507206390103, -8.427336697154699, -5.923385047551411, 23.708064522926072, 24.71445917945449, -1.346180084542467, -5.718835741819892, 11.441775126267952, 9.864227475635408, -39.138099036811894, -4.4041737656638835, 8.364273358926226, -22.338071718733175, 2.3872827803804637, -6.6380589293542105, -1.7356031224550097, 15.533358271109492, -6.162313497976282, 4.777947961789154, 12.127462695903871, 13.896525024215967, -17.44389545309057, 16.00567580502564, 30.569293783521047, 9.640419583575934, -3.761238735312069, -20.65757970379425, 4.338462891632376, -4.049639456181243, -1.5662622301455966, 10.3907128107179, 25.943256386357316, -17.353450130112396, 7.528818029914165, 6.460277212964367, 1.4908090940170187, 0.6049311591169708, -20.404901106831243, 21.815416019431755, -10.362355496729197, -0.9713641208274055, 24.30707102733743, -14.286358079537168, 24.1788042615163, 1.2144714482101144], "model": {"hidden_layers": [16], "activation": "relu"}, "model_name": "mlp"}