{"weights": [15.251392174922717, -7.3425742869950446, 7.713517736155271, -10.103800523961551, 25.77288277437065, -17.064400916377274, -3.9188427922110987, 14.844166950836682, 1.4112263854200306, -3.9923405658021975, 8.52641091575168, 36.23946646011131, -1.0259715146781878, -6.416985647541774, -12.029347395188868, -33.06774605413454, 1.8655664949138602, -7.126732952210672, -8.77636611620551, -12.346472571922511, -6.4126586645427075, -3.2387938403729244, -6.1484743014462975, 22.75331473054091, 6.034277995451352, 0.13961762926334076, 12.989720806415992, -8.660726216599018, -6.124451976627411, 0.5929285347359989, -11.535116697028046, 6.600525364126454, 17.10592690724568, -30.407520240089948, -9.289380274760443, -10.982212840936814, 29.010324576123242, 3.575694119263721, -42.22112755348643, 7.4538539829746595, -14.561812692154856, -6.931255256641849, -3.6514294527864988, -14.760455245453581, -19.9258414947174, -26.558045481072682, 7.900796657148465, 3.1385471365884214, 19.42588064654828, 6.902422691557343, 37.86457077086977, 10.049377824251264, -3.3820307261080447, 3.648886282451072, 33.8963243731552, -20.70630844641532, 11.331430362133702, -2.123978319774147, -3.778616154830882, -15.42254672279123, -22.698182870463388, -23.246222788595638, -4.438191194243812, 7.802215979077512, 13.250925697360863, 33.44866514501262, -2.2201379518573314, -20.66940399196135, 12.973082227771188, -22.88574853877242, -12.628928346689936, 25.69810425894947, -4.939338758025995, 22.768217017659968, 20.707812802039665, 10.004397805300513, 12.067578481545615, 9.280483403722425, 19.991621233805915, 0.877234386178565, 13.44292762186736, -13.564411485499425, 6.110161972120943, 17.505605408953926, 7.875150403779923, 6.15058165284602, -3.4536414018775425, 30.495043251488728, 2.113229491478534, 24.563895227823647, 5.4807571581315395, 1.4198697592135159, -6.756386040227734, -3.6221594447828314, -18.955949342591772, 4.856836008029236, 38.893846637507984, 6.596033147657686, 9.780808925768271, -21.977136110878064, -6.299154953066046, -7.434440723222538, -4.506110156774202, 22.901594693078135, 0.9926454467827623, 20.710266189305898, 20.590756555534828, 36.34593438645371, -26.431331419135898, -17.538853842402755, -3.8940246933308993, 31.639958146313514, -18.487247993639812, 16.273847510363662, -15.708810189473999, -23.630072083340053, -5.370991372255829, -4.812311167002195, -12.260802885246845, -8.808215749692272, -8.601110782016057, -18.58851203541648, -16.934797662145915, -7.296626084852937, 13.860009037991619, -1.8218265363817465, 3.5024970805188786, 0.5678372732442908, -18.830585973390512, 13.732547288234034, -10.094500184308817, 21.33293499364607, -3.0391587890270433, 10.465416461601428, -26.547583282480026, 11.444078152307663, -4.660764191027142, -9.620645331296865, 14.753345848762734, 1.4653094316285673, -37.030911250065344, 2.7895482117515082, -27.931207443620643, 20.481399320688105, -17.03259143931196, 5.770858484570009, -24.447853970274462, -17.326039706690135, -5.462779817161705, -17.71746206911666, -18.67275705411252, 1.035149280376718, 17.182670942848688, -15.45510830503251, 3.9162272757130454, 17.432737313384372, 9.030264261025225, -25.818329393675192, 12.57649868166644, 17.40237807125965, -3.4567744100223745, -13.17358828363451, 9.292509201341707, 11.328597321440931, 27.74545395053528, -17.287425752039404, 16.040994906792086, 11.930183107003879, -20.77147988419491, -14.679495485108855, -8.487401246740964, -7.985574453559939, -2.5316096728414044, -14.423789951012589, 6.8366488093133135, 11.256158145633645, 14.954909890633937, -5.646061028717313, -0.008862924055897836, 12.41252106429752, 0.04767208565966147, 5.004803463085908, 26.068497344601663, -37.87975381508334, -25.404587438149512, 25.259863485397418, -6.194309331652423, 15.026209177195176, 22.359289690893853, 29.491071788131176, 4.548847050921512, 10.861975716756344, -2.121444013714722, -10.542898453893105, -19.19045182388523, 25.059882795548404, -12.068157671913916, 12.067565183709386, -12.083610811649228, -27.758832043575502, -14.299155233970538, 11.116296507667434, 3.6383579544750058, -8.96048041631654, 20.611544431670673, 4.909875654555227, 17.911568160748047, 0.8951499225977914, -12.199564652929634, -7.838005694891196, -13.409399740191532, 2.4684003801939847, 1.3744585645661862, 21.488581626723345, 11.183145034526122, 11.796147981199352, 19.059117867453075, -15.103651793328453, 5.401986799894058, -9.19494082837529, 17.108863177291493, -4.642586966886682, 10.45415837495728, 1.754316437806285, -34.4338643775047, 3.850916935730791, -6.70911838393901, -10.116935495632067, 22.05884325711892, -2.323133703778258, -3.2384501134520516, -10.739770403275186, 9.052999784631647, 1.4971105266613287, 17.905909747519907, 8.492912864202902, 21.403634984426002, -8.329857232583558, 37.74994062834967, 7.983009720929421, 7.983572168795926, 3.9840913894074093, 8.067413511091923, -16.932229500708978, 23.521971872296778, 5.7222995460504675, -11.240809448734073, 8.40847721960211, 22.356490501509107, -6.601184852713858, -27.12362628678561, -3.90553009818154, 14.039987346067052, -23.666011850606818, -14.290886858832984, 13.185802373986514, 18.48233045578381, 3.560704522838803, 8.334604491793316, 9.821349718602317, 13.237081530326689, 2.604787846304847, 2.6850986085977295, 2.8812959740240602, -15.414302806688319, 10.756568549083783, -13.220878241911374, -1.0877784213785966, 0.8390817958688594, -12.667639903271466, -25.795700700368386, 13.075550729409489, 18.687416375558534, -6.195083236683805, -3.798752477093034, -6.535098086461713, -10.64878779760137, -21.58270576383139, 23.797076286444476, 12.511052531473396, 22.73433375948261, -23.621635593000867, 1.662489415536285, 8.530733769477173, -11.191633661172826, 32.27023820902772, 17.918456551434897, -14.089983644759963, -11.285441244038594, 2.5220647154990847, 28.65073440314717, -3.152613436734971, -9.221248475345462, 24.851548966348954, 27.93950836325906, 7.369537646408448, -1.6740792137585332, -0.3368946866707734, 23.53721684613826, 20.00678820717696, 9.994684784415998, -16.505251877594077, 6.322477129615811, 2.1515190724565083, -48.1268971555418, 5.097468755317531, 11.161063330877498, -19.27747819429626, 9.406283411393943, -18.797312489614775, -1.0420914689821752, 15.224851027860705, -6.413410048700481, 15.509189556497269, 32.82362744773719, 8.555531974061502, -29.93428357183859, 22.780815430160544, 46.06452766920087, 11.68442566983819, -5.8831079188608015, -31.07002508452954, 9.528908570424335, -2.4846421166486747, 0.8531259448841507, 13.85399183034818, 35.82692240984041, 0.5710298408119947, 4.352166959332762, -0.98643865603331, -3.355084555748606, 8.417636860454545, -28.514087842186267, 11.563923201580662, -6.918327633567319, -1.3139097496947725, 42.20572806988822, -15.82334451096512, 22.496945885226797, -12.325857055963045], "model": {"hidden_layers": [16], "activation": "relu"}, "model_name": "mlp"}