{"model": {"activation": "relu", "hidden_layers": [32, 32]}, "weights": [13.756318058085517, 8.942367006886968, 0.0077816132266992355, -4.7652943121742855, -4.208663359166686, 1.0519717934786235, -11.682634844954475, -18.48461270629102, -0.46330232306942437, -15.642817814220928, -16.404845529732274, 21.035532002576296, -14.195410377703809, -17.28344073592216, 35.51140284147478, 8.234641639482946, -13.213325361611705, -9.192906609803453, 1.1704022419019167, -26.391760442897013, 8.42786480443217, 7.3958342966686725, -8.656863415944798, -5.154271689804013, -27.398008337777423, 29.67203983755232, 42.57945031010417, 5.334096920753273, -16.250214637923253, 11.32954237018703, -33.45748983399012, 8.175093400536953, 0.48632837645823046, -20.899040137060023, 26.968187792745834, -14.110830190137733, 13.990810290576778, -19.655870017496166, 31.568142980822817, -5.598969731376521, -14.616966793469556, -1.4147599527159667, 5.916574527472792, 31.499156699830323, 20.08366680343698, 23.571456238560273, -0.4319182597366547, 39.29587710558359, -0.2988375136730156, -35.06738253743369, 5.228905049983655, 3.107527425779407, 44.23125339794883, 3.73286199012656, 18.36680048693062, -7.809483481826025, -8.387266986244105, -9.416770736270347, 3.847385751789918, 28.0348108223765, -9.155377823385315, -18.71358187337924, 3.1988616677989334, 1.144712110215649, 4.8777995743487335, 43.12010325463939, -19.853864921416616, 10.069083344464216, -21.894224417955613, 7.077249159146348, -7.095029681718616, -20.19533514865465, -13.827285857790228, -9.873606307283021, 3.6274966738647465, -15.964362889095288, 2.1186468540217236, -8.960492899154662, 12.563838648030783, -23.528179584388322, -17.399091743395143, -12.03381329613538, -27.874049959759553, -6.100070685757938, -17.332178201586395, -17.34135669237509, -19.872925619161542, -4.164003951209934, -8.00565384508955, -9.325240729043905, -18.370622235614647, -21.857448485258068, -1.3262500549750962, -28.010630230174623, 23.549029240442714, 5.3600495890808775, 6.714735833454684, 0.7749048584106135, -7.46133867764436, -36.631962618451844, -4.938006951886337, 0.7375280815819835, 2.1272342680735283, 4.391381711848303, 30.58977815845503, 26.67295790835525, -4.904017670091469, 7.791704507453416, -11.684951077293126, -2.6813726988557205, 9.178386115114007, 5.123050307853124, 13.870280965503241, 1.6197402008808348, 11.836602333361203, -19.697054313262885, 25.81659878654111, 9.033343907927112, -9.645214812577965, 20.85576033567358, 3.210618051516576, 20.742329990969765, 10.62150269549396, 20.591993126161924, 31.73256118315244, 28.253316388903006, 19.06016469147249, 0.5061858368321519, 3.495004237772247, -23.301991994911454, 7.897518983684704, -33.446115237205944, -41.73226171725536, -29.612232643339354, -16.421952288995275, 21.859043394453337, 18.171911845594554, 7.482318074960653, 28.985275656159743, -42.86288514250055, 0.5419850112996536, 1.5071855731819375, -2.650356378785156, -2.001056228529193, -35.86456707766583, 12.921477552590158, -25.690520953866905, -33.93725963958539, -17.87293788625762, 26.165503119535117, -19.70925662390209, -27.402376900936243, 13.248089115828016, -4.969843745849268, -7.577730056379525, 2.0698787467411424, 10.39883685084732, 7.308659970834975, -21.41585916880498, -23.770201641470024, -19.285154524342573, 23.74005131249882, 11.150712075177506, -10.783100394362199, -10.51117236479552, -27.69701891977941, -3.269874091833654, 4.339698785302148, 33.17411960301283, -24.641720899025056, 47.005420678688054, -12.262650210979468, -15.359481147989827, -2.9787900770695073, -29.944593136263023, 23.038464039022912, -14.558405325696196, -28.07793384689953, 35.8621755154295, 0.8684338364718331, -7.3675213061791425, -25.241296480170494, -0.4616138648974538, 15.639453640459834, -7.708917551377446, -23.834976719967518, 13.803311121260373, 5.77637611987547, 3.0991649810064756, 1.826079707920215, 16.812095463407868, -5.2045156758977456, -6.681655141788969, -13.313700312954031, -3.0248820062159414, 9.351375124215988, 5.312928956050241, 8.50160388596943, 1.3733944497132593, 14.220586723645932, -5.0483783621023335, 1.2847346824358885, 7.611643805900987, -0.710408767289974, 9.587469045470003, -12.57640590029671, -11.144183060741087, 6.891940711874661, -9.208927335352346, -12.508432526629154, 18.937160653338537, 5.39178626466419, -19.445055478102972, -6.2528094862155, 17.942089831252275, 9.719221068612988, 14.441808814060582, -14.321913517911826, 0.5985907664548251, -0.4905665858739927, 12.667660391665352, -36.53449067107629, -7.276183111253752, -7.949919889106633, 21.354321552010806, -13.860377441451995, -5.097069611499426, 19.328886524465215, 13.841189707234667, 1.0508867011222383, -4.216224623353572, -9.036372888811439, 8.128653206274725, 27.423020560284428, 17.217370737897266, 25.67705515454566, -30.769809052178335, 9.749457449217667, -15.884021364172511, -9.374327704173957, 11.641533911673278, 16.540328767020597, -6.444250570933958, 16.711604249367035, -10.248339445409579, 6.466575417560656, -6.8171295732185175, 13.224950106795657, 28.147590665077704, 8.503689264284922, -2.796509909875381, -9.358500708379879, -10.323485942165842, -27.855619466128896, 20.736646435891323, -17.080199535253698, 12.773201745804794, 19.0969620772278, -3.932848387286574, 1.0442951887482426, 14.446953252576506, 16.31449492080312, 17.02483639098941, 3.5631532045909875, -8.30441051522416, 17.30134721883146, -8.801670651142425, 3.1193360786140705, -9.913597941482255, -21.81621284877304, -4.8091112073360485, -4.035145637630111, -14.56994203325701, -7.12162656401707, 28.11939187830856, 23.110905631449157, 3.5929403158704716, 5.065904351018377, -13.428022568604955, -7.693838927857673, 13.811938369413083, 8.977022906153483, 12.667640203023321, 11.412397935123865, -20.148691127179916, -58.860549350194574, -23.76873705132891, -7.365319616930527, -24.9268501144981, 4.898172353474769, 13.83371063846614, -11.909801635928906, 32.13756920486525, -20.311160502698304, 14.682181433705225, 9.697897056845092, -19.940014144493773, -10.150096550388751, -21.917531918928884, -12.231753878276834, -17.988576310509384, 15.557230833812213, -20.935358063304953, -20.61411390243564, -4.925050401685387, 35.144737743585075, 15.291154368825682, -5.443918253402372, 0.9552835938122022, -10.563594755578707, -19.22333530589396, 26.544868061457056, 23.92738484723262, -13.053782508862632, 25.39698951830954, 32.31873612378951, -25.820345471324817, -5.316156985456615, -41.92910537203388, -1.1115026758485174, 1.1081160842018303, 0.995328331038686, -9.286797258894714, -9.04706110505499, 21.080941257182854, 11.86591998006696, 22.022442408066265, 16.256812612757297, -29.810586889176317, 1.632740601501037, -11.172469010492053, -23.026044312774935, -1.218022126359823, -28.695310742937266, 0.41660101697347673, 45.00057871573892, 6.084094043690574, -33.46766690339296, -16.010360515269113, 6.60832957622036, 15.840874489927153, 18.183495127238935, -10.12161016534634, 7.822596791194905, -21.70192620248992, 19.88861955388046, 4.548911591501137, 4.254614410703015, -0.11714630918304135, 19.046093669163533, 4.469212020236245, 3.456864224224471, 6.396630071873444, -28.049434388311226, -0.35111981775363, 6.292084621256445, -22.166577432722825, 19.283517928087544, -11.868585002858175, -26.486877093861764, 5.9649831153697335, 14.806995104210582, 5.689345593712748, -11.618118020815203, -5.357691210906994, -27.573186821232046, -19.748210175457785, -14.456587150787112, 2.983105225568079, -2.9904496148757245, 2.8767526262517373, 23.859937493466386, -10.84820136182389, -1.1942116652782666, -18.38758583174034, -4.822082251060023, 17.867061535784213, 3.813258275526721, -18.501432060939223, 21.58715847242419, 1.950447874892287, -5.3592642245671485, 12.462167601036452, 15.771494596537591, -3.4496574927284707, 30.94231119513479, -10.360559399333956, 10.753438907120678, 11.324417026489169, 3.705829506514072, 17.46438367914193, -3.7340396370540083, -14.720342309931004, -13.428785558708734, -3.9908123358837404, -13.055123477340276, 20.849967887285057, -12.654484269588535, 7.2225220683071685, -1.0206377162991578, -20.489510052510624, 5.0904308485339875, -1.2560292069589627, 7.288514981381734, 2.432360411540057, -0.8122388773788226, -10.666929191152104, 9.864957758312618, -7.5114165943473745, -12.108617466633373, -6.461081939743272, 2.265329896664745, 25.054888047512172, 18.99973819377221, 16.890776529152305, -8.869752437966378, 16.86753797754019, 10.094114389842478, -17.29891074048072, 3.150147996070979, -3.6763046652879536, -50.15934170270622, -28.49189752171722, 6.469911694195816, -19.189442085020488, -11.750897595244114, -16.2311603036572, -13.883076255698937, -26.031015520887934, -21.10679010142146, -7.734063445813332, 40.598128142443315, -0.7640688085059062, 20.009248196642137, 10.861352204792231, 14.101055966955137, -5.99160136610622, -1.4093474614028192, -12.296770789910612, 25.515258938834133, 11.92376885314849, -11.941610563209421, 5.470209373157179, -22.64812526085911, -9.144146478924842, 16.334428172242045, -45.44561041463188, -7.82134640597295, 12.355886552402024, 6.913693904476362, -17.652574448581195, 1.8043890610223765, 31.419030525532545, 11.299846598543045, -16.395249449721327, 15.778193745980516, 4.638021838207625, 0.08978965951289786, 13.089423290826828, -15.656174149272582, 22.60868413240734, -10.514208483161568, -14.624342891282856, 9.943846441982668, 8.529602002673103, 4.12003217215844, 26.623435508359634, -36.41334154383603, -7.8479944949378195, -5.9035627012761624, 11.869655408073935, -3.4809832221967283, 21.06128853424096, 3.496980109119127, -27.61183040305708, -3.26792148959842, -18.95931735387013, -44.085851794327205, -26.06815595047752, -6.346708373128776, -13.698259493576588, 24.7855659503295, -15.4547378747121, 17.588074245192118, -4.090564743299941, 7.147683953647664, 3.958686974451215, 5.712234424795935, 27.470186207092706, -1.542555868441519, -11.403558019254849, 20.542995166590984, -12.326169331169037, 35.62642620746151, -10.475077818935304, -21.614155629613226, -26.494265694216626, -3.0328592786159954, 3.808266843074889, -30.157856002237573, 11.275900396794729, 16.88939589428951, 5.057966886435692, 32.88676804720925, -30.87491936603513, 8.254053339799057, -1.245541011902581, -2.8380460835605934, 14.874262429694445, -7.145716093395181, 21.21445427786885, -14.037767745007898, -4.42855676773014, -21.99581940452324, -20.07071996342594, -8.252161838174406, -1.0240252613116372, 6.32453452906722, 2.69776143090154, 1.5425090954486773, 11.656627038608596, 10.280050972077339, -8.920496579664238, 4.791291484264585, -13.60438357945887, 11.111105967958096, -14.662696297657961, 13.175156019745788, -6.5596303633564865, 4.176950731912173, -8.484012231756621, -17.931126609510123, -28.692740125001144, -8.59358797946604, 2.2647795538029984, -11.491417577355794, 19.759302519784203, 21.77144678738205, 1.1682217365138012, -4.765136951588981, -7.220371506446763, -22.975571037337613, 5.871507539281284, 1.805509530542783, 17.132626568243186, -9.268132711227967, -10.317079258719552, 2.0487500192499124, 2.926445781951395, 29.133828470987456, -3.8826317575478373, -4.083816551295899, -0.16034716172498398, -3.917958339739471, 23.795853506960075, 14.993811047766737, -0.36421575746887846, -15.79588655934995, -3.1519988218152974, 1.5317013843596214, 12.0801570558835, 5.104636886884881, 5.137771352524047, -10.162965241799101, 16.406945743250155, -40.04016274400397, -19.42230285510243, 10.053223668778095, -22.210470482387823, -29.10059424134251, 17.332669589419076, -10.329343063881577, -8.521747333103564, -17.222953528461204, 11.427477154368903, -8.07428059893557, -0.8180068942897739, 18.30031978207403, -12.394666206070207, 14.660481472793535, 19.472803473112226, 7.36456146467502, 0.6338682123412052, 20.968383162460146, -15.187906623257355, -20.915307459930478, -11.808777561994772, -9.32442982028572, 53.67871424269852, 19.875961281499713, 7.291322916943655, 36.592629216058405, 9.913810169628235, 13.463128080214357, -13.855936654793558, -5.995840336656804, -11.57093616252016, -25.17125499749029, -38.00262170741228, -5.208363085693832, -26.749819315820666, -3.998873186563486, 12.278795290584512, 7.694938688878569, -5.483279926842545, 1.2004903056561047, 28.52974304578276, -0.9224510655144328, -23.78526164889677, 18.132342801491177, -35.98948178959024, -10.003489321176081, -9.535185194634133, -15.766405534567392, 10.934190883205032, 20.75785388664353, 27.005914778177374, -11.833980830570912, -0.5797628181653888, -7.433482623425554, -9.656801710452111, 37.80331709050182, 22.687456745952066, -15.478730195459075, -13.213180294193004, -36.10516867001332, -7.946209619534621, 6.797069169151703, -6.792820673002881, -27.29700505292206, -2.6211688700556723, -2.18476353259477, -12.914217311278348, -2.852972781450441, -29.15302787300489, 25.696719615539166, 1.9483917424103643, 1.6680084113124722, -28.477875324561467, 28.18606525417785, 23.997147761126854, -12.963078730194697, 14.307382832692001, -20.150511685795326, 0.038932020077529356, -0.25842044486813676, -3.2374150750824717, 7.375386936567042, -20.330479301887717, 3.858711943561465, -33.92393389025451, 2.1950565343695243, -34.836945897366526, 7.028027368121603, 0.9761908812117172, 35.71387477559803, 10.058862432060927, 4.649236202076442, -1.181545308436354, 16.99681723214888, 6.195377689932993, -19.513328199314948, 7.262857612545502, -21.20191430416366, 22.395191317690983, -9.238207008286118, -0.7575070206011507, 4.557440218082946, -12.268874117946922, -11.472849614420543, 8.833794601382973, 7.39699496717841, 3.8976520704002744, -10.50544681068302, -2.28368967087026, 13.094330834980374, -4.383860283598199, 34.71406038019963, 6.209458545973318, -14.421258430269987, -6.342467389074714, -21.463561949083104, -12.567637654463754, -16.162369459836864, -16.80375209977861, 28.457826714578065, 6.623419327814224, -19.385092023826896, 9.312611456279145, -8.339649024619748, -3.465437826747331, 4.368853394344482, -0.8307169744788216, 30.43686144294755, -6.120989248874974, -22.651035095262632, 16.238646006601922, -21.022622891294056, -7.343305639339252, 9.565189466513464, 33.15941162344833, 29.19319198132797, 5.57757267893853, 6.77884809463807, 39.41520978407929, -13.38035202633343, -8.79157779547224, 14.211715094994473, 4.106486654154527, -12.446330405061014, -8.130934006086113, 1.1075049955138099, -18.60893458277441, 12.27359600124761, -1.029267819944903, 7.151496116454367, 5.540894103597486, 12.344497655638776, -0.39790688519814243, -29.323680075469365, -4.759595147495354, 2.662658691789103, -16.31454069332977, 10.650622880266562, 5.392301954557416, 10.240187005618838, -25.33703003952723, 14.351398258586197, -14.108287399459083, 3.063615718612633, -0.3106786085124984, -21.085562643068506, 22.14670758297886, -3.660077227268463, -20.855844765031534, 4.289125094385998, -41.53642119214152, 3.6100940752989037, 9.79159758539257, -17.1021499945198, -28.275481018396217, 8.171146867345401, -23.724342277517266, 17.903293863175545, -12.1694706548406, -30.80578698973602, -37.04978448279611, 8.250656798222636, -10.827476954424721, 0.053005351054286026, -12.78584064428162, -0.03915588258999125, 10.336335176952357, -14.608923631306125, -20.16501331308849, -4.009258622525397, -2.453013637109195, -4.840285913402001, -2.987707094212642, 7.505458474927359, 19.389590119367476, 20.1480801929159, -18.52134341972215, 21.452359406894775, 14.785803463281388, -24.676265103845743, -39.206292894752025, 40.787544742764105, -60.44824097490593, 5.624859096274845, 34.05932312648665, -20.364288418520776, 13.016046780685201, -2.169131599347563, 12.265525881010104, 11.305681660267958, -10.83479586980726, 17.780416300177933, 15.48900212274868, -36.15391869403779, 7.560477112484404, 8.171029775562847, -8.83655003133666, 8.129829817403582, -7.740237332343463, 2.0135826666012475, -16.234818171766864, -14.169179727132715, -21.336731994681756, 0.8077126775011005, -6.921555703725451, -2.2755923268640204, 2.8158941244675044, -4.475008316942583, 5.672373210185162, -11.685737240212925, 3.828577832350769, -6.9376290757037715, 12.946610661016878, -0.9431857957858581, -7.873709590825472, -7.589451832347598, 13.90247619580351, 11.762949300515702, 4.70874979504132, -17.727120699615035, -1.1490267803000636, 9.732475665297928, -2.435563222370808, -22.08910507514118, -5.860179384460433, 1.9850819022487216, 31.966085337150847, -11.312525722675094, 24.11232762834973, 17.167153125199807, -5.586711513997256, 7.517433972811704, 10.464808862159552, 8.855078063410433, -12.72265394737892, 15.951852165758512, 10.095358678697274, 11.434310401364801, -13.024831818697338, 12.65285153117352, 24.845300253240545, -15.09839492706536, 11.087202739729328, 7.147115161846056, 2.9113709008931665, -1.8108306851530478, -25.105470237807154, -5.56715658198316, -32.03475571617997, 9.164962155313113, 3.7361305176921915, -4.665124087284777, -22.189804958841624, -9.866982660943734, 14.462218776267067, -4.151823695974927, -20.7895586152638, 13.542639324067949, -7.077695260673183, 13.377581063979614, 11.29579860087498, -9.156228189427573, -19.79570477959363, 0.6125771562278849, 11.173314219739854, -34.07610710864384, 20.54644415648073, -11.392249316202163, -3.733995845506556, 19.786270185142246, 0.17117194184234702, -5.639406338958009, -3.5413050072467867, 10.407022685180111, -17.84659464808251, 6.688033752107062, 39.25393176104266, 2.3614810400982638, 0.03834289691903536, -12.661449239852473, 4.428617588356059, 21.481132828906663, -17.167885626497778, 1.8462105760947893, -22.73462017136595, 26.480335055464096, 6.787997905710838, -12.943503338453207, -19.918076030175136, -60.065168912724495, 4.022324984673757, -22.0385113171469, -10.59168003723899, -20.271185689315455, 6.427500025987723, -3.327315322659727, 11.621293897762504, 11.751775456697999, 19.251069613606845, -21.255594894503098, -16.66588517806702, 16.345524542404377, 6.202077243433724, 23.250628924342728, -18.92225909240906, -5.597386908001349, -11.31929568825581, -4.441403169534947, -9.85860243951553, 4.805334938803712, -15.444907069253345, 11.069141023728054, -9.40095356787225, -3.3322489173634553, -14.47420112007479, -4.113851374021073, 1.9462521194285403, 7.683576421679454, 32.91527287132682, -0.9230887394166498, 8.370244951332632, -4.978877774424818, -14.12963527000139, 10.030069460737648, -26.301958535706646, 2.16150970606115, 2.030493194589511, -21.934727400319318, 14.037546586564012, 2.207535704487305, -20.837260052109627, -0.5161333866552478, -36.82888483504542, 8.482275410511622, -18.082741053990617, 3.8068986739345654, 40.98361512047763, 10.53624544199524, 4.192589434183327, -20.08896017983261, 10.06905960994685, -5.2505885651615545, 15.013354004245329, -13.191911228579436, -10.690752741739894, 28.074718158337983, -23.911721967512808, -4.385774569376636, 24.970081576993486, 3.8253840395829677, -4.094751456843808, -27.351300155182994, -21.352490696215085, 20.957286354446463, 1.7973679793474382, -4.185974478582439, 23.017140570236567, -5.620039695202341, -13.126812181741615, -23.302954318295395, -27.42016584723792, 2.7549070466859167, 18.236716543801922, 22.29180957254319, 11.93213282368079, -2.9125666811812847, 0.27080466425499916, -44.01199387531096, 0.09304777339982681, 14.752780847109872, -13.095959366369335, -4.0174264425198185, -14.174163262390465, 6.070525851145534, -22.544839844068235, 2.3629170177119656, 6.24708209587205, 2.809088913882059, 21.3922188455168, -28.258193895120556, -30.241414734081804, -23.444395377667423, -19.911006265718356, -5.275773684594212, -10.226007905135335, -16.40699064046658, 6.198730617430916, 6.964084710637249, -12.254571659348763, 2.8033256146354115, 14.251360497529081, 12.655024835573032, -2.962598975790334, 49.963494145116634, 4.358283266521589, 10.189335602064041, 16.664462129149744, 19.47489812639225, -20.238817033361375, 6.486966089781929, 2.3073559913579142, -20.17015680344238, 7.8576429548937385, 8.208961317108807, 15.272233708927295, -30.650826559030612, -16.121841309562335, -19.03313013928155, -32.44151874998687, 6.96450796817407, -12.309308261037256, -7.06142697111412, -0.11964039800544388, -11.265354780087048, -15.415797186018333, 2.432259971340644, -25.239666362553017, -23.18033635642869, -5.300709105713174, 2.4408971664954557, -3.1480621332029584, 4.375414199902518, 27.632294597688333, -4.163599960647115, 3.6534429236783112, 24.151226752270464, -31.130110680295374, -18.690731011022727, 12.508977156070113, 3.8921289443798166, 16.59303424677135, -10.771670537483171, -10.192030199295854, 5.497036115472598, -2.8556340994992233, -1.8453445577888754, -15.300164846582893, -4.755511514183217, -18.94086829021935, 4.619120495186428, 12.983198934743928, 16.210353782447335, -32.50397445397076, -19.01343038735092, -9.777272860106033, -1.870165142167378, 3.846294937621911, 30.67530761972157, 9.489351906633683, 5.745452526929738, -17.536011079305922, 25.08352899072793, -7.882327537551074, 20.0920563415817, -7.441990537170184, -4.18091587988038, -2.771775334063346, -2.6612845701227603, 9.52671644096754, -0.11305601484625535, 22.53018520645913, -3.9443119797681003, -8.38070436266607, 9.26552407640659, -7.6500473912006886, 20.557151501818606, 6.097391077824872, 8.177005369872274, 16.168821711454438, 11.682313757058509, 15.531682340579675, 2.605379236709543, 11.085452501620093, 21.73895922145139, 30.035262400128573, -2.4428450122477186, 21.80886700231164, -23.828867922655306, 10.741493153628998, -6.780874345261315, -16.009840376231065, 7.447599456030177, -12.236681745290046, 2.569750599574136, 9.18502526828322, 1.1808471545927248, 4.053294221551393, 18.983219078659925, 8.736711189574361, -11.299422632806152, -13.580604025528492, 6.468872341565669, -19.314980490171717, -5.8053343062824645, -33.14642080848943, 7.29616930472879, -2.022130343713037, -16.89924804419608, -22.97771499950673, 9.276325462617713, 17.960681165900688, -14.408497359551722, 33.87110426845861, -25.42171963417261, -19.070394690266113, -18.165844625093765, -4.841801983673735, -17.694013343589, -11.473655755443467, -12.249857189591214, 15.6014286028318, 10.37203168696651, -22.33791353167395, 20.750608891785497, -28.229722101430255, 22.8139879720383, 1.354226571195773, -0.15833040255044906, -0.0371347820993263, -6.445952245456427, -16.197442837918537, 16.55954045305312, -3.0388376863538675, -22.323935193220205, -3.1234595576909783, -3.7843358360693995, 18.149163525051378, -8.995975230383781, -3.783100630393077, 7.216951307020201, 10.498983063684864, 33.84899670896592, 21.993386775294297, 10.817882634486567, -17.340088248601358, 14.276022310352772, 11.46664971137175, 12.648738042975705, -15.0004845278757, -7.5230140723573715, -4.036972879954782, 4.645283052409656, 32.72649778830527, -6.831036598458224, 9.047780921907611, -20.196928259829743, -19.789370698341934, 11.850341573407972, 27.757683421966252, -0.2834520975234364, -10.493028197870856, -4.754748732259983, 11.591340332983197, 19.949731404983083, -0.09367797514461207, 1.6245413987224093, -21.579543209855807, -7.329046102151198, 16.95022839716437, 21.16905771927069, 37.42626378729899, 34.69488380929851, -44.99869766155699, 10.249868352552172, 1.3642192896279084, -15.576961526283796, -44.27760067657906, -1.580999832888505, 15.121277297795006, 19.01124761990966, -8.759377208294241, -7.456795453110908, -3.9966051412633687, -11.701935575451936, -15.016831446981358, 13.671289493670924, 10.221699054612872, 12.263876347914078, 1.322683672348739, 9.508277228873663, 14.824521124842201, -2.0540618755292384, 11.829003265289696, -21.4339515849341, 9.450275292856587, -33.431679043516745, 24.414208988441263, 6.225981492326435, -9.235483261772213, 25.88309914344014, 12.09338807172092, -0.09932487221305708, -9.956782299299801, -13.036219153898095, -15.260711716856415, -6.85987995850076, -13.188386879312889, -13.299522087367643, 8.480656692791325, -13.981317470983571, -20.01198299421631, -8.959229337236646, -0.49693172978095657, 24.246811517283042, 4.576081841268222, -14.82397099549871, -10.855090657148288, 0.5004890584024836, -20.911746539049496, 0.07103574512599509, -30.354096549739396, -10.164386784509805, -9.05985371654215, 8.968399445491604, 29.933783032766435, -5.91731359175517, 3.68724590090373, 5.1683689966406865, 0.36064274651315964, -5.636160691735941, 9.601677255360833, 13.43200442079246, 13.800739593766059, 39.182490566575595, 6.9134895555192974, -12.016196845279138, -1.0893248159378446, -2.6694980605388943, 47.44834876607506, -3.9327452292128324, 11.368276173317232, -34.57192710467034, -12.88108539223472, 9.548873006853896, 6.146766354222035, 8.34651728619855, -4.291489581026292, 37.46814901381729, -12.966084662532014, -11.921565823661483, 12.839344071950569, 12.250245506662685, 1.240743943468858, 1.9219224022670005, 9.62541853200051, 2.3176665806781886, -26.145870620372435, -11.57563452883624, -3.2361647576933525, 19.569441427121976, -15.697162146464006, -1.9868673975059108, -9.145963640843926, -21.716341124292473, -14.873697556000568, -16.091655447894492, 29.23157252329536, -12.039200125244273, 45.3578823123249, -16.174278530618302, 6.5914283191408645, -3.4056612997144695, -19.03234270482109, -38.56119001090679, 8.008813898966505, -27.912229577921668, 8.34611092581874, -5.649375330110302, 1.1023389933130245, 4.421058576844411, -22.001252006900334, -6.922722991990147, -37.89523931245741, 11.470207395267934, -0.027867167997361997, -4.634559167230302, 12.460770173645503, 21.167174094958572, -28.41432258282502, 10.927357008153823, 7.170607887302828, -3.1952435324885347, 1.0686540396455686, 10.457588827952685, -53.60803862407513, -23.82429648148118, -16.56748035509283, -22.21005687109482, 7.424137693112731, -5.710789477848293, 9.867712048372626, -24.55836900798281, -12.585669041950895, -21.874642334259896, 32.72581623262424, -21.78015328157351, 9.641657707070502, 3.161373424724709, 12.039878821555797, -17.11962998904279, 8.78016232500492, -15.05991665920537, 10.527681334149198, -5.316406784256211, 1.6433347073650673, 8.588323101742265, -10.488573492684457, -2.519446575575583, -2.109840984066163, -5.2920454075874845, 2.4735245413649474, -27.716847810740102, -6.306275115411381, -10.040725283965012, 27.182241898028344, 4.829156674772053, -9.477287212694515, -1.387341390184917, -1.2393325801687634, 5.377423757963164, -18.498334421819695, 6.6531539554962995, 4.376161096008603, -10.895780813447821, -6.957355679487945, -22.01912949456468, 18.689839069511276, -9.729269216552062, -3.067426695674633, 7.780710642718125, -12.29198884257131, 2.076609975155572, -2.7340116579276086, -10.851714552814238, -20.50187744780413, -13.048075342268975, -3.398445427139562, 12.638360542178264, -24.360654089664877, -2.086070954793708, 6.899866602390432, -1.2027873848385768, -12.547908284109134, -9.45205250319471, -21.05227511272018, -2.6694268063846924, -34.52094239763774, -5.268190847510321, -21.865006836376015, -8.378924110368382, -14.360439163891142, -4.84896820939605, 19.68977223596548, -3.8764070430239097, -15.177095764789199, 4.48700131165984, -17.638647990766795, 18.518216713489934, 1.489664213771573, -24.881754533928778, 0.36566499998811886, 25.579642475910497, -14.648187386053745, 8.76760452385572, -19.623478011631807, 9.747648072238556, -21.99136704828766, 39.78407230838347, -15.123083197703034, 11.585002642229911, -12.186695220408705, -11.641887025293109, 27.628960351356955, 3.637139752584569, 6.895414517810845, -12.364167664346985, 1.140765389967644, 11.417447686624, 5.356333412020076, -9.761263173220124, 23.559972185125638, -9.820958395109702, 7.06285971579098, 8.216906391175774, -22.232556148850414, 19.20141120071014, -9.727756139104898, -21.767456875495355, 24.888847938997895, -13.492114337637396, -25.117892937017263, -1.7827872999530203, 31.983983312138363, -4.834806693655618, -12.816385729763281, -22.018779791121077, -7.109162636255837, -0.6559535082929571, -23.251626866122127, -6.186357027908656, 2.098484589965069, -15.923068885540214, -5.997688785084584, 7.937620273012698, 21.702721577126567, -13.918668250673583, -0.5363918605113064, -9.058803419774094, -14.066484822816257, 21.121470166015914, 5.81828520626968, 21.20683592708721, 4.515490295202285, 7.571078025727042, 9.156883955910818, -4.5532281260201035, 18.023023432123225, -11.482391171422757, -8.34104390630288, 7.929025743744212, -31.222396571222255, -0.9150409883801424, 1.022287815630472, 24.182564332573627, 17.1758269318405, 5.398294305937558, 5.806941948805977, -15.72290141640651, 20.933880401108574, 9.36027852723548, -10.523732193864506, 11.553888551196097, -2.177387394947436, -8.811606012156519, -6.8941381371667765, 15.009738729378473, -30.775877320539564, -19.382382186092826, -23.186582285682668, 10.375069144365968, 0.4483054788638865, -14.557091293951851, -36.36280836815477, 21.09161042896283, 14.760137530540034, -21.241657105199373, 19.998006136266493, -18.137730192667405, -25.94073963899987, -0.4468784421836473, -12.710737680191924, -0.0019137426761895449, -14.159267229872334, -18.88625623427757, -9.961249809282236, -1.988833988067161, -19.507276598800022, -7.6415883414606, -15.700502191105068, -14.144732250184852, 23.881739901830088, -9.780764822183842, -34.30826569465779, 12.238694031411573, 2.0941038040580344, -0.4019999671897553, 15.777773962396118, -4.84755249274726, 23.353386378116095, -9.749997637849521, -8.7475937867856, 7.705280622981599, -5.455815316661052, 15.187956309973181, 11.054586415874326, 0.5211743101892671, 14.353251503759443, 39.66452795672136, -12.576681605074835, 23.793770679629112, -30.649701511773944, 13.297186701326892, 18.777540003742896, 3.981884281914117, 17.064588656530002, -15.75969942895205, 15.539279620268173, 36.40474036328215, 8.700701489623519, 25.659307301822462, -4.771708403896665, 2.303058806297302, -23.529292864021645, 7.659275118614526, 22.69824895984435, -2.3975209508976056, -24.948960275078008, 29.168635619688803, -37.67128651960032, 26.01521187783807, -24.866656236763514, -11.576173893324931, -2.6043874616893192, 12.594871863895678, 39.091526866057045, 7.610461232997318, -2.5409563054955466, -10.039627293274945, -17.474555647810384, 0.1383235465816793, 13.489214087894748, 25.437293876586335, 19.799475719768065, 17.133510671746244, -14.377026017295002, 9.239632104545121, -11.621160526277347, 5.715660263723991, 16.036196549148777, 2.7735361787226105, -5.701761502150687, -14.12980015323419, 17.784037447329908, 8.791310653457757, 11.192054870313287, 5.594233615948978, -22.906452780671877, 15.965327908479773, 23.62765563651194, 7.278488211049327, -10.793949750086382, 3.5832608482558292, 6.112260701713989, 16.697546937943127, -1.0589474072837253, -1.4254456043012178, 20.81066453025935, -6.451784072743834, 6.182897335377425, -16.028697586913975, 9.659692652593824, 15.484648493674168, 43.21383690122843, 4.3965358370522285, -7.278340029893291, -3.4113161110227566, 5.760560565682838, 4.690112643059726, -21.280261467385895, -5.541776748019269, -13.576189152884627, -0.7437915091086202, 10.1918395156943, -11.794280544808885, -40.531983604705005, 0.9976786259645323, 12.259213850714765, 37.936921547649945, -9.230596503280513, 2.4149049422630178, 12.264769341515276, 10.08618341792739, 11.142862142975321, 26.431675828708073, 11.269793915040676, 3.517377696248932, -2.4939187735888733, -8.938315904197033, -4.802315429355901, 20.259219766245295, 21.562438277573396, -13.235093008908377, 9.566214868479944, 16.836290408951264, 12.90457723287105, 9.51787750456768, -6.0390014565532955, -0.617472513688357, 6.543282358421125, -5.912296194221621, -12.329603403944516, -37.73799617557218, -20.91435315708035, -4.044832610157776, -19.72770358383716, 3.1845966704967514, -1.0079742040164272, -15.574780976414178, -0.6466577638848531, 11.216482481328326, -10.86374971980318, 20.45784300782215, 29.207784491295726, 26.4693740446405, 35.432991866468704, -1.8084714689024144, -20.197951725051684, -9.015422790918082, -10.499772416429266, 3.6800462847729127, -16.218577381209837, -5.097429441345449, -2.856907665829685, 9.938310272062175, 19.17130663348092, 16.06345776199814, 14.332194855232203, 25.37915067720194, -6.022851914011764, 7.571178489882156, -33.7064487869373, 0.745056402496069, 8.65191213866271, -1.543470792427497, -8.240181136626825, -11.420377162834336, 14.150112473381771, 23.866879173163674, 27.666974795326627, -6.093635336003863, -2.571031843171027, -38.18329269706958, 3.8922264090738157, -6.527299100082989, 6.11637156905147, -9.491810867479632, -11.412432917475822, -6.795937509220638, 17.637920317431394, -11.693062145394995, 13.371229354203646, 9.219904082357148, 19.647733229611557, -18.099986027920494, -12.003285922900362, 26.121828210495643, 4.927405094692204, -15.714702374173761, -13.227950956112181, 9.33995237805174, -1.880917265704404, 4.004484919432833, 15.230791736467177, -15.221652776065772, 5.21384900731798, 4.749820795070355, 5.470291584841016, 18.83806749957171, 5.283539529406246, -5.548279007412289, -13.66764037331819, -7.137534059819388, 31.00978592544023, -11.092097379527951, 21.91186693193937, -0.8604722611809499, 34.70461978957367, -38.29710729382254, -1.7751645303133756, 4.086224339010871, 16.5804348306327, -9.28856645115533, -2.382575999781974, -3.2889678588138596, -15.730943446899586, -22.047192298955746, -25.24559103563528, 14.123885996336888, 21.794466201955753, -5.895024805749323, -17.90186583749408, 4.492364598188451, -3.423736847255229, 22.09044790594125, 0.03169277282121319, -3.8432439870362582, 13.918053325905163, -26.169235243609464, -8.621672979316342, 1.634454900070798, 9.35743937752886, 15.321662389212449, -6.512510831303672, -36.7765219723164, -7.082715365094968, -12.027071235699067, -21.368834563212864, -7.18959644372796, -2.535169684514702, -44.42830722060668, -25.84635797679217, -8.886717304477111, -16.93718601935158, 18.73735663542531, 5.9539314504337915, 14.732359250735305, -21.062377723969963, -5.024765565380755, -21.39807846841645, 22.383265275248856, 1.5575404936377844, 7.579992182824227, -3.4917180834700647, 26.376993538681354, -20.93550006022277, 15.18584174529835, -2.86801181096621, 28.098708379746416, 1.0067376614071446, 22.643318682798284, -17.853424729844832, 13.892226315511964, 10.857827380730106, -22.353664914752006, 21.202865675647345, -36.90853039418891, 10.998079267128976, -6.633980650559232, -20.569456451837905, 10.799852303996609, -8.375778682648225, -14.920990041432214, -24.758430588465032, 4.7099537434623775, -3.1921353699298596, 0.9273186368513684, -2.7738050918413957, 23.1782349509882, -19.05595021131848, -0.5575037899407118, 14.529516198802881, 11.49778155163617, -0.5742020906927303, -8.863091136686984, -1.1605387511819363, -23.875105231914322, -3.074935858473058, -1.8861738228903207, -2.1856679934696643, -9.091155417245654, 0.35886840323353786, 0.7477895796428721, -4.93525895826574, -13.078862457837786, -12.62777194655524, 10.684825857464942], "model_name": "mlp"}