{"model": {"activation": "relu", "hidden_layers": [32, 32]}, "weights": [11.139336277205771, 2.911598360223186, -6.589525624224509, 1.7046681509404884, -4.622314692179256, 0.5921019336466747, -11.39692850348335, -8.21810073437707, -0.027909569727255557, -4.000456835221587, -16.887989340342433, 7.105306933887838, -21.422284414069612, -12.793007261133962, 19.515564599920978, 0.5606626379540353, 3.362990790410901, -7.769973740468628, 0.18119728058674248, -32.768397378657006, 7.695020984199773, 13.14169162657045, -5.406086211979312, 0.13740542625771518, -11.781284852354995, 5.616096662657993, 25.39156288322724, 3.454264303720782, -8.360394126279008, 3.021738944654018, -18.562999521997224, 12.43491399579523, 7.4267130528564556, -4.083397087038949, 14.949303298081057, -24.62483486983884, 21.099041089527546, -26.152083464526985, 33.009476472335926, 2.8365078449491246, -13.126171537984856, 9.329630932381075, 13.956562844796016, 15.543178318533037, 19.65710346441282, 18.508597816059172, 5.965883616335049, 26.972767123289337, -9.133002236574484, -20.462780819332412, -6.97971581469054, -4.81075067123892, 43.551110271162784, -0.42854332303774406, 16.56420995541571, -6.306449586625482, -12.828376570328158, -4.003944624067322, 9.190115395329826, 23.570065422483896, -9.361427588025267, -13.756420521208547, 0.6508163077560496, 0.0526957932308727, -7.085320185908131, 26.442240442875587, -10.667471310147475, 3.58807650583052, -15.278612379155481, 7.888481627172247, 2.3489153385578603, -12.717442445865204, -10.773394137053405, -2.3451168151484634, 12.78266334807043, -15.327814097343401, -9.327995990135172, -9.417023215015183, 10.512089511555606, -14.729518411116409, -23.850619190754603, -8.09997191632481, -21.416675984906448, -4.607242123973037, -21.099257708847876, -16.438727388395414, -14.108448769514403, -1.9111085823556835, -19.750534249907, -7.3170674844844, 1.9766800104979954, -6.483959332070025, 4.529164200297874, -24.723060465563776, 24.015429403076077, 7.419725733219397, 12.503726904766332, -2.0854814333543414, -6.050271064146505, -21.945531778664726, -14.507929805901247, 5.514519902796971, -1.222010569621089, 16.01576326324196, 23.755293513051058, 26.788144249675334, -7.325841049443024, 7.51245157088316, -12.727579667898162, -9.055630081076385, 10.544378067102878, 10.055026262783619, 5.912952501380863, 3.7925508829520442, 14.515347338516646, -8.969474366975529, 13.17877321089178, 13.236492313007489, -9.232210114128394, 13.85993147777999, 14.545086017204705, 21.13224901771051, 0.5865688008752653, 9.196975020409079, 35.52728131917676, 22.157165321670256, 25.21695257471543, 0.876367639287503, -1.1751982038156965, -28.259781824860266, 12.120163950074135, -20.394702403493294, -31.911610005219433, -24.195957148224068, -20.908283374040888, 29.944399748721207, 12.02617838671714, 8.042048818679403, 21.096699085458805, -42.92328582388143, -3.835295432215763, 6.793002376364741, 1.3759929586206454, 6.369497114855063, -30.345249673865833, 2.468793333626033, -20.939381907752846, -33.72670179673887, -9.023738500263827, 16.25197267313496, -14.875298063735157, -13.568559501273981, 5.179776444810636, 1.8441869168495182, -4.32633168583747, 6.377756163189719, 20.339245154576286, 2.0246828073078706, -13.904134656008406, -17.976925377893895, -9.608739151159112, 14.149710339578466, 6.831464836040453, 1.3476759688945779, -10.636882132535622, -22.769022580678172, -2.4082692230769243, 14.185507538093486, 28.12171205112595, -14.669816513368204, 36.14905926108053, -10.290463768145687, -12.024000786447086, -22.122104531030217, -32.691903303725354, 18.76327654389572, -20.189663264105082, -14.636559892782763, 31.446827051197214, -9.824609397434287, -11.194603978627018, -27.732395427019625, -1.762895119186816, 7.5790596878171455, -5.29883132359034, -29.18195315056729, 11.099058210231133, 6.451087286073246, 2.0170677060217654, 8.326401320435902, 19.82176522873017, -12.03685712857549, -6.071458044626875, -11.948848633279423, 5.21569723563403, 7.240826262982416, -3.489644690536897, 5.600377697559988, -13.244913142963862, 14.003062780247353, -4.5159109646235205, -4.139143760738164, -2.6789624119333375, 1.0375088756327282, 1.6907317563988054, -18.068473919650003, -5.921493340995091, 9.735081708580365, -6.663847201382944, -9.296436405323506, 9.758479909559536, 11.752823120603889, -15.597471024245989, -18.27489104640245, 13.481866077277154, -2.8839718823210188, 2.226611069477811, -20.28701476091072, 8.28150375496017, -10.328561895141178, 7.754164478681434, -19.178405028025185, -11.733523939626936, -14.867873134803093, 15.09871494655083, -11.459165972423527, -3.7605431421781246, 22.754909415049966, 10.096442013875116, -5.913140617027638, -9.148659309532478, -15.16886839664667, 26.457921452965465, 19.774004071073108, 19.172524875323127, 7.893943132086572, -17.9689702236901, 6.967954309124727, -11.07330114664531, -2.634672295886143, 15.490501256222599, 12.728110679247584, 3.686207016223441, 17.41111184968033, -2.3523963290240366, -8.060332462548939, -5.228049882881631, 10.48876644983375, 22.558945810336713, 8.818061352721337, -2.3299619402948135, -7.969805539241953, -0.0020980385066002305, -24.571695289549417, 12.176061882274244, -7.679030625716284, 4.180600146182318, 24.157035266362243, -1.1909814891605168, 2.7161945713398983, 16.96422372955184, 11.028364331761585, 10.634139363122323, 2.470637878546088, -1.0519707004341452, 19.347393274733562, -4.149319254891363, 3.5611633783902565, -7.081053230044067, -23.11328769820564, -5.67267102285542, -0.8323609076300545, -6.991529253253772, -6.240676882100349, 27.200498421242138, 7.568350008047961, 9.417437703921953, -0.1302383346966114, -6.429391661298957, -11.264099615884934, 1.098379578208802, 16.140663256242842, 8.251955162578621, 4.877954317840453, -18.013818260947513, -52.837060362604646, -25.27967637942079, 1.3784952095135203, -19.91825760916979, 13.528608601740931, 13.326678594952552, -17.211493883961946, 28.21525202863549, -12.761406624782857, 12.89980906859606, 10.74161207313702, -18.129428270580267, -5.219475066643544, -21.559138767722654, -2.578619549307989, -12.400485031486017, 12.540072232110935, -14.02324954568086, -12.44414810410882, -0.7801495017428886, 26.12232872848794, 8.40137940858768, -2.05322523260487, 6.403253305393756, -10.954406226721842, 0.4984017648998633, 24.991442704110238, 8.305380938995864, -14.852032227436899, 25.097380427925287, 25.008854074370227, -25.96999925685359, 1.7647064192510091, -46.50147848841417, 4.163167105054362, -1.4684412815763743, 6.286312976933398, 4.905801683755094, -8.387873273356115, 20.909791320408036, 24.789827778469846, 16.070814831728658, 17.84029698529651, -26.909041897821815, -11.065946698090594, -5.516868868925151, -22.078086993267558, -3.1309416076478587, -15.042817910024704, -4.121949553006173, 30.4711971392109, 1.7764572170441824, -18.37479379320441, -24.232678664800158, 9.006361937877074, -1.6731169554991685, 22.20598009246525, -6.297702900746888, 13.61951109793153, -6.752059949628251, 14.021504724104053, 8.617235195880818, 16.72382822781927, -2.733213806734251, 22.677378717344812, 1.0798759255292905, -8.116899304619222, 16.386906927206972, -16.84266280949186, -1.9805052922460868, 3.1068402853708053, -16.03317646167155, 14.368987904000546, -5.03762225373411, -22.203140232264083, -0.28202116027827007, 10.50818015880706, 1.6937592627824105, -21.247251067208808, -3.3841610039761645, -20.165007181161602, -21.96400569434703, -9.32014144609721, 0.05685481090464012, -8.30210015322344, -0.8260538974293035, 19.298725718424308, -11.849783871661344, -1.1931842082748156, -0.010696615644983948, -4.214842282490217, 6.547902000833339, 13.621538298265856, -6.47817923850502, 20.97990550195224, -3.0620178037578922, 0.9963244056586571, 13.302980826605067, 12.265354338067322, 0.27409621792778044, 29.57958194890733, -12.131538966295475, 9.1745918004592, 18.426538993450865, -6.436676935420458, 7.715655615359633, -14.670878901763949, -5.646821028828533, -6.45076360636831, -7.6647684740643225, -5.110476208431772, 13.934360874925188, -9.646727403536087, 7.9329231895935575, -2.990414803669934, -20.215503525117676, -4.184300017347883, 0.5910264772805742, 7.718710812415038, 12.334844580556242, 1.1266010022103448, -4.57054377835279, 13.011609588573386, 0.04360799371045806, -12.995337595004024, -13.328606179044309, 2.3444521376726435, 7.7523754242996485, 15.274458787444777, 5.1521765008751546, 5.795785982035565, 12.59604780350497, 2.8317198084775317, -19.158811893755, 3.5736124829629548, -3.607647759113787, -40.04837246616182, -14.461132134739504, 1.4758978116605996, -19.050923411289705, -7.56472780326077, -5.058508036524002, -12.717659493883604, -25.757563953781304, -27.402719011931087, -12.23540065925918, 29.496297110489113, 2.8982703835050305, 11.831189750033037, 14.617661667916542, 8.246222757284102, -15.728293731474098, -13.383055601720423, 3.751345500454269, 15.278289695369907, 14.10334340736221, -15.305908869774179, -10.758358058079121, -14.575851715663642, 1.420526272831511, 22.519366395363754, -45.69961291188512, -8.048548701421982, 12.666707790038107, 0.16254285615902397, -26.94964237843667, 1.155008359251096, 24.719781029987608, 15.500553144860397, -13.517549954035669, 8.231222849641822, -3.189023258861649, -1.004563862175784, 16.46050051651811, -13.729111652224848, 24.341697380027156, -1.5382863446811077, -6.619888931751333, 10.109068294181146, 4.674133423604839, -0.20898210751830773, 22.961749115132548, -21.573374986792455, -5.310825108769546, 6.905219053933307, 19.80116907784574, -0.16598136058011326, 23.493923288167856, 2.5246117313406895, -31.332536401942395, 9.475417207445076, -9.999912136324234, -26.866285343254575, -24.205312545325476, 1.0814398858730467, -11.188885442143576, 14.128651066209864, -7.532327889060985, 27.36289187109429, -3.985039770751875, 20.81027399020279, -2.4240072576930993, -4.4152848483458795, 34.50493476826266, -9.737903301208684, -22.536605557456546, 18.59972783060595, -20.748533172024285, 25.705853657598215, -10.090108912770512, -30.6245395235826, -36.45325404694703, -10.243303996656445, 6.045971961146804, -27.941188405621944, 6.6002069800527305, 14.535854644488477, 19.40533241035935, 29.156259147091006, -26.444121961117098, -5.815876015899149, 4.482496382191557, -5.84680012681651, 10.6598758203046, -6.62329709268925, 5.0718501520230985, -9.278912954056848, -13.210652907981698, -18.686797502597425, -9.029324026654471, -8.906741940911596, 9.808969915404097, -2.85066891143815, 0.6497260864892016, -6.959677963615035, 9.444792927934522, -0.36613456076657136, -13.919805732808634, 8.8652563800951, -12.743959040813284, 8.10339531980009, -16.095930582431798, 16.28935569476497, 0.9223218312663416, 8.035354525994288, -6.718923278620005, -14.787122407271417, -16.37137978058404, -8.483875431398728, 2.657759258797503, -2.805660844313455, 13.618731751794327, 23.89210679850839, -0.5925216668986059, -9.893012511384523, -4.183229359014216, -9.629341615831155, 1.3339899335731948, -1.983993199963808, 8.065721338100108, -5.353212881832291, -19.357808915452377, -7.895241639394886, 3.2394533218092123, 16.82856485343076, -14.438487727023865, -2.7383805876360188, -1.7337472803280543, -7.166203896435155, 19.19369441339905, 10.884779797744754, -11.712359905324435, -15.700297066082026, -1.566311694020254, 15.718606635192565, 4.912958357314335, 16.966894518012452, 5.680588026252477, -7.080514803425965, 2.1467785717391337, -42.94016072295422, -14.595326697519699, 2.67290563775204, -17.488014736548504, -27.637612169964946, 9.185159959157104, -21.554293032850598, -10.835919117146744, -19.773651895935068, 16.233572773244685, -17.72218346546115, 0.6558885914296615, 15.884932065990645, -15.08564054444099, 15.519407502377119, 17.622096994702545, 0.20389726962384971, -0.6335168408125317, 13.760256053912913, -18.361364267964472, -16.97508389026786, -13.186625341343268, -18.646532775389847, 50.04612584585759, 12.104669824127713, -4.009640880194243, 32.27594134707714, 4.393519708482396, 12.409474142433861, -10.576484564504293, -10.159717735820504, -7.963635611586412, -22.212382761057082, -33.888713623731654, -4.585928979449038, -32.86651166815429, -6.068530627384802, 16.231694936341537, -5.245239206546209, -11.167360585705426, 12.789497633677573, 22.560173839105673, -11.99220650899473, -19.690175568994434, 27.44540129796346, -31.522450196111343, -7.103726660025079, -5.183507134532779, -18.916520358083048, 6.5388028817735515, 15.650991622035898, 21.889417426333548, 5.025724041892032, 1.7277339167843397, -10.424393474091989, -14.438267472743092, 34.14863973576819, 22.522695392793985, -2.8948138394440557, -3.46449787756855, -25.429160908539398, -8.059951833149727, 7.263422028641648, 4.530291537861045, -18.2179589858815, -8.02800789304549, -4.129508899783757, -11.311145595066542, -5.05403576553159, -22.88109424006099, 23.05921524706358, 2.3083640287160225, 11.486462839182494, -26.578842728927263, 26.792134470235542, 17.128661620524436, -14.696981456553731, 6.997311543626341, -10.25216348799013, 1.9570210128412115, 3.2300172421304665, -2.169544638209037, 9.016507479651311, -28.703800388614734, -0.973297310972362, -29.035095812073887, -2.8797555270570188, -25.62372649942591, 11.23907536901008, 0.9816481767560805, 25.190375846873756, 16.190095008203865, -2.7637528752175164, -7.321977118336069, 9.849049388002443, 1.87698442529517, -11.787366008880502, 7.490545156885979, -20.642733669329406, 16.23238017944107, -8.361832739951074, -4.44386275989768, 5.347241125766321, -18.160383604311967, -5.460543822722527, 10.02586727868006, -0.16226032455108697, -7.320581900911678, -16.199715367438056, -5.031531363106221, 4.282585032428768, -10.93348558304476, 27.909616955255242, 1.9758723562367073, -20.071565300788482, -8.918401839387819, -22.90886236108861, -3.8334464037308096, -15.370140032024779, -15.96988779449993, 17.975750451749427, 8.158697875747613, -8.227411770498263, 0.6463095829303948, -5.5653609632603285, -1.4929568354294056, 10.343860634027154, 4.506313652511972, 23.47243539015184, -3.84890272542186, -23.292041054036638, 14.359808685352695, -3.6447325821189778, -18.571460680550558, -0.02290608683562656, 19.86261986201874, 30.359093547150305, 1.6297427890108225, 2.298715273446745, 32.75064544411667, -13.319943221591538, -7.423539522236245, 21.329296399941203, 3.17966582262795, 1.0702285880651774, -11.01593680804018, 0.13865370592893445, -22.718803215843472, 4.190042715116361, 3.6673818723591745, 12.327761608700142, 4.667719081401141, 6.619899057919532, -1.240639804147548, -34.63286433442084, 7.238127042420016, 0.22339856269187175, -6.416929364494693, 3.9406161540136035, -3.1958587625655017, 19.641754940467234, -11.61103934531472, 7.54165352602004, -7.940142213458855, -0.453814855089623, -6.008983256362154, -2.224017482636059, 28.14044159715087, 1.829519031102603, -23.007760381283585, 9.419746749391011, -30.221351684727807, 6.173019593527006, 15.947204535414537, -13.045728983363547, -14.399064939836574, 6.983255303872958, -26.064027216173127, 9.619246896297252, -8.053962926160784, -20.426204448725567, -27.005108320605693, 4.860297474599835, -10.503248611773822, -1.0432974037904676, -5.144410891863798, -6.749510936861105, 14.20504213477698, -11.846099367843218, -20.917260485787825, 1.115356525284364, 0.8350806903774947, -0.5327351400300193, -5.953652869017008, 2.8032415193758027, 17.841364267896093, 22.332854636172176, -14.166467861567305, 11.862902190451692, 11.912934058560182, -18.668733001817404, -29.56647261745813, 29.851514746624343, -48.11082755179874, -0.24357316363857678, 32.19090651894413, -27.682018728834475, 10.5770942495542, -4.384099219271063, 11.230640145817274, 8.735860194675, -9.010901614337072, 17.922575121771303, 19.12494035080504, -32.9838016856892, 7.7873660645358465, -0.6275335244914066, 0.12122467469279652, 3.5777496817059338, -5.295289709267835, 4.021322004704465, -19.06202139982054, -18.194464259949246, -10.278817918845105, 0.22382784355571966, -21.045404592569874, -0.22918257975076584, 4.029489434378562, -0.16552196259839635, -4.838951573551277, -2.6660253086844836, -0.6585700318897123, -15.902313984174949, 7.962792970068901, -0.7139634938291795, -23.46429770680249, -8.618062821141635, 16.832915774952518, 5.183253345796173, 5.447809227493282, -26.220463796042193, -9.683228991441563, 13.212079372018575, -4.4497706918686895, -22.94837197190328, -9.541430833686887, -7.30237836370718, 27.889149142723866, -9.973256588159233, 23.953886754549234, 6.3991456451897, -0.5050090081653413, 4.573195396861194, 10.155971301405504, -5.336613479067175, -13.85750716378667, 10.578519427864187, 12.719051117447197, 10.814033776184356, -4.529161063246868, 13.691042086490615, 24.868320187384477, -8.972584809252654, 10.828613012071386, 3.292517908127758, -0.3562569362288804, 6.203277352240161, -24.04572606810178, -5.071598849933421, -24.988310932151666, 4.2404951899159595, -2.752090269043435, -9.801494025786331, -17.769042453661022, -14.743300292727993, 8.294861314930683, -3.4281086302226056, -13.831527530694746, 9.640203980839601, 0.008004563365733741, 15.874886244395634, 9.519115265294307, -9.320044961921731, -12.834241291389818, -4.648891047259456, -3.0558352258342953, -30.249627817027616, 16.26254596205799, 4.036880094606472, -12.379109315997246, 8.943196501939928, -0.5572360473740147, -21.070976112754533, -4.708444509558559, 11.481892152231175, -27.82471074959082, 23.608858008540263, 32.9075634559271, 4.987604238547604, 1.505426447795942, -18.599417722104608, -2.300785024302969, 14.729382358441688, -19.73465643090565, 8.457599918880232, -21.063706397067076, 18.682768786283763, -5.165273740321564, -10.170684777418161, -17.659254245503686, -56.944877292584586, -3.8147830810148924, -13.1283574760111, -9.093213615391956, -18.845204810892902, 6.00980193979545, -7.702436387963704, 12.875558293868231, 17.439560077450505, -0.4791796292560713, -20.552113071842875, -14.046468142689085, 19.040994566898153, 2.3776461265476563, 23.94351532721876, -15.710113822374606, -6.234896528434979, -12.299426975696957, -5.607322381980396, -12.430664768165492, 1.5425606531892335, -11.742918424075661, 7.055154663482784, -8.37177789651773, -3.5738458641130215, -19.41852255756359, -2.7890360893726935, -3.3041835907066086, 18.660282843633752, 12.106730167362711, -0.20860624705749387, 14.239187221176712, 5.039551984645378, -18.43977750052843, 12.927996581183859, -26.03704770269432, -0.15999397689806705, 6.817539390775473, -19.15398518414051, 14.051660085962613, 8.599645660937314, -10.469548100341433, -7.45023258976321, -33.1166095154695, 7.170107084868451, -9.32663493888573, 8.363942140308183, 37.734094320069424, 11.940226389798122, -0.35347302922381685, -23.69408398607476, 13.696851360817105, -4.628643737029458, 8.926346164081517, -15.259556586546125, -0.12335116088700099, 18.491403566115505, -10.65682567602062, -3.0124542073249487, 25.426087529659878, 9.143326597900272, -1.1849887088603823, -23.599887537141267, -23.2638020536169, 21.15377915445451, 1.7684387691808001, -5.827948160299486, 24.01074316189628, -18.581889832259794, -15.472247849307657, -21.768724868205144, -22.08204405366873, -1.7969424383885906, 10.869886922359198, 22.881894838449956, 11.54379077199877, 0.18976065602181896, 2.8355250014372, -32.40077702697777, 0.9870238295560418, 24.247039434594296, -5.057043523407174, 8.381932592837403, -5.264403986960664, 0.4848252568810121, -18.903945259024994, 1.2076721052493014, 1.148537831971706, -3.6973104353549404, 10.089047185159846, -4.6985976805700265, -27.07539076111645, -14.918304880218422, -21.069614343076083, -4.962158726058036, -17.16328772157408, -7.988559872125698, -2.292778879011322, -0.826733687554452, -17.601042947334, 3.8650508364262866, 25.09438300347368, 6.001579137988061, 5.765303206344194, 33.859862699638725, 0.24785435752214469, 13.384067664716154, 16.86470609266593, 18.251773651007344, -12.509865135783233, 5.147901129292146, 0.680732817104992, -5.553899099255898, 0.15497637398480907, -0.13204657231310046, -1.4234631636257118, -27.40846322906154, -5.240685139217416, -21.844118497613135, -24.638631375629, -4.017851925510089, -0.27924137074932276, -5.373001131094751, 1.3113381054703468, -3.4489128591461564, -14.646194402346392, 1.5263377221914807, -14.6407308390963, -12.433948350652113, -11.82895076595218, 4.774535194351534, -0.43797013650608246, 2.6074763101272085, 15.768900572790667, -7.389751221585093, 3.500962101329738, 26.802809384732438, -17.98422631897733, -10.452991121558496, 14.959650866061892, 2.4089514825638707, 16.25638377836576, -28.29091227410447, -8.007999369503787, 11.336939606962535, -5.554504120069222, -1.2459932559453708, -5.053190899774756, -10.357918030768703, -11.139728326154692, 11.956140086138074, 15.378699310239478, 15.609038672644742, -32.45729080606372, -14.629675722645663, -16.970247477640438, -2.9718387575469887, 5.969471736744378, 31.6535241741839, 6.397473494394475, 4.048165740289246, -21.41579951395698, 28.26234432395679, 3.3263245750945964, 18.698781355972315, -8.140135357861686, 6.868962267422926, 2.7206823724985387, -10.816962114139573, 0.7510769074306594, -7.874221266688683, 12.278569446238064, 5.657713988362344, -5.846707582493112, -2.6945412024856017, -0.679307203994203, 29.74083751813586, -2.4776681624281873, 9.127760443690617, 13.501321278050007, 13.556390019636755, 14.171827377885691, 7.699881388572722, -2.3147597974350225, 13.646715848375157, 19.172905421687602, -0.28853047166503787, 33.69112780897699, -0.852789895109225, 3.1198595122800907, -16.183201833451022, -21.131071647150154, 3.08710465576249, -9.329591830594461, -1.0233269015106203, 11.898917061067468, 12.874055046317496, 6.243812664302746, 13.443280181260645, 11.472328731976766, -16.215851645066724, -9.808153371738642, 6.957427911848435, -8.46838514512321, 5.419679496232967, -27.496853668747782, -1.0258513507991758, -0.8759252711154212, -11.242933436990889, -12.360129251134232, 16.700003108836345, 8.525295280329287, -8.288493013117314, 21.089014825231697, -19.216039682646603, -25.195395628296342, -16.34544488881706, -7.85085893887625, -0.9458917680095816, 0.29594939869628867, 3.0673459150195352, 22.457260199460894, 8.629264238929679, -20.72766545189582, 13.096467021007452, -19.19362515352794, 11.328748177292905, 0.17244337832264822, 12.822768279525066, 1.638411173172473, -9.141470566148401, -23.104368766194813, 14.004757417731348, 9.638835604749808, -12.695552816824552, 2.4395507148920483, -12.342877826630044, 23.41663113123972, -6.5997969249566095, 7.2176944060587465, 4.36719971058061, 0.9069333399863095, 31.388749705490714, 4.160269121834648, 12.120679325358376, -13.922988203224206, 8.262551119805595, 14.86735293291956, 13.639669543839425, -11.950474540824546, -12.651648070910753, -6.017441081772203, -0.7952394028227545, 39.25036016841141, -13.617373929848396, 13.79997193290677, -29.751781443887126, -19.822618982612, 4.543287771445084, 26.12081250810425, -6.436489263790408, -21.484655828207856, -4.025185884549361, 23.182243266924697, 11.270980742047175, -5.477915890206999, -1.851943224429893, -14.688849145524786, -10.669690202683745, 15.82379299309987, 18.35786698564634, 24.876039811949155, 29.075498208672126, -38.12164064370611, 9.693409588890509, 13.650922932675524, -10.97705129370557, -30.999108300452228, -2.96972432408465, 10.532187690747557, 14.503687002524615, -5.936135500182626, -1.2705954755467097, -6.427492387263983, -10.213970873225064, -27.5787659779693, 14.842448926553823, 7.020535969392087, 26.310199748777226, 6.8291294991317315, 19.03144533122657, 10.426905041389688, -2.453690758238344, 13.689461799244297, -26.221454371797304, -1.7902454294596362, -27.9000510963183, 12.130533981502914, 6.019545230225405, -1.7139266917509381, 15.891332469025272, 10.604060871320197, 2.4257255826089974, -8.183086377689452, -10.212945480712017, -21.396665827175884, -4.300031817760128, -11.4331498203194, -10.170006433858351, 10.477334533125147, -11.133267801832762, -12.616722112331471, -18.869202852647412, -7.501020220498869, 16.148461985499054, 2.8693498691469665, -2.433213050862161, -15.434610796584298, -6.048582158561699, -16.550187084323337, -11.209121177483825, -25.07666000538465, -16.269210372360707, -4.093084383246332, 0.16212468612261055, 23.15693154506586, -1.6725142308093204, 12.796429090967681, -3.4149145350374472, 8.872145165273453, -7.202934104739651, 11.034689927968474, 7.681779680483414, 15.345235229960224, 29.315912691317898, 14.686330197437833, -13.508164269780982, -0.6671361559681859, -4.361535543478164, 44.95938142982273, -3.954860864282837, 20.06506992242378, -18.036802704099145, -0.42626241112412194, 3.626301899284401, 12.545922244771395, 3.8520586092702067, 6.694500071991586, 26.449697333119325, -9.86507681962786, -6.148161270483971, 7.0693827265849425, 10.794592074094604, -5.0789543731394815, -15.365625860459996, 1.272187265666481, -8.061901619954252, -15.491466405947484, -9.657952061734798, -7.661424167764775, 25.00844454272076, -17.02927970397933, -0.7164366499705529, -14.207349467810413, -14.03555540133577, -21.000465695014373, -12.40446250419329, 32.83152402501591, -7.165082029449657, 35.64611793278106, -16.583153510644824, 5.456099037834975, -6.33869430764828, -9.986125495960266, -39.69873003452854, 4.492787051287545, -23.08574904612251, 3.776822772114992, -11.022476538941813, -5.8393471747975205, 3.228260231972621, -16.471990716324083, -1.1152722285004644, -31.162569737726987, 12.60961280279754, -5.3163819147554126, -4.293574501027285, 13.147615756616872, 13.49040308049048, -17.161568653953054, 5.361412989492601, -20.629226934577606, -10.832402953588808, 5.888260471646636, 15.456884702792877, -46.489713079676996, -3.587338850058794, -27.36213887017493, -16.4275157907844, 4.111242098761793, -8.511261819727373, 13.739337924372874, -27.222217756406224, 0.08633043373919658, -15.861196792085654, 25.308592906605853, -5.719345309060482, 7.095568570905892, -1.1186540849820141, 14.818988196850885, -20.167818687901192, -10.00454557655077, -2.6029800072861136, 5.154974049494928, -4.557208857083181, -3.624442970560875, 2.6411045882987194, -9.18302039722203, 6.711184690868742, -6.1248061075647495, 13.5105489331738, -7.556614411110961, -12.999527796405301, -4.0296465876896574, -14.757156120259719, 23.879781893954874, -0.792890490987529, -12.847909838685567, -10.048527604932032, -5.323083648732176, 8.192631469133651, -15.657368999695768, -1.8352603007485448, 1.8490349609163999, -10.30196815968798, -18.67677752896365, -13.857565328878371, 12.840788520171744, -3.5094184829564377, -4.826886568751668, 12.90214086125328, -13.10677393418234, -1.6386504914460658, -16.935619700441485, 4.802845619325213, -15.454569411128633, -5.902071889203319, -6.510518544178553, 10.259527209293323, -17.96123349977859, 0.2677252268277558, 6.505283219365848, -7.548933559607935, -17.034324142232563, -10.945975700494898, -12.380571519251346, -10.748308880075347, -21.83570228739377, -8.626479514385691, -17.079505624669647, -6.14014670782085, -16.582001585101292, 1.921157888833557, 25.564195541972687, -4.938317178483659, -8.367892907213474, 7.211152076886378, -13.06739308635659, 15.275546244246708, 10.294911908796815, -13.679614823841439, -3.1570783550091193, 9.862769951110327, -8.747215397523632, 4.412688875588353, -28.398540528639053, 18.10208399609694, -24.0529436996305, 27.87185948707568, -13.131859273594053, 2.744453461678583, -12.508161434471933, -4.636198619928612, 16.424967946389902, -3.833221173108329, -5.869835347097389, -13.283684867839892, 0.4132472138686074, -7.314628353434003, 5.47914095098781, -1.6739495071462658, 23.701567103691463, -4.137684972988974, 5.692172581762328, 8.370191913177752, -25.94063748150748, 30.524814444457384, -10.022208877256077, -30.353286405114325, 20.653467062617004, -22.832189096698855, -11.46245435646295, 0.16481554016916555, 28.158473239081427, 5.946764616087823, -17.740570377929163, -21.359091173956358, 1.802202489533325, -0.9165610612295481, -16.018617142076828, -6.081881070035299, 6.201944659802201, -13.465560411737783, -15.695147863563449, 6.7063146405854885, 15.215085007385005, -14.690759653779134, 9.042886996241084, 2.176142134733614, -3.425629172265772, 24.075800241482835, -1.4062592387582904, 12.688514118914318, 1.0422441673814928, 18.74444329249541, 6.170395689605167, -12.529270020325372, 12.907154015356552, 1.9106329987865578, 1.0354973369755558, 12.296998435309273, -24.740036059575242, -0.5974033137866769, 14.136357227370818, 11.948487435756231, 22.491675305972205, 9.293421351394878, 9.870200881870238, -22.313881463883973, 6.147818461193669, 9.889659697102301, -12.915484844717678, 12.592500233331618, 7.356289617380364, -6.800412203294497, -9.04859524559901, 6.3606468476027604, -26.79210321368545, -23.469736801154987, -19.15820611402209, 9.966077305840724, -0.6580617632863841, 3.6184232302191575, -32.50478948248233, 7.824633519847888, 9.567391243138283, -19.4981890402029, 19.877028541515262, -16.32202012119628, -24.25578245761399, 2.0331086318591556, -9.771507268836716, -5.608068408424645, -5.6736400347192095, -8.644118218499772, -5.205715005757598, -9.103746544034719, -13.944782275402895, -7.39413068168602, -8.217113936364825, -10.427989214980911, 12.981921508998061, -19.41160095100803, -29.228535309794495, 21.61240098489434, -0.7591245539447047, 1.6182363157880384, 16.923879802312484, -4.165558785915675, 17.336190767116094, 1.1936011625846263, 0.6615382642307244, 12.273832503134562, -1.0233512887568748, 15.045073991945573, 6.912842469608604, 0.04588380256443758, 2.3676142168704106, 48.09739912568997, -5.7785421393572225, 15.878812976408778, -36.30875976800134, 11.834211176551818, 21.377731584375766, 6.506051359216207, 11.45449274862192, -13.041021752778532, 12.74640360549153, 24.996089242768395, 2.261071298305299, 20.69767457585789, -10.73100658655208, 4.653965785804913, -31.754274516928895, 4.315027416904949, 20.33058900770394, -0.9069752814367946, -5.206824904102887, 29.92989646606142, -29.806966380300285, 27.079219380357845, -24.93196132191216, -3.1983139260365703, 5.144765040363794, 9.821799591147116, 44.42767640645551, 2.020726485784833, 0.6396236259908034, -7.4092544395517335, -26.944254579510492, -0.9955058988025257, 14.63708383016755, 26.99412925319621, 11.424146310271626, 7.494105336633383, -10.744060259296495, 19.511071736971168, -9.829919730016238, 15.745074151649725, 10.752623682714622, -0.07888894305425453, -0.5544786349587052, -12.524108497304836, 5.399532134936627, 4.351566893011287, 13.776308345676576, -5.041315137719183, -13.566547536016628, 14.150193768632299, 22.364578327678753, 2.975921093501194, -10.243441427648419, 18.815289166485975, -12.245417202406633, 12.522944111319154, -4.650418113458621, 7.003196020253813, 15.713890320549323, 6.785345431864167, 8.576514756027459, -18.455164669434208, 1.3447600094424437, 15.347878206459212, 31.175165255075488, 10.849074658866476, -1.341321911689895, -3.045373973459019, 9.663782557893581, 11.468465537528036, -21.20679599058788, -10.135610358063754, -5.985265442010098, -4.735985420638316, 1.6003925522904288, -5.747778467412947, -19.97069076270321, -1.855452033306685, 11.887482541385198, 34.15235425230163, -3.2893241537326188, 4.5494123773657655, 2.8737472351265065, 14.10381290400549, 7.458522448777879, 12.135672248141322, 10.877010059607176, 7.1119884763202466, -4.135890732627541, -9.599346189053767, -8.306222200742747, 26.287496306486958, 23.257267872495557, -8.245411501756017, 4.128640130964419, 5.187095001883674, 8.491227070830401, -0.8527725734116264, -13.530885626806572, 2.126731425978744, 7.5126515607358, -8.846021931507659, -24.667581456486143, -26.483231853621067, -36.094597251622446, -5.052329615223476, -10.88993415587208, -3.202402290056209, 9.618439367182779, -17.00316495254358, 11.746224416530682, 3.280764274421799, -5.705767957470833, 12.592278333453844, 29.808633563766016, 27.10537727606988, 21.18301049317466, 1.9362133405279887, -18.619577753035006, -7.100215289629391, -9.538976929254511, 1.7489810960888064, -22.176013686959955, 0.9537015676773991, -8.767753090244845, 7.295463509385865, 23.482385157962682, 17.607666797743473, 1.9960819592127252, 22.104573537558128, 3.7024780604278775, 22.01510169749764, -38.20894233065359, -0.5657226952826818, 20.812073452142236, 9.568610710804217, -17.287839573652576, -6.452512387538965, 2.0470044110233094, 10.876275084459296, 32.12052802073152, 0.5793649665140044, 5.972402272560259, -28.547293150165576, 0.2665414619996501, -9.600379673314494, 0.9713806947303075, -7.2819301012599915, -2.7694970517998088, -2.305282355426199, 13.079832037899362, -12.245163294025609, 5.602295477302401, 8.82084529818344, 20.366563026990658, -11.47677628265335, -7.9236237348039245, 9.491377215735511, 5.748732794705223, -3.3518433002292887, -4.490791173458887, 14.092350043397836, -5.691504185895143, 6.699125163387755, 14.96776586568297, -19.877595887890163, 7.0405558882841, 1.8495958170654871, 11.631753590742559, 9.457213311248953, 1.1896155124747094, -7.052654607101534, -19.405691180916122, -4.164458569457935, 13.248196255023592, -12.353169780551655, 9.50852692771032, -7.44047978047004, 39.175695569045274, -39.42806600827879, 2.519768050451718, 1.967719034117406, 12.78730530241948, -10.33209931284734, 7.302732138646216, -20.792553636104692, -22.752206896591737, -23.64779046767562, -23.029099015575305, 20.613935215848645, 29.561806136214596, -2.278915625271173, -12.63089316255504, 0.17901415340012028, 14.74266336787953, 25.553724351400742, -4.7962946551611205, -4.0978700548487375, 9.708814416379084, -20.518866455649714, -4.627515881554172, -0.5529039077614972, 10.09733232939353, 14.4981687733986, 7.397556125559692, -28.373748958553097, -10.930174917709394, -13.138030176185609, -13.858737060367842, -6.64792311729025, -6.297583168155779, -31.290919355536886, -14.163293009458002, -14.13972958677199, -9.699454116294039, 5.821685925017113, 3.481598432896317, 10.361653602249776, -12.94007796795333, -10.517907349409708, -31.48153878865204, 24.817269493544668, 3.3742209499951983, 5.744474043728035, -2.7947847095666067, 22.667607845952162, -13.092955737036519, 10.873426649958423, 3.91874390949256, 13.719437888260517, -2.5420294547390583, 22.767277423523115, -5.068340246272901, 14.526884419392315, 1.491227170985486, -9.097857367216406, 18.40240780911465, -34.716123592004536, 15.72875486363737, -15.046892314182735, -23.025122570236025, 12.387311719211379, -12.2571278595749, -18.540209618538178, -22.28083480856002, 6.625127450321196, -4.844841764092652, -2.891222189850266, -0.6465700872271877, 7.574737696272077, -28.196867866645405, 7.8516633391700426, 9.57895628077233, 13.69602743392095, -6.69505489530981, -2.8618431157233517, 2.413724300805631, -12.555049233215993, -0.7622734498166933, 11.604051886885674, -8.484331148512759, -6.690505473267984, 9.285671740971646, -11.879928571914125, 6.192008939015924, -13.50298500662982, -7.359665261973475, 8.193417304149643], "model_name": "mlp"}