{"model": {"activation": "relu", "hidden_layers": [32, 32]}, "weights": [10.953857740031177, 0.37365604356667875, 2.541815069474336, -0.8903779282796849, -6.286141504375951, 2.4949416910917166, -9.020591737955657, -1.8118992909099267, -1.1370800505745597, -4.253650587237283, -19.51540510241346, 0.6991019782107611, -26.42897826269908, -6.4833345166002925, 6.946657782272675, -1.7406716955570354, 7.1653673856636395, -6.307595978435981, -3.299401773354357, -28.80702316740161, 6.894402119574749, 11.231208266887178, -7.077671282218637, 5.940509064827976, -16.079934872461493, -4.375505985671075, 28.999864376981662, -3.1103672730989826, -19.084806766413195, 7.916388021649147, -14.35911956670809, 13.84465887814118, 8.75047745306802, -7.886164556999507, 12.176402320108874, -31.738380893712684, 15.290814792017496, -20.393039801849177, 25.61877009852717, -4.064965248098111, -5.512303900032847, 10.16349162927904, 0.17680947748497122, 7.370044831683302, 20.975367772754343, 13.156022618281515, 7.932997239702139, 22.21945000444041, -9.435396566244073, -31.86627381273805, -9.449568308205905, -6.245537487798602, 45.07533390701781, -9.322299594071643, 16.34349003410328, -10.737745132597034, -14.069319362057819, -3.3434368375503647, 9.949390705526804, 28.165923861650214, -10.306057542629219, -11.890486981054996, -6.595074562449461, -3.653841722387405, -2.546304926984201, 26.9864522065203, -5.949383628206994, 1.3632700485432858, -15.744596950804818, 9.006657474394807, 3.8232696661191055, -13.869947548220466, -4.345634779133059, -5.00511350379071, 14.642508391742183, -20.45928421611901, -9.489302633913892, -13.97673751118571, 14.825396609131747, -13.833116736773029, -22.840415324733197, -6.1695855618762145, -17.71429893580002, -9.5683303504123, -21.292546272436496, -20.10695567345719, -18.905708826358453, 1.800425145433338, -13.474155468975763, -4.205567118102872, 2.183058880570953, -6.236930076045801, 1.3652095185900346, -24.04327699126469, 21.009153112640536, 8.307170969907835, 6.006293272425619, -5.810723935430972, 1.0761876231405134, -23.76606895740342, -13.708880666471286, 5.883641803310973, -6.011295238013755, 14.870292042814999, 25.31172421865547, 19.84890068726223, 3.291665762518429, 6.051356889781327, -11.554466280192635, -9.695593851067004, 10.978821212259703, 13.472669959046055, 0.5649218377256521, 9.280629543321139, 12.745523453829858, -9.69537000973845, 13.487456232567407, 1.5283642861913271, -8.038695005598088, 7.807963188248803, 9.153398969370329, 21.97458393983165, -0.03993489915531978, 7.7355382714761936, 24.578568355411893, 22.05901720958386, 27.395278109235957, -7.6434566453493815, -1.0445229471629414, -30.210460112659938, 14.612132496494665, -15.24428347120011, -28.51372196653455, -16.34542690097713, -25.05404016101236, 21.08402217503143, 6.825369498874606, 4.593517203164432, 21.551785507755152, -37.57894908706294, -7.971552641818992, 14.067847805434628, -1.2909123906240876, 12.41872271005874, -30.898881151715432, 0.4776430965710756, -16.92204465799887, -35.45042246799171, -8.922813976437636, 25.187722510526108, -8.295694034673678, -18.349962685070125, 9.814007209970462, -2.9277907762755735, 2.5298838106565493, 3.7418358888020347, 24.68530610268655, -4.644730897065784, -10.39545630906217, -29.16905807303749, -9.041586123891676, 14.769834347560812, 5.7339643823682716, 1.7577477001291548, -6.427639561073464, -20.164564130376107, -0.9726954935212526, 15.71946002998884, 29.010961306617922, -16.080706060641976, 37.32018192639466, -8.025443988933958, -10.035836452931193, -19.301594626164913, -25.412161187116205, 18.536557283931735, -23.320262493494983, -11.227855120096224, 28.463028294470202, -9.85275851082895, -9.20984149952333, -20.513301944461528, -7.393986928430676, 11.513930866293537, -1.6687432317826632, -26.71665899336987, 6.507979687993502, 0.8060106450883988, 4.525981326314173, 2.924342624444742, 20.815300913916005, -6.999289843890407, -11.152668862484822, -15.369631397250286, 4.430021479736487, 12.918163744313093, 2.369506017208601, 8.513710737185795, -15.456881317164422, 14.882946101656293, -10.410375477502154, -12.852172085766064, -3.088128051954145, -0.9638349936090342, 9.6485765996252, -21.260110783615662, -9.257762998609007, 6.79489284217133, -1.260245409960878, -10.525121158900584, 13.414750437414888, 10.50451746421017, -17.029688604782642, -18.81061313167921, 10.408474089779286, -4.31007826459349, 0.25675512194470307, -15.898997465079086, 5.113457427934522, -7.191858717690502, 3.3508683736020743, -21.887014300854595, -11.103659335870951, -11.314496856869182, 22.471638250298703, -21.031244472698553, -8.4887479268289, 23.68610326875784, 13.786760645184115, -4.464485712323285, -2.1117929176844368, 0.4144989330138536, 25.17576554547611, 16.982192250708113, 16.77464205585429, 15.067960717102679, -20.749578888883917, 18.816308584563988, -12.25795654967634, -2.8521491722706394, 16.415543252349586, 16.59329393637791, -3.5245754953010353, 15.117643099527957, 2.1137115478342974, -6.903796733694115, -6.743708277671426, 5.484741410467167, 13.924290904502168, 7.613642689530635, -1.8740327835893726, -8.286932069694236, -5.9245819753156415, -31.42238365922867, 11.428880843986265, -12.831665725689374, -2.1523728370755033, 17.46134835697527, -6.812804944414963, -1.7677697048386363, 18.758887456456932, 10.070607740781721, 8.138189689932677, 6.517387917026044, -1.6450385960926628, 23.60808237771011, -5.16268371970833, 5.473043198880156, -7.017379849379463, -20.59302578733042, -7.441904570244001, -3.296310263514496, -8.54900318074734, -6.569466017887429, 22.451867093197897, 4.995635489232343, 14.979280182310031, -1.1726127703161977, 1.1793704231868942, -3.1777798378985085, 4.967804412525709, 9.70974019101165, 2.45049827590226, -1.1421582097052325, -17.727587618083813, -40.490076179984115, -13.3594163792452, -6.294621551242442, -21.83525434457807, 12.500765432501511, 7.63115864574438, -9.797314194685455, 29.082021250395634, -6.841398425572684, 11.755821216522406, 12.700954533420356, -11.931539688724595, -8.768414962358182, -25.804157278081284, -7.029815410437573, -10.124639493211482, 14.590540005030888, -13.830202163213537, -15.201483696752614, -0.296012109102626, 27.781725355065294, 12.633800162896884, -0.8993032563835461, 3.5149788930896255, -5.156086320889974, 0.6939227187017519, 20.80708952282289, -1.7472592806619436, -15.063821658208258, 25.081622278796903, 20.574771801187584, -24.779445729892124, -5.1257012863978035, -40.78894173727225, 14.342383841097204, -6.693866331455102, 11.604360855830203, 4.3369365333428185, -10.917306811602183, 10.40224588113165, 23.340029951370706, 14.902376579311882, 18.93652780958373, -37.62844151220813, -3.266870731297881, -6.100385952120002, -26.961399268130908, -3.9389363128937886, -12.429238627580762, -3.967782052718697, 22.509164933288744, 2.9217832514924797, -16.60176692773943, -25.733315834639697, 0.791737064252146, -0.2873894442912852, 22.149670313116786, -6.746224908109514, 16.71569788443945, -8.18448791643028, 11.041297184075324, 11.90572785339296, 13.51170207923381, -3.9004106141338983, 25.4040186953454, 6.249369364575818, -8.303205552703208, 14.60459232644431, -12.131687181141855, -7.3613050620847496, 4.6584686947466505, -15.83075012575196, 16.278571888960798, -9.983376534634456, -16.186548545861427, 3.7420834257816584, 4.704142394194366, -4.015520390847639, -20.0222926558868, -3.0392000701579773, -17.446306059570606, -23.77101016637381, -7.222483473039285, 0.16841716441658452, -4.8872577006571145, -8.51838323259195, 21.90173244636126, -1.1358462634578173, -9.855712422539199, 4.126738198737711, -7.6550365116015735, 9.882816818609772, 14.334221946359792, 4.697646263807468, 19.31460578657098, -0.6919417767603669, -6.185074314915836, 11.730838504951864, 11.49837596635793, 6.111144122899121, 32.23336249364254, -3.7742858290466565, 5.237413527946565, 12.666494113900093, -7.742546343259492, 10.844345239520926, -13.466402977756255, -0.17735777224966964, -13.000409074914778, -5.953682313633326, -12.968694006841538, 19.22063574474221, -3.889778565044289, 4.771220545548198, -3.656425335113636, -17.876826063762902, -3.169736859285623, 3.1310948262174936, 12.222518596919706, 12.025015996228683, 4.486059069201658, -4.276760502860221, 5.683597521944267, 1.3476738500164742, -14.063189586816556, -7.084820874362717, -0.5632674079963822, 10.875129123232687, 12.76841747463969, 11.03863563355181, 7.046149209316531, 8.505179893362683, 8.464532492861622, -17.584772993057896, 8.687100920911458, 0.5961803537205597, -36.49495794734755, -18.673965548766144, -4.649964201761207, -20.90187197284093, -2.0704301516846124, -0.5445294033578679, -14.076977845096623, -20.8569998966141, -25.98681172138377, -8.411979661781443, 28.122590853347212, 8.126350168236435, 10.493395370367491, 12.75558831521533, 7.891663856830012, -15.812063963139975, -8.356834508921292, 0.6149566106091258, 13.187494411213018, 8.02176114485207, -11.891124129900287, -10.722177680846587, -11.390838943885479, 1.5158747521852844, 20.289276724119837, -37.426088660199945, -12.109396090619757, 13.181589872983329, 0.9616708492767356, -23.21553144950643, 7.408877840939928, 24.617580309583687, 14.641173092908021, -12.463318881211658, -1.6734271313743876, -1.782442901883645, 5.51594167977527, 6.184373400049726, -9.87637273908756, 24.464773409825927, 1.6749091490166395, -5.937525205793198, 8.27995274596973, 9.413024808366213, 0.33838625333734945, 22.726313760420584, -18.91962437513412, -11.006869585287971, 13.443682299669204, 20.530665553935503, -5.72539655386363, 15.481910034812824, 2.7126114241887076, -29.881673689768167, 7.480669367722946, -6.437345325336964, -29.933369232485983, -23.20694102177321, 3.1425097903190427, -13.891725953671152, 5.961316997882964, -9.990501976583726, 22.138560969277187, -2.3507052721469304, 18.352893675075936, 2.3210599436444186, 0.46019526219247087, 33.21913812059968, -0.5395039606270556, -19.5329503533904, 18.998270587357286, -7.532265762675761, 21.065048773651945, -8.291518304376561, -21.961291690832663, -32.60718911552488, -10.073854106357745, 4.633580494323816, -30.41414121057164, 3.994020951409919, 16.390471488620307, 17.42239499531109, 27.45030275700312, -27.43041593257954, -1.5776589482713566, 4.488833180719478, -4.076477851568084, 11.050975831707746, -7.150267701945166, 9.481782373660145, -7.93013223522763, -14.662579881291002, -16.47882970751531, -7.930905688936809, -5.697556175510737, 4.232591680116625, -4.918577368351158, 1.4414369196365229, -11.25093447778805, 2.4661462890733716, -0.14643849315188362, -7.647311354953337, 7.351625063188926, -12.59437181147619, 2.3256863890882746, -7.973628250775132, 22.648103138151217, 6.255867044566645, 7.34714553215389, -2.8494923787525672, -11.631713271783159, -11.340605403510308, -1.7879166814600267, 0.36007733366170147, -4.739539765570175, 16.605287232293662, 26.14673798455779, -5.764004147730761, -13.686989156379045, -10.443206315779298, 1.9203666660328373, -2.992769411039072, -5.6162916772206195, 2.0419183478349483, -1.457933213870881, -15.155491917909899, -0.14354366454308387, 0.031419574778368875, 13.232590145870267, -14.028946236126853, -3.8472124690488836, -6.528580358972665, -11.985330554906803, 14.178533835773585, 17.99674664257584, -11.325291577459684, -8.27527693118851, -3.1451993003041254, 14.107110682399167, 8.19957550418252, 20.374209862564346, 8.071997463891119, -3.502267126392532, 2.0222367752081594, -36.19110120918606, -15.599834285292628, 6.778712211645196, -20.187561007503316, -28.374234186821983, 10.833571470033975, -22.75031832793267, -11.281537971348222, -24.629701566672235, 14.503159842831463, -17.681811383388123, -7.496907702026872, 12.717362865107074, -12.864224837203901, 18.06185352815958, 17.714200745824968, -2.1333409499696803, -0.14782515860170276, 10.362049139901291, -20.23388723240777, -14.241546866287392, -15.325835662381795, -12.918687495223331, 46.76006812012629, 15.530415305550017, -9.43752100132659, 37.127816829492, 4.115983313003905, 9.800608880484825, -11.002326895294857, -5.073794407074921, -7.679671809554007, -13.178966573746672, -30.124846945989603, -7.937631499244251, -26.788615485744256, -6.4459276797879665, 19.336924681270308, 6.566796897125233, -6.346359597105622, 14.3330756812274, 26.708242391935016, -16.0408334451517, -15.209534276530395, 24.103780925461617, -29.39966934803813, -5.044821106706437, -9.79543851291161, -12.679001785130643, 1.868106323326693, 19.292956508371226, 11.346031176025607, 9.870221487859629, 4.254467084342823, -13.257302750197947, -3.8894215433354167, 32.63223314111904, 12.2214216368131, -3.1318387739993243, -2.968140900523404, -33.95294915847194, -6.896759435568579, 2.5657688017341065, 7.9589794489582015, -18.98287841266927, -6.254947603782147, -5.789284036964421, -5.383118320845824, 0.9494414652063873, -21.30968239523434, 18.17508600318883, 8.663592349332585, 4.733631470724645, -27.57725067750961, 28.415285419449162, 13.482853847969091, -12.965402984039448, 15.32564827581309, -13.418540505664541, -7.391185277730313, 2.6054731344391673, 4.916725467915854, 13.359781285138933, -31.82314499272671, -9.446735518748762, -27.604976039723027, 0.3700198774192308, -26.767969179672722, 12.044452321584012, -1.1462723002249124, 29.048988328389438, 19.6963842857527, -1.6441144669132863, -4.895263391799193, 8.026313040715058, -1.7137797585435885, -9.619815784860771, 7.213458383984598, -21.169265626791166, 19.05814185852519, -6.493891894558652, -3.1326507741398353, -3.5738337595165595, -13.932301657930255, -4.81086762980728, 3.5066983020370945, 2.155894067334345, -12.801109897882888, -17.70825440536966, -3.3496005105332496, 3.860498727937616, -9.947629079012613, 22.938377289984512, -0.311760827834869, -23.39717035676222, -1.2621591594718755, -21.538450547367564, -5.3582054272124475, -13.604758699972304, -11.954391470233404, 15.603811636975697, 9.930618556850584, -5.002079382510254, 2.943115572943563, -5.968578861993679, 2.415775496540936, 9.640184181000793, 2.903460865356295, 14.939472580537716, -12.001172451149152, -29.48818790044069, 16.680360950504507, -2.1546772787205857, -19.83946065144685, -2.45232706484811, 20.20348540050409, 31.043237123648744, 0.7413489028556599, 3.967211635482168, 30.493366577319765, -17.00620191542708, -7.7856096006168425, 19.442486097766825, -7.503426486318992, -1.3241350303411417, -4.707306021901308, -4.257782645373985, -20.43101629318152, -2.577424920593867, 1.8695383400449181, 12.069051520046601, 5.89968460093419, 11.763643954267526, -3.4286124075917406, -24.324617806524326, 18.709853755879994, -0.12426566334065647, -5.267163513111623, 8.852243544052802, -4.52512258734615, 16.184387567042872, -12.95314590927604, 17.173493929544534, -7.474996893064363, 4.7171741520759625, -10.988469403181425, -0.3470041935017699, 24.165922916948787, -0.523269867280094, -24.396974354781065, 7.722960056757581, -28.265007474279596, 9.132505492311465, 15.888535027866263, -13.174955355366189, -13.731177219322042, 8.005911929323679, -21.647068844407546, 4.5249806246246695, -2.5737272754140585, -12.79097569289751, -22.824304938059075, -11.171350634946, -12.110368046444531, -1.3557967748710489, 3.797937220811991, -6.095346018889747, 14.63651162147925, -11.196154897720806, -19.064809277425848, 11.126827769525656, 1.3473601495146983, -0.286280973798291, -2.675574273826031, 3.5056488116578555, 19.516474930231198, 23.33973531345603, -6.329164586076456, 6.788604900573364, 9.206554336392163, -20.113944298721332, -31.307650415689587, 26.134273492233124, -47.157792477393436, 3.924359326010917, 25.892903077055873, -31.52402585165009, 14.686081354939038, -4.7560129567779645, 8.482481230581417, 4.835317609731073, -2.886287428917396, 24.355530341007096, 13.075392572649367, -34.71679384609568, 8.166155469947642, -6.104650610478601, 4.688666244031529, -2.208114558401081, -3.7439912265627795, 5.891499750334613, -20.665738428614763, -13.475123371367264, -3.977489864204378, 2.472237456532775, -16.809401430242943, 1.1965226646204046, -0.5123288645814549, -1.2650497971513923, -3.9166613102765693, -0.6332472205681954, -3.5311668912466967, -7.164374260222681, -2.4253915244628987, 0.8978160042225554, -8.670526601037025, -8.057165936745024, 8.541318646710613, 2.9894478924210706, 8.194093438907055, -31.57823616225202, -0.3699102399112476, 6.309279018895238, 1.4596154551664562, -19.76882594420509, -11.397838811264156, -2.1468183957041207, 33.05657031167722, -9.337817478519664, 25.47649730623299, 7.06337485721879, 2.761527051995101, 3.502138152031343, 10.471257932903589, -7.162229835175837, -12.873460868288802, 9.23051976676609, 7.54827527708101, 9.870417453362684, -13.212257875438073, 7.669645190176488, 18.21648041019586, -14.214027649170388, 9.886794322791156, -6.416745626110487, -1.7562617558493143, 4.632063837870844, -27.720101372300306, -5.358415012022191, -17.548083650756197, 10.923541103862112, 6.023718668034962, -9.96284641882112, -14.480994549957893, -3.73967093124767, 4.849510162412971, -0.6611041783930232, -9.391690644851204, 14.89382649674711, -4.261332839946691, 14.538312852103429, 14.51977416077035, -12.962967949344915, -9.908432100825877, -7.458281283941519, -8.244433050446323, -28.729375912034666, 13.90062452057284, 7.375130086625945, -7.034991552627421, 15.543519261139018, -1.43221926132913, -10.177637620681322, -7.858346096360296, 15.434453994814945, -23.020384378373883, 16.769904011769047, 36.252181253021924, 5.453347749244376, -4.146323269462195, -11.474704639527022, -10.320803467594622, 16.0210372045309, -16.550556864197056, 11.862751900162351, -28.900132334574067, 21.291756452546366, -3.7306256367927086, -6.44949955898815, -12.183479968409532, -52.3178572571982, -8.031621152983773, -7.636064148683612, -9.463648531243821, -15.675311179683375, -1.7833762724744515, -11.26455677101293, 19.787581983228964, 13.865754951657303, 3.9423905388383957, -22.31303148781553, -15.636721451285114, 8.799281126628813, 1.423818900739663, 26.11768677383041, -14.049573303127957, 0.36650924652816874, -15.668116913684635, -8.360126895389552, -7.5827242298478055, 1.161047963186729, -13.438818597051638, -0.27888253819636893, -12.207361274029543, -2.8707903485840287, -16.85568052828194, -3.046742411805814, -0.05662672091479881, 26.980606515685952, 13.91035309293373, 1.1787911789550607, 18.026703964409986, 4.60721500254883, -16.23026668959832, 8.706115119544705, -29.219083611616895, -0.1888360257376489, 1.398587041067679, -17.7738326573879, 9.758285429912325, 4.196752581186809, 0.20550070994114988, -6.5840720812992215, -27.848129099327178, -0.15427848438716685, -10.201716817845819, 13.003071345535428, 35.495986950879356, 9.770956992897112, 2.4393475050252453, -19.147058327535465, 13.60494108643401, -6.472317642011532, 3.0780526023257013, -3.0368783218251436, 1.607299385653217, 22.237750039314662, -13.85702811539595, -2.1198186280220024, 29.85853447266865, 9.345402371699215, 3.795424840738249, -10.130936594005663, -22.330102427035822, 22.43753237090472, 1.7788675336392394, -8.061894983481109, 30.258288196650145, -11.987122000838992, -10.146235881155397, -18.43112244539522, -19.27272760195603, 6.695350453457953, 12.449266470824591, 26.410551085653168, 11.142388742439401, 5.711671596210099, -1.9245587481468223, -23.728077205495616, -0.3994829420258887, 15.280436274669604, -3.4388955709632594, 12.85358172529812, -3.1297104425229976, 4.135508528981627, -16.12644506208397, -2.875959448673385, 8.306225535261497, 3.2565554051670684, 12.400067573786693, -8.35573709762258, -24.724372141377014, -13.829014949927789, -20.467384074074193, -4.204713354440589, -18.549725980255168, -15.552057955094373, 3.8394376117145814, -2.4127028943354683, -14.000032246051644, 2.9588065189222874, 22.64268616805692, 8.524488592963877, 5.713536906753573, 38.741008778007284, 3.428526762271082, 12.813262402321849, 13.136827085898918, 8.3051539427396, -17.302156535566326, 3.1161948576332414, 2.6092889093760543, -0.1892582427822182, -5.379301307192492, 1.911529602123104, -0.13607630715708202, -24.97400813939438, -0.998950728698907, -17.1534615446769, -22.22144913234007, -4.127176737197592, 1.4103921068218883, -15.13049511219885, 0.5200954227836745, -5.568792488204677, -23.351087898869928, 2.992400412838394, -8.260590524561367, -6.855991243867434, -10.598784317060247, 3.1258129921574787, 0.7369757289091109, 3.7967954595709297, 11.154876997839633, 1.313058959672131, 3.056726588807631, 22.389332011131735, -17.74430248863234, -16.757409187422393, 10.028957418893134, -2.1048795621363907, 23.110978047653067, -26.23029928122338, -8.947525108140056, 11.214214126192836, -4.964317975574078, -0.5650901317326517, -8.743605756333988, -6.527828070130576, -11.184041261524023, 8.270116748550505, 15.696314135473948, 11.227027333257944, -29.00766843547042, -13.852505327221449, -21.37048496087393, 3.2562871330156353, 0.03670529588810745, 23.719833937705392, 0.21792707197641237, 3.8539339192711273, -20.144315844629517, 20.268947560695803, 3.22521767202855, 12.073777530275125, -16.54840377079353, 17.578555132916126, -2.4841961682697713, -15.422769742352182, -2.55488213574489, -1.9105939408843464, 15.492170893410373, 8.697264468808065, -2.253909671108039, -3.4691822850161085, -0.11392362608550828, 25.621723484879038, 1.2321159124853742, 8.508249439922768, 22.40707773392914, 19.530334121227025, 10.558768042883473, 8.935627371810622, 0.3161566470022803, 15.019006235088614, 11.023892480187131, -8.499146759707369, 26.272985405639336, 6.9757713377616355, 6.922464217695642, -8.016045165637241, -19.757936129583108, -5.576984561169426, -9.643585152516803, -3.6025220703503833, 5.954927403522715, 17.033412051538118, 2.3427115996905727, 12.994710035995125, 10.653379340418688, -13.644884633130735, 1.3743236956291702, 1.221613228784366, -9.291789356250211, 1.9690850744294484, -24.876687528720254, -5.280371608842524, 1.3080482178784694, -12.626061190497094, -17.689793332150224, 11.287311217440788, 4.899121710684665, -10.827596958834624, 22.523677924321113, -17.94157118787177, -22.017628835718337, -10.57054287859125, -5.819892561135503, -7.4445287633984485, 4.675032850917781, 3.6567706278174814, 22.38274737608754, 3.696349502928981, -23.385282465815585, 15.560112023762908, -14.451803926528545, 12.273837786384373, -2.628707006298729, 6.328730513128364, -6.011765608093081, -7.05364104172725, -9.551819916874663, 11.018832961588593, 5.049033646520857, -13.676224432570697, 0.6375860717647803, -14.609805833882996, 10.450889388095183, -11.029281333081004, 7.5029840867842665, 13.004882012045838, -2.8218232068396607, 32.091032554836794, 1.9536180103240992, 4.349494176728597, -11.807380300099071, -2.7192250708514485, 16.99587361389191, 22.38083776285662, -1.0231687036832449, -14.621092204724755, -11.12782235194238, -1.9377891744520948, 43.07315281391596, -12.94179698046296, 15.721120872395117, -29.516423999626248, -17.82443553447896, 4.736416609508653, 22.521064835612343, -9.569354435195843, -18.8430753491056, -6.518911200857753, 26.49000082220953, 9.127708001141267, -10.281962334148405, 3.9294074087151403, -5.693843856497691, -6.909479792593359, 10.35744800881187, 22.390596741639538, 23.34885978073931, 30.877913426584367, -40.24831045265766, 5.231001374317581, 6.835315327656854, -12.416121700658373, -31.873925746672672, 1.2297584682427791, 14.457128117984109, 11.009011406430583, -9.198424360614775, 0.4960127323312151, -9.160202751060186, -10.638401207166435, -21.1378981165874, 14.825335451313531, 0.35123959685832723, 23.21259519405936, 3.9543311278238553, 18.823911270463977, 9.336286390563657, 0.5806665075908928, 13.150960696607514, -28.044179106921405, -7.387476237426716, -24.773302359099578, 12.89656366365151, 9.919353543975593, -5.198441702558977, 9.669219802674402, 4.989460171712218, -0.8497550465752437, -11.366408627365638, -16.225849447887114, -24.229127360032617, -1.2264920403187518, -12.950879038037147, -10.161857597299099, 6.152739922071059, -8.444074232323912, -12.693362633893132, -18.51088775201503, -14.597538857835199, 9.541609483710877, 1.165041768808592, -1.3715177948668682, -12.091302289627114, -9.598846718762704, -14.370085992065967, -8.877849724592844, -32.94484724535915, -12.178740383091757, -3.347736232270601, 1.946012675118019, 21.515551491488846, -8.163574971091654, 9.468833992566411, -0.7035587390512281, 4.754074809687481, -5.941669979599952, -0.9370044952633543, 8.962057144621735, 12.68949840978705, 32.06025024303067, 14.851410688762966, -9.048248910321687, 5.566677902712367, -10.091155921745203, 41.29873862416178, -1.813200097186755, 18.543386648241523, -10.234390568875755, 1.419358813991555, 8.531445297797132, 18.84101243865, 2.588888113923965, 8.66051924390071, 19.545542946653207, -10.269852389569031, -13.381230594306073, 0.5040159166721359, 14.377022918891361, -2.5773497843110964, -11.34678687083924, 1.0009156996521291, -9.296570825266311, -14.918794186511688, -10.105272856245607, -5.331251342189119, 24.071812812861033, -15.648814173316694, -4.707203050072534, -14.349184393151305, -3.697280410996935, -22.65426741691529, -10.064162419534853, 26.316558117042142, -5.0815997284806524, 33.83048231842152, -11.399080988849981, 10.470025214553399, -6.005584128603834, -11.160624657659632, -35.28616776958102, 10.329274412397217, -24.33067660235477, 7.606889174271334, -7.261359486563042, 0.9005961108524302, 2.782806739008784, -18.610093841338227, -2.795655907073408, -25.469685832082572, 10.578650147227734, -4.197181014474611, -4.8409515905278315, 10.688760048027238, 12.231505588282555, -20.51225847344819, 2.4369539425782922, -10.958201709847735, -5.9148467157511515, 8.383307234384976, 18.95370343587577, -50.686952008110374, -5.628652499157742, -15.46511027464187, -23.64245505828386, 2.7706342412470275, -15.694693205906713, 18.007568963342685, -21.00519728139215, -0.5289088295122535, -17.14232972676932, 21.87474454039217, -2.278155331171447, 7.063224329433787, -1.4177577146596536, 17.947049174444427, -20.702791771740397, -11.866991509494149, -6.527084166132345, 5.108783124888217, -5.294215394182968, -2.8188488311025006, -3.0980864712917087, -5.98676367618659, 8.702304386487578, -2.3417912532758773, 12.233054809324429, -4.375178697747676, -8.856630393740176, -7.685890461708383, -9.88279248369728, 29.781612303147917, 5.202635433420882, -16.97964121695037, -15.444644497957505, -9.239656091249783, 0.4966464353476876, -10.574991186782853, -2.7381772337703865, 5.064520043891525, -8.931702635180153, -11.863641052894463, -19.538622312306018, 11.311024893272513, -11.648400719903645, -6.437805608942408, 11.873237530660413, -11.62614253098781, 0.2874906029312517, -13.088705172354041, 9.739367412606493, -16.165084554593374, -2.766111893570564, -3.9741257413570494, 10.870555485981852, -25.059593595937105, 0.7752865737735049, 8.124931129778117, 0.3315995764251013, -5.761304450823689, -3.5151744634592603, -11.286687761586768, -7.284066324702656, -22.526863693185966, -12.214375676022035, -21.801287755829854, -5.55925949247616, -14.306295599269001, 5.08261258515621, 26.67939334749161, -9.079988771794499, -7.815394590002904, 2.52239347731302, -7.412549718487845, 9.109851176758076, 13.025837532748263, -1.0297722582023046, -7.2803006432497295, 5.010937816961109, -11.754845144639772, 9.942359597677545, -23.02453431937831, 9.936815239691155, -21.00023604536294, 19.882857153561076, -12.03146374891515, 0.030382206104696663, -6.703293653746669, -8.758703793380231, 18.178037761511234, -2.173920025640129, -2.451981406716099, -10.859188409169144, -8.555511620949888, 2.1179790736532147, 2.8136403582062655, -0.260774405865217, 24.977333930206584, -2.612435181227256, -1.7711573862900007, 2.069414710913597, -25.709219016511565, 18.286604293422048, -12.267228341226335, -31.738154488015752, 16.33113103597558, -19.8450911135666, -13.8253624599444, -1.165038534853704, 25.970013926681595, 8.73246495924625, -14.522120775105567, -18.532118456794525, -8.362118668497835, 4.743869709214728, -11.619819952891005, -7.622344378097555, 2.8649123189131815, -12.843943668560051, -12.954424812872368, 7.184264230750416, 16.368523873641454, -10.744068164677135, 13.342910196319668, 4.640688791598402, -4.164849608320189, 20.569227905752552, -1.1906265181456437, 12.467164741665666, 5.682238276350404, 24.739435580293673, 5.102284401763022, -10.721311784722356, 14.25237544206002, -5.506941396350455, -3.2172180874785132, 18.284444314818174, -31.170506114191067, 2.170869295241913, 17.58242759037672, 11.858626453155132, 24.835815482588426, 17.9823679928353, 5.85883871119916, -17.074945052462038, 1.4876872824998646, 14.014910791691786, -10.766035998210523, 10.569604543333732, 10.853103351438378, -12.485063654902172, -12.806044707481286, 12.5245583570786, -20.986910659578115, -21.913360058874588, -15.215959252547151, 4.752535753266701, -1.9495422463231122, -1.9865487200913572, -29.417082396346615, 5.661498263361975, 5.533047555701555, -23.631530858145382, 15.178599608031588, -16.208629053216825, -24.37192278172979, 0.05644081502116555, -12.694806698996201, -2.661573533943457, -5.4298215362426445, -7.663531858738616, -3.6820786909890675, 1.8419010267753497, -7.3096352359716175, -12.993556934523331, -15.308868986522047, -8.95521987009668, 2.5863974960880602, -19.89389124524673, -29.352119142215926, 26.085627541481426, -1.6779066475866204, 2.9366451113580547, 21.017759577979316, 3.956827518817241, 21.64964087532749, -4.499223845896779, 10.834488618878577, 12.916957208707009, 7.097693340375441, 7.051355094664038, 8.78061844990933, 0.42706265121305387, 1.3226443272917359, 35.13861313143169, -11.551487472850036, 19.358038081776453, -35.87908388936578, 14.73195739853127, 25.241106808850105, 6.5407647340345, 11.502585804245633, -10.3138587818475, 13.240582917355031, 26.867529169485827, 2.862996861506701, 19.203745066401815, -12.226533383174083, 1.5390355747244744, -34.467941321299634, 6.640073652912835, 17.264798088945962, -3.462056642891104, 1.2268856545635003, 32.042368995204086, -29.43781084277187, 22.98632698234072, -27.677311356646, -2.470160477580743, 4.567887915147009, 12.785487566390923, 35.75697603260585, -4.565618839501544, -5.209692002206133, -9.468807536238588, -24.879316949634628, 2.9929008551477154, 14.86895836162471, 26.497038761224264, 13.256511695708724, 4.988308578615883, -13.617913769589807, 15.27242583450783, -13.829562555001322, 16.534131331130116, 6.053200474616187, -1.9146213293610435, 2.610453713170662, -14.916210211832297, 10.000315397620495, -0.0484576414503865, 11.222413479578233, -5.507895456083093, -14.419923016003642, 20.104086061018172, 25.936509158424485, 5.14110485673955, -5.430755627613642, 13.46748637267471, -11.419579407826136, 13.689718861354969, -4.260297638281138, 5.041542067388459, 13.440329310005842, 6.865397627022407, 8.867179242618098, -18.065330985753047, -0.07818611169101186, 13.043824255394348, 32.55243999411337, 12.839710830634642, 1.1566375002675517, -2.088022649347371, 8.121157679981936, 8.93557428293964, -21.14824169206099, -14.22646439929822, -2.9267666513843014, -6.103216543711126, 3.7531708097248146, -5.728971332884559, -15.66770266359023, -0.993320693951672, 4.38413113950837, 29.540589801847805, -3.8867402427014084, 5.0420011369846405, 9.481648036658134, 14.173028654599756, 7.149969812245483, 10.772935750634355, 6.5632160411326605, 5.871719974368084, -6.670640702288782, -8.53596216730592, -9.010482629810474, 23.48471772521853, 23.752818226731502, -12.154238513118386, 4.045785427817258, 5.698297754982015, 0.9485127600564451, -1.3600587722982151, -15.080674079421586, 10.800153308888456, 4.716332963168352, -8.383691116957571, -14.196618969114514, -22.515743628830357, -39.261154321489116, -8.630541504812689, -12.070590044377662, 0.8275087456907047, 3.3796104234172475, -27.72320926876288, 10.239331688743786, 3.6755751149814917, -2.4867141432627697, 19.283348129320732, 27.555571611524847, 19.725522644795, 18.53370129310557, -1.4321518623662448, -18.530157562457287, -8.122810520276078, -8.5342976170611, -2.1961201297613457, -19.09455081020376, -0.9284766370998618, -0.8180851687678836, 5.642603369894687, 19.24075990240948, 19.333945128771536, 11.48972696535152, 26.42877335864128, -1.9076822515661678, 25.3052851947068, -33.79620702710452, -4.0411424820896835, 20.67796234798859, 5.317644565519981, -12.961742903537347, -12.18245100966494, 4.495358619794857, 16.166322675655024, 33.12861462505147, -2.671583117223304, 4.951692738414309, -21.96779767537958, -4.457331284193468, -15.800379424752263, 1.4416958735458885, -2.8208794248599136, 2.128437554392841, -0.06728723882639985, 12.527236328007527, -12.680061873086833, 10.041616648798493, 11.382378735468297, 16.791826803139568, -0.6613995771216834, -7.47572878672373, 11.728880182660411, 5.910083172049573, -4.384659581640171, -3.670469223396985, 14.083035693580761, -5.676412352202337, 2.619384479026875, 23.887196695638412, -17.43361215123907, 11.152575506146729, 1.6099860591952013, 9.456649944922395, 4.237430639960386, -5.4860327483932325, -0.8317503326972446, -11.5288313878851, -6.669193998530157, 11.899802756862693, -0.0021642519131015447, 11.083358014425851, -4.683123654186239, 37.58585634959241, -44.95912001411549, 3.4000321820812847, -1.2576187786455133, 10.610545362252592, -8.867322674128031, 10.594408272813611, -23.653649078914015, -12.645536871211394, -29.703380876383918, -18.80423857736617, 20.893748956442096, 29.41124265861435, -7.671649690628281, -19.560021241735594, -3.68299059126192, 10.79654560385312, 27.592364122753647, -12.684619222655495, 2.105579863353122, 2.1043196007810825, -18.109597995332763, -4.927033406833931, -3.1936993372986753, 13.576942925036853, 9.828172350331087, -2.033038372999333, -24.782601518349466, -9.20989630064459, -9.741109547753526, -13.276028927780994, -3.9238928243318734, -5.1917710251837175, -30.975674127087625, -15.069769974194907, -8.95670061878611, -5.735333802551357, 12.795038538836119, 5.520805131409092, 9.652043917312602, -9.470881166650551, -19.31425511424035, -22.722883606389907, 22.824419951456246, 3.223464616446242, 5.162130787964147, -6.739131708073221, 25.458087845962815, -17.157678634617078, 4.271673761399315, -2.148507691203922, 15.812977426757016, -4.0323163513626445, 18.915183687890977, -10.942751880905664, 17.35586739489942, 8.423624131129346, -14.68361654573835, 11.01156263248815, -30.996943856643473, 7.919104362827059, -16.174940339130135, -24.72041316115824, 11.153178199406364, -5.572353656302526, -17.808686600990992, -21.37343889133271, 3.672745108719547, -5.707189041378168, 2.0888963882890694, 3.5783895570319486, 15.302715187298435, -31.259134425232954, 4.037455935045233, 4.277975721262011, 6.565435142610143, -6.032600243813763, -3.766029590849921, 4.3613202316727575, -13.681330999191651, 6.5334647821017775, 8.05859252716282, 4.968055191038084, -2.3511304628518332, 13.534737979481172, -19.399983331387492, -0.04470265076927715, -5.820551464804143, -3.1878334223431413, 4.055491147288755], "model_name": "mlp"}