{"model": {"hidden_layers": [32, 32], "activation": "relu"}, "weights": [-9.42835615992345, 2.7039254954142335, 2.1590773048962024, -3.0058120169842524, -24.455281469026133, -12.954244978272651, -15.660256392094508, 9.643975752936871, 5.787837903768624, -10.786495072860653, -3.4453356340111654, -12.275765832708919, -5.362401577878544, 2.5107224095922636, 1.394713993735381, -1.8581271543430415, 22.183416182263997, 22.407322699243093, -9.34766554664918, 0.08431030663881045, -19.37639458718554, -9.4324132774231, -6.480076328555061, 8.234445833240711, 7.838539977062496, -3.370436368262398, -4.274966663159223, 2.817013944087728, 12.623981795232405, 7.836881953466944, 3.3431936310411974, -5.604685442353904, 9.279453400481483, -3.3444509985888593, 4.324028263854744, 14.703481598203998, 5.5836794750785295, 13.46393250975704, -8.166044038213109, -12.727342898639385, -4.3732736950586615, 8.87491029336393, -3.5544207610898044, 9.484593311869332, 6.997313914297106, -8.585830195466132, 15.44737955573084, 4.300772847107894, 3.832172559662207, 14.11241020446916, -9.260459283676136, 2.415750707202139, -9.938048915652264, -9.172006841780046, 3.3377288238414984, -12.865280710096087, -18.74544755608125, 9.258783902079866, 2.21987808603292, 10.277686586690185, -9.530984947510978, 16.641993713186075, 2.8407781358634105, -8.144912129608414, -2.360083353709809, -2.309579406014354, -1.3158059130892026, -1.0537466067448504, 0.9779647423806058, -2.6025466220099025, -11.740379363500306, -12.284995689062953, 4.759865320854216, 9.757856096279783, -1.313968966437554, 4.730953157567505, 5.1850564988879535, -0.5339502095652173, -9.22888518280217, 0.7737653857899269, -9.223229264863217, -4.1292136299738145, -4.24439237281797, 5.598689816342086, 3.2184914182745636, 14.848527851517202, 1.3876768717109946, 2.1852305476723046, -17.055514054955726, 5.1613508457528186, 1.4196196595182233, -6.447119930891965, 7.52898801770933, -3.947475346071436, 15.243859322554135, 3.6818666647582567, 2.475107310988449, -10.102577581591484, 17.889365035071062, 7.300900953773963, 6.492577702006071, 6.322623419539787, 1.803022183969001, 7.12492494341896, -3.2257107247841272, -14.481108452860157, 9.367288949802425, 6.324317454991132, -6.230749721990499, -10.424728933738775, 1.6621785323864358, 8.63824052522546, -14.019938068652804, -3.6608184267059674, 10.849090620847846, 20.359933825932, 11.765698902063505, 18.7376575706793, 5.974009072542527, -9.846892440388068, 4.613888616025698, 24.314819354420425, -2.736674318640296, -3.8184595846096343, 6.805077895202981, 2.8097175477896874, 8.767995474465364, -1.4438154770101943, 15.312019192885195, 8.619763069748537, -1.6754157143580466, -8.545625103249034, -3.931029084400717, 1.6884252443036354, 2.4855878624972325, 6.325050995521528, 11.411716293124057, 17.65259536332184, 1.6586949182370156, 2.778510002911367, -3.132785400529635, -5.364018778185404, -17.388351343826667, -1.703318722081994, -9.306364762744465, -5.079001280749724, 12.117532383021567, 10.769096053305141, 7.355206675133325, -19.45605720758944, -5.89419943130292, -8.193451838546125, 17.948642431158042, -0.601757687928372, 0.036508044005850226, 16.10222286882613, -5.813859390859633, 1.846671123352393, -4.479109621843427, -1.163466874907361, -3.1669755249803506, 6.288756143240275, -1.4777975759207795, -5.277864123911531, -3.506083976625755, 1.206562728664172, -6.3526286280152675, -4.527353260735801, -16.71125097141966, -7.5775056243456245, -3.016113299824388, 5.502655791852319, -11.15825533007602, 2.139341424999312, -6.823122104109195, 7.828095127330113, 5.520452491899407, 8.682232524007063, 6.329732752095566, -9.327991825470521, 16.444165626475034, -12.34620698009346, 2.86393808906206, 12.324001865678536, -4.908687301553661, 2.070618030972169, -10.943730813540721, 5.0523733463516605, -20.76979941835882, -4.179689555323563, -2.9588726113643187, -9.267269475085838, 0.270982726231403, -5.545380220770048, -5.52395636254605, 8.442854503497047, 6.284039088207118, 11.213215173916476, 3.540359489800467, -0.005887601433364975, -9.94702518226259, -9.113451392627132, -5.944822849457715, 1.2649847890279087, -8.30084506230671, -8.17990922225873, -1.5703331147408877, 6.7236887675654, -13.06381166712901, -0.8881173997754246, -5.90732009885281, 2.331371713912014, 7.922749058545979, -9.273913081950154, 6.5817785341783, 5.368203596202891, 1.3226227605429162, 18.033932821721972, -22.302244965362814, -7.664361287748682, -4.736804600994976, -2.6868245456855, 20.240021627462323, 22.010644257853727, 2.6726987236312967, 3.0726873015931697, 2.010868316426906, -2.6555326553587992, -5.935366543444491, -15.51470868540325, 7.789854077436464, 12.210497464504034, -7.536011276969195, 5.543140216750043, -9.138360873376765, -10.00681432957216, -9.960597217441444, 0.6711073429937561, -0.8016683953442285, -7.64086499126255, 10.190378706840951, 6.116563048842464, -0.6659587170530559, -9.418815997731306, -12.148157857501449, -9.1983945973234, 0.7533782862582816, 10.342940980166713, 2.3174160403702824, 22.081342541182806, -10.306438066581409, -2.629080312132118, -3.9911280808614618, -24.088920705871637, 2.903700752467243, 3.452864579248551, -11.53302794577538, 3.6164012707500435, 21.064088221235103, -0.740901836225142, 12.074704023795093, -1.9968450397004815, -1.4042628085846127, 2.7281061310921033, 8.964569837013736, 4.519540657268638, -6.744912067180829, 8.946970071141804, 5.164523684749112, -12.796958900705606, 5.338422904541084, 5.857504318318834, -4.749270560672789, 1.8974317587322602, 5.173574267874149, 0.026865461780117394, 3.592904572320995, 18.875091108540218, -5.8419774656772, -5.916687212937901, 4.176274407547722, -3.2968810512338025, 2.4189414386629595, 6.957667128486484, 1.4208304034865384, -5.678147633323922, -2.225413296210823, -4.296618516401381, 13.320489824436201, 7.655886717056222, 2.9372479289423334, 3.2611054994398363, -8.291943456631211, 1.9963543656098928, -5.050525037909244, -6.990322302141404, -0.8728046584515451, -16.137084995964923, -6.736495691537107, 9.262075410874797, 4.670074615760758, -6.987323132808047, -15.542354511905783, 10.852542399886822, 6.847214740517851, 12.39923047655471, -1.1422713111176754, -10.346885486780002, -1.60992755839385, -2.767324434698412, 0.9571354626178218, -4.2387468054262865, -5.703615625815326, 4.256611409948971, -3.3146339333422, 3.910050538274861, -11.073587355857068, 11.434382240585283, 6.343444788001433, -0.15104956138228132, 4.56929501037185, 5.952088840759684, -13.211310128170558, -0.43257597260949976, -1.0950199320395908, 0.7812143060459891, 1.773574239730769, 0.6075937190008699, 25.310529369622625, -3.3946865293826, 3.2446090040141753, 2.7365412154126774, -7.4292475116666274, 3.481506521555996, -19.321911455697002, -0.2394024356946033, 9.612127147415006, -6.2211410073199005, 4.522443876884856, -6.496750948596119, -6.801507118463094, 4.743427556191736, -13.694699843614123, -6.746255433636097, -3.6791554682465706, -9.744319097401661, -0.9847885224291566, -4.777409750334576, -1.9099784751047189, -12.803461993688579, -4.536924420724277, 7.803018869472028, -11.920740753516672, -1.108712381930408, -2.000186332136672, 13.777053752516267, 5.44286663381378, -0.5731562494416914, 2.928029880642715, 9.720971362061205, 4.429492271904961, 10.060677722680037, -8.654238182065988, -3.765078833641691, 5.659152324953436, 5.237701084326985, 0.2030202759806008, 13.322387673051644, 4.306848114550253, 0.21141456118328672, 1.0835521905651313, -20.90606193813088, 9.089406587036807, 7.652305282562777, -1.3843895120627723, 12.555940720196496, 0.36124268862619024, 4.485693986226773, -5.798418729817551, -9.571025014260977, -4.42375392612702, -12.107205329736747, -11.739182471755246, 1.9974560642613524, 21.9753145050787, 10.686229760456195, 14.964763440437595, 8.89768122636283, 7.62209076923575, 23.358924474859634, -11.202956683679547, 17.232973629263522, -9.965283346995061, 3.078373908075773, 0.033203625019759764, 10.31332473174636, 10.80740275144817, 10.982243821833789, -12.428047184078839, -24.834529997834853, -5.568199042202844, 10.2364467257678, -19.238067938586653, 5.253991927368365, 1.7199399326358433, 1.0403283253716233, 4.2725445721980115, -11.57261911294758, -7.4561158402249434, -8.871917321106878, -0.28575105426818387, -18.565162374991004, 9.9484805451641, -6.221844267641713, 16.783939602830095, 2.906462876749976, -4.009277885895437, 9.62803529834134, -0.5958663973244025, 2.5577717050358286, -0.6895712850532256, 11.077035641573868, -9.141184377704453, -4.276465986867213, 3.857569693870177, -16.05398326586765, -8.086130195563165, 8.398730587043262, -2.5708021322297174, -12.90698400610744, -17.216159750764465, -15.104981491902512, 0.17479884394921874, -12.625921361222069, -4.909697295754004, 6.150847226299144, 3.4327919860661074, 3.2932819060418117, -8.46645859000108, -20.27636598229116, 10.288388349878034, 0.586256237870464, 5.373743857246058, 1.9342405128301063, -2.799630252127222, 1.7845571481408475, 1.228961859314784, -4.567192704298086, 11.861513640092205, -4.418711094275622, -4.221552018336599, -10.597306315061722, 2.306985019789712, -5.721552896555978, 6.924978738382684, -10.326435812549823, 6.498952232166577, 12.540000700808557, -2.8328859907778137, -18.208786944985654, 17.67406711484122, 1.586180754941696, 9.198179384025046, -1.2480068585213773, -3.7927684681446436, -0.16663513176059985, 20.69403461708995, -3.0754176442636068, 2.7852331157671086, 4.6984814919780815, 5.419101144607129, -20.56689550717115, -1.108738615897408, 9.072675728263054, -1.8824546332931993, -1.6997681050786926, -10.655250719964881, -10.456113066801692, -10.254324915772049, 10.374412424640418, 2.899504463053485, 10.767095868928644, -1.9726184271867373, -7.357047350257762, 5.395393252071413, -4.92908398415608, 3.977847042417096, -14.930235626878597, -4.501273917998781, -1.4546153446521892, -0.564108385401759, -10.701989786478908, 1.2017411443430326, 6.367964659656953, -0.31500905154531994, -5.721763027242413, 2.1062127207585823, 6.509176718343754, -4.823490648669646, 3.393486008695607, 11.125310266580449, -1.5977340747584416, 7.077162127037778, 12.941356350413205, 9.3613314303127, -1.444188222237082, 5.3477671995184535, 5.200851068626003, 11.56900707536916, -1.6592367870225713, -3.1622554167953405, 10.13044478673825, -1.131088846218251, -2.9123761891268725, 4.0684400397202936, -19.135158497049613, -7.2241506700558, -16.67071897520661, -19.867503116768344, 4.988892603811463, -3.4869144111226382, 20.942848108415074, -7.832166718193729, 10.598919518356318, -6.003126671368979, -9.741375034393467, 7.352140257644444, -5.359881852315604, 9.779098985311515, -9.404440454043794, 9.378868133077118, -1.9662427336748354, 6.272096560378081, -3.7320184894635005, -11.245867912309075, -15.745303648844793, 6.5809991377359776, 2.9798101426007455, -9.641696568341485, 5.712553264644738, -8.25913883721395, -0.025777553224388905, -13.113489897493269, 2.7927573089601934, -0.4241201912045691, 3.217524231048301, 14.627907757149174, -4.462940203212471, -9.742208597728705, -1.7832817405149812, 15.994428380052877, 0.040102991965042634, -9.72597892704747, 16.653718037217395, 5.635261961752325, -3.178555514281612, -6.736945474423448, 5.057739505276292, 7.678738553305781, 13.772826070637528, -13.623052804392676, -5.10047185471133, -2.768578662496873, 13.432064327767298, 0.5501216527930499, -7.6439149478569846, 3.8444213502087377, -2.055915411224541, -6.08346783077939, -5.438141017268337, -5.6396771019804195, 4.649605636049963, -14.068589710578621, -11.917515979403019, -0.0918232271307915, -6.086478960512174, 6.506718681069525, 2.2341581511106336, -19.458187827769617, -2.58431690227609, -2.0948397102076393, -6.449352408974833, -2.433515186588955, -5.959274689268984, 8.687250669931938, 2.515866949007118, -5.952670726457607, -9.51546892046357, -4.554486339510905, -8.779254658898287, -7.327932302431139, -2.321850110491496, 10.00127127273844, 7.398773315601233, -4.125488900468373, 12.679601501859333, -10.872732685569797, -13.910590028822787, 6.470956611390484, 10.093580544663858, 14.84533184867367, -21.651533889820968, -0.6040170064271799, 3.2372613910370873, -4.104363095827917, -7.2126842796059, 3.060738387895915, -0.3348382784071853, -9.537393874420813, -8.331496577490485, -7.382842590147762, 2.471334406979948, -2.742996197201834, -2.649709321384667, 4.546347897854975, 11.910610860075783, 8.268100904938606, -0.33248645303165747, 11.453526033448064, -4.7740686766654665, -11.860284330213615, 4.058775116411907, -4.426930883834339, 0.7831576416300071, 7.726897667366134, 4.716114383793836, -3.8007295385347653, 7.13111303980289, -7.863963707627146, 9.402252757211508, 10.097633942801513, -3.9503600825168355, 6.650765233117448, 17.281833167190197, -4.9782598390142265, 4.665308978056794, 10.950191287899395, -4.696615254521536, -6.064782462218189, -3.607014347424988, -22.734986861058772, -6.561210019271856, -1.3469812088142579, -9.334731622793706, -13.32004162904301, -3.0897509383349173, -0.7540842482889112, -4.178032457874491, -13.30567923299688, 6.382371807354158, 1.9002982779782547, 20.398385898986938, 1.2059885524501033, 4.225308119919081, -5.968933142778598, 9.340969370895387, -5.024529898373853, -5.421639078746646, -8.13447366944359, 11.539004136313913, 4.479922908759571, 6.782095235501314, -1.4428022804205851, 22.02902764096686, -4.484230497716611, -15.733220960429183, 6.651087046451381, 11.13784635336419, 1.2977042009349962, 21.836634184964293, -15.205354655169927, 12.730058451162868, 13.959778821017524, -0.5110774529736684, 7.30237367391602, -6.616668580249716, 4.245344641038293, -8.401350442517142, -0.46260565178437596, 8.199813796868854, 5.216538737196914, 18.895050194653727, -4.922349817501618, 7.142508111467838, -9.353534354255828, -4.200966464017968, 7.327684182774571, 8.800447751181524, -14.838635976899578, 12.58931747774467, -7.858478423655953, 13.605230318209452, 7.121741604152811, 3.5000801778991426, 0.4708473330987559, 5.639324099690741, 2.477568022354091, 4.5345599623405075, -4.965523830684056, -9.177673826170999, 6.3972835733499975, -6.516384184520767, -7.491477967273935, -19.745856035415592, -10.491758827595081, -8.210102537909695, -11.121715330266472, -1.2387836851558336, -6.969749097068138, -10.461289635620373, 8.833960764445335, 2.907114942532975, -2.1647103873266067, 8.787132083579994, -10.441865813515555, -7.182397192529963, -2.649111537298066, -10.341148615428814, -2.8445548369426272, 1.795687521048034, 16.268851445824225, -9.86523872293627, -1.8986981315629499, -4.794208368606261, 1.4308494412154196, -5.731054919880004, 5.859412320637273, -10.94273419209115, -1.6364885500973847, -13.536476103493015, -14.942719355551297, 18.55244184520052, -8.89820508028386, 8.124219630734572, 8.891893968500845, -5.768643127278628, 1.1074272745006815, 14.97312767870163, 5.064058021469924, -3.440612545040707, -8.69093388301638, -10.166115855330949, 4.340393544475914, -11.387770015708853, 1.4593872753787118, -15.014364245973274, -1.076224642044156, 4.7628034777552175, -1.9530419932846348, -10.805487789457796, -11.761820711051959, -12.02310519644431, 3.4501100926491475, 2.932969498473689, 3.0639136799182682, 0.6289857952209184, -16.15183953536782, -4.140387048152223, 1.3357827967566571, 9.393566752028482, 11.012600978131552, -3.029407054854595, -2.6365235575809063, -5.946886903219308, 4.988466910979776, 6.948286012387075, 6.932122909141217, -5.277531582006279, -0.3965484291468046, 20.452219500800652, -10.938900352853981, 7.469328755706199, -3.4511132687915977, -1.0247631664879044, 14.888977330936406, -3.6385573470276777, 13.629992839652779, 6.165841326173195, 13.659116447000196, 7.944704851123326, 5.751399685474848, -0.561279540618677, -7.944945760455884, -16.26031081717431, -1.42969734127785, -8.670615421409687, 7.691800950717761, 23.17019329219543, -5.714549397853541, 2.4676313505316796, -10.629248034036511, 2.9661186828305386, -3.276171287439546, -3.4687065074507375, -10.066849534522623, 3.700961278250193, -0.12027699319551184, 2.645062067298204, 9.275470322829179, -3.079416553677286, -9.185730197373529, 12.62245491770023, -10.656945065941638, 5.447854735082152, 7.646505860702969, 3.3543140657352044, 10.127838375038404, 2.344062435029823, -5.402319871996118, -12.651898746054485, 13.641080974464503, -8.270300656590694, 2.186916997051447, -8.504149923717124, -11.554066094435294, 6.983414642870149, 0.3799218239653701, -3.337987820950208, -1.642986419184569, 21.158954804943892, -2.12710292755208, -0.7877972896964989, -5.73696658126402, 1.374492847391148, 25.23270314815293, -8.720462370869626, 10.559513642979146, 4.58047150179832, 16.350197108408416, 18.372454702252078, 5.552939090929285, -0.0003688880965551089, 11.217632176942473, -7.2061492877945135, 16.31526845783787, 20.24692916224275, -15.702042559892108, 1.9164777242789806, -9.029902181332819, -0.6261052499786077, 1.7729241268826195, 13.53146347869558, -3.784276822202399, 3.2278739526568176, -7.3194790226539705, 7.883652816730896, 4.204197225453469, 6.763190615365867, 6.52019216908871, -0.7896636924097776, 5.781625295226563, 0.8291695445980413, 4.649087841244887, -12.346292734890548, -4.6197743770842585, -0.3838315051985971, 6.644723104391777, 11.633213805237174, -5.119790362536908, -19.03627679600745, -5.105898780700361, 1.968673976665802, 1.751802908770833, 20.677313268281328, 8.807957427546333, 16.465840602543075, -12.620946599698037, 2.3322428648477715, 2.7368713609181525, -11.257084166093955, 4.502809658164596, 3.248530692138976, 5.397807071617217, -17.699168517117077, 1.8426619598969989, -0.7271457760114988, -0.9008794634053816, -5.928750775232627, 17.58905767470834, -7.802955622547882, -11.911840515071516, 4.372517266010096, 14.595659877637699, -14.163479666160947, 2.9382440732129185, -9.923425087006352, -5.335583849560762, 0.5474542273458853, 3.766297784884088, -6.20216964028593, -11.954809694256065, -1.8713888158163678, 19.715901445119762, 4.0311347152676404, 9.894762005312288, -12.731093329779519, -4.425074388591434, -0.917558899095795, -4.4182529508967425, 3.7250454492928164, -15.915894284549058, -2.0800552367991676, 11.601628312152041, -4.437330640444707, 0.9947645881730052, -0.5091774031025874, 5.188597447494261, -17.071781450914223, -7.322306942136529, -1.6079172238537196, 7.680604661256257, -7.468540087748664, 0.16307798441893684, -2.052432306963359, 4.661188502388203, -5.523724950946005, -7.709191642159552, 14.580195007562285, 9.158171910988793, 1.005506502900472, 1.3797280647252712, -6.838942898669441, -10.963023406188007, -7.471071827536823, -9.439371095176632, 1.6167518955767561, -8.026594040651531, 3.6921476968719054, -1.0871598845276014, -8.636873202269458, -2.451908717828431, -11.330406894705117, -1.1578266976099063, 1.3647616138187044, 8.572741739221412, -8.000499165968007, 2.021574928238136, -1.8018372329420047, 8.040693614517687, -0.8638225733692694, 7.672915521524542, 10.591834089906307, 5.451945442585143, -22.312708863934095, 7.7109084380825355, 6.425927341143199, -4.975157358641358, 10.830594402170613, -6.990274691032811, -12.462287757579753, 7.824190211799233, 4.5835871869595834, 9.995976976896136, 7.2553443029047875, 2.3844926810775875, -2.834139880062861, -7.179768000109263, 12.420352368737383, 3.6318936578284586, -12.45163112219293, -0.46852296062299204, -4.00747157867373, -7.580677670272929, 8.606300917627584, 7.650728722564049, -9.0660670830355, -2.3486581557642725, -2.4006128750006277, -5.016185707074974, 1.4899094302801779, 3.0214953690665984, -7.4706183302574525, -8.30261985022769, 6.378142198887891, 2.7432830899427727, -12.912186738667668, 8.915705863326254, -16.392258318579184, 4.9697534507775485, -2.2251173179131176, -8.767663987196482, 18.249040611857026, -1.6425154238831665, -4.245387686406661, -10.180262414293422, 23.056178219449954, -8.567234861824835, 9.492450176054257, 4.161045655308294, -0.46112565823878215, 14.62999213013205, -1.4430681821802351, -8.281764281714887, -18.833951100523635, 8.99477794383609, 3.4031023466237222, 1.429898821090965, 1.7059600387681386, 6.289414533340759, 10.47321040455583, -6.250876559630004, 4.067360650044826, -1.462340650782978, 11.487956163621538, -6.442046852050549, 12.000335072385989, -16.8236633552403, 0.7146156026444347, 8.561212059403442, -3.4438617207632705, -3.694752670557641, 5.3758911122809625, 13.381687399853181, -2.408554366251824, 4.288435371750332, -3.2337952680595894, -6.2505613248306835, -5.601766549847302, 6.884964175766916, -5.994317551695779, -4.267677789881771, 3.9167494436636336, -16.50208935896037, -7.444581033147494, 23.42530940535904, -10.514105123102432, 0.892363895912206, -22.65827751806889, 12.86379095050325, -18.29388240403868, 8.779552555556197, -12.309070147012886, -0.18190294645180682, 10.666480468166096, 4.257161033853201, -2.1343733758070833, 6.297657265408395, 14.474503735946636, -7.989303220230495, -5.336866198473179, -15.386256156067997, -15.015274243188122, 10.731554347198943, -1.2700597890715797, 4.299640804528201, 2.1165333666040897, -10.171233639972789, -13.303179059266817, 3.1083976073700925, -4.465518422322752, 1.0178286074997283, 1.7361618116217734, -6.5598159862591325, 0.7970458710972042, 16.23883340719964, -26.49071942245723, -2.4002897440000535, 11.418537128224585, 0.4964483075392357, 16.448781124790983, -6.973967668240351, -2.614466203814517, -0.7191673556494026, -19.80069315140214, 2.5170422562764316, -6.987447982356625, 8.74576022389481, 1.334747363015257, 14.45488994757372, -7.0633372789248785, -4.850729297714139, -9.025105429175596, 4.758937757298108, 7.661678679538818, -9.16457263331417, 11.763192914736768, 6.576478137365783, -14.035531999817596, -4.965191747922012, -14.798372977141996, 7.685236107278883, 19.192444223561267, 20.84553285307004, 8.923051392620568, -5.986943319298627, 14.779316308695927, 5.057154156240781, -5.95260511051678, 4.258278519269457, 0.40717007228768387, -15.82804812945088, -2.0946843818539707, -7.365413127608095, -8.991281035131891, 6.374331900028612, 6.802651734111482, -10.513068679091058, -8.208705219031204, 7.078303351633119, 6.397516484794018, 6.222807585702926, 3.2279088119080805, -14.86238022934005, 10.071409050998282, -7.5114835320069675, -15.190046024049598, 7.902702197737971, 0.06633710453324493, 4.413541657514853, -4.563802381389228, -1.6575638264342287, -6.2951105480623175, -1.5970894168686502, -6.019875312403065, 6.459307334559656, 1.1698035355162308, 6.8996574885546975, -6.913374734250507, -1.0681871396400375, -20.65214379133596, -3.2689662554235017, -8.83587383619937, -7.618626883496972, -0.41609313283250027, -1.5033178956390714, -4.332385432630249, -14.941077158882623, 8.176038694373558, 2.141912773293146, -6.346618357143221, -7.333382277099813, 3.105549051613464, -11.902082761078258, -9.168610508030133, 11.537556359937776, -13.770060624819285, -14.016990233530093, -21.690511873385393, -16.017643301895095, 14.761637351295503, 11.183467005455995, 11.32904595539761, -0.6615716411793869, -7.061741608772667, -10.513434145591114, -5.360192999724855, 6.913750184055126, 2.1896764099926083, -1.3371340746245086, -10.924266510973284, 7.461885991772377, -6.718632023091779, -0.7276359830299481, 3.736982242929579, -10.78070406338714, -0.6158829136838389, -3.970016600442962, -2.0706138183007057, 5.197951748592613, -5.203218570546098, 7.476987143345715, 8.58392991610799, -11.044031568815013, 1.3402928849654985, -10.499198122075343, -4.804849976161087, 12.17111252228861, -13.5938335106337, -2.837750812212598, -11.918185897591341, -2.019475135111247, 3.628248790919522, 1.0047510476222454, -2.202737628460844, 10.925331193323373, 10.68149488068463, -22.298390133214532, -0.7694385432022267, 6.355501351059454, 0.8000179703002017, -7.357097696640842, 2.79497743958158, -2.6429242801936033, 3.040497150131341, 5.795713733855075, 0.9515461632171042, -13.921387216978216, -4.8641324376054484, -9.090402516361795, 7.682838960908959, -4.650307005308469, 6.817046181192476, -6.795688700718712, -1.5705080247267396, 0.16482670415892398, 7.274803105902335, 3.9428882783459147, 5.470996698419683, 1.7363868804159597, -6.31251298739414, -7.3145521369101, -5.91899663484699, 2.209123675087741, -8.28213453379902, -8.475596292323434, 12.105954347782562, 0.21243640801987684, 2.729649561965577, 5.169037239621206, -0.9482480319030122, -15.859975647432716, -24.317821038732255, -15.195818746071078, 7.4390806105842975, -22.30100777946002, 15.585967406747724, 3.7609973679461803, -12.965400884588854, 2.6775746927412656, 0.6409404635222604, 5.669421926273378, -6.972026931485493, 3.440932725507452, -22.705753435579386, -2.857080175496191, -2.196232257278023, 2.362978525612988, -9.812118647353122, -16.880458234352666, -10.763714390275156, 12.613580063330023, 4.045969827065686, 22.44810347302873, 0.7250843527901594, -6.933776761579746, 13.239798156231384, -6.601681122039804, 15.025594725243758, -6.1891280311901395, -0.7788408065182275, 2.6441653889940633, -3.2889298804294986, 5.251207286351901, 1.7842725850911147, -3.2051481678254254, 0.6668857391042821, 6.855497781068173, 5.842937489103928, 2.709550111372131, 25.62737531348767, -9.635016238764829, -20.908651902060548, 6.865385766743978, -1.5647390714450684, -4.155652784207011, -7.941030700446276, 9.130533467108638, -1.985694205439329, 5.270913265286327, -0.3743629701102631, 8.57826612738613, 6.806275327643062, 2.5610552180459183, 5.735738805766648, 0.03087220419496317, -17.244699749558993, 2.723632566174592, 12.553690477026814, 7.586106801175701, -5.850650657579852, 2.358805044849328, -13.291906731632531, 5.765457837090092, -14.774937530283541, -7.526368458464662, 2.187866370575217, 1.7906235405451487, 3.347599015311299, 4.570770725211186, 5.108916709570908, 4.1598339615574575, 15.295243357747134, 2.6862327552954697, 8.760522238179295, -0.04982010414278193, 14.47267808604347, -5.3147497902772, -3.535162767033488, 0.9926002784886923, -6.1192565342952845, 2.7685802627731975, -18.98514824180499, -0.022478641122121723, -1.9251149291030107, -9.305981321436821, -11.013447284914422, 0.4675684780160666, 16.575950183746112, -7.392652213090966, 12.408099915278768, 18.623882880622972, 14.708557671425494, 14.663506188173214, -5.519693554683397, 2.3906341820636463, -8.74489748865303, -15.127237233492068, 2.247055402679855, -1.2141777340905473, -9.095361009025341, 3.4019270913765864, -3.1028253149191896, -5.742525594511391, 15.503582637719965, -9.243716068353155, -2.2136017147240827, 1.4929618947838823, 4.413120688671445, 0.38806275792288036, 4.021248752189257, -15.588738915550815, 4.365829912678654, -0.9626789031739091, -11.452174361400424, 10.844912026600488, 13.46186598313657, -14.668595073655048, 24.435532666738624, -2.6126364120878787, -5.075259677321711, 1.0572780618021833, 13.011935011634062, 0.9136233837541521, -2.824267725980258, -13.606540115172406, 12.266783322782844, 0.6702519936186638, 0.09606140405845759, -7.2754078837927985, 8.642503568880288, 0.9527053964622512, 11.491427738265685, 4.612464317339368, 1.7766766077108533, 4.016924024969326, -8.403454130757314, 9.881100512089427, 10.36088754317055, -9.915751622890905, 5.556196370151113, 12.902278556543317, 0.15908074755422263, -0.16331436485213047, -14.07706497586284, 0.3044453156863265, 4.026425174674852, -13.562269093264783, -13.162926409619402, 10.786944280080652, -17.524132059424407, 9.757506854384083, -5.14607860404498, 2.0742388227123385, -5.082182457971401, 5.028188939734813, 13.64897662674696, 0.3227675233435223, 11.022462082842955, 4.650530336588561, -3.7565513343467964, 4.705309868795263, 13.716105755957072, 8.003394365467035, 4.005572271911084, -2.352876052732245, 3.7454889199539148, 4.382099170092469, 8.368143849642568, 4.559005537561828, 8.52923189050657, -5.144736428209509, 12.093634939339196, 2.7662111315219975, -3.58145581173299, 0.832330314617757, 0.42172545258584604, -4.5861666905494065, 8.485543298273434, 7.792515535435161, 16.732649853232665, -0.8873763819749841, -13.811112854579195, 5.618191572187989, 0.47142618723339913, 26.97492162301958, -4.1879882781412014, 5.470843375564967, 4.736176328931435, 3.6926039601714775, 0.16702995460916775, 7.574586190499156, 11.892550807557242, 10.119136284321632, 5.844055420235753, 3.084911030665274, 13.372774254044517, 2.767299891178112, 5.882098487438533, -1.4856239469701151, -14.60276442210377, 1.490405531625797, 3.0975256570459493, 14.93894464515748, -10.276896340784262, -1.9263008468161784, 16.050611366923498, -8.600867870139124, -3.1177358002747453, 13.173920123468429, -4.741493452221862, 12.039916280712834, -1.9690398278460353, 5.356300317888662, -11.612158164466454, -1.506571234054569, -9.979084866411496, -9.9397451689799, -2.512654071480884, -13.434020911873773, 1.1316220946358337, -11.92499755748386, -4.5650124809443255, -5.19780525150535, -21.155547640296415, 10.691691957574594, -5.1741940848521635, -9.870107274664829, -12.384273590340591, 17.701562935553962, -3.085144250666073, 2.5732946633449685, 0.07533289386446151, -15.529055836866249, 2.286330509547777, -11.614209633178751, 0.3079254896789525, 8.765733886943465, -4.07882316031785, -0.11355771127082281, 7.19612793552445, -14.712734821534529, 6.78113281702197, 14.858628518049985, 8.829626833539852, 8.462338557014004, -12.440946948531844, -7.059870909910032, 0.6503310821866533, 5.170009541370881, -0.21768250780024956, 2.5274319948098816, -10.19494809708895, 15.678638241196282, 1.2450346429027115, -0.7490724910818584, 7.632033013343858, -6.936227487497363, 4.537484638123548, -5.524212397334486, 13.776925683450298, -3.5587496965826797, -14.08785457137214, 0.5608622886680821, -8.065570642833482, -0.37475700916866617, 5.350297260558964, -4.857666004217879, -17.48733586040391, -8.261859742848547, 14.306528967835446, 3.5053688270447942, -0.5333805702023723, -13.880518060764269, -3.0638653070933692, -0.9743541928802639, 10.540947488543807, 9.32822015730187, 7.664154534692963, -2.0437611558896, 0.3210069325605589, 6.2512260855615835, -3.271232653204801, -3.7540565045249505, 6.236601525244252, 5.2236807422994564, -9.48631835530379, 2.041125169784007, 14.128235696846634, -2.1645092767985714, -6.526183694119829, 2.6435374397712423, 1.316725583818188, 13.409290682770136, -3.1807593777977, 9.642312845786176, -9.594942979388225, -15.404784569370939, 14.684384737968422, -1.6813392013468234, -6.117581538628642, -8.185474749656983, -1.532838931139914, 9.011365808409792, -8.7327366314629, 26.179642995044674, 7.942191094436545, -0.49082137514355617, 1.0095680127185997, 8.595771946162161, -7.167166057203748, -4.9209398436186, -6.599383654795142, 5.608675365485202, 1.0574026802962826, 13.76217541847284, 13.167820911987166, -17.46029054864892, -8.95501164823919, 5.20792877453336, -12.783805963235656, 4.488576648664088, 4.751474965068293, -18.366766262433902, 12.235181958372097, -16.471111475879066, 14.226951547009856, -10.415409979975259, -3.6468909198548696, -9.740296816646827, 6.971534373692879, -0.3518124610617082, -8.776712737559711, -21.740240114092103, -13.415804165094857, 10.973442190573923, 13.356518836505058, -2.229638032146177, -11.109552550469239, 13.567944022223001, -13.05412661397031, 4.311615453425652, 2.331426339525304, 14.832651303333003, 27.361120241716062, 1.2293326524102737, -0.5010173889533531, 7.931686398938763, 18.18221705329466, 4.048998964778779, -9.78652315382354, 4.037899382501247, -1.1459850927581923, 0.9366066980162515, 7.015274507784183, 9.127044408710718, -6.590369496866349, 10.56944827799791, 1.6236945547438602, 10.220541593685098, 6.691859278910606, -6.017697835086984, 6.705657575204786, -4.295825340740861, 15.92774369422554, -6.081909554899615, 22.1642539948354, -7.357720265483274, 6.676401526358897, -4.327275767798357, 7.835061218035802, 2.4728757077444783, -8.29742639461468, -14.082163413520133, -17.20632871191779, 10.076403947484714, 8.277271511680235, -2.0256196671461817, -4.699294415180336, -1.119058464129575, -9.886245749366376, -12.181747551387208, 11.26470002449186, 16.005402275560392, 1.91237356566667, -5.770099611224651, 9.799787797409072, 3.224211280584935, 1.690243063807824, -15.391172407005444, 14.216426190099035, -1.9383430422938974, -11.793708024324996, 2.7576757490941066, -6.832859350028759, -5.131986615879006, -20.09674521156109, -3.426618862412831, 0.9209355429872548, -4.524326956187922, -0.20685218327113658, -6.280864113301617, -8.170843928890399, -9.32559883387648, 3.39017711390767, 3.2632809000942986, 0.2416778133738018, -11.365797055806057, 2.417486174129661, 3.882943011930765, 0.46028430053764197, -5.906505848425143, -5.065986951833101, 2.311315009003966, -0.9438857475348701, 2.5565267852215876, 5.023653833271101, 5.290809494853292, 5.364197241159035, 6.068571798434652, -9.749618865923509, -0.046483698967928755, 6.730799754712366, -2.20924934792553, -9.753231354083518, -0.7352108862793372, 13.12037010917016, 14.754590598146141, 0.1834379388884031, 2.773056031433792, 8.080872783025274, 4.270480491167527, 10.97889917406877, -10.47068536272892, -4.983924682439013, -1.2298246662670298, -0.792066934157003, 4.4906603143379105, 1.685802310514502, 2.6643600013205124, -0.0023992544044129094, -0.6351666715352002, 4.98176108127755, 5.755158664263305, 5.317690283404362, 3.1977918656812534, 2.4973277543851573, 3.281694824008617, 11.417679407634957, -3.228912452867133, -18.96312118845951, -17.85733976283752, 10.22260651236145, 2.585892232808902, 5.776497159624825, -7.0342543977449905, -4.56551256980693, -3.724453194238585, -9.864618331434581, -1.2012060851157487, -4.948415660257419, 6.025243072553973, -4.426149185763283, 4.928961834949009, 3.912769372854137, -8.655431062949347, -18.53197693856127, -12.964310541822519, 1.8753067881560508, -5.461361019802964, -10.75099301276011, -8.817167424004609, 6.417396960372444, -11.431828657761445, 1.272243198072899, -8.470138746376321, 12.017145431859342, -0.14906824188351175, 11.489627082786477, 3.8774943614357955, -2.7377805006556097, 0.2733462118932348, 15.470216226562869, 10.070648518216998, -4.425675438088635, -7.518066172041148, 5.319405900515625, -2.9427381880940136, 3.848070364458061, 9.53485962958768, -15.344175138192421, 13.495700541562956, 2.7547385301716494, 6.542955596679743, 6.948506902358252, 2.2336657492724235, 0.5171304255046417, -6.780528004941619, 14.576871454404627, 0.7346419574580246, 4.134855685692033, 10.861022939617836, -2.202001597955072, 18.747191209328427, 1.6342864843441407, -8.024929418868474, -17.615773186980782, 10.934523745882723, -8.599260449000301, -1.1862607112222048, 8.961975545596403, -7.860472912276589, -5.293154659233284, 5.146193922995491, 5.781777213439063, -10.951604779608413, -7.329679840410564, -6.437450434953246, 2.1617751647938124, -13.552578706914085, 2.6447616437797645, -5.900635439378756, 6.879307811302475, 10.677721390934005, -0.4166063444040881, -8.130723488093338, 14.001055507686493, -3.9835389554775897, 1.4652078598076628, 14.926689293119804, -3.4704290748984716, 7.97369047937093, -1.5870052704292381, 5.169294287416188, -8.343716125340553, -15.601207088620166, -4.489411752623614, 5.670291709457325, -1.1041989274043629, -7.493196211262821, 0.22545955516547633, -3.7774817648108208, -9.363237458330886, -14.45234459396343, 2.4591796783616013, -6.093189383783191, 14.133778175403606, 0.15580037635653834, 1.9134425623893998, -3.636127093393495, 2.257645267517956, 7.589273433253049, -11.011448982245408, -2.7213909085288304, -13.564300861652962, -22.984998129388774, -5.448762904900783, -12.82442701152682, 9.095820537739012, -12.867212955774319, -19.879619797026994, -3.7943784931898383, -1.7410545092818033, -12.452365523735635, -0.06126811011546496, -12.63428380654862, -5.926776241742083, 12.379898891681023, 6.191036718943087, 8.444502767988602, -13.549505741970735, 10.13141459434667, 6.174716319313062, 0.4368674470759114, 0.38028542873776017, 4.4616447352700614, 12.679814836215476, -2.563601468841843, 11.10211985397744, 24.11915505564785, -7.917703247691938, -8.10042829828103, 7.799576328515528, 27.13078850437107, -4.807938720682731, 7.145283732606772, 8.787451222157133, -1.5613862724612093, -10.87400940608722, 4.866287821615163, 8.53080878627092, 5.720946686560274, -6.397552382300075, 10.394858461416165, -1.420421045649678, 5.646359273250652, -3.241046990875569, 3.7570368006928105, 1.6402935420627283, 1.4027313165828459, -3.7365911786851367, -18.797396106132975, -8.792262897195688, -0.22625383683717395, -11.581766553234734, -5.631409156646367, -11.524884648808651, 4.792027218793295, -6.485228523760712, 5.796507259199211, -5.0946140550459, -14.017109345311866, -4.097206315905913, -2.9612079988855604, -4.007855939604747, 6.045581917671168, -7.332087704532498, -3.968486016312114, -7.209060669876738, 1.905961511247026, -8.078633144136264, 8.062610358309866, 5.834173163745238, -17.331940152046844, 4.167809080787321, 13.396962313447364, 4.886147014459591, 9.209019739132787, -22.20061797256961, -5.644583885485902, -3.4763496722283, -6.450172875578938, 0.015648781062405248, -0.11036867059512181, 8.439782609004071, -4.0943099992780505, 8.128350001656443, -7.119876023844611, -1.4558205954673116, 5.409000316356417, 6.386586324161169, -12.269313360548072, 0.963754554338209, -1.8225113227503986, 1.1701041844215212, 15.164873374223928, 1.9969000075414232, 9.751067652776056, 5.845809042331492, 1.434535547615831, 2.893904315514186, 1.3592478776050823, 0.1532086463028215, -1.0379944394255847, 12.880127293707602, 17.555774852342857, 1.7842498397811384, -4.2159208329155025, -11.724381368993587, -21.9170772687662, 13.114245687020508, -3.099473420461135, -16.738200410186504, -4.245273849849597, 2.3854449394470185, -9.00268548728981, 16.662693820819342, -0.5680310740035642, -16.62973611612716, -2.5717553116015965, 2.909065153335173, 2.2200475437692515, -2.100619386651535, -9.045064695505058, -12.490893956946941, -14.80474780602751, -1.794067461947773, -7.276675015412423, 5.963507163145908, 13.85625081775602, -0.16560747571074996, -17.424630009745673, 5.763754738176007, 1.9289591673628035, 6.065515660490035, -1.7470130105215342, 7.8101916067550485, -6.774566464495429, 1.2723903696602723, 5.484206934407597, 8.825898297080505, 5.621173579025957, 7.687642681688601, -22.109398136511796, -1.5989832139566853, 17.018579696587494, 3.897698437540484, -1.1072344185152376, -2.5958752921036554, 15.716168690297797, -1.0353165359966345, 4.506223088887595, -5.131306240814784, -3.5868761239944873, -15.91571113318184, -2.9481929992899922, 7.466231688299355, 15.804386854645696, -7.810208496026848, -3.210192941137831, -1.1060400291559171, -1.4339281576199971, -10.622706395839113, -4.933104808446734, -11.724920987749343, -20.857248830578495, 16.92449401009983, -7.559040528208543, -4.706810043794913, 5.096342033986001, 1.5155832387082306, -10.814235410804262, 8.74451144509095, 6.122640467401357, 3.3231665603177083, -13.078646454371764, -8.57343489557015, 2.9438262716083115, 19.658130169772125, 4.772719063832211, 9.546772847882638, -4.915785442641505, 13.654532920355013, -8.982858220248211, -4.132968877915021, -1.7440792663218836, -3.160656384111819, -8.17362546332209, -6.351049857215151, 17.502151825254483, -4.668182477490416, 18.79580128323893, 15.82544039673657, 8.074525303653694, 2.976367806453559, -10.412842727951446, 1.0303156256261268, 19.78117107110275, 14.350089626508543, 2.9641409937860463, 6.677023518539699, 5.188372242176276, -14.39050232070942, 6.976193551714833, -5.032808734355711, -4.514911709231344, -2.0001565815810314, 1.4596714231216763, 10.91477479875498, -8.866865630206304, -23.199941047783707, -9.530329156829424, 16.09684119139989, 5.044089543213453, -3.4181617290704134, 14.712608130678245, 11.498605955825985, -1.6746898517614803, 17.7272067831795, -7.821692496885652, -12.778603579787612, 3.448530944245019, -2.359944435082328, 1.7251911397986608, 13.32025626066768, 12.21255135868293, -2.3257383746291334, 2.9093506680715087, -0.7512017268888693, -5.755710148580127, 8.449396268468364, 7.807865218416518, -10.28317978883749, 10.076638608310901, 1.0503328872716835, 19.364915892428897, -0.8249533513311968, -6.140798279494807, -6.883266117455139, 11.725746435309448, -16.21117244209115, 1.6324732154490607, -9.626910119028985, -6.957777205404982, -21.45740415026246, -11.221709775052956, 9.55132638636118, -5.8946326397025235, 1.7100040051752978, 2.0350215544554384, 7.952226841494388, -2.944407736037411, 0.9991390517097043, -9.61239268174308, -3.3147007296535564, 7.771040881124, -4.076097878979945, 4.507314486280763, -3.495936310641322, 4.988124865062438, -2.4889799271751087, -6.475129946617012, 11.019426693528537, 22.661251710407925, 3.0176753253686117, -9.095237906448073, 8.15137374313104, -9.306800750668788, 2.9294424814921896, 9.511119756877743, 11.388174932191756, 18.499804942922225, 12.288214438899251, 12.364437237241306, 9.052020596636257, 0.21238436757790718, 9.227626261528927, 3.6378906502899646, -11.783900053080528, 5.87180530763712, 0.20753378143567763, 13.750833444017761, -2.932310453009976, 5.121988058812613, 6.108038319517608, -7.069669819741259, -4.21840736915456, -9.376741874585056, 0.39459446054189834, -8.534361886975699, 1.2805399374101096, -7.246857067337906, -4.775483027853143, 1.464560491039966, 5.30722266203602, 2.7975156548483273, 9.517278421409031, 6.1402855458479735, -11.365693013528013, 0.7612531861434422, -9.493433247330081, 6.470409011475842, 0.11913577966943803, 3.8243953117586758, -1.128575581940517, -8.64054553381562, -8.753197035174724, 9.80470360841055, 9.740896357044383, -0.6882971971738282, -10.503180653345261, -5.000789629342483, 7.671411167389015, -5.22844772346162, -9.960874356288517, 15.535182219341454, 8.690891151166321, -0.6997701922003536, -3.1268882651792267, -11.28119349389869, -13.373822929288973, -5.386561987688092, -3.7582394832445183, 1.9161113559605727, 13.300737356669709, -7.759636453557983, 4.939591358066686, 12.162051989476304, -9.858006563482274, 4.058820966765909, -2.6404977873043967, 17.31857326875181, 2.088665353105023, -2.540271126720125, 1.5457525059262787, -12.142609686149086, -0.19095821195926854, -0.683668382159334, 7.992206067105135, -9.006944472590451, -3.815229202258674, -2.543738862902485, 0.5738620255486834, -11.577863104278888, 6.988065792097267, -8.738407842096196, -17.05607724860495, 15.943852221198613, -6.600547613878102, 9.219940276030835, 3.0909309206011732, 5.599592225220705, -5.455912887334461, 18.21742015146425, 6.680288980751632, 5.773465397101915, 11.093077284286565, 0.7149138338585986, -7.89357031763336, -3.6886366256225487, 15.65881045170507, -3.590109968418354, -6.082625955167501, 8.371595368109748, 0.9088854320527031, -7.203937476433439, 5.353368214404144, -2.943772819656653, -13.179963148059056, -15.646705458333424, -0.0934631365702111, 7.1238019202302745, 0.3420078547683651, 15.063111854120498, -6.531341033891311, -8.777866099694085, 8.029450262222408, 4.199587964934429, 7.514839650661226, 12.182924956524886, -4.721883859248134, -1.135333802193843, -4.179470771742507, 3.2254910231984266, -0.40186458638767597, 5.798712788409512, 11.415286263481828, 3.1011602674919168, 4.169264912258, -3.4941897084401337, 7.988505280775129, 3.3102597631846282, -1.9538379599731706, -14.148892806146813, 5.779699685793922, 3.770709343545968, 18.789052648290063, -23.254250217537134, -14.616744588375306, -1.5468019695799116, -18.79328342168583, -6.4579139318166545, -7.187626731265509, 2.321248315961477, -8.912270150840076, -2.973951795494811, 0.10769793689012541, 4.749602958798975, 3.1241854592388107, 7.007133982915645, 1.2016738276096095, -11.300527928035423, -8.12343505991619, 16.64738134735386, -5.396443286840058, -2.820846906424874, -4.510257071299675, 15.04913995855144, -2.6375043448190976, 4.598873959657507, 7.68160411940012, -0.5723506351079581, -10.749999219223579, -6.254087635298738, -2.5226630052669474, 20.790361409385476, -6.922630082772626, 5.11796114407256, 8.542022737203283, 6.985864210965511, -0.08659825173395141, 11.893741158440204, 27.935568171454282, -3.7112371536348285, -7.005512682935986, 6.496144603339808, -1.3169529965964797, -7.245614018370211, 1.428721339104122, -1.2189671497221706, -14.312933617192016, 6.089619333450077, -6.7985500463334, 14.370407361252353, 4.901407320264522, -11.188923327895838, 14.07179770245355, 4.543955696899847, 24.804116609193308, -7.985397451820397, 9.537278210689298, -4.906436564124088, -4.744144199145618, 15.13369792572835, -5.670335141773911, 8.961151097050939, 5.400601487318617, 1.1838306932354925, 5.667252878656217, 8.435282062546674, 18.119105553324278, 2.4827222849160595, 3.628080548411488, 1.2354389507805865, 8.678026705158912, 8.559747939656, 4.024924304821477, 11.525834134490225, -0.9041231821890363, 4.330873086890919, 0.5891454562304529, 2.8548702056533917, 14.49573784087798, 6.191358300990389, -7.3378230258630905, 1.5630881282925109, -4.935039192662228, 17.589938334839182, 15.135660457981547, -10.976906227262981, 8.10587383100919, 2.713515120533951, 3.7812153462112748, -4.8711877899447344, 2.105043665813401, -13.44512220120529, -3.5855142366720782, -3.8584937681606264, -4.8618890552611065, -9.1518287241968, -14.130896105597426, -8.783263766135365, 4.150901052456975, -2.125405044730566, 4.397013500110726, -2.9980844968156273, -1.873061105511981, -8.080323708144531, 5.287726251916908, 0.40190722130516715, 10.146173142945832, -1.7864976844278413, -3.237428976237031, 12.881870576168067, 7.901329789694382, 6.965245254293169, -11.776763678263324, 4.068869040316641, -21.3436577397135, 6.22802275466664, -4.740923166917834, -21.321133790381282, 5.298831734492365, 6.694402070170375, -6.101989573308408, 28.080099496240216, 9.212401689320599, -17.5362630688701, 8.77446876934982, 2.7097956514138155, -0.7675783727630986, 14.619564615971179, 4.415873674319024, 20.545458688141984, -6.351709725276352, -0.3015563531827883, 5.998008590564066, -11.929088567015615, -13.374157830859488, 10.258861770093677, 10.095412925204513, 3.2979156374674403, 5.533834212517793, 25.62627696064706, -10.198306709601448, -2.824558494056471, 10.160986437258831, -6.248863372984908, 4.302645179867753, 1.4951345788465327, -4.859925957751312, 13.014399231260176, 5.373918209034236, 3.186861594624869, 3.310301039531132, -6.607256245708785, 5.661439801359622, 1.2123053415875549, -0.9310056109019889, -0.9902299286102738, -2.2801040106466615, -4.554362344260373, 5.137227755821396, 7.706013673682825, 6.273013665217134, 1.4171469674995338, -0.9731176031589188, -2.5781800998686064, -3.8994288414734037, 7.190336551492411, -10.862331085405767, 4.956811394570982, -14.867953263520809, -2.885522889380886, 1.5465922072861251, 2.9627500547598355, -6.951497921119237, 1.3336034211653616, 0.1422247772632626, 1.729828849539728, -12.656943857101913, 7.914849311013917, -3.65009017976339, 2.2678728161952857, 1.343187371986546, 12.465615432932664, 0.8687936007031627, -3.983463016094951, -8.987119146989194, 4.9205942654422445, -4.3303874980941925, -0.474628968674432, 5.34646259948204, -2.944225164200426, 18.75386265558717, -4.32779528026926, 14.179798319865663, 0.8570424793425301, 2.9154754616396774, -16.526211714991092, -7.4431621107171715, -18.49428199375948, 5.9528332568427045, 0.8284452654995433, 14.666302500746525, 10.984672475447937, -6.290131652963766, -4.174817130082745, 6.931923380390984, -13.892892374685626, 0.42153007105280715, -3.2531845598959506, -13.199230692496906, 0.6098602640183091, -14.122006187626745, 5.2072855720442135, -12.634743409684798, 4.016109159577803, -1.160277993759845, 2.6827908511579506, 0.49387191675352293, 9.877131597701556, 22.196540539295338, -4.72278225122868, -1.936635765919818, 5.79748365366291, 4.8391777727760905, 2.920569998959971, 5.27870103687918, 12.193353142573704, 4.5120463597118246, 5.672972522707761, 9.212472241942645, 2.3840981432318196, 11.150787768509646, -0.8267374944894901, -4.055907831724338, -0.5797415300500928, -3.210417004436842, -11.067976409547684, -6.798358925476139, -2.1395797639674914, 7.960761229030073, -10.286723704602524, 7.016020594615471, 0.993588710549304, 8.18010874196846, -2.3032502405978073, 0.42272423846581875, -10.22599275026848, -11.925757751514185, -0.08362033649736218, -21.243002400116517, -22.87410174768247, -3.095509756879826, 11.264535170894185, -0.8030619737349122, 11.183728472686497, -0.6095954946488191, 3.3230768808896896, 7.985795224540274, 4.703989910099166, -17.725306979942758, -4.872462551063828, -6.472117452833871, 4.6909974920879876, -12.061844414802962, 15.796424879298929, -22.223064235443776, 4.222115193076069, 12.186956273003055, 4.63048513002779, 0.6887371197621204, -17.192094167283507, 6.842354534304581, -5.403522774173988, 0.5296932571099975, -12.951745020195892, -4.295219800883348, -8.372156776762356, 1.759734602511053, -6.9197216265805075, 15.950384471755092, 0.326982120539475, -1.654508724336271, 1.6886581157558946, 5.747522333382599, 3.5307862000631642, -15.743941496349873, -9.093115414755086, 4.52426182735029, 2.2227160497081653, 8.377314137985149, 10.331354159871312, -2.51146710736944, -1.2055405120760063, 3.2502945557614398, -1.7048502585587222, 7.837776061617856, -1.810852947517379, -6.995609135617967, 1.4380822354677074, 1.5871266845848746, -22.11865854282064, -5.296976917527518, -11.127103957988377, -3.376290125631944, 6.422380244713925, -3.2283449109473796, -10.32034657952951, 1.6123325014793224, 8.782897954085946, 10.540985289385118, -11.610994717503258, 2.4602726793945426, -11.818501104382431, 12.245587194050916, 3.3895351501042232, -4.84141912262426, -12.568717421309428, -13.873108855876053, 6.334834311102079, 1.5420180243429151, -11.58150117367212, 3.6944883857623885, -10.716196271104627, -13.382271696018558, -12.148995023484913, -27.811268398006263, 5.929119096840283, -4.708325525309402, -0.01851332186587651, -0.5532813143842866, -8.883213735457225, -4.625316978252711, -7.8985908243516905, -12.674509104049633, -1.9090986474040768, 2.229903513556134, 13.346695002241551, 4.142536374499017, 5.56879810892648, -17.532634657221358, -1.7817661789285086, -14.194016880867899, -6.4970239124941696, 6.951106770305927, 2.0588847826329975, -3.595269638296454, -13.166534502405227, 15.29252787711637, 5.344082779141125, -6.959652322263911, 7.340230530880204, -10.491455553604961, 2.711976417948739, -16.933475869527324, 5.442371812845141, 15.361848411817054, -19.45796802739768, -4.708795421032058, 12.00044454513615, -2.950988585520031, 5.952058990582358, 7.649795421695865, -5.213856518823378, -4.788374044766591, 2.9917222193590174, -2.203039577751173, -0.4473952654008302, 11.17850744547663, 1.9159463041698408, -2.1106923196507372, -11.671407310946226, -2.667077526430603, 11.077005700146636, -0.2747304936593674, -2.3091239298793735, 3.696776366336242, -4.071062584919015, 11.223104683949574, -11.201217206548586, -9.255347429453042, -2.51877998993223, -0.20601006480155604, -4.913837860669005, -5.98144524925953, -9.143713130720755, -4.15910339557506, -7.279193850314287, 8.435232523451234, -8.377867328699633, 7.3162081874206955, 2.246502731704434, 2.002159546563697, -10.64780809413807, -6.3702527567622615, 10.481729930398272, 4.8107019483449, 8.692177075298513, -1.3995850837875665, 3.955575537517941, 7.210521153804664, 1.841553999730776, 8.918650838112432, -1.8949386149689649, -2.3895619914760333, 0.48234348366665475, 4.629298204544678, 1.1323315221672925, 4.609740911320845, 2.9787987103336753, -4.615070115598798, 0.8900211746089797, 6.924426189786757, -4.386862707599129, 3.6240728302981564, 5.182554178141057, 9.42717701906707, -10.7246268515752, 18.742871689149425, 1.1761468300334461, -8.244987789589459, -14.795456450017813, -5.862707704978581, -1.369316896383042, -4.909129834467542, -13.881296432069274, -4.280000990733569, -5.42229623899508, -10.370810859376254, 4.428656454037471, -7.633931242624802, 1.316353199923197, 11.877322972648724, -0.13056098682247624, -10.11498581003315, -4.2663351225428325, 0.1826069556655633, -0.48449445265117996, -5.785714282637396, 26.18457778417055, 3.799477611880568, 20.739598036809678, 8.547833997650498, -2.9317651693045326, -3.7834498924047444, 6.567208825679578, -13.57888405454172, -8.689903617590154, 8.229152270075748, -22.04652056977755, -20.527957766352174, 12.466939564947255, 2.7883648846630678, -9.716689784974564, -8.762521733092965, 1.3833536962028565, -4.196898229719698, -6.641399708014794, 11.63580861432746, 18.161871866573648, -5.2196986339351765, -5.059262486053408, -17.60069260126159, -11.792358862558958, -3.3571533172502233, 5.943538700478667, 7.559174812205269, 19.1506180157573, 0.8985269122596399, 7.449820791342263, -0.14839001819710224, 1.573505255628165, 1.8662658960649023, 2.2419675479524654, 13.378898840412743, -4.753307705259339, -21.815987111583897, -5.7679484956527105, 10.02767642090737, -4.348437790645127, 11.488940606153552, 10.933462204328187, -9.76805500782517, -6.0715396913949595, 21.953068972822226, -7.7058844992470945, -4.886389906897488, 2.4041289742469014, 14.214647697975101, -11.494900145664724, 6.8576751903959, -6.281165117521207, 14.931511266479509, -6.072230359037522, 0.06636515626082878, 7.504524467695314, -5.0121667421472775, -3.1062906861214232, -4.717943590287306, 0.8164026195303549, -1.0771265072147291, -15.93940234839015, -3.0427068582078145, 6.0132503875743275, 7.237077789073069, -9.606467465511093, -15.713270876169526, -12.816898203820736, -6.650727601474228, -8.508700774227421, 12.487042919378858, 11.136840021810018, -15.358794807141276, 6.1390554585299295, 11.285967004833365, -9.031405663967183, -12.208766198984177, -0.9344055292375839, 8.407521098325377, 2.8576574868939337, -6.221634829051782, 5.497497547275247, 1.0657635992591745, 11.378883843009909, 0.7176410213789401, 4.057918241203208, -10.325506161833962, 6.187671413873435, -5.110547204775456, 12.543559847871181, 17.662057257279823, -2.573614944075887, -4.929307914021584, 13.498120777412009, -7.127019723356046, -6.616570642587387, 24.81019109991985, -4.783870886964429, 0.3947327419956007, 3.113537417351396, 11.758856262713646, -14.286671222634434, 8.258210276702611, -9.082603815062408, -9.836462286191251, 17.30029865799243, -27.585706739444586, 13.205776053080895, -8.728996244781571, 3.8890486796102666, 9.406645203827363, 17.109668428774768, -5.4916395483680525, 9.26329291676391, -6.690397914307214, -0.7254976220712688, -4.864238428409386, -3.9744204009008044, -0.5322736728917371, -18.393681582887734, -8.37558166492196, 4.610631409201666, -6.837801508265958, -3.4007159750660207, -18.046286386819773, 0.4700465588190335, 11.109394683664856, 8.921028383149576, 17.805590566194372, 5.955298510030492, -6.545499938195297, 4.636965517670861, 6.20989865453773, -1.9291032544657782, 5.693169524801755, -7.193105369196957, -4.473565066285915, 7.983924566006836, 3.1335909873932644, 5.332292581265551, -7.745198753741161, 2.7954691223620443, -9.598064170999008, 13.786882348151956, 4.772324147974938, -15.803570679123585, -7.589094907913536, -9.247118372571075, -13.452772202651685, -4.433108796258622, 0.7491596836765138, 4.687846369392893, -6.542276009587109, -1.911018929114801, 15.436033167483066, 11.19957043922747, -0.03033681441574565, -5.881693373065669, 20.580166109807287, -10.38603478988623, -18.145815595984978, -10.50006236347249, -0.31654609058833844, 3.3322435656400007, -2.8489283802453063, 12.867826484084137, 10.000366450738444, 15.599216719667705, 4.510330849126468, 9.854967297870497, -10.255344886593871, 8.457235651934273, -9.018681195060648, -12.018131687985182, -9.251404368981552, 8.350938629171408, 5.739726260737655, -10.038284806146958, -1.9955732020952086, -6.32512564956984, -1.8757409632025588, -3.180360833790176, 8.48189286225753, -3.040297037295424, -6.414375097788539, 6.3990587272144115, 1.5517732026172344, -6.057308649193067, 8.986382025515592, -2.1086547111210416, 1.40730050563506, -2.1860227565931956, 0.7633869737532072, -4.553694511549777, 0.5436015859025034, 8.627023634375275, 0.5159289531101516, 8.387925908448182, 14.97770529937962, -1.7621407238601128, 14.515751529729116, 3.915176562437889, -0.7978705455178133, 9.192738938044831, 8.923766076001245, 0.1158956321153225, 6.6324981236575535, 11.859166779987028, -17.178351400793552, 3.0472660779121608, 10.407363849930578, -5.459948868722155, -10.82042459707373, 2.8957301190591567, -25.823754241726142, 14.675300727249507, -3.653130040396297, -17.454221957821947, 5.072125361517465, -0.5765012138106871, 12.445031242962097, -3.2930450071522963, -12.19967601926116, -11.602340282935556, -6.2575212937612426, 6.353428790300588, 7.293895879155117, 8.131298163768042, 5.590159520554375, -4.63843227141763, 6.763532538823849, 6.373894605792634, 8.155393091329833, 3.4313674347590575, 3.8419620269283348, 0.15453383651011254, 2.0036023308306805, -7.087635574192231, -8.962921509609311, -3.31237894032157, 8.092392819274028, -14.689849005264916, -1.7820854044174719, -6.776691335610252, -7.2435986960674414, 21.80010406240657, 2.0845011132359352, -5.954306751897095, -0.41522943769363785, 12.876889143224918, 6.075871672303377, 3.293063144034636, 6.318758722423622, 4.3251385091052414, 9.719873860122073, -5.165850769655002, -6.050213393347258, 2.698115895185688, 9.885907553411075, -10.874899341137471, 0.37437581415976373, -0.6448424748044481, 9.355944841295301, 1.071862470895247, -9.52478240994148, -4.099767153811565, 5.2311768632786215, 4.544919571331798, -5.151220184921697, 8.356690563660853, 10.741150542774847, 4.371627326811354, 5.249579812537326, 19.030822231646088, -4.575250351999143, -10.951479063541537, 8.076850801150801, 14.873543656700962, -1.633496405002341, 15.978180141320948, -11.250728913959628, 4.969507244202913, 13.531459102189707, 13.812185652285882, 2.3503011464996852, 2.116602557179272, -0.9186332611180301, -2.913693450933634, 22.761499787590594, 4.656907473835429, -4.12755632667796, -13.537574769744017, 4.613553669961816, -0.8362599385737076, 2.3678960769109185, 15.125325326890602, -0.1980443942123711, 1.8958015662664014, 12.755180409577362, 3.2962359435135276, 15.814543699371143, -1.2415017013860468, 16.295438809142283, -0.3013096634071373, 0.6833417614166798, -3.4528466457681226, -3.852508713372228, -6.464907362582285, 0.3153790991533937, -8.48406235245308, 2.6084375570637626, 8.898776535603096, -4.682050481994978, -4.229046109817117, 14.529696517385675, -3.4320829032059352, -1.4332995594127271, 4.32628443654553, 5.889397660741145, -0.45099490144641097, -5.686337154122984, 0.7016164200586377, 11.101844914442987, -3.8969247925560766, -0.8753085980981197, 25.54693227202935, 2.35543128126798, -6.729543503657397, 1.9863326905140917, -2.409449897233568, -7.453411517613108, 6.707272236461051, 2.468492279297744, 16.97470475097445, -3.1446617165031197, -2.477240780917306, -13.906009858526211, 4.648737600677972, 10.186064839128548, -0.41264398406677866, -21.130641662271323, 4.420152322077589, -10.236616208037047, 0.20994811242176326, -6.321848289628381, 13.356090132699896, 3.8551025239986116, 1.3069921423436712, 4.373416050914833, -10.36968517541825, 16.057597252657402, -5.171663265887378, 13.58936346071755, -7.342745326359905, -6.965118609828275, 10.522698980759568, 0.18037445353162068, 11.733548181460712, -2.4413013110615895, -14.88150536141394, -4.818982451467281, -4.6658497179566, 5.2322462017827345, -7.59622035939642, -10.753598529913605, 5.758466651892234, -1.0992728668252347, 1.8141613902555223, -8.615818639538855, -10.178329696682951, 4.860765975017586, 16.24495782803604, 3.5271037822725977, -7.05715219232591, 15.223059549774453, 5.129850248808898, -3.8378794547719624, -0.5680254038763783, -2.3296657662577496, -2.455180262410023, 2.98594966862749, -10.146382152456878, 2.3401379413514105, 16.318253412852734, 11.404190815532385, 3.4857636202407836, 0.05206153995382268, -17.71509479277233, -11.749196035027342, 6.472365856614609, -11.088065134588692, -1.0648594344180546, -11.660329623265085, -1.2119938987747165, 1.9115096589009246, 6.096420641850152, 7.4516363735556705, 11.66672397413152, -0.9160747813910791, 3.9974345089636727, 20.137802726514163, 1.5248919477429352, -3.1916616827861635, 7.087596460945865, -14.608965933938498, 8.738410998914032, -5.014991596000163, 24.59700197298414, 12.417261420059004, -10.98763839385232, -7.138111647253878, -9.459965607215164, -6.592702689399121, -5.719696955195169, -2.0791977054830024, -0.7903114767698384, -6.473556775123383, 8.874591618608598, 8.888141292002931, -5.478834659121496, -6.295989956446644, -11.052599410938821, -2.57527723719043, 0.05353431069541447, 3.6948714202602173, 9.712295060448374, 13.480615212186398, 0.3050998022858318, -6.919280851586851, -4.854369186106026, -4.530400678319248, -11.665191968161283, 11.647150999796521, 5.2250237214120485, -6.56366370862767, 0.502194929193095, 5.706067321019013, 9.061280699747872, 5.1675789178284255, 16.133090362208186, -8.23504751588087, 4.7096715980526875, 3.5991166558942407, 2.294636883442414, 3.8030698706232227, -2.27486227881988, -24.22455584143787, 6.91449391406748, -8.821831071911568, -8.604433310113118, -15.405969860484516, 6.643472090568274, -10.971963881026518, -7.85623048921982, 14.228961953614752, 8.66916313757777, -3.7292757662763116, 5.640585888431946, 2.117451744850679, -2.5874726943083326, 3.709105451919588, -1.7356227925269028, 16.067166546759246, 16.227359676879914, -4.937403964471275, 6.4261500880334825, -7.360691808523295, 5.537947892713401, -5.663067486312307, -8.906383678855846, 7.9863210175601616, 13.005469464671004, 7.913018607520739, -1.2178017445277165, -9.514540879150461, 11.974631213521123, 15.45511853963574, -2.3999406638930094, -2.836806671413265, 1.4964517373854824, 1.4363969607136813, 0.8904083918987518, 6.528521396016097, -2.3586288949167393, 13.301694754429692, -2.2928437847913616, 1.6717491495789871, -17.814045661364396, 8.49013592195893, 7.372780930233577, 1.7799855975998722, 2.6222325861949836, 4.622723013706365, -3.7055236425543034, 10.936347253619502, -6.269710355318492, 6.338278051256539, -7.683274683869879, -4.899931258967022, -0.6427606926135697, -6.956475563306411, 9.966682008875596, 16.173815620704698, 2.444297486535106, -4.356054543518644, 5.61472023323003, -15.158736361682141, 8.015066953766773, -1.5279553219711126, -10.575312549866487, -0.17106390632804014, 1.894500330388574, 5.107644572301133, -0.2615980763834808, -5.255275401208834, -18.904164297056713, 6.260097405295511, 11.99165548781365, -9.374582712365575, 10.035841396112513, -10.89840550649281, -10.525079129000815, 5.984310093485265, -10.68204211036063, -4.014202375930257, -3.0606120617341532, -6.861161150632964, 2.081761872882963, -6.317185255829669, -4.099141107820505, 8.762637445268759, 1.9576305779130831, -11.152418210485619, -1.5874143690408549, 7.987008032613638, -8.023596286981038, 1.530167912499742, -6.806639112939683, -4.327431877799769, 2.0684730968295617, -12.750352219242146, 21.15951565054781, -16.28508403736526, -2.983523335911202, 17.826506850019076, -0.541231322474991, -1.6352202425518143, -5.888181993724596, -16.291217966247213, -1.7794620065817537, -3.1426405441870564, -2.642277495387829, 19.97208790559609, 4.136632528772096, 2.034813422201709, 6.152658791948707, 8.231487513498424, -10.134251800427606, -2.179174018843925, -4.653559829776383, -9.936842814945859, -1.3925395829311116, -21.80632344470854, 0.28264655740349187, 9.365286765283885, -4.378652570367876, -1.1047998496326357, 20.208014759829645, -7.839322570914211, -2.1214437596215387, 6.8186284036931015, 4.14819888265015, -3.070764906517501, -4.73692533114878, -6.490561011202103, 6.619069724095885, -11.338354922180832, 3.427208762940901, -12.10480370368497, 2.7986949843029434, -5.24864191103799, -10.688072357452599, -3.444356714421913, 5.405910738602668, 8.792826511182573, 15.379520729272825, 11.580162160888518, -4.19958608126848, -10.187462416252101, -8.744994640568963, -4.128156336309021, 6.551275698925911, 0.11297342307486669, -6.2459324273284755, 13.812691894786209, -17.270936151741072, 5.246670371540319, -9.652502381265347, -5.907314448346228, -2.4314718605543106, -9.200270382512581, 0.9339738223494433, 13.454454840110223, 8.381891230451606, -4.855066005942893, 9.686007817433824, -7.512342898919529, -7.557782149309031, 15.49809799995623, 8.246141639955159, 8.569454114498896, 6.378391652100363, 14.893234053743246, -0.7143520933779501, 12.094809932754123, -19.906777904015435, 5.717719953479505, 13.075299699595499, 12.56863536452994, 0.6072182765809258, -7.5785262507642095, -2.9101241586404125, -1.5028275299953848, -1.0566721045135736, 14.268250714057135, -8.448589124220867, 1.2976544414647488, 13.001149425501527, 19.905826539455244, -0.7466127271165195, -1.7297157010572306, -0.8130272157411187, -6.234868053320819, -4.011557372296035, 0.3526613191164504, 14.644518073941214, -2.6364409015436614, -3.025608441164465, 5.1588269709688666, -10.102173991649478, -9.610068124871493, 6.637710139569749, 2.0804549658083316, -2.4441956859230074, 3.1709393793531753, -7.821694538142148, 13.57458259831862, 6.416969820477244, 7.9187510070139835, -3.8748094416201453, 14.707450224303658, 0.8813304576790405, 16.54441624479206, 12.461311330807034, 10.553695827326775, 5.548458369300339, -5.563548156132693, -5.483215172999188, -6.55663550157186, -5.272279020132904, 0.25591280125418725, 3.6144306004555986, 2.130329709337341, 2.5114263136319557, -9.92981573854336, -14.360383728407042, -1.925090819266241, -3.7777835481625637, -12.4262681671535, 3.2984958191288927, 10.316678470844089, 0.2613266975713415, 9.921473837047907, 9.244780516065399, 5.7649237959924164, -1.4010993323061396, -8.087209729041634, -17.168617137780892, 6.471676273826427, 1.908395685778889, -3.6356503928368973, 1.5488158588945413, -3.279969504518798, 9.41662037281724, -11.069358104337272, 12.770493509737681, 12.805813580608682, -6.360382091775008, 24.541369348967734, 2.088793251325863, -5.51946072880175, 14.848275742049609, 1.2080212267531183, 8.593514528340085, -1.149189588103374, 0.1104897090494188, 7.669038240176484, 1.1196990465891996, -13.443914064291176, 1.5010428373068916, -0.2624200380119992, -6.2038457763792545, -15.364688986167597, -5.667982488825656, -9.462184708639152, 5.672042645207264, -8.493725048963293, -3.546648123067553, -0.654161680555845, 12.585982408734145, 3.576973502105324, 5.485159816848369, 1.6846271796419439, 20.41486302716074, 2.591774729178937, -11.133690716932149, 6.72150751490219, 16.74742320048993, -18.270407090047755, -9.81313771999329, 8.98414852898158, -13.478946385362105, -8.446450730443775, -3.6170878612918718, -6.219883932726528, 21.633938683465345, 9.327100948133817, 14.292715886251997, 8.877104231509602, -11.359609191944305, 0.7903838871019243, -3.365194819670386, -8.89732909749983, 5.476505256244435, 3.2605764162219177, 16.8218244699406, -13.773999936567746, 12.300738505531042, -10.209795341421556, 2.9269877322610154, 6.823857535431394, -15.825962205196, 2.3737047053017015, 13.118082497974934, -2.635149785511201, -10.748525631032004, 4.609803146931741, -0.68822511363447, -19.0200276167837, -12.00203863017374, -1.4228011950474997, 11.409027646773723, 2.4419062215517986, 4.088479551059902, -1.3005960054371153, 0.358691772456974, 7.962490080838088, -18.080232147521794, -3.0584173920096753, 4.229377716624514, -9.088035960350485, -1.6728058074336425, 5.525049654703004, 7.0557937797227375, -5.5605162537366954, 8.139786861308645, 0.8485007112874898, -8.446652494624203, -4.331334482884927, -3.411704190368224, -6.434340170365636, 22.874769900971156, 17.573647504763468, -8.15966822047902, -8.712542517044337, -18.57514570188938, 5.899656655271935, -3.188606382758701, 0.6457213185325665, -14.277774601239237, 5.032549773565281, 6.289181062884115, 11.544286816103513, 20.90067403394976, -8.748086370297187, -16.365930980757437, 0.3323674976712548, 8.69869969431798, 13.102338422912103, 1.0094345048492297, -9.49014415487384, -13.881916128344647, 8.066596404968525, 1.7520794284158143, -8.231013936990015, -8.567449314486494, -8.651882796465188, 2.3794575905939186, 2.847630957634429, -8.444650413423245, 8.179253836237192, 10.578790372022848, 0.39997950088822043, -15.521128654551035, -2.127062224662003, 4.801815363912874, -0.38648252700891805, 0.1780280496905957, -15.301840571019993, -4.275902614556627, -5.281218035382582, -9.075602413223589, -7.297628348060204, 6.884875095207142, 0.6481626200220537, -5.679580634343413, 5.1939065832748526, -2.9079913601194405, -2.4001731837046796, 12.254248869166307, -8.239580358798467, -9.276381514642011, -7.729531116295229, 3.9361052607115177, -5.2969687937572365, -2.1142495137525845, 4.181301398649741, 10.821368058021068, -1.718331731424052, -2.081758916879816, -3.312311478536447, -8.209767304395138, -12.523732389634798, -2.6274313272611423, 0.5039007928787125, -6.312102326239281, 6.795308644439291, 11.763353895880048, 7.9978204977840885, -2.088648814255845, -0.01622237210653199, 1.5787007051164672, -5.03867627176715, 7.120596018850132, 0.14292630225403474, 1.1301806484957848, -2.319256573017553, 7.525399374551725, -9.582032885622526, 11.138030970184394, -4.454733119192418, -9.471372708971243, -20.265393900826837, -8.036017354457462, -10.954620809787208, 13.048487572671396, -9.540789177222354, 1.0610449729778741, -2.9597037779801845, -0.9488543450607851, -10.792894822870466, -5.978576091061038, 0.33417655851856076, -4.883135373909682, -19.77833182086619, 5.412394627948861, -4.358134866019618, 9.725901182883547, -14.327250483863802, 8.781961827813316, 15.247995588861718, 0.836810398118742, -5.17450943657177, -22.746403157782165, -16.709827132501108, 16.229521719219296, -0.8279636550342455, -12.107077541581914, 7.535447304260552, -4.8181273789668, -9.567845168790729, -0.2848288190381455, 11.295193387619957, -14.481414261522481, -6.273048023374837, -7.932779095189026, 4.532177364420107, 3.2487366630017327, -0.9166855741009483, 7.356993200919134, 5.832557295209223, -1.1866523338955983, -8.45024190516575, -0.32841682110400755, -8.083731409277696, 5.5984614340602255, 12.414425445991352, 13.59994121573394, -0.4465792361735925, -4.430799616240804, -5.023131269050928, 3.1837597864721183, 7.603165720956084, 18.96736026750856, 12.139003784547764, -7.833566133604727, -0.6669056046278243, 11.649484261239433, -10.742156824909289, 1.640764456734074, -8.894814427905711, 2.980294060925848, -2.2648462317546985, 14.79794842193713, 1.8701512256645658, -0.860401789621426, -3.4476606719364336, -0.49166393892074495, -9.580274619815961, 8.007187093360741, -1.6323738062740674, 1.8217216090016028, 2.2209414324557812, 1.0190623947308246, -13.55613764172874, -10.711140615593976, 12.084649040088719, -0.43323846584186465, -23.6910495044156, 0.77121310564948, 6.509040766362363, 1.7677627009494574, 5.907708490815324, 2.3607587691997707, 7.821157879165822, -9.069678112330962, 10.725744597615401, -2.7029273387869392, -1.5047031433333267, 8.339388751392024, -11.396299630502707, 2.5719482828086058, 1.4241070976595485, -2.4747659950999417, -2.1868469700674793, 8.392138601008961, -4.0995747259792, -4.463118240158525, -26.57241801165512, 14.355804665248867, 3.1784133571541653, 5.035186927035668, 5.877389286038973, 9.294281968158435, 12.937917525713411, 10.142923159176505, -2.2139522679521124, -15.667973308809952, -7.114069117185054, -3.084901831162714, 9.673513660652759, 0.04835861125122903, -2.9921792018550466, 25.05320882957847, -0.6895783123560677, -6.835133135990267, -5.217439063383092, -1.574375705634635, 14.776548504493217, 13.66720726113866, 12.02586800937905, 4.269166034688304, 4.747893193958176, -5.571644093508629, 12.9879608441425, 2.7455096335635725, 4.2052743718375645, 16.310168111039633, -0.4577903266338802, -7.775865840744788, -1.0832834656053456, -6.795276820295554, -4.819783433916676, -8.065816862615657, 1.287662863096763, -3.205481243408827, 6.775952544931642, 10.183450442310832, -3.7908473254800374, -9.953977290937724, -12.906853263861645, -7.439097179089718, 14.473756161602608, -17.57467919583396, -12.348652701397038, 3.0085802565561908, 3.212673596582753, 10.712628925430506, -0.4762879050413124, -5.829234921956777, -6.0411484574932395, -0.19206235746678602, 10.688629051853521, 14.511535788176749, 12.710049932774952, 14.645707015541346, -6.780024087819661, -4.8335805375712795, -3.4450412154191388, 0.9141729782751931, 11.440006407478311, 9.999788023372364, -8.247003231724497, 16.853959595292764, -4.658821183451221, 16.053871894390802, 13.561515572890197, 4.224318938222649, 6.106540856059708, -1.5782952973910835, -11.024125368502952, 17.358551908726856, 12.170169852744603, -2.728229095965074, -0.8616748436933007, -3.104779748434535, 12.172207998838509, -2.460476627173151, -5.950957453198353, -1.2383278949933265, -6.052489535769561, 8.343729388717904, 19.591657959202838, 17.784731179809462, 0.03509172281764639, -13.64578587596499, -8.287202391536493, -2.703189756091057, -22.662807228606066, 0.8293028505073894, 14.801044486308731, 7.462418355694148, 17.578415865067022, -3.483617765171319, -1.3853279900154387, 7.911390178109906, -11.813964030338008, -2.0404647010391335, -2.7228362428727193, 0.56732890348638, -12.150116891614845, -3.0415938336306856, 7.5908373783616385, 12.528498966578685, 1.0834464714930006, 16.583077728234787, 0.21975198296558726, 5.440976654684489, -8.537304865882161, -1.9563271219225462, 4.7422657024518475, 15.583342069023091, -1.6786297895894406, 7.653230553776497, -2.0565307653254483, 8.364972040239685, -11.112401172782738, -14.030174974310471, 2.0076432690248645, -0.6425689211096, -7.361856791182899, 5.185478380030893, 13.326036243614022, -2.947409311344596, -2.2254587766858807, 7.632463777796387, -12.373374697514876, -8.329724315238872, -1.2856118299022852, -10.324170030719902, 11.377474442012987, -9.294923159148274, 5.272773794917185, 21.9348085708649, -9.186549062165676, -5.605511994476513, -8.748644532129507, 1.842317666570305, 3.2858423932934606, 4.607290074604954, 4.068975792695294, 8.832430358485654, -2.0207072978651905, 6.88118933483543, 21.931511981408278, 15.459007084480808, 5.756391183318788, 4.00102243900093, 13.550264535783583, -4.287397151451609, -1.2563204213310981, 0.601284498947456, -0.3251983247357666, -2.7908505322510733, 1.128808659384589, 9.070207479180496, -1.2266066144888454, 9.42468855246237, -14.860032681160504, -0.7041182060460679, 12.838401546546866, 2.2861634916536726, -5.530488224626683, 0.18309781157139574, 6.014584658904505, 2.5513280226712745, -7.984436793704308, 0.9018963783401075, -23.31710365700916, -8.500551609278007, 4.997161815531957, -1.7538225838463521, 15.690460557209159, -14.064876276829656, 2.6641894554314165, -0.6374535881682388, -0.7290783372251276, -12.217131267172585, -11.284971625820535, 16.790996761790595, -7.867047948855324, -4.112594999594204, -3.6261593657060045, 25.183960856084738, -5.068445537958808, -9.39000807909153, -0.249351722833071, -1.9403099351640536, 1.3379781588027713, -11.344669617872423, 11.205372771432874, 10.552683460132663, 9.305366465106717, -18.69903930989196, 2.2508799632108487, -3.2136902438392037, -11.335172126375468, 14.990554559300191, -14.818080181882122, -0.3528559273603731, -3.0525761951380113, 22.151340353735055, 11.561336982815341, -5.373651625999984, -4.01537543187359, 1.1761399707103388, 13.814068785430003, -0.9912280933777297, -12.675927155771511, -4.213624860143964, 5.8333654824892145, -17.801415362021842, 3.8726315613602043, -2.1974963312448668, 4.773805521777589, -1.3245912438248224, -4.066719377180635, -6.595260874328423, -10.75681838733677, 4.654841040481141, -14.448106440573579, -7.565555660959012, -9.79303691846589, -7.321086738122261, 4.49443985029478, 8.824952619541161, 7.059834461567784, -14.572800913948837, -10.640509858698762, 7.940968849150574, -1.7339498249091603, 1.4226037625496877, 0.4172660025673275, 26.436342568374062, 5.5647716472029, -11.106859874358529, -1.0259372044378323, -8.763686098970565, -1.9990993180952656, -13.472018885862251, 9.340799187616891, -8.091546457545887, -3.8478291406953065, 7.853398634931057, -13.082893326803923, -5.259670667971362, -2.6562971951367613, 0.05991390858698703, 11.25003589936833, 9.855895312502161, -6.388491504896654, -8.091156209705115, -12.03667461076344, -9.494101706212003, 0.9895157228971773, 0.5563032012973754, 5.593464144038484, 3.5709394149580587, 18.689699842096275, -3.704293062789832, -4.768255204482961, -8.984931576980927, -0.971866152857898, -2.175924696035052, 11.61577992782468, 27.735276682749454, 11.653401084236847, -5.602577716822961, -9.381669502182275, -16.198544833567833, 8.95377479662872, -9.922628851607325, 2.5447271451334244, -10.308753820519831, -7.35101811862902, -0.18057149549063556, 2.4025891624402522, -10.592361485757948, -11.215331983672032, -11.524527215174873, 5.90893454246318, -8.963063014689942, 0.7268057137745292, 13.357955251385409, -10.041283557039721, 4.284404392652925, -7.402713107802837, 7.0544814338033355, -1.4407771078363052, -5.739816656517806, -19.223660679467425, -4.079466134761374, 2.357448581693091, -5.255044556859554, 11.905717151761753, -6.369596034618487, -0.3701836381293467, -8.71326540123214, -16.52837710120402, 8.878598298690306, 12.893627357408262, 9.171225287662805, 1.1721747442605128, 9.949892693218441, -24.252387693061735, 4.413090076814688, -2.2020401133487035, -3.1864782381012393, 4.7294308916129015, 4.031632167467458, 5.854292471870754, -3.7690077121435874, -2.0251291435927357, 9.2227435995169, -10.483681289435152, 5.733403124285245, 11.696012293342761, -0.4078339311547887, 3.1043461356605815, -4.324945880433823, -14.78928562160397, -11.090897107127986, 8.941819511647305, 8.293762817457258, 2.749294554728074, -8.717215466181267, -17.979540099789773, 3.5617560118606177, 5.716822569039175, -6.007711310602503, 2.7181169944115053, 2.32719506011733, 1.2193452478004891, -10.018856635214739, 11.82373853184348, -3.064645420338975, 10.5026862253455, -6.922135503561452, -5.087111741603265, 0.8287794398539958, -0.8633313802391973, -0.5922663316972766, -4.000469782804521, -10.441041474953831, -20.511845079949016, -0.27342360611977434, -4.774329544585307, -12.10472752929786, 4.935500572799399, -6.6746126678018385, 5.674089832666216, 3.275224986679524, -2.761949308982368, 10.570582225768472, -5.672724717641741, -8.493972954729095, -23.597036177902748, -0.794708182095317, 9.144413504706163, 12.86574397343798, 10.877909931508459, 17.418659500943644, 8.683367960718817, 3.8435543237681755, -4.2235843685737295, 1.289981842992346, -1.6209114276702579, 12.832397144297921, -13.616468618715857, -18.314914643992715, -12.54568472585353, -0.9142021443762041, 4.090114408977634, 15.619737061015305, -2.409554373696944, 0.28420578417335113, 10.244878991020185, -1.9433035878784972, -1.9239091089569018, 9.989551330906137, 15.020742281438196, -10.049079100670221, -4.913794718704472, 0.547990219548191, 1.1720988756426043, 6.430229923313503, -15.566585541004324, -0.6075612769727412, -3.057141891857497, 19.634409202712593, -12.394907501779922, -2.357541456870335, -0.6830480251401929, -1.950279001493446, 3.951893748921659, -6.880471124003189, 1.8610395787866698, 1.0397481448227073, -4.580287930924086, 6.262267351656347, 7.175849964145786, -5.125050705390429, -10.67289422311698, 22.75331477290772, -1.4709754880505368, -3.151802107351706, 0.8588250608150911, -12.942884322872017, -5.741856924364044, -11.796826783893058, -0.3688285986393782, -8.97615737363887, -4.79132993116632, 7.820912670382975, 9.018986805224923, 4.841852330558869, 14.30178065480744, 13.094299323659913, -13.005857764398229, 2.4182935558290772, -4.772900382955762, -10.635778390312067, -7.0919648072068515, -18.699112448968826, -8.695981395316679, 4.1831869841442035, 10.157816748473877, -3.7810171002467006, -6.305063013407491, -17.850924661804104, -10.284881943436089, -4.912652903713844, 4.087352753099905, 12.649417658173142, 2.3749274569812457, -0.05180937145082265, 7.135286938483425, -5.792086493047912, 10.684124967140475, -6.682617757314355, 12.782239052653958, -10.21327547543994, -24.09764867357702, 21.86660222133449, 4.158900241155151, 4.952702834997802, 8.390920318630508, 0.2960670554561051, 5.9450446632083125, 8.800989166722644, 5.719881309797004, 2.4785690935602553, -28.683930097273993, -3.18136981316096, -4.055997327383422, -4.788689097280895, 8.21621673357775, -9.082126483175252, -8.107584389143678, -0.8550462280609485, 0.8489812907342312, 4.3741262361402855, 0.15719931583092642, -15.698642632476533, 7.341389566969604, 12.715858201157976, 6.836928998809387, 12.344651559289021, -9.953034792779, 10.987387093612057, 4.824137634061016, 3.5103002239606607, -10.75665496006424, -19.285712237228562, 3.6927771885850373, -3.4765671477049773, -0.8118912666380405, -9.898808348113564, -1.575990094075871, -2.5645894854122453, 9.068091510143146, -3.5050181150126782, 2.049932227364546, -6.792738700733544, -11.350127397210635, 0.5797075940017139, 3.5480466975531524, 9.966499980614529, -6.155285888382392, 1.1906834661439498, -4.961207992511862, -12.504999197846402, 15.741238371847098, 2.413530365753816, -7.189618871647389, 3.9605629321072944, -9.17642741946456, 7.7576569280496495, -5.072485673709861, 7.139339859087279, 9.827561253079478, -10.334032269194493, 12.340921759941383, 1.0854848415430374, -6.832688063452433, -9.626773674038217, 10.652549181583757, -6.926120755157372, 0.7995455956086575, 3.185113924854283, 15.897877334401294, 7.410900860732174, -8.812110585115851, 20.579923671189007, 7.076767646787998, 9.016085443723213, 2.561862876272837, -15.492237310622349, -3.5752150584895293, -1.359848902882577, 13.142864305534413, 2.4143131503715587, -16.492816482150083, 7.413923721105886, -2.790244079688208, -14.325090151711628, -4.942283712116638, 9.775335967883418, -8.48661426095863, -7.076125284345946, -5.144819799231799, -5.305064611180254, -4.859878412573369, 7.700485995022136, -9.087198949747677, -4.7658021188859525, -3.913982211103927, 6.120094930844953, -4.50809860198367, 21.82107579520662, 18.42022291148345, -6.968926635110595, 11.535044674423279, -12.429262112337508, -9.271218470535125, -7.4491813629289165, -14.108357111198652, 11.955192897249114, -17.721656994715573, -8.227724343599165, -2.1175302725943217, -4.042604723264297, 4.285189599638482, 13.512892463423558, -7.2055740956956695, -11.46800284741446, 3.667495759794089, 10.483816809339983, -2.0602639105746796, -0.32034331656469633, -13.411561942223928, 16.94726278040148, -1.3731499128672922, 0.9708621943773943, 8.188951625185274, 4.812338606607119, -13.391246656031504, 4.17043512996006, -6.0533896064546, 7.949021469479769, 4.725799572908193, -4.463670405440413, 1.7000662086540272, -2.7482887374480134, 9.968276932912373, -1.1884926737601333, -1.6046733414039607, -2.4599117737665104, 0.09521355317420271, 21.57676674805949, 12.38156745509196, -5.845862690221871, -6.564537345381318, 9.71205087850258, 5.476708681662307, -4.633712931122397, 0.4324016295469848, 3.430760361761457, -3.5709948019760143, -2.7772944279252947, 3.335227867017034, -17.897068155022648, -7.348898363884379, 3.611698911474776, 23.782216293638974, -3.355282488102589, 4.96458383856368, -17.978219738697796, -7.107158386657798, 7.418906772597739, -29.015006311497565, -8.897774067164313, -8.385305285284002, -3.1774925768153146, -20.600427067954968, -0.3299479778535832, -8.926075704493485, 18.818751761186196, 1.3457368022084486, -16.419840611722254, -0.17265515374011176, 7.357518713902308, -1.7262126716353146, -10.54513089314165, -5.842150904768994, -0.31974505812561094, -1.3244423935560812, 0.4277663977827839, 1.7472533637039374, -4.2373931462121455, 18.90685536635196, 3.9568541804763977, 6.0789845838449, -3.5955810196987303, 7.333642493927687, -13.12371210510562, -12.192605006232691, -4.332371977027834, -13.864667364792359, -4.985929821872395, -7.482668987773461, -9.16819802787592, 15.150666961410323, -1.0417437520549149, 8.107041619332618, -3.861239124988974, 2.6619788955774264, -1.8605708238183172, 18.791594783249344, 1.2942751868842544, 16.978563648177854, 6.173049478633679, 3.41418609951719, 7.843911817349296, -13.849081181224461, -10.164257656868898, 4.452910042902648, 4.949736798804455, -12.711554615914393, 11.737633175590362, 0.7193578373305836, -8.31453580582345, -13.568622698535739, -0.5609503753530263, 8.449418246037087, -2.6233812168706097, -6.120757682385217, 9.264828207665882, 0.45684213802485973, -6.398096090639582, 9.142223397512506, -3.3981673214578803, 5.721629357018213, -1.4746676563021925, -7.644185709591178, -7.176025839439713, 12.77310467195618, 6.899332198715333, -3.0920617735173583, -4.350999922798542, -3.643895103815661, 9.176477359570804, 9.367394751293485, -1.5745973368570478, 2.1958316710854784, 0.8367809331298206, 19.2061410179816, 6.848797201637492, -1.5807986497640214, 10.504502037315728, 3.881316836886246, 3.0157260857692827, 2.0756482021362954, -2.5841517875934503, -7.213369072926147, -9.519390588254529, -18.826394040818553, -1.5353607077639617, 20.05128767046202, -2.333621462851885, 5.848865386134981, -6.702245169874415, -16.7214188070121, -5.8148079015129, -12.885816868222772, 12.015792968124249, -8.388891249394838, -2.3360165903079446, -11.401800581070866, 20.730232967645925, 16.299770497357674, 4.3158166336986215, -3.6531149667639746, 8.604410703000664, -6.66935134963549, 0.955888352711587, 3.535728936313632, 13.792111805127478, 15.874871609377, 1.2926018855324177, 9.859663506867534, 2.4219450230958004, -7.91179129290846, 9.194183595125992, -6.154358836061951, -3.3944118073039373, 3.253270848774034, -7.1713272146872455, 12.076308779067297, -0.22416468025251257, -6.265635198785956, 6.149140235487895, -4.517588895563249, -2.668510785656534, 19.0870180589348, 4.114906404694824, 7.828212792650051, -17.63460220519572, 11.76127140810284, 17.44811088010847, 9.592149675252912, -1.8306946061301925, -10.407742505403649, 7.025485176866581, -13.005817547399749, 7.9086403625880415, -3.3661923594622745, -6.608079800873957, -2.3405620306211965, 8.839217459571605, -2.287526203012688, 5.46581110902582, 27.26892565559497, 5.671251461414006, -10.001224806314493, 16.015773505975048, -8.418372135156108, 6.60268618500011, 2.854429154347405, -3.58917444719337, -5.8355278680711935, 3.308373399495776, -11.095515802745378, 7.044706923145744, 3.72196424369947, 11.75668305108973, -1.7317823253998506, 5.596718346788048, -4.036348464038495, -3.7467476058147406, 5.900801338672817, 13.396489992326469, -16.49110821833561, 21.049231378062363, 2.290485822048688, 11.731651964055782, -7.856009879580378, 10.710878194349709, -11.356245147451826, 3.007991811182019, -3.9632209639035803, -3.3569347526994515, -2.6182807651471105, -1.5678725358740957, -2.248265406849911, -3.801372548302697, -1.2615812585074537, -2.0966568207241374, 4.153096812790999, 9.055343926803978, 13.8285018315438, 13.365134505833176, -13.83969472444623, 1.30978241597707, -5.193492619080094, -6.05047134956383, -0.8925175954252902, -9.629099372279208, 5.315819878855267, 9.003912076459782, 0.022908867237209307, -2.729071942028494, -5.525008334447552, 2.434512312069721, 2.788041928189919, 4.547774282274553, 11.993655006411549, -13.794552177209765, -4.022506282552237, -5.669250496388418, -6.010634572002166, -4.409458739219058, 2.210619682601879, 2.1603448489813344, -5.520100608756772, 2.44452138853276, -10.62076865561056, -5.35730366181202, 8.213666417908112, -11.335936546736454, 7.506579717724408, -2.9854713314929624, 10.98192468057892, -1.442821190483609, -5.242220817358257, 13.100038920120388, -1.2763061739042745, 10.447169760239191, -11.800268466488452, 9.75909055335633, 13.52723804210098, -11.271785747678315, 5.844510670961211, 9.1767770419122, -17.74913765550785, 3.923659723489774, -2.017472047110822, 1.3779426072655632, -23.530426832071736, 1.6906044920701744, 6.16080372002162, 2.638699627221724, 1.9093001095037074, 3.8365141673328353, 15.282950461683754, -2.6891615788595624, -14.690975359235555, 6.354295174144421, -10.984234120035742, -10.589804270750875, 8.165006041017696, 5.12985355828531, 6.5094217281016205, -15.441358423622578, 1.7381988829543258, 7.17546325099883, 12.585883534318102, 5.3643106877892, 13.706225444247185, -2.497612640917419, -3.8067750667298714, -0.6628409723216436, 5.290055497892688, 0.11796714819686327, -0.5039781585620337, 9.8065385445582, -21.83289430733493, -4.073394799318338, 6.000259582541034, -8.482464188342654, -5.199961360541264, -11.830298540084115, 2.2432191599683495, -12.944069777957735, -2.4669959013774343, 1.5346381772843771, -12.430488041452826, -7.532713793718052, -1.6266605306415487, 7.360156632817344, 12.976457032873657, -7.2207706548179535, 9.417932833075353, -6.384329687215736, 0.7160706052021286, 6.000875014126521, -12.921461083526248, 4.291081916789323, -0.8190457831622006, -1.2492371287859643, 0.383467523775712, 0.6635122830818465, -8.683974051197255, -5.784254242856325, -8.506946137075905, 2.5031172820327585, 12.521996291096997, 2.7678073818654374, 2.959842562087679, -9.928064974784428, 2.3072974161899724, 9.529557894020249, 0.5245977687040396, -9.765820922273516, 6.89939470475455, -5.363130682252679, -6.723654501779899, -6.173894262960935, -13.430733798516231, 14.725719481199889, 2.2128497765148443, 1.1715764207303616, -2.5847977640672917, -11.245449922856654, 1.6557528232045526, 8.851964288920136, -3.1168170916796885, 12.593476275062669, 8.517258402029517, -0.5469216690016853, -6.695458555181812, 7.233038454393328, 8.169913490249915, -10.910774136414018, 11.211736794167036, -7.774044804655815, 2.088871520557545, -3.4371785819679483, 0.3601268972275481, 4.085843459453679, -0.5667113756370862, 4.382406132739666, -1.2963885115945748, 9.91011821528496, 1.6963597080963329, 4.183415229997307, 10.337044729052248, 2.577322458752448, 9.945114380866613, -5.646114798878796, -0.24676688243856246, 5.330883734282478, 4.776900950978011, 11.740909711334307, -4.183140184525284, 2.1826263767631753, 1.0148426530900394, 1.6278105983439415, 5.0997674453288875, 1.6096031441859, -3.9834525986556395, 5.756549941746611, 10.37798857523286, -13.418406683868321, -10.464689275965346, -2.695907792261824, -1.3551075482222046, 4.511772936526263, -2.018743026397338, -13.103379432260196, -11.694024408186618, -3.6167430615954883, -10.007883662517303, -0.8383036384289432, -6.370541859245541, -9.993446782881975, -13.2717743151412, 3.9862202433103273, 17.526361032118803, -3.4650148039914526, 0.9913411445435236, -7.705226098170567, 6.8857583514155785, 6.996814734494811, 4.9025267135169495, 2.3486201735151777, -10.44678078713862, -6.303382628239606, -7.02108558506778, 8.457921784460328, -2.8934388414275927, 3.9465536305161373, 4.315122058154701, 0.24271584017324255, -1.696085848555347, 9.053922169227741, 2.7507269866105446, -16.46893648889537, 1.594023670855523, -7.437666487186976, -11.250891991761454, -4.76460042994771, -9.663197873243869, -9.121852731383175, -6.204926561959643, -13.317802430795675, -7.459572534985519, -1.388166425175557, 0.4989283776014042, 7.031443334355259, -10.122573833946527, -6.0764005650551836, -14.840112884176172, 17.1910920508749, -8.537349017053483, 17.065723840411096, 5.2367147313998075, -2.6116660474709135, 12.917363999605037, -1.5918686491998026, -5.72375379789835, 0.12635010620544507, 9.101682660691331, 11.22489798770699, 3.9124067570525947, -2.4263882376473402, -3.48348871174624, -0.8064155855239756, 10.890724730817896, -13.340073419117601, 4.713662535530611, 1.4904913873985612, 2.8377299365358897, -2.1441034671362336, -4.446921688804833, -11.424545168533504, 5.956550829227712, 3.7292257593175298, 2.700055131481133, 3.6729954609786892, 12.078079221081833, -3.445214562021121, -9.804623161936515, 5.757560600989401, -3.1144010816235084, -7.200511566317321, 19.249739517234232, 3.29620124297209, -2.568411962390404, 6.596361761071814, 2.7251930160073066, 1.9609821106675176, 3.847699509944765, 2.05547341426727, -3.5063054568371905, -9.659750207885198, 18.881746853018075, -13.502893818466, -15.000823539819887, -1.4583561835816146, -18.169240201406765, 9.486567423241464, -5.609959983083993, 4.026036259453395, -11.837082011390693, 11.767132009069046, 22.50660454536583, -3.157854866023523, -0.5897430156280976, -3.1503602198838703, 6.15056267821333, 2.7187045298401857, -1.2116809817046224, 7.758755488377052, -1.4750617381612428, 10.947837953185166, -7.370025374654656, 2.530696914260835, 8.297051736486612, 6.482450483673428, -14.85563437712884, -2.682239690935708, 0.8215363039972625, 3.9864513305245124, 0.6411638833097257, 0.9109495410733099, 8.256376729070201, -14.748638403370068, 0.11960521704495092, -3.657486257907172, 0.721147432287823, 17.748681823870147, 2.5275782596277, -12.847390420676698, -0.06405628126661655, 10.001863651030797, 9.782227748527655, -3.059197159653666, -3.1282758116610765, -18.033646781938796, 5.082492996922602, -10.70227968532817, -10.868220316045154, -16.587071041203668, 0.5292992722857535, -4.545798816821122, -0.1535611990470217, -19.70118500650392, -15.659250037374246, 15.860773680379982, -7.313075179803064, -10.554826385014996, -6.198498208718366, -1.776456230274174, 0.7247850288818012, 16.177920115082102, 16.032639107993674, -2.1156468913729656, 4.76383717266052, 7.833732547226573, 5.199429155221131, 8.789235760153067, 3.11021387056755, -3.9689855115655, 0.6495692054751125, -7.095232364960788, -8.604062887342165, 12.23856360201108, 15.56222566074765, -2.9957088428715375, -5.977146784466012, 3.859306035911806, 5.217653205865266, 0.6862165332574801, 3.83949144734198, -1.6897515274203578, -1.4407689538818946, -1.794736237572665, -18.915335642558805, -2.0479316373324337, 5.3813257880016065, -2.997769354360476, 3.6206007700090694, 12.351232100416736, 6.40072996118981, -3.6588421545660954, 5.43694857383813, -14.167370467634512, 16.705873971644962, -8.92683954628476, 6.922072328248473, -4.587928921497171, -11.256938259473385, 12.242889771172974, 8.174129056383869, 17.130652326618094, -5.1125529936107865, 1.3036496301029594, -4.767835160377925, -10.85922967351568, -3.9958800553093266, -5.524762463090716, -1.1568324994703654, 1.3959887291303512, 7.4176166551059834, -11.142393916942478, 2.5788163414039786, -2.792441464613926, -3.407250136251389, 0.6714063505449445, -5.06787931367128, 5.570920911857859, 6.751858191480259, 18.12760410361958, 12.656992503713639, -3.117081200690752, -16.234508360487773, -6.377139887362985, 11.510278185418045, 7.570284332636991, 6.33859372413991, 12.022601004405484, -7.351252938982222, -19.55010113430629, 2.561060236499449, -7.2459030745149, -9.450084337537335, -7.153679736063067, -3.8891911048965175, -6.971878108484014, 5.309004745514468, -5.195171943687072, -12.3829147494024, -14.916111441871575, 2.770081199011721, -1.94023854236376, -0.7239378793533293, -4.2014743834311945, 9.922655681489353, -26.10454944429765, 5.513857620479442, 1.6955148298780833, 1.6802819292013145, -0.23832630185768852, 9.306075397895274, 6.521138541889102, 4.004333296547311, -4.426279546470853, 12.670270257175293, 0.28831024064617367, 13.652161255170284, -15.174398725646572, 3.013520747989674, 6.599059232942482, 1.3626441051231193, 1.6000275385364326, -13.45469595835863, 3.5365020484506173, 5.162750315160048, -7.4226810865307415, 11.755694606476336, -3.20958000873594, 8.903038101867686, 7.7952700369565635, -13.07611765704195, -4.180415948674955, -4.329725761574213, 1.7271900902182957, 4.086695772313722, 15.927057899862357, 13.723657644365822, -10.535996557341543, 8.689091820805167, -5.2084634827646035, 14.705551272043863, -6.996094894582407, -0.24294148957497463, -5.406926116875852, -11.775359875185211, -5.007287157822843, 10.56790076839318, 7.9914039699604, 13.84972559283362, 1.486581433707371, -4.219831001098757, 7.855966110606781, -1.3886648958812908, -6.602534729769003, -1.526359761631266, -1.4096990965252192, 2.4718933728919636, -7.247062545033794, 18.252809065480946, -4.472123174913099, 9.234053889530994, 0.8182664671678902, -3.493892464361474, -10.188149556291323, -7.663421093146771, -5.803245267881121, 5.062158376431116, 12.11214887708161, -1.6320546974083356, 2.3656984653231787, 7.407934966716948, -1.2216916129097553, 12.588110967812773, -8.834419630942627, 19.580858024550494, -8.861338016770553, 8.25350846477331, -17.325071015483356, 0.3581131333234381, -5.483288041775608, -8.186446717820377, 6.0001074788201345, -14.431756917176482, 6.934841564743666, 4.4460702008118655, -2.6301173049550877, -4.755554469506487, 8.759219811261852, -9.089897553614444, -5.295623691661005, 16.500900547107815, 3.166307209489233, -7.977504287552825, -1.9163158363288482, 6.248745437657812, -3.482741410251421, -4.035088727254691, 4.186479932665379, -4.199520660583337, 5.778864790196481, -11.214384275182455, -5.079587479662839, 3.5265799556771142, -9.692863529674879, -2.1245488221931152, 2.209170373805526, 3.075209526037143, -9.788750493968204, 3.548533965944263, -1.0019293896285024, -10.833548909338775, 2.7351180793451295, -4.004920886043168, -8.550507782630453, 9.298865759627558, -3.777588418241956, -8.175993152205168, -4.969990875531162, -11.710278555509602, -2.554324541506521, -8.8437257284711, 5.169843055328686, 1.603176100054256, -11.869755180918615, -6.183118109048291, 5.2078501883934365, 8.30905085798318, 9.368983127272582, -13.847668119460597, 3.0235351323498, 4.79843618777974, 4.3163874453884645, 1.4701561462621093, -19.336681571930047, 10.041472637234747, 1.1620666708209657, -0.9781567278123681, 15.604174730565564, -7.938031521362811, 2.2098966599947625, -11.422884504317398, -2.7021365227891065, -11.769114783889496, -8.928549448544056, 1.243882828763404, 6.56097024766568, -11.533862716172077, 3.328839990897883, 6.225645610746308, 7.9537597265775, -1.3755280957953413, -2.9971321055072306, 15.655888761377192, 0.3787557111246005, -6.3508847731383895, 2.3935476498121786, 0.11766808896880754, 19.287930096553165, -6.755359659605581, -1.4089431366018232, 1.1862523806087526, -4.596544730529399, 1.091125160073637, 1.3622799609858225, 6.139388782603286, -12.593653659308767, 6.076340507342557, 5.091400374416246, -12.186037976571301, -5.803780987326906, -11.04240794919181, 9.813228883007103, -7.782875955018938, -32.70134956075717, -10.554677880854538, 4.4066443101928385, 1.0666245165247326, 4.301041362231546, -14.764711186228103, -4.113160113419104, -6.800084881049577, 6.538687727729188, 6.079246028246298, 1.8864439755583968, -0.9005462992358457, -12.77691542782274, -1.4256674425093152, 4.105759343296507, -5.74895986170072, -6.78415357665916, 1.2442524283819814, 12.963791448462722, 19.683541425526915, -5.404695045610634, 9.500245687890294, -4.27495410021141, -4.603277898580593, -11.909365206611046, 8.895860494682644, -15.984669622949468, -1.0639438394902734, -6.685493828896664, -10.847371164873092, 5.647431319233707, 1.5850616816505223, 4.2712100928517, 13.043089453508786, -4.018722042297702, -0.5260408585661196, -0.641916816437151, 7.234982147739387, 3.1476543122222784, -9.298004055486043, -3.8208333774823853, -1.4333034106444842, -3.730519691289502, 4.251545359327585, 9.836238883034962, 11.116884165196856, -10.184585580374508, 3.8733397669188543, 9.531806632408657, -7.359675693436982, 0.6365546095734704, -4.441694614570063, -3.2263539697310923, -2.642793866108975, 3.9275673896523413, -6.789700021147519, -0.561276434492683, -19.068757102862858, 5.5494239603082045, -10.92638566989111, -10.552638610998677, 3.285002562889244, 6.12879159076239, -4.528316332947196, -0.5575495805388714, -12.530601848119522, -2.3182146926766025, -8.357937188885028, -9.456499061121685, 2.972572642118249, -0.04047717746436352, -0.5651310813231989, 4.408846323817585, -4.5486037543486795, 9.988281643859272, 1.1186076767632245, 8.84533833752139, 11.223435347417869, 2.335877896710981, -0.4969148408854216, 4.8091034663335, -5.3553901502627355, 7.409276140522975, -0.18402925111408386, 19.292166908200542, -15.74278212137485, -5.344854060421104, 2.3716030453546804, -11.102247903743157, 1.1226112099480097, -0.6200579978860518, -2.1838955854585045, -1.0404161089247659, 10.03487344478172, 4.53779396255144, 11.782617269480841, 6.078684111767432, 0.7585900150001437, 0.12308174652238879, -1.1766946915569767, -4.696475657985915, 6.900651860978915, 19.9539679918117, -3.443856420693948, -10.144629371270423, -14.014780240574254, -11.194186385544873, -4.8887360839688565, -17.918336202240255, -4.791981735189284, 4.873253637952367, 9.073336213386733, 16.372446237682915, -1.9219444580751146, 16.324583284367982, 1.2434471395045987, -13.569002277985517, -8.906405262717579, -14.453471949444513, 0.4873818058572183, 5.577667846816383, -0.9883917019321914, 8.953618873466292, 0.7020522977849977, 12.916835309270025, 0.47942023495096536, 