{"weights": [-0.9865385511428638, -0.1013319184362308, -0.26204130590545416, -1.9873026665758051, 0.24287724472274552, 1.3758150165535619, 0.9077354331775128, 0.7484253097270643, 0.2983744309899926, 1.153725002901592, 1.0339885464863476, 1.23225922350327, 0.232055739701156, 2.379501309176023, 2.597349247460626, 0.9494342034193067, -0.10749861805036065, 2.0666465357196726, -1.8296267834698219, -0.4145684126053124, -3.4782477060642156, 0.6721058179356214, 1.8579450133666078, 0.9000221106532543, -0.180922446568058, 0.7458370120309643, 0.43730977807341875, -1.5038466308869962, -0.6326167552371518, 0.16833695591913023, -0.2128992959091921, 1.8364554142167582, 0.3454173382824145, 0.26264634558687694, -0.34658743936845526, -1.1445786578684487, -1.040160532063017, 0.8957664556108067, -0.009735493121366456, 0.1605573627510597, 0.9853815854500192, 7.292783196842674, 0.5829844261646024, 1.4657318865137112, 4.599232821300356, 0.7285155139622712, 0.20730900318755796, -0.7343017950561402, 3.776893676249472, -0.703293008178298, 0.6343534021541283, 2.680976057637599, 0.27686388197840306, 0.8563457918908467, 0.6023010557943954, -1.0438143472617267, 1.3236511197101888, -1.0357162564985063, 9.811379897493733, 0.5930145003605977, 0.46560377000038344, -2.7854661778546044, 0.4584664245692578, 8.976728719534709, -0.12352679999724703, 2.078174759727243, 0.036247792612897234, 0.8286184027670324, -1.6861349143643218, -0.29369898605369815, 0.10279240449266569, 0.2289573069361014, -0.6091470498809023, 1.1208108236793315, 0.7546212215985918, 0.19930901704269566, 0.292516425476252, 0.24617926444571503, 1.4133623677325229, 0.33997892458800794, 0.2146678639725368, -0.1298253531734348, -0.1259561302878005, 0.36226808709859115, 0.7699590194183201, 4.212513222120034, 0.20085908986229417, 0.5505467889444483, 1.9679466976517528, 0.9611961998151167, 0.4967171666296166, -0.5026262792409448, -0.3796378200183036, -1.6943013907483682, 1.8791183181413778, 1.2797648315297956, 0.7458029692460498, 2.482672884177904, 0.3362838105196211, 4.728417784724865, -2.0045064023727175, 1.2722141009600616, -1.8246382415925724, 0.35844640471904154, 0.588765203289556, 0.13882477344202038, 5.031691706200216, 0.33614280766028637, -3.5503736128154606, -0.3247614399150547, 0.6444702771210337, 1.944383530512812, -0.9984653890471633, 0.7330511898599934, 0.5285781097221971, 0.7933940143053477, 0.21375948560897506, -0.9361679205433402, 0.9946486415599979, 1.3776571728294915, 6.338291384571729, 0.5059386209454934, 0.3417824047367617, -0.17497426618897638, 2.1356644577845536, 1.2591467579516975, 1.610201743234319, 0.8219266359399297, 0.6971726150627817, -0.3458580318772472, -0.14153107149036015, 0.4642039489521266, 0.6308409303110845, 0.9177453319056692, 0.90897665546466, 1.5561236983745264, 0.02449844826765235, 0.5639624984652928, -0.474245375901153, 0.8953504343936084, 0.3176334899686222, 1.2350600061065369, 0.0549014247914168, 0.2328926096427193, 1.024441516331723, 2.335131464992326, 0.7148216794030966, -0.6755601631233534, 1.7207264710800954, -0.09994607467340666, 0.1451965128846603, 0.5741497778269546, -3.799900108623266, 0.21111247116613618, 1.0482192337178107, 0.4013060242197122, 2.224581559430696, -0.05684787807491065, -2.427445672476243, 0.022026921223816998, 1.201695032794798, 0.8422307463439479, 0.40975911543303256, -0.3505365778538203, 0.03366917821387272, 1.4428158364932901, 0.17742242075093495, 0.3788215655569157, -4.303937237820698, 2.9495695349044304, 1.0364603619067552, -0.3996045591709393, 3.3477723038542226, 0.5546573480350956, 0.770833962259494, -0.2233922042432035, 0.7360571836134342, -0.39702316785837233, -0.0919221339265015, -4.299280518809083, 0.5632889309538147, -0.2425096552931827, 0.23702785710833618, 0.7206551452831133, -0.38163367099226764, 0.15862414452637796, -1.3936063704082606, -0.5153278340561288, 3.525437886043634, 1.8125862598434421, -0.043126072953297845, 0.2950647366293405, 0.050135798589684866, 1.0119869655983722, 0.7758245056995678, 0.588493332343876, 0.6247174687081695, 0.5832665178130454, 0.7681889327627972, -0.4995246111977636, 9.183704745607228, 1.419608352119531, -3.108476294670668, -0.369977488943417, -0.5458917273212219, 0.29471617572202025, -0.6280618197778246, 0.5718091636071537, 0.4034482659272808, -0.22600723093592623, 1.1976367925244196, 1.5607160779520337, 3.802965516052143, 0.9652627093782229, -5.952967852042816, 2.583180047294852, 0.5827851795095527, -0.19950213034023034, 0.4798970815920732, 0.2487518968050081, 0.13911584889108752, 0.5319242283795017, 2.6500727091464156, 1.8437016083945466, -0.7356992027759626, -0.3234228716241849, 5.546386939682425, 0.33210310596587544, 0.023966484062507454, 0.18040591049301113, 0.9828912833061759, 0.7118612920109826, 0.23914254543452318, -0.10241676738936811, 0.7735721017307203, 0.7308294748708763, 0.720165141555835, 0.4332377651465633, -3.7825153178032433, 2.3498838133277133, 1.2665404137799277, -0.5527985751368547, 0.11428576999797979, -1.3366106899529415, -0.6334931410266941, 1.1088692667191369, 0.37116161478574183, -0.2265363512504771, -1.4579099679671974, 0.2916778787648878, 0.5254920913202425, 0.8105364265846781, -0.656663592671013, 0.9852806241975985, 0.9308072973164898, 1.2587927406933817, 1.685199928996117, 1.249054257806159, 0.25317349140731915, 6.465621885447172, 2.2232646070233177, -0.9177534159478237, -0.783260735472119, 10.647333545897606, 1.4289247084329983, 1.714197144301434, -0.7002644061690855, 0.5438057278662374, -0.15239938480513504, -0.18903177512278135, 1.5758927888081788, -0.8100909760305283, 2.8366705189298367, 1.1795056466537583, 0.9488459558311304, -0.8790366222200547, -2.708914977105756, 0.5204521540251137, 1.503300729072632, 0.008059103342119789, 0.6355133053028768, 0.8776470196507814, 0.2607927391217818, 0.5265563352549216, 0.4552859667648016, 0.770670403805973, 0.9330427585632911, 0.48546648200953035, 0.09488909581626681, 0.4605556063114373, 1.4512848362220572, 0.1992935346194441, -0.1655720088754431, -3.2011348634680887, 0.3700774486072841, -3.1659243103551042, 0.4962269953845362, 0.34180370549218253, -9.070116967816833, 1.2032517709027153, -1.6367832802920237, 0.5706496238809349, -1.2334396991951775, 0.911338668809543, 0.22031909862196764, 0.6364791723322362, -1.4162505068317586, 0.5469632513713881, 1.6701015474435468, 0.5210731905083879, 0.6635429048522271, 2.2728587697584324, 10.80871877596081, 0.7753794503538217, 0.771490132252702, 1.0645312732631078, 0.9720020378032123, 0.5059804820567539, 0.9875845079628446, 8.202739816618557, 0.5822087597682312, 0.2647786976938318, 0.5322602133390402, 0.5307373552868359, 0.21713686875693294, 0.48928476393532905, 1.2699142619299804, 3.7697335668163707, 0.9704536273580631, -0.2277613143038214, 2.5471419067343923, 0.10252625740573651, 6.737874679568891, 0.5417136555074332, -0.7672500152773594, 0.7173707824973231, 3.837617559320012, 0.12686046133523732, -0.5522530556737085, -0.4455359913952146, 0.22847410457996775, 2.3806002441462493, 0.3373401410170235, 2.1496333006121353, -0.49800905813117247, -0.7303257447191402, 2.7754231536323672, -0.1098667159558423, 0.19619039784195003, 1.2546887209706021, -0.6346575274838292, 0.3687070562681092, -1.514886827565547, 0.29811468695668963, 1.1405668319566664, 8.009980915115673, 3.57539034441753, 1.909482789981146, 0.7249371254719393, 4.109930829593631, 0.40877643931248575, 1.9433843671640254, 0.18030793542277812, 0.056460958849010034, -2.163653557467174, -0.7142950379526022, 1.4225100123923395, -1.0538056224201124, 0.19618622623005444, 0.13699906305367138, -0.011443947993692305, 1.502061196719233, -1.5065096693629645, 0.4476906773265421, 0.14191076313226525, -1.0284871547240826, -2.226628348656489, 0.727529230225095, 0.04699250100311747, 1.0614869681196089, 0.21911747946993843, 0.34833660445319736, 0.4517932949239807, 0.8780864632642217, -0.32379974673631173, -0.27725540774415425, 0.01419004939576718, -0.8194402836792269, 1.2018147074442345, 0.35504105645195827, 6.633533244110485, -1.2193310320168371, 1.6252950191794848, -1.3175220687349416, 1.333802074932639, -0.4001371091342246, 1.474711415480027, 2.3629804356246695, 1.5800662615100196, 2.0622495768161926, 0.013698550408914545, 2.020719496920963, 1.9145479245546486, -0.41616277563034043, 0.7905205102716735, -12.672500050488175, 3.090261227774416, 0.6007054386196824, -0.38802632781205426, 1.4953738582703635, 0.007237457334220654, 0.8080792823558299, 0.17788812404902343, -0.2107145472578158, 0.7906781681312172, 1.1022237689163212, 1.3517918305434993, 2.0155950395565463, 0.8946427975776345, 0.3625939649509099, 1.3258578784885005, 1.137453980310577, 0.27618077045286793, 1.7042441845444132, 0.13352167048164265, -0.9493580405123277, 0.09672732426983044, 0.970916152746022, 0.7649015303571473, 0.032617948341566505, 1.3198142374813848, -1.1150985133430626, 1.965591177310671, 0.6220395623709938, -0.4822012701860503, 1.1521526011704564, -0.2743188649433481, -0.8472273625094262, -0.1541181158934266, 2.482385533259583, -0.11395056808272985, 1.5578433449686329, 1.1382198564587953, -1.2454613883941485, -3.7925821645474196, 0.534208930570942, 0.9137967517003825, 0.5379133037925053, 2.868182589013484, -0.6486013907210836, 2.1116137363788035, 0.18237199857538133, 0.26387078032886624, -1.5325804157446308, 0.8733366617238478, 0.5031160625094734, -1.2495641947346572, -0.28640984363083155, -2.2517281026952727, 0.4736335466745416, 0.05007168198033529, 0.5210847082180864, -0.04967007644222099, 0.7520625274666288, 1.6191297819142862, 3.1239417871766015, 0.9730204164800251, -0.08782335904786187, 0.4005144448128717, 0.8390898446117646, -5.28642818391915, 0.364354238428232, 0.29524180248964216, 0.18822912987479457, -0.15215820201843244, 0.35997612644198773, 0.5619352535196633, -0.02017680399620636, -2.7870830363780192, 0.5893174843955625, 2.5480395825414357, 1.9577583239844483, 2.014136269927314, 0.5044133260677182, 0.7702442638407805, 0.4696034392040964, -0.23696518406714462, 0.22483996520769045, 0.035221017527769516, -1.0648651123975426, 0.487920649794486, -0.41034137002973403, 3.252899833427023, 1.522849917391289, 0.4781503713325468, -0.425526646020991, 1.1282067629178343, 1.0073076468736153, 0.7772592721711862, 2.098168161162352, 0.6035657405510282, 0.9926724108735367, 0.7317247365642129, 1.3853981494298657, 1.301056728496398, -0.2511843765281354, -0.9505573177481876, -0.32207951721902983, 1.5937550938360867, 0.25281360608920056, -0.30203744239424213, 0.5127867720469124, 1.2406316567629296, 1.1235047170158485, 0.4289682117008531, -1.3303559324900234, 1.2618496732240736, -3.1439667217970393, -0.06635728062824953, 0.2496290569114311, 0.8372630071385088, 0.7538297005692186, -3.3420899827024257, 0.6951061740364333, 1.3720343093349445, -2.7455606672249324, -0.0663701418476168, -0.5915931205377117, 0.7711650948438902, 9.346819671141354, 1.207049647721003, 1.481848263000348, 2.647278709085327, 0.255254165845584, 2.9149539006279923, -0.5225562093886645, -0.3138299424249804, 0.7805560268872138, 2.4451339807118244, 0.18019575412814792, 0.0982349921890805, 0.3123944708431635, -0.5128803845017827, 2.4951008872987055, 1.5511038156652897, 0.8025398924392847, 1.1406166209411452, -0.34080331397785035, -0.07530834511347695, 2.649292075119205, 0.7093012694548487, 3.345510158517448, 1.9105985921784068, 0.7557180672836286, 0.19924595440831405, 0.9399496614614335, -1.68701865846396, 0.9386013554230946, -0.06660854356971846, 1.5267839535016128, 1.4365259746583603, 0.9065722106721628, 0.32805682870543795, 0.20051140516694665, 1.553117549117843, 0.5786348704343899, 1.0990843847148, -0.17903672865387887, 0.5598443123088294, 4.533479184077097, 0.6248123019214413, -1.4942841669796407, -0.34301848705443594, -1.7520419462652939, 1.036876745921362, 1.8416860950235998, 0.4822643612521922, 0.7775834261495421, 0.9172328319735058, -0.9446047910028432, 0.10917701545717196, 1.0902017842616953, 2.0952977001107493, 0.7425603883693642, 0.49859565636912717, 1.2984209549891352, -0.13233089894132644, 0.27314106650036263, 0.038021848237454914, 3.5394470510435383, 1.094691690660921, 0.8021305581275875, 2.939058690379955, 0.9819056980765392, 0.9077102666552401, 1.2805721597180781, 1.653028725812916, 1.3777013246281924, 0.5464283150192702, -0.9412363809325174, -0.7367455236250664, -0.9290053631357382, 1.382115060999783], "model": {"n_components": 1000, "output_layers": [], "echo_state_seed": 56422, "n_readouts": 200, "activation": "relu"}, "model_name": "echo_state"}