{"model": {"n_components": 1000, "output_layers": [], "n_readouts": 200, "echo_state_seed": 56422, "activation": "relu"}, "weights": [-1.1675524438178404, -14.536798927363323, 0.7033608754217973, -0.7709875730874391, -7.395651315632527, -8.777622009350734, -19.35640284394632, -1.7865241692636706, -2.5270222999043703, 1.4017578948657687, 0.9213334720506688, 20.032040839669552, 4.177481916055109, 3.7936155693833644, -1.064004735818998, 0.22668247962997323, 2.6802290346769593, 10.810492869425468, -4.988099785065322, 8.824779495899229, 3.1300222852302726, -9.769221186023795, -4.041960632203915, 4.052446007654828, 8.315608799600486, 7.749980281562717, 6.2909285220230124, 1.413150394466553, 0.6673270804134859, 1.039225252216585, -0.10722397760772129, 6.457214165638106, 10.441991754537373, -4.671486164315407, 6.675461437534234, 11.900160923169178, 13.278219563936975, -4.436769367514119, 0.3630672761130994, -2.053352440603149, -3.3138834436736246, 0.18655547356305258, 2.156991405554174, 1.417418366343306, -3.0987240269285596, -5.402964244821824, -3.602759568554407, -0.2422114279748644, 0.1991756574517134, 2.7795269176704833, -0.38962955037588554, 1.4836075429336595, 1.2497996152645987, 5.872855678433923, 10.032184801551477, 0.3533770428893722, -1.3185431813769117, -3.100102494035445, 0.21629915169947356, 2.8369503692226155, -0.5351243328601432, 2.606703423369077, 2.4090468303072896, 3.1633634179225334, 79.26957209611676, -3.295449164249384, 21.433848872128284, 2.4233552305431854, 12.222639859203213, -3.3361941961567076, 8.349127580987862, -0.5259953285470665, 2.6861816438360258, 1.0635992841521595, -11.398489551200607, -0.3217037028211084, -2.4071636848806888, 0.50795050868535, -4.770029084218653, -0.5200605309175099, -6.404830335362199, -0.19533651409107455, 0.06845683225417742, -5.021573172620169, -2.390259771053201, 3.287390536880277, 0.9406563304686073, 4.239189910961096, -12.037406238161232, 2.5045470131666376, 0.4986227334459139, 0.4388922930654978, -6.102916157225817, 18.213531477356955, 5.759446243578186, 8.12500531132073, -0.6714145102542566, -5.384610521004525, 4.036566964057041, 4.340735673421812, -0.3849786652767335, -4.3965185474480055, -1.0383108860883759, 2.4375078330081816, -0.3975315228641155, 0.8803261032969938, 18.877702680216135, 4.450304136951115, 4.484093083303041, 0.26378287417141144, -0.23176147834441674, 8.30646505886918, 4.286874269773222, -0.174785794975014, -12.845103966469765, 1.0326250432347246, 0.199347146874165, -0.9119354576745573, 26.35597735608272, 14.794855230829398, -0.03459827778194868, -2.8321470903111536, -14.467026732913784, 5.257458812794491, 3.4376257966504147, -10.174300736708874, -5.9582546536284475, -2.3849765464644834, -0.40372178217390675, 0.9061117514466576, -9.978928137170799, 0.5591662754354775, 14.812219294490944, 1.398806712734372, 11.036074319579654, -9.892664387060526, -14.578245534174128, -4.9509684944826855, -0.5937508075076037, 25.806160106528562, -16.607315724024456, 2.0460517296392986, -5.682372786869413, 2.8125523837859596, -2.6513251789512857, 12.618738896762899, 7.138445539466783, 0.8000911338135217, 2.040014464111319, 0.6451412171617343, 2.3915681465621446, 7.987740603929659, 16.693386675905643, -1.5709045729444933, -6.020397985361502, -2.347215500711454, 3.8315766037577816, 0.614606634902681, -6.4114462900098665, -0.25848056404176223, 14.376213113421091, -1.6712856923055752, -0.5541957872665966, -0.24565761239323547, 3.0044308415800245, 6.954861666329535, -3.6055356905582285, -8.461394995340825, 2.619722377637852, 4.334099389553913, 0.9821906305223868, 1.921454736775123, 2.056216659863819, 1.9602336749792877, -1.6266103161522716, -9.731378440714828, 5.0940620036048205, 1.0827980524612757, 3.0776333925346817, 10.601298921840815, -2.349089798255839, 1.6711268451693582, -0.36732657987870754, 1.6499237548659262, -0.9885323922618796, -1.0370794116146673, -0.42433679913733036, 2.080729799387735, -1.4804358222951897, -18.240898673734517, 9.701848238833035, -0.011049764595152167, -23.80555912612984, -15.465411321118317, -1.601380421582765, -7.95586703297038, -4.065782802974228, -1.1157815416775132, 4.695071297041946, -2.050901400502888, 2.614801093390308, -23.509869438119992, 7.630464675819385, 7.9857900952573875, 7.756979966996374, -8.046134718827357, -15.746690565054339, 16.98054342176048, 0.16422846862874219, -0.6151930534259886, 15.597843222575133, -1.90327479785776, 20.259528269047, -2.2477571766108593, -15.166730228188703, 5.00313016046081, 12.302816092664118, 1.2420458962386793, 2.369351194187235, 0.17998826796090484, -0.21191617649341987, 1.611650160977494, -3.1738512114214714, 0.4402011092269297, -0.7939827314941573, 1.8267386520321536, -5.038570897885894, 2.037772355497545, -20.20454927300381, -3.1837649456769745, -2.9573675620321245, 0.1475150967420067, 4.913872960244285, -0.963014897597863, 2.481230872139169, -1.2208332045162678, 4.4252510151306605, 2.739565047257612, -0.2951322166080428, 4.37428880875566, 0.1592902737408206, -21.1954940628505, 8.305158791190463, 5.13841597867663, 0.008572885265478725, -3.188084539976093, 0.6952208015412049, -1.5007972527699354, 0.07439860513973506, 0.38626245797413983, -11.354572187727035, -32.15281699116105, 0.4310199586996909, 0.3058387659927313, -2.2176220779417744, 0.07394323804961211, 0.6702278353570406, 6.240023738705749, -0.3048770648654868, 5.586094744567337, 1.503209234369188, -8.366733810924488, 1.4516394983103775, 2.126484739260712, -1.552689888336833, 24.03293059267491, -4.097802647167196, -0.5290722779425208, 0.15707855462706888, 4.836419100944514, 5.005909800814997, -0.6639331472098327, 2.1930380297980623, 2.915249445736083, -11.9125379074314, -1.285132991578596, 1.4759481690257812, 3.1044712864462545, 5.756115820058476, -15.69326593010082, 1.9610715061761934, 3.8325000753480634, -0.08376856154173906, 4.071107859864292, 4.116164047546466, -6.184622215491155, 4.818742072106678, 1.528545663201812, -7.73716639332447, -0.4513322073212864, -5.375752117230865, -3.9721813839433855, 5.384905160617445, 1.7722285953350867, 1.4811710489645176, -8.826239177922886, 1.0312722815928805, -8.618724525688755, 0.618375408731145, -4.818829728973565, -4.7912383747458565, 0.07313237293374086, 0.6601887037874127, 3.6807935545216903, 0.20673342965642538, 1.613951358624365, 0.17176891505149805, 2.7982202322405243, 0.15135568408751077, 4.212388365211651, 2.634167272228428, 16.778904157299806, 0.45212993776787336, 5.973871651395615, 7.088225626450972, 0.6415799741899644, -7.3985517347702885, -7.831091632873494, -9.229949342376997, -3.257479349537771, 0.8883721830538378, -8.524706250207112, -4.276793796912903, 0.14155576256710667, 4.2680391804335835, -0.5905509788858133, -2.4169300426964924, 2.073599633475249, 1.9976004735164068, 2.947493756627794, 2.667040025049382, -5.356106968804125, 0.08173126943694398, 2.3492636172957497, -0.3895012614082155, 30.82161393068095, -2.5625633702846877, 1.8951760483825317, -0.9985094672583056, 6.564997139884831, -1.3239124538012526, 0.4225394864825752, -5.7898458711460785, 1.7481582370973108, -2.461054710557117, 0.90595440553936, -0.4277190470395883, 10.923693380449187, -12.00848715279248, -10.685990321015423, -0.8906087906791895, -1.2895445999350614, 1.1427565785736211, 2.878408560719728, -6.29260254119864, 3.100605128346377, 6.601785665497033, -15.037308248535291, 2.4947710131256033, 1.046490277305519, -2.420382250346782, 11.45709914180728, 5.9359612680950455, 0.7151977077875632, -0.7420274638016575, 5.313445770015968, -0.8377547546974131, 21.735448563849438, 0.9106636972451393, 2.4564385809552727, 7.313292991890268, 1.8567218779292538, 0.7310443624456544, 0.09506936125498477, -1.0013258293458498, 4.454745192213606, -1.0939724592616913, 15.305915257005577, 11.768580413146314, -0.23600235879014686, 0.8228090782356914, 12.802785991786335, 4.011657735164883, 4.729483395917269, -4.179870658090234, -8.876075417502813, -4.213799292629126, 0.9427107250704663, 3.69935385896315, 11.376351211633256, 0.2617569921050308, 9.185413648870307, 4.066503534376477, 4.431179802409921, -1.1153423960928688, 0.15266261906649425, -1.6034135614287433, -4.261915192548917, -1.1481655292488688, 4.6831525190204895, 3.5830765352993494, 3.6026184571585524, 2.016334046977792, -1.5544186741328492, 0.9006936704510428, -2.8837901128458077, 4.3886870698513025, -18.24662812845137, 3.6621803406439835, 9.313750611122497, -3.598503623190206, 4.205820444725909, 1.5023298420900164, 0.38970666205780735, 5.8544508691226405, 15.749447881156094, -0.7885054487536416, -0.22535023285189404, -3.6875541674259713, 7.667078167043868, 7.956216405898658, 19.339770607330465, -11.777201115321272, 5.131803831918628, -3.075389742644421, 2.874371751283416, -1.3258135208277202, 4.3968444260027715, 4.679934636291117, 23.677005924989466, 1.4287735992928408, 0.6578724168240193, -0.14239320196083893, 0.4063267236255892, -8.561461249040416, 5.673928952966472, 0.28267380475066983, -8.401754245856601, 8.338792354311508, 2.7291256798735417, 1.4860089732036714, 2.681814192555872, -0.6629436572236137, 0.7781458898654652, -0.8839844700691049, 1.7316509762843046, 0.5653814985201726, -31.984035586359354, 0.7141039682214525, -1.882964639375694, -3.0870109146301443, 9.389678917287494, 1.930038709267646, -10.792195146104108, -4.9825179510588224, -0.5822865221577027, 16.208551370054742, 2.1126790383495444, 0.9886931339871307, 20.04640406206181, 1.0042732332137523, -0.4821372296263111, -2.0033125632323854, 1.9321885505550367, -4.973011171302823, 1.2017233121695134, 3.379772333150558, -10.648493611734773, -4.240799830128342, 0.8960342053898059, -1.4457462677120028, 0.09865770638520055, -4.839122541558414, 10.16354857775066, 5.17486468031651, -0.7108963080122557, -0.9457759447051013, -1.211630577089573, 0.5984588045973369, 1.9096072024814226, -4.966667812841468, 4.116152766835159, -1.6300031552542151, -9.892892573761722, -21.361594278750964, 0.15737544257348102, 5.265251854874063, 1.883777771621205, -8.786593420146435, 0.5175533408745356, 20.630099858517255, -15.343272798283039, 0.16103895972026228, 13.277267179406639, -0.950253011930426, 11.070344523190982, -3.8080904632604833, 1.5537013221995002, 0.5332595900608836, 1.8052778608199649, 4.129694414152707, 6.492392461237612, -2.7320586989173865, 8.510059958717042, 4.543809353516487, 4.6832966707502965, -2.988865623070304, 3.516873636676669, 2.238892480200068, 6.359349825868242, -2.3168000676547686, 0.7187195355150018, 4.401911216918666, 4.2480468328194965, -1.8062956472668146, -1.7107951046136782, 17.359557949457923, 5.4176533923321495, 1.4980536681579335, 0.6094449185878885, -1.2493684360837316, -4.278740045167638, 1.8808005119124034, 1.3757588424271374, -6.239656136217673, 12.226848940506793, -2.5359087323441174, -7.710937396435217, 26.75844228513125, -7.598864575560389, -7.356262302252526, -0.39554231184193545, -1.5817047304448888, 44.439983434864175, 2.49106893279784, -2.9049688036960815, 6.6896686318276295, 8.281935031541593, -3.9868807462372473, -0.6680629866260505, 11.113090080434937, 1.9105501469222754, -3.127063367183225, -10.184027144755948, -0.42761669157649385, -6.946505516923795, -1.6877514910861309, 3.8515278511458293, -1.7638125975961199, 10.715562909122907, -2.3707241046872434, -1.543940645049307, -1.6461005202356442, -4.77732479059639, 3.1773162214697783, -122.4392779050445, 3.901803850943714, -0.6674288809227331, 0.8487904895065418, 4.030825298809433, 0.25627506854661875, -0.06442652309295549, -2.446316224804922, 7.266519124846912, 10.937592830879623, 0.45501522084060697, 1.7803923715175807, 1.5429593229485894, -9.508231682435028, 0.5531081950886253, -13.119249761461063, 2.1859149174770285, -2.1779254746475107, -7.077346392970218, -4.531261769681413, 4.003176244320172, 3.4807975159469526, -4.602058387265651, 1.7649322951471338, 1.96570071036738, -3.1410142355871846, -1.3939938370443732, -3.0710282752930773, 4.7109283952853245, -18.7449438019135, -4.086302549338649, -10.449591033355098, -5.946562101780621, 1.0953390354975872, -7.343799017264258, 5.387410037463115, 0.25810885535771355, 5.063626008502057, 1.1990917013373439, 0.21348570102089415, 0.8641468667177121, -5.64267545428861, 9.323676245117085, 17.390871476497995, -10.245193476909696, 1.455196270403615, 2.272466613478207, 1.281723453903616, 7.799845729852489, -9.35872721681676, 3.1816826377102387, -16.085049302084215, -11.52479276409157, -35.61126743696017, 1.0160578517673686, -3.207081965907566, 2.869180375394574, -2.097629672672742, -1.8971139559955352, 6.109120891813067, -5.178177442576375, -9.257894767448164, 7.835979499929606, 6.504295355061067, 0.9457140411476366, 2.726010825478435, 0.9644243197616915, 5.64320418233851, -11.225605899392578, 1.2787354743464006, 0.711982225199886, -0.5123621515505421, 7.067707274676405, 1.3056021973297174, 0.18776401392914932, 0.10741121956181365, 0.4877773153372926, -9.739374488344035, 0.2890000682536388, -1.5287028816510744, -0.6832998016819833, 5.9353506655823, 3.5663212215202678, 3.8455898729295885, -9.352305365881177, 12.598091858109076, 1.5198313174015086, -9.210862490321905, -9.117854450785714, 3.447258864631166, -14.103962190866895, 2.4628403380642974, -0.4624594084611988, 2.610601362022761, 3.1825054689380257, 5.960531333043452, 1.3868893498563666, -10.203188942463008, -6.53620451075289, 0.03529377841663761, -1.242332452042076, 4.77572212800872, -0.979905966437332, -1.230820737457428, 0.6740131067236154, -9.82077148398766, 4.161810544151778, 6.309805146756243, 3.2918644118728486, 6.526063355293857, 14.328687565044765, 2.865652484054202, -0.2985221222828687, -0.09823427358192749, 4.886298838752246, -1.6702413448015938, 0.49208257422089197, 0.18146549317910599, -0.816483297013338, 2.816531740013315, -0.16235438872298458, -20.2160113721069, 4.252148375985674, -8.026942753107212, 0.42388116293476463, 9.379302527134042, -1.0074152363882773, -1.420371932936927, -1.6993850839128894, 0.12305325841630976, 42.35949942915604, 2.0751109392328164, 0.4342318899169859, 1.753608257553275, 0.3657534912917383, 2.999109472131061, -13.807619789028344, -0.7425688428198401, 6.557352212544347, 2.166948514901049, 1.7141587046962399, 0.42663468706577123, 1.7582467654940996, -10.548501629255753, 2.5417989608483054, 0.5511691814256157, 1.3212287085949856, 2.098857558666145, -7.44731354715142, 1.6423567940403927, 3.8810272879826133, -2.2438736845225504, 6.0718636596341025, -11.666252103729837, -5.368512198405707, -7.589732377060281, 3.6606517839341572, 2.3647004334536943, -12.22580861513807, -29.856369775531505, -7.294199613485722, 5.983396414416006, 1.9440128594778234, -1.1477390165308834, -0.09233203547298408, 0.0410512077989349, -8.778575573883229, -24.72883639553569, -2.3920279917927347, 4.073730321734608, 2.3403165362098015, -0.7543725291521689, -4.044076849102166, 1.9546002845048633, 1.6225714956500754, 7.364938993442269, -1.9526910474067947, -3.1388806492580916, 5.310496283631059, 1.1716996247675873, 5.599646376979414, 0.3666119728222288, 0.4041203660948267, -5.042771354442168, 6.42054795205742, -2.1437413205307867, -6.0078399350423135, 1.982099440705353, 2.19733152502794, -1.2058524775438895, -2.8082290932916796, 2.1079784824888406, 2.89533242367226, -7.103364343409675, -0.3192147112487016, -6.126354528754135, -6.501342905440678, -0.10175987836704681, 37.22555613220092, 6.634200157256863, -0.09213976198667717, 15.86174468821423, 6.2953949117733154, 0.7894827474632531, 8.689357730414349, 17.872552370800538, -1.5261758097522684, 5.695005960464775, 8.234406877573843, -0.7215693000248651, -15.03100505397926, -0.5035586571649078, 1.0746549115404163, -9.722856927808111, -7.798243707332619, 46.00148223603752, -3.3856419366380703, -23.683825976570457, -6.361695606802046, -1.6704624063528533, -0.37454091102627984, 0.5835529050261741, -0.2552680578501578, 2.717205703240455, -3.2051368722490583, -2.499382937071587, 0.015729239571699027, -20.083332717309247, 2.3258133946460555, 22.90028189797854, 2.920399712997516, -11.829147675052898, 0.962002199299514, -5.8095651539944235, 5.306628301601906, 1.297635525993871, -2.108966785089738, 2.369525378463862, 9.986558165037216, -4.801956335883714, 2.1484934058146847, -6.149428437865917, -9.802169132673601, 4.16268828629657, -0.6603413741242928, 2.183417416704309, -3.786085374396251, -2.229384779754426, 0.13970242829190216, 15.807164272699382, 18.470448403270737, -16.151563586657726, 2.181355731609729, -0.9593481237579984, 2.498222262769992, 0.4994132313297367, -1.4664667988641706, -0.8826723271633503, -3.8732480255385235, -2.0771043318348577, -1.788711329950121, 0.7305891694420016, -2.9160451598946757, 7.970336241481828, -1.858527653048255, 1.1107245742709262, 4.2043532072658385, 6.045777096868259, 6.809450440743517, 6.0350331263547625, -0.5199333948895544, 5.087245568667275, -2.1586035770768777, 7.104541761032343, 1.2398799490233685, -2.5746803170515555, 2.699132402160171, -9.544140386431415, 5.019337861125463, 5.076445026860828, -3.3448563509209253, -1.4428214627285358, -0.22106179438762963, 0.505228075724137, 0.9053698473041223, 6.763606966366556, 16.092977980772964, -3.3398149373017816, -1.5033846712966668, 8.842358377068994, -42.65096745550413, 34.914029141576094, 3.038732969272828, 3.988078421019485, 64.96937045038494, -1.258499990090644, -5.863111307724989, 3.0979180538136846, 1.5758451065569279, -3.812142954421355, 3.589944463963506, -0.17672779561674512, -2.6115779497630496, -2.8522477085091067, -3.813944808225232, 0.5686416887527783, 21.17536023776217, -0.9296098034945495, 1.452088836851475, 5.6562035567087845, 7.049486777728083, 6.757851798797628, -1.7517804698057846, -18.041350494766682, 17.32041180156151, -2.129844017119554, 10.344009000003673, -2.5809559458919793, -0.9549930485385804, 0.5147484729400927, 5.089673675380326, 2.2112400696538286, 3.914080801448602, 1.8571521520760417, -9.386251667188702, -0.5194812798636187, 0.33988796560884027, -8.08131824512661, -3.189989572424594, -3.8771009581680427, 3.7334011756257404, 0.9235860363016434, 14.72149424361488, 4.2122501778439965, 0.810466849133757, -0.2335033818921468, -0.9388861746927468, -3.902297363378143, -0.11400079275501152, 2.3916198987020074, -1.8471806822759285, 10.745626431188231, 2.182592470981125, -4.571974788068552, 15.920381186866535, -0.7919450892115393, -4.828404810830564, 0.36014710764175506, -0.5264780923066671, 3.7059764187814155, -0.09025608307766608, 7.095770890652863, 0.7076098025366075, -2.084794293439885, 8.746031410012328, 0.9952365495133755, 0.6249762783917855, 2.974461229598118, 3.3381310246583578, 3.3832549670360708, -1.9281020388179746, -1.8268296177695778, 5.953993546211988, -2.0070909640748473, -0.6713639266826299, 4.536661960620053, -6.96707136610546, 0.4430590158620489, 2.5720877993231595, 20.01291017189996, 0.09833499745206131, 9.045798367913719, 1.1705676710514243, -0.6738320717772168, -1.9411761992655943, 4.73211307957691, 7.706913294401015, -7.9224746363953, 9.78619666959241, -7.4407189067285895, 4.535721275537135, 2.7939649547086103, -6.667779205492217, -1.8502490732146564, 13.135449031927424, 1.8639909423755214, -0.17250820633826802, -8.054311240170325, 1.9677355753183914, -0.10383164250305388, -54.22637828305883, 3.09148629410992, 0.07550690199840204, -2.480790316928821, 2.635586897927194, 0.621555000614721, 1.575397797311259, 5.789529414911618, -0.7661753841126604, -2.4162036387061407, 2.53339691899464, -6.259647246457789, -0.03665754212556327, -2.22898511778346, 2.7638233688893172, 0.3686826872760789, -7.271342717532254, -0.2416105973743291, 18.799323566063425, -0.2143281484024251, 5.020257379172413, -1.9549333968722107, 0.4775540417793849, 2.471154149498143, 5.05314984014404, 1.1336107320197235, 1.1111051397007699, -1.533533260118305, 0.5104013645164689, -0.051375936772664055, -1.197739041542325, 0.3300615370194413, -3.149728740550021, 4.287235525108373, 1.6765027117319384, -0.5748660865196111, 2.5002957534898282, -6.539137813016104, 8.629614267767499, 8.305413955390158, 5.752826646133675, -6.737052749801313, -5.17395199157251, -3.236111227831086, -13.690233694356998, 0.25582802137139105, 1.441872271280004, 1.2742133257244175, -2.1518737009563407, 0.1308809060028755, 1.1595706418216425, 0.4091718749795229, 1.809356926377577, -3.961430689295213, 1.5928412358625441, 1.2237366190887102, 0.1539879902774568, 0.09958749184413163, 0.06123050912720607, 2.9373071604596284], "model_name": "echo_state"}