{"model": {"hidden_layers": [32, 32], "activation": "relu"}, "model_name": "mlp", "weights": [1.4280065441372705, -9.196658048558794, 2.829165079287577, -21.583625991489637, 2.702482497974582, 6.011112334440795, 0.8498463187525236, -8.976017109392664, -1.793293736674637, 10.89252100872568, 7.3922507975290825, 14.94224242135575, 3.7481923875696737, -4.620690052918673, 21.77501946644334, 2.717941082152165, -16.677927402961263, -6.590998093317467, -0.25143595790327883, 6.379849344118945, -5.340602151484208, -7.318499361486368, -4.3509661549672565, -4.544446257626532, 8.932102752857597, 7.983126205607396, 1.3479457314679508, 3.9425222394407107, 14.886608400281409, -16.110659904669532, 8.872512941086423, 1.404837668208828, -2.512327457760868, 22.12507281964937, -6.551443273039111, -4.347330182693749, -8.191749880082723, 3.867484273518355, -9.381655376695157, 5.384279616293021, -11.080654848644519, -17.59055951393356, -8.208619604933697, 7.205443463284424, -17.880528760432853, -4.92883872128979, -8.534196192962941, 1.9486718223062507, -9.084107552461543, -4.779327286900373, -12.731616473148172, -9.9830793268613, -12.292028631556697, -8.5867119713212, -9.826426005005642, 2.776286902502817, 2.5612427637350486, -4.745224686162007, -0.08890591708347628, -12.72253566491509, 6.375464332240601, -16.607690839432106, 8.175622706934012, 8.845617890303096, 0.09108275005944488, 16.358176722701735, 0.19722377986911066, 5.645820757926289, 16.325703019948502, -21.493413632950798, 4.139034927334412, 1.2125588496060684, 6.529080332618263, 7.271974440698502, 5.367818497390466, 0.09871620851166932, 10.903108851808579, 4.985752282306635, -8.47598746448913, -8.005771076640368, 0.0630018553766929, -1.4886801205979423, 7.3560667387839125, -7.988914227304608, -4.970797978352378, 4.162927054656672, -19.628979852638995, 0.5891903138616776, 9.751522524675874, -3.3799491821165972, -12.164015994357369, 5.472368421807418, 10.593573095000083, 7.493791538445704, 4.029357045121574, -1.5852377606522534, -4.8126338930524835, -6.894960654337423, -7.751121794175284, 2.8523430944106822, -14.23162159994878, -6.601198699925882, -14.343488022301463, 3.416493635727018, -11.31208188701971, -0.5690695010328639, -6.419425350987696, -19.113324280350362, 1.103503715741624, -6.9095872664579705, -1.0251089295883122, -12.223530966837707, -2.0607581932617216, 5.8789106876787125, -3.4207999119189227, -1.3356346826806917, -1.1730905168037782, -16.698141203121235, 7.031747414155307, -7.579723880229452, -0.23007926964894404, 11.912662260598557, -9.000890268867707, 1.989718247583072, -3.2107358779382857, 8.240441759753802, -4.771053196081478, 17.96200119240744, -20.90897040061375, -10.636254729292316, -6.780629173545294, -1.3098534492827998, 6.078876977410835, 9.399623237114461, -6.260160993712127, -4.858633513669941, 8.575970388481066, 11.641360227862025, 5.504793294245271, 4.867020125275815, -5.98769689518083, 13.70407727018094, 2.584273341907112, 3.5314898519686757, 9.345050802479347, 3.762379212103823, -7.412963396847447, 11.835317850412082, -2.2991864426642916, 0.5795420956932317, 1.2513477637639563, -0.6210394316276605, 16.03985897356839, -2.0507595382467345, -11.359060957908232, 2.9878145040046458, -18.168339520244256, 4.456339804812043, -7.784956884116434, 6.399452220151765, -7.755042417281376, 10.840890676981092, 2.133363332965781, -5.267986716029611, -5.2073315538537015, -7.143159861376522, -0.009996450427733672, 1.8505660393486116, 1.430458324605988, 9.221316987296277, -18.405270084252994, -11.903971770001228, -7.045359367933687, 2.8992845328776697, -5.493934208693506, 6.349474787853354, -9.939896719264663, -1.388516050311924, 20.956843585629837, 9.498726152530857, -0.660347491479502, -6.26318377018746, 2.2434534101646877, -9.966151494824722, 14.142269181838522, -1.2672223605687367, -2.0802301305550253, 4.611777513052383, -7.964349744253509, 2.1762453860166437, -10.71890611810029, -8.749375841437327, 11.587036015574597, -15.818640455518603, -15.489150654872756, 3.9967366067229806, 7.215689204036434, 2.6281087977349675, -18.80463493492016, -4.325420611792518, 6.938159528492532, 2.1245264392694376, -5.105809905804209, 2.5803981839510355, -1.6572829796301407, 9.764799192920862, -13.288555671331038, -7.522113219262493, -4.264582052327198, -4.179456608700354, -0.924092236978138, -2.4921843505557417, -4.40572009335843, -0.571908588872501, -23.88533354142624, -5.230220919706637, 10.298870121869262, -1.7074603793259762, 10.46473049195746, 7.409535134502428, 9.861839098666191, 4.541166376941216, 5.505401337118493, -0.7892452449215384, -1.9938207608814984, 1.1466865795166221, -3.668063874312497, -18.492535879904647, -0.15197153992296375, 0.7776476506791761, -7.001969830935359, 3.1701947755060873, 0.4860272279073079, -4.309896938568507, -15.07577939455872, -1.7326587634389181, -3.3303849405384325, 0.3706954774699742, -0.8399009333587467, 6.429821064233753, 7.124462463941374, -2.680794216070247, 8.021740029428978, -6.2707423900790555, -2.0794966006227424, -4.764551163720919, -3.133551557837875, -7.926751932314571, -8.45542738713666, -0.321855427270486, 9.70495578253912, 11.258251273417994, -17.570337137544715, 2.7970795568234657, -9.619275885134703, -22.511686106891343, 5.741616185791511, -3.990661759575482, -1.3486711829538085, 5.263901749998311, 2.180677433699971, 3.7751041446568956, -0.10098601012990782, 11.22185326258882, -7.15818197496724, 0.41238434098040616, 15.06062046880663, 3.683043110560362, -4.195177410806432, 15.790932485511544, 7.517853735040286, -0.2386453081131395, 7.1310253155160765, 0.30196690449208136, 2.3325920359569325, -8.181463907772496, -11.401266384334264, -6.554356459368195, -11.960959595095503, -6.794171316705236, -2.939697516673351, 5.353837393965719, 1.0503478422861325, -4.976702580275917, -13.086875721902361, 9.386292013908445, 9.546094062388551, -10.862866309473073, 13.908321974750434, 6.834036553735214, -6.630562236787707, 7.507615849596116, -16.623196534795497, -2.1958924524315906, -3.2097606885645202, 7.736727848250354, -2.607285584071258, 0.4409291325900008, 17.4431470965103, 7.5032966510481875, 10.138719910446424, -3.1997214614153524, -6.222118426687768, 8.83468084380742, 19.6162882526307, -0.823188868714905, -1.0293134715821939, -22.270236455986662, 4.5614641490096455, 7.572883070273605, -6.397669022328787, -0.14220360147812117, -4.808836564148075, 8.528336046510239, -8.832962808698808, -10.187039580642594, -7.971711392498955, 23.464627588782406, 19.118026235550854, -15.776353758365977, 1.8379635034222719, -8.835647920000184, -0.5878780122403509, 22.46821913797983, 5.629978593109253, 6.311141517649264, 4.092256304238046, -7.600562346829683, -0.8976175757627409, -3.8088553423842946, -0.5263244096213745, 8.869082273450116, 0.43088963918172896, 5.236763285297438, 0.10896104623829528, 24.0423990904975, -2.9334837070304047, 2.1832025676978972, 7.884893197549019, 4.338863439269399, 7.325673236567483, -2.4761384784395197, -2.246829526588662, -7.239646941648692, 4.312381545972826, -12.133926205847574, 3.8557528081050387, 6.732474400356589, 13.680792041069433, -0.33252013890111687, -5.2107657399134855, 1.7130505911280656, -15.567600182420895, -4.584456777842832, -0.961180220536187, -13.149930829532693, -9.699039596088083, -0.18606750518070636, -3.1026156825201303, -2.670868663518946, 0.5520705150121547, 13.14841303543159, 12.123811716147124, 6.934834899284461, -11.723985690110451, 8.027662303977998, 0.348139981437835, -14.423738998206169, 0.5366162874099398, 2.5300405809562485, -16.77638309962394, -12.200770773321699, 4.140310394454047, 2.097760550863552, -2.39568807988301, -4.937540636777037, -2.957796251643777, 1.9154884498451865, 4.293580262780057, -3.139955435992221, -12.377225129072814, 5.993790956928194, 2.6823568891982013, -1.1407047183872834, -8.538108675562588, 12.240679154528367, -3.0227291613728586, -2.2086844624828212, -1.2298002110245259, 18.72465349460805, -7.435301730696385, 19.65861568952677, -8.148851640063018, -0.10946629165380695, 1.7190619555449094, -9.984314792107549, 3.244138899732972, 11.149222636660589, 6.0164167097195875, 5.839940872160979, 5.171796827338507, 1.8650441299524716, 1.569416911965356, -9.891591134471254, -0.42433305791346876, -10.392751166508456, -6.500925480213799, 8.198922764482171, 0.9267256318380948, -2.4124427002826994, 2.8755793593756787, -0.41609685859408096, -14.523935294966492, 6.415328022507492, 9.960016500491554, -6.320761668022699, 6.979677574002901, 0.23290784535819187, -3.329561453930314, -5.914801855468843, -11.773999554749135, 7.527980522328798, -3.034541714253087, -1.4434853712842939, 6.025548886643909, 7.5174144714058295, 3.303654068180872, -1.8063810936174343, -5.215866919072195, -3.9672750952872455, -4.330452554059954, -7.545102696359717, 11.96466364095241, -6.008963501531028, -2.385529250203331, 8.826191421184669, -9.53052408591199, 12.99377273455854, -5.453956105905562, -2.5701462491224727, -9.827229428250435, -0.16247356150066672, 1.2013881239305593, -5.261203296161743, -0.17522532014146466, -2.246337680106534, 3.9125755273954543, 6.578760712088075, 7.7778920357534576, 0.2072916044902149, -8.518307178034586, -3.605341974739101, -12.397541213295863, -5.154034221589294, -11.528820483328527, 7.808952464440915, 6.431029834352576, 0.6483097147686325, -4.32205713093969, 7.60836195449574, 3.761773173104575, 12.94111705544345, 17.15131825139662, -6.788371886143273, 7.627515774623235, 5.094571639297939, -18.799926052642803, -2.5127848403433197, 6.524786777142446, -12.478439093362846, -4.811047518090647, 8.60224401918724, -4.822511797677234, 3.9741360581754774, 7.749230695995627, 9.68026546980841, 3.754327336430951, 0.7207901313329076, -8.53310890939338, 6.725007654435408, -14.290619727581973, -10.44388289499473, -1.7120735606216784, -18.13771647519763, 7.234775531555913, 8.915900042757343, -1.1371197855273183, 2.0894492735949, 4.7529021135403475, -8.734141902732881, 5.7904832624353375, -3.3686825037084667, -2.975725338879757, -10.484710351014481, 4.760469250792262, -3.3085935347207975, -11.443862977970396, 4.100309942053194, 2.6743196773717433, 4.39135681213353, -1.694184543585405, 2.2786084600531593, -10.01160368010981, 1.2429159603775706, 1.8445218283716336, -2.1223970858276733, -1.8738261023075309, 1.5945185509502862, 2.8696179404301994, -9.327239088641411, 2.907345408781543, 7.227295174900588, -8.965804064944217, -1.611779420263548, -8.847075525088991, -2.138060614528308, 3.195347755240444, 5.596324578241966, 1.6617006008469692, -0.48623039136308993, 7.298655236484639, -8.61359146353784, -1.6025939720502378, 16.549753850704068, -10.181945087852684, 7.79774603236503, 2.8249977794199386, -0.9205280591578406, -6.635419975464818, 1.970984973328676, -4.40093569653895, -1.324183021652715, 3.0710522332124555, 5.746385100528514, -8.899969433223577, 4.762259070733199, -2.9591851401478646, -3.7615284355951326, -1.9873479461931671, -27.24982509106159, 2.1743517977354063, 6.0215528285841335, -7.514277924840617, -5.922970780644686, -2.8339201937693197, 7.232902556072115, 19.12486053451915, -5.463637885044514, 11.0729598032032, 4.360353845728196, -16.155311981714625, 4.396351110580466, 8.33695472004774, 7.93131672269402, 16.281568633742516, -14.334297899550153, -6.784299742084143, -5.02519359008774, -6.954332156429126, 2.3498233712391343, -3.3282534358175044, -2.8367477438575053, -0.750098082810774, -6.068992282796937, 1.2308971037577696, 4.204054664836616, 3.7492674384884084, -3.4808250841924404, -0.410214549553542, -7.535479305354433, 14.070733078461434, 10.218847521691098, 0.32055868350123295, 10.60924825977136, 8.571933647299135, 0.13828152965190074, 4.390700385543772, -16.080268421749835, 4.659622529065408, -13.27005885368658, 0.46655301912288427, -11.551150182920432, 21.904346392540717, -8.427543909827609, 2.6972670868631186, 1.229850818516224, 1.0581934365582497, -1.368494052657564, -6.738402115081506, -2.1933452094558694, 6.980428575989092, 3.7518174894930154, -4.477629806923664, -17.91972674225338, -6.758481163533724, 12.144263842195144, 1.269982650640919, 13.502442909774084, -10.632675195429556, -2.129427099933787, 8.540102187966296, -5.720650552752884, -13.685550885061396, -0.40577001588862754, 4.573810677930579, -18.732119768435872, 8.532330636869647, 1.6621014069181104, -3.5624376469963095, 10.99831725816796, 0.8416206762780577, 6.947912879243388, 12.553713282694552, 1.8037842215679099, 6.020970342485878, 0.6441513131760597, -2.5812583170407564, -11.330598041425363, -16.902085936910698, 6.2328063452245575, 25.81462348599581, -0.8538176238513135, 2.5544778202795597, -14.864569760087225, -7.962883428265483, 0.33293255082491835, 6.5372953684090715, -16.232556502655918, -0.06521355316976374, 0.7140648272064622, -12.700436886860253, -4.448836195443162, 4.426694150016717, 2.9204923562110214, 7.284897628632324, -0.3579986293995691, -11.175998584732671, 2.188031671815432, 16.764308071694963, 5.890035181064156, -1.296804343929951, 9.146971705125829, 18.095205259240313, -8.561732376859867, -9.234858743233856, 14.531896676204072, 1.5869074045186193, 12.115297647535153, 12.679975607226119, -4.828119188131382, 11.363886934215786, -14.06247314323476, -1.3965652428436968, -10.320143626374971, -2.8453457308580568, -1.3419893663715992, -4.725361511729225, -0.22528879109685063, 0.6260923988076137, -0.7410466285309922, 3.856548361509996, -4.147947884620883, -0.30423159892467716, 13.538876043704626, 9.139269201464614, 2.499573629205159, 10.908869977715039, 5.921691264806002, -2.3840381588086657, 2.805759896847099, 6.758190260040285, -3.668989803861293, -6.6192265046083065, -1.1657903443164137, 3.0183250118815286, 18.817393144182496, -7.272697952945229, 9.551401424442822, -10.240871642281096, 5.184338301715396, -4.250162731507406, 6.542222538717062, -8.939215113553166, -0.02329757084724582, -8.97428554474129, -11.805631416742361, -1.5923777338402043, -6.139973558519236, 9.114663025524294, 3.493822619629273, -3.3560595573446643, -7.385547505369283, -0.6618411330549853, -6.231704577632779, -7.141541321556738, -4.488204094603944, -5.367081851719864, -3.0837484884922923, -9.228757270047158, -18.970698021177892, -5.9816994171902325, 8.63827595532762, 19.224220869256655, 15.022036732306754, 6.86560158456736, -6.453106292555084, -0.9418296051810069, -7.467290708406614, 1.6406430774615055, 8.908277110852595, -7.487242546996988, -0.5852327013255129, 10.04717183884753, -3.54298507541378, 7.531415955872198, -3.6015473514276457, -1.7899414247105763, -1.4081506337427983, 14.017331529217206, 10.72841094715725, 0.9917404914176324, -4.554020243198907, 5.012647979028841, 6.6858285575547285, 10.050490561006491, -5.725683986331781, 11.698697301736683, -16.50544920635536, 10.897726424853037, 6.093889993735962, 2.0814429247220056, 4.954899188013624, 7.949464619494949, -11.835987265609864, -1.0811608518626281, -8.763614973301207, 9.358540499546384, -4.4760616966198326, -8.348677787890653, 12.394303067081049, -0.8584380550199158, -3.1024147915599833, -0.348978816611917, -0.6024490623105108, -0.05869987938636245, 7.465224880944408, -5.351983701437742, -14.073484118345887, 16.185767396687126, -13.499237385514832, -9.381146188352973, -5.059748410657721, -0.3177020356959208, 14.529850828665314, 15.768636827882316, 1.998770060789706, 0.17752967387270746, -7.367448363490584, 7.123633592165819, 2.0231604254561812, 11.102485209278974, -5.922585612280284, -4.369796076623701, -9.077925882942411, 8.998617954276563, -3.821176950173293, -12.445885171388413, -9.017009585219087, 21.871149756581598, -8.137354176906655, 13.889436214213491, -11.32610708084106, -8.961679742478454, -5.399037367733161, -9.385277540916674, 5.648132183181557, -5.598413174323481, -0.8008648095249408, 18.38312858207321, -12.623457738553219, -1.0280483279131025, 6.439451758756076, -0.30872071612291696, -2.350230723080257, 5.142488436356136, 2.165935004718264, 7.35460655200146, -9.577097422789242, -9.818510985886086, -13.326803778541404, -9.219592817392272, 0.4172281532914583, 4.388089260780549, 16.535220373076704, -14.648572439676386, 4.8805746649022925, 2.8928041067250216, -0.1862369038070519, 11.275590209306152, 6.008423438516202, 14.065846047807593, -8.55616595969804, -2.943456116892071, 6.688840284209964, 12.831789641649856, -6.890471678678821, -8.307597255251629, -14.875739300465378, 1.0762354401536014, 1.108849184019339, -1.5845894558040163, -1.495612409984347, -4.708766794994002, -6.966212828902341, -4.544494102821065, 2.037203089312676, -3.276557079737627, 2.2255313980138376, -3.0376707570441934, 4.418702252735021, 2.787454427273474, -1.7339135215446304, -6.552484966109726, -9.180375809391588, -14.537443666070054, 3.2863198908255047, -3.341207474187444, 20.68033834826889, -14.710192156110745, 0.585200972780785, 2.3363264688179393, -6.583601452703581, 2.977355951641257, 18.534247278635764, 0.8391596345321232, -5.328002197639308, -10.172361521103241, -11.028415058274682, 2.835485579753712, -1.7260221564173641, -4.292572585452868, 8.251423756579989, 5.071110852590669, 4.0397756577203925, 2.621027465493616, 10.853486626233765, 11.85359045174323, -10.960957107652131, -0.3708906175263728, -15.758636875059507, -9.157727395819492, -4.897970808510092, 4.666806460298724, 4.640606238771053, 1.8578768708794324, 3.7349855284719404, 9.987949473939292, -10.429372783159694, 3.14913486789698, 3.0102463891307125, 4.597011627665273, -4.49506661336981, 12.62253083545105, -13.119744691492633, -19.194443078402088, -8.203025196641072, 6.705328267366855, -7.76851988931913, -3.3581355194316864, -9.798940104525443, -4.429741519135108, 9.758008554731434, -0.995846787208742, -0.7961862650147202, -23.045749429392192, 16.71449747885386, -2.9453756500121413, -13.090343214171693, 3.771137235070661, 0.3891044025520848, 16.18313532920202, 23.90888450303327, -7.999212071208729, 8.813609234329755, 12.392676383436097, -2.7321912848598044, -13.246226610119939, 15.70783149383203, -6.1067452097322255, 7.874658114858242, -10.043705803868267, 3.531973369806806, -1.9861966298788531, -0.4482763439917343, -18.763247911273613, 6.7913170331713, 5.7838569844213765, -8.391147221723255, -9.612621892569933, -23.654127642374025, 0.3799091377061144, -7.528260737008283, -9.507992568826468, 1.1105558197938254, -9.144488292595845, -4.20339803469663, 14.610972656199932, -5.190908494583835, 3.2904011251165857, 4.035682870727854, -2.9342108057563108, -5.551461364002709, -7.580046528089603, 18.727115199329322, 20.969289676892434, 10.369895366991173, -3.091860482110476, 3.6951195519020787, 3.356058221226466, 14.215375350989596, 9.884105558149061, -6.884802281355896, -10.820203554427136, -0.42640224974867924, 31.626500876938444, -0.008384062093266212, -0.19287769827528015, 4.488865882750906, 10.934716943736206, 0.09086593836153267, -0.5942865969136939, 9.759840389838697, 5.133384592164147, -8.929786405803457, 8.20851840698883, -10.175324577327585, 3.125377003209559, 13.337631244801452, 16.719985143805904, 7.0383128260090455, -10.26459636512805, 2.2949187636905033, 2.3203025132125212, -13.743857470446631, -3.746856580827316, 17.253989266415314, -10.454281692376133, 0.6689577341933592, 6.292151718424323, 4.228024489482782, -19.734661691733002, 1.0145959112177032, -2.710729047951813, 9.734764773631655, 5.531070732537014, -2.002248767452237, -8.180955211991197, -2.8742065348740926, 0.6364390579573386, -0.16422695057195347, -7.579701233180876, -5.823624546437686, -7.6958913545216605, 3.98203347712302, -9.285512004566424, -2.6530747709408944, 5.918399276152456, 4.022717993609246, -7.556511493730124, -1.83461305743745, 15.642962767104759, 17.845748701419886, 4.211782449369868, -3.1114913438907528, 5.959235601008742, -3.3207268782752823, 7.5361617502465785, -10.084418655748982, -5.152477679807909, -8.57548271745396, -5.998977306450675, 3.030808904395669, -6.422968987157224, -13.635575019937136, -1.9323822894436988, 1.1588885404104192, 5.263720239325585, 1.049585207295836, -21.282887780736292, -8.615927590005027, 3.5278690934560846, -3.839152313454178, -3.3669256499186586, 7.7682026036241565, 1.3996490153982646, 7.871742765194611, -5.157456588022833, 6.930623030663562, 4.449362589991876, 5.875657028112571, 5.463694017630542, 5.9884790490872195, -4.491743688144637, 4.7112696598154145, -5.493149896244192, 11.936962569898697, 2.573978087034055, 7.018064814392571, -9.080536812167523, 7.198819148699806, 0.07382586559097892, 7.256111012857408, 3.009725961298098, 9.45318348941334, -0.005466197805427342, -0.1401342422377011, -2.5560975673957382, 22.631343010787717, -3.793026320817142, -3.4594757104415534, -8.968208480543638, 12.184548196516056, -2.6883494679354385, -22.888969965813708, 3.151714400018708, -3.4709989138923625, 14.449563754781966, 9.33283525059326, 7.692883678986073, -6.549044610529776, 1.9405891601074914, 2.512193182558506, -3.407782186666525, 2.191416618004964, 1.6507979843756961, 11.804179181979618, -9.974111613266238, -0.5136809285897148, 12.332829926645466, -11.953759627297822, -6.3260104415905865, 3.92997796007208, 6.433611871154868, -0.4665472168864967, 17.38255460916049, 2.2643398102223746, 6.57297038734744, 1.9638084058043932, -21.167249196813618, 4.457556941449404, 3.7708654576950553, 3.146961350296029, -3.3282897767124204, -10.741615470252295, -4.184408192773376, -3.475857097311536, 1.239543605403818, -7.620685819148688, 18.550194842757303, 7.3751973244720865, -6.4693005967408554, -0.5803044649961914, -13.062534264850738, -3.1828594486528874, -17.359867650602997, 15.747192860964619, 1.5535537399482813, 0.5087040601977045, 1.4265763291413411, 7.6138395560325485, 13.328244677494107, -18.059240167274915, 5.267615793292027, 15.318415454120164, -0.19163010186601248, 5.28390727195509, 11.924001472560132, -3.7650941512967617, -0.24181078927545416, 4.425674738060475, -1.3062999951463525, -2.1924460888417503, -3.9075852632724213, -7.614584134894335, -7.287115693318075, 12.616432828869934, 6.433125803170677, -0.39296644781637846, -1.3984221627305717, -3.1817702812865423, -5.377154431241032, -4.2909911231156, -6.755222860340232, -7.4748891033896045, -10.703943218348087, 2.236635052009865, 9.352394058644709, -29.426627730023167, -0.18427895609654188, 1.3467915488777549, 6.1771661702926535, -12.111338398207296, -1.9278359638099811, -8.532456552179974, 7.1141706092285775, 7.909910439358653, -12.57787033737276, 14.143731322343443, 17.83595615059961, -15.035365198256102, -5.256199717171574, -3.4062801556807436, 5.553744039693798, 9.635120163149866, 0.41646935945070807, 7.095902482945078, 2.8634824510769246, 7.731912270512481, -8.219379918431754, -2.9953943001977845, -13.405430607989654, -0.4578781982450526, -6.3492102230807745, -2.5645918279691577, -7.101877504930431, 5.8024822730519245, -12.822222996701248, 18.821505582555258, -11.77488595350759, -4.100196748946512, -5.75423566325829, 4.509806910634932, -9.195855960589403, -6.295122586776666, 6.31274814415862, 11.83570729982628, -3.8652669594666724, -1.0683034149762918, 2.707583187572212, 1.7494750964772106, -10.082032852836626, 6.861972403089277, -5.681131101150824, -10.230663562928804, 0.42940648294449624, 5.515313808152839, -10.007676903122132, 5.897408974798423, -10.060143260289431, 0.4904646319323145, -5.701770846317594, -7.616788276940873, -5.969455030408659, 11.090410142493587, -2.592311353626343, 10.995414845639175, -8.20696120553572, -10.863322569729048, 6.1092201653186375, -1.5368699892465507, -3.5934131352787846, 10.611869606389188, 1.371514243487967, -16.098219975561534, -5.556364065074342, 1.5771437575464917, -5.841375212832296, -8.161490242244827, -2.672287647897531, -10.980951997719355, 4.898913805527291, 2.701352130762265, -1.8443040951579217, 7.424842117691796, -1.8906620152998155, -7.299956566876663, 8.765504846623955, 15.697393469907917, -2.7066691231790707, -1.5230358165111582, 4.6426738927847575, -3.1816386754165578, 5.109970858373635, -9.988798611132117, 3.8778406776157714, -5.061486721172038, 4.978581505529289, 9.511568078502206, 3.7461196263411476, 6.912931676560347, -0.2831059353299037, 21.268251496285135, -11.185114588350856, 10.057933440442007, 0.27723943807967316, 14.698100507254681, 3.0016464143722805, -3.827077660130166, -5.110375639418175, -3.7936634226448236, 5.215149215524621, -12.708161603888401, -10.785741616791423, 5.442597578853868, -2.2672424843600893, -15.734669025972124, 21.869313566189568, -8.641095043224938, -3.792700678555442, -8.714447223721274, -11.181034327235071, -14.876758907809238, -11.932338769913615, 12.78814179527446, -1.4247350918772392, -4.018244737759922, -18.183908328536305, 10.104851427029033, -11.497822221993413, -2.2971370477340463, 4.202033333743355, -0.8902279314122352, 2.635667918059696, 10.885179989218267, -6.238402392032088, 4.1912183028456145, 16.769670832443456, -14.645751523455731, 4.44518564893235, -16.776473560571304, 4.94001725088924, -9.883512889557677, 2.096462207239499, 1.7713212520723831, -11.842450965663247, -3.883409557510101, -10.10906399904916, 4.665067218328897, -6.584094879609373, 1.3213937476745496, -7.231457325402033, 1.915758307459626, 9.810369864702553, -0.4448644220204708, 9.768779053947775, -0.6104254190859251, -0.44382077870400677, 3.6434718796607437, -1.8047190017038135, 4.753916081218409, 4.049120515241406, 3.7535049791302413, 5.927515478656156, 12.245270304278117, 10.840194572373704, -17.914433667784873, 5.532435318822425, 2.757231975559934, 16.63571524195704, 8.018229032366474, 3.7615575945191466, 0.19795200902221244, 2.0715930491724026, -17.27122568594494, 3.9900726015514554, 0.0475599212803961, 15.7348581771904, -2.172665965764156, -5.024905035018158, 6.51373031762444, -15.827529396174329, 8.023076153233857, 3.4211101361610217, -1.3406187057658867, -12.454651184417623, -2.1479083810301343, 4.907944503730086, -16.26909813796621, 5.456306298577509, 22.514563518303554, 7.06622384825066, 2.1973905192036867, 18.482415247292916, -10.7295689626509, 0.2425365092300763, 9.232675648985476, -4.724807899866979, 3.2607298292421434, 18.76555405773682, -9.517302775852452, -7.504169363059781, 3.4082964790342873, -3.645963357779483, -20.201101754068592, 4.195579152194494, -15.133132187937704, 5.068170011857458, -2.4733616173114465, -15.200355692867914, 4.1896933548110535, 6.272733911846781, -8.051968814852838, 2.3319031383328332, 5.741329487109059, 5.889420945240264, -5.743940556275437, 8.786308595192624, -1.6379070523717874, -3.1165105340825403, -2.2861466610470975, -6.302285403474279, 6.675638196662595, -8.679003429361169, 12.972173943545432, 4.914507096639927, 10.245615057947301, 19.443128254274658, -2.6076889778978343, -2.058331552488704, -3.668316729819848, -17.855617992169794, -7.094048374565553, 1.316846673113203, -2.019957115364149, -17.092640060262347, -8.758038202420744, 3.2545644733189323, -16.12809662638497, -0.2150838572148781, -4.273556543296764, 7.767469559184214, -3.92972185162781, 6.535034406241312, 16.808063532122226, 12.81164512836648, 4.205959507063592, 6.958131670925174, -5.203068684969754, -0.8361838036318151, 14.50739254719937, 8.746435980015535, 3.100194532613713, 4.632610949022764, 0.26262508008175267, 3.895066240696798, 5.324624328222035, 7.861223259228326, 21.627237930399456, -14.318634979476375, 1.2308357887516823, 8.739439796449497, 17.016663011428225, 9.455136520098687, 1.653118457162369, -2.8223161890300767, 0.9705343864304161, 26.510654040322716, 2.0385283815455875, -16.773050919446057, -2.0858593271991435, -0.5096869983858635, -4.54286584392381, -2.220339211106795, -19.545798923665345, -2.8904027257381912, -2.038007168159735, -3.5861311396781645, -1.2272090836588567, 0.17623533717311657, -11.240809284187744, 14.868822918347977, 16.787492034695475, -16.572895493263253, -5.19030156506686, 1.3052613592143225, 10.032177351384723, 7.280070590120061, 27.362955126326515, 8.45244534237324, -4.388028401853436, 15.430072912798876, 11.922984483404026, -3.516199693572651, 7.995278895879725, 5.295466620655825, -11.28919352942819, -9.656013645765567, -9.702315325245694, -6.591541882410435, -16.229304106655025, -0.22547519728489107, 0.23334256675277348, 0.6240517214273964, -4.048982152087467, -1.1860411444382168, 13.088942520598764, 15.283173401009156, 7.610109338472869, -0.8747686809185179, 3.787592500445368, 10.974301294308553, 3.8995406981765917, -9.210408694583542, -11.879233671113482, -1.702953847381972, -15.95401321630538, -3.8586379834270526, -11.43975430972453, 9.988626264291808, -10.766885501573977, -3.0418302329538376, 15.466197337208435, 14.730198519697586, 2.6252641901606895, -2.153072322645121, -0.1919145451599349, 1.306099454140786, 7.988209956757021, -5.6184457406768, 7.48640737765586, -11.665678047661629, -4.2186391792379965, 2.986400271597596, 13.744163666557741, -19.028270795510874, -9.789905495937615, -14.871885012318334, 0.16664800526048396, -6.203175461993132, -3.248755850296616, 7.948693732787272, 12.572168631609557, -0.7391167731571832, 7.5136959919781345, -9.710185702920027, 9.546167926233212, 14.419012585083147, 6.731438380178543, -7.1472222735229085, 7.488719515530985, -2.7440130539445073, 4.3765211585880435, 6.85688018198285, -4.7011624282947, 1.7507798474891034, 9.719727131277283, -3.6889001492939473, 1.2935797355969378, -5.08580798169412, -3.2118631248982417, -5.576213736047915, -9.579457829533869, -7.5819211992933555, 2.024968278689875, 0.4871062944653475, 7.789397570375449, -2.842465727722698, 9.537224158228746, 11.682403775486948, -10.67248344820026, 22.762337126842763, 8.828841442065167, -6.867035582594589, -24.15764280362884, -14.66248014608618, -13.126936976481591, -14.66494889580636, 5.844583233300415, 6.018091372235244, -8.689117313976396, 4.587260572570289, -9.082604759699725, 0.5256616477581404, 2.7547537755291747, 5.0345466739176326, -3.18368043934467, 5.682154078595318, -13.9302646009695, -4.453110651575971, 4.2943286810237815, -1.8988809300569969, 7.093650476139429, 3.0178863245648166, -4.041597719753894, 3.6139796842124627, -11.379799904404786, -11.85723917751476, -0.23968522075123247, 3.5769531894636533, -4.391706973084417, -0.9521350449877644, 8.132119479206693, 13.899621704384366, 12.154827251019366, 21.16445702139876, 16.567273455315636, 1.26036970479025, -7.234400238970352, -21.455388672862803, -2.89651095107448, -0.25173968349192954, -4.272020520442001, -5.8953561569066055, 2.6889233452165655, 14.006918681061059, -12.937306195712774, 3.5620939493103316, -12.450517358503532, 4.957667873973126, -2.037599414428322, -30.428230842906586, 6.345622146291653, -4.9103421331599675, 15.477362682071318, 1.1483286807953645, -21.484935742354516, -7.3820076367858, -13.888294275483196, 13.949959869932105, -14.31353446919581, -5.001198681425284, 0.49081968377918406, -15.086935287079632, 11.262692479676996, 12.637527038968472, 12.136272097445099, -8.183135562974284, 18.509480677620914, -9.195314743395258, -1.0470301773377317, -7.84944056211625, 7.6153608738299265, 0.3998776233907837, -26.831308817527418, 4.303308368926333, -0.12182561014212101, -0.6087272606897292, 0.1088638286889001, -8.774496858179903, 7.30183269600543, -3.08065281631397, 1.7545143030835644, 3.554541830364378, 1.618752244453654, -0.46167448330692396, 4.5291059682368955, 0.6640869001181382, 17.70242816182441, 2.7601092658276434, 20.073422819043884, 8.904861801570021, 10.617708753246312, 4.635772024728064, -9.691006395235247, 5.801817840534775, 2.4614021807875317, 3.659740573744612, 3.1805506595004647, -6.011039137766881, -4.257601394461617, -14.546158118248384, -24.19096926346562, -1.3434642415824871, -1.6404842070386159, 5.855887893212307, 2.1271775357463296, 15.33883791716353, 4.925455129289772, -8.167581639582336, -14.238309075849692, 1.8042925759829942, 30.323127328441057, 4.396087829796757, -7.094132237780591, 13.777771012262116, -7.042079215984913, -15.394383111290791, -4.369579120740332, 12.990787594118515, 0.5717820458560388, -11.174505462092794, -9.403209293222405, -2.7375459786136145, 6.52925298698987, 14.28661501911162, 10.103981969046224, -3.0659447047905917, -3.039439060395251, -12.580911142881504, 0.2294246019970818, 11.038288257587876, -4.953749866412741, -1.9772056204782722, 2.8425781430339736, -4.763255096565573, 3.428780110098476, -11.087325604326876, -7.408396109876784, -11.68183639557059, -4.110821535022065, 10.20765964407781, -8.749422827433634, 11.517037996277518, 6.368325195142, -11.81272184201885, -7.538634213002965, 7.323486859438685, -5.914138601158667, 14.859597391686883, 23.11156063683442, 8.82464728961666, -19.01496118799073, -9.614444113595994, -10.727443200450367, 3.6787994048566732, 3.338439176173948, 6.643360181583119, 0.4981744734486727, -0.5974493502428333, -1.6928324714232725, 0.5200648378366951, 1.5392389792993075, -17.070269205910034, -15.43033646660522, -4.601224591059082, -1.3229297760794472, -5.448318047687148, 12.259390994404171, 6.420094253821938, -6.89686223856903, 6.649304887495379, -2.3882500426044992, -11.12881890573996, -8.395261924459705, -1.6408840673180833, -2.046528468593398, -14.602709591773, -2.8912606926889497, -7.417879061951903, 7.6545138362247656, 1.2744504943001405, -11.408209304536289, -17.59344309801199, -8.41197758852985, 4.901930897062851, -5.3519404487149345, 2.87391811693549, -13.384803342249722, -5.651335420119495, -9.030919253511499, 6.369793620302221, -7.994063234524334, -2.1510304896314816, -13.089797681555707, -5.916257978542463, 11.084066087698272, -16.584221238675166, 5.067511122526045, 13.10326243607292, 17.388840924438277, 15.794728532605676, 2.8006234796976446, -0.5407039386570771, -11.915657405761026, -9.158446714527685, 0.9578830383923548, 4.84903033478554, 3.9219046694529296, -14.154084190304745, 11.099169390056518, 6.116780925980888, -5.359140383906889, -0.3497537401518719, -6.26802726183462, 3.450965772040372, -3.6464935542263173, -6.081537725511013, 10.912060699551683, 10.35839613082681, 14.128280747629244, -1.0327414062663045, 13.009535288555643, 6.697768307243946, -5.238226570667019, -14.412059342968561, -10.542850752704776, -1.5288812806771894, -6.288114284259722, 11.75571801738561, -2.0480104306478126, 18.070102526979834, -6.882899674565437, -5.206661984097926, 4.76548084342658, 0.276737184823445, -16.598843176230577, -9.759518390856904, -27.304305550794496, 3.656568977993623, 10.222153248939437, -1.7639544437709203, -5.671570586131915, 4.192396077703222, 5.824801885070469, -6.379326726037073, -2.2364912731417745, -7.402241883787408, 4.74696573710589, -13.358191293734462, -5.032963006482028, 3.0660398395327615, -2.179414634301047, 6.905895362049588, 8.565320141250709, 16.219905173529803, 7.062974027141437, 8.02994984476317, 15.116721058875934, 9.030170605153543, -0.5797085854558963, -5.754794098616976, 9.609459061141202, 0.4020467180783862, 3.890133305957421, 10.350446356375645, -6.5977718119670135, 6.248207825170116, -5.6493066242154875, -0.047116035712297, 15.933343491407093, 5.439570828814165, -1.9762879741387285, -17.723686063565548, -3.117491567735385, -15.922470295731383, -6.140954730331012, -8.0006090457845, 12.233821586334706, 4.488980220111981, -0.6156112479406293, 3.6002267159740673, -15.701564922707611, 2.30804886853772, 2.059857816940388, 6.732001158436628, -2.007599685009205, -15.570840885549732, 9.345078196307885, 3.1200933258325216, 11.762029131966573, -14.32144627287931, -5.153763973583944, 9.413380122645725, -14.564669998528872, -3.0807905724505633, 13.653572043780771, 13.124387275814117, -2.448677287273551, 2.0026288681227973, -8.759313295951888, 6.870943299113683, 11.030253463158381, 0.7965587185038029, -3.13988103968678, 11.658469532539367, 5.840776420254493, 8.92503375381234, -5.8037019736512, -5.193984915673617, 4.8513284599660205, -2.399459903620446, -6.857257231432143, -3.278078136850903, -2.575096925729303, 7.998839280920773, -0.847251998561187, 7.991566577834659, -7.583726570021053, -5.368403142116237, 11.642253954865492, -10.906066750594372, -5.488426261244953, 6.77501604290562, 6.10923782500815, 9.4944927892548, 17.230979027783647, 3.3082035536645407, -5.950035255531164, 17.505448583406846, -14.85318959430673, 5.262587851858936, -0.240102832375094, -8.681788209380835, 1.9963718931305565, -3.40506275231392, 0.8415531857651829, 2.6079121594962147, 0.5504677155486545, 0.6323093977850407, -14.55115938080923, 5.6675819255398325, 4.138197556108795, -0.3772575965539924, -4.632249184204037, 7.519167591970358, -7.3093159679354835, -1.7910806522953036, 2.763856061786522, -3.633910565728872, -6.941711221179635, -2.835199524729854, 1.6437234542952095, -5.766002753678966, 1.3035922585603479, -3.161961715249338, -1.0463582316798088, -0.18282684951299144, 0.03351697215987495, 3.6525504483966715, -6.543997313950545, -6.768589854548999, 6.030031105497098, -5.660459892761601, -2.792715531940622, -10.27583873462643, -4.620593318446302, 12.255930786815794, -10.109125151695796, -7.24328171019461, 6.000566636441821, -1.1290095731835512, 6.916325939032445, -1.6939332744000797, -1.0226779118254148, 21.622397840710452, -4.271386654795994, -11.327728290907014, -2.23229862981027, 8.331725912716744, 15.37648719865472, 3.333860201016729, 4.91279842799361, -3.1934484027768724, -1.4969010650234738, 14.186450269872534, 8.275519995800428, 10.299141476110574, -9.03494770705897, -8.954037486706786, 21.719457642281064, -7.815964899716395, -11.422767499669614, -9.109130092595155, 27.68754180473488, -3.4853791201554696, 1.0275284256881396, 4.660151469256383, -2.2080502142304006, 11.620012780019815, -13.898107718945985, -4.243916160748408, 9.493053768573775, 0.3118267004688863, -5.070145468554801, -3.7552345713511723, 19.79874399504388, 11.91274845017222, -5.137475817151624, -3.224387966340964, 19.708916012611667, -4.065703879636476, -13.934669576904573, -3.2383932024159408, -12.79057180346307, -4.49809799892765, 0.9962698056031207, 4.970701623653957, -11.789610098031247, 1.54383586045991, -14.171300481364447, 4.008592666320852, -1.3357100872143124, -3.006291717001114, 0.938786762285067, -6.788048333230217, 5.323550085019199, 0.6978283648538819, -1.4465764816230993, -3.9363158588703566, 7.698926828227742, -7.418576124538993, 5.456916480368857, -3.4558651052457425, -13.331999465830618, 4.911934118675982, -2.960670529758544, -1.1423311655953263, -2.4563272524873305, 6.6795814557019995, 7.849293757667581, -6.498180239671144, 0.09601264854050329, -0.4472879440554283, -5.33561261081917, 0.00422350685318118, 12.30753703840634, -8.343860232589979, 3.031884751991975, -6.940165498539149, 3.3542874059490595, 8.009979592350417, 19.565745025991088, -3.879068147723886, 14.581026041595322, -7.589668834301836, 2.838783282310061, -6.839939285590019, -1.7559230486433943, 9.870109215962906, -8.214810063934914, -2.6959320823658675, 3.527590913118432, 2.338788421850888, -4.826551280037761, 7.268200283120294, -7.5671578498388286, -20.970265482587862, -17.10849777186092, 8.214978740679632, -0.9527514860498866, -7.996333424384584, 9.124552642027215, 28.967549828945806, -2.631670881954766, 1.7495473602931084, -18.288575173544974, -5.9230344360760645, 4.184064796349547, 2.097691981306502, 11.610120036972502, 4.955259994077958, -4.07337879236809, -7.3223693831946255, 1.8356565980561421, 3.299547188733411, -10.695013834279651, 8.027854672865807, 0.10201291389490594, -6.987550146455041, 1.0239060781342748, 1.7396419498610718, 0.5731550615592772, -23.253033988230143, -2.124944364886829, 6.339400802158533, 1.8463976825619235, -15.739054389603425, 2.428946168535393, -17.937869534586742, 0.6036284723552505, 1.7893800520786178, 11.597579086945982, -1.3978194076374186, 14.701088545232746, -10.772590363262717, 0.7646552095997579, -2.0671417804653758, 7.413317667351642, 3.8802966683898767, 6.188492729144526, 4.4498981704634675, -17.007819256170066, 1.139610019326133, 12.294266763825982, 6.350758710830886, 2.625403302626894, 15.981362011749406, -18.184224009730947, 5.0892357429741715, 6.293089566931029, -1.9844617304823613, -0.15760004490144242, 3.357068925060606, 7.938516926901098, -3.336316562212113, -9.20072588163057, -2.6407598143443365, -3.334966436210554, 12.759342761479079, 10.073344907134054, -14.887786443260106, 12.78513870216399, 10.867285563192711, -8.427796799157683, 2.6469914618438573, -9.070310310348404, -0.07007997690069308, 3.238612912490262, -5.586417240980347, -0.7993111162246711, 6.479428884193671, 11.194382586089176, -2.1243783027083687, -6.4613679145323015, 15.212993314659979, -5.213114898447877, 5.364683848164269, -2.7750535440273105, 13.540547936288924, 0.09716018606498955, 6.822501902798891, 4.484331712202759, 6.957399521796502, 2.354522038857895, 11.299609862094485, -1.8985368462801504, -3.91861501002143, 19.00291834596518, 10.353674938351816, 0.7365656396625201, 1.400672156265466, 6.661703747599411, 9.578552554173054, 5.193036562414564, 16.61257025211859, -8.278162334162186, 1.802149992319368, -2.9998564441113533, -3.0575537646655704, 26.11871646020568, 3.280403530065689, -11.495722864507258, 5.728231530450501, -4.834967684325039, 3.074543807983844, -7.134765785627177, -26.50308204822171, -0.9463465283072734, -2.5235759722897013, -0.671827252071061, 19.90679184288962, -14.039336992242681, 18.992145306552505, 16.863713837103003, 1.8439681909725563, -0.4051958124670395, 1.8950462786373905, 9.176181364061286, -1.334894237251011, 8.270258303141807, 1.0063773272969962, 12.90986847877894, -4.22874875905077, -7.213416107559372, 13.681220461323957, 2.3184357837945, 11.954469025366508, 2.278106633576042, 4.50825645296598, 13.322720525529437, -5.612427999156974, -0.4040039600231597, -0.38309724614676144, -4.580613995922331, 11.763758583173903, -6.449178323523397, 4.649587589855089, 9.926392554014473, -9.047002483562053, 9.227733066127632, -0.7147367853766426, -2.8781230052346025, -12.010950265936978, -13.866735254529868, 13.350305612919492, 12.605307613834327, 5.983153176703606, 6.990836195853717, -2.7569126279787017, -0.8654804271340824, 10.11893543395755, 8.864276384437382, -4.979368288214128, 10.055720745522898, -5.742819696784325, 15.119640217091556, 3.5479668526631367, 7.835344561145325, -0.12257624420630098, -2.0310018507643637, 0.972222658179943, 7.4050828565335, -9.938930008348386, 11.828152670955653, -14.263459770915079, 12.171845337432867, 10.440997813437983, -6.231825304835069, 2.074121371052406, -1.124313039306632, 15.040216912692726, -1.2154044635655765, 2.9098517048203285, -9.913237597173218, -5.93235805137262, 1.1093826690696473, 16.22127623481948, -15.6829554363254, 0.9048157653778293, 5.273192326196251, 4.723976817010179, -0.45930112107946786, -3.4267664489402234, 8.065399552261752, 1.0315824981520578, -24.08154290319831, -11.022251057803683, -6.372302956420357, -11.158797249135516, -19.299966707638042, -8.638819221019407, -2.4283574681457223, 7.142678362685706, -6.486503543920291, 4.077766999960219, -4.785995189323905, -22.230460856163695, -7.490382977836995, 9.539551918461738, 3.5770204733861384, 12.395480008396506, -9.139181728529296, 1.4896300525827093, 3.303417606990484, -9.358080309624768, 12.782894954499048, 9.106422444716209, 6.146838680075308, -5.8852975808944175, 10.773536536683027, -2.3580186383609814, 1.5958219182306244, -4.604973364345208, -2.314147730250421, 9.305018891575536, -27.0856643103516, -10.779257880167652, -2.2974566462924026, -3.698816132134394, -0.08206882723445108, 3.9289254242396394, -14.653132691205451, 10.30277664214517, -4.358008814533075, -15.691184471942618, 16.401681316683682, -1.4755249455377362, 4.975035681650322, -12.009148567055197, 3.9311589962962956, 1.9703675143297517, 1.2430898463393514, -1.1105787673625096, 5.989720956397145, -1.5613596819147602, 5.345248858573233, 0.5579546394899844, 9.555857043244211, 18.551351878053083, 7.807916879948099, 1.6671665604687962, -19.16407212725909, 1.7451341855512104, -3.196349214815651, 7.991754872513326, -3.9455524266908246, 10.8418207602362, -11.688088040641814, 1.4758341132714683, -6.217320554465403, -11.569740931154865, -3.3400947680719844, 4.561915341577014, -5.723728059437547, 11.769745825363392, 13.445453455318358, -9.166409378723676, 1.528219544935097, -11.52522813772286, 6.797389762325498, -16.322575561449323, -6.706853359927622, -1.2354279845401586, -1.9165719078771708, -15.130712350775608, 3.1740889682067133, 4.281352328949485, -0.42940686055633287, 2.2749099726590987, -10.254870967207804, -0.17314451896804722, 3.972391476129877, 5.191390639719625, -10.683599205155458, 17.451450310575705, -5.011086938473479, -3.3875135579164146, 3.683520979281055, -0.8491184192312196, 6.091606478606415, -3.640743826901124, 11.859589376789758, 10.671294905179762, 4.999822418953109, -9.483003266004815, 15.359898771415438, -14.013181304480835, -2.158411561907222, -11.10515663691057, -3.207110259921325, 13.209728964200593, -5.283039574895772, 1.8378851732791321, -14.68424959472173, 23.29310212483773, -3.130468919134684, -9.2319627877729, -8.728654801343733, -10.036438859491366, -11.404287417366952, 4.734046288314253, -4.68653263490485, -1.445569018541003, -14.525163678588408, 14.824610983200888, -15.70062347026344, -13.973280884161671, 2.1269003823077237, 15.796599883307929, 9.144324690310821, -6.521031904186373, 6.744342041832165, 9.584410928077876, -3.77782491221435, -0.6894626098102693, 0.8820994462158052, -1.7760800352258808, -11.404038193892863, -7.415319569199376, 1.7468508525173951, -11.44345713311535, 9.423627547141209, -6.319883606990602, -15.811488719986858, 14.25976547144113, 1.5976912032977433, 7.786309362567683, 4.088775301482684, 2.4624565509961296, 8.24587720056312, -11.583540522683055, -6.398019354732176, -2.109878912933519, 9.937324437218384, 6.1050240362693335, -5.528033370242073, 2.3348580185466057, 10.630870125718966, -17.508892726408437, 0.3411253593770518, -7.412709550312024, -8.074272011112225, -6.287494585109144, 4.747214463803223, 5.383104854475009, 7.352395933340309, -2.409688238466207, -1.5953873909193637, 24.50239489802312, 9.084383895171046, -4.138022830173346, -2.1099136233647684, 17.07353297409238, 5.64068121810649, 1.7989410514407556, 2.8346893806220756, 10.037702694169678, -6.38520389722282, -1.0164766662801599, 2.334698004639786, -3.2050489747426982, 0.32926058199078834, -2.0195436756840097, 11.265546563409284, 0.5307264817658982, -10.795831180462935, 8.226987431030745, 0.03403562882008093, -0.9527705848975336, -16.896460770558615, -3.317983641587008, -8.109290181485104, 4.8594616352193105, -5.171402257559985, 11.553241990199275, 11.57156317238914, -3.8611530065710555, -0.23331209774418324, -7.021733133210515, -2.7799199188228894, 7.753912535280732, 4.421088979627097, -3.769232142589177, -4.805628955068912, 2.5634064396662044, 0.48117428956073816, -8.656601484549384, 12.88380977848136, -7.949529754121427, 2.600368329727664, -5.344552005173096, -2.5733629923002654e-05, -3.76736771881387, -0.5673116614167759, -0.6649450393192254, 1.4042799430601276, 3.817336893815755, -7.150967680774783, 5.216314224591527, 1.3907344945221705, 14.465477724194614, 10.274811288428415, 12.21529947049393, -1.8611264764138031, 4.228598667029811, 10.823677129891177, 7.20744122657339, 2.880936211780478, 7.878700185004146, -14.067597711551725, 3.5371484164743787, -0.8366519627006128, 9.110591417714096, 17.30169318689712, -3.738617677273547, -6.602971851562403, -11.319229129750632, 5.580875790848526, 1.6136193652424027, -4.848774363828348, -2.9821350684851478, -5.005774698133734, 0.7279984303472351, 9.10206645668523, -6.87265840024275, 3.952502809995888, -3.7561970465374275, -5.14536749487989, -4.429765132488454, 11.845169244207584, -10.17769554574788, -1.2514910888505058, -2.860026952498775, 6.990390935101707, -2.7638220996216027, 13.479815205421291, 5.529080854391918, 1.2317821721070534, 1.6569001323263304, 3.537962384214832, -4.030580830443111, 0.442276206187458, -3.2785840220034492, 3.296703541556588, -6.652607634237594, 11.984088255771049, 6.522834833192854, -5.54747783429523, -3.1995482494204497, -13.158173688117682, 1.7197156089383772, 15.10391967906072, 1.6662612946842175, 2.362465384727335, -12.284325775487211, -7.376184689130208, 24.94322874389449, 2.918762343853336, 4.760590057761389, 7.053754372255911, -2.0301817474730193, -13.777434745510455, 5.237736124089418, -5.852616436358621, -9.400126318439876, 1.9435907246082587, -1.893211336330507, 1.3114322888647136, 4.007182502213047, 0.4502850706151151, -3.0036992016491, -6.768711697709215, 7.880772599003772, -0.334168561009974, -5.7846592123813485, -7.290412509610128, -2.729902191448934, -11.109266740956718, -1.1319732222583394, -13.403229982533542, -8.17445169103584, -7.114938855772405, -2.7915471511127765, -2.798815550994375, 1.315177669034756, 8.808795668195854, 2.4998408488470436, 7.044273349567617, -19.966623298689615, -12.129652552894472, 3.839970657455333, 7.786780204371828, 2.695810490765238, 7.689490931498916, 9.857251596270887, 4.586749516694392, -17.64197487394242, -3.114102168495985, -10.793688223714907, 0.6991093433767339, -8.02269629735505, 11.16180607328527, 14.092107051002833, -22.03309581295295, -1.5605809899037162, 8.79301704947079, 3.6452527529739154, 16.838519755749534, -1.7809387697298968, -4.978133187805096, 19.98907492962547, -15.033747482629156, -18.755203551944128, -0.16401482009097146, 2.6209245089162048, -4.079128274527882, 5.769238801062749, 0.08047165256812483, -13.617350041149464, 4.4923818341939965, -8.993646123274479, 0.9911486177028793, -6.947986627228972, 6.906218726467334, 12.134721862970908, 8.07064252429578, -10.093246645654624, 2.3354502081754833, -9.826680840169875, -9.236617000181162, -7.581912702527604, 8.622944596044722, -10.31200892080612, 1.561407821048447, 1.6591448957477275, 16.76404400424936, 13.588371096057038, -9.40768694758916, -7.332505806541298, -1.2601536745468636, 10.919342386079773, 0.4510057877915421, 27.64141047176316, 11.288010419916757, -18.992458259221777, -6.0944447678986196, -4.245416997699282, 5.324231170427853, 8.289586020127677, 2.929454904010597, 1.9283912103691137, 10.222486491328796, 1.4884962063663392, -9.230295896179848, 25.916929372170813, -7.9397810166806995, -11.891022911630479, 6.32957535913495, -1.3533784536255946, 4.2611559976674815, -18.945516036902784, -7.170089162863595, -5.950350595216651, 0.5254259881407131, -0.3549308304623564, -3.3307797246021584, 0.1135867463101412, 4.04111164520788, 9.562130777049719, 7.200622098203707, 0.005021177474443417, -1.5958668654916988, 5.714396656369004, 17.380795382207673, 1.408458331514852, -14.856416848446672, -13.879529925914555, 2.383920877985706, -8.717140766543638, -2.1375413887077004, 9.788258275019043, 12.14428224357022, 9.059731539849226, -1.1838448984985788, 10.15037953514718, -6.216411955312865, 0.6921406910800494, -10.751837248743575, -7.094509869092742, 7.684574929666467, -2.5983552646074495, 12.563797331733467, -5.544828513399729, 10.767900902305998, 6.435862258271805, -9.643576747776008, -6.881649018779871, 17.482373873037833, -6.801084719331127, -4.68124876418326, 1.3019767985361144, -11.381369899978045, 7.557638432216055, -9.376785295923165, 0.8347150436549035, -7.177617121936587, 24.20317820035215, 12.154394952295307, 2.65783028008969, 1.3376663140585523, 11.541125298720411, 5.400995512852431, -3.456340866315949, 10.425724989578203, -1.7070460885322447, -6.264970851785971, 5.56244607450122, 21.250690758672743, -14.056491503042684, 1.0756096456314175, 0.324101509610068, -2.6783186094716847, 5.758791491236412, 1.971135136779484, -11.738366608601421, 1.6519866060686565, -9.2137481879651, -5.87056231268112, -0.025254244463671194, -5.400709776551107, 8.751360315130164, 5.0224508520459565, -0.05825435725349076, -4.163351302891754, -0.6845583553880579, -1.0164815938910803, -6.506447369355964, 16.81558321695696, -10.073961321815766, -6.94747355868271, 2.670544031279962, 7.324209573803794, 2.9553834086358335, 5.618866631389962, 11.592404735900876, 1.5284894571434682, -11.371907079095704, 6.322418599008439, -12.563118615112847, -11.865164877759025, -7.183970659119346, -9.108657585109727, 2.7023932875285963, 0.6400076420497258, 4.117454539603175, 14.54021098272628, -5.1611622594426, 9.9147508780091, 10.500116905656618, 3.4203222486610936, -4.235147504174202, 3.0669222181235565, 12.02920270387325, -1.7781879049338796, -0.264044784776615, 12.145095162978128, -2.094044078164394, 19.8918715797758, 4.031072749796942, -3.469092963997354, 0.9748959315134154, -8.75307778479935, 1.7927845727919347, 1.0261783430679625, 5.339639573131334, -8.632782062323779, 4.791920807744161, -9.2288784870439, -3.148723651059609, 5.532076396743828, -6.085540653462946, -5.299364549644494, 5.848248111965778, -6.025640128079098, 4.9067877064032, -8.381102810494978, -7.828513978925685, -6.58486410401239, 1.7173365534271376, 14.902248468145592, -4.547850015134548, 13.331131074821233, 1.0000564292097884, 1.4580498403629691, 3.450383898463295, 17.76880770083925, 14.049158291747538, -13.056416932860126, -7.308605489231969, 3.450732855840904, 11.75362348335968, 8.096537590546138, 4.007764168789645, 15.463244926755237, -11.48555677234604, -9.698817195994431, 7.448216388507037, 2.100055161580901, 11.914770709320676, -19.376578901103233, -17.329419826187742, 1.2205527867460637, 2.7229891287636194, 13.321861915286206, -7.794628357278875, -14.466209508044908, 2.9237312273981177, 8.756327662924129, 9.980477755577049, -4.733842272279922, 6.703461523670755, 3.6820646771784205, 9.772560696605076, 9.402685685779476, -10.762570640042759, 7.083367770822854, -7.229550917472489, 6.386246117190358, 8.958623083932476, -2.289265111711753, -16.229760330994225, 13.464975691283101, -7.046698745407972, -7.737192165983101, -1.0882910400586674, -1.4626858482934788, -7.521445241596408, 3.179113107030676, -0.3281806850732449, -5.855273284250953, 6.672667911472487, -15.276301458517903, 4.0703307229985235, 0.48163418320853507, -6.811302179303267, -7.4788063917470975, 10.232301660704538, -2.8189640412033548, 19.6180446644261, -4.159424835302002, -8.399815784161058, 9.657936405999891, 5.654931799079988, 3.713330379227692, -1.2131515422264552, 0.6094024358333854, -2.386563347151835, 18.53011367004656, 0.08896006938721612, 8.5408588449508, 4.102154007341933, 24.52678814086767, -2.0233084554315397, -0.20930228879917845, -3.343167463585649, 1.643890160397829, -4.823187914377077, 10.400201943081257, -11.191070271598525, 5.878404529301242, 1.1722666010469276, 5.799746428718889, -7.5384954411336516, -10.4173984512146, 3.447055774982023, -5.216883195903863, 3.5671582132074597, -1.2384681445423127, 9.766419995419149, 5.754854706710767, -5.642897833365307, 2.6975302016293186, 4.575567345444391, 8.287593833455109, -4.893225021440634, -7.754786024511577, 6.924962629833044, -7.550282814710606, -6.481857585962494, 4.216974308479044, 11.7633957280667, 5.512722801669797, 5.212994597958506, -3.44328760181374, 1.7757936175175901, 3.2948479976972695, 11.508406834074515, -13.883638550170975, -3.524470617318106, -3.739199361978611, 4.2346135845536645, 7.396922786198604, -0.7774316264135337, -4.548212875034047, 2.3135632440721245, -1.7487920915034108, 5.295058126036885, 1.3432280134503778, -1.0211444199752027, -5.167105445537022, -20.689897561579293, -12.080912924201673, -6.724184049868846, -6.572749381042981, -1.3514391356624078, -3.1624976022914426, 1.4243410837309778, -11.518366926254377, -21.86032918052406, -0.6794336529197342, -5.66610725189037, -6.604331671740496, -12.697275898534958, 1.5452833130227415, 2.7073622311607113, 2.841652116727036, 3.030032385894631, -7.439302779025602, -11.319872762455406, -0.11443570706149753, 6.242621808553123, 8.771039632455926, 8.812169010735115, 8.03557196419004, 14.771820256244187, -4.595903538597515, -0.2644971815581887, 8.99004347556121, -3.075737499853507, 12.176949419031402, -9.770154542969873, 1.5463427435732682, -14.913930925633128, -2.9147740552801484, -7.373393425779236, -3.11804168294384, -2.7732659621986198, -13.794591647336317, 3.4380505648022055, 11.258353941111928, 0.8760013421379236, -9.786566088792473, -14.461356774774003, -5.475940819140869, -4.597366812398598, -3.7088352879115125, -3.8635380571132227, 7.507906128916486, -10.48020759786169, -10.491668984161615, -10.69481595287132, -20.219111928505512, 2.6287807408199146, -8.301828793230202, 20.48074646697869, -25.263677690455438, 8.453223379703505, -2.2204096764965215, 2.90793347983548, -2.6757164426026323, 0.7709834528590994, -9.594647570988341, -7.884282775513484, -11.18538149401027, 6.954958608251459, 1.616664264353046, 5.7310447692785305, -15.42573187448963, 8.09710898942342, -3.87193059013641, -1.8473318043665796, -8.806405402709608, -17.798745108485598, 1.20873364217064, 1.0542789169963211, 5.520344196180181, 4.2134656885151, 5.916807369575499, -24.146126890429144, -13.73036377207936, -8.436851479583082, 15.37008082491997, -5.445619957181188, -15.842700507372514, 2.2799197176969312, -0.1397671587738883, -3.0312940443441603, 8.755116927513276, -7.4434920465084105, 12.334050323631528, 18.378254290751492, 6.696405355231305, -5.7965449090022005, -1.9640949445454527, 9.379447093486283, -1.8946957214316926, 7.81361562845961, 6.699267898732288, -5.203597149949094, -10.865678302960063, -3.095988026196242, 26.880204123795004, 17.56110176021891, -8.563744308725804, -2.6427484476101206, 7.49625674810452, 14.263534043945164, -0.04769251114300077, 6.8581778114427685, -5.758101603490529, -1.6287115567029185, -17.05459286702259, -16.37525082470358, 1.9132583889350325, -7.20111263501552, -8.022325826601756, -10.057196166072892, -6.6865030398327345, -0.2714003315102729, -2.8362730622739134, 0.03532405975740162, -4.794871529593511, -3.324456959734676, 18.75734284982938, -19.574170978801614, -6.625044885378191, -6.76475629851841, -1.054803732206814, 15.250191867386269, -1.3526537211717884, -11.185066738370166, 7.303507652066544, 0.4125646211390517, 3.330953607157784, 11.24134479432399, 4.004964888946182, -5.184145887277306, -3.6194874289315977, 15.65281628256446, 15.143326260495424, 12.38439029061068, 2.748419139723337, 3.1415629822468074, -13.37706333436619, -4.655450687895087, -1.2458396601086505, -4.122981106638187, -4.375703778289578, 18.465831115396075, 7.929613191720163, -10.34734172592411, 8.64945590076071, -2.966001846955941, -14.674860024158825, 0.7226846870647738, -19.405350023389524, -0.1538986417484962, -5.706085374339849, 12.451385351719875, 19.81322427422828, 10.14761929776186, 6.269521607615492, 8.464003018776772, -10.813923259431958, 2.7326782459972567, 5.562002577035678, 10.721227579400495, -6.109939591487459, 2.0404848540024196, 5.760766586535975, -1.1686968819008925, 1.2196613226779296, 12.74821630257425, -10.275352857849349, 1.867482984609547, 5.095136404894135, 1.3242568231954173, 2.3890791538033023, 10.173986205250412, 14.285112572007378, -12.7254681067629, -8.487382334881373, -6.345978065732507, -0.8625934806276133, -6.5107808039912936, 0.48079276158541373, -0.7433608496693789, 8.239862947066037, -10.4997881841605, 0.6365751722379673, 4.592375618912986, 5.9212049483622256, -7.897089808695436, -5.791868773135524, 5.605735855317763, -10.474050194593872, -3.535439453196009, -1.2951957757669688, 6.542211648023596, 14.195180898583025, 6.698962677760561, -5.589468966140789, 10.006196248817075, -1.7394634548585508, -18.04186430605725, 2.2803842874340843, 4.199562878474466, 2.528226548600384, 3.0256244161761705, 7.0445703162850934, 5.420954772241998, -4.541903273631092, 4.6819227752621515, 6.228282569740985, -1.0496101767294341, 12.04286335317758, -12.435680975782347, 6.6099554145455555, 6.536539685744809, -3.2123353693956016, -0.35406914810654655, 10.625656309717627, 1.9672042399719052, 7.326908964830093, 16.872820707554148, 2.882949586242735, -7.459624773577142, -0.30174329005038014, 6.002499036313179, -5.912429184049343, -0.9604898272810531, 2.890937747011009, -20.47416034664852, 0.49024828370658446, 4.260807786622142, 7.885802188200331, 8.114478031904257, -2.2005783390281173, 12.801363538932192, -4.343038831545599, -7.667603435762723, 1.5439999964872504, 26.34158687595408, -12.19726506649766, -8.685846344309857, -5.8155049925052404, -6.438536639522655, -0.15615224998275212, -2.2380751054984374, -5.135465153411589, 4.8479645985096855, 1.0692370062713712, 8.388749658906715, -0.6793104217674931, -4.088412146200986, -14.198336734745464, -1.19844617575025, -3.663197445922306, 0.5234098665295703, 11.666126666346589, 1.7125907790388863, -2.6195360635950284, -15.237426189645479, 14.227686245349057, 0.6768929427754369, 6.273121024099433, -5.838546542662417, -12.718366816539858, -4.551141416551934, -10.874390482712485, -11.387851759395275, 3.5874200849413276, 4.186690425216744, 17.97446376996404, -20.579628349361258, 5.1103188820486825, -7.826899535455411, -2.775762565046147, 11.322393829784229, 4.130476874536683, -4.043168550211304, 18.866239420538875, -2.367795620793195, 0.8914537834649705, 16.95537628561021, 9.137591967948357, -4.120531784860848, -0.5273981424286789, -2.063690745971973, -9.055039569929688, 3.984502586203873, -8.587041207590367, -17.236799367886245, -1.7159332993175564, 3.3855617805262335, -5.848644150398965, -6.801471898159868, 4.438275397844435, -4.70131935129686, -13.86439108244874, -4.517664544456896, 5.361813983304114, -5.679572835655087, -7.348050913978724, 9.814144784297318, 5.126630289961483, 5.537485156456569, 14.26288262125413, -7.742203172434351, -17.186006317826305, 9.82369826268266, -7.988788174771547, 4.990988823134739, -18.191396172194903, -11.733500576431899, 7.071868649495179, -1.9840902366735014, -3.449220652052057, 1.6031253843099784, 20.226479946361682, 13.713618845287812, 2.0530971037876355, -6.461651267243374, -5.142300762836579, 6.9650111680962095, 2.67566031570464, -2.682104353508906, -1.9482315611898957, -4.714990858458413, -16.38666590996569, 0.6510575560097828, -1.6222871626529853, 10.17890302033839, -4.97045815126142, 1.1084906146703664, -9.282356082127157, 6.6056281529833205, -0.06824264342254205, 2.7790419729437126, 2.257720616796858, -6.584772922978664, 4.344956448827415, 3.0322482560132205, 8.757332440215734, 3.7782133900264183, 9.000589717081407, 7.147248468931942, 2.2989405202981454, -4.854407166917974, 8.9683383364622, 2.424220913123043, 7.344747731865735, -2.207744892245362, -1.6692670580549196, -6.966792427835414, -6.9157139106575105, 9.026570123158411, 9.680922041040672, -15.398395534692245, -8.04323153329383, 1.8543889532872166, 9.406067809930777, 3.075390646682581, 24.29357137875623, -3.2821706950025207, -15.094881648981445, -2.6709745987725255, 1.9827539401075367, -4.330229816898423, -8.102424808610477, -8.929798027887731, 6.356338846357442, 4.117833490276223, -6.632508449794747, 0.4310603414942721, -9.022847183769787, -6.439854162190109, 17.176922797591537, 10.236447713044344, 13.927855032724905, -5.030567311688599, -7.0654256960286625, -1.8129150692436287, 8.968027482850074, 7.414463339642983, 14.805517197898803, -1.3917172858974294, 4.8261534712419465, -10.895895249851932, 10.984843994174117, 2.3771653447712437, -9.651040258747386, 12.588624990673594, -2.9009790045300194, -0.7272499485226096, 11.426671573934795, 5.6066239498669725, 6.066497237870321, 11.060895778803124, -2.951455864727168, 4.873187732688213, 6.640503798739079, -9.180613450566346, 2.9762250717081624, -9.055048296504651, 15.118085884750656, -2.6006229431494416, 3.470694173397219, -2.911582643005632, 1.363592433122626, -0.8713960801436036, 4.108346216846502, 2.5749930947893507, 6.469349060206466, 13.289681277120543, -4.367672982208196, -1.4702019304170513, -3.4134405625583724, 9.22377410995921, 1.395989697631603, -5.411770663630712, -7.754963591569864, 9.539255309104155, 29.786185634845655, -0.9165699102603113, -3.552884260298935, 11.983836691127621, 8.065500853524929, -10.75972243285624, -4.943887213924562, 2.5105367031418706, 2.5512854066203903, -11.574045033244447, -11.88069072354855, -3.093900897805684, 0.7282860038254184, 19.323738827881467, -1.8962181907717068, 12.917263144609855, -13.995412553846887, 7.621501344541236, 9.142827201418033, -1.8061665897811183, 12.879299311363189, -1.5670911964305172, -13.10760822549976, 14.811147466401108, -5.822985345251605, -11.18328408771341, -1.9434438847285875, -9.307668349240851, -12.190096400768727, -14.952221159470804, 5.048347163487732, 6.943459784097644, -0.12384564647828988, 2.807267288040823, -1.1412937679311486, 3.1390036279430062, -0.2261723557549875, 3.220934842913108, -7.339815625311555, 5.345883836507841, 6.298336309957394, 7.496354709426844, -3.145580049263445, 5.31003784420011, -4.058887971390731, 19.489205086220355, -10.167559982718341, -5.450096945092349, -5.7326182631145635, 10.388491118890451, -13.615639497033643, -14.376547698044433, 5.6647336693888155, 2.628595958747462, 0.5352257481970819, 2.171093732108813, 0.8536772005466792, -8.049293906152684, -19.591694846880916, 0.6529203001199841, -17.54455256179126, 9.760562976668034, 18.251358214635506, 12.164182058963092, 4.5801943589648335, -2.850715105558953, -20.004254497735452, 4.147837859850051, -0.0819171983897733, 1.3001354733676795, 8.999751333039677, 5.851646653681546, -10.699543322294543, 10.168188803956188, -4.111420131679572, -8.44822084538681, -1.6016135983272866, -8.911358166158143, 15.627733811153266, 0.623924263122838, 6.897772938439533, -8.16226882844295, 0.708896149565517, -6.037443653908299, -10.817965341366122, -3.3049733672021473, 11.096615680227034, 6.260047269659518, -14.306711338739495, 0.14044164466032139, 7.363803864374325, 4.488049324822512, -10.316694052731739, -15.869739389447595, -16.365241505902826, 12.722095575158265, -1.7831698217257035, -1.2047922864891965, -16.781928718415312, -5.278936345653891, 2.006670610371828, 2.3067323475439636, 0.5190530567477005, -0.21170058657782298, 19.295775087186904, 12.911392314106699, 17.02968009776957, 20.95909192750797, 4.788238319902227, 11.50788144980528, 0.10570124924725233, -3.793756694965309, -2.8636690681853385, -0.3506487329879531, 8.324320689283907, -7.716037025612593, 4.142836018893829, -18.00053708337609, -0.7517216717101005, 5.307141339983986, 15.63656582311753, -4.280130514083605, 11.823033795126301, 1.5211156044489664, -5.112391313144188, 2.2032822511937225, 0.15657228022078157, 4.882497805395902, 2.5204925419761945, 5.176853331928787, -27.273254680901154, 18.140394284786467, 9.060973533339642, -19.366552298931374, 5.70807756539544, 4.876467526795224, 13.455465823538853, 1.9424625064046286, -4.877603703273246, -1.841685001370637, -10.255712584762223, -21.599530352434524, -5.916847595730667, 4.685596729775958, 21.272291231474107, 1.0853512384589963, -4.717989373337949, -3.001388768878913, 1.5082124807060966, -9.847765295110129, -8.977971497588076, 15.989911693420488, 3.7201158262915146, -11.561523685409647, 10.282270240109613, -14.304580255050318, -11.471603296384714, -8.70365347829632, 1.7355079446541313, -1.0557024142008882, 1.238774192253944, 14.794819914751937, 16.41076835428228, -0.9328475830910246, -16.021952597434357, -7.723270117335811, 4.1350772448914555, -12.105558064220748, 8.647963010039327, 10.222987771501765, 3.990514299025431, -0.4444001971889905, -9.483641258518096, -3.1317118962011845, 17.92906752468328, -1.6872835089327292, 2.8910407030348027, -5.967621451321673, -10.412247903212595, 6.38763519697335, 0.677827240346634, -3.6383817586673226, 6.062770453183825, -8.743435018639069, 0.5412710010665569, 13.266449017874418, 4.993661866644187, -1.4474650366389974, -0.008638268655975164, -3.777952354303163, 6.0414333120121215, 22.122039131619196, 1.0651040679057702, 1.2995168673619049, -16.05167938361919, 3.1855357326173417, 13.195794176092123, 5.846004892172172, 11.251633494792308, -1.887925374823473, -3.857126308695115, 8.301040619815456, -1.828213311844756, 2.9693468127153047, -5.276971601000069, -12.219227454580935, 1.4933651400940176, -22.200826606850367, 15.90408378577999, -8.48499926557086, -4.364205017662278, -1.003667198741919, -4.7307692265691115, 5.073501446834224, 8.839787683978349, -9.936379815693972, 15.835017070163264, 8.867599948742958, 1.1908448495336525, 26.873745691613756, 2.5794058498201617, 1.9185361914191814, -8.95905320232634, 13.831846879206429, 1.8811006840261648, -12.266099019554352, 13.9469797925003, -0.011942930375523797, -0.49623994449967956, -2.7172368455882454, 9.196504474676852, -2.6804542964364355, -1.7301369024642381, -6.248723283876113, -10.981684861150065, 6.986817149858875, -7.539260338680331, 6.4351689589431516, 2.3142181832213176, -5.734204287183221, 15.044320718938963, -7.116494866753899, -0.7437430736146056, -4.416872543372526, 10.740278177782649, 3.339066034560916, -18.811097401703798, -15.644297780456885, 16.22940148040938, 3.1437461573313716, 0.10469680904044637, 11.900142747321414, -24.0322008900119, -7.332558509534926, -20.07221705474536, 6.156304376381789, 7.792838791215487, -5.146455220139945, -2.7217570078211963, -8.544459535635365, -7.10694591459102, 8.45172287948949, -3.1802371427108813, -4.5959171866962825, -4.9666044791441895, 0.11961400095584113, -1.624905791159056, 5.548174383290531, 23.554984809359546, -18.220106554323888, -0.16913966490549637, -12.593956645097865, -7.1781598409693075, 3.7764349751429487, 15.03077190821374, -4.5388910631543204, 5.278382972734132, -1.2739075822226504, 0.15123303105623287, -7.336671602083603, -3.0215788004657878, -12.25275647733059, 12.33144589672839, 18.571956464010093, -10.137357374595123, -3.94229362148909, 0.7138151209146486, -6.723602337150855, 11.57839138728114, 4.761475123686727, -21.409572453901262, 9.001710804014596, -15.763705768445579, 1.9614039359364812, -1.736329937981551, -0.6342402444063628, -8.933091443599094, 6.318638369903532, 8.749375883012142, -2.1575754773759535, 10.464457348111994, 2.3498797253966845, -9.186290415914229, 6.871334744396889, -12.9606229984647, -10.51192761500337, -8.563058250710343, 8.85290307576012, 14.726830099256368, 3.399564495020538, 7.931874019195457, 2.4202929619234888, 1.8922741820731677, 2.6757164743890254, 4.3767406950209455, -15.523023476931996, -3.5988770551318305, -4.510681212863586, -0.5790443741937212, -2.0645551680995404, 25.72857056759669, 2.9333380562824556, 11.102039494010015, -11.438317211762604, 1.2070325878684622, -8.691682570889677, 7.5025725721071215, 7.7655367423142945, 3.3109369935029624, -3.1226872961883823, -19.556294270421585, -10.741613164659928, -8.664918488294335, -8.671162580950853, -25.967336608286132, 0.14300635193361044, -2.0637895013906604, 15.177445306865465, -5.348774950495672, 7.555944880997754, -16.66997824946819, 1.804013480610775, -9.316792230826426, -10.904904620232296, -9.52148576050374, 1.7837246995545126, 1.6663077915195135, -13.024949325232173, 6.630974986552493, 2.7187741187739793, 1.5908069843098147, -15.18944328220696, -5.820047007900909, -5.299830895275957, -5.9694830078954455, -8.13791752272686, 7.473743958030711, 10.084765977883793, 3.010880928160261, -0.6054508960371817, -5.7798969541140055, 3.3867915758706957, 0.5300458264801711, 2.638167109729818, -0.48742468163312225, -4.548972320198192, 3.687683567401885, 13.996246875410318, 2.5075056834327767, 2.313912803997788, 4.159408990000566, 3.9901084230685697, -5.101259853411084, -13.008290325692366, -9.430126092235696, -0.2047379391487656, -7.923792560703484, 2.3552098234822045, 15.235250196015546, 14.308498406176511, -0.3370507808097959, 4.498647025869225, 11.282712407511047, 5.559019504008288, -7.450723997499588, 3.618362689184477, 3.25379643498494, -18.73182072974878, 0.5340656685437078, -12.08151633113893, -3.4471159383297887, 3.9013342322372737, -0.8516826328281903, 10.769360630910109, -11.45939743522946, -5.631251737418104, 10.750406867163777, 10.216296660133523, 2.18961782609576, -9.025040424604578, 2.700474484724497, -5.213728952274582, 15.12590325108397, 12.719543286100564, -1.1825126240862662, 4.966700426791232, 8.725850994240622, -7.906657311432943, -12.641735065272721, 2.9668047666558337, 0.9476085820175124, 8.652432961580802, 13.51648353281125, 3.02494528812585, 4.207138776840239, -7.091242231906808, 11.707546225212198, 9.63644827655637, 4.28573767511157, 2.355777313584951, -2.8316353593047885, 13.138497002397994, -0.5681408853888448, 2.6050774317610124, 7.865267777144001, -2.062974469317311, 1.6166222338669203, 8.661649667257901, 16.38531163329003, -4.0333955442451455, 3.8459770444105708, -2.282538739139137, -2.698855635310596, -12.242224743453862, -9.631572611807599, 0.41833695006377436, -2.447599826829424, 2.248990354768518, 0.7234459570610401, -4.711974151061259, -11.573499776372364, -5.053106842518793, -1.2610812192826681, -4.348507516594031, 15.960166785352197, 3.6852217963140372, -13.569290193766491, -1.6664051862597502, 5.705185885237637, -12.159019162565585, -13.440902582359133, 9.409039043624656, 27.048969567153335, 11.739471475972124, 4.525489881095512, 9.182286887139227, -3.4206916032633434, 10.306971419450845, -1.8556803181394301, 0.04489179750512562, -3.147750265339354, -8.028286680448055, 6.734173252908141, 0.9841124302950037, -9.041259610380324, 6.683331553129849, 5.2104337705244985, -8.538534193397124, 19.485274947832718, -10.038682915331211, 8.505951176503917, -7.896728587458158, 6.831635662385907, -5.911315828223321, -1.342074346335846, -2.5456878777882457, -3.016640876227033, -7.0560032386340525, -0.0688565107829523, 11.157644994104913, -2.7421918067178193, -8.9551759071143, 6.974158903120087, -1.537566622889112, -0.017115259316976248, -1.6138214547176148, -11.596607624099143, 2.4024970302024107, -18.795080031890894, -19.384925643497397, -7.2990109963213206, -5.0037307455691575, 4.757564445083246, 13.466869739191829, -0.32135250437642293, 5.951397915560849, -13.874912171213602, -10.838705712214788, -3.6393244628443746, 1.5516375845752295, -1.9429125713249862, -13.529188349193024, 14.546336517199729, 3.064586522634298, -6.769218037358482, 2.3601905425178407, 7.2457425899888, -2.9352404778586165, -6.215198245191307, 0.010904763913115678, 0.5875560918095719, -13.98064034782284, 3.7401195546242243, 13.04017460812277, -6.961406044508701, 2.8016422325125965, 2.0846348226354516, 5.195367671252031, 2.2795828057456884, 13.168194988497918, 0.6447070233550567, -16.722465990547068, 3.8441654419845483, -5.147754505052044, -7.5897042127640475, -2.831560220929525, 9.087328155461863, 20.635021323774335, -23.860003088307863, -5.760101426824943, -10.527381866418947, 4.486175535457181, -0.7460061217442595, -5.583331328705668, 3.2531396838936755, -6.650516458430418, 15.760338188401107, 4.372984509965727, -3.145358862209081, -4.216700422935024, -4.4334246498246, 14.805493121791198, -2.4245131960535997, -9.34147785358677, -0.9566858061770565, -3.4916346753879317, 1.073616274512681, 1.4173421199256553, -3.952424798113072, 12.458544974419386, -4.520980440624312, 10.368516186832549, 11.117043981305304, -13.45574749704603, -8.8916843069545, -4.951413898529192, -12.578265160726561, -8.823213155898825, -4.31317771239213, 15.585136400243412, 9.0108609526228, 1.7696936606314493, -7.822176456066483, 2.2646357702551545, -9.38476417135678, -0.7842883082460921, -7.264278743683329, 12.260682455162357, -0.29234628265152685, 17.821955609523577, -2.59461227682923, 2.242005041146352, -16.51434850264937, -1.0529720418604924, -1.001080435147339, 14.625551249648968, 11.423886294912567, -1.9315469690916003, -1.4294381612435925, -3.7829800837333916, 3.7898228563085805, 1.6200428261489423, -13.871763887701276, 13.835767195046147, 9.926699101213853, 2.824893341299489, 7.1711674332206155, -4.136166200548526, -7.791549854168224, -3.070115141014724, -17.352334823618484, -3.0174082758358507, 1.018534981449698, 4.829536695030668, -10.687996312061285, -3.7366966680561253, 10.14861811855001, 6.803239130967383, -1.1835596103126345, -11.654200233502207, 0.8757266968104401, -6.2276391598630125, -1.0357190783682453, -7.3392881739133085, -14.676107180224765, 1.6340514774061026, -4.988984338889723, 1.5694404689650312, 12.457106692028374, -2.697551484177378, 7.945485117004495, -6.150508471378496, -2.8443601341139915, -9.933767019475415, -10.575217949462312, 11.440382836583918, 5.974032723870713, -0.47007203667768427, -6.516919466812636, 1.3047602410556076, -0.23910078690559622, -10.710721708753335, -12.176466913302251, 25.332287041203873, -6.183239397531767, -7.140420564555736, 11.558503454865502, 4.370475334386666, 9.461933400579575, 1.3738585988818435, -9.462140059636917, 6.40792749983954, 2.763039665099546, 10.638303707813217, -5.450514314890131, -1.8251998047764328, -15.888810816985599, 18.906503983687834, -2.9288433412257064, 0.9752392602084301, 1.498319990080881, 11.49840425536539, 6.3911915866457285, -7.351365483026842, 10.17715649212562, -5.728004255625546, -8.493568037666526, 7.5357703584848625, 3.139659204555792, 12.707801283158778, 5.789628210871889, 12.035275243679115, -1.7360087256850631, -1.8611694633113118, -14.248429460852147, -19.227887263665995, 3.3821389289115436, -5.899887970542848, -6.9799337187387795, -7.310372318777393, 14.152197440455723, 3.7376868186510874, -12.964481181595485, 14.948408812956906, -9.186817305767875, -18.368442581061508, 0.5336942570513679, -19.870477831223923, 19.39240178143579, -9.65127706842352, -5.137629250288963, -2.525603048676242, 6.867771298760265, 2.3024883642545233, -10.57017181437805, -1.4779915347398767, -1.7076399768406936, 2.0525641555541307, -6.665362376621092, 12.253278588973998, 5.289079137758582, -0.3224337364378159, 3.494430785424664, 0.8039478231383931, -5.368982129247971, -0.6281121206140851, -7.394045556449217, -9.108292291798525, -4.301137378010655, 6.647332627632877, 3.3908485292531494, 1.8449482532725534, -0.732417266313831, -13.320189252046472, 10.037723941167087, -11.407665351356549, 6.529865735688856, 5.40290653127221, -4.501683840267791, -1.8870618016216398, -7.345191280100833, 0.7094428525414929, 10.235539844271734, 2.138418075030223, -2.1891502435645807, -6.14545296825658, -3.8165479524635537, -0.019346640525815917, 8.697949523637481, 0.5727623829630197, 8.190716306850746, -5.971497520694904, 3.875466986970972, -0.04626733404921618, -1.601856433993913, -5.71991118837704, 0.7176743347906434, -0.040261058082867285, -2.349598392210011, -0.13379495169024752, -11.70942385282162, -4.5628247680277445, -4.8209049112728195, -8.234535897315977, 21.14273506338486, -11.983251850010248, 3.5642192866154243, -0.5654055733062391, 4.051275145285948, -1.6098713673446643, 5.26658390697632, 1.6958318099623646, -15.311017703550355, -8.126971626419168, 16.445723614198307, 18.329839979988165, -11.683028842730268, -7.204343805865049, -1.2039668315503156, -13.1284206185589, -0.32583827475871857, 7.057408890542429, -8.264446999040121, -6.624740983507343, 8.89858990907929, 12.526194287853809, -13.349751634071344, -4.588116468608254, 17.231108778795434, 1.337390210133726, 1.6197640269305225, -12.822949087135946, -1.7034032951100122, 0.4076277920623679, 17.946915672642593, -2.8717072058798543, -2.923059110874836, -4.488875949358119, -1.778059659034158, -3.9065191537836372, 8.704309244849034, -4.369759563989264, -0.11609413072240393, -1.4449253279969327, 10.192550467547358, -7.148461192324711, -9.555486857193186, 5.102376053234659, 8.439727681813437, 0.20374877885929144, -4.115516112547749, 6.5376951898688995, -4.080088148100815, -0.3610921233616825, 8.675163529755439, 2.326746893094637, 10.477271824751883, -0.017710459153760627, 3.272176864156317, -9.771141097932208, 8.35486299271462, -0.5293226459594211, -4.63242323221894, -11.868385701200626, 4.758226977348091, -10.410087646108298, 3.713518264153694, 6.74018540000986, 19.128115246818734, 5.746770922677484, 8.174076154448596, 11.74708169030325, -0.9444627362842737, -1.0093649846015569, 11.977204577716593, 5.028567357572582, 19.077323340463654, -3.4667236243418893, -5.91632914314722, -17.166120161983194, -17.46821157835798, 4.423221308847899, -2.782613819275988, -2.471048276728256, -6.903186985646139, -5.288290942992418, -0.6292249180678149, 3.5764903327718462, 14.49283439263348, 0.5820373269443078, -18.969382972658224, -2.1042788428015253, 8.628098533466606, -20.31236309909389, 1.042308527148853, -8.449365341127894, -10.213622912419694, 8.749372662394023, -9.465868548339001, -0.013442370031902184, -1.7284298271868457, 2.171155580466669, -2.3622721160922833, -1.5031036749250783, 0.1832767112969459, 2.686622969991873, -12.532684165134036, -9.157708210403737, 3.3932373525457162, -14.265178936982451, 13.71419642211807, 10.624744672515682, 11.861656375018718, -4.664149944457, -2.2949280258917986, 2.7484444078321855, 3.910660730824155, 9.923339027729371, -2.941966568304107, -5.905047316449106, 2.599248595292229, -5.2101686272663335, 22.79964110396532, -21.31618928160098, -2.856296207253392, 9.691061537387123, -4.550135800091003, 10.379280136222604, 7.135491572105377, 13.305537647052097, -8.10707190180025, -4.117868001871567, 8.02261149427981, -0.12057567981497852, 5.6791979402133475, -7.705116605915664, 6.215466070232179, 3.067661555572453, 19.409040378190074, -0.7972369176160204, 4.940770563430995, 2.0752803410394116, 23.526257830904946, -3.9405926740823016, -2.3002763376784885, -11.020569162991327, 15.634147869538769, 1.144051437515135, -7.686556980554401, -7.3464111382974195, -6.03742566040478, -6.113418210735188, -4.505773129408939, 1.717344157890236, -11.329027300258732, -9.081440068368728, -9.306201295519097, -1.4930943498757856, -1.3866799030849721, 12.30305994834206, 3.8056833878034624, -10.437129990855418, -2.7092272867069376, 6.546518398725012, -9.760522638409794, -12.74187550490967, -16.382552274610962, -2.2115190228255943, -8.18342841146906, 4.02003114216551, -4.668161592972269, -11.273239569574459, 2.8145868553753197, -9.717118971053477, 8.007180951873368, 12.366121446246003, 6.650529094055645, -1.2264849572794134, -10.39358385853988, -4.102707534314998, 2.309124304790539, -22.007788595903392, 13.74174408127698, -10.341695502741187, 4.3015036469111, -5.516767236143089, 12.816215090662185, 15.817473241631966, -6.647237201266865, 18.96916652756794, 7.748212543199408, 10.442497393831497, 13.194426127649088, 4.887458739396543, -3.9819215012296225, 0.9992653479213058, 2.4376450243265175, -2.9990475292277305, -5.937635358499425, -2.998293126323282, -4.31995705165024, 11.92795069046475, 2.745307634142862, -1.6092238505445768, -8.218354257413688, 6.118095134035139, 17.05213331893353, -6.400347681289376, -11.459179407870357, -0.6272974768125674, 12.08617319383916, 4.041595968273202, -0.26932800631183373, 4.98356820386446, 12.833462008227835, 6.623690481878693, -13.650806830604392, -2.875517089424741, -6.613537842928867, -5.53703810065959, 4.755465952458314, 7.697687949049326, -9.615028772492801, -18.479904110393207, -1.9885636546689318, 3.4794290732784705, -2.7621473420836398, 4.476149926759889, -1.0581344555426442, 6.963873370149288, 13.708139092419144, -8.924295208554524, -6.013291256086478, 8.12719306872684, 1.4781610681345434, 14.126438626617745, 1.4776106761794119, 0.4339258501838149, -1.4304683625517272, -3.430933215437361, 11.176716747431998, 11.325355415563148, 7.771341886833197, -2.794523447508503, 5.631250772134752, 4.730702975103509, 3.2096349310536767, -11.401080663778897, 0.36634066934163323, 11.29086117491791, -19.760245199275932, -13.898685499743763, 21.896153078172794, -11.931835846876014, -9.03683166948519, 9.575650110453472, -13.707934511802243, 7.8758085601112064, 12.829183148717666, -14.822298687515453, 3.011359222365903, -2.0000596170753573, -3.7543477559692464, -9.875515998035024, 3.984257660250285, -11.131052670255556, 12.713419923494138, 11.570620545006104, 7.501758542364698, 2.07488768907833, -8.420581520117823, -9.801305815355894, 5.742679940367838, 15.693686705209474, 6.888678164541061, 0.6202514329414418, 30.689606910686805, 21.85783028336876, 4.688954878646047, -5.890463917416612, -6.918793113936245, -5.448541548906238, -4.545739168707035, 3.6558581419794525, -8.774015595263027, -13.93937840093967, 16.03402485758237, 10.299203695542795, 6.30180329649873, 1.6975065089486803, -4.790996754884628, -18.396349008709247, -23.403613331966532, -17.98775989240575, 1.3688316994415375, -8.814386485501215, 4.949149306909256, -4.2245278878750225, -5.767199456529539, 6.8020955481919, 8.071042573146684, 6.06549051740087, -4.587167451429912, 12.702526704039853, -13.849055608319782, 5.962661614851598, -8.013924229045191, 4.894280784049306, -8.236112369250872, 23.9823143077572, 10.86548161924161, 0.47280615256738984, 3.218364128479946, 13.4450722896734, -1.3196476563887578, 4.930254142344107, -4.243383597178558, -0.540248025861853, -2.140107425150336, -1.241196777862159, 1.6996206100022933, -12.560091990829989, -8.192253582146542, -15.174006575495076, -0.24054933731801653, -13.381029533866407, 13.973014538781335, 9.996090738062692, 5.867116163280883, -0.2858843665487101, -8.178300769147773, 6.018349009994703, 1.799386634803387, 11.811485998177998, -9.935958568431982, -19.076022978011945, -1.7328001725377626, -4.407343447466644, -6.679609098735415, -13.363075132109682, -15.667042893085982, -3.3247756833605013, 2.0457316857998427, -12.766301368569692, 7.023525806760661, 2.7663297249362664, -6.616828886585897, -0.545804613670904, -4.289124466108483, -16.388538447736646, -6.883413357946716, 7.093732901109102, 4.198488796762717, -11.531941251670762, -3.6198026044342217, -6.329050097592941, -13.972479631061727, 13.961560716958033, -7.394993664684631, 0.875289326889556, 1.361632518559448, 5.930426315194762, 3.759506230952297, -1.240163657991604, -21.00740979409592, -5.0078636304614585, -4.048237174363829, -12.862980884380711, 6.276623886118998, 5.0988808930640515, -6.4420161060716135, 15.146827944197955, -7.516449917431176, -1.484289001535689, -12.509080647294613, -12.134653359708468, -3.972102282767785, -1.9441524569930588, 7.297574055344779, -0.9090223985059673, -1.7888942895318838, -5.183613761079589, -7.692351922553335, 0.3588967899176365, 1.438396005409161, 0.39100437543600763, -13.498883925557838, -13.30534023009569, 8.449959445849395, -3.4337482991159805, -2.884080233695447, 2.426169948424194, -1.3234013112840475, -8.66973977189571, -13.857506923376048, -3.8710440483654134, 5.459564875323235, -2.104225258468201, 6.467589059288738, 8.003213645096094, 12.279684124918635, 15.240625498374312, -11.866401530962134, -9.634100333350766, -8.803592275972534, 2.937616738994371, 11.38259401048591, -12.044468621259693, 6.17204904405564, -2.7331858422306965, -6.7014900239787885, -10.271498496493805, -8.097019573692426, -2.848544844206217, -13.555526172879167, 6.45957726644472, 12.991012001110699, -3.653448287081651, -0.8499423264434594, 12.17862837211754, 2.163227031509227, 8.480173537197027, 15.288012453291282, -10.188681031821533, -4.307363188942489, -2.575619564082863, -9.581472252793986, -4.010281093880426, 6.5899787621605075, -5.200349902061757, -0.1603242837152945, 2.4222770401251217, 17.065248289579753, -10.869784932779734, -3.015183533504887, 16.342841627698625, 11.543025193747386, -4.368502053806366, -1.7435337761166272, -11.500913614410267, 3.7864172133476086, 2.576870958349253, 8.330268893622904, 2.6442632087042566, 2.0682010696216686, 10.087414385387923, 0.516091618372824, -2.407568908348604, 12.247687883617822, 7.008282302594671, -4.480973043556413, 2.4647682691461754, 5.411699471552356, -1.6227096199225997, -4.889086048259357, -0.03413799322475364, -6.154841166501532, -1.932434674011383, 5.836014316016671, 11.456971829900766, -6.1707023378427515, -4.334057299642544, 5.497267282747658, 15.740327839446541, -1.5647645621707316, -9.620719750303605, 20.413967344881474, -2.89434553140066, 1.4829975813267644, 8.025974797508232, -5.2486798438488504, -1.2284675974090975, 7.056539926476175, 19.35485753748329, 2.3531385919081518, -2.0314575200548215, -7.792216664177504, -6.974909860796999, 6.762735205903967, 8.669660833589637, -6.950107301791286, 8.686552668702017, -9.431689119538193, 4.659798406614072, 9.587864514497236, 11.431459358122096, 9.168734944591924, -0.19531905529710714, 9.491876094064308, 7.143244696269854, -4.42279548143138, 11.694093222704144, 10.16344656376971, -6.578767112177168, 8.119338304160337, -2.4028287536649473, 0.15990440498519504, 0.2800241142339943, -8.870869024113993, -0.44797355709678577, 10.284620640650907, 20.675071012882594, 4.950173968169006, 4.114567556807274, -5.706789278894867, -15.956681382209705, 12.651892425023904, 3.977360804500441, 10.225810706665973, -2.0680194130129044, 5.2414428698357405, -1.4681865678248427, -3.897623548416064, 20.541105650270755, 5.013491312882825, 9.130394990920585, 4.059339863243997, -23.80467057152386, -11.771882224642463, 11.255629564230876, 10.054792012730452, 8.3448674132116, 5.832125714495928, 11.975245722919064, 14.18617696154684, 8.861073911219158, 1.096892171557645, -0.9735644974690333, 5.352607861041041, 1.5171081021100776, -6.755850971965279, -0.4708072457393564, -9.500171039486101, 0.2152765529446552, -16.555618672065616, -14.167871532445309, -9.43963109459499, -2.5008296710565294, -13.851034760207899, -7.660805134574512, -4.578474355714907, -21.989747704253563, -3.8939336652446137, 0.0019717670343697424, -0.9844158957687457, 14.433861131043882, 0.7677639401572989, -6.398641886603336, 1.9680745238334532, 16.39205860309829, 11.149488747029249, 13.991970026609948, -4.865450975312219, 2.202627600003966, 24.00621746573912, 2.495253773764274, 16.324346718430615, -7.06941252501538, -15.832608708804912, 9.898561368096072, -5.811023082525567, -0.7621967408898803, -12.461586738938344, 10.897749726891465, -13.856515363438453, -8.538243917823277, -13.217236695489207, -0.4719010335966707, -9.482701014906292, 3.3183471907463544, 9.28712914306398, 2.0858365859987567, 17.84605450137444, -5.551333837812946, 0.47391577518274475, -1.1142331576275966, -1.247470431260148, 15.31878596554006, -8.068208043550793, 9.738686412017023, -7.875964522753308, -0.7331537335336337, 8.409349712410135, -9.50649586857784, 27.54065909315409, -9.305028100795628, -1.8271688429544524, 0.4487069236256717, 2.551826513764773, -6.1802922435167105, 10.327068718647798, 14.8282401773496, 5.519703937383901, -19.738529092011422, -4.663814055095242, 25.38154258414775, 13.982261648061682, -8.271607652405757, 11.62944646200418, -5.541557882586785, 1.4245970979157943, 3.0075335828199985, 18.916180445453804, 0.4951470041822136, 0.07812738615275214, 2.4460978464290477, 2.4131537628333106, -4.209582089659467, 13.188787383111453, -10.23880057149728, -13.654920485630177, -5.618357040237559, 11.091010609699666, -2.0703705910140986, -3.1514827168733266, 8.496874390693018, -16.877005018661087, 5.161853894829079, 8.941530200800717, -3.666979889634545, -10.1983770429192, 12.668689812163022, -10.770294708336833, -0.02780257173723455, -8.904675351795118, -14.92648815979685, -4.3941003810989745, 10.355575618307196, -13.511351814875812, -21.238048560650103, -15.298519976686542, -4.294901633610035, -5.068871453347852, 10.872570573443232, -4.591425896790213, -8.255826982478505, -3.6674653878792958, 6.284820671971127, -7.7014030237899185, 3.1523656201849284, 8.107451846587049, -15.449872606896902, 7.472642289998981, -2.1479143494249775, 3.59057298033357, 13.421026779017724, -1.880939266206703, -1.3993584573373328, -15.392785506870203, -4.596513912728312, 7.555498680250251, 1.1223006671736075, -4.0960703206075015, 4.169761178695273, 13.37126983425327, -7.124781901896115, -1.2080260743167432, 6.6629623901125345, -2.6260881345110736, -5.129387411662954, -7.944076760497744, -0.7594887831917913, 8.854491160141977, -7.69047322152962, 9.067754309567428, -0.5266046879526379, -16.900469578122177, 5.091727054207701, -8.587430276174146, -3.644194781591536, -7.299730125071085, 3.2247261965793426, -4.461253839020159, 3.044812906792589, 10.805398730098947, -0.4731642378285249, -22.56298752033398, 1.7915588169711072, 6.627226656411469, -2.8776682251470325, 5.722725538307109, -7.914833907810936, -18.976661875752516, 0.1735887826033644, 10.408326160162549, -3.7299888422800715, 2.1446078207404407, 14.9451734629634, 4.905730832062624, -9.39333651286774, -0.10205508125839896, -9.59929378451311, 6.6940974247121146, 8.170474686468786, -15.813661412952301, -13.14751998014556, -16.56628607641709, 3.5001973024180133, -13.189185534319671, 10.812350075985794, -0.7530375680203647, 7.93935408283557, 2.7835939749774523, 10.740141753156184, 11.24400338727046, 2.918758992338756, 3.5964909025181333, -11.807027309811836, -3.2716078653183733, -4.730425682278449, 3.3388672256302887, 4.833582879515117, 8.76352479311375, -9.246753496569557, -6.994788668461957, -14.610961475307656, 14.3933250752532, 11.154473019995729, -5.296648287715184, -11.643789291458653, 0.17501326913163384, -1.1216261044481888, 9.825408307358497, -10.361642467303783, 14.09747522756902, 1.3601124693899107, 8.615329174680719, 15.114966543616145, -5.290438174807087, -6.857845440005391, 3.8979853531662827, -10.80166578844188, -3.343862590200918, -4.557552452009315, -11.03317719191406, 1.2507715046582273, 2.47240197399484, 1.1548307807230254, 0.6346664949856557, 4.3629007394780315, 3.8631457844300243, 6.378158686225344, 4.813219652923548, 9.957044050038881, -10.79444387600009, -8.413050001290769, 13.808037386153241, 5.312474042150274, -1.0615721465889218, 1.431716673567273, -0.6890468360261979, 6.340634852002179, -0.05969051943704265, 11.241417423408812, 0.1613411504180085, 10.490533428140475, -5.249839813779653, 5.38227099735377, -1.0201501681410479, 1.5430224132008041, 24.77083944467057, 3.68595191099584, 16.28235656704856, -10.258001779771776, 7.362561634485271, -5.520995560274498, -4.107256912875277, 25.279492433561558, 16.250762998002596, -0.5471183015378543, 7.440649452882559, 1.6316940162483358, -5.0888704247931065, -1.3420798574692645, 1.0805900562124324, -2.077080677920467, 11.53402519596385, -1.7676829230265894, -11.392927805716754, -9.136114810942255, 3.405489494390822, -7.7136694798257235, -4.24296424693776, -9.144743197730582, -15.421411465841889, 4.5304412251061486, 4.846919135128995, 6.412566220484062, -7.907457691480378, -4.945552462096357, 3.4170071493405403, 9.981121682109283, -1.2838916648195602, -9.435580083334754, 16.85503841013072, -11.702405796435857, -9.263916168103876, 5.70234873183633, -12.131170935912069, -11.022826072857352, 4.046506026742334, 6.031087451728662, 1.356796631396638, -0.5787316662516355, 4.142523312255102, -8.000630368162488, 0.39008523472896645, 2.1077659276215224, 3.3871731096654676, 13.659367083997921, -0.7582107588929559, -1.8250324896732013, -8.926350971524009, -0.580918026794136, 8.760835435599217, 12.779972736016946, -9.059683032187953, 10.21230809931533, -7.013284345531408, -6.016800938569119, 27.797315190694235, -5.97536276204528, 1.1747911033154617, -8.181996313517862, 6.983952583501712, 2.5684764304223986, -12.95603776301567, 6.164624131265693, 9.099645200809345, -16.337566390805414, 2.0038166242670656, 11.760423804328598, -8.02933834258248, -8.1552281778691, -13.495519705184273, 12.792109843602663, -4.652529437771049, -18.03285562574375, -24.03033958752968, 7.968676784387953, 7.95614506395487, -3.567837808492628, -0.7061543499906089, 5.563935632406633, 6.240772209813127, -7.40304147693617, 13.951725302101634, 0.8439358341699599, 2.0083895044831372, 6.639250487205926, 14.151597576668731, -2.6570526654680315, -10.845499248426423, -4.743064323873212, -14.018645987298132, -4.933856123186426, -11.551262102568991, -6.644650233089541, 0.21345434394527496, 5.554871856032504, 1.366025914249112, 12.769917080586437, -6.905321393459742, -3.692676376798703, 6.947242107567854, -1.4068649322347917, 4.511107552734858, 10.14295690917841, -15.669988164487245, 24.10479488920921, -5.2644657017485, -1.2714288716646598, 6.511270725313877, -20.364967665059837, -0.817506273375269, 0.5380210864637578, 4.617281901349966, 11.221432562364274, 7.443315881241789, 11.142371786301576, -1.4445172375674187, -1.8939724793723909, -1.4028678758899855, -11.351375346806323, 5.026307819895368, -9.293334071496886, 0.23536420580880124, -7.049440201065838, 3.6077867836434936, 3.7850652552079938, 3.3986434813896484, 6.235877931458608, -5.631582590817041, 16.93202330865331, 18.972122646072023, 3.997706727341857, 10.21649146701455, -4.502169486574942, -13.806951726431237, -10.277748629713294, 2.5284612902574595, -1.4772995006781438, 8.291867342876396, 4.585789064086456, -7.7539910446133975, -5.56775532830361, -5.321477465717698, -15.558097778136485, -5.256931406818323, -16.04343655807868, 4.630628780092152, -4.741403044498902, 7.623663059718741, -6.276505985478878, -13.851121464048777, -23.879822964549458, -7.77499464440192, 5.281123177731169, 3.3148863102441286, -7.960296873731759, 2.540852581661825, -18.800889748613443, 5.830971046333979, 6.381536262093171, -4.346964818868203, 2.7058838296565906, -5.176640461130671, 5.2051247626410015, -1.643982038746427, 8.921438596010267, 5.637343284133665, -0.2577807584926205, -10.287307448846096, -4.200360505098777, -14.382597028684796, 17.545868194564157, -5.454015685713144, -2.4177773541553007, -0.11047092323238494, -2.5987976436285, 4.204994360423246, 7.852680222508442, -2.3988635660897, -15.513384828628611, 3.5573716333987258, 5.167426764526244, 1.8320607279104806, -15.20585649979049, 1.9736718574202459, 8.457324071009719, 1.4247636013604894, 3.392426981476807, -0.8052260797842827, -5.9214670650295735, 0.41115247944769, 4.122063441719231, -0.717943957401596, -2.624645534112042, 11.257146989543214, 13.158771683744112, 0.9797601873417262, 11.046630751382402, -1.124311106910161, 0.38295050916345075, 0.4926046008570129, -1.2425587408371364, -8.961240491924213, 3.6942546559824443, -16.06585856141029, -10.230053510271228, 11.455984318653554, -7.923590967892776, -4.934854202615408, -5.785856828650538, -3.628162366415856, 1.7144884828629967, 6.972737077101365, -0.7246108323466961, -6.982353721925418, 2.8614637289863727, -2.298331481107695, 9.82646466504533, -3.349573320687963, 4.423446240163256, 7.967921877104373, 14.057409826996818, 8.848183218390272, 4.8058445209301865, -1.7821627966175393, -9.120287092190956, 5.885438477385101, 11.14166439960721, 2.430452281335902, -19.68111888516641, -2.3588887825281026, -1.3762173041854109, 28.484929963249716, -6.208759700165128, 0.5354046148417018, -7.446921970718268, 21.437667103960887, 0.8993591779453338, 24.80240302731785, -9.273137969990849, 1.0904853296778798, 10.256558517407866, 1.5257302631987442, -5.356913733552578, 0.7966635215089234, -6.847069814538497, 1.612422257744983, 13.412768967086633, 0.8709124954836736, 1.6911382908918733, -9.478594667762058, 1.6826251301601682, 13.641888151468002, -2.270484480243917, -2.5204484256368276, 20.288993668715655, -0.11186854863584678, 2.54083951649843, -2.7994860278170046, -8.425672798255814, -8.014912439747492, -0.06612521679452449, 21.48646704988891, -0.7699805160637008, -4.310228632789425, -7.0208216783724975, 2.1068767559979213, 3.6995698338556, -12.438806246487944, 14.804249345653995, -4.035889672622985, -4.154184101321628, -2.6768864826141754, 2.7975546509734945, 1.0113207896347602, 2.6956161195646304, 13.937442720295733, -1.2571524306019684, -5.553521859675237, 8.198492910607472, -3.009465103935014, 13.817863279703879, -2.0911256825959006, -4.883628659240067, 0.8320507624427038, 18.593161023587587, -18.428963507595, -19.05247310475589, -7.127277583390191, 12.102151588636897, -5.088111794836921, -12.677023014691862, -17.853186383554146, -23.443694256531934, -2.442777905512806, -3.844076381123026, -2.214264107474469, 12.311838972013204, 15.734598440210398, -1.4243135934169056, -9.832006760471728, -0.7550240356449864, 9.047531012458856, -5.514044180704355, -4.9665431091759755, -11.677109824558357, 10.10811069455705, 6.412126191419374, -2.9585438644283055, -4.148685051363379, -11.413078873704144, 3.1890812096988954, 4.647163224741261, -2.9925821879770513, 3.600427757660963, -0.9861766434905178, 8.772984698174948, 16.545584063432667, 21.8656823637767, 10.354118932338864, -13.077188695116964, 3.9552682314732226, -0.017841378757374127, 1.6322828390879054, -0.4637839276931024, 0.7022472825672985, -22.96621744578278, -14.271809128871773, 11.025488973509308, 6.5348166292249665, 2.123046169830617, 0.6483392519780862, -7.111522106380488, 9.766814466369699, -1.3128002240300365, -8.159092587553166, 1.747250480964563, -4.014214478500812, 3.4283284155984766, 16.762924681899673, 2.6892718594461056, 17.454357708276294, -1.3304860792670012, -1.2022538797045712, -4.826879563372423, -7.634836251351711, 0.7285613755603095, 2.42297074558845, 15.571057198543356, 3.4847744593899446, 10.73724743452468, -6.03979682874559, 2.372410592075154, 5.777299828063459, 14.812184854266272, 4.404070183368619, 2.536379622570422, -4.927402215013983, 