{"weights": [11.159670772667681, -9.58486483207348, 14.115605160621696, -18.921181828533705, 19.903275451000788, -19.32051475861313, -3.936257060636546, 8.362145531431164, 6.385183799800743, -9.030490713850115, 7.420155832420497, 33.61913276062127, 0.7571915098883727, -13.873191390346346, -11.49497455883954, -34.61499730079269, 9.21935275861952, -6.894466624446379, -11.421705422323006, 0.08687730391467041, -13.855499851097328, -1.1603859681585784, -5.097081098770342, 23.96115392707816, 9.567593748386171, 0.8057156378327933, 11.352828564652778, 0.16132119846493811, -8.764340014046862, 0.5918013582100656, -11.089713713803382, 9.62240658310196, 15.254723048520315, -29.967305790848894, -7.391444476497985, -0.6529690704273458, 25.525151447991174, -1.9010757245929333, -38.92744472872334, 7.401414487160979, -10.535673917540375, -12.66305794458, -10.406395459830525, -10.14443009116825, -20.157972480740924, -31.03178916636923, 12.188957998472981, 7.908074893513269, 16.86457176807072, 9.880850901245744, 34.05829773043995, 8.366973865921164, -0.92238975372705, 3.754289393393236, 40.25761947753934, -24.31627397023574, 9.60062995529432, -12.589190294328246, -5.2682825525068875, -21.06048302110009, -24.513761046096622, -22.956915197626508, -0.6674841634783897, 16.07646712992966, 5.291100857163157, 38.82695372640937, 2.0958227234331277, -12.812000936678112, 15.59680736519092, -24.031399304430163, -16.12846433056195, 21.6678333182109, -9.149203207331569, 25.20716021934686, 17.402863661561263, 4.652696221368152, 15.321781925945208, 15.549533313946425, 19.164863544301518, 9.72092320605468, 9.017869098144367, -14.535306152131517, -0.7141738519467641, 20.21083750039415, 7.930972586535998, 2.102656450862853, -0.0810160960938783, 41.07160017819138, -7.018716422263858, 27.546326601501026, 5.565862099541937, -3.5332244244082673, 0.8042413139438889, 2.2563266535658224, -26.84260889135416, -2.4137617865464756, 46.31106634503698, 9.9478414395631, 21.075463649751292, -22.62470379138731, -7.65964547862277, -7.8775286976600345, -0.5019916962770475, 20.847610881961042, 0.5214977631943599, 23.79492682782588, 22.70688565596241, 35.13860075241701, -21.362665028088248, -15.968096110093896, -8.069661935230702, 29.018176675662694, -18.21926540408115, 16.25111671269928, -15.399407254551297, -26.41995974864712, -4.14916697640163, -3.865523080487193, -18.18825346553774, -13.483404082937366, -6.923884824755672, -20.329457724138166, -18.715084942618276, -11.054028323035773, 14.915785819397485, 3.085580161484332, -2.5137734484334997, 5.757836631514796, -16.793946992247538, 12.47058263288453, -13.117283144340501, 32.28571560698598, -4.4357312657872825, 11.488730056469233, -25.161393084346475, 8.295534003438515, -0.29698590715790874, -7.662632236771551, 11.167212468288747, 1.3431439613507368, -39.07446202328404, -1.4965944975273808, -34.199931423385465, 19.153295998065182, -17.57851998529996, 0.8164839563753666, -21.288052452098785, -18.637256546693685, 2.8638560418064927, -13.790169621149698, -19.672379334383677, 12.019631780892476, 12.766055632960827, -15.386079767806047, -0.10502451739086938, 17.029278864643995, 11.06233453309391, -31.70874278653803, 14.249389152483706, 24.779053129058816, -2.1998131366308646, -8.960567321179028, 16.357875125207016, 11.167580599714466, 28.788225465364263, -12.212746674824395, 17.618970094902394, 4.435694669876165, -27.398708440898133, -15.709712280459604, -7.577027342121622, -11.678010608357043, 1.2538732938721597, -24.431684798129783, 5.999470674484725, 9.009341485034806, 14.791546104786699, -2.900857706009423, -3.0714758292272584, 12.436290460351294, 2.086753602950271, 0.3691472973054956, 36.07437633275262, -35.9500697789565, -20.707911472509593, 28.342352482218818, -11.306924012155868, 14.859028640100114, 23.827430839394406, 28.607105241992915, 1.5878070490181282, 7.982836641637711, -2.765179098946338, -16.3827280128164, -26.726741263336848, 33.3984634418544, -13.491936180689944, 14.523214140872426, -7.831980014425697, -32.27182175755197, -15.49549233285683, 7.142358024407502, -1.498756658411315, -7.079794427871304, 21.32339363940907, 12.438594456253469, 20.445325950150448, -3.982008236231005, -12.58936840115036, -10.876701568130388, -15.75248703026981, 4.886505462153995, 3.9395694559910615, 21.048517790763956, 7.520514811641264, 15.311957804043933, 12.322480092170403, -10.876556128842386, 4.231183461095473, -16.913504430789498, 18.266688172111657, -4.651878637118734, 2.3752654174799317, 2.032767341836258, -35.9974873122288, 10.155496990727556, -5.934968439894933, -7.1110798236127035, 13.067442801596314, -15.41293518849708, -1.0260634986303283, -7.022994877965424, 14.952448941232854, 3.5260254583701567, 20.232405729380805, 7.876768275633081, 22.785553869503968, -8.158476504386831, 40.76042308087876, 10.579112542064742, 16.531734926543788, -3.0460139377452764, 15.338676220342753, -27.51871985356061, 25.818866524583466, 1.813667975033502, -9.74487131507615, 4.461732072622046, 31.357071864387777, -2.6174581469999567, -24.67549820804253, -4.56376808072271, 13.838527172908087, -25.071640087374245, -19.482916714738067, 11.60938323061791, 19.88877535312974, 3.1667748980233017, 7.502250558434127, 7.059927424680721, 21.67414600170591, -1.2558935075899837, 5.638731127069416, 9.072042490860293, -9.36099645409821, 12.261790008626157, -3.9251288145671914, -3.828023318698728, 0.6824591382931329, -8.256003815441348, -26.215135511056722, 10.649050220541456, 8.25637081302321, -2.637805638844785, -0.3806785025938351, -13.99759844190294, -8.308534602537186, -22.783878078229495, 24.4304817175993, 12.397156750661972, 20.335100465194444, -21.59851928272493, -1.0157505315179998, 11.540609722268714, -11.987326263156739, 30.496835514338592, 20.751518318970113, -23.67610720511416, -8.948479008497076, 6.189675319983733, 31.866011558247738, -9.131693143239136, -4.542531946383912, 28.891576567633447, 27.775854075500266, -0.8326424726096515, -5.593861590833403, -4.676997870249057, 28.640969086455044, 23.366485932614708, 2.9611534247713966, -15.14431798049067, 4.3187238111593516, 3.6777136047315615, -56.883007056397695, 8.982982988192049, 4.407495689192922, -16.6013673300104, 4.585282817631018, -17.891972938624956, 3.737233890009345, 10.210862506789631, -7.5961593540697105, 20.313060104491694, 34.52600744565172, 7.18747305201379, -29.911714282055062, 22.99139535182364, 46.30654297253705, 17.80407942030525, -9.782644353076128, -31.195613296585524, 10.25549918118208, -4.011449372664012, 2.359966830581835, 12.878359157331566, 35.94333491253485, -3.165340936763287, -2.8868081843782334, 2.2704601867774463, -2.7567638056265586, 5.197146877996191, -28.869438462027578, 14.218849744867486, -8.034440030856887, -1.8260840469717619, 41.64115036081627, -21.922172844802905, 23.88927071047081, -13.626243926683804], "model": {"hidden_layers": [16], "activation": "relu"}, "model_name": "mlp"}