{"weights": [10.8142346839785, -9.309327034386023, 14.300731317676844, -18.48779486637188, 19.768908445579847, -19.417180311622648, -4.37482798954453, 8.686735070126113, 6.434899691253668, -9.507117493240909, 8.078891418994655, 33.69794036967929, 0.7980393637381921, -13.747264244836607, -10.89756809609209, -34.640123750037944, 9.340039726553817, -6.462560255316885, -11.6581842928916, -0.06752634259884695, -13.510243488874186, -0.9925101134287015, -5.746728168338014, 24.05478790263407, 9.937469414325347, 0.4229447739551784, 11.34428547703829, 0.13594672058456975, -8.697679459998843, 0.30237162690737296, -11.169437240365552, 9.707254688523482, 14.636083141443867, -30.250337189766856, -6.891983296021495, -0.7074337260086095, 25.511327465032743, -2.0239139358881353, -39.058335526084164, 8.339240270099529, -10.27075402562893, -11.997272232801064, -10.624639139643442, -9.623667539020865, -19.747667296328174, -30.845469411766846, 11.87273832838242, 7.4377542636571965, 16.58987701663016, 9.436337121400332, 33.68679779637537, 8.418248590597466, -1.1100746182669183, 3.6833379627591274, 40.36828266561693, -24.124088857067672, 9.42251946576457, -12.80238241334348, -5.36232977153882, -20.71151910871692, -24.487013614763445, -23.180638039001575, -0.6709679549128978, 16.065443241240615, 5.248497141938504, 38.05501715934419, 2.4086658765473725, -13.51814923345153, 15.662033791097167, -24.104706980229277, -16.317488058581752, 21.913900962259568, -9.19793722360574, 25.40927941183669, 17.288505324710485, 4.930018228527769, 15.345807389655318, 15.722980603284292, 19.18992071093756, 9.478519609606485, 9.326527030546657, -14.781814775041784, -1.027342516937482, 20.754565075092284, 8.385813219351622, 2.030711787882368, -0.027067157493699423, 40.901819056910746, -7.072409365982991, 27.636062777039886, 5.478960149757256, -3.483559425047225, 1.041262677302215, 2.339750202848396, -26.90382602943835, -2.0689298211136773, 46.52466578616181, 10.161810590201451, 21.531086124390992, -22.534043342956597, -8.094451914243475, -8.026911757804038, -0.3844476777034614, 20.968988511950748, 0.733846685597511, 23.346580735507548, 22.259658213807597, 34.838728026312744, -21.948894856499848, -16.00068912169235, -8.628008883347936, 28.92032926294629, -18.080691526234066, 15.675264223891409, -15.873855953089121, -25.848169053593153, -4.708962646023741, -3.729962258456165, -18.720926321662585, -13.472004529429704, -6.407379895022071, -19.71737237934006, -18.626212832300954, -11.118951350266489, 14.4487889795113, 3.283932260472254, -2.216700887241828, 5.358207482700254, -16.765204558658358, 12.252968704775245, -13.340399214601732, 32.43235021281047, -4.396814779022144, 11.702822152529157, -24.92790746087532, 8.104952002629362, -0.6158411487891209, -7.972822438043335, 11.325258238472866, 0.8700852383998079, -39.405552367570614, -1.7461077536181764, -34.65975518107398, 18.867035904943368, -17.496622899155106, 1.3854075206243455, -22.104464016291086, -18.890168621855782, 2.4542583849324515, -14.326301929549587, -19.577900988047187, 12.016411738165662, 12.925557488828046, -15.41135397643978, 0.10134905148245466, 16.806054793205256, 10.501436929995583, -31.97142931054762, 14.592712417155145, 24.5048434809779, -1.6515037129613797, -9.999819375351901, 16.235694621323354, 11.238331507464181, 29.06004906353463, -12.124660087519034, 18.04111570424271, 4.371996127922372, -27.09258811369264, -15.372176163850648, -7.45237544033066, -11.3610726426289, 0.9464247553742418, -23.648385935666358, 6.130188890881005, 9.012066769628667, 14.850781684544671, -2.7499733140195985, -3.072406447167009, 12.70427600966595, 1.9532926559241994, 0.09038161440863585, 35.31074000523411, -35.47282155302901, -20.602066099731438, 28.304957276146833, -11.054208546894374, 15.01278640714245, 24.351466941714204, 28.55588648162663, 1.5686753936603768, 7.87046319518347, -2.776020670057954, -16.622197406777545, -27.229178307490375, 33.7045303034391, -13.647778109117459, 15.1799769378655, -8.02067070790452, -32.360565453522625, -16.14955067818005, 6.9834208772709685, -1.4158781900834396, -7.449115118733728, 21.318076411279296, 12.229931256079354, 20.80116869860198, -3.553554503487206, -12.654889885181955, -10.72942887282476, -15.881403106590671, 5.036592605757498, 3.9825856795738113, 21.53528352469423, 8.249446325162925, 15.281222842491987, 12.28928272339426, -10.798833283202004, 4.762835889249639, -16.330072347584963, 18.365312579360342, -4.5195786050561315, 2.754659855385023, 2.1146538960774044, -36.39545240314232, 10.215581878709408, -6.55152328095675, -7.203351628736083, 13.139337813801184, -14.887750574049418, -1.0100418438196517, -6.922225529582657, 14.021385774454538, 3.9598234985324283, 20.51824758967834, 7.908003424868399, 22.960004325683656, -8.168672117176992, 40.94575851899165, 10.838330020560031, 17.02922524832576, -2.736667788191861, 15.717945806924543, -27.284197228673573, 25.674719588769452, 1.9430618090517386, -9.42842409201679, 4.3905602014792375, 31.544868259425012, -2.6554269202702065, -24.70435670995326, -5.144350536639941, 13.576509992581027, -24.813396131045426, -19.401519309344376, 11.793851014241175, 20.140662617378858, 3.4658683359294202, 7.6848339930049, 7.140908454734264, 21.57093495347459, -2.1454543516028743, 5.323938781482956, 8.756406586986701, -10.06919162490792, 12.170065721684342, -4.147824222757436, -3.925743650261938, 0.6989247607394601, -8.270830671238233, -26.487210133369324, 10.735138388407305, 8.228854154120734, -2.939940796266398, -0.4846453153303837, -14.171434840808669, -8.453554351470334, -22.78931604560621, 24.7895116198983, 12.2929219889748, 20.74556697786303, -22.38448570776596, -0.9572797304923426, 11.639446355177853, -11.491692641462535, 30.430281434823122, 20.063091906132048, -23.41622640583072, -9.00250785072376, 6.590438522453365, 32.04007324118445, -8.833365353888608, -3.35184900830133, 29.404077981161727, 27.458433921010567, -0.45514256409844345, -5.729299321417414, -5.017264075482007, 28.799655698520358, 23.400547697546674, 2.5833592680650685, -15.234168455779137, 4.473642531939176, 3.0993258471070275, -57.232152321643106, 8.921268136653598, 4.323523081138512, -16.341747867942026, 4.136280816489054, -18.133703551835428, 3.713964490103312, 10.056116403662337, -7.196357969905961, 19.812791107293098, 33.871135479390254, 7.43812395676296, -30.34120887490468, 23.43191122942926, 46.160930420817316, 18.14660012675734, -9.958664701542302, -31.10852532690554, 10.331185439630628, -4.046655667105581, 1.729218994857692, 13.266441571757635, 35.6086180066529, -2.7941913799965357, -2.681330106237029, 2.7092437266883103, -2.411626006021706, 4.918943646871784, -29.2889826964701, 14.24740736961183, -7.548542854703241, -2.4295713193622257, 42.14380982452761, -21.47876735609061, 23.6625685793451, -13.712708379292472], "model": {"hidden_layers": [16], "activation": "relu"}, "model_name": "mlp"}