{"weights": [10.74010148088403, -9.087085341218724, 14.115128783700975, -18.492125394869074, 19.798568864119243, -18.445211949516082, -4.4672028912997845, 8.511689144323805, 6.389098299056398, -8.979125175964851, 7.009760851977957, 33.206172715376105, 0.5441032668829506, -13.887240602320663, -11.068249413290621, -34.859616302058306, 9.537910827789387, -6.904877705984755, -11.459191792649825, 0.05001706490146278, -13.391787696944375, -1.1323218506938153, -5.873738432782597, 23.63042691144783, 9.727843073813006, 0.5286853542960563, 10.78841976251045, -0.04834105090552493, -8.201546007745154, 0.6624262479625225, -11.022513362263414, 9.35512104336272, 15.006054940048031, -30.417624737394448, -7.141732989452333, -0.6101806182295975, 25.509250349847935, -1.8426588296310342, -38.749088615355156, 7.78206315373752, -10.553931290085043, -12.144535199761501, -10.062617353093659, -9.444636457557273, -19.966510998370705, -31.08992797038268, 12.049664650986395, 7.258877917841536, 16.836017344782373, 9.72839523888903, 34.259169536230814, 8.065681205275245, -0.6029560244234901, 4.114496577777331, 39.90008428121682, -24.38122079498967, 9.290380187707408, -12.755918472571947, -5.170496424642255, -21.03018533358154, -24.45177202856248, -23.22448166873669, -1.0733731185200721, 16.208788867234528, 4.882030577725271, 38.568528589810555, 2.388699377273912, -12.729337935102134, 16.022426376849594, -24.287824905270043, -16.36764775408541, 22.09622563779749, -9.238510202066193, 26.208292406430818, 17.50049056128023, 4.608965766155309, 15.26526029642057, 16.16119805489918, 19.41504633131575, 9.791193449915601, 9.561717982307545, -14.617851676225285, -0.5937486830883676, 20.70473629312189, 8.11423836253788, 2.3415755826970246, 0.36714148915554423, 41.3757865482757, -7.197673072133425, 27.36546836360159, 6.003971324659544, -3.262206633472391, 0.8256680893835877, 2.1296730689082364, -27.30273913296477, -2.265525476580392, 46.38178958136849, 10.123210109416638, 21.838671280716003, -23.009339376532303, -8.410063840491187, -8.223622785786791, -0.5751094581712461, 20.745398541744507, 0.6898193640941319, 23.59879095846322, 22.20501307362289, 35.269331079550334, -21.658666820828344, -16.324896389789966, -7.711594768019996, 29.05612706509214, -18.40961582822697, 16.07908236147652, -15.677784311266567, -26.110526058852304, -4.77621993893162, -3.310329725708396, -18.35534441591432, -13.900769035511468, -6.720884273911316, -19.816899029744228, -18.76217417425155, -10.557407439122755, 14.877726764862178, 2.733406309236622, -2.425201718042091, 5.774609230113794, -16.303270278492448, 11.688135722638261, -13.018683792088087, 31.98234610658536, -4.277772964989396, 11.825814161027628, -24.95688839857429, 8.282231631423697, -0.23687546053435543, -7.601066702434692, 11.205766492313849, 1.2412153650720223, -39.230498080449586, -1.5516402383565404, -34.95216543234552, 19.026829513924586, -17.843711310923066, 0.5004636760914214, -21.82867264158636, -19.27576267667206, 2.718588436045687, -13.695668080518287, -19.734140173865594, 12.030138995244982, 13.208409714045356, -15.736865675545861, -0.3871597858392026, 17.006100370712247, 10.900427581080896, -31.69963466421402, 14.837304516411328, 24.008086279078704, -1.9924951472212133, -9.60868373102914, 16.664860819179395, 10.861043203313875, 29.22725643433969, -11.82679814172659, 17.35221377704683, 3.850383835165177, -27.920593496172078, -15.336209890719857, -7.355040532373791, -11.223144491445092, 1.0994948532403346, -23.701381453235086, 5.541077751713023, 9.073776436709872, 15.135868854363093, -3.119613989825522, -3.321265692004909, 11.952387259215675, 1.9859106035778937, 0.5347759614563188, 35.788386867561684, -34.888690607737054, -20.276269190697665, 28.64315534731304, -11.047097993573612, 15.429394080864467, 24.04919773915964, 28.554431060713274, 1.8078831095665944, 8.410729436553803, -2.6819137977322787, -15.84412177514973, -27.11604189290228, 33.4634875604056, -14.11582156358042, 15.392243250773593, -7.356749362408794, -32.05295453834986, -15.994490268663425, 7.051524804079347, -1.481798550338227, -7.072168624908649, 21.542229979508555, 12.529713200244414, 20.667622734639224, -3.9769211451751287, -12.209984795702992, -10.743108860569981, -15.784071192096146, 4.548169387546706, 4.307063237518786, 20.71006518795938, 7.486153745944147, 14.715380199246171, 11.909112303880256, -10.9207656239617, 4.197976948891414, -16.74023057365308, 18.279193076562798, -4.561687185352935, 2.5586940334468204, 2.2387126095608263, -36.353913884929305, 10.504103755830657, -6.690100347496122, -7.184427978074384, 13.277414358815331, -15.229552587088403, -0.7586171758867908, -7.754748654715768, 14.663974717917508, 3.6435997984143116, 20.786143849014252, 8.60058513190893, 22.971890294434775, -8.181219339674769, 40.281480098667735, 10.965465983571368, 17.170684596443113, -3.2343591572606893, 16.037800981237307, -27.006133381948185, 25.516062513040705, 2.0541773841204582, -9.932187833722853, 4.149302056936141, 31.346810976817174, -2.6731753970320695, -25.034702724399907, -4.269181898962129, 13.64283261260393, -24.49380798075619, -18.748248003579423, 11.836436465220702, 20.12372769969318, 3.537174975628032, 7.527481282340787, 7.021944199729464, 21.50300145123019, -2.002409268979861, 5.942680427458552, 8.906916900670478, -9.908220828458857, 11.955128856083379, -3.6601793755241014, -3.590479166355149, 0.13391627197436318, -8.203217253047017, -26.22079541844675, 10.945890005239038, 8.053384905469532, -2.6689314225196954, -0.2701008305212319, -13.99128362947697, -8.749799626353974, -22.876261110512544, 24.790848155587398, 12.545669394882633, 20.725998268513564, -22.34401250136672, -0.9942432042561853, 12.060837637118208, -11.902555661590046, 29.995366174003138, 20.41114567098526, -23.73615084397488, -9.118497554213421, 6.354161059144245, 32.236908036368234, -9.03171713145663, -3.9857948094647453, 29.37553453664167, 27.675635365850134, -0.4789359428510813, -5.616877331733686, -4.414047929652594, 28.295555823346824, 23.30965111311526, 2.7858355892727866, -15.253894946986522, 4.037898520925896, 3.705420687977198, -57.21558035837329, 8.916059695843474, 4.117307020064935, -16.48042247758116, 4.441166451332187, -18.1936375074977, 3.9811121226164445, 9.982148821008687, -7.336253169702579, 20.425722987504827, 34.180936436321524, 7.652670172397257, -29.594341476044573, 23.513380316762422, 46.34554765210718, 17.647353273013348, -9.463550763425086, -31.031884374526594, 10.59308798427517, -4.024899794456104, 1.9998699582474933, 13.032990182633974, 35.986790946394656, -3.26897338998993, -2.5418145448004283, 2.927694130677131, -2.6754859351750024, 4.762962595706675, -28.950036423445862, 13.894099214912206, -7.919054863736553, -1.5372018476677427, 42.425238169565816, -21.642761630544868, 23.51541816184965, -13.71858557871599], "model": {"hidden_layers": [16], "activation": "relu"}, "model_name": "mlp"}