{"model": {"n_components": 1000, "activation": "relu", "echo_state_seed": 46353, "n_readouts": 200, "output_layers": []}, "model_name": "echo_state", "weights": [0.08622432972050198, -0.0811022179602765, -0.6759438557696296, 3.8285432611452612, 5.968980716497532, -0.2278119385859736, 6.21079953008078, 0.5635251656806988, -3.431565276922245, 1.193363405887855, 0.06521130703248812, 0.6030294911704785, 0.7678050800511489, 4.091590665448742, -2.6082413978743593, 0.008523909354236636, 0.64922427275008, 0.8027296340609359, 1.707033270492512, 7.68398517831338, -8.472556009528773, 0.876153115609972, 2.728757859741946, -2.6699011033754587, 3.0536779090711286, 18.12637922163287, 8.172394528706771, 1.7324257732932624, -14.02403476904702, 0.878638195936662, -0.02942728850925358, -2.755349849704938, 0.23760146274209726, -4.590412664939549, 13.805947719930856, 1.2024359451337725, 5.264960807718744, -1.0449027869163197, 0.9713526943826793, -1.139223413741194, 0.9733388809305161, 1.40945435151125, 1.384434871300888, -0.038016703092952686, 0.4834917138333149, 5.113978701981661, -2.1653624584862596, -0.6003914622106864, 5.266244287370419, -1.0641537060365893, 0.23943618857512772, 0.35877371825466575, -1.0717318148425532, 7.4109855324537115, -0.5824922647866376, 0.32306137295718274, -1.4822770324780228, -0.5405855023682845, -1.9179603698049723, 0.664085387383688, -7.504813941930211, -3.9403310545805845, 1.3642903135355031, 1.5410121733969473, -0.47584224162257827, 4.9696514430409255, 0.4168833910028922, -2.7913861125758777, 1.4810526661878423, 3.4163741633075677, 1.8262040642744384, 2.02024653245636, 1.4345564471785583, -3.8391400827088806, 3.598219960449693, 1.700067162129292, -3.394470499033082, -0.43599729956444633, -1.124579850023902, 4.47016449177322, -0.5572225406992831, 0.4895089013461238, -3.2175061445282847, -2.5787747718863967, -0.03652476324701537, 11.25627810782553, 0.6267721073420464, 1.4663350123863719, -1.0945027360314485, -0.8343213577549237, 3.084020411461962, -10.74286584733195, 1.6734576966325354, 5.7362044219921025, -2.39693737485546, -0.39064329377332463, -0.841554955340805, 0.6135316504185053, 1.3341254144157015, 7.410149826465277, 0.272627989748913, -0.6684180956866821, 1.158752733664076, -3.8935304948931746, 0.9582612372120427, 2.271717629793502, 5.247300098797351, 5.036057276992731, 6.641122582406801, 0.20350244288991082, 2.67015866949313, -2.7388699628945297, 1.6689212296526872, 3.96076780591487, -0.8638006976511963, 0.5505066672963113, 0.3878642156979518, 1.273848291903887, 0.3554201183836716, 1.0175785358603835, -0.8098550590370486, 1.8920424333632908, -7.238492285650096, 1.8541714636918711, 0.17912264971965453, 1.5300103987346616, -0.9009496920101975, 0.010012272375706566, -0.021698705483110814, 0.9324963760017101, -0.6432202003106133, 0.32082626169175954, -18.237021500546348, 1.0324042018638102, -2.580412422712833, 0.5259608572628791, -1.5474877024718707, -2.551580712573206, 0.10489714917473725, -1.4437636259870077, 3.5731734837262925, 1.380038975023545, -2.6005485599049227, 3.497167626791443, -2.7701105847916723, -1.138321737052424, -2.0913499262086837, -1.932450167117644, 0.8603923786864337, -1.5994098689638259, -2.445873262491526, -0.2596066440078435, -12.983828815716846, 6.957448809250705, -0.3371718583615123, -1.6794178596019713, 2.3194865033733674, 0.18680383166383496, 0.38597040595243015, -1.5286867932156718, -4.490741141366748, -0.0036859704210523425, 0.8861877976167594, 0.9458903393845652, 2.7261398545789177, -1.791837082776159, 1.9939536962793625, 0.8539209377017671, 0.20530366870943606, -2.8571211899622444, 4.0213158635942445, -0.704704040534359, 2.8214762827356967, 0.7604187835707061, -1.6838853555560687, -0.8323967681712064, 0.5249326615200615, 0.19293246148395904, -16.655592053584652, 2.5356249385694687, -6.747912138716293, -2.392234684853543, 1.0247931953523701, 1.1165080303348027, -1.0009071943666747, -2.2440210154403912, -5.119692829383756, -0.3568814901639755, 3.5814901803159307, -2.0371846240667733, 0.12523469559969502, -3.2788662911471107, -8.467793674583874, -3.8546786255027756, 8.593503108851149, 2.379579298688597, 1.7864811952713104, 0.02768353368119114, 1.0638859497432098, 10.482948165447041, 1.312965893980882, 4.68007241171643, -1.86292425372369, 6.0248229385734575, 0.14829497220427612, -1.1234208811147435, 7.300514407828303, -2.7334199105373553, -11.060609578487032, -1.4356672952758665, -9.937290522314061, -0.8296041960718551, 4.29638157723349, 0.07862967913839292, -0.8807569272921768, -7.069422433949798, 3.499640486543908, 7.4445027219262325, -2.938338289621619, 1.6061567167091597, 1.0905668828751471, -3.87759644441098, -7.916986398441375, -2.5179627238280817, -2.6423091080979626, 0.3660431903463346, -0.36226194760756814, 2.257140273598158, 7.020040766956622, -1.3694008623554927, 2.3194241063126873, -0.01773558822511112, 7.072233003095361, 3.4055221199927157, 7.75173026853032, 1.928665390833591, 2.1916272640344725, -0.4875304085606331, 2.3559737996573853, 8.923055102079651, 8.220394622518091, 3.666546993369594, -6.529884615548639, -1.7564923963385706, -4.810105170242391, -0.6842197006053743, -2.206486366650764, 4.449565198218114, 5.584321053302128, 2.722060911034492, 0.5417847145891022, -1.475183636660987, 5.746884903272759, 5.096690466114925, -3.545015627364721, 3.2918815577437313, -0.36089660446911176, -8.660073550599648, 1.6006414156813609, -2.603231770235875, 4.769774703722717, 2.519831909010039, -5.589033038981221, 1.3875900755514323, 1.2213281147104715, -8.203391891673224, 0.30117687801962545, 5.051496645875567, -7.160344345819093, -5.806984639519092, 17.81464520922799, -8.067234187332849, 4.307908142123694, 0.8228651735747871, 2.034655303793031, 1.8180663437689482, 1.2080197778968738, 2.109081084408002, -6.102155244409363, -0.2319955009498038, 0.017724835541317763, 9.26689712890734, 2.2339725595887385, -2.8020389386225037, 1.3099432962097604, 9.053374141344525, 3.341729394696099, 1.7629951818200258, 6.58175698006225, -0.677440608873237, 6.794156042400629, -2.1085588809896336, 4.738113925175416, 0.2729298580490842, -7.108961233380125, 3.2665707012306004, -1.3813762498185875, -5.4987935936026915, 1.778783660831197, 1.4384713472049686, -3.29563637822691, 0.06042199250750713, -2.508894801836536, 0.9059124853842051, 0.5946945165796991, 2.849221350631254, 0.3625192452780055, -4.517512981841326, 0.575555018865268, 2.641637846679114, 3.7471970010267754, 0.6462211370331378, 0.719632170218238, 2.476581430635754, 0.9660641255405484, 1.8569419375639584, 0.4508258368223793, 1.4165016001793234, 2.3506782455162902, 0.40338822877103286, -0.25389833759754443, -1.4809490222592716, 2.151375553265484, 2.078389399959674, 0.6063028374843308, 2.510659419197546, -4.625039890685492, -5.2821675001415755, 0.9759438186869178, 1.0691017001138658, -11.433544653127736, -1.0693040953147595, 1.5742862943532372, 5.387096143782264, 1.1529244198789184, 0.7827933215031009, 0.46420529603225447, 1.217856482931741, 2.3774691563314545, 0.9088238530943387, 3.6933334300866307, 0.5498568943460329, 1.3189618249802435, -0.09858967465847523, 0.3154203429193082, 16.52077924762036, 0.1399869951020556, 3.891782060849705, 8.04618913818741, -3.265180601313716, 0.008280024821643472, -0.9026539618789465, 5.6440599340392845, 1.6494725086202928, 1.7755196232263657, -2.1913996496850556, 6.608401667907673, 0.9893474749688096, 1.802707944791933, 2.035902918784897, 11.418410348695048, -0.31587308632953737, 0.9148787661971687, -0.18804988274848267, -1.8940185753186645, 5.818419900129439, 0.3574450739811208, -4.869141489854444, 2.345114559204497, 2.5072159996476393, 1.8186235497122034, -0.42923766703368815, -2.758286610210868, 3.669341658629236, 5.8358762012562995, 1.054600055587807, 0.21404639260366742, -1.7526594576373355, -2.7098974496805295, 2.39463560096162, -1.855875784460963, -5.342313128430311, -2.9767463697642915, 5.8797757009912415, 1.356887153015466, 0.19705292218185289, -0.8989310742257215, 2.5374658724872003, 2.3644040251149265, 1.2803640940145922, 10.664663709302916, -2.2180948243357164, 0.2858885922053357, -6.969812123721983, 0.32850720640588316, -0.48098672679379906, 1.0049045111449963, 0.7314385528429442, 1.69199743490564, -0.2500650803344161, 2.0492724610259163, -0.2852737821725493, 3.329951936889019, 2.208511551431334, -1.8383457503277643, 7.1839047547849955, 9.221699137506588, -0.6464594162291497, -0.20632248547511045, -0.45160660422707377, 3.432730862610847, 3.893358020971941, 0.9698370250039645, 6.497858426536989, -0.921382298978267, -2.7425581399020764, 2.9556526191855967, -0.4660723444050181, 4.357557495879781, 10.024372081112062, -3.5478726631856414, 1.8247063270202681, -0.6179940735128626, -3.107148774125972, -0.1571232648769365, 2.6351358245744834, 3.401029234408637, 0.09850740351851739, 5.879171150648212, 0.5806918449989873, 0.05903415455083616, 0.16181043986095867, 1.3565923478304345, -0.008215115364283765, 1.0742829310610702, 3.259206237388665, 5.967032852210195, 0.709566992489572, 2.96103711493656, 2.3300590389075286, 0.8722964086363019, 0.9116800236408937, -2.503522056061944, -3.0465618023609453, -3.578709780968204, 3.1639198875572814, -0.10761320701938526, 9.570398238427757, 0.38924228880100875, 2.9900728162136674, -0.10777364424319824, 1.8425315107603915, 0.3011923339844833, -0.06672241598410678, 0.1358824544224171, 6.264613464144541, -0.35538152476145846, -3.1447068741066984, 0.5850119838475415, 0.8799187789126801, 1.1585497159091611, 0.8289143431588282, 0.7714100324071782, 1.4560118538931182, 2.92538613243937, 5.59156802579895, -0.4551489560758226, -0.8953973365387969, 0.9861798293141939, -2.1005431709337588, 4.185668176156381, 11.977980984243953, 5.248145752495478, 0.5312115963320746, 10.419189022146577, 1.4922730427115116, 3.1505343777626935, 4.42388922602595, 2.9130070665111365, 5.148556663100109, 0.7005547995090372, 0.3477898402048979, -0.9108230898789903, 1.4161394374951168, 2.968447538208427, -0.2660988515187577, -4.823508369005037, 2.1013942395277847, -3.610541560535486, -0.05619514193526609, -4.662155293020962, 0.8660981980108742, 4.170275874365885, 0.5850561910210168, 1.0571566562681094, 0.45061750485983454, -3.3896504202884703, 2.2308324352693485, -1.16613909571534, 0.906368165240925, -0.29140962351323496, 1.426067936122176, 1.5566364983125078, 1.2144578170138662, -2.729616378624486, 1.6346186290205424, -0.11234665618779571, -0.2731971766974556, 0.031053997225774732, 0.7371686973931486, 1.4173421867996083, -5.968245353926211, 4.570387476712959, 5.107107725512855, -0.35464774540446276, 0.45417947459241215, -0.8499806859187954, -0.9591232865497402, 0.748912498271474, 2.392298566746759, -1.5025634012029965, 7.423049309265119, -2.6233651816467596, -0.390746269234411, 4.859138647187692, 1.9381848576697036, 0.41340426071944125, 2.6454916409679057, 0.9552285959712647, -1.3204910494982678, -0.4823382722808731, 5.431929000816517, 0.8301143091634864, -0.5421218367329154, -0.9991852857788246, 11.290881115796424, -0.9130053734962917, 5.842221503200868, 0.20410491835303257, 2.4299181337558324, -1.650947591511114, 9.039033303249383, 0.8515867766610108, 4.433590842790169, -4.892589476791357, 2.175165001951494, 5.673619669531985, 1.6543231984274556, -0.4660020254675471, 4.395495041110504, 0.29488227006062595, 6.022803821613926, 4.572917657696198, 0.23244991731401576, -0.7754769654448902, -1.1449097427741068, -1.3180681108733836, 0.7432812102368457, -0.8231117517651279, -0.6095341177196534, 3.244546719641098, -2.2111095030398253, 1.7691663764935281, -1.2138566169367, -0.44202792010525016, 11.068781154285393, -13.904854254262208, -5.7409575842924285, -0.4155453607914481, -0.17719822708370492, 0.03902943696039629, 2.447954575439973, 5.504131521303073, 1.1660017909995952, 1.6612284025909345, 1.219138236262625, 1.7374268673255853, 11.336631393014859, -0.13443813715231334, -3.8811977694326076, 5.375088332961035, -0.032283746801016644, -3.210444376796631, -0.01343672358157555, 1.5063806645026334, 0.5740326516399193, -1.1649771905912905, 0.21376474173825188, -0.06488545545184576, 0.8359040311558459, 0.23539414820551308, 0.054625336055558305, 1.1348425130147954, -9.848887329296282, -0.07848903332747992, 1.1429588864323286, 1.3685244085719381, 2.302344520808404, 1.6235822712618702, 0.1268217320688082, -0.20151509036155524, 3.889804954084013, -0.0926366751886597, 3.618611151367986, 8.593245715173856, -0.8508730612052091, 0.8469339060730575, -1.543132843405464, 1.0131563348090848, 1.4181280351180372, -6.418212108719773, 3.8930521373871096, -8.964330232901403, -4.790081339804541, 1.8279994540032423, 13.588783532678315, 2.448274710175067, -1.261215186031643, 1.0600722929924487, -1.1014140728097432, -8.43806955241008, -3.936397334392781, 0.7335578487460652, -1.214578529843024, -1.3049956698666345, 5.541828999836991, -11.301964700503826, -0.30411410397106775, 8.590132766982876, 2.9045047339815078, -0.5018200297109514, -8.476088704172248, 2.8996378043617614, 1.9514443036908533, 2.6122098235465248, 2.5837783142425788, 6.634858295719614, 5.399153164543419, -9.163533154937092, -0.1133812177469995, -1.8419329597128735, -1.8266355979491935, -0.38165899690363414, -2.7513921417983376, 2.0558594270684836, 2.971932003739227, 1.5710816317656748, -1.5902764011309483, -0.814737866315914, 0.19453152967458787, -1.2568741404238488, 1.1831764614784586, 2.4633551411754357, 1.2524089875292366, -1.9793735406599144, -2.9148335186888885, -1.7559159848365762, 4.323386313688865, -3.138585702572655, -0.6820545702489198, -2.99133803811567, -1.651769545344977, 0.796893116881439, -1.0991258275685545, 1.4010767739380563, -6.943490685909524, -16.80490584457271, -2.303602601768006, 0.1553521050448805, 3.3911204835829, -4.2912268387264945, 0.4229783729697305, -4.977031031319839, 2.9272735407077484, -0.9920016770477154, 0.8280939411290177, 1.5912420549724655, -1.557834289684861, -2.923642128159547, 0.690895766094104, 1.0825799761233181, -4.369899763978773, 0.7534929443451449, 1.2022926016075042, 3.434257637358676, -0.8361985681252331, -3.162100787928485, -1.4727155290706733, 10.640892043922118, -0.4498058398092948, 1.199551427736821, 0.08538071017290538, -0.05092998134828619, 29.70033987161676, -0.16109447355719864, 3.3021012414539817, 1.0690023537044793, 2.254353227229969, -0.11019412232961001, 2.0303455913752644, -1.0193169034557514, 1.5550993951517964, -0.1981001692988562, -4.294816303565727, 2.13026175171017, 0.4513221593715091, 0.3923931607405604, 0.6178891278839401, -0.24607027292168582, 0.2572656047180081, -2.3733608856634847, 1.0581903477231727, -10.565266151025256, 8.676142950738281, 0.5613313328835494, 1.5445186766426355, 1.69668406488083, 4.886086359355753, 1.9922974427055495, -0.8877759942957208, -0.3158427375610273, -1.6909307184082811, 2.303052557800218, 0.7540860533629388, 1.7849854825554758, -1.4724949445088193, 0.7454090922681642, 1.2483369417776555, -4.059260888261624, -1.5661954901949455, 0.7716428846030015, 0.52214028798397, 2.5835097956574877, 0.6821118372469752, -0.7324099818860081, 1.6007735914546417, 3.9045226456378894, 12.851256396670784, 2.2437125316457522, -1.504648911591737, 5.802256466354316, -1.4863077453924092, 3.939259127143211, 4.934231213141907, -0.7174661589282636, 0.9957456488292337, -4.3328432392783665, 0.36370634557891224, 1.0570950962399857, -1.84662167130536, -1.899195322311257, 0.5472982390207757, -5.927446199842635, 0.6865636593055624, 2.0132182751425107, -3.6236040161844985, 2.044803021954509, -3.240330566891041, 4.331521447059069, 3.18535775709085, 6.047119848980429, -4.2598066444291165, 0.6598739104221565, -3.19377279718742, -1.7430244615475072, 4.4873283133927515, 1.363823919647333, 0.03250144962232693, 2.777195581502434, -8.749149100329152, 0.8775594800620656, -2.3228330674812474, -1.1827171797932854, 4.98038979247447, 0.07136747339474314, -4.259836763993972, 0.960234147396203, 0.7498395004346334, 4.748366076750613, 2.6095458626065726, 1.6096847845337914, -8.161459400173294, -1.640131087115964, -4.056460521714081, 0.4120918152909593, 0.42356896389164544, 5.036815493194888, -0.684037007506352, 4.407568405018574, 23.868711035302297, 0.5120956584494922, 0.2318172363785047, 0.4582976605670631, -2.1363632766560663, 2.4854122115703516, 1.068165344807327, 0.20450933429804596, -1.6371545180913607, -1.8280441247637644, -0.555144220148819, -6.7172043765216625, 0.9250078852768254, -0.7464861905689457, 1.8944335567399642, -1.7412304770410834, 2.0238645020373283, 1.0359702105789177, -1.6866852311262168, 0.3418524708927705, -3.818233845451958, 23.258174257494673, 0.6410737399138875, 2.6167120440088567, 2.1240552564208386, 2.2303021619705947, -4.380555676272313, 9.470656138820475, 3.246120337750088, -3.5014326503524886, -0.08918137360360223, 1.1991376241153353, -2.6912942282835237, 2.100155124540655, 0.47461261284628997, -2.3723396401000088, 1.5785447550451166, 0.3266949687856364, 0.1913558544095002, 14.532475492756674, -0.12919381441777633, 0.8875973052320777, -0.06147153363762381, 3.4787063539582546, 2.28050245844084, 2.2075227318746378, 0.15220012277335238, 6.776654165410327, -5.536145396893553, 3.880186426328711, 4.392970588457048, 4.413224009680694, 2.555061787283578, -0.27534063955092924, 6.6477508494858615, -0.3269890695767267, 10.180765802927075, 0.684169440559234, -1.095728834580754, -2.2232205870492017, 5.043434216822206, -16.00022537984799, -0.22081081821584836, -8.313201293823983, -4.285758628923508, 1.5079576851172574, -3.622117867721948, 1.317151077082897, -0.246542061046924, 1.2856181591946456, 1.510785081016325, 0.6278418606136106, 2.2501173280114477, 0.8969123336899396, -0.6819097360726003, -0.13442771248226637, -4.455860289166914, 1.1877567484544929, -0.893831696927557, -5.763032647234827, 1.8614617090902885, 3.7597740294700785, -3.9842414977257086, -41.690873849911014, 2.127027996034257, 1.9174344969243284, 0.856899355582712, 0.7250445699945408, 0.8973701252101292, -2.9362423203662167, 0.8573754901727809, 0.8899809560392629, 5.572234805486194, 0.5709577972499599, -0.2134457474933923, -0.224566639706699, 0.6116339484940311, 3.453134271838839, -1.6137177016638162, 3.1303750070290506, 0.11800513929235346, 4.334768414764934, 0.21467342339549933, 1.742468745833029, -8.859317590450114, 7.775572935260134, 4.258834443861674, -1.846405930691064, -3.637709415602242, -1.0894263308681533, -0.6550186478154796, -0.8067535603189867, 2.3363697493905056, 1.1578519493048096, 1.6171507852153486, 0.20720855785401504, -1.222842501423627, 2.810820946913347, 0.14831316047762444, 5.878045456996129, 5.124712972698492, 2.5479520463796637, -2.7505431113040304, 12.958046400968238, 0.24126918671793474, -6.880306433109842, 1.3927744972431868, 2.341937695777034, 1.3455131722911293, 2.0590056631287847, 9.417882896230141, -0.23265715080402616, 1.4061395374344916, -1.1550190382261651, 5.629514715405095, 1.6575544625638101, -3.0196307664726683, 4.905986025120749, 0.026205817917480556, 0.8853976115647275, 0.04684156242123838, 0.6550833322685734, -1.1327982511863004, -0.5468068944623372, -0.611459858456356, 3.3932301781739387, -0.21155973138071527, 0.5778598834646279, 0.059398580496738074, -4.517937165583344, 9.675417307770203, -0.34425008142015456, 2.154712488025932, -0.781622662225918, 2.1407044437088425, 0.523087466380168, 1.5893874171801583, 0.4857699591428475, -2.689376620396185, -2.529000449535486, 0.8649641681214243, 1.0202595640342347, 1.3489383757044515, 3.105455142118008, 1.3136372406498404, -6.102201987228192, 3.5947335710500408, -0.7339437671378688, -1.6606192695992885, 3.1414085236037623, -2.267542440384102, -1.349994704322994, -1.5689613588244236, -2.685017885532475, -3.749947429045825, 2.379501842066631, -0.5114125101125915, 0.22993002559303277, -4.421982711048096, 0.7485948043637214, 1.1071327561276436, 0.46626579750242025, -0.9443131178713217, 0.4049558438125801, 3.7324622081117855, 4.393891315973062, -4.605788333297064, 1.0412445294493773, -9.037706810281952, 0.37742309370942184, -2.58950504802804, 0.29165484967410205, -0.9381387448979916, 10.049669921710771, -4.19453685925571, 0.6435450250730245, -0.21477330375194248, 0.7692245723654453, 2.711738307684856, 0.3375036176880297, 0.6989826076019897, 2.016110703987497, 1.5335796941078632, 1.6748893127425992, 4.266889765950543, -1.2080338212907802, -2.5345587816853943, 2.5447864974354744, 4.682438354082059, 0.16015568092632515, 0.2490769265676933, 0.10913234615776812, -0.1480491660530624, -0.5953829208741658, 1.1747999673308138, 3.582364791922019]}