{"model": {"n_components": 1000, "output_layers": [], "n_readouts": 200, "echo_state_seed": 56422, "activation": "relu"}, "weights": [34.368478026090116, 1.288701992295587, -1.5116874679109933, 1.6613596073630446, 11.476296067446297, 5.648676979209135, -0.359121784373994, -2.276586231018751, 5.920196636826624, 0.9029995558544704, -0.033367825012510455, 4.194042543779993, 5.0048708648966995, 4.068553128044763, -21.898932697774782, 1.1430684150219808, 13.923750323386763, 18.863550729565464, -0.8180785069934157, -12.103174619834492, -9.281557884028665, -4.620277197274601, -2.466460724043287, 0.031064689454599947, 0.7890284504999245, 25.37864617482459, 9.04681384646245, 6.748382901619614, 0.40011397303846197, -0.8196663036738974, 1.6414373490194007, 6.805571954052455, 8.777656106201857, -6.809928436493457, 1.1102387137986207, -6.959670168207195, 2.151620246255545, 4.004347995069502, -1.318691546340812, -41.07404591738154, 1.3495284925506852, -24.10127014418231, -4.564035989966407, 2.1071370029246417, -16.898647974653212, 1.0039937174322917, -3.9934986128226875, -2.8679134802430117, -47.48915643044563, 6.948333470388549, 1.0135857025095891, -4.420951611493576, -0.7788759454306255, -2.319282947406328, -3.689042390536797, 3.5071027173515166, -2.111897596516592, 4.942103048394618, 1.710466984216417, 0.5215755937883371, 0.6760926094180837, 0.5216308712719433, 4.047959475858948, 0.6050562282353595, 29.86257383261749, -0.8054305476998644, -74.60820743984985, -0.3958748912994412, 10.538009161295216, -1.5765615129470083, 11.609703206028737, 0.7487102005572043, 3.5348823012983233, 0.6660483534859067, -6.760587840001351, -1.6284770373021624, 5.6191987868016025, -2.486768344360931, 0.2251175285577367, -0.6889176686494114, -11.714724559791124, 2.851450955918746, 9.384350022563224, -12.02011979492612, 16.29035024938217, -0.23626380066329666, -6.251836217961269, -1.6822077219513898, -5.728493112819472, 2.0044596492695796, -0.6052737128707493, -0.16593629346803151, 2.726195638046008, 15.107447797392485, -3.6691827791563956, -5.7468792242570785, 0.568749667485636, -1.8773662422326376, 5.356533612866269, 1.205436408830133, -1.545758974914033, -0.06219753231030334, -7.061488238433663, 1.1774193642640778, -0.9902842161202735, 0.747136829971971, -4.644354397692847, -0.7514887856138517, -3.9267562659331743, 0.8056051775180288, 4.6854919659812095, -0.64931377804775, 8.333011768464484, -1.3974120602692865, -1.7832129292609702, -0.19732078772065775, 6.300502940464511, 4.015114061477718, 7.825355078397993, 7.826920908332401, 1.1028368443226515, -2.295876617599765, -16.6059647195765, -6.682628645701307, 3.941332290210571, -1.8800842828901558, -7.766463678710899, 2.5374911165221956, 1.258534776307736, -15.917902433513863, -11.426862818582917, -1.4309622708903782, 3.989070944724924, 1.787478185791612, 5.589315318967396, -16.950806887123367, -9.539614089956029, -4.073130709911993, 0.7744028696141315, 4.986200977257552, -13.723438196103611, 14.262915770291668, -4.927789285800541, -0.029317838105153315, -3.17720126225336, 0.635183535912359, -0.0019834720567684094, -1.88912462215741, 4.829561100518081, -1.487038927210671, 8.70351747332396, -17.451337291018618, 8.858802761411795, -5.730312523253467, 0.9016111898123809, -1.7335937073584795, 0.04432519591125261, 1.1370015358137369, -18.476112504161264, -0.5993810403486535, 19.83505020624777, 14.266837426094389, -1.5433933022476818, -0.31453222549392446, 1.1370211217813186, 4.041544807207826, 4.023005291183603, -34.28701074721863, -1.0998313627562348, -5.149802368323443, 1.7139686024347043, 1.8198841691010395, 1.999772829934333, -3.8540008850103753, 0.301193869819785, -4.263060796136657, 18.43188846607603, 4.39445076432983, -1.5698321306102132, 23.87366700849626, -0.37021968405854455, 7.197978381729303, -1.2664853322023992, -2.0951365820388457, -1.930747067548578, 9.818441264430167, 3.585741206401993, -18.571172122065484, 1.1414967442683817, -16.471203962668238, 6.986179008418332, -0.8122271777331006, 11.801663742722408, 11.472934535933115, 1.5882803115841932, 8.454418439955193, -4.418672217025171, 9.219064668913301, 8.685275038400704, 1.5200087427567779, 2.649292370871253, -6.812268922489239, 4.306364292958334, 7.244119793235296, -0.3874933137969221, 6.348025232542191, 6.938488444085815, 4.847211469213603, 2.8101559241194405, 15.64299189837634, -21.981143574340674, 2.133549890334192, 10.000885873965773, -16.77252616857385, -10.512912143141715, 2.8339322295086298, -10.03099078503828, 1.1050950893861509, -0.2104251959789839, 0.954967166662632, -0.3293306182534258, -0.5907550050027264, -2.0948916807477254, 0.7933876096839328, 0.6815444227960135, 1.1850466745407024, -5.174110476636328, -6.338090003129794, -11.7196610255783, 0.9569746110133532, -6.788572958577217, 1.5973285180189776, 12.837456531913741, 3.526307393242246, 5.200017603470317, 0.7282013468977562, 3.175251001595057, -4.126688986309205, 1.800929635843677, 1.6723326550478659, 4.00388346164849, 12.140506074847828, 1.3025751653528004, -5.87514927024628, 3.420143911487049, 1.832187805766535, 2.1008573564262125, 12.936868506274847, -2.6992701110724004, 1.089211464310929, -7.077675970967418, -12.649602188076653, 3.970574253345284, 0.49742679224322717, 2.3422103696219936, -0.09237656088394153, -0.1875512782515446, -26.548900911106408, -1.0746452192853515, 0.41738712770054653, 1.4915520913404157, -3.7452208761814094, 1.0923030706145325, 1.1703990910700792, 1.5119905136221472, -8.893212102456046, 4.733563207354486, -1.6243342849412032, 1.0625364912558009, 5.445713027394697, 13.808818505124162, -2.963288730104249, 4.994069338109547, 7.544706298529862, -8.597345358733556, 3.2353605366291966, 1.6330201410516714, 3.125919354558537, 1.8666804985932441, -11.867812246090567, 6.73638831431458, 28.800972526895645, 3.0342828206855543, 3.8832617989273737, 2.7532312587107217, -1.0922499486644301, 5.929375005245614, 0.403734503896214, -7.428579261522279, 1.7224507844575037, -2.776898882514889, 10.512044961603284, 12.128991990755019, -3.467048598592025, 6.075843522638557, -3.5154316202703515, -0.22732681554513157, -1.253102207365414, -0.43090129852886105, -6.5939792030007265, -1.0890568768674942, 1.5648540187027735, -0.4714047075165362, -7.904749060305878, 0.3337376061973467, 3.6649487368520015, 4.915160174641618, 3.689800431717716, -6.487118809309842, 5.438015603917641, 11.329511565602488, 7.417993509228403, -10.268147980986619, 2.759538483452837, 7.046925692740886, 19.06730785438075, 2.4302123660390023, -18.350289776604306, 6.466000512567658, -1.1877077046769582, 4.5722114425859886, -1.1073655522154846, -20.929146428581788, -18.261714354803935, -5.292602556143297, 5.843118627240814, -2.9693251273259853, 29.31852027800137, -0.6879847324663497, 9.684775283000942, -0.6452866757533822, -1.8069311358871012, 1.4479344521828255, -1.7936877238991387, -1.0507168104926836, 45.691831891374825, -5.4725780279148655, 0.6783710474872231, 0.09182921720550663, -12.633122476492291, 21.74346664497395, -5.821663916242027, 8.634082081224172, -2.873015886370043, 4.459079303159625, -3.8247629567893995, 5.486086435030179, -4.286908843060136, -1.6550812640729236, -10.377676870643764, 1.5127965085910304, 0.5291118522203414, 1.8527182991913969, 6.071367686470399, -9.726421482874215, 1.8648649470388996, 1.6734171331237047, -51.3747182005569, -2.658730325110163, 8.691978269454609, -9.747390789250048, 7.316290328496307, 3.1059347843127734, 0.07808266387898921, 2.1371903891654753, -5.640965003435033, 1.6729193616609797, 16.940890455643633, -1.5618820263851052, 0.3133348942774621, 1.6996612311198973, 0.4543741562935193, -2.9749580170051293, -1.7024211632892907, -2.7507665522995577, -2.590682612826143, -1.8502201335919253, 10.858548431948936, -8.179757544513821, 1.3520653097582707, -0.33279596311316784, -1.364806237811575, 0.5643177254172596, 11.119093275211785, 0.43018236842048996, 5.327109851878951, -9.657719546303765, 2.235884620377502, -3.955032312011304, 4.828440521836244, -0.8385066922904211, 2.974071297628181, 4.273196749407938, 3.7758169443781826, 0.11072111698875298, 1.2451130817452865, 0.7288163638076308, 2.7142688765369316, 5.463834344710991, 2.2903348437857662, 12.453878519818364, 27.681117525815505, 0.25957713381850467, -1.7429219820888213, -2.4152119189576555, -2.38240667778058, 14.435940514973305, -16.8793979707203, 0.9950536506848087, 15.199846404966685, -0.8225539777814821, 1.8054533551289351, 11.134827589581596, -0.23454815431155462, 7.219797280469512, 9.548555192242123, 4.780008443620914, 42.52448747078829, -4.637700511961091, 6.995127409323269, 6.5802860671803565, -0.8644741164827696, 1.5460658508275897, -3.574123877759468, -4.639768608478593, 5.686932723099841, -5.0237405495497125, 3.973228327141482, 2.875243435867724, -6.155749883733552, 0.7624890675129318, 2.8081173938474686, -0.21538826717892978, -0.6048154651343921, 9.886789395946536, 9.736247516291662, 0.5830925059794742, -6.660987732734226, 4.7122103456262145, 1.453419917412725, -3.1808651818869933, 2.185265139083567, -4.041585447537766, -2.9063229620885718, -2.358240600513345, -5.021840286929644, 8.290293277609436, -0.3724662172309098, 5.589133633436706, 0.362082188929163, -1.3122807463918538, -31.05944713219003, -8.691592175427559, -2.2573606473845826, -16.555501737264798, 6.488685828516597, 28.44053216033599, 0.8197555410477417, 7.389064054660591, 14.04878796817697, 0.6396604501168757, -9.191152940824523, 14.752564475862723, 2.781987160901476, -0.16356202956534582, 1.5411780333965148, 5.055583834633456, 6.938333813641454, 0.057741051869173776, 3.0627361404693643, -1.6374054009086785, 4.177368982596529, -5.252515017143368, -12.703396241374161, 15.299944071969968, 1.5617433315421505, -1.6218789440789632, 0.12411106277070694, -7.760351642200187, -2.782844196170937, 3.692091147225743, 1.4774772945849748, -2.2736806129888016, -9.375685509521661, 2.0319604325199254, -0.4831028598553764, -7.2232389515344835, -0.1236448146369371, -12.231544706532462, 8.111782165626067, -8.881637225770316, -12.912908853813839, 0.5299680416981405, 2.153968815303865, 1.7381049939913313, 7.61156571651148, 28.693140852790055, -0.386495552312498, 0.9846106160120451, 7.105318518051211, 4.555380613600066, -15.81303962908258, 2.637239782134011, 10.978852845202432, -2.143837778176833, 0.39445283023268907, 11.17173153484769, 4.992518706000085, 2.5277474708475265, 4.490552408149643, 21.819228183660172, 4.560241227920441, 6.050112230103672, 0.662222922942445, 0.11968122496114375, 0.5405806766983332, -7.311624829229826, 0.5180388194779746, 9.49957651623826, 1.8982947784579118, -1.2647225751868594, 0.40357419904887093, -0.21578655716752015, -0.3732968936603811, -2.705419676412297, -2.777292315255208, -1.5327071263345995, 29.739848060636895, 19.834384852830922, 7.876011180836228, 4.686274711054834, 5.489676734375597, -1.242367428763413, 22.642729761044023, 2.6732681626256634, -0.6235467675911346, 5.774694384006367, 2.0881412795429037, 29.113264601800196, -1.1493312851881097, 23.26572130712392, -11.889905669339706, -0.6624021867738475, -4.561368896749498, -1.0492050237319104, -4.942121600684257, 0.6680510225888134, 1.8694563358369476, 10.268739609764648, -0.828858593327916, -0.314444606303236, -1.4864317882584803, -15.033795777130273, 1.4141872652746281, -23.153709082074478, -221.24290392430265, 2.1124523256713816, 6.29764608807952, 7.2415654183937646, 2.8867567873327364, 23.770558869961594, -0.4935074568026955, -2.264029385053955, 0.13339746466403568, 13.896474675931021, 6.923302819115436, 5.493383762767216, 2.154892030493737, 5.034770335136203, -0.8523392866226698, -13.18140446576006, 7.26730100799565, -1.3987519556795587, -0.10411994193089624, 1.5806408330961816, 25.645360900055085, 4.130213476161829, 1.7942924831148168, 0.28210306210604896, 8.257759921142574, -1.1046561203523233, -18.602582547429925, 10.32410271286238, -0.2374097269194011, -1.7566958500570047, -0.8155126990528984, -5.910718895394792, -4.543757425386045, 3.556400110184396, 1.7639430559992535, 2.131635008698958, -8.609276211442118, 18.651354835088792, -0.5946184845813024, 1.362188712015012, 0.9429597378000019, -0.4548768763248119, 7.499747677653139, -0.5254703732873266, -10.470470744089418, -0.30075123836547624, 3.9694262685859414, -2.3910518762916952, -5.551516564532811, -5.8399522083357915, 12.12221036369741, -10.855716623585584, -12.337361845504887, -5.159254678299931, -1.317558304396405, -3.7661477689656953, 10.003381943004975, -0.981667932498134, 8.283731345905993, -2.3318875382307973, -10.015435742062618, -12.485362647892883, -10.412048127946184, 30.11831162513768, -2.721885821004568, 9.435923583271268, 1.3638282093347516, 2.436359730674954, -11.902494967587234, -8.052012057166378, 3.428095537195852, 0.9756184971235362, 9.571215873073847, -1.2423754867389878, -0.3381765977453277, 2.266425929968843, 13.427818130863916, -0.19693898795374842, -3.3554506524403562, 0.24588531153222437, -17.67081358660793, 1.4167265206401565, -3.436803129677008, -8.174449378929161, 14.605479166018306, 10.421740779475837, -0.10647526893213821, -5.684195317341627, -4.5550911999226535, 6.9851107830294215, -9.795194720454141, 22.85985263130804, -6.124930358802715, 1.7135520628902827, 1.5809220980997578, 1.1880028316762328, 1.3738234690003868, -11.774463174176795, -10.451914165262657, 1.622259009008272, 13.185805893294456, -1.483095210428285, 6.5146872444563915, 1.1441726821314875, -0.31071540488974403, 1.0001126059668022, -0.047945229667552436, -0.4010255169405875, 1.834057384548223, 2.578203663352568, -5.348375504363622, -3.513129193369724, 1.053121318655005, -6.034330502123093, -7.344211272634623, 3.4301952935119284, 0.019517994182381537, 1.6122622143142822, -11.396098663290578, 3.2612009481469055, 0.1865799014590097, -2.204910646477383, -1.0567367409890256, -18.146046328366218, -5.365681575527498, 34.38211398500644, 0.092776781251531, -0.819436199829491, -4.296809004265761, -1.5813230842450505, 23.003746374316183, 0.9705469634465802, 1.4419779066024905, 3.914999530690303, 0.7559777377191081, -5.515406465514859, -1.4190870727293605, -1.9985399775830912, 1.4755878016573278, 3.711034907119969, 3.5187991359015673, 1.545523200973038, -12.210533447912308, -6.280926482845195, 1.1033525994347988, -2.6954349353959253, -0.5559457982532869, -3.3263086803605253, 6.982030535724519, -1.8224971536783614, -4.825528098751452, -6.320528864125142, -21.29922736043326, 2.464969769861771, -5.7917162428013444, -27.291429452298736, -3.2591458110120186, 1.5516880593632933, -1.2727323494070362, -6.082902212922775, 12.10130844947371, -7.476428253746596, 1.358692663223141, -0.5670291898683227, -2.2213104709734304, 3.2231137242045156, 11.122060893729996, -37.81107836346272, -8.201478060060223, 5.352083942640342, -9.550444618413064, 0.7150773041535803, 0.4049126128284657, -0.7057725948410853, 8.709287475827615, 7.429989790211965, -8.647479530607331, -1.388000789323442, -5.063247787037893, -6.302782544223499, -15.406489205698934, -1.1981002742922544, -12.771301551259363, -0.02884207745276335, 7.120082332374718, -3.065503988772927, -6.115887642861173, 17.429831505057575, 3.247180296006345, 7.818221161963576, 9.510795498230236, 4.616372215687901, 22.422136555830967, -6.030318956096696, 1.1622774483283196, -38.45516207574366, -3.1946350049519836, -2.2858739084898874, 24.051619453751577, 8.990466172849416, 11.272097598125852, 11.153467261287922, 5.010738387010456, 15.30250909660607, 5.296547374042169, -9.21689076530319, 2.8516068864135597, 3.6013712269158633, -2.6584717628396706, 6.4909915858817335, -11.911758816152119, 0.776410240352934, 1.7773466455630142, -3.312016676376299, -2.8941680065285604, 59.17673672926731, 5.590033025967589, -14.59752206297265, -13.788357315619256, -3.920865309230245, 2.9136688158343493, 6.75128696372947, 0.7986976023979766, -2.4070749932548585, -23.084980898951333, 10.572819878802523, -0.4250600524244661, 7.277046521232814, 1.6251561063672735, -10.852282151230995, 3.705637886299436, -34.44990403799038, 5.200939550541074, -0.1457478748308163, -11.028516710288903, -31.081568548788134, 0.7009400249247774, 0.3080027024570562, 6.419510909173724, -1.6565809475515136, -0.3661459686396382, 3.3979940555597636, -0.8949959586032601, 0.7601013000038135, 2.9989300314608744, 7.620144345993482, -10.73872053799911, 5.636186915710446, 1.4863651872765489, -7.156275402400894, -16.720256977563814, 13.350550317950674, 1.4853463715051147, -4.845002385552219, 1.95252117088667, -7.162188623996714, 3.3697433825240277, 1.2387203091525838, -17.902306169095212, -1.711787056945725, -2.5038808837496918, 0.8585698432265522, -3.260133772979163, 0.0836852169056681, -19.990120835215173, 1.1356860259925248, 5.75483674097388, -6.987536227063593, 4.062429659452601, 5.784598426691616, 0.9610982611487657, 0.37306554727696395, 1.6382270170492543, 0.9627564257326494, 21.445935378910818, 0.9115964861175327, -4.27986578836038, 0.30498119095793264, -2.6504209371709933, -0.7792420220063443, 2.156130247478976, -2.2126946346305765, 0.2408243089627513, -0.1546854601001484, -3.1375361325480995, 0.20872358852344786, 2.6903712021235338, -4.022557126313201, 2.973956981091116, 8.84496767682294, -19.541528481512902, -10.220923622619896, 3.993785132848154, -4.352531364286811, 68.06448212295828, -41.69914758710601, -9.035714161617136, -6.32388334441213, -13.495605389244375, -4.013600516294051, 2.0022335651851315, -0.6542776161337985, 4.401539218399062, 5.352407838749812, 4.766286681398176, 3.139777349729526, 10.258840937447246, -0.896061029959679, -0.5628087985396982, 7.444720267260578, 10.65377596678369, 0.1342423638920689, 2.7040329367650173, 13.869678487360943, 1.7159868453372864, 0.7217167193407258, 11.496533016844568, 7.953642513082239, -2.019867760839647, -13.161434658437042, 5.140209139398538, -25.833623641852228, 2.115082474693236, 2.8939856682379617, -6.661423058172264, -4.662939368051733, -0.33731053960595336, -6.883539906351741, 2.9461067231639735, 7.23605046635543, 1.8521050135262787, 0.3664313868691488, 5.67221724198345, -7.9534622055507285, 16.407426362426037, -1.455095743008402, 0.20651015792856653, 8.193779856876656, 0.9956268211992729, 0.39793393107007236, -1.6473498054228737, 3.5866774742687992, -0.5948540990246389, -1.6633875573773156, -22.300926995247675, 0.5872378841261963, -0.3553042410832705, 2.1925833073530416, 2.5455755998054377, -0.2735967680127569, 0.10143702930707454, 4.648528262682149, -10.504493691573545, -6.82690681792028, 7.316488819289402, 0.13010992818954747, 9.288906936431633, -6.852248387401801, 5.397489927359866, 3.6434964589194387, -3.149062674466493, 4.870582546106206, 3.410913514374032, -1.9399199025459901, -3.463023213578347, -3.268637627638644, -12.65689545856879, 0.18473961016671958, 1.0114527493347043, 24.92678147165164, -1.394278316553002, 9.03904189627694, -10.9174200369533, -1.5199246928344696, 1.9914892464690828, 5.835847113330921, -15.662305660504662, -2.1442738891495696, 2.227635036936917, -85.82169503752257, -0.23503798047994584, 0.8268171649435404, -4.378015201694044, -2.9091930855053274, -4.695134439031239, -2.628363634043321, 2.7840868975085313, 2.583629393540748, 8.099296032036177, -0.665449744368208, -29.00022695088838, 2.2147359711189725, 4.492933545493992, 20.112070349430322, 18.88937440658784, 2.006123653405747, -0.3532956800280975, -3.2631830597319644, 4.343797049068871, 21.15334385529887, -1.7992918865721939, -13.54741889041176, 2.6027576335743676, -3.2059295638785326, 0.0920974277905231, 2.5847696205342587, 9.673597605071627, 3.136014374591636, -18.061002492500002, -0.04510303621649381, -3.504287007670132, -12.868929337223626, -3.593765376725746, 5.055313214028313, 0.30658534497005985, -0.6865031330313573, 0.4743261366596596, 3.935092544495833, 6.122960008446183, -2.10142992989553, 4.2963080514888565, 2.1554611713313565, -1.1301812614960367, 10.733587738946431, 4.931749757441223, 0.11661373116825047, -3.737815953885595, 1.8816652214103051, 3.4519962697114557, 9.14070841221553, 0.8803115198366754, -20.18794353796983, 1.2413900727748135, -1.804154531701938, -1.1195908407532942, 16.58356423405614, 2.2997229399546235, 1.3210209589925166, 0.44133117205044636, -0.7276390318697079, 4.171601073503099, -5.476472082035132, 3.4408633937603668, 4.267613055579915, -4.56432790845156, 4.751841924647826, -15.9231893957452, 7.063947285161635, -16.188393779099876, 12.019812996258468], "model_name": "echo_state"}