{"model_name": "echo_state", "model": {"n_readouts": 200, "output_layers": [], "n_components": 1000, "activation": "relu", "echo_state_seed": 14689}, "weights": [0.7376798849813756, -1.9034442252437256, 1.924668988756733, 0.1907007171671602, -0.08513750300158862, 0.8425897533575132, -0.8055216457677873, 1.5738711837325843, 6.7384455387408915, -0.766121965411946, -3.894151996823809, -0.6158554591170047, 0.7503480644685967, 0.4946454554802442, 3.293059460276193, 0.5545544792922, -1.5333863435947357, -0.4257766592795619, 1.189844305651028, 0.27677391708175036, -5.855209277487272, 0.03760096632108789, 1.0073782221584873, -1.6760265430116044, 1.6802155554177292, 0.763819118189265, 0.07871687545948469, 1.5082211747559207, 0.22696014166899592, 0.004987484462303349, 0.6508068365445414, 1.3166531359867004, -4.510384749625908, 0.620934530210902, 3.498641939175444, 1.7223518929746602, -0.8030971913633403, 1.0097721030498934, -0.1180530885118406, -2.401034864212207, -1.2726578060219969, -1.223555574243018, 3.3462685706870405, 0.7711496207999242, 1.0575057123391454, 1.6407661037690215, 6.895512442004411, 3.6740705532564144, -0.08104526511591459, 0.38259124241929277, -1.453997155906684, 4.0650036182113, -1.203657360256698, -4.649439690934827, 1.2681113687472352, 1.2607605564617987, 0.8351184330566843, 0.5080701501962651, 1.917000938055437, 0.2956131569162853, -5.248785353909348, -3.2345724955012116, 0.9355215781469, 1.5685555293705298, -0.3489914251202437, 7.2432539810242895, -0.1517802616354882, 2.6025372832207703, -1.3419705680581497, 2.0405674950629784, -3.3041987063763685, 0.46530302238789734, -4.903369804478964, -1.8632970102676016, 0.9212049078079534, 2.079771948993537, -0.3223275771013201, 1.676571165190794, 1.1793047554895484, 2.3220574361242656, 2.652458114075967, -25.04151355824841, 1.4508044133592002, 0.8842009632261489, 7.15388326424867, -0.7261292401565176, 3.198028296513066, 3.009772078389405, 1.4816047596866462, 0.8230247707876335, 2.404848762341955, 3.1689574260065894, 2.449346842335135, -2.0986603395054377, -1.9960271225169728, 1.7198364085202582, -1.1851023825857239, -2.919002841343027, 2.4397433694076254, 9.878808086177184, 0.6392672394712413, 0.6417654929512769, 5.061632693748878, 3.964554592285852, -1.4538657689505055, 0.5291919787734948, -0.9955749914919008, -4.150065040361562, 1.3339783710808981, -0.9086637216554742, 2.7139698199117626, 1.3892206061827594, 1.2375368886367535, -0.12396751345934309, 2.526762676986074, 0.9926312503308493, 0.24765084406245785, 4.355044633312386, 2.876285859702976, -0.5313259096775893, -3.9907073557985653, 8.321126651947738, 5.431833541643858, 0.06342513637029412, -3.50477331631079, 1.0733063450282472, -1.9417443669952892, 2.165417569659745, -5.907308143509995, -0.14240551237324617, 2.1841594374119127, -0.32106243955988056, 1.427625989259686, 0.3812873473005254, 1.8239751373350814, -0.5117402201559516, 3.6041402586977336, 0.6443963154039017, -3.570367737232961, -2.021151014746788, 1.1973432861019804, 1.2372850423962438, -0.2871240644653298, 3.038036045997256, 0.5202856594138253, 0.104001284759623, -3.7940361444515096, 0.7757062287748983, -0.3653833553949095, 0.9179876862569021, -9.807000348227517, 0.3872284621896209, 1.4922814452051165, 1.6253219945128472, 1.8017602353916862, -0.5531668617986304, 0.16296369310850745, -1.760845364662993, -2.3233729044806264, -0.9595830604782308, 2.370384612857165, 1.8789575849226694, 1.5617983424987445, 2.9052030052526088, -4.1093409951482744, 0.1089029663830976, 1.166756849637436, -1.64813923721992, -4.421126206930802, 0.9758216546158146, 3.336020812768575, 4.9602066704942045, -1.270850714708925, 1.3227536645076565, 2.019404661585509, -3.10414910821717, -2.570115342400004, 4.861690637335447, 0.5149879578046407, -0.6808899747209363, 1.5428854511665653, 0.2586097542032819, -9.85295883414796, 1.0613229396176402, -0.5373481251596479, 0.8045185729767343, 0.5868500609246793, -1.2735927947207606, 1.8326528920563145, -1.6628672972864817, -10.923031659241394, 0.4270173414717533, 0.06053971986460338, 2.6653705216774437, -0.2902092593119775, -0.8212552841601295, 0.12416366007434554, -0.2609470651261647, -0.7710660394221399, 0.8743021081047406, 16.445125139843682, -8.582893217600095, 1.9831035207806935, 0.8828668504126783, -0.20135218952568146, 1.4943484078551683, 0.1093578498810368, -0.2229633261630618, 4.941193368093406, -2.2890301339134176, 1.1563572677860419, 0.2890657585418981, 1.2209979122096848, 1.1636863024266018, 1.8336486042446896, 7.527112137680019, 4.431219571278026, 0.7359743835844105, -0.2462966851674686, 2.811728198103575, 2.543756745413208, 15.346226714838625, -1.8516317140151304, 1.0973520033317299, -0.38290215943932626, 1.7341319757484663, 1.2413316435486386, 0.7183584322452027, 8.118301025598758, -0.09101098886307746, -2.946736955595611, 0.3204277884016984, 1.4191331125059405, 0.4581936385985854, -2.597905246814471, 0.8499928618430586, 0.336093381798933, 3.2303397680235832, -4.209986785129008, 2.0465838947694777, -0.2508298007940758, 0.6910062015776467, 2.4673745196446113, -0.7025690052521695, -5.749853374981013, 3.2973407313636693, -0.5422910018025054, 1.8806741165540282, 0.28815383204268485, -0.4292742752792056, -0.6502280999646376, -5.068146933253336, 1.2096211762902263, -0.5307934849227722, -0.11704544802929928, -0.20991443025135348, 2.592246896023739, 0.4682936923688905, 2.32417720134041, -0.18523280911930007, 7.343288233536933, -0.7469455834609908, -4.140534365784459, 1.5051429321552732, -0.3836435311757622, 0.5338296238031249, -1.060698596154404, -0.012042272253578346, 7.060641780462108, 11.407230988403509, 2.785314526708228, -2.5812981650761486, -1.999523273780936, -0.740026361863489, 0.6331800363677403, 0.7710080914348438, -1.0854109199565611, 4.291772215817973, 2.495420718467621, 0.601758472459201, -39.6633912937316, -1.4056279443903397, 1.0651779460321593, -0.8805026719608542, -1.7322242294653032, 1.0997976968802106, 8.888422041360137, -0.13225089453952354, 1.8323082673057502, 3.4372804665326564, -2.574613179590665, -0.1194826348167779, 1.1134647313925181, -0.3696334915699354, -2.518215484175166, 1.7586589564907815, 0.867708276498768, 0.786868175278739, -1.082906450784891, -10.170721354574566, -2.6134074987060703, 0.6994213622702166, 0.2575200074230928, -0.9017488210161205, 0.14585709107349043, 5.1500144465787665, 2.042793470198214, 0.46646843995505616, 1.533717508835577, -5.876809383301488, 4.014934050252296, 2.3105792181971356, 0.5585408486573987, 0.27027651487400806, 0.8930714869417234, -3.221145840877707, -0.7041221749713147, 0.6737577813230418, -0.3332813770568235, 0.5507289926618344, 1.8987477448940362, -0.14015462777757226, 1.5927268891623656, 2.1486601839512915, -3.3889382233192977, -0.2962671834413094, 1.4938319314372985, 0.46953545919850426, -1.0310353868816995, 1.7008576135166544, -11.750310301847493, 1.0496899104477544, -0.06255689848209578, 0.5790089231364121, -2.4820332180898355, -1.6087535162851356, 1.1057244901567658, 0.33245461363323137, -0.01577997085436411, -2.3790129599680077, 1.2378700467012687, 0.5061813108820823, 0.8011391978752355, 0.7404664989626771, -2.2812166824991493, 0.7251578888043189, -0.7956867911998682, -5.615719751713596, -5.322766020814655, 0.35063892204094904, 0.20124470839213526, 3.650094186829884, 2.3785314338049557, 0.23958545859280989, 0.03996129432426576, 2.8862300498432187, -0.8550835714069588, 5.287879473121583, 0.8534049275215695, 2.5786802730377283, 0.5580512675459389, 2.003587557225913, -1.2399727193924064, -0.5798295360866963, 2.3315656532707134, 3.8495321470390254, 0.26414151421585186, 3.615061927387, 3.0473900031538883, -2.4573340938764927, 1.6953047397364598, 0.5439311021751188, -1.1389331095850976, 0.02799074032308857, -0.7772023759000942, 1.0801132869330092, 0.16532170520553657, -0.22105093236045292, 1.9838471447099006, -0.9606103204989066, -0.12222356383217081, -6.119066204624571, 3.074079168251944, 0.1806827384968458, -0.2954490630350578, -0.543029841142291, 0.6208518370693197, -0.07385680672613604, -0.43127393142986625, -2.2781485476302206, -0.3137199841091719, -3.0021005242991974, -4.600359682761267, 5.806721101472135, 0.16029686466428583, 0.705554866628498, 1.435123654762187, -2.489745306678001, -0.1249817371282711, 0.32945583754239727, 2.4069917525922437, -1.5767288887992872, -6.457541053857358, 2.666440202037388, 3.2145099900245913, -0.5839333673438509, 2.1891815762474685, -4.011742655412376, 1.363950587931837, 1.9297019468097423, 5.27273517797855, -2.564179599486925, -1.210896686094202, 2.404818292284688, -2.685398983478705, -2.2724259902190456, 5.5151811496320775, 14.89752319000544, -1.2626019039832244, 2.876726843927805, -1.7191353875152617, 2.753919437187165, 2.3157406119755057, -1.8445453226233122, 2.862452655105548, -1.4326238231025985, -7.009231783206999, 1.076600627047361, 0.12674588436123746, -1.1686549954347538, -2.245529799105419, 0.32447655542495113, -0.7650487440409204, 2.286433942030067, 12.519604629768523, -0.6677857636935715, -0.4013965362015677, -0.26496418314136216, 0.6788066810526926, 0.5585321241475657, 1.7096364843611935, -0.5190095015107249, 5.640562301472849, 0.11234563014267496, -0.7621441428814957, -3.2137840402669635, -2.2704014699183785, 2.904948154318176, 0.6388064038263869, 0.16549286574390676, 0.5437035971830311, 1.9647535903599858, -0.24160575465401846, 13.920702738200543, 2.010305602380396, 0.6951567568709036, 0.19642101891738628, -1.9263857078047009, -1.8404157968749315, 0.3018927705955261, -1.2942669626646592, 0.826392098906223, 0.06934056369507446, -2.559118633528154, -1.0495113495140258, 1.1832052406747269, 5.2240220553883665, 9.296012804947392, 0.09915660373404966, 5.254481120651389, 0.25915732397151414, -1.472848313592554, -4.708741406668542, -3.528830174134103, 1.984277182029777, -1.9589506214328556, -0.46119480397810886, -0.09973152619911685, 0.6120130448244261, -2.4204851920090102, -2.4687750216620943, 0.2122389708428558, 0.8678090898957811, -2.2808199853239044, 0.2784240475086901, -0.45905982351424646, -0.6069076781750002, -1.5327910914947522, -1.9663083829383734, 1.8490733604479788, 0.21185670979282356, -2.1500799948004183, 1.0926723675649592, 1.3973676625327913, -10.003260824896362, 0.29340871546854297, 0.9780876270031907, -1.8081477522833338, -0.8923880495212121, 0.5121597013416745, 5.021435185278653, 0.9135824786074037, -0.7468865311877226, -0.894055640352521, 2.9204124070957183, 1.581716938754763, 1.8331307121465712, 0.5318199949647202, 3.3394310191705343, 0.2704729744046154, 3.720405980593867, -2.4214403671145504, 0.31331859091194314, 0.9887253657413657, 0.7135906486127452, 3.715813079049993, 0.18394864312694792, -1.7141759208746632, 0.5966040383783102, -0.3652911659693202, -3.9634238261901213, 0.2865538582670084, -0.9613832557342372, -0.6000472754910762, 0.7184374789060902, 0.6978647302469936, 0.906245261154911, -1.2053044235964654, 2.5253716988724184, 2.4832363380873845, 10.387635912155618, -1.4825291841585624, 2.6104751052180193, 5.929957838819416, -2.531938593638678, 0.5744917144000042, 1.0189496078921918, -4.372382202899383, -0.20164259041938926, -6.8438726749853, 4.6828653030089065, 0.9569161603594113, -0.39581601023642354, -0.11449613347803256, -3.8967737656070454, 2.7076513355464376, 1.2867506451569724, 4.37214652589752, -0.4266943590213006, -1.5506623304180507, -0.7547123191766284, 0.3505337812962158, 1.4675829804542535, 1.1599111489437983, -0.2154180774817338, 1.5703037357681666, 1.1409317932896361, -1.2996285367061644, 0.06830784100196374, 2.298301306628703, 1.8212382317447533, 0.7305414222405626, -0.5158849222897552, 0.4993293064653681, 1.4037554542331057, -4.443180065304441, 2.0378085305730425, -1.4641178154333399, 0.7280660908172912, 4.204585531621744, 1.2627250510839576, -6.872690594147674, 1.0263848024341868, 1.6554160369707107, -0.5874272173275624, 0.17861527560788815, -0.09145756376194647, 0.44905117610938994, -1.8829097384591207, 1.4940594330728398, -0.18110094271500665, -0.15990958283826673, -0.838754075287718, 5.211739398674212, 0.5101144764560765, 0.6340870566265188, -0.317257204924021, -0.4665270033440788, -0.3097732509680673, 1.3016875025780446, 2.0127754814536125, 4.213536941144689, -0.3507826987785485, -4.564038508402986, 2.4050370407504946, 2.262077281691108, 0.3815589799562171, 1.639994794280509, -2.0905414126080304, -1.4632176395234906, -0.7539843295799806, 1.2053693855970522, 0.6422784135841196, 0.9992197538579578, 1.5824800411547262, 4.168477792636124, 1.7556425429477742, 8.898588156310918, 2.6579855077423495, 1.5964419522977582, -0.9938761141918974, -5.3821817237033915, -10.271142097194321, 1.0351049144049054, 2.8480769083946162, -0.14099481771996691, 1.486114096355601, 1.7193647812639459, 5.730797215089344, 0.27881582132651217, 0.986359908484665, 0.9010825137421049, 5.354398195446086, -3.306130371475872, -0.007965917101349085, -1.151912774465349, 0.34427046727678556, 1.2362172123824793, -0.5677068815359692, 0.04813927962231035, 0.18067303208007734, -0.8253538650824483, 1.3393600005727908, 1.4529957248302852, -0.9772093657653977, -0.7016830934196232, -0.4859311404349763, 0.9125367187969625, -1.6424542693917634, -0.6661153288383836, 0.8740161348640159, 1.101424731691792, 1.3927968888537143, 0.8513031220641206, -0.6884033387729868, 1.0224644662963582, 0.7191758076559436, 1.4502103677120661, -0.30550438344187925, 0.43629106825702346, 0.7802296644644754, -1.440629516929159, -0.7224866552764163, 0.058124922122562594, 2.182616497199442, -0.17317069758980352, -3.239740779131546, -0.49492561896946385, -2.788902371556006, 2.6096497299507635, -0.23814245517164856, 0.3876214650793792, -1.2925292071412033, -0.3077018011737762, 0.9370989144983527, -0.40255350874920515, -4.503010846323693, 7.868741030076472, -1.966085782171655, 2.940066897282068, 1.6829348231109047, 1.3488635169115475, 1.5759656692811905, 1.103286604550921, 2.5939135338030868, 0.2513150614110836, 0.294498617185328, -0.09387609119773987, -3.3069118510587003, 0.5465544013702998, 10.412314506648743, 1.007427119005119, -1.4601431147335608, -0.373908633976583, 0.9482216989117833, 2.465455703596989, 1.8416492813711036, 2.05768057574478, 2.081517715439551, 4.304986361994594, 0.7024735885196414, 2.981791644536616, -0.26059020966075197, -0.16790664037735492, 0.46851428387238225, -3.2687113738901905, -3.349822575878905, 1.369705863194473, 0.21190484206687987, 1.3912563406339622, 0.5245855099609491, -1.0742591227062888, 0.059884481325123584, -4.1380359813187235, 0.861155336599744, 0.8224142863551422, 0.495440239980829, -2.8468105028360466, -0.9476954935383007, -1.2351727385076714, -3.097206839909151, -2.457568194984648, 0.5273853829256798, -0.23424824854470916, -0.4557845830359014, 0.8024860793882638, 3.7977897249469645, 0.31324915568193934, -0.6376636955944197, -0.4614292784853894, 0.19507114345208, -0.29936982794777234, -0.45201981819177484, 2.641199643314321, 1.6325261838747513, -0.13915757395813888, 0.39846996186857053, 1.9742293808397307, 0.5293689592438794, 17.153029464068275, 0.12497081826095169, 2.9156302252838695, 2.469639009194866, 0.05698808958552393, 2.7123794525557887, 0.5117310398394262, 3.837231094968377, -3.201164102779082, 4.999481334197547, -1.9474541510343095, 1.91609438400126, 0.3594707365736326, -6.209346649023942, -5.620975744629649, 1.1240862099505176, -0.9219512884108323, -6.586306175949144, 0.6924304789887639, 1.5428618211500018, 0.10416622132269504, 0.6893373584789062, 1.6975922763052695, 4.591403042863915, 2.1669596808907796, 1.2229758996422744, 3.217581199028685, -8.469459821971927, 1.3246974655925983, 0.5669628435548121, 1.423717950868138, -0.33693549787861576, 2.1849575866978546, 1.2069866971880234, -0.12275176109845654, -1.3100152711548567, -1.2684917043067, 6.356629442208821, -0.7275998889574206, 0.6313203067889874, 2.0010543386309294, 0.8431945100704378, 4.459355112540004, 0.09971114696600014, 5.717188491847853, 5.118665778102102, 0.63353485162213, -2.648099194463227, 0.8571719097477837, 0.18050710370832168, 1.1404342831722925, 0.23873216767869854, -0.7788373118536142, -5.040846100774392, -3.197629810511212, -3.81543011283424, 1.1437533804278326, -0.9549373290253518, 0.27361392035633614, 3.1277406477696044, -2.089502657574106, 1.0888080619941247, 2.6147091519132486, 10.612337890163946, -1.0850706206712522, 0.6698394140398923, -0.4745826933007068, -2.2894550452117937, 2.9760899755631565, -0.6268491757768929, 9.1781315257061, 0.9166289981499208, -1.3021690250280167, 2.525969162814229, 3.748517427869481, -1.920440892959499, 0.07418499574476434, 0.25207945607906457, 1.467559050089934, -2.885676124195772, -4.336255275988747, 0.08057924277906259, -0.2104591014871523, 2.8276468672339248, -0.32664571632746786, 2.153327598462036, -1.1895963105263108, 1.0599303415677395, 0.5474255828804533, 3.9213837901870177, 0.8689053158993869, 2.645160579956215, -12.431628430574932, -2.381326139317272, -3.3623014432204186, 1.1766411346847205, 1.631026095719447, -3.546864613905773, -0.7854100343118935, -0.32371158754208107, 1.1162407776301468, 0.3146653720473931, -1.3908912484145546, -2.528435004390059, 3.7713040841676966, 0.6971993363070068, 0.6541575821721634, 0.8246602023299746, 3.426068188278322, 0.08335183671107982, -0.41096326965076246, 1.7415332506098533, 0.38474195404645506, -0.456867430603058, 6.486729695092279, -0.5877576697118512, 0.9843497287265904, 1.247300798534177, 12.493083155719097, -0.7119371034848642, 1.035139193517114, 1.2719845486029846, -4.351311343174019, 0.4313537392044733, 0.19672849448844498, 1.1952484253570774, 3.0433183738262275, 1.8890022417522672, -3.46358499622552, 1.0091995807408507, -0.6492216222460852, 2.0597820201737242, 0.04006936720085452, 2.021350293338826, -0.5861570496421967, 0.35004807298212215, -6.802556018483015, -1.857465669454861, 3.3973557935167493, 0.10011403758297521, -7.39675780990977, 0.11413518603601824, -9.732105198142257, 6.161131713171042, 1.0406740834593102, 1.2094880127789946, 0.7311653068678988, 1.3527527373936499, 1.8165186039988561, 0.13122914810920983, 2.3706631090260935, -2.2310786694889155, 5.386973818653163, 0.7730831099602935, -0.7829436240778999, 2.9567639350911157, 2.5336478093788664, -0.511758680200858, -0.0010964403322654137, 2.917134392324527, 1.3272492996342904, -0.6526933827384058, -2.4174503081066234, 0.8062891475532942, 0.45570605737007, -6.462488977348328, -0.16301026843579924, 0.09792580384235383, -1.1153000314897485, 3.18809102140506, 0.5329317302300395, 4.0023350566492875, -2.8700020714782566, 1.6294208414325593, -1.2201531093538218, 0.5579710019823526, 0.9592179967110301, -0.373723011633887, -2.0662766565728603, 0.1491253492778286, -1.2370219444203214, 1.4387865412948115, 0.8091420073262443, 9.624577569400156, 0.9780682699789551, 1.8860429209127507, 0.06511307285666057, 1.154790799168657, 1.2975222551903156, 3.8597174914876375, -5.287065337708293, -2.1616884371107195, -1.0241593172081216, -0.8150155066866563, 0.49238534566980774, -1.5805023558469853, -5.411854726337101, 2.3344085583526426, -4.11376571504459, -0.3412418585681055, 0.9924043381222231, 3.6169230241306827, 2.371005041312398, 0.37950992235966674, 1.8842821710327229, 2.225679388309745, -3.2757403980144204, -0.9712482731319485, 2.8150912024734938, 1.0069534346421165, -1.9333601325622298, -1.4823867855970585, -1.7812708553556202, 2.3484928790795063, -0.6352916459014712, -3.103554766412416, 0.5803442246522279, 1.6378900460331356, -1.3721556657101943, 0.8428376969347812, 0.5034868528836794, 4.646980487218539, -0.4980811825875804, 0.4493538522659991, -4.279460693977683, -2.479476902929722, 0.6098808756212009, -6.293626295884547, -0.0031128328865245303, 0.8238400923704946, -0.7244426456805555, -0.9023026926129036, -2.7459138535478327, -0.15224480517223282, 0.18733166262704692, -0.840695276130066, 1.6611970229744695, 2.989585065918056, 0.5381063527209201, 0.2169187936291932, 3.0842773773622945, 0.9053899765661566, -1.189661892699894, 0.5030006510685849, -2.7580351562521708, 0.5958926199406613, 3.0309014498625912, 0.8455331953426941, 2.047415127944408, 2.696269480015575, 0.2012508949891445, -2.1576651002729283, 2.715886745285049, -5.823908218234498, -0.5092967688067521, 0.768055568149684, 0.6295075489131706, 1.0132771515177363, -1.4441038233142307, 0.8723860144527118, -4.086092772436396, 15.481173543109644, -3.7136487621025465, 1.0052757211515058, 0.36147852111245815, -4.122598546047508, 0.8219390528528012, 1.5672330357978277, -5.885408829486735, 6.96457699745067, 2.2084690930562494, -5.6722979527024675, 0.17539299531887864, 0.5857458224057717, 2.1007404817414326, 2.256321506402405]}