{"model_name": "echo_state", "model": {"n_readouts": 200, "output_layers": [], "n_components": 1000, "activation": "relu", "echo_state_seed": 14689}, "weights": [0.7706918271588983, -0.4329235052600434, 0.7792969187967541, 0.27697022093447954, -1.6951016004556982, 4.443245677412965, -1.405347349677434, 6.2277226212693595, 5.364348242793211, 0.2607396374123132, 1.8535636256687087, 0.46059919640186964, 0.8369522968538385, 3.05431309607886, -4.495979728137241, 3.401912689355826, 1.4954258966314329, -0.5940033825356985, -0.1896404762368712, -1.5863630314621886, 0.03958358218155733, -1.323000593189017, 0.9235313116225071, 0.6893552429455038, -0.8759365158552987, 0.8022251890843309, -0.05341184253211817, 0.9421704840003889, 0.4448863541124404, -1.3287079597814606, -6.506165389234774, 0.7237875953663567, 0.16602703133037844, 0.6952422363573828, 9.450584042170174, 0.18287313499946256, -1.5529934670724483, 0.9245195709622706, 1.4836773927651654, 1.2038581385599225, 1.7153198029597796, 0.3660728655614266, -1.9805791110355822, -0.23106701254466477, 4.385896063863212, 1.3216303296056378, 0.9867282797697193, 0.4147373981422914, 1.9313002201164038, 0.7146653198130727, 4.1926497292470675, 20.672462014157933, -1.3959704799822545, 0.9110575581362557, -1.2008864626155686, 0.9397132317686109, 1.3316636242468793, 0.42131687592521394, 1.611148154177205, 1.0727014022002797, 7.409728741273224, 2.920662078198588, 0.36621559589937447, 0.5054924856982504, -10.044386050099519, 1.129915624275677, -2.517538275597731, 0.7166287671777839, 0.08485644193896114, -0.9251520629263328, 0.18308684635219596, 0.9603352982102045, -3.2441220065595795, -3.936849978549447, 1.2890118108948085, 1.0226250781650854, 0.7894618863617884, 5.207596880588787, 0.6151663164733818, -0.9162212682812548, -3.656197337132508, 6.640205466985284, 0.6507810410838327, 0.40148480305784406, -9.219135943389983, 0.2837292553213705, 5.080451986545496, 0.9142463795916005, 1.8006766473752434, -0.6954411184361496, -2.9569869004125673, 0.8424420277671079, 4.329512393350386, 5.586759202405762, -1.0891555034461708, 3.0893892072025957, 1.2987771092748457, -4.743534255371267, -1.4893351392828815, -0.76306854693537, 1.2801288538325557, 0.8822567834203738, 0.8607377693892673, 3.5052886896083506, 2.215231015132627, 0.6148673385189374, 1.0299526301975106, 8.318732822976889, 2.162523753841602, -0.9168497491732532, 0.9490135194352094, 0.36067080629700654, -1.6041499144266989, -5.861078481791074, -0.48205435024243304, -0.1536902937886302, 1.769693520701157, 2.9263768030511574, -2.346194683489423, -3.264618640241549, 1.1049603693925059, -4.626183935285062, 11.720938422521204, -5.357531518419248, -0.07337979846198672, 1.384372173322293, -1.735466159154239, 5.662317801078963, -1.3047329984817932, 2.763513230508069, 0.042322141730513296, 0.5294938814133086, -0.11002445620721202, -1.2031151725464375, -5.172703557626834, -2.58151428434246, -3.635474986750633, -0.016922468817758385, -1.337170064134138, 0.3114805968391956, 1.0730988862141415, -2.0244165570583244, -3.543706968591253, -6.785281741670147, 0.2964718778109683, -3.764339698772492, -5.2174264954729415, 1.0173595915817257, 0.35101242716337544, 1.6253056942119986, -0.5482890848335105, -1.783799458521763, 1.0422760749872517, 0.6034875819982684, 1.4510624018714116, 0.4078740777579407, 3.255483734138382, 0.6097361999491234, -2.750486514817729, 0.5381514183354321, -2.492152755367015, 0.2172746223431402, 1.462884550615204, 1.0237750540159367, -9.03891278884441, 0.4666228208997939, 1.0843136550752563, 0.36834154419933707, -1.1442328041014047, 1.7883551422517394, 1.7207829032747233, 1.9988845516294393, -0.6285136224841938, -0.16821203070021384, -1.5648364094778482, 0.6458748466394783, -1.5186958387123877, 0.33800468741462597, 0.8612614936460725, 2.6003188786262847, 0.5631129300460076, 0.4582803279054468, -34.66022846874555, 0.7224041897332567, 0.6340957840959939, -0.4252196902574764, 0.8945120591931327, -2.0573882433931243, 0.7866668972085079, 2.471324296688632, -1.4257590077894984, 1.0950297415456398, 0.039299051906968585, -0.19304268100211774, 1.485225897972084, -0.36132726318232766, 3.2767179587139053, 0.6652889970497444, 1.4179590720157347, 1.4765080982392114, 0.01576986404164571, -23.727007131684076, 0.6550851909980999, 0.20874216736617013, -4.2010203282491325, -1.5075530224687634, 2.060985733990714, 0.38985866911981015, 1.349972240888964, -1.142582306515341, -0.36282919840258554, 0.09396398040590459, 4.001753473326877, 1.1445094664169826, -1.4847430313263554, -3.293494831427777, -3.727146148927968, 9.59361270753288, -1.153028230526319, 0.017661455532030246, -0.26161455712543735, -39.643694345514284, -1.7129362304196725, 0.5948902572034817, 1.1101912100736038, 3.077046295987957, 1.477937009260502, 2.472154693496344, 0.43544429464233203, 1.642231201548722, 4.824960094890557, 0.9029112355922023, 0.43259587516296616, -0.2945080776998993, -2.8554390521256376, 0.8129565549904795, -10.869773290434267, 1.1083520963975988, -3.2452427377393462, 0.3834865863209771, 0.945813187249246, 0.7377632823170427, 3.378699071552288, 0.20169992018509564, 3.2600729713727867, -0.6515250552481952, -1.0761616141126948, 2.6115674344443294, 1.019405524547416, 0.055110276786946244, -0.4891004555487246, -0.02153512044143535, 1.23326989153559, 1.6958943855943542, -5.266170568039193, 0.4548131496025227, 3.388468516989584, 0.41341602092414453, 0.04622256958870885, 0.06060817906764171, 2.2350454360292895, 1.7388435606515356, -1.7631168894380038, -0.7118724672475247, 0.28345698513844, 2.37529462847328, 1.301075106381726, -0.33626722978473556, 5.480046643385, 5.980652316114882, 3.9635527528351773, 1.8276142524410839, 3.824866113038746, 0.6858550290008153, 0.6308316690950977, 1.1250135088682365, -5.052953388989255, -13.106231762719865, 3.3292004938712805, 0.1064041119686332, -17.361764536637853, 0.4672295914548331, 0.5220431326315237, -0.46491268617659, 2.3724453547148596, 0.8406416236451576, -0.7608916300512959, 0.46511707814621994, -1.66791608428439, 4.508843684603058, 0.3434977438432172, 2.495965128365697, -0.1828883840441704, 2.171310135534686, 0.4928567600055601, 2.888956401539188, 1.7796967730996456, 1.53327205309976, 1.5700645016295853, 0.3556749961669635, -3.4734646483195144, -0.9468084690598233, -4.555295039196223, -1.7904975164414616, -4.022526857598632, -1.078587070462828, -1.0694861976135384, 2.6230837534720886, 2.447768992558948, -3.8090969721262598, -9.79434885468226, 5.429836331705411, -0.8025868458975447, 0.11938668711906886, -1.222623882552428, -3.98795043172956, 0.8622270087841349, 10.812893468908502, 0.6841977223691597, -3.1201514979925222, 2.28855221694044, -2.1490797377261237, 1.316404431050843, 2.500199180912975, 1.3614015537438058, -2.8124856069769737, -1.3461615140232641, 0.708008569223646, 0.5747515379205378, -0.4060810076370047, -25.35056443588145, 0.4929112134148289, -1.4272415688068767, 3.837223798393547, -3.355439428999649, 16.218166983173372, -0.20955191543195606, -1.8448613217918368, 4.427452237713572, 8.313000104448044, -0.08833502084193567, -0.6546161776191057, -0.22570398366179067, -7.842886473650218, 3.931391524543756, 2.5101722149415675, -6.86946405933258, -0.8053502331761415, -1.010055035526546, 0.08062341997053302, -0.07334017411779237, 2.128377224862958, 0.32273019767396427, -4.875549904347407, -0.28135869185076956, 2.497632888047173, 3.3518687989590576, -0.11590081323962775, 1.6195776940055764, 1.7901972277957614, 1.574048386497128, 1.8999670407874518, -4.2085089740930375, -1.9311831532939556, 0.38367266788147925, 0.04084474456712761, 3.7352425833980405, 0.9452850433769362, -4.8859225323610165, -4.683473792141873, 1.2438353866646474, 0.6466052559651837, 0.9484803659114602, -0.4089855621583979, -3.2422558752339254, 1.3780382047817512, 0.004197402140840523, 2.7565081752873546, 7.0380585028818965, 0.6088954056840878, -0.0061615065527064194, -1.4116245392580389, 3.3696763459489114, 0.5471806183595312, 0.9406757023929938, 0.3626916962082931, -0.8423881518346426, -3.5185971852361746, 0.8101511487307411, 5.6863594103053705, 2.3029487898084926, -2.377123391854716, 1.5070678060055598, 3.365724313026213, 2.606829343079296, 0.7860951126102095, -0.956229851553673, -1.5936001262065127, 3.036556383356834, 0.7271893888817469, 0.22414785449977148, 0.5676872962308035, 2.278503702599857, -4.563096957482766, 5.405884983815701, 0.49398912983153886, 0.6110464867896209, -1.885184471546306, -0.20352378171155583, 6.999879360878465, 0.7687919958689524, 0.1537094675974625, 0.5486007805229571, -1.5613860179141394, 1.4579512816981364, 1.3069695417633465, 1.395038285968862, 5.764625621156651, 10.036038508139981, -3.854142499247728, -2.29452341355618, 5.250285751151986, -0.18776106370136492, -1.9526780283036276, 2.128490063321957, -0.3888774888684805, -7.7864149704230785, 0.3403412739841678, 1.6879768939892674, -2.8003215315561896, 0.025519558288948252, 1.465269238165228, -0.44746529850316474, 3.35885181429506, -1.5014617476020915, 2.076759093200616, 2.877000806419789, 1.4196010799372185, 4.373944853183484, 0.17629440757507142, 3.9596196733828624, -0.7589303190344985, -2.241928367349891, -4.626329485374987, 0.8482257472459455, 0.9565667215358046, 0.014834897897723964, 1.1022878065593058, 0.7162329041276936, 6.145463045476137, -0.5785452420520805, 6.19960479698364, 0.2961311847024414, 4.100659552766199, 0.9532238623378717, -0.07789880845381614, -0.15867269180855448, -3.2510910842130234, -0.40240530387305884, -2.0458146446459633, 0.3525858742278132, 1.5806944012377775, -0.08522853963937527, -3.7100599468802886, -1.2652913082357284, 0.24787062562372497, -2.609336204070817, -14.978478657594826, 1.2882831982381713, -2.3839840165777986, 1.5616577633250102, 0.5159898858133252, 4.43083092538758, -0.7687982818785253, 0.7035377033962644, 0.44941529021514315, 1.0829601068273877, 0.768877562384276, 1.9895059425042478, 2.6110581465100027, 6.787055429129923, 5.567861390998529, 1.8309829160121671, 0.46379101505996223, -1.0058151335005339, 2.3618631429118544, 0.46070494263338013, 2.319452007092781, 1.0581727941085548, 2.0091465283134538, -0.19261197177247658, -16.989089124265192, 1.0116837600513073, 0.4173969967406618, 0.7971774791902547, -1.3029778426446406, 3.6847849290690218, 4.950524444491002, 0.5766598778674726, -1.8261070724138222, 3.03055649388182, 1.8544657119325278, 10.328202412873894, -0.9136406470722441, 0.20731494789517546, 0.4808935965526836, 0.501641439663485, 0.04736696386205752, -0.39241389374858127, 2.080353636075291, 1.0013499525348908, 2.1056490858182677, 1.1867044374347713, 1.3810988732045306, 5.647817545783614, -20.176692744442487, -0.47145665503257805, 4.665018034503831, 0.4778585504194097, -6.100046941527427, -1.4043256043234325, 2.1125013984042003, 3.0308708327299345, 5.616710277218165, -2.280082148823997, 1.102681196993676, -2.8879247048255734, -1.1174815698797538, 1.7002221545201266, 1.828437097991836, 0.874666785528697, 12.15433159771594, 0.8424452966793764, -1.7961302585724148, 1.7922392118111015, 2.321933363671493, 0.745205547006577, 0.7726992491136815, -0.9329204701590985, 2.12923675696341, 3.5120416624647115, -0.16203001664741168, -0.8078777868527554, 3.2219401409742794, -0.9420122050965616, -1.6902740563227483, 2.700213240005627, -0.8555321555878959, -0.21948298122002052, 2.0926179563240415, 0.1565860235962594, -3.8550059597621606, 1.5052111417458578, 7.164480381777671, 1.4300668635525577, 0.7907428531567364, 1.2746016003415916, -0.9759210818302694, 3.0029793331779624, 0.6280647473516944, 0.22311351445210104, 2.188031622156715, 0.38419876910894146, 1.390787138346425, -2.394760424404232, -3.47341706933528, 0.5181016136326801, -0.24773952378155684, -14.119211351397626, 2.451702109519637, -0.3734938435193249, 0.4431787594127484, 0.7452803900288675, 1.2966175433552398, 0.7092911580339154, 0.6720471898320156, -1.63945327182457, -2.22277219742366, 0.06470335898977586, 1.9608383867309445, -1.1581826594158675, 0.6181279781210802, -1.381615870912936, -4.018533021121596, 0.6124199237309029, 0.7030913299312969, -2.9984551172014755, 1.0587342365440882, -0.1188691671522728, -1.3984342517493742, -0.7806667537744251, 1.3586741806851093, 0.9108359956391219, -3.328244854320739, -2.924793634487296, 0.1977153018940957, -2.332876840496972, 0.3997912733260678, 1.9288241733090787, 3.5110038595041018, -0.518327087986055, 2.2778280898948102, 0.8998835356563648, 0.022343086047209026, 2.309779051012193, -0.604961468465702, -0.09529412254279956, 11.958880220169156, 0.8472978262601871, 0.34955199567276884, -3.4633727649766852, -3.593763712155855, 1.2689474388919937, 0.8056862865947854, 0.0710729968626379, 2.226239019572958, 1.4970928692571333, -0.6925352185828927, -1.3371266726690227, -1.4205849389203804, 6.959750396203123, 0.005456087043372748, 0.31993906085017265, -5.98695227292154, -1.9467530257125403, 0.22145066179910244, 3.1232315214831026, 2.171068211172824, 2.789398705652248, 0.40786549757546464, 4.825730830692833, 1.5088542328175958, 2.56994460164889, -0.8035081875760822, -0.06780200599922448, 0.1842168389073553, -1.1657262325657727, 1.7241283060625454, -1.3635508813165, 1.200394198089655, 0.9760664144169828, 0.21519645079672922, -4.335703222064054, 3.2393052102886517, 0.4664053914512083, -2.5528351415298998, -0.0594712109226202, 0.5889656759531565, 0.7266882448068513, 0.7024021360211806, 1.5740860628113318, -10.205934929246501, 2.21875228734783, -0.6018554411436378, 3.696294247529102, 1.06226406685767, 10.026839150426444, 0.42796892985945356, -6.29977136803217, 1.5696520764642852, 0.8464230278786071, 0.6597459740012425, 1.7925319328209963, 2.054506283566, 0.5618707724490115, -0.2682881395697966, 3.590085866522417, 1.5017306140980025, 0.32849591540756196, 0.9179734484855708, 2.402711858855512, 0.04307873027076703, -5.344567532171451, -0.04228872573004372, 0.97037474743499, 0.14453972891961986, -0.08287668617127708, -0.19362336553215154, -3.8787826405952117, -0.41862680420639153, 1.8129525954669996, 1.686259657443498, -1.9437416232576095, 9.562176049872619, -0.10090108388326346, 0.478565831306647, 1.7507256522409094, 4.790858793591729, 2.094942763351858, 1.8762491911491983, 1.0675785794516646, 0.3357723216080123, 0.6413896442830621, 2.50845148444784, -1.5868312052279931, -4.694495650082875, -0.23792279220188783, 0.4348875990929466, 0.6512726036819068, 0.44608661974664776, 0.5333074180156807, 4.407526597530445, -1.3211341809844788, -0.3032918820901864, 1.4068994585236656, 2.047570119210145, 0.18366848086799759, 2.6451049423577833, -0.7060010696790099, 1.1440361879159426, 6.2259511548632975, -2.9971221086374893, 0.006290770386602529, 4.9601852976926395, 0.5183040432242809, 2.0143048132714347, 7.935096434288209, -0.027569292232039966, 0.8340880556786257, 0.2889054478937678, 0.8990031971747131, -5.78444096407064, 0.6896005972699923, 3.771891278729253, 0.17399830855092546, 1.0684787970671594, 1.8497835587033515, 3.2496342926513515, -1.1490966369078879, -1.8664772586935534, 0.8016924903909898, 0.40133616283065954, -1.0369936253938885, 0.5168924741390297, 0.5111421947803161, 0.5229455356791126, 0.9469096772284041, 0.9346942918066613, 0.2958672371067955, 10.444014789362207, 0.5425837928731287, 0.9721157400466599, -1.8768962014233512, -1.312298562610508, -4.62376610212827, 4.415374276786016, -8.908729964595668, 0.7162478648111176, 0.19666251737395535, -0.22726757072346693, 1.448371805421885, 1.6522919506623273, 1.6813800846522309, 0.15061502303758167, 1.6828519455235784, 0.9500371199307598, -1.1270165308185038, 2.6821434715695744, -7.367943767235284, 4.285432225717061, 1.0761797856620345, 1.9149551859392027, 0.8382966427559743, 0.9093648281711951, 7.632460841202903, -0.6988107726487035, -1.997689755692852, -2.46739039797344, 0.41766203240710653, 0.33318920079721215, 2.549214270078471, -1.4325995587526845, -1.2263250235381875, 0.09194199563967098, -1.388998985192686, 1.1995547985787385, 0.2255715889589277, -1.3333258652113096, -1.6341697060262295, 1.4536283836756576, 0.027885336316301967, 2.4411516027241476, 0.788888101409435, -1.7369205697170031, 0.03723754736006413, 0.2655576934628079, 0.6780522061944637, 0.3631537949402549, -0.8637387929113001, 1.7776282143065998, 1.0908949052296921, 0.29378120381729944, 7.058177466126523, 0.24623194198335985, 0.6575363168037537, -3.598780218725174, -0.6607164586789243, 12.924785059204941, 4.470305033040545, 3.781512423560907, -1.4264243498279456, -2.80528384957356, -0.22412969238210723, -0.46162439690365065, 4.736665753828953, -0.9884404541261582, 0.911871946919132, 0.8731539775154077, 1.5316730810753252, 1.0251832881353462, 0.5234498736680628, -0.10212307105798024, 4.68098581430565, -0.9732077539482483, -2.130469704113695, 0.06916589884525792, 1.0254446724702864, 0.40426750151795043, 1.689674535655838, -0.1498427825268016, 8.56346175871796, -14.839749179061393, -5.09754094896755, -3.516665980441062, 1.7819710321023745, 8.89067151510109, 1.4544242420151945, -2.0859289489988893, 0.9170312493234101, 0.33642716389525273, 0.3607167116520146, -0.3138645740364492, 2.678937504564743, -3.719475119465963, 3.9945531788069646, -2.8971849085732417, 0.5150366234891984, 3.736515798841736, 0.45836823713341335, 4.57693330941442, -0.6311283579112777, 1.0693135151490656, 0.96344020664205, 12.128723721844807, -3.21943997993234, 1.4705597026776975, -3.0761150712045593, -11.37874838571928, 0.10787097849030669, 2.374940954097358, 0.8234243682466671, 2.2921286473673192, 0.19593366313864202, 1.3072038829526993, 1.0559790180434772, 8.220437616463254, 5.923521771729719, -6.620020947137623, 1.5269684854545282, -1.6375794156006975, 0.6728327134225842, 0.7682457474359151, 1.1292587581163165, 0.5651370989284095, 1.0382294946248454, -8.174013666189317, 0.01251651707643675, -4.195380316429267, 1.7181659153201396, 13.100293148363981, 4.421240711887901, -14.473764004155118, 5.703090745193949, 0.5786803388624336, -0.9987051135438629, 3.773949329950611, 2.0647170608005947, -0.9799870606745529, -5.913304364868264, 2.8222145982483173, -2.116405087686427, 7.931069395254706, 4.615881626182041, 1.099773000418875, -5.443804472444465, 1.1220396818941105, 0.04630482802691582, -1.6088092176871962, 2.3779073780731, 0.9446503426681091, -4.787752441273095, 0.31624794553350455, 0.7152680384987407, -1.2589036973753596, -6.406111485282061, 1.1667652371655293, 0.4484815671012099, -2.0070992541944452, -3.7179874894945035, 0.49842654715984425, 0.026524889444678568, -1.8342411888562258, -3.889540441173327, 0.2030940975266151, 2.2229533809227258, -1.093883173568131, 0.8036652389596488, -1.2457808357949633, -2.3254911783485346, -1.6936833225049632, 0.2995251669142215, -0.1393316194174239, 9.273596790163944, 0.20170841444068022, 2.431689850413553, 2.2197798098367194, 0.42891562142753226, 1.065669446237084, 1.1540102330394186, -1.2519734085571224, -5.873651950133326, 0.40510097677588064, 1.258165659033815, 0.22913785006968146, 1.1270497558279997, 0.888187591677323, -0.8554228713727832, -8.405055292705185, -1.4440960745707847, 1.0969729985002297, 1.4085180717479293, 2.3403655281313727, 3.528790697928418, 0.7566274376998934, 1.6244518138452846, 2.8723829866855373, -0.31461480271207354, 0.36169105905004906, 3.611732614567675, 2.4841080594913203, 0.030410604643575256, 0.4758188734268277, 0.5463108299627435, 2.087486937931777, -2.837209103410796, -0.054619603262894834, -0.13326932816497117, -3.3718453823817844, 1.8903487939500163, 0.8207045478617924, 2.6811406369505493, -0.8499738159619756, 0.5174774252347859, 0.4994047772642275, 1.99708198460455, 1.4698525648061838, 2.034925780572839, 0.2637251638601722, -1.3799819647939586, 0.27457347103753194, 0.5656663329345872, 6.283723979932984, -3.23120802301647, 0.007030602256905105, 0.12043912511317822, 6.900537659735342, 2.5351352877517073, 0.5984690824568736, 0.23022002983510714, 2.1962696128574235, 0.6935975614432857, -0.5398129975063681, 0.6237763586604496, 1.8339472908250514, 0.9865861861313738, 9.265543699006535, -3.3182117534665165, 1.8170212501765088, -5.555381221470161, -3.9710140723534484, -0.4729356973992851, 1.6037540323867998, -0.4520958834361166, 0.9189142956402688, 2.1040924612380696, 0.4084184612526336, -0.6070004006120996, 0.3843707117507579, 0.7001917709020482, 0.8938516850781718, 0.007435107426713716, -1.9011060529558892, 0.17829264151633695, 0.8557594741281992, -5.934181236632824, 1.0214986768112462, 2.5606333339897085, 0.5149605918366901, 1.0582488073733776, 0.32456520637007635, 4.413925507174639, 0.9278863267981786, -0.29564634647093235, -1.659799087418072, 0.6673671809383911]}