{"model": {"n_components": 1000, "activation": "relu", "n_readouts": 200, "echo_state_seed": 37198, "output_layers": []}, "weights": [-0.624693517081761, -10.69321809776344, -6.84898921777388, -2.154104056828798, 1.7741447899932825, -4.349358960065998, 2.0941765093401052, -0.4793472475644527, -1.0970700089572365, 7.273653384345487, 0.8761551315704152, 4.92841446186074, 2.6513899272152552, -1.0665294780381083, -9.793860609610565, -0.9457802085291747, -5.235992590069043, -7.5263588012415825, -1.5116866358546104, -1.5057610169493216, 6.111506747749092, -7.252777153860043, 12.884043471898742, 2.3179014643230706, -12.82413394802586, -8.928090084824605, 9.778261612854232, 2.0508836249468407, -4.533285603682789, -2.511127624502984, 9.372862045812141, -14.088707774089725, 6.138452910896859, 0.3895174025750629, -2.50783718467384, -1.7622377534079083, 0.042150237181379904, 4.550914697087253, 12.674207905753999, -9.61876194965473, -5.33181071349866, -1.8256783785089157, -3.423860588344672, -4.70361564122511, 12.262455187814597, -0.8003455002628499, -14.010761240388604, -13.907108369401072, -6.338731656464978, 3.014024411679319, -4.261057003647274, 4.703257866052267, 4.362958872047727, -2.773773002269315, 0.629702406328801, -4.843029085057664, -17.29582935428848, 9.034478018560343, 3.375742527117265, 11.203833993789635, 6.412517848587686, 4.428741418801419, -0.6473801927953498, 10.502707885418461, 1.3211859351248258, 3.78908700125032, -3.480800698009896, -1.125527447914453, 3.2958453297493544, -1.3146269757326043, 6.252290328622388, 1.0836562662009301, -15.951590285228184, 4.125318092282966, -0.9712086501448278, -1.564595233657412, 7.376088804268381, -9.63038003418286, 7.373997700896287, 11.09227388317366, 5.407068434761235, -0.23875788471667003, -1.6957374792445936, 0.8181564259917203, 3.294898407511088, -15.077908830981357, 1.9333716593841979, -12.747447439801388, 9.395454637739862, 6.7555599361852, -3.3143149533466727, -6.729952167329474, 11.017866813088622, 7.21253567310845, -0.7245459022921836, 4.117693816241993, -5.703885931283549, 11.168223253594002, 1.9792587481090071, 0.19697242070534793, 3.672170341122733, 3.668509900209276, 2.335013286483604, 12.864446889723645, -9.257300460563032, 2.920856016445511, -6.733961434298129, 9.89970808017277, -6.209840747746537, -14.527777626888257, 6.639527247921721, 2.279877921931581, -8.254736488005031, 3.3796511838236896, 11.655047485712169, -0.41535996564117705, 6.139418165736782, -0.9958400787002499, 5.4623496205801665, -3.952208517485776, 2.492300100147959, 9.849701624063535, 6.402354552641334, -9.300996598069332, -9.116091502763952, 0.05392790766838956, -1.7919219962110298, -7.699588664401592, 6.58368877767936, -1.5507809977821718, -1.6120691712919617, 1.5618832343161995, 5.562606086753179, 7.986394292783459, -1.574001403357148, -4.549419534997352, 1.0545171318138964, -6.042615723717142, -2.6344694792054493, -1.9633147744701318, 3.39496887161995, -0.4662696108352963, 3.4263646323406056, -18.509369748667343, 0.6122782929197115, 6.610797315553328, 4.221127926347052, -7.319647004182505, 2.0243722059041014, -7.0914585342541265, 1.4281610148821058, 6.089398893253274, 0.8279717310578526, 1.3163522327199169, -6.402989180885653, -6.082036907322641, -0.9481029793732577, 7.090706415680632, 6.196861282437402, -0.6807453279192328, 4.256146590511322, 0.32812168846777, 4.29937056190451, -0.03457903194033718, -10.260427408095422, 2.780313242918781, 0.7270310619776101, 4.714053016810696, -4.220768296437918, -0.9132701812903428, 0.8003802018582773, 0.6509846114193755, 0.6758833636913073, -1.62057943748733, -1.380910519315197, 10.848509455300373, 2.369193804720382, 4.087487577667508, -8.310776997212217, -5.319505816207032, -3.3604948353216777, -6.999483655924419, -1.0189205025454884, 11.927438197911872, 4.147232539332132, -3.562954424711046, -6.09789516295306, 3.5227326305036253, 5.309765511060874, 3.3795244484138873, 2.2019048422921745, 3.832352318841255, -2.1925279792911456, 1.9773211474564423, 5.396980228072303, -4.466685816129833, -5.3324053101831925, -9.188299170447559, -10.51162366235969, 2.0283472989057905, 1.1892903353991966, 3.005244933449692, 8.893847839020193, -0.5511814013934441, 6.437927761336266, -1.7838941200300973, -2.8176637679912484, 0.39806988102352925, -9.572333888772263, -8.938153980246245, -3.035589105656566, 8.343558298788317, 6.4098881223709405, 0.32502440454684006, -2.5950998392843054, 8.50150212660927, 3.3269846751030405, -3.405026176469159, 5.161940426691658, -2.4625683699633596, -8.755873670626322, -10.754100039191822, -19.9398618229534, 0.11404729712346462, 2.746214369188451, 3.827131499307625, -4.063500606663007, 1.216517941524125, -4.421108491473312, -9.45924032544025, -3.458750856575069, -19.72811266297041, -2.9798083291200532, 0.9649536000073482, -0.8190378444882298, -0.9864473468288053, 0.5746574822877598, 1.32349845018784, 7.782588268392086, 7.495947848243079, -0.3332964430025956, 2.326474981844069, 1.0946152816508514, -14.457325507880382, -1.1594838449462521, 1.4297559658903256, 8.589397993561427, -9.629904276743911, 8.581607401513484, -8.384873847748866, 7.390579435197294, 3.2169380110270605, -3.4785382206230575, 9.465066360683055, 0.7900512970119599, 3.6747063899226546, 5.9927701669542905, -15.686207468536077, -2.8726398967040874, 1.54495489369317, 2.8042529704245, -11.371788295890667, -0.8385791499521791, -9.154910784068296, 1.0533157631757406, -8.44062335107095, -9.411657638188261, -1.7822086905170265, 7.430981751379384, -5.233694880679748, 7.460174944684637, 13.644797626971705, -12.280762634145852, -5.127981568140777, 2.445717551686065, -5.606601463956434, -2.706298107307862, -5.318604608681221, -6.258658918749032, 7.383070296536255, -4.358948894412508, -6.211271890666937, 1.3891981251926744, -10.003670941615974, -8.924999846895652, -6.90834770936549, 4.727627928105497, -3.643919287922906, -7.466373898195713, 9.367865434034744, -0.9097078731767819, -5.900869240983789, 3.9464380652484685, -8.826263624139955, 1.827805904311506, -5.148237320655428, 3.249741897126255, 5.405687507495838, 8.736810047616501, -0.461449248516825, 16.135654416054187, 10.675584098517763, -5.6771349719746675, -3.453113948325855, -2.1634321936649847, -4.235868737222651, -2.0921432761231564, -4.426619536741711, 5.966675354443527, -1.5400814634288786, -15.811820909177088, 0.18917586493503175, 11.601764275030593, -0.32133589669472773, -3.5617950650980372, -8.392524187432029, -8.865023373183865, 3.5732080678179594, -1.5643504997814333, 7.245062978684635, 5.736707710154769, -2.3892402007158005, -1.6705512849007633, 4.14802864424107, -9.230778937239181, 0.9080011930152987, -11.268357084641455, 1.2650044684881228, -6.5572182926155085, -4.91818700119379, -4.5576716241629285, 2.7733372760536494, -5.677103199489308, 0.6785301505306016, 5.551828468897499, -2.5516829550683835, 5.56265321510812, 16.3427162794956, -0.7224073011206094, 6.399292139731655, 4.417995794129015, -4.655403428347191, 8.61419541530477, -8.093437631667047, 1.784681679044578, 9.291870496503623, -8.400725958572448, 1.7779280367138925, -3.7793085636957664, 15.631827517874179, -4.484496763616057, -7.199288356057406, -3.6724727682329426, 3.2904830439746675, 5.39430489486911, 5.133371717295281, 6.109856214556512, 6.106027147744053, -3.2944418370820236, 4.2510926456883755, 11.817116195999814, 4.74071661064141, 5.736023137812836, 1.8944061874992342, 9.411511089716514, -1.0520218862710657, -1.176178803751133, 1.1310409149751959, 0.2905080523674409, -2.893334730648677, -5.140801314790223, 7.327558536622149, 11.11902538892234, -0.1029174247211195, 3.580659104223171, -13.895159898293372, 4.9639204909030905, -8.118607267360305, -5.989917749982373, -0.6597101853830318, 5.195405016874295, -1.9627153292472441, -18.356813013440505, 3.09851130628343, 7.225912924174775, -6.502109823884792, 0.6221644772979876, 8.393478436243422, -6.619521550755106, 2.7972835164624574, 1.2892989635957621, 5.960058698080334, -2.98061567021064, -3.547486452350464, 4.967711508466255, -6.430449524034951, 14.02023508001249, 5.7928713913736045, 2.7536671671821478, 8.311910442043205, -5.521434914876939, 4.893271881561048, 11.78479481788076, -8.721007824329547, -3.4125264121332926, 5.496711506850073, 11.426482400172075, 0.507407814692931, 4.258319143528353, 4.619500454827315, 5.807863612912065, -4.754783214234769, 5.382455881945373, -9.44601764100929, -0.1813189991734097, -6.352293801458347, 14.196289813877286, 2.94990732878444, -6.069049327600362, -0.19774447191516795, 5.328984581098499, -5.60868856478284, 2.174577374348205, -5.198194899225178, -16.42117978804576, -12.957234927349848, -8.049311565591013, -1.72538094342265, 3.969274526248217, 0.24413440456513125, 4.648202351446288, 4.851840951585673, -6.100582604060736, -6.8835184340090425, 4.051085774941446, -3.9459593712801517, 0.578860993586493, 11.324689266785791, -5.351412627852548, 11.114031555116357, 4.560850878674275, 7.371891575424161, -9.247264336828358, 9.198182802048123, 7.880160550516739, -9.653350325070583, 8.757511643074704, -4.3964608283957665, -11.4778509870957, 2.3486294723588133, -3.412053764903325, 6.690807662288621, 8.53834955479611, -1.8488829973685847, -2.912138717183833, 2.7164485140807306, 8.733587206665463, -10.777689397827023, 8.2404536711644, -9.209396493431333, -3.661604211942075, 9.001777329799816, -0.2149037687037283, -0.5916291144318657, -6.186310722952545, -4.164659505096238, -3.0156184711949967, -4.281909885820806, 8.812060593515973, 3.86208439463845, 9.390506805945986, 6.29631452901193, 1.8190651594523304, 5.093369856760985, -0.6136206478265385, -7.818578795675372, -0.28187602980673077, 2.6571968047425334, -7.379929357500663, 6.739581290587601, -5.535427533156254, -2.93110268520066, 2.706457701230495, 2.497153798937771, 2.506013788218971, 8.638407108851846, 3.3871458534600967, -7.3980546911885305, 2.304119762689812, 0.163425506013414, -7.413191970880376, -5.832679686869875, -4.6655081527341995, -5.135309150745812, 4.428437644360404, -8.774346401067621, -9.610721761339859, -13.589999112532961, -3.971335030497867, 11.06721896253689, -14.812041592781359, 14.601484920944221, 9.018732206418944, 10.546594260739477, -5.013527853093843, -8.32221391637621, 16.224566126255393, 12.848473127415009, -12.56267201877682, 16.05747794798278, -16.384571941288993, -4.7114411433375825, -6.9940350682268715, 0.249120367644591, -10.456509440213106, -2.5761550374023625, -10.201563171083523, 7.446792992905582, -14.019862972033694, -1.035892312087224, 0.3023720304118017, -11.353213682502403, -5.385498238874806, -7.562768851517092, 8.45022267968081, -9.422726824408919, 5.061223054234048, -1.0231703532601892, 2.745466939604972, -0.5641819939947768, -2.461213227365797, 1.429351467619154, 3.855519370095023, 5.763205134136815, 0.09776363481099026, -6.907193594054384, -4.8301280027092615, -0.5485991790115605, -3.394226402934031, -0.17156840561628794, 9.402566331009199, 11.220547691666658, 7.320564135976528, 1.5951514386166197, 4.303247049538384, 7.6780036544622305, -1.5347081291381908, 7.805951214266212, 2.2003984386106934, 19.453231744372516, -13.190652052359905, 18.364061866374566, 2.844277145881828, -3.6125565218866136, -16.149611571144213, -1.429475068472242, 12.664632544742979, 2.060478803904033, 3.2373955142175226, -5.478008417724432, 5.113264762820272, -9.852168917417414, 2.66891698473444, -2.1348133639515297, -3.9758670460609022, 5.43545758074722, 13.402298599873944, 2.5056245745725403, -1.5297762884172295, 2.995068649353765, -4.6008801154276275, -21.811529520249675, -0.8563897613631803, -18.725856459117733, -4.968513078308317, -12.829380552430107, -5.649630367896142, -8.452996047013082, -7.8434322792406315, -13.315272221699345, 2.0847573566051993, -0.7159825322843668, -0.03483003916818567, -13.166644857355273, 0.2999121876242187, -5.121000263118771, -5.394092539704869, 15.532525197420254, 5.479312495667477, 7.084480688483491, -6.5773946360017765, -8.477106816643527, -12.815366616116846, -0.9602110331862133, -7.0222862952200185, 0.38512241144747655, 3.22791991926691, 9.729711363135495, -10.604762297274906, -3.552309247835997, -6.631994396941728, 3.188725669970528, 0.3790934039023046, 2.553265971685911, 2.83675197194629, -3.8713232893194336, 2.895204550470754, 3.453087861305245, 1.0012074855499005, -2.093962277182044, -6.06231030741775, 7.997291833601619, 1.1322833652208668, -5.205284529497507, 3.964114917571609, 2.6429631207748043, -5.289282644934241, -4.934027345879482, -4.158011600015689, 10.793828385332525, 0.549224059427495, 5.62059361130672, 1.651144212272804, -3.224820326834135, -3.250068142232701, 1.4118040293374916, 4.975223218294378, -8.94259110483534, 0.7600699865938025, -8.658844813656728, 4.994226897815597, 1.7838142171735896, 2.573031029747009, 7.091482705102306, -10.1171965651198, 0.6690786987618832, -0.0454098524495401, -9.813773757484618, -2.617012638502348, -9.34522961372803, -3.8873865919914676, -1.2066576250472403, 7.890304437703057, -2.284746203250166, 2.693502089041604, -2.101929430584485, -1.4221280941651981, -11.865766835916933, 10.750948604361305, 3.475718876221268, 0.6494516962650143, 9.849107727677726, 1.0514253073882818, 1.5137244230485087, 1.2364808036833619, 8.31543855637859, -6.511810640799275, -0.2063271067719198, -13.54647067813602, -7.074267964328919, -0.01182390663256716, -1.7684905302361185, -5.001840706403098, -10.041557722281473, 3.8471803265161753, 0.49474239720119895, -2.214313707752875, 1.3884523635574961, 7.3256081719354755, 2.653101556350295, -10.249114334041678, 20.61623856564615, -0.6826795839417904, 2.267147537103898, 0.1077343203351705, -3.5220447240418853, -8.541331631546214, 5.108825432847296, -8.415428299720388, -4.852382938799553, 13.24616397630621, 10.24297885735827, 7.390410188563638, 4.789460116148716, 0.871062949635063, -3.280378528026149, 2.6637395989173096, -3.1953697954325513, 10.208593196607824, 10.115616834892567, 1.1025224193403436, -6.589602631209922, 4.671036552650384, -10.576504144455324, -6.079384417627463, 2.807050001281496, 7.987245537981302, -1.4645383394302736, -2.583428295782854, -4.903096128828123, 9.689360411208165, 4.148066129999953, 6.883246931821954, -2.17368003394546, -4.603613012918743, 1.7864334064271619, -4.18257567541637, -1.6719150833343681, 2.1371806437423624, -3.2776274168743895, -1.9467645074588729, -2.751341901874879, -3.2958593998877377, 3.189555542788743, 1.0588492180569768, -0.44246584959931035, 5.60149785561388, -10.480975166321121, 12.139466259983687, 0.8949751863948114, 8.237917032466376, 8.591642351007422, 6.322402983204266, 5.513454406000341, 2.3019137804386376, -2.5979704243249153, -8.372416939282399, -4.742253621371566, -2.814323530327382, -1.0916272569911611, 4.351995833357043, -3.8917742593460636, -9.424447022663063, 2.5458507947915545, -6.836254413299831, -4.394467352977449, -4.703551893493126, 4.03771117996131, -0.7573223262016533, -2.938219615270859, 14.196052965428962, 8.161065206046745, -4.334665951728454, -2.982440103067966, 3.297713626685443, 7.226292766990395, 0.8245481500785323, -4.671031751798074, -4.777685376928182, -5.553861921025133, -13.595669292880299, -6.003244127151266, -3.400823614323401, 11.240815099022706, -5.94881330736014, -4.866035892001914, 6.89053179967231, -0.5205287267403274, 3.558048773075269, -1.9492210533188534, -6.361325238920327, -4.0242492915883865, -7.5037630008211496, 1.5763781882474313, -5.293679721593028, -1.1813698218143056, 8.289334138818294, -6.094019482734514, 13.824760520865377, -2.122925439863966, -18.667793868071332, 6.9894613549987685, -13.397468485903463, -5.7784685301173715, 10.860511266323387, 1.2722442601983546, 6.9663303560827, -5.696079839443528, 2.7436950953220953, -1.6626394568035328, -2.2912779238591647, -2.3459202597684614, 9.707660136101277, 3.70740491239254, -3.3816816097511158, -13.380347613224886, 11.115194191592325, 5.489442201187422, 1.6541251751773618, -6.9392559196509325, -7.095910024211656, -12.611824167930589, 1.6001438159489572, 2.71724541054091, -2.89990977148308, 2.5244243372345343, 4.968502476758363, -9.249408323406419, 6.2232353471576465, 0.5619095154812508, 4.574941063443572, -2.8351873270022896, -3.5543956636166727, 3.5619521154101803, 5.930771376896786, 6.651757421484695, -8.443205605155747, -0.02520394720889141, 2.7267790498268574, -7.294286107791623, -2.846021958150634, 15.832555897059283, 6.935019311523893, -2.6883604948497384, 3.0204473184818186, -5.154157307047389, 2.2299898067645194, -3.880284455634624, -6.612509175232393, 4.191243733365535, -4.861972234294854, -6.161724916857695, -1.3033425650624244, 0.7964585266043187, 8.432081065300538, 1.178432760653469, -1.7628932424363246, -6.216555273033434, 9.81604866121428, 9.276672751105712, -8.735931206660206, -9.005272759469836, 2.652847631622152, -2.2725422717856585, 1.7123422029141806, 9.417636483895135, 3.295250877864569, -4.21272288783808, 4.040331838973847, -1.742112710580068, -8.003398222811757, -8.960373998474612, -1.7328007698231402, -5.626463252847578, 12.649479966105403, 1.4687949301519307, -0.9474788631428538, 1.9697658973209875, 0.21704793377276263, 1.259263279276577, 1.2820451847995324, 19.92160897787328, 7.893792422416883, 0.3862598585745044, 4.079310619424514, 8.412256308189082, 7.8563368523300765, 12.548284259933153, 8.12155292005196, -0.6544011434907278, 1.182633022295032, -2.351259911176066, 3.500839438153127, 2.271062617912197, -7.735474459552162, 3.142419110550554, -14.192653394531547, 10.936720959696189, -3.4172721808374504, 2.841049121808941, 11.658582279145755, 4.802591908031791, 5.288842741476479, -4.547053312127293, -9.344877772664054, -4.359783287838463, 10.126172515663459, 0.46638126341275316, -4.839829125589196, -5.862815553241945, -10.267340543948983, 1.997649606568903, 13.815501258542202, -0.5663462559197908, 1.7074576699103596, -5.848568141049493, -0.5971763595825755, 7.323281278139104, -13.781007585952114, 12.794064044696047, -2.819057948804419, 12.2211349997079, -7.949669300045947, -15.617320051380114, 10.801751623070059, 5.284731021756826, -0.6175646043029261, -0.7874756436481853, -7.477871539480343, 0.813016720126261, 1.5438554584912487, -2.6872516920597915, 11.489121442980352, 3.026163772497003, -0.4532340969815548, 7.495712537638064, -8.529735470655833, -6.31673908066429, 4.2556586347713665, -0.5814588982631171, 5.030034508980339, 11.694438908711371, -7.274390959173822, 3.287223149407205, -6.425020364016423, -2.4527576816253274, 1.3579631683812923, 4.464631531271598, -2.372259986013213, -5.390844628045871, 12.159542302525093, -5.724366954949836, 3.9098086632296742, -1.8833724162956191, -8.3938855388022, 0.4299638373638859, 2.02564230611251, 7.687430320204031, -0.5308752111061791, 1.1218153242360105, -0.3384059464921607, 0.20254478257433448, 3.6018142955004766, -1.4789231744048232, 8.84341852491466, -0.6603379150556518, -2.446951296345278, 7.2506646393617515, 3.0639150786896616, -5.972798307237356, -11.887904806472395, 14.331180173532202, 2.720104463480257, -6.771527661896561, -7.146758595312864, -2.512714711735952, 2.6082439843864114, -5.541062619823432, -6.4336903490831725, -2.60697793057602, 2.2456412650479587, -1.3457206033764173, 4.020365932715914, 4.45478754025006, 5.429905172962253, 0.2926763872105075, -10.932217581301384, 4.810766912281807, 2.9164981296712478, 0.9958559345929107, 0.8543407890167759, 0.15234482301183466, 8.191460286121975, -2.1980996525588816, -6.001396581028386, 7.7724267541338365, 0.3005947451967783, 8.702042194835734, 11.736965873696889, -1.3677447921423638, -1.7837171161764456, -5.715642366609835, 3.3841111023223593, -13.87091941084037, -6.963801922280831, 11.05246874751951, 4.853418122191113, -7.031221154095459, -0.37518529648375365, 1.188262154356794, -3.980559893607266, -3.260434271668376, 0.8782926784031588, 2.2643242422735104, -10.693077718083567, 6.575201091206915, 11.012264055641031, -3.1097694488296215, 2.9843105521333135, 5.23174761974479, 6.939656337748002, 12.717762774190216, 13.440937517403995, -1.6299408286582227, -11.146027212332557, -4.199171605487287, 10.244916309513687, 6.1543622164753335, -2.808105046280451, 1.7008284379609593, 7.782405844391458, -6.389741783183111, 6.82196388449651, -4.031837609220718, -3.7898144910172986], "model_name": "echo_state"}