{"model": {"n_components": 1000, "activation": "relu", "n_readouts": 200, "echo_state_seed": 37198, "output_layers": []}, "weights": [6.286948994054856, 2.2630331353175146, -7.035428754912074, -4.464489439763212, 1.6077899677498961, -6.819792332919076, 6.550520827761372, 1.3746929172844753, -5.9996029352510005, 5.007388722246034, 0.8572058848712629, 4.267587910488103, 0.8789510937612727, -2.115099816310292, -8.71573938405332, -2.4802880191329315, -5.392324726644414, -8.724149953526792, -4.771649452269342, 0.11414102253916963, 5.928871846274446, -10.187562948640954, 11.392857666043914, 1.999190734275599, -6.735050810357595, -12.791643059291994, 10.84089685955571, 2.7781802577761496, -3.3189513312504335, 6.902225942973141, 10.120051011169117, -11.26840748628852, 6.614446036884748, -2.471610430024906, -2.255186112202412, 1.0607014749733858, -4.988625892679524, 7.836351203757086, 9.432146304871747, -10.294235899578531, -7.195629100054864, -10.16194714227669, -3.4085077597436095, -4.929184939713687, 15.00978864769425, -1.5860080570568946, -16.57941774977207, -17.851657806879697, -2.918790261772434, 3.8473341921759356, 4.5287798557570715, 15.248768305608628, 13.281357269118402, -2.051079250580233, -6.82657399006268, -5.374894686723457, -24.47311762466024, 16.264898693100186, 5.711682637686532, 7.277660399558599, -1.1715150313991578, 4.3877918077283535, -1.1864405949030088, 5.831420365833446, 3.953350336025351, -2.5290007594286954, 7.590304841945265, 3.0628552136108134, 3.3866311340566915, -0.954121762010923, 13.865358736533459, -0.4781170277308656, -11.127883263914411, 1.477501873997632, -8.22613082202103, -5.428398974906288, -3.243348986416853, -7.8239540564404235, 5.54149148079606, 16.433321033757927, 9.075159306095289, -1.9642409953845679, -5.862455422977693, -5.230837682447229, 0.21372787164213036, -10.820729058306995, -1.267618986982058, -6.167485714573227, 18.471848481371033, -6.329010131685025, 1.7021401338224516, -0.8227473628978615, 15.831072743568873, 14.76301161637853, -3.023776752800725, 7.423670528464181, -11.637313745565582, 5.594890945879485, 3.746730657311552, 9.022718215181904, 12.853010975982402, -5.257094798333191, 0.010741229878574884, 13.345368104967472, -4.224115690007833, 11.357583843021015, -8.953914252848492, 5.272732876439247, -7.603446879042054, -13.48500257466528, 9.009692508382743, -0.8164125062198361, -3.7254157640378485, 6.280289155507375, 8.708564088860056, 2.5405801203196825, -3.571632440630226, 0.7580815148073596, 7.187185133563086, -15.02301532142077, 6.183740246072526, 13.484937944746965, -0.8981158526692299, -11.90260535631012, 0.733863610452635, 0.5332870846470598, -7.0951123707984225, -6.792378424619464, 1.9205651728345188, -1.7285161528841817, -3.042968884817346, 0.13640163789999318, 10.479793032296264, 1.7918470687133374, 0.8059402615042375, -4.309451395338171, 2.164477369369171, -13.2485659361283, -9.832538756032756, 6.731749897630179, 3.6142534230370806, 5.465163934300865, 3.386354541327002, -26.64933798080687, 8.9492514814282, 10.75466914279713, 1.9619580199762368, -1.3136479768753055, 4.6681303463155706, -7.028810869411526, 0.9872813605152688, 5.414619899976669, 0.5128620706658193, -0.7724291816705355, -4.022991696273415, -1.7663910312940931, -4.766330956218059, 15.03800848838295, 7.864907024741939, 3.0651864050302144, 6.611182377826639, -10.094875620684608, 4.839858945475939, -2.4767015378708304, -10.598006543591492, 3.5756308958408227, 2.4134061303157477, -1.2342929219488332, -1.2574398067375208, 7.32692801695754, 0.5207212728311854, -6.82357245117948, -8.41389357899493, -2.5530568677090173, -10.145989582612906, 17.743727196395778, -3.0312123330680496, 2.975934641690658, -2.799108515791658, -5.058862633488153, -3.2952168260050265, -4.298468363576957, -3.1650413484942597, 19.083020611959512, 15.016649348075184, 0.950348149608083, 1.7115123366467349, 11.00811939463144, -3.16681186413805, 6.1969850708871554, -0.3647819534564304, 6.281889528082163, -6.68122710492602, -4.056173253238991, -1.282130254444307, 0.06454843101527974, -9.705623448511965, -1.6186526789334157, -14.479959186185921, 5.159639132964732, -5.710384090786398, 7.429485883051531, 19.742489696895582, -1.4971870318786418, 7.236604931900482, -4.0280960016187795, 2.645819880604385, -11.726727623846697, -18.586968053407602, -19.7975897735802, -9.996281033223633, 4.784086896602096, 2.4569241059648674, 2.33031469323031, -2.222900803575853, 12.023432398320653, 4.714357886953857, -0.8801062892530683, 4.7415004388524435, -5.179398482768832, -16.668916891639217, -9.22769836495436, -22.970236967865592, -3.8449503747779072, -3.295055906096594, 5.027692711604063, -11.903642761048728, 1.8183165416125133, -5.532366095377759, -3.9157511397514435, -9.139649903144843, -29.179279252216283, 2.3300270027899885, 1.8713529546422176, 5.559039361113338, 0.26986898142851834, -3.94776366628528, 1.2208802108919845, 9.545925854774152, 9.252145425161245, -5.759721232179527, 2.0679087923732884, -0.17334228432457532, -16.97552421347724, 2.0779868232166665, -3.683921879381615, 5.839949966352511, -14.667679861923384, 12.150785606905588, -4.992440604307249, 9.80023481655338, 13.536542490514798, -7.198966588864582, 4.337750893537249, 1.9182658241251684, 2.770875473826381, 1.4898111833203591, -10.904561519070171, -1.7304092935000834, 0.5447393616394162, -9.096775464455652, -4.497575528976636, 2.1166596296032636, -10.638759220485548, -1.7301753750020974, -3.081471736014059, -6.163657852364171, -1.2011979967332878, 9.072236774801482, -0.02532629077853632, 10.599910617186902, 6.228008688408778, -14.090145441987092, 2.2571628254921396, 2.7388624718949135, -10.493276641987592, 3.053349683840107, -6.114202362906677, -2.1869849279073765, 4.278398080082377, -8.209739008870162, -10.889523962165741, -4.850089577654876, -16.41618797187595, -12.203404680964761, -6.122377193185928, 0.4297888949516283, -3.283694139200355, -2.8073212262707954, 19.416211449183123, -1.9615096005218897, -7.758694315029082, 6.189642029180285, -6.279038952924394, 6.45031994536021, -9.296465107431182, -0.5307084893070368, 4.863225345387905, 12.077550488033825, -4.984571421780893, 15.019193138032996, 9.047810916520179, -8.754059922837106, -1.6469692237761477, 5.337569502095883, -8.130703462250079, -6.3362071039044, -2.7327496258067585, 4.612908755329301, -2.185484945477388, -14.376465008531175, -3.993823121538474, 7.663968259736517, 4.2020914983257605, -3.3002518436699972, -4.945255093570353, -12.901859128235063, -1.5391298952384567, -8.191663085895676, 10.013359285071921, 1.7735692532755105, -10.150142861878244, -0.7295324760382145, 3.350889945174464, -8.491328185213435, -14.404703077427314, -19.75873557998309, 3.5361914380260786, -8.030318548441327, 1.7877456899297854, -9.88936483340557, 8.201290012349924, -10.123526638346, 12.958734853833658, 3.796853245741465, -0.06978903540316872, 0.21361291131435095, 14.496091984025234, 0.12029187926770074, 8.273641024608557, 0.8627131091034645, 6.07891742374992, 1.6857452315415797, -0.9978629859276025, 6.868384104868621, 2.498260580011112, -6.154139520748207, 0.4196854870404017, -11.366276292059542, 22.168820170444953, -13.664693683473587, -1.6784160026396613, 2.0821419957142244, -2.066590969153274, 10.754358911043399, 4.95734959906783, 1.9602953211770873, 15.778328885097988, -6.762140088866988, 11.354148019177215, 12.704872554319499, 2.486070169430635, 4.6559614661733635, -0.3881430753091124, 7.379707950318911, 1.387210814090142, 8.533159620777656, 3.7514641908634174, -7.751669100818384, 0.1623181149480604, -1.1163408293225154, 11.08200829018667, 7.505410784441633, 6.854488606102721, -1.446829275086603, -12.13253149597831, 9.736922831365739, -12.822325100775933, -0.2695729159161836, 1.1576874270826987, 13.772566731136804, -7.257714559293499, -18.795480458343757, -5.039694168120782, 1.8075862666753888, -5.15096945664166, -0.33442009195462474, 6.2481476683610575, 0.5537831130118381, 5.150426105391879, -0.7327784202994648, 13.463530792597945, 1.5648977582884163, -1.7808379664120602, 7.532026075475387, -0.3279103846712339, 17.39438396410383, 13.637509844924136, -3.8791523054772434, 19.89562474233431, -5.676303302659373, -1.3818830270380962, 4.240667958072777, -8.825879295757218, -5.971670690005877, 8.523717675361704, 11.2282259406772, -6.822922098248684, 6.118006545306486, 4.751951987107053, -1.1569240185384966, -6.546446350451048, 10.363764978284602, -10.839986088691719, 0.009848514131508113, -8.066768315718932, 4.988558748734292, 8.284724285294269, 2.7679549099635636, 5.2452760482968035, -0.1724108142488019, -14.336542238987645, -0.7037844298779341, -0.7187111851456075, -17.61575008749288, -14.058985822120814, -17.467391053620453, -0.02650702480036604, 4.748339259434712, -3.046683448667225, -4.873160276967209, 10.562597176916688, 0.8910035138073285, -5.320278928131476, 9.845631894065995, -2.903610950746793, 2.2151247226274546, 19.012820485066214, -2.1303080609163003, 10.795277070709083, -2.192245905649377, 10.443862686885797, -19.065032362356206, 5.950902911832423, 9.19681533257151, -13.648676635926662, 15.903117600046276, -12.020685175214906, -11.441388553984302, -2.7264841599410397, -3.871166491811539, 5.633076271022289, 1.542943830558843, -2.893870928067614, -4.095148554026537, 4.648693990284656, 9.200326588731956, -3.622499075078995, 10.297824383732756, -11.563083798970174, -2.946630152318392, 16.017610231222328, -5.7435134571971345, -0.7081249302252658, -7.012273000592733, 0.2085898845325781, -0.6149761421241751, -3.6898397491219397, -2.184450084769143, 6.779942055646584, 9.859814815282395, 3.4505478078950285, 6.288962414598532, 3.2108007512951957, 1.811681503464134, -13.70594551501166, -0.16015770361775772, 1.397861473482679, -6.253336322390205, 0.37547123656769366, -6.001828522389063, -0.006725598634144361, -5.076684446657996, 6.879258534495063, -3.889703346597624, 8.221742695666498, -1.1428606805731159, -4.687230223833636, 3.237955416260755, 3.3245974188557557, -16.456791501279913, -8.641507984187099, -6.296754034809032, -8.471797826767439, 5.576483446189674, -0.16301252452899634, -16.32806125264659, -19.13278568511404, -2.7257215250607842, 15.032935154603209, -9.186746276598317, 14.291144505445212, 7.147867468180831, 6.570586368618718, -3.0206556036327057, -11.102940026689726, 21.76937329298791, 12.046301252795459, -17.35991851743288, 12.289731542218297, -14.783007943870832, -4.9317300976931975, -8.653072480910193, -3.226947298831704, -14.331593139754899, 0.7956964160964602, -8.489263305374992, -2.156327997360346, -13.46552086066127, -4.373118012107188, -11.740799867188384, -16.0103680012262, -8.824032962529978, -10.747983355931366, 12.993354298809338, -9.10212122493169, 6.087969825975355, -8.074141296695046, -1.828871968443476, -1.5111408612142971, 2.4361364526892975, 0.27838456446780824, -5.1967249262385415, 11.022374155729032, -5.870381372059214, -10.746552566725304, -9.57104737606825, 6.507224678884688, -9.003129514223172, -1.1980305236121, 1.7126119659425378, 15.85358992700503, 12.597609795307621, -3.898993942661948, 8.14346101986559, 10.172061497791056, -6.635279918436242, 8.539762733593149, 3.0389291008402832, 15.08215976776509, -1.7277899948998474, 18.782670193356328, 5.568747596022859, -0.5152253491774521, -20.639568459695063, -0.5172133058427251, 15.719112045111997, -2.8232160741493244, -5.856952732524069, -5.355116288604592, 4.46354192500631, -11.49065655228711, 4.126254783697938, -2.0323656037429707, -1.8249636804265823, 3.904601963282601, 12.345269350749485, 3.067913623046064, 0.24613138317463895, -5.273074913170779, -2.423360892318917, -22.843091053343837, 4.397250563447547, -19.937343788008356, -10.489313038319382, -17.496685509414544, -8.913086516758819, -11.186394326359848, -9.52401625101109, -4.537396115912485, 1.4944018371008918, 4.742357318425306, 4.364579105890829, -5.713370689298721, -8.758584041764637, -2.595555531054293, -9.379714577197495, 14.038699256358061, 5.893346529731038, 3.5247190308515437, -6.586282153396364, -9.668104817965713, -12.544853414949637, -0.1828426601879667, -7.874559818387697, 6.7346705591469345, 4.165625137800242, 10.427883779119497, -6.385291865078505, -5.304949204855664, -9.507287411339142, 1.095902732274496, 11.903816579901326, 1.4380657317691128, 3.399539000546286, -3.2907886356167406, 7.478631021861691, -0.015603035320262804, 0.016884284701761287, -0.5057836325491658, -5.302919374070792, 10.417637037798565, 3.6130909496175905, -9.620635741879642, 8.858441223842533, 1.4726048475848463, -4.676275531221735, -3.7822079124850507, -7.986309883434481, 10.073757587343717, -3.6561615468313247, -2.445594733845241, 0.5702252442952405, -5.289565652593037, -7.605364562253953, -2.296531903168363, 2.2730125897268407, -19.608771082167472, -3.2182150812531045, -9.655371450122763, 7.718604364072179, -3.8609227501314742, 9.30438772954664, 2.8268201163837827, -2.760737961879044, -0.4346293238168155, -5.728212142519535, -10.753616569671852, 1.145633447181206, -16.296736691001104, 6.205379881272967, 8.307246194983476, 7.389272881551531, -3.295808633121124, 4.625374791485093, -13.654256561636391, 5.903697844418775, -22.83467155088638, 9.751573662315169, -1.7439527391302252, 0.41097042567091935, 5.664085856308634, 0.2566393342995449, -6.540104440863106, -1.9493817999879186, 7.674979531720628, -1.9350391486141785, -4.728821527240089, -16.674718415868885, -14.423273980447453, 3.146390486383498, -6.956132393020146, -0.8068470211109416, -15.590926820772474, -1.79983240774583, 8.368415775232002, 0.3865164084869882, 3.701060085949009, 12.83198358132738, 2.909939947309138, -5.837226214587592, 15.304048307249756, -3.4499315199153253, -0.9461693489682053, 4.431920824449368, -3.916288773946229, -5.537767154799013, 7.7348967755653755, -13.070900989677607, -11.914553286273902, 14.768686775985612, 13.204802762843535, 4.970315980046848, 3.6442108713567642, 5.210219676420692, -4.937531857188321, -0.06453627062232083, -7.629359924260868, 13.17820588104455, 6.494766781789045, 3.577667982299799, -0.9348640265134511, 1.4379551934827444, -13.189241389929329, -0.11823908230874469, 11.416059051683746, 10.134944840915054, -2.107511322347324, -5.242555246270493, -3.2710375836907817, 13.324381050351482, 0.9430925686942061, 11.587380296032773, -9.917900462299668, -18.43162534489771, -9.629753691727299, -5.372864300501691, 12.569338456649266, 7.01627528071243, -6.801380173079154, -2.6711367296752746, -2.334846430978532, -1.454352343264763, -0.7195883286754117, -4.681765643912191, -1.6812687240749873, -0.6207935991120437, 0.1513321773335431, 4.120597902038978, 3.665663882019039, 15.92737380069729, 10.494916494677335, 12.623638217037728, 9.902849041562941, 4.089120412054366, -0.8997021519519026, -5.077510687668594, -9.723541894076687, 3.7043418283479728, 1.983881629585601, 8.896843723231536, -4.4768930937296005, -15.738981845571297, -1.086632917087635, -4.526604030135148, -4.632837022615095, -5.253205115491156, 5.0962846939281725, 3.345348809891267, 0.2596367713114618, 12.833149222990588, 9.259953083301768, -4.869782810407835, -7.30708473041137, 9.981452132362703, 3.3705944753327532, 0.9224460841566433, 1.4829904609878422, -11.400587907432813, -8.281381956878105, -19.54403933619925, -11.272542164955315, -5.554091424478479, 13.84936363687471, -6.051099390798647, -3.5009758087603613, 11.784745480957016, 0.14787383597220494, 2.1443061749757026, 1.119342309064455, -13.187360433732891, -5.340653928509292, -3.300351987370081, 0.8034255417497511, -3.4901706877935625, -0.43364296761621535, 6.130643026152391, -4.6384691146387, 8.302864886306375, 5.3373490997970805, -26.699146627573313, 13.72284617347802, -20.23001459759834, -17.94236580112936, 8.679977522241561, 0.6218286165994068, 16.36934397301754, -9.435848819608198, 9.039029900170192, -9.731021558352772, 2.325956845956188, -8.117700848081068, 12.306786040162446, 4.3343194169328765, -0.8459036674655463, -15.257084712139665, 5.036714225211786, 4.171486287680962, 7.716304426740332, -5.760696187146506, -5.624496849287554, -12.139563282700971, 1.625096204695774, -1.3664005100301055, -8.794630879052407, 1.5766844998902156, 6.84557196337369, -4.941728632096582, 7.8121374110736355, 0.35365485754863213, 4.682298963348293, -0.9404986796474488, -2.744068824363881, -2.547832296161289, 6.865689955579477, 5.135844430459123, -20.690328821925394, -10.46598015296935, 0.7785413512613006, -9.588721842143173, -5.923333171791774, 10.676888185372183, 9.219438781283621, -2.412668353391929, 6.9427687219132626, -4.344019674138314, 2.9911332803115056, -1.3456311687961269, -10.69157916853779, 4.164708573728208, -3.2787037059779336, -4.8716589243292905, 3.5140456078543467, 7.621485143964368, 13.67450526692664, -2.1530400879485456, 4.08230681977692, -10.55324827449493, 5.883031843082955, 15.353366560803932, -5.688239960464066, -9.268815772395964, -5.532626684418627, -7.40172320196892, 2.5572351361773844, 9.96470485149648, 1.1180466319114504, -1.1754942967788211, 9.705024406695838, 7.374065710095734, -21.28236005300307, -10.245070567785971, -2.657737346405178, -5.076277624501155, 10.861538456221568, -7.096675100492472, -0.20289936030577693, -1.3821195539845879, -0.32144482013880127, 4.389017517694902, -2.2500242277107785, 24.40188238462985, 14.106539979243978, -1.6626479093674096, -0.1293511272519965, 8.410453866510359, 13.400207707842348, 24.521623839084956, 14.61313944167318, -2.48122160946083, -6.617118747579308, -3.9431945716514187, 3.8644912670467537, 4.124400864466438, -11.089753364463746, 6.638837006519334, -12.890613944981256, 15.693474526607027, 1.812318809909708, 5.142490728601505, 13.647732979098048, 9.580808009829, 6.567215822620963, -1.2433090955712223, -5.567480855907276, -0.2834671826960044, 16.308512352945446, 3.9551186736157047, -0.6963238590492535, -7.9500533064898775, -6.419789678052569, 6.244317906644576, 19.47085897720784, -1.212874389909135, -6.684873550794451, -1.8710310689823018, -2.4361959897445926, 15.601589013000606, -11.238254980336981, 22.69111183284285, -3.819295443705901, 18.20266858982686, -10.872701798043554, -18.14260733830165, 9.43488210403185, 5.0172266017331735, -2.646349802160597, -7.4913393197142835, -6.377203963310288, -0.8209634954969525, -1.872910261232535, -3.3787039243870254, 11.11427760393579, 0.22999867807838492, -2.8721827491018557, 8.923685360127577, -8.984969907044249, -5.950951787003517, 5.524621263724872, 3.419048756548177, 14.60737824427816, 14.318477367559032, -10.036172521130746, 5.684468455937081, 0.9909246863017531, -0.5213290172017928, 6.95797008321233, 6.236696795834099, -4.312461914004967, -5.308136023737611, 19.948365812336235, -6.851240010047334, 12.437669835003513, -4.163507032746917, -4.698130968798638, 3.6761644266075946, -6.46209838309637, 4.779883856035984, 4.529514686677184, -2.1488099144559243, 1.4972757450109644, 5.112126302185724, 8.32784516322899, -2.2250047998657356, 8.81922597601776, 0.4137598355665138, -5.423169448303802, 8.459370678418018, 5.378805892341949, -10.173775627251258, -6.513334721932583, 9.868602614228786, 4.861876163436213, -4.660814619147418, -10.045216336515683, 2.2437536630279222, 8.927360429203999, -8.043089609706929, -6.185260934453956, -4.699772081381966, 5.340780007307105, 0.7656608211518949, 5.509203307392155, 7.579788770719478, 13.694190972148816, 3.3581336657346657, -8.364846723193194, 8.946857080261639, 0.5918836408264101, -1.3004056738269774, -6.668348166433787, -2.3600935048057545, 4.945665185695747, -4.999775639468817, -1.6432266208062734, -3.1832513726533156, 0.4879743224129794, 11.23925916393464, 1.8894637997775743, -0.6637336045649893, 1.260623184062929, -4.180281435634654, 9.975192863653309, -8.941877998449158, -3.646175833248465, 7.176272228739289, 5.5365560998994905, -8.029049891221408, -0.4813031332252925, -0.5295929000450184, -8.093001168394586, 2.2045697563235094, 0.32970209380419524, 5.1764117576082995, -11.225641865381121, 4.692513390555254, 0.7497542535837387, -5.691409865799988, -1.6169645536655968, 2.3120985730270855, 11.48985301736005, 15.41123505464756, 17.13895708990768, 0.0819630299804455, -17.47529314343454, -5.507978810960974, 10.470882890451332, 4.4198229056269405, 2.105946252367369, 6.33214905427525, 6.495470242078895, -4.665715721115344, 19.18190624048064, -1.092351371148349, -5.21244318753381], "model_name": "echo_state"}