{"model": {"n_components": 1000, "activation": "relu", "n_readouts": 200, "echo_state_seed": 37198, "output_layers": []}, "weights": [-1.2544189067254614, -9.045950667990509, -3.32546307012232, 1.4192177676750828, 2.7018717072271317, -4.956790149122761, 2.4325531295434173, 3.3087898509797435, -0.3377702073915443, 5.292092807876358, -0.4700708190611972, 7.399734115201008, 3.10432248516109, -2.2441284175530436, -10.54572407108232, -1.7089560542652231, -5.887535611386642, -5.336780737483754, -2.487942614443038, -2.1815533755378307, 3.6917720472730142, -5.2144047669349884, 10.90618377114445, 1.3193448863921327, -13.88413406991536, -8.509250895391395, 12.4763193627439, 0.43907560620376507, -4.880327219165033, -1.0587457938307525, 10.4220254925124, -10.996166913631003, 6.177479084278497, -1.933057315978225, -3.4144124603611705, 1.0482818228239328, 0.5376271871578431, 5.648809361614618, 13.793392511590582, -6.907618909276894, -5.176145104510536, -0.37479199924071804, -2.577104952695461, -6.852874814206055, 11.24829802990989, -3.0615710196473302, -12.021562619340125, -14.507486321912873, -3.6903272647323604, 3.3028300393203796, -4.021311842310142, 3.470611437651978, 7.7503846784229955, -3.7829972435282975, 3.0465878539293936, -6.002895413734561, -18.534591943521, 5.289564965729258, 6.151475540089614, 11.025337066272995, 7.646221414226331, 6.007960720708361, 0.38454558108406844, 7.968864611259863, 1.010908917167262, -0.30071522944240986, -3.5362595996568484, 2.969693117691903, -0.13210364464999036, -2.4560152455665882, 6.316494810739, -2.9006684706084367, -13.967604358077155, 3.828204222120971, 1.0342096439098987, -0.9942693468323287, 9.057013191978273, -4.699007016928982, 5.756176944124262, 10.733525110542217, 4.5305901637192045, -2.1128333059355455, -5.372429952051653, 1.1305353922578556, 2.35222027509051, -14.396027200957883, 0.9397819132249199, -12.529704276287777, 6.485619662788524, 4.591878522086882, -2.3934748766660605, -8.679350752667407, 12.338793341072675, 4.768004699612796, -1.0061415236720501, 5.280715511379307, -7.475219508587628, 10.041237291654733, 0.4591943708448255, 1.401789862485094, 1.7217572543391264, 2.3140059193817715, 3.7103591704415706, 8.736254549853909, -9.635548762635876, 2.536635509304221, -5.210302502558489, 11.91576726861513, -4.879901550974325, -15.786900701112328, 4.361430704328999, 2.9612023588729612, -6.593309103381801, 4.193262690089727, 10.536606746070632, -0.22107808712476495, 2.386488105948345, 0.7211128933852001, 6.714492858224016, -3.4624202782989544, 0.703117359518162, 8.658277183160578, 7.5929717497394895, -10.213394857359269, -12.041094051952651, -1.6433375183838683, -4.291815633598709, -3.020638637437644, 3.567686603012327, -1.6192027026941203, -0.9305507297228589, -1.9713613505438108, 6.688168663454724, 6.498289448815029, -0.2517203993932716, -6.669140336888386, 3.012311879210649, -6.940656443408308, -1.9661077806304281, -3.7724847075413024, 5.884977243571367, 1.0684706565241788, 1.2583865080951242, -16.495199817454274, -1.2363358155898083, 6.185766307321285, 5.016604439798607, -10.462128080538424, 2.6589787121797857, -11.105596655069993, -1.5519502639528064, 3.804824942045445, 3.824766976358537, 2.647718166582895, -7.1581663142050855, -5.125570166824882, 0.08030141460344487, 5.248298209933018, 7.759253567642242, -2.0827996286810704, 0.9393735339886838, -3.784765481588311, 6.438287551513903, 4.5733311163704915, -9.190598115251444, 6.613074049821476, 0.05533811631355179, 1.4158320209818203, -2.53789980614829, 1.1546390171182583, 0.06951215471321548, 1.4609441972128197, 1.0647864877385054, -1.7072122174077626, -1.709482681661315, 8.816101649161832, 1.8975868530110687, 4.015184389168888, -8.758001179112298, -3.833968886228189, -4.737487375727994, -6.090908966861477, -2.361229939355029, 6.620732562008403, 5.837178829383386, -8.411082528757962, 0.20873370812297024, 1.970628559119387, 5.362265683786332, 2.5583055286401994, 0.7364260669560978, 2.667512425561685, -3.2975233979496634, 3.5189687498322684, 4.229893675175163, -5.832975344418952, -4.7483761126339905, -6.603170745659151, -7.193019870713141, -0.4587070300163567, 4.506288145400409, 4.1326287938114135, 8.106500762976736, 1.4235399529761503, 1.7286686698946312, 0.2380272619769075, 0.07868692902257579, -2.395802565865587, -9.570284644137447, -9.455277258864417, -0.6013676431784751, 8.087578920093314, 0.15595999513500122, 0.4144340929150361, -2.8359593410276216, 9.655315049387704, 4.638236749623342, -1.5791304056260098, 5.317501242949553, -2.3925205246493966, -7.914345826795293, -11.800151392214362, -18.022592064321056, -3.508802448401881, 0.8271879990810369, 6.214326304498742, -4.535501712019472, 4.017819111073966, -6.442339545947855, -9.209407378802812, -1.9480098913556247, -19.95715569170035, 1.8955592507272179, -1.9023899593795837, -0.36572590502965574, -1.0984865146252398, 2.657947480780361, 1.5681605551411553, 8.994175476487012, 8.75307146677839, 2.8556750953065193, 1.4175296324967896, 2.730656700588557, -17.574930450278032, -2.4761178621388997, 0.33710488958328994, 5.125754427082666, -9.148631292192185, 5.2533785725124975, -8.708370138059614, 9.481096385335235, 4.0500029058889595, -2.2142734418274745, 7.788132748169348, 0.3270813025684435, 3.8255858477414226, 4.024190007849577, -14.01153097963348, -2.1325156035923594, -1.265714230715635, -0.11668419037658506, -12.95506134014508, -0.4139238229703622, -8.386773720654352, -2.4536170647223456, -3.3295507704021006, -10.312722879271783, 0.6430430633290967, 4.722287948836825, -4.868631660951628, 4.785530532055113, 13.28103411205686, -10.816004877594105, -1.9300943252726537, 4.451368656380747, -4.77408630728467, -1.2491535859974925, -2.1578814158500297, -5.1344682079841295, 8.262969857894875, -5.1346633106321296, -8.916917376291847, -0.38351502482700184, -10.147671217739997, -3.592453292058573, -7.832438258147681, 4.901482795559971, -5.976751495469456, -6.583454108374217, 5.650529534175795, -0.6796929483047144, -6.541933566976791, 4.66700779832686, -4.951274844249713, 3.2323551702859272, -6.586892172577033, 2.5233648385316827, 2.9884025294406724, 9.83491606744085, -1.5825919207111714, 15.526578384231092, 8.02885691922122, -6.895518026422432, -2.0458332757312214, -7.915076637497335, -2.549159055842277, -2.4346236010426563, -3.332234645584065, 4.940982616514299, -2.833383507567979, -10.928480621240123, -1.0822378013080884, 10.879747210182394, -1.914725503192294, -4.559563981691625, -3.610938852754084, -7.717660463209129, 0.8899785411236251, -1.4326085558253332, 6.27770923938353, 3.8448304112731155, -0.44081259428913566, -1.057770371981936, 2.175562918942274, -11.749025752839621, 3.9026306006338265, -9.047746018371978, 1.9111511696428451, -4.208373442984596, -3.785276466108481, -3.0882963654601086, 2.8944214014889518, -8.649290845572686, -1.0411833351522777, 4.648248128559597, -1.2384206585042463, 6.239821309319201, 14.573317144463973, 1.4608561857944946, 9.181213410644016, 0.0866077663230666, -1.2761111472766957, 8.136112086252933, -5.517169213645823, 4.547893043875687, 9.149860422355559, -8.298332378528315, 0.37886461375728175, -6.231540444249133, 15.813077917367782, -2.7787809946753086, -9.9383244732081, -0.3628338514700795, 1.2614373388396438, 6.093221266463208, 3.5742064190781626, 9.732751727071287, 6.290514588893559, -2.4352203282777785, 3.377212636222884, 11.710263835351922, 3.6732336009317326, 5.365662732424441, 3.8749706367188455, 7.697887635138709, -0.9174678200478259, -2.278888305196959, 1.090935670284852, 2.446951901356801, -2.1026053586114903, -3.2001699563054298, 7.975190615889214, 9.059962152521104, -2.302275014381368, 5.599188084135017, -13.450765718328737, 3.5625556969228915, -7.261057351743889, -4.946815962468547, 2.589106136469124, 7.097802047315795, -3.2228451494360524, -17.05364815005886, 4.390542627547196, 8.100837770941977, -4.1885662241523205, 1.34494986398244, 7.350020523834909, -5.02896093781605, 2.5291421865825052, 0.3939757234148523, 6.770139097914686, -0.13597098632142163, -2.685223211687361, 4.31920757447003, -6.253889755078066, 11.915806958402744, 6.228892821502586, 3.2003710608429894, 7.787755331118311, -3.317208449980874, 5.49086029847991, 9.324916545782466, -6.744487347081192, -6.767917682966287, 6.8520611331338745, 11.04414577787383, 0.2586360651976745, 6.561508731833486, 2.1570335238710268, 3.8810895563994627, -6.248005441284911, 6.183765102491909, -8.302030143907377, 1.1352483047189639, -9.903910984394335, 16.0599409127674, 1.5114634703545091, -4.024507684514095, -0.9771676469031902, 2.2502417907579413, -9.556181208908672, -0.4187696761561285, -3.8931336764931523, -17.26282820152806, -6.549783373791092, -5.951869459789697, -4.467715343538839, 4.6006230104364105, 3.655911647189769, 3.178260699325524, 5.925503996074009, -7.339360762656249, -7.7665673096434285, 6.1712470704391995, -2.6720577169607336, 0.6065042521902221, 12.835761197019679, -6.0590751955855, 9.781646905552767, 1.821243594709653, 6.587377113036441, -7.647487235143664, 5.435857999264815, 6.904965412569548, -8.597465111533161, 10.3883212193096, -3.010286857074784, -11.323326950875389, -2.635045355970263, -3.5678197780596426, 5.832331984126889, 6.827553510201678, -2.9346703009657142, 0.23568604240963353, -0.45468945973140185, 6.726741654004452, -13.937884177368701, 6.180859161843643, -5.296960998574798, -1.428254841207042, 6.207508676022083, -2.21947755737312, 0.03599431107611245, -7.324342936022758, -4.102895328953288, -2.1525226494608525, -8.048625937228262, 6.492701655939856, 4.076407940465309, 7.1652194715693165, 6.295506034295391, -0.47777116783597146, 5.531095889717045, -1.5654523916621228, -9.48810426943169, -1.0883894144293953, 0.20292621556809645, -8.78086379645862, 5.751839038810992, -8.17614565458676, -3.8434086140149835, 1.4239603974340131, 1.347806974384707, 3.5848817298131883, 8.935927240986793, 3.950550930699974, -7.888912949214457, 2.1250663615625665, -2.0219985356808117, -7.726893972131749, -5.239290990090797, -4.385942801639896, -5.737770923431126, 4.7763010153777135, -7.46555310421352, -8.717681589270667, -12.841727891211626, -1.2567940566442917, 10.335511078715387, -12.140427391538028, 9.359757369147461, 5.593157626913105, 8.767405851531088, -4.2802579597716965, -9.76598323927351, 11.178845174338868, 12.065083794644497, -17.92919294567237, 15.178142317898306, -15.447676105748705, -4.751936151731897, -6.279068498329785, 6.735770008371887, -9.463136574305148, -4.382185385522799, -8.413997941713399, 5.11333771097185, -14.888646781720466, -0.43345583948840305, 0.46495109592380235, -10.681979666125702, -8.304341966123866, -2.165478326159039, 5.457133405291029, -11.28525671068839, 4.027332580256168, -6.1190461853887985, 1.7894711169278315, -1.145499381741457, -3.997615974814017, -1.817292159026215, 2.7164534342054387, 3.7462195203328514, -2.4043797044289343, -4.260663001633586, -5.090816088078001, -1.3175906427698774, -4.299875332677056, -1.9709856751793156, 7.589660390948028, 10.916643157129412, 10.334072442772563, 6.220880193270563, 1.5405814334344854, 5.340516783494993, 2.3827135982051195, 1.7906776759042282, 1.8450574513836653, 18.916405016073632, -13.271499187700407, 16.457146446171084, 1.7002225010424676, -2.7274851907552184, -13.558695232282167, -0.21642693550463193, 11.115943070409326, -1.0963925602810776, 3.637867918103864, -1.7334483977735857, 4.5077311356352805, -10.90234427770614, -1.9143177772795372, -1.5646363160802517, -5.736515517105924, 6.533207137049795, 12.085953836855582, 1.2455881796538426, -1.8175974621984086, 4.3369345112548805, -5.234872555781856, -19.877256822923645, -0.8822820307953788, -19.261513778572358, -4.805534282358958, -10.409046046378496, -8.665634420077822, -6.741558736383703, -10.464942758963868, -9.974276694729182, 4.092602429051855, 2.6499560908184905, 1.4836850016926433, -11.965273615027558, -0.13670110132041158, -3.3165314980803213, -4.349435963035203, 12.565282361515274, 2.335330777415424, 5.222549151752117, -2.9763077806027987, -9.588125024932577, -11.45282355723437, -1.4228910680160707, -6.438217760659093, -4.001926847831463, 4.334075397227457, 8.701249710468016, -6.286037642683779, -4.268816719929559, -5.413263710095939, 3.6011531855910985, 1.7699943170353654, 1.7331095086463577, 3.0918794267239607, -4.4941569892547255, 3.423448303721955, 7.312458955748319, 5.503630173563294, 0.8468576003500629, -6.921817036585768, 7.764936193945084, 0.5159785420047569, -3.8218103248918713, 3.3959659251805374, 4.657331559276963, -7.081682267349106, -8.10817102939685, -4.696702215909785, 9.61654789249951, 2.5627419561876543, 7.143820572926708, 4.50863642669655, -3.2123735836627842, -2.5824705971734416, -0.19944140477532812, 2.1703703904777227, -9.36701702945562, 2.2947843010135065, -12.110688487674157, 5.1520840943534925, 2.665562087318303, 2.740319668552508, 7.368239019510064, -6.7859499896835045, -3.7953223216950187, 0.9146754498150156, -5.730829526785071, -3.4043987797047532, -7.3374307483780505, -3.877680808353558, 1.0048867156845542, 7.022345643866066, -3.1006853994632597, 2.1323248339023313, -2.200728139632346, -0.5264883473275128, -8.906378634899669, 8.96269588237101, 2.313018936088671, -1.6097954934533083, 8.850861680776035, 0.5151336883321229, 2.562471990624476, -1.2151723300314432, 11.018284961623705, -8.96144225117048, 1.5839718323284657, -13.983430355817669, -7.289528461691731, 0.02498418236595934, -2.284941593307494, -7.595639229805482, -5.824957655562488, 3.869885611317038, 1.280355582525853, -2.1026376684679935, 3.186607891862534, 5.957804711737618, 1.9135559122423245, -9.736871243906428, 19.70390635825291, 2.0030507323510456, -1.6526297892793338, 0.46661422726949753, -8.489656674559, -8.318040031016437, 6.137716242969609, -6.375352979992029, -1.2922055894475186, 10.006935012964266, 7.290507423386008, 9.566682643579707, 4.446667817071536, 0.050452814117164735, -3.029444434061326, 1.6156441161517594, -5.523360051243423, 6.217845747859583, 9.382053221995875, 2.1879923714611595, -4.96543325360827, 5.1527197732244785, -6.484392583317603, -8.489247247919453, 5.104246751930083, 3.0287778512801697, -3.614410321284541, -1.9524928821253102, -0.763399453528594, 5.639524654089866, 7.174508566444391, 7.380324744534626, -3.64057938967108, -2.2166768764449567, 0.9218031192477962, 0.8933499514812406, -0.1421356015213543, 2.7963048593411983, -0.06873478154860768, -1.8519566219691694, -1.3927395825771487, -6.5572456205267065, -0.01579808889262435, 0.7726767843896787, 4.732944919887466, 2.6646242020088606, -8.397118174944078, 9.838095818216837, 1.3434647029331863, 7.412332155331311, 8.224941136853323, 6.141945169111994, 3.163333589411185, 0.916879412497033, -2.878861659477614, -5.474489535194182, -0.47905886377152457, -1.9485234579059785, -1.598532604305983, 3.2232515191291196, -2.295979088355897, -10.556528391921875, 2.2995918451227206, -8.033486302860961, -5.619343401058625, -1.5100791333697703, 0.7481176834540547, 2.6526479178585567, -3.3509555125635795, 14.150563138747918, 4.950571047213554, -3.6072824851849696, -3.443632544488742, 2.7414673715349998, 3.9029635036359407, -0.05808085120053422, -3.6294097111187424, -4.463982615733268, -3.8583356720727355, -12.517674198943869, -3.58101810478352, -0.752837350891503, 10.127571472162932, -3.60200573333775, -6.088500014562063, 8.717207695024213, -3.6314942884776307, 5.351986889932913, -1.9276484370112699, -6.213954764093413, -4.682457235316393, -7.242897889308002, 0.3462431262462802, -8.740471801841151, -2.403586793927132, 5.19387667861547, -6.597739359319015, 11.572725224773222, -3.472090491102661, -17.332069387609536, 8.424381688214575, -13.275498193277505, -8.473731449111234, 10.548723039953142, 1.3057056823048934, 8.194596501297562, -7.471301540387072, 5.91652722950751, 2.9977215514119786, -0.6563066556069668, 2.6520999167686825, 6.818746054351153, 1.3272992212609485, -1.4101597170020264, -16.99055902780269, 10.911547010433344, 7.25435623726631, 2.498980351752582, -3.3745822502916374, -3.082793960474946, -13.695673967946409, 3.1801178461883697, 4.146382699091724, -1.4685174326477166, 5.707912415830075, 1.7381618700082735, -7.639190693799582, 4.521985359096925, 0.3146384107524257, 6.583864588996167, -2.8436155477895158, -4.019321457189676, 5.983298436933596, 5.774721357151557, 6.219177227673834, -6.257147999131806, 2.39884702354843, 3.1415184216824477, -9.665769872875355, -2.3777953594581507, 12.563029550370821, 5.346214818655161, -7.230733714300648, -0.3425026304528647, -2.885885290735314, 2.933466792626975, -3.267886596505022, -5.855782916521717, 3.2273322951592838, 0.03691793177911151, -8.374453278439189, -3.575410648833191, 0.1181128726849835, 4.46848508562928, 1.2950257396305143, -0.35023445757251553, -7.2297888823107135, 7.553660526898489, 5.40078130338854, -10.075233311529045, -8.71291417069393, 4.112219880219845, -1.5761755554051184, -1.9055937528486762, 9.84509045949221, 4.69173507834416, -6.3363607432230875, 3.890486695667248, -0.840939518034699, -8.090393416743765, -8.387755410043775, -3.218715686720466, -6.170923124785252, 8.661030284075267, 1.8320668158409945, -1.3021084559025247, 1.7362043806845389, 1.1212898146135046, 0.8385453459216015, 2.241864587273239, 19.296000904582243, 6.014010056333083, -1.9073660216072523, 4.943785969264832, 6.61720079223533, 12.090404352204574, 10.391236719692246, 6.6766195299044835, -2.0239383687706, -3.853261467685132, -1.5136349434561935, 7.713799527711102, 3.0963732286086136, -7.94500381550881, 3.0883760941579297, -13.416413741461803, 10.684019011912007, -1.3224640590620678, 6.848334360220076, 12.12076674319767, 5.331362146084208, 7.1171362347316105, -4.590522116796397, -12.247132466825185, -6.37697331269034, 12.947415817453514, 0.7139337267726239, -0.03916518329875851, -6.402839804923888, -10.421229374409451, 3.152925369965991, 12.458302119719736, -0.22088463525685753, 2.1403911609683255, -8.713422559919708, 1.0236957293027924, 8.038342051960278, -11.635397436521227, 14.413425904592735, -5.269536705817454, 10.692680265364665, -9.906604672445798, -14.500207963226044, 9.54010797389304, 5.4256645773386625, -0.8665848029707137, -0.6605347317528577, -3.5068068591109496, 2.195512877105153, 1.8136035048240395, -1.4427154725426032, 10.582317584193094, 5.123090527033987, -3.440306649564531, 3.781648087948204, -9.383563203472406, -6.003484455786735, 6.53477516173511, -2.4931697150674177, 10.28158071989797, 9.507494414353198, -7.5365630500720275, 1.3820196256649835, -9.397893173471761, -4.056936061591975, 0.4252107476883281, 0.6482087059485664, -1.9428612430442238, -5.071083460308024, 8.696131435392893, -1.935448684072242, 2.1584487506383887, -3.354387421876348, -5.927342557944387, -0.7497661325146534, 0.4406551332842418, 6.065213896904551, -0.8751014038057472, 2.4870578957700724, -1.5240130905438602, -1.8747491486090235, 0.2899282022944819, -0.7582508048793283, 7.215292464405789, -0.4357006200787405, -2.183090037650119, 5.265096075355546, 2.537947412693797, -4.796714867513337, -12.115071151309548, 15.955551589677265, -0.9709549583380611, -9.770834321912107, -4.472559482302295, -3.391182487780102, 3.3633263829753157, -4.618919096810401, -5.644859453952666, -2.0935972224315713, -0.3420013890415592, 1.3614068951611262, 6.772768084181799, 5.118923887554749, 5.190886594678915, -0.6786525959032119, -12.055082033014253, 8.239923168258791, 2.758964142265671, -0.45765505110067173, -0.8886752471879307, -2.4070050764150954, 4.077719272272711, -0.9839273108184377, -4.153857641279182, 6.812014024686244, -2.0092489905741955, 13.051748222936062, 9.236635808130911, 0.481221931563224, -3.0535078186164406, -9.223066105954617, 5.753456376018615, -13.416543276988444, -3.3620718469483353, 11.013997001738659, 5.13827695715802, -3.7417248457937693, -2.93727234945721, 1.1771617911321617, -2.307252115648952, -3.314090816508417, 2.1538969435500523, 2.2183033450619454, -9.870422934894034, 4.726203139307655, 10.833380605520583, -2.64417708646798, 3.042570093975525, 4.238379979219055, 5.557577826831473, 10.734177662315203, 14.771654817316724, -3.7090511306177882, -10.274759455970917, -6.18012384516374, 7.097944654931645, 5.7111302484944, -4.353890900803176, 3.905250778501994, 6.778366692060822, -8.227323318695433, 6.394635707531853, -4.2573598176182985, -0.08865128129740232], "model_name": "echo_state"}