{"model": {"n_components": 1000, "activation": "relu", "n_readouts": 200, "echo_state_seed": 37198, "output_layers": []}, "weights": [-0.27782148663446316, -3.2089704322275927, -5.861654007446958, 0.1765229229697136, 2.7619874271683864, -5.755371847452899, 3.2900039718358327, -1.1871484242153416, -1.9015112404032788, 8.578655206282342, -3.1509258499616957, 1.010868448722566, 6.352556177112937, -2.8290066539734715, -11.850434168157998, -1.5931807926988129, -6.492468130225767, -9.3502772005862, -1.2162408539863387, -3.4241608193533644, 8.31571009254888, -11.886401730204907, 13.806652570246165, 4.836716129039244, -10.911450243502536, -13.472189925741773, 5.721399318636012, 1.0968934073332945, -6.372482569895915, 2.367749304375212, 16.109085225943527, -13.33828985201829, 7.66341294041627, 0.08329901603248513, -4.067552380196469, 2.167898612124311, -0.23511377748137885, 9.69757876566191, 12.562327087242553, -9.53113802431407, -3.985405980668679, -5.860719795202303, -5.67169472412518, -4.187221605879441, 14.443851400867915, -3.67647874044869, -13.279699049831386, -16.50383213666106, -4.1623287517526775, 2.1693155710565835, -3.112307783947536, 5.593170350576967, 8.596162213840245, -6.078926723970041, 0.5992969156543444, -6.943098035261707, -20.222795500921233, 8.576225637482628, 4.0713329115879064, 11.000126529998473, 7.0859518197735545, 4.082451332502385, -4.415467892921347, 10.435794895620528, 2.031518391672282, -1.949656205209874, -2.8229983600416717, 0.4319168465912, 1.610238549613874, 5.843959600695823, 11.091803781881621, -0.5829684217824092, -11.776423029255644, 4.1810220143990104, -0.5291154302582768, -3.1455166373668604, 7.1868900312602255, -7.961184137577085, 5.824298820356172, 11.309255846752341, 10.390298006604217, -0.4913110388088438, -7.513257064373728, -4.319418988837468, 2.4443578458275557, -11.524100107519228, 4.468029683182886, -8.784334041272787, 12.821604782478744, 2.1165063003276776, 2.0636916782326207, -5.226004031086287, 11.99285014909619, 8.395562330770034, 3.0544058496273716, 6.295819783722434, -10.17953617244386, 6.4071887190924315, 4.61930953800955, 3.250832512247104, 8.76165498607358, 5.226923515779621, 3.391225853623093, 13.348147614155423, -3.5310935250187856, 6.764611113937178, -5.774923003310306, 9.216190749298946, -12.513985889987278, -17.437035346635618, 2.6000574686717726, 4.766906297517829, -5.187368433995278, 7.283379316184648, 12.85157254206831, 0.7158699101863493, 1.5097495048140526, -0.9323178373138584, 4.36294842954091, -6.792896212683174, 0.6111589863707956, 10.173773860712744, 2.4002668795700877, -9.352185930720921, -7.324144093996778, -2.4228268070991157, -4.9227740615541355, -8.452220299464196, 5.390656572788153, -3.6049825558031516, 0.32873579841028355, 5.462552211784802, 10.264036922189455, 6.155155931653371, 0.5753665073862881, -2.82804725793114, -0.13601394275723916, -8.288471143294016, -2.1693029753150386, 0.1645677054237962, 4.168607047097625, 0.09376558941142576, 5.864489625306751, -22.306080505905065, 3.561492351623283, 12.825306704320086, -0.9298927743530478, -2.0421967732925292, 2.608504170490678, -5.615441764314199, 3.557919175607366, 5.126541761990002, 1.0449149638172828, -2.484604532037978, -7.843790923205858, -4.799074246754568, -2.101771431860339, 7.55477436858446, 8.031804760850243, -0.04801639907590777, 6.915483805152732, 0.6923240199955245, 5.250412663726008, 0.4842879211087814, -7.638553753318321, 2.7982834249869937, 0.801639603933108, 2.520296754673808, -5.761771305640753, -0.3221219132120948, 1.2452403953377338, 2.7281226191104753, -2.599807945393682, 3.1944663884826623, -1.3020568396843468, 14.662090673883043, 0.9064523029418822, 6.682995091500403, -5.212107110573306, -6.663322169280023, 0.9541424278766848, -6.317751273741797, -0.9198275950575058, 15.819374117560205, 7.483521974361284, -2.923842873128386, -3.003542655544651, 5.382517892435266, 2.809545713350009, 7.8712893341838175, 4.652518418795765, 4.8721057261438, -6.397976614201506, 2.8575651136386315, 0.9339970975835274, -4.385633188993194, -7.055143540667564, -4.09273644538015, -12.163493316226143, 2.1493815967473004, -2.860084707852844, 7.523482512976573, 9.422022204883339, 2.250881255596331, 9.56198174134822, -0.677747565278414, -3.754780860092094, -3.4868324688850625, -8.349010461224436, -11.618040131496807, -6.374477375577142, 9.813957933369755, 5.295838425003211, -1.3401164680753814, -3.8369165091496633, 11.320767338366036, 1.4403352228631308, -1.9984611547323632, 3.8964557696949402, -6.125240962757776, -10.230936930250952, -11.798712963169164, -19.385853222804617, -4.663351265020112, 1.234964284193962, 0.22767183948923525, -8.27118615264732, -0.3942481571387759, -2.6553001673184404, -5.112417520211849, -9.001007479593811, -21.19025003033526, -0.06374414467649181, 2.4816439333989244, 2.520813309344247, -2.0558931857750156, 2.3856041455360355, -2.2163821985348724, 4.833805186392842, 7.815733646390783, -4.737850730509285, -3.896420593044294, -2.6422116116132965, -15.643094881750057, 1.1360006067162405, 0.5018974271398723, 10.43657949148806, -11.183072758031367, 8.750165664272737, -11.501896150717691, 4.028114453648564, 8.029361801807942, -6.614005450610617, 7.23244234958985, -0.008690967417541828, 2.724554136118303, 1.4463491942014033, -14.398221315186717, -4.808634606771658, 1.1122800333158205, -0.9273569642304725, -15.126885601359284, -1.8854884015126658, -7.3687723704022075, 1.2604384477644435, -6.8779696481725585, -5.7076971176687445, 1.9731482041285688, 14.362138421536114, -4.57660375609724, 10.939662684264555, 11.466184563585749, -8.054743355386956, 0.227608209439928, -0.8910348850760903, -7.09248791199975, 6.005849128712121, -5.2864876859306325, -4.973494175071786, 10.80115919298255, -7.425980872545785, -9.467053974676114, 1.9088725059380398, -11.105833707489445, -10.306178279978461, -3.329523828793971, 5.62908519193413, -0.5962968168138107, -5.370050895657337, 9.059903696832828, 3.6888440753616134, -6.015172295682792, 3.5123687262341994, -6.490306680611396, 6.685561317651145, -8.349847568065634, 2.9985684486678434, 3.4723306913562175, 12.045292072441152, -3.104204191760082, 12.478623960476677, 10.542183229216896, -10.545477663941844, -2.4228531731578387, 2.2994591425211452, -1.8046029175279055, -6.63095158953471, 1.4983441453099895, 5.862762683704999, -2.2150544428267445, -16.315106293313935, -3.0106687355316852, 7.163040095684589, 1.9929681372610892, -1.449736909261189, -6.053302470386995, -11.94443075222995, 2.3036494708192867, -7.744062767546266, 8.442451338060506, 4.376097257615582, -3.6312120766411486, -0.5242354813868124, 3.1690253684617744, -8.714100398690418, -2.096995283663449, -17.001031779563323, 2.9755501074945965, -9.527423565363353, -4.299929257706238, -6.333886875526622, 4.1282150390896435, -9.49981106956632, 5.602320856377338, 5.130381095137387, -1.4943001204013204, 3.990710078602746, 16.172476084917676, -5.879663179921195, 2.46658955415986, 7.877611653475624, 2.28806559223073, 9.018881481540898, -3.7841621889815618, 1.8296129491442312, 6.462038401223563, -8.475308678140355, 2.4940995854715293, -8.562903919011204, 20.704774594578335, -8.164984859092382, -4.0441582446761295, -2.8501917357431283, 2.6432245860541514, 6.484499996761156, 3.6248602195986104, 3.1592957135492634, 10.566606592951281, -4.511319276020773, 9.291570359418387, 15.335094619092004, 7.384067952429603, 5.016782048663967, -1.6976901128832012, 8.720228786534372, -2.7616538036211367, 2.759879865081862, 0.9139495842632518, -7.4959144751514755, -2.7999143254366716, -2.385268889426997, 6.997219164295686, 8.570954185348123, 5.2144434992063635, -0.5065053174376524, -14.647138493260659, 5.476816580377284, -10.527525005439294, -6.363399372837289, -3.6577018569891075, 9.005451844382522, -3.432506697890351, -18.417325258626022, -0.28088157226699234, 5.102117350902821, -6.719554391843473, 0.0827737803703128, 7.923037584427038, -3.7371476924346085, 5.521323471724029, -4.570464367004149, 7.518689620723139, -4.04169489378889, -5.494297877527767, 9.376289323185985, -6.12446558428704, 14.26572196763963, 6.408493276713598, -4.82394851749193, 15.035231944791372, -0.5947512892091587, 0.08247008416722634, 8.849756952324185, -11.380562970215964, -6.900079327310846, 6.845990006098414, 13.978957715977733, -3.1663963315041466, 5.6237189116290445, 2.9877620276112395, 5.322527722864425, -4.329487237022223, 9.02411922541674, -11.059537275875826, -1.463810072860484, -11.38290445634669, 11.851720454414913, 7.564519348686133, -0.25147652018125183, 10.126717285814, 3.4259460963103323, -12.572116975892017, -0.7561415693889021, -5.430120522694625, -20.103443378000463, -10.176907101683563, -15.415136442820282, -2.9499219339220186, 2.4496541050576366, -1.7882859954859927, 2.4714288856359508, 8.122912558624627, -0.4456419468971001, -3.6934813926064702, 4.650161559338995, -4.338656366667058, -3.2890358677670095, 16.182982831738983, -4.790932533752441, 12.826012382092118, 0.9318570156629802, 5.4485477992747935, -12.458545605762476, 8.301759864229453, 7.969211202425635, -12.93955252113114, 12.26257627472055, -8.089543470502534, -11.01463479963359, 0.3326380784957771, -1.4396611020876833, 13.338942951278277, 8.916352578352853, -5.08476597004847, -2.014504073112472, 4.109950546559702, 8.254527715793277, -8.306064600677534, 5.145039690975761, -9.08732050150703, -4.571133581149029, 10.192944421936815, -3.010680963725666, -2.2112054262970076, -8.379207427251734, -2.6004759916846645, -1.7755376765349942, -6.523036649584093, 4.934941055261106, 7.6328315970366365, 8.360789325137352, 4.433469673444696, -1.5823328838643, 3.8431324948021626, 1.332828931052101, -8.307175246047539, -1.1018721212284317, 3.1757152703988, -7.535967269607681, 6.05774109567011, -4.340221904070931, 3.627855035186084, -1.1631842969185635, -0.7467993376769619, -0.2628924800073599, 9.10679152101593, 2.766428111189215, -7.458786615850474, 3.1763730868939692, -2.5789244539671503, -10.320179220613543, -8.344696468149378, -4.892525365248376, -4.066219861303479, 5.8839816322083855, -6.30415933687143, -14.240641763794857, -16.314444477461997, -4.418457958284761, 12.909229544975393, -7.844175621097379, 9.017360535596955, 5.801847118864947, 9.951977343481186, -4.950856534920912, -14.772484013416094, 20.84350473111809, 9.47347643450777, -13.576130599306605, 16.302808991439868, -17.819520087046122, -5.590397126895901, -9.084643656438391, -7.693163551665285, -13.26059843624529, -1.3888462868870226, -6.300055413196986, 1.9795992146706722, -10.935080694515182, 2.1592856867109305, -5.292166366042931, -14.573977336189124, -1.71761886275932, -6.7313984815856, 8.24002601066648, -8.861181137662562, 5.238850548246198, -3.408571635716964, 0.3384065271155541, -3.281706717673217, -2.1240790920714545, 0.1358392345869618, -0.38713662683165806, 7.824719495075646, 2.3277305374862625, -6.124367821522578, -9.332871290406938, 1.9009147240957618, -8.573688889376047, -0.5424263929769866, 7.249124890126142, 15.252254213010955, 6.177529023892342, -3.9261308757566553, 5.190540202332684, 10.42830397087133, -4.454648942383771, 7.622782475346907, -0.1819406766884447, 17.77620130249831, -11.057249283655695, 17.453243017950673, 2.2459548329548364, -2.5734386644344274, -23.335376459256466, -2.335250137747833, 12.35194332200457, -0.014739223843548463, 1.0211243815539899, -6.368030556634619, 6.982272145979277, -10.242701038323627, 4.19002068251742, -2.2023448576518754, -2.732069440707095, 8.046726140373437, 15.897244458606721, 0.07389365236684568, -0.8640092465168931, 2.3309631841100154, -1.017996959517484, -20.065396319538195, 1.0334175207051666, -18.25485781383418, -5.752853121798906, -17.08351961344039, -6.5881625571178795, -10.699283907887642, -10.420796140373538, -7.216705406736401, 0.8979216143724578, 1.08492566824232, 3.3436771629954283, -9.529443911677676, 1.0076016629080473, -6.769028554834044, -8.135439142617964, 13.589185912925325, 6.318856750688282, 6.2905979079576015, -8.537363923702769, -4.596388995888294, -11.97271666239109, -4.449433619369084, -2.4488615923377766, 6.065738581327056, 0.9250440305226687, 11.725139632687517, -6.981699430988517, -3.5520469456316457, -8.436234304751167, 4.292606634517715, 5.88054955872058, 3.8322382778786572, 1.0989044613823782, -8.732052391531836, 3.249194528002517, 4.633774224304251, -0.285039100761009, -1.2546843455196308, -4.1611468950056, 11.899820359964313, 1.5434988971204062, -5.472033892236019, 0.8926840995722823, 2.9882965355725055, -4.268839957086864, -10.310724114952203, -8.217451476875475, 11.074604776790844, -2.523850005432546, 4.537312918444895, 1.8388877804828065, -7.142015232871974, -1.511341701464628, -1.7224124062269022, 5.883821271646349, -13.682793872151109, -3.329282878306846, -6.969699521321368, 6.272830188928506, -2.7252894339699347, 5.65759129105224, 0.2929959061912579, -5.996030928973875, 2.662447720185912, -1.1999747516867794, -9.228100160882867, 5.100788034206055, -14.578724294711538, 0.34913668819022003, 2.4958604870779104, 10.005464933067085, -1.47309493920956, 5.495826407528686, -7.220916915454804, 0.309365115161621, -20.810071931535767, 11.31115718286589, 1.110160687783519, -1.7262186888476612, 12.122699443417984, -3.9461487430203737, -0.37179472440018874, 3.3840798703492556, 8.323133821847232, -7.776378849320658, 2.3695259658370187, -12.563088559887749, -7.2767464285018395, 1.8283699070423385, -3.034927177122836, -0.5252404107660888, -13.314434377024392, 3.7715086747641355, 6.318178048119588, 3.031968557415518, -1.2223481386666637, 8.862660952365433, 5.606679106362398, -11.080291849268917, 15.182995862054405, -2.7424997234697575, 6.963383218444657, 1.3142344320621637, -6.23955431939238, -5.724713937437588, 9.698551182932581, -10.431782415568092, -7.315817690650376, 14.6009134159468, 15.361127797670092, 7.558702421959242, 6.043250203119041, 0.13055590544935713, -5.435170211487866, -0.6315299341443418, -4.252155101836109, 10.534269463886332, 4.245302640197417, 3.0168302251341794, -3.6481853044120816, 5.642194129561891, -13.272755890785108, -2.2810243212077603, 7.804544613337043, 7.48051043403438, -1.6796119093376758, -0.34713041405038875, -3.067052908008546, 11.031281559493905, 1.8966634652328571, 9.652329889017803, -6.650952109040159, -9.631504881520232, -2.956189971652626, -2.47283786460935, 4.0449171301779145, 3.9221243874492635, -1.8885893385842152, -0.3279936616726944, -4.200501704896398, -2.0637271868047344, -0.33634033836235977, -3.6942877648592125, 0.0027749181816183466, 1.7431593895336346, -4.434581409533885, 8.226665183060867, -1.4429491797497915, 13.389449089752862, 8.670646635459926, 10.00015418925988, 8.082763526289165, 4.738447207985072, -1.5164080037918495, -10.955502614029523, -2.5076323056626943, -0.02199199560650511, 0.854303903875301, 10.108684092522374, -11.296250150772352, -10.113945624323915, 0.546558690375059, -8.238022355237508, -5.12700896090599, -1.6224488131529171, 3.630859188278946, 4.016241375840582, -0.9199353122090465, 15.133443056130744, 11.935570807746002, -4.195649714556192, -5.886865196422558, 6.364117437293913, 2.9681511213454237, 0.3612374664169171, -2.132687367574184, -9.66922789092553, -8.2213140548716, -18.509214756513273, -5.56136617607817, -4.42287088578202, 14.23009579072787, -7.660345151350353, -4.67693142395897, 12.346205331081103, -0.4258550148762905, 4.648550562164497, -0.26910232621236535, -9.806271235962248, -3.166451774474896, -4.356086487134484, 6.466304342177353, -8.702623216329593, -1.7229410974188006, 9.156022957665742, -6.495618339781404, 14.340345521400126, 1.496165666725903, -23.438756079670977, 9.087687690146767, -18.40369085273983, -7.136250534640584, 11.195414972062299, 1.5471461203398316, 10.478775651494848, -3.006941849976298, 8.08658935387621, -6.741014703777788, -1.0818462055486557, 0.15282430362273736, 10.406730605867779, 7.961844120303084, -2.4691041620381, -13.007284288393599, 10.173777949464068, 3.7240049130642388, 4.2482398478804, -9.99516338583354, -7.265760692367836, -13.06856739185314, 1.4002641188343463, 1.3413949342742881, -9.951381576181793, 1.9927507050174258, 5.641450446212421, -7.095836604939338, 8.854658835386655, 0.7601818623458756, 5.933428954991561, -3.0357077872670075, -3.983016466060383, 2.8709124556629444, 11.253932134453704, 3.53512689477069, -9.976331863432197, -1.2444122630240768, -0.49819543162619534, -8.085240983562693, -2.301678766727331, 10.089611965547105, 9.098385666517563, -2.952139022221993, 6.414892913337862, -9.739883475631075, -4.402972305445999, 4.393230028543425, -11.13325473343088, 9.14828606664747, -8.196222665097329, -8.381541316099884, 1.563054160896126, 2.9312316114617563, 12.658022687798553, 3.2207095295070385, -0.9092412493773026, -7.20075431550159, 2.451065416259595, 8.793271237797295, -6.211514608377755, -9.393339546834063, 5.182374013264135, 0.02352264048537933, 4.945978254581308, 8.966986785401133, 4.68596455499008, -5.0495917620912065, 9.663119576259923, 3.2306492234555515, -16.468398150415048, -10.702919029845148, 3.8350957640421033, -8.456101826428918, 7.787778298462285, 0.5622143196549487, 0.6120664717608503, -0.17846018183100304, 1.8553962612314412, 2.4389954902971986, -0.24502980112290018, 22.27143324738206, 6.335811050029054, -0.2633073880830607, 2.961403141023037, 5.588876975726177, 10.90483536288764, 16.98706662781521, 7.194656062489543, -0.8228519803539522, -0.2666695423099237, -5.5810061372732305, 1.1883735446179986, 1.1197512658474766, -10.18958084996442, 6.722735107576315, -14.16581922297583, 14.81021161520227, 0.3490649047165234, 5.77601217351671, 11.264447853588955, 7.101116238760933, 8.150066354665526, 2.6612105293889594, -8.763308538461374, -1.486352609935054, 17.614539171174833, -1.806912566103152, -3.7444553099528637, -2.216805944497576, -10.218985472503471, 1.605743220947847, 13.054253336330369, 1.8480775139457113, -6.438678170928718, 0.43485442894718873, -2.0415589051848726, 11.450522056796581, -10.352935197788783, 17.278466129324674, -2.8700644893294402, 9.70658226912882, -11.577959497049612, -13.350735468386079, 10.922190541265596, 7.932821948826476, -4.9438571501309525, -1.9742278127830872, -3.2443988407185893, -1.216066930961502, 1.5292143390925073, -8.260210024825724, 13.271012866578237, 2.0528118675654587, -3.25613583293734, 6.433814677796668, -4.1707674476124135, -3.663759131342829, 4.272308570769943, -1.1495052076961771, 7.106793760296229, 10.139790914820233, -10.070402470570128, 4.154713088409769, -5.984151644120743, -2.0004938832031893, 2.3507964020234753, 3.4459809178335994, -5.605506686532493, -6.095108844641917, 14.059024429230794, -4.828156752243123, 6.691705128501411, -1.4174990550835802, -8.378222175414635, 0.6904727918865721, -1.916393243177361, 3.6780686266830656, 2.9643294822765314, -1.9765638884102614, -2.341937876972654, 2.8959225074543617, 4.964134931782742, -3.3323862775441544, 6.046074206128101, 1.2791498601369231, -2.278761968977105, 4.714229496365956, 5.803872433927484, -11.553651172123798, -12.066347017579556, 9.155026398128681, 3.408447147743564, -10.680276369884666, -7.1039969428056295, 0.23380202136818296, 7.570124933028948, -6.690237414533739, -6.399032340714694, -2.4472265139750036, 4.338033940232329, -0.14908035368525996, 1.9020382306482455, 6.69593153604346, 8.346973694199026, -1.0973188056920613, -10.125478657607479, 7.565066128509322, 2.812489265824079, 3.1140148498933184, -2.514490669126716, 0.29519430338610597, 9.480090076856674, -1.6236251158117299, -3.166413323475099, 0.9374106199262064, 1.2830527432848593, 5.361189731648627, 3.8658620948884455, -4.04562465444282, 0.6108929175433486, -3.0329444761660045, 7.703935147094242, -13.357131282390101, -4.9082696295581, 9.323357043106581, 4.062493580032624, -6.876534457051256, 0.2016308915185432, 1.125995794424083, -4.943467617949088, -5.8727612980643755, -0.5497052985720454, 6.604943995961207, -9.702542409096564, 5.721281039463001, 8.388634924667304, -0.9841878879547526, -1.0875881023131355, 4.598838269457677, 5.820199551720101, 13.813655253124406, 14.530874050493324, 3.508848834966776, -15.21711625801509, -6.7320666839111745, 10.302013217048678, 5.881080411075416, -2.2150397252234955, 2.522840678727471, 11.125207258992235, -6.620727702207762, 7.7785225015347805, -4.499720629847527, -5.640787176903062], "model_name": "echo_state"}