{"model_name": "echo_state", "model": {"n_components": 1000, "echo_state_seed": 56422, "output_layers": [], "n_readouts": 400, "activation": "relu"}, "weights": [1.291872080585975, 3.871366323525655, -3.692997918204295, 1.0678863109819359, 0.8981538896257594, -3.677900664437153, -0.4596869901261812, -0.7488941132196782, 0.32540274723197804, 4.57746120891594, -0.1256395325399401, 2.5866951783940064, -0.7761300090877422, -0.3047824615728276, -1.825858383169224, 9.382847872404904, 0.8395740852480866, 5.731146174043521, 1.074543227960674, 8.053823360747572, 0.5023950001302068, -1.1678625674145162, 1.0585041774407393, -1.1989239047386535, -2.1869597734411514, -0.5126187320524694, 0.917458180558989, -4.964002800325947, 2.4751184711039627, 1.018932940628479, 1.0954050459066282, 0.11011370290485378, 0.4758765081652758, 0.4339729752160184, 0.19735933352346458, 5.915801982965901, 0.8053344029031326, 18.56190119899737, -0.9997409869548688, 8.737959512511065, -1.1832819304647915, 1.5102868233215845, -3.6322029461542007, -3.343051851550343, 0.35957480858514734, 0.37664004455528155, 0.4015306598811582, 9.300646827588093, -8.630837503371563, 0.7983229741901696, 3.086535883502205, -2.1488415232570874, -2.5153055800712214, 0.3580306718961572, 1.37000166013053, 0.5340163737661385, -1.2814105096455275, 4.178679724750608, -0.5518499276464254, -4.102130132982565, -0.7610315500038448, 1.3624507067868938, 32.38493593614879, 1.7438448538792226, -0.11792621155373884, 5.129636074893364, -6.021436995138521, 2.275113084292327, 1.0197766862031699, 5.223387036291509, -6.3809553199025775, 1.3495343461816491, -19.940754725222227, 4.779867987495696, 1.8586947769779916, -12.668874677856383, -4.202467778864083, -0.7416209384649357, -0.03690571960783173, 8.60721455815236, 0.726987926585952, -5.551841931674997, 1.9893756968861962, -6.058424256288891, 0.8048663493390152, 5.749914808581115, 0.5355894439019436, -0.7362125054927666, -5.295641171220176, 0.6623088967192191, 3.6128745096403065, 0.8943009381072797, -20.01545012907626, 2.1974237669031877, 1.7277120210054686, 0.7347592888493786, -0.7571925700414518, 0.43466884373842185, 0.12722488693701073, 11.066000995467682, 0.761543859749395, 0.7385104276819731, 2.3878506219851063, 3.9042769869001916, 1.4015741325370907, 4.657273505869938, 0.4466970813405161, -2.7526027851102133, 1.3134651646710234, -0.7071890453048199, -1.7952800580216648, 5.88243351484839, 3.1598113581421927, 0.7947108590989516, 5.415062781051629, 18.93300702953504, 0.7036823908664718, -1.1689769167634159, -4.918630181296268, -0.3193887216589504, -4.644004808299243, -9.253864483581612, 0.16653766398972003, -2.203073515354911, -4.060224414478117, 3.3775447901758175, -0.3647373575153091, 1.8243019152276163, 0.11800602661937487, -9.126456411983707, -3.8103333381441744, -1.6154198731156562, -0.5920843273167947, 4.720333697903477, 2.583929053311267, 0.7331442159918833, 3.3924037458855647, 0.18099285694591605, -1.4494756466760101, 0.7947805155741334, 2.402589382514085, 1.7421690453690242, 0.6396548162525305, 0.9404230783876623, -1.2984216675479656, 0.7262208891868165, 2.1764659124737795, 1.7291268841727452, 1.2456180746793795, -4.712680669001051, 2.974595009289915, 1.6219116989938822, 2.6644235908358045, 1.160506369023602, -1.83855592661999, -2.602722727443459, 1.5341273816452292, -19.104787471507144, 3.4521104615050278, 1.5422648761813962, -0.4620691030876727, -2.8902411831788184, -0.7661685709443584, -5.982639131827387, 0.6242092274704054, -1.0938120628577623, -4.164956570033412, 5.335859151127397, 0.3895160259454087, -0.5699460035847126, 6.021045847916878, 3.8949750240715435, 0.24880245613778784, 4.940123782810361, -3.9384118759233533, -0.9825892763735249, -1.4542674777394304, 2.3213994801563502, -0.09725738252196148, 3.383728401921301, 2.637502795959973, 1.0663720905701934, -0.4487110301487238, 4.500827238197303, 1.486000902224033, -0.36404425006868735, -2.013393874473507, 0.5536730416796108, -2.8816075474334815, -5.4901793880464185, -0.521056064916924, -11.606068793007646, 0.16631170020908237, -32.61330852535366, 16.6483586983592, 1.0774791757010291, -3.4871772570181774, 6.26825649983661, -8.403631063247008, 0.029559746195520487, 1.2107668557473175, -1.372508067873674, 1.0316342059980366, 4.5324283304859545, 0.5932084271213677, -1.147964556210725, 2.6517926661182716, 2.1669146067671345, 4.733147102271895, 0.968691450213043, -0.8588356566147176, -2.8284267131063356, 0.8786190557049793, 2.0850465696906273, 0.9475436765774096, 0.6446419792885799, -3.004434752954052, 0.11449867361996202, -1.9303469499689307, -10.90422397009419, 1.5613599903823676, 0.3318679897205018, -2.6821077684527888, 9.30502948811705, 1.6820128813591735, -1.3715327061626763, -1.7485209256799283, -23.016868601223933, 5.837395775592914, 4.359428764225932, -0.08149074432918346, 2.8072130493749685, 0.22892667470770767, 1.210936371089684, 0.813363388780945, -1.3315078607620379, 2.1199112462578182, 2.6081618813868412, 3.064819547333129, 2.6603030970379264, 0.7096754129086454, 0.4614530211013185, 0.6761133976575237, -1.4951505339056665, -1.4513174226042214, 0.614242618493403, -4.285452722865293, -0.36290746008512187, -0.5773561945101829, -1.5773823661553759, 1.810666953421971, 6.3473213884902755, -7.248954167895961, 4.122631387917067, 0.8741793488613139, 1.483593644930211, 1.4397506955863846, 0.2168864413241307, 1.6926818725210757, 1.3280641413064254, 2.028135794828856, 0.09395953727510686, -8.181891268158747, -0.9919357199312401, 3.3521749210954574, 9.932633269685155, -2.48309343627264, 1.3952906430517311, 0.963042388832879, 0.0850769261153066, -3.1207691735501317, 3.7592238950204475, 0.6134525860096055, -3.8437819908306556, 0.3641609394472274, 0.16835625691289702, -0.7114450777435695, -1.4881092475577677, 36.3940427993295, 1.807467866752166, 1.7539837979913835, 1.2638969375892755, 0.8665650753652939, 1.3674374913501564, 1.7286815260702846, 0.14499120699067125, 0.14866330457258636, 0.3058620833059772, -1.0085407764545204, 1.1964227473699074, 1.975080783449819, -2.981762017606387, 1.7719610442993514, 0.9149492469241012, 0.8486065518987798, -2.41298462326034, -4.638039403457689, 1.4787457838080544, 0.47728871754617486, 2.1890024129270618, 2.741946207919586, 0.5619481099932393, 6.169424601858115, -2.3501828834888094, 1.146714559541304, 1.888268968304446, 8.635108522055333, -0.017881759723939794, 0.2721028589883743, 0.6872536164702531, -1.3992867551622359, -1.2565095417982588, 0.8712352336676149, 0.8714885417573883, 8.340962986008947, -4.102709201786132, 1.6019286243252457, -9.55416587684373, 1.6795823554684637, -0.19581445548059284, 4.652775327244445, 0.2560417676926763, 0.4045843045980442, -6.783146985716518, -1.5662319823299238, 10.426584193771646, 0.7681628082832157, -1.7359915603712301, 1.401985617727413, 3.156538931551568, 0.333581817797183, 1.4043995302211396, 1.9410998225193397, -1.9804086105011436, 3.8158693548155727, 4.202892288099224, -7.253300040922568, 0.7307644226191937, -1.384805539222409, 0.4467836765082115, 1.4205680817494426, 2.2753381464668045, 0.479519630804465, -4.723453549972694, -0.2204921825344499, 0.3884599969519318, -5.449864387185931, 3.444095240441792, 0.1312154829316865, -3.288882504071168, -5.137912405424059, -5.826952083543011, 0.6079649949994379, -0.6372224890953305, -0.3624167993199432, 7.897392400984619, -10.841350804596237, 1.0343468844623054, 3.985868658223213, 2.1408265451125246, 7.250371633677105, 6.094113285928467, 16.419846277569125, 1.3145563984171087, 2.5422909687115802, 0.7919038993285483, 0.6901710706043321, 0.05558623978270372, -2.1733427234086897, 0.29080021454141713, 0.3330392353633942, -4.4937635381070535, -1.923718931825534, 2.9236605966786287, -0.06401506668326995, -0.6266487690719575, 4.790363701326859, -1.433405225130413, 10.738863915539323, 0.6946250043820943, 1.7373818103098477, 0.6237881790003046, 4.851596291569909, 0.4206760906967918, 0.8146084871588768, 1.2072207867704379, -1.670133491912107, 4.909203285273462, -3.2140386954049687, 0.22825007689717314, 9.12148317804488, 2.48742286520366, 2.736701661430373, 0.2641773364811991, -5.868151017050456, -0.4618220105190318, 0.24912469747111898, 1.0518658859542875, 9.16685245358863, 0.2930855550170356, 2.061955139471265, -6.690931824170875, -0.2754601214686506, -3.3790303330137528, 1.3013980860477488, -0.5584942455611629, -0.09423518763275673, 0.6703536396617991, 1.1426296376969294, -0.27886374981734496, 1.1386017999325184, 1.7448440251293542, -0.011234093628460395, 3.16738905910068, 1.0085622526049063, 15.492902599717802, 1.4429144463511863, -0.5106749825134073, 0.29245779723058685, -0.2894200608987756, 0.8011029967755932, 0.7894417534631811, 0.3464220201541979, -0.6932577383871085, -1.2515670376296182, -0.5710184421651818, -13.43437817020693, 6.820468661564151, 2.2051437182765437, -5.504877947182693, -7.257360344606132, -0.5270367795579112, -5.462196520628996, 1.2519516873472534, 1.0478824345827764, 1.487231561187237, 0.8997464876149168, -3.203429921373051, -0.9417384473691102, 5.004317609840898, 1.5114905907631286, 2.7471484228514083, -0.894796934371684, 1.6389857009916202, -0.07800544023137401, 2.2328606541517333, -2.8480050041051026, 0.28852928502811803, 1.7653723369779954, 0.5059401840752195, -2.0396459845115995, 2.5024591137199694, 0.5178025152228146, -0.3313020671056255, -0.5203102509065123, 0.5645203945446889, 3.2673581643221725, -3.664291385180795, 0.8912368082885849, 2.3314019668119945, -1.6380214123347763, -0.1951797374602604, 15.187064298439676, 1.0363944264611735, -0.5265108011408843, -1.1477029879491125, 1.3215243517423159, -5.126881081902288, 3.2913583475492953, 0.27092609808334134, 7.660118781755289, 4.5441694683394696, 3.809155300806207, 0.43207691673719373, -8.584957714553857, 0.9235533431660297, 0.7059852660508185, 1.6617815895399892, 1.0965869533741461, 0.4508911689283276, -0.03174914502554027, 4.894323839435971, -0.9360833042329463, -3.5312536963586614, -12.962485571491797, 3.2403593765927674, 3.72384833940011, -4.096394584071335, 4.251193310718503, 2.856836416248412, 4.826078403886591, -13.632756718848244, 3.8439077702824163, 0.8975889665991512, 3.5013533502654033, -0.2665715810100755, 0.9921264713522762, -13.71978120127156, -0.34400338083879856, 5.566129097157745, 0.3637983722445508, -0.22470727020274428, 3.1383560430434714, 0.31081311408616696, -2.45421854604416, 25.028290681921888, 4.1326442656780715, 0.9494826286540914, 0.6761573334534453, 0.1525246916523063, -0.9305635479070016, -1.4172650108017353, -0.29915010234366113, 1.1996843691172652, 3.3979791116186533, -0.6457831569320599, 6.815945791327908, -0.27407469107593674, -0.3960186787441229, -4.790937233747149, 0.12272516503834896, 0.507639125695568, 9.55470130099924, 4.992520637071658, -1.3952063170569073, -0.19080660759683, 0.5684295804015315, -0.28322686958539267, -5.535411051285772, 0.7984432560739556, -0.8529955547603082, -3.740889701080982, 1.2126405837181948, 0.11466879923783235, 3.841062437527556, -1.5026817458662238, -0.06035978340156167, 3.965104306790426, 0.5211489055050904, 1.3107000839100962, 2.585084265430347, 8.207085992640495, 7.10666634853007, 1.2437322105560913, -2.7672830067453336, 4.690137343181124, 0.6709390300530308, -0.1436354867920253, 1.1823545318344604, -1.8526859222644803, -9.057182125401994, 6.7475457468161135, -1.6708909905243496, 0.08236213180828056, 1.9095565976268096, 0.06328716168905313, 0.27763665338620847, -1.8459368283495863, -3.409735631067397, -0.33823394821162145, 0.5286534246120651, 5.022078799654189, 0.3458631677202677, 0.12689956134574787, 9.600914758804354, 4.39898945316107, 2.25614820407172, 13.183505170328981, -5.3713893594120545, 1.0135749759278116, 0.4599115308972421, 1.4556461622024384, 0.35480209458583545, -1.7901436157996662, 1.268455389500538, -5.791826999727408, 0.6504999845139404, 3.2659777075848666, -1.324662237331055, 2.679727525265636, 6.722515409080572, -0.24022154120584893, 3.9664717055539604, 1.8476643475700583, 1.85808494702382, -11.892760302233908, 1.0517916193722234, 2.7240808045200513, -0.08912588359078955, 0.801008243197916, 1.2581724855239313, -0.5302218451332046, 1.1192967222808554, -2.295254577372866, 0.4975751441541355, 1.5230623191760562, -19.540285600494673, 0.43628407621724774, -0.8095006903255958, 3.0224454618688044, -4.826381601102303, -0.8176448656912282, -1.5370571881493467, -0.45570948067489503, 0.6029496116457864, 19.77976591705918, 0.40515767201694086, 4.2374346806963175, -8.636026353951245, 4.131838012752098, 0.28971546188258857, 4.297381057670208, 0.2745605952731254, -0.09811736374101976, 2.1661304031801745, -2.519719590603733, -4.244452011384394, 17.35209318488119, 0.35495004019659926, -0.7300504541434185, 4.846742660086818, 1.7743810524759402, 15.910714889537399, 3.105354702203239, -4.21361761547384, 0.8317195091918586, 2.814804712552517, 0.15606713891559165, -1.7909647899942767, 0.6000144774806355, 0.8567012401265761, 0.5121057658397775, -2.587957756118938, -0.3889848871864843, 1.9202386605596233, 0.3333336229513957, 9.45019960754114, 12.140710678991045, -0.3318948437708493, 0.6828349534748681, 0.06377672367617215, -0.004675585221662448, -0.76863241394856, 1.0559140976076264, 2.5683448445022248, 2.235886221231546, -0.2980108974931073, -5.384203051222618, 1.8618816886413803, -10.750959437388394, 0.30041600989298756, -0.7773829150011524, 0.11698823568238792, 15.314402163470898, 2.5541064907571966, -6.169318546698651, 4.091676274823513, 0.6340738284698728, -6.364322811313145, 4.16713639730104, -4.6384181611937585, 1.0963378294463109, 9.897275770278853, -4.9693405194597435, -6.934877905348012, -2.1105013988884087, -0.6483047716961909, -4.376533054339319, 0.8555313576318326, 1.7887580095757332, 0.8244182840895623, 0.5345049297070589, 5.627784360651104, -1.5027974365568748, 4.847757707680897, 23.613992668677522, -5.0996824082083325, 5.489487826897484, 0.8180879903787118, 3.6170070617488372, -1.676943284274262, 0.3368889365592782, -6.155456936572037, 0.795597284057737, -0.034874321161975974, 0.6705286007038302, 0.031620434084571825, 0.3063941122713265, 0.7643028220842916, -14.112112571928627, -1.2469825328733735, -0.17327120616942704, 2.5803639469847917, 0.22732207107002744, 1.0856264761478158, 1.6196509155597298, 3.9143067727181777, 3.454411898470649, 0.6194897990207489, -0.2686505524142273, 4.204726603306067, -2.2261648445534763, 1.632122523464942, 2.685378929475206, -0.8327694851772325, -1.7078940381052665, -3.317793795626442, -5.847432760195712, 0.3282490287089864, 1.762081568952522, -0.4931664520678577, -1.5414291308912484, -6.070638422400768, 0.5824149933213218, 0.08784350807848196, 0.3875988437420268, 0.9048059549390698, -0.4869435078981542, 3.061674760976441, 0.6246077827474479, 2.7169823910956077, 10.62101958143722, -0.09283597510761665, -1.189881946292522, 2.09909986213013, -0.04846906192952982, 15.452901724204224, 1.4694302970978566, 6.407220318209948, 0.7380607022514303, -5.798869988419, 1.1812351025134213, -7.899788459426722, -2.486086318870515, -0.010414819700781841, -2.389771960767489, -0.18420847305023447, 1.004686051465034, -1.280754498922764, 0.2562225421429596, -7.01559730676879, 4.262410895022102, 0.915167137974555, -1.6539333858663179, -0.18306653961649721, -1.0075198547592903, 2.5498296983985287, -1.4657325094422464, 2.214363436520358, 0.5440299652945756, 0.15865243652206829, 0.4621129025736712, -0.6644744544199599, -0.7004667682555497, 3.0558169125890666, 0.350242632818334, -0.886093069501335, 0.30559548587396845, -1.436575372918774, -5.778763000357156, 3.6580132148709117, 0.5976433466633834, 0.042808247401808774, 1.4342727005638443, 1.868175772167411, 3.0892106861011435, 2.161899439837881, -0.1285780107549288, -4.920568362862325, -0.3924525095317014, -0.9974798279399828, 0.8732101167823707, -1.2499798952384324, 2.006053731903216, 4.518768075251131, 13.511104496906631, 1.931959125491224, 0.9471691917057596, -5.192848696783229, -0.46015808639535516, 6.253720073641801, 2.957757831591265, -1.1963672727577284, 0.6605360325783003, -2.667045736924559, -0.053408972027545354, 2.7628615635671974, 0.09673295035256047, 0.15786219133315116, 0.481668073014883, 1.0962611622719458, 0.6186356709048663, -0.6660737091046967, -2.2825067444852665, 4.48936025299806, -1.418812293448871, 5.158539328280961, 2.755502459154064, 0.7771035156707166, 0.3123253468982018, 2.5966716386908812, -4.477806815997957, 6.010451166756159, 1.3728677466091757, -3.317760067633155, -1.4116374006576606, 4.5993332998683725, 1.4734537936317502, -1.530533372576096, -0.036138088963691084, -2.0005878881860117, 1.025484211502859, 2.8293925873441053, -0.08852723293961673, 2.518576130436026, -3.552421387889281, -5.286037176540216, 1.2805486003844546, -5.608081360634218, 0.43895642748639163, 0.13233055612009137, 0.6769996053657859, 5.936024281287148, 11.390491059863361, 3.3970347283301687, -3.385512553822522, 10.229012917907674, -1.9584821747815087, 1.1114208008449151, -0.2958846652735766, -0.9290406633469079, -1.0860716717803724, 0.2848124167005459, -1.7490149220731408, 8.602687328048098, 0.5858003068403761, 1.0152022572921424, 0.6094855310626909, 4.5740109666094355, -4.216323734239839, -0.0754563925983458, -0.27254712225531375, -5.134576674356598, 0.2629317077540173, 0.25068207916438756, -2.026534942408222, 2.0074208324794993, -0.8663712394672949, -0.416923839918133, -0.06491017305225621, 1.6094945450209774, 0.8849806911681917, 0.02721144039808332, -0.4965101666986542, -1.8122800430949564, 0.12669582088244558, -1.704859593198944, -2.2860702007468756, -2.04847080533946, -3.021645811418356, 0.9757823297033639, 4.5086038139722655, 0.4141451511785055, -17.49943182840054, 0.08761018975871304, 0.009779380305761864, 12.39471969861598, 0.17562553499107292, -1.8827475348582223, -3.523765910145324, -0.7587100809056094, -7.718281752635967, 1.7340174391731888, 2.7153486186930826, -5.414137688207877, -0.6780693539584108, 3.4840090930073053, 5.4838675275924516, 3.207974200303607, 4.03189475392481, 1.539808898191215, 6.084429898050736, 0.9056350785058966, 0.15361855350435116, 0.4815891402193626, -5.093254738044606, -4.587786354290134, 0.20020474815764977, 0.8086611361593409, 8.905650052157807, -4.169357131620503, -2.1780379932862637, 1.7110279138614555, -3.460468086054283, 2.7090518020141725, 2.340327283362439, -3.4758183690047657, -2.6391663518660957, 2.359668881897643, 1.528248403319825, -2.3440284414205514, -4.209482342985601, 3.319981398347513, -0.43292937144308685, 5.211609698744405, 2.797743032026391, -0.3302822639928755, 0.5846220089133536, 1.2706874764990816, 1.4782770627761446, 1.5539774803052544, 1.1975201636273916, -2.259564585097313, -2.8859651266548103, -2.5726844562409354, 1.6470043888890256, -0.7887612040705043, -1.9042961870240889, -4.118056860024673, 0.9491705051076303, 2.5008872306866436, 1.2750213856770873, 0.8140535819920931, -2.3883267684828695, -1.8444269227587773, 2.0372070354802645, 5.048733984596568, -2.990762716719503, 0.6511069174311235, 0.04893778897617618, 0.8822350810207651, 7.500146934869561, 0.05234030029059422, -1.7088184377544675, 1.6177025161858796, -0.922454751249879, 0.2707132115065026, 1.2970387710664926, 0.926158330525868, -4.164904513164798, -1.3985874212506118, 0.33998124544007047, 0.14765863049670713, -2.1483571887767803, -3.385348740921052, 1.5228774645708754, 1.6511305448219755, 0.23166311442288878, -17.392287847464303, -3.3680052781682543, -9.023709082531116, 6.367238747358005, 2.222792141730281, -0.8183362495656956, -0.475496475429664, 3.234086291951064, 0.6316045553316119, -0.5553440598551833, 3.8660373247197892, 1.6572260773298266, -0.6387741019821549, 0.37900583317819947, 0.2766968420480923, 7.851319940031448, 0.8140184236141864, 10.966288082453246, 4.683647312357618, 5.22515298769447, -0.18167625943343957, -5.2642526787857875, 5.5727005136339915, -4.106062346070784, -22.751651447908394, -0.4702481466028817, 0.8190410236833454, 7.569201711247578, -1.350575877575726, -0.1097026572346157, -1.708711395890842, 0.30815850133712264, -2.7834690019313495, 3.297692136068169, -6.1279763594854435, 1.5767685612522966, -6.392967803873405, 0.8682833956324585, -2.5163022975733074, 2.326094339563562, 10.168305581106736, 3.560631895548826, -0.5549119733779605, 8.175994130608096, -0.4483557419201619, 0.6758926228302107, -2.5499890811004713, 16.46937731723549, 3.806021424297203, 1.2435819462053237, 6.1075731806570115, -8.86704330651021, 0.7569158867522776, -19.537304153077553, -1.6672134546969772, 0.6611085685881518, 1.630368041984537, 1.1019148370541365, 1.5474943388901514, 5.102873287964383, 15.514111723984275, 0.729621737419187, 2.656039261966348, 0.6304582972424243, 2.3156765654916804, 0.9381699389345193, 0.2769305817190717, -0.5631445944563983, -0.6437179415575347, -1.1393210276018775, -1.3208747725000631, 0.6153401871441524, -2.4142989929465326, 2.054845295320603, 0.6653754819765928, 0.7780463356229314, 7.378977848321901, 1.6675945960775829, 0.5393482048408798, 9.113096518933926, 0.1710840376141025, 0.545036163639472, 0.01886747326467675, 7.8699957808577485, -0.3355191941146556, 0.37227965680990804, 2.048361657885549, -3.091622190746066, -2.677381829819105, 1.045645117192978, -3.198436833987872, 0.5484940983321343, -1.3775324708039371, 6.8434184565308485, -0.947387625155553, 3.5991499802107194, 2.3143029126748047, -7.698933814233719, -7.378314040102385, 0.4365817217418244, -6.849963959283202, -3.400005374644486, 2.0115132294194247, -0.06667245734337457, -0.2603542764576021, -3.5001690403214445, -7.336318514568335, -0.9940409191595294, -1.2015287902596368, -3.639965625391988, 7.257302046993639, 9.502476884196465, 1.3872043050632792, 0.37239914363885784, -7.652942105496515, 0.3175935651576691, 2.1322868223793856, -0.5874173142076888, 0.06829995037838099, -0.3647993205713578, -0.73788293386789, 0.498456123748127, -2.600574433885015, -0.10605993181116746, 2.5148125277044615, 1.238004186190291, -0.6741204773245482, -14.90029949259097, -2.3047081106462866, -1.6401361395412666, 1.5523417410544922, 4.119204948685067, -6.720968322258537, 12.597938557679663, 1.8416131976558874, 0.6979487991755526, -1.60639163471002, -8.480057847253264, -1.9010711412292984, -26.316340206370597, -3.116178417117901, 6.506812931917168, 3.435166745922901, 3.6367857633505665, 0.7983212268241625, 1.6439258614359331, 0.08136281200490547, 0.9565539673328513, 6.63540431001308, -2.9877494974177385, -0.2975563328708847, 0.3233697552343533, -3.4231983276387488, 24.95546522314165, -21.351334916630176, 0.22916740390405976, -0.03978886347761468, 1.8041975980028568, -10.915754135444093, 3.76519016185821, 2.139536361648272, -19.522742452397427, 0.3577901350984146, -0.7353891715963434, -1.241051568506492, -46.13410916550272, -0.7648420270733746, -2.13327263279888, 1.0172995256994914, 1.1138037661544373, 2.0235083033573686, 0.005078812975727209, -23.76201679937001, 2.4667860231376233, -2.025712676019768, 6.311586645942791, -36.54955665835543, -5.867360529754725, -7.513168486572979, 0.4335451231573596, 1.017285439697253, 0.14817712930404114, 2.5015230477999975, -1.1639910270013822, 2.8429355831208323, 0.19481446380792888, 0.8629915863577453, -1.8600247176033502, 1.3415370727679052, 2.38048494375994, 1.5242803684508994, -0.07855242745776081, -0.21486026199147346, -7.116878083280474, 3.442893769703266, 2.180184170252658, 3.8885371458058864, -7.166629785180495, 2.582042788495232, 0.33874126295348184, 4.401518594238864, -1.5938456939898415, -0.6117055985580093, -7.260697602596635, -6.821849209522251, 1.025704620903257, -2.6974860816454593, -0.038401440798923936, 0.6478453821106218, 0.7284904102896065, -1.0954320621673737, 2.302416029582493, 3.409048503776182, 0.28996035765985095, -0.8552059456159466, 0.40056602830165966, 2.040224161405142, 1.0657003785903694, -0.8189602021764913, -1.2287395472787481, -0.8017175959001658, 0.9102730497227336, 2.692236346114575, -1.3128276258125364, 1.7584826001469205, -2.9687484532548023, -2.9935953262243786, -3.8092957710990016, 3.7057585613588797, 1.9013527978330207, 7.667223202125413, -0.5755912634308771, 1.1569225438588655, -3.127378154062237, -0.9758626821557271, 0.9596383077250517, -0.31961172408659566, -6.444730585879675, 0.0384333928013636, -10.841434046332612, -6.768880293361438, 4.850383452866364, -4.201600085936981, -1.1842113313509763, -1.12699427943021, 5.896437505270349, 0.010018165638320697, 0.808555715806166, -0.41655941647137495, -1.1835025584649888, 0.8542580615539395, 1.1038088763312413, 35.64823701404262, 2.109215887233459, -0.25673584134938454, 0.02293900257002257, 3.244630421718411, 2.562477490752241, 3.9440262460415387, -0.07737817177243378, -0.24359960649187862, 12.175238918540034, 4.036858075911563, -1.3644865494334533, 1.0696815495286591, -2.6333222023782024, -2.4594750392172666, 0.6279238992868384, 11.78587594595679, -1.8105092197734445, 3.005332726662953, -1.2680356413435705, -0.21402051333745964, 5.100330507194608, -2.6147196857687587, 0.005234154366107191, 3.6171202693959508, -48.80525150397755, 3.904075361031751, 1.2261255484863054, 5.397765202735654, 0.4572022314912557, -8.732464309389341, -1.8625322066553256, -1.7711893253093078, -0.4546592284922685, -1.2786258149458156, 0.7507781023098664, -1.9674179219693502, -7.480913753235873, -1.0423232842910037, 0.8404437475494466, 3.585666866200705, 9.987304117527962, 1.691828849394471, 0.6793198252246787, 1.642165804490866, 0.21561503779998725, 2.6492292479866606, 0.22167193345228386, 0.699182247544826, -8.444600955014991, 2.717100867046787, 0.7055713008360815, 1.4180153415960888, 3.34123877406927, 7.0784832166025975, -4.308945949426872, 2.861569666112287, 0.006129966625867178, 0.7388435092545264, -4.103984473359274, 0.6176299302848798, 0.6823298039953082, 0.4863353929566189, 2.33734736215328, -1.7426293985610388, -5.008009911059294, -0.8590581663894531, -6.470045561529258, -0.18147041590690893, -10.33006576581598, 10.723594014661975, 1.3156507425416053, -0.3228282997013716, -0.5150842557626294, -5.112085196191604, 0.4107201443960188, 4.088230814253762, 0.7956705085999388, 1.317899928556228, 1.221340125407165, -6.990141437078554, -2.7652706943941143, 1.0600747660773295, -5.373975110234557, 0.7227359276933327, 5.156951875902623, 2.0709625904064093, 2.18079887340426, -0.6865395011040998, 4.172865926068784, 2.0399961964902547, 0.13618167326523212, -1.8418405869329284, -0.9960082256303857, -20.929267695198362, 3.017865703485053, 1.71758943223547, 8.107226973856676, 3.6896520047211103, -2.469173981557398, -6.034767328613613, 0.6990736898598303, -0.6840581514186872, 0.15169202265354986, -6.015916891936049, 0.10198935965051881, 2.841089413951567, -4.111750020666553, 2.0403845509090894, 4.220832997768259, 5.641987957638958, -4.646049426288447, 0.7179663184901733, 2.5317184187738526, 3.668608575526138, 6.775526343693179, -0.20638218204057301, -3.5355660291513544, -2.5035643811337422, -4.191186315141518, -0.9077853370010178, -0.9302848479660971, -1.7403130275773102, 9.390630315792087, -0.6997576313575458, 1.0427961872750497, 2.1049093836346096, -4.387666974156558, 3.9375690205167078, 0.5551405111401537, -2.7496860969146915, 2.6101305355115496, -1.9573645309908674, 0.16073547430228496, -1.9769868259468009, 1.0469137853356565, -0.0800789641396531, 1.4878994697612997, -23.797741814471927, -11.721193118362372, -4.796008188686868, -5.1575623456448785, 0.5561587652542069, 0.6378729904451241, -1.8676992547549274, 2.004922166439626, 1.242495094296447, -4.489084130032666, 0.5686358861981116, -0.67843909578091, -1.0278234652948433, -3.402444243084092, 3.240278592985319, -2.781003225875917, 0.5552117658501694, 11.73737564844441, 0.38058719489776704, 13.794738035683002, 1.7851247615814096, -6.593653576376795, 4.522482131702416, -0.5430697711150744, -9.080023800551114, -0.8161029128880669, -0.900423224846868, 0.5627350104639248, 6.93505845777398, -3.6674548735004366, -1.3286435339940197, -3.228266663125738, 3.925546647299561, 2.1045796196475393, -0.9590236624040002, 6.039047308084426, 2.9223589846343105, 1.7068970069721239, -1.9031391065712215, 0.3317082832501229, -0.8298514272691788, 4.166187210221701, 0.944051335588057, -0.2123191914064272, 1.4504925957981891, 1.3743403540335881, -0.6126807642539981, 28.961136080589757, -2.7038512325145185, 0.41701920037141127, -1.4053822270439902, 0.08786633093194274, 0.5131700163305644, -47.3987754557933, 0.5336209337904944, 0.9088888396482739, -5.161455440912571, 1.9111633140339421, -0.9801377874320751, -0.5197773257838887, -0.15571058517966052, 4.700151771079326, -0.08789936064211346, -12.55693259778192, -6.26413567270035, 0.6919082311607575, 1.4195924643419644, -2.31432543092373, 1.8082522605408866, 0.6315580133011578, 1.9637021307869853, 0.6348361559792174, -1.334294960001694, 0.8103644959551302, -3.352520349557698, 4.194967444585279, -1.2558248091063318, 5.008538540023293, 2.9346214555187706, 1.4251957012065053, 27.839611192331944, 2.3228807077677, -0.7814670891444025, 1.8624600121447514, -19.577147023806802, 0.3174718461954197, 0.9206116196785122, 2.8777757637394252, 0.2963301416561597, -0.5250015924782989, -3.44536701547083, 0.41835191264683924, 10.35716354057238, 0.7606065813900618, -0.3732346835932384, 1.2728306783543082, -1.1720825878043897, 3.269162912920157, -1.2908728835970265, 0.6224437462608272, -0.42851835618884837, 2.888868753036073, 1.1007969184698687, -23.477211442009764, 7.996629458802341, 0.15985846600700726, -0.48531147979732603, 0.23599066786093215, 2.5359260913376778, -0.6556217221205398, 5.822696823435416, 0.18982762979073275, 0.22064702838484818, -12.763717580956005, -8.495355101736477, -0.2260561383519124, 0.6113483323544333, 2.356942510708368, 1.514312256651546, 2.797612172533621, -2.8203867700375316, 0.8891856998408761, -2.74814547576914, 7.035027100211442, -4.433250104378326, 1.6088282892022903, 8.318688418254657, -0.06251524383182139, 0.7078151320833728, -0.12369488280749519, 2.1666596270981, -7.302061794725888, 8.70919602210705, 0.9022822590598788, 0.26992360781837377, 1.065788940916511, 0.6777838123023173, -1.929843239336944, -0.7732097143022285, -6.004581949702844, -0.040969835068797145, 11.870965290783435, -0.2597225085141509, 4.40132914066533, -2.040617762620735, 0.3692737398113085, 3.8483303923532586, -7.96962020195194, -1.5302266570910539, -6.52513631726225, -2.877571168793624, -0.9604550596281183, 5.251576593325468, 1.4656278518915422, 0.5633562466530142, 14.511158788621918, 2.9765826143247427, 10.594475888585258, 15.067678418221497, 0.16664966543541493, -2.40549252766624, -13.290216659356162, 8.778831316968288, 4.908198017815483, -3.5435438849059, 2.8212139628362625, -1.408761207389749, 3.1234491924457437, 1.3263553301728925, 0.7141304139927341, 4.322295884488044, 3.663835150915273, -1.0575576792186943, 3.601939243488471, 2.5347424163272194, 0.743589406521226, -1.0398055476723944, -15.510162412240309, 0.8143333872069695, 4.1438339335217025, -1.9898770455454986, 11.162699566759809, -0.600904428053144, 6.872257123841138, 8.774958977293736, 4.475936092359338, -0.5577152112192414, 0.3867552756376109, 3.3740033754003678, -0.31608678682048563, 0.8735077760872791, 0.5245855790735243, 0.08899632795064993, -3.3144988250786906, 1.0074924474302822, 1.8819562409164825, -1.1253492864045018, 0.3373928312487664, 0.22937515020716703, -2.3227144797598296, 0.24698491771103182, 3.1065625639561225, 0.36499651187426274, 0.29619363021534206, -2.797864663765287, -1.150985619810382, -2.5000489219248445, 4.711826955822862, -4.000014577048036, -1.0320885907451358, 5.570698729627383, -5.216584709233998, 1.2598353759460403, 1.5574398326553847, -1.8108333613870138, 0.9402432793362894, -2.597995038817349, -2.1686625400838553, 0.09283110141377782, 0.4234148232351628, -0.6080213397585701, -0.3274274331027368, -2.7993002346327334, -3.2735308674367225, 1.322414183801306, 1.4811338900624458, 1.2523942304056668, 0.213100274501426, -5.173057451943976, -0.17772686035354202, -1.0332914595959133, 0.43172617266452773, 0.9057376107153681, -7.754096813299171, -0.555316000450094, 0.6473349973711947, 3.0081215092352487, 0.1292476939892261, -26.850191204041334, 0.19408577070393385, 0.7033053068633781, 1.0798939975588204, -0.0485536067231227, -2.277259541103158, 4.4127211927503875, 5.127468768327285, -5.24956356021241, 8.727756840561351, 6.906927252405051, -0.012915933411054126, 1.1368895003407842, 3.8494924724663377, -0.044534046522060944, -11.734384261646628, 1.4991831500103894, 0.6995589594516332, 0.31603622493822014, -0.21157766472548634, -0.10288508481827752, -4.766542993896778, 3.8461927501027686, 1.0114639893444408, -7.271504110062498, 0.7929168967708282, -2.413163518251697, 0.862343729019272, 0.58375418878307, -2.0974936043311656, 1.6118852683471987, -0.07602113062270799, 5.98342360408176, 0.13303469816451652, 0.5791966134076992, 1.0544102680077718, 0.24510226472049967, 19.53286730672482, -0.20603182747040383, 2.180319731912274, -3.266994976695681, -4.552410712255769, 0.055553517496148896, 0.8903278942338018, 1.3897100977553234, -2.8427054423421865, -7.595609252022166, 1.2818306177180219, 0.9286512308542404, 6.6522331946482804, -0.2742208272600989, -1.8669764452352453, 0.8696076454852534, -0.14237012453514675, -0.7461063836268019, -0.8615215990642936, 0.6514715332038703, 0.14113569842414408, -2.1019227394334794, 0.5935447830667417, 1.9691904190132759, 1.0983057141762722, -1.524785795217835, -0.9249040498197232, 0.01652551009881542, 1.2592526919929947, -3.741738200961055, 0.754379944660253, 5.489700904293077, -2.421375722944518, -4.450992206588365, 0.010232379564545813, 0.9070913131437908, 2.0116902306799123, -0.25002076844338694, -1.743309365412661, -4.613998052151045, -0.06403377106869534, -11.572296467585076, 3.3600578257055966, -1.4218528250304168, -0.29487066390635475, 0.8903893949526063, 0.5222875844402559, 15.037216874974767, 5.53234490121895, -22.15660444813759, -2.956243913290685, 0.7703453423653626, -11.295652204358182, 2.5762611242933837, -3.2526871029000963, -1.4802501744663594, -1.7561360552436334, -0.11639679506678435, 8.174833849270136, -0.2088926587102231, -4.11480822435773, -0.11796920902552832, -4.884679348012892, 6.001257187843976, 0.8400683980620833, -5.832646973832169, 0.3327705460491802, 2.1555825009375704, -0.5495438102064291, 4.364094661746073, -8.31049809469625, -2.8091353816286846, -1.0787104908471525, 0.7865151397833114, 1.5327375009313056, -1.348956128776101, -2.5184634682349754, -2.2853452198110045, 0.45463819720681853, 2.132703976217649, -0.3606957922810594, 0.03828435891766313, 7.932373175150018, -0.671811946231474, 0.11976739085565724, -0.005044644214534877, 0.3485543318303034, 1.604841986661756, -0.5110604836005183, -0.10169908701340813, -0.20772818544640048, -3.036286699655591, 4.2121688920340485, 0.029366299468047696, 8.204434491307133, 0.2678290906894438, 6.887854539774043, 0.8493677463621798, -3.0683581395254977, -0.5907048247392434, 5.830130694556602, -2.2291902397775276, -7.880695997095373, 0.28242766162468025, -3.254992673203917, 2.663616703255819, 8.526439201413032, 4.551113045749355, 3.072412753353708, -1.9538740878695788, -1.9654712079813672, -6.596198361670887, -18.781152740645936, 4.968631019439346, -0.4644110760254999, -0.010525341865090798, -2.2152860971863166, -2.090868962265427, 4.031839323036515, -0.579462419612149, 0.536738517578525, -3.2689434703481006, -0.4855313203801056, -1.1311050825390336, -3.3385202381095334, 16.053926687611302, -0.26849773231263896, -1.6066731932731595, 1.4662271282363557, -3.178706104638602, 1.791717582040492, -2.489726067233875, -6.214811014047212, -1.6185580502481693, 1.096837829736295, -1.5361659010498356, 1.1381248883838737, 0.5478314190343716, -4.946275258760003, -12.47966740134484, 0.7241745728922203, 0.33874990421450724, 1.944024560417868, 14.957449899128349, 0.7044055441625751, -5.136546648018693, 0.44120981122887093, 2.8779339175529004, -1.8385236193444179, 0.7203947055339835, 3.5986219425705177, 1.2281115675717156, 3.931154429110791, 4.494928625435325, 3.0210589104794234, -7.91475679003408, -1.206796580267211, 1.3467393518748356, 1.0847666328675378, -2.882668216970877, 4.20802116374899, 0.04064484770590482, 1.414996368078389, 8.735782315543728, 1.4724222356606642, -13.802388963949921, -1.629562917107818, -0.20152495479213317, 1.6423972253249015, -1.390906650479683, -5.536544411812596, -1.1726823349114852, 2.0926513327683884, 3.975519561692483, -2.8229578576715024, 2.123830661897576, 0.7357169844166549, 3.384292597448835, 6.131266807475702, 0.7118676423380312, -1.1057533410220528, -1.9291320634393048, 7.978600206214041, 9.7422924476676, 20.51597509763739, 0.8585217755556239, -4.56650064076522, -1.9135862890394955, -11.275889403010567, 2.0089810076479537, -0.3038767190468925, -0.47629102092922504, 0.7869607269854091, -0.21326455316134296, 7.283148237230314, -6.424717039831391, 0.916564506115418, -4.769847481253292, -1.7964843402955935, -0.012944451540397806, 0.3923821009327213, -1.0459702039029972, 2.95962871914728, 0.8136157259807193, -11.819144623828006, -2.278461838240514, -1.4350678715566239, 1.6694430683869506, -1.9170223376045996, -2.7697057487377323, 6.133872128847205, -1.2101275989254896, -4.313954696327613, -0.2145372321175576, -1.1587835171242034, 1.8293227178577287, 1.1283494557414904, 4.365843362296479, -1.8361310718826047, 1.3314754225253589, 0.06397255309190386, 3.343338221600954, 2.2882950628556022, 0.4671230000023293, 0.4794806311910007, 1.9701597664663137, 7.745350643496426, 3.422721433296249, -2.6647130913646944, 6.209386964167535, -0.4605190102130441, -0.6553901370419575, 6.039345154635718, 7.060694841334646, -4.851514880454396, 3.0789787334562786, -0.7289749593437338, 2.5110812925753954, 0.7111346762726818, 2.705142701002854, 1.6961274516981408, 2.872099613746104, 2.714944153837162, 0.48890570329613103, 0.997069568962983, 2.1167367993355706, -15.319669284670885, 0.02885636651348067, -1.9043057076355447, 1.1443601321201164, -2.7485579819172, -0.13507336203122144, -0.3886519922553, 0.09382187239544315, 1.4860869237597685, -8.144070308529058, 0.15328712915209453, -1.0174699553006141, -2.0448788836045635, 0.9449670636400761, 1.7525925429253597, 5.525837418901559, 2.0355783206811915, 9.105999420366121, 0.6437700767332116, 0.41537719019162345, 0.9573168512905521, 15.818852026086162, 2.038343323327375, 3.9782639775849837, -1.1156188466807726, 0.4043398551311431, 4.706562263534342, 1.2622374112668147, 0.3036795858908712, -2.0524764611875987, 2.792915453152707, 0.6377751668667675, 0.4721423371403862, -0.8826657994251921, -1.502365139993682, -0.6111174560119904, -15.287765169168212, -2.8158288937168092, 1.290436174812763, -5.507681399685786, 0.32343393380965235, 0.160548387049959, 4.48486171696904, 0.5614433694342524, 0.7849580232545802, 3.8093054315724784, -7.615071148025407, 5.019473815156825, 1.8116228724702133, 0.4400063185993527, 0.22486846949742145, 2.1079365996728296, 19.33518395439106, -15.218789771577121, -0.11175645844750282, 1.1262663829410067, -0.009258001298596219, 0.7110792075868705, 3.4252357832061517, -8.04635038654727, 0.37005803604616017, -4.196288503443906, 4.172541221925465, 2.238592081644066, -7.571554129665639, 0.538346722920669, 2.954114542071986, 1.0046866278002433, 0.7476586027379588, -2.0155609540016943, 4.1599056226806415, 10.340557255427088, 1.0158168166542825, 7.033408940549696, 1.21387913226777, 0.045464627204925834, 3.2529304052244346, 1.2248368768138245, -2.891206301026365, -4.150063051718384, 1.0934872182328594, -0.9988177535412373, -3.452250275917075, 2.75394165485298, -5.307606998031087, 0.9385964166157086, 0.9024255310470253, 2.7391838208543673, 6.377872757756455, -3.120605562687291, -2.5221050121364135, -3.9594438106409755, -5.235868506603662, -13.205545304544927, 3.5580444208035207, 1.4855023332619985, -2.166936767255412, 0.13833711531044468, -3.1838907810632078, -0.5933683975940891, -1.1450665982502517, 4.129120457709027, 0.7239226711930654, 1.8980253988377305, 4.2084908135376775, 1.099770753851225, 2.0252852363539384, 0.5134585988063565, 0.03801913664445211, -0.03294922208946538, 1.3345686756588186, -1.5865762357247761, 0.3827041161546676, 1.626221402147546, 5.547485256029277, 22.11559956964572, -1.1648924478638658, -1.8952704225639478, 1.5327348072700808, 1.108164244229192, 5.844911720251956, 3.7254748550927257, 0.6095938969952461, -2.4614203850208156, 1.1699151320143986, -14.888909578293555, 7.102090990171799, 16.193210732078057, 7.536132826035416, -2.40182511085827, 0.2634427593968093, 1.181946591504348, 2.129167905053852, 1.9038377393256698, -0.02747061284489094, -2.1163552058128463, 1.3033153757812381, 13.65994185855359, -1.3231026182579253, 1.0353463806119563, -0.09617467002432356, 5.17765871614115, 2.792968539599337, 11.441007502141485, -0.1553539028744324, 13.041764227331338]}