{"model": {"hidden_layers": [32, 32], "activation": "relu"}, "model_name": "mlp", "weights": [0.8509457453089398, -10.37754599946034, 8.794083959725658, -14.462297459091042, 2.234885548854693, 5.532085564947981, -2.2802157639288225, -7.84198316175923, -7.530356297662511, -6.879357929983109, 9.670273275973912, 13.656951431961115, 4.348569778899009, -1.9045383022405078, 11.879320251099152, 2.689386685373328, -9.749967235893136, -5.446003853264302, 13.60584041178634, -1.017946759188511, -14.153217088610965, -3.582996689138672, -5.7283261298980035, 7.12036055420968, -3.2910357484465633, 1.2323099187347462, -1.2158326491895937, -3.77938009774984, 12.406698082723864, -8.124614356239864, -2.0296365581598868, 0.37644180562442864, 2.4158924429410784, 14.648424798251646, -4.349602038010822, -5.104226251128385, -11.20982594915581, -7.293962737033879, -8.851668687137693, 5.544147142469455, -8.334371259982394, -5.220381803318839, -4.564740147163144, 0.15754367818266388, -13.55500988686467, -7.725322800126394, -1.8748896274926166, -0.8001197006635318, 1.0387497739222282, -3.309313603903807, -7.80710345426756, -9.654624169591052, -6.796015825513799, -10.256625870417807, -3.7945909955962813, -3.8685035122899745, 1.8211858026233996, -6.312647882859095, 0.07320087139706533, -10.549285065730542, 11.040688362597109, -6.01515010773708, 1.924769472640679, 10.62695249111366, 1.2478674453448098, 8.732057960183045, -2.6672901741001445, 4.018753074168469, 5.984685399357257, -7.911094024379042, -0.5902964238801759, -5.3972095828282525, -2.633745141844278, 1.1293877547149467, 3.2465076783846603, -3.3451890647800737, 7.326357818676946, 1.2288771321435348, -7.426826926744202, -5.568274403272213, 2.374829680695736, -1.828874935127099, -0.817101266280433, -0.8411410424116179, -0.8169026100505765, 2.2823691990972685, -12.520932745476927, -1.1020990613438166, 0.7399825350909324, 1.2719574193543461, -1.35343906803725, -3.7012812827763675, 7.937250466052751, 7.168735468590251, -1.6855602579771296, -8.508164339834831, 1.9905983644232021, -7.170412727826106, -4.784456720755596, 1.7011798559056657, -8.66727309109998, -8.310101649838241, -9.428378554775426, 3.193670935928505, -4.401493122181341, -2.2451381836773296, -10.996472914795023, -12.575357539009355, 0.33610248928567577, -3.2061219258627345, 1.5640494338542927, -8.160871242623703, -3.03864896884627, 1.748439331658423, 0.78549944845048, 0.6738291288885139, -3.271179836209423, -9.759467946164014, 3.4315567136785448, -2.095760836489213, 2.273195949810723, 3.299199430969398, -0.615495703125317, -2.673798112742936, -10.57279472587885, 7.238927151214469, -13.449015144303122, 12.258596451274688, -18.237870999852166, 2.3494016544983434, 0.3896992323313375, 9.265009990943796, 10.981285170290208, 5.023257012414328, -3.2862623747390374, 2.563944628034598, 7.555553107388069, 6.74158187096899, 3.9609234061689658, 0.5046980326581307, -3.751749870932373, 3.064960147009163, 5.438411015579123, -0.45236103599961386, 11.14230797885055, 2.262245267671526, -16.519673179887704, 13.728185521240961, 4.664575637124618, -6.331877020606829, -3.0475920126111884, 1.468169906560334, 9.105337972314492, 3.242998761802092, -8.716590481046897, 4.106549968152551, -20.20476927791048, 5.259128934461184, -4.955427680831036, 8.00271694215918, -5.774384721560671, 6.753009343959508, -3.7605267762234584, -2.7919086900827907, -7.428734655767013, -5.900580190167113, -4.745017357121977, 8.001047664791795, -0.7010114841526703, 14.926238368377772, -11.765342564317713, -10.157996991758392, 0.28802463166015824, 9.753386230868015, -8.016134228042434, 6.960517023663028, -6.331609112219717, 0.17409023578159788, 14.46569810692913, 7.148559171851375, -4.58383527102581, -18.38437611926709, 0.3064143787695338, -3.2187941939575477, 6.726193026739926, 0.5565454905801456, 5.302582135469789, 3.729533789494516, -8.210495756482878, 3.841001487042909, -0.9243154694645821, -5.435848559691367, 6.349809529106234, -11.6460240459204, -14.180974703748607, 7.8447116610078504, 10.468451645974271, 0.2098317796082233, -11.06110051770856, -2.8732609636904853, 0.7052003881432652, -4.803478268738198, -6.670388905263987, 4.0346657998379785, 3.4898175738795527, 7.226978977188069, -13.202231360317384, -8.917504430061655, 1.8894612084269682, -0.2797625106057627, -0.02950158398950614, 0.47176195621584127, 2.1559697910776836, -1.3858043458768545, -17.173177804696792, -5.678308872809512, 5.945002048164472, -1.5826197802169102, 2.6089752446682404, 10.512873032421195, 6.8476129680946745, 0.7600055614747712, -2.4422989936791817, -4.3850606344257885, -1.0419795267921903, 0.21123721657144345, -2.162018603099092, -6.74920595434352, -0.7722807812008511, -0.031342013521131196, -9.543225743601253, 2.737882655900657, 2.910347899189008, -0.7641568829859391, -8.792020403961942, -6.531757492400823, -2.9840715228671546, 1.4295284799585715, 4.762145782864729, -1.4929602188949218, 0.7431797126188194, -3.349136463752451, 5.19729670867435, -2.355190918642, 3.42304955860845, 5.5103616872465855, -4.384425712433291, -11.498673299000687, -6.547126467041446, 5.547020101293796, 7.937519558525068, 3.7072977911527776, -5.1803140727090735, -1.883495213314938, -8.030283828224425, -8.469607032424666, -0.939119883996885, -6.264296227622768, 0.9818733020404589, 3.029368157299028, 2.5891620723789526, 0.14467821049784124, 7.051777595692349, 6.172313768784108, -3.0567535119058458, -1.8704730150449274, 6.641987158715274, -3.750811986627052, 2.089743606804054, 13.970959434652388, -0.011545776988855616, -2.5517643677509056, 1.1175576068754087, 3.943266854061128, 3.355839062950484, 2.166280019763865, -2.2410479650540283, -6.0423386137592425, -7.198965397098195, -4.151476603211981, -3.9830541069340275, 3.8720428756167355, 6.200086201549179, -1.0585776583133422, -2.753516854590814, 5.269478529197988, 6.752634877314897, -6.950404700324803, 5.922442794097965, 11.394309356589575, -5.497043642294501, 0.3998031244561141, -12.646520840847366, 6.178416392973931, -6.615716210191094, 6.66088951617358, 5.666145185951903, -1.364019040005844, 7.475067922221081, 15.443565597900179, -0.27334582609291325, 2.248152480177615, 0.5408553046526631, 6.874885639786626, 14.575688004777726, 2.99682131895628, -3.7887574780960036, -15.217236376891703, 10.971099042057626, 4.386683228697841, -12.089437586455668, 2.3996176760229964, -5.180812451407677, 1.7133872622594866, -7.169143597283717, -0.5612417223690797, -3.7545064845501708, 4.694985377777304, 11.890348869230085, -8.804570345741228, -3.5429658988465884, 0.8927172692452665, -1.9829774820342667, -0.9385263596659177, 6.667445752135249, 3.8564090909982687, 3.9683514064027947, -8.359756972391185, 5.231858042726257, -1.0749122477528217, -0.1400540284526624, 6.39373373413335, 2.6713989238122853, 9.347961380906355, 0.17691567353932847, 13.738681328095643, -1.122682735728202, -0.7310303029950272, 2.919793220236776, 10.759731702719796, -0.2256236035969284, -15.218846008660867, -3.4923660140561346, -12.799081012165537, 2.566742011523665, -9.346032104061209, 5.146465271097691, 4.341760808016636, 4.970936513534203, 1.9768344434168963, -0.10086958229849026, -3.272704247960875, -9.103148763519755, -1.539810686896417, -1.6726826340144145, -8.947333278965047, -5.70295233900204, -4.574554852520612, -1.104003272095996, 8.395609099877412, 4.800824688108481, 7.018296055210998, 5.285745972818646, 6.637048461932779, -3.5973564035174417, 4.134024819146374, 9.408753120613639, -5.376091110711036, 6.153800766533084, -5.342689591051631, -7.173358109649974, -4.10304607003813, 5.945842857445031, 1.5409844671098265, -1.7937399851182694, -8.327420716322473, -0.23145452421797363, -4.06728966701727, 8.345607111394864, -2.5573919843643083, 2.112652063862224, -1.991100209456857, -1.4224545058658455, -3.896419559456959, -6.997036577178309, 5.848315216845528, -5.090935467487874, -4.2449812978195665, -4.290506913878296, 0.5325925628654695, 1.4094541991932859, 8.393393561429846, -0.9923963659522158, -2.210537314191595, 2.392226749592031, 1.6215545817663004, 12.796935212999179, -7.821792349866415, -5.79380146643549, 2.0654603300723373, -2.8737929212517876, 1.8628380275056418, -6.067561782380137, -7.991444499607295, 3.407094691749543, -5.4296926017085125, -5.773653972932457, 7.885357785241748, -2.1239114729165136, 0.6869953268681446, 1.9334908919188494, -8.41706611666347, 3.129224234166366, 0.4307231723961449, 6.7676666209229115, -6.0694612549924045, 6.627698152131581, -6.610332814283733, 7.958776276378555, -5.071341622216928, -3.139482293230268, 9.284829963585153, 0.5502125737781424, -7.742584282402935, 4.3193558794334965, 10.830856703298272, 0.20147371908366163, -3.6921565402047207, -2.6262013224568275, 1.6516252332816739, 0.003941209003323509, -7.337904127399837, 13.877377645468751, -9.799551184027274, 0.931683308653301, 10.264647726085276, -2.309166038058208, 1.4277892801877217, -4.3905415432278705, -7.777440069460368, -20.877385596167322, -9.906602767668687, 1.1662550705982637, -4.701136918715213, 7.53095575421476, -6.016209474319126, 0.7579611902772174, 7.262651479365791, 5.808936276924507, 8.546045942228002, -1.011832294406364, -6.426038810553092, -7.093084838357292, -7.5800573641961115, -8.99784538728675, 4.496257401793081, 1.3241197295656737, -0.9918861553075046, 0.5810698097285923, 13.645206405800176, -2.503601689962383, 3.71438749510034, 10.611663288612162, -4.7016571567611, 5.646984912793549, 4.834610060655782, -5.669139000747603, -2.3831659431668415, 4.603041551922519, -3.7781185695812995, 3.967563819290501, 6.694545182600972, 4.538539454110103, 1.6601176119504135, 4.567875962488833, -7.262185860026027, -0.5767616371186902, 2.0755624720754526, -3.4255913651882843, 8.782952975363527, -8.961739385310828, 1.9374914472426858, -1.6976166062931703, -20.538382503771835, -1.9692136246906118, 1.7557259109954497, -10.875399965697632, -0.3232029363467773, -0.9352783929411916, -6.642853489554232, -8.685485368172813, -5.485295315514042, -4.220472150652639, -7.511013960087145, 9.611204737246908, 5.529983304219174, -6.40634241480403, -0.5716731441220969, -0.5351683096544757, 1.7207575963032464, -6.8814239849988965, 6.1428528078336075, -4.670076840379273, -0.3523677642448506, 0.9608239932392992, -3.8462817601911894, -3.0380304930223154, 0.7746379187653829, 0.6856197728418498, -11.591774820706448, -0.8263303085697745, -2.8620992408127206, -5.206162282293365, 3.7971866502451634, -14.548338715159957, 0.4239821874992715, 6.525659321019062, 10.910119489727009, -3.9805723565567432, -4.882936546448233, 6.3902015299349, 3.608369245535985, -3.193017243363249, 13.551722100863195, -4.857785342176919, -3.112683282893671, 6.140070366817256, 1.5257146943581181, -1.1105551121362824, -9.228634941937338, -0.39297310875687275, -5.804378962396727, 3.276570200066006, 8.201074885030383, -0.9917306074624405, -2.525444082307696, -10.963599865634652, 1.900627464925902, -4.351549520537573, -18.185320067736285, 4.4987426974648415, 7.366717227152941, -11.67790177827203, -2.591076671210616, 1.0668228773216624, 12.205108465778618, 13.50909228261268, -7.984575231215388, 3.219787967985198, 4.192475340580905, -10.779222007157742, 6.539738875189654, 7.405077362069481, 3.166167025936339, 9.031171559515215, -7.343306191973516, -0.4555146317565808, -4.295537895331723, -8.852282622484937, -0.6323228180191058, -12.890313890235515, -1.9996866269956812, -3.172951228317567, -1.6859508901570526, -2.031576129984077, 3.8807663382187325, 1.4455337056363933, 1.6848781292107509, 0.46878789693447387, -4.582955954723479, 13.482024626107064, 9.565903778066573, 8.96156201145579, 3.090112790821764, 10.128344582369506, -2.074649582408123, 3.070802054574255, 2.072758739450401, 5.797658296301605, -0.7063846261167752, -3.17394674770101, -9.45690670148659, 11.627135686801523, -0.18952299075119816, 0.9655619092752266, -9.499494758329345, 0.506765024963648, -5.655333362628883, -0.6277213753125952, 2.3387001820259767, -8.331179461091399, 3.3441668462992515, -4.075340864797614, -14.706827628846195, -10.562385028676175, 17.425929543508552, 11.240593183103659, 11.96888137976082, -4.579348522105124, -1.808242735906338, 1.832124936882918, 6.71175173903196, 0.2595173379412523, 4.221700239691301, -0.36980981213365605, -7.3429260929166835, 2.8037378533087085, 2.2686047641940106, -2.6491469307989135, 6.067265096280774, -1.9278368781520854, 2.994210346979519, 8.288220976034419, 0.9973024665166995, 2.5090783236633816, -5.7770131737456625, -1.1689308254309405, -8.797861950884672, -10.228860177905593, 5.725835480094484, 5.5501962703268815, -5.999775024215813, -0.2748093612724809, -2.940338546527631, -3.963040990388188, 0.2058715770356554, 7.5954710119165645, -9.83697916681673, 2.032164533718242, 3.565695410079113, -16.52796412476671, -1.714652079803216, 5.268254124105334, 1.269687817139999, -2.117807594788781, -0.2099185680246589, -0.8269548106045927, -1.8951356662058105, 8.812539416308468, 2.3801922339147525, -11.06708322951249, 11.716974799405925, 8.472207411485556, -10.677395636251548, 0.9924936868514409, 10.585894830371538, -4.540631020948689, 13.486236128946889, 5.903622868237626, -6.30537054643068, 4.54855486436536, 0.053628357383940756, 4.260659924060676, 1.0726136370967618, -1.1429176008147834, -0.13216642141610302, -3.358389321662743, 3.5912494638190893, 4.672984026391877, 0.49172543972859195, -1.9396055492851263, -3.84771795333039, -0.8020669280800857, 10.502873837190787, 4.914589863935354, 3.909532175864678, 4.935555899965735, 7.844056939013902, 0.30300983239227763, 1.4640132317554486, 7.924344832172048, -2.662921641030726, 1.5502629668965047, 1.117506265918214, 0.23906803175227975, 7.8620142512339894, -2.593210413447637, 7.64106466427815, -11.16376689741497, 6.249068877088764, -1.538021601452462, -0.4310615750527861, -12.870872273522806, 0.027585837182634715, -1.8190742962971584, -8.623869083043118, 0.2849777317227592, -10.91749669293549, 4.644334161793587, 6.599949232380066, -2.001877871755319, 3.257145916348609, 0.9115849838049157, -10.348067962475692, -2.3368660752044645, -11.165667806135572, -5.9851856561494845, 4.498863966480137, -9.462564376850889, -3.0261367514923174, 2.112122752121521, 8.540517455495808, 9.78793958090585, 14.361372902986487, 4.467928472132057, 2.4423364429526964, -3.7358879067733715, -7.247268379638844, -3.876735812255519, 7.2543080468191645, -1.0897004471233893, -5.0558684752543, 7.293885070891102, -7.76727245248218, -1.5048889516859338, 2.9863148118388656, -0.010734916284299678, -4.477610313442872, 8.662950478107584, 10.52343421861897, 4.733899849528347, 1.43870333727686, 7.176322696199376, 6.050905358818689, 6.206463012794364, -5.381248583710841, 15.358751678161617, -7.361026830215038, 13.910626749203914, 3.4205183461251583, 3.437547291042028, 9.321706174371096, 4.912247273378927, -4.585664899065601, 3.7863933769320037, -6.255501000657261, -2.2914871130980097, -13.170433946228519, -1.168006540121852, 14.46420444342125, -7.593390155935894, -5.394304594219094, 4.825604221140237, 4.569324700447945, -2.309096440189396, -0.23771247813293295, -9.093674610835592, -12.256378463531021, 9.21911879398652, -9.128693075149531, -11.997642538413492, 1.3348199134309437, 2.944945512040797, 9.649945715197914, 15.871485811890953, 3.2437161757800936, -2.4330095706371155, -2.167209749602873, 2.0611811160732527, -5.557851943355692, 10.395062103967444, -1.1391474679085127, -4.001756293770399, -12.008985367535116, 11.940430201260941, 0.3637499024447838, 2.355739727765351, -2.6497509727535364, 19.679616326367313, -8.74011199980784, 4.786559003570673, -7.9987831660004485, -13.745403949806976, -7.495984812697905, -5.7700359413316695, 12.143607114157732, 2.977487345993536, -4.908332261728727, 9.202002746007967, -7.37316739554236, 3.930847203236633, 1.117360867062732, -1.3333100048368238, -0.19362477763520136, 1.4234526279830928, 5.3649929273599914, 1.4780458614664467, -8.76929781341593, -8.261896834187205, -10.274459148748779, -6.637767320041415, -4.324930762718405, -5.868442650071748, 10.9037415851104, -17.09743666490044, -0.5367101497125274, -0.2726910960947889, -3.216175418912444, 0.9332602175773319, 3.400793624946406, 4.943665331861982, -3.762480151462846, -5.361197951017259, 1.5218961612115194, 9.843424134778928, 4.6295481211231815, -0.968385441509392, -9.436080100742794, 1.8228762121704567, -0.5170024713899111, 0.1074014218210694, -7.407403279744118, -4.027335536999401, -4.221594563754259, -5.295238510773272, 5.180689810081306, 0.4763505179023596, 1.1212069243519185, -4.518393803252196, 1.462559450556179, -4.784360925039191, -3.670984656873961, 2.720810776014309, -8.85360148787686, -7.908542052197207, 18.69811359880981, -10.176915770054693, 14.06761697566499, -8.078950755085252, -4.219120005708598, 4.54171980234431, -2.9438831291290106, 1.1528504205805747, 18.18439798744764, 11.614055561975515, -3.14109241318448, -6.872896245947093, -7.823586369776145, 7.528218213652171, -1.4729366479623538, -4.284179404383038, -1.6343419688096068, 12.498990493025028, 4.205866647659398, 3.9646800079499416, 1.210326960281487, -1.6362463153904612, -2.8809825450781386, 0.058712348973268935, -6.470207810184002, 0.38853666574985435, 12.028920202015362, 2.4730466154371347, 6.266896204490699, -1.771601143481512, 2.2419751925791283, 10.997388887041229, -0.1967830404980503, -1.0181591798755905, 9.814213997608363, 1.381655726843506, 1.3609230487796895, 13.07260033151635, -3.4619680468158616, -14.509792529823251, -1.304596183424191, 9.759957918131736, -5.74798506257577, -3.9076004755786933, -3.819543407607814, -9.808869464094338, 11.25419897491615, -1.9967962496838785, 0.7734396468212018, -13.2249677881496, 9.487924518122115, 3.0471920549530758, -11.343975720381218, 4.047129323186703, -0.4218325550679882, 8.802857208433865, 9.409504661234761, 0.9423664008240071, 12.217893239116556, 12.858648173797125, -2.1792384847539896, -11.270757344681618, 0.30240305262579487, -1.9912032794398837, 5.991626012185604, -1.190359981735511, -0.8222603708106859, 4.849984134832781, -0.7828340304806554, -11.534892562952635, 0.8881281548436486, 3.974205875536408, -1.65558374040762, -4.169572761671284, -16.242270593903047, -1.4246400062315288, 6.8622481552246, 1.7347961009428445, -0.5530709702452927, -2.846863674292556, -3.8332722100348597, 7.448290122528193, -1.8825814887459629, 9.624041362924846, -1.1344751061986371, -6.733087441940836, -9.694851664852019, -5.804741583590476, 5.848737056278631, 9.660346220894764, 3.818031416082422, -3.6425271552584984, 7.178120540951563, -7.614105235961943, 7.363771090230797, 0.6379100787501417, -12.668868661754772, -0.8901132411676467, 1.284572337333793, 19.33789367448282, -12.900457529700986, 10.978116642076774, 4.588115713181458, 1.9348221797823004, 2.575252004794703, 3.5108935167026236, 2.5702204060521185, 5.679403964425974, -8.51895400582978, -1.988322008175565, -9.592908462509405, -5.732706666750068, 10.072698053114104, 4.349585005126636, 8.894360697134283, -5.592794738514262, 1.9548530885560977, 2.5018743955271106, -13.39326865351839, -0.7582502439787429, 20.211122060319905, -10.192900979739129, -2.984472800786288, 4.808384074129951, 6.200370073813444, -4.729395384615799, 3.511952962826568, -5.174176354020822, 11.773034976050566, -5.5253514887509265, -2.2062821238696135, -6.276171183762483, 0.36787350428448007, -0.7896015504572949, 1.7153913243101413, -0.6591511077272714, -5.829621995173417, -2.479763590499145, 0.15940661961961688, -2.5576195790323326, 5.299817144234624, 3.3623093914603497, 8.94541503246454, 2.600673255031108, -7.796992108605327, -2.9497643480781774, 2.3696435806085328, 8.11129327089279, 2.319871127374783, -2.5708314002815125, 3.182304386149761, 8.336391446035318, -4.896539869265927, 7.190516187535109, -0.530686812535148, -4.91863258862469, 0.926444143762194, -0.38886028880839085, -3.7500988576871945, -1.5495609937991572, 5.356413302692253, -4.946916453578002, -2.4809791979153113, -6.249586129152858, -4.165322354754485, 9.170186252382859, 0.9176987527616098, -4.682286875735964, 7.926887773731137, 0.2429624724759216, 4.175636550275528, -2.6451057357656858, 4.038034391225162, -4.845781792572264, 6.283991630661932, 5.507405780228934, 12.26466943530673, -1.0857469132619741, 11.739052727225827, -8.993607198674244, 14.752546634526077, 4.040626180097557, 7.755170795395623, -3.1248849267965437, 5.406415322748539, 2.81504156902367, 5.762049159172657, 7.738823858440982, -0.561390881251469, -3.4296584986848617, -4.1800929880727224, -5.457312129593989, 11.090110724766559, 1.0434256447958021, 4.0850596524758, -4.474048963010618, 6.934838160491815, -8.295722518930022, -17.294587184390892, -1.5730319763723561, -10.07973624068454, 6.117634551685865, 4.889102957355624, 5.099902944824604, 6.347241074553401, -1.8573234264470924, 0.1272915971212057, -5.256731743013295, 8.709749695228352, -3.8386455875020364, 11.002777513341071, -4.47905690544646, -0.1878256325281482, 10.01518821065535, -2.315805048428508, -5.593744700214025, 1.6369790670545772, 4.568368705673533, -1.7880056463023073, -0.27609195182326196, 0.10722380197647541, 8.575773879701094, -1.2700297838022327, -1.8767507547508222, -3.173737506356345, -1.5782531564491902, 3.24896097763812, -2.0653051169085552, 2.7423752403205075, -5.071984591915978, -7.024481422463436, -0.3681507562710691, 1.3066652482171346, 16.391021126386377, 4.39236115912919, -6.716579055783717, -0.6622070496038411, -17.203516783956793, -4.7744716553145965, -10.133813217757089, 11.167771624571623, 3.645038943370457, 8.97918177527615, 3.923222260320825, 10.19935399691575, 4.656701928371847, -8.279642775132741, 3.6357101697631586, 7.007909265053039, 4.996108236410526, 5.426904700544564, 7.419017496348897, 0.22664430348820996, 5.6057691063876165, 10.098672576198773, 4.630513857644828, -3.721860377015997, -3.6560288574507043, -4.114544056763397, -0.7407896756511638, 6.519898770043808, 14.278138389501152, -2.1410911706320874, 3.3833136608832453, 0.2621644509327359, -6.753044354946205, -0.3466788489785654, -2.220136369467571, -4.062474261592062, -1.2952836358486883, 9.718645105830042, 4.484536715261079, -16.898375818754996, -4.090588346143766, -2.0884271983080396, -6.646001728787194, -9.529851623114638, -6.215364160430972, -12.429917567672891, 2.0547722604264647, 0.8555918422773491, -5.8512304837463045, 6.714839751940553, 16.83996870799857, -6.431107226077298, 1.083616658178886, -5.893565530460888, -2.1411008057841716, 4.056190971709672, -2.489523406311884, 1.0105560009300767, -5.55653380864657, 6.247762714209558, 0.8519441924132187, -2.8679407134354005, -7.184653863067246, -0.5885986551943265, -0.23692082969215233, -4.724249805819296, -3.078754537960016, 9.147029914775908, -0.14166924290440264, 12.444442417678701, -8.017189965632818, -2.8642775010855503, -6.365090816542371, 2.5840487730139907, -4.799199694157849, -4.087185094460662, 1.1599872860407507, 4.516004960078684, -0.24252725359691304, 4.421923531591849, 2.48260632114188, 8.228651749127259, -8.996481004072677, 3.979467112061538, -5.726034799304902, -3.866744492142949, 7.211870549593797, 3.178639558493167, -4.737373853576504, 1.602386572316369, -4.3303445194736065, -5.162568674646002, 7.434523675149055, -9.617515823743396, -2.042651817604413, 3.7247117344250595, -2.412373333903494, -2.799031710219034, -6.296618845557887, -1.0288347997861145, 3.9805441333683644, -3.8859637758036865, -9.644945261895108, 4.669606539125835, 4.926478515894717, -9.888236887854111, -0.5537050889954085, 10.941173543689453, -5.630736960081251, -9.267036464384377, -3.6025419806677155, -2.1304762177656285, 8.06073263201818, 8.53768644506633, -5.890093428633948, 4.29775730378246, 1.9938260125328555, -5.966245182577275, 7.958997095711573, 2.680602516734344, 1.0345434632674688, 1.0892201625822753, 5.413145516106764, 4.1845210545814355, 2.3213710168776123, -11.989923359029955, 6.8140930234152215, -9.62154561819852, 2.7303539513739836, 6.527184150295171, 2.2244049971236595, -5.361153824994303, -1.6334538403014236, 5.35674234369814, -1.241890605417348, 3.9816158888381934, -3.419494661321794, 7.919636592355523, -0.2905166688238432, -2.5256339710482982, -1.8628174027327722, 0.2695776227845512, -1.6804749718232033, -4.168560240542766, -15.572051400776925, 6.578436415623823, -1.0742745814300318, -9.089089517957921, 7.014022274452989, -6.351654590523272, 1.1574294830317406, -8.243509944274358, -9.405205473465191, -13.407212544509225, -7.055277054874893, 7.382747927603065, 4.461051623150627, -6.215486277071676, -10.03292761037705, 8.710760384363047, 1.1673642088625662, -0.6322920833971427, 3.963347704533829, 3.59069790662008, -1.0354877764637846, 8.939882404725873, -7.973376043940152, 12.897465192844207, 14.509708673110426, -15.693034445669355, 4.727401740115178, -0.3742782185283229, 3.4231159218435474, -5.664235421756875, -5.087084067901208, 1.3692985523539567, -2.3348500808304444, -3.448348220079976, 3.1005357697190825, 10.229929208523744, -1.5741652147256315, -1.3217721615421325, -0.35949498253736095, -5.28180478087585, 6.457592146941805, -3.1573701929055917, 6.611528671060938, 1.153460907098822, -4.605367970695025, 2.6997965000160544, 9.358360602109226, -7.033031520223899, 0.16056092887335627, 2.5980773893119786, 10.28688594961394, -2.984887363080408, 5.849292354331368, -5.437488612710242, 9.141370949171968, -1.329481378417849, 12.168793109643062, -0.5260229036382555, -3.345628540054993, -0.5884096036777913, -7.004241896793217, -8.042345838560717, 1.639563643054281, 0.6605477336614413, 8.711255159875416, 0.6118274522373087, -2.475795066659389, 9.411369571771932, -10.597710230127879, -4.945627800800446, 8.315685746777396, -4.55096421835722, -7.945136460978998, 0.9048742616569555, 4.987948749571569, -3.9494974262465323, -3.93890363490611, 10.4247077918835, 9.985940883576363, 4.364941130731468, 11.511641808519654, -3.400855173749531, -5.518476302608152, 1.4766422616078079, -5.299685137878192, 3.61048418865107, 10.02574803608071, -2.2921894388473567, -9.954294862364268, 9.026453863136885, -9.611807274925342, -4.47904934589928, -0.4828809734001067, -14.395520795301168, 7.683664496933153, -4.9535793306811895, -9.284314464113784, -0.10717920132045633, 3.2200122275731915, -14.563230797993675, 4.325658359897383, 2.886045017282078, 1.8775539820603735, -8.098143401805004, 1.658707042623495, 3.7220495326528775, -1.5414220007546655, -0.7422144426810391, 1.3017581934902318, -0.38708808587903687, -7.470515942942187, 8.010035498461528, -5.316901321056425, 11.780113164244268, 9.939055541017266, -2.5551190774147847, -2.38479161400552, -1.4109105663121446, -6.443632823582684, -3.776775863140343, 6.651213637213748, -5.890611396381522, -11.296366971966059, -4.459673036393693, 8.849009946430156, -7.052958947990352, 3.707084119436699, 0.9771748993969989, 7.9268554766533015, 4.4852980149193495, 2.9051112632078016, 3.7753414072513003, 6.10937562533272, 2.508534604155095, -0.329434987590312, -5.643982108952301, 7.164748063547452, 6.714654432943842, 4.947488405219681, 4.613710651295208, -3.935229638731412, -0.42663216577515106, 3.399583980056828, 6.6671526578090585, 8.104202192506332, 14.244339534549932, -9.885235991698924, 8.755957634063378, 5.859943722322179, 15.188346641887254, 4.346125040002421, 4.970754797175572, -5.82950313931637, -2.840296389928068, 16.853996116218173, -3.9156257966567987, -13.854588861073521, -1.663772632366386, 0.9810941729438714, -6.883802054082955, 0.5496913276890185, -11.291262264175767, -5.713504139170391, 1.4262349351879642, -1.896505532858388, -0.7400392719344949, -6.840578448235995, -5.179555818976376, 6.694721211827894, 8.477969837805723, -0.25821374142323517, -6.005600984047993, -2.9218910243343466, 2.179902705999913, 4.5435045974423875, 15.568200075470621, 2.4604580602480683, 3.6299884746063755, 7.910247619337477, 15.528461089754726, 4.803307129405457, 7.4266208153142115, 12.144047845309904, -5.21424181496712, -13.43617533020686, -9.309718585667913, -4.660304987274498, -19.332390149768948, -1.1412205841006224, 0.47136963607306925, -1.3614197553888678, -1.5093479956770863, 6.1711487400294285, 4.806171996525997, 10.586377998868986, 0.534346266355166, 3.431658322869441, 2.6269804846509515, 11.191630042543078, 2.9347715458199435, -1.8094321849573025, 0.3458455001357251, 2.920023134550166, -6.710685690699754, -1.6071243718627886, -5.874464089529692, 2.5075972216171136, -12.745647507621209, 2.9220936664696886, 6.921647674251745, 8.979505254537884, 0.19565285521711406, -9.67530757563075, 2.0197094118277112, -4.09906761969685, 10.328914765496394, -9.657706411111244, 4.510441106865682, -8.511065507815307, 1.2166832728186425, -3.550106771241959, 6.604167527152627, -7.0358993344745056, -1.0677768638458205, -14.434846111776258, 4.161519118417781, -1.9088416728623354, -3.287613573215094, 2.5016969907417423, 5.699545731148267, 1.7267261720848275, 9.22082069014509, -7.818509616102405, 2.426303457033963, 8.754458465934407, 3.251258699196021, 1.1130210062167036, 3.365221294149465, -5.171614698256986, -3.4161267287351693, 7.474034076733711, 1.3690189839568818, -2.9427395990497756, 11.552022924019045, 0.3225844574201394, -12.46018063446147, -4.296319890598944, -2.213339619031908, -3.162042431322962, -9.531690455132411, -15.731514117359989, -0.24025295094942845, -2.3600614402771547, 2.8600274756115427, -3.6325086822841337, -8.513216815428036, 5.001277350176767, -16.09951290331964, 14.57269492561547, 7.486000233369372, -0.4215777043065088, -6.2914218586456485, -6.785322910823239, -1.5860689295549164, -10.500012159363367, 4.146811328076649, 9.754302881264394, -8.250581130083756, 1.95248013594631, -0.837665177345154, 1.615317211258221, 2.898724244554628, 5.910424067602547, -4.449494515385219, 5.708006208853955, -8.602553264367417, -9.487195550489346, 0.8218446912441435, -0.16882167527388647, 9.33881507169164, 2.8029950692094876, -4.334395050870163, 0.005715055008690184, -14.230012657502835, -4.56516094296109, 4.390684912511167, 11.685571148616676, -11.560671621802088, -3.152006369259663, 0.9092226500259858, 10.091292823239481, 7.039489034921714, 10.294016150153181, 11.905842960714121, 9.373740234125457, -3.401075500888922, -12.500265705790097, -8.695715164944556, -3.3854503880361224, -6.835176965, 3.8132480678231833, -5.791082866055858, 5.921459533619168, -11.446500313280628, -1.3296524524764108, -8.157185333384861, 5.708761397548127, 2.5059876976677407, -18.980225755274688, 10.834512059888446, -6.263190334927453, 5.908143612578683, -0.17623464104758363, -8.53036897900102, -3.7282643767052983, -2.6052527907019347, 9.17944658005569, -6.477490851401681, 4.34367548729473, 2.182104726192619, -7.170760832987778, -2.750173992265053, 2.846134109894761, 7.4241210303550105, -2.7084481192665755, 12.236002246996943, -6.710803508455756, -4.329474760146125, -8.455166945527951, -0.6615723823644144, 7.447872755386923, -20.06848821776706, 2.77160234990499, 0.3174333543541572, -7.874740343975313, -0.9044248185650674, -6.616196342272309, 3.2430392314463745, 0.6074712138086695, 6.227459419078777, 12.152467264263452, -8.258929577706944, 4.74548681563878, 1.6308644198988689, -3.543250625663764, 8.727336909275834, 4.293705873808139, 8.847154416960601, -0.7193043538995338, 13.585347958916499, 0.22791644103504582, -4.722374314820715, 2.770735401267327, 5.188262922014349, 1.657250508773019, 5.039864159356567, -5.425950476443593, -10.600662036756285, -3.413415250056569, -10.894686554151338, -8.138538534720924, -8.266996022475261, 1.3874619604694, -2.3604348449885233, 9.615256598624322, 1.5705898085616534, -5.865432256537247, -13.380254667681466, 5.458428612931872, 11.688361664352808, -1.1230488204802613, 1.966769131173364, 9.177053990323806, -2.755784933949546, -14.655207199184204, -4.528463337339567, 11.839836881173204, 7.4271661105153495, -3.74444470865101, -3.3796717708524744, -6.306896243919088, 1.4926147321629744, 4.181749565861972, 9.834585020177462, 2.6644222618895306, 1.1079053743705094, -6.005825343060472, 7.090470895170727, 0.6038637135847206, -0.9819568965126511, -6.636802535396636, 1.1948401146968848, -12.851083104766555, 2.308762500726039, -16.69494551628532, -8.11687838574265, 2.3755976073687735, -11.250172510607408, 6.1602115702283715, -9.241387822893987, 11.052543371093329, 3.206185741688398, -6.447359372557293, -7.360954288940466, -4.919653700763477, 0.25912093108087897, 13.304269381125899, 11.308444848387516, 1.7005513048956304, -16.737117555187474, -3.8949091079161233, -10.804455214169758, 4.855514287063124, -0.45138720450863246, 3.9730454979202108, 2.3575885411956077, -2.041561253010918, 2.307451697208166, 4.6434914143713355, 0.06680056943132195, -1.2957668393941404, -4.850221658524656, 0.07637907720601408, -0.6839412594477687, -6.711074869534199, 5.668754651148708, 2.4789407293246812, -4.858575307591044, 14.995966583775354, 4.0278387587891675, -8.806802089220394, -0.1517745212679743, -0.26534540585342553, -5.16513624626707, -15.699373521631486, 5.414516497890068, 1.1718024728848442, 12.99660748893017, 0.7526109858815271, -4.034379749447534, -16.486033971531306, -8.497503192470342, -0.14994292445430762, -8.534223896614746, -3.4519189505580803, -18.007343144146937, 4.335849451939689, -1.2651970478360366, -3.2944570346096134, -3.9416385232522293, 7.056069971508808, -1.1431800778532175, -4.049565921749321, 7.224806067097059, -10.997257089206506, 6.079232267345577, 5.8442005699289625, 5.274577856166028, 14.413297972961352, 0.14537486808291833, 2.568692216685111, -4.880474483515474, -1.3948195716010399, 0.3754352774525953, -1.240456967008221, 0.7983138932936242, -7.668390222510023, 7.62026992190282, 7.356867698089383, -0.04653631545208636, 0.3461172539673229, 2.1096719756799356, 8.961060121745529, -2.4302421545490365, -4.823898040871385, 8.536810406895293, 0.6350551818777898, 8.233646455287891, -4.427624887414506, 10.25097462064184, -0.28520056449798836, -3.9080376732567945, -6.638454124793167, -4.531015023383406, 0.2937243901093975, -0.5160476769854284, 6.877621661150887, -6.607307310015909, 5.008973495842817, 1.5778245726337787, 0.6455155260208612, 7.881032112276649, 0.646817600657946, -15.204429414123787, -9.963939930033527, -28.685981999914297, 6.596399035022051, 11.784813815171521, -0.688946496347822, -2.9662535992993027, 1.9784172039470664, 2.435088696387993, -2.0936142329873926, -0.3348986516211776, 1.049657130825836, 7.170865622545965, -3.7774834220475277, -3.60716935549143, 3.650693737864035, -0.6139358366192689, 10.126277624577742, 6.770260901179654, 11.578810983416377, 5.06828632110624, 0.26222528229362996, 12.097700713127354, 0.0012148681335866218, 11.75516430090181, -2.779689351207121, -1.913892773385618, 0.814763791023929, 1.139698435121954, 4.051293204806335, 0.6630789656964867, -1.4400584372398373, -3.13872445120042, -5.011286710058972, 18.244927032956607, -4.12946051178684, 2.0858616706414135, -8.048776973239514, -1.962204810901639, -11.127544342651385, -10.281953029333248, -6.477546473010826, 2.1316752307720255, 7.357373361733632, -0.662940639934178, 2.1187367489365303, -20.027486915052023, -0.0387924804794757, 4.756176165666671, 16.546922197847948, 2.5405780097871578, -11.83027834540815, 4.771698308111395, 2.429066042004141, 18.55747332074097, -6.894734383109609, -11.472583215535574, -1.5846066711152675, -8.962990211221232, 5.254346643538326, 5.750425522550499, 12.5579187767386, -1.8755617694925695, -5.6981716122680215, -4.860554821529329, 6.369102932890185, 0.335122097967107, 3.331387834878999, -4.809490862517735, 12.491634318843397, 8.611661875597402, 19.479948676407282, -11.34320134042241, -6.423874806777015, 5.5314540126411975, 7.607277458352012, -5.926335297188434, -1.466213155020657, -1.382536083618553, -0.9972166844663019, -9.697876060861782, 3.009813880787421, -6.642750988875135, -6.653153900604603, 3.5721072645128995, 0.18216139725791913, 1.3008940155140531, 2.9648976424933933, -1.9788286717922803, 9.402259475983627, 7.135821644535923, 3.104517910022049, -7.3063551003434135, 19.047498042582802, -10.952466098457455, -3.6365298411260136, 2.5595883791183542, -3.924186610148693, 7.124813959129084, 4.49443809997326, 0.9133984173656969, 1.1450181585656374, -2.062627689269836, 2.1943009509151743, -10.377380644159565, 9.351015845896725, -2.093453223826283, -2.8714189540998576, -4.274133359104525, 7.482910470794863, -3.004729604279846, 5.437653592366667, -0.4891558337141782, -2.7550875773124526, -4.832757409739855, -3.183994143031207, 9.530990696399387, -4.074529685230531, -0.1738665931201664, -10.032572735016492, -0.5332916901893368, 14.13859014063935, 1.8629485370378138, 6.41834996886207, 1.042286626053865, -2.163455255278776, 7.819397580358761, -5.305820719566791, 6.657199135463099, -10.781630261731376, -7.7624615230422975, 2.0980717902912493, -14.123652773179737, 11.403352327962411, 6.374069001506587, -3.507231177304294, 7.531083374784259, -1.7373331707640036, 5.600971750021836, 10.645890179841356, 4.768154196781966, -8.587791560410784, 3.2684149418041986, -1.361942166926762, 14.655517627435996, -0.23510849360794828, -1.8251289658992336, -6.809308512732684, -3.999903705231586, 3.3358840716423432, 6.0039064604081815, 2.403876057710317, -9.005522710800504, -5.352809543589766, 13.678606810086126, -4.32177401152006, -4.706247633257575, -4.7794691234078375, 16.644844559189796, -1.6111466621045323, 5.384249754281703, 3.436071217851391, -4.3435528378067625, 1.1121258197914794, -12.983769987459821, 6.24072116542138, -1.1385564374899706, 1.7728128983964477, -2.5395653480934777, -0.8752875865103863, 9.850572358334235, 2.1380684882736296, -5.438633883206644, 3.7661913010077734, 13.121690962547893, -6.487638193835249, -4.435962589650673, 3.658592193688635, -3.750428186065132, -1.36154883910036, 1.6141121921717012, 1.9003979733140526, -0.8156348186590091, -2.7258505386539937, -13.982484573388517, -0.24631981951669935, -10.916759585834404, 4.144760100094928, -2.882558618843532, -3.4600974388613306, 7.769229661901965, -4.195348992128319, -2.600995213915338, 5.5942519167066935, 5.999248795444169, 2.559364263009733, 1.6849240074239684, -12.727036965981576, -8.977991887693305, 7.486070363924562, -1.5622658077433427, -4.0495891504792, -0.36669230199327113, -0.9953668246141991, 8.260584190053091, -3.1250760537033173, -0.21381558113581844, -1.9190253636122825, -4.691484749711235, 3.5087281365039353, 9.991789353607496, -10.382241067240658, 3.9486131737412085, 5.018616861339894, 1.6863063855023597, 2.885441142663738, 17.536226280464035, -6.296686933776394, 3.5569356595401525, -10.30929741877659, 6.841061140220218, 0.7972410434444365, -1.5909277845208614, 7.566974431271677, -8.543225845389633, -1.836194798268945, 7.0251667792661, 6.374894187978746, -3.056000926381233, 2.1575291940285295, -6.6111847763553975, -19.976306099620942, -12.91063192417085, 7.137635199252293, -5.452415793309761, 0.552303569667874, 2.7772969250556487, 16.209355395396297, 2.494365828208373, 0.37177107518679453, -9.151916094169552, -8.950778739005177, -1.8859821978232083, 3.7616542466506893, 3.192808806234738, -0.4891809510239662, -1.3935514260989095, -3.533808591081831, 5.185465441227157, -2.459388186508269, 2.1993267810509978, 2.0597565282458623, 3.8996708202344195, -6.2552546467953185, 2.2503142074924183, -10.014041092455006, -0.6133905235038275, -18.070220709610716, -3.688792106954625, 9.542994274253372, 5.175302964069267, -14.568975974854279, -9.717632619292495, -12.181769596605553, -1.544670424021445, 3.2471343318829127, 5.574860077741028, 4.887154509930061, 2.19930483151087, 3.2263415484733486, -3.6662241753340967, -8.748385863173988, 8.430170204275147, 5.028790004644065, 6.45035543115648, 7.487256755940231, 1.6324527629182062, -4.547299389058832, 2.956910581676458, 7.244962553814794, -0.4426530693885271, 3.2460217880904008, -6.881084104753178, 7.534734970351752, 10.676645859138276, -4.336575623148353, -1.0679099029748094, 1.625600574077327, 14.639530440202867, 6.86100553832335, -12.406820579613195, -4.068428434009219, -3.3328054253354913, 8.013225871349457, 2.856875105519543, -15.67877296695149, 3.0023457939950013, 17.681901463859212, -2.879084594310528, 3.725347369772698, -8.565298705602872, -1.248342208687335, 11.57839031848204, -2.8566971024008385, -1.1046589116331327, 0.6311713953640631, 13.650321252321692, -2.705467871639997, -6.699806830468868, 0.6323457749749779, 0.29766002298881644, 5.999601937413057, 2.7589193922139676, 6.0266583084195515, 4.865861274927918, 2.5495226120861134, -6.980764833626246, 11.023221250913753, 3.0755070978198247, -2.0127110367059062, -1.8276556903408654, 1.9929703471504174, 8.704605621002106, 14.868450135824, -2.3066471379180213, -6.166578291381165, -7.9403316483434025, 2.3607436139079416, 6.928185130719887, 7.0483603953073395, -3.2290046253283453, -5.0286373596234615, 1.4130215346967339, -6.290473935345084, 11.101502158773677, 1.9355792841509036, -12.331743448214217, 3.505327324943548, 1.5366168251154853, 3.0685534615119816, -2.0818273453905567, -19.372259609824077, -0.29363523416916376, -3.5395085176817753, 7.584308194739484, 16.230581898424163, -6.003437222945476, 17.855174840058826, 9.166367307289173, -3.5264766814488517, -7.0238378676186946, 5.013376242541781, 5.750766646764094, 3.420191435013787, 2.804170420361924, -3.0198187919977153, 5.262051736730334, -4.450694177062031, -7.449457545095941, 3.0039009629009534, 1.0374514907636043, 3.162278042669969, 6.680991040364994, 6.600794577642088, 11.336814684860192, -4.862588192150213, -0.5939994536524014, 0.9055381027577569, -2.364378392570015, 6.042231646881907, -2.2373261268176625, 12.219098676067862, 1.8074413284316422, 0.18375771968786572, -2.726921819943314, 1.9247487164964703, 4.269228453011128, -11.332781927982987, -5.593332271272451, -1.2088012087344033, 3.0222716016700972, 0.4395312488394117, -1.4692190847514894, 8.69936657701899, -11.36186195155405, 6.691377287069541, 5.8345804695606285, -5.023290135773405, 8.903748307451314, 2.4880950361672283, 10.004303511157957, 4.259776358519695, 0.30893014310917133, 2.808932703070438, -2.6443162839299648, -0.37308623151547393, 0.41624589772123877, -3.2165915824383777, 1.0294447855539046, -2.9066161736939713, 2.425912995933726, 9.17257082989874, -5.41867937618875, -0.4037785840362291, 4.600310844815286, 12.811002380187425, 2.1097558014375757, 0.21239597053418297, -10.18323822098315, -12.261517392408047, 3.155624606681039, 8.095900305644285, -8.330815655271355, 0.7229954523216666, 3.7200447881609513, 9.41377519596613, -3.7683431736071533, -12.291647508906411, 13.769156051801529, -1.0457136903738038, -10.975469727888534, -12.437282980634146, -2.0959051764784427, -11.813401868075022, -5.626238253002034, -0.5506046273972852, 0.3306573996343274, -2.3119111993484474, -13.582829667518974, 2.8446518241976535, -7.132417790875807, -12.37314626372337, -2.5797275700094433, 1.036559386514825, 15.960221482744185, 7.612579685751113, -0.5549272976742035, -5.720641780209053, 1.0162648156588405, -0.18946690995062698, 10.624440274381948, 7.019997562345278, 11.915218748410627, -1.4650689910503372, 7.253795664496551, -2.3102803158758234, 0.8717902849458594, 3.4901318921028945, 0.18406617342447196, 5.885099976579764, -16.926304560599277, 1.2823378011662263, 4.123419893943795, -6.343572389144421, 0.868677455301518, 2.4792195959809122, -9.400509711927064, 3.885464245799892, -3.1123603200583956, -7.5681971838300255, 6.50531839138211, 9.20593971215192, 8.12444001569678, -5.317673247154409, 2.1590467906671496, 10.18549327808483, 11.765407610287372, 0.4315094340692836, -1.0333340405796487, -3.0284133104409556, 1.2083601905134607, 6.445483734354195, 8.429478977170806, 13.988614132337092, 9.302786055994186, 4.534413765562895, -7.746854119466056, 2.146580366102695, -5.09387336142941, 2.8998273381563213, 1.6689691307751813, 5.7866071609088, -5.057081589517884, 6.613465681534465, -5.7013164385950805, -14.145621430066683, -6.06775806113073, 3.711379546736882, 3.7067759067102797, 13.190066125355226, 4.502891785228414, -11.25693310907241, 2.2723198298418112, -2.181344836902142, -4.4125591837800044, -5.679553622249423, -6.484226812911801, 4.628428242914811, 0.05211470365844362, -11.430440584896527, 4.875148531008486, 4.971631474056931, 1.4540732054741383, 5.931755432325641, -4.814967506553227, -1.3633643466283898, 4.595920364593177, 11.01654452298693, -6.346479546905028, 12.812760644181783, 0.5467508321880963, -3.147369790309196, 7.729260045435291, 0.5422906647727292, 4.570161625035174, -2.7995320469464686, -0.3841967620472386, -3.270222822162996, 1.2603944251294212, -11.004128601421606, 9.735160063524162, -6.96099532812741, -8.40966965433344, -6.003096524727562, -3.4164754996523947, 12.919640093688304, -8.034665114781099, 0.23956572629655593, -10.124622795988547, 13.005917158717288, -0.49267833150610096, 3.650082312815357, -2.2361962412545675, -7.381605873913068, -10.555848683483724, 0.7359387967217106, 6.038023028290302, -11.1654916675152, -1.6428823651168798, 16.002302982252644, -7.155294684334617, -13.205282049520958, 1.453819871881037, 4.58276138589358, -0.10398742086204105, -2.2397857376811596, 2.8337377202541925, 16.694177333475178, 2.0447637805448093, -0.1536672220917236, 2.177276354879408, -3.2514688452346636, -6.821944548689434, -11.466409218910018, -1.3868358552335593, 8.096184984871094, 1.109133378738264, -5.243154630046978, -5.230550213965711, 4.893678125528747, 2.6605849918284186, 0.22651164833549595, 0.6389531354437109, 0.10951797875655012, 4.695512905713458, -10.539557642944933, -7.225521123190343, -5.468978827108968, 2.5133463846661233, 9.456628584305909, -4.394995665067184, 2.192307140421623, 8.500204014351077, -11.948432904523585, -0.08056572281142997, -11.946272777228225, -9.796247517825382, -5.472602243731883, 2.439576764347097, 1.3995056478176269, 8.321973517150754, 0.2087816085993508, 2.6346961219403893, 15.932611386147123, 3.130681440341903, -2.61098951673679, 0.6742734066224272, 10.561209007604056, 3.3838194326461366, -3.684259490565455, 2.8714126501085033, 4.048331040896458, -9.087759408109038, -4.790907576844387, -2.0800333220860607, -6.318460479116638, -6.091061153347134, -3.2588194140985216, 4.097674895191284, 4.421232359539861, -2.4004532577378006, 12.187477605620145, -6.033591156667476, -2.1338341728065866, -15.419231469216243, 0.8542263965336008, 4.94485881183002, 12.776108639352325, -2.686922478295978, 9.348763301662466, 16.2374426250253, 3.8106617825247686, 2.3973729312585697, -1.9434668669798274, -2.3528863626323746, -1.0710211036684352, -2.4970556373916923, -4.999152608651716, 2.471408100338021, -3.6211090249236784, 2.855707088080057, -11.609654399907955, 10.752612962611387, 1.3573407328189822, 4.55467429538012, -2.8121981076281113, -0.5993041808591237, -0.33928950291966453, -4.017092351640773, 6.329479447967032, 9.142175473203729, -3.3720057336580966, -5.553268900992178, 5.943779003175732, 2.607934180666514, 4.066495554781124, -0.5894174847837379, 9.190435033859881, -8.81458672640451, 0.007718326998364278, 19.166662207591912, 6.570840628552329, 3.3155736954994808, -1.8408708082938148, -9.337418532217251, 8.212185897090581, -8.914455272290365, 0.9339463010243929, 22.10985380303476, -7.353699011814774, 0.46353782417731837, -14.919621621561204, 1.1380062737303676, -0.9345851486599983, -9.57161032419076, 3.0435752751980374, -9.041581905641548, -1.3759996191607549, 9.174832810108844, -6.276994674211933, 2.925647365495469, -0.07532151574152313, -5.914332628912124, 1.198546999306364, 1.102814086859409, -5.505678885227037, -0.14520709928866105, -2.7554796312775425, -4.275553085407954, -8.918204441315222, 8.547922118884232, 6.0080643697046865, 7.508980405265838, -4.123252522405896, -4.096210358136358, -5.553997955512431, 4.709998210264155, -13.842644056664117, 1.8170437172709857, 2.178743854006737, 13.794319153712182, 13.419859283841022, 11.205800547597999, -3.2850894130696187, -10.631020725495329, 7.207637874842145, 18.489441615239087, 2.1340661324617516, 2.316335766900467, -9.671527567179117, -9.744740981224925, 14.05208668116839, -0.8190382380398891, 4.694119164871849, -3.7939871479114142, 0.9137545390948391, -5.507538174480364, 1.35286894328886, -8.522332530174646, -9.071258768861446, 1.0996582737931513, -5.767625163232974, 5.845144338183926, 0.22598437984449848, 9.435826898969793, -9.680688350915096, -12.284344866331068, 4.635992069923481, 4.636797791515819, -4.058717298904907, -0.2817997603548228, -5.761582301955193, -9.67079126086015, -0.11254634168886346, -9.164417147287994, -3.821112943000143, -1.2885525733359848, 3.9242798495018496, -4.9699868341136195, -3.155866310507589, 2.18181615415073, -0.7793880555199391, 10.005324254859216, -9.170704734725788, -0.8514662119116794, 5.397328700688059, 3.7729824487513675, 9.61393135877178, 6.277145488221487, 6.4710263480293815, -2.3820799668951933, -15.203192405929752, 1.3834999258172065, 1.216165206768074, 3.846017775262289, -5.231641641307526, 3.5609940799851936, 8.074287146102836, -8.393529239767417, 5.496870824533389, 6.8341723410303805, 0.9920138940953005, 6.3420923572464005, -5.538449977470078, 1.4536583801153533, 12.910121426701604, -11.727341858340509, -7.777081758100357, 7.128009476838631, -9.409226287322836, 1.9778396528605509, 0.36825318172106514, -4.65908171941236, -8.443649631720968, 5.3414358035861955, -5.942647173597116, -0.6764813981631363, 0.7820319250453454, 1.0595269267246838, 13.366558686788899, 6.6657038551538195, -7.5290968452006695, 3.4358200222271824, -10.083218644955803, -12.883860135488293, -1.6348652407111999, -1.9617230285035987, 2.5449872970978493, 0.24463159130292156, -5.343726591865715, 8.33815672939786, 9.878918105059705, -4.434156671020372, -1.7013780241946357, -2.5219858245722757, 3.9909278717320045, 5.679935561012918, 11.990766880455695, -3.367264545968841, -14.169911240531599, 5.264842195815553, 3.034671893581514, 1.8029420908866258, 11.99698307995614, 4.133385130324549, 0.4106232255694172, 2.006807435945312, 17.943156659639005, -4.206684245995106, 14.998344159483256, -0.2372156015081377, -3.5249289193405318, 1.239046269042888, 3.5780591102428, 2.1457515544887134, -14.256712916395923, -2.3991157612310445, -4.766863707303305, -7.672615942806338, -3.678553529911062, 8.017837133232353, 3.530792279644007, 0.22996639668151664, 5.096096112616105, 8.649260414875641, -6.586358607938246, -2.5355658625733377, 6.029092580507261, 3.754255419505492, -2.6790037480162994, -13.703190821074362, -3.4074101774196124, -7.970771356077423, -11.917938630930275, 1.826357683560573, -0.23162574167928196, 17.68047476305032, 6.77189608452973, -2.260361933862547, 8.471434664980265, -4.526079335397396, -7.394855131873351, -2.0188755456783927, -12.585134882467678, 9.074170960585757, 4.2927243193750595, 5.557972134353291, -9.76127277056434, 5.715905274504862, 4.712935839644052, -4.652071179942589, -10.625178192566988, 9.125298862854592, -8.880725680624824, -10.406109541152835, 2.5965380738279493, -3.2323546188915984, 3.2574137178828066, -8.519595922842994, -5.510084597868966, -0.2434710189851117, 7.36816026739851, 2.6769445093344326, -2.3230026484167494, 6.982348826896845, 6.542125185470272, -4.484000248953845, -2.7726753369667403, -0.5396589364436167, -2.0950236289233515, -2.8395399952106652, -1.5173553319841475, 12.186552968007621, -6.714680310898351, -4.225019757067045, 7.069373065654024, -9.698992084841226, 6.2291235100969224, 2.574437192670504, -0.1921675938061438, 4.391326014270227, -2.9644273838988946, -6.259959323414896, -2.6772328400573544, -4.495516643554498, -0.15025505613536905, 1.3403690823277086, -0.6118044297319647, -11.76457899696623, -5.202768057330287, -3.3143785692751964, -9.03649041615315, 10.986649903147123, -9.450145136769658, -3.7619696350127185, -0.18805224097779755, -3.401699428974914, -4.278019080659188, 1.4134039024459961, 4.448073190706016, 6.018369483809578, -2.1099165812057303, 1.1384264368435026, -3.6128886047569346, -6.211358215144746, -1.0881452279950787, -2.5056488642005017, 1.723764358748798, 6.174023415008327, 1.2456043119655644, 8.96455428634978, -6.724025193544946, 7.03589224129758, -1.108230646043645, 0.2792484538434705, -6.512436456483276, 0.9694197713446734, 7.997657825181928, -2.33837231183301, -9.876910397909334, 8.407880210200576, -2.2382558000728503, 15.72490747375023, 3.0442038318679208, -0.5611079439875185, -3.9218937156680465, -9.956632793362006, -4.12066783920468, -2.1329890489249754, -2.9769314562143077, -6.221421595166793, 7.545032942692, -16.275016705613005, 3.923510575476882, 3.290937144777036, -8.865526615989246, -0.6404417599395567, 4.23477242136053, -6.700829042213663, 3.110576177296517, -6.8079149159544965, -6.96168311778895, -8.889831924536477, 5.570875845367201, 6.235025203969914, -6.393103819496413, 10.420066724563119, -3.6078492204924317, -4.287578388920561, 2.8790921387743915, 10.145344810355079, 3.125032017705636, -10.59064554725198, 1.2087808213883593, 1.7279350249216505, 7.210055747242637, 6.097488880573555, 1.7942907167045403, 7.4162527269565945, -10.257322453098544, -8.160431935882873, 1.4655464281026542, 5.309136152008639, -0.8034049716288592, -11.799301785244229, -14.027745434826414, 7.429211698668937, -2.158792493835444, 12.772083332228515, -11.263054327270057, -17.33355053024941, 8.981769089806397, 8.7002982467296, -2.494863726859643, -5.808110864914996, 5.885896464017862, 9.535639361763925, 3.9629074196654157, 10.331535372115342, -4.1719355150751465, 4.380528997987806, -1.9319045660851262, 5.217525787733396, 0.05997374193462257, 3.4498373179759105, -11.459127657811653, 10.315456253009238, -15.121069159636807, -3.9786855866178277, 0.8027083790811135, -5.554604016158134, -6.311222577330249, 6.148469104983382, -0.9574746068703325, -10.888318460267218, 10.42250178339651, -14.94522215688443, 1.4306026942980132, 10.990264141736338, -9.530934033752189, -8.34755130761079, 5.04760917060132, 1.9588207162621862, 14.969643702624136, -1.7577031855654421, -7.641808589792776, 5.83538232511946, 7.621734091152554, 4.73264296624074, 2.1066581958776873, -6.895214441149456, 8.412887530324344, 17.212522380043357, 3.6445766217273885, 4.076127507832119, -4.2108310379897045, 19.635313143744145, -1.1644616231300344, 3.5622229970747235, -3.9046656092621346, 4.969489421799667, -0.07850116384004008, 3.193953478325011, -13.321614802459845, 0.9400219027324129, -8.427343216084099, -3.181109691066707, -2.802926697975986, -2.8446138186649446, -1.795676510835047, -5.208593280906568, -4.462232215890964, -15.131307900473592, 7.359317339330543, 5.852257375369161, -8.206870123517835, 2.1985267572070177, 15.466585873632521, 3.463068566445781, -10.450480293998874, -7.159962570462394, 1.8610585761732028, -6.203332146261998, -1.1269183417673516, 5.529685143329705, -0.558921056616527, 4.0088965108906915, 4.058396563294169, 1.94073650650139, -5.806896884882493, 4.325286353728648, 8.56906027189149, -16.672771494882905, 4.76350765428313, -2.9826320561925046, 4.828462769456185, 4.629939172916621, 2.5817147916669843, 2.556900280149462, 6.104397383323516, 1.5709037734922997, -7.708026348918423, -4.855507843888953, 0.7416603674587467, 3.2370401973506744, -11.733492343880972, -4.558365232854192, -1.4130017189274893, -2.967205113031505, -2.1336391625629827, -6.354715336239108, 6.654151418504298, -4.826490006983591, -18.163856956991697, 3.337084273718654, -1.5063176857933278, -2.653513632850852, 5.041016671057889, 0.3278247541214441, 1.9446115866754337, -1.7801164288431577, 1.600885431506859, -2.5281170936319133, -7.673409901777839, -0.23581906773601835, 3.301967387527859, 5.61719470866446, -1.5411945584723254, 1.66864308024361, 9.888379248011296, 3.0898319861245116, -10.47889308067849, 3.826460328367423, -5.472740134469235, 2.1195580193520125, -12.026103425674336, 0.6883704790526639, -7.572321805208034, -0.34198510802227594, -1.7966404167857783, -1.9063484618811153, -5.31292813219544, 1.7552869017260861, -5.094299850207265, 6.121384004268924, -4.511324056853093, -2.452391950882625, -6.883176072545639, -5.498445907876281, -10.737714925765417, -2.1820268921086727, 6.4242040417986574, 3.899060476330503, -8.045607973568849, 5.80484278503842, -16.46207829755716, -13.140200026951728, -2.051026085275709, 3.3745303204315107, 10.663590541252049, -17.00895128680767, 15.81191735470863, 0.6828735134587338, 3.6454438943731122, -5.735426338253503, 1.5354335130934293, 1.1033651733705085, -4.55075426884968, -0.16442842972916466, 4.348012589889461, -8.012850714882804, -1.0964718128243625, -13.994305112416235, 3.8297545899571634, 6.797429422591652, -7.367242514433915, 3.536521331722657, -21.27781597046021, 12.166963616509168, -3.7253424508525135, 3.346538816597819, -5.910706969674398, 8.86568179738878, -18.418282278249418, -10.128330309935535, -6.34431174945161, 9.44244595958698, -7.341548537811913, -6.6711722765856045, -2.15773803285269, -7.952132004249343, -0.3301817261478258, -0.4321211454659838, -2.612940104657545, 12.026894677236447, 17.963340193696972, 7.610176796436268, -0.14888224440426837, 2.9577289738667503, -1.45680658118936, 2.717222134259704, 11.287549988790671, -0.9251230378701107, -6.937927478086917, -1.2653654358866446, 0.8923611852501295, 10.74991087056205, 6.828217092982642, -4.966653582532206, -3.896856749997036, 2.128485860872161, 9.195857713115368, -1.6986615929776703, 8.138304106534791, -5.8519782953369965, -3.186644991037571, -6.105150659547394, -0.7845004218105687, -2.8804125692683433, -5.987733215269138, -2.820161455814043, -12.55526938523336, -9.700595412958041, -4.170581435116181, -4.139365607165734, -2.102095224897712, -11.634081525203923, -3.9183644881267563, 4.771747887396786, -5.533263786715994, -8.139165878368486, -2.361050979287013, -1.4597055646445636, 9.162687267958592, 0.5989318964035689, -10.5971854629168, 5.222398102836308, 8.658409398613314, 0.7984644799589325, 6.781754023935949, 7.685133688636032, -1.8141526915043076, -0.6600030762541753, 6.111802520466705, 12.307360216179543, 8.080274247403866, -3.2754114718975864, -3.751669729734067, -3.769630377460981, -2.377516810672294, 6.070547307755577, -8.098679929060623, 0.44317991619164365, 2.639281455318693, 2.0039167460511926, -10.244739639694409, 3.1512435211745995, -2.308496827138607, -2.924699131726196, 2.553808047528494, -16.550987017498397, -5.50159059362237, -3.0211154914216722, 9.580725253409113, 18.57963664569276, 3.9392127154881784, -2.20735615559366, 11.475063005597006, -10.644131896720575, 8.318558185827046, 6.969781341087568, 9.942772569938965, -7.032180463716618, 6.409660855009949, 3.3618836607422127, 5.745411611347884, -1.3115503190843774, 7.257392466158203, 1.7355391333004078, -3.5884296664642386, 10.001365919284883, 10.437393142266009, 5.703947678407387, 8.15586779533525, 7.9867660343437015, -4.596665027400034, -5.813424233781629, -3.282646603995387, -2.8502859294439915, 1.3421024069213539, -9.042924788948019, 0.35548592815160357, 4.441870544144264, -14.84478003190284, 2.2665570820253715, -2.421631117893692, -0.7564447538458428, -3.130869029403546, -1.5153095340340124, 5.223273183662121, 3.0675142181067985, -2.6718909948646528, 7.828763800978557, 1.498165778553016, 9.298511629431568, 6.322036690916083, -6.59866751395951, 9.447268006466365, 4.970857612782596, -4.647637300917172, 7.945723500571662, 9.714460554632867, 0.35083411522319463, 8.000416931118819, 4.13821849896058, 2.5283160993196523, -7.1608999457219245, 8.333243702054158, 2.8337835335649038, 2.654560412674806, 8.545259168824312, -3.8868072215615923, 1.060992237341492, 4.299029228608008, 4.295967750171171, 1.9421945741225297, -1.6585957975637107, 5.518125424329369, 5.158172376733531, 4.294020356937502, -1.8450471680624805, 0.39910937581632877, 1.112016874073233, 7.057074455840705, 0.011317207607668966, 4.111905491295312, 7.3545359477354255, -12.657261978517344, -0.4539448260143668, 3.3021895168105897, 5.846843450523632, -3.7505863726013025, 7.122446073372392, 4.623537092322182, -0.4345424535571506, -5.842623293237877, 3.5372249297355762, 15.101059701940617, -8.618026282654094, -3.434242912160234, -3.7722313442229725, -5.460455893430446, -4.282743935773789, 0.6570309160541022, 3.7712029675056034, 1.0416612742749025, -5.060390042264075, 1.8378765181396393, -2.834281910946627, -6.255291851590326, -12.648957198291306, -8.55349078015946, -0.46326987245570306, 3.2154463048286503, 13.793850921648856, 6.21082655225604, 6.523685768980897, -12.043874064908943, 4.2568414595707145, -1.069318994207618, -3.87407210901667, -2.1693911923151004, 1.6265403290530132, 1.3164099243255045, -9.563410802965533, -5.79794345754211, 0.7284735215498496, 10.347548361461017, 21.571773274498476, -11.722798428867478, -4.770393849206092, -10.126144861012866, -5.737999341197149, 5.7919231189267855, 1.5001447601165379, -2.813656955282525, 9.209994401412592, 4.63452535306739, -7.084835866386077, 13.247878925685503, 3.844253813291608, -4.264361767598061, -1.9117804108004606, -2.680284942987729, -1.3662257495439551, -2.3454066702963874, -1.5695135876267932, -5.736939342407737, -3.997544451777425, 3.886518406076285, -0.543701771782109, 2.554753456288064, 5.272741636231405, -0.8394305317326587, -10.136772163257826, -6.03149348881255, -0.7767337100631392, -11.025888584237707, -14.311373301110134, 5.991479646925585, 1.5565101577326437, 6.581809799881972, 14.446220180201355, -3.0651220003765003, -12.406880880640253, 14.376536081023039, -7.0067167556527075, 3.6157864142877196, -14.893019402544818, -5.263414439415872, -2.9383709082334954, -1.6088898646504843, -12.264175860879277, 5.717586389181529, 14.62155580975904, 7.757487859276361, 9.973631261381895, -11.200816222868959, -0.6965118302271183, 5.3061125025934786, -10.433728749339345, -0.9588875637414719, -2.121815544629054, -1.0116885947442145, 1.2439916366232389, 5.873584018004308, -2.551827535913217, 10.065553973637712, -3.6695108797402045, -5.249562822679024, -7.3043197117590655, -0.9970341293087929, 10.090627666916134, -3.9829639721164636, 4.161940794183841, 4.099051731465653, 7.240948072646741, 3.910533190162988, 7.8102191338015965, 8.413296136404037, 6.056443605859574, 0.968116522280301, 8.275314608121013, 0.8348281667809616, 6.053401497078081, 8.16170502000716, 1.3571140823870156, -0.9997180675629534, 2.6974098986458226, -2.723879921821007, -6.993045882901246, 9.587279026373496, -2.161785086107667, -6.215495750586999, -4.638624138711597, 2.6014271496230625, 7.927488285734662, -0.977640670444902, 21.539148951698753, -0.8641776266749569, -9.670313685865416, 3.181612306846021, -3.099406550111686, 2.5900433323806915, 0.7946956466362596, -6.99511160225318, -6.849161123785814, 1.6682048745962748, -2.672012022219515, 1.8919046013913354, -6.580422598780146, -11.753330038636493, 14.686748747044177, 10.7008621343194, 7.665859382379681, -5.907721625260729, -4.340269140115968, 11.171493778021922, 8.136269213750722, 0.6199416649523979, 7.415407433479521, 1.111497022410382, 7.9186753603871605, 0.5163583177530358, 2.9810178664631577, 12.73108972798349, -1.180713507133826, 5.60671273535036, -1.9300180002054173, -1.6179206704974642, 7.548274335665286, 4.925724337089135, 1.3631962692628903, 8.103733425886084, 0.0856257877053257, 9.862236305178293, -2.0207226678638044, -5.487213226499354, -5.074874439420957, 1.8872173450075524, 8.518206829093419, 7.495318034638815, 4.30780298240824, 5.794626183186093, 3.4419936059972382, 11.781171247532303, 0.61320440754456, -1.4073936197906782, 4.120683230588541, 15.20605723851444, -10.949949486453928, 2.4075377292171454, -3.847972737016085, 8.194367348096776, 6.835130716476828, -8.115372368384206, -4.305312750024356, 4.294646851135843, 22.18944681907154, 0.8801784737248319, -12.158672463162926, 12.672681030843247, 3.93409887027221, 1.61301722103308, 1.0669982020703985, -3.6756660798484475, 7.6770176682272275, -9.54393596097174, -12.246916569060073, 6.690582541951434, -0.2588354917412995, 10.252873226823656, -9.645814444822403, 7.502612143489115, -10.732658685878707, 5.716615320610991, 3.491312543983345, -3.4236846475845577, 11.731187764448476, -4.079055515102121, -7.004090107792328, 3.7235362428214698, 2.5697310940123312, -14.835211148156006, -0.6610483406216413, 0.32132348953400586, -7.725204685010174, -6.786916263864404, 2.64619178195861, 1.5757392563925194, 1.2900708301414823, -5.5503765712292585, -2.4265564949288096, 2.1275898390596226, -11.207610693561485, 7.585002204669442, -1.9644867632103893, 10.542200285559476, 4.5292393796574375, -2.2850461184091415, -1.8491202798280388, 12.177975467702037, -1.3768399872037023, 10.7489586305941, 6.155651257358413, -2.451463436030043, 0.0905707167553485, 6.421488998590281, -11.093786445902397, -4.799210041924436, 2.3484107058054158, 8.135598470802423, -8.499263649340804, 7.04192131737359, 1.9743168974279948, -4.819920086428811, -14.434112574816847, -11.56456735200726, -9.77843319361083, 7.648114703482319, 17.322409163371248, 6.714405462829898, 7.599660754613444, 5.016121823257436, -9.290038723349273, -1.2653975173628302, -1.694769471919662, 2.5550992832518427, 6.748502931936775, 7.514494848409779, 0.712667709633629, 7.2513479506970375, -2.983380031564474, -12.048308889955859, 3.2453232674053787, -6.7216097514377555, 6.553390967026279, 2.441953445018232, 5.708743844982738, 0.9638036770464358, -12.962364972967542, -7.597585924987238, -11.042806797065667, -1.611162196817988, 12.944561952131977, 0.3023157970846464, -1.9105115934815315, 5.020872194417372, 3.506124899176676, -1.7409942086184138, -9.186855173774951, -9.772606942592684, -13.215887694703785, -0.08541598439967935, -2.3958655664245927, -5.191453428802574, -5.918149583645143, -0.33872548877923403, 4.667965046742608, 5.064933031491256, -0.17174572744819913, 5.36836847742899, 10.428298986098572, 13.600685752269229, 1.4165003114516743, 7.62540096012062, 5.522850162745142, -1.5670934327396107, 5.000749843837509, -5.787713028680641, 0.1712404793012252, 2.4127802956190174, 2.3667398768078134, -5.416833951453761, -4.768705785381508, -6.85331383063507, -9.172435189815516, 0.6666771164889369, 10.28891886878955, -8.284592002992031, 1.9973279390344787, -2.972309520318029, -1.74668464274763, -7.445114821960533, -4.653051778601908, 2.361067946089223, 0.8592911470280507, 5.70201069658443, -17.168353010082477, 13.558017613995169, -0.8037689892466832, -3.3460961417472634, 8.685874526211263, -6.308640085661748, 5.247414634359286, 13.098204319308234, -11.339656652577956, 1.6328345125772885, -4.9107104151730345, -4.375964237953513, -3.043270771083619, -1.8900219957934477, 17.50191001772228, 6.105010119319996, -3.220398291085786, 5.970363368681801, 6.544474986045747, -7.361719858718035, -8.682093123814884, 8.110759325560206, 7.809808509301546, -4.347343124038953, -3.6042302193014737, -10.184027947242242, -8.182294177896456, -2.28571903528868, 7.795459834411113, -0.4105958979903892, -2.840082603167333, 5.93023069119808, 13.612221201570982, -5.717404538063501, -6.588686550899682, -14.700639000985777, 5.3352855743562415, -8.22191246236665, 12.328319087363473, 16.70007376872074, 2.8051216469632485, -5.151724964546395, -5.5884629815456135, -3.037028392829005, 14.528251373476682, -6.774318956968776, 2.668670849059368, -13.22038314448407, -9.396691214013035, 4.889627862614077, 6.9652612174058355, -0.30356415426427585, -2.6697953904550764, -2.291316723883024, -2.2875139065398598, 9.237320794227243, 0.6647156843537334, 2.2262191946601053, -1.931997211091563, 4.237696835688974, 0.09078219706034832, 9.995166487904074, -4.373058410694668, 6.613401680275095, -8.643160641535863, 2.419164274246276, 7.961233655335699, 2.550297849781619, 10.621841068852556, -0.39540131470722173, -9.443265375631292, 7.297532205526283, 1.4791631566145336, 2.65141616241145, -1.5688904334366662, -6.23723013820608, 1.2732274030354331, -22.491884882962285, 10.925071585321705, -13.549796262085934, -3.1575856716741155, -5.207297617775292, -1.3760118748979198, -0.39493002481613, 9.711989445658814, -7.307854224717274, -0.624301010297553, 9.998711537849424, 8.796539252856364, 8.213417845540777, 2.1542142833096833, 2.158326448860725, -1.7022138468690424, 5.297055065485139, 0.8889530679284361, -14.657450950432915, 4.669130576552009, 0.266635847636568, -9.208356746241456, -0.10615206759616705, 8.783027597339133, -3.0727762973628736, -1.7101256932032436, -8.07798153637213, -12.20512427245615, 4.43285918290539, -7.632593883582405, 6.205120916217348, 4.525887362967827, -10.0661483545315, 10.744890453478297, -10.62193962294861, -6.510869355291238, -5.091669270848351, 8.38695467110401, -0.7930361711135765, -17.884544878373536, -6.137692931676204, 16.039914356317237, 2.223336227996775, 7.653780802672257, 7.26046431053409, -16.90737087013241, -7.213023149997629, -6.55396640750594, 10.66753955031195, 6.33061583978056, 4.2290248808555315, -6.7628749816718985, -10.417043500795678, -9.837265525140326, 3.805867011218866, -4.020485449512354, 0.6291153637365485, 4.950668620259854, -3.3006635252016543, 4.109719065622769, 2.4096298298137904, 22.230415645862553, -16.057957664415373, 1.520185197121275, -22.795306463584694, 2.2161636561587064, 6.34555257978858, 7.108288920456699, 4.038514025789856, 1.1189828786637652, -6.237615163232244, -10.270933657289754, 4.900227283715143, -5.6452780866847725, -5.424844041956823, -1.2049965733451042, 10.650702724116627, 1.2674243524097273, 1.9498285930918426, 6.125743741450245, -2.8881573736341544, 13.870120942341643, -0.7058092541713696, -9.941980805499595, 6.421950604983855, -14.632596551724443, 5.289886118419251, -1.762424840540498, 5.57150213495399, -14.481356956985087, 3.004064869518607, 7.311912154140749, -2.830042847861431, 7.549195322867477, -6.432353841001401, -13.35126664164929, 3.696273535660488, -14.437793017968524, -0.3055576940575136, -4.737516360753601, 7.229562456897348, 7.6684726412179325, 4.989102395577669, 8.76434343467012, 0.9295704485550045, -5.211706156819505, 1.2640767905509045, 3.0090512315909246, -14.689504371295842, -2.6160354432309934, 2.4601745730870324, -3.342901411242142, 5.863643892069497, 11.755652079473402, 0.5861991274111082, 2.4675439809486455, -1.0118264297634745, 5.797496648461363, -3.0880926612151502, 9.194250006698647, -4.8153273451982646, -9.695618788815187, -3.734875810779565, -20.828226741480876, -1.6911001666274654, -10.798934530748046, -8.185096869914473, -11.382480478786603, -3.452990304075082, -2.55693276505396, 12.536050532198617, -2.8563920821082074, 5.769528289478392, -9.601199116523437, 2.4881167594527014, -1.5131031350781259, -7.364514193922585, -12.3165606929708, 2.223506217592623, -3.18782576346539, -6.2557409040842575, 5.534222970363384, 7.252672636543798, 8.636739957679662, -19.51122919789436, -1.1332802545188598, -0.8167010662003826, -6.666413367108801, -4.43445999755089, 7.7385134386621655, 13.112239761995898, 5.858000337164199, -3.7088263459201576, -3.834776707927104, 1.6562354393591607, 4.1444164072286105, -4.07199026242468, 7.449162114434346, -7.643666788966328, 2.648338938002792, 11.996919534445814, 2.262930811533784, 1.6911236408490815, 0.5485241424871544, -0.1598735269765093, -4.605361902994177, -10.360213999742136, -9.153736196952265, 2.03387303819801, -3.9057053247671565, -1.2803797483025467, 6.499557374245713, 8.790529716894502, -0.18021721607612795, 4.628287739906261, 7.910929292028162, 0.6136756437264641, -1.9566892935722746, -4.292418607169817, 9.382931580908592, -16.19019821074603, 8.94095729360228, -6.599277007557303, -2.612900730222449, 3.87538236637074, -0.7377017034578487, 6.739105004582237, -11.669100139480177, -7.402868016748363, 9.430918712341718, 7.787843796416422, 4.096722351325482, -10.071077096116131, 2.7753369769149714, 0.27955828039438935, 8.395405627819317, 14.982275066886988, -6.738397271238576, -4.791767655281419, 1.8869757968003151, -2.463854273051931, -3.4780676721296575, 5.503182138716952, 3.8049032258425193, 1.0866402885226563, 11.25303946057361, 1.2631641799925613, 6.7947082965084284, 1.1094476082439506, 6.7929142401615215, 9.10745338186264, 0.6457121225107499, 2.9704854465742514, -3.76395438726453, 6.290467954508403, -3.6360947069256144, -1.0166354514503626, 5.150462028293501, 1.5861410410735433, -2.3765540102718306, 5.754991067181967, 4.938253547067108, -0.7192314136359335, -1.123855134680071, -0.4800805071766095, -2.462725243153665, -1.453310690047116, -2.224264312293297, -1.427674150950093, -0.11094679536005803, -0.8452002325346495, -3.69128823808867, -1.1195916266302666, -17.38255836934421, -7.348335667314017, -1.2410861401614055, -3.405566007498117, 7.592209784773483, 5.850508533258167, -3.5662989514869805, 4.578453121216757, 1.6183496171310376, -9.696388516393819, -6.002160073094029, 0.9092147725836128, 14.399431392988527, 8.106332686932562, 9.363082322607202, 4.804969035304958, 5.541041498456579, 10.00411762619505, 0.9972386667172722, 6.68915071713578, -0.9047003960972168, -10.792681490303211, 11.168070294426593, -1.2170875309908713, -2.9206953431077656, 5.663385624907252, 3.531063412020888, -10.449969311165507, 6.419957595820113, 0.2443708355241006, 5.213400896670709, -1.4425751752260283, 6.24196986071325, -10.148712794773346, -4.709312969599544, -8.692797032055253, 0.04997781944711388, -1.0202234466493159, -1.8151188219376269, 8.263685999051708, -2.219085377466228, 2.02806094652291, 6.84415332380227, -3.1887724946614164, -1.4416128863246052, -7.091277951885124, -8.578961181566068, 0.3168025107856126, -18.48537658939297, -9.405053803784075, -1.2645711444516168, -0.8405495711175617, -1.0751622151114164, 1.3829447707829086, -12.045256167068978, 3.41887048758941, -1.6192177752216044, -9.111465859845886, 0.13244339787132375, 3.4814788347080166, -8.71847644976777, -5.62853132765688, 12.557921038948312, 8.565538291288632, -4.179604803225246, -6.225823466768417, 4.9800275583381435, -13.566237848790006, -7.325826560287226, -4.575467261222336, -0.8290281021698038, -10.635438806487358, 4.072270997680059, -0.17182277584952388, -8.045633298444452, 5.281906287199873, 0.44839517474635376, 2.725046824628892, -0.5276806441776813, 11.815186251864793, -7.292062700789772, -9.764059821509571, 8.04637164799125, -0.971718635746762, -7.637951739880888, -0.5385815150920963, 7.923240851257452, 22.291646201509185, -16.654160553566097, -2.352002981713824, -8.580314907252628, 7.327218147232729, -2.190638404288417, -5.346601414345088, 4.5882882977229675, -1.0816594490474376, 14.83524917191362, 2.714113091835846, 5.173131070970162, -11.565986166367814, -7.483263298807555, 15.842029650029986, 6.8465932214779395, 1.0734131230659145, 2.3542551686323296, 3.234697778306998, 0.37311724749181063, -0.08991360666844964, -8.234735764451393, 5.245331712030359, 0.9786999104474187, 13.664896177128549, 4.183413680472691, -11.219707126061067, -1.3474798432405772, -6.248179198705545, -11.030424241860995, 4.451727916399293, 0.9514751470795701, 5.08519265943815, 7.305559676983253, 4.841534748032968, 0.10597515093049503, -6.3480437198058945, -10.978192644076223, -9.786834663473956, -1.5216873914452762, 5.9889505874267845, -8.070811496807584, 10.714589317161908, 1.1936511291493808, 1.9903880932888212, -13.163479953947375, -3.6256515484527387, -4.903213171494496, 6.810761405020802, 3.714560339218682, -13.230957055914516, -2.7884958565821902, -1.1840594139336702, 4.894369832752696, -4.04888869181208, -13.342084751429754, 7.16891593345758, 0.2330431879602064, -3.3328295119629274, 5.471206467411491, 0.09195981150082239, -10.969493841336078, 1.6579216079745167, -16.096676319056122, -8.27576220506573, 0.9603151531983642, 5.494208283944452, -6.784022968724488, -3.1560723878741754, 6.719651165963868, 3.215007618188004, -2.3314183156501826, -4.655302155329671, 0.5936418318919667, 1.7726755177718865, 2.978279567972381, 0.032104832155471386, -9.842904424755138, 1.2851747278216148, 3.593847818196187, -2.275045779697042, 8.052159220552214, -8.212627159727262, -3.9123755834621834, -6.089640407201208, -5.386577703864645, -5.555385375004651, -10.239955591208371, 8.757194748837685, 3.3052590990480266, -1.9107241186114818, -0.2403620356981102, 6.430898805532645, 6.870988182082107, -6.9510031325532635, -5.631214737574456, 16.46099597196917, -8.005975838809421, 2.45824326050604, 4.274860932823506, 6.010233937646017, 8.47880718455785, 4.337916587829737, -11.735498700145268, 10.85689796962033, -0.30038274011635413, -2.7451028246804445, -6.299379593103655, -2.8368245729504515, -14.72485264269149, 11.201330813178476, 7.741728870898277, -4.8821172457527755, -0.631115140644328, 3.7532170879437667, 0.8066637099368122, 3.3350190922633853, 3.0046671779292513, -6.778372795344235, -12.842464146746629, 11.69905919738988, -4.084003450150366, 5.913643745989505, 2.7522593670401543, 9.509686886983037, -4.1548957968258, -0.9372994141044647, -2.044298491050612, -15.48714109960331, -0.5466071821804719, 0.7318886751821533, -4.96043890768947, -6.462341001341288, 8.979480944461958, -9.201187500567913, -1.0080806899730455, 3.547549889066955, -1.1946263220395346, -8.858968233816231, -3.4797207706506947, -5.2547123801123865, 4.973923887969606, -8.253757589451087, -5.294499458958853, -4.1941338899705185, 1.8632448552529515, 2.237342687522523, -5.001059844826108, -3.6127456186291, 2.7364074321753695, 11.117307603938988, 4.445952414936711, 4.838672615845114, 10.22271738933303, -0.7189401553089398, 10.234303713729915, 0.06428801304692877, -3.9313050597311276, 0.10696028468578533, -2.113968712647085, -3.3124018579048116, -7.731241698291731, 2.856427829775459, -4.062119037180864, 3.0727105207299084, -2.3167463434902893, -4.341810325953492, 11.25992478878965, -0.7427193801240046, 7.476721869813572, 5.6547927129613305, 4.850650036272432, -2.0804988235964563, -0.42557727035438464, -1.8319206616750496, 0.9825505938908494, -1.876273761930789, 2.354497515108687, 2.338240501548305, -8.838911339821232, 12.866907199175555, 6.974021421875454, -2.4027821545735017, 5.405396077231535, -4.359299562736808, 4.5339210475595015, -3.8814110542003273, -6.420631778673545, -3.5350955044052985, -3.8264862432487385, 0.5810796677461604, 10.356737961785731, 2.671493450386541, -12.14842403410308, -5.317496472708016, -11.956910223241428, -7.6600178614119825, 14.39368214892638, -7.642839657036295, -1.2543969617043444, 4.203133057745044, 7.650745462677782, 4.347177767827455, 12.339628243636469, -5.249233070508128, -8.351577091541163, 5.7732023465842275, 13.081446390740261, 8.84724714222287, -1.8557596071083529, -5.145109937565679, -1.9633668389982804, 0.14342902153819503, -5.172013002890912, 14.269689285949621, -5.8819674957878565, -1.59224904850244, 7.620510828240658, 2.7368616156471623, -1.7682267745473566, -6.832818813510901, 14.180668022626767, -1.7181032415897042, -4.734639639668381, -4.16604911062806, 6.85430114633941, 3.3652612824820296, 10.919296961409502, 1.4239390152815112, -0.7005441207834454, -5.168277041565711, 0.13879083366967193, -8.836310430921554, 7.233722717245014, -6.8645244385283375, 1.5867251989473792, -7.756151061379263, 6.67032211880493, -8.75050431711345, -4.045100557704152, 0.9812732951122894, -2.2986332925538697, 7.182565098371669, -5.242571556695492, 3.7238447120219416, 3.381038589195345, 5.392102669998192, 7.63500373881, -1.3970647387023551, 7.525527027163764, 1.9071656966629762, 2.954824163636397, -5.856619908020459, -4.06832675548527, -0.06348159316979651, -2.056190474673543, -9.433124507707271, 10.207683009823342, -5.1694733101455, 9.749627377467913, -1.5417844958414444, 20.140158614796142, 2.455355550535946, -0.2401316726561894, 1.2779737432697256, 6.465236841516045, 5.626735397959864, 7.486729777541666, -8.712115473412476, 14.625574248164344, -4.062943346554047, 1.419835581371554, -10.565475131995926, -11.85527291358218, 1.0078616478744327, 2.138689962922473, -2.12180643424735, -8.374454130971634, 0.32219608295501084, 0.8605971853608316, 0.8193641554504535, 17.947141537884896, 0.3108252767880316, -4.0288511207748785, 0.5666101825601582, 11.78973956915494, -18.4198267712759, 1.3995594493046357, -4.2060598580422575, 3.256455320760304, 3.9342680356929294, -3.062470022885547, -6.216233098534319, -9.542352230395588, 7.489007035131414, -4.10051046596205, -1.0794876987694113, 7.7719728915212105, -3.340295338589304, -4.321632615190293, -2.419040536811479, -1.308896276906579, -9.350534858793988, 9.859844604561674, 0.887202274471797, 2.8751114733092376, 0.109381963099068, 7.971539748087762, 4.633792989137341, 1.3575462302295438, 2.7370146827073603, 4.879093150300539, -4.5218609489081265, -4.598170227874593, -10.972655752312082, 10.284391585756094, -17.810320924981795, 4.706552820157743, 5.569340290910761, -0.03786195908805978, 11.186609117681947, -2.988567876118979, 1.9102968797382924, -7.846021399909392, 3.1175168897181202, 2.9415581746735824, 2.2120785165402306, -1.0641830606681122, -6.492439419378115, 10.036443533775769, 7.5078306136372746, 17.07247701906688, 7.882082084934565, 0.5473595160549807, -0.1529561539544201, 8.151907542190575, -4.9967351320094195, -9.286628859393787, -10.873385409449124, 1.9399575267829723, -0.47840843962174673, -4.9460774780889345, 1.7673591860761384, 3.8348204711336846, 4.215398889299667, -10.933786275927394, 5.562613728121711, -7.213338057970045, -2.4448071878489372, -5.118546407049272, -0.7701146747283185, -0.7480997201804008, 5.784069350288453, 6.635091304534718, -3.7277569751873187, -0.4873812260808963, -2.139738606334591, -6.308482335050295, -6.652394391424212, -10.341990710987844, 1.9737513489011065, -5.388350372248319, 0.8229217332435041, 1.631156278714871, -8.200947387675996, -3.0333032315338024, -16.938790580485968, 2.168153176875738, 7.686440125577811, 1.0842871749192795, 8.100206554619632, -2.425393829382189, -8.723316562056603, 0.7744797880374497, -10.130509353421294, 8.109302554258598, -6.716017441438053, 2.68982109157357, -14.322798468524224, 8.963731135549612, 14.890983974175468, -5.734338981863989, 15.111452899761662, 9.189131480407346, 8.514420745749087, 3.772174586499061, 0.6444006129672546, -19.060433645051138, -2.0181281851320794, 1.2871034439862352, -3.4656051713321743, 0.009303660798473362, -0.3850647176471011, -5.7745154219962025, 1.54240239251958, 5.949433524903927, 2.2768845478174606, -1.6492872869528779, 8.290822269793368, 8.738436752249122, -5.077965382206792, -4.1108240924548145, -4.494360972257771, 8.591304506707214, 0.9228284878443322, -6.8089023786868035, 6.005399907300865, 5.257967492358215, -0.5052164909151096, -6.632891307787344, -1.145867036947827, -5.934924418522784, -0.061761569597297394, 6.171869138860953, -4.062424061868719, -1.3601480871719867, -15.486384514932487, 2.7241953856781, -3.075903837485069, -3.5501302676816198, -3.493931569653415, 4.924049616387512, 6.924545054295397, 8.54515971932592, -12.225794907257855, -1.8278267524640253, 8.360801041274263, -6.818845842969056, 5.867388927425317, 8.238908655247558, -7.106519026426215, 0.20459538982483583, -6.900520100947705, 0.8566786189180876, 10.170380299225835, 0.29371995329390443, -0.0070434129202776585, 6.080172765224675, -4.242860296241843, 1.1033891861508933, -14.708559508074135, 8.012128911469267, 9.43436750993674, -15.56168367489891, -6.373731164259045, 8.043062445822569, -7.867331639905409, -3.623612404742161, 4.869709060606633, -7.335391106301053, 11.366596407989777, 11.367379233541664, -4.381646282253416, 3.688562570567566, 0.536089995867645, 3.7940840994395004, -0.49270758552546245, 9.645059354792712, -14.849496490863878, 11.240743822009465, 7.136753654059791, 4.846121629014435, -2.8594550786056128, -8.254387021231421, -0.7769568063602987, 4.668163526363989, 8.345271761021936, -0.44777877455264836, -5.697056795171518, 15.647880287906188, 11.156640976420586, -6.283048562944261, 1.251132387206407, 3.928046355532192, 9.752095747350992, -4.824045903687322, -2.3599101655792083, -7.618303007289261, -5.362798343071656, 10.71216558807841, 6.736488465615649, 9.651878852206913, -1.498513015393874, -0.7813158547762413, -10.981277684437208, -11.42884801216923, -7.528457090242381, -6.161425320700151, -6.287751353737231, 3.8326872160471526, 3.956207871881789, -1.028867953757366, -0.89084510797129, -4.815784201065968, 3.6064782459350937, -3.119260163946001, 10.208443033160755, -12.757712302270006, -2.2132166664538264, 7.787848774114559, -3.121928136971616, -8.67608455501059, 17.197658013000304, 2.249860271669233, 7.981989643769991, 9.578989687538908, -0.04690963229031708, 2.608641698497533, -3.217484832072725, 3.9211158910620347, 3.774620449229381, -9.288434342068513, -1.8746146581570833, 1.2630567593450268, 0.8650612619342395, -8.967459477687015, -11.251398660996113, 1.538377178298716, -15.384339184428873, 3.8575920246403417, -0.3538468006025444, 7.718056881740715, -10.178619388529698, -6.455767181978359, 5.113001180825776, 0.7407275723295881, 3.655839466241942, -0.8918918943715713, -14.868608592806712, -2.0823533770098037, -7.553257141462476, -6.17305792297665, -9.671595661025243, -9.82467885907467, 2.180190635156068, 8.658883652774255, -16.070283898186172, 1.3218164879350063, -4.2556525303749675, -1.5376414156349585, 0.7913959573616514, -4.159515935124271, -12.40567838856428, 0.008983562812435397, -3.426138600952504, 2.4850823407858496, -8.723422007425684, 0.5604786815525477, -12.425053415473846, -14.361727298597625, 3.2443006131657786, -3.640331155106308, 3.287529917198754, 7.4083390751708125, 6.742382701908936, -5.556045321918462, -4.007217161288919, -8.66229732554205, -3.300729761144601, -17.59108393843181, -5.5924307216241935, 6.062946673650791, -6.601469318758051, -2.024787650603675, 8.637034759957041, 2.2902187198552886, -3.5531974009549705, -9.429674219072275, -6.125647932953332, -2.7091461842571234, 0.5690457597223348, 5.603395662170735, 9.622137815742754, 1.1811359477100056, -6.320549319697397, 1.2214891367197904, -7.7884880546596325, 2.3412112588786522, -3.395051244649225, -10.958558916136987, -11.641396253289296, 4.150623083921149, 4.6775459301521, -3.8603739454325536, 2.931446369864251, 2.0489174071477656, -6.87973000829156, -7.734294031548613, -4.935373397654717, 2.6480667075491064, -9.470870404231233, 15.619291583940708, 2.1565612245210968, 7.491272241622537, 7.634581877491293, -1.0792733057577273, -4.1528272936972925, 4.498815219037737, 0.7369086344767901, 10.068601816330737, -1.8266246337942642, 7.338000070067517, -5.880473822713427, -1.5403563860759455, 1.3743796288950993, -3.2085457786090195, -2.392114441306095, -2.89210146841255, 4.088310409666994, 11.97769799467057, -1.690939703235238, 5.069392692373519, 3.150111891441372, 2.6526358765274356, 8.701401144089061, 11.081074350366277, -12.436830968260658, 3.1318358998063096, -2.845538973838467, -3.49048670599434, -1.33374772426945, 5.810315473165759, -3.7064325637927285, 5.040629545873793, -2.2471424381388934, 11.787340260057332, -10.693010705955128, 1.810282010083659, 12.39437778001768, -0.7169310181038071, 4.74794996398118, 0.46529289374703586, -3.1884056388661097, 2.6389882266055, 4.297674192572994, 16.587126460361148, 3.1264439003094733, 4.5420018951011745, 6.408085611884431, -10.857695848606797, -1.2970472894214822, 11.723970507509186, 3.441358762106016, -2.007823616285131, -6.231777336782936, -4.021431746075546, -5.766875934062949, -6.768625119666731, 3.274931967136392, 0.17867348822412987, -3.6124459513646574, 0.873592831499662, 10.39322913567845, -11.502519759289529, -4.417816967939622, 1.2944452681757388, 15.633944002157893, 1.9244781957528279, -9.377029988900269, 3.951064394883954, -2.2537843466060625, -6.77270012645699, 1.0584149665351474, -7.917521851382851, -3.4891767500362274, 6.314666128237156, 11.965142736984104, -5.1054479330217335, 1.502975660366215, -8.978512353003058, 0.8056298743139447, 8.25020471860272, 3.048712268478463, -2.2464130310142707, 5.89435374741871, -5.247812860909, -3.755036461869038, 4.184495509298041, 7.471449604399801, 9.565997050508008, 5.6142406236332105, 2.0778556236482704, 7.223849549616862, -1.356157789298337, 1.0818845561746533, 10.99869321338241, -1.16858678402548, 4.09047261871666, -3.0547559392067747, -1.9177851190731678, -0.6683699360563056, -5.34068705726816, 3.0184434989288227, 4.286650102385025, 14.100604757304009, -1.3397988595467991, 11.005489621457965, -5.7727366401812406, -8.450257137168379, 3.2728590041240184, 3.455579857553798, 4.196283855476945, 0.03170610748196484, 1.3597787862492017, 4.093150074688698, -7.084230641498449, 7.025646091274256, 2.975985608452493, 10.322413268554572, 8.820386459574161, -13.731898050769152, -17.082195846696777, 1.7403972679655897, -1.6065305589439483, 8.100860278621301, -0.6148573819634509, 9.766303073851546, 5.159483384169474, 4.460727199499792, 0.05048058937069094, 3.956922783205369, -0.9717704980932222, -0.9254465257058841, -2.656922235279691, -1.6160527403876994, -4.778381698234396, 2.063936147068654, -9.26254205553484, -19.54997039031731, -16.542700142235624, -2.666514246690662, -1.8814464095703958, -5.191675346799586, 2.950188690459009, -16.572213822274914, -0.9956153809611284, -0.7307870556821067, -8.224695096945556, 1.3831892501122525, -7.1406740219597715, 4.401271255285446, 6.048593054220911, 3.0825870769376995, 5.372780878571654, 10.026660192683062, -10.0034293600358, 1.7643940828712987, 23.302294348303416, 0.9604304798090534, 5.4711048191630915, -6.472426398832671, -2.500290109288944, 8.002251315981212, -3.687643894907737, 8.031974187226744, -12.430208961559842, 10.656822174526047, -13.679871611163072, -5.074430272430476, -5.07345075060507, 2.412529298401102, -2.6616893700073847, 2.105802863800133, 12.15703899183791, 1.9231416693443224, 7.330360762274914, -13.089305286649902, -5.957176323971007, -6.924958174865958, 3.105121712997535, 2.741887813995694, -9.569338455352824, 2.071435641169906, -1.4062780686115337, -2.9595843691392276, 3.9360878184575423, -6.7046938390553334, 15.678217440208133, -4.057014622607145, 1.4819711693002615, 7.66573281508041, -4.382574273942063, -4.196599178505433, -0.08303608169550057, 11.859783591536852, 3.3499009515973004, -4.589058004808224, 2.744363077303322, 15.73321902936197, 3.2169346559523886, -11.803413121132394, 7.7459454043622715, -4.954214290587183, 5.794509782866183, -2.748033096326681, 22.303615127344774, 2.3298686485623072, -7.821111001725693, 2.026513686686978, -9.148147237447972, -4.098788687036354, 10.515837160755225, -7.738228440103619, -2.105659039773105, 1.3064511985390774, 14.28209002386421, -7.180218422195815, 1.4968881905307654, 4.8573405153902245, -16.972334020322076, 10.896751818823189, 2.9929384681542155, -4.401999346140132, -4.076263863522403, 12.697656477644694, -0.12487028700721581, -4.179054933088207, 5.425149126782552, -12.219599646703932, -0.3878114527284098, 4.90886746099848, -6.799582511848828, -7.838163580811272, -1.9789778487886913, -0.15343626619881323, 3.0989748255611613, 14.263233798907208, -6.022120189436719, -1.5465111752020144, -6.772739860978115, -0.5435242292922051, -10.906324325790491, -0.2072252491509239, -0.2746889227567759, -11.33809735162957, 6.0026570847303775, 8.261891871437406, 3.557071665173404, 8.258120422811034, 8.579880775230894, -7.717974205390467, -11.801365669798288, -1.5729726955824204, 0.4915173678435152, 0.28694044613894515, 6.540149419101804, 5.382880202098376, 8.2669487779721, -12.905198562716388, 2.6293920343665405, 5.154723419918644, -1.2572653770096076, -2.737208614311394, -1.5849382294527539, 2.537627143783307, 5.288743517162111, 0.6224654304430147, 1.251054229348518, -4.667443364847972, -0.913752893790051, 6.908457551772584, -10.270502248926888, 5.907480416750316, -4.497843672307732, 3.040836846604852, -0.7381437394976456, 10.101996350623143, 3.9404238251938, -2.9541306600975306, -8.287252615205082, -2.0449592348122305, -3.016684130323294, -4.105441885802995, -0.45329098456655825, -3.470816527165761, -10.125692387756857, -7.263433393548316, -1.5989162852372176, -0.1406708792932121, 1.648046235574858, 12.572832606205369, 5.409192545405324, -11.832496565192915, 5.797910976857232, -5.336527221044739, -1.0753677829166048, 6.4928078766449495, -11.667039605462374, -17.62718694202481, -4.254510919663087, -0.08095426750698959, -6.125599836826394, 5.671804164448043, -7.877659726953686, 10.302921922150144, 2.3995418099047905, 1.9042928404737225, 8.74578021890427, 2.540174349911597, 0.18671599173425962, -8.645320820640938, 3.070767274201308, -7.440856631706503, 2.3955404515026135, 3.5480226012368408, 1.781725924993767, -5.49080910247325, -5.626653343222818, -14.81348677645221, 2.825060292715423, 14.907283581450015, -3.2202137468979255, -8.955108970441469, 7.821907746835642, 2.9546092921863765, 1.941196917655914, -16.1381146098545, 7.0793534807956835, 9.001848241163541, 4.385162095769048, 3.2762800973336015, -7.04125345909563, -2.82007424842319, -7.615128348438073, -4.474330571573193, -4.640509261357688, -7.316166391457974, -7.014797931350834, -5.366096848344242, 4.256052826673572, -2.729896527555514, -0.8608188934027301, 5.145080627398566, 7.091346180971852, -0.913590467078967, 2.5739315876468263, -2.9127407470265014, -0.31280726921780677, -4.872001939369279, -4.981698576972854, -1.3259158360879053, -2.7490812883353164, 5.815856253559412, 8.50798271870651, 1.374529382092629, 7.026386742100728, -2.479604782793394, -2.895398195439228, 5.206653975786824, -14.153100113864967, -2.589996946680977, 8.983851685061143, -4.303090560043386, 5.515528254805082, 1.5565352282319216, 15.112758269867951, -2.13507174911453, 2.487665195036154, 4.9250067328582965, -4.26085327919853, 18.04878691438538, 8.981271671501368, -3.387910485861342, 11.23334423152986, -2.6913058231810587, -0.462646293134065, -2.435182060223449, -1.5301592729324418, -4.9286934525691235, 5.058579006849626, -6.074719584631603, -9.225453786793878, -6.96606305180305, 3.9417945490026898, -1.6240987199977872, -0.39895481648415465, -7.70321713366523, -13.560540159141668, 9.00150970981144, 6.11823439864106, 4.732302270497548, -2.726063965261571, -3.025143651115648, 5.119216118760532, 9.134787963929329, -4.600288653387716, -5.071004542276899, 3.245865906337725, -6.445965980109419, -4.066348258087097, 0.3510178917444802, -13.420256260747601, -7.858320898314705, 5.315380940169559, 0.6456814222173316, 4.913471335012975, 1.9337369475930142, -3.1503837197543203, -5.304733932987156, 2.918082837507287, 3.0143480040405595, -1.4242350474267096, 10.8351283846889, -1.3267138595814199, -4.120190607449815, -7.572303242655164, 2.8935764728543987, 1.406006473587901, 8.61775186293129, 2.2286310686822075, 2.75562074672949, 5.8411286421921975, -7.753064026989798, 26.43085389540787, -9.119709210430074, 3.85070882861762, -8.803347942313508, 3.4589773236757386, 7.712196711887133, -8.257162314684424, 12.176178649973297, -6.189428243003736, -10.059830709025812, 4.7364378464577115, 9.632293111029723, -13.877664819570029, -2.9267155020102305, -6.7514178233881195, 12.757531952578804, 2.922259906846329, -9.21747627662113, -14.41596566343324, 14.689948500716032, -0.6445782600536487, 0.2042130820246614, 3.4456654713955, 0.4115267200916367, 13.981222901485864, -3.9307805387093246, 10.502440367618675, -2.3435474834275034, 7.450692366346841, 4.693271508786129, 8.779760731802897, -5.824812942380529, -2.1012052591132444, 3.436641217470536, -11.196491051072524, -1.322426918857053, -9.25374110177807, -2.3793210936754567, -4.323533943785576, 7.360778535861557, 5.543949036667876, 3.151084599216378, -3.1445096086008038, -5.02985340113114, 8.41876264691944, 6.590943673974517, 10.844783800516328, -0.2577554387531775, -14.065618436806515, 9.061960730184387, -5.367766845735447, 0.42211777481764895, -4.051813677037206, -13.572319599432637, -4.355107841716791, -5.708711450845221, 7.746572676272476, 3.4446570581273197, 4.7372095169954065, 5.705883931601175, 1.0215997158183623, 0.668423370443541, -4.8480571061383975, -6.845526144703985, -2.4555004013094104, -0.6928022283040545, 3.5854209462936923, -1.309793751504583, 5.291162523691124, 5.8428009340042495, 2.932146781065836, 9.024614947544784, -4.175291266917266, 8.451863155228823, 15.686580221836072, 5.123854822056327, 7.270080221468794, -0.17273762899492856, -9.664372921646468, -16.050336885404672, 1.1487291307392746, -3.587477273344758, -1.3832843597822397, -1.366770947893793, -9.698139104502667, 1.7316715228611157, 1.8868489467215461, -8.888312893223695, 0.4032154107850885, -14.743252798425186, 7.745217605663482, 0.03063203261384495, 10.66040542950543, -7.326645501671258, -17.6819176051539, -18.231695552506196, 0.6600321596373405, 9.516423801684358, 2.4440198680689225, -7.474658614717883, -2.370637276069332, -11.984362160413916, 5.975210433177746, 1.9742020634848736, 0.8526086041420562, -1.2381631359214562, 1.5478995040938517, 2.747059604447739, 1.4262139599792578, 3.276387262219351, 6.358012037668297, -3.0392388330799305, -0.8344621267200575, -5.104049718334762, -13.495623523973281, 11.492773267342095, -5.176143657870227, 1.427254816526913, -2.9887429324627344, -3.3285623396910378, 6.285414303231955, 2.3709274461578693, -1.5597045643196386, -12.878275094313244, 1.9286813941249035, -2.111108470328135, 2.6288133802635096, -7.88223714717018, -1.7598151698197666, 1.8263358575707618, 2.3121084377857763, 1.8377339909194048, 12.948577078005824, -1.3387515179549392, -1.3889519305415043, -0.5872588038133064, 7.812570134724159, -3.3523266635631845, 6.252328906272767, 0.39294969641656285, 4.174160129897497, 17.52755765607222, -4.034803396681319, 2.555539650078889, -1.5548868265455607, 1.236347821955007, -2.8918508413351693, 4.243882398508423, -8.336426250823097, -5.864019477609523, 7.358305684709921, -3.018814352769704, -0.4370201580771103, -6.801868563174501, 3.545134561832051, 2.291245727323529, 4.338542180198738, -4.092148225206575, -5.749823510306063, 3.169864859406825, 0.4906898883598352, 6.661178852922529, -8.53069832353519, -6.343765339129065, 15.692396301711527, 6.496364214490432, 1.0538045984956752, -0.5327725125083336, -1.6398017432242245, -10.373169897194336, 0.47180540278883365, 7.589492918105671, -0.6711546693632808, -14.011003474036722, -7.772747602010532, -4.3853448422214925, 11.748705709675265, -1.3259535444802775, 4.241703272785971, -8.089209315350573, 12.041235131395101, -0.8270925719655813, 13.36567888240657, 0.27542324630466836, 4.059361165366738, 13.389046600666232, 6.439544631079707, -11.22485000115935, 1.6730888513076954, -8.49678809537192, 1.0031839948854384, 12.943641143869517, 3.125586413980742, 0.12724233451663575, -2.4976571444710305, 5.035705887413589, 8.126717375268365, 10.271825205176587, 5.948191394305776, 7.056965016857635, -1.317963216707402, 1.4858437337475794, 2.8918371544923858, -4.020158141778768, -7.738653763925646, -0.06505589263568579, 12.256308744571001, 4.695971722903978, -6.033641193788831, -5.082930845945464, 4.554199249821685, 1.1298562002626489, -7.704970667135069, 12.963395964837181, 12.721380303310188, -0.511612984735479, -0.69227847468321, 7.052812680878155, -0.9146634676172787, 4.153908138451541, 5.187160475850272, 0.8046075989160814, -8.019022026668559, 4.653206633707574, -0.281241567587768, -2.172158498187801, 2.6303772987980616, -4.68946869110566, -2.0710073132254165, 7.625733159742331, -15.061227921699293, -14.46938611482812, -5.892701526755395, 13.663762443931402, -6.297809420916177, -7.4342991774874445, -21.8520486998364, -15.135132636551758, -6.438604031837315, -7.9682308473475505, 7.359084411234624, 2.1392226035917736, 7.369452042999742, 4.494743488760024, 0.38470720230386213, 7.575279993973984, 3.8320861324668063, 1.7753433193859351, -2.524311091933388, -6.642611561155298, 9.654035238951323, 0.08709762825283673, -8.996843744457596, -1.071963204257686, -5.483866664014496, -2.0176677632478794, -3.346307365459744, -5.14756708603231, -1.3573671646186358, 0.4178726627031557, 8.51130005360017, 6.124583029866037, 8.87352925564253, 5.783734801827346, -8.00667343171787, 1.065521099120977, -2.938502712602827, -0.24158313027684486, 1.09061988814756, 1.1156474321141718, -10.371291002526531, -13.751519151214215, 9.875425338665071, -0.2982407071122638, -3.2764014056853084, -2.6713547872379775, -7.68302088309704, 8.13504276552086, -0.6362734141012159, -2.6217599993820784, 6.449826755266859, 5.991982324118555, 3.5087273896326256, 8.736142325544131, -0.734229324137302, 11.597596220203865, -7.19531513941573, -3.0529391849230834, -2.8971008717875817, -4.793414543267925, 2.3494626269716443, 5.249510050822526, 3.0377651103622245, -2.3886599494150857, 6.166777700328792, -1.9236823581330271, -10.541286838119587, 1.917703428914745, 3.3661987238383855, 1.781840503657875, 0.5630942994272901, -9.994307910577925, 6.485010419811358, -7.056031290992343, -15.032298172114444, -0.8974995996435648, -2.141222766384752, 5.761251447830993, 3.983644439724195, -4.243303107965226, -4.099356202692515, 