{"model": {"hidden_layers": [32, 32], "activation": "relu"}, "weights": [-11.470638450397482, -2.352529929791576, 3.909598564448938, -1.8836433286262753, -20.813748915313123, -11.609771809330114, -17.958063582241287, 8.34079590911474, 6.808838992774296, -8.737767621087484, -6.694121060331999, -9.89520421473457, -4.032442784417972, -2.711899465669761, -1.322191585182439, -3.2596670618506414, 22.09534286004691, 23.68507147980526, -8.771879191850896, 3.627218672317587, -18.93441819234517, -10.488091093671384, -5.172913335237382, 4.11467860259382, 4.415445393961624, -1.8026022010842966, -2.0857252141204317, 2.7457173769817094, 10.229894993021585, 6.028563727718205, 5.229091707699485, -4.806479056959568, 7.35483207852429, -1.937907523846611, 7.59020774181361, 13.810140694025979, 5.780496687795372, 16.82415149465984, -8.310406724343153, -11.467974874380968, -9.09125810153966, 7.879084169633159, -1.2125170894213506, 8.65598059545085, 4.633577456750012, -10.987797087736334, 17.55909472527195, 3.7787379997165105, 1.9415837236754494, 12.995105044865399, -9.787243922008093, 1.8845989693761518, -11.252485658089098, -8.015323491939577, 1.1046529034369637, -12.195067053484477, -16.993714133128385, 10.251182016628293, 3.3658825811172526, 11.13287416870869, -9.438250151039208, 17.45094423580752, 3.376364699476257, -8.538251878284811, -1.8007521781200349, -2.96306675725848, -1.6010621151176294, -2.049864297048921, 4.723199977221993, -1.4792679143647234, -11.498346142379875, -15.415622409842825, 4.871227410359077, 10.669418742896779, 1.6428596917242004, 3.492983914435457, 5.897634629085869, -3.710414317329712, -9.548712384438153, -1.1522019187564811, -8.480178778872848, -4.211538462962491, -4.343035740019094, 8.122006236773528, 4.386154735873646, 20.26597992794515, -0.8854541784179204, 2.5471263066080176, -18.960437491371362, 7.188650444037959, 3.3392588070086893, -7.025442963190955, 6.6458218070931325, -3.541121169857513, 13.798249208628658, 3.194562531490212, 5.630265020850776, -11.807624376403774, 16.191935055225823, 8.6199028308742, 6.569198368553918, 5.036634703928609, -0.3034763904409165, 9.828831692427606, -0.869391436836456, -14.494599580376308, 9.646277947555363, 11.367259332656602, -4.27874567272414, -13.607370007982235, -2.8381006913568063, 6.405225868365366, -11.920113236724456, -7.035003267615033, 11.0277167171049, 22.438800580082443, 9.368695989884113, 18.30465993167009, 9.28664437394623, -11.398400370307133, 5.124992596519344, 24.51260785161605, -4.536070696213548, -1.3974917613756996, 6.5763952557022405, 3.084174724623117, 10.347245075262217, 1.2273589123648239, 14.098060431007097, 9.978618367082898, -4.292636863720355, -8.956964995553385, -3.6828487451793053, 2.032202977201945, 1.2602787322945235, 9.206402772783274, 12.550096158673185, 16.993438165096062, 3.6205066762818587, -2.6507835503940282, -5.486599254167508, -2.336804060368384, -16.573344761693743, -1.2621303607672822, -7.166800722956568, -7.264506313489451, 9.719874991456, 14.643690667981454, 9.011642118984346, -22.58133579430084, -2.724924061720139, -14.114072936544215, 20.9250422306734, 0.5224871298367901, 0.1976634108375488, 17.340833463360354, -4.890055204777733, 0.3707094007910013, -5.36009040112378, -4.644619740395187, -4.598935436505925, 9.31887668814803, -4.386291587036371, -6.962900087248526, -3.2517938752300486, 0.3254516746816626, -8.00031866859949, -1.4128353668460227, -20.016009406186, -6.266082021625649, -3.4175119481426472, 5.032918183414476, -11.851461867573732, 0.17446254831732222, -8.337437529323005, 6.705172647493013, 5.356688974390981, 6.171749399991862, 5.056377951497481, -5.418452215621148, 20.46823950713788, -14.747695362556124, -0.8236043218101711, 13.436834511777588, -6.831562484123626, 0.2068272118360332, -12.652238609426703, 7.212976983137596, -21.52511308746327, -2.5035772927718396, -4.955990860004145, -10.245562456317762, 1.1595837586981406, -6.139597006385468, -5.080948571914136, 9.144732758727779, 5.194031853847303, 11.315378417912532, 9.018682292468824, -0.6419344554514081, -8.311824100975484, -9.3306306331885, -4.297675734240138, 1.644653499606251, -10.612228021863277, -11.220123360775636, -1.0703858574892362, 3.5767373356590353, -11.52192909926161, -3.7525327259854553, -5.213497067961558, 3.1120920872294184, 6.924493732654005, -12.18584424170826, 5.898101245435998, 4.736696264149712, 1.1277258094009748, 17.697451958085228, -26.552127123874676, -8.879249608749493, -2.7118241542032675, 0.852712632140429, 17.272632662924835, 21.017434369151154, 3.8668219314356476, 4.317992877708392, -2.1112817419730274, -2.5905839953180587, -3.862391067853064, -17.655248755342114, 7.028884150194109, 13.177335733352116, -11.469673652792626, 8.113334054347519, -7.769452283252772, -11.29654026350696, -9.895367445078543, 0.7154085264923731, 2.7020714215446313, -9.196188293160702, 8.984324848165798, 6.651595463757599, -4.032778602281137, -11.63312290211971, -9.62549365699652, -9.318866613115802, 3.427821659035521, 7.553932944117524, 3.837151908872197, 24.798172425620987, -15.278758281601768, -4.552476122232472, -4.247022563254533, -20.314863369074644, 1.7750278167658289, 2.182942886668612, -12.662735959160715, 7.725279040306818, 19.672196684815564, -0.5819354899407182, 12.488641045279227, -2.1433067212744774, 0.8404200503179798, 5.961017523338545, 8.942955299026035, 6.528727198035617, -6.308768122369531, 8.996958279573871, 6.232244885991117, -13.781952666750225, 5.108028690329731, 8.211508964625907, -5.336746182543056, 0.615984394989781, 6.1578067575557816, 3.124853179144403, 2.0184644592909455, 17.680761478647582, -10.169668417778173, -1.6722759731037873, 4.961650597878777, -5.4836612233345425, 3.253666773575845, 9.779114662350693, 3.860347511843261, -2.6695782899884515, 0.5212768912597843, -4.871468752620028, 12.397856613142498, 7.999187927380274, 2.793919949185666, 6.0175446944200015, -9.020681184208941, 1.376349655711163, -4.000531975037536, -5.192305924915348, 2.0756418286784384, -18.296949459888523, -5.757537936377066, 6.55705980984186, 5.321204231166268, -1.4731772961269098, -18.351583048769406, 8.927813853570065, 9.079958507695848, 9.023837205306357, 0.5991262721876488, -7.795715758108038, -4.580793137711854, -5.542206581195677, 5.111121902668566, -3.2671202902424943, -9.20533193774033, 5.878632200706449, -6.4877831768262935, 4.831646506869939, -10.20841025540107, 11.785327798756427, 9.056976240174935, -0.16672930104183203, 2.90859276629761, 3.1913403347431064, -10.826989570573128, -0.7158279713597537, 2.0055279108065447, 1.4350586163427175, 1.316829809321141, 4.652251958660917, 24.227495357779546, -1.4343406974336488, 3.0417592661624, 5.703920481927444, -4.995555196556147, 2.5803166195981806, -17.220234622355836, 0.033238165275889964, 9.427326140040805, -6.50534068198542, 6.011443302355101, -9.29658461314624, -5.327900780967911, 6.679782174682204, -15.858333972594833, -6.421184314206548, -4.226559353275415, -12.444869801705636, -3.07014107179274, -8.163111119284057, 0.07627512349954502, -13.456896157752995, -2.1894354161388048, 8.148548424761946, -11.592277589645438, 1.5728651275301642, -2.6618253889429324, 9.62465063242243, 1.9798370226193014, 2.467670500556104, 3.0988325414644, 10.021127170258545, 0.5880948955641636, 8.170159947899336, -9.875951367203978, -5.289710997350056, 6.768962796852733, 6.286610900983679, 0.5413331093941911, 10.754206535055411, 8.14952206002026, 3.4398307585661474, 1.340506813875258, -22.805498757731392, 9.10817527679335, 8.281285834951964, -1.0596934432532625, 9.7441612572217, -1.548396764377988, 3.698643203678155, -10.29435807092185, -8.544020496734554, -5.408491948434099, -14.172691548672917, -8.888804675695201, 1.541254276030843, 24.18644077879179, 15.090863755279958, 17.222639214807746, 11.323186231271633, 1.921257736335288, 24.56490675674232, -9.6507899285164, 19.474752036096085, -7.928880633219114, 0.36771511706915916, -1.8859818505822505, 7.953793349222022, 10.782618208424221, 9.84684228214076, -6.981913359423162, -22.174167287165552, -6.071208410169101, 9.179807826357761, -19.348661669320972, 2.939242444052296, -0.7249778014859671, 1.6220961569487065, 4.610881352359821, -6.395313537135138, -8.321807899719934, -16.032993471184042, 3.7688347855581896, -19.367583639635352, 10.826761668071057, -1.3657224238839243, 18.671903681338122, 2.074227686865322, -5.889887436021247, 6.632793377439819, -2.0177721254208807, 4.479178725505364, 3.8242883806392167, 12.403502328179362, -9.350639546844343, -5.726142363197094, 7.5317970231212445, -14.829290660053164, -5.944640608436691, 6.2573001837033475, -0.8827760392618388, -12.539423205936881, -17.316235387061127, -14.6359824221251, -5.618081592279046, -12.638967161428141, -8.485916677439892, 7.572311272249067, 2.911837375036929, 0.7686609149207095, -8.984738841654409, -18.643196968270104, 13.898622252098582, 0.906793888127023, 6.757855092307105, 2.0599780812347155, 0.3037086273405737, 0.12730296100602734, 2.327333457109864, -5.4130812539686595, 11.369950682214913, -5.532721379703847, -4.377273912650451, -10.316493854467625, 4.152469206290036, -5.327675476727389, 7.815552523711847, -11.71543917870234, 5.839576533737397, 11.74593906206635, 0.025010739412601346, -17.283580474190824, 15.718824193301591, -0.02259965030354938, 9.344277955653977, 0.47027535851600755, -4.70742052249425, -0.024983639389498574, 21.195036280637822, -2.795258561340174, 3.098092833666592, 1.2028877817171368, 7.591086145905785, -19.391059922021945, -1.534638145251575, 5.155225950584265, -5.096842581255644, 1.4597403523549037, -14.507343015778346, -7.242011632788357, -12.204423512916584, 12.60046691168272, 1.362998864047981, 11.006659638886758, -4.847359496874454, -1.3435462088146009, 6.201034524536855, -4.676916328996887, 8.488148863189423, -16.04347628208771, -3.472446510284186, -3.528122955441456, -0.7589687513030328, -7.212490625672482, 1.8107775038546747, 8.68665226632008, -2.194479774374379, -0.6413811699671689, 0.06918234166269303, 3.9456839652063658, -6.714033989811303, 2.769466214003624, 8.429958044401918, -0.4410426289290892, 4.482359836503786, 14.41541272228759, 9.122341518019342, 1.0641772778306215, 4.740024440037653, 3.7968596616826265, 14.232926592552415, -3.1500139005070604, -1.9752313371403296, 8.896802175800765, -2.9298560304177714, -2.228813055288736, 2.863564333267586, -21.179748602953193, -7.832299811877042, -15.09209422913651, -22.31019700419059, 2.862490448776175, 1.4333475711984636, 17.622197128278984, -4.4190206990048, 10.294361754968094, -7.81343385602199, -13.892937788438449, 5.398703148319109, -3.902648987752057, 9.799103581065793, -7.859478554123177, 9.955155574695649, -3.1924686206667516, 5.3292518289371795, -1.6184037561080997, -9.728597137305988, -14.706262136149125, 5.579912302912138, -0.9966717374232101, -8.165731314431262, 2.1031866278403633, -10.745745154332058, 1.1619747923526775, -15.043043556619063, 3.8817972174302255, 1.4145685386666966, -1.3204012495279538, 13.415079399089452, -6.570082235301899, -10.807346563922808, 1.1187857300288366, 14.831487522609692, -2.1141744105566334, -10.929733819545095, 14.831435580678951, 8.203951498644445, -1.4928276546241288, -5.92198823640757, 6.295793234760608, 9.478744756908071, 11.135693681428458, -16.167701626930317, -6.402627456079932, -4.278425589662708, 15.598594959343108, -2.4592570679162225, -6.263525938737375, 4.3685192077483865, 0.008521294300182058, -6.743783622091012, -4.028229309970346, -4.339599528195275, 8.78154935455575, -11.259527778001976, -14.143553099449083, -2.458511842926141, -9.087350158773726, 7.200403600283709, 4.218346217018887, -20.055157403029906, -3.1096998665818183, -0.8697669035202502, -4.130782636216618, 1.9979500115884048, -8.283872333618715, 8.833928677547897, 7.375650489409689, -6.141768926861201, -10.776930540164159, -3.715287452484377, -5.596261786182631, -4.87496174221766, -6.019525084966533, 5.167015054701256, 8.440760674414863, -4.3513111558546, 14.226608510251113, -8.730393901961584, -16.0271295125053, 4.61807228502828, 10.387738149202695, 12.185621356062645, -19.772555724129475, -1.9494254085576985, 1.233180813307665, -4.730501126785356, -6.821511772811092, 3.7153447122508068, -4.237624788676487, -8.812141016891495, -5.787535436228048, -6.046046068255577, -0.2999618773875907, -1.8455292331680209, 1.857788647289639, 1.4050325110909032, 12.973984560766551, 8.010504224488493, -1.5066251850018362, 7.588570750764816, -3.172475153588656, -17.002569136314317, 3.3730224328193703, -5.326846316138735, 3.274394339107272, 5.51977420227269, 6.800930915361822, -4.000690490949613, 7.8284351443412366, -10.243218521148139, 6.638620846276238, 10.600078263099377, -5.823044697377558, 7.1324841976904825, 20.043262107065576, -7.816986675069616, 1.7861672864403055, 13.567756683343585, -5.151090878865968, -4.853533443813145, -4.062173876851335, -20.19184523141829, -8.311491822370574, -3.1452771701689746, -9.22990693548701, -14.27509748626322, -2.143466553885554, -2.317210773226197, -0.8249981110260493, -13.48775664429875, 8.73625740286956, 3.8400627881347735, 21.683775202207922, 1.7599581700521147, 5.219933791112515, -7.697731508490583, 9.499728075630891, -2.9685986605709114, -6.357864645659701, -5.270624437827292, 10.691410419533584, 5.172027058636982, 5.975587354592337, -1.88025862928131, 19.785784572190558, -9.351111681827977, -14.310574469208444, 7.733718956958742, 10.43263711737655, 2.5603869255278995, 22.367167222984868, -18.999245135743067, 10.344231831752028, 11.73740083402027, -0.6674128313351236, 7.456960090635448, -11.527316263511997, 3.2850362224985563, -7.805756583929345, 0.6899086494776232, 11.03675793368489, 4.5089992934877365, 17.261588557654107, -5.269883216608119, 10.608910379423596, -7.205658726476467, -4.4441671966931455, 4.937643093772082, 6.833892062616835, -14.204871198465844, 10.281645699419261, -5.609947566921619, 13.053952971144426, 6.085904690233955, 2.384002935440764, -0.3223327434995862, 8.203255061920359, 1.70109814007597, 6.008631547767219, -7.482728186838846, -7.429929912363794, 11.143206102978052, -8.235541680606802, -6.808272909221428, -19.173070688737678, -11.39224563627342, -10.040354127997347, -6.480465361664374, 0.03161821024005507, -8.851172243010332, -9.906784753017808, 9.702520941645494, 1.5356659759998181, 3.555679389004136, 9.433288183939556, -10.735048048011153, -3.16570424856413, -1.243373732633458, -8.778468522849604, -1.7133916021659652, 2.635313247557072, 18.35430733061184, -8.159784979517898, 3.192144844118793, -3.2488189240429213, -1.6715060334478256, -6.37121844422853, 5.350413569784754, -8.34241007910014, 0.6098252763042623, -9.174925958283353, -11.152220521767974, 18.3929292375569, -5.6724940149374055, 9.625174119293911, 8.12777031984438, -4.445406566973138, 1.235925977797073, 13.863750965279024, 5.6625434329071656, -6.486095491112438, -10.361681628109903, -11.07787315716861, 7.5643175626009, -9.851528933820747, -1.0673668630688034, -12.066860556538755, 1.5751226987466014, 6.128704377506131, -3.453232291580957, -10.439826131044752, -10.282321029527111, -14.804893191757165, 7.413933248916835, 3.169454668458779, 2.907812262043895, 4.1213157022141225, -19.189127544719273, -3.3933272425607366, -3.321619001748267, 7.594705274697912, 7.994909304457023, -3.8294820576406767, -4.268697410441905, -3.977345906714501, 8.383219919381332, 9.098905805274182, 6.364567789898546, 3.492083979021244, 0.1778504903057846, 19.110962919027713, -10.217062298197584, 5.438520382167498, -3.3394066914005727, 1.085402793644319, 13.015350407383051, -3.4799613928975717, 10.258909951828818, 6.552134786273065, 14.50465361525251, 2.927742445592713, 8.573624985687216, 0.5759234187096633, -5.661289899226768, -16.759276990651728, 1.9036179425614754, -9.16036546376957, 8.146067141387288, 22.030876128639616, -1.4777746489478565, 0.5896781804875436, -9.651381898117515, -0.5277073032598592, -3.9629621349329707, -1.6717496772491482, -10.409453876026534, 4.672511444481178, 1.127858831003787, 0.8141720323997613, 10.662562712121625, -6.49179676243469, -7.683056289884743, 15.297874857062912, -9.460605770179432, 4.417487116230484, 5.014764171860522, 6.320446706077582, 7.619771151386931, -0.5986444127230788, -3.700608607582822, -12.021512575927446, 13.49933349473014, -8.741596725825161, 4.503310527076568, -9.66403956048141, -11.38086015747287, 9.024287141999011, -0.388276176232512, 1.0458527077523474, -1.2432965104454778, 23.471043168959536, 1.3667989301359282, -1.3335057460486808, -1.2976825977199198, 3.2670006600215844, 24.083111048386385, -7.073678322089884, 10.11660265311139, 7.430657815053259, 16.356154661892816, 23.08528112503965, 3.5972933588346336, -1.4009933203569063, 7.6854947661521225, -9.22574025744924, 14.854221380591326, 21.24672486633682, -16.454670532530326, 0.1539642749471517, -12.71418625598544, -1.9977827524484606, 2.426574205733073, 13.51993457308165, -8.658910588553294, 3.408608563377975, -8.887956943328332, 6.596210371546377, 0.549163145745064, 5.743321503721134, 4.616318170421327, -4.582743343008971, 0.16811491302731507, 3.198810238311404, 2.044103935621244, -13.00960379084716, -3.2713527433338396, -0.8477007191023704, 10.381410628323012, 13.15476262024788, -4.408532669199181, -19.29146635413798, -3.569891678495991, 1.624294109441128, -0.3902523555491755, 19.8174363397418, 7.080210235736389, 16.087776348307173, -14.212411670430091, 1.1733176723974137, 1.8717793433736816, -9.723393524231664, 4.244897612260942, 4.050122947861337, 5.466139687284661, -18.291470067447346, -1.5838294220509834, -2.698830917065354, -1.9013491967405578, -5.082943810880904, 16.92624362381875, -5.869795096407224, -13.930589548433082, 7.32582108371277, 13.706385459354196, -13.075704490307892, 1.4995994557290142, -11.133467876095597, -3.559937208168292, 1.6563415511267197, 6.461133875088031, -9.348597057604545, -13.943334415712114, -1.5440890570262935, 23.330483960900466, 6.201281654623623, 10.320607828966459, -7.026998850729303, -2.465481920653703, -0.8324565070476329, -3.2272652270355335, 1.7343375331373097, -17.09794101220027, -2.845553634081067, 16.732671466203325, -4.07233409121338, -1.533015146969195, -4.161834648444032, 3.786447395469584, -15.189797445724903, -13.872370825114254, -0.7572948193561492, 5.273174706398792, -7.722701422271866, 1.5172022240511631, -4.915431686276337, 8.260705891574299, -6.57425579577646, -8.58166170253509, 15.253860959924673, 9.648417345345305, 1.3149373030262632, 0.6950102491586547, -5.485002853847804, -10.742647748016445, -7.294887059572326, -10.217182392644082, 1.1058930412069772, -11.546940021339022, 8.20126724231062, -0.17977893133965617, -8.108048951654721, 1.5842690021559318, -11.98328772912344, -1.0617359050029325, -0.21051085808608722, 7.924423863360012, -5.945433807554941, 1.8767600259811514, -1.179551033064035, 9.400237740716435, -1.3849056840619882, 9.64436788883101, 8.773207473209492, 2.4006356612039057, -23.113264370562874, 7.866222220360277, 4.352610911880482, -10.396858464402156, 9.848843054124137, -2.824620946490705, -10.737140753834693, 6.109413946785978, 4.429868810181738, 13.453262927159122, 10.877859547399876, 0.5059408522655042, -6.57423495795073, -5.806384821474807, 7.444352061374957, 5.037121724005793, -13.232316280850345, -4.556883427666933, -3.3228060582095873, -6.22460034615427, 12.50470128042208, 8.138455671741005, -5.4695992264215665, -4.4894600460444085, -2.5122569883973913, -4.834867128360809, 4.592404045915861, 3.5025851258086456, -6.854751074729251, -5.939837496875898, 5.918331397221109, 1.6100730615456256, -11.910562032903863, 11.420038988877419, -14.871785755910462, 7.122065958448259, -7.512860536048645, -7.921479985551835, 17.05860712062407, -1.7762370346935974, -5.524210507711641, -9.62656780698309, 24.090876227157892, -10.569082287961663, 14.00588750580032, 5.946886036921397, -0.2805289610754922, 14.486949751878642, 0.5096046974760245, -10.07137563889299, -16.633561330789327, 9.506989270804867, 5.019443075107302, -1.3844546021307607, -0.20165188399536788, 4.21664738804402, 10.215431399710859, -6.528189518857145, 3.721289105420047, -2.0899405692773216, 11.746049048511926, -3.4205662009413835, 13.841228086828973, -14.795894536517219, -2.4026727985637524, 8.557332647607895, -2.593181169378758, -2.5707523856420695, 2.6386811828031, 12.736149696855703, -3.8989352443930834, 2.433362988021837, -2.488007559913648, -5.481080657399692, -3.22473381526994, 7.496611210428851, -7.802401618001047, -3.9808521581810696, 4.928912540257028, -13.407883140391142, -10.138990698024834, 25.129269731498134, -9.343390213286016, 2.3465401802256767, -18.623475071530308, 11.042817535335198, -14.192477484718491, 9.592205424795917, -13.282331042925994, 0.7320981903830767, 8.846958746230436, 1.378370834272287, -1.067993467214778, 3.8791593297111793, 15.816551543994155, -7.734315964286542, -2.2203122590342086, -15.22462008578583, -16.59565862949269, 13.324229337689298, -0.13033167879007412, 1.5051657236489053, 4.931394140118429, -9.195815267394469, -13.37273678236343, 4.519261940746211, -7.9645244002708715, -0.7538922167243937, 2.806430747259958, -8.331656239670856, 1.91361155352894, 16.73657022807265, -27.5446229651875, -2.605708160712048, 10.16800210249468, 1.7230037575744217, 14.702762974372183, -4.406381515705257, -3.0851854836087464, -2.1466136690262068, -20.94548880674706, 3.102666314530388, -3.9577676890915696, 6.360907421640917, -0.16215259271881963, 12.632410796551056, -6.682423177014941, -5.713624814780813, -10.845668418093528, 4.9992772201929245, 5.065252071803216, -7.7631215975688805, 11.359090582475396, 7.553157205000399, -13.92254905954042, -2.969219686145658, -12.657629408150738, 10.769212539449422, 19.13630256523981, 20.457700015989975, 9.546003477231999, -7.168425898232496, 15.297148254447006, 5.0642812697236375, -4.911794509931879, 3.4822340793811453, 0.7388370392111911, -14.45243488099269, -0.16129446542391013, -7.266012003037843, -9.831204428694749, 3.0983484892831625, 8.03865234089142, -12.489785230365571, -8.636844197483097, 8.143648322712647, 3.4083576550472223, 9.096209298244759, 0.353757082064553, -14.133573352771437, 12.095182586294776, -8.294462854239168, -13.048509919111535, 8.272316042798916, -0.9033452610678446, 2.24293203274555, -2.2169004089815285, -1.9148993491674977, -6.563993939312995, -4.062115457858493, -8.249895382147123, 7.031628808534156, 2.6909613601106708, 8.75659493283214, -8.606619254902458, 1.6513489952532374, -19.69583033082723, -2.4911208793891806, -2.714091035762393, -9.401349476296538, -1.4122578349743868, -1.761522277874865, -2.426138790809266, -18.664438229824416, 9.15922645539396, 2.8651146593086523, -5.430514812221236, -10.106244809901025, 3.3091562622595068, -11.77741195523956, -11.884285341768981, 10.844836691183467, -10.800226969324472, -14.050271134501548, -19.81466820345502, -15.508925507896937, 11.996175725809337, 10.939546989803192, 10.71714576039087, 1.1010331951015564, -3.5738502023820926, -11.30579476813292, -4.698842295283195, 5.177218073434706, 2.6055971419618267, 3.028355782370193, -11.508081878627674, 2.981744570575753, -10.90202368391614, -0.11559392367462298, 2.4279675704269184, -11.4593136920035, 2.5435786644840235, -4.341350105494566, -2.1662736832495977, 3.9155135525381572, -8.013346411950387, 3.355444548859309, 6.49755399942896, -9.194607182445822, 2.7989671867856822, -10.188580959151512, -6.892632301570071, 8.915801547061532, -13.44952451312487, -3.9845004732112193, -8.92049267826731, -0.09646055397580233, 4.132797319756834, 2.5695895995740927, -1.0420486999265144, 10.897283425922998, 9.946278783562848, -19.924275039958566, -2.820004411886605, 7.108297560945027, 0.2715042009338548, -10.591446806853604, 2.972340741044805, -4.630387255342014, 2.961820096234468, 6.342817251140172, 2.457180644627946, -13.302486857888738, -2.7641366037962682, -8.529721908344172, 4.229087438576025, -1.7502872097049607, 4.982631332798771, -8.511033618089282, -3.8231968664458678, -1.1855797578342826, 11.763583971694343, 1.877894234225721, 5.629090029559755, 1.0602636192338166, -9.24674552127907, -8.456742561380764, -4.868548175311673, 0.9240165121362107, -11.541816490930255, -8.496160408696388, 10.944927210410244, -2.011318943984827, -0.13419830953899003, 8.339110570353677, -1.7035917338360838, -14.935466341621092, -21.873946377111473, -16.384100706355017, 7.43397398724133, -20.281300100981802, 20.26826525946169, 2.1995579758496784, -13.68843877161073, 1.0624420508171468, -1.8337037127702271, 7.824000359038134, -9.6092431524718, 4.066689636239521, -22.614736614735868, -1.5656538359123078, -4.399035500617804, 2.319942140435032, -10.389853021821317, -20.9289706329633, -11.838891615638826, 10.938416669620363, 5.23478717699837, 22.519950548003358, -1.1343203465211091, -7.41407474607404, 16.199837285657335, -4.581466176116571, 16.226122194287846, -4.550758107603063, 0.7304998538580607, 4.267842460181221, -3.414902867599456, 8.547459831383817, -0.770260833713077, -3.2840376785901193, -0.549797975853529, 3.6145145719827942, 6.815533311035045, 3.3434739808488225, 26.47322199521432, -7.790074005551732, -14.993068217186885, 8.0909847244591, -1.9086811520602893, -8.917019684001794, -3.4196299231225984, 7.783135108106925, -4.839703875965656, 2.1318529671004507, -3.8608847091747998, 6.861686959555533, 8.05011050178645, 0.392162597343984, 7.46517194126925, 2.2094725495193184, -19.969873416240276, 2.0125408051418248, 14.855116860309538, 6.2135134758934925, -4.93362281824368, 3.231162389718313, -11.821278802508209, 9.110034118367704, -16.414381406615785, -5.98489931269829, 2.832557320439479, 4.4453545907383445, 1.4632890141434123, 4.605462621839903, 2.994219319465424, 3.350081542525137, 16.787616652033034, 2.483530979900836, 9.706618554978128, 1.6741096641863575, 15.58085012673616, -6.099542338762217, -2.9966369688489136, 5.440217828376769, -4.578642760061247, 0.960889801434551, -18.280579979431284, 1.8099003350679612, -2.1655719332671017, -8.042360377347833, -6.4951375219158445, -1.3980555671690724, 15.25014426463926, -7.540500532504943, 8.613836032453893, 17.244696618285786, 15.397827588103942, 12.372153360360361, -9.653483720213972, 3.8505757142116135, -7.607095131447118, -10.702898275289433, -1.439913638800059, -1.5052744855200277, -10.7605158892797, 2.311969438228111, -3.082934747959512, -5.233290739737768, 18.19246778835351, -7.247861591497266, -0.5260542055983681, 0.9776811504723977, 5.855500712679091, -2.160658819704044, 5.252052454203076, -15.53898739062347, 4.390513214269385, -3.4287892387543337, -11.11454990914142, 8.271004282835413, 15.523324467128072, -12.619243409831181, 24.431706377998264, -2.3751634421454533, -1.4974481571250058, -1.273900465388433, 13.371505153671835, -0.22951157459984473, -1.7596411920967645, -15.132349015101411, 13.59802960789817, -0.17603337403772756, 0.4354610753742726, -7.207705110491368, 10.887662168629692, 1.6960767012101527, 14.289725301230257, 4.05367529911705, 1.4499421889114872, 6.46564883902511, -11.62241829617227, 13.847241906578908, 12.273298748650332, -6.466634993053, 6.1380611365441355, 14.888595709880418, 0.5053816711415962, 1.0883249823657106, -15.906532307466673, 1.8603189483697538, 0.027891667323353686, -15.097662696263212, -15.592237038060539, 12.32283967870291, -15.785450011473602, 12.248341190767409, -3.81672901210791, 1.1619823966133294, -2.912883833879935, 5.120968816008537, 13.095937750205673, -0.32022264963189473, 11.652758744244162, 2.159123732383482, -1.5228503045109196, 5.060026183930278, 15.084777575154986, 10.70623192366609, 5.137227452009244, -5.287402350799537, 5.85025562028812, 0.08075996763374627, 7.116913689256912, 5.077461492033376, 7.305009224688527, -8.261650534383392, 9.757563168438127, 3.8255386071044475, -4.810817454086888, 0.5542394805475467, 0.6838172714303703, -6.471885483544902, 9.175736323237654, 7.399773968462111, 17.401631236360362, -2.1078618516461693, -14.307006256599609, 7.559648651739119, -0.7318842436452713, 27.22034806966356, -3.5383707101020843, 2.2377217556142535, 1.1023466707902083, 1.733780365048227, 4.035722439648115, 6.412365668223511, 8.930921372999316, 9.399649362986832, 7.285392274832773, 4.950869220383568, 17.95576382391884, 2.525390002624835, 5.675798188589717, -1.7694727568599355, -16.797408958383492, 0.13532396131035798, 3.292445264975522, 15.35474063857281, -11.729870025193797, 1.062717738779968, 15.754721769274813, -4.554913708523618, -1.942130772317572, 11.97520512462623, -5.158758302464913, 10.77960480802922, -1.7183180797724984, 5.467933862009248, -12.93947259650216, -0.4363511103718014, -7.877611380522225, -12.171534251949852, -2.3518824116918844, -12.18182701933326, 0.02888284239722483, -13.224791824575927, -1.8586238615335384, -2.197214279149555, -21.236661553597514, 9.593733907666465, -5.471662035569534, -9.2132453311571, -9.931130619319456, 14.41845226957253, -3.4547692360329467, 3.1691494350464997, 5.918868263308364, -15.341102020507954, 4.8687889429321105, -13.009706229173446, 1.7892065834424127, 8.225509413225447, -1.6190656504755085, -0.9598509902162692, 7.135303044601519, -11.512667558269754, 8.368567941563684, 14.563553530280055, 10.39368043561044, 8.839183804197381, -12.158679088261875, -4.9397995939903865, 2.5585947406332963, 4.649711508655695, 0.8737324126032912, 3.2815282080763275, -7.671066592786326, 16.47238007142008, -1.2294852483181138, -0.889872817410331, 8.605303581263037, -7.25384806443122, 4.003983396091373, -4.954822577020322, 14.527183021725211, -1.2987052449218286, -13.615699638002047, -0.8310763659671214, -6.410881132542975, 1.2654350859087535, 5.684063660296118, -9.086899498764598, -15.000412360796673, -4.6542324702198306, 13.259216016906189, 4.199558689729745, -1.8259128365553883, -18.406594951794947, -0.8855706348768456, -1.453271258384752, 9.210845741636836, 9.049971597960612, 7.722509216270925, -0.12578667265448296, 2.1164780612728245, 3.7194794779413427, -3.9337552970854452, -5.715717320229632, 7.633060409261934, 5.489822974389868, -7.929588189906626, 1.1601390657731332, 14.041303062458573, -3.2149162219048515, -3.3051567082272237, 0.4488991473894314, -0.41843973305360516, 13.91821472743927, -2.4532021320016693, 10.65602436174242, -8.605522573380926, -14.303842391931227, 17.969959326933846, -5.473160326892934, -4.461180529355873, -7.558781799987019, -3.0141200347261567, 10.868324616414812, -10.497960926361204, 26.21997558076765, 8.25648829219658, 2.084326222540187, -2.2053523902164596, 10.707666487144511, -9.230283614282106, -6.681466112226978, -8.822883812178103, 6.50551789080453, 0.8089739499583003, 13.351481486569087, 12.159483828222513, -18.47481051912309, -8.51816922356733, 7.160852897044119, -9.132915919631296, 5.773447222552736, 5.541959517966599, -16.56498063178567, 11.851377744332177, -13.328812986034027, 12.608292349121843, -15.663412193885021, -5.881695842928605, -7.008145923500908, 9.776405016353717, -1.906713425407399, -12.627123897597723, -21.00430262216308, -10.701646946022628, 9.478255272265587, 15.422390886180525, -2.0107913763444127, -11.778657352896785, 18.136184767406274, -15.040046057992626, 3.9769501304362826, 3.812959322999709, 20.883674639822765, 24.870193034589537, 3.5615273813386317, -2.8543208307247383, 12.59376533617709, 19.414464145710884, 2.795039924145466, -10.1456002820815, 4.197090388688936, -3.4654063591414515, 0.22476383615581352, 8.449602743574708, 5.5209306189765215, -6.613664438715985, 9.855970033809312, 3.2552436360957855, 11.321051503433837, 6.852115654448381, -3.2279201076372366, 2.262131897562793, -4.751881607203046, 14.544428937616626, -3.1808599944084506, 22.932068369676507, -8.55885971570489, 6.473370442951721, -1.2915610298497455, 8.901898983560109, 4.892966795593604, -6.674701659328335, -12.661849007717764, -18.654992974034496, 11.008164284402712, 8.87206049120022, 1.2745024436910033, -6.858548408943479, -3.2216467287959887, -10.892525947117258, -10.624731864432658, 10.72774911336889, 16.21167210674476, 2.3426520287477595, -3.0892114564142212, 9.962943836399937, 3.3377763402334075, 0.6439868258979544, -16.953375644057736, 14.876526613523918, -1.2275205184691889, -12.389574386364789, 4.3982493489241135, -11.762997268884837, -5.38732467493407, -21.682546034725306, -3.4891629395167802, 1.6578600111829378, -6.945922426693405, 2.109863836077208, -5.2837936316155565, -8.227432526946043, -10.678159228650218, 2.825495116630596, 1.5227415070425336, 3.455096597149278, -11.92526281757598, 2.8301825248608705, 7.543814820518049, -1.100384891756789, -5.558406398918216, -4.390255240667934, 4.309979811977065, -1.0815461419004966, 1.5741610367746852, 5.313404676658167, 5.323228310482116, 4.592814029411713, 7.5547334581742955, -8.167007772618758, 1.6205842213538384, 10.937594218071133, -3.1761108310439425, -5.470814141286983, -1.6180789154186834, 15.547242991101507, 13.188195069767207, -1.6530371682552667, 3.7101244515378626, 4.370297241705503, 5.0081959844977275, 10.663804158677507, -12.926747819516114, -4.020764472851909, -0.47050577384146486, -1.4277329491799622, 2.8449489572061037, 3.4907710189787355, 3.917673263519969, -0.3410458175705212, -3.19284934309558, 4.5998268830800315, 3.4062781799491146, 4.198257147268159, 3.1520147515028625, 1.6201863308122872, 0.14214113987499855, 11.839106111939154, -4.097034954586435, -23.54540820596343, -14.525792819234205, 9.53876306018724, 5.388704953731228, 4.295926698418646, -9.19116250230057, -5.222528284651921, -4.268625493236569, -8.343623948689448, -0.7963975458149172, -6.7064817831879395, 11.795415334795468, -4.156226929385188, 7.015128569309129, 0.5086227377327848, -8.846699248775284, -16.447139550362188, -14.096332548043131, 1.3432582096498284, -6.011399503043732, -13.005959033485684, -5.982249417557136, 6.071812884723198, -10.805219654894922, -0.5482357811484432, -8.264326873183595, 14.91779179893831, -1.1794154199254256, 13.844364328965597, 6.448128671810141, -4.9532899171234845, 0.6410726643769867, 17.40049378723813, 11.636189721470968, -5.32890352432166, -5.693173445207457, 2.470025854060694, -2.2005960296546734, 4.666169679817685, 13.708894481624158, -17.011924312011843, 13.297883493535707, 5.700212714681481, 3.152649914855748, 6.066331066167448, 0.9631492523735059, 1.8448846380479313, -4.922157613221957, 16.379071568692424, 1.7936616729045787, 1.3630769895105732, 9.00143488367131, 1.3623952535513362, 17.819872796451904, -0.10478377851322657, -10.879973096964129, -19.11514189833974, 7.717926447189542, -10.490336928394484, -4.16338380911199, 9.610376504087418, -7.94922635886817, -3.449656134741085, 2.924346107909381, 7.120382095134659, -7.179721598309872, -9.682771487816927, -6.935770226715307, 4.342329007000133, -12.61601291725208, 3.925259586726607, -5.68107704206222, 9.83884897177702, 12.890352009522939, -2.003874029416157, -8.926658842281917, 14.686658104995363, -3.804482836635626, 0.24434192354791606, 14.091934192973971, -1.4189162067725478, 8.487793918874367, 1.0242185231723604, 3.977992624839276, -8.443542429756272, -16.800010268243383, -1.0711057545950857, 4.459427444471536, -0.33104008598177215, -10.377518924152431, -0.07696174235723396, -3.261764480395805, -8.332444088606378, -13.177412156496278, 0.5696957211257218, -8.451309921559922, 12.532938188449714, 1.7629337136598715, 1.285443870463165, -3.3500938413696852, 3.675904749905363, 6.5705662997850345, -10.5024771314466, -6.301424579742339, -13.518627551345642, -25.59861229011246, -5.289640647841175, -10.147849169873936, 11.616772062230801, -11.554347178875968, -24.261597572090515, -2.2217102616706663, -2.494707687943288, -13.912973565720344, -3.8062988331970993, -14.323710477670947, -10.173982398068603, 9.627942305380063, 6.881992539773867, 9.474186249339072, -7.232246774291316, 8.875046656328404, 8.154170377635786, 0.26115911522660495, 1.531595301756841, 2.3724292936106584, 13.427145279662582, -5.049512647770125, 10.091100324496356, 22.310077016767135, -13.353424743866738, -9.282730935488605, 6.983345646963891, 28.118110754440995, -6.762320559101129, 3.2464749969424633, 10.990826152620116, -1.9526132084226315, -9.08992207702831, 3.292319514611944, 7.752568889848676, 7.217858358258428, -8.88244331377309, 13.527186916267134, -3.163656773735024, 4.592766763269056, -1.896305627332734, 4.065820372877502, 2.0258439167919167, 0.7683741850886168, -1.3919538946688008, -20.375648669617245, -7.132870529889573, 3.9950287083440825, -12.06287912260414, -4.491737342909114, -12.470935864932908, 4.936708721794348, -4.69812444439776, 7.6327039075621474, -5.566853556646181, -11.535858204859068, -1.940384142572655, -4.883020626846394, -4.232430581840929, 2.575871714830882, -4.9641887495057375, -9.410218303547682, -7.116298729701323, 3.372385727457937, -5.549692525754475, 7.144849559639382, 6.630324585171575, -15.827612551893113, 0.19807618499107793, 9.624241202446713, 5.92275081844854, 6.835004542576909, -22.79655503167096, -8.833950719201203, -1.4946067082535728, -5.929886108109619, -0.7145049708478836, 1.3978544935915138, 14.132542781384792, -3.555069047113369, 10.037268654014795, -11.768364518621777, -0.16777084943739634, -0.08370779805901263, 5.077308029960775, -11.86729095374213, 1.9769540991625452, -4.400274464891283, 0.3466874053217289, 15.938729189032932, 2.198604031436362, 10.232103669535626, 8.538338851671512, -0.7977384778466701, 0.8212478869103652, 2.6190829722635787, 0.7814225289896963, -3.3605431466278413, 10.7180580448249, 13.198201822019794, 4.360021387216169, -2.592220431519664, -8.385162143793384, -22.250360324222925, 11.006451669929767, -2.3088984771513807, -13.584998147457766, -6.728939960873404, 5.0274390582471575, -8.806978424290794, 19.277810390253965, -1.2137185995937916, -13.642567683719154, -0.7121424419324796, 4.1093236854291995, 2.5609208078699606, -3.57132842066106, -6.349625958283999, -14.216226909306101, -15.051039910383423, -2.1406414933348357, -11.001614385780218, 6.411097008584151, 15.632151529633497, 1.271269010018855, -15.429380477823818, 8.05817611762786, 2.8747460669621914, 5.992440617236776, -2.5300447888741453, 13.043375630307434, -8.30113902293343, 2.8613701740052306, 7.560181541804099, 5.390749323875938, 7.899675004812575, 7.255500721519647, -20.372585683827293, -1.4846417580015592, 17.475145884270912, 5.6013009385672685, -0.9241850323178928, 0.027512795944145088, 17.106668588888542, -0.2453114695917778, 3.6077661717855087, -4.980753132259069, -4.117226984738829, -14.005888808014056, -2.1725920122314966, 6.6885533214666095, 16.188393940168048, -10.300871892611132, -4.642472486922832, 0.9596145640304938, 0.4217713199673274, -13.302968975055748, -7.213749603391512, -11.648651269762704, -19.3562226702849, 14.681476968869585, -3.634586303445774, -3.449924006850946, 6.372249864165941, 3.3776751097556508, -11.906571494902703, 10.300852221051711, 3.4379469359179735, 4.331882505157494, -15.113238786533518, -10.23262569580804, 1.2281070910944731, 21.817187860975444, 4.569983378048563, 12.544658958028588, -6.036310060478976, 12.592242455735207, -11.634885562651487, -7.536878628123455, -2.350805496657191, -4.259836316456965, -8.856360063809309, -4.458001558989555, 15.545054785952395, -5.54850842326751, 17.05330298342319, 15.220194375030296, 7.443471014577095, -2.7442152689956165, -8.76001167146563, -0.35132540795249356, 23.310851869592188, 15.556919911765771, 6.072954890919132, 6.6815198224439865, 5.174882063896519, -16.4280717198998, 8.061937831209883, -3.39236713627687, -4.748648647084928, -2.122111824508185, -1.6980611301212365, 10.303399307581975, -8.484757712081521, -27.812593315399255, -8.893014165452191, 10.133258208847021, -0.38107978272438847, -0.9860351781363041, 14.625441512135739, 12.708738340448722, -1.8091632101682198, 14.681363481974413, -6.838670050467701, -10.300349999386196, 1.5594031621300841, -0.585669658819878, 3.5565599260491565, 11.135394998662958, 8.512378576268041, -4.085355751529377, 4.405745167471279, -1.9920495532006284, -6.4284072255590265, 8.117106954163647, 5.683601267900692, -9.038305470365733, 11.487516740352143, 6.358584947542514, 19.340225466804142, -1.6358635842286873, -6.158768990585784, -7.62755493355443, 14.255844897985929, -13.450012692910017, -2.372779882943693, -6.1184539267421805, -6.919380058674661, -19.33174520283279, -10.7668363797413, 10.757152164665072, -7.3191828722198515, 0.2617147584197447, 1.8085445422770083, 5.838892065356424, -1.0207737380248072, 1.0399658168954988, -8.053738602851695, -0.755520065215184, 7.99919025598791, -1.8728793074902483, 5.605941167983064, -5.612128503764345, 7.6755225839448515, -3.8892736565214827, -8.141593518378235, 14.055858389153972, 17.965353957465364, 0.5998595422160953, -10.546166430040742, 11.008271610178733, -10.738620921864328, 5.835612427079656, 9.37134016284351, 14.589584935394882, 16.461746081128776, 11.900767380165666, 9.85206834339753, 5.325568967912847, 0.556027853607985, 10.525525878942599, 1.6444156026986008, -17.106805917536708, 10.051237011170233, -4.099583991263018, 15.035487871901491, -6.30084353720545, 8.547247377176124, 3.95036081353382, -8.863270544583315, -5.3544228301932915, -8.834305055954065, -1.2391156537191588, -8.173068821164089, 3.6088279727616177, -5.510082712445227, -6.476265516054124, 5.124244591989993, 5.657766381353432, 2.596564394539309, 8.485102773403533, 8.222865493919313, -9.32890611600455, -1.0467385273722662, -8.462240865844882, 6.9138619649280315, 2.030569402526261, 7.208044880780235, -3.65097000045393, -4.2293245262049, -9.658021816244915, 7.090966816547553, 13.409091670496219, 2.534487249852849, -9.676923754394279, -2.8946786675877023, 8.404354131894086, -3.5710489595991755, -6.235670581529743, 18.515182320866877, 11.548188622360621, 5.25816937710927, -3.5223388141147565, -9.567293307940888, -16.32732976068263, -7.259701071118159, -5.12301549451605, 0.05145100135746511, 14.81961015960184, -9.170733740496692, 6.1124385238400505, 11.88183484008059, -12.092298353884127, 7.9600292408821955, -5.553546091295027, 16.818032712156356, 2.2750696376842514, -1.8703750747942367, 2.032501608455294, -10.753167377786454, 0.7268741778683986, -2.8941158030468386, 6.078172111487188, -8.328054190945679, -2.6603912121706053, 2.184438023607089, 1.2655146140080735, -13.825232179092849, 6.711928800081702, -7.497314195507197, -18.503374979146965, 17.180157796650708, -5.217909139239433, 8.921445210272012, 5.40206831386797, 6.003335553252247, -6.90757764235389, 15.867051089150218, 10.439380377856146, 4.061905732240309, 11.892749825474471, 0.6630401546365952, -7.282494573296014, -0.844567335960775, 16.700904679163717, -7.589688990602095, -2.85085856975649, 8.598140321027122, -3.7646753880273938, -6.097176267050447, 7.907863891280192, -3.1198057500454746, -13.002502576726174, -11.191145196382678, 0.15914571120112836, 8.646606254209518, 1.622543073589198, 12.362993412759632, -7.254220236056444, -8.943208821240031, 10.747548323169205, 3.2707198551758365, 5.210146206780813, 13.816120631536931, -2.2037262379465994, -3.4587425203175934, -2.9425939845519773, 2.2254683552573713, -0.8487803959767821, 9.512320406924559, 11.055378277867387, 4.757762659286855, 2.721072384312786, -2.6893546887978186, 12.082389295999251, 3.4462055965928884, -5.616833799043287, -15.096845760624443, 5.735535356655349, 4.575844567310047, 17.95085531721891, -22.814585196399204, -17.319129386274334, 2.232033568549055, -20.711856525673017, -6.164744522922355, -6.981158790723804, 5.414696780688318, -7.930054531286224, -3.4241361630524576, -1.090380300519406, 4.330800880169172, 4.831157371901627, 6.403248355754012, 1.5345905575776175, -6.57800216564104, -9.47843615296068, 16.08602681685754, -8.478897150708068, 0.023538172134945468, -4.0525448920749945, 17.23711848711846, -3.894425038601396, 5.690949202649169, 8.482236332919548, -1.5533380623350523, -11.219868110780064, -4.006739198589763, -1.2597130193196306, 21.547248008687276, -5.247176939773872, 3.7686364145014664, 7.503905082696625, 4.184371844871649, -1.03203576398784, 11.960729680980164, 31.9966903834887, -4.771256945829127, -8.31313104561713, 11.54447046697473, -0.1630980384721388, -9.06237624635226, 1.6861772938963226, -0.2818919977022889, -13.695745525332637, 7.470462658144542, -8.535046170367492, 16.95100184855605, 5.593768630961349, -9.899070305852216, 12.184514109589507, 4.228396017297149, 22.35915579178602, -7.449840504215089, 13.065122370063023, -5.0190515886807745, -6.620322663431919, 14.058187673068126, -4.875589544168067, 9.301047690943708, 3.1391697433492562, 3.1122852578687885, 3.5281588421615755, 4.707851933825669, 23.3727192056304, 3.500305508580868, 1.9911173949927066, -0.009146894902604341, 9.884795160379689, 7.45594198413695, 3.469359187839701, 10.338808845931036, -1.5680337233425286, 5.068626854274593, -1.8105557580037681, 5.875378513158223, 9.983783669910487, 5.826621721453001, -8.167506130694457, 2.9712262979306128, -3.462144770139635, 14.796562962090974, 15.581484852786012, -11.523597190121393, 10.01587469743371, 6.5606568689763884, 1.4628219426162608, -4.389863078157871, 4.1680526107816585, -10.355884601874818, -7.019800165174619, -2.049989873054133, -3.355730746297328, -7.830947308949273, -15.393735358401523, -9.256859759335853, 6.580262775345832, -2.464431894704963, 4.464071047152846, -2.610404992044953, -2.886317146342904, -7.757054057906797, 2.9660326150552665, -0.14629673288166806, 8.71869303351657, -4.164801014418313, -3.4646162370492846, 14.758646840735828, 5.078751127016627, 8.181124595924775, -11.116935633515478, 6.586900930818666, -23.115725142197245, 5.84182081174289, -4.2423212923759195, -16.765885390075418, 4.736001349374699, 5.69075542570864, -8.944961214592194, 23.882235744249662, 8.426354660608487, -16.148846659859036, 9.908787022076616, 0.2725083597197407, 0.23877775722366223, 14.427097357002497, 5.353763419233258, 20.31831351955758, -8.337388988692172, -1.5521505181492832, 5.811419371644512, -10.605329654978839, -18.976484897820153, 6.799869179485786, 8.275558522570435, 2.107631706702298, 8.354610274700258, 25.11271917849398, -10.056540090122661, -3.385222173020708, 6.078268849042603, -8.471750578799208, 4.40409198070385, -0.21154696442492504, -5.561588582124219, 10.733103187528275, 6.8324800348917165, 5.030844866859194, 5.573449442041498, -5.767267601301594, 8.275607920335814, 1.069705678337026, -0.928410037114069, -1.8411360818998668, -3.644064387936367, -2.658109365431817, 7.059721429634804, 8.137938473461626, 2.335246921510464, 1.2818696500782154, -1.4787863982210174, -2.752526946528789, -0.7505390532226608, 8.49709264452602, -10.244004413384166, 4.85984629429659, -13.846414430261767, -4.29269872414539, 0.4903443196882153, 1.4135967718401634, -6.4647752784148445, 3.5263420128982763, -0.7704286907687146, 4.657804835825804, -13.762130088884525, 9.08941474808218, -0.7657655145174354, 4.139349486541901, 3.261078062603235, 13.632995562282849, 2.0188170281348614, -2.9780784550354027, -6.7856185770440876, 1.1763865748508349, -7.697683261057326, 2.515682020086695, 3.1480845203971164, -0.5264737316306873, 17.155678359734154, -5.972290767836527, 12.247142222697866, -0.03658240312012029, 0.7478034473334676, -16.70280934416704, -10.667257290152504, -17.266168076301692, 5.2856890062111725, -1.6380776206798024, 16.649272777856968, 12.74482302259682, -4.489085618692477, -3.2539549805930807, 7.825407718878819, -13.134051896635516, -0.12559755411512574, -6.006030099253949, -12.59268132357783, 5.44311555525622, -12.704848833606261, 7.261046827608809, -15.087919515953555, 2.080775034574319, 1.2462747829096932, 2.5604827513294084, 0.733069914400665, 10.80960391391661, 25.566261472641244, -0.5473369827819796, 0.040859710023568585, 7.202499619350177, 6.043536369225161, 4.445311450306354, 5.503606005543617, 10.004382246061446, 7.045590852366146, 7.28732743201763, 9.019372562197455, 5.086857824869939, 9.077463290277107, 0.3001149966328203, -6.419444703457229, -4.432631220513645, -3.2098709570521864, -10.410131032293826, -10.645835822160748, -5.016995665071661, 8.550851491695585, -8.849324019737004, 5.608594618532718, 3.6414145600967105, 5.420806608130835, -2.574759334352536, -2.2688288859469576, -7.277975699331604, -11.150937209709824, -0.01208837734934387, -22.82375345714424, -25.547150709016176, -2.9768960142983074, 8.278207324773884, -2.1703058794021035, 12.198301860832212, 1.181923324034337, 2.871309009222768, 8.476986385542132, -2.864746314345701, -17.46135298892217, -6.21822387611933, -7.1173092263969435, 6.170342199890047, -10.318857265496112, 17.194619212272894, -23.182702291500593, 3.4229235975088423, 8.962429749904292, 3.742164720588143, -1.7754181146956565, -21.011185436060686, 4.448512064182266, -5.580605025816364, 2.604535771553537, -11.282003585943194, -2.8831446540361614, -6.015520283932961, 2.59359498981879, -5.8261745146855075, 18.267916760930262, 0.08110321538969933, -3.966995961477815, -0.26949293112463335, 3.741833775340961, 4.421579936607904, -18.607939880157573, -8.457911517838788, 5.733955983327783, 3.6428101266430577, 8.067579494618197, 8.204427501222957, -4.166202991777088, 1.0696893971753307, 2.085579288105386, -2.733296520128324, 8.312981622219981, -3.9798554458052515, -2.414963616100853, 1.083538776247403, 0.9217782142065574, -23.3917001518817, -2.475372419378652, -10.044609554375885, 0.7477730814737457, 8.933500624702987, -4.3488101486532855, -11.700578059437147, -2.1689267476075083, 9.897228986151951, 11.323193667768166, -8.803957388082512, 1.468568223207246, -12.969120552089256, 12.264908444498221, 0.8601378940939152, -6.828456086016633, -12.080402040840486, -10.963452823082713, 7.092941638593567, 3.3283702959560713, -10.942629725529155, 9.367201961818655, -8.576662259833812, -14.85167637136216, -12.280287980046488, -26.85438627669954, 8.319188368601571, -3.2216817068636057, 1.4116108716182276, 0.9028046929592055, -8.204216177138857, -6.004250372927019, -12.815571249041616, -11.913719643145923, -3.267932784821501, -0.8682643088248266, 14.5711488180677, 8.119869751172166, 4.60019401920738, -18.157175648477157, -2.903987324177231, -13.736064911019245, -9.142199257744876, 7.8651447438823965, 5.1854372465534135, 0.5976611701115875, -14.296808296487905, 16.69611902011361, 5.48768994485194, -4.908476981572887, 6.667954953409468, -13.981112996261455, 2.5191023611180032, -14.825235543445492, 5.12142671687166, 15.982177199708795, -18.652291312534263, -1.2696416315154166, 11.27147984489614, -2.1784864262615407, 8.47657955284687, 7.453192141145511, -4.994094433299389, -6.627769024173832, 6.57200566748666, -0.10127578259225628, -1.0205279383985797, 10.973591348453663, -2.2813991659276462, -3.8047419939540976, -10.057393212939008, -0.6520365051121623, 9.975216944789222, 0.38625882021003377, -2.0099029823233123, 3.6069603631852414, -1.4425699473414386, 12.476985453207597, -13.98057245973802, -7.706387366053018, -5.316649953982408, -3.034912920567762, -2.5577736246354004, -9.112580984882374, -4.873119933017385, -9.700376996045863, -10.494550946612778, 6.661488334251389, -10.263210986000669, 9.697744629885635, 1.5651673736886447, 3.2404169757587367, -11.596223411186205, -7.064605600394696, 10.254482839837378, 5.269918829429506, 7.4193471808430775, -3.1350522306848747, 2.121080840684044, 5.48686450155495, -0.13745568102149386, 6.967754693578343, -3.8167169902839855, -2.662321597806289, 1.4626724855835251, 5.496268513687822, -0.6712160800111671, 9.052673944819446, 0.6437024289819984, -4.741606178737489, -0.32137988526766814, 4.891377743367961, 0.5009358807395905, 0.7101280221531852, 6.383882246486355, 9.995671615205127, -9.655585519523733, 19.063568255992067, 5.120771600236808, -11.022220773484747, -12.764893684376654, -10.729870931040105, 2.6865221779683877, -6.0817573444489845, -14.085000604030377, -1.1334821274794726, -4.86287625038378, -12.16415670110293, 5.145174442327944, -5.7635018854968845, 1.5536819071319163, 11.105920644114086, 3.7302657431719832, -10.78450809875189, -3.0760629436479237, 2.554945523073905, 2.76898049903249, -5.6055351109389795, 21.601375715988866, 5.1843873113672, 23.140275357812424, 8.976505817895363, -1.3602745480938372, -4.421882030434131, 6.52950376529101, -16.232197330138526, -14.798167076220489, 9.202256138403131, -20.105609496632464, -21.69782426698904, 12.77081394165138, 1.1162700283195417, -9.65699042686913, -9.897240080209459, 5.590547229409546, -3.6945197968148418, -4.705861898693563, 14.353579307339158, 22.08999939508399, -3.086753763730429, -6.032951311660067, -17.36147916022164, -11.999004413965402, -3.2857550254511985, 2.9872963946728586, 9.203207030391539, 19.437225697558976, 0.07023802381187075, 8.7805267424097, 0.4468465165095802, 5.461893384287879, 2.4512092800346266, 3.9373884849916307, 13.5805455983752, -1.1830780699451209, -21.630579216791677, -6.169818681196852, 9.200849675391494, -7.3348946652081715, 12.120037169755385, 10.932725553141017, -12.224786235856037, -8.289461431679285, 25.05488236356783, -10.767831439968854, -6.104570769249736, 3.6179521397075645, 11.79492784984149, -12.524338346800223, 5.287801154098713, -8.08840130886262, 13.74096454427162, -4.751061471191303, -1.0786823829453753, 4.73189706353572, -5.392584116559971, -3.65374951703076, -11.371362841931951, -0.13878235198810804, 1.9258809285443044, -8.837042012855868, -3.5271333810454406, 5.98625916795648, 3.694280147589626, -11.222585357252907, -15.96270656840762, -10.772890017213571, -6.713597144860133, -9.466424002368932, 12.420101430050723, 14.013862337423607, -14.491494938028616, 4.365905142669507, 6.229578073204687, -7.345200910020087, -11.498853814002384, -0.34569934445610534, 6.052150430290515, 2.529602933704486, -6.329698078582936, 3.9475397368814207, 1.194203638770963, 12.230017927924312, -2.6241903392978867, 5.852390687816546, -7.517651874666996, 5.498733213169975, -0.7057772104607393, 10.469837764500989, 18.663666755545172, -0.14462450840645905, -7.203132936774232, 13.460042709952367, -9.55445367801532, -7.747740495924447, 27.265263290641037, -6.10586181257025, -0.6616827056467277, 5.740306327941665, 11.88041170649888, -16.164507133111517, 4.890303171072209, -7.799060227721944, -9.502034763367584, 16.38115610252983, -27.875827176559334, 14.876978519101499, -11.41157774456394, 0.9018176163155787, 9.249013749344236, 17.79224722149366, -5.639851755878906, 8.111864656633841, -5.609411845493168, 0.64749528936649, -3.123169037600291, -4.339016858662412, 0.8000122553923756, -18.554875320913787, -4.53789971735768, 4.810937592460879, -11.564030218537901, -2.6920844664009014, -16.859270477812473, 3.370354893684866, 6.988389865818507, 10.721487163192348, 18.869705025170926, 6.290859722527156, -4.450729003587688, 4.73061181610195, 5.41684342813271, -0.03234814875740705, 3.0701941953298157, -11.021471636722945, -3.750762827140697, 8.12338976680198, 3.102114955131441, 5.071529382991432, -11.04385229313742, -1.0639734010857476, -7.182027095215462, 11.353870628234073, 3.666914937612711, -15.143912324590143, -4.262016297367124, -8.933379614059998, -11.249335572697646, -5.582962066857581, 3.124324206239088, 7.819576710974662, -5.1006247899117225, -1.8008364590504693, 15.35772808332753, 14.41025290044542, -0.2759823914158027, -3.610782038400845, 21.120430082664484, -13.272015970270603, -19.113950693013702, -10.310113751707107, 0.18011091595021997, 0.8945020145190921, 0.0008011146090320526, 11.928386026243928, 8.316302604017865, 15.686228562803034, 6.003192635444058, 12.740401838039919, -6.664802100990431, 6.176362249923074, -5.238842310532047, -9.936903095770306, -10.050356627320479, 10.445031626471522, 2.7960158026857886, -11.112761896235574, 1.7834585089787742, -5.581725007224748, -4.283704140240194, -4.520974746153304, 9.577306619639794, -5.203019085391416, -10.411867576220418, 8.422812306311874, -0.7114154471353227, -5.528218704129767, 9.078136138681455, 1.9126974923391165, 1.4255391004471982, -1.619331089653524, 3.5171139100147712, -7.521111345311419, 1.2503638265402675, 9.571169481279606, -1.8997750981684924, 6.179344445513756, 16.38665180488334, 0.9217194928410268, 14.333332970846456, 3.946054580535047, 1.7836801960797282, 11.759967538710315, 7.266188000356765, 1.218219838473121, 5.786291922874291, 10.04834261757957, -15.330752788638096, 3.9834218653136046, 6.723497106664919, -3.0286713527046536, -12.64491950174472, 5.8978042093528975, -25.052616527519803, 17.8856473463118, 0.9375561700641915, -17.41385251965172, 2.608079243593627, -2.43181322574022, 12.038564509930845, -3.4726176248467455, -13.508969281830824, -10.085893317558808, -6.795505933534587, 9.776996326079706, 9.373429281019733, 5.679926806105492, 6.936852486316125, -6.366535122993609, 8.026003536100358, 1.5222015300702716, 10.447114350007633, 2.7417582825112428, 3.5565036255636278, -0.06838488883265181, -0.7180457141890398, -3.701394466569073, -12.081255307030114, -5.605157375827373, 10.301763863196157, -14.830783489970948, -0.6997582697990057, -6.2626303766566815, -10.048396277384748, 22.775609395538687, 0.36170196670389165, -5.859538066995843, -4.042168215588437, 11.363172816935776, 7.360697022691252, -0.706366141039886, 6.322427970370417, 6.0854880621944645, 8.5988397125971, -0.9710235117274513, -5.013002017739455, -0.149475317123217, 9.609560681799834, -14.502640672654028, 0.6168264651475105, -4.488902673038051, 12.494883988669434, -1.7056251857302924, -8.955304917162758, -5.48146609483798, 5.406829703446299, 3.047805764772413, -5.158551909675266, 4.870677587064343, 12.347593602566679, 4.895445338892374, 3.0661498165010572, 15.061870155766078, -9.335411221468414, -9.045583665318171, 5.944524739987851, 14.203620171643164, 1.4127729857218407, 17.438208678888557, -12.434101321883663, 5.865584029245597, 13.571343219495017, 15.246781740760412, 1.5127232499408803, 2.3127958305766527, -5.688266694257031, -6.340274413750094, 23.032957609442448, 6.030566866122934, -5.153485942455485, -13.386085294566668, 5.593557551233841, -1.8544902940217103, 3.3453201078093873, 13.89371577946225, 1.114562905327, 3.800810725482058, 9.47774847063839, 6.567777421648881, 13.421721856185387, -2.1613874488541938, 20.54956269502734, -1.6881293967654472, -0.577365335439771, -3.1656457433533665, -2.3192775310233, -6.196448045690497, -1.5694677732133675, -10.252910490110478, 6.425537303083827, 10.883049203631769, 0.14398729566802793, -3.515262079127307, 19.08541862013009, -1.9349799549116722, -3.311927284258476, 9.318009859653909, 5.875059787405369, -3.2302232086381695, -7.627438447206002, 4.418727413203518, 14.677348482143964, -1.5838285893168391, 2.432390452977083, 24.860201239593906, 5.692751797564413, -9.208387980341625, 0.21435028556798275, -1.8152426473339824, -6.0707531099513785, 6.476399135533786, 2.3112371814786776, 18.515055999153645, -7.940786399004756, 0.16390155604785028, -15.407372773618922, 9.181108452114227, 8.089936203597345, -1.153254774592056, -16.86464129203259, 4.417558875316748, -11.852299529931548, -2.0919259987372856, -3.159855933527534, 8.632391085736762, 0.4884189045821411, 1.6658784485735825, 3.0492741310412583, -11.585779908019006, 13.64789171751629, -5.631961664726787, 15.468673123399048, -6.77649787909995, -9.199959448052335, 11.533164327787498, 1.942548307121223, 11.948421060876848, -3.0735246476913916, -15.373474319845675, -5.359158154588135, -6.423374018307555, 6.124823427731491, -7.534134978523766, -8.751764375556824, 9.590204637995901, -3.254900906802271, 4.123437663878162, -5.826177380404842, -9.39258437677467, 2.1640137500385337, 17.83030663984037, 0.09487577868064917, -6.797139244222962, 14.980919783857532, 6.874108851501723, -4.500245728808661, 0.7607023590551569, -2.0613960168230663, -5.058695918852676, 2.9193746738481643, -9.52028158542649, 1.495322013714591, 14.20136265981894, 13.61690167746906, 1.3323416648555757, -0.9061151598177676, -15.482283947302486, -12.681408629727398, 5.6997167610705075, -12.127823861179957, -1.246204780766824, -13.244480763368376, -0.864922889867138, 2.1402633342216792, 8.392071633949428, 9.384454648929408, 9.397126941494733, 0.6017980437645747, 5.76595755008374, 20.22988935146412, 2.1176981165274387, -3.2678273763880665, 10.190600008924626, -12.794087532187655, 5.404164869720655, -9.559388239707319, 27.80038770987317, 11.851339345886686, -12.854631114484327, -6.555634686869795, -8.022565529223778, -7.507989217757254, -3.0562409226751606, -3.0762777576197378, -3.629266824130377, -9.042020930627894, 11.653775493212777, 7.11348442922996, -2.176329325905681, -6.587100079944096, -12.351868285383874, -1.2756938995094433, 3.385637253799602, 5.571550939518738, 10.920780171301276, 12.131430284481205, 0.38769589855086306, -5.713094960508966, -6.555027476478331, -2.7400163700515154, -12.900434723230665, 10.056723664452598, 8.096184431644938, -9.11879701809929, 3.8022517476649464, 4.051716302788257, 5.409376457602416, 4.1825502571854996, 16.432800350251473, -8.769648923534849, 3.584724778833156, 3.9664982996545692, 1.3463474927238195, 4.7306730775485875, -2.5220997592332477, -24.139847788119095, 11.11622089730231, -7.51762617088459, -11.75837211964004, -16.739159556620304, 4.937356308204371, -11.0378201183159, -7.41857879721538, 12.88229131983044, 8.589815988832196, -5.581601197795245, 5.173159672098636, 2.887530874606557, -2.884753158744963, 2.254137579700402, 1.0089883081399984, 18.914215221689787, 15.077738448794273, -4.746229872233597, 7.848518226968005, -6.825647346573126, 6.380291988149295, -2.07421400091909, -7.327875331726788, 7.542670518412143, 12.284958297070292, 8.754837416147781, -0.748507012081264, -9.457412471109595, 12.611534741862133, 11.616341979837658, -0.32525782483646104, -3.9091100700905215, 1.989512586728957, 2.4489716342196215, 3.7162908034202498, 4.046427468084968, -3.148886437426698, 13.457186817176806, -4.857510306253276, 3.483042978903446, -17.025799608606253, 11.039184540853741, 3.9455785263464915, 2.2607472468868575, 3.414048961930734, 6.576242476221076, -4.719334961217629, 12.435421108553824, -2.0827393422864513, 6.29074001699368, -5.735085847164265, -6.398017629214548, -3.559696368217257, -5.102693761783443, 6.764156382945443, 19.195874138452897, -0.9523071559997606, -0.6250541742852069, 2.721400643049234, -13.708887648975505, 8.784247734273729, -6.621805631649141, -9.911704818229921, -1.7887519160010772, 1.4273737349300148, 3.7140710480558696, 0.4555861032225634, -6.041571123871458, -12.519113354447226, 5.65753692110254, 11.262096565653755, -7.786574225020408, 8.201518927748845, -10.904890180451249, -8.621441085262127, 5.771012794625364, -14.33075058165068, -4.637431832667522, -1.3170642811294497, -6.411323807737434, 5.121811899076771, -6.502230023984519, -1.612628472263044, 9.604326270111988, 2.426248499891027, -8.148889679013605, 0.44956545604033404, 7.884151567416547, -7.03024829676581, 1.2441563216151472, -8.398526902785534, -4.320409082051846, 5.64894544206594, -11.60437611773801, 20.688782351775355, -20.18058119820304, -0.36194172434992233, 17.61173191107043, -4.340934709325727, -1.2792446414198917, -7.965735825295372, -19.350831954911204, -1.3620821567208612, -0.17750792150367137, -4.689361680782371, 19.639330723537185, 2.0168762695589706, 2.1603223538711567, 6.551151010576984, 8.292001766122238, -13.12585772169567, -3.85723158336286, -4.954303310123489, -15.006399796034007, -2.7383221232168733, -23.731775326045778, 0.9541391099933495, 9.18248392839876, -1.0750142005622019, 0.37322544252860046, 19.134817350295048, -7.907774902412948, -3.2735728892483396, 8.157671756310904, 2.389612728291035, -0.2845817806046045, -8.410257241253516, -8.198428195630544, 6.144568228393514, -7.287965140450643, 3.1674530060879604, -12.637606492625105, 0.801232558261398, -4.5981542342334585, -9.4035327642763, -1.4706848607006713, 4.172623865816869, 3.9233203357056654, 16.563878131039658, 13.999288773665198, -6.935487946615453, -11.684139440707863, -7.181332876950383, 0.5757803828366536, 4.601378814885963, 3.7870371169352994, -4.357968979620933, 13.01653857746938, -18.25118904333562, 5.049552252441475, -11.313781945856512, -6.732328136320469, 0.5639601832559589, -9.934246885361986, 1.5907859343436284, 13.519254782327357, 10.51958662050254, -6.642020427252355, 9.682868932209686, -8.29664357476854, -7.546413994241461, 13.674619109969466, 8.862707106603057, 6.751770993284031, 6.944206537142381, 15.689665685785597, 0.33174247085491526, 12.924399683204104, -19.218012063679357, 7.621036727718819, 15.255678774725846, 12.830611114364924, 1.2665975300850003, -3.6623716522776406, -5.8790845725048415, -2.174483391698783, 0.13456687909692622, 11.89792764734994, -7.9203129856488, 1.3358587555930603, 14.629628905919205, 17.77109941430976, -2.4121347819785393, -1.1526757966783154, 1.1400979386359447, -7.438717818180917, -7.347187822320217, -0.14449391537363, 17.864930046560225, -3.622852078853573, -2.074150010451325, 5.396349118113909, -9.224728196468513, -11.258329503310469, 7.744764430534465, 3.4819878377597386, -3.587581365884841, -2.3224572813596036, -5.051361016148214, 14.836937208526507, 7.731310050299714, 5.659784332521446, -4.9527073933009556, 14.173021649888923, -2.958128877544836, 16.57744369072628, 10.771267254179175, 13.87215671159019, 2.7053398047703294, -5.983994199462597, -7.717696079688715, -6.501995825103442, -4.292713667201778, 1.5352740744170505, 2.1605186808991377, 1.709822245758919, 2.597741377887421, -12.822876170756938, -13.6340827798632, 2.1001180604490903, -4.486741412793217, -14.38005634967553, 0.27284841165803186, 14.021881499414372, -0.9688676906931878, 7.807401830691219, 11.381088615810171, 1.6239883381808629, 1.2859794529492596, -9.024389095173563, -16.31751169637543, 3.417176778989388, -0.24715590078662364, -1.898191227090675, 0.7374910614622632, -2.2475949360234346, 7.612619176447635, -9.746035431697697, 16.91549873357998, 13.465553498829237, -6.768907488005988, 24.44172551698785, 4.02253551438558, -3.8769623078476, 14.53940233743134, 2.065858370649574, 5.780086858044774, -5.001687147635464, 0.5101535933646701, 4.726026113753321, 4.115105082447936, -16.450089619113626, 3.4852076354505757, -1.0704291208931915, -9.353851726899283, -18.505927700249032, -7.128929943426453, -10.245691909020858, 3.9076589239894925, -7.706269079632575, -7.156082895028757, 1.563845558796048, 9.659265800244432, 1.8982415978907246, 2.7723146064041955, -0.8216545909170958, 21.51882716879699, 5.1485721383431144, -9.225330832035313, 9.032086677222116, 19.886377076515494, -17.38292239265698, -12.538674031508876, 8.305410440639406, -15.23087082872863, -7.433472606660062, -1.572549555685653, -4.715996062495971, 20.619444954198983, 7.606801348263991, 15.882303139939921, 11.893408688812128, -11.762814171072801, 3.0158399314515774, -3.4217304031117557, -7.028102385195224, 3.791645745222494, 3.45852110239211, 14.964992165652852, -17.536315170655804, 10.928307345888367, -8.411438019720782, 3.4115925422686444, 6.587071962882799, -13.848273312556804, 7.111081401481212, 14.408887609324164, -4.7613331127708145, -11.205519632164336, 8.326252629726019, 1.8549227809012883, -17.33245823779218, -14.907694878149663, -4.661195696574097, 11.158071440503546, -0.1362662670368561, 5.2017028725656855, -1.404669356074403, -0.1252598449438242, 11.336893637848036, -23.612229676939258, 1.5522196282841234, 4.490748749522735, -8.762141165294745, -1.805278392007507, 6.5521928797968, 8.939509135429667, -6.324613615477257, 8.9002437900981, -0.7704128676277245, -9.234159361648793, -6.122679915549742, -5.2693840465824024, -6.765436376918118, 23.815168293559193, 16.443030951583903, -3.6678308462214706, -10.737465123657337, -15.893049200525768, 5.0364344416638795, 0.43412723045247414, 1.6196203048151345, -12.00861941768878, 6.26856662951617, 6.10255719030162, 13.188054856699477, 21.167701035340563, -4.187523885911791, -16.764761427167972, -3.409309972947842, 11.317535095744505, 11.272104296066916, 1.4565700224295153, -9.50360890431125, -16.89800995168548, 8.82658902321177, -1.611972663194868, -7.542094125888553, -2.463132775080457, -8.839665594265778, 1.1788115728141453, -0.4283726710681803, -7.814916802697189, 8.699566169353778, 10.128208849586722, 0.6557680846986295, -14.40617952827817, -1.7215128751370532, 4.551456409486696, 0.41072034343441144, -2.8171884620389505, -16.59086672578986, -3.970728481906787, -5.39044068048832, -6.064701891287256, -9.126750225174472, 7.28101867438821, -1.657377128004881, -8.98989148662723, 5.141322853182932, -2.662923846673808, -1.6247589795718516, 13.805687096967036, -10.910212828278143, -16.179101263654776, -6.732413010457674, 4.071890945262516, -2.3494746953452235, -1.3055379955692645, 3.432042118966316, 12.33651608092505, -2.5211154763312607, -7.362912156535858, -5.268209442862169, -6.447427284911318, -16.502864446293877, -1.8238054783886348, 0.005432573412170294, -2.09593841005441, 6.912602388361391, 11.886286078955166, 9.976644377808903, -5.730426848125616, -0.9303049087453532, 0.6155333790363758, -4.142183989075148, 5.1099769487557065, 1.028584999414454, 2.5200646995182376, -1.4250887807982686, 7.531666485105973, -9.261454824219738, 8.405479555036536, -3.7972345691394613, -11.08566586864997, -23.637976657348425, -10.414568069455866, -8.55665967901142, 14.227187141996293, -7.14132338864784, 3.284524032700717, -7.1470917102249345, -0.7596935600279905, -14.049746583700248, -8.003074546873243, -2.0221977118289374, -3.708836130877938, -18.02999034825378, 6.776205893640256, -0.6961538071256554, 11.29485152933336, -12.917037073790667, 6.790513188203091, 17.942570921001483, 1.7701981355333922, -4.587053392704265, -23.23850968807017, -19.443185749116605, 14.682491847830963, -1.8208214279355301, -11.378641266200583, 5.951477989807877, -4.2395394020093535, -6.285076488475412, 1.9913455596587517, 10.226623170372209, -9.785043611136492, -2.1931144029090297, -9.222089429657997, 2.6089527607175182, 4.008506406612984, -2.854516168505177, 8.338406945993087, 4.35845963161338, -0.4901138485702435, -7.17545245492284, -0.7978654631439517, -8.884978124279874, 5.2839019479409615, 11.589565649635288, 17.168837523376304, -1.9683032453121867, -2.5824389112415482, -10.917922011990314, 3.7425810814518883, 5.989565173906162, 22.14631874472938, 10.071955984146221, -7.229211937746035, 0.9795792157735708, 14.98581978836649, -9.297760983985313, 2.0900027856110026, -10.04730449579425, 3.796222790432849, -5.354771229609456, 16.455298577296503, 1.353443167408803, 3.2645287868216304, -8.029721258330412, -3.200173673658985, -11.793502247146764, 8.314410024416654, -0.9099969130398669, 1.738623886196606, 5.186306444446478, 4.535348558264339, -11.493194203634278, -12.141315382753554, 15.208409512297417, 0.63602818754564, -21.550390675243612, 4.301417452917482, 3.025506662486319, 2.7584700289386013, 3.9451596035630363, 2.814112508413634, 11.615642321052448, -7.306457146543323, 9.4437751317234, -2.0837366416271945, -0.6614820586085157, 9.140869103218279, -8.179764875270179, 3.8534219573911526, -0.5766573779801852, -3.592679758858038, 1.1414740487524355, 5.331636746631698, -4.536522434435645, -3.9783640729226177, -23.477022312697468, 9.825283209871614, 5.829876002937411, 6.612743052905304, 6.353619101968765, 11.007410452302606, 15.524340039487463, 12.269086323286357, 1.9128053880322122, -13.91161291886998, -7.892571835731996, 0.7031387281620483, 13.041072260320453, -0.5450865620653718, -4.420680171930324, 25.13383714803769, -0.2604940628273692, -8.820899432055809, -7.134821629274205, -2.6116262429356896, 14.804687515169377, 13.157200851100827, 12.200039611439959, 7.084998645331289, 1.9250404709708586, -4.524509038506423, 12.43068494876183, 4.668020077492755, 1.8885656718792085, 15.720076476932743, 2.856876504335516, -4.389815217070487, -2.5009425659172693, -6.903179285924378, -4.905612241671427, -5.344563467537821, 1.1408210440318505, -3.69403326300601, 7.620794898459037, 9.019601687626356, -2.7452630059114003, -6.531205725016729, -16.26236059078365, -9.19775594902596, 14.475282076727508, -19.27754401035086, -15.654171480491364, 3.957400488156149, 4.1423557496678445, 9.719868718207978, 1.024379875388914, -7.086865278223677, -5.7554550818195525, 0.04112058672439617, 12.600358463155144, 15.10266843928705, 10.902664545956144, 15.792713366605579, -6.759967249652638, -6.5474640701206015, -0.6173068202418592, -2.2266733780832144, 10.77495949939237, 10.831534023180549, -8.178955646897897, 19.54458128940825, -3.712145608818016, 13.424379713405315, 15.527563057788218, 6.875675274914388, 6.840991975054684, -8.450126142556597, -12.384052188072737, 16.252701489334868, 11.729483710131442, -4.092756463717021, -0.9360495951391792, -0.19927719850277467, 14.992617717672434, -0.41455361125455403, -7.2145158239264555, -3.7288743604688532, -5.447563072398965, 7.5062068175940775, 18.98057931998427, 15.2179954780829, -0.5380137022815027, -12.577286602271053, -11.643727088511467, -2.8882838456716264, -25.382166091640947, 1.490980498096053, 17.13819846028889, 10.422097002230197, 15.585978372341549, -2.53181826848211, -0.1900204757498758, 6.886287672525572, -8.215083742232547, -1.6236452962292407, -6.255882935858365, 1.0606175071447776, -11.316166881412927, -4.109139300064635, 7.836405630523395, 13.284066487229701, 2.117514914731051, 17.264618309765073, 2.226969555903205, 7.670793748870806, -5.070693546923048, 1.7181157411351033, 5.669521620217793, 15.72137571386408, -7.192867595655076, 7.761617818300132, 0.5657526190874279, 10.328940616982146, -11.258737055212297, -11.895787252622496, 3.764393746403482, 2.6911245118309086, -9.350369173524962, 4.534790019139316, 12.763363952808954, -6.735461211405699, -8.517742307246053, 11.445311759498619, -10.0507628864266, -3.887802841100388, -2.371274190862703, -12.77121494674308, 7.418853908627956, -8.131316132226173, 3.17676511088776, 19.720646068340635, -12.13865496576034, -6.752413868656227, -8.599410415315068, 2.753836050311193, 7.629911114826594, 3.0856478630834077, 2.7336776668262184, 11.220653467440247, 0.045080746661783966, 4.794843545038233, 20.518587593851834, 12.147950410746597, 7.3648962548175065, -1.0523212538400672, 15.601354659728196, -5.965910709941443, -0.9774624038602986, 3.500217800723829, 0.9693315290479974, -1.549002374662454, -0.806921777822331, 10.069372955076958, 1.328473375886039, 9.247743599732711, -15.84727310233694, 3.150004270962314, 12.587349026587399, 4.15429384951753, -5.705378943295736, 2.219217199515846, 5.8056776615026475, 4.247579604019238, -7.588172748508308, 0.8665545465382569, -21.37730967488703, -6.018300808768155, 5.372418944466734, -3.083527279121409, 14.07783446435575, -13.794838948084674, 2.900034839055315, -4.048986481383012, -1.8068570296557227, -7.257303145253815, -12.472352970758772, 15.526755903420753, -6.252719844528341, -2.7092010529532096, -7.876688339808023, 23.02231476172136, -5.058977673803602, -9.289719280788777, 0.10420049414463325, -4.223748511383747, 5.710104541824879, -14.434427389896738, 13.501166574630796, 7.997990174479218, 7.146560873374405, -13.283158322680736, 5.264449277908455, -1.614387142600219, -12.036279587444564, 14.375203686717848, -18.002180184313545, 2.314096584472244, 0.3731402973544531, 19.768701022433188, 10.244096472456095, -7.091752567502642, -3.7718972559150217, 0.36548191257973744, 16.92314392968542, -2.2113709888879187, -17.710104041351748, -2.3792792034973163, 5.641130801347952, -14.201849432934436, 6.414034908819977, 0.13963089608951407, 5.155780456779093, -0.7063366441312042, -5.185302739702292, -9.636042106347556, -11.050461175156695, 2.81164759595666, -18.705064727226237, -10.38534179682715, -10.803011235188492, -0.9941159456584732, 4.207295066885863, 9.048194275683388, 6.783349295977034, -13.019407271213167, -10.754289416468632, 8.397350604768818, 0.0270071582118655, 3.1342709714232524, 3.3669195239778063, 25.323389961354984, 5.271040456159671, -9.643355867129074, 5.1725049725022565, -8.001182813516907, -3.4670056439605466, -12.138418436137504, 10.328912449889788, -8.82737210123138, -1.428207989990284, 11.10616749022084, -12.09272721680592, -5.138313947228107, -4.015857194435826, -1.5210851589840317, 12.098648483648631, 9.63197411089867, -7.05168531331858, -9.79146898633747, -9.509772138146332, -13.463260635913189, 1.1530994766056821, -1.1738508956734246, 2.532689713233846, 5.345318452975155, 19.93751453117186, -1.582544089933941, -7.914467840267285, -8.43414998859542, -1.6612749756003609, 1.3388268737507791, 10.218841803283507, 26.07140609283653, 10.38862956050138, -5.698146648892327, -9.992215024957588, -20.470804259815356, 8.959335501861876, -11.334264701959517, 1.9572894833888996, -10.751344776248628, -5.536672958984155, -1.17704171200367, 1.1259929239962478, -8.792874680894833, -10.826642219101805, -10.710565397031433, 6.047839740978062, -9.32813123643627, -2.482744542815266, 16.903384945571343, -9.33090394864811, 5.651347591919003, -8.796216527600883, 5.230994993681631, 0.1874915831489447, -4.21718765497068, -19.45748863228472, -3.3512575245611362, 0.6435800236833822, -3.9615384877447313, 14.876131156347169, -5.797826079513972, -1.9355020201802755, -6.282881134145498, -17.694804940448236, 8.811372812904606, 12.49595522161456, 8.964800058234957, -1.869615983923011, 12.68609358854878, -26.16439261504743, 3.06246579859771, 2.8484118980705855, -4.83943699872499, 0.18414811828294408, 2.391739203779758, 5.288507376162711, -3.359269890576009, -3.3133584907228615, 8.01209764261549, -7.251871119656346, 0.7170636989182817, 14.439739294603088, 0.29160850198632104, 1.9667031806415245, -5.740624729378865, -12.54124901361803, -12.388989331772159, 12.833042381933888, 8.508819619961427, 0.7137256063073891, -7.808626545149554, -17.362129233496823, 6.385710658170656, 6.922075484985194, -4.826256322327334, 6.614464749504787, 1.8394348267245495, 1.2607382159036151, -7.793920925646139, 12.678033593182315, -0.3429465878355502, 11.844251034200235, -6.67896181544203, -7.800885966031032, 0.35524420724003714, -1.489443968824546, -3.0993186781628976, -3.439614935659183, -10.362646050215544, -18.89557897179948, 3.3070278586494166, -5.85530076457548, -11.017109383312386, 5.213943856751662, -6.6771990046526986, 8.612403671429231, 2.7946829764700825, -1.5571125028621389, 10.831257286066553, -2.9711833135576238, -8.503218196893913, -22.871073497182007, -2.236945688812813, 13.643987974033735, 13.142775100196145, 10.49568576680093, 16.792967648726453, 10.1228954078417, 6.1817426922136995, 0.06797864390271458, 2.462546509764681, -2.809801646811784, 12.272721370655612, -17.154632575597013, -17.218683785139994, -12.57919234133449, -3.80063334036737, 4.192434165940371, 16.071964267839537, -3.8618357197439543, -4.375340271684805, 12.315612559076433, -4.5038174912428985, -1.331261465949714, 11.218856245416218, 14.531732013468387, -11.429203447082429, -7.264946255018467, -4.881970768515581, -0.26999650223469823, 4.716605292729217, -13.465090222570067, -1.816945369914727, -4.802267589683598, 20.226751524907616, -14.333451806972263, -4.097410634516361, -3.9419520934775463, -3.0162053091089063, 0.43034166536675134, -3.7404874570393067, 0.7157171370602862, 2.041052357504644, -4.958372938908713, 10.19284647570822, 4.03704636491029, -8.019328460867849, -10.736548993492747, 17.062562643940602, -6.124117769947418, 1.029994149845851, 2.691399028641132, -14.61819831815718, -5.964646744495871, -10.952264505205878, 0.6214852663028774, -8.987200685567851, -6.0986893907540765, 8.766858255207493, 8.943371207616707, 5.202294193689456, 14.306528400321007, 12.325253350017668, -11.508469034926968, 4.6893510874978395, -4.2264530898589285, -12.09421608517934, -9.00996479181312, -16.025886887925775, -5.808489384485531, 6.343271570817093, 15.2539971694457, -6.238811710018241, -6.003651170498333, -20.56807926723974, -10.237784617296912, 1.1237251453007828, 1.6684688514835202, 15.070733745684546, 1.0527928019335726, 1.9368336377252724, 9.993765060940422, -5.995167461550936, 9.092021134018115, -4.962470294802018, 15.73128154541014, -8.146908771856125, -26.414577573059493, 23.904339457746815, 5.9638051394933695, 4.563139440422916, 11.330957311771721, -0.5205738220249386, 4.023943797025246, 6.772936742232385, 2.9165853180070744, 1.4360737138429198, -26.34123267570209, -1.9619748674580952, 1.1619537894093488, -0.7442717219638695, 4.312496852693309, -10.729250725658538, -9.595113317271313, -2.744848504415463, 2.555599280443953, 2.8978982356124323, 1.7609639973593827, -17.44666784065236, 4.3988910307425275, 14.539690329101306, 6.73734859930231, 11.856156007858296, -11.353282395773762, 10.533726561520519, 3.6734767031444107, 1.3683563516002755, -15.907184410991317, -20.36513347416938, 5.10723643379781, -0.9531546252993945, -1.0552062042693273, -10.382337631872089, -1.3914686507878105, -5.931756634478742, 7.8716219432205286, -5.194711023808511, -1.1896879239834566, -4.449546105357184, -11.233676581059534, 3.2188602270095648, 1.400952497589989, 9.444932044426345, -8.092986182221598, 3.6609208113440976, -5.164203928501244, -15.859299169892125, 15.839500659480795, -1.2023460950799274, -5.284715693005868, 5.459341741584007, -8.122921708814042, 8.971583003328057, -2.805396158009193, 4.451421441224239, 9.086277876488948, -7.348228125247099, 7.819825028301965, 1.1416779327389084, -5.840810338061768, -9.618447732183368, 10.569332069035994, -5.588216194723349, 0.8950792174855582, 1.4287952932158907, 7.876214227920743, 6.601814013880483, -8.748940149101177, 20.587620554721788, 8.98807270509706, 9.279240517268159, 1.2450916132783878, -15.162060213252245, -1.8683387031177467, 2.290111749754226, 11.481842704297904, 1.1254735277136214, -17.71870375638556, 7.122241522128966, -3.4979973654478123, -15.500072397699578, -6.9766014992321335, 7.625474636777853, -4.164708734746911, -5.363282734111767, -4.892717503168238, -5.090113185136898, -3.4009053918719423, 8.881849867663155, -7.050257925817863, -1.5578216385258317, -5.78822526421766, 9.186969259484282, -3.2807498049160566, 21.032464119679652, 20.911415590370307, -7.236871642540955, 12.989357027423932, -8.832004079775718, -8.708052410058578, -4.6462504199602925, -15.748686854237771, 15.727844011041785, -14.691286587763853, -8.854830662819692, 1.590982833483105, -4.879362873532562, 4.934516024337008, 17.154302575748112, -4.751002649425559, -11.119159563235955, 1.093189775877121, 9.723775626022544, 0.15433645154171882, -3.0748475518737353, -13.553887757521387, 16.0713604139182, -0.9035610546422443, -0.7333017872281937, 5.6505492866283005, 3.3952571311014776, -15.800568840515131, 5.9600524307045575, -3.953611897746654, 8.599654324808558, 2.826234162353856, -3.1388593409991365, -1.7209682045343293, -3.5185613337860286, 8.19963727849763, -5.337694703521365, 0.7186211159727423, -4.254111331633073, -2.121354116747213, 21.91488991399269, 12.762951948819065, -6.149204158227175, -5.803915598562566, 11.483997718675411, 7.092330962207122, -3.8428899960833003, 1.7267083469551734, 1.8016591305024827, -2.6939339858500233, -2.032756047748011, 4.045944648503662, -17.431861886942674, -6.741670920560716, -0.9705327228573284, 25.955387919176893, -6.4158605502397545, 6.76585659383129, -20.610625500799603, -7.666159152638054, 3.8122856317544005, -24.541368483520586, -6.210471624404688, -8.8977168151896, -4.888218362539543, -18.588031329817632, 2.454029724401505, -7.344395695719141, 14.188290837175819, 4.336188497579676, -20.901325970098494, -0.906230827118614, 6.813136292634529, -0.8425547797836019, -6.528768208569138, -6.135221327260332, 1.3982619303621977, -3.1155627134341315, 2.7699487208377183, 3.884849616461564, -3.638659933129503, 17.32537746493934, 0.26220356057969835, 5.756576793293294, -1.0550981911566697, 10.131857207102026, -12.279418481545436, -8.792979169914483, -2.6561215055291703, -12.641889168258087, -7.658396537801023, -7.426500164208617, -9.122173972585985, 12.919012376415505, -0.7545027108917833, 4.403779605933042, -5.812377597123942, 7.109724488691614, -2.5378816878283024, 19.778686797886905, 1.9530408123825675, 17.042308506085142, 8.494577489042895, 3.7225278428386517, 3.7391913295339214, -12.788441150233382, -10.820407824292563, 2.8273122313989014, 3.2376144079190072, -13.544778962063148, 12.464821645351869, 0.25981494455616794, -5.2543172553493855, -17.548788492940943, -0.38281507501779, 10.57914258747753, -3.11389511132063, -4.133139655491328, 9.23985078409154, 3.596776939761045, -7.255350993763037, 9.753527815627704, -3.6235960725505763, 3.864569604338281, -3.5480462968731223, -12.126944578598673, -4.048963424283971, 10.109822356128625, 6.742768563801058, -4.178104734958197, -5.407356179992355, -1.3268639875203334, 8.446942916739884, 8.805779199238383, -0.25597298213397424, 1.6052424596741246, -1.894213735554716, 19.876773919522556, 9.059204851194286, -2.142942106274507, 9.28171038806859, 4.028531461540441, 1.8205378771023972, 1.387018849611506, -3.786319760569023, -7.335886320572885, -5.324185082297017, -20.47945911086561, 0.5127114618548783, 18.58041925774453, 0.9395723652386743, 3.2078259762331234, -4.675673980671422, -19.5585856067048, -5.875361267916484, -14.076375539030362, 13.864749078256901, -5.919750547969113, -3.2258902585293137, -12.842438495776145, 21.365555550341806, 16.045649787421834, 7.428557480451994, -5.129763282225886, 8.157392345238952, -10.28663467996806, 1.391156345882333, 2.266092371949349, 13.079794318249611, 16.461229967034456, 1.767490312877921, 6.796468402335872, 4.215104375368208, -7.036281904160274, 3.6229043678192885, -4.4625260620792435, -3.109021978413388, -0.05497508891339303, -6.654524482133649, 12.958264667120861, -1.7125998038353865, -5.152011210100229, 4.713761394650579, -6.583071055768756, -6.860499653896175, 21.78124739237277, 3.869088199005849, 10.558323453125531, -19.7366888493265, 9.512427817706596, 17.675003868331206, 11.58989434201323, -2.54846217515637, -8.627364154272446, 8.506240660609487, -14.078343537450333, 4.761583404373342, -5.2570074427087, -7.783856756739812, -2.7086433641102072, 7.099454728838002, 0.2823069254439038, 5.9125806409670805, 26.355557298854567, 3.632179772683385, -7.675506553630577, 18.670300384124317, -9.833418474214362, 4.880350090214633, 1.334219526586788, -1.414613407469873, -4.014711259189597, 2.5659440656516748, -9.972789081387127, 3.9468095452445207, 3.825998275475933, 8.406739646280288, -2.5434602711925836, 6.796304893146454, -4.91771872031259, -2.9635901916885685, 4.853018241768318, 14.925060913608466, -17.936195796793537, 16.78072154473691, 3.11409503422494, 10.218349295233281, -6.215995972499672, 9.624547046684942, -12.881842029381056, 2.9690907137560263, -3.0292921620086664, -2.7576853510044357, -3.739990275080557, -2.4644947218982782, -1.4488847568338257, -8.581075054678449, -1.3348427093985118, -3.440528964012777, 2.524443185264344, 7.991045425246165, 12.670195983730165, 12.1972247669313, -16.37498940204602, -0.14768209204772287, -4.578934178817575, -6.728507749200996, 3.205727624896322, -8.69052364290041, 7.768671319940864, 8.54697118672357, -0.566642341657732, -2.7317396643767884, -4.6468448509885505, 2.289771416838532, 3.3933399167987623, 7.778834205143221, 11.527269488426905, -11.331175734106385, -7.100423844146105, -8.390610703012387, -8.798481185639796, -6.208042678280823, 2.2381038905086466, 4.52804641071337, -4.457651500677129, 4.1643545074393575, -12.272729610047438, -6.732622145483505, 5.3983398556039734, -9.803652245603743, 8.247319039612172, -5.861414418843875, 9.344074142013131, -0.23820203273455084, -2.9958847753176565, 16.538190861009937, 1.5802023861618235, 11.697738404836816, -11.703337337984715, 12.234058075340318, 15.091325517350635, -11.946540239413107, 2.797941547881204, 7.810001626543493, -20.64540288964284, 3.645664425418054, -0.13266690610652054, -3.023872363720333, -23.50468636433814, 0.6696016476674125, 5.89474931722022, 2.3354570658625926, 4.644347003102471, 5.39975805942992, 14.51553069414439, -0.6044298013555474, -12.957628997621189, 8.925931246867647, -14.676905526690275, -11.244306627644608, 4.323386683071703, 4.79377360540379, 9.292560924555538, -17.52101760785716, -0.3057560419555724, 8.730529178764668, 12.917690682229498, 4.5843779351901475, 9.687195853310756, -2.937311384523947, -7.243813849002615, -0.9909661086989382, 3.612646914524729, 0.018158251424630234, -1.9464599146866393, 6.699715631402958, -24.612291864069814, -1.9938358486656962, 7.376168888844564, -6.630455701428194, -2.7779000486760754, -13.22965963115523, 1.1752429121414618, -10.202887397046167, -0.2804263700222691, 2.6882712625876874, -12.423171715898057, -5.725880060890251, -1.2451626362878236, 10.703873836069903, 10.9431217728659, -3.574653843563954, 8.523662202813398, -8.28537904807432, -0.09314223865958121, 3.9718447920665136, -10.026604574980073, 4.0790486814929, -0.045592925889528235, 1.347500953851385, 0.981538265111541, 2.510878991461388, -7.762232737242712, -3.486716038592, -2.93910505450688, 3.2033496779855737, 9.928513711177164, 5.246008827620729, 7.914130971514527, -8.823457582299444, 1.9401392741534758, 9.974401539320281, 0.3296639336634103, -9.349828481599397, 9.668907792827365, -3.6298904921346926, -6.959672957469936, -2.9403868937841655, -16.452850081581737, 13.47716129057536, 1.607751364665789, 3.8782908649786956, -1.703090648959323, -7.893528337403087, 0.0019200169676949486, 10.762190856104944, -0.5964751248746499, 15.473864434842667, 8.756976509618323, -2.7029182337303963, -5.7183462228489645, 7.65152116793898, 7.759188117013901, -8.36241003032205, 12.060796515952797, -8.99046080555977, 3.7263527968948864, 1.2475647777475312, 0.833148392261843, 4.676186367882337, -2.372995631202247, 4.612259537691805, -1.5913524987332546, 8.983309926910131, 0.33304801693825475, 2.3828034914458556, 7.843534203567288, 3.508126579144616, 6.653698263666444, -4.487476912186298, 1.109120039559344, 4.957455378949907, 5.46487239884737, 11.397253253574002, -6.60425715580067, -0.40453279533344433, 2.5333051384453826, 1.24963343531103, 5.037543858180666, 1.5124111372697064, -2.8959665392412157, 8.300407854654726, 10.76528319187432, -13.069862578879306, -4.434155183030322, -3.2723971989697094, -0.8160821796560409, 8.533621787695902, -2.1561538629814443, -13.269027111503313, -10.389092062482371, -7.5090101641892995, -11.41250240244435, -0.8530384872365562, -7.029107267638151, -11.345482019180736, -14.124264262565047, 2.6035542366382294, 17.675583550052284, -5.983574558516754, -0.31157532938786137, -6.319491569495835, 3.0258749739568573, 3.4604791312858656, 6.134760358562867, 1.8171242751836867, -7.148966069708725, -5.382613820765044, -7.866635350372027, 10.508380500141199, 1.4401680844718885, 3.99471817488309, 5.507834294755027, -2.9934298492831166, -6.602570924139249, 11.765861759391212, 3.9675559761938026, -18.112522937867233, 1.444610835189115, -8.441996047661224, -9.847129248376872, -6.551007199008079, -7.136349528203086, -9.050728520151635, -2.520257997917196, -11.567352805254748, -5.183200110777817, 2.1796432035839097, -3.27824050483964, 4.489022954143136, -10.20898242916106, -6.410320971810608, -14.92892685822662, 20.381689267605623, -6.427521515438595, 13.64834942575767, 4.121153592141948, -3.9053494924407994, 11.993528377437215, -0.9642191298421363, -5.360139055939761, -2.7722903641553858, 10.10593244063091, 11.812350207487844, -1.475684794825705, -3.735095787405234, -2.142637159893436, -2.8235584668259532, 4.748866190070413, -11.41761864552558, 6.929086406431052, 2.491137890180547, 2.7193735153347487, -2.6614070736400457, -2.0137133550771065, -12.510853868148251, 7.870522103129652, 4.543943894675562, 5.88887326538384, 3.9928241570939207, 13.355330990369987, -5.4969429232947595, -8.984186947003808, 6.259416267498531, -1.7075595935573014, -7.055147193286702, 17.376684219692972, 2.4471683063865255, -4.010269760014237, 8.866812093373332, 5.458064736687627, -1.7555417913669866, 4.697741377131545, 2.0121189201435885, -7.018277053381543, -10.493194122151797, 20.60089217806786, -8.708097527941144, -15.08252802865615, 2.3034881260854485, -17.807865632143315, 11.00135790331714, -5.358452332232378, 6.987383818879075, -11.316433601097255, 12.083027810962893, 19.814663881573047, -1.9438698085724715, -0.8214002081444389, -2.062652776575706, 4.567642210815087, -3.6993248532026293, -1.6180699440875561, 10.744611961122835, -2.825745880558583, 12.475921068033799, -4.979548129788555, 0.7236024123748497, 7.978023338415275, 5.67847498149261, -13.85261290044753, -3.3981234124370117, -0.7274878806592724, 5.14434448156962, 2.870670219916346, 2.914572800195563, 9.550094925927018, -16.570607418917753, -1.6685759371220548, -0.9552331791848077, -2.219565267322369, 16.506893543342223, 3.9918354651074734, -10.439043663228118, 2.169218558406194, 10.639802700950218, 12.30410439066823, -4.495732476807369, -3.171497491437592, -17.40391020446772, 5.126375581930345, -7.930381161125704, -8.400294971879829, -13.830603433913183, -1.9064372802120424, -2.0789118683473675, -0.40777351547386564, -19.28757804208561, -17.254089135132432, 17.40842522195494, -5.3271827056295775, -9.635785482433036, -7.859725142548438, -1.3513288439540052, -1.6801612442970597, 16.82427426294696, 14.71968714972325, -4.57312145999688, 4.344506257938691, 9.519499062756198, 3.3767032512427892, 10.955023024252721, 9.44338809255589, -5.538011907131357, 1.8862796090939866, -7.341978792657316, -11.413537839650743, 10.153420157926693, 16.294280253163834, -6.92963895469175, -7.9412194161064775, 0.004833718645958551, 6.152327284875603, -0.35883682201562084, 2.659160993986963, -1.3420453901427616, -1.3436214279629262, -0.0072371800397508235, -17.474596918285975, -4.084456295656861, 3.6397192498983397, -3.881019630297268, 4.216770895095536, 9.783738853598052, 7.019239371721387, -3.6965228076753918, 2.658793203261748, -14.138148442140702, 16.57631559435492, -7.603640460730163, 3.275856211306766, -2.403663405814225, -9.991587547004778, 11.608278994290396, 4.189673951400998, 17.324682419002414, -7.00197579143281, 1.1004330337885881, -5.0296735677840525, -8.53868417411273, -1.8096618138282254, -7.714433530931386, 0.7562182889092458, 3.670442148390054, 6.723841452708193, -10.838148178156414, 2.1855546442991933, -4.344272980654993, -5.568261060938578, 3.5314407216277393, -7.243366388653, 4.658514602654821, 9.055489969250592, 21.01711508198805, 12.220727514084677, -3.616769738902757, -14.921532304245753, -8.639483665670797, 12.004142122327574, 7.804941459326606, 4.676820225473985, 8.271212040203615, -7.931098216473989, -16.336867454309786, 1.9084960522167664, -7.115224382484916, -9.548191433008123, -8.061916609458756, -2.029170897051757, -8.446627163188573, 2.5120169127707523, -4.438810259670192, -11.69264099856387, -11.641406656246225, 2.262727506464604, -1.5100618922651008, -1.4500732549093152, -5.274014405621904, 11.171452784942565, -22.929205239314477, 4.499194776485203, 1.0241708486178438, -0.045209039132911966, 0.5995265709281266, 9.429583367047247, 5.624442752117978, 3.531142596174213, -4.6239276740473025, 14.440935655997148, 0.361602498687013, 13.745830664587782, -14.47267461003868, 6.188727693728967, 6.730378574213491, -0.7095647043234299, 5.91435040753833, -11.588005755241333, 3.1118310018914395, 3.1422308230594265, -4.5733030951622995, 16.20060454735014, -3.6224607593759157, 11.591777385424647, 3.9918364739452983, -13.532628438627706, 1.7241951889057803, -1.5027264468587846, 1.9510020427387058, 6.154504821840518, 19.73884444438813, 13.890634770140265, -6.355698801226384, 6.838024387792677, -6.687833572111595, 15.715596882060515, -5.49011105311407, -0.42002763079026234, -5.587031122814429, -12.189289863490322, -12.663877443991653, 10.474697171441738, 8.044365099539364, 13.758777895404641, 2.6429405609628325, -7.151976148369586, 11.58830619352282, -0.17798454340562891, -5.2318935736256975, -1.802400747276699, -0.6924817537501571, -1.2913178046169405, -5.976359738348782, 17.91985092643719, -5.638656907131528, 9.099277348037882, 2.178572512183912, 0.7260073274465138, -13.761901439289453, -7.351896264387268, -6.271920444828784, 9.324861140286279, 12.461375677634603, -0.5963063571682662, 0.06575583422957224, 3.87843714875435, -0.06508237131515865, 10.595907159844254, -10.586214604560432, 20.865999508772564, -9.347091325443595, 7.88604318423837, -20.436675653766752, 1.1961703554568963, -5.441011827885996, -10.987247430334838, 7.562385073933461, -15.994935324813238, 3.6357200426077476, 8.088116946793532, -0.5208794382500561, -6.421436778344647, 5.985927987255249, -9.442516707086845, -2.0819182051665015, 15.701992484828624, 0.7102864987511457, -11.255757336775094, 0.01249729074920819, 6.044947295045449, -4.3891071779311375, -4.4283939311968545, 4.559755432451895, -4.2068728939685665, 3.7974735258200227, -10.754832761952503, -6.034694330019574, 2.5836582590229784, -9.756438415611905, 0.4293195111376445, -3.0769423110541503, 3.9920642861722357, -9.223724576846452, 2.610797666801137, 0.3162605243274671, -13.875198985953096, 5.645751513077762, -3.9980823652532322, -9.92789435327544, 10.729926560691487, -3.706396847593273, -9.426125334541506, -5.325438042645473, -8.880586966544465, -4.607296200599151, -7.628257917590779, 4.37037882174696, 3.0754150011599926, -12.13062364002396, -2.1187111234006064, 5.578412936919176, 7.527057661806438, 8.319722705366376, -13.093028512519208, 1.7041650436047306, 4.742818273753844, 5.7287334458371, 5.248381254952832, -16.25314309400092, 9.57438228189817, 0.3247788727914124, -0.11346814354635715, 13.348566267041534, -8.32888135452593, 5.2616027182522, -7.777478714032527, -3.484123254520374, -11.125087094779753, -6.767857303584398, -0.5726123587442828, 5.7909029903446, -10.510474915283343, 3.3055180462302314, 7.2330611268885905, 6.2202568572104155, 0.6393978790320276, -5.509644892530715, 15.23291086104197, -3.6111412576580086, -4.427011038376297, 2.2562086794285205, 0.7313184708005954, 21.750924269178864, -9.465806859554089, -2.0565825514881073, -2.963857259610531, -6.279633998399062, 1.5031524120333564, 1.622172988913332, 9.136135526751394, -16.760484605650447, 6.495378630873919, 1.0671103535009545, -15.362590215951275, -6.6779453746672575, -10.21692815825145, 7.622533335771242, -10.803696035297966, -35.80396097715725, -13.279000418369524, 6.552415275068524, -1.1948155060402161, 5.923609240673221, -18.41703672296772, -4.8958536933174575, -3.217777736541195, 9.125283082538743, 7.482280651868783, 1.8038428343762238, 0.38831996948601616, -14.492701623796004, -4.772275902569078, 3.339961051226923, -7.09569230106374, -7.181164708421335, 4.077101021953345, 13.285445125792062, 18.00478996053283, -4.073174367190623, 12.06456428745529, -4.678677446826349, -6.252472353428644, -10.925939432894438, 7.569034563968041, -17.42562986383211, 0.5128566971829117, -8.520937671955235, -8.728546795211326, 2.7774159358551715, -0.4751561181172305, 5.873351572084141, 13.058260828573115, -3.175724736734243, -1.1378633986684545, -0.9795981124390569, 9.434510765245149, 1.9288845782082615, -6.883053054775072, -1.2200855182549422, -1.9952262919321455, -4.129623465859918, 2.3848695620065516, 14.51299567243437, 16.3652549466174, -9.198750908884632, 1.6463291762402807, 10.91690798778745, -9.018730085269846, -2.830309218391543, -3.0859336257913474, -4.245189538618964, -0.20429577867173676, 4.611228199998171, -9.164928762642711, -0.8317955207917687, -22.258097141990422, 7.029665282420637, -9.666303149669206, -14.761571274746188, 1.309791260234216, 4.795657476863115, -4.952509808585162, -2.0818922748666173, -15.490480309451598, -0.6012534683589594, -6.174625461447117, -8.08031712803286, -0.4601580348174821, 1.7703736215761283, -3.6790459764189007, 5.081113518971469, -3.045002719627199, 9.213732786564924, 2.7368942747424994, 6.249590825851514, 12.480249362604738, 0.8845224602511934, -0.2971746583997866, 4.882119021066407, -11.939298431138203, 9.393149909955646, 0.44000676626555696, 20.62211672866878, -12.002771435871061, -4.441486046511139, 2.448887441606237, -7.838403644670648, 2.9037876142556884, -0.8890342314991556, -0.8814738784274023, -2.9403165309343633, 7.747158806654758, 1.4043037336218402, 13.716725912172468, 5.196709783668907, 0.8557164445767153, 3.6237152712569554, -2.539728176648423, -5.38195581883238, 6.222958895803711, 18.78738381019892, -4.018172260582602, -9.468800380002206, -14.042884165897368, -12.842993305024107, -0.5236048792262216, -19.21390933178513, -6.305683308735729, 5.87883010309138, 12.50542964169353, 17.005946514655957, -1.6425685651517405, 14.823284673384867, 0.6070102438405591, -15.493690934061787, -8.09936296702708, -12.70381841816353, 1.8812847747351735, 9.213758391275507, -0.4992171146269856, 9.286962040607124, 1.1047083491092238, 13.754322837387935, 0.294989817936558, 20.934134910862173, 