{"model_name": "mlp", "weights": [-0.10036449012124682, 9.615234229436833, 4.427031171995371, 21.506063640390085, 10.389034297479505, -15.133279836591003, 26.277199781194458, -8.78536001050506, 3.944940210237433, -10.60947019036641, 11.232397873453355, 2.7061626234181975, -6.636759889886304, 8.23323135294729, 2.8211312210485624, 7.257458408853376, 22.582505400391568, 11.543671940564552, -31.327236348688107, 9.255505834101195, 14.618939307723258, -9.360729328818453, 20.791575740578995, -14.71143682693431, -6.378597948269237, 14.843721015275923, 5.006909569308458, -13.884144292105374, -7.150055609477342, 31.035316368624652, -21.31460859659105, -6.69530529631355, -27.648763678981098, -24.387650822938884, 6.252852893837017, 15.815927204139703, -3.1977169732210395, -0.7749700686392672, -8.293600686752264, 2.1335896368692535, 21.976504802866128, 7.143369806621257, -0.8142399101927628, 5.8230003275772635, 16.342992309102797, -3.5559786070573374, -21.722194159695622, 12.74379490415326, -5.59114165087279, -4.9567447500629145, -2.789351421891552, -5.08702564272157, -1.1481308449197172, 0.8092438255382767, 1.9191397937046668, -14.408254469723264, -0.3449550808684445, -17.24564547224944, 11.758303122165794, 9.590266942221866, -25.951074320813913, -18.4069269064262, 9.53685852064127, 7.022857869255343, -15.396778647125595, -7.676546579099331, 4.4167805463570655, -8.865723581353674, 8.208982190888799, -24.895522215513363, -20.968608532963955, 19.79010755845575, -15.86615753889086, -15.307751740283722, 26.890015848557802, 28.123567392226082, 8.118113132201007, -7.470197668676082, -11.036733038748363, 27.176926622792525, 9.8632502411736, 28.396739116440923, -13.157808147335253, 17.139149935813755, -17.10853248610066, -31.395520013771954, -3.7409132971362884, 5.646075732413642, -1.7962527414521132, -1.749912579822694, 29.901103051688082, -21.48567752548176, 8.174384805771517, -18.563242960240125, 0.8451612815812216, -7.818686175421036, -0.8198461344567158, 4.48595238554655, -14.643297196488001, -10.87783259229033, 11.890945936504842, 16.842138614393527, 5.17918939949664, 2.6600574766722898, 5.091918390750198, 15.922441238027297, 18.917646899565835, 36.24022236809199, 19.919761450210334, -1.3094037544713906, -7.7263886758282485, 7.007098090048305, -15.467124220287985, -7.274738229721444, 34.0031420567243, 5.740524787875665, -7.342958556348346, 6.389175878906229, 6.117999758086415, -11.106207025985892, -6.662930777322467, 4.371816052501455, 23.49154711144767, -0.530884406921792, -26.95667873615495, 16.19249311449852, -3.9503464206828727, 12.030463020990492, 4.437376347412112, -27.664632323257205, 36.93411339065628, 2.7608432623020502, -20.66840821707224, 9.296158536937932, 11.705213656886464, -17.245144261560284, -39.62781498329938, -0.012595460918066473, 2.678017371023976, -4.663082919470765, -15.862062049973002, 12.917454463163896, -2.0155262411946238, 21.27964691276598, -4.53157526591096, -14.65290282209209, 15.673846629305455, 4.392560818957995, -8.512717985335247, 3.135924417387986, 3.267874905103003, -2.194465530701847, 3.8167880855273784, 17.672592331192988, -9.47206189413593, 5.843825920900876, 11.878380500092835, -24.907271408911516, 7.376484237291406, 7.7741486589213995, 28.053894244992517, 6.157589521890546, 37.42837984248294, -19.756475417329142, 15.327143240804062, -4.144140626495376, -7.077984590214485, -10.226917810871143, 12.69702040980325, 1.925023252353553, 1.7156852638742826, -15.284777182530776, 22.386406512038082, 24.909971806359245, 4.1948512000701745, -14.583138799923415, 10.580616429444941, 41.26610559321605, 12.104335681417401, -3.561088273388441, 7.272244513737312, 30.590182940721707, 9.326794730699625, -7.657385950786699, -34.796539194081596, 7.241791801091464, 20.786820742410498, -8.196252523624837, -16.056544779077846, -17.750037528215586, 19.632907388262353, -33.93572949912554, 14.853438259401353, 5.241391380281956, -11.13950138382565, 29.57321314777678, -19.340746268867015, 18.813970424605714, 2.302346219627194, 8.78215410519449, 6.021829732676945, 2.1696913354877854, 4.095497678897939, -9.047033771934176, 12.111484971132118, 0.5472934519489511, 33.32008317473273, -13.585828570610413, -30.519595341589348, 17.311303300766106, -7.214534283228685, 19.870426411298936, -1.134955473595199, -16.146706053327755, -10.128894234446788, -5.794305940764645, 9.820269131532791, 25.47378107814263, -19.312229176191483, -0.7619272444122179, 5.586643645793199, -11.3926260391705, -17.167950161499597, -8.236480444056644, -3.4636596323270066, 17.11639438279782, -22.363625662007713, -34.506593869047244, 1.2552841313773655, 12.607656482876996, -4.7433364864192065, -11.77159713817122, -13.369537939647893, -0.7863168612648975, -12.714182643989439, -7.52225353961625, 22.47776165381187, -19.08611891660074, -6.512699788886543, -15.58754502128755, -28.175750404572202, 3.6554342712439354, 28.329197528694134, -11.217267493074944, 8.198222709511942, -8.094770277846614, -9.531238341520318, 19.425021235914826, -12.128461953269616, -4.456981612198152, -1.9435226540108732, -3.261693765847636, 13.573611934611147, 0.4590223761096982, -13.032270282535597, 12.737159150021183, 14.336972177815085, -7.580127122249424, 0.680079105788158, -16.333397106098218, 16.4735912254148, -26.324459303942053, 4.357200439015153, 9.655925401967606, 8.610751996421829, -24.93348618772207, 3.860833546071076, 7.527431467832845, -1.3827794636794928, 26.545396289566558, -17.634204702722723, -0.8945248614904542, 17.918374326548932, 3.191481063779638, -19.311552975975715, 4.361698436270673, -3.4447714746229887, 23.469379971403384, 6.84407708231471, 14.305730891813425, 1.2889329650391617, -13.733851407969714, 0.21900103042442948, 2.4363741962072534, -11.86705734990298, -13.004106659787862, -0.032424267075739255, -19.751652807026442, 9.081613776780486, 5.8241203106926624, -19.744058904807147, 30.958598694439434, 8.44187713994889, 7.595861188718406, -0.21509464487643082, -11.945952699076411, -4.205430537331503, 13.232594378012626, 9.656328806167123, 6.862399423476596, 11.514414643489413, 18.2232310722418, 15.317219949939533, 18.644650619516188, 3.303179351842589, -14.477027945990853, -13.818512070473327, -15.991519928572364, -17.19583567231524, -7.271341773061609, 2.7631008636810095, 31.6407435763262, -29.190557699257617, 2.179576118551741, 2.6307146840029247, 6.896417915212322, 8.462805712060494, 9.493393837984314, -8.490728106916956, -8.411939005242742, -5.5650925252420915, -14.302524714769843, 16.338832977953135, 20.883262769610482, -17.021812457883716, 16.2452839240398, 7.444842000131626, 0.6893339325760317, -9.519699889963178, 25.52270609210951, -5.773376056113437, -13.368578954135195, 19.343651512910892, 0.07570029199447814, -6.582882251915143, -14.837757780985855, 1.7369868472678114, 8.091206799846502, -38.732061345417414, 13.265622558058983, -17.952216604454367, 23.897910900271803, -10.26191889059115, 21.73914718646876, -3.599854010858019, -14.634871976368359, 15.92931100797746, 8.504937511913356, 26.32806727177232, -1.066416782847305, 4.8853731803515315, 12.316088494132995, 11.55260066684877, 9.12777260844197, 4.11734158941881, -33.951669668945065, -8.808980318798803, 1.576959892379172, -11.311324341723752, 6.910150659926315, 3.987455553585507, -50.46825873740005, 8.921104493609482, -22.470526181352042, -26.49315869236465, -1.7769586386181402, -13.783910286892421, 17.713891439589972, 31.281032742667957, -19.576745331539474, -14.536742086816242, 4.270427476614814, -8.21454463314023, -7.446943617306861, 17.115831318506668, 15.780997620751348, 15.888754334199056, -10.733942779444874, 2.312858965955434, -12.39339959551979, -25.05035673349249, 11.204593014109292, -21.486140339653645, -9.35793479431337, 7.772102052437909, 4.237022337687871, -3.0347429016257728, -16.10619417536785, -23.34360477087796, 42.33481328048874, 28.81050180518728, -9.768692322044537, -30.80152452694955, 1.6712332254485842, 23.002979359614837, -14.751486985887865, -14.455286530705072, 2.664310527274101, -13.624440972711191, -6.943375356558357, -2.4728840217584245, 3.8812222718224008, -8.204450020858658, 2.3465433495786714, 0.5515017103293303, 1.3559342023989416, 7.834452372433269, -23.522303267207214, -24.63918137181521, 29.973056257165368, 0.01751235459352901, -7.602756674323375, 21.1881190422711, 1.415941327071893, 4.306150104020454, 5.005642876516022, 11.08650967137942, 1.2306549918451446, -0.5527206477929235, -3.896683881538526, -1.4229563315522842, -38.09374952293376, -2.1058074932004995, 4.386300281742251, -10.235721450532079, 6.573969483889085, -3.222602877515501, -7.100681187267608, 12.764061466425261, -25.64429211347586, 34.260666883972966, 8.125315412068703, -17.114789244071435, 1.229910334461742, 12.786561192649831, -0.012427234443056712, -16.153313197074866, 10.881689642330635, 38.51029963770805, 21.383563447002665, -20.449577895755493, -1.3967877778157272, 5.917239771924278, 0.012094047721197654, -5.430923545868774, 29.322380330450404, 0.7405459339568377, 10.8219523100776, -15.080895454740547, 8.022824202534864, 10.945247691048392, 1.1816437728925047, -13.696255412442856, 1.8366207846686047, 3.578399961673285, -9.933160055065063, -0.6598324693480184, -1.7562637921986388, -21.13916380410734, 15.746467708798361, 16.119094675610373, 16.979022665673636, -4.332255717722814, 3.26278266743593, -9.22467295204471, -3.7417396451025313, 15.98902329620571, 6.908517088250336, 18.407007156016597, 6.524646303667185, 25.372352973335044, 11.245868736953689, -12.917868627140967, -2.0710009574024273, 11.089030478892226, 11.508580911804426, 4.110844505158574, 29.122309702248714, -19.323818644315896, 21.49430318793315, -1.5653729356998112, 8.98205829283135, 5.145679337287647, 7.530964373933666, 6.767329007368565, -35.26147936698268, 1.0685233292273955, 18.82741056628892, 3.7325045832293684, 14.803684707916837, 12.076323469911799, -7.608597317132529, 11.030769828554476, 15.29201993778668, 18.540069693692004, 21.69280310954681, 4.831850999017882, -21.421739377889548, -21.447381762210878, -23.03862190844857, -9.76787530497575, -3.8959482479800087, 27.5592918349618, -3.4962772975893315, 6.376496282147656, 11.374625753418238, 33.275843544296734, -4.986326606827498, -6.323911943261038, -5.3336121084639405, 17.037082199067587, -16.8326698369411, 9.933247022192859, -7.267451447831201, 9.11040820171406, -17.946068926316915, -3.519108399599197, -4.6880570472729, 1.1556884058187167, 25.88108376129081, 38.503959875373376, -25.214194998634806, 20.817524451689874, -6.1287112385381555, 4.879902862867207, -3.650259262924172, 3.445008205954523, 2.976618230663738, 1.284429724047377, -13.30845659663544, -5.49996407978708, 0.392696885907729, -29.39165850661323, 14.862228881634806, 30.36265808085186, -16.722139476656263, -15.983179584523278, 12.96733713845773, -15.775534863919821, 4.10951089942318, -6.85036598246928, -0.9865490320824091, -3.510270610879373, 16.204721185662144, -7.4423158230115956, 43.58037340111765, 18.91041731504518, -20.654186818909018, 15.289412687451833, 21.81793317016329, 7.192076450919358, 0.6472079956190742, -4.862138749363379, 34.41604545305166, 33.61288919965923, -6.503670764917505, -6.074464277132481, 7.494131755050239, 18.848877763877557, 25.747011548700574, -24.69382227344711, -3.7494741295985334, 17.306250099148833, 3.9147331329311235, -29.9257876336133, 29.342689549461113, -7.3156048112755885, 23.64439004861338, -19.854414788110525, 26.485398123592148, 22.99524183662999, 31.555507297836723, -18.15604807515644, 23.527409612664975, 7.122572809974867, -0.3646992868203759, 8.43580886320206, -23.312857156556397, -8.229848012835637, 10.103882729501407, -1.956750455002163, 5.755964395165598, -5.661508331537595, 23.564586270879612, -3.9392013140092073, 8.210058885370719, 7.278580319348352, -28.94793474448977, -1.6635458006458315, -32.4448307994449, -2.7654641031149465, 11.106968246637834, -18.351847561428773, 4.251799384303938, 20.261260029951426, 6.308494648247036, -3.950268032116068, -27.382461323984018, 12.780632413726456, -3.915382516759787, -21.065938122443942, -6.643001481525809, -10.480177081816437, 29.08693924789212, -8.438340577655378, -3.097101210380609, 37.3866813400773, 16.04830597446673, -11.32134840277438, 29.087899374035683, -9.776470010649971, -5.336548144632422], "model": {"hidden_layers": [16, 16], "activation": "relu"}}