{"model_name": "mlp", "weights": [0.2883143638837602, 13.920464004572754, 6.461962159828338, 21.10160679361413, 10.97375934335624, -9.93016652766223, 26.068549881925822, -6.938548432939513, -0.10063284547818185, -12.639192618559589, 8.335957776858432, -2.639104372225277, -4.757174406466966, 8.078274505269176, 4.176814200481068, 6.961189146611951, 22.354310100283246, 9.372196508200117, -34.08520343192537, 1.932056356441564, 16.357459673758264, -7.7662894898258665, 17.22725787645151, -14.038435854180026, -5.347833078935405, 18.419010279719288, 5.304993333255948, -13.464040140649189, -11.09111283531127, 30.142403398055414, -14.829459231363092, -1.9421871390249048, -25.025350338987266, -23.425512292478004, 2.820521958932974, 12.636170393148278, -0.685647463681065, -1.311184366825126, -5.827485171777358, -0.548219577404752, 27.908501811567497, 8.580663633518764, 1.518378681271045, 7.328617100037825, 17.031624439777865, -9.656223367244404, -26.319442631476505, 16.76159842011328, -11.057531002474375, -4.9357095434761575, 1.0119038791252815, -6.253405923569343, 4.990525197806325, 0.9099374724532353, 3.3284042212402776, -13.83121204617333, -0.6799675842224343, -18.963748724876, 9.937851193274488, 7.21736559262852, -20.524008597495786, -16.506467409816754, 10.805185011217835, 9.993262470731802, -14.528780687549617, -7.282264435059571, 1.4043830577861982, -9.210791805138232, 8.462747352982158, -27.92130483681187, -20.13031567297116, 18.1115902470278, -10.90370077127699, -15.717631970388672, 20.22380010294039, 29.610106541358597, 7.994734153542471, -7.739466400385991, -5.777190343947336, 23.627372825510196, 8.065314240750677, 25.55189588639238, -11.908961913625353, 16.924297101722413, -12.460820197353087, -25.355823364247662, 0.06321782319253533, 4.625322114950749, -2.5426143462884334, 0.9616716707775705, 31.486629512563063, -27.036550044412554, 10.097898377565219, -16.25980589971956, -0.22886523955307225, -11.899753584403376, 2.15547581500419, 8.83839516482383, -13.353373395288397, -10.67448859986764, 9.593094625199898, 15.227340782099212, 3.6503024825496473, 2.1494296241117046, 0.5970601527459406, 16.339008081669924, 14.212967390628727, 36.5594993635542, 15.875257620789496, -2.9614180253741234, -4.840180864345251, 3.846354106193681, -15.631725406417317, -7.5192637638393, 29.198308519215725, 5.997632371352943, -10.168719241788057, 9.18800421449238, 5.694936689243201, -12.605775974856044, -7.674217291742876, 7.988912868774205, 27.0223771710822, -3.690281208522005, -26.38956080559584, 14.888631532455655, -7.118416495732842, 8.468060909465445, 2.5779904426600475, -29.193213634586485, 37.734401532079175, 1.1306736560530157, -15.790653585021426, 8.556897744549124, 9.340679372379627, -17.45018594767848, -44.903612064081905, 0.04993700238372898, 4.1930972103916755, -3.1558490130193433, -13.086725796939357, 15.58188039609321, 3.744548545256014, 16.797909972522195, -4.820134877234614, -10.011771354137732, 17.620021061235153, 11.027272232363794, -9.097759936420392, 4.091983917574065, 4.806378157931383, -0.871919259483174, -1.739034417528186, 20.81275848325485, -9.036692841956917, 6.079583715885524, 16.419169092646854, -23.67560223360974, 12.380789710968525, 9.257140509284955, 28.4493940608542, 8.406751521672323, 39.94804626599993, -20.65042446303048, 11.90202823909577, -0.5019892814133267, -5.40535353160311, -8.31447576663158, 11.446211595045662, -0.681311077416626, 3.924222642228074, -13.453007761122171, 19.674727309702586, 24.52212150380553, 3.5043551324301294, -14.536935058987796, 6.997295062198847, 41.01970502134597, 12.551307826222864, -6.786062536149355, 4.506934268831313, 26.535051176660378, 11.453555492864037, -9.328075378944531, -32.644877976276895, 7.47784410658623, 18.741508567009575, -4.804236521885175, -13.943889358634895, -17.214865006987086, 16.18899505652821, -31.784384126053112, 17.24455723605974, -0.018242853009718174, -10.220138158162412, 27.17511894416144, -21.29232620739772, 14.47790625788445, -3.1652220350436835, 7.079145063379871, 8.815049226590897, 1.8041585514460188, 6.426546024050744, -11.928027978184646, 14.906408002424124, -1.1633596844522256, 34.64325793047079, -13.55667091239288, -27.980575583010406, 20.770255093819312, -7.47740638208815, 20.04311041782619, 0.24018253867146505, -19.777203120829746, -13.706092653038864, -2.2472534259988204, 9.784352359417829, 28.977070217490592, -18.505560820187704, -3.151345536411009, 1.5507802968746738, -10.068462594379799, -14.10614332455595, -9.853762460402443, -0.8946619525734154, 18.640870306264546, -19.010682616304365, -38.201673993609575, 2.645417821704171, 10.593498428544553, -5.853576146222783, -7.464401848133222, -12.849539653598235, 3.686955179597023, -15.531179974243052, -7.48509846849989, 23.462475659912663, -18.651041905254964, -6.507101897084165, -11.802866534280863, -28.869954126486935, 7.249270259842719, 30.552295012711298, -14.415857061018588, 10.780505500970126, -2.501441095212102, -6.990557124079301, 19.340842959661625, -8.540196246472535, -1.3026782001445452, -4.954946750459316, -0.8697667613303709, 11.565291767561375, 0.22300192686203504, -12.026361966632313, 14.017659075993505, 13.974376194683497, -1.8805848788721629, 3.0268038137413287, -12.215846169425204, 20.935912247426824, -23.872987573321957, 3.3661533443908853, 8.877569802606548, 5.986025645239069, -24.125279949922096, -2.974482557787442, 6.078891898572224, -0.2795014170822279, 26.600199372553746, -15.86597178624802, 0.42552966338886555, 16.553998562498858, 1.6553276583717225, -19.23033287892392, 0.9988979550695914, -2.5157679345857686, 26.81643759723068, 7.858108676869518, 13.930015124364285, 0.9241569141348192, -6.541802404064615, -2.317992444279236, 4.946498808601956, -7.988884731890719, -18.99076763829143, -1.526517260969582, -24.533174332241256, 10.811726382870948, 3.646326578830571, -21.062724450922058, 31.98182507427331, 11.234128106662277, 8.007385803665743, 0.9157658491056883, -15.379273877777365, -1.441779636761235, 14.834627033943233, 7.38729631079312, 11.027991738981614, 10.81436856087892, 24.16873567211873, 19.862062730291274, 21.368568423339973, 5.552369005347281, -14.470705040735165, -14.42339586780919, -19.15937633272099, -17.88166655410849, -4.997456406667567, -0.23945851461480472, 29.436219271733673, -32.121892329389084, 2.5926460721596643, 4.1904138150201735, 11.389262910358683, 4.010555387741666, 8.773730380537687, -3.7760695145035656, -7.267386088606812, -6.554442292534196, -7.8515013911296245, 16.59418838679821, 18.520465936937285, -12.34486955318179, 11.418485497130884, 8.488048570553406, 3.168233425766779, -7.17119946713592, 28.50533955851091, -7.868321248659162, -16.50685149130981, 20.147347976879256, 4.0240149722731875, -5.019155797347897, -12.640394150239397, 0.5440726086559577, 9.47261121058679, -34.92226927361553, 14.122656050519769, -20.46532948923564, 23.36994076398439, -6.232151520386137, 23.172863953458677, 0.49728219017668995, -15.503206049861022, 16.850551737951303, 3.710091040153112, 27.321352679674003, -1.5438755901051895, 4.52977140064748, 10.951530722182687, 7.836113874847987, 12.104812430069504, 6.4026736310737515, -28.617931549517486, -9.164948224526535, 1.7910906966159654, -8.30610265519818, 4.877301696188425, 5.460731993328594, -46.532105353422345, 7.538728446751736, -22.961787098014764, -28.993857924093422, -0.8145575455532765, -11.066081622021304, 18.29837799971444, 28.3748576751096, -17.219777836228623, -14.579045096194845, 9.096813807897286, -5.0198087469856825, -8.165480833348996, 19.105920137421176, 14.689291816400814, 23.56300512773723, -14.09430601541949, -2.6295241981439084, -8.171608442810529, -25.694284117419773, 10.626957797841506, -18.066570176239424, -9.129607978990975, 8.607930001920804, 0.8874642444915816, -6.271359404267835, -19.099592083761305, -23.833938953578734, 39.06676244946651, 27.15859408191539, -11.021649435643951, -28.731373738822228, 2.4411476894898363, 24.174457466680394, -20.021976325159482, -13.714303567490248, 2.2452770409306297, -11.051973786284949, -4.761929730186141, 0.2633893123030392, 5.5386437048783295, -4.077497119478632, 6.075793933189871, -5.778476338758329, -2.101597185696559, 0.3510359806386264, -20.202798664335376, -20.249864195114114, 21.72249474264952, -0.22836505999853013, -6.497576195736827, 22.802202558582692, 5.143400864446891, 6.154385724188317, 7.8716953466646205, 12.425572574650662, 2.1914447758695537, 0.7183517702844745, -11.11382927306543, -0.11424971566001285, -43.502222274554896, -2.1230964757817854, 4.814215950121271, -9.23374142763221, 4.181865858997943, -5.113102265243655, -4.164889100487711, 13.853617565164207, -28.00096491422794, 32.79031302455021, 6.597520931344687, -17.47588779388789, 7.571759978122998, 12.429465390207866, -1.4905430774473096, -15.682561927262075, 7.423755637982927, 37.69504314805083, 26.051369406176505, -22.18387536634175, -1.5062330159028021, 7.621285137225213, 2.62252859053816, -2.2771429483250585, 26.01353096921718, 1.2543703815742684, 7.404983099529887, -14.256606315408915, 5.753968109877494, 13.012518369811161, 2.7201235934433803, -12.722830265496517, 0.9402530513172178, 9.02342149471944, -11.120095923647428, -1.9200174257576779, -5.08928835880666, -18.09285529288055, 15.160563878181357, 19.640953103651405, 18.63490638407096, -5.973874961395658, 3.823588811679115, -7.83244335557513, 0.06365245200025085, 17.402561643336153, 5.155181844408959, 22.299515890719224, 4.888378200536508, 25.06483806625433, 14.746285771912913, -11.897975534921756, 1.697483050438579, 6.720416942991809, 5.374749026125102, 2.6539888757425, 25.93649699581941, -22.419034695520306, 17.31203580321949, 3.3108082045019804, 9.98901770562746, 4.8245365268760345, 4.174656663701799, 3.6032406799207894, -32.74292658255244, 0.04634213123906156, 19.621479041508422, 0.8386702081050819, 13.005018923471873, 8.895783220104605, -6.9757897991734215, 10.85211515075692, 15.226004928658034, 17.625234372162662, 23.11430076134216, 5.725992253844114, -16.24825266092977, -19.036731668593394, -21.830481875375472, -7.153994296182395, -4.704430934753226, 31.392312631808945, -4.620305578231203, 7.667112966664306, 14.17082375546696, 27.231405657255664, -3.541981153718395, -9.712983826111499, -3.6666892057873355, 18.082077712435954, -14.971628703331119, 11.129604813747864, -4.679754543553782, 11.411423286571175, -16.065079038333693, -1.3621078349621618, -8.805353598006887, 4.286241422580346, 26.13910087295614, 37.588188014281705, -21.736595410087077, 19.646667911579378, -2.942822202966359, 6.090097737173052, -5.319822247360259, 4.772423832480751, 4.468504313521498, 2.840614078683186, -12.977826040954957, 0.596316249808398, -4.700999632885975, -27.163902021979325, 18.69586538314854, 32.6824815346125, -15.163489340804778, -17.88570403088464, 12.636006249384291, -15.592359592710194, 9.543006466068615, -5.881580729176301, 1.5360737424124409, -5.138970106894406, 22.519264511043964, -10.00097296834655, 41.25238548804804, 18.016027995509226, -19.44626965752533, 16.77743554938083, 22.300541176923762, 6.4652266710471675, 3.3962528691348663, -5.4666903936078635, 33.35697228782794, 24.918492822315148, -2.5531048709621214, -7.614205395701536, 14.811664738268213, 19.106207560988462, 29.402727681658273, -28.32651284376514, -4.001196028655846, 19.912997559931817, 1.1904013825041546, -25.504541757452426, 27.619049285460758, -7.179106812946424, 22.09723698328017, -20.365171214928907, 24.242629643145992, 21.203633035720888, 26.224567436689604, -19.342599476750138, 21.618321835535728, 12.133139144997072, -0.7972243839105762, 8.582850539909533, -24.141427327802667, -10.23714135497237, 6.31963595769761, 2.363734410304442, 1.990581027211851, -10.017095399245399, 23.950540576481917, -5.9555331351289205, 7.046207782944346, 10.651593873336859, -28.695057870198404, 3.3193228597611406, -30.966505359781, -2.7304661044738827, 6.4423781118510215, -17.717819280148113, 5.716025552902588, 18.0247499298806, 7.426064409997648, -2.8139602086352054, -27.269311372404044, 18.422246086887046, -3.1554999966258164, -18.776551377674608, -2.407563434575229, -8.265352184041348, 33.49749839647638, -11.58858515863339, -0.24994371916855107, 35.66426285553579, 12.112349087706528, -14.028916728961262, 25.438626735996213, -7.588684934377628, -3.069415921564011], "model": {"hidden_layers": [16, 16], "activation": "relu"}}