{"model_name": "mlp", "weights": [-7.890830107113531, 7.666297310363556, 5.43215553168213, 7.554858322078624, -6.296400568326989, 5.715859542942115, 4.658039509246824, -0.6814667755691509, 1.9410349360560994, -17.505654344508567, 1.2657168695058736, 12.679667791212163, -6.04843358204063, 14.10700119940216, 12.924005006063181, -0.7715829779188795, 12.033408206020093, 9.828999275597429, -20.181853326419326, 1.2781228574326888, -2.977316755972942, -24.406654868262766, 12.231717035945271, -13.546479191078204, -8.206197357602754, -1.596083827949832, -1.4871873007020855, 8.191439978665917, 1.4129817373144187, 29.17771095128162, -6.564442634484172, -11.096233397221914, -13.955980026003129, -0.6271378395442337, 6.219454557865456, 5.753849233983682, 2.3566380649384846, 7.191489105853005, 3.0182113112900733, 4.11962048380491, 25.09563164664315, 8.947029332302877, 4.1269844693618944, 1.0377949817365502, 12.897518787859976, -17.404838553054734, -16.970003167368382, 22.56306949625281, -8.29827987117714, -3.596629447236291, -4.430676600383526, -5.104609563659889, -1.7928888542180765, 5.266840728650426, 0.7689259091610048, 5.535225437911438, -9.713570208534934, -12.978120225929255, 14.154231531500976, -7.415326707068678, -6.978785801715724, -10.378853540696987, 0.5712678561237886, -1.9737309414301039, -12.371515064774028, 2.9136556822605004, -4.298805080348918, -4.204705565911041, 5.23482141315957, -18.753154962393857, -13.430977217758095, 10.461149136728572, 1.1483896692520392, -6.7756692202434055, 16.52725743084784, 25.264996356667986, -2.997606071472541, 0.7442452267766698, 0.082292284824377, 23.518075684942715, 8.99367307592739, 23.835168955170726, -20.49287017874208, 1.4010969588562272, -22.2388791900903, -11.5006343643553, -5.531780667835785, -20.370028595666152, -0.29942690221621593, 7.801490228919916, 12.606642205620199, -18.858397257676565, 11.074347419037773, 11.53976126072561, 6.518470175362941, 11.2712072002288, 2.1769671216824085, 4.707337841613747, -17.773783004440165, 5.369433041213721, 9.74110049695187, 11.413939118517359, 0.43250580512087244, 6.168256476816004, 6.335760146202046, 22.834708836471933, 14.988093074440185, 14.04736764722273, 12.285131491817712, -11.656475213119881, 5.114735778936099, -13.226627830795607, -15.952026183585652, -7.4469299059915395, 7.271272870022543, 2.709100722405165, -17.63142170452538, 15.754477263336275, -3.5170990980400703, -16.20624659455751, -11.558535109472016, 9.324321341463211, 17.04381933301768, 0.9120121109850885, -10.341318076445903, 10.347249527574217, -0.3248758886252418, -1.3973711934309743, 3.858018180178717, -24.21203190709105, 12.235183663080893, 3.0104975991843466, -14.552637379981343, 8.28384906778974, -1.51715765105314, -8.08938665606281, -14.658016884365892, -15.817156075983787, -0.13226332904040128, -3.0192490941619647, -9.282806891397387, 3.4352247813452523, 6.842396886439116, 16.84601771821529, -3.643404830778966, 7.483567874394383, 12.843145017274244, 4.698721614208129, -18.641982325032682, 12.119556384814144, 1.743128683907591, -1.419709363179126, -4.954696786666853, 5.39592473995996, -4.254792540556494, 6.555655364359695, 10.093659762475944, -11.800556226970732, 0.885829327990012, 1.8567348444089515, 10.945410981063532, 5.175578378160649, 47.84792080597849, -5.439941424189736, 5.521528811285531, -5.857120048454637, 13.817708280807361, -2.4283786730411467, 20.71999568901233, 6.772261505778742, 7.465837378620941, -12.48824826247566, -2.0889927384507443, -5.54829873114257, 2.419367813601265, -15.215227697574518, 4.212899894987295, 18.11686717739161, 4.316937768911982, -17.53324919127927, -1.0335128958794504, 28.9943925587811, -5.066668865397631, 1.0515058907227086, -24.282329009353443, 5.250337627091572, -3.4426707320149017, -7.210490949786119, -9.877311180990493, -2.6942334849973437, -0.42090468866470787, -26.360163223139804, 7.159618036310741, -7.058018796575283, -8.310947950574866, 17.983480252240394, -3.485452279213301, 10.714074092597272, 0.8962176799693903, 4.437587228664353, 14.460128155293798, -14.43203557874595, -8.593401330476407, -6.761307361262641, 2.14765214083841, -2.389312115053057, 26.505997671351864, 4.9277534622142385, -31.371060424856772, 27.877529320623914, 1.8010530275863912, 4.885163942137818, -0.7249185239253876, -4.939206716110777, -5.933202160019596, 4.010454620820063, 1.2875881580983433, 13.494869262049365, -29.21267611306422, 0.20703854890307435, 0.44150870498857814, -8.280193025294471, -8.741675626589497, 0.014038162865055659, -5.919477275148854, 5.902264885806527, -16.97298013217996, -30.39310260216893, 4.041498694101048, 9.895138720921878, -6.775753995794068, -2.5653237740289683, -5.796135942033424, -8.719232899210372, -5.8134875602137654, -14.82564955056274, 34.61209097307099, -11.667782479478557, -1.767196855111695, -7.604832208401531, -21.034585854230517, -2.7769212868154742, 16.60673761904234, -16.27310199265142, 0.848634501637428, -4.34501522020479, 12.451811402287289, -6.394927325573079, 1.3359613430375965, -12.812145725501814, -6.509265433765472, -4.7727598343824225, -2.1259699951584583, -2.329934702363436, -2.2753271625983036, 2.264251462218999, 21.09558495875493, 1.9227117697040752, 3.7568031969328315, 1.9032408622548074, -2.462113712273166, -9.8969784230113, 5.66199566928854, 4.027396498771287, 17.343613612484607, -11.270645879323203, -8.673511765553018, 5.3553567600165985, 2.3404441718187714, 27.651032654939538, -15.045375658838243, -3.8222433342389457, 9.996531245711019, -0.2998473792117552, -13.53424682472243, -2.9580731804193405, -4.617669655027288, 2.377852016482527, 11.703566607670359, 10.855438954869578, 1.1740211726388936, -4.960978071860469, -6.0555923130384155, 11.52690914932808, -3.4238448086029267, -1.0336494098715137, -2.638386390571639, -14.129001368518772, -0.9226566680436202, 5.812730963836626, -18.477067141772196, 14.984553881383746, 4.692086203482226, 6.772475408301633, 16.096052330126494, -14.153657893445917, -4.77522009796961, 12.110699711068404, 0.7244741744464595, 25.531807040215895, 0.8176982733967368, 16.46082161891601, 15.647195694064441, 17.712329373341348, 3.9678656902276144, -2.4786468121388103, -25.51883703544547, -15.515479373822464, -12.761786040152119, -5.519962580473491, 14.348713031753729, 6.165083374615343, -19.337977468498384, 5.284860819395652, 2.515418460661511, 6.798447422081369, 3.0175150555232038, 13.75261465284177, -3.2387726068114624, -7.404978291353596, -9.988752498499862, -4.879094639883703, 1.1874795145725845, 23.940139948441296, 14.378681472402915, -11.6236298499533, 5.766344954836602, 2.8813257283233247, -0.6010398844302872, 11.392026683332482, -17.72786641266398, -9.733582276324817, 6.821787759217749, 2.6111660394137313, -15.787105412054723, -3.924783840612011, -15.346772255813093, -5.541735960287215, -18.829113482723194, 25.537751714258675, -14.745585649197304, 14.068084445531104, -9.009502401558178, 5.38947463074429, -9.716361679769424, -9.396458701404539, 4.101374863926922, 7.421710156433545, 6.925399408184332, -7.053774746558844, 11.59418990630062, 10.943876858639282, 10.889419171447658, 7.9310155750754845, 7.192799082139735, -10.682523504176434, -1.9786335072007877, 5.463259318733927, -5.333433303330149, -2.112394950853992, -14.40731052110695, -30.359114994080997, 10.632038541983201, -4.8404987901249115, -8.754046529477897, 1.6876988755808007, -26.45654896444978, 0.7365137592403641, 25.436299654695404, -11.058405247075436, -7.435867554848326, 17.36817986586757, 6.020268270726529, -2.5656355275945746, 16.577716022703843, 17.998828107859893, 22.71902182828904, -10.939449448156124, 1.8389913596511516, -14.481802782931661, -28.07445546692867, 7.508201065637404, -7.803273610715713, -21.837484275678612, -2.53429647723375, 0.8987712574417102, 6.348870350559544, -16.90828434864583, -17.091645468330242, 22.020077466826177, 13.688361422018676, -3.6396021661308486, -8.235490608683275, 6.175148674547585, 9.404791310347386, -22.01988709018806, -10.930809235820995, 7.797105543447173, -23.972762585941194, 18.577267527955897, -6.596428392326782, -0.31906503036070455, 3.8538590860817883, 5.043176427419094, -9.448858729738625, -11.656726907685394, -1.4672674430598147, -11.758465550139583, -7.698865512035519, 5.372756528987928, -14.29801101544384, -7.339177670084674, 18.276801999935017, 7.66315549218985, 11.891627275629926, 11.31726446044563, 8.013712997121354, 7.820023135737333, -0.8231622380230045, -3.832486794325949, -0.699638494317643, -27.4586745770992, -3.8253386415726265, -3.07758206482354, -8.344012346213633, -6.027996919885675, -26.519216135340244, -4.96165810616461, 15.339706982291204, -18.99718653139447, 17.985851541230836, -0.3110110709529404, -19.243453112113666, 25.6490775071159, 3.3508031113078025, -0.0916389126626343, 1.481499178168391, -1.1595391743958754, 20.083322365502642, 13.535124133677304, 4.270503128477875, -3.5754500775044926, -0.20739970753338766, 1.7024433499660994, 2.2415994472973075, 11.87854955416368, -5.0471267268569635, 22.486757955270004, -10.788242425713644, -11.290066686857017, 2.6222877255120003, 8.315044179723005, -5.785864019706678, 6.567796430376099, -3.356341774841458, -8.53590382926045, -15.175403119757732, -1.3413066658463815, -6.928190500002844, -5.891208720945861, 0.5527988868793761, 4.386004686304348, -11.098128995031583, 3.3117630121281865, -7.228850521045716, -9.580719976622058, 11.988458176878172, 15.579986135282674, 10.17973249242418, 12.721307791364167, 6.5493891366630415, 7.888350120137476, -13.025181387366391, -4.294615314398817, 4.033623206018586, -4.600110021631496, 0.7166341366509067, 6.039317155446484, -15.551678139968482, 4.181938843829118, 1.9307415461179491, 4.165902413621936, 9.547397346678332, 6.000457822178895, -7.90037717547889, -11.147065513647124, 5.09220851430215, -0.34545082783421277, 16.069358711912688, 1.294787839186631, 0.15278430195502174, -11.767638333532444, 8.543820892355258, 14.328554687691582, 10.114707148378447, 17.48488927869592, 7.438819737368015, -18.85752854860992, -24.29480612570481, -18.08864457034206, -9.138272666790266, -3.669602139173924, 7.712245550744111, -4.399071849522894, 12.694839357024959, 1.7658563080595828, 27.18316389181173, -7.8426799153056965, -15.30945108536865, -5.380885400717725, 1.4523145281021999, -19.702341945433247, 19.162741418636625, 11.003080935314324, 7.832819796498708, -8.781531648819113, -5.6144335981199, -6.786215406671549, 17.07731547904965, 16.53740785985113, 23.783789350018516, -9.937124189597638, 12.33243447711799, -10.712409159177371, 2.9022404956146466, -11.465628111333999, 10.426234508916279, 7.3132299001780225, 11.42168759396744, -3.722737850211498, -26.87109985256446, -13.856018033138128, -10.47133738076229, 18.80055117067668, 26.288449545512474, -23.918470202447534, -9.428311069110778, 3.7696417553692902, -20.44627003985652, 22.273673547202517, 1.487174144109216, -4.895357587986481, -4.054476967482918, 7.404317541174781, -10.016734601365238, 22.90173208903255, 18.509280134714427, -15.633473856848566, 6.379753674408539, 20.486118896287458, 8.236048814451442, -3.686089167631478, 16.6208054568402, 24.8255852620902, 17.39658473728231, 2.5428629970787373, -5.864248369994658, 17.797053211624355, 0.5376707030083295, 24.664885795510713, -19.648658266601856, 8.970197610937372, -5.186393601549437, 6.293514893426476, -9.26156896268635, 25.42479852532681, -1.1590708484895038, 19.226855881476027, -19.592966508030496, 7.978337006639578, 11.041298677218771, 9.097975482451655, -13.40226432342007, 21.405593666292738, 10.750875138472484, 2.262839729520224, -6.259793285817242, 3.352859093977505, -13.413124704496742, -3.474514538689976, 9.626089601501523, 10.308683922355009, 5.750226895695201, 8.21223432996808, -3.5432762716072435, 0.5199573867152869, -3.2322031003167284, -19.010707331462413, 6.694037002302503, -19.95409851672185, 6.524525812258583, 3.00405108717922, -9.675752497078305, -5.840532367869994, 15.523574144458381, 7.843873388385595, 2.0502777734958966, -13.160863356151518, 6.76581282557352, -1.4927695551299807, 4.158661944076861, 6.649225875683345, -5.500527702930508, 17.65639026139241, -4.263843427838479, -12.405116766784479, 26.927241863940548, -1.0007396127146373, -4.917718378210655, 24.223881979763107, -20.49382008057784, 6.878068492601394], "model": {"hidden_layers": [16, 16], "activation": "relu"}}