{"model_name": "mlp", "weights": [-9.90550685258883, 21.662352301028697, 13.254947705514725, 18.998909079314366, 5.407678255556952, -21.94018264138648, 15.00003586431054, -10.624612809861882, 3.893021693143523, -20.298058659873448, -5.202880069985744, 7.238420176628918, -9.28727066617127, 5.005451036284543, -0.9955750169714099, 10.374650418365828, 24.83098146623058, 11.780350524867973, -36.55466812167478, 24.62979503441441, 5.923298405692314, -4.70373222743761, 27.25934887160557, -6.102337003524036, -4.841708717032458, 20.98553284686223, 8.739315470010423, -5.626384760990626, -5.846552368038591, 34.37839377325641, -13.023494652446077, -2.3080966520389294, -35.06802695575528, -21.62801106987662, 11.257113371425413, 19.266045603471472, -3.8135256790363687, -3.182934801071891, -16.118979192446616, 0.3812120748443264, 18.855682909872154, -2.4425500402661395, -6.377932876105787, 7.591174176248015, 25.27443607868267, 0.3497808550988526, -4.623711327652517, 28.915301014471055, -0.37768798948648485, 0.06754330901232991, -5.937893760937509, -11.011510558686513, -5.859167705875231, -4.450217156892862, -0.6882146730306502, -3.183120327680606, -7.475030783866316, -7.234700371665872, 16.859906368217146, 12.18854130194751, -23.596107824351453, -17.270265924027996, -3.7836372674001306, 19.954988741561507, -20.464850802118168, -4.895415033518524, 0.6665639195837039, -17.762910525189614, 18.64384509786577, -27.90854945626375, -36.621875073433316, 21.56364707391249, -7.123171024650709, -5.140419594201479, 20.874544838901166, 25.845551595237268, 7.960775088399998, -9.328414160516365, -9.472026275040125, 19.270689429216716, 13.77814102664392, 36.67914920256164, -10.066060656899069, 29.244467304177018, -15.000079986306462, -37.05458813730301, -9.299897433305976, 2.7108442263768913, 19.541659298153938, -13.141756783413717, 31.580002163501973, -11.072226514875618, 1.5175070625641982, -8.691861601720596, 6.263107534937228, -12.976679529651385, -5.80933844932007, 19.508698870552813, -16.659209901632405, -4.1535777249846175, 3.1218786926627393, 18.129583612310764, -3.0908379744230765, -2.5653843895486026, 9.283238623134116, 32.86774143593753, 24.053686744818563, 38.61880145979975, 24.4293639712311, -4.151863949674782, -20.648481226359735, 4.117455179211792, -17.262803134375687, -7.310331326350282, 24.57081706462822, -0.12969572560555626, -14.588816315311032, 9.438252005334446, 14.725915409774613, 3.7742229158178957, -9.912343650335568, -3.0695917048532313, 40.30100480350333, 6.5463620410200765, -26.10562021143403, 8.999222989853239, -3.531646185485031, 13.897600102401624, 5.37182679367673, -26.558668471244033, 43.95195950611054, 4.550073069841616, -29.07289050983009, 15.760702422282353, 24.616994174702704, -17.26489306398035, -48.188692683029686, -4.779372553968481, 6.985282184183851, 9.894212308009074, -3.5261196745003067, 23.282198006125505, -5.040711942084908, 20.94977112166015, -2.534027098668695, -19.41253711611262, 18.678056743391085, -1.4607021471658241, -11.591010017960526, -1.7160901869372926, -17.42574206683158, -5.92684935407377, -2.802309327938505, 22.787273318585566, -7.9277050426350835, 3.3495322352094505, 26.944776795955317, -30.165922634594402, 7.099474628575153, -2.703988125465282, 15.285948081637589, 5.7943380618560125, 37.940863567501765, -15.944432438509008, 15.261403078701155, -18.36147254256594, -2.137286805376511, -13.030631514267366, 6.1721094685768065, 8.812686559943879, -5.088661155369277, -16.89267214412748, 21.900477804844712, 33.50170504931232, -10.686469507069821, -17.360936359558874, 10.87986757374988, 39.96061442153701, 13.171692649137665, -10.275439477048252, 15.08716032137435, 29.732327687265514, 12.000767616050174, -4.271064102734002, -38.93264371003382, 4.162817723247006, 25.855688613541076, -5.813231799550114, -24.259264727228498, -25.021864140553504, 20.298992239987868, -23.730628203003274, 21.83224213932578, 5.271977582049159, 4.417979118848191, 20.553536563730933, -26.42727602196355, 26.47802392066623, 3.084329218760975, 17.09313766453958, 0.2866247787738836, 2.0980983163139197, 5.33847277426584, -11.462331261765916, 12.351289106482986, -12.394803085092047, 45.66541947948324, -23.483328432464596, -26.977894215403797, 11.209681201194483, -11.205636719456486, 11.34893727588278, -0.009103564226547928, -13.213680694970181, 3.8210987471850304, -10.451926128103198, 8.974394433919125, 23.34741726265736, -28.80547743929734, 1.3541687898659338, 5.246687394559551, -5.734195924188852, -14.437032889406376, -4.812765814578856, 4.817152788569639, 12.981469241043333, -17.171510851045895, -38.073705712495325, 14.901694763793301, 7.705276980164412, -5.44750578089458, -11.023838824312893, -10.43827805172314, -1.9789572519435619, -19.925625790970212, -6.230134655355807, 28.623917829771838, -9.364207630955164, -2.7324949315593647, -16.102039331567166, -27.294764957531562, 1.8757333130320275, 15.871108874429359, -18.01316175723764, 7.358294940045167, -5.1392717566958215, -5.7069605890262665, 15.232628763212045, -11.140662885392922, 1.7404637824108544, -2.6520362044615524, -14.85556978065213, 23.421621640003018, -4.9429962778386, -1.399625281040295, 16.028469558761294, 6.032540857114359, -12.452140462826549, 3.689438079992282, -6.322478074771622, 22.743049709348757, -16.45398429886241, -0.8982789164643366, 9.623357650255087, 6.354498910209054, -37.66593575829056, 13.700822756755022, 0.7136371447776088, 13.715725444696057, 16.36066362247898, -17.02281971262611, -2.243915747205519, 20.1766763762589, -1.8162552838246224, -36.59490520575835, 7.260589975740249, -2.5184520208946943, 25.108387759783472, 3.5406693041542, 17.57879296345912, -3.176973555139059, -12.27714968380488, 5.632067762176128, 1.4245959695894959, -13.134028293939629, -11.693007727052208, -1.2704744489045638, -17.801824635480536, 10.508996716940493, 10.971346148635224, -19.923579825235038, 21.12280814933571, 6.015800703397814, 22.04358610690523, 3.393647021673995, -13.777782210182362, -1.099755360063781, 0.8789592249490836, 14.286313102729434, 10.195655084746583, 12.914611722420785, 16.465154760063896, 16.93769496453823, 26.206610574066488, 1.5758645856536653, -13.676258599161043, -9.592852985887522, -15.8468664274074, -6.9778103557618065, -6.907480359900518, 0.3278994728399893, 30.607911543783036, -27.31799961474175, 9.283914482541602, -0.16577824556307427, -5.078449274734952, 6.177639391579584, 15.234292526866854, -8.357163037114871, -13.36124394441095, -7.412118899758037, -19.230765392235174, 30.79595951487902, 13.791934673080254, -14.702426107831805, 16.466674786914343, 6.708710259919779, -3.8202193928006682, -0.8545314265125318, 24.64855774303453, -11.11418574995491, -11.575492547592443, 29.346005014543362, 0.6774262182370113, -7.368091864147936, -7.12204181904368, 2.615657620638695, 4.845189541224434, -41.939770485328516, 23.535372627072256, -14.396754727980733, 15.805485301314727, -19.792602052615376, 25.32160266448658, -16.951100605808367, -16.406898923133983, 10.782175596208061, 4.987853879626921, 16.371281314242975, 8.439629216199668, 4.917096246925213, 5.724465387120905, 7.610784365255003, 17.957334122191753, 12.264095637879528, -33.9784553922534, -10.609058729919386, 4.911608137398067, 2.295067432161436, 11.35776931753165, 13.083978578807722, -50.70677400350101, 19.95039553165358, -22.105129756732655, -20.063007286778927, -0.7991234707784278, -11.799278807452575, 20.463140302229817, 33.34514461014248, -18.65509192068847, -20.061973009139386, 9.27201162819545, -12.315807027311294, -14.812938905626137, 14.6409072618334, 3.1496688404768762, 22.31158460916507, -6.6146842729163335, 10.839620057238818, -9.837117231003425, -30.989565244087114, 14.242050236908678, -22.949575269466667, -4.952954904990799, 14.6678184546602, -2.3861813269520153, -10.952955037928074, -12.043648684907062, -20.708692339929602, 43.502751575664554, 31.15235781716851, 3.549371029769156, -30.401335375605058, -4.721807696521704, 21.979437817842125, -4.7615420547924625, -5.919698482331184, 3.570790456847635, -15.844014203102686, -17.3123013134766, 2.5073358862985167, 3.977035824996187, -16.099804615699572, 1.5358599362811014, 2.7967747186901604, 4.307218616248191, 12.999654158575096, -19.796477065049068, -16.406314862978522, 42.63233193429617, 21.100754523717978, -6.757899145212319, 23.865029261425388, 4.640284375147238, 3.553225303855296, 6.303803098423314, 14.227131953998288, -4.621926410764205, 0.34356116383034274, -0.6100274146733919, 3.8017905609014893, -43.71780068089468, 7.2551626838884085, 5.4104410604862725, -15.40335833111972, 4.13364043599772, 10.19483306715201, 3.1985098327988557, 6.535250655097101, -14.586511536307224, 30.457083287734296, -4.083889548930642, -18.706865349057036, -0.49043260026433527, 12.671939992702523, 6.380714616431467, -25.229056638758564, 9.136866504639832, 42.41600771110337, 45.24897579916823, -24.36037258428781, 9.690486114316238, 16.47146047125884, 9.525460312235742, -2.8810283996698316, 34.78434194598614, -9.443116542729289, 7.9778797610658065, -26.072536938072897, 2.1230539182082033, 16.89491239081989, 1.2604592782599875, -12.77287195973174, 1.7862742638487783, 11.882159421356619, -18.46022089497641, 0.041329101066077095, -7.453119049242197, -14.265241340072441, 14.870284843801636, 19.672934353978377, 28.73814605447968, 5.332521554028279, -1.020530178053928, -3.349979585763722, -9.743403429727243, 19.986766994584897, 12.344292424857915, 17.428463593397428, 6.717065078402221, 11.511706546066847, 7.47297284724961, -17.648120390809385, -2.7845697452381653, 18.014867403592397, 11.798168163940991, 4.165497849125064, 34.265561357145415, -29.242543585586834, 12.191346899563339, -8.722473320070293, -4.256083722202632, 15.525588241508379, 5.443649876140399, -5.640433744226088, -31.423959195160766, 1.6139354003277888, 19.929164327218302, 0.9427059031158187, 16.71591929382531, -3.750839799827764, -8.1213184421498, 12.045265902970689, 27.45961329258483, 24.881634464417257, 14.857897338855883, 6.830524512567735, -33.796031188470884, -12.901648295471082, -33.451878000414624, 1.4766778078605296, 0.5996340802533198, 27.129431355499086, -6.447985547993063, 12.21678808255582, 10.669567655175271, 28.312422262084528, -4.914291319930771, -1.8866981456726877, -5.659142501790235, 10.288295952922342, -7.337790049576744, 10.528293641316504, 0.9824417581529543, 2.425372282470983, -19.717571831800132, -1.4883411816238001, 0.680484701836669, 6.141948307218005, 23.912085632161766, 38.58468223335596, -23.26543956167081, 26.38638368404856, -1.1923885518539632, 1.6249856657807626, -2.6534746991025986, 2.1961846582713576, 10.730514457188493, 6.159885456735327, -8.708036237644446, 9.796468425370128, 4.669086941345142, -32.88599445217777, 14.93257254728394, 35.863267487428146, -19.980980231474817, -8.954944260889498, 4.321979827542168, -14.87824505437201, 10.264905150671646, 4.39260014870061, 1.6585567208173142, -7.296316066862116, 21.851790454628883, -9.196396675649765, 24.80693161191337, 25.40054477329445, -19.51023534724566, 14.724655722809002, 17.066574766225017, 23.393977217837655, 13.009089079483308, -0.8725930475360602, 30.09732442429331, 40.387118466811174, 0.08887682281857656, -21.341447699702613, 21.834856605499468, 20.69826674466711, 26.925108455013984, -28.81875483702501, -7.056152754394209, 24.027139661291752, 6.189604602754754, -31.40658943865578, 27.975224708861035, -5.285536440395332, 14.204264856502101, -15.281346976379336, 20.22097850045284, 25.481799186444775, 37.71661505425252, -9.976582441257785, 20.214974408000582, -3.9616784440441726, -2.52222014525021, 10.642910654569226, -34.168935880599044, -4.085671372751286, 13.0140798337992, 5.513154593619125, -1.62018437651947, -7.096671949953592, 24.728258340814822, -7.3812157898859025, 22.28626799568985, 9.250701921087016, -33.0729202477511, 3.5568162667783283, -40.125598515201304, -9.764675492356384, 12.978511233358821, -11.585767280590956, 6.138071442735969, 22.432510963455528, 6.532684527440361, -12.881649626151098, -27.26927066989303, 6.377660562132403, -6.667062430415336, -12.9409303658535, -6.637540984828664, -10.509698128693232, 18.048022696226028, 0.321474239475617, -11.318139313520126, 40.40183036366598, 9.369862694419883, -6.240598691680902, 26.52755578644712, -15.783968970478194, 0.09316311933347576], "model": {"hidden_layers": [16, 16], "activation": "relu"}}