{"model": {"n_components": 1000, "activation": "relu", "n_readouts": 200, "echo_state_seed": 37198, "output_layers": []}, "weights": [8.481866534084645, 1.4805289427282904, -8.438300926364839, -5.149066768590999, 2.488029730003604, -7.523726070332305, 6.368271625292242, 2.0452246531216742, -5.070931155570126, 6.899087639235755, -0.28137040025997073, 6.181222736931622, 0.6571826364938493, -4.245593216400631, -10.788817687121881, -0.2933237385124816, -7.364203449314274, -10.162577475799504, -5.075588084579133, -0.18451296220432295, 5.034565858192204, -9.982854182038777, 11.804698035294344, 0.8198624131721046, -4.743103196903299, -12.084838426927826, 10.291228911972858, 5.265895680701911, -4.825296373682302, 6.785361189666358, 8.339318503161422, -10.247460389897554, 5.931525976050546, -2.1464571977434206, -0.9250480852520008, 0.4223480311197578, -4.396779989739183, 7.412961766839887, 9.099200993098387, -8.889691060914746, -6.257678595796125, -9.563944986670052, -5.677927616445901, -6.163816896519294, 13.181813615176631, 1.101736971403672, -16.09520418286771, -16.64485068302418, -3.929184197057587, 5.759644761090248, 5.7313968487842875, 14.098136758432801, 14.043851650992329, -0.6132141693766917, -5.675170496753637, -7.564908986362708, -25.13147067902132, 16.39561654123901, 3.4883451515063473, 7.877943084306633, 0.9303243431633388, 6.114618348209613, -0.267317955281946, 6.063223341279893, 4.950154432305933, -2.2398470295956474, 6.887970932707685, 3.3540506475272474, 1.5150191665241777, -1.7601105860050916, 13.146524829626536, -0.9072398953858416, -10.270452648191833, 0.7100564349585636, -7.292547372133162, -5.521926242221006, -4.318860244618191, -6.078943436816444, 6.995744234933379, 16.849443641556793, 10.64057030366226, -2.7866265116703093, -4.98606141339817, -4.743138269582173, 1.5396610073205763, -11.834135195686333, -0.2526780167213738, -4.043124900521962, 18.65469287328618, -8.554224684593217, 1.458788879956028, -0.519337527143879, 14.979692171601295, 15.166042560875603, -3.498153075962081, 8.43043491233659, -9.756197574632154, 3.6651369552393707, 1.9205493700095135, 10.336093934743985, 11.109129246440132, -4.216775646385692, -0.8365160472338816, 14.19286196639628, -6.5837518568441915, 10.648397234146366, -9.816248009540285, 6.01204634291675, -6.782521678331386, -14.252427210331998, 8.016618480523103, -0.5601683246839835, -4.8264767166756215, 7.463774253527209, 11.427714530873356, 3.7538686261567062, -5.561887271036337, -3.4605440025732137, 7.5683485548216245, -15.09416480386663, 6.211362563950661, 10.499596397900003, 1.7140950689072318, -12.48954174355232, 2.5009108860594944, 2.1586851533883573, -8.16894120272758, -7.859937340052085, -0.9068002325590471, -0.6005219523989448, -7.011988084305653, 1.6622054864784492, 9.591816269040196, 1.6391225042599313, 1.3009853810985903, -2.4621747029424355, 2.3380118585420364, -14.178777571778692, -12.155461066130039, 6.266552547882768, 0.7271207421496079, 4.864393555608524, 4.957574745748161, -27.118759766044423, 8.734551474250623, 10.690920786800321, 0.6701643423905119, 1.2254276275413876, 6.761107567165029, -4.050708613932346, 0.19985012311967654, 3.8971887700539196, 1.274371209338022, -1.2757166954050152, -5.2456102784336816, -2.6551613245686774, -4.316383828608531, 16.660052589762216, 7.562251941840202, 1.965464841186145, 5.321920393405698, -9.372859755073375, 3.9579060344039823, -3.358434537331328, -9.837610977741608, 4.266997887247287, 1.8415077216415314, -1.0435654864164163, -4.598124783541158, 6.674799221893613, 1.2026924688632206, -5.446485742305739, -9.99330653990793, -2.580238605571785, -11.467559171706846, 17.342630976305614, -0.5262761123715569, 0.2320013537440893, -2.403179338180242, -4.740955958707838, -5.132508911916118, -3.254575977414417, -3.6127388344047264, 19.761085131409942, 14.579730412621341, 0.8697529136201565, 3.348303803787303, 8.66990449989667, -4.354000343132805, 5.7177923827746815, 0.9929924034908479, 5.523505706061892, -9.165531833357718, -3.0589518473873256, -1.0273703260273108, -0.6824589456585964, -9.253333378976265, -0.14241180495269457, -13.329123579919617, 3.9683141302949423, -3.8626413678373286, 8.343580951990468, 19.056200322525637, -1.6713202042036708, 9.058114613259624, -5.07772846256647, 4.2986444681281695, -10.831866227656864, -19.437519862035835, -21.27354871084269, -10.34583594973272, 7.931110091937403, 3.066792871593458, 4.62939490078345, -3.725771483881246, 9.947003962971609, 4.505728830951339, -2.0082611762993223, 2.5719704020194003, -5.312651376815242, -14.19943311992792, -10.412765532137007, -23.723817073418914, -2.595311635739294, -2.3046860888797225, 4.839907674182523, -12.800748988835295, 0.6237659183086152, -6.278424374729233, -2.3410628546544197, -9.750329757356075, -29.318799712258357, 4.007143404226198, 0.8374532719827508, 5.042033264286756, 2.4880073083242227, -4.394792678895572, -0.16304744904662558, 8.95931496798405, 10.45706275844476, -4.247453571275715, 3.5184399618353086, -2.2830019143269995, -18.395940798683263, 0.592058548220274, -3.3653727460750273, 5.980263673106049, -14.762508203173224, 13.081818925568756, -5.916119258880641, 7.818596667710995, 13.748740703209299, -5.769353761613814, 2.394362870442321, 2.6892424097483336, 3.4261914636467177, 1.7394102876730313, -10.931820761684637, -1.882255807702065, 1.0408386614459402, -8.570516768231993, -4.976520796023391, 1.5193003516336026, -8.91213856446937, -1.7002641575023723, -0.6736131467853563, -5.75033530901321, 0.06164628586284787, 12.005935539663051, 1.4079025774220066, 9.591477052055621, 6.617829108177858, -15.721079829684463, 5.22513366060902, 1.71089947196032, -9.420155504505319, 2.7573078067730643, -5.054197671775907, -4.026967835782568, 4.454141568667022, -9.391470779908756, -9.65077700820625, -3.855840952876095, -17.332753066534508, -10.729945303447012, -6.558134069003119, 0.8921302005077192, -4.5940835988701645, -2.4358303333731817, 19.547954435825808, -2.973064724578929, -8.696295382512961, 6.342054394312186, -7.174745851148483, 6.359674826563479, -10.976262086229585, -3.8545560853411684, 4.008748648539365, 11.466277340427723, -4.537247944209374, 16.625572541952273, 7.9199580812343795, -10.204182293986172, -4.092197846484065, 5.051052731198858, -9.052056315412576, -6.237486049899776, -2.5194693345800405, 2.6419892883924154, -0.6622320396898924, -14.54686482659886, -4.657597187138908, 7.3680096193720725, 4.100083000807438, -2.82541841089268, -1.142463415182377, -13.337792898483166, -1.7060452600800942, -7.641996779076276, 10.428209822298491, 0.4794617914046587, -10.833075750271014, -0.386393220989933, 2.020842039475711, -9.079578244322597, -15.324975813919215, -19.30408043302561, 4.4220326766190565, -10.416863422128989, -0.4615479780848456, -9.47642911626341, 8.013191176361424, -8.666898018585112, 12.223414258844832, 4.956655830321073, 2.2146285713327964, 0.2654669699620832, 14.929347085388216, -1.9093090268502309, 6.449875488928553, 0.36712458931431113, 7.627947894450731, 2.3650223164531687, -3.500577388474737, 7.567792994794143, 1.5962429504307862, -6.8812703797643655, 0.3463475063641498, -10.201567192251531, 20.66616935133844, -13.322283287738486, -2.4052898641467095, 4.391131444157308, 1.2417170143692124, 12.008848735280466, 5.292191282741312, 0.8191486915143399, 17.353087084818583, -8.602797826799163, 12.208074734728063, 10.64483175547386, 0.6780771142269382, 3.2242808057201158, -1.3195599446586108, 7.31001674837355, 1.4819434695786007, 8.582061536173507, 2.3349534202986675, -7.396191848077173, 0.8501700017681425, -3.210583106267637, 10.503443146114652, 5.839245251721527, 9.13436971610446, -2.13794890548927, -11.877118871917034, 8.749042440883509, -14.50841550272207, -1.7777695782281775, -1.145035836789959, 14.998660710333475, -3.874930615419095, -16.860664150001114, -3.5683235407958027, 3.948674790199039, -3.3081500044980605, -0.9209707629898718, 7.176134187246067, 1.2196548604027488, 5.403934101659291, -0.7973799240357005, 13.551585533524413, 0.6429006097497407, -0.5836259239093327, 4.707411298523407, -2.453528827768631, 16.66220481375513, 14.931348390153056, -3.3095137068574436, 20.996670738265735, -6.397880963307503, -1.0825457117039194, 6.452756113956786, -7.469867794398787, -4.6631293845449076, 6.781246765452771, 11.717554435351067, -7.577712453404828, 7.830832717500751, 4.359389167401508, -1.5887185610423264, -7.194814626248658, 11.365452969802133, -11.319021178938225, 1.047665206327687, -8.663346501059625, 6.555540645853693, 7.199717756846218, 5.111782524703533, 2.6751850669859554, 1.8861530786412894, -11.785080071737402, 0.6749948232432164, -0.8378573423979399, -15.49114173472276, -13.656206338215942, -20.306799082222895, -1.1431933266140177, 3.9079484069627553, -2.7996848359872244, -6.155930527854198, 9.74519474065668, -0.3787225035740221, -4.482034295364844, 11.047438724138276, -1.229814298078065, 0.4835396826216567, 19.452154366734543, -2.071594846383438, 11.026320086935163, -1.5080756471435883, 10.480893748083204, -20.017152896526103, 6.5017105941383075, 9.799264896171538, -14.888277901998745, 14.74088220371062, -13.210044087071308, -9.013189145368571, -2.173548054104061, -2.9760824562284394, 7.07197043944475, 3.1861597035946274, -4.788913408961834, -5.481118219171194, 4.053707209994106, 9.386150607930814, -4.585230887077012, 10.244877045760706, -14.542909927381992, -3.5845829369859645, 15.924532091226682, -7.332235264255838, -2.0836555004854986, -9.4299484113134, 1.069456784712777, -0.9742827030429753, -3.150814333084842, -2.228926495841397, 6.008179712976549, 7.257299493293061, 6.865047211766004, 4.8665867898869895, 3.6107450414342828, 2.063990537003453, -14.15172328816946, -0.4624970776555565, 0.01582400819552876, -6.470450970109173, -0.4978663149727036, -5.657551588080233, -0.8754557807085105, -4.275286641025221, 9.064037714265478, -2.1837375300260207, 6.751121347758071, -3.1818487750810793, -6.289485473456302, 1.5293689338982974, 4.640002646348166, -15.386522964793864, -10.14665973104266, -7.650233656658665, -9.532049183430196, 3.8523391962353335, 1.6135772479637709, -16.334585443643387, -19.261537940236835, -4.203453096577068, 13.573224150559058, -9.54195797244694, 16.239531719200908, 8.622464998771775, 8.134670935681529, -2.2525977684289558, -12.37226468518285, 24.61118338647297, 12.3980312064636, -18.919640134058945, 11.595259530593214, -16.43875725963125, -3.081186395246175, -8.828226831873623, -4.180833937732593, -12.41383695359279, 1.9498497723971557, -7.422942788986715, -0.7071904990783517, -14.439655840026282, -4.807211049625283, -12.79813630561262, -16.910724577142947, -8.52588325708217, -11.829049593323232, 13.528471716655352, -8.019586107479006, 5.465881551248908, -8.859769882402526, -1.7182419826128337, -0.9298096909876248, 4.073634851981583, 0.16426979589546276, -4.5545473224137005, 10.600374079054912, -3.8987895584362544, -12.296908986169866, -7.725093098688708, 6.830653068371417, -8.823136676714595, 2.4737304658130372, 1.4791456528712985, 16.03393386265136, 12.17401204513256, -2.8685789207027614, 6.879605034764103, 11.260214725920472, -7.356359020072568, 10.433960310469208, 2.9402961155693537, 13.077035874188686, -2.0451597458485162, 20.661601612111447, 5.130810981563232, -2.279225897050128, -22.802662540099043, -1.5711179422283672, 14.241819204389905, -3.8017278910221926, -4.552615383612692, -4.76389645590311, 5.9756787813385355, -12.763185511719671, 5.559742080895941, -2.53014626666655, -2.801947720993525, 4.881965465069942, 14.493789925507423, 3.0065543924906453, 1.1301430230082932, -4.624175125050045, -4.595939382398618, -21.23112885806098, 5.189246308743538, -20.071882477288653, -11.606295188280457, -14.603591713393834, -8.4118132784074, -12.331006761922728, -9.239728767100711, -3.507613982292282, 0.14648889212366456, 4.717431844642303, 4.746951508877224, -6.270041475678877, -9.969976495746607, -1.013429840044172, -10.335869447585388, 12.612949100592253, 7.321490952694334, 3.144214957210838, -5.871772070060456, -7.854119028298029, -11.581732423770518, -0.005549162014170106, -8.886040101335572, 7.567271082925622, 2.175396281293292, 10.5072883417288, -5.305076697738101, -1.9340271943122542, -9.983759197183907, -0.7839157294975194, 12.673909831456703, 2.51906579304621, 3.834905717151594, -4.9322912214843075, 6.60151487573453, 1.8777515120482986, 3.003034255714322, -1.1671351149018896, -5.021307052999095, 11.328840129732058, 3.4145098647238368, -10.78027270264797, 6.264631458061406, 1.8203981622621253, -3.748815028380352, -1.5389519181946467, -8.985543983029885, 7.782217811031972, -4.139673504874679, -2.9145164663051366, 2.180281037571961, -4.236275040095826, -6.151865582995879, 0.051595449536624816, 1.0624101455461052, -19.891466234614903, -4.124857493898692, -8.591609560266495, 9.611067245135562, -5.296125803202344, 10.193637707005328, 2.886730955123827, -4.855664911773616, 0.8718208167994863, -5.105399104399225, -11.301558120312812, -0.7732757559053296, -16.184579507891634, 5.543494099892345, 11.084410183850085, 7.729176821510334, -2.817732939800929, 6.501682472593694, -12.609727130323638, 5.594099230383374, -21.87299166111181, 9.621724765073104, -2.301427436314853, -0.15103904173946808, 6.048328511333678, -1.0279483307199755, -7.954335176062539, -2.8902557486670437, 6.559877136631094, -2.355305335800617, -4.2102131224691774, -13.384003946889987, -13.081871385342039, 3.276660803005106, -7.510794861891198, -0.7049702089567979, -14.930838240078344, -2.126410081228377, 9.217509071525846, -1.0851244395029007, 4.183635379423367, 12.024497205816125, 1.5620758853240155, -6.36354437688329, 16.34397979624448, -1.792065863965117, -2.106793659449467, 3.401191358922942, -2.880410316163555, -7.458926820274172, 8.419184207190645, -12.309518192242749, -10.860736036447708, 15.573219131257018, 13.49409878457952, 6.518342719358062, 3.2911411180499464, 7.669859447922178, -5.4047920112543295, 0.34792215688775796, -9.032497036973606, 13.059876961605223, 5.796010276318958, 2.44776627505719, -0.1396095502795207, -0.6045494254073744, -13.245541418512222, -3.276286979317881, 9.720689896961847, 8.349290215913118, -0.6157908315062833, -5.557397149034998, -3.1067142993415926, 13.962663138867512, 0.29265497375095517, 12.755925166969968, -11.240697672280698, -18.715245422183695, -7.724093467160891, -5.18578079418854, 10.869212754371292, 9.171223560262256, -7.182878201533331, -1.7645197901851895, -1.0100251775231128, -0.005389128871980911, -0.792370584987182, -4.070855645789318, -0.5524808202725217, 2.901897810278903, 2.0709253489765045, 5.059376333418517, 3.951501343714815, 15.538229509999423, 10.83472507894147, 14.758407899305972, 10.98126038404397, 5.198287531985437, -0.18041567227741268, -8.482436615266497, -7.150918956296241, 4.078390185539159, 3.641982888873889, 8.72570144830827, -7.641715865482207, -14.18437999526611, -2.051214009950596, -5.4312745064086965, -4.255814309288555, -4.3418015690468, 6.985470839383262, 2.094785334998525, -1.5782040056243378, 15.500616896141265, 10.578659670749856, -5.663563726250135, -6.676110304533529, 9.449203005957775, 3.9818454625740367, -0.4817074425911224, 4.1266052824673825, -10.833557690917015, -9.542573246729123, -23.46351729132917, -10.202438131667462, -5.371445532664959, 13.015042225773321, -4.6657459930161185, -2.5442725910556305, 10.874437779057608, 0.36163595963705997, 3.3422616285662996, 0.8633975054803331, -12.376358073469074, -7.332025033935595, -4.9723430089482665, 0.9158890566658108, -4.131920560302023, -1.5118177001063473, 6.2596931788317995, -4.258633913361139, 7.797930753773146, 6.377509339022465, -27.98280333070166, 15.616489171933736, -21.026018504397, -15.622293665950075, 9.77358656565414, -0.04131627306186103, 17.80527040128127, -8.14699166142724, 8.417036462022061, -8.060406890413457, 2.023262971868136, -7.834761006339081, 12.261628032954436, 5.886436822463142, -0.28126691422672345, -14.55632294293307, 5.185776117971663, 2.993731869224773, 7.98711463344673, -5.649082726783595, -6.167050833896079, -10.495465568411023, 1.2811895803054236, -1.7543742270825482, -8.592770160938583, 2.230451961752376, 6.473306452046493, -5.24099570099348, 7.694727044043895, 0.44388764072927894, 3.687051992029642, -0.26557423916769274, -2.9459380522899767, 1.1450271237635412, 6.905847457419109, 5.065013615462882, -20.642398183570904, -6.396581871012778, -2.0903109890522726, -8.562965341480906, -5.139414735940068, 14.3765146761507, 8.97671722589826, -3.962679141415135, 9.138855973156149, -3.6475009872602744, 2.1870698359566463, -1.8869086957679873, -9.524922350986653, 4.1003038675296954, -2.765055326562384, -4.232185552199638, 5.474377549526658, 7.927344063892117, 13.915272010153197, -1.9837629637638787, 4.522025787900894, -9.629961796461366, 7.066114853223959, 14.522117498298252, -5.31005317244176, -7.655127300236988, -4.1204228859831025, -5.986797615296938, 3.2976692602487048, 8.301469004105472, 2.006743313076724, -1.4742863960223578, 10.682436798860362, 9.147930734326668, -22.22037208108907, -10.840052865380118, -1.1538137138292197, -5.957072430287014, 9.615443410018127, -5.784151874697367, -1.4275745725318991, 1.9169330331658334, -1.0954924688638614, 5.747186407020395, -0.28414037577965545, 27.55638885863294, 15.346154465051836, -2.15977968850012, 1.4349110516000858, 8.687296931130978, 11.069612197946567, 24.970674057805088, 15.27792820735392, -1.8238153718035444, -7.128459659423898, -5.962469372447984, 2.894113851272021, 2.0335892709082213, -11.830933541163303, 3.731149798052452, -12.824568684864877, 15.673416052605559, 0.8345332306747278, 4.466153203737415, 14.120441462642557, 10.043949114149193, 6.36838448155221, 0.09270586117635493, -4.060160472655422, -1.4850233689485772, 17.604857981455257, 3.5533779149504747, -1.5130640412025569, -6.912940817213891, -4.534140739017852, 6.998652062508972, 20.064921282298005, -0.8454130273890053, -4.4848250971116315, -0.26349564625217203, -5.927572478338685, 16.114837816406528, -13.369476211494492, 21.01622242926939, -2.999542052609343, 16.368166271459334, -10.462002373046683, -17.97773594511459, 10.57886561311439, 4.603153758686183, -2.8634455717286365, -5.365969614089837, -6.5161386423494605, 0.11964003841830473, -0.8926339888680092, -4.43729953991867, 12.587074009002578, 3.10506269388995, -3.730794416127489, 8.322912249168276, -10.398895807285175, -4.314394926207642, 6.627066878643034, 4.5576275278795215, 13.738180165641051, 14.409950426054152, -9.551847468733456, 5.995863243738403, 2.727976457240606, 0.07323292464342895, 6.152114721956022, 6.5024592023451255, -3.1793358425978773, -3.636830821606612, 18.834470391146848, -7.138514228276879, 11.817388209433597, -6.891344659695875, -7.224715383507886, 2.8170973310786778, -5.576573316416101, 4.009549307949707, 3.8629362771004416, -0.9455023645675138, 2.0018920385854244, 4.67781110629529, 8.573293554687828, -1.9450272245333622, 7.484277270725351, 2.7386711597786535, -3.2651177885760565, 7.8268428576703135, 8.064367511825935, -11.15732563134145, -5.30308394568026, 11.40140556228247, 5.764028025252017, -3.9660734920207648, -8.757018682964123, 3.611087350713693, 8.74201198062942, -7.454087301691881, -5.736240821352166, -3.475432185369378, 6.073407944426233, 2.9509316657417526, 7.832848126565825, 7.93908847039825, 15.622547792354474, 4.092602599716911, -8.757245336934764, 8.917999813958055, -1.5921847394890614, -2.4786052628190864, -4.636602280796263, -3.3348137041024923, 5.470483923241775, -4.38663775862231, -1.2986060895367557, -4.053043355350399, 0.6041992389365275, 10.612595340594513, 2.004937390140618, 1.6083961998648437, 0.5808238211773069, -5.411952828265479, 9.128899315338469, -10.258378154244046, -2.064295525073251, 7.97094529037098, 6.4346329176695365, -6.809776248721347, -0.796110643230129, 1.166040073725427, -7.29991890971099, 2.2754197147903255, 1.0217332582888479, 5.915007045406845, -11.427382402031066, 5.0683889518294825, 2.1191505857093498, -6.067026783056029, -1.8656328408071827, 2.5716892614305, 10.283827269542396, 16.306961095107347, 17.666467361647126, 0.3538076480115796, -17.451631809814295, -3.4680238738252536, 8.15056604706377, 4.084967019833678, 2.4169830470645253, 7.58389885075169, 4.737986923431219, -5.450490760227616, 17.986317562227544, -4.529208881691545, -4.503576460514709], "model_name": "echo_state"}