{"model": {"output_layers": [], "activation": "relu", "n_readouts": 200, "echo_state_seed": 56422, "n_components": 1000}, "model_name": "echo_state", "weights": [-3.310769640290779, -7.19250192053367, -3.263438281907473, -5.874357830617881, 1.9715036205679415, -4.41130389381185, 6.851114691111682, -1.3654078874367037, -7.340822966177836, 4.020897593466862, 2.48393772178886, 7.8365406077445465, -4.471141161284627, 8.799560263792962, 2.1900091416416614, -1.090572714724852, -0.9809182464696474, -1.2598039302209734, -9.66429879086673, -8.319106183159693, 4.369265667719602, 14.11836603816695, 2.0718541952937537, 5.604797550631591, -2.5522286189940697, 7.423187245397257, -2.4900722785769274, 6.677063430701928, -6.932107694713348, -7.585057616775934, -3.5720115439105387, 4.089394097013054, 5.175100931155518, 4.246126882529354, -1.3455320534926414, -0.10427453872904376, 0.0869575590852184, 1.1321400087294358, -0.456141236086688, 5.247354864569478, 7.506824709072507, 0.47011934726244353, 1.5956377890184945, 9.312392887388548, -4.0707285529210475, -7.925645214769124, -1.9634321386578633, -1.4215903830665164, -4.487210301378048, 6.1266354874910816, -1.3214550334630408, -1.986808513097985, 2.134267597874811, -2.3450045275000453, 4.4979121336205745, -4.602943278095828, -7.206533409624581, -4.966208579887185, -4.4549409281798, 1.5424626719475922, -6.466524239506581, 2.326027219147194, -1.8385908177601926, 12.458562790652287, 6.054319655451843, -11.548274117940537, 4.605428907820596, -1.836310005301795, 5.4801751074635225, 5.582975674119259, -10.971557554576043, 2.2505579021104967, -2.5063628878707647, 2.0157650094338293, 11.713653559746959, -4.151547265880518, 2.6660967816570564, -1.3176347868266023, 8.396916759880254, -3.425328749383892, -5.830540803296434, -7.220999920773379, -5.690943841128375, 4.291536925391178, 2.4992995904845636, 2.8745937631606826, 0.04975763565806837, -6.528947841362478, 7.346187681264438, 4.36073868138798, -7.481530891876618, 4.584654884575954, -4.517243243231959, 4.771071351305295, -11.079000546465737, 4.777591126605669, 1.1118536332245494, -2.1335578472092864, 2.316967486872004, -11.26691681659776, -1.583683736744592, 2.1283782566690794, 5.64220491798992, 5.648983010993153, -5.731863669449702, 1.627725365339489, 4.279617394827379, 5.8524433565133425, -2.562610030946951, -5.8442669144024695, 5.287767522599856, -5.469621691247233, -5.024609144101833, 4.92585099895018, 2.9970786255420023, -6.3629115479892855, 9.462589018889055, -4.471025071840445, 13.287314447339753, -4.897532552349487, 1.0909050832214524, -1.0963364249815784, -0.14079551604915558, -1.443824757787917, 2.0487732653447734, -4.7962787369902085, -2.604457986176385, 9.430167740095795, 2.1290822111310397, 3.1771464341420326, 6.984521263994891, 4.595093125159818, -9.143000678164906, 7.0590106927888465, -3.3896648508628724, -1.7273468610511793, 3.642272543883256, -0.9291369517440389, 0.9984207788460328, -1.4286693968586945, -3.2527401500311557, 0.2783003971813006, 8.476708249843481, -4.177134878823522, 17.10635643548744, -1.8186590333606958, 3.596486581774935, -1.1007066382375954, -2.443448777825216, 3.5028774669392027, -3.8243145377864627, -10.049815339473868, 1.7092971692881462, 5.277641600077112, -0.7035422624217517, -6.7714420191219356, 17.20897057596083, -5.346352545345337, -9.777071125617903, -11.767111210871082, -5.744943210926967, 6.18461717012933, -0.907333371182182, -2.9809941708304493, 3.637939227306192, 0.6186482390145023, -4.061244724991352, -7.24354890828503, 7.337864787263277, -1.1557835614539997, -2.734236836379043, -4.759662516682021, -12.28745355491698, 3.2833412528438513, -4.2152027323355385, 5.924644026462347, -5.663752323566225, -0.4478522598834893, 0.2803886492000902, 6.630706034950672, 2.920639131363138, -4.7966344226580055, -0.6750917621608749, -3.2132033236681043, -9.767270551136324, -3.91759091044134, -1.1485255084659776, 5.212671113741257, -4.453980824375524, 1.2497528210075535, 5.6121886660309555, 2.585300464075813, 8.668726344494592, -1.2685439349994578, 8.018630764537532, 12.238184478903495, 13.75656763923934, -9.362106078645366, 7.981323992840322, 9.075437907443677, 12.427556370175324, 10.145280177369678, -3.1434395942356916, -5.549767420510974, -11.801672701358413, -0.5464052314655679, -4.017585845743131, 0.0789288054188132, 3.1857009656161193, -2.2517411977491752, -2.3570993459260854, -8.452971365303465, 6.305453791177246, 0.599543024110947, -14.127771978893017, -0.5959780616472534, -0.8182641647140951, -3.810745539762644, 5.2994623829249905, -1.2140811158413505, -0.15375798599036372, 9.074253231633534, 0.5322971890477615, -10.14776616058888, 4.6696810827498805, 8.177840241717723, 3.645613279239497, -2.927141057059106, -6.54933696622049, -4.836103240688613, 4.7213569186854025, -0.8632447661807812, -8.340795109177648, -2.5611554164844668, 0.012760139857322494, -0.958698586058865, 1.905316581396728, 9.945798379725595, 2.9361654853911996, -10.452976879100065, -10.579480653427474, 1.4094271556900797, -2.9900880225571593, 1.4286600125028432, 5.912724038404335, -2.8570975839869726, 4.337635891275148, -6.088975662128018, -4.9593074452665755, 8.114208264464734, 3.8670312740570925, -2.268427773195844, -1.0242568392316747, 1.4150933577710023, 0.5066762859042913, -0.4221132337725407, -5.273364278278114, 1.0443650615370315, 1.1788592522865242, 3.5530979910475695, 2.856368638263668, 9.095293337562197, 2.580780165621586, -1.103927080702176, -6.48623964841104, -3.087966481533716, -0.4472736542659572, -0.48681367932597314, 11.014697691075716, -7.595307673243148, -4.83813934185537, 3.274763873952315, -5.7745082377370665, -4.222919670099157, 6.930861130630517, -9.186044936598682, -4.219928407972223, 2.0819849179110657, 0.9522296212816356, 6.873577754963804, 1.9091484184760876, 11.22099542151459, -1.1409906112514876, 23.58175317424877, -1.8142145412434516, -3.695564837541272, -5.363362811545629, 0.11219421362807558, -7.925864005268623, 4.276861504252465, -2.8733415008838015, -1.0905137039229418, 3.934805166931693, -5.284867542457926, 2.1121504646697713, 7.010920717755005, -1.070519438138453, 8.282711637763194, 2.275015505826544, 11.51244857301073, 4.405515256791855, 7.127639396692291, 13.405344495655015, -1.4628526027750546, 8.081983587342219, 12.019098212640346, 0.5549570486769388, -2.3070700838640943, 2.902520426982527, -1.907924939979689, -3.937439137057711, 4.196640366790029, 2.750097206629982, 4.955576732855621, -1.7686867331850662, 2.631983944853625, 0.20781563647030288, 3.6539730800981, 5.569280128817675, 1.5602200244242064, 7.4241928953065655, 1.8631962946463188, -0.36485000583602367, -8.312443401108442, -0.4975985147829297, 5.837772542917847, -9.063860866490847, 1.0848607940748956, -5.8047618856733525, -5.8292578535078245, -0.43888070765996273, 4.494363916872489, -4.705264138608953, -7.731085916209777, 0.37172190701933516, 2.9968214534485846, -2.6473830491332744, 2.162235739413732, 9.911474128964562, -1.8154251439720241, 2.624121268125357, 8.876174835328676, 2.4288093962585395, -3.6874001375377268, -12.067841546845216, 13.249952634516914, 0.9210984404745792, -1.6639047027864042, 4.692516687506006, 5.61526201390313, 3.410410342089839, 8.142677541777967, -7.670059776051979, 9.921181712238727, 3.50043662286334, 3.6821513057382913, 4.166539941071022, -0.5197143560544828, -2.6008606125449023, -13.9066903024862, -4.332352411140017, -5.41485869019878, 3.868262053496409, -4.55305655960763, 1.140715113753726, 2.2994254441575497, 2.2196459701895073, 5.858258020148492, -0.06318823808217044, 1.676211683511314, 2.3944835536163303, 1.3160062663969225, -13.604088559335962, -1.031425293680043, -10.301943841205997, -10.164820323958619, -11.54970963943299, -6.763894155560042, 3.394330302396635, 7.607648747786912, 6.905787012471974, -1.2139253900256746, 3.8614343526720565, 1.7103783899381892, 18.282283955755858, -3.8648825358688685, -1.6378176141485996, -0.6827050472644423, -3.9144165858456104, -5.011953587445207, -1.121218149499546, -5.063739355499786, -1.4734615109073248, 3.7341898764927013, -2.0562304583842557, -1.5141688449287194, -3.829594873263586, 3.3950644877969047, -0.24578072690623742, -1.8648230318765053, 11.06576685425052, -7.855518060504466, -0.5990809987362754, 11.607326234139778, -8.251059970373715, 3.7606578471740457, 2.9581786212422236, 3.8164168735949655, 10.411035863492195, 10.955860989115237, -4.8890106347677715, 4.788339558485754, 6.802587839124603, -3.2616303006593665, -5.684941948287204, -0.47711735006783385, -3.1540230314749107, -6.048525736185772, -1.8027852985503356, -12.087420149696781, 3.5518096246989455, 7.036094896235855, -1.0581260533071881, 1.0575265806928966, 11.084665761984661, 6.786169676448243, 9.040037013832762, -10.191089403819822, 2.245203856588036, -1.4478649377751531, -0.4069334215613105, -3.1577848425646904, -11.338639720812898, -3.06880110522829, 6.873077654565076, 0.706109459965938, 10.331794678601899, -11.43628336649749, 15.723123852719802, 0.30829148598652345, 11.390193138656816, 5.40499321710538, 2.5111117112980557, 5.38867363487234, -10.307847908544218, 15.399886070938502, 2.7567288966302517, 1.0367442833123426, 5.343884333236468, 5.931541413053826, -0.6967642318418571, 0.14833840952418886, -8.246283573219817, -4.660312077445547, -1.2171492278918445, 11.247859631167861, 1.5085533732035374, 1.8680540472983593, -7.666684354720021, 3.517495124863907, 13.610165147419561, 1.9627911725954132, 7.652478991497089, 2.4664024634474377, -8.336342660027645, 0.7459313505502738, 0.1826048838959732, 10.275325299225052, 5.439285446940926, -0.9869759607036084, 1.298926017695602, 2.27322164522654, 8.64894567650336, -6.8304209716972135, -4.245717135009184, 10.796315449717211, 4.999923252203515, 7.378206366990588, -6.719878993396061, 5.268382054475803, 4.533388290423294, 4.963325821863498, 9.09938011607046, 0.1855269815535997, -7.220220557694799, -3.940732483304548, 6.235484646235356, 2.7346662035112734, 5.509615778313541, -6.2869029152947755, -0.9501742702848637, -8.895877427556426, 5.22461968520164, 6.8569876511210115, -6.367594132460283, 7.8343158297075695, -8.305553886225269, -5.252874556527414, -0.6909900389583234, 2.063014478069735, -2.6477708776110482, -13.819882895051045, -5.78993478043624, 0.8939307323983563, 2.3455823014380037, 6.393459854912707, -10.628745381969473, -13.458877467687554, 2.2746869210602174, 11.08372720660893, 1.246156056681303, -2.0477037358445935, 1.63179689779735, 1.2058431897917252, 4.039490675875141, -6.697751668232641, 10.205934465528824, -3.668903456139577, -4.93792902341488, 15.989714711315903, 0.098296391036514, -9.878645336147532, 9.916518842276858, 7.067264774710741, 8.833709366262855, 0.004494664182675412, -2.4243673936125685, 6.408069554261904, 1.2520399312508526, 5.219604530800927, 0.2957722846905516, 8.77580544808003, 3.9438268716921483, -3.974950704164518, 8.46379474543764, -7.04304538150506, 4.7269598730583535, 11.996300470572683, -5.153277641223711, -3.7369178101535137, 7.912250486697355, 0.9409045505211522, 2.770313880915159, 4.209566016192507, -3.689747163183606, -2.97229550535928, 6.565657185427267, -4.424967438018415, 11.99865128438632, 7.522733508940144, -3.7760581443211674, -8.162191172608713, 18.788784372844393, -3.5883041197954526, -3.3906176922813005, -0.7498093476945646, -1.930164811568644, -6.46638050845683, 3.2074601417487205, -6.969522844952137, -4.498609120168663, -6.024827931332781, -2.044157155348445, -0.9342429152797193, 0.0858121359519759, -11.700369862278805, -3.9386201446732603, -2.5299524260788124, 5.069799290662473, 0.5559181913600904, -4.873107702403549, 0.9224722852574478, -1.7168840660332285, 9.076711830665712, -0.5734392519784235, 6.330831772680311, -3.666757426895371, -2.008366533951283, -9.444913193688826, -5.536815865907956, -0.3109619696141709, -1.506492547304925, 0.8839417143314172, -3.26654977899499, 1.1581777080803843, -5.315927858343222, 0.5161199910934511, -10.902588027007702, 4.96773779397198, -5.896961806387093, -4.784761355167745, -4.637837460563288, 3.204147726597846, 5.886970357682145, 3.971396594746185, -5.292724345315136, -5.307884304460336, -2.7754386606366976, 0.7399450108304215, 3.3392710352462402, -2.3174695972408452, 1.7498847734017628, 1.269769224085162, 4.980564336307345, 0.6790552852063976, 5.411521840142447, -0.5243982639275964, 0.992565899492199, 0.7414321982461578, -7.1313335799758475, -1.1560518563880045, -2.1948938222725896, -1.2701545847135862, -1.933379127982733, -7.160580267918258, 3.0145744769390443, -0.45150993426464553, 0.7033954658571582, 11.136834171003498, 1.5012931506400942, 3.0396659142372933, 2.943270035883092, 7.899109782304981, -9.93593346660529, 0.5959432825230984, -3.054973222399433, -5.074993695388591, 4.836160658189322, -5.1104801994476, -1.1950118084404675, -8.541713239987368, -4.30075465011613, 4.967577656937912, 0.20109770929086923, -4.999159295357275, -9.531534958580856, -4.582485167376938, -3.229075856186259, 7.174094212679947, -4.236741545644495, -12.926291963172105, -1.9729181002923721, -5.92643437405743, 3.7024291864518606, 3.3244629246205166, 12.194226011882732, -0.3747977368295716, 1.9613340131256156, 7.9571054680616005, 1.4833166193474476, 6.271442028613485, 4.975858229128174, 2.315083404625817, 0.4976654748364604, 3.2107830186812207, -9.077974369759238, 6.659541443590684, -13.943954794429104, -10.056761070483871, 7.499672450514633, -19.574110869417225, 2.0804297195368857, -1.3317186704253976, 8.790586485629198, 0.2538357469572444, 13.260290164302816, -13.74730443727056, -3.782604689475761, 18.7733169170858, 7.008419190277369, -2.066809534986551, -0.6535662082829689, -7.236799359976657, -0.6028598879279514, -0.7127612039794089, 6.078095225714534, -8.347960596406622, 3.1211505178052152, 2.1190601149586605, 4.426471013955716, -1.1488752874904484, -9.737209291042506, -17.663654513243657, 8.888778700857396, -3.843788401069291, 5.90743897993164, -2.375308547346645, 3.847636137544834, 10.723769796788154, -5.295164249817293, -0.47168036247865563, 0.2207008137791719, -3.904316663243225, -0.9520447456982133, -0.16622442065370402, -1.418408550592624, 0.3159889176585815, -5.67125907146244, -3.121536319070466, 1.015775760845082, -2.9119854062059827, -1.6570768082231786, -9.162104503513554, 0.6489536321014848, -2.851530658649443, 3.4337562483669477, 6.615887981908249, 2.881472633178065, 4.0191819275991865, 12.809830492620513, 1.2028345836988634, 3.852333582181676, 4.129073531468317, 10.80048325824925, -11.383666557548136, -0.8242110812067205, 7.610932682183359, 1.067879921084248, -5.565987468740713, 1.2891740586349982, 7.629677421009381, -2.887842630238617, 2.0606495856801077, -12.682206270733865, -7.260095600874573, -8.56261409617363, 3.5496587026926996, 5.78828007548885, -1.788783171440885, 6.029322137326318, -1.2769613770649746, 0.7685992998764127, -5.749722273188934, 2.410587496225223, -4.7747605615987885, 1.8003900004855502, 4.9082869860037865, 18.74508209094723, 5.632309754975968, -1.1077097514453709, 6.170705567555428, -1.9177702403675467, -7.659994072305301, -0.986930842428552, 2.2441931271281126, 3.4347530702079148, 3.2125882887463217, 2.246162376558643, -0.6099719439143085, 3.7727795064136647, 7.8171800425444005, -2.506004010925788, -13.363195896043731, 13.305299918555583, -9.412331305561054, 4.401347126770963, -3.9059731109123454, 0.14184448752051254, -1.7282786725255703, -13.187174822225264, -0.27704132517881286, 3.303876435930482, -3.9556072175468495, -5.369080101799672, -11.19390321297004, 0.9100589856304793, -0.38895324104298246, -0.2429362035778683, -2.1608216002520946, 7.898594186137132, 7.519859673002049, -0.0614614150516386, -1.240371176247579, -5.677086026189023, 8.94799143450919, -0.7693248497431788, 4.13388837212721, -1.7085712214100046, 8.418270997565793, 7.945142782647973, -6.4866667629121, 2.2940928403180934, -12.679732463162406, 6.814585013410076, -3.2375540402427205, -5.333915461012207, -4.4281449969448925, 2.717350272484302, -6.29644166178516, -1.7289500971294474, -0.7545252660755337, -3.756606128820404, 0.7144478770513946, -5.889989359374887, 3.9975340001249875, -10.29951779429607, 8.82248998619717, -4.616043152036757, -2.2035310999801316, -7.781335821977165, 2.3136528193773467, 9.430216667485023, 5.27066354009793, 7.783318541229717, -4.361947397774442, 1.8070543189343287, 1.9329892317701967, 0.2500725050670647, -7.043071354406997, -8.128360573351356, -19.653301963100997, 5.663708168433963, -2.4057649708840763, -2.3965333781024003, 5.156540104407576, -3.2915004908306775, -1.0022908821078365, -0.04267229723451815, 3.9599039452756677, -6.128525238954193, 7.204299097660237, -6.635765098257711, 2.330859649277617, -3.5609222276117243, 6.82385433640094, -4.893683158596475, 0.8831492379872521, -2.786146608370961, 4.151969048391731, -4.112315167614376, -2.0263364465386142, 8.712281785089893, 3.0405373551078805, 4.8604807190715125, 0.5370405573379889, 10.2978174328503, 2.1878659268665115, -3.3673191458456455, -0.3709943414679, -2.5123009034337205, 2.6654645123213956, 5.037920264065378, -6.153320895967002, 7.796173093551643, -7.810096833761859, 2.305164886949031, 4.871955180583558, -1.2300702910835533, 3.9823403779363042, -0.19912804167780318, 0.5993396925609941, -7.049700469462595, 1.622334150185899, -3.743069108180023, -3.752079590925535, -0.6541863229184534, -4.438044334582678, -0.30663743571891755, -5.961776211915925, -1.1959387690860843, 9.071259833242113, -2.2792675771120514, -7.603401292996252, -6.0412994387364645, -0.9311865145535039, -2.7695345649749337, 4.987168044420839, -9.336826968634561, -0.20300393344893627, 4.992033519887612, -2.825122400063519, 8.46211820904881, 2.6237475390429306, 2.6161236164154875, -4.333497458297594, 0.76857170001904, 6.287235307366041, -1.6909161266489945, 5.683366805745482, 2.2508673790590255, 2.3900701244830387, -5.45731242203469, 10.312051298265233, -2.6664276254127337, 4.423983417687679, 2.616266023494996, 8.556434103641108, 0.8798975817122232, -0.3564061297016441, -7.507691411233715, -4.96836089630023, 2.0204210057802134, -1.2489711799651626, 9.547461245260855, 1.179259929863894, -9.875364997735744, -3.639747658131917, 10.89429453134456, -3.595258636111516, 0.7105346256834313, -4.467405825374051, -5.547898770945158, 2.707328346543673, -10.876138238605566, 8.75861786499646, -9.118459138665255, 4.238662811012718, 4.921730170140709, 1.2137923614665116, 2.1968602704937523, -7.464274752206192, 12.74441058671221, 3.49465281603128, 5.889838932815645, 2.024541098855555, 4.474188309041031, 0.8293879838094164, -0.6582835713711094, 2.431257544062687, -3.669125705252671, 3.604951351592513, 7.762136543005031, -2.4874410994471865, -3.753870441946181, 3.873175480175568, 5.883119726483412, 1.6195573510822698, -1.4069196894249982, 2.6169454395756464, 5.961060462357485, -1.9940388168422811, 2.0692972433754773, -6.476233298663916, 13.939919050688061, -6.287980275606728, -3.383418134634815, -14.209968956728936, -4.418075775173208, 16.30391750774404, 1.6959205784229756, 12.658295880242175, 7.015715352504354, -8.973187003110713, -0.9069291440486595, -0.0834918897685484, 7.321971800456503, 6.292193162019539, 7.4128321742674155, 1.52447128986228, 6.584280676234284, -2.825951171106112, 5.940864993678195, -10.108675559526183, -4.271147612215506, 9.59534518889009, -1.882061918518115, 8.35876838252865, 2.6419234312306865, 4.048605972109966, 2.9797735983722546, -0.25949689482436145, 11.793455663464886, -0.861857522484981, 3.014934484173585, -6.3852163791290915, -4.350813249329557, 0.3590932342484452, 10.330200175702425, 0.27443163980330065, 8.996698703783002, 3.28632392808956, -1.9993022173533501, 2.8881972908312328, -2.6945330605411133, 2.2319989469218937, 6.927232960780071, 5.9997734113007475, 4.525831130465328, 11.951254510176028, 10.882876993922489, -0.10965677700281845, 12.166942391304136, 0.49036844068616536, 1.8949928284334516, -0.32162354478303956, 3.6970211247979634, 3.139550594234329, 2.178108089330638, -4.36902771931232, -2.891306236098494, 9.534602314889224, 16.918233895788607, 15.829469192059904, 4.080730595626982, -8.844763462906617, 0.2389142451379615, -3.606089863304766, -12.830843529546716, -8.081824571723434, -9.210511018939167, -3.7525880872223105, -2.9211811997105723, 0.6336805492721137, -3.358341399157937, 4.216917309266778]}