{"model": {"output_layers": [], "activation": "relu", "n_readouts": 200, "echo_state_seed": 56422, "n_components": 1000}, "model_name": "echo_state", "weights": [1.9681486902903607, -5.173736789866359, 0.6963154640234144, -4.6066031189154515, -1.376832126774414, -2.944744402525623, 5.509820030470135, -4.484997641895719, -7.5917592018478475, 0.9223497569600042, 5.530711786899567, 11.122026501662518, -2.980521894173031, 6.980493882610213, -1.9820296801041333, 3.6129380857401836, -1.3005009198656856, 3.2553877908389284, -12.253736513860732, -7.323536506266954, 1.9296311048658956, 11.404737044633332, 2.9850437382540296, 3.5121153488259367, 0.43884400157791864, 1.5965349174489027, -6.064412183875452, 3.499021214141865, -5.430836068096067, -5.284171815406912, -3.6618807338653907, 5.4695727801428005, -0.14505283719730389, 1.7587730778269641, -2.59936067374327, -1.4414959556617855, -0.3504831133160068, 2.1614157640829674, -2.4410077649324124, 5.128797139633197, 15.092353389675587, 2.992601023384428, 3.1299912910567427, 9.218309292950837, -6.9049610827791925, -7.559243437771564, -3.8349932296093057, -1.4685663856671123, -7.100738795093049, 3.551385128645033, -4.093946646635061, -4.832217488419086, -0.16260361269795304, -1.6462488528724963, 7.189834375452866, -2.4208016406944735, -5.662103065077642, -1.6356468436957263, -4.982178619076105, -0.6690600524885673, -9.890478917544778, 0.1966470648455393, -2.889082146272618, 8.551932481054807, 4.00420812773131, -6.438674046101709, 2.433719470590456, 1.228828532315072, 4.573795471523908, 7.30615968401858, -4.540364970952042, 7.406726532352985, -2.9650278633981535, 4.8394032966955765, 1.7111229362031581, -3.542050074464702, -0.2148897568984179, -0.672723478804518, 0.782956713701968, -0.975989558822748, -5.359497101670237, -5.396075156525913, -1.3214403849812337, 1.9507494960477676, 6.3446480162751415, -1.5677606353585465, -3.7466449684532446, -7.882824632028269, 7.4861421009189515, 6.194487504032539, -7.70252364570768, 1.4103802932011722, -9.587321278549807, 5.443892623364476, -10.398567945234648, 1.092454134798932, -2.8874738553615122, -5.103022281834567, 1.8610383808996271, -1.914351891359875, -1.986375598883418, 3.6501531995137713, -0.15674474138057462, 3.46920286073601, -3.3730947163634224, -0.33329835564429866, 6.301334790745829, 5.39897203233809, -7.165472096013027, -3.6194837019879524, -0.3510204932910571, -5.910217338273194, -3.5886264541623265, 6.349805067773578, 0.2463526719962703, -1.2616770277122218, 9.349204768968201, -3.8808826342700744, 10.179421883461485, -3.7795084660464346, 2.744517731473042, -1.2602411574731833, 4.326769486683048, 0.3517476386694861, 3.3133394880181077, -0.861900033123093, -3.1128770142410165, 6.0779307363700585, 0.5899812201798443, -0.15260548115195804, 4.047203206118654, 3.5685395981139565, -5.824404155724536, 1.7520794893364453, -2.853764847100464, -0.2678975206846174, 5.781339417523822, 1.2269714052400438, -0.3149978787453154, -1.1656056100083985, 0.8617504128451327, -0.8727846196094831, 7.0252030878314615, -5.735264006702557, 12.427587888547658, -0.8779310149063762, 5.253694788813432, -2.4742641295298933, 0.10115997608820282, 2.449323191645791, -1.101541483359515, -5.376772338633365, 3.7207398075251046, 4.839037007832589, -1.2361812693050949, -4.6945856253573295, 11.160837713985217, -5.5543985725112694, -9.745841437316235, -10.992337067761444, 0.3972016827816254, 6.248877420711509, -6.190673143019828, -0.7177482640648909, 1.4054562206605383, -3.045991715298815, -6.192244369034693, -3.662904900007213, 5.9982676767406815, -2.413909759073782, -5.37947695361449, -5.067402779845706, -14.063581694625842, 1.5805974489642562, -1.5519522385983229, 4.543572356619901, -1.9524894587045338, -2.6934639504777764, 2.9456624761353356, 4.9106688208251015, 1.6103707538552918, 0.5460464998341414, -0.4555862326397372, -0.9690755233548112, -8.778826604967339, -6.01704088855931, -3.7182049359999483, 3.3623410340831574, -1.1461338344382495, -4.140908472762262, 7.045742101213557, 2.3701769210746226, 6.993571121310665, 2.4735736190838677, 10.212747701490096, 9.367409769382128, 8.209899845408973, -10.942495260365027, 6.062435209989577, 6.5994602059962055, 8.377514289351751, 7.997280551164655, -1.279490984015729, -8.85526532179749, -11.587501617098228, -0.24535530020008928, -0.7204653168606919, -2.8738155638823826, 4.242296770448597, 1.3909056524208052, -5.804080566056678, -10.03200742539648, 4.917873347134635, -4.221715510358139, -8.21906033368692, 3.326107793224532, -1.271553416950886, -8.031371239569275, 4.189859634243913, -5.393742384911852, 2.148881802448351, 4.368594533679504, 1.6802562921313613, -11.272846643938575, 3.3484931799554136, 3.8970840265155915, 0.18271697560921651, 1.8576132738445388, -4.477758796263176, -1.6606986900365224, 0.6252339355257932, -5.08775237854901, -0.5156116287949727, 4.2643124656167934, 1.7728097789576267, 2.0013440498046804, 2.2104304264676244, 5.441266816152834, 1.3325312540777117, -4.676534976443575, -3.3778971154945396, 2.10901568347888, -4.610927857919388, -0.9812838183619229, 6.208376468152508, -6.036617984992024, 5.855117302048117, -7.2977990481460955, -1.9473783225190302, 8.478914310060647, -0.25554488663469277, -2.2765379212557706, -7.06010603807373, 1.782587657361789, -0.7978554693474353, 1.8986618011755394, -6.21182628980891, -4.666706297456148, 3.396106013832033, 2.122336687024552, 1.0826184316229772, 4.893289389219947, 3.3981184685891574, 3.8997093735182653, -5.238533329076868, -1.7755660321974134, -1.1857613389220893, 1.0592327008311115, 5.563345470987742, -3.4534160868143107, -2.398716796827795, 7.949480139255011, -6.584859323685854, -3.822985603665584, 4.9296847556434615, -9.874712376819119, -2.571644888342693, 0.16447070355847015, 1.4145820311553408, 5.067944073876573, -2.985245750505016, 13.635129035125512, -2.638501329808874, 12.40551279594695, -4.77620467900742, -4.741666525822859, -3.7719310985375083, 1.5677661598111043, -2.4944276154648453, 5.665041722076809, 3.306712188396774, -3.0194959975462887, 1.919788499165469, -0.7169740799389135, 1.8486497643241533, 3.8925014758011756, 1.5653226377817335, 4.542168899511246, -0.40273819220680307, 5.947818494131627, 4.374228945857465, 4.360005646221959, 13.506870519760257, 0.8453354980354172, 4.9323364895524024, 8.12136318320329, 1.1491609970378895, 0.08402464623235006, 0.04414569310440547, -1.2744350433994536, -5.98010926859548, 2.8995668170277398, -2.092354884762538, 2.128321895071906, 0.6504770235402441, 3.9779788395579816, -0.2316089018987324, -0.8989239456214795, 4.861596261153004, 7.017113980803084, 6.917523855595125, -0.5835664845685133, 3.956418456290788, -11.737173199181376, -4.620308708074121, 2.835472573178505, -3.1676237547873396, -4.647618565537294, -4.264769220581295, -7.470430299452948, -1.703968425405379, 4.631135797153264, -7.1987644288028525, -2.279695864838232, -2.4413807538546655, 2.72942724943814, -1.6045036380996585, 5.438667973942278, 4.573779704249568, -0.5377140355286086, -0.685363027687098, 2.8964755267903812, 4.243197919742637, -0.8314758599518932, -11.797725506312982, 10.598853058803092, 0.6189795191631136, 1.0049551437299122, 2.8900121848737506, 0.09301885380399755, 4.201802238668894, 3.8054416437627903, -8.758355369662462, 5.966845287015017, -0.3969206861672985, 4.90711671108545, 4.059616272203134, 0.8476587990017722, 0.41547710496941104, -8.381788852676232, -1.9480187938028402, -8.051404146757555, 4.314371967390667, -1.0593614384905932, 0.5645059435803422, 5.708331271822866, 1.2082099461277305, 3.151471857551987, 1.1174774469225368, 0.9030690208850185, 3.34616159437109, 3.110790787553028, -5.912128964082154, 1.79622617314421, -5.0267497854581995, -9.654052769240524, -8.27629778826602, -3.7785688459463214, 1.941522590729119, 2.57297911489975, 4.517209826658134, -1.463280983443617, 2.6662711482822536, 1.2907960921997157, 18.47707948640734, -3.5974079673497483, -0.4620735147359786, -4.6263253031575555, -0.7262736873163415, -6.17790678702317, -4.069957651545413, -6.100940593891439, -2.1688218724354575, 0.7509406406796875, 3.999525893620212, -3.7767398430255326, -0.7621925374568447, 7.710603942504662, -2.0833341077523957, -0.7649802698317848, 8.055122567740826, -4.858729370265181, -3.0278940824449116, 11.791826240617702, -6.0877709739629084, 3.234044679809055, 0.7470435135108342, -0.8481713846520098, 7.6106627886944285, 7.428117110227796, -1.8024683626607363, 3.9109339460509096, 2.024703765506504, -0.4113170254582946, 3.6415709690395692, -1.8272801249509203, -1.748410321574487, -6.071519275884857, -2.1962004698926805, -10.923071177161987, 5.0431173953578075, 5.215300313779474, -3.3013618623411376, -0.6964594135624449, 3.4665134275461265, 6.9565236390337, 8.209514644035593, -6.2963622281653535, 1.2245090941003274, 1.6706382642001811, -4.686042821666791, -2.701203591694658, -9.52858597498746, 1.871594626225773, 3.881950640876099, -2.969165857836696, 6.045617311873208, -13.785390317096496, 9.061969853408998, 0.40261628085383583, 6.854222502903716, 2.9640338304979252, 1.3741410549336284, 6.585431841293316, -8.029814796774168, 7.9860596620796525, 2.1315717567810566, 1.16748148688066, 2.7892757425765806, 1.5055948429348764, -2.3952029585327734, 2.182657518445921, -3.6986400321165167, -2.472242048407849, 3.4625504187343417, 2.883473659805663, -1.2147830211834176, 3.5528293560522552, -6.8099077586082455, -0.8184062741038817, 11.214210208696956, -4.442451588893503, 5.939835405308486, -2.0380125116070342, -12.676994061577275, -0.10337898515515265, 0.9657287411388105, 9.872364696526542, 2.820577194653837, 3.5739254222859285, 3.176523143889905, 2.731659143740658, 3.6073176630331285, -4.360834419087867, -9.83931473246962, 9.752607096753888, 0.9205823592050288, 6.749777245746321, -7.509092335825451, 1.2660262026190776, 5.310998339631439, 2.395967821718817, 5.4162493043807185, 2.2256175264863103, -8.886331288117821, -4.488667022410102, 6.508548465575523, -0.398269125566157, 6.883388966656327, -4.844453502012936, -4.142961354251287, -7.165301131885513, 6.8386262183625135, 3.345812160325659, -1.4953544474615876, 4.698815891184805, -7.285995452225377, -4.897703163767433, 3.038543910403388, 2.7151831135314204, -5.797589059675552, -12.101500745404921, -4.171804004285668, 1.2645645235958836, 0.3191821819900197, 3.574326066402193, -9.652397459862897, -10.875685889942877, 1.797723664979225, 6.388227388710987, 2.057213108963492, -4.892714098710895, 0.04816895407581037, 4.285779887159999, 2.8468383146340503, -4.2240869795672005, 7.064314473207565, -1.3783909494831057, -4.7629059655231485, 10.869949088399443, 4.408103088308624, -7.852419744839096, 10.136495768692305, 7.470150167991387, 9.153229418914622, -0.8612852666458984, -2.871839306198304, 5.2938477538727495, 2.37829248981082, 4.647957243525019, -2.5429648474950532, 6.371355489601539, 1.2946106993257913, -4.7325020921923695, 6.851756525579848, -3.1170122448215745, 2.0398019716225773, 7.116182199565408, -2.7946674462513266, -2.485211950567985, 7.872835687290511, -1.8202990170386937, -2.9506942787350647, 6.106781749131698, -4.124745015312279, -3.1305671420337733, 5.601162470563885, -2.196874062968587, 11.52048809896227, 6.706481820970352, -7.534666784149435, -3.5036310939634046, 15.595337515536487, -2.089111865261267, -5.00925285961808, -0.22571160817597677, -1.7100226886359753, -1.7874878005944823, -0.006064459196499297, -7.919549912657286, -7.18701893741725, -8.110914831785315, -3.430719531307405, -0.8260766005811591, 0.9604901604629895, -5.349386624677522, 0.6242167985395755, -1.4554969307204613, 4.774166495046368, -1.03864352128793, -3.408598500246556, -2.6276681366635675, 1.0633286386280667, 11.40196319294721, 0.9880868561070327, 4.201507606894047, 1.918505181435302, -0.07295518674258936, -7.5403481438201805, -7.235854640858654, -0.4486435588612241, -1.8405715140754613, 0.8631393830467404, -3.2149203040293526, -3.089548803966393, -7.970785497842896, 2.0116594635310903, -8.165092362175816, -2.705789101757287, -3.7053731834238293, -0.2673221699414441, -3.9210582822651823, -2.2746412066430675, 0.7263669901450186, 2.3148421620354256, -8.166812164010251, -12.174648746323602, -3.2253308878161895, 1.4039668921300776, 0.73231827016577, 1.838517517857448, 2.2867566481587347, 4.59448531329974, 2.7017899839987214, 0.6611668508911202, 4.325572597857042, -2.327286662257916, 1.6927891488440419, 1.0019545070848483, -5.958315199113229, -2.051624886279153, -3.0211754464830305, -4.375066392654471, 2.375652534368662, -6.382019791981726, 1.370389784195917, -2.5719290996092505, 2.033159686956422, 5.028969969605771, 6.090761946790306, 2.8893147501979266, 4.98264039519927, 2.052411900418157, -7.022870169502679, 1.2544705522230735, -0.36476298787907324, -5.84589278540695, 6.918711972217242, -0.2760720833488204, -5.689474344577408, -3.791670143341624, -2.1708076271205714, 2.071867464254561, 1.6996743257152205, -3.9003291913622986, -11.522354480032751, -3.1587926671104807, -2.1053896711221554, 8.085012697355458, -1.9529369969956045, -12.646262945818242, -2.7668652399207634, -2.4434781562862415, 3.4284006732207266, 5.6206873563945745, 0.5353323617047067, -0.3964244186025826, 2.928833014431614, 4.825657686661986, -0.42423439664851215, 7.769194678901848, 3.954772773486453, 1.53218803518715, -2.1945048094930977, 8.820321766306858, 0.44704379648742254, 1.9011497692633816, -5.165863065739001, -4.288122249332076, 8.582222616728226, -12.167464672667794, 1.9568130747969255, -0.6508644808181656, 4.671014924897535, 0.06058570116116213, 5.517564537373488, -11.035473590997524, 0.18409540356452203, 17.87817922787722, 6.652430790947907, 2.870750182950463, -1.5130978992469633, -4.68525822950935, -5.5670058979760215, -3.8638737180156935, 5.2315980993253515, -4.032965742865501, -2.232463578804989, 2.0200629329047315, 3.4765616490749522, -2.956679235588637, -6.973318563614787, -10.581363731458529, 8.268990561999821, -2.231608897866173, 2.7023826639113144, -3.1233128429094537, 1.8368041565222728, 6.654241141509722, -7.585269179122494, -0.2807057656552514, -1.287454504051225, -2.488692652404402, -5.480259124961712, 0.10043527929636503, -2.448829215729809, 1.8325412708999114, -1.9259646069176666, 1.2333253450224355, -0.53918151597153, -6.740784503230205, 1.857002338635705, -10.513351638921868, -5.565344176513923, -2.6941213890575932, 2.1934094918160962, 3.962673955792379, 1.4829842187256457, 1.9284384354359192, 9.045205735945203, 4.648086568325062, -1.3982097613216375, 5.674460647240955, 4.381956897112721, -6.9418343621265866, 1.8672525414100736, 6.143892016289031, 4.234527341399711, -11.230795285660964, 1.0089372088502226, 6.705622222805262, -2.917297226849116, -0.34318979052180365, -9.69124471256086, -5.466819480014838, -8.188626980782194, -1.4426611468744537, 3.7625635114539433, -5.803918099429998, 2.3819846368276245, -4.802578565477872, 2.5673536050484564, -7.125934550115474, 1.3086181181538503, -2.806734141402118, 1.1903371379160843, 4.631276457036119, 11.507986215785813, 0.7335651545812112, -0.8462276518544907, 6.231270384400698, -4.48193551962255, -6.659056875818152, -1.3680601294926795, -0.776140937774263, 0.5981565483738058, -0.13949109388223224, 2.432914647666604, 0.822318827304922, 6.84000394992376, 7.233859828977016, -6.420627303984313, -9.252237654401972, 10.785440577682722, -9.292531005190183, 3.927446274350369, -0.46354845336819744, 1.2658442649395303, -0.22815180641814825, -4.010926076179065, -3.5948806485595304, -1.6098697654525869, 2.2920558340709074, -10.757016907224177, -9.506249485691606, 2.6653534621871393, 0.799132426561612, -4.736987751741143, -1.4022787546371203, 6.870938987891477, 2.456185208910523, 2.8214145878715198, -0.5948140334456031, -4.360084109932069, 9.910764079424842, -1.6557232740567707, 4.411713382610051, -4.385960403156589, 5.006284040574912, 6.9878885777601605, -1.3806870304881256, 0.018859319918941575, -10.39458588853102, 4.468087922546641, -0.48774400101342263, -6.660996384693546, -3.6397340980495074, 4.158482667688408, -3.924365082818755, -4.57157837372177, -5.482358108222273, -4.340269932548374, -0.12547042204092845, -6.906884733262624, 8.570190809761122, -8.699100820972836, 9.550764640352833, -3.409084488757705, -0.5872365289530551, -5.9060440389834445, 5.58911810478235, 8.939144965127085, 3.3693719461504346, 1.2179041056977196, -3.3740150449340947, 1.1389452382769134, 0.14566929566879538, -0.12495748243363136, -8.605766883866004, -5.036281236764676, -13.582463170197054, 6.204467883016319, -1.6164080921266466, -4.791008243021432, 4.028473060475956, -2.486153682039977, 1.715914055133751, 5.039739358941504, -1.5451493420307996, -7.875166007043899, 4.539537810120521, -5.427082080235006, -0.03998979130403588, -1.823813199884186, 7.016608765651969, -5.146199430618697, -4.341302849270919, -4.963967767095346, 3.7761897767143324, -2.5275670101364396, -0.019772369700475856, 2.2562050249236005, 3.0692537027445175, 1.2453377742015044, 3.9852266027637606, 1.1781070780495881, 5.551102968679094, 0.9269279300784395, -1.271278011919299, -1.2644307473677392, 6.126203263977304, 4.350282208437653, -5.739482215020105, 6.51282422760662, -6.941828086390713, 1.495386210971139, 3.2201965719318446, -2.7540653179598698, 4.609585152634782, 2.287706705611031, 1.0089260361882055, -5.151375955080859, -0.6171502825844283, -2.7121957163652404, -3.7494697068910647, -4.9622155392693, -3.9718305603180903, 0.17945674179009385, -4.999146707652853, 0.9421208600424269, 4.945456694302084, 0.4102814823772509, -6.890754223608521, -1.7829289682517866, -5.720371275711938, -8.887211740235328, 2.932216744656601, -10.800429903917856, 2.03975537239422, 2.2493331753126737, -2.721650135584077, 6.882237264399965, 2.5101329130323795, 3.297299094527392, -1.0445545298795396, -3.677400723182883, 4.6509251009877906, -2.3982919648677514, 7.270698520260323, 3.6972579382431685, 3.105381900776681, -3.6698381468671633, 9.213771637516887, -4.7052338928389785, 3.3772790380569875, -2.388309017269625, 6.161281300954424, 0.6082183548076234, -3.6757402867103033, -3.917447418112972, -4.918845143276922, -2.4409229837474244, 6.142547292526457, 11.312650824968456, -0.03262813034782752, -11.544820843135096, -5.181085615809609, 8.28260591243737, -6.843074454178135, -2.485624876913037, -2.287003148331801, -1.2607820989088712, 5.131726932965412, -3.637276243388618, 8.29851176581659, -9.328361666185266, 3.6030044466196762, 5.559050857773576, 4.156247307680958, -1.9812041686266717, -6.320458727875129, 10.359197161392038, 7.851016725801773, 6.091893992735846, -1.6675109424883443, -3.0659363228901566, -0.9276307451891816, -3.9714564715039313, 4.646792292536126, -4.871199420038752, 3.6652092509872984, 10.136693399338878, -3.2342040658309155, -3.9109728591618014, 2.824024364129956, 4.172988556347905, 0.5047759077240483, 2.614492135268975, 5.887030094970345, 1.8561942625012293, -0.5999733014264361, -5.040270368065614, -0.6864920963698321, 12.05616760890577, -5.502901004354417, -4.94233734732933, -5.389384400797319, -6.346325267616724, 14.319978470575634, 2.143049483431313, 11.009145238884296, 5.224282748351372, -11.807314143570759, -1.7933964101658308, 4.387843083094592, 6.936720762751133, 4.836813128691924, 6.697352913863799, 1.4782143305823836, -0.8571427512667105, -2.057004961470984, 2.3842143571302077, -2.4407203210529347, 1.334930364671874, 10.889742960574175, -0.139069713066712, 5.27158991946724, 2.8530164867899193, 4.178193727436121, 4.847127520542685, -2.247010830909767, 8.09998835606433, 1.6345447375008995, 0.9424740545105401, -5.851963996468869, -0.42881359570923827, 2.768537947331708, 4.432309149555712, -2.5991958563027246, 5.36549116801725, 6.279234665548669, -1.9324966760024054, 3.178811154381718, -4.384954415511973, -3.1069736071817196, 7.625659396439127, 0.5903379001633687, 4.225033435371904, 5.316327082709867, 10.975623270521638, -0.8378447237513402, 8.819347266005376, -0.6303234719105673, 2.3045958153103454, -3.744401318484409, 0.43847630872790155, 0.9653387378061729, 0.8918279743737084, -7.030985270116783, -6.37744443733452, 7.437482013921402, 12.144663288555645, 9.389878737812108, 4.824561866973706, -3.866036782821605, 3.7084104807684333, -4.453532735285248, -12.783645588502411, -9.3143549694745, -10.92938347648555, 1.9140375749716345, -5.312689792394655, 1.5539964900934131, -4.388023156085133, 5.088875151844329]}