{"model": {"output_layers": [], "activation": "relu", "n_readouts": 200, "echo_state_seed": 56422, "n_components": 1000}, "model_name": "echo_state", "weights": [1.9299029457012564, -7.293712939359237, -0.9707413978611799, -3.958434296186804, 0.8488268727638171, -2.6207523579220213, 4.129643042586461, -2.1376433124368197, -3.935223373482617, 2.486835277846187, 5.0339121244230425, 6.486531046689042, -4.240789305671505, 3.740090117183074, -0.7948783802631335, 4.309867924720982, 0.08134519474081811, 5.6972851917258645, -11.39212269758643, -7.227532555453583, 3.245985245413403, 11.55798972013871, 3.035179151071212, 4.6289631014739845, -0.9660679587704629, 0.6494615359484074, -3.021611701287846, 2.9544911078668603, -3.0301281825696424, -4.887830811212957, -3.6491185028017714, 0.2514966784247715, 0.4770145968773301, 3.007801923513079, -2.174855399596489, 2.9901774674519626, -1.4855379064936498, 1.2387963888631752, -4.7631566786981505, 4.102251395696237, 11.25378741802738, 2.286123541526834, 2.0429892406011523, 4.593279831662424, -6.754278655225373, -8.265976736284534, -3.373679285305088, -0.26387211793777277, -6.056632369468114, 2.0615408371007873, -2.8994264615711565, -2.9512042162376098, 1.3267686548590496, -1.6442131793452281, 6.785173143248028, -5.9731267645534265, -6.600693330514798, 1.5876658909463535, -2.3210385576208195, 1.40072382647618, -10.217596839531009, 1.5205840959138581, -5.0002910369956854, 6.801979243831386, 4.30093147668342, -6.36324091282345, 1.778315861248105, -0.4891047095308241, 2.434519569951374, 6.495366001238101, -4.612207885783659, 7.543356972868475, -2.8320952700602753, 5.3083039691264515, 4.2338735212191025, -0.9688710031381562, 2.111380953817704, -2.407060605972144, -0.8432281987052364, -1.3888378107670765, -6.246950594904532, -1.793311299455468, -1.5184857608171753, 7.80989279444801, 7.404371902710144, 1.2144234380681564, -3.289560385221527, -6.637807261906445, 8.688314067923296, 4.237359378645198, -10.329560989298292, 0.2670744975403514, -10.966254474566696, 7.048890212335766, -8.93956250374294, -3.209152416601495, 0.4268483654589423, -7.416924541433569, -0.6759093017410525, -0.8196157537897102, -1.5858467941842997, 3.477263597063174, 0.6126478564971203, 2.698135015456545, -3.488346872743732, -0.5392823282498371, 8.06982551857192, 1.9013161833171708, -6.675732932666479, -4.41048943005313, 1.3681465034158031, -8.30605646994279, -3.3580650994246013, 7.278236828082272, -1.3186232274830214, -2.1645019834966646, 6.899226687715008, -3.5182040834911548, 7.684652327441164, -3.422152920918759, 5.778005578484879, 0.43829882939470666, 1.5866838302181172, 1.771546227946764, 2.1019400637958596, 2.7011898059360324, -0.856097777119545, 4.634711506977025, -0.7971686374965172, -0.6966627592571949, 6.85558581902982, -0.05227143704152637, -3.900630745419192, 2.2208373457920305, -2.9502958162590773, 2.985021600176068, 7.402323557900042, 0.8627018702950462, 1.2543851433806847, 0.42382577495541207, 0.43047950975667026, 0.21339686333478025, 8.79319128942441, -0.8123123055206429, 12.623957308182428, 0.750536927748632, 4.073095232768487, -0.02015139576300773, -1.226803543983829, 2.655677185344192, -3.260914855264334, -7.122001829623819, 2.9774900218048588, 2.3718814931926513, -2.712666453632499, -4.643238485712942, 12.991143175405787, -3.583933580431533, -8.446747316284194, -7.85150555555879, 0.9535674659089335, 2.8501469947887146, -6.629490157451077, -1.8061700495379451, 1.125690430620476, -1.9924483275023717, -8.433630102094655, -5.176239074007453, 7.750866363545845, -5.997588620843804, -6.479020554120677, -3.3301626462399114, -16.950182144194088, -0.32200334751130755, -1.5178837868088118, 6.392539187021407, -0.012755781989483017, -4.195458116800771, 1.4533118183631317, 4.001117935016501, 0.41963641239788985, -2.056897910725739, -1.2954300617974033, -1.8621160734611897, -6.980371089922632, -8.765889711540272, -5.277281682273669, 2.012161186541586, -0.7426924498483392, -6.217442862224565, 9.641956936999897, 5.309275569448759, 8.561188185629854, 1.2322817850984864, 5.201841231904008, 11.792993668646654, 4.425414221298704, -7.308288035592869, 8.13596977481471, 5.66242323151271, 9.647561401309536, 9.960087313889833, -0.3047193194848792, -6.647169495212359, -8.706166988736788, -0.40384134132479954, -1.4416222791838516, -0.776844658503863, 4.401958622103651, 4.192733226726938, -6.853593450107337, -9.133906684597072, 4.668685982433159, -5.773732691733066, -7.146751343642439, 3.2504104884484315, 2.6854309735330886, -8.543318555877072, -2.588760050532308, -4.563859964816173, 0.6198373085697999, 4.154707053266318, -2.142759614635163, -9.583848469763986, 1.9379609031187186, 3.5165559179406287, 1.040927214939837, 1.3531074246740844, -3.3019079642518303, -2.3990198745175664, 1.6530767023572306, -5.048860823857329, 1.1575906231975939, 3.096478002020272, 2.4404646884132375, 1.2738264474051295, -3.247381797501564, 5.971110711164782, 2.4679203353194668, -4.139181287721163, -3.2229819382290152, 0.8939776891304663, -6.0824742635064375, 0.19095299543532362, 5.075792604533259, -3.5609220179616967, 6.639578818918016, -9.161214541694024, -2.0704415733462445, 2.5947292059204012, 1.4127256539007633, -3.8940994243474334, -4.639480855970649, 2.1071785627127806, 2.031579638828206, 1.876035349354018, -4.735188913385708, -3.0889989717662782, 6.152262981022401, -0.06927704160596743, -0.5827905635240557, 2.00767539641714, -0.09809061555404086, 2.8860425328126853, -4.650986293193167, -2.1116717196990735, -0.4365807017965164, 1.392570100764152, 2.4779677104978495, -3.577544356332089, -2.868482674914534, 5.7826510776811375, -3.5807788696645426, -4.085172888143838, 4.5750188082176795, -10.612943754382968, -2.4484554507022303, 1.7905257056111106, -3.105260918004586, 5.4758520956475385, -1.38984029099676, 11.627177882542895, -4.233248000458961, 12.64578426534638, -3.4919021185821486, -4.513245762813712, -1.3539547189633878, -0.7185205134526423, -2.350355701689926, 8.138285423229208, 2.941365631942366, -3.4390880271950053, -0.19341605913945836, -2.4097981788845235, -3.711653558665736, 0.6181344489093247, 2.8853634371348678, 1.5843900992665993, -0.36347838730317283, 7.60292296074386, 2.974832028788515, 3.560874639379536, 11.675114008694763, 2.6019235961040517, 6.02523478462755, 7.482183999329905, -1.0651377191739746, -1.9516593143629295, -0.4330615231482611, 0.1973321145881351, -3.904486476023286, 2.166317391923804, -0.2393828313779618, 1.6036891126026673, -3.7675318619194025, 2.202444970090962, -0.2889967238173391, 3.241890427111667, 3.817695893789007, 4.110459151200511, 6.123332612785156, 1.9069496487324773, 4.5358387146287145, -8.740954440436235, -5.330987360248488, 2.657504358817139, -4.548328269460892, -3.8642455375405302, -2.8714805896723044, -4.891157093305582, -3.075023377593812, 2.5051848722739636, -3.853812684766888, 0.2639908031468628, 0.003325838471871956, 1.0329139817299178, -1.9607028206207366, 5.34886900157994, 2.5193020606122496, -1.8456515386829684, -0.7546155508802728, 1.3011211382307126, 6.652334525575394, -0.17392752136401834, -13.217747690859927, 10.469718154389396, 0.025238444283195882, 3.5669528782020867, 6.169235500305517, 1.0079764454024718, 2.539270859195438, 2.259331821651967, -5.969936964141052, 4.025002753644291, -3.2235475817846546, 5.575237614350894, 3.201541441332055, -3.5780481156742305, 0.3815686416926661, -8.026063419000037, -3.1962031107961004, -6.112417002190248, 0.9518144870340414, -1.651685548824118, 1.540730894438318, 6.560365595698844, 1.5175402312296988, 0.9978760941064296, -1.2154714376109064, -1.1119688290840921, 0.210282653705207, 2.850782666124693, -5.104365378113967, 2.461943319625592, -5.236293280366633, -11.491485400304141, -8.216589039436418, -5.498571593523127, 2.7501587196606336, 0.17393490113804488, 4.039247952029742, 1.9548233082840767, -0.014371640432459198, 2.8355422980857092, 14.472837266947725, -0.20527827094888842, -0.9990019113163151, -2.8759276238153624, 0.8250876361044528, -6.245163110287117, -1.8223143694943766, -5.599666915337832, 0.12831271218423645, 0.6843261550933347, 2.17351789524748, -5.4177268611099105, -1.871994930951948, 4.401931191613384, 0.6300677919305049, -1.6288805198033471, 9.7498194424313, -3.0185802805654953, -4.567960435150331, 11.74115644513677, -3.5970870171760625, 4.194223028161424, 0.5075773838531159, 2.3310263136797778, 5.9777948651075725, 6.750357053784645, -0.5099508685800883, 1.1882843329950707, 3.1060763526289454, 0.5190560293206532, 2.7838050477093943, 1.2430803065406066, -3.2302781343650477, -3.3963513769687914, -2.6986852905042493, -9.711410304453139, 0.39045828517788694, 4.357370222458262, 1.451331881999117, 1.3559200848332063, 5.986493362543159, 7.654130387956807, 5.519521536504954, -5.193921666766532, -1.283605445014892, -0.6501436099498351, -3.828610649614267, -0.6461669644600783, -4.726593965576006, 0.36784441517535327, 2.99351342036406, -2.8148982002590004, 4.194871745166023, -10.890252688221196, 8.734716870351106, 1.7988578727970763, 2.0253338619779013, 6.521130823371776, 2.1475780112106437, 3.6293845792256745, -8.237973186045371, 7.440279711862142, 2.659397756146835, 0.7053110332504722, 1.4586259987698393, 0.1564438559105109, -2.0461130186157446, 0.7820526883031581, -4.938428813558172, -2.3301894941628105, 5.874975942741269, -0.7607876520185524, -1.383453699882927, 3.132454603595839, -7.803166033006935, 0.7129310262452355, 8.717664360830737, -3.2002631609288743, 5.51154217959686, -4.129642358953464, -11.304819585946454, -0.11057555430858235, 4.0086225587190105, 8.577213877352797, 1.356246478245479, 5.064808800523561, 4.990955574949953, 3.551520387848368, 4.17143352435594, -4.984269189771698, -9.975173504190131, 6.540238205298961, 0.5536465612511103, 2.415788438146586, -8.795549179863613, 1.7128532175554743, 6.136471747519483, 3.792529231390392, 2.6498712615914646, 1.7442377623091412, -6.5487229508367, -3.8694977513869357, 5.928977095593956, 0.4273212597994215, 5.5554459186624, -2.869784487231, 1.1185660369990422, -11.269985133507186, 6.253299906415467, 3.5779607089094165, 0.3536721190626531, 4.0228358307633405, -9.597745036953077, -3.5194590113619153, 3.082560874122175, 3.350416030398593, -4.004561950091802, -9.800154709023422, -4.516355503388132, 1.0809252643736165, -0.5508706187932114, 5.722331636261068, -7.536928834168636, -9.189241206616034, 4.141278344822183, 7.2433582703964605, 1.146577656217638, 0.8560247593799901, 1.0037327805165561, 1.9176522102720015, 5.6638888545537585, -1.8461777607038539, 4.8753525053514215, -5.3630623047989125, -3.3746792850410365, 11.80299894319725, 5.204432806287939, -8.324743152703858, 7.472038884165811, 5.282872956298516, 4.8380630625300345, -2.169894541992509, 1.4942199428997096, 3.3172436839302626, 3.6445325017614634, 3.8404027496233426, -3.4902105034271393, 4.200806182042376, 5.471213616799108, -3.160903477148419, 7.24694468080784, -6.445211369170385, 2.3803367848756656, 5.306397317024583, -4.225239682047605, -3.726566201123653, 10.428610048517125, 1.258265869603768, -4.362071063268071, 4.970680062871824, -3.4538030744052968, -3.151217662397071, 5.73893245851475, -3.074389311868579, 14.556531333332941, 6.585370836919646, -4.7673104841311815, -1.6927135473170316, 12.631363253687448, -3.728382162982077, -4.40628653096398, -1.1363166833876985, -0.8421262559267203, -1.2604123507733935, 0.7205200822269404, -5.006106722862248, -7.94467306381073, -5.546334067893822, -1.5733369734627862, -0.7003060995418164, -0.6643329235380371, -0.2516578873349713, 0.9706057965837243, -2.8317704444303553, 3.001295950313194, 0.7005542131296679, -0.8913536756015702, -3.405594715744733, 0.261794137869647, 12.593628579791188, 2.4289265030329017, 3.4214207103950907, 1.1155644647658907, 0.9234344816042661, -8.910606997963813, -7.2852530082924165, 1.8634443420295785, -1.9173917006843046, 3.784210396219626, -4.050966559252582, -6.110430704743996, -7.5568022889575595, 5.409526692343566, -10.543302184593186, -5.778084692573982, -2.9695019263974105, 0.26970440626681796, -3.7573158362897967, -1.9074538515650092, 1.0975833255131797, 2.1307284619520184, -7.624537888500429, -15.015817363955936, -7.381616148826893, 5.37273124891102, -0.28209473320134426, 3.2948664889831374, -1.4731263774339052, 2.8494320056246156, 4.0553363940867815, 0.6225803664136268, 2.183904538159121, -1.1906244085634101, 1.1319457270053068, 2.693081522875165, -7.330885787478301, -1.1831174630085446, -2.462945547854856, -4.647403524706145, 3.6434918485518257, -5.26635529205586, 2.501184814459964, -2.194331697514638, 2.0008772390921217, 6.656870452739626, 5.244590916683526, 2.2850154840454593, 3.0647057954574777, 0.5066991638800225, -5.578977887961812, -2.1884592904138453, -1.7141496009940942, -4.011810034954335, 8.992489553790717, 0.36456146497639075, -5.050814968200178, -3.84069391927162, -5.2855725535680165, -1.360093718952409, 2.4509354964172325, -3.48585034298891, -8.738288299683584, -1.2179326697497908, -0.7775663260729896, 5.04185828948938, -3.141421447851888, -9.412520029705535, -2.325847368004813, 0.5189628500127197, 4.09379126441338, 2.320095811974986, -1.6114552236238997, -2.150528154159127, 2.1215962186200983, 3.3133486328394084, -1.6516519888596934, 5.841440152707696, 2.419102557921017, 1.9119313901829544, -0.07020307891064403, 6.915073818661219, 1.7613024154949362, 3.7864400756796686, -2.654405154764756, -0.5837464490130997, 6.578634384611901, -11.977697845250098, 3.699549004581692, 1.9681202103772646, 3.850017318056744, 3.6896587360942625, 6.265678950375793, -8.44800877911188, -0.2809010297931025, 16.882394583292523, 7.182144528636545, -1.0159414038855172, 0.4717536331122589, -3.672592527966275, -6.623147791116715, -3.0080249228669578, 3.496442887638358, -0.589604940799402, -1.5310206045339294, 2.4452983536865984, 1.1890274846640838, -1.3430116662148253, -5.610352609564524, -10.344128887372001, 5.4911200955404755, -2.4386650196762103, 4.822842612567227, -2.910071879082456, -0.8923638704001233, 3.423456735594565, -3.650958590889109, 4.541178583154641, -1.0869185227779936, -1.5565620114340946, -3.6886924989997008, -0.5806747595029276, -1.4444449394333216, 3.8299264873815195, -3.4041529204099636, 0.08063880166759096, -0.1633946139752731, -4.687360957997463, 7.459880014500226, -11.408314059863255, -3.398503128157561, -0.33931707101743175, 1.7962190822415212, 3.7179318181422083, -0.1172241856060367, -0.30366227303175825, 10.925677050292002, 3.6244496282028953, -2.4447284199033708, 4.779487377428199, 3.856830846203751, -4.81132492511302, 0.6061536580147244, 4.466891956911254, 6.233274053589904, -11.256454673751792, 1.8065200811402242, 3.776653618764352, -3.850268674343163, 2.62319928308409, -9.290979869194336, -3.5099016923061264, -4.495198427599444, 1.3468185723765542, 5.238127013611083, -3.0839714764761514, 3.549188083909563, -3.337841158350886, 2.329400244134329, -2.258769595390028, 0.8422126488208286, -3.2735585721461296, 3.145698491170361, 4.278813778939024, 9.16347289650393, 0.1681787212202845, -1.4665217121914247, 8.044330194723997, -2.4984614837793555, -2.5824239489944887, -0.6621626355206162, -1.886385983731914, -0.39651948499551315, 0.20156319151477903, 1.9764288509196932, 0.7930258632279035, 9.863519280229523, 4.486969759954526, -8.256977901618987, -10.263609633323863, 9.532730147692485, -8.957869824773704, 4.233792293446296, -0.2775981490647441, 2.6400170832873755, 0.2546681469056884, -3.122505540482286, -4.227652727875209, 0.2762190350081917, -0.7605780865940935, -6.431366842548668, -7.968675888866951, 1.1981369926800847, -1.9203243631048754, -2.735323573950985, 2.1570067586554647, 5.092712098213295, 2.3398502738773628, 5.991870910626536, -0.31452172583183274, -3.4320718339585907, 8.972948005037077, 1.479998021859779, 5.115424266962065, -2.0697959435699977, 5.0528094052514865, 5.727392528969151, -0.1409328085085278, -2.8350605610190285, -7.703335589444189, 5.841967199879994, -2.19514126039076, -10.869860719661482, -5.584334125535587, 1.712891905156575, -5.012405252958683, -2.311261478762533, -4.085262464464368, -3.474586699444499, 4.554210798165781, -7.137740353494294, 5.818270475102946, -4.800181300735639, 9.62097536100094, -1.9143410253038267, 0.040884359422605265, -8.14837949844742, 6.1168786175573935, 5.943049752497289, -2.412368145341259, -2.263633570852228, -3.437837020192838, -3.3464085525914697, 1.4375552043748632, 5.052191388684455, -7.0367178856137516, -4.74113436444132, -11.348993323631456, 4.127650104978431, -5.456528527465574, -4.298973125977397, 3.736319454478099, 0.3660347312087282, 0.14641788571784753, 4.189304609051243, -0.7942952560904997, -8.188163584854081, 1.1771167576063715, -6.125116236176522, 0.12131462273984206, -0.9567630530801731, 4.870979867692332, -6.085390070501171, -2.6019134258645886, -3.6724728974190626, 2.6585135250725735, -1.2036491379962873, -2.080493400144457, 2.0196820488892198, -1.4302898464941292, -0.7465768173609112, 3.813582411409752, -0.579120241357117, 7.421326689766185, 1.144665013316249, -0.4946985600036252, -0.3689556082449267, 5.137758338491986, 2.774431571129909, -4.365411265497331, 6.042543073926252, -4.465848999836176, -0.20891014848679734, 3.8317875004461697, -2.9334955743237288, 4.156705294799707, -0.001867884150087873, 0.015263562038023953, -6.318713890932533, -0.33439384313417486, -3.2170278810168447, -3.9615649061975535, -5.800534338848925, -8.140405907117275, 0.791781411242938, -5.55220974463387, 0.41110258794850973, 3.1721869837346506, 0.45633975210670674, -7.539704081012279, -3.324875817188061, -6.53382594871958, -9.199149921025391, 5.195881418232243, -9.02677459412301, 4.077364551126021, -0.5773565513598662, -2.1128214594905192, 7.11552361705378, 0.22937194003243333, 4.987219583799053, -1.5531068427196255, -2.045701962078243, 7.235473519745488, -2.76946959500876, 8.940938279597752, 0.009079584730528167, 3.260091340760206, -3.605583507242542, 8.482072544243715, -3.008287296663937, 1.519026701938423, -0.9641580009526333, 4.935281119729101, -0.1758147051327592, -6.290027203304292, -6.157318630045557, -1.5843284001868576, -2.302554778035115, 5.663816736519639, 11.5945409741648, -0.5151776008805273, -11.430821175498135, -4.469888309955276, 5.79752286090227, -5.779393229262528, -2.751411928596496, -2.3285971855739476, -2.682039802463412, 8.151523163350067, -6.737457365732075, 6.719276437055028, -7.81425404932239, 0.4359374104020064, 6.48672115917029, 2.250696158707348, -3.1501225236825516, -5.29998565400076, 11.882295855027543, 5.423447796596711, 5.155561839575074, 1.6217232304440368, -2.89734909383455, -1.6323572457194895, -2.822665116695487, 1.8369051163442067, 0.847401363882559, 4.468844694123349, 12.65407414461698, -2.7217889736214453, -3.350252438174656, 0.40182135783820905, 5.228791417605297, 0.8536597661890538, 4.161476273284019, 4.167125255645812, 0.31382725182146154, -2.4819604246801195, -4.961435050861734, -1.0308702521237525, 11.854775631948737, -2.1315411232166457, -4.096824241642841, -4.129201221800079, -5.859455308788054, 13.972287618539061, 1.7366472309625345, 8.49112749690015, 4.645976180981268, -12.76249132708298, -1.3759565757379446, 6.535338673301337, 5.757585763086759, -0.9511162875928718, 6.148529739749398, 2.3090900613510104, -3.8472217704538836, -0.9119192243840457, -1.0304602027809682, -1.6565949313732578, 3.615338627185061, 8.372314875258217, 0.45569766186788974, 5.423518547261012, 1.0658644260344816, 4.820203074508625, 4.054396967606804, -2.513528088339495, 5.829573689414999, 1.0829235064391871, 3.007880671827593, -3.511143726914563, 0.02763194857491036, 0.8594744799684362, 4.114325564588841, -0.3696314626153937, 0.5626325601838934, 5.871159209309343, -0.4692719881902923, 6.433266181620945, -5.737379843032957, -0.8456680996597015, 4.007729820693598, 0.434766730808475, 2.5201575203757582, 3.3967393778124975, 9.20707378181366, -2.1379036876369373, 8.206570641167247, 3.164954414380085, 1.0099530616028847, -1.3554160501769061, 2.156076691255052, 1.4370634240017615, 0.6606037123979875, -3.7114090926671035, -5.693780573669649, 5.484961042905671, 10.073371186138736, 6.599631834595501, 6.296463813889089, -3.7934971200983365, 2.3451784807503606, -1.80842902207406, -12.919594385436866, -7.517364075709042, -8.580859236128088, -0.02763445022333383, -6.247597572100376, 0.6055714047062626, -4.112343756994805, 8.740308150780493]}