{"model": {"output_layers": [], "activation": "relu", "n_readouts": 200, "echo_state_seed": 56422, "n_components": 1000}, "model_name": "echo_state", "weights": [1.016655213215829, -6.145112834060805, -0.8882439330666533, -3.7320290647229166, -2.0263716633185647, -4.454576004824525, 4.7686988315247625, -3.1452699887965725, -9.174430824068214, 1.1914829073664426, 5.4518950419945895, 9.568755394365779, -3.116460190447372, 6.326730409362512, -0.10049887730081031, 2.0455658323272816, -0.15779297622778565, 1.968671380526386, -10.898271254187346, -9.051821297315787, 1.4255692005000977, 11.156839676104601, 3.8291319694795463, 3.5031491532871266, -0.5054259321478864, 1.3044019957382385, -5.358739573694117, 1.9880968301973767, -4.209157596682731, -5.726875827151648, -2.71918731920931, 4.302101150741965, 3.350855075224434, 1.7685877353151356, -3.6278567921856824, -1.9431477587299573, 1.4831005863541538, 3.852646107710746, -3.6663532614240846, 4.048359841347085, 14.311264847205877, 2.296397556018705, 3.0970723626075247, 10.682087009017174, -5.5167002189625345, -10.30230770030507, -2.6554837596640977, -1.750248428014061, -4.888066568548589, 3.590858399626712, -4.981013688847835, -5.164609736115488, 0.9698090763874488, -0.92526482979205, 6.831437287079742, -5.9825506592118405, -5.176336521894546, -1.4145894456648258, -6.665345385001615, 1.2424947492394576, -8.459320033799429, -1.1345856026894616, -1.8003212689855974, 8.661367024325616, 4.544253653375477, -6.457164293290122, 3.460213971408444, 1.2852170335622686, 3.49846208020666, 6.483112223030074, -5.643984071063645, 7.464602508079588, -1.0080836615889912, 5.6049384849898995, 4.566397285983867, -1.8100373204268219, 1.3824350173600604, -1.917293141054778, 3.370766011465515, -1.2277290656247046, -5.78887319032988, -5.860911914216965, -2.1444815567456987, 2.259029424237226, 6.967264610046489, -0.8813815671930163, -4.668468000443019, -6.060887520437089, 6.324742676150235, 6.707798575794145, -8.912574666495379, -0.337161251058646, -8.599367814801077, 6.754126258949693, -10.18304334969133, 0.15445189875412746, -4.1431090311126235, -3.659466527038859, 2.8717732852524294, -3.9205105505045137, -1.9284314940617588, 4.9639121149925, -0.038753849974967475, 1.9979236716640392, -3.218114221653314, -1.9331586325688328, 5.46607106853474, 4.837781203836182, -8.202595368478763, -5.881371570178045, -2.190757649075935, -7.605409400641606, -5.704327463544283, 8.234750987927562, -0.564080514424143, -1.6520295002987666, 8.043246044874815, -1.4326171507225234, 11.531041951922854, -3.9652910084400785, 3.614067497574501, -1.488854971931699, 5.251611131279534, -1.2076947629817516, 4.078592253957882, -0.954074098505711, -2.412655433106027, 7.782554837933205, 2.8466732246639075, 1.310999354004084, 4.155606106630188, 5.684080403195673, -6.967926255670084, 3.976105381710647, -2.6834391723435873, 0.1396646673669502, 5.4473329448350105, -0.930901102191251, -0.6391369335831372, -4.552061618120646, 0.7585630127480198, 0.06736439869140554, 6.992333261789036, -7.386282690358587, 13.286322553795634, 0.9863354642841602, 2.7091208115882695, -1.3413532641525476, 0.03358010659015079, 2.0763826644528347, -0.1514115572512036, -2.6051147737375873, 4.557309332339359, 4.937278560645087, 2.742094674032935, -5.6601313428104145, 12.503899813186731, -4.729835022831787, -9.370998467440405, -12.26460251030232, -2.382846596765676, 5.916724943571671, -5.740830954129124, -1.062796268338301, 0.454555418033212, -3.918366462903686, -8.301624951216768, -4.248286417224211, 7.295857180525717, -1.6887054641438368, -5.215985833101488, -7.268363711309157, -12.617328568073482, 1.3947760524790036, -4.543362432542082, 4.481756983208591, -0.5794018571952093, -0.9501425348663615, 1.899848105762506, 4.601398653414881, 2.0854669085412745, -0.43879817355332773, 0.6894073066603443, -0.001143382341257937, -8.314384396220523, -7.988159956020221, -4.08065196902801, 3.781162776138431, -3.944899572502356, -5.111798097438347, 5.7755802912017415, 3.9354732255162608, 5.931161424584941, 2.225306521819641, 9.069196381267627, 7.9227479952601385, 7.759898459398611, -9.46139400203955, 5.062808201522311, 7.372083494079947, 9.99880871117707, 9.247373831347613, -1.5528952271938998, -7.579370863457486, -11.40307996877165, -0.03474267174601908, -2.0561282218144363, 0.01972877555370478, 4.821878539656938, 2.8287195545479493, -6.878519608610669, -9.016599479093754, 6.521901462381998, -5.6035160294423685, -8.420805902075271, 2.383490480303048, -3.3255918165633584, -7.2259568647854815, 4.449338898124164, -2.8612911581654927, 1.0452974552043366, 3.3310201491331686, 0.9470887831463126, -12.831919275022791, 4.367370126264282, 4.654760649356655, 2.25290855439279, 4.029050087849436, -3.115828505522521, -0.09854512321570863, -0.46063644278973287, -4.242986885517876, -3.9638581521221274, 4.135138974735122, 1.6693742239212996, 4.6141003741773545, 1.2416983885199795, 2.9469477873428005, 4.09809076233377, -4.070556901912219, -3.128544360542149, 4.507927428177851, -4.138659484711396, -1.3657634532728433, 7.705079124765573, -4.636955047732053, 3.9894346653483, -5.222523417838667, -2.282679075953138, 7.374029806245826, 0.024686250329167297, -1.9480781694753349, -7.440702977950401, -0.26913265368741124, 0.5197987048558855, 1.8265092504927354, -5.15405518828023, -3.4292069302691597, 3.906704127835104, 2.5190925214284614, 0.29761211040551633, 5.221242461435798, 4.288373839261754, 3.3774526033661667, -6.6847683791886645, -3.3158894100383356, -0.018552654386888523, 1.4832619563749692, 4.612009600123305, -3.4866708908039703, -1.8100780437209574, 7.636767672739158, -4.7178786000798825, -4.234573318816054, 5.134674669007285, -12.193199831959614, -3.8689386379488355, 0.7245118421283416, 1.5016238355375198, 5.476014987978, -5.088638115295613, 13.20508040249027, -1.107265954988074, 14.681097619384557, -4.181407667729266, -4.264620365128028, -3.601342949214358, -0.9338470005896122, -3.8307898976375725, 6.641339958157882, 0.4122396808941785, -3.236107010569687, 0.35610142225565156, 1.9270316480495695, 1.936136873375538, 4.514294668466084, 1.8573642853819248, 3.831077723892033, -1.610220074683993, 6.345119252135624, 4.28091774284627, 4.071432720431829, 13.432389053267709, 2.1862946658759332, 3.233424238278017, 8.307649088344553, 2.363097421391797, -1.177028833064953, 0.5264476885242254, -3.2841590619401817, -6.916199418413878, 2.6317424031625283, -0.23987105102223244, 2.9720702001740555, -0.2794789903177327, 6.740291851801901, -0.35534202451085006, -1.2827724947590977, 4.7583268384076725, 5.314313583807699, 6.8085915060695665, -2.192562302281365, 3.846143855098261, -12.656018213252269, -4.5082024550841115, 4.3386998936573775, -3.2313482157979183, -4.039873414147045, -4.712141316832016, -6.949280343764643, -2.319922753358738, 6.147447764771377, -4.94903878888958, -3.680210650326723, -0.33169831469736794, 2.0397456827639884, -1.1440069692786996, 4.088510953868931, 5.195854404694539, 2.5732272466411144, -0.6405634071750859, 3.525021440274416, 6.1008121772782085, -2.1203363910791095, -9.673219912892623, 11.123023890469376, 1.119627805554765, 2.1180265559243536, 2.363275115724431, 2.344404259570342, 3.212381317422826, 3.4352112786880933, -10.459187094440674, 6.328464842359794, 1.5489468584795378, 6.929781498921938, 3.7698931442651613, -0.30143794109464705, 0.6420972003945398, -8.338235844007308, -2.2231159723526046, -9.047604817131317, 2.888066605394539, -1.3985891442519245, 0.5912359510958739, 6.780661705747191, 1.29351450002065, 3.72353042884761, -1.6465231071782256, -1.8385392965080234, 3.1345475593736682, 3.8852271192179613, -6.716894390790775, 2.6995761858587453, -7.438122884359583, -9.289685824270297, -7.9244881724379255, -3.9815528994845852, 1.9750520158598255, 1.0597892494209369, 2.219885435015123, -1.8917913348010256, 2.3978348655578787, 1.0012136218711547, 17.444235071934543, -2.4112488064398376, 1.0392545661766983, -2.9265481386498258, -2.028833420072403, -7.423796201286317, -3.3673810828514346, -5.7930660160904655, -2.588356351530777, 0.10953481327622332, 3.3341613487652717, -3.43903487581691, -2.6416475588905044, 8.070616535631345, -1.3008045857385557, -1.5448246686997762, 7.876170484120648, -1.9376306162441341, -0.34042287606421784, 8.553462420209156, -6.005372187918686, 3.519210993998775, 0.03076229074386333, 2.206106666157626, 6.132321846272616, 8.980507681662095, -1.1137015097794736, 2.804048766016015, 1.3017127343275592, 0.4240968107483136, 1.68594877871943, -3.2953212419012674, -0.614573795214209, -3.908683346800731, -2.4031904364875736, -11.334129934051088, 2.2418811511922367, 3.1916906236669025, -1.5900624327753026, 1.1142794651746437, 3.4341109420122637, 5.186600214218757, 7.02869300492984, -7.235030794598854, 0.2386862938772037, -0.30388932574193483, -3.7015417505619, -2.1243264413588636, -9.36468328296478, -0.510820865600366, 0.98322165654923, -2.9844503426590157, 6.223390064337068, -12.568288945325016, 12.453881717616104, -2.3569624504582327, 4.824059668697389, 2.826960059754216, 1.6789858422058546, 6.013854811113757, -9.356105404408048, 8.640923351545585, 3.6762675178601394, -0.4571847615211829, 0.925966350920669, 2.75792674869771, -0.952713053954761, 3.803052441080638, -1.8068503730170107, -2.8159286565904815, 3.6285610380516027, 4.014209479812982, 0.0910955317271455, 2.8774355012145567, -6.449276523405166, -1.7946860135497147, 11.74431952433931, -3.4786592608593563, 5.409311688366305, -1.5129242981197801, -10.353569597375772, -0.04078250280286229, 0.17335627737885617, 9.177044270274603, 1.4031567182786502, 2.1691200618403608, 2.997543984275365, 5.627253052310189, 2.6290073326576726, -4.1682254475838505, -9.94438925636898, 8.362493430988835, 1.382297283946587, 5.971938366027743, -7.7998795347428045, 2.188968058564205, 7.204253146725112, 1.1484454336171372, 5.392423503212559, 1.7598548453252196, -6.341143364323184, -5.348023005623809, 6.143926949576997, -0.23741858528801862, 8.007993469027813, -2.9380376112076423, -3.2393975546814096, -9.16807223132151, 6.855266960887194, 3.7830466709833934, -2.3216354486001785, 5.322764349494177, -8.26364896131084, -4.99154430491289, 3.7363469034030126, 0.6762731069255752, -5.01431399767651, -12.968724478897625, -5.406977093207766, 1.1981347167464602, -2.2100983646252814, 5.694640531667654, -9.188691162044716, -10.30119300352515, 4.135953383407223, 6.145374956275297, 0.05051579241782775, -5.039300028380651, -1.058095963330561, 4.427188591259471, 2.438529916651389, -3.298857845184026, 7.487381715853021, -0.025878586555735605, -4.213176828099347, 11.334535330665759, 2.9824305203941326, -8.469128439125733, 8.389010149717224, 9.752396179414546, 10.180726802387314, -1.0001568242470165, -2.6280439305498264, 6.462964216181251, 4.381099670776664, 7.256426787194694, -4.197814957957505, 6.68459726877344, 0.647350065336326, -4.322935126836271, 7.1939037867665485, -4.756587082935368, 2.325339713683392, 10.225815074523197, -2.257978412268336, -1.820234744670465, 6.992760156021889, -2.293037125456832, -2.2866466154268377, 6.297994372206535, -4.6634777682036805, -3.0464964511786397, 8.103731914623012, -5.79673170848667, 13.21270292914578, 5.350652792217742, -6.997337193505901, -4.93596885862991, 16.347970601275268, -2.4197198597318597, -4.957874066651822, 0.22465059999272702, -0.5690344949288257, -3.5882658343188814, 0.9211494707013044, -8.310413535098736, -6.66373214399764, -7.585658503698344, -1.2046004323690256, 0.1652078443323886, 1.2344131828151794, -7.181931796294158, 0.3326934804589272, -2.335937306895306, 2.413372087357601, 0.8229033021371588, -2.28455190454321, -3.6589469078370667, 3.1157324673757234, 11.117064336233557, -0.9414117456529734, 4.529161395164509, 1.0815806648427344, -0.4804675890255225, -8.187580406274352, -6.008550606622777, -1.3281356592152296, -2.760883209307266, 0.32581465087426537, -4.269470044074027, -1.7294404028645232, -6.939848852366583, 2.234796292650095, -7.81899923472644, -0.9617641051271008, -3.731233149989504, -0.4341046447967306, -6.601758858671586, -3.3047549079133893, 1.170668092754576, 1.2978662155215674, -8.988326750408396, -12.422263653908844, -3.723526200757522, 0.8325146935093601, 4.107249433144782, 3.0774561927966206, 0.27303645148536093, 5.3601287791474475, 2.5999542303660292, -0.2062049063609437, 6.221026683574368, 0.36819852983365486, 3.101285170477156, 1.2695915068650971, -6.983901234056631, -1.5801166210834252, -0.8620281586155375, -2.2736836100049755, 1.332419401665805, -7.238194826773405, -0.07268257021531466, -1.1375309868470929, 2.0764173706553626, 7.011396012774401, 3.579555017232016, 3.3054067360203705, 5.4341530629081705, 1.1053692668434736, -6.846610560435857, -0.5800041724249885, -3.366335354761307, -5.024444211719378, 7.381466644449513, 0.21412468757507797, -5.74393556374539, -5.094803817558135, -3.158873722728804, 2.3122098476028423, 0.8027976400049034, -3.200906611920152, -12.368104905064742, -1.6772290961267098, -1.2910646059949125, 7.693448049762531, -3.2254235811287915, -10.900677394002939, -3.081878582824721, -2.101977432515534, 4.862650633884114, 4.434385879974602, 2.2339771613425263, 1.5281575010906088, 2.3062824207503203, 5.780791687071067, -2.214298123171533, 8.02691846943108, 4.184179842685783, 5.431138566309242, -1.7285601815118232, 6.7646545160551526, -1.8368454094045397, 2.2033903569173985, -7.3215325994693705, -5.2422147323534976, 6.207115055481763, -13.024618502198745, 0.8733446746551934, 0.5261912578087221, 5.04969375268549, 0.5794903212883026, 9.385469321081795, -11.732762937163962, -2.19600567585163, 17.930313684171693, 4.655972715593782, 3.2550455852983684, 1.0892970904789012, -6.358129830658297, -3.7143374323793745, -5.084151718282976, 6.177061111287887, -6.007841981278312, -1.0147172298700955, 2.3989259998443515, 2.7210452498620006, -1.7115171676934342, -8.350560924970294, -13.00226517071523, 7.7869743160913085, -2.329138393670023, 1.7879177710157421, -2.1459417776912653, 2.6877538106908507, 9.060979867279285, -7.316876854928285, -0.9750295315091377, 1.1269988356437608, -4.497612026988142, -3.445622915788154, -1.2312772433048087, -1.4567500587111122, 2.5132797199379486, -1.5374847880721765, -0.06500098588236036, -0.009840930614591625, -3.97808903925759, 1.1282499820737593, -13.242713065737327, -5.682310778648576, -0.7081673121804763, 1.7634606181440153, 1.436646919018044, 0.4056602712728973, 1.24434210642187, 9.245788069349974, 4.156758707174746, 1.122466847579486, 5.9282189796489275, 4.870439316529231, -7.2642267812307955, 1.7907155792700222, 6.077302757396066, 5.78410970135126, -10.584160179318237, 0.7873921556102992, 4.253881247121908, -2.2904728862682715, -2.3336772851796126, -10.234753541637474, -4.951807160351695, -8.223764254032098, -2.501013785446677, 3.850679016217624, -4.041256162907872, 2.8954056515590194, -4.176502227789524, 1.6930351002535458, -6.053966122804511, 1.1393070826047955, -3.0588544001902003, -0.05656652441457988, 2.221815729015259, 11.325181402548758, -1.4685367847412354, -3.1821359493054056, 4.4524406735119495, -2.999095516146413, -8.182829206974212, -0.4182819885141211, -0.6744872011281591, -0.24092085306621236, 0.8798457453223414, 0.8217600926583031, -0.6385521191805072, 6.207601175124443, 7.899032226555468, -5.995287938408972, -11.19826041500653, 9.820996469843756, -7.2688468665852755, 3.456854857752181, -1.4180308642898252, 0.028562735854665955, -2.2346871107678554, -5.770847339628584, -3.048887844136498, -1.5663908658659813, 1.8423078231219425, -9.192721446283054, -9.650025829566957, 2.1759037302764432, 0.3144874783928102, -4.48791000023344, 0.8766540901947604, 6.199029988050851, 4.157340646692198, -0.014086942027734306, 0.3138559434930246, -5.3690145462621715, 10.6370492694921, -0.05156782034116625, 2.4092363616992976, -3.3566908308318397, 5.311208366113716, 8.048176382793066, -2.1250315205762105, 0.6844941590692669, -12.264625891521598, 4.968835538135734, -0.14643425350999206, -7.205498188156316, -3.987056985173072, 4.031540608191996, -2.9123322720474816, -3.4171584264233017, -5.018183152655739, -2.465409160615463, -1.7572150304323753, -4.581953789898924, 7.958778705921526, -7.901162261513599, 7.365411802971178, -6.106049655829193, 0.13023821248852518, -7.56538702069466, 5.017032598908251, 8.172746058881842, 3.8365783568238525, -0.036048669059691396, -2.985149268167768, 1.473400672382852, 0.6288464367594672, -0.26949438877145043, -7.762529980380162, -5.339542471396307, -11.742799101061614, 5.936880788467983, -0.6141568815821594, -5.64055297758629, 4.104730363316212, -3.4369205716361124, 2.8030176546536367, 4.873060034825611, -2.096954252349952, -7.618073236630261, 5.502782927760972, -6.373886432580353, 0.8940374847489077, -1.3952296069745564, 6.684961731557925, -7.261293649359481, -3.6686639724489933, -3.8651338843986522, 5.41291599132169, -2.398288476875881, 0.4718418889331464, 3.6092098797259746, 3.5441117720566297, 3.6732900333344443, 2.939887406943538, 2.38350967922482, 4.192700542038406, 0.8936843456242898, -2.5076779568920458, -4.716987457000656, 6.17989354138335, 4.5271161246056835, -6.686933457087298, 5.349280563277405, -6.5880240770381, 0.8373521453136026, 1.7538705405373887, -2.9318546059526893, 5.656609392339783, 2.1502663507663793, 1.4205510817796567, -8.448884214377992, -1.9187531759206404, -2.830819219877747, -3.2944441062765155, -5.238159413479552, -2.4484865954964494, -0.24831539856368057, -4.849446653689451, -0.4554047616006831, 4.959932102249305, 1.1952989998691848, -6.837227741865146, -3.148084765733409, -6.035472891384174, -6.1659635112129685, 3.965966353191657, -8.405852760412907, 4.969323071351493, 2.0199611510202713, -3.506389815959813, 7.371840431680624, 3.103276773715236, 2.6527176598146767, -4.72934701048927, -2.8872083502347183, 7.279051793455664, -2.835421118434668, 8.814838664104494, 2.3047138943986845, 3.0428291109103625, -2.257786030193328, 8.33425600641879, -6.237809141467076, 3.293608437988051, -0.7495238965934066, 3.5648426333705663, -0.3258252888976023, -3.2984308837830665, -7.3331469069117485, -4.47078454105479, -2.821786092579666, 3.6217861822716118, 11.523566546372239, -2.9457850518678206, -12.92232137139709, -5.0466743716271525, 8.290504583720226, -5.537264379027431, -2.6051305882951703, -3.0725193513164073, -2.212653644024359, 3.0396623249748096, -3.297737687903073, 7.247787522765834, -8.117105998359346, 2.3170386190633314, 6.696149442845166, 2.205159069821814, -0.7756609348457415, -6.21243623092588, 11.916224307083068, 6.927894387907936, 6.293839708373207, -1.3898931378164336, -1.8292635544523732, 0.41875784208067757, -3.3752048309901586, 5.529681793078405, -4.209665952970377, 5.7946584848628255, 10.269085113203332, -1.0371282346577966, -3.1146480499247375, 0.9125625011752909, 4.799712996394789, 0.47522088943078344, 0.7253225039953913, 5.315655757058833, 2.1610040974620697, -0.5318210009466903, -4.874681779135843, -1.3069117621540558, 13.599657273503524, -4.601447279987267, -6.247581249058848, -5.1069082091756455, -6.183910198093852, 15.647737785060356, 1.6919830122415145, 8.559779502123412, 5.496792802765991, -12.469375482437195, -0.973842554399692, 3.704276019853324, 5.974540377838704, 5.790769169918178, 5.024835560906908, 1.5354411497574467, 0.48965328764832927, -3.244680048170434, 5.509499990689888, -4.857900373638525, -2.5689027427810984, 14.005317162786387, -0.2964530011860181, 6.147656472178552, 3.491352212436171, 4.442237534071501, 3.702940210079211, -0.04511828086540487, 8.753435629471207, 1.6984069012182155, 0.17763398157867916, -6.250837758013091, -1.0165308583299388, -0.6224261600355944, 6.61487068054696, -1.593676878751762, 4.012142377020222, 6.838648303632274, -0.2645149992251207, 3.217065802855441, -4.234675635334378, -0.9316666214012418, 7.148078589707982, -0.6897674446142695, 4.621944511278661, 5.765899982178861, 9.196503696164307, -0.2002058128467995, 9.27414801076681, 1.489684157364929, 2.02598467752322, -1.292534006648188, 0.9599950436822782, 0.3241230956207289, 0.6024627934242923, -6.721813766406866, -4.579047714993024, 7.025504200603884, 12.076425437985808, 8.321816931912268, 5.822762978541271, -2.7952599545506587, 3.71379043800011, -4.7638516687938415, -11.257747588708593, -8.192585924820149, -10.881202919701154, 1.8537089950179215, -5.831221874532419, 2.7338220466449497, -5.658700562964793, 5.079807925689397]}