{"model": {"activation": "relu", "hidden_layers": [100, 100]}, "weights": [-2.689439527460491, 1.3835431267749536, 3.241134157174486, 1.7977534702213602, 4.417964966444788, -0.08314763576619313, 8.345259692464474, 11.32121422943381, 5.914632904615015, -9.34306793490504, 6.846374698238829, 7.306073006343193, 1.3722794225447157, 1.4397236052257751, 2.2560381604421984, -3.4519007619372983, 13.646478598625409, 7.92745345486904, -7.828035731234197, 4.381241721528241, -3.6409718829713587, 10.086936431716092, -1.7985057757494862, -7.91830633279951, 7.16937924713596, -3.5494185362202426, 4.4020312707854306, 16.12494620418918, -2.6689486927358854, -3.7747546018657885, -7.616635233251077, 6.044418662208058, -6.4976781332436815, -5.2115918020306875, -11.272908887104169, 3.68933711880347, 1.4977884198290017, -2.448804316609634, 3.330343256807305, 0.5603820319183663, -0.6526020783506834, -8.850295389309125, -1.237466170603819, -3.545200698552646, 7.6099204421515445, 0.704840237556464, -8.757529927880551, 1.1951368363883548, -5.147495627803505, 12.493323991752995, 4.269468662816802, 11.874281609009772, -2.724703752830215, 2.6850503822211067, 6.992906773159606, -8.512294950783764, 2.9619660946326474, -1.301053981188537, -2.382816310402133, -8.284883104022352, 3.515205698754098, -17.834348904207694, -5.490184222338463, 4.737588584746335, -2.6296352047275424, -5.145437067632278, -2.6936327053292506, -3.6896157709795556, 12.489398072984875, -1.2856053113594235, -4.382013840800438, 3.2378280367182994, 0.8277803866327905, 5.551828160888364, 4.820140346647536, 0.6205464619560972, -7.60759252642879, 10.093741856409451, 1.3653688619409698, -5.486737319943981, 1.8223911853174486, 3.8412407471376597, 2.2387018520533273, -0.3766310542960747, -8.068069470883682, -6.557781654800461, 7.409410069655035, -1.8641550238089395, 5.281640190887204, 5.300216705370269, 0.3586907969194113, 6.633798389470977, 0.8335598265031497, -1.0351835772923612, -2.2620014506978263, 18.74637790263204, 4.151297745319207, -3.3259145435302875, 12.348800679729328, -2.2617018429894897, 4.277616251493135, 4.215962606176822, -2.3699688066262046, 4.032958243239468, 10.483602973126477, 2.25247868867746, 10.53266377154695, 5.061868938392306, 4.680923047681913, -13.992509531916628, -5.937078725382495, 2.002742518775872, 10.45656979760918, -1.7900004578254922, -10.949446423346323, -1.6610633087656728, 8.390808512704222, -1.7521061949335712, 9.458662566098248, 8.879059838038467, 14.513108775796766, 3.1867797456225855, 0.29393620780052393, 6.303744950399718, -2.717675966263255, -1.2995497425579052, -9.309765081130282, 1.7095092466415898, 6.316527453355091, -15.561261690840366, -9.642388541192888, 2.5283335569184855, -1.1958925525007724, -10.326350646691916, 4.496189984872197, -1.2977662303376027, -5.48250009456431, -2.5082465558249574, 0.7282366094060527, -13.723706107204798, 0.6508311053421363, -2.632565726905708, -1.5149024009034644, 0.34453207148222953, 5.195281057282628, -5.621368980755431, -10.010877095424734, -1.0954995833408643, -11.17122181375528, -0.8385360751669125, -0.4893067023848134, 4.251892512245051, -3.4991346750310397, 9.117652250197748, -0.8139311810030578, 4.707906269328738, 4.979822713836958, 4.347289200906955, -3.1061783657934092, -15.612083983997698, 2.396302288027789, -8.51924289355057, 0.28618050984860216, -13.957432261959118, 6.622445085729827, 5.0127497135109245, 5.921615624956722, -0.20229309296423242, 5.50981852761275, -4.46332993526598, -0.04895324980179805, -3.9766813113103208, 5.949765764905036, 2.42871083002378, 7.507171579520265, -14.28143235065991, 3.4718922114944553, 5.563903053026605, -2.6894115709490998, 0.8128157807425457, -0.7601793200959468, 1.1906915138132728, 4.782651841690318, 2.383474672089074, -4.524526838381583, 9.391687309352454, -4.650363102658693, 1.6552316826727609, -2.325620648180293, -0.9061701950150334, -6.336435745607155, -0.1150871018635451, -7.646239818697654, 14.448903576108453, 7.643505229339194, 1.6205746470601983, -1.5849288317288255, -2.1091545386172736, 4.7559673160079585, -5.279491399037468, -4.198357384384234, 14.14565118456128, -4.25001095561416, -5.713712258890571, -8.661834675824254, 1.9810909732212496, 3.488366851903995, 0.22723825420157628, 5.826918208612291, -13.324275489678369, -1.8478894705972362, 0.5630698679067929, 3.2893289605364666, 8.519003057297182, -2.217732417916036, 6.348818303606611, -1.718924523430951, -6.860855919911351, 2.1518791439899214, 8.128089544376433, 4.3232859024803165, 3.009007150560495, 6.787124531399588, 1.0076503096479081, -4.684253263507371, 1.9013576399509056, 10.217289809625358, 14.90355891643609, 10.21651833055567, 2.8584283266555643, 8.688912862730007, -2.641217416235251, -0.4574995277685014, 5.54473903225742, 6.78248925625392, 5.11612967743686, -3.0045445855079396, -1.5820959596919062, -6.560340022317457, 9.912398658542138, 0.27287191094762187, -2.3654358319072055, -5.8581204055325635, -0.3603117133887177, -7.772916283894242, -7.629819246243274, -4.4043248543899844, -3.124408346244281, -4.580115774980493, 3.724418139223337, -6.116119576257085, -5.40520220724104, -5.83511827431858, -1.044267550121731, -2.599916908198921, -11.246071231882231, 1.2434041904231372, -1.443329004667257, 15.773369590318545, 3.3783932869064106, -0.22667755929874434, 5.854688727863349, 8.248271438577541, 4.229298693809331, -9.354859905590509, 6.27729253873921, -7.083297596083993, -8.83829601168583, -4.1745999384088135, 3.0400100592853576, -6.122159774062689, 3.3052287529319786, 2.8164526518121664, 9.47697595372452, 5.148238952521857, 2.998800483087111, -7.740554973063627, -3.3784845940834076, -7.386477935124626, 13.162758666601745, 0.4984239719676453, 6.483517526660045, -3.1753547232059627, 7.507464678908682, 3.2222570864839124, 9.622785576674339, 2.2511731488486504, -1.5465646296097093, -5.634454661251262, -5.685844952504905, -0.5842936043363264, -10.656261355892665, 1.6227327873939548, 9.803764847382832, 1.962220559009676, -0.6152076976501933, 9.719467950462617, -15.816826306167844, 6.876061236527381, 3.8781594927869336, -7.2474336819436225, -1.5018324674462846, 1.417185424342914, -0.2580137484970768, 13.907703665138659, -7.310254300493976, 5.4557309171594195, 1.1096941235652467, -3.888737082387393, 5.0076811608711, 2.2049659669321167, -3.4263834306591825, 4.710177490025837, 3.756429799135343, -13.504512961460312, -13.54605803073158, 1.9369981524698128, 5.087690475602529, -5.20193424945117, -6.6714903110228265, 1.6853083401406384, -1.7132975832711348, 3.360109930444017, -3.8864811462233653, 0.6260791709098167, -10.21418286933416, 6.049400966499158, -0.446715349800767, 3.5857127055712845, -2.4655842125303997, 14.854089503881717, -4.5340333063071645, 1.9113162659076697, -10.382647240508513, 0.1700614670887825, 2.4371573072622525, -1.911688167255678, 2.2487331694802783, -2.9176968404301733, -2.833776797202253, 5.644947913849118, -10.327181170497065, 2.6162356345041107, -8.782089472265366, 0.6186423565231071, 0.854552854177563, -0.955431976176584, -3.622185794230519, -6.819305957195227, -2.67353623604324, 0.2723368127267231, 10.245440434915853, 6.149429456150523, -7.330985300914197, -13.413779328885887, -6.888518378349886, -0.3666013592647712, 4.575580258035225, 0.7379243723705217, 0.6384991309806236, -2.7939231638134174, 4.319873018892314, 7.0790387846309, -3.3290106536679835, -12.206793788207268, -2.969837901321646, 0.7502881581972296, -3.1503269320544534, -3.356431953234029, -11.082922619506759, 7.5418993005809085, 11.515509367240975, -0.3936222688483315, -3.8594114404500806, 6.900750521913407, 5.151398503830783, 1.7862386182880217, 15.830262578966956, 0.850038604070172, -7.263463728911605, 13.819399527787537, -2.765668431338939, 11.557894406719239, 8.519243836495317, 6.657160576576155, -2.641319720671016, -5.291125624724009, 16.09145418379381, 9.695044628411303, -6.244181852392981, 3.154509258191555, 3.5407884978997215, 4.481186137886448, 0.8074999206819912, 5.382806343941153, -3.0152406825918416, 6.244500924656689, 6.0135960173455585, -10.29007454103621, -9.338684559806776, 4.714861049746808, 1.3486424466745572, -2.5792439056488496, 0.5631888352766169, 7.110117637236143, 0.6019026765638315, 8.350885522201766, -1.1438388658160332, 3.092508386323337, 0.7675002360976638, 0.1313630810491574, -0.7887597736218686, -1.815268518185754, -11.82433470480861, 4.52531840636627, -5.037855176707421, -4.964237526544216, 1.999450977722721, -0.3421131464997856, 0.7170863331102, 4.53421544911073, 1.5399911626849003, 7.4080217399901525, -4.340977188171714, 0.538901315069551, -2.641094356404515, 10.559053216825587, 11.172390653799892, 1.5611175461536002, -4.56219077631186, -5.180231397304128, 7.2669984732060495, -5.431649498806341, 5.1654697606145135, -11.318979935403616, -8.791941399910058, -12.378011146996661, -8.643754449864009, -14.89554931872263, 0.47942321236478413, 1.7868242046256393, -1.6995247500960342, -1.260719527687788, 0.022256315418709427, -2.120780548436478, 2.569301704324166, -0.28078062803249954, 2.8334952583689823, -3.5684791185773657, 7.889694993320515, -6.066823061673433, 10.199628537194537, -16.911970929192044, 8.513316154353978, 3.023220618168483, -5.3466542056303705, 1.208334520492972, -9.834935697448207, 9.520154827893432, -4.433683893424462, -3.687860798085106, 0.7439238768407286, 3.6842583585588455, 11.704003497932092, -4.742765326514765, 3.3238541530881016, 8.568727430864538, 4.854033437196275, 12.388528524963554, -5.667307505581663, 5.4084933231169625, -10.596366350088372, -1.9472086714936512, -0.49077073484100897, 2.187186416702774, 8.650108861994365, 0.8806617322510618, 7.270518434358024, 4.498487688090138, 3.108139724154364, -1.9257905003724862, 2.6000680765510307, 1.7425284287811975, -11.656025051873199, 2.6904288901464173, -5.674788161377797, 3.847843248030608, 0.45521838337686715, 2.5267543192811712, 5.3770900002797966, -0.8001647568241448, -3.213478709917805, 3.0435322489384995, -11.70478104773525, 5.801109002723976, 1.7489853375654685, 4.536251538159763, 4.90253307819547, 1.7867928850495254, -1.716072634394517, -15.06746839755581, 10.588936332979562, 10.00454249202894, 3.4989319982156726, 0.914753265868243, 4.968709528955202, -1.0764327663495177, 4.795959019001931, -7.86948411917497, 1.9825053334474245, 4.3652408415975135, -5.591074102837709, -0.4022465332429417, 7.490418281526278, -3.3794863857830952, -5.470803509002695, 18.506354794883308, 2.3828052801270445, 2.173622988541642, -9.377876394583078, -1.6218206913774147, -7.1213742631535, -6.69336726934425, 5.770901573896024, -0.011308009383382611, 8.970772720129206, 3.847414842959896, 6.493004125348025, -11.389102759563867, -7.7368204971771055, -6.866311245935021, -1.7278868568028043, -0.7692899715117074, 4.277333262963164, 3.6696482161798794, -0.8582575622397028, -0.5323952397996692, -1.8207212297312756, 10.020987996270929, 6.06854676183878, 2.8136205052608045, -2.8704011144382564, 6.13583024290012, -0.6931948674324968, 10.084700524298253, -0.40915617206656435, -1.6289294569467565, 0.806905589647009, 9.076114294431116, -0.05333810013916768, -18.401779263651292, 0.8171472973658833, 0.6889522368257774, -9.238099070892368, -4.188001543819434, -3.9319661121216596, -4.698209006395333, -6.845407373837814, -4.889465808580306, -0.669030972633754, 3.9461096558189936, 1.2422839905593024, 4.93865864028935, -9.356539764546115, -11.174285861006547, 14.477914722636942, -5.513948821537386, -2.0767936900732327, 1.737433578419286, 0.6500732769297952, 2.902243992837374, -3.4057086002275456, 6.610099352477563, 5.111214727209934, -2.7017129969615272, -0.08179816677289581, -4.6375777730922065, -7.461539360748332, -0.7462844204537191, -1.0680176402716124, -14.566781277725338, 7.081302368536775, -11.972638625628482, -0.8895771016499987, 2.5430759145120723, 2.2236771678703056, 9.53446859537542, -3.539513731194777, -5.709013802363661, 2.687924135679781, -17.961857444286615, -1.997085314828138, 6.3554962419935155, -2.472413102632044, -1.6331862506828227, 2.4765722372044663, 8.703538252295752, 0.9960877671298218, -4.1916329190154835, -7.109237021632377, 6.927885971484198, -12.79315805632249, 2.840091121754375, -7.270107266501141, -7.799582819901637, -1.2501620784300356, -4.300359236590806, -5.754642319403329, -1.561808513092346, 5.3710517177873, -3.2114177691474417, -9.490018938762846, -3.5874640753688967, -2.29241465409199, 3.596439672880893, -4.517834056311538, 10.140377036518812, 3.05846535938308, -5.0000597980606, 4.710172277131365, -4.249228511569257, 0.5351096265115963, 8.211998017393197, 2.927804385519956, -6.241894229097237, -0.9979063008846892, -0.998812378475366, 1.8260867761876831, -5.948698731203235, -12.694389363457663, 2.0016129090062424, 2.5376740824527655, 8.309277766116233, 13.084434424434724, 4.247013204883176, -2.5709129336962544, -11.279890282602459, 0.024386110325789634, 3.4057881901289573, 1.2532937995047422, 1.1853985181225493, -2.818492633692863, -1.9598350959165485, -11.29934914251387, -10.661218482575995, 3.1011048522763356, -11.238723916308036, 5.274067210689401, -8.629185442268891, -0.7397265252114971, -0.3523359474959131, 1.8288167883946151, 10.932718864268615, 14.138682770264428, 4.820476950276065, -0.2165679776848648, -0.13843402404845162, 4.396821452377739, 4.0498591237527615, 7.047262773966869, 0.4025509868998727, 5.668572049430609, 3.558879613605287, -2.238497405615286, 6.359807063337492, 4.833510663476825, 1.05219099220498, 2.7733309286216437, 0.28073069609501217, -2.730783251465744, 9.469527168863957, -0.4985161926098475, -2.6231155568820816, -9.084095615408035, -5.441592358150195, -2.394604729031501, -6.682361974418318, 7.207560321369634, 4.869749712668134, -1.0294306908323412, -7.344162189157115, 7.643592684250864, -3.000993793253153, 4.292110648348536, -3.522749464971856, -5.602625808014123, 7.876401553091853, 15.681255326463782, 6.908678585627385, 1.595408112564804, 1.6318050056598483, -0.6601668612935434, -6.598287971592231, 3.4575858969675513, -8.203852019163682, -2.312973827441661, 11.222239981961202, 6.860059014777242, 4.435043179475003, 1.8781352641995426, -1.1075912224879623, -9.226949987008345, 1.1563259227360163, 14.113156627822171, -3.146869720679664, -5.840779544914077, 3.8279841254540337, 2.032776254021935, -2.166831563369426, -4.968238293222615, -6.3617983106576705, -2.958104137907717, 2.989957325156848, 0.6984566648116444, -2.8334289596295426, 0.5562812279374783, -2.3065111099802107, 2.3319054835618966, -0.7252705126520272, 0.7312763893857063, 4.951021961254739, -1.501901138393632, 1.4817325780211252, 5.224055496881262, 9.765097853571925, -9.536825935619479, 10.772710336311924, -9.287040784915341, -0.15580001954891431, -2.1050658668477342, 5.7702729127265595, -0.804347447391899, -1.5294557113292189, 1.0180625146216533, 4.093980566576456, -2.9483354280236207, 4.415806896132024, 0.04517561385379132, -7.639745562767249, -0.7938773672014948, 2.4698393212961487, 2.967579876670535, 9.915275720792856, 0.37452829724400827, 1.1351398440948604, 1.4908458644037623, -1.1673880262172571, 1.9602492594088452, -7.5067279679903205, 5.011323187195025, 5.52388627224664, 0.024912683140563552, 7.496202600781701, -5.359622728257932, -14.516100628545706, 2.213266198774406, -6.58264104771108, -12.617915820322768, -6.437140705367591, -1.6118796678374978, -5.232530855944533, 4.1274011546055815, -12.833144530648214, -1.9061421485334658, 6.246400905799296, 10.267159259296838, 0.7965890530590723, 0.2104965730763259, -3.1959765537076756, 7.841939023874288, -9.489232493757179, 4.030169853260641, 6.482146103574349, -8.25954727489475, -6.714391903398927, -23.45424625576558, 5.5773057769389744, -5.527198830397731, -9.040054282830301, -2.5636961774538247, 5.02865007171775, 0.21913041857489635, 8.727156764049333, 10.909912680770526, 8.583930266675967, 7.090409445692083, -4.492670174953411, -13.868610614759245, -3.1015792758539815, -0.6167401830318487, 12.074934423348259, -4.545018513060762, 5.373408946071013, -3.598841892327076, -4.963310600833802, -11.480759398037272, -9.403710976191759, 2.004745747770583, 10.119614183545533, 7.8981751507908475, -2.7106206897969454, 14.234569121737097, -5.522646328832976, -3.4020438506128494, -6.176778059354296, -7.25939081488413, 2.845633233501007, 1.6845055649440492, 1.791554030894797, 11.329076839868067, -2.7334855920470122, 1.0232779255916287, -9.212914718300926, -3.8584203110057254, -2.1481873322704654, -9.935553566989585, 3.3260872638669996, 1.2269725813987602, -3.6656455243853916, -13.390833091893086, -6.8567776256572515, 7.030111161352924, -2.424309545938046, 4.619824343972858, 8.48773236367204, 6.6369553592269215, -2.15701782833196, 6.612047966982078, 5.195489669481969, -5.6783343365598355, -2.7172364573714747, 13.332834638418747, -3.0118022602883467, -3.3331917784995326, 3.1172646687289176, 7.369426868624237, -0.5134373838061368, -3.0612512603698385, -1.5567767251947353, 3.217302320559511, 11.613208079943304, -7.269322619614319, 7.8075513198980095, 10.640251758503725, 5.944508930263246, -5.373354485499758, -1.6019381148966279, -6.140050920593674, -7.2658198827965235, 7.735341570218185, -2.9362787873639213, 1.661194247373048, 1.0488580711405775, 11.170804311351368, 4.470327918571869, 7.967201631105057, 2.296953543039803, 6.803305754895106, -12.99755796389459, 0.5164402379921254, 1.0619002991550353, -3.8478270383371718, 6.523239005208601, -11.20987672466606, 2.2225844355209334, -3.22479878546192, -5.093739086962833, -14.14639161073557, 0.6357167329154956, 3.2857606890687476, 6.682491189115314, 5.654758498229352, 0.8558399356011079, 8.351107774674247, -4.840841810369656, 0.23368316848399795, -2.1054733630564084, -6.098588198647031, -6.26051155732337, -4.591177908548445, -6.849262775836929, -4.515088457866291, 5.241409511149293, -1.6570347388195734, 3.5581149276132025, -4.07521095331821, -12.452580236474505, 10.843621105128191, 9.541543358529905, 5.4085359411832705, 6.483420235841648, 1.1543504292185869, -3.7531669174831404, 13.652818552037855, -15.514054866555915, -1.0904714676953668, 4.231338837744024, 5.018310510068875, -1.3707187347343004, 11.650463978582641, 0.7480950379490745, -6.278647022089957, 10.273239070521452, 6.754579123293011, 3.599505542802391, -8.968353270093232, 13.153222197799359, -0.9147943844857073, -2.4252571915005, 3.0148104329461383, 1.231257258126731, 0.2511689941391503, 8.491588249724114, -2.4405042214059574, 15.39726660407732, -1.9375062604019753, 4.292587430056551, 7.449495195551478, 15.278826566404554, 3.3147789425570497, 3.1367548020145177, 2.592985704798415, -1.7978260409770712, -14.999566512916237, 1.1891282686189866, 16.842003116026177, -2.7557254397721893, -1.4279488866016776, -4.099715440619075, 1.7697228453775409, -8.001312393548426, 5.6538985787107405, 12.938361298237027, -0.620332692564618, -3.351972912185281, -16.25077126243135, -0.7949137483216402, 1.6808567502496308, -7.90972692728701, 0.47658586315809437, -0.8080742245629455, -8.96485759672997, -7.960306887799676, -4.704122482150169, 2.5781895462980247, -3.7970596166555963, 10.151814349194227, 15.556564051337883, 2.629089312002791, 6.730885305112993, -2.5051877140072696, -7.823266151309919, 2.913993030724885, 4.488818294833071, 0.34324809724905014, -2.443962008736241, -2.0067050865734126, -1.506910657716511, 2.995650418283104, -7.835685858954143, 5.3299763747611895, 12.24048481326374, -5.560533894212377, 1.6901565087678125, -7.600900877464535, -0.05719666336160589, 3.4782832835137327, 5.518917436347035, -5.126773792911008, -5.25569472659848, -0.1765723167472974, -1.0112515116437928, 5.77889133244531, -19.68828829869725, 2.5345803447450503, 7.315167722395373, 13.17726041053708, -11.502444318706983, 6.824524533577049, -10.029568249961738, -13.807504054335924, 12.704201790090586, -5.690041233039762, -0.3467862136559494, 4.315021658372859, -8.243844231913352, 4.855410223337896, 4.964308360712997, -0.2238888044310099, 13.665868556274136, -9.98058490405485, 11.771439304236257, -5.770963892956251, 2.000703638730853, 6.679925351903974, -5.559391976857918, -5.970893081209942, 13.166506717504626, 5.012586724604278, 0.45786261206094747, -6.229053327647749, 1.0846722129560618, 4.134752194488804, -0.6085680797701141, -5.911850331966008, 5.389886281038136, 4.875793523262214, -5.546766017786575, 10.820544601888333, -14.311323239159885, 0.40635988068701345, -6.956957743804308, -10.17612033438264, 6.027693898611066, -2.789873037560196, -4.758855557632538, 5.492082246342145, 4.938335283831369, -0.4252291498633839, 5.05163496492999, -7.484026685138577, -2.888669540756128, 5.223500973297946, -1.400698897880547, -0.08581483455461891, -9.657241976653397, -7.37179925277564, 3.5781544222785633, -15.861275984871329, 6.2696798857951626, -10.164972275663287, 3.1591856367650766, -10.688962885022393, 1.2265783320123438, 4.803485378524865, 2.4435379640275907, -8.404327758451668, 0.7362365680815206, -1.7951643756604987, 0.4953277823434805, 2.390066763119301, -3.8167811968169922, -8.133504275734637, -7.0159684010763605, -5.636790580445569, 2.347227703876725, -9.264640172492038, 2.952139654379458, 5.92086968236551, -4.053407326593724, -19.196908213833282, 9.842623961614379, -1.1839131423115616, 7.43870641922546, -7.786757477461554, -14.381836625586473, -2.763922858195281, 1.2044742441506124, -0.2568382358325182, -2.591900333535462, -2.3148994545613686, 11.223495487395294, -6.530832421833058, 0.6867966775954193, -1.7845096920664405, -4.558967828549344, 17.118964278367176, 2.571451446870211, -4.1355419421379604, -2.604608347999603, -1.1776101534876753, -5.076422911104108, 2.0786548859469365, 5.041991922687735, -0.04325110876722982, -0.10732680716240517, 1.6007782545491955, -0.04847668199076671, 1.9124864935153694, 4.359235920133314, -3.7590702869575945, 5.142474965236264, -4.632680052410747, 6.360321706506109, 6.255925417022382, -4.565830261139512, 8.678425789235801, 5.115433007117766, 6.60545127464896, -3.552685025356049, 7.202069095280315, 7.178347921475684, -4.237299012336988, 1.7518391034534977, 7.503704823783908, 4.2318338510091005, 0.6233616149137041, 11.125375755915908, -4.4486782732369, -0.5577624071500158, -5.108752673698328, -0.6082136626756156, 3.701588810019454, -3.63970133622007, -10.44164222564613, 8.369885971699416, -1.1491011234603552, 3.5833081534780806, 2.618698084234043, 8.909604554894646, 0.9253871781814618, 1.9479689602638612, 1.11137395752537, -1.2677419630507742, 2.9552749570906793, -3.5581308150351663, 5.651429865234175, -9.361900876728068, 7.090939952417143, 1.909746850207358, -8.77343835102549, 0.32097786108294474, 5.319235433676685, -4.607600839529965, -5.927331298052723, 5.979605112879808, -3.738108977011564, -1.7661743507512941, 6.0607879339988475, -1.264965154111475, 4.410474183274437, 4.992757940653744, -2.4586694891097736, 12.473186121051143, 16.848450980157637, -0.01679345614623884, -2.156797420266269, 1.7900338091764285, -2.382726832211062, 2.5473445231658403, 2.8280453964979952, -2.2481426560694437, -4.270836471644101, -8.363105192666929, 5.236574962706682, -13.065875695356269, -11.72002905954647, -0.41967373082753245, 8.42295132460735, 2.140607381961724, 6.03656105233975, 5.9869558318761085, 2.3153799371374784, -1.25656089077765, 5.733859818585981, 2.24284052627995, 5.255582905218495, 0.9546173207321103, -0.835248540302802, -2.9179895680296073, 10.908396064266102, 3.2254044434011506, 15.758326590922023, -6.207785177481781, -6.171246485818363, -5.399368341998713, -3.8141195895764226, 0.4222062339969457, 3.9747688217685115, 4.188151229790025, -8.00227620085513, -20.909064272949507, 0.16687686069654672, 10.688925752542017, 12.38747949353249, 1.4600917642162106, 4.678135323516926, 5.166754692103999, 5.775836296655674, 10.935890181925414, -1.269601068493209, 9.44831024881264, -5.595583131072474, -0.39414262835502467, -14.545305405595949, -4.810256149695545, 12.260314434996053, -2.5558584842596437, -3.031263235355209, 3.9338259809002194, 3.9384256480649618, -0.8547317663578913, 7.887972171128228, -1.5814942253127944, 8.409178297087976, 4.356838651408709, 2.0771211806612526, -14.506330233780105, -7.091915533155586, 5.350322796363046, -1.1324896816137613, -9.484437950255566, -2.3210024164702885, 1.4864620472340049, -9.978297483063624, -5.967905249504146, 9.788487382375525, 2.258493810740863, -11.03975743900513, -20.162049617800076, 2.60561914836438, 0.5221246819943163, -10.78879126574654, -0.012218726952343162, -3.0435326705471883, -5.443747388654614, 0.3352145288023247, 0.08778313481144684, -1.7230050860597768, -4.758569814992089, -2.2290983383971654, 2.5545594505777216, -1.0978103995999902, -13.163221309990409, -9.228833410655346, -5.830276997997431, -6.457911917382309, -6.589286090209909, -0.39821929106276666, 0.27757363397746726, 0.651814498356728, 1.293715030014051, -5.837100588133696, 2.4674472155306466, 2.822011464459506, 3.1858038497364953, 1.2974094752795577, 8.020294927430303, 1.0721532463752401, -8.401250523675433, 2.4990014668748843, 0.09336663070484608, -4.4184609704330065, -2.1555451144997573, 0.6254125473329106, 0.4803505372769584, -5.446178209992168, 0.7009497847323434, 5.928015633081702, 6.672000053004072, 12.789091450888593, 0.8350917177591728, 9.376493316318639, -11.073760386811099, 0.29527062492221945, -2.644730152466517, -10.337607554854435, 3.6320584008254824, -5.147259997603391, -2.3776766974495365, -0.395533984203171, 12.791622014468109, -9.18571323765706, 8.091000697813794, -4.047743592783264, -1.2957338437787131, -2.2054480667441885, 1.4954826132600458, -9.425995223558772, 11.495656355576559, -2.195432241670766, 3.155856299750271, -1.7896006509577913, -17.417917844734845, -5.290040850433818, 5.20942625602625, -6.295929500137367, 0.9706452507082999, -6.874724665514118, 0.6130442944430601, -3.1421758322649747, 0.45033854336714696, 3.177441905628742, -0.5905759512335316, -15.66945221323912, 2.6223303451778865, -9.14006421030858, -7.675926623745155, 1.4244364318980849, 2.8309245047259286, -11.099890109050348, -0.5869913751801548, 2.3263211130649015, -14.805712613335816, 4.81198735950093, -0.981761203255444, -5.630827125945099, -13.090709216146454, -0.6466828461195495, 3.7842060403254063, -10.48193034178612, 3.7563551957407193, -4.2783797995858475, 9.178018023189699, 5.718687130832035, -8.04409432213966, -5.619661886567866, 14.728978106939142, -5.540983242603249, -5.437995587608851, -4.877218491690218, 2.47882042262139, -7.203583008232161, -9.832858413136105, 0.8075421678529465, -1.0713580283320612, -1.7449278296241713, -5.617195462890763, 4.289484453862085, -4.822046139163884, -4.04538243888067, 4.053705344340208, 0.009520051045944222, 0.1210959380173785, 9.172246935306699, 15.63910950778009, 6.697221478755505, -8.294353955482345, -3.773592873865876, 5.223288472426375, -6.799953174224914, 1.900270786709326, 2.3549889413739717, -3.465875480211201, -12.183795040975228, -0.5526792655119016, 10.145105826602734, -8.072351911301451, -4.863238257120185, 8.774691370265762, -0.39436238647673005, -2.077888921589751, 4.332054753680385, 5.999359457525173, 4.071033806166241, -2.06263143397615, 5.464033726974381, -1.701497139751768, -5.733211712990519, -2.9928590266933197, 4.385535515708871, -13.420435646985256, -1.3703187826777488, 2.189681342955873, 2.4070355058720643, -11.310728531436645, -6.341684024249599, 2.6011957278044204, -1.2202872811254502, 4.239140108349444, 7.291537018387253, 1.1363873577099637, 8.333195329906994, 3.3282770757026796, -3.4793291517927543, -1.9981840414243721, 10.923560668776592, 3.8795395591681694, 3.714890980456837, -1.685798781249828, -1.4171545603727858, -6.445450729337604, -11.081761249538824, 9.398618516557416, 3.8711488042916162, 2.210501987733622, 11.219533846773803, 4.790586516593188, -0.6453410133983573, -0.9555087452819481, 4.921386740747794, -0.23065764399122354, -6.668207135315682, -9.386704885086184, -14.541230128302493, 15.070451282794622, 5.4207851667910845, 1.2589792861890141, -4.751684220497195, -7.6946180909344, 5.771754628888485, 9.135388970992668, 3.2491491650119624, 1.1405035078993124, 0.12016236275717737, -6.277986640260398, -0.6124166962600408, 1.127835684706694, -3.0345969167284386, 13.002906837107524, 3.3701218175246677, 2.4912392413574027, -0.06312371191475696, -1.8816139591462349, 9.395875955762362, -0.25991535724495685, 2.671349550099177, -4.625194224584695, -10.547321631031133, 2.338387824032108, -1.1049869387390197, -15.172433699055578, -6.025141396568861, 7.322773169188723, -1.3969113126768662, 13.178716846520762, -10.77970232369077, 0.9174761717268307, 2.8739404971512847, 2.2840458149338825, -0.4234713510877751, 7.256245012420799, 4.364850949621395, -6.971374633267159, -1.5626896812609865, 0.9921311446858048, 3.734513468285682, -3.6840300871084466, -11.03293932133644, -1.4497952661139681, -9.281469058037942, 11.909673255510302, 1.9107636295052413, -7.655548682808922, 5.6208498596486995, 2.397650225516362, 0.5079901348266672, -14.107560884203949, 4.723856878061162, -0.7727172103611935, -9.692556288991065, 6.543917848194075, -9.748067182213422, 10.806930035649176, 11.478744631471994, 9.235529287621793, 4.73969142436905, -5.792514254365739, -1.8222262770329754, -2.571946151522777, 0.421985007993349, -0.02385372331718605, -6.134027677550204, 12.408096233895003, 0.4302584521826452, 5.015393500935991, 10.840559515430009, -5.160744682169532, -5.005859851959743, 1.3461537998554776, 0.30384016833688954, 3.5308315085509037, -9.04789620133926, 2.775941903254619, -1.3420803040089355, -7.518685249139164, -6.973031070158982, 12.165970859475005, 6.231090608156607, 6.34816497669985, 0.9331703352228119, -2.447104516008853, -1.2591604247735764, 12.78076361429272, 3.2049908881307285, -2.617158836151016, 2.970966744937417, 4.069567477604966, 0.04736114445050332, -0.1389602142176405, 2.467004604306003, 10.949106781045856, -4.037357323663262, -3.800240949785936, -5.631127557966436, 0.5794252940197313, 10.54155061654893, -1.9883535681957847, -7.737431232368786, 0.8457079928284845, 1.2776413083481346, -16.508880891392835, 2.4726037134833856, 8.61972830748449, 6.443046229221731, 9.63368698695431, 3.007673507626337, -1.8832123162325423, 1.983905695622678, 7.069577318357681, -4.788017115693966, -0.6395305070905839, -0.3972903112105981, -5.677217432912015, 0.2247207888438425, 13.089016939880814, 6.346378654401611, -4.7897237089795714, -0.89363415186044, -13.10288210855692, 8.89513782358765, 5.185386825090792, 3.4398743081684833, -19.64932677779989, 2.1233825420055847, -3.3851664088798423, 9.85076849821428, 6.930712515102838, 11.912261325487258, -11.423992200045799, 4.164116760360886, 3.2985472088199987, -11.915776206576226, -7.120130240174516, 12.742453598580527, 9.746473710712623, 2.2661903767183524, 4.354973954384138, 1.8796051126595712, -2.257853703289562, -8.029561182686006, -9.598794795095799, 13.318711827866052, 8.513757781694663, -1.79013552394653, -9.256168630341008, -5.054765033018164, 2.993565658611389, -3.081105394894658, -0.12013202666707631, -6.661205907777007, 2.8086730393866235, -6.820590133566278, 8.08344485790759, 2.2625710867842477, -7.886572412560652, 1.511268502488821, -7.382776542971743, 4.923282918062988, 0.05968061552779047, 8.284668857796765, -3.2643382133693364, -1.0651050270459264, -0.829309547603579, -5.843465838652357, -7.661203509191015, -2.571772721583432, -3.5550131140551704, -1.2904084646006475, 5.120467684761427, 4.666757756504178, -11.336143920712916, 3.0149235428544507, 3.7387844510703214, -6.570253733714342, 0.15468394299509747, 7.03064351225504, 1.3293852789062721, -0.7775330531845037, 9.815386834419193, -8.089886958579212, -4.80630264466213, -11.30418840044514, -13.30088908971143, -10.397368694966481, 9.44684993812816, -10.26338085089191, 1.0925085170782745, 4.059692884183207, -8.319394197097182, -4.691972068859635, -3.183735961057304, -6.209890479843071, 2.1964917485778406, -0.11182786681417167, 2.571778812124523, 3.606751265030173, -5.31491208648617, 1.3935898680486725, 4.136376512218605, 2.159487396553314, 1.6687718343225675, 4.2247307803459355, 1.3198317258344834, -2.6131485343031136, 10.79418868944699, -19.271269096893715, 3.029945503960815, 19.352884370058426, 6.9425182843696565, -2.4857850643255803, 8.050298384792594, 6.2776657586863065, 4.478879230680428, 10.919253026478549, -1.8016782700666159, -4.771504779335119, -12.602232601493112, 1.5238270501553026, -14.215622244034254, -6.418764659197645, 9.369268176434714, -11.728871318406053, 0.1265704023913343, -10.142829314179599, 0.18289523696625243, -12.892314216752938, 9.976433379651763, 0.26403950745481675, -3.4976229664022545, 1.2647068713828455, 15.907186756574376, 0.6511739534516432, -7.285416583289711, 4.184884337254346, -2.6376813807104593, 1.1314299156952121, 1.6416615646717299, 1.0857782658720123, -2.6911851233699386, -5.22024587546451, -3.635857621820267, -10.847238216699921, 6.5380180845406075, 4.502779459186971, 5.219833101599287, -14.287254021963458, -0.796003586481193, -7.623848911633142, -8.876824109880472, 6.406998390478544, 1.7679880614999985, -0.23951819508150884, 8.374171280192595, 1.6625819200866907, -3.2580318635472665, -13.645243802541902, 3.275586421590395, -10.130766192821332, -11.127071822028647, 2.226018581750141, -8.67360913980117, -1.0226031611938713, 10.009950666180526, -0.10962045216351435, 5.185867210498567, 7.814722131842635, 4.485613630686575, -2.6047552451797404, 2.11909776417673, 6.528688877446867, 1.6988121274471772, 0.12599578450861, 1.5822651234166427, 8.245827212874214, 2.9641567082761107, 3.3291658574121774, -5.313178322759607, 4.974368177075847, 9.060351067638479, 10.591797516906974, -9.01985234465558, -1.0058819142954556, -3.0317288000049003, 5.526279329998168, -8.072697202588557, -5.729402236598613, -2.3753143384784567, -0.19070194360813397, -3.461568248573143, -4.450668919136043, -5.82906653113761, -12.664431798183596, 13.356292645841302, -2.631262372677023, -1.4597706674246558, -1.9152639241875657, 4.58047374658887, -9.202635463818638, -9.282153038167445, 12.707735273702149, -5.696766602434495, 1.5954098080400332, 4.504046677248272, -3.941692109847402, 6.781440365951436, 5.608675518322418, -0.8299290489480644, 11.521597926701743, -0.9280547492525837, -8.215870675387913, -6.753855606503605, -11.851394561852585, -5.545526761611023, -7.350591087417902, -0.7773028586814339, -16.469747769191613, -2.5007415453831054, -4.784351134515787, 1.8727714932194055, -6.069163402630528, -5.283006247092349, 6.175656439047334, -2.3742323000517653, 3.5541164297249237, -5.006155095488594, -3.0019175831559517, -7.101550342266082, -6.829779241188181, 7.255637706293631, 0.24760092549446777, 10.622235375383427, 4.952978217452917, 0.10305229485545692, -18.11854388272819, -2.665789230835534, 6.770948971574784, -1.155127617636257, 7.008386037071314, -3.7771584544845638, 5.258848977837413, 1.787285093255088, -0.3101940524812855, -6.2786454416485595, 4.795930920788257, 5.394189017345474, -5.740697657102856, 1.5849538509308299, -8.056361805122332, -12.006311101033146, -11.557624321630943, 4.409933934867736, 4.188795829855219, 10.64516133744635, 5.2602959806577845, 1.623816298265747, -5.740276267455139, -2.8633089338247193, 3.991577393940082, 0.2555905403222094, 11.018125340009536, 7.156997764158195, -3.805476031130531, 4.728271048377882, 0.1669457904223251, 1.0246631508077892, -10.91949206462773, 10.41653102483668, 2.737838078280443, -9.637737474531296, 9.22218155294275, -10.01917183421321, 5.97320357558441, 4.694567926465962, -7.27291919400572, 6.359693763491036, -3.67762042509327, 2.4306530562671247, -0.2285733693209565, 15.311572626800162, 8.597527538487336, -12.4412402490262, 7.9255817756839235, 0.19686072953279665, -8.201541038518137, 0.8616084472127614, 3.9870633355946103, -0.35292678146931966, -2.7709802439706377, 1.0400303366103456, -1.4539133202561536, 8.571075400012418, 5.309714920978514, -2.944710295955945, 3.0144739010343753, -9.399407358013825, -5.209404769714682, 3.7357428123722856, -1.5306291592238501, 2.517057092599638, 1.2474401195740392, -15.4354988610797, 5.786935768176544, -1.272588262915528, 0.897765780301583, 4.2403596149129354, -4.169860859238579, -1.3864518100857017, -4.743173329688505, -3.6223491957795275, 5.97141381918826, -3.408959329228658, -2.2625419460797223, -8.932343366624352, 3.5465712367426385, -8.510201240629097, -5.6469304960081095, -0.08493129306531366, 0.5259935745997835, -0.8229813843268352, 7.5412350872896825, 5.50661869147302, -1.8616810345152706, -3.9458486015229806, 0.7044726306524688, -3.601384896886386, 6.5482406259622055, -12.87742972666204, 5.995314307116431, 3.241650360162982, -2.9803890577609087, 11.982775492617145, -7.020713249247966, 5.21932627417854, -2.0433104644482585, 10.734103853902894, 5.689994119687529, 2.486144327569068, -8.962697527825583, -8.041993902967343, -1.364441153530743, 6.039674049041, -0.42649918153669364, 6.4603115911062625, -9.735797541566612, 0.4673951243889044, -1.1255079779556552, 1.3216475317324137, 2.0637948128260115, 1.545222768478637, 12.213221174385946, 9.693026625171662, 0.35044011481567483, -1.732971673271726, 1.3759781735311072, 8.636801607593942, 10.054384244803956, 4.164113733140438, -5.024335351811822, -1.002662482788025, 1.1244308711470734, -4.856877760422532, -0.35427526765717254, 7.379498041618509, 8.199700345858068, -5.756638106136024, 11.358964254389676, 9.05249298056851, 9.105584010090809, 0.5893994884537099, -9.627173875428559, -3.9161156883156005, -5.2884260162411065, 2.7051234998358407, -2.3321694417001106, -3.992196298636542, 3.510408240850635, 3.483330306186091, -8.10941967064219, -4.299757367154258, 0.7951453586414003, -6.6508135678730635, -7.848500056509661, 3.0935458988608633, 14.871372119528761, -0.03601783614952381, -4.831937354548629, -4.727525521708041, 9.757567019526167, -8.79582798539414, 3.583854193882635, 3.395844880497524, -7.59629743672207, 5.894163308103584, 4.131307484299057, -3.656761936660323, 7.736232989769343, -3.8435670245467266, -4.911225149762656, -6.608078614888276, -8.235018852728752, -2.4068273604760595, 0.6643290183716288, -8.399186204455608, -4.038120490224629, -2.669653905266479, -0.6523525553735268, 10.301531334720263, -1.7477079224718262, -21.774645159980388, 5.870977270145665, -2.088695785922098, 3.7388162701779133, 2.9053095879873547, -4.6162450548028, -6.088142655061074, -5.239289088927819, -5.096520869540188, -8.34080736706737, -2.3915671295293066, -5.710503634184155, 12.834764703748156, -2.0775071497614785, 5.536571926852994, 5.846287467853574, 6.675013438623693, -7.684372041005503, 18.78381193983803, -2.5560357480225333, -1.7692949295427653, 0.8474043474444458, -7.610049849723063, 5.565984042198576, 14.703786535243125, -1.7354513093060258, -1.0386134816914407, -8.094356650772486, 2.28415012764168, -3.257952221900805, 5.567625352229068, 12.95930886957026, -8.04669574088053, 5.283749366694757, 5.20213789390713, 9.812961639323094, -4.032263852450555, 4.328558861600139, 1.0878191993593294, 3.321694100924849, 9.681040793340552, -3.3789396816549555, -2.844481570873209, 12.727218768432868, 7.716904259009759, 1.8174560669756517, 6.2350055467315375, 0.1278548208478576, -1.5022680767309802, 0.8959275606581221, -6.515936501128626, -2.332961577508953, 1.879276568241001, -10.483953415623448, 6.119013598301594, 5.260002563562557, -8.25512353106528, 5.897712439183632, -3.395785548801248, 2.9605327127692105, 1.971065903189888, 4.0590116319005265, 3.2977277419973894, -9.64592318406404, -18.095283979827713, -0.20940828862697147, -0.15500406641986425, -19.144477014025107, -0.9957247490659947, 4.380146580459408, 6.76000067058755, -9.402978250968234, 3.961698586017559, 12.220192451764321, -11.778330897558739, -4.8742117479470455, 1.0727904289322234, -9.816782335713388, 1.3402587980304395, -1.0216664339210548, 2.616243651458743, -11.060577250411214, 0.14431517027128946, 13.342323790899691, 0.8528618383017244, -1.8062434087932808, -4.094850861140772, 4.252022457409629, -1.550282169467649, -5.478970616286115, 3.3683380919466894, 4.2236086398428965, 11.050092822093337, 5.008442906739789, -3.8820220874508773, 14.3749336227319, -0.29300258224532516, 8.441336738694172, -0.5085015837739209, -5.934600638326526, 6.668137668182203, 5.043538508173757, -10.66141246721047, 10.787269444771923, -19.526235991792742, 2.554048629248604, 2.0137140402072555, 9.39408102789065, 2.7847919154120504, -11.358866731029936, -2.4183490749680883, -0.5379795484134678, 2.9300868584689232, -3.973345877339064, -0.6961136275698816, 1.9573648822815435, 5.707156654019343, -8.673267081549273, 1.7692776058932147, -10.285145797857952, -11.514822372825257, 6.238442711163128, 0.44271204037177503, 4.980168591391919, -11.740953396308178, -3.92121713556891, -0.010579798781988115, -6.453568196731424, -1.702334902794422, 1.771203544282716, -0.2633915841296899, -2.069145705101401, -5.352823067804236, 7.95939102881913, 4.461735873721253, 0.9638797539330026, -0.9990318894284701, -0.7351164500522489, 2.8278176721000197, -0.7083394212455344, 6.893556449987933, 7.707887983379646, 18.440041107902395, -3.8583604359824184, 8.227491037659666, 8.932667866307469, 8.55177940770674, 2.908693674791016, 13.669005931325586, 7.07409901940699, 12.135422168408455, 6.5347027082001565, 23.049742822816107, 4.197804671558421, -5.894992728172453, 0.8269876046305867, -6.627558251569319, 6.136305746402447, -4.020303050460181, -5.758050745958443, 3.7169275472008008, 3.9569125444697364, 6.847169731381637, 7.337168157474166, 6.1692980719968125, 6.08846586524627, 2.0836502505659174, -5.147611929813012, -7.746522932233739, 2.5989788224956425, 8.644294912821548, 3.1385221000050625, 2.3953129897541223, 13.1585606513447, -14.558292398356615, 0.4229265452100589, 7.251000529035938, -15.573236956183205, 7.118130111036325, -11.62416768017294, -1.3090398985738672, -9.812077863568263, -4.674747067186583, -1.6893134674965384, -10.352876144250036, -4.182455796528194, 10.565414633823547, -6.096773863931081, -7.045952881198318, -0.07173869947148134, 1.079927445867758, 6.061645097670711, -6.934963575939546, 2.68139933704271, -8.722153072896603, -2.2351649955999093, 7.78896388873136, -0.471397349980502, -2.9860664205663867, 1.074980658477377, 11.942957833875841, -0.4288355213385799, 4.9366037233096165, -1.544026714021721, -5.0513466652552665, 7.143356849850498, -4.592209583634228, -4.20771937128264, 2.676324525965042, -2.6469241975304953, 13.82253811805776, 4.929341763676234, -1.6407936479740168, 6.261883696165624, 9.047175983655007, 0.490628301832735, 4.906021002461209, -0.10694883359728441, 0.7564108140952596, -0.2622906532823909, 4.3327174017235475, -10.794339251635131, 6.25833865424061, -7.341602475761888, 7.140018366797728, -6.530389989062303, -3.3198110708679334, -4.5410729306831845, -0.8272231798976655, 2.288198643904704, -7.002579015397941, 8.963391635366468, -6.620352384599295, -2.272961849120573, -11.551231086524938, -0.866061913852821, -1.7094427270905945, -3.1233181897964823, -18.44039546137957, 12.92274247869524, -6.7206511527183, -5.075505047960476, -7.4309015846294555, -4.749496404678654, 7.525763143058229, -2.374808166469482, 2.964567433914536, 5.9015519059385815, 8.514628641144679, 5.519696132103243, -4.80470793316466, -0.8221373169673247, -1.972043257025514, -7.605299850723468, 4.393649295864065, -2.4023100175093277, -1.5614235962304555, -2.8859902168282328, 12.183835256497677, -3.5690327818793657, 5.290169870762829, 5.910996285925847, 8.409382263264744, 14.76614768090471, 1.850989234723855, -0.5604862746555043, -10.157952169057095, 4.089666033253489, -10.186065784365564, -2.39793520714921, -7.463481054350476, -0.0818939796121056, -6.968441448601832, 2.392129039871157, 1.573998966837519, -0.08281304547538748, -1.7303104499736692, -11.808247098563244, -5.084106404494461, 7.400243253606007, 7.285885596235104, -3.507697604481674, -5.771881618366977, 11.353698787059766, 4.337044949059486, -1.1988855363184934, -12.02561889636481, 22.031721274265482, 7.19695630977571, 10.115295210210904, -5.630992195095335, 5.106037535838597, -3.1024347442661098, -6.908106103752808, 7.359286266904888, 0.8689059690977763, -6.907167010072807, -1.8851676923298764, 4.296464660506101, -10.615581004553743, 2.653306196449877, -6.327117128161668, -0.1300634053569596, -4.813059654495753, 8.586041902105215, 3.7357829872727035, 6.31900333820059, -2.0461039328463375, -11.535003830854658, 2.6303907535692703, 10.92561385323738, -7.806435779240689, -8.056435623653034, -8.89169533754556, -3.9204766960560917, -9.989761304465532, 0.14976359642260906, 1.8264232457940301, 11.476819460774562, -8.883806901819838, -0.5591757749877618, 2.391606912636762, 5.736612268092941, 6.58098318183424, -2.0161664153724246, 4.855724095412903, 1.9079737625818451, 14.262898057059205, 7.685185668281948, 6.871995882566607, 0.9927617087331678, -6.345103670530436, -2.0051932435813176, -5.010537425840331, 18.261794821310293, 4.626093939506562, -10.839692113412369, 0.07196316586807983, -6.668281349113226, -0.4828809133757733, -16.790872262061644, 5.118143477620486, -5.309011131176758, -5.5387249034344, 0.22815115874525865, 4.670368588042522, -7.9548248126852865, -1.449622846860823, -0.018017835494830492, -4.287409084088502, -8.829034353090247, 6.434076606143249, -4.129728846174619, -4.791596614994366, -5.058422322981481, -14.18863461294636, 11.336475989930598, 9.440339666689358, 0.40594194688160934, -2.5082948084943566, -17.8124281200293, 5.634240133549946, 7.248656082423613, -11.986899206095947, 7.030547579033823, -1.6955663941486003, -12.237758170040006, 3.7971657850164187, 2.3130816508301457, 5.110130272566806, 0.6682716388447961, 8.167227535650088, -1.95270743830722, -0.0770987129626246, 10.783213086746223, -0.3817968476558776, -7.24630923623822, -2.865065726435914, -2.547208046903298, 6.186554984570982, 10.685232195844371, 0.1756682195346582, -9.15503321680807, 8.054803764570995, 2.6687213590369985, 8.825061369293747, 1.9589272950794787, -3.843045340436417, 3.962745385626465, 8.991689523716516, 14.869951763096012, -13.150071879169662, -5.4005779452600695, 20.580821077402693, -4.573773923329571, -14.211504375355121, 5.641752762964069, 3.0816775871804243, -12.417620472158783, -6.869736816159785, 13.062915944606454, -6.697692292600844, -0.5952208313612148, -14.750032324535123, 2.878434772369434, 0.8672520791390497, 5.877944602074953, -4.730050461783928, -9.554949730148367, -3.914502842661876, -1.8142628570538388, -7.02771492649452, 5.0612807798523605, 0.08038748408815977, -2.929133148403481, 1.4767005797781814, -2.356176420826177, 12.251880019480849, 1.1904619815880277, 1.1280200955937918, 4.571397136165038, 6.653073020452807, 4.9816420235370815, -8.40941023518191, 13.710571933688225, -1.7660498361709767, -5.832307973424164, 9.689058846209216, 3.511724489127503, 14.562372519407493, 14.69882488631228, -7.276925113496374, 8.941750994919941, 9.401407932890615, -11.434414868335342, 3.1881527147769653, 0.3428406969808825, 5.285050005481529, 3.258444928965532, 7.534410360822107, -5.121925607547073, 0.7905367627767813, 7.881213755604431, 1.7825279085720422, -5.490421293407978, -2.178491304824443, 2.022120353103338, 0.1437611897282467, 5.013389688146325, -3.9500996369035004, -5.023499187007825, -10.84516378541056, 7.266591678119971, -0.48410096041573714, -14.963614003590653, 5.148428886158934, -7.475559429317807, 3.4966498255138236, 6.029160425624159, -0.850620626714224, 0.24623971203973083, 7.163331781240296, 5.91019827518434, 2.3893647514485004, -2.2999585904717126, 7.404004029758423, -9.65363301393013, -22.03414764869412, 7.8366569606076695, -11.588609374614062, 1.178659144941845, -10.6373193425431, 6.325237199554366, -2.686942390910714, -3.8867014824851585, -6.27665518475108, 5.133730073983765, 4.427117231073452, -7.214323444936123, -7.6009798623289235, 3.5058701997859507, -5.998692676262625, -19.77865413905055, -2.848097084501635, 4.139637284125595, -0.24099082207701383, 8.291222464034071, -9.57388216340427, -3.7304793145695863, 10.443037832164707, -2.0611832695451087, 1.2906311796660932, -10.837354666894944, -4.8707189072644415, -5.860894056689288, 1.7336941737248994, -2.061068545985304, -0.9966129635238169, 14.227998391849646, 16.570564729332805, -1.557023019090761, 1.0017835583856955, -1.7251361663515432, 6.0926358686659565, -4.145025021874202, 12.215073041402738, 1.8877251365921675, -4.985894690215904, -9.673001529274002, -3.5150126174946745, -4.285913582398308, 0.45756192514769717, -0.541885208936081, 2.7095907193962967, -2.359362844635458, 6.830277374261784, -15.756008167152574, 2.321895656511764, 1.446969558837217, 6.3036126460446535, 8.025216526347942, -11.440505123804277, 0.1974609756284736, -6.850769830709713, -3.5093250223618386, 0.8507621063721287, -4.471866226898283, -0.9665343029679396, 5.587928732626554, 11.057390255370857, -2.9088690579890084, -2.495562965545485, -0.8032787806812058, -12.648892483706128, -1.7028267753024278, 2.4471039439797537, 0.4269295119529528, 2.3818280886229433, 0.34881273202539265, 1.1901598079727853, -12.47804184412059, -1.8738129465012139, 5.391159063921631, 2.3422574804633274, 7.051860100988366, -1.0475948804005708, 2.1682672070615427, 6.990693214270813, -1.8386902932032272, -4.816001088466601, -3.123651278813745, -0.13411755991344165, 5.265000373726107, 1.407463091689606, 12.283987180613614, -3.210179694598427, -6.745710896721045, 0.14743601469662626, -10.393636756612349, 10.537535241003017, -4.774437721309966, 4.205775009786531, -5.287532253227753, -1.929746279882389, -11.60308695973601, 6.863403503157072, -0.5621364055459461, -4.714105033428984, -8.497523362460864, -9.677097194399451, 1.479020855411642, -5.505398227161202, -2.6979035297979017, -1.8593964849045892, -1.7818563563545025, 5.053488429611668, 1.706455679063546, -0.5810629726953116, -4.681674308838771, 1.5026198681665983, 2.452376091115102, 11.236175007420965, -3.1351446518843704, 0.4142235218253896, -1.649904021161666, 5.585230494760553, -14.570774645235154, -6.857991997179186, 9.718818170977597, -2.5120708543255335, -3.591583155566903, -5.254956048628891, -14.524885520588198, -2.846830840714757, 9.221896800545034, -11.701839215387922, -1.2914550805647582, -2.2788267491732523, 2.556998790430267, 9.317603788404007, 4.532242540074277, 6.464703512646183, 10.577695409265408, -10.305322153876029, -5.211275008088742, -8.067017313395866, 1.2302873588866414, 19.13142496940614, 8.71727010277597, -6.959718409193642, -14.11596650273704, -1.1449256150402685, 3.0553975176913246, 10.651888056229048, -14.610916489758868, -9.788003311924093, -2.91634616499683, 8.235130208576445, -2.636997216933076, -5.471922503789644, 0.5142652048992014, -6.643801560031301, 4.052814083792734, 6.455189977682091, -5.084979698432658, 3.712457260949129, 3.34962756272205, -15.285813125552643, 7.363754160405199, 10.053846950866763, 10.870635094167357, -12.244555252493637, 11.99233515510362, 2.4321414260708885, -3.3903650561900616, 3.9812431693088755, -6.607300957980791, 11.20306557164281, -0.9070435865522928, 5.851247456432798, 14.768967541309523, -4.244711796533217, 2.777857039746112, -5.806707760468804, 2.696418627608305, 1.9656878066399786, 6.962977702039395, -19.822905366365955, 12.34389784004606, -21.298813609966924, -0.2960204138541529, 2.3988617521177282, -5.831561338304749, 1.6064733453117281, -3.01255924026852, -1.1971171319415883, -14.656647041636784, 5.0588722721838275, 6.88952233004976, -13.838676586167663, 6.405133534552554, -1.2811534558421462, 11.719383847158019, 2.662081593453954, 3.04494080942564, 1.0725881236379196, 8.724788949391451, 10.638491455812439, -11.784840262749618, -5.397886370310766, 8.374296833047094, -6.843854242048668, -2.037403138241813, 2.9487597893518736, -3.43572149970435, 0.41306981741291154, 0.46708272936512757, 5.086504224327176, -2.5613368457134857, 0.49646942151659523, 0.3938374762319956, -9.90261431570505, -2.124880040563761, 1.4441373136452795, 5.747933850211148, 4.361008874265042, 9.652473008936845, 9.698630272401276, 3.612640213717345, -1.281030861459045, 0.8161064831094446, 4.274179986112046, 10.605781474901796, -11.679908165083459, 0.8422932187812051, 3.6801888858307064, -7.812438475408617, 6.809002138268903, -7.636992474309878, 0.5102471806967135, 4.309263946308063, 6.920698524965714, 5.97504687900947, 6.5479069639054375, -1.1749153808981432, 1.498172298264757, 0.22412685238608912, -1.957401148441306, 7.066826382931529, -7.911320237425373, 8.18631191636559, -4.816524625663207, -8.407250092252543, -7.247024577811071, 9.1988981614026, -17.243983068404212, -0.38921494739044216, 0.25672296011530193, -6.664342537383833, 0.38935091909930963, 2.9598341765172256, 5.76071152185451, 4.529764437083067, 2.5076863902481574, 6.324476540598543, 1.9601689669291573, 3.865010264980793, 2.7614465938672508, -12.768463248785347, -2.2747316949790486, 5.700626019228032, 1.1148326461729323, -4.9973776406924, 0.6040440271760018, 6.469226382941861, 2.6927731086604996, -3.122849384808863, 6.001997386972537, 11.305959728019717, 2.8255249469785855, 5.329092161639263, 0.10489924672158535, 2.223123092950243, 1.8586296170612397, 0.23066225457820777, -1.8852632955420985, 9.144775961883358, -4.144945782913576, -6.08573947701471, 4.1331598510708005, -4.551016373737671, -0.5219745398452473, 10.903801532136828, 1.298506375211474, -6.208751916722762, 6.189612122776319, -9.281627217018155, 0.8432142029693195, -10.761464082441137, 0.3598556286751314, -5.403876180576988, -4.046797620426517, -3.8624544639456593, 7.665164127564105, 0.1122488126174197, 6.007946830653974, 1.8594690816721626, 11.358799745924552, -11.463176840152903, -5.059045187058613, 0.7125374786584757, 5.1496012335435, -4.407258264270092, -2.170898571738414, -10.923732345414171, -4.487563254945352, -2.588490955560277, 2.1437771569092585, -8.41243398409927, 0.5515334261319983, -6.823233652781239, -2.237317657709022, -12.195357428170947, 2.929158838547894, 10.973606189374138, -3.749040202258317, -2.1635967645814183, -11.409286053603624, 3.9617781365115197, -0.4781355392259232, -6.3964263112076525, -5.165996045695069, -2.2251591973946434, -1.4986669054223587, 5.153607869091962, 5.1347188988163035, 3.6275061848306094, -4.239461606667212, -6.052582706250225, -3.0681983262826757, -1.8003850170638138, 0.8439906813302505, -5.893022805943522, -5.469358325164459, 2.1417763953396145, 0.7528082669517734, -1.8754118008035334, -15.954935559798109, 5.663337454615337, -6.553655237051001, -0.9120211451595372, 8.301899254451278, 0.8087660679693431, 7.638519364440114, 0.8637951406228481, 2.1289645416541876, 0.4180911646950002, -11.653099373733534, 5.258156748025297, -4.042113710051353, 6.600797050062065, -12.293807780104535, 1.4205268659845647, 7.061208480775756, -2.413499761151032, 12.859387817919073, 7.728708441382098, -2.038909942298348, 0.5546261335744835, 3.2934097051684708, -3.398303392305492, -2.1206478770382344, 0.49181702504382974, 1.9375452363815282, 2.87303663893177, 7.037949780736343, 3.046862971905583, 1.842428718377385, 2.949406522862821, 9.00714906598676, -1.7245157798731114, 3.6265379329950127, 0.32059942163063704, -4.813946701227192, 7.465205562241678, -8.877406348438841, -10.307750787625086, 4.181681229587992, 7.539608247231284, 2.599074971203918, -16.106927087670673, -4.056190602683969, 4.820357437731869, 7.922844361741978, 2.910419534855884, 7.698624257500329, 5.594595217870975, -3.3882073798356935, 6.494376540737828, 0.13993414037358715, -6.701828482530872, 11.416400842457184, 12.322703734906247, 2.103590082054111, 6.133107653051815, 7.226445410904806, -1.833676223750053, 3.585004072519249, -0.08099368836506676, -0.34195293979946795, 1.818210737091958, 4.0197344094672625, 2.4300915658729694, 3.8658818529565417, -9.67428136326533, -5.746598272846195, 4.762917996681388, 2.948232217635967, -8.273729713525617, 0.23968994799863375, -1.775124068940417, -5.745664806818897, 5.391469670137122, -6.464516497869008, -13.049873596113699, 6.3312573841839495, 4.281935145880484, -1.623053097515458, -0.9515727131411463, -2.7110928531102974, -0.8392829013551945, -0.5928523517230352, -3.4419112776632077, 1.4037852271078264, 5.093950514133667, 5.966050850433623, 0.5001824225735692, 0.7766895090192654, -4.719237116918011, 5.5864503676350115, -5.376723157692716, -0.12520989710211394, -2.739059845230343, -2.8737243341539136, -2.9081497773713596, -4.899557002410407, -3.0092057250998727, 10.968255468925193, 5.036468156303841, 2.074054073317754, 0.49111452330050975, -3.950526642612051, -5.561784260509384, 4.781803642484934, -8.178610339137585, -2.0515980897162667, -8.729093490966283, -2.4556514039359025, -3.3170728226945334, -2.638958365681781, -5.069256438600835, -2.0946665500498733, 13.69564707501094, -4.3405518809120105, -7.400875995194195, -0.7088883855292224, -3.98692647406674, 6.448055314407972, 2.557395736610598, -12.582310449240651, 1.6969204954082289, 4.165335437717841, -3.6565423680574174, -4.015303427952494, -11.39902351739846, 6.219275147738174, 4.523954764047258, -2.7327822600123453, -6.1297762520624355, 9.40282133498235, 4.732556445807929, -6.6975467627553575, -11.645834400965478, -5.558953901544658, 2.3789974007141828, 1.0048840489930964, 9.857427477353744, 8.236006535799904, -7.772706963564259, -9.173564045712482, 13.378155937809943, -11.857526756239176, 7.507313179438905, 2.095315598870338, -1.6798557367866291, -0.9445574530046583, 1.4746069104818469, -0.32030918667723784, 3.459489865956809, 3.3664047278857714, -10.557876378746823, -3.8257012570701323, 15.44295951447448, -6.748715729887548, -10.185392223480456, 7.035090566536552, -1.6324536994449275, -6.401948537098133, 13.091116404755404, -9.440744692061944, 6.316510071436379, -2.6569132368905692, -3.1937317592050483, -2.037625713823543, -5.188004614800768, 0.14655735627318695, -1.3612714354155229, 5.173315485446192, -12.203455527385412, 0.6208923451625141, 0.9082062820265487, 7.542247536294594, 2.371998480520623, 8.11456820187564, 7.351029399003365, 1.8252456995858033, 1.3617267004492302, 1.49976470550498, 6.285848982964229, -2.196921419646337, 1.316821515605653, 11.240722190418701, -5.031620372742338, -0.4370501642018676, -2.696831281285802, 5.556446774792947, 0.9535227955578434, 2.943620490024086, 5.640274717216521, -0.8289183480375779, 1.0312097332891068, 8.434619761977098, 2.043850020337799, -9.21153405729772, -3.278695528779466, 7.1225212028239335, -1.0358351627508173, -3.8444467768756074, -4.206419203628778, -4.069909639596558, 2.7805185520174467, 9.068259026709205, -6.228922602792591, -1.8335210244057523, -0.6866975000100437, -5.425301591040354, -4.437171865351424, -1.2100139242679315, -7.318402104615628, 3.6578926844744255, -2.9892191452932635, 1.8503818711486213, -3.90505095458765, 4.399842993720711, -5.31406613116931, 14.081550555533038, 11.510638841416984, 13.976405551568194, -4.563833598705246, 5.163632578757806, 6.998031819707871, 2.3533929489912757, 11.995578286686088, 0.4457530449824034, 5.955339550512261, -0.7166800622839768, -5.369179966761383, 7.928377347711917, -6.185838477298906, 4.25108043302699, 1.6876992337997978, -1.721907082669774, 2.6021146336236876, 5.820805891348085, 2.104803966970609, 2.79207904493952, -4.134181575615723, -9.028739087795968, 7.719634500416456, -4.506978015533192, -2.0175829267019454, 1.2257101664107783, -12.660533786587404, -5.898945057317254, 1.1069903748565717, 6.655351486162937, -4.787288310273711, -5.377801824518642, -1.1066945083035282, -3.8712908648343736, 0.022653063692676213, -9.845557977641043, 12.359087555851682, 4.788122178915387, 2.093469654282027, 4.135602635180082, -0.13178949647998636, -1.3269909350748879, -4.470705235043607, 0.10540140242981533, 8.111441504172923, -1.6270009144425277, 0.4739671639926563, 0.4094718605220789, -5.046515410887209, 2.744735716731637, 1.5283779625815446, 10.551570519157341, 3.010535905401296, 8.265162619062638, 1.8037360094435992, -2.9037290043893713, -0.7286790364600402, -2.4951456489648205, 3.188200057973893, 0.7726581567121762, -8.450828908132632, 8.768112733136292, 3.1215046653974174, -4.743990198569702, -8.402037652673238, 9.895573101677376, -6.809594737147034, -0.39394327848368504, 1.661980643477653, 8.296624090154735, -13.017059602356964, -7.2862752388974545, 2.8809173839725024, 1.9522174018597331, -0.7338169950875226, 9.41856176802183, 6.471099769413436, -6.183514356857831, 3.279693424868836, -3.050519266876123, -2.892854346532528, 5.15058793196662, -1.5608560373999614, 11.639254203428022, -4.418123644004075, 3.7807207469876536, 11.258386903654438, -9.26480942088166, 4.256229910326863, 5.89841836391356, 7.56947481306381, -2.7981386729642295, -10.278278610337669, -9.292595044931527, -7.028189901617474, -5.707201396131018, 5.575627770928154, -3.9352084181197515, 0.2777011902506975, 9.000074377349396, -1.1667555570692254, -3.8513233407078222, 13.230583088606991, -7.558060421918385, -4.378250655931643, -3.125507845535477, -2.582629267876167, 3.172552416431011, -3.0867304777071443, 12.055897656747845, 0.7152806167096564, 6.311102456098003, -6.965895209971949, 3.84993791223036, -5.3570910591108545, 7.347140854125991, -5.926980038566332, 6.078850232577805, -1.992730276840248, 5.662582554158557, -4.52913141309944, -0.4184109161705355, -0.991259854650423, 2.714335286943365, 9.298919757209086, -1.6188754509819179, 9.823327180017502, -14.14272871302895, -0.8345552976557646, 7.684650849450455, 1.9566917226694194, -5.0991826151457715, -7.385743064950146, 2.7599007061250234, -6.711675061885493, 6.527581866067393, 3.920401838376592, 2.0250931242892154, 0.852595919356687, 14.738133345214816, -4.907468492738288, 7.067587079282575, -1.2567860726066842, 9.550124909363138, -1.5380565454344806, 0.6009633006475309, 4.113175128639246, 6.068296563299159, 7.436851806163599, 1.2715374620849982, 6.1414144509611885, 6.564160536499746, 12.09134948104326, 5.030989028700905, -11.555831226069017, -1.9879836000239093, 9.135450372063353, -0.5717425509649382, 1.9457402835769184, -5.254174125513517, -2.1609552347615466, -4.568801753812712, 0.5493943553136009, 4.276798404844749, -12.309785771670878, -9.931090730982516, 3.1260415372628194, 1.863586695896514, -9.2033711139038, 7.487948800317645, 3.21575975746297, -10.286131520492468, -3.492031183535823, -3.427461179333905, -3.0064941838768497, -0.3569330272012591, 0.6737114376921197, -11.01452534887501, 2.826293385658487, 4.186437586382928, -0.6090854987078669, 1.303378113184499, 1.2556226758335909, 3.653464714780792, -2.264849551713234, -10.822019646047977, -7.430904249305725, -1.2167539738536057, 1.8738837585488495, -3.8191703723613877, -5.515439198285359, 2.8587768425039246, 12.176244867785492, -3.9517892463077446, 1.6114986937694469, -2.4056892932392975, 14.23078754440791, -2.8113803349672195, -8.988708832460324, 4.064220351738545, 4.505740256130072, 3.5933905847740713, -3.456680098731563, -0.13241662928140574, 4.010194368673969, -3.328699759885005, 1.4638862145565634, -0.2571350608759494, 7.293792694250651, -1.578877421807238, 3.21925993143579, -5.549452560343699, 5.737546877750548, -6.847601524446735, -15.113820111403713, 1.5327883936353959, -5.6654589156685, 4.2712739804643975, 2.3619381219135334, 2.1676096999844052, -13.549699088487651, -3.875220227914782, 15.944527848259066, 5.512064000975094, -4.941583082875524, -2.8947328192984902, -5.678623699194775, 3.7131806977583683, 1.6280263160815327, -15.724790287634793, -3.96918619122172, 12.071550917591903, 1.0732369114567426, -2.580066251186667, -2.3070322317988876, -7.612663874304557, -10.360102053536474, -14.994860273164383, -8.072132415914103, -4.926555692335636, 10.354878752635509, 10.294655579637174, -0.6635962972026017, -12.114613262800535, -5.069892663346794, 3.1686493775471924, 19.21588720761578, 0.7573674742436689, 0.4552999298395843, 11.513131625378975, 3.1897372798907115, -1.2366297141023839, -6.924743429562626, -8.594001693539603, 6.942029239154593, -8.952675527504491, -8.885921271129888, -4.593059250055775, 7.750681962188551, 8.249788774747858, 7.857395976459558, -4.557405179054161, -0.4550529846911076, 1.5136354342221974, 4.017274906943678, 4.06804294474857, -1.5188906560856053, 9.125189781542547, 1.1477712613745372, -3.6424183926001366, -11.095030272680791, 6.141908052508368, 3.8608436689213486, -1.8781306335754457, -8.089144872247196, 0.20618369214157928, -2.5830819842216615, -1.2135388876204365, 4.197038452209534, -4.395942109890723, 3.1334201263416945, -9.412934451888326, 9.217533636871305, -0.28870161480188106, -1.217331349273677, 8.360505721356915, -2.127744315821544, -5.495937035041541, -4.914501933567049, 0.35513217449430856, -6.279387021041259, 11.427182238998096, 1.1625479325951635, -4.326588120238826, -13.190510991730111, 15.474873503141112, 10.630327537055804, -6.607848204079519, 0.5170838337027603, -9.556548114746452, 12.450092244910374, 3.711895170092725, -6.7138705697498855, 11.720141004903427, -9.256811093557168, -4.00419849737367, -7.37339364488187, -3.362988999254534, 1.2000497427738757, -1.4534925092775028, -3.7642816591044865, 5.570686951998557, -3.1452253438376476, 2.3002778664111574, 0.13100992031498102, -3.1897447633312805, 12.316796992907719, 2.159204577029535, -4.851159234344968, -1.1235813502743164, 0.9237114617018023, 13.09137871902112, -2.633287983350739, 10.242545109842018, 2.8138519647820783, 8.412230063955633, 7.340633565586149, 9.059814823001405, -8.14735712830707, 3.0002436076943964, 1.2618237587323806, 0.5712371093883425, 2.27450314986237, -7.509960703096085, -3.86390523628327, -15.730959761639955, 6.99378506180639, 0.23898958371435847, -1.775207128318343, -4.777724834761763, -7.9880152872488805, 6.445550932193294, -12.80684358349714, 0.08354239408338104, 0.9074322514204567, 1.1222988181517521, -6.131606917390667, -0.975664145576564, 0.7265345719038983, -4.536458887645503, -9.942895023098817, -7.164891661607774, -5.817101604544907, 5.148942339751518, -8.33339511868503, -16.081750925702043, -6.3965848296009264, -1.7879987896706682, -3.8614737186590515, 0.46690715087542106, -3.6294655996197456, 2.2678328886972294, -2.4044037608051556, 6.521690535852551, 1.4726920630269527, 4.115783255985678, -4.019052708406901, -0.6259800961127304, -11.812442333185265, -5.318299752793477, -2.3765077205592435, 12.062073894368353, -6.409302707841938, 8.910653470567087, 4.496974414053587, -2.3907706064343794, -3.8879618267541693, 5.360629244931405, -4.211943621195767, -3.112751198719352, -3.9364549979096126, 2.3334405420773794, 4.710697834654057, -5.651111090445986, 2.8384805369851414, -4.576996988714169, -8.754955636364231, 2.3834543190739756, 4.7151614401038255, 5.984542994324034, -0.2623675550325347, 7.648006993136963, 1.8049286339317665, -7.8476774450229065, -6.1044045294795115, -1.4883359479754714, 13.199944340377991, 0.012821542409981346, 7.217024795447788, -12.453436355299827, 0.6368915729354064, -0.6937734479111402, -10.830466334471694, 2.21773912907737, -3.1821862359952044, 1.805811789532832, 7.808153901018871, 3.7677828133533016, -4.567205922252261, 11.520373855261163, 10.54677642500793, -12.077251524367728, -2.1191301352262606, 3.181787539967818, 6.406524587031277, -4.4069149345135665, -4.596739266853823, -2.890004422139045, -9.07264618973715, -11.672652508209149, -4.268934516823306, -5.278117469977911, -8.457275719522894, 2.616217668529306, -4.040418862610526, 1.367728128214861, 5.556770614506579, 2.4005965136848673, -13.165500897969793, 0.8579789001848162, 1.1010871179796566, -9.651253901442711, 4.600901387886798, 0.0883261060212055, 0.17932418662005034, -6.035771500664997, -0.13107538553068188, 3.5605002943228077, 1.0503271507725582, -3.5044108034032084, -0.13362624604550954, 0.7470833642594434, -3.210291618160581, -0.9180267179147958, 0.2111132777759656, -7.137552730953847, 3.5676283571249403, -0.9850820167089166, 3.4011164593648937, -6.581100118753794, 6.50785215812493, 2.858715224435323, 10.793468057104004, 1.1236108482490188, 1.9859435941256405, -1.5116835039820744, 10.79664762171361, 2.446320446241158, -4.738232055782231, 2.8496621079132023, 2.437650669419478, 7.43924595465793, 6.118371342270357, -12.511806535024553, -0.19095477501409133, 12.754805873701969, 1.1664904799991807, 12.322113461149836, -7.033020242251536, 4.2599204610122925, 2.9082621529591806, -4.618397047398138, 3.3999964354263135, 3.8619871350517956, -1.1805634724205802, -6.32544746752559, -3.5774074431027394, -3.684676045867366, -0.725791280932674, 0.35749318467943925, 1.6327525603205786, -2.889140027255905, 2.1214979595588725, 3.5208531445237936, -10.020707361464632, 1.5388511542871377, -5.481682239598198, 4.385818580902722, 3.6242836042139177, -2.968187416824512, -2.4911943700061094, 0.4548944711363345, 2.3824525651448227, 2.03673863969714, 2.7220016394286124, 1.1144113870461865, 2.987030039323825, -1.8944175600944724, -2.013756561854346, -2.803095700218523, -1.5833935228549254, 3.160690490487603, 6.777771570291849, 14.118327865075264, -11.968593309165994, 3.15742030485052, -1.527579356327059, 8.633318294294375, -2.1537625781797614, -8.08171996952356, 10.215215347662784, 9.023601813088787, 1.5051690303890781, -0.5504333580615598, 1.1715024618740904, 2.475208154706704, -7.523411137690443, 1.495841621954272, -4.3362934297881885, 2.840476088612383, -14.065647912086336, 7.0403010452296115, 3.745067113627009, 11.298703420306397, 12.635774616352478, -1.7508512945910066, -4.123041207581621, 4.621128272278483, -2.0393119836577247, 9.098652343365869, -2.226553746113546, -4.456853046149247, -9.718246373194411, -18.89160617650963, 0.22894370537205444, 9.044446310229999, -2.0512862560026353, -8.454613120315912, 8.46588879330956, 9.102639154824315, 8.929705087834538, 2.058379653013576, 2.698459771183093, -2.1889522066337337, 6.826782086392311, 2.429933107843652, -6.0636349122109765, 2.1736957688463225, 0.5758282602164362, 12.671546385467211, -1.8724393997995956, -6.697552553121681, 9.771296565253419, 4.9765489260926925, -0.795237211542611, -2.52880556209944, 3.720436734551736, -7.304694820046983, -2.3022764508230944, -6.0536662530847325, -1.093143970046937, 1.6683805962586493, -4.446259600075288, 2.6053784277808747, -5.620068848186818, -3.8608081782137678, 6.207453322705561, 4.424923349686074, 9.492674509400878, -3.0421642294394835, -6.269506191983734, 4.073059802217237, -3.5323351871568485, 9.499044863549022, 7.67922779102538, 4.64233214108035, 0.41619611130565126, -8.416638468025795, 8.044442441260067, 7.465639254872905, 17.62991649430048, 1.4787465070815797, 6.5724949028072235, 11.871822334494547, -16.698955586692776, -6.015270767688658, 1.9361524844966096, -5.588962990615718, -9.262302830010743, 11.427082245635194, 7.763496609286225, -12.190852740586553, 8.883658642403057, 0.18526940806688597, 11.436141185719714, 4.435327219530635, -5.339661410214458, 5.105088060338932, -4.457074339243737, 7.092747189663866, -2.992340269016165, -1.7312590503976697, 5.81465660226168, 5.80809241532228, 2.531771779113945, 4.486860119555386, 1.9024541982325782, -2.9006788591271686, 1.2391187657099734, 3.913109493867025, 2.3521587800188826, -0.1057593378170506, -4.899300454113293, 0.534207860043743, -8.150786629627717, -3.0384244742188375, 13.897316799883676, 9.726089576587878, -0.25010527557973505, 9.040782341633806, -1.080213078827966, -6.0656527081533005, 5.441224693502896, 6.108110303209323, 2.3840842414880896, -10.724005272252159, 9.02045580540335, 7.81289196320063, -12.371375095181374, 0.5723626094072812, -6.581334322917793, 5.2252299405800935, 2.8747564715962817, 9.938587240552287, -0.7431062505691806, 16.821299151094355, -9.966748682238997, -0.984721858985492, 4.541327461292946, -6.605383135194901, -1.1653912787618026, -7.238620037441741, 17.61470300528986, -8.151006622982464, 3.749621276040072, 2.170096491390053, 0.9463414333423976, -4.476504075184609, -11.089392568270304, 6.282926573450281, -1.0423396452748344, 8.609087507934456, 8.189169687570155, 3.454706078171593, -1.13748617370815, 3.1072958108251636, 3.516054021931526, 4.502153577095816, -2.043269045104047, -7.15431745438784, 6.396887233009675, -3.474301199560753, -3.2209168343703785, -3.056744070403589, -6.205561687140154, -4.983417642739359, -3.7078698269285084, 3.4489744849655914, 3.5243986263491904, 11.077745827658974, 0.6552874383601346, -5.003064879066833, 12.23542340456115, -3.9171200605802836, -14.597507263588996, 6.845396682553193, 6.4115210234887465, 6.95342577673842, 12.440981105286673, -12.695134392232859, 0.7242171242615132, -5.14809432052237, 7.1655001780432945, 3.3764204775495115, 7.0965608063370365, 9.808099814482382, -5.6979313389069635, 1.0704642278071792, 11.48425824813708, 4.000532779705313, 10.639236486179506, -3.4833620944989185, 1.0908459262849468, 10.44949886956181, -4.712849280868508, 15.643420803979929, -7.6778604728605035, 3.294747635030574, 4.020708192558374, 3.6102611027233458, 3.926096234203209, 5.9814740332620895, -5.986781305471297, 8.932053257893667, -0.2870392511457295, 5.872657162100306, -3.441462555684839, 6.569728793058985, 5.1593937062844715, -0.17122026302434323, 2.2073701123403624, -6.445074552267107, 10.453016151856268, 13.146382177694878, 5.853318435255106, 11.316869562575844, -5.897018993451853, -12.66745842036282, -6.853703570103278, -0.0021238122545055305, -9.87780751826213, 18.728826293289025, 0.5513916960789894, -15.130069087235883, -2.0162273863793674, 0.3516751813738517, 7.3666112456648545, -2.3928480869515507, -5.260357616038541, 16.558288451751768, -1.4819391133970445, 1.3589111646683314, -6.948934635829097, 3.7370599594170266, 5.558350871023282, -6.0871962391062455, -8.426670553432531, -3.9456550069900667, 6.709479496162335, -8.460872371002715, 4.296023876952052, -3.4807975104034585, -7.995046032603123, 9.119839818581893, 6.321846030229579, -8.49536336306198, 1.5417589158854608, 4.163203911176652, 11.104804858692862, -4.160921835963026, 6.006678209071291, -5.131726100630928, 4.378326062624293, -0.44066439312554695, -15.59321197701625, -0.2614640620416776, 7.0450595335285024, -8.781150227530448, -12.035887203812253, -1.931985812782562, -4.92725084525734, 6.014697648166495, 2.7803383768440577, 8.3174577578532, 1.250131705435238, 2.3905024018420034, 1.1750925835260133, 0.35073048802600293, 7.867218058329185, -10.846689619323872, 14.872860267974737, 1.4426380686894023, -9.977179249031835, -3.38586977037841, 2.1009126969263754, -0.9443338127680839, -0.1975240337316131, -6.527269315145129, 6.092730934612286, 6.836995098912352, 4.476675439906803, -4.256909653205385, 7.456102473413687, 4.067146599473852, 3.41036325020667, 9.347820571479291, -7.135822657469806, 2.308893164001949, 0.6580505968907127, 5.320411179069624, -6.10556761447435, 5.45971080488015, 4.210974354024386, -7.8124035473009705, -8.371622352769725, -4.357329082744069, -14.35324715165578, 2.6547756473126762, 5.638881381938166, 8.013307536903346, -11.59847709995563, 8.566702037177846, -2.295452660351687, -6.425646088349655, -16.017164619023088, -9.786175353786422, 5.596307649198444, 9.134600209861393, 0.058375295305193135, -4.939283068112084, -7.193989328166071, -0.854305120602129, 12.971539698592942, 3.392811964872844, -5.056378157156964, -4.435778985291541, -2.4938507561566876, -5.003649719739672, -5.916668688269297, 4.527726239098941, 2.044172933652076, 2.1538246217310966, 1.4201261494796702, 3.0651177235090437, 8.8696215927202, 8.942301003312089, 9.509522489742862, 4.865082257531094, -12.725391075771405, 6.101966699086349, 16.206582831764393, 9.4847909238492, -2.948354456935753, -6.613739779189967, 6.002994120825997, -5.809725895522981, 5.750060980027363, 4.869622759324493, 3.654054915802952, -10.403412907082293, 5.279202143984779, -0.4325880874081999, 2.6611170929463546, -0.30500994118727287, -11.571866238922501, 4.741369775936115, -9.218575720949975, 8.491454877620653, -8.997363501367916, -4.8618403226726885, -3.5886040048311947, -12.031269427824375, -6.447547807212979, -0.7814492437358229, 0.9221161589640294, -8.555082456669423, -3.7698792525249045, -2.8512805439190916, -3.4128752910276297, 5.993274932328445, 2.1710505771005835, 7.326522611319437, 1.1114999976952111, -3.373799251600328, -1.7454384089005046, -4.949560218431184, -4.4941606615737, 0.1431876340222244, 8.645962670698584, -0.14035612230736427, -8.255828809897816, 4.532888331487936, 8.09576904974569, 5.268329238738604, 5.0700180600893745, -8.009841207653512, -2.0390962542710405, 3.065338134455348, -0.14983140402060913, 2.1402892744333033, 2.1982695221193542, 16.52252520118275, 6.458165602822465, -12.128960635250339, -0.23037132662635545, 11.744154271442687, 0.7294974083077461, 2.4669213829059444, -2.499193033905815, -0.8332035844527009, -9.947609967886116, 3.9718551333873786, -10.929868321331268, -6.913512689141, 5.814500696198418, 16.579661973329923, 0.9837081162671463, 7.39957839797483, -2.03092487189891, 0.7901571788178129, 2.171705364850687, -2.0740185678379284, 8.595983701691585, -10.296414938104713, 3.581655508820238, 6.058448846500526, 0.3954483653786881, 2.0321256362816196, -9.431866487796366, 3.316311043487794, 4.607489175234394, -4.887769933354759, 5.503171810254356, 2.8498128015557764, 4.676750584675249, -4.4019755888553656, 2.218660552152472, 7.875510914250795, 0.2534403860063137, -3.7394964148417884, -1.3195045212020897, 2.7824128712605996, 7.129587429782975, -13.099128504578038, 2.3857810795144414, -14.777984690368815, -4.48169240924416, 6.685249661841847, -11.98669310628059, -0.2989822384161448, 4.633889158744586, 11.410321154252403, -8.963224977669498, 3.9365580604897152, 4.255310933870135, -6.576294853937311, 2.3293249748737384, -7.556371025830499, 6.510150748680245, 6.484558519176909, -0.680515902472948, 6.586378047348894, 2.8259601258507763, -8.85903061015437, 7.995337767384655, -0.695008826749445, -3.309791535693101, -1.218799759170566, 4.250405512610042, 0.32789766573707785, -0.48099365728528604, 1.0381285926623933, -6.405780131320877, -13.475682634006848, 8.843526884634173, -4.824288080277448, 0.9541089514611184, 12.486793092509236, 3.9078484884447358, 9.760755632737968, 3.2756169463371023, 2.5491109706399153, 5.38291475011162, 7.72076706470809, -1.833526512760333, -3.3496852005806175, -11.881630064238383, -4.932038852967204, -10.040965552134109, 1.2314897452837301, -4.328960402670794, 14.745947857825076, -4.94144835231067, -9.22962234737041, -2.9459523471183435, 3.95786944292393, -18.19857406083287, -2.7300399458849287, -8.74531467230581, -0.8230306413654002, -6.949587988395996, 3.6167171657546286, 8.7257569397635, -2.480049794537556, 3.355341304911753, -3.231604140265322, 3.8728995493657656, 12.243298234570329, 2.242331277411203, -6.205472935296637, -7.172411357959485, -7.436241166271946, -9.14251584424585, -2.8033506014532756, -0.7878249000478071, 9.824672825308182, -1.870020227033479, 4.068762921351993, 8.714912251216187, 1.3664684460596432, 1.6575477940187962, -1.9784379022203766, 4.958393640251638, -5.99119338797802, 3.2531758205535777, -1.7427119595616076, 0.24876224044558248, 2.6296888979263846, 4.531018882292529, -7.356814455359782, -4.265631926741705, -3.494668513132317, 1.7373617189384498, 0.4170992511287587, 1.3127354931316695, -10.073193425072766, -5.161877601543345, -5.814030520924394, 0.9783348996903607, 10.14632436019723, -12.19788136024104, 4.889777372995397, -11.272533831258528, -5.080397926546778, 4.494570403192304, 5.846876173077776, 9.314362060800203, 5.195907114860888, -6.213959830259685, -9.02039042593102, -2.965329504967113, -11.184940579569059, -0.8453782895298196, -0.4710539011294834, 4.074980065224239, -6.395714445082501, 2.2181796380257115, 11.566859252310799, 6.5755304476957175, -1.464304405455334, -2.683714986284013, 1.1974622012915106, 7.004053230862434, 12.043696799262609, 4.368348685890949, -7.635238573487554, -7.128624567329237, 2.525535440379706, -9.171310984611077, 4.780602713160931, 5.2417242313904975, -4.638836530888365, 0.769537114584316, -6.335014747281148, 3.6231253968783, -2.4339873275503194, -5.500916906311739, -7.311992745400989, 4.6547488151644, 3.5820690818158614, -1.05838063806387, 2.1154431580916735, -11.921876347719916, 7.268837370498878, -0.6909399998644525, 10.417576983287988, 0.6005751945380697, -11.282517654949357, -0.24997082803930004, 5.334130936379841, 9.720298595320333, -9.487317868271695, -6.998817305145328, -0.7059500270452916, -7.382599956188847, -4.874266922993773, 6.543858442555452, 3.836239251786247, -5.242790705850016, 10.711823971228236, -9.89355558251453, 9.271557685398669, 12.95991201902631, -2.4403499904437562, 3.582749576558609, -10.01311639345763, -12.08077411867311, 1.4925783687480743, -1.4779340479395002, -3.2186353081049046, -10.493659307276536, -1.156744920881684, 7.729121318812462, 11.682157728978401, 1.61678580084225, 9.882821772289814, -3.315307616926163, 0.9279754980816661, 0.5501556795151694, -4.539171147349834, -3.40728545069028, -0.7763505600693021, -1.603885796076362, -10.909948449203402, -2.053742533766944, -1.6680237995358729, -4.618483122439605, 2.327624833798469, 7.903774139076443, -5.010917453285795, -3.0892661670734087, 3.964773551555224, -0.7002179229213498, 10.89826836793108, 1.730484392603796, 1.085509349628214, -11.071151934471255, -4.966709659707528, 6.683432727589636, 9.865153832406255, 6.533493111666979, -4.217375747037044, 11.142049958772532, -2.1438211396643485, 4.537121914493769, -1.9876572073807814, -1.3702362046061514, -4.5217956040291245, 2.9859388695594413, 2.0239743802508277, -6.549758423084948, 9.782696204687015, 9.055334266502689, 6.042231924332131, -11.500947329651023, -6.080789317378289, 1.6750297831216567, 3.0171853349050206, -3.335562325830341, -4.933822552526128, -3.64321130499033, 0.7084287276951722, -19.12827212857889, -4.886990878263725, 12.168673118060285, -10.941287844802389, -0.047861743322460404, -4.835205182851352, 6.959280726689051, -8.083386857179175, -2.909193871551608, -16.517771559063707, -5.133331793850641, -5.785798204754588, 5.967881615066613, 0.7444757985604011, 7.64791276739674, -7.799204022950207, -2.6356412302165024, -19.8883909985243, -7.7808170672466295, -3.5762782477910275, 1.4321903174345316, 2.5530049493826654, 7.665264047597497, 4.734917891783653, -5.067963632887936, 6.9411006438452265, -1.5953045061975488, 1.5282368687337446, -0.6688863900380806, -2.180081098527319, 1.3954648314030944, 0.010147207764219318, -5.820495428125947, 6.792828699917332, -11.045165198377177, -1.1788183185422896, -2.032506525683347, -2.686031948299317, 2.727280539445048, 2.274921401832792, -8.503997604676854, 3.6134531943338835, 2.63258994242009, -4.847596898079495, -5.633827475589323, -10.105757993301014, -0.8242168362445486, -3.0696787424708343, -4.142529706016603, 3.308217824281844, 7.267168385928193, 1.4271263075514067, 12.578998952558937, -1.2934988288540512, -9.344127496021375, -2.6965752552132347, -4.776477268609909, -1.5394537970486015, -5.689401673949653, -5.559382176205575, 2.0759969073501185, -3.9253290707268707, -1.3905430364386389, -5.572091284813491, 0.04134084615512146, -7.5392219758143275, -8.951694949079577, 4.823822892930204, 2.5548587023746707, 0.892226107617198, -1.4669103377502428, -1.7944638393889842, -1.4774565722541735, 0.023604574055532623, 7.586392732674922, -1.8854673616902118, 7.042358511469896, -6.840313258007072, -0.06614474130732223, 0.8900744614845703, 0.6201494212624404, 2.826951497048263, -12.388690752869726, -0.015122840264067183, 10.920842868115416, 10.136382836788204, 5.539800664841098, -4.486981235139556, -0.7356025280237538, 5.850884062407566, 3.2710693601184695, 9.38573781857907, -1.7308427623986091, 2.4358560485135694, 5.577412097045289, -8.487819718226033, -4.497117536654704, 1.0729242222979272, -1.5580504748610906, -8.819063026761324, -2.9025719437812976, 3.2530648440441303, 1.9745185442002882, 4.088612570494459, -0.740198650793387, 11.720695202954673, 4.857727128204399, 0.017273569910831177, 12.04118320432872, 3.3497527294937544, 13.36585470757083, -1.4770739167652867, -9.658923136605198, 7.360757720528413, 10.00242905408253, -4.462959204933384, -2.7882195155405065, 3.18930121889414, -3.0313839811435837, 7.304797357182213, 2.6512069086460732, -1.81343879212901, -0.36130214784402925, 9.71651739667825, -7.99982136558918, 1.7206933366751396, 7.552330856824931, 0.40951331024467685, -3.285558644431797, -3.769044027016794, -6.311377726540424, -1.8284788586508565, 1.3056930379464193, -16.278012897349534, -1.4828893992317926, 3.674682953225735, -0.24101529978321667, -0.3985884284042963, 12.635817215432944, 1.4143280165711163, 4.355499409109351, 6.838748089351495, 3.21775428087619, 10.150849119622562, 4.034943064198261, -4.386641851972927, -2.419631292383277, 18.240467429291375, 6.841924933918005, -4.291925284211958, 9.959214359411183, 1.9863657971375699, -8.013945963635607, 0.5022837824286295, 16.2606493197391, 2.2865136198480025, -8.990468214694802, -9.286111733397663, -3.6572527545051354, 4.217068568239935, 10.320910172753338, -0.729008119482113, -7.882751726144827, 3.441015144637938, -2.35955523547468, -1.443509596927961, 1.327993738689345, 7.518662007115063, 0.34303076551300143, -0.3152902084705216, -7.488380307418224, -7.8157984672480705, -16.689861779039155, -0.8900345730076914, -7.984650147092991, 0.6570463845930814, -9.181363871747246, -4.92399845981956, 0.25333627331038255, -7.008173927778884, 1.7385060758393174, -3.894564161430916, 9.343245318823264, -0.5329939054808388, 0.7763201141757708, -5.313090857878364, 1.1522777932360948, -5.043790831336899, 1.8283092724832486, 2.8271123852351745, -7.272958744855607, 3.2735447191600024, 6.656802956704643, -5.3018474481169156, -4.397553422468843, 4.152529542466258, -8.800248999873155, -18.96924210091752, 8.672710670293442, -9.881199036037676, -6.093696973039666, -3.33083758044607, -0.22661423096171818, -7.9672518929772105, -5.134550672208958, -3.9615252400068615, 6.340439644131265, 0.23058807932953418, 4.5191890276725335, 3.7892313549409264, 9.269434281875165, 11.472210948092558, 6.4939778927064165, 5.073224806901628, 4.925064023421561, -0.7465426776220381, -2.368090172211518, -4.474831434504397, -8.444026652521885, -0.4923227239997155, -5.9344192767851105, 0.18991489225552471, 4.319022844644367, 5.801980834131603, 0.2874363759669708, 0.5418541022621375, -3.564612316030934, -12.127040110349425, 14.927951981056825, 5.0504406855355315, 15.173249203032048, 2.5692589681898825, -2.64376608277163, -0.885359451668759, -2.0147990669722304, 3.378341478577374, 7.945402226511984, 3.788186693144712, -0.10191398606124058, -4.409256013730243, -8.078936046628156, 3.892421297799063, 9.215401615384067, -4.47440963814964, -10.001404477800795, 1.9921127612168528, -6.02515241889697, 5.224834937942186, -11.414517328135352, -2.2690579613167103, 3.2239882753585802, 5.4612264414130856, 10.93489703403518, 2.8654273793462903, 8.04109523610063, 5.0420166309193055, 4.5167220005244655, -9.000552703402258, 0.5595058026694351, 0.3195502526485441, 10.600182303340889, -2.95525704010689, 5.570662611452466, 2.6527040284523267, 4.359952999344844, -5.772361377920113, 12.446384419157424, -4.783476886475899, -7.683693454820263, 9.170788979300163, 9.604212642458299, -1.6665310159880642, 1.0816387712310158, -0.8857366651507107, -2.3174360887866676, -5.004276261266976, 4.635064031031378, 0.6369529208942227, 2.3041849413061772, -8.17631352361134, 0.24012131125652703, 13.631403057317872, -6.2712059783720715, -9.839611355104465, 5.766081275357427, 0.8241178835638623, -5.424757632468081, 4.91846975953096, -7.370467046608699, 2.0233469321384603, 2.0357869678990466, -4.931413189970613, -1.5782057761643742, -3.8343503037734035, -5.95488591530399, -1.2825797735552278, -9.561566659708742, -13.286099400775836, 1.9721854816888675, -5.386486803010971, -3.7593122476131713, 5.990709683369298, -6.323337867697746, 13.505185669249544, -0.4515621264206088, 2.850047177355775, 3.2760527916200655, -3.593032001211403, -0.48687089715962717, -1.867062148253451, -0.9067159217999678, -3.733202376121139, 1.985592756457264, -4.217995342794139, -6.286345925928656, 9.192341544273244, 7.174984723990793, -10.626606750066312, -5.7669079938030885, 4.35888543132779, 14.751325619253228, -3.5324034226970316, 11.585529661686033, 1.0732669825925807, 7.626030300512232, -5.786867422471093, 5.636021454960648, 11.772717713334753, -7.045396387868179, 0.8317871474136392, -0.2558680857527571, -1.2241978535380236, 6.189856615372915, 5.427238880905382, -6.813826769180459, -5.922320299602277, 10.932048126110747, 2.607595536370763, 3.8458313340077286, -4.195593105338506, -5.975820451891793, -0.9243122879396259, -9.076724333398028, -2.1252357752474698, -0.5388732957384341, 5.101220320721206, 0.2444110270420587, -1.9382217358487157, -1.7795360455218723, -9.942114054632015, -6.848551662091299, -1.9258444025375294, 0.3961804684966928, 14.11196279007781, 5.075597627105726, 2.753860589679188, 7.8972358946398264, 3.7278531835493838, -0.29041744235562006, 12.598867828504323, 10.617207571949189, -7.2771701117016745, 0.23767151072104697, -6.119155077551131, -7.963930010408464, 3.5044311650783975, 7.564837152296504, 4.635418536193284, 13.223153436732314, -2.3710806142790455, -1.142677111305335, 5.405658455390012, -2.3912994516808106, -2.06338257447843, -12.770994746369706, -0.21158861140795393, -1.2912860850172316, 12.644169720963122, -7.304059581170764, 10.044508871588103, -2.548227458946079, 0.49744679847639595, -4.34753107768384, -0.8471566735780556, 10.219856335162453, -2.47134517982923, 2.347381711381293, 0.019162560857108657, 2.0256877601265577, 15.770194357933745, -1.0938316637059833, -12.489172675932238, -5.415261066282982, 2.655786885748484, 6.19166116405983, 6.546305084953705, -1.9642610076611824, 11.07619970745859, -4.347233131054147, -13.95890047174149, -1.7846325931851323, -12.440084704168234, -0.3057125035290891, 2.313486223497673, -7.9212353370991195, 1.4645438229728038, 8.340102724057871, 12.35320572184139, -0.4739034589428819, -10.593058008430056, -0.8763525029959743, 3.5668952544450914, -9.97585210553521, 4.020264833485292, 0.4838585500064875, 6.037149533781681, -4.509820623256643, -8.497160244237765, 6.109821903759091, -1.1793035748462903, 1.12681730656589, -0.510486496957918, 4.881961084023272, -3.32995713171534, -15.151162245242077, -0.5448371368189446, 1.8935041909207095, 7.513581257588974, 8.451844708391159, 9.562221247543976, -15.26716558986782, 4.386193936359024, -0.9662891191568296, 1.0687067868175042, -10.865765720822036, -10.810491098080227, 9.555547604243653, 6.489725913024835, -7.8124768973256975, -10.962349372723155, -14.668834950472261, -0.38186184442809107, -3.193746188884373, 10.935635065253912, 9.624287171558356, 4.666902959469196, -3.786228673997679, -6.5299657187224, -6.883449875603382, 7.108262096363278, 9.089164384340178, -4.536997351469772, -5.467766004319202, 12.094741171873121, -7.235410350829586, -0.9474084377458158, -6.953272030498015, 4.814235869946992, 12.186947014034798, -3.471997137307431, -0.12476373606613528, -0.15130509602302766, 4.234729133741563, -6.391006567731648, -8.646268703363257, 0.8684342437031716, 3.696086794718296, 0.8341114449373481, 8.444452033403067, -5.540237425834479, 5.1239578461373, -6.467102471916164, 3.789980906038138, 10.074697538569955, -0.8028735412886698, -0.2546325774200052, -3.5096829954159414, 0.5948417838426812, -5.02697763070713, -3.2858504147167245, -7.747370389444911, -5.997583119746198, -8.5482149870992, 2.703396057550857, 8.109454728342818, -5.181674005805429, 2.3737107883064725, 5.136340974676372, 0.7854174094638083, -2.5471271400279853, -0.2822253347386239, 2.9563128628848747, 7.434683017236084, -3.0462457771732296, -9.724588853687465, 5.452527026726573, 0.8355478243530341, -8.631870241733527, 4.856339383692658, 4.139420788875028, 1.2343321507406977, -3.212034157809522, -3.0130192717002178, 1.3695466470545392, 4.395338678161308, 2.1046573507534028, -3.5504567939050364, 4.082367219101404, -5.449988262576862, -4.7790326541306225, -5.245716050271185, -9.26815935404513, 1.6016900504200444, -1.4247695717261268, 11.314166447785762, 1.938452175066598, 12.549962113739964, -13.008778504459764, 1.932630176301217, 5.698422161758, -2.493423115550914, 1.1508966925400195, -0.4208046380211079, -11.191402883882565, -24.919593358553907, 2.7055849467918063, -3.143988366254363, -1.3779620698258903, -8.735970475325054, -0.6322329794902184, -1.7417289690508886, -7.263372049573638, -14.095070878568777, 0.5721287095154058, 2.253721173932356, -10.314845015107695, -9.517721282821288, -0.32581137139949334, 2.8260077862870485, 1.3723409456474176, 7.03350167613087, -12.007994119409842, -4.587772166750057, 1.495441920969657, -7.762660678617339, -3.3563419011491407, 0.5238036751140482, -13.903529286282929, -4.564211510011686, -13.001634055449426, 1.1755519230559675, 4.893024710024438, -6.632621868875688, 14.287089852336454, -4.05895447988371, -7.324210693672216, 0.017195133069736676, 0.6378960486722247, -10.801259642927102, 5.170689826836565, -3.6666905673068593, -2.1987882575479665, -7.275142629910438, -19.50048894254547, -0.6699948463776584, -14.094982734798418, 2.0382353455262185, 4.620108164203406, 3.363368318022834, 1.7960362564450505, 13.180603508583513, 4.4738125762137635, 14.687004521648497, 3.4904725721301437, -0.7352897919844905, 2.8915094543568163, -11.500056308036585, -13.673996887837506, 2.178426539120877, -1.874724137519201, -6.431580721462496, 2.3215525392337844, -4.40264486046277, 8.97510447649363, -2.3057539538557306, -4.126537161344141, -6.871622162958756, 12.612277558223061, -8.405656991574196, -4.245542665685603, -7.749079794710694, -3.066655463223567, -2.982287042647485, 5.812390575575995, 4.295643364411757, -11.068881331720648, 4.509104539257004, -4.606097587878393, 6.981601254380586, -1.217209688910041, -7.6024258161983855, 0.4387605360776111, 3.3103813512480422, 0.005641793982817167, 2.7245728330354035, -4.973002736751827, 1.2521291483868502, 8.259346525906352, -3.5451471804298915, -7.5840014260688715, -3.069209821888264, -7.2915323951108775, 2.976493742543674, -7.894333000376803, -6.799664119046113, -7.160618295325614, 9.083621008549839, -2.338665487299626, -1.9978440951391492, -9.60932968975175, 1.169042621981016, 7.272814702210701, 0.3793055950081842, 1.6763290869747784, -11.139972005717294, -0.3739307838515069, -2.325828904029651, 11.455650057941886, 5.023865305797824, 0.4281096539648119, -0.11567100782439133, -4.902721552164866, 4.597770877257893, 6.222702706469054, 9.232473701808246, 6.081613050903344, 3.7937221823597276, -1.6863324588622213, -11.252142926178475, 2.7381545580786746, 18.830200634875062, -8.164319417945487, -13.104031677933136, -7.516098109429846, -17.758820096432448, 3.227125965898827, 12.316712016662054, -4.830793752061877, 1.36259736453154, -3.511719113382168, -7.94743973121585, -11.156251608610093, -4.240118439989354, -8.438264203226918, -5.371391697370896, -0.11601367813913543, 3.875557306133074, -1.3889211646857325, -6.605885524657174, 5.9849757789460565, 3.3985054341169034, 3.3100068827428437, -3.299132109313599, -6.309447647716748, 10.511808782438745, -2.638621645301364, 7.513721086208423, 0.016444976049271975, 7.7275633296624715, -5.714047709407012, 3.559975582799509, 2.94219625545705, -1.4216769568703977, 2.111398772422898, 0.7376758210257005, 0.6601534175793569, 2.5095448914444867, 1.0542208916489129, -4.365576667747851, -8.297758659894297, -7.575083804137567, 1.065500950008151, 1.7291814331984932, 8.121550956582457, 10.245235283482655, 3.791030730478684, 4.107758022588734, 1.97303544046079, -1.2034332581930984, 0.48469841185705376, 3.06082900894037, -0.5802678271440148, 3.398280797983265, 6.402186250732758, 4.9211934100458095, 2.9762135934254053, -2.0863611036624246, 5.056599434080068, 6.643640469103045, 12.870619854293144, -3.3496029525915185, 7.870710929916839, 1.4915791980154949, 0.8191862266036791, -7.666638608212429, 7.899068586322514, 3.48964556232301, -11.265975238015631, -0.8065365325589203, 1.7619104563712282, -10.885606004715974, -2.7001807576104744, -10.2566358667768, 1.7358668388940908, 2.94392564801303, -11.304582049637487, -6.92542905398357, 3.8182207299961917, -3.190998089596411, -2.932418908699325, 0.6654263712478873, -4.86481886677083, 4.019785704535678, 2.4830458704719205, -2.948554111824251, 0.3042353139563008, -5.706091128670345, 6.071372010877252, 7.352915935817758, -14.529005716225623, -8.878723490824909, -2.5796251825600702, -4.722739411342512, 2.746094938927261, -4.491098092098882, 0.14213456582250938, 1.809203123663841, -7.367128474279161, 11.431050072816396, -3.5867629655399202, -0.8128697872766028, -7.7000786049125525, -7.365977524104279, 2.2582499642664837, 5.822586772685172, 1.4968331351621729, -4.313651372105369, 8.087225668051898, 2.2714212293696887, 12.966100482913793, 11.259790052189745, 2.896103338578359, 2.377737841564519, -6.692327727228873, 12.156932437237232, 5.664203147670767, -1.578429379091417, 0.742824399489744, 7.692045706790312, 8.24914637864863, -3.4396688482151085, -7.920268940299269, -8.653211283500838, -1.0345905470003975, 9.818734831392039, -8.773528125113108, -1.2119971208296034, 2.389790609014244, -2.6615642412960057, -2.2443871418021746, 1.6549232198123998, -9.547747821245467, -4.984096802460133, -4.581203865950991, -5.5891449360988075, 2.1335752816202485, -14.755890931335378, 2.389050962201018, -2.747108389021394, 0.7988862784877492, 1.9245445453352255, 5.114078713974713, 8.317612541108721, 5.289639590222575, -0.6963191565672634, 6.733023761638132, 3.2823399762172976, 1.453870211521754, 0.3632607404945012, 4.563208918023392, -1.3087175602222307, -8.096497861013088, -10.877164700341913, -5.108999296398068, 1.2542464633155281, -5.344178539762797, 2.1096855332416085, 2.276896755963846, -13.743556685870413, -6.365317591763926, -4.252147765816609, -12.751864435339868, -11.751933304580618, -6.61031085006403, -17.020229097198946, 9.044045260734126, -8.015966340164981, 2.842877015708197, 0.3192915495328037, 7.350362859274981, -6.382699647167591, 0.8438123303234262, -10.749572038928697, -2.007928089524517, -10.014999282503554, 5.648190433033585, 2.502468543242508, 8.136667663241388, -8.392121613446998, -0.9987912285510784, 3.5719309285923235, 6.765970240006867, -8.852193466126806, 1.736338305533523, -1.3762333226910652, 3.626141835804372, -0.5965323888171394, -8.526157893368993, -4.134356308151714, -20.71350691638537, -7.0309142562104405, 1.3717962023454384, -7.004343987469529, -6.535447660619697, -3.37735867755915, 7.628270644441811, -12.050632194369918, -0.2254650473158536, -7.091042321524928, -4.912879066323722, -2.80356730147322, -9.269737925167048, -5.164922558818299, -4.406196124894518, 5.039048688238018, -1.3833516218788333, 1.9431546904869668, 8.198251754358816, 8.770003844063476, 11.645085024154302, -7.263061258541525, 2.2891410369632856, -4.929185195982864, -2.1934554150270484, 5.650590784254049, -4.821940505374064, -2.4716343086264163, 2.004453597703916, 19.486951119735522, 11.477058146062298, 23.661146138055294, 4.526909576118687, -5.859915866273249, -8.988654603024123, -4.884280640124832, -0.19414738217948868, -4.408934426344242, -11.08853443237296, 9.303095501760284, -11.750330042874891, -6.95779579675381, -7.13911277994581, 0.616202521562874, 3.214119557929867, -6.374019161899162, -9.06115396456953, -2.0468833712594314, 2.882287076873742, -7.156104218018152, 1.2017650460217697, -7.246557540773601, -8.662600478168649, -1.9869333803089027, 5.672151779786024, -4.82749525932686, 7.864483918396777, -9.87550631670887, -6.971934926956823, 5.232570674594223, 17.829548768423063, 4.699765674840871, -8.67899298183858, -3.928417762594731, 10.149107029027267, 3.0734605575294265, -3.1818311152468493, 19.097088347849393, 3.1718747617583487, -11.231428829370188, 4.131479862478588, -7.311608353423891, 6.884388170721508, 6.266891278422295, -9.880378002306754, -9.778017877431212, -3.5452604536802563, -3.069687687112351, -2.2464244084282003, -4.109952547686401, -6.648135400842324, 6.198487805967138, 1.2177958719531081, 9.990437672006236, -8.031532542028778, 3.520182830402867, 0.46502753026166044, -6.713485412257878, 1.1485814805522654, -5.623843992628262, -10.949337395516618, -0.3144965249620759, 3.157518570002089, 4.697006426947697, -7.501065448727777, 9.880567347229626, 9.236325502577797, -0.24307292893353627, -14.157591184360122, -6.809065491706066, 0.16151429314188293, 4.558362821706285, 2.8079657814088437, -1.7273455350074074, -2.223600009845489, -6.377071605663682, -2.930499624304598, -1.9500114720670336, 1.4876586772602534, 1.7273131913875048, 2.2767195375150804, 9.517022978724219, -4.120297692460456, 3.863150723518235, -0.9042790295236756, 13.350143815982902, 5.043263410372408, 5.067802541797331, 