{"model_name": "mlp", "model": {"activation": "relu", "hidden_layers": [32, 32]}, "weights": [4.3108964764310915, -7.643502628245687, 10.925287768755057, 0.8005330330061143, 7.602102640323246, -11.226431478692744, 9.731511333912794, -12.200480838421322, -11.909917583500823, -5.973538040753112, -0.6788874181295825, -8.040843418648217, -13.68771968107103, -7.712480212817325, 7.718833056374994, 7.919516655003701, -1.781819935785878, 5.26374252633218, 10.526318118281509, 3.0722837782531593, -14.596073156525929, -2.3750343948002786, 10.927227161579644, -9.900713292673256, 3.9639759100231253, 5.67522401855417, -6.663479931846205, -1.9208940507952517, -4.231985444800815, 12.355979843859094, 5.2323040017128095, -2.2612482401341945, 8.638965111948036, 4.251956132309127, -1.8780195060087717, -10.59385367443761, -21.621907607038644, 7.9674165595182185, -8.195012976271192, 0.6437569896245885, -0.6070150819729255, 3.1967967769059844, -3.2063303885322427, 4.730099503225446, 1.813296113847018, 7.165949799174128, 3.432127824051874, -2.383218250009076, 0.45820306383257814, 0.9509462308850154, -6.730358915920697, 24.023260000441972, -10.401767637173865, 2.483401683726888, 4.043058057660255, -0.4110257605977726, 7.097519442279373, 3.414884463330145, 9.088096215092735, 2.6344929548286595, -5.98984995789599, -0.26590019773068696, 0.5874092078002411, 7.348350019237993, -2.880346725993016, 12.496079946565715, 4.265313117433727, 2.5843269918737857, -5.799564928937863, -2.1425197635489415, 14.131075727439985, 2.8541679295254383, 0.8324890988706417, 15.75638779493958, -11.342534703028429, 8.681607936012462, -2.2226303802261933, -5.639579531458137, 1.4951768446245364, -14.62003846943641, 13.289149159324326, -5.024300183529226, -9.36595342486197, -8.201746180501626, -5.93895369829181, -1.8882382853907722, -10.7662023778896, -3.692239899331951, -5.789911080231889, 2.8102027922729196, -4.289069253611542, 0.9683430015802812, -2.23332767919809, 0.6689100870872791, 6.157529243499553, 2.697406225103534, 9.734339216566914, -1.9137242159963872, -6.310679866444148, -1.7472628644672925, -9.822325268875698, -16.01801268391774, -1.1020720587040185, -0.7877281550387154, 8.497404086885341, 10.195091866889822, -2.943459307716443, -6.208534092716154, -7.250341962971663, -17.120043512241033, -8.84051489986316, -15.992173025242218, -4.53236339297219, 5.336332667727897, -2.9292404763761755, -3.384600836836513, -7.347171103626764, 0.42795281373267446, -4.6872707537326015, -14.73811645087869, -9.456747542201866, -8.914247024899916, 10.34116332248438, 8.265857139919728, 4.095565091238731, 1.126341520612234, -3.362830451920812, -1.308246944061188, 13.800855122674362, 3.798661027474285, 5.48306843545087, 6.576300635178647, -5.618529323921872, 6.178807318216725, -4.64582644080077, -0.43393272873851574, 2.5090861823073873, -1.4365750994638085, 8.275744637840406, -4.617343057758173, -13.419238589809462, 4.136408079100946, 5.101998297605876, 9.916583779025743, 3.2805410432113478, -5.876645980325659, 10.809036618146754, 3.5462264568344746, 0.8146866853040391, 17.861413774498747, -10.041880726051971, -12.90894826268983, 2.1268065520073773, 12.07792697216037, -0.7650343938249311, 3.0507225956636805, -8.581264964914496, -10.254841767950346, 9.831077687565026, 14.720157548077454, -3.147104519124114, 0.43360437297814514, 1.4149962971525185, 3.9414629276002833, 8.023592303647426, 1.8458718288255986, 2.859586814219141, 11.689884521090155, 9.679573639599056, 13.106961254434674, -0.80536445461094, -11.527926694917426, 0.3074522795311505, -1.47267328192782, -9.737444392209483, 4.231126996794219, 15.364326952838057, 0.28134806771458676, -2.094095187321895, 0.8074002096550955, -6.087263058423252, 1.2655789943897144, -5.5895195223122345, 7.178212550472622, -10.971260272676648, -0.9548509270664642, -2.2109739025413986, -2.7696277794827555, 5.145176150234143, 5.891044879609427, 10.557833375045401, 17.7141805678355, -1.1837029840208366, 5.127413037067097, -4.303915153399628, 9.79522136358904, -7.659072995707412, -7.673729774213685, -11.202341574903265, 9.64945196573361, -3.9636240730956382, -4.340133994908774, 4.493223424706873, -7.741073188270234, 7.5640380441818635, 3.892542118709234, -3.861358472034799, 4.998784107403563, 6.108892515361008, 3.5983667784071462, 6.017397628653224, 16.68550413198096, 6.03982306366174, 6.835058775284488, -7.531049686984511, 4.612654472036697, 4.683762771469366, -12.024583309681985, 5.642788646300847, 7.905465267175571, -4.069623308548889, 5.330410877898684, -4.724337681047949, -10.316661544089259, 4.225186997627876, 6.939970602957904, 13.245356187027308, 4.615366935247772, -10.049402608086416, 5.8599009456279925, 16.61149053573726, -1.220590750288858, 3.7735344708506986, 10.264045083239852, 1.0865956383456588, 2.1893754553735487, 9.402047806479628, 2.8728023503136293, -10.138974940581896, 3.3810966543831746, 2.151992247471742, -9.32123711118993, 11.627235990563271, -6.639136472723641, -1.4504886367837453, -8.929413505698975, -11.186689510504754, 5.546574621507288, 13.14264542745188, -1.8697208998008035, -8.410879796858744, 9.007000766001246, -1.1500878422811671, -5.049621830545445, 5.3562461797457415, 5.390471769188947, -14.646544798288657, 8.344679224172443, 14.510882522873446, -7.73908499621192, 5.911352961526101, 9.163507168506964, -3.1202125282696827, 6.370687979059502, -7.815399650273665, 10.209964720917238, -10.36786375508917, -7.538514719111399, 8.550088714734489, 4.808452977833201, 10.809237465415267, 6.90332124648212, -13.194269075194235, 14.938978758157631, 3.2075786609706785, 0.9708753656455756, -3.061157467688184, -4.009845370647039, -1.5429550254848114, 19.329990916985995, -18.830238743858953, 0.3086779687115213, 23.96280904287126, 6.3485963028954195, -12.301757015768073, -0.4386833967848485, -9.172149556163987, 8.569051619669056, -0.9569976731475682, 1.4203550091409114, 3.6388832443974266, -6.527790119769, -2.4025234826545114, -3.126051466831198, -3.906979802732525, 8.96682363462618, -5.187018571126798, -2.5478502705470185, 5.539251242356967, -14.012358409642836, 1.2121427387707124, -1.9849107149921843, -0.7652799212116035, -5.204727941848214, -11.295062651227125, -6.428169922561514, 0.006667336749843912, -6.822773525193178, -7.9103622454232525, 11.337857997932911, 19.474213263569705, -4.92735868332425, 13.354083225030443, 6.1095079313392695, 1.0181995424891839, -9.471047687197537, -14.366158580324845, 3.075827951080919, 6.186398816947279, -24.32458718455921, 3.62553594734232, 8.144983153711847, 2.081304861427521, 17.034446303995484, 3.078040269657066, -5.714067958079848, 14.735725935419042, -14.109707515896634, 3.393018076356023, 3.4934716253850695, 13.93012829492391, -6.6963087108214525, -4.408462822743211, 3.6401681916405906, 3.888967581225005, -1.59507491507709, -3.108643617888746, -0.6646573520375918, 0.06149096530237719, -4.283166534487136, -4.99988887677687, -15.854680193915115, -4.174491666951733, -9.96549759738452, -11.66358681280972, 7.724479868394281, 8.507747748754548, 3.5033622139642846, -0.22967262143299605, 10.26431033441124, -0.5788737923012653, -17.53466853886657, -3.941352663390214, -5.456657866505817, -10.78096564636163, -7.559211607578541, -12.536450878730863, -8.100036471522605, 4.154193689406105, -5.904955718477002, 4.352688325917021, -1.49454586572884, 7.341891534493491, 2.2651498202198397, -1.6511319649901273, 2.8514303186923424, -4.936752679206776, -4.239316439343792, 7.52313507776465, 3.7325781710131545, 9.541841577530354, 14.090176369822084, -1.0260884944501902, 2.093119152269294, -3.0459106024080977, 2.8391150162044276, -8.557961465158993, -2.1214777823204827, -0.11939538219414195, 3.5049514778748674, 16.279737657099812, 0.7943217526488382, 3.6207371192116327, -3.760408045162893, 7.773393897845271, -13.158444203014167, -1.9093628024460279, 5.483981549769932, 1.909055809136991, -7.8999050016278405, -13.046805530685496, 6.994799328345956, -4.42243008467323, 5.853256160301306, 2.1930859895371837, -0.5259426756889962, -5.099887111050645, -6.276548667996414, 8.906983600488452, -0.8444168536332659, -3.0065095200826875, 7.909979259275995, 0.2772405666704131, -4.854415105727202, -11.096078464913614, -12.891093020997019, -5.676327331325263, 11.522902760894922, 0.5351315127024301, 18.594544131535052, 6.132636472527139, 4.254737484967629, -6.214615841384106, 5.551677337390871, -19.282979172262493, 14.98438868598407, 4.706524079364173, 15.196446133857707, 11.921506873192891, -0.8422955506679295, -10.191687552052617, -0.34456647004810526, 9.704636031748137, 3.764503933025372, 17.582274115837794, -9.214669274215128, -12.37698698991351, -2.876496934651416, 11.34041963121016, -4.711942300497299, 6.5864496952085245, 6.720832778986463, 3.247916989365245, 1.2474191395732317, 6.182682573436506, -5.076004589321859, 3.4327921354975963, -6.538909952475723, 7.36649136536583, -6.458716419850768, -18.161915247969525, 15.067813644756676, 4.448249755689117, -10.435040021622939, -17.53004360959669, -8.870051527588059, -8.817580903461755, 6.737307054436534, -0.3689106434867213, -4.226135970077526, 8.41426556078436, -13.098753747274527, -7.625550108996342, 10.979972641175086, -3.3342614726270643, -3.954090664857369, -11.871967219679846, 5.792212801369911, 10.670290773826373, 7.081081814016079, -6.662222851119924, -0.8966538661521484, -0.538912134883131, 5.002141229652627, 5.95761475500119, -3.1952894764907347, 15.94829806372139, -7.614571132384733, -1.2066299732770864, -6.244529715320484, 5.820651081676083, -6.305994156300354, 12.60384250559536, -8.690170929829705, -5.620853803082699, -13.218080902652437, -11.243054517461731, -6.923367020655884, -19.112901410172206, -8.114324956628634, -11.679655898527352, 5.91250991333631, -5.338725201336227, 5.039531333532386, 3.051196177585906, 3.681153880006991, 2.4374676662079287, 7.485372582869484, 9.749514414427319, 2.458797523464827, 0.9511184145451972, 14.682830393992292, 4.040602173839291, 6.910285730409519, -2.901041684288426, -0.7975757371272988, -2.0568229622893726, -0.8738117645808055, 11.371874058992075, -6.313628935119552, -2.4479563275959437, 1.2507750608454233, 12.685076541836, -7.440481058307761, 2.0870641719799043, -7.231225066541285, -4.067194023549583, 11.32425478782204, 2.6451210012468254, -9.607249336547543, -12.276324816650355, 0.5310066751133231, -9.033458042510475, 2.476853298249692, 2.719828047413716, 11.611074064986305, 9.910180413395329, 8.832970342952821, -4.020647965801405, 4.645955083740368, 12.936492260993905, -5.139063469535461, -1.4910373793959009, 9.77031511922471, 0.6188030014996491, 6.424883867886465, 5.567667202469948, -8.748623960209814, 6.089145763388942, -2.206530425268035, 5.0763550886033535, 1.1915581529137893, 12.89962290854839, -13.855326867006571, -3.1522092157807555, -6.280377847173472, -1.3806826516917163, -3.9601397149952384, 12.632282270502417, -2.1295366552631814, 0.3689270238725611, 15.740973862939692, -4.068447492247568, 0.7578232384378959, 0.508041435225354, 5.375251910055955, 6.843076269174827, 9.297381561826876, 3.88186293104049, 3.683435025592724, 8.635191912611392, -3.5222439664155396, 3.3735845837972547, 2.459774908779747, 2.0059747762373483, 3.506904858051953, 5.395401012460719, -0.3318430719314054, -3.2776161466153457, 2.968848192697205, 1.9336685068887722, 0.9989730305380995, 7.166787752759638, -0.9958126529937396, -6.469748633895376, -3.084173351275854, -3.2148485833444402, -11.905449086721907, -8.688136373094089, -12.041347008644633, 2.389405296567104, 3.0363918726983874, 5.76977054154909, 6.253521251154016, -6.490622977983273, -8.70102789257633, 1.7002883500513388, 9.208125468735943, 11.112991671673846, 0.6851166271741352, 5.611214760488486, -0.9201440359496125, -5.55210809464934, 3.635497328060059, 13.193509290602314, -10.912201290923921, 4.2716685055440555, 6.820302071967468, -21.693326021723134, -2.5023674410861805, -4.734493395175578, -1.5859147761403598, 11.262308414274505, 0.6141794530643182, -7.147186735975878, 8.419288862976673, 5.083666530910299, -17.75686819996583, 1.4229574847407083, 0.28279590857491743, -4.03981454807098, 8.827293451740434, 1.860586472422424, 4.387825498787055, -0.0937629418039927, -9.743367043739548, 9.24577714101038, -6.95373212912092, -5.694684643351772, 8.066181883292078, 0.727776537115055, 3.5157776951745023, -0.061323782853657804, -24.38287617494506, -9.488375973213296, 4.03736449591798, 3.5794973763019082, -9.928898668974444, -1.2398838408086794, 24.36158749013741, 16.08251895245456, 15.120263628916753, -2.047458177109986, 1.23266037329766, 1.601959935326951, -4.298182867034258, 11.712282479581805, 0.7992700249698799, -11.738161059646439, 4.466876804732161, -4.0610934227268105, -4.528093737353586, -3.658792070119072, 1.8776061287641994, 6.266530245862078, 3.851371279154237, -12.874476716379531, 7.056965324578597, -12.698065162750979, -7.620562920456764, -6.013030204291463, 14.02482861607718, 0.9510599404882972, -16.933359482029875, 11.280862608881922, -7.575519852835386, -5.8442632016052265, -8.017550627488736, -6.627183911814085, -5.56954917810922, -7.89814605040817, 13.239690591260727, 0.5098688151291373, -3.458139132164451, 11.166669303111368, 1.0482885087353082, 2.2835845421494976, -1.1654732683280673, 0.04615122209169131, 1.2151560632987914, 2.018814368897374, -6.2621023354367376, 1.439582684958476, 7.734670796914024, 3.3717610932323514, 2.6842038212222663, 0.30656310042671775, -12.011379119957057, 10.305583639138925, -4.265968907624698, -4.7298786452871235, -0.4521422518561824, 4.798473090880428, 0.90547196999592, -10.296945783310779, -1.9699828944600914, 7.977708770056055, 0.7470026653158492, -0.39024279118918526, 10.003789144460473, 3.030077516209752, -14.860807574575043, 9.186865415298131, 1.3216459512521648, 2.8694458311215483, 3.2137635162174427, 4.2963438974024895, 13.99025702147128, -8.718655300798629, 8.510025384288703, 5.982997199830252, 6.591661367521467, -13.715013429203418, 5.462860352763348, -13.205221447733665, -18.719402941960492, -7.179360289021272, -3.69167415874921, 3.754375681090335, -6.117953116829742, -5.090521164906206, 6.258362868703456, -0.26197442514986535, -5.255004937621068, -3.615514274008629, -5.6234906344716125, 1.594066764648607, 1.7843311371354527, 1.1433983728691788, -5.3406906561407474, 8.449160859257063, 18.261802550737116, -3.3332370905584696, -9.290109046023895, 10.6735256219783, -3.487301754956098, -1.5990223010699893, -6.734791642866075, -13.759303503575348, -18.44369307704379, 4.289098132375707, -9.68025146847738, 7.216752869834596, 7.341922321400514, 9.101945111073205, 11.958610645660732, 14.450526916994594, -5.652687138883606, 2.628223344241067, 2.3232853585550677, -8.244210330180648, -13.675997945414125, 3.1923096094593997, -16.183703666612043, -2.7426724589605613, 19.504210526313788, -2.132995565040522, 6.266736327745185, 13.272169790579445, -14.478164614908682, 0.1601317126590746, 5.976003485168085, 5.133764681775469, 5.194491029785721, 22.30482683199265, 11.169445479196204, 11.251129830400249, 8.871174805673103, 1.8348866742260141, 8.73587833695904, -7.046148976552854, 6.599487485531717, -1.2870268267702138, -2.8495887309641916, 5.57574004524674, 0.06234381215532342, -3.0969976566182282, -4.400952796640229, -7.14074504407428, -2.0895553229013597, -16.773928183139994, -5.07407008279849, 14.39804842036108, -6.894415698147848, 1.6536995787227808, 7.623190125745307, 7.905504947151311, -4.348398716963962, -9.164797674119848, 13.257140812324874, -9.259297856646771, 4.447659088169342, -20.263335680235915, 7.985625300150882, -4.972805570263767, 1.905348471019741, -13.842942281852137, -0.6601381621007143, -3.8558903931911863, -4.362828499148082, 2.790475171125567, -5.580352621160978, -8.44508056977764, -10.724992856408669, 10.135032534887713, 1.4439059977008495, 9.83724944922966, 5.457657388509205, 4.338657838751189, 10.135381502356836, -0.3532949824110836, 4.957681515359837, 8.751979509390546, -8.376286487579165, 13.8626397513706, 16.258555846920082, -9.506624296647768, 1.178494517692911, 0.972573680308944, 6.793544526769667, 9.861382732803582, 14.439354082843431, -0.5169250578700265, 10.884985062758904, 7.351203293778064, -12.943677750471084, 6.682976411576058, -13.343065663738185, 7.038203233628388, -0.7507005801669243, 13.705935758238105, 11.296880117747659, -2.0045920193067244, -18.44754336357985, 6.700247611022391, -6.719226444519001, 6.261519359989979, -3.332900824569891, -1.7497403999048768, -6.138213893775543, 0.9833995584296882, 4.283600162809072, -14.45197331379099, 18.31784340729397, 3.2084380844882414, 6.8329410378353055, 3.325409552780182, 4.0591404412993075, 18.25450298344412, -8.563077527946106, -2.36453109879164, 1.5483562666501693, -3.06529819456193, 5.011335213897664, 6.971548740753987, 13.082543447734356, 3.0098362531127556, 7.656783041695983, 3.736119285030772, 4.711992619952178, -11.390949718939336, 1.1355094870073499, 9.274626387646933, -5.057508796435783, -7.556485534570394, -8.541176684941016, -8.67776194117993, -10.366715423615679, 12.047715300859545, -3.6515020318285267, 7.186658543667932, -6.505477360565688, -7.499886679559811, 1.7099539293515797, 15.762833580497247, -0.3664603583976367, -9.48033957737675, -0.0894144424384321, 2.483506861326535, 0.32764632730694815, -9.714893071204205, -2.784885467455374, -3.5497172769795635, 9.784352743139351, 4.225244309211373, -3.314127714056574, 9.930062365825695, -1.8970013907641812, -14.63816845192512, -4.460132612248461, 4.582036880357293, -15.541127441301978, 1.3072357856261008, 13.753206223638086, -8.631348703097027, 8.398580806519396, -1.3198603070673023, -7.364774069865798, 17.906207890964396, 5.896654918090958, 1.1647666164897639, -5.540558803104501, 3.02942051129731, 2.6469074342806787, -5.489689726452253, -12.96705211918038, 10.680080643887017, 11.8164086230041, 4.188134776813623, 6.137449628821139, -22.904108637285194, 12.15013284319089, 8.53446640384038, 11.72177559105556, -22.11759224624729, 3.3139328562631007, -10.651244836240615, 10.201878924364532, -3.612115353054351, -1.5947974094610955, 14.09428614352711, -2.0948305710580675, 3.4160266123579297, 10.272954090263585, 7.612058581822472, 8.842438601086574, -5.4457522404408305, 0.12049908683035337, 2.04431218651702, -2.1463577780256577, -1.3416458458812373, 1.1002278111807295, -5.423160349464726, -1.304345915757347, 1.0924436677822633, -3.891234794216145, 6.2011427787256155, 6.075415160880977, 5.740429747900933, 3.3842146045905412, 7.125938349262468, 2.369678715667134, 4.417504799980503, -6.286181149418201, 3.807700126762496, -8.938062377671729, -2.1816701348176144, -3.812833877574156, 3.2669567458706297, 6.598241732611492, -9.02604291391406, -10.079375279480665, 6.172753215265616, -10.91020288027378, 2.0649855987896966, -0.02842603042336589, -6.6984076030296595, 9.738839199825184, 0.7592004245838413, 14.757747319801126, 3.3378377398662917, -7.51856119496801, -8.226794521596963, -8.00562537923295, -4.411562311357206, -6.653509981928035, -3.7125581011613793, -0.23653875443216688, 4.680874493235238, 0.22811483691678522, 9.513220413504555, -11.27906657461033, 2.821809624921051, -1.881682583654451, 4.018932838717126, 14.892564252906919, -13.770705978723475, -1.7658260256830967, -4.405534373795804, -7.430550336975759, -5.1124441112975365, 2.949416104294245, 18.78916694782101, -8.316836597776687, -8.860022426014485, -5.569650181457884, 11.664588742615758, -9.378197824958376, -3.3386200937527915, -3.751909256143101, -1.7722042440986234, -11.535097899723834, -11.088795028421304, -2.9540560259142485, -3.4027880932915946, 8.266911911687538, 8.159212103149308, 9.569607830428447, -10.704803750040167, -3.6306091915225016, 12.0649688993268, -0.8338114893778448, 0.11834475993300436, -0.9065825979045676, 8.52376862750613, 5.443326850793795, 9.281452359153464, 0.5425361087742795, 2.575003113481313, -10.943581616827004, -6.156742192066005, 14.889556700102602, -12.825883177332862, 7.8628265340126635, -16.62537418929905, 7.870985971775883, 3.575703068943873, 2.787523414495147, -2.369902612787791, 8.366254613418556, -3.528491005089579, -6.070465607239132, 9.544749583861734, 8.088793099262944, 11.05017227018857, 9.108721285688436, 2.4325401962608604, -23.923187139116326, -5.914401825818576, 6.790748777794433, 3.8872867258557973, -3.9623578488373883, 2.1501154323238505, -1.90803830096313, 6.641612250162633, -5.46425951009478, -9.386052376501802, -8.94190106711253, -4.1736395647854465, -2.0094123056890023, 3.234413500768625, 2.2022513723983717, 6.563532035446603, 3.474154442415053, 10.077027238570613, -4.971809081471456, -1.6980299889608481, -5.837659449224707, -0.8075988544506972, 3.8006674889405696, 0.535537066414666, 9.570430436633142, -0.31046032547020563, 7.259397921882899, -13.201824732114309, 4.7114075331236105, -2.836920351510069, 15.748679227277298, 9.093081132263846, -0.573307975157276, 0.011555161943967218, 6.244876338014302, 4.099318912684603, 16.22476110338583, 3.5537394135101166, 16.286508658382715, -3.239628021541662, -7.464375695105105, 6.743231525561907, 0.9503743120611605, 17.446356544333533, 1.8744043886882613, 5.417089595663479, 1.989733015414466, -5.699431377885629, 0.40748194268668414, 0.8311422971158646, 6.2749000087050835, 8.515306984823418, -4.145141152378639, -8.777565675023446, 4.971256665415746, 2.5487003070892014, -3.799736804689376, 8.339553185781886, 7.4402585323651405, -1.9857404455168488, 8.726505077888833, -8.3540855154005, 7.029749530829346, 6.05774783485139, -7.183439956581988, -0.7668620882270164, -4.993748707156871, 3.634100917303096, 0.4309502366809447, -0.7839086913340849, 0.42100525871693345, -2.966655283228905, 7.423072875164309, -4.603080024938503, -4.4977135547337665, -2.4377076557753083, -7.957506723837561, -1.9713239793877975, 8.388634113094742, 1.0688944597706498, -10.750125796964815, 16.960412764579402, -12.78879990469712, -9.906234146248668, -0.5848344152136331, -1.97159008837597, 11.51341396629104, -0.7293621113528241, -0.5817211044240354, -15.790030261592829, -3.8486916603063763, 1.2753394189458322, 5.25573698942883, 1.267715910795559, -3.9517741922349723, -3.2461286522932262, -2.1662491082850277, -0.10484361459056385, -2.4829601698873174, 17.09870825017444, -0.8672158192230239, -4.413419945874809, -3.674346784734216, -1.007892695052714, 18.250637427496287, 4.542550240593013, 7.040492742490438, 4.352526025395214, -8.157941725251414, 0.8315447506458226, -2.8780087195615556, -0.3400398363436875, -0.7416674809598018, 16.868070739289895, -3.2810022224248603, -7.697725772542303, -3.6338822518709017, -9.760074939361315, 13.339817791256177, 7.163998197856714, 0.21699201397535584, 19.631768722980016, 7.690328992120018, -4.280419661868596, 0.65966744162311, -15.860099190980087, 1.9129114109139773, 10.89795448676773, 12.354038923934267, 0.42548391516750445, 1.2103658665641777, 1.6525573784236314, 7.538384705603288, -6.365181425300527, -5.800246647687916, -6.220545794595415, 9.05336534757051, 2.6527880052832726, -3.477916681808018, -6.080470520953136, 13.733626283590032, 1.2791884590460236, 1.7987910814032273, -5.42127160712863, 3.7798044395067536, 5.77078080610734, 12.661813135173263, 1.744876217417067, 4.78273005394445, -4.065486066534396, -1.6720697482144482, -8.720042524994877, -14.909138326951469, -0.7392936165971412, 4.863983296766609, 2.8215916734300537, 3.373304754151858, -12.005876963396446, -6.9796327163880285, -0.9851723874297035, -0.993318848839866, -3.2559981733403394, -5.0344566398230315, 17.44861987314333, -7.551877585047314, 3.8486109694272845, -10.573613165675127, 5.303255620699604, 5.7101128034367, -9.63017505101998, -15.923265752517995, 4.982048710583626, 10.460261215240255, -15.066090744181144, -13.78416860987586, 2.4173544468375847, 1.8506985825035103, -5.467956844306641, 1.54374281309376, 1.0889044336862086, 7.4028454644459645, -4.4713665228267825, -2.4375103831177087, -6.629281383137472, 13.899060531752191, -2.274957675662554, 4.133064137257184, -8.922543874943086, -12.51779428626816, -11.401787774385895, 1.3599294751002171, 11.378896419511875, 2.1476318054227868, -14.593036948107725, 4.977543450707318, 14.310829268229908, -24.92333608848671, 13.96942374017373, -3.2889269252521274, 0.6840459185747113, -1.9767352471418829, -1.1709196586967303, -1.0649769022511562, 0.2169234344668669, 6.65551534735603, -9.54803240593149, 2.6469577087073333, 12.893868271062749, -6.448897834363359, -1.0695256690557673, 5.530370478721359, 2.3802073843904057, 1.556450636394666, 2.1253901592033304, 1.6519688518645872, -17.617272560693237, -5.4812795398333645, -6.318856469415993, -4.263137475490284, 7.697621837186063, 1.9906979246427108, -8.501670590716904, -1.435364421460358, 1.6020478404303078, -11.6673506513336, 2.8333062357045824, 0.43106050275737207, 5.62064698560437, 5.991248436471189, 11.941513240946637, -3.015008353464328, 11.186918693426719, -4.62946280524939, -5.141458139429524, -8.387368343381565, 9.090108913807217, 0.1296437514288269, 6.591488964880406, -4.793347239265525, -1.685781741983697, 0.5694778099748357, -12.80324273213793, -6.161059290363011, 12.821840116577238, -5.4251713140426165, -12.311296046108993, 4.109230060171729, -16.833986266950287, -4.139221828331656, 2.5046294129819917, -7.656066154606397, 7.308376899848727, -0.33186115254737797, 4.096894885844962, -1.8420186450264235, 17.566683136144903, -5.262138733438519, 6.721628176075339, 4.050476089804876, 13.432570403755783, -19.187055825845782, -0.9590533114607451, 18.337748331744383, -11.054084474787716, 1.2595003528648208, 3.2769807190953295, -7.812282957395068, 12.021595290887536, -5.210376854410353, 17.86039572210368, 5.536134433809541, 16.899689785353733, 2.718703117113014, 8.684238784450974, -5.549199823686033, 2.983538298400772, 8.15855368026502, -12.559317966038114, -8.617746029215471, -7.065639800939948, -5.50240738873833, -8.227355915076437, -4.5096561692508415, -10.540675256345454, 3.7304303459136454, 1.003414348274945, -9.17891576012815, -3.8900829658926854, 12.618066144823052, -0.9172327229376752, -9.835457906326608, 17.610841838655887, -10.35704030782146, 9.508917851286908, 5.855725592900162, 20.153302378954432, -1.6148036686780904, -0.07363596887802432, -10.469178945784625, -3.6139155391528597, -8.454360020870084, 4.9387618075047035, 2.4846465687822126, 12.909375535712442, -0.3865749968300489, 20.044990727269123, -1.9989815027035907, 9.992223267531855, 0.6457020272278777, -4.2267144352436645, -3.241770962441316, -2.514996156677232, 2.2787770920281782, -3.3417001991638142, 3.222315882994603, -7.1678378304134425, 7.174113075387929, -4.097136388613128, -6.8403306249009805, 14.263844164860846, 0.09365994153672319, 1.570359446029818, -3.7904202952142048, -3.1562158690448254, -12.362197253235854, 5.900399338973228, -3.98759398094001, -9.147997547790132, 10.878533817310586, -8.448080878011723, -0.7533485339107905, -5.284352822099802, 3.7668182914682538, -0.0873067634435919, -8.058046850656048, -1.9712031708059348, -10.045308276105988, -10.971091782026233, 4.879375924871436, -1.1935373829797742, 4.578783180410795, -21.547539956039223, 0.7063315678282504, 0.42134174959846316, 1.4295870522240661, -3.1639662407069613, 12.500607330981941, -11.895337926540723, 1.2050794663164268, -0.9458983080305918, -0.06072057565967817, -6.096179889221718, 17.219138091124826, 8.147115863073566, -13.693804714425683, -5.9068410987738895, 12.21100620903679, -2.7099464018093666, 2.8799313971706724, -4.258865964989013, -7.590193274473819, 7.098348456737028, -17.14243921449111, -3.470626251291796, -1.638904784647708, -6.480736407071932, -7.439452123064175, -3.26427837616217, -3.7363104663975726, 0.6390300062321198, -14.54473992208706, -12.740277959902588, -2.059390914428139, -2.141675648688454, -12.500540224823457, 10.80408463957843, -2.786228893224036, 1.4262541576070793, -4.338603804151109, -8.942616169772034, 4.437870637821431, 14.795122843031448, -8.555535634646716, -2.6530705466088946, 0.8853520205538937, -2.9741950703139994, -3.452079531069265, -6.715713069763241, -1.157054248114831, 6.034170921668433, 19.815177989515778, 2.8369682539208347, -0.8410947434964187, 3.1902217281614726, 5.023673387475071, 5.044749880918885, -4.570912963728886, -10.32449154680068, 7.74577874916263, -4.246339993071597, 3.9657703764559473, 2.9171881191530504, -8.04719472186731, -0.5482467471141019, -11.90821623687142, -5.441288326231047, 2.212139935048147, -0.42872409313216014, -8.345111040903348, -0.17380692335190995, 4.034716036872514, -0.5295072186338291, -8.459903427136572, 5.834976357431156, -8.176708036071256, -3.2225698266576064, 12.597011557697279, -0.06850469210263177, 2.2962590624852464, 3.91716012980844, 2.949889683392522, 11.52719823284316, -1.932542665673555, 4.775457798663867, -15.055509172065145, 1.6986794327241337, -4.789133369650371, 6.484175044496853, -1.8303345762918193, -1.7780864053788508, 2.086150393323657, 5.269771847630231, 8.931228085602536, -10.407311896832992, 10.212211769833033, 3.5735733322418337, 1.272787370489071, -14.727877462816947, -3.9098728831000806, 9.571106196020553, 4.514638859440877, 5.890857041671595, 10.600093758638453, -0.05264492829127432, -1.5511829312780547, 0.5892745125543162, 3.7728394878984486, 2.3026806753169193, 4.211148547225804, -3.8673494452120494, -13.777487498958465, 2.1330951658511252, -9.461281783721054, 7.228824292593287, -5.325757083180495, -0.8214059179775876, -3.1095694524417503, -24.787596357927793, 5.6474921348187594, -7.274215514849793, -5.727460345784915, -7.490843914408985, 6.5880610600498795, 2.5755562708907296, 0.6090554876034127, 14.164719327900974, 4.2096633997946835, -2.294094968821603, 10.081106955317162, 1.0543668558557557, -5.936236279386585, -2.1749853895776865, 1.4279102164651696, 3.8767463324010185, 1.3054566639325187, -3.780099568737224, 1.7393134906076093, 1.8814030838359355, 1.5818985039620959, -6.553013202290099, 0.0270886232587072, 1.0888642890950497, -15.941539568247755, 12.043508926624959, 7.966066895022797, -20.904721279729134, 5.784024466318601, -8.157838347666006, 4.670607707578189, 9.446865901696341, 2.085142333858288, -4.512425864878687, 3.6345232837433747, -2.5118167886045795, 0.1860734308266827, 16.45846966272869, -20.37158518880385, -0.504248469590244, 20.269738934359538, 8.564182260736871, 7.9818009251106705, -11.58768534318682, -3.8597602816100895, 6.423977181292376, 4.921179219275508, 9.556641339656533, 1.7196004335138766, -2.6040198297236126, -12.10722586809043, -2.8282248722862984, -3.9129289134540715, 7.974388386798755, 3.1281245047410984, -4.956514041023225, 1.354626218154726, -9.737444715589334, 0.47256515361763973, 1.515777425676133, 3.8909383189826547, -18.58402933837301, -6.155132233107934, 0.6856068255530848, 31.03403616563919, 3.983244002551066, 1.8455708912959286, -5.999559148042308, 9.19201511878915, -1.897067078037555, -4.86079720266105, -7.047181427000549, 6.789708828750089, 2.2787753727476905, 5.716601168827474, -6.170604697123312, 3.3536418861806117, -17.86368998401957, 3.9686348411389933, -1.3166330507396227, -2.5030136741139257, 7.821493261683105, 9.08342169674112, -1.4294114342701727, -0.41253750655713445, -4.748416220568526, 0.8657241558922452, -3.6196420531676683, 8.205082877961305, -2.024047719534002, -1.613663667052823, 2.0624335439880443, -8.453391690684056, -3.9023153026016475, -4.303281206280031, 3.625565929339267, 1.3647230058243642, 5.256327229411119, -6.907887739843748, -10.798684024815834, 6.529043226846656, -4.026515762636751, -10.344261501157888, 17.302359329503705, 2.9970276972134666, 7.9958385686371845, 2.94575489474602, -0.003870910083832113, 4.895046738756111, 0.6584610178191386, -3.8095938940186582, 0.5371239049392554, 9.718666875006074, -8.03083981764797, -6.933244076765405, 1.0753571842349692, -1.633123018227868, -10.717482550112882, -5.0938469338076375, 3.4148394301089473, -5.415231403809771, 0.2756720824758818, 6.57928241935678, 6.993258305085295, 10.554624309971754, -12.589183944497826, 10.744749501546673, 5.838527843010954, -1.2986518268962128, 6.534354910898503, 13.098909898139313, -12.17990199544039, -5.32421159367842, 6.318413485556318, 3.6927833983678866, -5.880508864521319, -12.369562027548808, 7.488460355319248, -8.031438355035636, 6.139945735321051, 13.16926073658883, 1.8637811825763786, 5.574601354520451, -5.913601982557706, 2.720750635309815, -4.464607655137274, 0.6161554519255896, 4.146921299885257, 12.09532762296202, 19.301954849315635, -6.475274040687974, 0.5980419140240628, 5.4779759809671065, -0.21762211901207595, 4.744610804346443, 0.03123797574408882, 2.3376067594161927, -1.6050847418281677, 7.802848475917177, -13.803556178894953, 5.549425647891632, -4.238000082738006, -4.879158250934871, 3.6221696597405924, 7.703782540102783, -8.259401162197795, -2.5003038341284514, 2.6661343151486294, -11.923451228838681, -13.603789229598984, -7.1776227561038715, -6.6066696084495895, -4.667111814493448, 12.931917644957405, 3.24774512803645, 1.0750418869802878, -5.572484905662051, 6.240344113540173, -0.41246266095904355, 2.0005924010038454, -2.4647815036996406, 6.197509586081431, -1.2704308336553274, -3.45955918189203, -6.1617131516951655, -1.30105662599243, -7.581062617882688, 1.7240200552967353, 8.370727542235919, 6.593040222268144, -16.344775591436708, 7.112558405611953, -3.7068319636160854, 4.875436055496548, 0.5725394548765886, -0.2269871971699815, -13.661626439449606, -7.624315711288202, -2.58381110819382, 4.982494717947647, 3.591144839155683, -2.746397833808738, -10.224692633883468, -5.544821194652055, 25.120266936905228, 10.349746720967818, 13.313449277375947, 1.0993581351189496, -4.0567208265998245, 5.749281106760057, -0.4416620860087408, 1.829671904727649, -12.317672615291128, -0.9742696347965097, -10.967149107327678, -2.4710160167614488, -3.5081908103964983, -8.827625390165668, 2.571304717704489, -1.7870951582590648, 6.00933805485602, -2.7966192709757114, -13.535625067423044, 10.978934047204064, -0.10505542327413608, -3.381565715483191, 2.1784282086376905, 3.854402586099502, 5.211540346830828, -5.051333483051262, 3.875825921314666, 6.627215880239298, 1.1606331686339013, 6.936139874091436, -0.7630544416118856, -2.033392161048719, 1.6982536058904623, 1.6381129417621172, 10.821328613971922, -0.7527335474479259, -12.727751105424625, 3.8106228585744746, 7.783039017361504, 2.78143539582272, 6.361973281504517, -13.622898584246784, -5.178854082311794, -0.24538906636790658, -7.18091976009118, -1.0859837399313443, -9.018150960869496, 2.834581706491027, 14.327520072866333, 3.234033762333812, -2.8114052075885163, -8.17890024864639, -5.347472623373147, 13.735151881575678, 2.0461534680647935, -3.1093371601550546, 2.143761456180487, -7.401697390704009, -3.2603045615045105, -16.53160229216347, -3.667833141699223, 4.6023053456024305, -18.679140810525958, 0.5748646524235053, 7.116802359209412, 2.3939415556095685, -0.2627348132582188, -6.929485262521416, 11.365846563110084, -11.549000875122212, -0.7487358199208907, -4.066455780207878, -8.110065614216474, -9.891648640876573, 0.27151934466217564, 8.369832170519024, 1.9847241238304902, 7.651651094852825, -2.0484008782535703, -2.193357312201097, -11.516559567290617, 2.566599642870303, 10.388903318788676, -0.2607368718099945, -1.6781885219885821, 3.76476661823162, -2.982718994476612, 3.1589910729619612, -6.818599641846503, -6.834403404404548, -14.845996649033609, -4.678757950341468, 2.3337030626149033, -2.421187395952096, 10.484788627276668, -12.32027629160418, 8.708684539887416, -4.0573046858637, 5.06419230823089, 11.609761382485914, 3.172061003419649, 0.46559042182432764, 9.094054014211151, -10.682424341294203, 4.212097861166413, -4.29305954569448, 2.7390450023183766, 0.8847124668856275, -3.882152052624403, 1.7577762190625803, -1.3340512381243677, 2.009121135971941, 5.20158343367637, 11.865021673214727, 3.014321838849861, 1.2732553993525075, -8.19452877845266, -1.039815931582693, -9.810951866982457, -11.37538295082158, 7.424841088752688, 2.885534013002188, 9.9787465858309, 9.326303948076593, -6.824377711554927, -11.331317553652916, 1.40994075818573, 2.015187796657086, 0.8421558846045648, -7.933107051360224, 1.2483657273534254, 9.953746856133215, -1.258318397293097, 8.65480604523649, 10.057238679780808, -7.803667261882722, 1.9212812470099805, 2.128820680456064, -2.485974348644392, 10.45907722238412, 10.506688927791528, -0.16738178578069696, 20.006301073284188, -5.790848573082972, -4.4901893721465465, 10.814732493417253, 16.960842962664724, 11.245258694562807, 0.6095833894303567, 6.410226069131819, 0.7950796386066277, -6.940122823851421, 2.2968045721286687, -0.2652111717008512, -1.417344229087291, -10.58729955587684, 5.245390241959071, -9.527801256861956, 15.369015173770888, 10.826734917174175, -12.885424279938492, -0.25094721802880027, 8.67315838452426, -9.152688947166935, 17.27938225127053, -1.7999423230100455, -6.313086472460926, -5.25669071790933, -4.18849790835057, -2.616771167286798, 14.587655683199426, 2.9765014202139133, 2.6879788802609204, 15.658323208314796, 2.403826588390246, 6.104639012154375, -15.956252327329638, -3.806792382786621, -12.305410980160692, -7.487882023448573, 7.293258349492425, -7.643707441590915, 16.368625371503448, -5.386761617001091, 12.064578228764473, 9.44074556456539, 15.56049291063221, 8.64702917442615, 0.6949766810884896, -8.221797429565948, -7.349037712266419, 0.5517552380691995, -6.445768029829091, -0.5024188799531959, 6.168012372752879, 3.801033472475656, -0.7181079498993741, 0.9541247327890789, -11.488864679438848, -0.8513757670571144, 1.1294477790990352, 10.688596365786166, -6.3643386748174775, -1.2681303612419257, 0.9371145043455031, -4.252792886164524, -13.721349245839365, 0.2720554512549245, 3.567724516391554, 1.3686243523530044, -4.966857171094662, -9.19691616186467, 9.320171514643581, 10.870097895321878, 1.2563109650303794, -11.160732038304813, 3.2652121870694897, -8.1184508881026, -1.1423972357125853, -13.28813907234027, -8.932266264275778, 13.786607376283897, -3.220305213170956, -8.456133633840754, -10.981061133892176, -10.1900525484705, -3.544730335023427, -11.928527226654394, 14.40611998610742, 2.5295901128987355, -19.349194586547714, 1.2285420670461025, -8.181119463940224, -6.289320306731411, -13.143951772185314, 8.25506227778442, -4.540582255565395, -20.30754517430379, 5.456155426709482, 9.191523934467778, -1.1464764710171331, 16.697858651684538, 2.284130215657002, -0.05578267830244088, -10.754416468305193, 3.5940099826682355, 7.981610213238357, -1.3116232816987055, 5.932573433457553, 4.365995360816245, -10.79976168912364, 5.5299206667752445, -6.685322319885075, 3.7505090030794332, -2.0744233328117563, 12.427232156535803, -9.969144725254953, -10.6087690596085, -10.415781311694527, -1.8144194690758197, 7.42182017836225, -1.1153882048373336, 6.711816458322823, 9.983100334639467, 9.163465929572858, 1.328710585420033, 11.619758859483637, 1.6027695216198816, 3.43199534477625, 1.8631932676351493, 9.91056569179211, -0.6747188443458911, 4.12376850523343, -2.1033336786400687, 1.0286255548616778, -4.921493444287799, 1.2779790877421986, -13.784367947796135, -9.895225178357737, 2.6676610335014965, 6.515948672372805, -6.292569291963485, 3.41897332274212, 0.3244538358917016, 1.6950886995877488, 2.9291730553668183, -1.5768790674890354, 4.13884434082492, 5.669970381366256, -10.137249784680748, -2.5425853068355986, 16.747721780814015, -5.26172114074041, -15.756890288060303, 6.329517752758536, 5.432200796274176, 1.1686061652783346, -2.3663801781687432, 16.952235460469137, 12.905496993627871, -0.9743123213111406, 14.856252636988344, -2.9656147600376146, -6.034237805172271, 15.663801107512855, 1.1326068133012552, 9.85660088452407, -1.5367580726752026, 9.977374868096486, 4.644619365302227, 19.855246018954272, 0.8253663540584291, 5.303527437708063, -4.9389978533764145, 7.424621432571969, 24.841947027314657, 14.380562553866037, -6.8545008267461425, 0.298779163640303, 7.425293946792775, 20.186489726249736, 1.4763091941594162, -8.82963169543667, -2.9003863896248285, -5.855921895235625, -2.3633687784904813, -7.560020415896273, -4.690353523298047, 5.148751082841019, -4.267232467611824, -1.2217001263034069, 2.0301233971790538, -5.59348768549793, 0.8591898956381462, -7.688420937987882, 0.6567242751185404, -9.803278073500753, 10.945978916086506, -0.9424086369949652, -5.244685474953422, -2.008190846843499, 4.906590219285672, 1.5126831714545235, -10.843121364856502, 2.359375429323473, -2.192809688834069, 7.892775035664236, 15.162051068677766, 3.8291072102939365, -12.635016704625167, -0.7518119743199942, -3.545042871868315, -8.621156078633097, 8.810716635594845, 6.967230511533284, -6.491711334921186, 16.585567272298377, 5.370470532895502, 3.3153700833810054, -4.938840212516614, 17.34325888194243, 0.05503800997687186, 15.813741607747279, -0.8420626280475862, 13.444634434243765, 6.195957073847536, 3.518303098041845, -6.412120094190926, -4.406227767393044, -7.786139378058555, -3.8588000829219866, 7.890075986208928, 4.291840291684999, -12.368385621749109, 4.420382685836554, -1.2498709707450315, -2.0615304426559815, -12.903671931935493, 0.6333438738222236, -9.78636981875614, 5.43621923560357, -10.294029351392403, 2.7956882114173576, 8.372748677254114, 16.539304659580775, -4.337285885380641, -7.141316274125422, -7.946083529129502, -8.653659935320459, -3.548287160874107, 12.702369878240422, 2.699673818395782, 9.407275719969169, 25.639643027849846, 2.3238106390682938, -7.298173955542185, -5.510624345809761, -12.929458939741297, -0.8817273439539788, 0.596288244328167, 2.9688286874066443, 1.469487848873705, 1.2876482139895133, 1.320090600304146, -10.679146968949922, 3.961430426221102, -1.3391702682327458, 16.669825896509035, 0.8761549931647621, 4.230427606365994, -0.7577769574129184, 2.976300071463932, 5.540783253505365, 0.055252708598130584, -7.4305345617352, 11.073724065888776, 2.936681352799487, 7.442993963191619, -8.117509317862256, 9.868718202673026, 0.5463205013224998, 0.3172820741799553, -3.297927222273332, -4.776090205567086, -2.914471119308834, -8.24222855368712, -10.19872302211996, 4.682687231766462, -7.790304648106052, -6.517579483760445, 11.471633593681338, 2.3519521113275017, 3.7624987898966373, 15.919347054706478, -9.003209930424138, -2.649673066289203, -5.872949562372086, 9.01926522144282, 7.597213910630585, 2.137963181637107, -2.063159807041724, 6.886363603196122, -3.7776234553592234, 4.083308672380754, -0.4924233087332617, -6.971352867854133, -15.888768899102464, 12.840407173283468, -8.564692769095242, 1.7338559787910266, -12.59000834123411, -10.631769259851819, -6.895168733642327, 10.62788090642594, 0.45376019447504573, -7.54398295638509, -1.6789077185092693, -0.3321071903479347, 10.741393645740793, 4.1459307078790335, 2.760780572759578, -0.8765601703494543, -2.7693984459409595, 1.890105710573154, 1.5652177035611232, 3.128051673874287, -7.384509056433967, -1.0884968427891095, 2.8148269339335323, 18.133666125491388, 1.495300083243852, 4.335477991201633, -1.1887424469443593, 9.563253053914089, 11.87778237462994, -3.120691593142123, 3.921475160991691, 0.305947177463051, 6.103140908698966, -12.84908205732224, -0.9151427323683996, -2.6587484715982437, -1.4041951496939105, -6.930213665674961, -10.44931519560111, -1.2598092876353744, 5.291464976053874, -6.199448509439001, 7.014561665995049, -20.17864550592612, 11.601595912397975, -5.457665096563463, 5.852613746670663, 7.461239347056811, -10.173951257020015, -9.942815396183699, -10.644493594154564, -11.055571756507096, -10.252170408372951, -8.01784880595794, 10.433443123725999, 0.13606865762189044, -13.840229287560211, -10.108771162561716, 7.617492846530325, 1.74659202825142, -6.9759678806829015, -0.6621925776941207, -8.755231694414153, -3.179724961291413, 1.0787030706792988, -12.800743906150528, -1.7927032476933313, -3.2642928457128666, 4.165623640953994, -3.031967791448752, 4.080957096131051, 13.261882010931977, 6.203828122668194, 2.570434103862193, 1.428267028299123, 13.086100537545622, 14.410138813939886, 5.110074400987131, 3.3511326259044965, 12.945525210232256, 5.714814303337272, 4.12961320768137, -9.26037757462665, 3.4289248661197207, -2.59189140673158, 13.61821067558505, 5.943480190991135, 9.666301693125796, 6.716883046129367, 9.625955832156096, 10.563531059392094, 8.989205396482246, 3.3535092245526483, 7.792589540934654, 0.5075959689838675, 7.543291893721117, -1.6363012576869433, 10.798452364614665, -0.2963041108093343, 2.8323569215367352, -14.138475715158037, 6.691152804384044, -1.6574187383458276, -6.5116405674341316, 8.002111309104698, -9.274402560647976, -4.097062218798571, -0.738494916221967, -1.3551922181410665, 5.871764030010931, 10.069297571059046, -1.319872023192532, 7.167541937080212, -12.334325341172397, -9.259513732579649, 0.8472133665065686, -6.9260329161342336, -3.498519458128581, 2.5622225455939613, 9.306769734644947, -9.049131371041424, 12.470515536659153, -1.5756214616849284, -17.76544056596948, -11.680768110262166, 6.130374246738918, 2.7692699598566817, 0.9128664790480803, -13.26754264587929, -3.412000828020486, 10.813149889277916, -0.6991442379567145, -10.324713452769807, 11.100753489269666, 6.9019719165171285, -10.146938240630183, -4.3722276799044515, 4.31381110811648, 0.0676569580210693, -0.6487528544352728, 20.914363623624673, -2.9177942998653403, -6.525550050459969, -9.388151952446577, 1.2227623386939956, -5.787386572711382, -10.600128259205569, 4.769707288528756, 14.284088328841117, -6.913302724155317, 0.8512115104312292, -4.1770754634473795, -2.308195697762385, -0.0808428296223036, -0.18751166189947238, 14.342167120367705, 0.38875670489945524, -1.779446648798038, 0.23489004682629366, 5.191275614645744, 1.9983277425292596, 1.0878709776082862, -2.739769745216777, -10.795433379527498, -3.129501696251044, 7.9230749388275905, -5.230370816614335, -3.5142402000615625, -0.38378284287180064, 3.529110385574337, 3.068967762521206, -0.9638853612149925, -9.507290241911308, -4.874361705933168, 0.1752357158715204, -5.5213437697669585, 5.989043523224982, -5.523256470256221, 2.6359493028006455, 6.366488726398223, 19.327143980114993, -9.558020184292598, -2.958306775737365, 1.6270706284990901, -8.192391249599309, -7.01560519425297, 0.25404127164391216, 8.987730613008722, 0.5403549362476501, 3.704752157948379, 13.549111959765584, 0.2302000399402584, -6.381204545839889, 5.1475160669181745, -7.736806013464329, -12.1832223876204, -3.827077483506713, -12.886531683183943, -7.657219118674253, -9.330627018993896, 8.164047088574472, -2.7275878351424505, -0.4440019052200969, -11.679243328201762, -14.004392926009853, -4.596396925268551, -1.410582498551325, -4.280149885409518, -5.077420968854301, 12.499483527029128, -5.827966655026005, -7.83183273618393, -3.2270106328067856, -5.20254024655444, 15.944007546664826, 0.6058253757156606, -10.46418750073473, 3.984488126956122, -5.728465095553829, 13.652257052555258, -0.2599259525101618, 14.928959477980689, -7.0567605782000795, -0.3680972643804606, -0.8020988535297469, 11.42173469671791, -1.6148822043633895, 17.327119983871643, 0.6072162028854858, 10.602102619982245, -1.949923478767602, -9.419890011626874, 2.212134750026321, -3.0958944774948693, 4.948196293172396, 3.1721909679011224, -3.942377577050411, -0.6772079211779236, -21.03622813753989, 13.648044675530315, -12.087362889161877, 2.4033330135754154, -1.8344480613209522, -0.6916516871370596, 7.9337118802726145, 4.368273736860869, 7.603632588737979, -2.81283792726198, 2.0023315548411493, -11.314781978979083, -2.21142709061813, 14.937495122766926, 1.4496996387667804, 8.66758698700629, -3.311677780247469, 7.678768106245039, 7.773574751077227, 2.8639629182023647, 0.7806147757979708, -4.873022956462583, -14.71326540920212, 3.905341430628769, 0.5567933118542793, 17.218303355402096, 6.180943980564003, 5.932572999112325, -0.7644870578717874, 15.504078972247102, 5.066143806753603, -2.6853961738967262, -4.142316192298334, 15.262085531099618, -2.2016458108472823, -0.3283397573350218, 11.656085775717507, 5.981889276160707, -1.2212036668717339, 0.1229331917676669, -2.8545482453283326, 3.6878474039588482, -10.465456946657671, -3.845401282666548, -14.692137661331206, 15.849507322680045, 1.0354989238600294, -6.239648236076004, -13.817976985412615, 1.1273234666824363, -11.643156788969366, 7.153933341074807, 8.611423054745229, -1.3161017661463708, -0.9376741148814783, 5.738936820084362, -10.556303124212393, -12.484150189089277, -2.810811676152029, 16.747808267662563, 10.247509071667526, -4.6291052904706795, 3.372250375507947, -3.553717451726455, 25.35316201559745, -21.786303232793276, 9.09598478004053, 6.9525822451199595, 3.389727955957892, 14.0572323138261, -0.5260018064995128, -2.9070731825879808, -17.177505109504633, 13.362086031384168, -8.2712458435782, 11.14951381298649, 12.811674728127418, -0.6565505479828889, 0.9859957558145549, -9.522328940261971, -8.16455753284542, 4.557530704528538, 5.152068934567352, -10.89222445856004, -1.4381701248241896, 15.983999274164878, -0.3491334484541114, -2.1563944530375934, -4.2598718962207816, -9.486964498506076, 9.724167107325595, 12.865074600788606, -7.567019115263243, 20.66904691371506, -5.141878059828021, -2.8494444554761804, 4.973566626684216, 3.940297449475729, 6.5610509498771625, -10.443618898319487, 3.1842375790408, 16.170618513932475, 10.479060299023468, 0.7806611827121642, -7.219143408141646, -4.5080991811786175, 15.754582977730456, -0.24369916817739767, -13.630919062967095, -3.4843652807198375, 3.5574846356468757, 4.358553009132241, 6.459643223557434, 5.864747964280262, 11.112649170016063, 1.6446949872901184, -10.694305956189371, 13.550345483739058, -6.998863410372525, 0.5181201010543602, 11.743519049049038, 5.796165453382215, -5.894372257275286, -3.056798538938098, 7.843390338412894, 4.248373666105452, 8.539733515300666, -12.396035820511901, -4.626163397830056, 6.200153398927136, -6.900358790118377, 5.131809779558508, 28.48080937853152, -3.3868701439917155, 9.081281828868166, 0.6634512254014902, 1.2895825919351234, -1.5251534296685483, -2.415945386447425, 10.516096823957078, -5.188282631640793, -5.318931721953907, -10.39539292121618, 1.9714900901791128, -1.0473421635704712, -1.4399896595859498, -1.866975848700538, 14.348754387788036, -11.09194954631799, -10.171225239572314, 3.2161056042386345, 5.762970568815573, -3.0674604211557486, 5.4409566502767275, 10.926651525605527, 13.902007629205352, -29.518136522891332, 8.901268473649706, 6.466785745021869, -2.9182984424396654, -6.508456801054233, 7.689230026070351, -2.5695836636645746, 2.708159870014834, -6.535556342595339, 0.5649435185403324, -8.061165653325236, 2.3764088129963614, -7.935828937662032, -0.9835193036097775, -12.811117722047717, 3.946911839049271, 8.5088879423108, -8.559130524892677, -5.707636851645362, 6.599189377763514, 4.1699329978910935, -2.6329462201763945, 5.23986190727005, -0.22572898139859232, 8.882568938063658, 5.322760792613562, 2.9341471770605865, -3.188688773245819, -1.3753301959709572, -7.5378265684334025, -4.5216079653426275, -4.654792924022694, 0.4924894110474406, -16.03741771974914, 11.580290183097187, -5.729762603472134, -0.5430289772866537, -2.6575736293702645, 1.1816281244371485, 2.82525974979451, 0.695235065601765, -7.152985376251651, -4.861926069453696, -11.163729661396216, 8.114274478286747, -2.4952411520715287, 2.803045737667836, -2.2958331532893315, -1.0779866451758862, -4.833644211331726, -1.8605494164482592, 1.066958272914784, -2.3579996132254664, 9.176255436703272, 9.32629138796095, -7.249049977187344, 14.775102818913444, 8.57517332805002, -5.062817088844154, -1.325965647954103, 9.501929034357088, -11.52562832624171, 3.9918529058038, 2.511618814008987, -0.6435576488247348, -14.411804597611493, -0.7974642579534448, 11.246942269208118, 14.195010890375631, -6.4632573040344745, 9.671742573219047, 1.895323368792602, -3.8205932225422172, 1.541210884179486, -7.745448435111684, 10.615980407749424, 14.015673057926827, 1.0773102203655098, 4.035113206005866, 4.747962058939751, -8.840854118470277, 3.5943887491459616, -1.840700679682497, -9.687433192572714, -6.574768668754823, -10.75650722713182, -8.734101411449544, 11.758911665530091, 2.084167588414573, 0.3877696413333297, 0.4395648008198749, 5.307702549605383, -11.818639655199506, 3.6403715484994965, 0.7393394733804373, 7.632189059509716, 11.732467785469607, 5.99115265346996, 1.0453633172591341, 10.363982413626907, -10.372711625983003, -4.508276872007886, 5.390865320178069, 4.274963137088097, -7.109061578740578, 4.9852739754477255, 0.6814060374626252, -3.6776764774176645, 7.1529884952027345, 6.015028773268648, 9.366027568944261, 3.793106876613825, -1.8420441541580566, 2.011040967245131, 1.5028648183608098, -13.371142106002575, 14.496379118627797, -1.2152219000038373, -18.40026976147048, 14.743812926123553, -4.204558251184674, 9.110137970597512, 10.985285596625424, 1.304430187910023, -0.17854688646478897, 4.710541222904491, -3.252686726358836, -1.8757448992868437, -11.999944900055473, -0.5939724726207855, 4.736174583246035, -4.370739240511786, 5.609138549107992, 8.47989582778218, -1.908997051362508, 1.343100366674518, -4.137918151398706, -1.3261015669150873, -21.00975607849334, -0.6006392928183198, -6.340243400805141, -13.262161250683574, -0.7600102428918054, 8.738787919806365, -3.362109986710789, 4.451441133647313, 0.7942271895865454, 5.036095993973365, 0.010388725482086358, 9.701608065531753, -12.606701110370137, -5.265176162950003, -8.95703005328787, -5.551170590174127, -9.414970930751405, -9.837678040498387, -5.802018831282567, 5.4596305855981555, -0.26859768552694874, -2.6497669412191094, 4.741272677411548, 6.1199966890186674, 1.355962427937531, -5.860234501425112, 1.343000628464519, -4.689211683457115, 4.994991604998394, 2.674694121831393, 1.3346347381310473, 5.705671837232518, -0.5531884424563689, -2.6452793120519558, -6.797020307586728, -4.388297229898211, -1.5001541869603492, -13.19882093190622, 5.189772945750716, 13.230688727342269, 2.3372758177138055, 15.035953309198591, 6.700730577049196, -3.012004416604247, 6.6119480257784815, 7.534309758715374, 8.173773314450782, -2.5259891839697923, 12.366849291077232, 3.1725313088913993, 10.367781181573665, -6.223757016210353, 7.0859715469415, -6.112945963730983, -7.207808514179771, 5.434947222456809, -3.458783663932052, -12.254224225895431, 5.883560390539294, 14.174047400002868, 2.3552082947383095, -5.696946227215005, -10.83912661798314, -11.989228499200312, -9.81734918317892, -9.598229452079865, -0.9999824260255166, 7.120172854764448, -7.355652926520795, -12.55955036221466, -5.424153169411791, -3.789550974866134, -5.310672864189894, 9.507920605230082, 6.7242022933054635, 0.6591589272056961, -12.604307481809276, -2.994909329979836, -7.391750147702562, -9.342549839441203, -4.079633046470643, 3.6847124678273313, -0.8238059171603078, -0.11517912046666745, -0.6115315301562816, 5.3325164905046725, 2.725772235036838, 5.362444891769539, 1.092780043082945, -2.900252098247537, -0.9936585234242341, 12.631315002705186, -22.57649563966265, -4.782813485964096, 1.0857831718352484, -4.8031612063075295, 10.057951296672377, -13.718550725136991, 0.8190544152115694, 12.962372599290306, 0.11053329194303105, -1.1511607841211808, -0.26999328337994316, -2.3104115393684475, 3.9328703139181456, -13.926537757440324, -8.555570299317333, -0.9964087546010442, -4.614909284278293, 7.176446249766211, 13.636218600312427, 4.740794281006194, 2.74300410378523, 3.5442546931222907, 6.843706406439602, -0.7670838056972548, -0.8454586887336216, 4.0543425230962, -9.75051041416879, 5.153818940478244, -11.459210598286464, -6.314084704116347, 7.700103729693551, -9.025068586586471, -1.3233261091578337, 9.143288766508192, 6.000481822148918, 6.61455250226734, 0.8050767262011315, -11.361182946881781, 4.347998314817763, 3.2335820380110305, -14.89847859926768, 10.671266474847869, -10.296847444327872, -7.536997996265695, 1.942542493782795, -7.828771194250172, 2.418766448360714, -3.4935231899053045, -8.012066674276587, 2.009005018413519, -11.32194542448086, 7.748622218108047, -3.03990778873812, -6.060041974872378, 7.540580048100346, 17.34631644014026, 0.4178392401204951, 0.8061166691207649, -0.19411860249958232, -7.5503999641577595, -8.29489211339739, -2.0475347996698727, -3.386760749767746, -4.28853428070359, -15.10998961322782, -3.2914751360442462, 5.78980464065503, -4.452278072023732, -6.012438502577114, 5.918987639229074, 1.921201375779408, -3.0812548262427266, 1.1338928394076768, -9.41829995851812, -7.170923041385277, -11.385720111319733, 14.21870838861923, 8.039769058017662, 0.4842380523837759, -9.974926374681614, -2.902055764412226, 3.4936329129469668, 9.773965810896433, 18.514161588208747, -4.113869837182725, 9.757772957548472, -17.470546509899563, 10.383449874504503, 10.450070507974447, -12.786976911809221, 0.6955943737287962, 8.692878435056937, -20.617887759288827, -8.377025641504062, 6.174473622427058, -8.790461554366129, -2.4048971068326885, -4.989260771726909, 6.29554178713492, 10.602169939924709, 3.4549273543615118, -0.7920393925412258, -9.814326800427539, -3.2966601685217016, 1.059443076346453, -17.779949698626055, 5.418895131950051, 6.791172404964668, 18.013383547801674, -2.050120191213915, 0.556309159259591, -13.622234521364973, -0.004389067292587645, 8.418640774782633, 3.9667880182521262, -6.507344737509154, 4.278197481654252, 4.489926456914536, -0.23152026926923008, 2.782003425812096, 2.241165788791055, 8.687970152839835, -11.512233453286413, 7.087056682992884, 4.706864332102417, 10.920707914739344, -6.0365591604192534, -10.858236839967644, 14.168508107670434, -2.470649176378423, -6.253501496672192, 2.710627522337592, 12.480232165321222, 6.96074773069785, 1.755163537763617, 0.7797933692975978, -0.1955909466243373, -12.064570371390792, 19.274291962253557, 1.0099132458864142, -3.2264998914404655, 7.406644655060976, -1.1457923269166481, 2.109954016850068, -3.526468581455611, 8.203363545764486, 6.043958959166282, -1.9709737007416064, -16.04569125238655, 4.695422742496185, 6.82276699326754, 2.0302712097295936, -4.316328388371655, 1.306898838111754, -6.699615057085556, 8.99307780593509, -3.647830765702732, -15.915464514672639, 4.298759920035011, -9.320170259986925, 3.5058611501467296, -4.6263537875735015, -11.518649605210607, 0.11022571763941547, 10.195102682287489, 10.317608706127514, 0.5486435503740474, -1.6134323878692578, 5.8883145823241545, -1.5175904036247587, -13.31817019024449, -13.016509880240609, -6.622210310246041, 8.645036791021834, 3.823810267167649, 11.627220426231231, -23.087259766205726, -11.847876248577743, 8.267769987095276, -5.621178244521422, 10.6905369131677, 4.635822676690185, 4.499164541862262, -6.652131424000323, -14.428496561588952, -7.9851591623509695, -2.4462779758233175, -6.100405975486281, -6.539905913540065, 4.213834389237836, -1.8424101081117228, 0.6210010444826465, -0.7021105299332913, 7.49777226071761, -2.9575828981597736, -11.940050310077165, 0.28959740378200016, 14.17301024643158, -0.6828424427827848, 2.226753546421829, 17.15161012023595, -12.224249440861655, 6.174963832750807, -8.685817512400092, -5.450769149855476, -17.719153362788127, 2.747819869680093, -1.6288956383505, 8.338348070948268, -4.242003526019203, 6.665217015540232, 21.453802779671324, 21.28963969437103, 11.638640637206148, -11.825869415132939, -4.218001543033396, 22.16378657063391, -11.409415990606629, -5.365699077517394, -2.4587370586763444, -4.311273199432975, 10.06030066078155, 1.6182995386722232, -2.96941549229282, -5.52585659796593, -0.07158790677961191, -10.530745650888258, 11.705971742010263, 0.3423964279695029, 6.043172651095263, -11.006531340100842, 1.1563567797173426, 2.2150551171465125, -3.6733745019798683, -1.9225325609952661, 10.102497104630471, -9.803916721458778, 11.274554566893872, 11.668587936400153, -12.539288400513122, -19.07859516025948, 9.74845375053941, -3.8298630123429183, -7.029351749833204, 7.8577531888209995, 10.918153857172952, 1.3725225529200284, 13.894554234490274, 10.39944157111262, -7.8322103103859755, -7.7032147903065145, 5.687733616836037, -5.008248654665988, 2.9383556131223085, 7.848850993421523, 5.240438637921383, -8.221674935114976, -1.3459605973709183, 2.8282751192048075, 6.15720356741214, -2.1548568580169443, -6.729136622696611, -11.241142311211012, -3.17966738396405, 8.248397710539857, -3.202336405341392, 7.267448464836573, 12.949217674555571, -6.182294830216273, 11.660578709410839, 0.0835817712300384, 0.7372754147384022, -14.917397244346377, 9.968932597946875, -9.70756429054293, 1.6458779655967843, -3.716314050643168, -1.6331215037438391, -8.313965211370359, 0.3246893263898757, -2.319782234397779, -4.301951343135885, 5.0687561802034695, -10.208774498491717, 13.001041099565708, 9.713895832010635, -2.0110495118260303, 0.060153439286536936, -11.633343514801252, 1.1647207117240208, -14.493801030091007, -3.581673383124972, -1.2154434177665105, -12.685904126050334, 19.288590032149543, -21.011627796575308, -4.126222589173528, 0.6953503930435508, 2.8717705517937406, -3.0826099529413993, -15.135042831619149, 2.6088157331011406, -8.119374396921785, 10.758510235393604, -2.7158484447670506, -11.79860249480971, -3.8007934853710803, -16.113035610951776, 0.8535285000450041, -4.724419958479397, -8.727787610312962, -1.16665546378343, -0.04665596191815846, -0.4834513510151727, -3.1381439171633674, 7.627791175736599, 0.4472554573910041, -1.8098000953817746, 7.710435141002752, -4.360349741249851, 1.721393608043319, -0.860098754448493, -10.810668316507206, 4.292081128893779, 8.060704910679952, 10.382244474623125, 0.8573044844658455, 1.6248926163739088, 12.315573258658294, -1.019824001109575, 1.635581437853294, 0.5475045151842853, 1.0688700415190722, 7.966244991571656, -4.737643619375624, 4.924633203017597, -5.667264118244269, -1.2447174953876052, -9.984534588639209, 3.5987125270540714, 5.993806496259882, 0.9062210862273923, -12.600503215023659, -1.9258040890591461, 1.5494284005971122, 0.29547358447301275, -18.99904560237913, -8.500891129048297, -12.549735558181531, -0.7328387011506692, -6.3527245829374825, -10.492497503611707, 1.5452149619864752, 7.754761521435071, 1.1130657786758436, 0.6193528637066273, -20.7648543451632, 4.750140548055195, 5.255625702722605, 11.277291895844224, 1.4435837732640322, 3.8504060061147034, 0.943787035143222, 2.996176286756549, 9.989862043069927, -12.828842990744317, -2.736106573296201, -0.9768921634316792, 3.910244118657653, -4.783321883965261, 10.42799217006137, -7.398944769553703, -4.948280299497184, 7.627251956384848, -0.4401645436182507, 6.806175763067069, -1.267309344753596, 13.752901352234911, -18.596885984281847, 5.908648297887015, -6.169448667034841, 9.587830348386538, 1.0334615997965797, 0.5702108579593805, 1.0998570238703618, 9.713050006956781, 15.57283154521544, 5.9914722336491035, 0.05878892193541574, 3.609898182205613, 2.1592541347185037, -1.10504443016106, -5.269863059009897, 3.63904176548514, -4.93926766660116, 4.649558577819172, 12.583546496096371, -0.99825523159611, -3.8265172784592916, -3.3478631427638477, 5.251025947336358, 3.3321182619211362, 10.833272626950226, 12.87098973639358, 6.40474728821271, 0.1476544148267287, -12.095433468411112, -3.4261860594398916, 12.77807307529965, -4.97843158338938, 2.08034167611709, -6.695822865477405, -7.018557312957735, 4.5925689985747375, -0.14315287872125565, -2.532034295076213, 1.993881612769188, -12.610987806307929, 1.1005171917423133, -4.23900342899443, 2.8186450117330493, -2.0473228023216414, 0.07712943476592504, -15.791846078149277, -2.549988852312693, -2.1705803781499555, -2.7264524905326155, -1.5161962156038378, 7.867804494554277, 2.7278674566316004, 3.971228517843003, -3.519205145264987, 3.0592821543465174, -1.1128741097648738, 22.380351894342017, -4.876120219537484, 7.139129781106568, 3.36033599017836, -2.0074597330322153, -3.537059962572194, 7.740331111246528, 5.711550697416317, -13.663180123912348, 9.099578913927164, 0.6962415569234359, 3.991952716843733, -5.723675781284467, 4.061951099756322, -5.614812300149194, 5.314212813821108, -3.947610029488116, -4.31553468142837, -4.1042161844420955, -2.728072104442995, -9.9894058507674, 1.1239293958472172, 8.608353435168944, 5.76461898078789, 5.5871877344673315, -8.460349610642126, 2.7020235871497693, 4.238653575624035, 2.4258767956076093, -12.580973614816177, 3.064908019386692, 3.3309503796184177, 6.3772257928343326, -12.354870438206774, 16.81006412414859, -12.84890637882794, -0.4469599897312691, 6.168496338929261, 6.421440935405473, -6.680752048587257, -13.04561139179555, 16.346212978792863, 3.089320437483935, -3.438643270476848, -5.964650802521413, -15.886440693576017, -2.6880587155256603, 1.243499017093249, -4.851655883193589, -4.745864825228958, -1.9194879140239887, -10.56527310257303, 13.609733682687464, 3.759630884600102, 8.186304287421711, 4.404227837745055, -13.383114363373595, 15.97019987115137, 12.445801009240181, 7.1596317260354425, 5.305800086363598, -6.034449892278537, 6.22133038808631, 3.3684667517662317, 8.193090286737945, 3.3785875918838366, -4.2999046579732365, 12.489057877424713, -1.8232705583976059, -11.330123104395996, -0.8790630588099966, -7.582968918347533, 0.42652956024944894, -2.9620609067060055, 3.8528837988436253, -2.1318430278303233, -7.191107430878795, 5.55087922791687, 5.400532300186703, -1.5169023640414856, -10.208664375973713, -11.258654814540739, 2.899674969134973, -1.0700063082602433, 4.78122923121514, 0.040876179337773724, -9.543938529787557, -2.9965078982561053, -14.200766091693316, 11.018562981299674, -4.771230432001162, -1.5127592941795087, 0.24168998675113904, 1.4795353061163716, 8.778816711830443, 10.401611453796175, 0.6367359517464313, 14.005516433238974, -6.073837431464569, 1.1779157446010142, -4.593319221067861, -18.20450864517035, -7.8725535798860395, 8.57324736914429, -6.942660255383104, -6.869181223093342, 4.854702148248773, 9.047947888996994, 2.756961966498816, 3.5169187044858443, -16.08394505373861, 4.047688171473925, 10.4941173364027, 3.555812060620745, 8.100260551146514, 9.118695836438182, 9.061380850836555, -1.2072115307117266, 3.0031283322548457, 8.712125795522052, -0.9839169029215397, 9.8254617577478, -2.412833806477769, 4.908889602190817, -5.383272594365293, -15.343611309451408, 3.040498529842426, -5.116892309655731, -3.1675995085253503, -0.6470704768087822, 2.3188213976058143, 2.216580729414747, -4.938786252022609, 16.570968728001148, 2.1347938257249854, 9.214326566022606, -19.219604739852386, -2.328363846320917, 7.470192436286486, 10.599753843098904, -12.844234046589019, -18.453945214402097, 11.457922698082807, -11.298958412836377, -5.000087221007959, -15.082074734875908, -2.3706869430227555, -1.1148933670004724, 4.070178999313255, -8.731604718680277, 4.105649367592448, -5.266085144390201, 19.011876967663884, 0.5834919326814951, -8.53772126067106, 0.400923040921024, -4.652810346662242, 4.257032042107448, 11.724806228098487, -8.679869074527438, 3.142121505201561, 5.532729817448694, 9.14666224443505, -5.03126642555868, 4.947786308190475, -2.507999268919727, -2.641393142500065, -9.051477399954004, 4.830537796771824, 2.722900236683025, -4.810992767021617, 10.651847245712485, 7.060769478375637, -2.174180621924595, 3.4179069102844366, 7.897302200875986, 17.07336014245895, 4.9948153677396885, 6.220842339475435, -5.644909641003638, 7.294044809415616, 4.942092980478227, 8.473709380724372, 5.1126585478097, 0.6057020138716516, 0.29137235617963486, 0.5937328575287613, 11.176493849345524, 1.634735430328814, -5.944616371441519, -8.126274337424775, 4.058452587243335, -7.596298464602605, 0.7897742379777961, 9.871416876434767, -9.050746910826716, -7.400147048773048, -1.7207604240357701, 5.182500567841239, -1.3319235353361334, 2.7798974609892393, -3.665388411081234, 3.140769705498865, 5.437121376122605, 2.481703170238743, 6.682308085684299, -0.6821264474729428, -12.048289975846497, 4.798604890258783, -2.4436592629730045, 5.568121670724981, 7.193497924279814, 9.180869576165648, 10.471970711736528, 2.4146531665204276, -5.2044759580541715, -2.927264096053631, -7.887673535133992, 7.7105377967447986, -9.081323654807282, -7.1168163720699855, 2.7416291774569985, -2.289075672747815, 4.114007407574007, -0.13076853424064983, 3.709798680799842, -10.188936159098017, 2.033438549551788, -16.47522725860179, 4.01537366014748, -6.208983046985983, 4.8770788552505335, -0.05818052510984967, 11.305504462240425, 14.6600668879317, 11.487351398806222, -8.636502466669807, 2.780212465550131, -7.479893920217351, 4.927522656832222, 8.95187528896361, 10.724769836485487, -1.6038656480180435, -1.1710286482093528, -0.8963797622950832, -6.68054922337485, 11.780557180215578, 4.38989724260946, 6.114914234112732, 2.0832888462026697, 7.622132078168665, -7.972465548829375, 12.583172204526143, 6.951989983962415, -8.182945640637623, -1.478935617701798, 7.977924528387263, 0.8917326180629335, 2.863986461735238, 4.571633119065674, 18.412149726827035, -10.749510041439727, 1.787355991141805, 14.927927727314536, -0.13578314550217963, -2.803414375065771, -0.5446039585283167, 2.410040902780891, -7.416692337562089, -1.418976451672728, -3.8891090710266387, -3.576193940099404, -8.051288634715426, -2.982254864769622, -2.4026292641633873, -8.40526865695603, 2.04689628871575, 4.802919993241638, 5.767246172022506, -3.3147782265704375, 3.7009748058804166, -3.3528207356341713, 6.455302336150727, 2.795473529757106, -4.491127213626165, 4.268760271080501, 5.318580424999235, 11.875707092766568, -7.0147799519502065, -3.073077068610784, -3.8996783247187006, 4.850734678280725, 8.86626279831548, 6.3832682264786165, -6.159707059735988, 11.401022546183349, 8.68387534067505, 1.7470076367779432, 5.918210162151309, 7.730363124173229, 3.9799072936341986, 13.197762366630513, -10.01943171434994, 6.386944972853499, -16.13634278380063, -2.6481091076712153, 9.370276954285512, -4.236840953281719, 4.2709655808988485, 0.7669695653532695, -3.7532477429745748, 3.1702082139805765, 1.6091138752982643, -16.99256568714531, -1.7955119359049374, 5.223831177075607, -5.459539066123562, 9.675580523316373, 7.98838218507165, 7.47295687982739, 4.247933168768063, 6.31907104499291, -12.39774986463726, -5.1099987715018615, -8.336375788169612, 1.7638233888889645, 9.547588008759206, -19.769885789818293, 1.8303526826861756, -8.677923413696512, 3.601943104921044, -2.804644973943373, -9.98973667751202, -7.8288122957899375, 0.0012335586246962071, -3.2386642594321597, 0.3145608534186727, 9.908307381607553, 3.483906245921959, 4.204295518863554, -10.151606531552698, 1.3360478102162274, -5.916199737243859, -5.779971552056016, 10.506652921293515, -4.840487009780558, 3.728424081601024, 18.651351166203526, -13.506257572397315, -0.15905691099679165, 6.9521630950745905, 19.37121349395747, -2.894947018391569, 1.0141166228424616, 0.06579118359843822, -6.247496561282578, 9.607756421363499, -6.535753295342164, 6.258499791745639, -7.399194117276728, 2.652471692525248, 2.3031202893091303, -19.060810943917726, -4.830661148778311, -3.621655281817205, -5.063304867764709, -2.5599996354172054, 5.21916047154808, 7.148559833142424, -4.8277586767625795, -11.380851710036724, -0.8099760582739548, 14.685938202491153, -11.739240578901558, 15.217707730841319, 2.7031695271111547, 8.207489526173779, -4.637926789975, -17.99492545243159, 9.64311620724693, 2.033830904786947, 0.924223112145226, -0.6367781379088853, 1.309798911335239, -7.722514029085505, -3.9234892432611295, 12.704381907494238, -4.042176512657458, 2.482952941129971, -2.4671951738021702, -7.5694447696363225, 4.584138211459529, -11.255802935890634, -0.7666234214545381, -1.9858911465610416, 2.187904852741873, 5.801532832309371, -19.646373897166093, -20.210660513894183, 11.667239004302711, -0.5068680372514428, 4.950342376875551, 8.586795913735399, -1.003719763124455, 12.182573403273148, -0.6979412883220912, 1.7633883311615357, 9.059726545159428, 2.114369531427437, 0.7263049318246289, -19.026500392566096, 2.5379796744051264, -21.261307691930057, -8.66152859945951, 5.016548875539842, -13.81315750719932, 12.000985714635643, 2.3296800749248634, 2.7797994723367085, 1.4852768834063963, 9.927240174097617, -7.386904998373591, -3.116124124737778, -7.578262826199466, 7.777899996208452, 0.33294657235445346, 10.557040103809145, -8.104489529757274, 6.390904423640094, 6.7039361639988115, 8.230950288884046, 3.9795344702516724, -6.291845800470202, 15.816387036888166, 4.888316345771239, -3.220531001734746, -8.482863745776932, 11.936008100792145, -9.792220699897904, 6.786231156821315, 17.509816387983626, 3.410167842140968, -7.530567252557273, 2.4978507781994486, 11.959444623100836, 1.2976009717288481, -11.215766603391396, -6.027583116297477, -7.002465304172867, 1.5186283904306637, -4.654250245966631, -0.3067966836337064, -11.57992612810967, 5.811015135837415, 0.17979360067386696, -9.998919802026386, 5.883885661139287, -0.435203832226579, 11.198203035231327, -3.8463484565458352, 3.3827376914870007, 4.195922792295038, 9.724187078953697, 3.125100256088267, 1.2276487606762556, -11.911296930872226, 6.5989007776142845, 2.0226552606468724, 6.025731390774995, -2.41852098701742, 1.5822329656745269, 3.617886308404083, -9.379821988844817, 2.684885404947017, 1.610083764410125, -8.906658509595045, 4.1146540318571105, -7.969918649265516, 0.04352696140654655, 2.514805893258401, 2.2256309333323885, 6.0065735926314545, 8.100169526211669, -5.091811552899554, -5.089449076166206, -15.134166277353115, -7.187696044220895, 11.548605077526513, -4.2483398193913455, -2.1164137586322735, -10.869334399424769, -0.3032083687922161, -7.063203146747052, 9.865676339158117, 9.111546998106292, -6.471335963696185, -8.494236274158729, 6.966361218048959, -10.302840342559426, -3.737074069378981, 1.5096643404436376, 4.321431921203333, 3.3617595222572954, -4.527330473668305, -1.03208817007541, 7.402476546123298, -2.1979487955699444, -3.0733542226933075, -0.4101321083574359, 9.545152782042733, 7.847729264696555, -9.784759131076372, 3.5918933932801846, -2.8279586751290324, 0.08758171912378598, 6.31673465875458, 2.7488410725016537, -1.8488328992015983, -6.953396376825408, 2.433865176365922, 9.001958097705266, 5.930567243014387, -10.682317755273798, -9.801444191125839, 7.380516721731738, 8.671233341862258, -10.51147848206728, -4.034992344444054, 11.167664301396895, -4.232411084678408, 1.4288433154384927, 1.75073176016501, 0.2845810317263487, -5.123382626222174, -6.714449119944334, -4.365551591882144, 5.772872273530065, 7.931673232382973, 7.40855125260088, 7.626757124803221, -11.193840221173225, -5.183057860669117, -1.9911829395275775, -9.582122566486708, 8.291131914153542, 4.932283776080732, 11.974416927197314, 3.516436804658315, -19.400754003432592, -14.089997282320743, -5.827811091960342, 6.835119552868728, 12.053695065700962, 15.72213015427886, 7.224103778961886, 3.0868537804328327, -8.69998760712126, -16.001886574770147, -11.252150535038105, 14.583248448661589, -4.052120036344025, 9.068390325122186, 1.616635589212698, 13.116250893134207, -1.4092380180214077, -6.120216391153858, 11.40754605837308, -7.172672357261577, -4.48435535189808, 0.5414032775164576, -0.06286174696942082, 7.866401175592475, -12.930821306905479, -0.17806138859400233, -2.2876018692581623, 6.911160631733139, -9.61339048929304, -5.114043379255382, -9.201119039077636, -7.249628210125048, 11.047209381013582, -1.5272901160391268, 4.7009951925270945, -9.605749147532855, 3.2123885477146565, -10.463813232232699, 0.9165627700344946, 12.688043787379943, 5.151051422655754, 2.0094877219666274, 1.309876655778736, -2.335216979312233, 0.21962313118283525, 3.463089226824192, 10.47865335858998, -1.6408367609438144, 17.5670097596821, -7.032227512911187, -16.706488600647297, -2.223383094560555, 2.3811302644143697, -7.776692885606971, -16.523912169469355, 0.5756677355999897, -4.408571411080392, 2.5573677088714444, 4.057064443792421, -3.5452661724647263, 7.097307516420075, 8.887711501066685, 16.741014410617268, -3.915761967933852, 8.8346500643614, -10.097816108437762, -1.6076081216463027, 8.622519470432582, 1.495533239344904, 5.51076105746541, 6.403418601762847, 0.7479027668579958, 3.3990311316907995, -0.4232582559171229, 12.91778066505117, -2.3860708901655876, 2.987889092248408, -17.487384783303703, 3.9289001967980854, -0.9529990189676474, 3.910249204692541, 4.512348774739137, -14.249295415908724, -2.8953262892812206, -11.214063617063278, 1.0674717831325449, -4.55352711466692, -13.39131628629677, -6.769706270844035, -3.942689637235695, 12.730286258592711, 6.948813584895476, 1.5793776533989032, -3.442369096521818, 5.874540577254523, -2.098575774363302, -5.678654779501977, 3.0381562950006797, 6.996472465839337, -0.06561269432233313, -3.8354545230718817, -5.378905376513073, 7.3435133650462845, 5.466875847668287, -13.605691149221428, 7.660106535056337, 1.072352372815109, -12.756351796644985, -6.283111294024322, -8.499004836392048, -6.528715624012155, 3.1900026372637336, -15.338016868545063, -0.3171720061901748, 6.634183918515448, -1.9104967776735375, 0.37703703023822266, 3.3138305455942327, 14.7948571680829, 1.8954503555755016, 1.9367117994940541, 2.3357483128929797, 11.517317157840987, 0.5775231524387281, -3.2386672680102473, -1.4526413502328706, 16.80852320290223, 10.132983592536862, -7.574247242451195, -8.376633035466677, 8.668976667277887, -1.0330857995069533, -7.182712996715483, -4.0322526610763445, 6.5237748114716405, 8.649602955623918, 18.088669665387055, 0.34920868954586304, 10.77118907060716, 3.6363434497276117, -2.0518545117632048, -0.7552420164380373, -2.2230427870637044, -8.322845392573422, -8.273765794299669, -7.202610072681964, 17.590125619566116, -6.503608525583095, 11.898834600783056, -10.936258564437889, 0.5673738436918823, -9.423296278937196, -0.4359034821778341, -18.60625531374801, -17.727607150003138, 8.505625684066805, 8.366518856594773, -14.2257840482218, 11.318478463675259, 6.128315329793414, -16.164555714266317, -10.577575709414647, -1.72138646410388, 7.462149714454869, -6.399921264079221, -11.234455069805463, 9.38495698861827, 9.352202000890452, -13.790236040731708, 2.774734999503858, -0.6075578425214141, -4.998808383763325, -9.438621266010308, 3.7895240903040563, 11.161588562943033, 3.5778546678527134, -2.5009836635958376, 6.387214711775023, -3.5895830288484647, -7.453128714545138, -3.724005933086856, -1.4310971367679288, 5.8422600754604685, -3.5414957408593812, -8.833940377187265, 11.849496606920571, -13.090755087882577, 2.2474608663420015, 12.381342758449335, 7.929725357698423, -3.2120235746995247, 1.8862252974767695, -2.691292662711509, 7.347272119001261, 11.622045201671344, -2.6436331699272637, -10.134197130597325, 11.946270549392612, 5.8163603120708975, 12.925064653321785, -5.954696297364467, -8.4131193178436, 5.584643262972853, 8.752782709029187, 17.74963990554474, 0.1592959375627644, 1.4646268163934832, -20.30497798934014, 12.867693632487718, -12.065734067615805, 2.4338193205715073, -2.8803984156339584, 2.0984605914001544, -7.956611228260112, 15.162126228126095, 8.13299173462726, 4.329204393961943, 3.6219641915767977, 6.151687742951228, -9.723896921564423, 9.66518673932013, -8.887650086566385, -19.257143092264283, 11.96013841918542, 5.5530135570681205, -16.434677516473478, -0.907563869657263, 1.733494499780981, 13.305060920402246, -7.9559386118998265, 5.5817030122373, -6.370720290874837, 14.19712435350024, -10.687576815195143, -5.920014885810589, 11.017052429241847, 16.652521647681485, 16.081288559076192, -4.790475688845169, 17.733718233321895, -4.823740856698075, -1.5264083547394787, -0.4335939174818546, -5.9244415361589535, -4.487187194655677, 8.264775833919769, 10.336653795804253, 6.117537461398769, 2.6993480682376316, -12.987386978461165, 3.6536102034572178, 7.857652196039077, 0.7893669301650368, 0.7765824236361488, -7.168541628407845, 11.768199183834682, -7.065538522159187, -2.380114192922085, 5.0111863295553, 2.546857386283091, 2.2725844149805545, -8.56310666780134, -14.121442365113873, 8.823811775974185, 8.055653145507707, -5.624723942926979, -5.667069182108586, 4.615272335395224, 9.007232753597625, -0.7834888199475825, -10.66659847669766, -5.623850601043615, -18.3375967069512, 9.910327791079963, 8.433419619134524, 0.4195121098339929, -7.072935899014588, 4.815444588318323, -5.005580169874338, 9.758733553349312, -3.788581839197786, 6.978557859357222, -4.845724686793211, 6.347472518410144, -12.780353596567545, 12.20257626019749, 0.054900617401819396, -5.880411948366565, -8.99175517286289, -3.3930768896615997, -1.7462395679422253, -4.9913911737844625, -1.7419580496468798, 1.7256893199161452, -12.802015055791374, -6.4402161093897625, -0.776270302356377, -0.31609302189024363, 0.26240078475400685, -6.977342488743437, 7.69137463937256, 1.9038781906346123, -3.794224827290126, -0.6380230436707821, 1.3811303795194838, -0.0396822841417217, -6.663153326221415, 2.745828060584788, 8.470256675268494, -5.713197746112455, -7.183846960709274, 5.483007192383404, -4.290734597028424, 0.3960405052951823, -9.69681336200385, 5.634414001460929, 3.483737617933433, -14.832841628719358, 4.424633895635563, 8.349451457819427, -18.44917736595143, 1.394541227017032, -13.268980778351477, -5.846429927231147, -0.007842399422057778, -5.0938878554442315, 1.7106065344510408, -2.0338635520202337, 12.603211266742454, -7.351157789284112, -1.9811742312815297, -1.0317356548852772, -8.094761379024767, -7.082995937838091, -16.44816243095731, -24.01781710422978, -1.4174320546028696, 4.734179288815649, -3.9747373966086266, 7.079386234476264, 8.051244086378407, -8.299844960315268, 6.800369825952493, -6.216663408672117, 3.649895131286948, 2.1293057308295755, -2.1837167639846835, -9.81817034211905, 3.7887536570185096, -0.7995000374421698, 3.5031867999992596, -7.463626327373013, 9.86804158683068, 11.790313421449065, -1.8077239951350137, -12.407266746450096, 23.390840411588783, 5.101234262381423, -9.465743409385631, 1.599310182019238, 1.5832258452388361, 11.281846329500048, 0.4417152904484658, -4.211381758436678, -6.692873071072867, -0.01940960862027591, 5.14651167522762, 8.21979851418207, -3.586756835755647, 5.286468400528301, 1.8239178090569346, -0.4256555981939272, -5.226964139433087, 8.814431549950998, 4.286239284421336, -5.532170169997917, 0.31609518179510526, 4.657837537913643, 5.337657380245482, -13.559637422067292, -10.755753208688978, 3.0542579297033674, -3.0895832393562257, -10.88628803747086, -4.511886659846449, -15.795615231117209, -9.295839985295318, -7.120166054911328, -0.011347008266168301, 0.9353681873538144, 3.618081396065182, 14.867083267829415, 0.7724951785875258, -0.36384648994114094, 14.438173944778168, 22.77651253245432, -5.685115463778525, -9.308757430761524, 14.599070782751866, -2.7076000367432376, 26.832618574509144, -14.768575853392237, -8.371767957222124, -7.014975592433707, 0.1444454366070798, -0.5190951212288517, 5.738677858036838, 12.539383879233448, -15.715188328135387, 7.264043433879545, -6.752553066363558, 4.874693985797027, -11.031825844689587, -15.860034836739402, 2.2222055482881493, 1.9637591416797147, 5.869353737199013, -1.1284124666982533, 4.7190144042293865, -7.6081255742137905, 1.1117472459405937, 2.098108378508434, -13.843969816484655, 5.292294310414075, 11.334178370572134, 12.270592215935917, 19.244734227900548, -12.69169861488626, 1.85091039108574, -15.61201973754012, 18.08168047007836, 12.779128064235147, 1.5854786800288332, 5.818673962320444, -0.09522696885170812, 4.039747399382193, 1.7661893548359977, -3.9260548062368654, 3.7119261728026234, 15.56579862237213, 2.826535898887433, -3.7629246400506147, 4.9050445698656056, -3.248960760609804, 27.31789282177408, 7.653712185707184, 5.249686524574552, -11.337639553473329, -1.455050936540769, 13.555857172178698, -4.004448755817241, -4.046828483527776, -4.9032946428385005, -0.4958816556086292, -9.613231573845162, -5.404181563814161, -0.8693417693839911, -16.4719431375448, 25.083260198311283, -14.206494695482041, -10.01391000606971, 12.352454105974292, 0.9994618567644753, -10.626057261024531, -2.850166382121066, 6.011090405615913, -14.379998763919858, -0.39370554904218114, -2.2757794761224104, -2.836670236558793, -2.24218862819806, -5.764479270090458, -9.501366335523535, -3.5810638988971295, -6.880585299250017, -3.5564511746174197, 2.8177433429745022, -7.620945638740178, 6.549558656906971, -5.4296388146907715, 4.663124622045028, 6.869991067264079, 1.4047272724353979, -2.040200448508708, 5.148555528209207, 0.9885277834411684, 5.8717296892362185, 1.172588515578159, -2.8097871012686877, 10.003646458164955, -10.620434083445872, 4.313482141687608, -11.206291066151648, 11.818163834117504, 7.475316942333711, 2.1605608082685843, 6.013902310153788, -7.453415963153075, 5.169349080105204, 11.280534132590544, 4.463531570187315, -2.3869211150663965, 7.4313099365147215, -14.134894661893362, -0.8629186973461056, -7.956214906989238, -2.3922245576347154, 0.19805797191372387, -0.6713837817658205, 21.406062928058635, -5.482576172453396, -8.071433641316691, -3.6011383358614624, 3.3360695823585518, -0.43575085086804294, 7.205330645448862, 11.276685596538236, 14.52230814272616, -0.6735424566795514, 6.07071224852645, 2.5863453199191113, 2.069492463114563, 3.609333427317708, 14.569231030448403, 1.323927438955545, 5.7749221003962905, 3.376532635770656, -2.3551790400902854, -3.3323863846535984, -4.86525846574159, -4.198820793114271, -9.368250507444573, -4.098571279444916, -3.6508168034482047, 4.853147902079365, -14.038518096947975, 8.48759925520639, 1.5376788546866496, -14.939757149094115, -0.8418070781980569, 0.25827839044848744, 4.320248287509971, -4.103334042863247, -16.25801590725076, -0.002313284460074505, 18.553499477416054, -5.102298800270819, -3.37544883867268, -7.097593369063424, -9.774492042189571, 0.8535347372639573, 4.712507226769461, 6.4508480710308875, 14.999776713006113, -2.6793783117422727, 3.4564931942552954, -0.6825846003819911, -5.691755847752868, -3.6720563583615213, 0.02158569383019507, 11.995413106655592, 9.657978216646113, -2.7453197616823313, 8.14139802678389, -3.8976481301345958, 11.778953917160965, 16.095159353962114, 10.126103905764278, -12.961613188383522, -9.45479176491404, -1.0394773111547044, 0.935951010208763, 7.927113399956311, 10.808312842916022, -1.800243444252884, -9.644521553675544, 6.926214423096925, 7.070627150995147, -0.980819399877437, 0.9649351753268398, -2.4855912123495814, 1.9959834622895882, -3.0537503126898295, 0.4242724044687891, 0.7479844239921105, -2.053299499606365, -5.003232737944702, -1.5644310069789447, -15.569366766456382, -8.536720683500379, -13.798419111566353, 0.3134769004623259, 10.160379756891995, -11.67983174014563, -16.95159751937663, -5.971844317928117, -3.383192633905527, -6.557790495434668, 12.474871306906834, -7.16187330485132, 6.067474876128342, 0.576135422467932, -4.888397702100105, 11.483463367103024, 2.48848343028419, -8.344426961561439, -0.4118195011253033, 1.6273347096639155, -4.9908848895868205, -9.390010153550826, -6.900427092079529, 17.110920240086347, 8.370144889010112, -9.18192995732982, -4.280423862114096, -15.188288394664909, -0.5495386003988161, -2.9533135444479894, 9.148374821517596, 5.320923166931971, 5.151433786651211, 2.327444470604697, -5.1546015481452105, 9.887349596251884, -1.3744138670243236, 3.9589262449533864, 8.943104596567759, 1.6738096428439309, -9.858442693852616, 10.706660639054975, -14.114534181038886, -0.6240342635496969, -6.04323096517699, 0.08774198168653691, -4.342114824544943, -0.3574114435210988, -7.346076490465206, -3.1288513582022155, -14.144808024768052, -6.037377479453808, -2.9539873788018207, -3.1787103184919907, -12.629210221640754, -4.381092815796255, -1.1440827777301306, -1.5742710504613182, 5.932524584230185, -0.28200572897635645, 3.3023092866896078, 6.0297748137162515, 3.78764792645145, 6.369366367340021, 6.925837081464682, 12.714960911740434, 3.0291093813449748, -5.122391373225811, -5.41863007000488, 3.702006811014618, -16.571258979402018, 15.907648386805528, -3.1783259653527374, 0.41794294819074174, -4.630702276907637, 4.145957994210782, 17.7907971051696, -7.7643558195165125, -2.322331964442753, -8.4254799095398, -7.885060925080001, -5.622364263433212, -12.70231711529112, -5.893140057085855, 9.374476044721385, -7.149534290443402, -7.151050576211255, 3.3425707856111426, -10.693063764936447, -0.3160932370336275, 12.544637297395901, -10.131457862056696, 3.4969059370100677, 11.871566181670556, 0.8973328097136144, 5.697312296525562, 4.58289187582639, -6.5505777942415655, 10.509765790371265, 2.0246607741674287, 5.212410737831325, -2.854360728705357, -6.932404981629128, 8.19948462989391, -4.553157161734688, -6.172351095606883, -4.742156503796012, 5.556463891193001, 11.092918964969641, -1.587672865047753, -4.657267423508193, -7.693474300187384, -5.275429575163564, -5.045847672755789, -0.507848621326554, 13.824039944265975, -0.06386411588452845, 9.247203286034601, -1.8756107446152495, 1.7987380102472967, -1.9538537697896432, 0.09586419885284703, -2.6717871966515103, -0.6215091978839387, -5.939870754498929, 10.650937504217104, 11.144536121570203, 10.60189968659301, 3.9169948215207464, 1.6648202115678792, -5.1366798983813, 2.5354392698482604, -12.750793335954224, 15.946123147120796, -10.528212842686392, 7.310762457892212, 13.350654148035842, 8.911728862187632, -6.724982935407982, -8.733690705466861, 3.0780946660093385, -18.487980725446537, -2.9042998726380724, -0.9423344873314088, -8.610065505984217, -5.654468755395174, -9.22285386984535, 10.627435190589864, -11.1198101349908, 7.7332425510711476, -6.376960434662011, -3.815402603733028, 7.949056409719609, 3.944042469876765, 1.403763936488815, 0.3743901625255941, -9.266118251293637, 5.805109081362573, -15.219325438427267, 2.8960302610403788, 5.024735954840018, -1.985835947343563, -4.380566695342766, 5.223349978773516, 9.487538337817789, -5.332877342788638, 3.419030493768106, 5.695642385224981, 5.69830907685616, -8.267674645712235, -1.7470477344728568, -9.584143913803777, 6.491204200289956, -2.345037721614174, -14.34694394299369, 1.950934661782065, 11.687256339281065, 11.982889464376612, -9.966835596623573, 8.996104661471911, 10.518228814741423, -5.624567323850658, -1.2116179344729978, -1.257046256175241, 2.9031468416850386, 6.01024318881556, -6.409692442974946, -7.4390489732187675, -0.8763467752669298, 1.7298453498463533, -8.978361263432312, 0.301186428711518, 7.926614240793629, 9.965915528841133, -10.754691031682324, -6.159365071964553, 1.6161197801553664, -0.5451122945597059, 10.780009112682237, 3.2762742072270394, -10.859400466999944, 5.591205354429866, 8.99048743932061, -2.768159375800777, 12.520021431423938, 9.844306432393937, 14.061542983146964, -10.823166340198416, -2.5830491485061975, 1.5353615611547593, 8.54963669909468, 14.427811716330732, 3.072308844301637, -8.568660126345792, -1.7183472775841473, 7.719338249895665, -11.290298992039624, -15.207961475794477, -2.583668689317714, -3.683046482989219, 2.9109344304955127, 0.6716444375180615, 0.6871176965746031, 15.114105068983275, -8.92351838871568, 3.9584746702251143, 11.508878476862815, -3.0272253290989606, 8.842400488000202, 1.1519642203949818, -12.3371027927499, 6.792706135630901, -3.5928702627981868, -1.038574214556945, -11.48012210752044, 2.8767352567599973, 17.26886168451189, 4.9614684590387, 1.985418898416102, -2.0477507266443746, -4.951511792219025, 2.367112298072178, 6.144026069690281, -10.805776229498393, -12.802973285422306, 12.348426642160728, 13.572920786003943, -6.814111018107906, 4.774217634913418, -18.735719995752977, 2.7797239831072362, -10.371935290803401, -3.952888113433273, -7.249725691790613, 14.988448152730768, -3.6726332983606325, -11.431187624512564, -14.326487457957159, -10.886454298594913, -6.428016248401127, -6.284932904723124, 16.150544388575444, -0.07251259322037454, 6.220366402831038, 8.51216765521264, -16.470661747624273, -5.508448978393581, -16.286045597549602, -1.6830839558413722, -7.456633514423148, -24.800124363249154, 5.227966256385358, 5.230876676154029, -4.3243881892265, 10.446966878774626, -0.6156904937504906, 7.217586495570994, 3.5552656782044494, 2.347973338650929, 6.6289262574807255, -0.7793030255117486, -6.318560771714705, -8.75038816036522, 0.7232880343123083, -0.8428729933378003, -6.1753738660456365, -10.60218592822655, 6.797990208321636, 2.140175831753897, -3.3958170425870957, -13.804694959733949, -6.006959654469883, 4.934361441971649, -9.4714538841849, -0.030690422144449503, -8.042278728280632, -9.723011976372739, -0.45304350231431045, -9.476482403414321, -11.746580436995258, -0.8626848899092014, -9.009933171775762, -7.6915855756621525, -0.2840612694202068, 2.949810730628285, -1.1937341575104778, -2.5644416750855323, 13.986182141760748, -19.86260227659389, -0.8710614717523614, 15.794204425362931, 2.587427664496452, -3.6490538416989216, 4.695257872248214, -1.1318102169222635, -5.64589505434526, -22.436112113937615, 3.4706907574279664, 1.8473321437907693, 12.783044727347201, -7.799381296504441, -6.780284625730365, 10.06744684736505, -9.558557945352373, -13.690334478486411, -3.940649793360329, -9.367621256745222, 2.3554462615371237, 6.241338495962492, -9.04668733866655, 4.0597132180618045, 1.3645840335760628, -1.6576181006622588, -2.6223508496834484, -4.287637233603242, -2.6753894032556493, 7.863246589739406, 5.229151910107749, -5.079360125384159, 10.07570124506388, -12.702037499160056, 5.546246403616772, 18.454052839079743, 11.461001372352259, 4.638217065734496, -2.268509938077669, -2.3574415979660874, 11.175086819563194, 6.337585747616915, 14.76523027798299, 2.826503736003919, -5.033998492777477, -7.624417948985188, 5.07701336691923, 11.158580544178475, 0.4872092406550097, 10.021154214823497, -3.4375841860265917, 1.5889625104391034, 4.205980669663426, 16.36266307475288, 5.065289453519267, 9.330342596403176, 2.933338006390824, 4.627227529111641, 7.419610169731019, -3.8380026519716894, 6.36420027319099, 2.2892238336388866, 1.5103284430626278, 5.035167788710634, 21.55631358556594, 2.7600908124712573, 6.295318118711297, -5.766172343975191, 6.475342644726057, -6.054612819342072, 2.709643949700237, -14.441924487598296, 11.694257642481565, -7.1215155007729996, -9.936171609377862, 8.437155937522396, -10.512540379240225, -10.408860894830973, -0.756211499948394, 1.0679011846294613, -12.15220121946177, -6.258779457594057, 17.27383978791402, 1.4727645949871282, -4.981903149354791, 2.7864707206628374, -4.078275520425772, 2.6051674894582146, -1.9625700588599564, -0.4050738410725701, -3.9481088395300477, 8.782649480173713, 3.649973060067013, -2.8089100443704167, -2.7904233132837537, 1.4083995063893653, 11.347448768842373, -5.629923411351676, -9.28375510135172, 17.331180048971127, -12.66720088455876, -2.872233277699333, 8.871485410706375, 7.451906477022812, -4.0456875256583, 11.774163859708295, -8.734047127072934, -8.04981533333906, 4.124384712375379, -6.1653055379424915, -7.963538604345095, -14.505588482471186, -4.650752029748074, 8.081424956047163, 4.336323616873864, 0.30172572702008815, 14.985950549994268, -6.107201121769229, -7.106173853212498, 0.32878475647794103, 4.843764791432564, 1.4203886927212277, -15.77068896358632, -12.741466520811176, 9.83309384445523, -3.274443213710542, 10.962954755157972, -8.990059705702373, 4.4584439174430015, 2.4362959709141867, -12.482244124305147, -6.047374527444998, 9.883462142676597, -5.540920601631404, 14.675153528982477, 3.273995095826922, 4.873881226069669, -2.878623408180354, 9.293841485375276, -7.32588422962207, 0.5648416928941573, 3.050779938278454, 1.716133078423531, -5.489711306398798, 13.110577231889472, -1.8194086153460702, -3.8548285837269702, 15.60261773063621, 3.163501453671849, 9.428889284794494, -9.74417030071807, -2.691984295604877, 6.854006961208359, -1.9104496271160711, -6.134515002678841, -2.370171056799298, 7.906543916547789, -9.036914145210527, -1.842747295796995, -2.421348240853722, 13.674898281417871, -0.2720803212923051, -13.368818436792388, 0.8542853428385115, 1.3427049941841416, 4.33737351968355, -1.0944871329128245, 10.880345224047424, -6.281655419827899, -3.8715246725675745, 0.13266085011166456, 7.1937314897062095, -3.9360902804289752, 3.896025559582165, 10.385384419781449, -8.95255120285341, 12.620579789856182, -6.437930734348219, -5.923815953047391, -4.4123709172372525, 2.413417809802377, -3.99366418957533, 3.2874939106723144, 5.5459009622283775, 1.0691954377883444, -10.766392731385823, -2.4793391158275426, -3.534687480599197, 16.363184730761482, 12.789519757828748, 2.0126795569105305, 6.921729483112028, -5.432786842692021, 8.437842015134018, 8.298989340855425, 13.668228985974824, -0.8267165111975243, -17.991409466655696, 7.894849079112934, 2.012661965956914, 1.6921715250596006, -8.542867375511237, -4.895900280961389, -6.047015591493649, -2.6478509001337316, -4.4152945173392935, 3.126542878367584, 3.7964519540763444, -6.2553685883800405, 6.418473401565167, -6.61960489961956, 6.6416805925315705, 5.365250019704368, 10.99196494404146, 17.08449924334635, 0.7222644135168685, 3.0750245824329046, -13.139381110392462, 5.026942413495117, 8.800555871339762, 0.8907162788466985, -3.7842030856870696, -4.182872565943173, -1.359860688919241, -0.8771107489874944, -1.2941489081773834, -17.75351237785764, 17.313043234740114, -6.281386329104072, -5.534974475135754, -11.864726758765418, 0.4033836556594581, 1.3500979414417156, -7.214129244005123, -8.263856846251553, 2.384700973358862, 9.65932303771302, -2.329817355358907, 1.1985476756108435, -10.271295888912347, -5.662502193712134, 5.102601198088388, 8.877097343123562, -12.21765170953704, 10.76034219320859, -11.826139568809012, -8.591107356669802, 2.440268188145444, 10.572619333976615, 0.6416423251914194, -0.7029131338490713, -9.421573458278187, 6.975976830594466, 8.397680900995809, 2.6298110747517827, -6.279504350427423, -19.53407697089255, -12.518855038451054, -3.037499586032492, 11.214844827454739, 3.150046150985636, 4.110813412662035, 3.331404370433188, -10.736323904236805, -6.39324088954765, -6.481116506727876, -4.316608816151452, -0.2597782899309683, 3.4305843447219817, 4.103722831375119, -11.971173582939606, -17.002966958770582, -1.6941989428735136, -5.179981350490482, 5.160029054895751, 10.616235899025567, 2.4583935748526504, 0.6790317488293456, -8.620806252225666, -4.317629275813521, 13.715319631492484, -7.706058724799817, 11.803421148922974, -7.35052256344258, -5.373446853957668, -0.2328555407538685, -1.183169745743327, 0.17535625735053662, 2.5955164735134253, 8.741597158547945, 0.4255870756675964, 10.931680924094884, -10.502348977537984, -11.088149624367183, 8.602459797243558, -3.299842951096471, 4.398716686548003, 5.203026700978356, -11.098970815471061, 13.855826669587787, -1.8535622178418014, -4.08007903602992, -9.293258429992852, -9.15394166322688, -7.702380320770153, -2.9877101130226893, 8.036485738712418, -15.110973369068482, 6.386867522346952, -4.087917604611197, 9.09227789986112, -13.113004360331985, -6.83207965906992, 6.029873068475148, 6.760339435283996, -10.205907811037381, 4.410089686494967, 3.3283747796697014, -7.060695129957466, 0.3990449401573585, 8.360095794944796, 0.21780750451917574, 7.295102462543107, 8.303291948394463, 13.079429672773678, 0.8842240056430417, 9.611899943350437, 5.238607538704391, -0.5498448236633818, -0.7074644161538488, -11.308569230417586, 9.932073415933973, 1.2288508657263704, 4.104372373277733, -12.798956751358876, -5.152692743282589, -20.8778551815302, -3.2267739623281537, -3.317218189169, -2.7012474557712136, 2.8446246686881533, 1.4417678959000266, 6.494549218156337, 6.832112639683641, -18.290684636377247, -6.615263466928253, 2.044399404218498, -2.63590859965442, 0.5678817193733317, 6.7533631823210465, 7.652139530436629, 4.303732581082604, 8.564532671182999, -8.572187491005387, 12.606091514402099, -4.705282540793133, -1.9453743117110243, 10.61144792606159, 9.634738122091843, -2.257079279636157, -22.533789620013483, -0.8718407913911441, -9.087023826771853, 5.366243899755857, 0.32411289825244294, 0.24360368761839366, -0.1011073637374168, -0.4296959604394126, 12.988844970817713, -0.9296367109328199, -10.156036252518438, -4.492300071373139, 7.935178784178734, 2.384944684460943, -0.12120490815562951, -15.219267498516476, 4.665627996888157, 1.1569848354706953, -21.594547475745554, 3.933023333548749, 13.053617714401609, -3.7732271922774956, -3.942679624669368, 5.867484470049206, 10.778141300111708, 3.6216524434563464, -12.64326257365077, -8.695093255076241, -6.30419631216034, 10.914453537110395, -3.9938829264951314, -5.729278729503302, 0.9169562821571918, -4.535025195110567, -13.213029232697282, 1.967405360349944, -8.435899799215111, 3.605560203536682, -14.555202690259518, 