{"model": {"activation": "relu", "hidden_layers": [32, 32]}, "weights": [21.080346505491022, 11.088213509019015, 1.629650256456781, -0.7868110331357901, -9.188638885095049, 2.5637582588212284, -12.966716047700759, -14.725211102139745, -5.748618170871002, -18.929840535333256, -10.969219170808547, 19.08854883758671, -15.774273701302485, -13.29799730900461, 30.934759604022044, 10.742408303153681, -14.310438675973321, -3.2349800993911204, -1.0716236128108152, -27.276857085342684, 4.5646514528004865, 6.182008764641295, -8.763883258315353, -14.710488979722022, -23.24930387569398, 30.023151126777616, 48.713153853305634, 1.2100092238068039, -11.375089688565366, 11.62774481228214, -34.73894124122463, 12.442657678817419, 5.26795346637794, -22.280989186289588, 26.863612351736215, -18.057360190682353, 12.672586786590387, -23.06895816850951, 41.35058798425344, -6.721917888109055, -23.175521742016667, 0.8341987418987293, 9.798891847394568, 38.099590797020475, 21.48009897204252, 30.067296752119823, -4.224174552195999, 35.01109997414945, 10.12570959047211, -37.79057931968978, 0.6507791053976838, -1.5189119379341132, 48.8508505846733, 5.855934728747679, 15.24131703243189, -14.84897698837905, -17.77384437397452, -9.165064838761207, 10.851121354899586, 39.77123970147477, -8.667585013529623, -14.806326819901045, 3.548205539656627, -0.6372419960191376, 4.683802579734697, 41.39799806999147, -17.924763020106994, 11.161420538066332, -25.011335537794004, 10.716173085381799, -9.349929022404744, -15.545648393981999, -11.932407258185167, -11.000940323679046, 6.284809016724799, -18.16774267555479, 4.675544780330553, -9.697367350491128, 13.871746390605534, -23.65120891976515, -11.899697393481391, -7.928120059123412, -34.78128406946556, -10.282267057330898, -21.178664116945026, -16.66713749851344, -28.101533679046103, -6.689880271491123, -10.49022096836079, -12.259362655921286, -9.974422983834152, -18.34418683580705, 1.6575818454214915, -30.62176241330155, 21.61657273034284, 6.014430384146361, 4.467641071738643, 0.7471965278610364, -5.962912084547918, -27.32579709686903, -8.505702036721527, -0.045673546757240335, -1.580707830753888, 6.471070973304557, 30.78127233263987, 27.642669609734007, -7.239842298234343, 1.5409496167645549, -16.125113816563445, 4.325237191605372, 3.516829806018734, 5.061059147938674, 16.94512708012502, 8.920893075276217, 13.054653172919739, -26.39465382169034, 24.240802267813628, 6.938813306277772, -6.096831111890635, 25.80090943017222, 9.632100335532085, 18.790245965826422, 11.245542632199513, 23.48238137087852, 29.974219396435775, 34.51915475931741, 14.611507768120235, 0.689956591258069, -2.5093807727429787, -20.94297942702838, 12.658485320194012, -33.79655429974163, -41.43853931118216, -32.10857684650747, -15.093922558593869, 24.600214608706544, 14.842759879475949, 1.7775847843832178, 34.45910784795524, -40.575557937556304, 6.553238059521294, -7.801793023638041, -5.891998798525537, 1.6383812931889896, -33.73088771674172, 10.322450399612183, -21.856734185423345, -36.86608772337135, -25.039675146772904, 25.36806121531869, -17.7971585670256, -29.758842801986813, 13.161789143232825, -9.04029867401564, -14.133740270128996, 0.2691996517489497, 11.393835459629264, 3.057633864097096, -20.108455408688098, -25.871843819411104, -24.828989055391876, 21.825635835607333, 3.74555786258113, -11.378790821802488, -8.62704266042953, -27.411491141517715, -1.3954850030669486, -2.879530559579399, 37.73343739248019, -26.73826119740231, 43.492323987501386, -3.2496649152497232, -11.416166665402205, 0.0060368559822890355, -29.08068045985463, 20.557284364506685, -13.603034006055958, -27.134094054190818, 35.718881156327065, 0.26764395944863106, -15.02965533174455, -21.692606244613735, 4.149706291517987, 9.427858012205842, -3.7883441144189804, -27.788605608369274, 19.385974891784738, 2.55609598359649, 2.4198938671319694, 3.2289206366384295, 22.828154572042166, 0.6101925510116633, -4.439278487420092, -7.346665599585703, -2.54029835986954, 6.371268655454384, 14.34327217848293, 18.26349490963424, -3.2186619726784764, 16.648456122708918, -9.802821104333953, 0.33903568304693454, 12.379943466810946, 0.07050797766415384, 12.93690710698571, -11.435713814941053, -16.489382499404456, -0.08001596223462615, -14.141435464761782, -18.064341562620367, 15.062687150082986, 6.046148641802431, -12.45404003852875, -8.824016949820766, 30.11637981715294, 12.200714006954163, 13.98186143785538, -11.948619193113352, -6.755289182420381, -3.328941421000411, 15.901371361489321, -35.03644440155631, -7.067319323380666, -4.6228185752226345, 18.59165986940259, -10.494585473218317, -1.7126027919758235, 21.908478252453452, 17.201150975181466, -0.05696853761619047, -12.40096630066161, -7.050535320743359, 11.696303229804474, 29.102687066570432, 18.90704093694778, 19.94883659457183, -37.021292832070884, 3.420551053206605, -15.509059020550346, -10.59189281257558, 7.727387183454801, 17.26063817414782, -0.7272884644005355, 20.292440669702525, -4.473785699676586, 11.304980587133153, -13.907100744233656, 11.611815654737912, 27.978173256191617, 6.171850150158537, -6.967964396385299, -10.732918009664758, -7.1846238038861445, -28.4718606028965, 17.978604284717104, -25.768252111695332, 9.876231234600478, 17.75847304986328, -7.775973854688291, 5.1379758008161245, 6.208058707025737, 11.336986852981411, 22.32126345198957, 3.3541833657709246, -7.449934257346535, 23.39865715809946, -18.089265745221578, 6.618817021005508, -10.224827419669802, -13.973553454360635, -8.06298197823125, -7.373862505032395, -10.637494013614248, -1.7778428772372104, 24.910732471919644, 18.39513182469362, 5.448714420935258, 1.9488646141922206, -18.617370633635925, -7.0783221028743135, 9.138763663440312, 8.960022403030635, 16.30600891186048, -3.1214678181212427, -18.428316438659227, -64.63004829999547, -28.46563707174646, -8.851828032098778, -22.75286038747487, -3.5461344942455892, 16.79703460050925, -11.802929368099242, 33.63483042962091, -25.908120151348403, 14.830451142085881, 11.119307176931398, -13.966866862001337, -10.525182182436302, -19.530262247726657, -11.105120098317121, -16.31422373819646, 15.446684085120758, -22.200208968584416, -18.367333038541403, -6.452433911235163, 24.536391683731182, 19.578376000872076, 2.9022454375588467, -5.1700537662253705, -11.38473743809969, -15.164071214845412, 39.1380960069918, 26.184900883258884, -18.33289937648619, 25.821131252643323, 36.70513076191672, -31.247243528209655, -2.1732481886117756, -45.02240201553699, -9.420712047617059, 8.077593096492775, -2.8048943326008526, -5.940365276610119, -12.576591704745086, 26.72581255989735, 7.196794298164065, 19.07080304737098, 12.16560777978931, -31.223817386658222, 0.2760099852036303, -13.047449768550273, -27.358015497075584, -9.968645813226084, -23.895604579088165, -5.60220994473725, 44.65531050192448, 2.1163653221142598, -31.357436576493512, -21.046666149378265, 1.3679517463427038, 10.608701429759957, 24.09844654328688, -17.765590195107798, 11.98485223958978, -24.03935390854495, 10.346864012371304, -6.8383296676131495, 2.8114186434902724, 6.759832557394367, 22.542342778066114, 4.403378027396897, 5.310034314983501, 10.610455620512301, -26.564840103972333, 11.470792926801417, 3.977285374463606, -25.741902392668393, 20.82167629349103, -10.161172384558018, -27.38454105458258, 5.388789028028583, 22.383367118660125, 7.468600790189406, -14.364467959619239, -7.500492556769839, -19.43061246146571, -16.12341823057112, -11.404176305676602, 2.7275763624580156, 1.2906407896247398, 3.746775419128326, 25.38875330346967, -11.650486888455905, 2.4083612806931556, -24.590014762874862, 0.03533556656308856, 17.12966258932122, 3.0980128059517664, -22.19334818572867, 22.1489054688654, -0.9528126586909056, -4.879821713234493, 16.03849306271352, 16.33712853909421, -4.496926511577787, 31.001459365406777, -11.857678892623342, 9.584884545781161, 8.759133038537678, 1.2374203720034058, 21.48446994328897, -7.566317221261455, -17.011566809867556, -7.991660387666781, -8.527472439802446, -6.445022388470432, 17.036991305626724, -15.428419502236354, 8.019334691336873, -1.0342813418715566, -18.25435327054323, 1.7689575688876835, 0.5626315940998444, 11.43371802462101, 1.183820388393893, -1.5521898914341103, -17.33444705537419, 6.66978858911254, -4.221227965988429, -12.810779097970427, -7.017970349518015, 7.206290399202096, 31.21499336062861, 20.31000839176911, 20.687224124299558, -8.744507763121216, 19.749184549288938, 4.468546602682785, -15.487147942560838, 4.357176985234063, 2.6056032006755037, -54.772120393511116, -35.027158839975954, 18.654056648067236, -23.50719272824496, -18.683043030551524, -17.08334293901201, -13.858396976826308, -27.4011278808454, -27.618568441790302, -1.5658338054689587, 46.54710065778019, 2.8995453562687454, 19.959657289513554, 7.686376769038648, 22.848311328035038, -2.744319892490663, -4.009855629190745, -20.433962222653697, 33.56245534812907, 12.667553010979175, -19.397318282476135, 6.3275786466248265, -20.44357128026534, -5.079068402629101, 14.213995997842565, -47.629179166911456, -9.965666964230973, 15.018617575806422, 8.79674688277442, -18.721721485722913, 0.390977355421293, 30.145754271442602, 11.275160183714002, -15.920398666366616, 23.325885575581083, 6.189508642097227, 0.829430724549464, 8.697303018071063, -11.892261727310943, 22.42238594604711, -14.745627576125827, -10.393025989690871, 3.66970113637074, 4.560476343751335, 11.860170608409362, 24.873254259357523, -36.67983901277014, -10.191497299853282, -5.157751591361471, 16.633286879141274, -1.449820011248768, 26.058803195006316, 5.294615159608625, -34.954145818239205, -3.781366555597031, -31.026721228604583, -41.159646360368136, -21.26798890016093, -7.795594648338926, -16.151915490735238, 22.092072561975925, -13.363750887573271, 22.577956543211467, -3.887512773690026, 5.0715162362740696, -3.7209742338295024, 7.329828530105876, 25.639662810285905, -3.7853844593152006, -12.671281693957637, 12.729036780292093, -9.083132143071468, 37.143985297860446, -17.61564604363746, -23.7638158305384, -23.69586787520598, -4.5529785630427035, 0.14731918080550466, -23.4479349710792, 21.931783034702388, 14.633216282678086, 2.1363661668380276, 34.97131472437962, -38.08860842762758, 9.983784556121865, 2.66095340517265, 1.8782530563069952, 8.364179956095521, -3.335744905572266, 20.307211372278857, -16.693863985626617, -1.6688569709252121, -26.002946902926425, -15.167506323614353, -8.104931131561896, -1.7106916367868075, 9.585353729192457, -1.720280863079957, -0.20618530779426925, 6.967099985553077, 8.3949653554186, -14.213050658491145, -3.0616873178486186, -5.979261389889665, 11.052964572949076, -17.13368206130647, 13.07196982432419, -4.744050702797502, -0.23347787955911503, -8.82025635983211, -16.333559756964615, -33.76137177407955, -8.935346548763402, -2.8376712931029537, -13.557738153074794, 17.001572589429845, 29.604616310047582, 1.0041698290923966, -4.840134248665655, -10.135573899960013, -23.435014145536506, 1.031284705604941, 0.22108133486952197, 18.844843329473395, -2.553281556725783, -18.119669329976084, 0.9229942865635246, -0.547622616589976, 23.738888865739074, -0.8819047028616684, -2.192899845432657, -3.67733379559023, -11.112268600011383, 26.317663891669838, 21.904097126499106, -0.9302071071366621, -8.432578196231571, 0.3299554187754318, -0.9898547430170123, 8.658779062185534, 4.91677990284776, 3.3687123531477408, -5.316010459917146, 10.16204466246466, -38.18470791775197, -20.93829399592269, 10.78701504098467, -22.0316029758287, -24.110226593884583, 20.619661544569016, -14.081758320318016, -8.058312268065906, -16.91440553421674, 16.046910304092624, -6.163520796176828, 1.220297740091382, 10.513025090544325, -12.98697537595474, 8.920162032490884, 25.232831981689593, 5.876281995949653, -7.695546498808559, 19.4691633036186, -13.437950748820906, -28.43309334569921, -15.871482340400958, -11.220209053510079, 55.36110878500106, 17.403719903355373, 6.1325022914602485, 37.5413106551896, 9.571164615236174, 12.072571857043966, -8.203424697322129, -7.868729112714727, -15.471906046637693, -35.53064659760219, -39.393809872855286, -0.22953147613309172, -33.07416889691579, -3.877173934740713, 13.77244408381588, 6.557048310369162, 0.6688009586670545, 3.785215486464986, 27.080082539677644, 0.2643855493205073, -27.729154485678837, 8.60887181303692, -31.223483483402664, -12.78113082954334, -9.309637754059182, -14.480700027030915, 10.495773715481146, 29.113448062878803, 26.97844472069483, -11.740110204486129, -0.8237668021674065, -3.742078020617322, -10.18459332200737, 40.07419937068448, 18.79514156451555, -10.718549961404424, -18.97835573883578, -42.94562642240875, -7.520900438233081, 5.7653402993576455, -10.906272539549654, -30.42612654050163, -1.5608914636942353, -2.371623797428758, -12.988282580511035, 1.8194468601686717, -28.101109840024534, 30.18026170379548, 0.2567808159693083, 1.8238531488595289, -32.67819127110374, 30.018138665585933, 24.640511568709954, -9.286153647347534, 22.168031938467053, -10.904155818355932, -4.663806792994705, 1.7555066613447587, 3.8442530223017224, 7.19815288656642, -8.614090594848616, 0.7230366947561722, -34.984498069990956, 0.6565402648474874, -39.617181851015516, 3.6847161143216716, 0.3947998861429206, 34.671844478600185, 14.301636877677545, 10.091321573760977, -5.052362847675242, 15.801691112692598, 7.14451733534539, -13.641690920337027, 5.287705520188471, -17.382690365801423, 27.31199334404248, -7.5597029991853795, 2.9224273725072356, 11.348258830347108, -5.80235708378817, -7.718346655672178, 8.884155185714128, 6.036487436607685, 4.29650829802907, -11.460862539716352, 0.9201435132663665, 17.672662630294482, -2.415969367459092, 33.16117032078932, -3.8001680658288253, -14.519493605014244, -6.770869375291041, -26.676515633073297, -10.714706666394036, -18.68553400439149, -19.31246643244542, 26.213566600305093, 0.9975614130337445, -16.39119685008306, 6.324387992269223, -5.075977143775288, -10.372407156024073, -1.8512389091025265, -3.576753541611686, 27.190805578190293, -4.194431528852602, -29.895012022109487, 13.331811666610777, -18.741215810670937, 0.10886345852804646, 13.533595358142286, 39.25739395820689, 29.953294499783425, 5.4628872971906155, 10.031123871796778, 42.41504745910643, -12.544141562731465, -8.624073940330007, 11.585163138257816, -0.6959182971624166, -20.107830762100612, -9.09780150954182, 5.341978780749798, -20.171286023131128, 6.244724108722401, -4.982795138744512, 3.5182177007625257, 5.8262662158766965, 6.101833526748862, -6.8073352005588434, -35.11108645728853, -7.335040989858088, 8.318812792517196, -9.025312542860224, 9.449063534648529, 4.19020368115159, 4.4738806867317775, -24.65616017188669, 7.925123348726313, -17.977365051200984, 1.482036268199188, -3.7913124435361394, -25.989098545988806, 20.450318360681756, -6.475944626507, -30.905203898251635, -5.727767122646489, -37.97293691679909, 7.777277552225948, 11.516715734237955, -17.172089776461572, -33.649835185109055, 13.6280747077164, -24.30819129919041, 24.77600317105628, -6.062766635929761, -31.00440720031382, -27.52165274838537, 10.175832991074563, -4.501659864082772, -9.764275327203693, -13.925049453014726, 1.118691172982125, 13.403908491795736, -13.972749093467002, -20.18910579187065, -1.707494234840226, -7.036510956420753, -6.303492946194108, -9.103594385130151, 6.2443494025929756, 10.356534569907872, 24.719722977391417, -18.585632446776437, 24.247429929095766, 12.547505311246406, -26.15821407231181, -40.00015718356331, 40.47221455867477, -61.20361612147152, 3.931081827640321, 32.88091384909749, -25.240454072119693, 13.87780828402959, 1.5242862926371972, 13.600230063513338, 9.876960307266552, -10.261207611813196, 13.861062512826896, 17.937171334766916, -41.98555144789101, 13.211979492745307, 7.313390215453271, -13.72690030115288, -1.355817593804823, -0.9622377821083796, -1.2365640260269188, -17.303516495190426, -14.879968448477836, -19.041728849279462, -1.2980505719299873, 1.398306669080182, -0.8227594124033288, 2.589871169721139, -9.615390735532962, -1.095403591324954, -15.119271196537872, 0.4300690073700655, -10.16084800278889, 13.53901235051431, 2.2363105170522095, -2.6381278189093744, -11.57755144376785, 17.440861320644665, 10.830604008028248, 5.866144132761621, -15.606121390550667, -2.2754822059910067, 13.195370924274288, 4.04192999267478, -23.641667113835705, -5.576619211164123, -6.058020479446855, 29.46350114912353, -12.26673909471171, 24.62109858237849, 19.633637406702597, -11.572191154251751, -1.884801552141535, 14.545741398519034, 11.954017288794523, -11.397632679304595, 17.665832239670436, 11.302248961508916, 26.14736893654358, -16.521129832804768, 17.6535351923597, 26.290249440880185, -12.450102884950395, 4.282816180096703, 6.959441174463658, 1.6941225266100237, -3.9327655379384616, -27.330959601667413, -3.1755784732640175, -35.09698747154373, 9.328010658306699, 3.7759401919816282, -7.020603885496045, -23.90652173491109, -12.018229735911607, 12.088757938689726, 5.132250774834948, -17.01278484446801, 14.68819739368582, -8.742793922930137, 5.290632027411114, 9.860505214749459, -11.20138217866812, -19.571321081311613, 3.344426807558901, 10.225752867622942, -32.05810953008717, 25.187899809055732, -13.358175316104708, -1.8506506742086808, 18.07422850267667, -3.295111283306941, -8.138684308277893, 2.27616275135057, 8.991447514601004, -16.971840998830288, 7.346269801585064, 34.92598453125639, 6.653809142310454, 0.42426126805720143, -13.973794006165344, 1.7793099602772642, 20.044224938085428, -16.084513065186453, -1.0109156242033155, -24.101658527150683, 29.335447787058644, 17.261713352300504, -17.45200855518718, -20.39051720960785, -50.8087568694592, 7.132794708153667, -20.423645507813607, -11.193931876406818, -14.941301836230693, 2.031587360150542, -0.19118052808905683, 17.768396723172593, 8.327517329649378, 20.618616976225844, -21.886432700281215, -14.570980570365329, 25.519260782469065, 11.193603032386342, 23.65180139573786, -8.088147748747957, -11.163048841339869, -7.731033965169271, -6.703552245975714, -11.258972147675374, 1.6308416327145765, -13.157682657965244, 11.883961355120862, -17.400541749997238, -9.767841022522871, -15.00966673188649, -2.2723899206759777, -4.069142859968382, 5.52982800730832, 40.405898753866815, -0.11581534747537493, 4.898232495803894, -8.819443923288604, -18.941063354889586, 6.324481995191263, -23.310357186963465, 2.095369513779491, -0.044341809152126266, -23.403096469007068, 16.763795174837103, -2.0560250087711034, -28.2543007466272, -3.537242345005025, -43.84274321012216, 6.5956348269028435, -19.948781643903313, 5.918303229210775, 43.51506319553259, 13.541402622894353, 0.49171398756513307, -15.713286261560562, 12.11322919841504, -13.188196544323283, 17.183905556731787, -13.780599626811068, -14.04931129106286, 37.05697436543487, -25.642395122445663, 0.8186661839719345, 23.169787658898947, -2.596326864040493, 0.014866204330146612, -24.723513675210448, -26.0275469642857, 22.83281650850949, -3.83683333464567, 1.424043677863175, 27.30754931285604, -7.6262989642372965, -8.606860386798964, -25.916248014275332, -26.461712872679872, 2.3752654032265523, 22.808516776245973, 19.806655269483343, 12.375468606616712, 0.6449185199970046, -4.694532853180321, -45.498303595166114, -0.23143456166091425, 13.986225758887306, -8.624325720281005, -0.7867202866392925, -18.10188527914217, 6.830424169804999, -21.517672929040007, 2.482855723782586, 11.119528768914494, 6.879571450325536, 17.799291711084283, -27.923310862733192, -32.222943921417816, -25.569682264881635, -14.548126287416995, -4.2976558297102105, -10.949878273815166, -14.83063125783629, 9.04178381284612, 1.648284234586412, -9.242305308768149, 1.329422279363103, 10.172344359402127, 18.270189774765694, -3.0415663852378345, 43.88711482943086, 7.39795002677088, 8.648454088943993, 9.109672078116857, 23.714201733734548, -26.35893326284213, 7.621684476108245, 7.044712675230825, -20.05750605491022, 8.758951536441058, 13.400302351174822, 14.023618929221547, -35.91126438418816, -15.828766351578487, -16.497036990873777, -38.918557918742636, 11.224998088229567, -23.011299112110507, -12.644087210747553, -4.778658684800858, -3.6243619766606736, -13.676645273543047, 9.012698451501167, -27.130664853860985, -21.98371835155375, -11.046978056970282, 4.944523586995178, -9.382122714339161, 7.220187691229491, 24.573484933103828, -5.7954406107803065, 1.6021365683330404, 23.453435154439493, -29.660659910243712, -20.453584087494708, 12.414937907341951, -0.8392600925414202, 13.473254546709216, -13.752794722805966, -8.004399586687697, 8.013322764449079, -1.8662280590593785, 1.1650871307367998, -12.715712408995014, -10.316745775046094, -12.977616005645334, 2.830696358684066, 14.885441472620192, 16.74775955090329, -28.151997934782383, -20.377722581319237, -9.156097554741015, -4.433854017360467, -1.7740077910803707, 34.27605741441227, 10.421802717916448, 8.186187664780636, -17.313684710091994, 27.029022823601423, -7.0180542892568765, 19.551075537601815, -0.9571678537748957, -6.61439781049418, -1.4814281298647856, -2.6605585289817797, 5.5158269422947175, 7.813331491682424, 18.175528073050703, -0.27009837565680433, -4.3318166802986875, 12.480857646764134, -3.861392678884629, 22.575190346624847, 8.61855388982893, 5.363446741167674, 18.562738053855277, 9.626905982673561, 13.665340565556892, 0.9496794703544058, 16.98072537036407, 16.355848259871323, 23.51041410455023, -3.5810777217695557, 28.530022732543358, -30.663205794396816, 16.462646987667277, -5.2424350345443935, -16.005511760710103, 12.247803531379255, -11.271639770804324, -0.3981857105671661, 7.02018236502536, 8.347652579265947, 14.770033140131641, 23.034958897739845, 4.888081559891224, -8.859703631818562, -11.441314642827237, 6.559539120534853, -13.153123698800378, -1.449678678307623, -31.389611258467813, 1.2731048008420371, 1.3711748531934578, -10.134697288485714, -21.51099582932777, 8.19452261874996, 13.251940656566928, -15.961355578160621, 30.069089380124797, -20.445040727174913, -16.625998285917724, -21.977647566228455, 0.8613599671202478, -19.710770820992565, -12.926361038607563, -17.03450956193665, 21.456807668805528, 10.102241735392687, -23.411629066387473, 18.874729377726513, -28.825596829779958, 18.537894769241326, 1.5980868663126113, -2.077392446609571, 1.0430849296866491, -2.4058650836587567, -17.3743453502289, 17.094030081082515, -8.553855480114784, -20.240461904171596, -2.074205943656743, -3.6785950047384226, 11.238019903868544, -11.26624364870176, -1.7546201462347164, 8.10022396436301, 12.883177613529869, 41.07821226673125, 23.35804947561951, 5.946151273207966, -12.963988133596388, 8.815593553940952, 8.053699513264624, 9.742100519407476, -15.865992745473822, -4.385301010362324, -2.900285893996701, 4.267416331162661, 34.40028971309922, -3.5102691822861196, 4.8049052984965375, -4.290571085280915, -17.671624387288396, 13.95763445980941, 25.173646678841838, -5.047967082433874, -12.927871683754127, -7.79719491165242, 16.579248399906927, 17.26427327171306, 1.637954799247918, 1.8151274818585912, -24.58004402752405, -14.524215681417711, 18.97090682152629, 20.01366790108907, 42.905941491893685, 31.706041121153003, -60.241416785478044, 18.583099648770503, -1.9302215327316106, -15.93937100649926, -49.18629441798408, -2.9584217746521118, 17.668774996142012, 14.082103662184283, -11.004608218097403, -0.9448668836647366, -7.686191104408146, -9.294416209613567, -17.360016274969613, 20.53439555481655, 7.962123906670416, 7.794637976671537, 2.3287937846528033, 10.075491762203043, 20.491476762312736, -6.375240923327692, 21.393547325351012, -25.974653479901285, 14.18529585924498, -34.55791592949813, 24.565068524483532, 5.924339642366053, -15.653738140165158, 27.541361231819536, 5.10132403922366, 2.4044034592206907, -10.704273663923903, -9.535882088270101, -20.381995670200855, -4.29101992276874, -13.864679682099382, -17.610419860946276, 2.645719408360155, -25.514089695539376, -24.798590508844942, -7.7164747202913455, 0.6874203157059448, 22.112086796282387, 3.3220333245718763, -17.121742485460423, -16.713748931285316, -3.363375589970069, -11.374837157890811, -8.714405326618472, -33.97098238121096, -8.146683078047323, -10.946463249773409, 10.899136509610074, 35.082757016536526, 0.6696547753649686, 7.623156931643385, 4.108083324034077, 4.604379768233545, -3.893702177364708, 11.85063373438977, 14.09659698480624, 19.362473178153692, 40.137724049425465, 7.320691378247336, -13.861695724732224, -2.2087192845575783, -0.7394802566020797, 49.69554640653144, -8.653653964523134, 9.78451957357598, -34.4849904512434, -17.048005078236894, 3.8480474236376843, 9.086148578175749, 7.260099986251797, -5.233581655761655, 44.579838544646236, -7.958726622889328, -11.775810023260066, 13.09626577722952, 19.977624275443596, -3.2820607553201873, -1.0843946537862659, 5.109429667497519, 4.0115182966962974, -29.710100516559933, -20.001192131445972, 4.23080001836009, 24.75739655666962, -12.721292576248278, -3.2527625124085757, -8.738184767706231, -17.902248754624136, -7.329975178215622, -13.131642227229582, 26.15433420286033, -11.647869531660364, 49.881687245192566, -18.967934437145118, 9.202371929061076, -2.7368937165468483, -22.593459227023104, -38.881997459436626, 9.286454642666698, -28.70444286155327, 3.9927942996482435, -4.249479295402726, -1.9325041096726643, 10.979739839117151, -27.946368750264966, -8.468684670984722, -37.202370955262744, 14.355226447953555, -0.6338621698841567, -1.2075093087459305, 19.18966122013593, 17.494481569288137, -23.78335321803931, 14.000843915627947, 8.184247261926286, -0.9097630596056373, -2.898047024751282, 18.485702759414647, -48.900792935622356, -25.452365184936635, -13.229628806282397, -20.168222607739473, 15.319269390909755, -6.429510378177534, 5.965547746896715, -22.40393373253842, -11.26396447621282, -24.101857120182984, 27.38164159190142, -22.659369705955296, 10.770025395655068, 4.413299812013893, 10.71095791569224, -22.643857392041138, 4.266110548320921, -13.443615018638686, 3.3765981041529805, -19.330149791921492, 3.2979086040417904, 5.333257507950138, -8.523760957315334, 4.159561366021161, -4.191129787875609, -2.8010424828255847, 1.3396537833521778, -20.03144275654977, -3.542840079449211, -5.883815164058346, 30.680736019362186, 6.615327886329444, -8.975916103612228, -4.196645566383912, -1.2064124152276605, 6.729345170766595, -14.293895394414525, 0.7869750793732395, 2.9896937830044146, -11.210290501423588, 1.558553740940593, -21.68970853741218, 19.2395789071063, -9.708041597819891, -7.540320313691454, 7.401241349016324, -4.6513684015328804, 5.011826192719164, -4.084799492524885, -6.744076806974878, -18.074709144768782, -8.886229279312033, -7.111729885047291, 12.0633772437483, -22.837140647470978, -1.390528977728987, 9.547472118535016, -0.5465618977801103, -9.369696826306443, -12.567142870350901, -26.17296387670454, -0.933043025857881, -31.073522042949797, -10.321616110387597, -26.990048922759364, -9.478071166002586, -10.86366515221581, -3.920609811392874, 14.168448938281887, -4.3282888290177866, -14.226126963773341, 2.846843492595495, -15.288410205188175, 15.328571267014036, -0.00777243878508363, -27.439265324216848, -3.2212623701075813, 29.444991640847185, -19.491233839285464, 6.588202169079325, -17.327474475012025, 8.268532540958578, -26.604454953978124, 44.85148784583594, -17.31906328815057, 14.537815039729157, -17.189749458867265, -13.358562691092166, 26.349028028018118, 7.493459293478796, 0.24608304372874845, -12.2526090785782, -2.089946659199917, 14.600647222507606, 3.0662254413143617, -5.79269665520632, 21.791548710045074, -12.220084441353428, 11.468270252252001, 11.789456662654919, -23.714430849311352, 35.15941829694159, -11.440466719644379, -18.31924658561847, 26.34448988761953, -8.07494187701459, -24.012193209883506, 6.2201322763101805, 34.26951222559241, -9.553058310048824, -9.736464528303332, -18.932619446902887, -10.804589468070516, -3.0468297995253946, -25.04154213549735, -8.344198563639434, 0.4356302239672585, -17.263108485694193, -2.752686717084071, 11.203444748770536, 20.537137929582258, -15.928117998215649, -1.5383323179585617, -15.114697071891776, -10.397053389949896, 13.769220789185, 8.646741798310293, 21.686728230241116, 4.4746030790346305, 10.346175871657874, 10.233929682860778, -0.4210952359480695, 19.952591756647212, -8.376341237157545, -13.518830096854847, 9.750788271098008, -37.87349929281565, -3.245124646937003, 2.37938837303785, 24.144230911860188, 18.08409483267111, 7.531318401450397, 3.2989610026946283, -17.118715086951852, 20.597456199874262, 2.685490206161651, -7.704936289416284, 14.574695132539246, -7.247285524312554, -9.509399875644135, -2.0661590953236977, 9.512352482647742, -39.28800717688699, -21.45552862852905, -24.47040468523293, 10.393563847009945, 2.665702487420532, -13.104536840633726, -32.85367533855821, 20.30897231887294, 9.024760749192655, -25.057067000879176, 18.19511101950986, -24.02578570660056, -31.53872444162433, 5.526617650185791, -9.89729925920172, 3.049228352310845, -13.46564448047277, -13.31640037930166, -7.8588002464383955, -0.629923883400048, -18.13620878575102, -2.0949903684135966, -14.028170874596064, -16.143544124209864, 19.658427098387897, -14.4506610963549, -35.539807754471006, 14.337659033497696, 4.4009203889301824, -3.0743262323486595, 6.601799379871921, -1.9202126827088888, 25.236281293144994, -5.070097578955654, -10.84837292961096, 13.64365975380291, -4.020758761444006, 16.842337297936957, 8.628461514008082, -6.956621222259359, 7.277211813888366, 37.02175570012124, -14.07560667183643, 18.994640554970292, -32.79641174163206, 15.877915746009942, 25.614196387860922, 9.316972675339851, 18.72776757647855, -18.1049963412217, 11.336694156329385, 37.71642191560305, 7.352124944260272, 22.765149158027324, -0.5012689339023486, 1.884199128134466, -26.16824416937647, 10.667302369016092, 21.583578781697852, -0.9878212305599037, -30.63851750129819, 35.66033675959733, -41.673046377769694, 23.23491871220291, -21.76229414420168, -11.06212981913213, 0.3572850539934885, 12.668884587921449, 34.05272442024162, 6.9856915124906696, -7.903521860397658, -9.103660651437835, -12.720745685485248, -3.410193289209774, 11.993702641245688, 27.316579832003836, 16.959285899978717, 18.65222219042628, -12.824038264547019, 5.790156533393158, -16.12986380195349, 3.4519853717585303, 19.148375179371666, -1.1708895474348846, -7.418300108404877, -18.81892960171703, 16.99404592859901, 10.45590855917021, 13.664221782734186, 0.8063874580724074, -19.334030723630775, 16.434821070077504, 27.004416323248904, 11.166060221713666, -7.752813662434601, 9.050956433135577, 4.962606807850146, 13.012011122076595, -1.0638199189055186, -9.286943911074886, 23.697605161804663, -0.43553878341561447, 4.276106574857302, -18.594332754937337, 6.727491275832876, 11.038534371152206, 40.562273940453686, 9.53113417054298, -5.611245318458323, -7.276860055711265, 2.103097151768318, 12.627791148645638, -27.50922218137616, -10.069826503762132, -19.016507905131707, 3.7351154264492576, 9.43625587709093, -6.078607125896413, -33.85319411037625, -0.4461889332107014, 17.966543649895243, 36.30566676111735, -8.637922340190215, 3.1056178694561902, 17.823027775913474, 0.6932907467506222, 11.461503851539824, 25.04951438576036, 14.458591399959039, 1.2748825473154275, -7.565218753360303, -9.71857798726969, 2.27666851287722, 17.142889596058264, 27.468504617033076, -2.2487780384985134, 17.77023867554745, 19.538594054582788, 1.93927110341369, 16.152375289980558, -8.53589938742357, -3.506672774294599, 9.808455245036756, -3.3927146555231653, -14.259621703306589, -37.5608875369415, -30.767635172837778, -4.326940353514407, -23.43312684677655, 0.4618107690372657, 2.6712073513085457, -19.34145642137477, -6.493474725616657, 10.104341506130513, -13.183685296612717, 21.621570573596436, 24.253212613190065, 25.38865395689907, 37.750641263799075, -0.7054306684151554, -21.09426708985823, -6.309730469265611, -11.799010739592067, 0.2418305748574722, -24.202690766601464, -1.925571356744556, -4.441566876820767, 8.600638324129243, 23.333180879263065, 14.343051578333638, 20.980189924116242, 26.180192005680933, -0.042407965371063894, 4.579150802734336, -32.28841108523199, 0.30523096393728955, 8.220954996289509, 1.834118604358215, -9.194045541879404, -9.819557866665729, 13.003417595732309, 32.827498893091125, 27.219782125189774, -9.466566881607328, -7.928759042094599, -35.25327587742623, 8.523496957054691, -8.899286766282394, -0.35844527532992077, -12.484026662392298, -20.828142987677182, -6.290786378675297, 20.12247892485527, -12.912231236958874, 12.850389879647826, 6.198003990199477, 19.837174944583623, -17.34274131924214, -19.92630172778226, 19.621471801006052, 9.100695709781727, -21.61765039232374, -11.278827929895977, 7.101641277218744, -4.8312871451738575, -1.3083560218550536, 13.796736875187353, -14.844123951196636, 3.6886100426794224, 8.293906329714723, 9.473170618416217, 10.760869443003884, 9.628362700699444, -2.5944880540354776, -12.640328960892674, -1.9984207414777848, 38.75117536110078, -17.13413736587958, 27.638580815029172, 1.5222611081302289, 28.12371789436968, -40.62593404274549, 1.0170743624055407, -5.430269592654623, 18.84824814977138, -2.8600207153424546, 1.0571947723245185, -3.0248575856940634, -22.3098232078145, -26.353403366193536, -27.435811099795046, 13.706472590240411, 21.320527175694515, -15.993155540926818, -12.964550941028671, 1.0974730549123248, -11.59132023921083, 25.864990682604628, 6.2894053309459, 2.4861265809998185, 14.111866433411766, -16.175707412255356, -3.0180585232646795, 0.22326627035603808, 8.022926281190415, 17.423443905735034, -9.709840052363376, -37.522547994135735, -8.587113607389467, -14.169824793866649, -24.687182570853075, -7.756869409049272, -5.1178988361253115, -41.484140772944855, -31.90058180361314, -3.1878329160372445, -15.733159943327996, 16.663664613353564, 11.502349362753513, 9.117525069552274, -23.164351447348103, -7.354866264260369, -23.968091217923416, 10.974078146240714, 6.142149060821962, 10.870705395464574, -6.72073907854444, 24.702839493876734, -19.82244263644286, 17.27073344884822, 6.8122549710007885, 24.435882698578006, 5.427592662759368, 22.861093363772294, -21.570667343583676, 12.204092840333887, 17.301209661872413, -24.560445290138816, 18.291616217949713, -36.328268366550795, 11.347669759817249, -1.7199977606036192, -19.65327877765743, 2.33788442098465, -7.324533233721514, -14.905344057436523, -29.609279637761233, 15.264642436320724, -6.564172866651366, -2.8900584154795927, -1.2461239796247578, 26.157283550957025, -14.81559856984182, -0.6770726571229282, 18.018803684986622, 9.670321704162335, -3.8285230393518255, -10.38145707422775, -2.077848458957118, -22.856706936696014, -3.582770196073854, -4.263166655086435, -2.1232606619321066, -3.3711654385612624, 6.113141416466078, -6.211732578264945, -5.4807448976581, -13.775348945808231, -13.685613879648683, 5.218664813596764], "model_name": "mlp"}