{"model": {"activation": "relu", "hidden_layers": [32, 32]}, "weights": [20.679191991094097, 12.293167960236717, 0.7764680753832249, -0.0795207877944171, -7.790028179090336, 3.7669673745337593, -13.455190976521646, -15.196966552353034, -4.8435080934733685, -19.534799409452408, -10.3778229679419, 20.10099402642255, -16.335377500433886, -12.570343514220749, 31.09062268141669, 10.378780576037283, -14.779083988744407, -4.554469461745545, -0.40582670809057897, -28.32458072204147, 5.750332558253975, 7.200708863026183, -7.674637895777349, -16.387111635610097, -23.148778322771808, 31.120930851992707, 49.13070737757187, 1.4988025302252246, -12.007393885132723, 11.789470855908835, -35.0149394021127, 11.843312087038957, 6.314950214408356, -22.74503531127888, 25.47628652444382, -18.028985284526538, 12.915185383329739, -24.18224063510242, 40.607740316779925, -6.092343374757062, -22.195716317129797, 0.45964266634934436, 9.534183179292716, 38.639355456636245, 20.439413775180903, 30.149975748503813, -3.015369882606165, 34.75909335424998, 9.41358097769845, -36.998578999031196, 0.8971545068528279, -0.5753478663482399, 50.43165118132285, 5.586547186267298, 15.891419560120472, -13.051017678754587, -18.537371189960282, -8.372785262414322, 11.804657318575982, 40.34566815168332, -7.774167113005524, -14.955268173094908, 4.585294435833729, -1.416779920323434, 6.681971216974116, 40.659203918861174, -18.12825891507911, 12.175607374123112, -25.488428936107358, 9.893875870583463, -9.374204984137517, -15.761879137125531, -11.144117279060566, -10.19386704887275, 5.99278602829698, -17.857901233025522, 4.327731979822623, -9.287246215183877, 13.863381087583198, -23.73619608830194, -12.638407575654348, -7.26724572503289, -34.12714138001516, -9.691033781806574, -20.194497429983137, -15.698307517489647, -27.977106702699786, -6.529515702396054, -10.910319586812301, -12.331592101445011, -9.911941326478052, -18.827002476553325, 1.1659657459573614, -30.822476364997733, 21.530605884423053, 5.919353264241048, 5.361548805201084, -0.4726748975160968, -6.104978741785711, -27.28110386746672, -8.420188581258278, 0.01068495227416466, -1.7479495232772804, 6.518150722570907, 30.513305639354886, 27.459049984482164, -8.590444380820891, 2.0102692509992983, -16.65153397861778, 4.7659656862856306, 3.8294761571300233, 5.165390055952825, 16.994825317149694, 8.770007254310283, 14.937847714837895, -25.97371988361341, 23.91187805318896, 6.749332381508129, -5.742134080258296, 25.604395425078614, 7.982080978094441, 18.815516525393072, 11.665479636601471, 23.92585624377074, 29.19607055403045, 34.548679085919, 15.081129841818496, 1.1327048229976342, -2.2321209994416735, -21.64522163191945, 12.018591299340498, -33.12849909177711, -41.79162103721824, -31.273732849637305, -13.836827846512755, 23.53720480610865, 15.566234963739934, 1.5824665267879348, 33.50389308866491, -41.46655148977539, 5.607939264386921, -7.458991338297672, -4.304834818478722, 0.8859131163331333, -33.47387875309204, 10.85361182354701, -21.296480366513542, -36.87497088484058, -25.692622459426424, 25.132148168712813, -16.977549085595722, -30.258474982679886, 12.015060794449356, -7.311936474130574, -13.979379596322921, 0.8997730850410839, 11.037644381031626, 2.8805717866244755, -19.401480713380167, -25.692513699971403, -25.225881077209344, 21.026992452699275, 4.14556429173543, -9.72546767113117, -8.976974142375235, -27.25168120295039, -2.1892369915718652, -2.0521347276384, 38.00170340810444, -28.262620336922115, 44.303995995856496, -2.220532807385474, -10.506144711518148, -0.33478372537055356, -28.713590833557998, 20.16076461858124, -13.751754454047669, -27.009355564098243, 34.9142151963217, -0.5890910913355447, -13.918663747695224, -23.275418735880365, 3.8432077422806987, 9.240439192287798, -5.09125761899505, -29.040271252238835, 19.527792239751523, 2.6644411070771166, 2.0557007750386713, 2.023847503436611, 21.472714520202153, 0.690166514062816, -4.916298670269536, -8.385027366011524, -1.4794940834536312, 6.508193341754823, 14.506772484990595, 18.418928442899094, -2.374209668903341, 15.803312996940312, -9.137140533253817, 0.7220799866040318, 12.22762839744553, 0.6630685768795723, 13.367227051266427, -10.902370372373312, -15.313562334069932, 0.2329054347474131, -15.125376769337107, -18.285382944389525, 15.057685466491233, 6.197682808652594, -13.035979709377429, -8.184779827893433, 30.84023928696912, 12.185393772205039, 14.093290889244818, -13.821385207882077, -5.80117667408332, -4.01692480369527, 16.422483170608952, -35.05539283287448, -6.339531399477175, -5.560890703343404, 17.687981526634168, -10.812889628838793, -1.4269133564517702, 22.23801795022534, 18.189046135072214, 0.8756124920729376, -11.070817120872718, -6.708391055544038, 11.963994355815434, 29.392467910812787, 19.9494670726295, 20.72404922463439, -39.143137558197125, 3.9083898320337216, -14.698482944014076, -12.006776176590007, 8.17562779557204, 17.12357192981631, -0.6513541986950737, 20.50649061981491, -3.607505105768671, 11.187590649223731, -12.679085788227797, 10.915821710879483, 26.494361723933103, 5.008294918607271, -7.491237906480769, -9.708550277721912, -8.236275004281204, -29.81855284646989, 17.721122539405155, -25.87985033114087, 9.086202421369835, 18.185802010690374, -7.803491452049856, 4.794535771814868, 5.9832946880436895, 11.826187245872257, 22.030606086542296, 2.0245241777298264, -8.18818768046802, 21.798917101686065, -19.497297902217888, 5.5165220634472805, -10.74831622308132, -14.405931292448544, -7.876314340636052, -6.372144770445873, -9.833427539470419, -2.3869538918927216, 24.04219085257821, 18.999629627826206, 5.388100151687679, 3.4757479228066606, -17.930741444812025, -6.639254884772715, 7.605794866460741, 9.829300740434364, 15.764057225870236, -2.7225995383784567, -17.735986906550657, -64.34233083479319, -28.20780922416096, -8.23089481600081, -23.81786460324872, -3.7233005909579795, 17.173601410444142, -11.995105354077586, 33.51797252489838, -25.52563261905286, 14.112528810927284, 10.46839874675073, -14.797035161644224, -10.651367858441027, -20.249915617676358, -10.456115747438046, -16.835433125728976, 14.97488860120466, -22.36087954552619, -17.049359623048545, -7.1879080655095935, 25.009235067634936, 20.681523710142223, 2.7786926689773543, -4.476555441276602, -11.67585098610645, -15.762989176330684, 39.37690321898804, 26.246661600654896, -17.081719092002405, 24.897390770122506, 35.2736910294685, -31.68224628224457, -2.9269235056191514, -44.354391375971225, -9.793461515284683, 8.42370089862617, -2.3988531930256505, -6.511472340532362, -12.015839465088684, 26.398055871817554, 7.232642625641394, 19.150463437826446, 11.057864757971746, -30.89400677277822, 1.2485956808939283, -13.516792427285028, -26.433983733066434, -9.68744863697742, -23.82790459243135, -5.327319294085969, 43.8632305540099, 3.786559031214463, -32.48728916598453, -20.792614108280034, 2.079231147319682, 10.748788406759937, 24.515882948323853, -17.337711340207694, 12.202319701892465, -22.990914407690745, 10.307833994037548, -6.2024347697543165, 3.4420700823581556, 6.047107886489876, 22.22572311944567, 4.441810871655366, 4.399739716479324, 9.533013914351399, -26.738677179943632, 10.395923588287317, 3.1100676733970904, -25.11662199662979, 20.565281728423273, -10.422060078294814, -26.500060089869443, 5.0772646045383985, 22.986416541225008, 8.539036905156058, -13.926464033437295, -7.535203985572769, -17.912532525501707, -16.022121311955797, -12.19041643876567, 1.500480657029588, 0.11713651994690666, 3.3883708230123233, 24.58808975547883, -12.877453300650437, 3.2552190223495567, -22.96610493944932, -1.0641616811119983, 16.64563487270407, 3.794859306516361, -21.314764875503514, 21.879631374841573, -0.4792902651794311, -4.892636947282756, 15.738894615053843, 15.412888270151601, -3.8860968960392674, 31.156835173547538, -11.750716953915154, 8.610516134418347, 10.277386160958091, 1.5130215225300445, 22.20451841859756, -6.786515226732787, -17.58704487484391, -7.181850480065023, -8.72028211460394, -7.491186502994827, 15.995142554124522, -16.746592720347316, 7.8173550134530965, -1.309103154274076, -18.187066794487336, 2.5132218149736216, 1.2671565529944708, 11.988781143736656, 2.5141083314810633, -2.6229278429050287, -17.746890951972706, 5.810910173762265, -3.6263682314649897, -11.657469058876107, -7.49626026091017, 6.597676587004741, 31.250071260174, 20.572398659773445, 21.38633553197122, -7.836739094951659, 19.734755268956544, 5.832616555604397, -15.558790423610766, 4.137771589255942, 2.0750640064241894, -56.18037887253153, -34.57824279678094, 18.141389170445375, -22.461045335227926, -19.533174703473993, -15.700637785157667, -14.690978388133708, -27.250784874410275, -27.32379261770253, -1.7548226317194555, 47.018599624199894, 2.602849440896358, 19.137753801535144, 6.333765764423168, 21.818334459006042, -4.31898917393474, -4.044191685551328, -19.29459842136277, 33.48697779622968, 11.611569330476456, -18.835375564426016, 6.567901335887332, -20.079277357546836, -5.599775652802655, 13.486350478396897, -46.845796306809895, -10.180601639015006, 15.416642006243832, 9.08216147686305, -18.672355206180345, 0.5957256312461657, 30.584480241641263, 10.849375079897658, -14.135868238214517, 23.118857968135945, 6.335610063548124, -1.1262880391453802, 8.439019359449377, -12.761713671862307, 23.19524154334838, -14.305032951617939, -10.950109568119409, 3.108040424659136, 4.246572101368819, 11.537134019399302, 25.583657058785736, -37.32166717424147, -9.546285225500155, -7.224424941545515, 14.85037303830454, -1.0139682406436323, 24.736430226805247, 4.758388051227166, -33.585328118862236, -2.8690185175464915, -29.493889855402703, -41.560164137013615, -21.69265684563565, -6.482676888869057, -16.407874679099873, 21.162039535099687, -13.18552230947568, 23.322299484039902, -4.216576017151704, 5.508710082424629, -3.179267419371234, 7.108823864453742, 26.146318660186594, -4.256075197204623, -13.038211600633032, 11.470499425434394, -8.928754204849385, 38.90917686595606, -16.948110367344473, -23.847414866483128, -25.266768258106474, -5.997644553479494, 1.289602513534991, -24.63864497168214, 21.762208578442582, 14.257983438244338, 1.0476545731647544, 35.790437206785974, -37.69011133477316, 10.920156231934543, 2.885125789357233, 1.8315353765779556, 7.9202510466717655, -2.345875007156037, 19.49167011597843, -16.834598107725085, -0.9763838694245309, -26.12719429256725, -14.671979356389233, -8.99856299984111, -2.093547004315472, 9.992431060426632, -1.079162499874791, 0.39123273425238153, 6.914262586313012, 7.9423616495683635, -13.124932270846724, -3.535604943984366, -4.984640412537807, 11.478926988041543, -18.17091997115696, 12.928625501926652, -3.91095062346334, 0.21984583246301742, -7.979876821080944, -17.570252188166045, -33.07453541046066, -8.66192378533026, -2.8671951028910883, -12.955100842339476, 17.08436217249247, 29.378760359563742, 0.7043793819972581, -3.1745808590610065, -8.275328831017081, -23.836854941818753, 0.8687631413331878, -0.5906684216321022, 18.839802227921663, -1.523954879246884, -18.59361804747898, -0.03163405561271693, 0.6509004107844114, 25.451324732729322, -1.459439729332916, -2.9108463971851952, -3.2802921602046724, -11.390041028130446, 24.221447745835288, 23.093632830304053, -0.8643288052180675, -9.124021132288233, 0.4408412019461342, -0.49117191059045, 7.870073877714727, 6.577373256402508, 2.889239434704044, -5.015553249045237, 11.129436458470707, -38.48938301270527, -20.34138586288899, 10.747051354460496, -21.11064656914503, -23.96615068956464, 20.52902419974158, -14.278568998237676, -8.19013017539439, -17.449955789467744, 14.172190365292089, -7.4518175984551345, 0.8724454849568226, 9.589023802307509, -13.715426163033694, 8.88936223185556, 24.685715345214064, 5.903646770356484, -6.421442464064035, 18.296928771126684, -12.570490316042962, -26.84666468992595, -15.73944443247927, -12.536138432434258, 56.40976735642479, 16.71504704314662, 4.631094728394627, 36.36294417994613, 9.649382884526586, 11.97392742620072, -9.108977281402794, -8.629526280922995, -16.1401294652328, -35.42013625378509, -38.94217748583751, -0.8493687430810601, -33.47409433514951, -4.892003884764225, 14.476245913812315, 7.437665428274148, 1.0810855636619483, 3.721257408670243, 25.800119978386274, -0.3699896758012274, -27.802033237129585, 8.02144693796073, -31.938952176340315, -13.66092350150822, -9.384365967327753, -14.608062660788399, 9.38321059320689, 28.13334429231682, 26.152001819310165, -12.031805096848487, -0.45431980221264834, -3.0959499686844483, -10.145773663587798, 40.16459398240083, 19.180688650323695, -11.104142558182506, -18.982590153332627, -44.297067820970845, -5.769017859014265, 5.334807621552106, -11.045635839174762, -30.700334345712587, -0.1136248492024341, -1.531335973491897, -12.698382359378506, 2.723005471664121, -27.692936678650693, 29.144985006845687, 0.22668072622847663, 1.5139120908857011, -32.056933439867564, 29.313685259428084, 25.576600725303095, -9.903928312570985, 22.746803794479295, -10.979030608005216, -4.645331358562056, 0.4957412248313873, 3.7345804309298183, 6.798598570311762, -7.649159399573669, -0.022701695032970703, -35.2972007892858, -0.16468237329936286, -39.35267012217689, 4.603594248031461, 0.4729084368711352, 33.98518502813437, 14.60301952542387, 10.297798396939344, -5.673304906048335, 15.584069450782255, 7.104299411174664, -13.259439738024824, 5.796931235498311, -17.15492449237113, 27.51897363985725, -7.548471951350327, 2.712820345329829, 12.411665771517644, -5.501007055739537, -8.868901467267492, 9.139680390122008, 6.166759335924584, 3.9417606991440506, -11.00622053298126, 0.07873087064630858, 17.34600432963023, -2.1681181260531988, 34.01939357687018, -4.718159541228216, -14.407084189263303, -6.360390847192764, -27.707560197983604, -10.03709868402163, -18.59445220395678, -19.672292491083578, 26.930590137169197, 1.6911743565857993, -16.823317087133006, 5.860624236231403, -5.792780142706224, -9.786704571703314, -1.1534243571227258, -3.08225197336322, 27.828180200508406, -4.423431613624326, -30.088145196897454, 14.185353781324709, -20.169504816303785, -0.25672044528817767, 14.215695280283274, 38.830009289182776, 29.479690269484433, 4.908097781598241, 10.467093920323805, 43.15736047831392, -11.819781315563956, -8.720224749288471, 10.257678477559939, 0.7393638617025898, -19.814635505397483, -8.609792109398557, 6.8020738276047314, -20.312772003331563, 6.00557559432216, -3.644762203020138, 5.087753472792064, 3.9594487095325688, 5.453232233345014, -5.78394835203481, -35.00469948808576, -7.205528816698636, 7.3048255270075, -9.374302086706152, 9.053905771531564, 4.8185295874042495, 3.4625245674639338, -24.440429334152093, 7.7824431535286145, -18.337697527035317, 2.3191459415459392, -4.151238347257061, -25.64546328357335, 20.539162553469087, -5.897785473930336, -32.634992223130574, -5.306739773025211, -37.553750117680416, 7.3048834814607915, 12.765865748639081, -16.15242692935253, -33.288276204715, 13.998155923411556, -23.416483589781123, 23.613617697628367, -6.390651110706303, -30.523132009847668, -28.537035990511978, 10.066641560497478, -3.9281040170494173, -9.9768018287947, -13.753265592841757, 1.6757301088106027, 13.85711766380482, -13.757230848997366, -20.443570980938734, -1.8804311424167222, -7.003073382581922, -6.794504168669432, -8.489245539991614, 5.846608099529345, 9.068912286873175, 24.195285552836488, -17.725782254755465, 23.904678288800024, 12.49799719179273, -26.74785638176079, -39.57815473632945, 40.61903739063196, -61.23109276151772, 4.186074997758142, 33.10107792732378, -25.122815286941563, 12.961992802590826, 0.8077495626344662, 13.240141046797735, 9.130069175601916, -9.04456295371765, 13.314610151020583, 17.587684284417353, -42.03641722676647, 12.4998952048707, 6.062815847321228, -14.52531872166744, -2.345967524098323, -0.25042159986060697, -2.029199551220681, -16.364565161567615, -13.777278699627939, -18.703546120909557, -1.5323863466197751, 1.5215303687610353, -0.6202734378569867, 2.1451955312767996, -9.042997513799499, -0.1542328181901763, -14.653735733246023, -0.9080440047648439, -9.452386580302218, 14.326662479632569, 3.3735283587098, -3.9351133853532403, -11.123955405506763, 17.917950187757693, 9.91288618993712, 5.485455337785455, -16.212385115540968, -2.270996114655604, 13.941722960390308, 3.100387668632022, -23.839215394218265, -5.91671076907763, -5.947145801085546, 29.30863130738867, -13.395022796929457, 25.207395317782616, 19.10556870337399, -11.183003722109225, -0.1540189994710059, 13.85249814361996, 10.823159962772978, -12.154901652607473, 16.726029139787247, 11.104776450035352, 26.756395026755744, -17.27334020434376, 17.447287235442634, 24.73044338756827, -14.225908912897443, 5.15402566404337, 6.714021974555161, 1.3803395923294475, -4.705723171342005, -27.125343492460956, -2.3809445989588314, -34.805382566629824, 9.202281309484254, 5.204705851441117, -6.750486517071758, -22.51806869313754, -13.042488553457604, 11.491402733244286, 5.499968646971674, -16.013400598648577, 15.442593482110366, -9.442620270764754, 5.838948757332948, 10.363943781186503, -9.98926319170656, -20.607189779310808, 1.6318887940750932, 10.894620599624451, -31.483297367392645, 24.730652730356887, -13.694074005608426, -1.4026928647722314, 18.309501264560136, -1.558945891007556, -8.244100069096728, 1.9976009988445074, 9.530589206224949, -16.277895205492076, 8.276761217633576, 34.71388091765343, 6.1968921123764, 0.7587290727602165, -14.532279352849363, 2.584514261009101, 19.51185174860179, -16.325348604067642, -1.5691645948205748, -23.664360079164947, 29.928762315487532, 17.250518356580063, -18.881973285590536, -20.99052977208854, -50.554780796550524, 7.714633179712896, -20.511671002262613, -10.882522372173426, -15.013559057319062, 1.834043497235743, 0.9002300194111454, 16.52163332165216, 6.703847732316444, 21.101837345484782, -21.05082395299731, -14.118915678347086, 26.342328720032256, 11.32460873995518, 24.463889443602618, -7.359921467175988, -11.57645392874678, -6.879182899706636, -6.57036144573003, -10.325595297208407, 0.8024128856496274, -13.464096804698576, 13.020610426070588, -17.176736667629946, -9.543935504491383, -15.959494495845881, -2.4018777834341596, -2.1739459509132946, 5.8482245200440515, 41.05499857544437, 0.6519178934465963, 5.733710673753433, -7.735367345081423, -18.88488436828554, 6.077921680171298, -23.498325290794558, 2.8467022958878934, -0.14235011186559965, -22.826427201261783, 16.534289862791915, -2.633547286274181, -28.87145273854276, -4.260610136429544, -44.37354399889004, 8.170224725023056, -19.721454601244382, 4.4536723690931606, 43.69382817689988, 14.397979131918254, 1.1068097427068548, -16.100526015920146, 11.202157357288652, -12.01909371400179, 16.28525708545449, -13.935523096350977, -14.246251057509618, 36.49892026842265, -26.292489868827655, 0.9164633689014174, 22.60523780078965, -3.961972891286875, -0.5194546196123945, -26.045626143175983, -25.20681963216184, 23.35699388781095, -3.4473926014383522, 2.227348683315127, 26.587244398922387, -8.826197035083705, -7.516156232754689, -23.66091635748715, -26.556490111367847, 3.0984685613369316, 23.116502018397483, 20.070943635914826, 12.558522131306253, -1.0610822346405033, -4.990675919601863, -46.16694798465472, 0.7602644826616489, 14.691942753301767, -8.73477414693223, -1.5047323303525362, -17.596838648002116, 7.1131983651754265, -22.078683666184062, 2.577260465375495, 11.983496689846007, 6.278325167617073, 19.36865322312897, -27.032147579354845, -32.04416867012384, -27.193594490126436, -14.140391511720447, -6.090756752488399, -10.518819437862092, -13.768049791324126, 8.370068973361692, 1.0396201279254735, -10.451927941850315, 1.6712573918184261, 10.193177238724655, 17.93288894320191, -3.4663187153501123, 43.914951624951364, 7.125272715165658, 9.509645936094827, 9.552055754466533, 22.652151490166336, -26.39002360570858, 8.368236113455719, 7.2423477152428415, -19.138359785749124, 8.388378269055876, 11.839615832586365, 13.768322259312695, -36.27771198965892, -16.046107470097407, -16.566959713597893, -38.32450993629701, 10.144508503075782, -23.97085532140191, -11.85551237545449, -4.325680938859885, -5.063284464103484, -14.22008484723061, 9.40391574452185, -27.050228065983326, -23.26226719229176, -11.667046574183288, 6.368095817167245, -8.556323366490831, 8.017647826529593, 24.789666675074976, -6.2404631947571, 1.6622162262057913, 24.038674034398547, -29.199001945071213, -21.400712594574085, 12.689073520607113, -0.18803189853576177, 13.683818461249698, -14.502446390029313, -7.711073521472808, 8.384185452923793, -2.571745010650601, -0.09925226280756261, -11.796729005521168, -9.680591855104598, -12.826340903306743, 2.5609549915673977, 14.698521558445314, 16.227369351039442, -28.873431988127084, -20.68659369291515, -9.405907087961562, -4.271119954453277, -1.0163463540424116, 34.95032914495027, 9.856687739477582, 6.489458472313169, -16.501259436393397, 26.974221485716917, -6.093382860320577, 19.20186969988076, -1.3492267676634142, -7.130878277953472, -1.0420989032871735, -2.0345236184140116, 4.919458148377565, 6.537056864539032, 18.749102333661867, -0.15683907095535937, -4.992923264873897, 12.227839851996237, -3.8191251516405336, 23.255155982655094, 9.614016192335656, 6.240425118112778, 17.54759092046597, 9.309915419038623, 13.522821003825568, 0.7665359128510574, 15.485413665322286, 15.52248028173194, 23.525947150782372, -3.7358362510678926, 28.100577386622145, -31.44904641453231, 15.819432001898647, -4.279230272880976, -15.871219066210639, 11.512386801085219, -11.524656049440273, 1.1514977044323556, 7.259385799925066, 8.827053005351546, 13.360043505755415, 23.276065352054943, 5.116776119634083, -9.401768173654041, -12.606301872664549, 6.443151057095224, -13.633950251251743, 0.17808851240064183, -32.34812272337033, 1.8746708215303653, 0.3908341692386973, -10.826698482805423, -21.302637095424313, 7.392017120985056, 13.062674646696703, -16.757032603193792, 30.51196272037439, -20.250972976731195, -16.85090200323352, -21.649376626086823, 0.9669134790798181, -20.8454871760904, -12.382034582015901, -16.103960583026804, 21.115824581756073, 9.826090997877392, -24.092065814648343, 18.774961850751026, -27.76237150208866, 19.00452602876264, 0.4805389622919377, -1.990624432440687, 0.5193039580554578, -1.3185592879550432, -17.53364316658948, 16.238010042094416, -8.074377322575568, -18.629472655908653, -1.7564873887303478, -3.5129793794408117, 11.063149165174927, -11.37748715004217, -1.7771959218888944, 9.327966873208638, 13.003263624096913, 40.853565457866125, 23.144957952275025, 6.594253506237697, -11.990140293164785, 8.959692700652656, 7.133068100679656, 10.466731624174772, -14.581941849893742, -4.353606486194697, -2.620675775489445, 3.9592147655658514, 32.66633231846627, -3.4836883257129343, 5.776044290140026, -2.7567314758865047, -17.681942609045574, 14.7826241851154, 25.173555133740386, -4.022371699099842, -14.075962113095478, -7.4743580686657305, 16.35744289003394, 16.791535381367442, 1.1335707135331592, 3.7752871287191874, -24.43892439733638, -13.604834220867241, 18.72163123195153, 18.788472288196886, 43.278828711564636, 31.129548500253307, -60.076919239788914, 18.347960905184156, -2.7099183644390754, -15.326928257594615, -49.05302720748272, -1.983151460781937, 18.370809078746955, 14.163798622334838, -11.557141073605125, -0.9975510096800914, -6.913720313833626, -8.735009141831085, -17.237457561011336, 19.354716993677993, 7.105113549035492, 6.974206526685755, 1.4880687040830074, 10.730888076826906, 21.110197927056305, -5.169669924005199, 21.186244904602532, -26.92439385376152, 14.918507461601934, -35.022649388385624, 24.790281881422437, 5.451865146010303, -15.857170033457738, 27.95803725878707, 4.505517223221085, 1.8924400878745251, -10.401161739185202, -9.537681521090855, -21.27189157378936, -4.955525999082527, -13.510135351174121, -17.54426060830843, 4.228629755221787, -26.662410598820387, -23.86640313785543, -8.173847340537717, 1.1329749515153171, 21.865407304328894, 3.067447770113677, -18.01527083811674, -15.502590246056558, -4.43180771020784, -10.904368138179011, -7.34249074179176, -35.56972405544406, -7.98909632930968, -9.26245361238459, 10.3460564356555, 34.072988871511754, 0.2893839563881917, 6.7279060948526, 4.870326824460704, 4.3937469579808255, -3.3441542129103934, 12.566408162834493, 14.503579355688599, 19.936027589212017, 40.04251902494808, 7.745310989262006, -14.7291923496055, -2.5913195697999103, -0.5914993246322053, 49.42453946518255, -8.573349844322717, 10.280863483117985, -34.25311454421864, -15.5945643705662, 4.238112505726026, 9.400183076649151, 7.985066117531218, -4.915159701237235, 43.968355859204486, -6.550042969400244, -12.28431893691972, 14.435978425734302, 20.604915702970363, -5.102402790247211, -1.410706684010098, 5.975892447273819, 3.5550474277614956, -29.742849478474444, -19.58427391964063, 4.253868080968033, 24.314050241908472, -12.763730682386964, -2.8021636861511268, -8.377650601894205, -19.075899891266253, -7.291404368590782, -13.190577159999965, 24.980399389228584, -11.340172650898321, 48.433887343203686, -18.64987082622684, 8.279693048083937, -3.3402871544920516, -22.17934165486063, -38.809241791269706, 9.268231892298958, -28.9155228721598, 4.573754243117789, -4.313027645650321, -2.1725046940881696, 9.949915528895655, -27.55951523448368, -8.84158383038187, -36.769138970965024, 14.764469883518522, -0.705373450559123, -2.0782323699984415, 18.381762693017095, 17.512495752654118, -23.848440253297454, 13.998131587509679, 8.909885503025066, -1.1844490464218542, -2.9728041901709443, 18.4463796178103, -49.55335050804964, -24.608287935215046, -12.809192758977904, -20.0217024381818, 14.717070122203436, -7.287663477507029, 6.302259557046264, -22.187558763617606, -11.926986596770817, -23.31841647854297, 28.394189570310175, -21.581365457348113, 11.772511051569184, 4.531036442311342, 10.392113343752756, -22.674846749991943, 4.056468861001462, -13.282116019644775, 3.8528583610816183, -20.499159537665545, 3.8345545743931453, 5.191775831135666, -9.430733016916054, 2.9731645527059736, -3.182993569611371, -1.4595643816594919, -0.45625974370752226, -19.714004891446113, -3.344730206919417, -5.6976661959074875, 30.766863247392514, 5.5336658860153936, -7.656185036175533, -3.2969929798092195, -1.4426058770937904, 5.379793752028915, -15.044731810072626, 0.9466542559184103, 3.7136857126205762, -12.152605999137746, 0.7973329145571129, -22.081491114261834, 19.912310244984916, -8.842672655272732, -8.015882054813723, 6.136570773592189, -3.812726992758699, 5.2781565107801365, -4.265487103716282, -8.06373651864019, -17.75849451139637, -9.054865727072725, -5.445626205081665, 12.920044663706832, -23.91498099693791, -1.1608590541263772, 9.26017197895653, -1.093878143237121, -9.745018440479184, -12.004796417001284, -25.842130227573055, -0.176524336081613, -30.788787116828818, -9.979395609391885, -26.64679188534605, -9.63524732319839, -11.591375831266287, -2.8823294357839253, 15.100322592059038, -4.64067265533952, -13.65923449431389, 2.1445274862578754, -15.462068263437494, 15.366546430879882, 0.13132295510631625, -26.791478053113256, -2.7541717148807088, 29.450942970190663, -19.04950189061709, 6.119004653872224, -17.123351315012403, 8.292478143882104, -25.776124126076535, 44.77526997504844, -16.746126366438506, 13.963431924413168, -17.757869508713586, -12.996901929565528, 24.998852887109862, 8.182132634839434, 1.247356556552639, -12.544059188512454, -3.1485286845793814, 14.224351263723271, 1.8911079400581192, -5.997231579475812, 22.28934999966225, -12.215926095375451, 11.714914303840104, 11.279941788117604, -22.966844788627412, 34.88879147848664, -12.321033536396653, -19.536085752784608, 26.590480014724566, -8.638142845356803, -23.29307628826665, 6.974582230530261, 34.85602659205505, -9.234508074586964, -10.066436027438915, -19.367801060043643, -10.399170671305024, -3.447034829272298, -24.3631001822476, -7.7664350890244815, 1.244206535969166, -17.52906271580041, -2.6066794493502776, 10.461575726528832, 21.79669394757593, -15.85995429982382, -1.473981153784904, -15.938792336780018, -10.355781130472012, 14.180976411069846, 8.512183411925218, 21.182581797920086, 5.114372785789999, 10.587298626508778, 10.51498275668095, -1.427350573057377, 19.92778472816891, -8.784656962591049, -12.447242602022598, 9.19873668791586, -39.35490035638108, -3.9539510814199907, 2.227848500319407, 24.262473925934604, 17.299912663153364, 7.3704113416246075, 2.7111416558670567, -17.67489106584988, 20.683294782750977, 2.317717500913036, -6.709093332233323, 14.456815835350262, -7.479415469056785, -9.176737379432343, -2.6676016323331466, 9.495863232156903, -38.900756091542675, -21.10261856434347, -23.50860884401783, 9.315474607866092, 3.1436513035595537, -12.867907650177635, -31.15440767442163, 20.78087938520978, 9.128574263124372, -25.543877111852115, 19.18371644370115, -22.70739865537757, -31.34296960980311, 5.862115788505448, -9.257969968411935, 3.6768463533466473, -13.861155409925964, -13.948068370057536, -7.43604002542426, -0.7891602719992387, -18.533938402494023, 0.27082193521666986, -13.959165141076957, -15.727237402893355, 20.476203298719167, -13.656518342537018, -33.99188717614092, 14.37893425400399, 4.017286008065315, -3.271476152713033, 6.574018884893497, -1.4206016227483311, 24.994029734693225, -6.644615468516818, -10.768310805444527, 13.698858051264112, -2.2644826330380767, 17.13916625752861, 9.6081389924434, -6.636978807177067, 6.416807166588181, 37.76634571168446, -13.364182784500859, 19.617646140896767, -32.11103248920941, 15.36174792093149, 25.33294982973266, 7.901594991046968, 19.357383211542665, -18.22029179697823, 11.299934783457116, 37.48743966065994, 7.987651217383182, 23.016202128619145, 0.07076544210711133, 2.097691923161335, -26.346015883157623, 11.844664883122467, 21.577459109364842, -1.1129062971116248, -30.440249098734878, 35.87028275380041, -40.878152498607385, 22.8941024095795, -21.07574244472766, -11.386968533763916, 1.141067383661499, 12.739274419005955, 33.71310160838085, 6.492094186440603, -6.0811526003645495, -8.745955455398603, -14.084901050435693, -3.2202133810354012, 13.270282925084995, 26.938788996339895, 16.521231152245107, 19.228495823311658, -12.792167736937795, 8.053577579376794, -16.928802045875287, 3.824052791258631, 18.496462622246884, -0.9796286847477668, -7.42909959715394, -18.296766201222095, 16.311899619930045, 10.428686377622208, 13.881571297584983, 1.3298597836413075, -19.096501687289212, 17.076620913185774, 26.96212689115916, 12.431426161617265, -7.914904938961902, 9.148630042398556, 3.860499235317393, 13.557071730560805, 0.16795285632592993, -8.389081817431757, 25.052109074066617, -1.2753939518923185, 4.312799508949855, -18.153563275216843, 7.250764401665021, 11.10247314307658, 38.08921527739709, 10.208195030462095, -6.744775224462379, -7.550817502214508, 1.300550281074078, 12.090777422759913, -27.981962155289093, -10.183421201846278, -19.534678717647694, 2.9833310321544464, 8.059999479777764, -5.225572886569568, -32.70310295224908, -0.7060300575156462, 17.281358242045744, 36.962168779244344, -8.636433431667786, 3.617670292971548, 17.506417221142687, 0.5828299611895309, 10.996240552179534, 24.66683937031725, 14.356637617064944, 1.514778858087196, -7.079289247204876, -9.16247700760361, 1.9495051386870998, 17.108351811963395, 28.03077473270755, -2.74989981943952, 17.540110378522076, 20.467439032137342, 1.9107893081074856, 16.72228490890581, -8.2923292810042, -4.370702228751141, 9.616518612789536, -4.046395940380124, -12.679396387002217, -36.5587758844577, -29.798948300291016, -3.627325433319446, -23.86985876698496, 0.346419173489207, 3.238684100350433, -19.378859941529758, -7.233747157341177, 10.473984980109153, -13.446720659474334, 22.83671425387563, 24.27561731283771, 26.0228200816476, 37.467393273841864, -2.1852316155387244, -21.2049433725873, -6.566656059113124, -10.64824986831471, -0.005784417709925965, -24.65324371497115, -2.852844392063368, -4.351029462395394, 8.15519929659045, 23.691511839303242, 14.509099611127338, 21.547546579860505, 25.18629170391204, 0.42168886883376533, 4.88710670284448, -32.02818225905845, 0.7612061566931148, 9.109786005027514, 1.6831893073823965, -10.359957697476897, -11.43758280095645, 12.20113668190979, 32.41859110680493, 27.765015982932812, -8.63369418855974, -6.683960962964378, -36.30373053445223, 9.322787817667276, -9.396367236610521, 1.4878220653505962, -11.583705935422396, -20.140139205772964, -6.366069058949847, 18.453231567242366, -12.020487998573056, 13.177918656649432, 5.725737916525068, 20.2174424272454, -16.736395561112644, -19.425573282960762, 19.608182323787798, 8.984040725573442, -22.86840644923148, -10.34771733164604, 7.3007511842498864, -6.9554069255191795, -1.423625322226823, 13.17580210252887, -15.273857063729293, 2.6175802853774663, 6.770748218636382, 10.181881656722261, 11.3588585630584, 9.769176157692495, -2.8108319261840693, -12.453528645812538, -1.6334152366495949, 37.68922611514263, -16.633912453881404, 27.62306698383564, 1.3325341117586509, 28.77320469923191, -40.53150660330264, 2.6949136511838123, -5.004245750902283, 19.235775699699197, -3.067987423600172, 0.9020620124163924, -2.853103575462298, -21.243349755205884, -26.03392094012968, -27.537071574729154, 13.664748108439841, 20.06867298242317, -15.464390632500539, -14.009052259165001, 1.0664316726576242, -11.366982659577797, 25.56971571368542, 5.930097074116429, 2.4588124967411034, 13.429130745802448, -16.31140689511809, -0.2379859815109917, 0.6877577549499658, 7.251538660713985, 17.285199136378324, -10.219871894277727, -37.06550689002479, -8.321586393538864, -15.336904315776827, -24.143940607703573, -8.507728972541624, -4.084006949926238, -41.23808845846123, -32.783713682004404, -4.263869658263021, -16.177369978463705, 16.768454728461275, 10.54979316655278, 8.90824257744596, -25.12812649734837, -6.74798580914288, -24.338043534963102, 11.728059873428359, 5.938424630222155, 10.005203035859482, -7.078708398638442, 23.72118484423715, -20.095455411497408, 15.712247022884977, 6.094229230601899, 25.177826400135267, 5.029703470854867, 22.5765228249738, -22.109458723851027, 12.4566333674768, 17.709568028654274, -24.70621466114776, 18.975885007533215, -37.05416181635607, 12.425240911883215, -1.9151344181980414, -19.7336077930099, 2.3186589141743403, -7.146046293315153, -15.382853600479077, -29.104147554052165, 15.774564186314192, -7.292044847902849, -3.370263277016044, -0.21590602355262078, 25.536036883197454, -15.823141888952405, -0.890409365933034, 17.659819308588872, 9.821185197252795, -2.7012653666129416, -10.059933889799845, -3.6592393212907304, -23.022121433646994, -2.5519586974528066, -4.79850570818511, -1.7719886173167918, -3.8985655715323637, 6.30470585174268, -6.590941332898175, -5.89054693085198, -13.888647821790821, -14.811411005895586, 6.560318383390913], "model_name": "mlp"}