{"model": {"activation": "relu", "hidden_layers": [32, 32]}, "weights": [20.11753786115265, 12.360229477700011, 0.8899700203685361, -0.1509141317409694, -9.3154847002773, 3.872753396866874, -12.017453712145553, -15.61125540881708, -5.772673245427707, -19.857885625276666, -10.099299345051463, 19.906003676986476, -15.525608649052625, -13.22620181598038, 31.3369511309728, 10.350656430964857, -14.499917681921676, -2.7028898836265003, -0.16835277707710983, -27.389831314032453, 4.795933064366019, 6.8464616016008915, -8.174114829343731, -15.948046054925232, -23.337582110355164, 31.072772769685056, 49.26622971622923, 0.8683870554522711, -12.28398108273089, 11.421884795511735, -33.5818667831316, 11.89597630602882, 4.693782031284584, -21.356746700325377, 25.66224593633836, -17.677832043131556, 13.698337023414418, -23.895829820766988, 40.62782347184192, -7.481454653984383, -23.744338852126564, -0.12345960887565506, 9.818755466763747, 36.63816457279809, 19.864979322512106, 29.7582833997819, -4.521561825332954, 33.82664437667837, 10.567737966739394, -36.675750960666406, 1.420463854614908, -0.4984741923977195, 49.116561019644685, 6.038287199806543, 14.54806999173063, -13.389660258384287, -17.612998009486823, -8.600557733362514, 11.14640335940595, 38.99343942194849, -8.880455666903556, -15.705407928465535, 4.043936476756238, -0.5246985494964445, 5.842120048178423, 40.514538479415386, -18.29696455644584, 11.804985339006615, -26.516491265805936, 10.177309915821926, -8.946360173077544, -15.15716991293418, -11.517499866691121, -10.59946974853724, 6.187556434505586, -17.343199386073692, 3.3017738309719364, -10.331296607399633, 14.660157207199347, -24.010861148035488, -11.45353916635463, -7.588485546983546, -35.02566619895207, -10.258323162258705, -20.872960980566504, -15.450804726504579, -27.80089510578569, -6.782042234126154, -11.050285824777324, -12.410985876055502, -10.06314043516117, -17.967841088500535, 1.3779430503906849, -30.260823136114148, 22.410750205207396, 5.663205296160417, 5.494641741739497, -1.3391701357307364, -5.957462278368387, -27.959035987204683, -7.878617716127072, -0.4772895836061084, -2.058533857438826, 5.30553359867669, 30.579804075597018, 26.653306567752672, -7.983309115084281, 1.4213048949729679, -16.40681089695771, 3.347842557086599, 4.425176634727924, 4.908948096553383, 17.190842463049485, 9.060994991593464, 12.575819315949877, -25.92328334498339, 23.837384368656842, 7.406339425210954, -5.282617440146826, 26.114315415278707, 9.704140967322155, 20.522113468533924, 11.268198151526965, 23.57053059152195, 29.99970457510457, 34.19057867172064, 15.62380090262572, -0.10978251718529397, -2.414701771658298, -21.25898409205505, 12.021749698109904, -33.2871537617593, -41.83715782968082, -31.421900493776757, -15.501510127668027, 24.456108254402, 15.200142560022607, 2.3993674168976447, 33.704997251979925, -40.70250855804794, 7.266758634774087, -7.673576526836979, -5.91733692324255, 0.8072436986768725, -32.56526165022082, 12.44623959516556, -21.029833359455854, -37.55972557928891, -25.127300322157303, 24.54574557886565, -17.178254567618637, -30.32069146552236, 11.439511297064639, -8.952276745147527, -14.110516794478878, 1.0989074485354982, 10.545618446481466, 2.434254721213729, -18.751931863322188, -24.446935104883547, -26.61071666862994, 21.053053940950097, 3.3794497510414367, -9.7310512189642, -8.062050690305725, -28.34031073970959, -3.3727596429322846, -2.7318182705227123, 38.55186148028191, -27.19835957555186, 43.17714160206933, -4.2749791219313, -10.649686675284682, -0.5061073710899685, -29.525888643279853, 20.09345110486567, -13.388064952962335, -27.25058390627428, 35.155841723449115, 0.07101060021841166, -14.30997222656999, -23.146906914702917, 3.136532713725202, 9.301531346798724, -4.374700806300962, -27.172199935686955, 20.273224433931187, 3.3505912397223176, 0.16639369681421345, 2.221956424555939, 21.3744366993588, 0.9150092453074926, -4.7734749198359046, -7.585741590973784, -2.0445723197121035, 6.91239818750381, 15.199988365320735, 18.851858873594516, -2.2226739588261704, 17.008133520095683, -8.280951341195287, 0.6615173331300995, 10.832518732479688, 1.5430254697995427, 13.141656298227261, -10.821180226669732, -15.083982245810827, -0.18201877973552522, -14.96934556952693, -16.881798337228894, 14.9926463971839, 6.284903597595641, -12.036897218161764, -9.419865212674633, 30.867917971549282, 11.611120318080257, 14.267549712382335, -12.721049869077005, -6.159611298498344, -3.3135131539969103, 16.576345906015387, -34.630473789934285, -6.88291289993, -4.945808357729587, 19.31858794847077, -10.868355662525774, -2.009069426536063, 21.820752552921558, 17.035109566387504, 0.7888635398196799, -11.747779095134305, -6.892433798390848, 11.984083262784793, 29.561084686791784, 19.392985799623425, 20.527890037748055, -38.92801144411282, 3.923865020289028, -15.205252424419252, -10.99294824914966, 8.514373790351446, 16.46764409460752, -2.279253279106225, 20.84739175517154, -2.6354075843353515, 11.781578141131245, -12.560839904749512, 11.781140798023872, 28.417019048112692, 5.275809488171733, -7.4938790103962685, -11.04065240240531, -7.8711905030187745, -28.71068205923525, 17.2923917399276, -25.008859563923842, 9.67103986465541, 18.76373049860895, -7.770778043919876, 5.193148607062346, 6.389978552488499, 12.050487438018495, 22.35656280091964, 2.129802238486536, -7.811950043815062, 21.69321350899946, -18.632017075296897, 4.758786106770389, -11.006911456740463, -13.86106296457538, -8.872557872275971, -7.605987731398264, -10.248322269517455, -2.165679751817842, 25.751450376121536, 18.553970056945538, 4.727097324285047, 2.760484801326431, -18.284149033344573, -6.88350340220531, 8.620642394615164, 8.581661376343181, 16.680711902050177, -2.7933063846005273, -17.517621368892517, -64.65603537544781, -28.56165325707856, -9.074720929084705, -22.98604841325331, -3.4214896515750164, 16.663283043982585, -10.77077900429414, 32.976437138525114, -26.574330160431032, 13.92138377990162, 11.352868277141146, -14.408828781206052, -12.32103561895488, -19.139611058339973, -11.113765174560132, -17.41815096239187, 14.853159909999878, -22.453921296217473, -16.834363769688554, -6.424731685759121, 23.9908033459248, 20.78879412014995, 2.4442973656365616, -6.162782164105845, -10.895611221958081, -14.90575353599841, 39.20056352377696, 26.444785397826067, -17.995876799082545, 25.455083288061072, 37.08729116524388, -31.879948870033186, -2.0154270473312885, -44.84090147925202, -9.327998880225692, 7.474053520252878, -2.761184528072507, -6.130842501894267, -12.510821904553271, 26.23632882349951, 7.5797292298746894, 19.6890906539673, 10.892689458435635, -31.096563657687938, -0.6353976482860444, -14.050459865117736, -26.53215768571632, -9.88365949312411, -24.281772862571525, -5.223293165688169, 44.477260708582584, 3.501842814726306, -32.93670540034893, -20.24934723817162, 2.5832086178413705, 8.974658319090768, 24.211017237465047, -17.358795402918272, 12.631388325161154, -23.99792070622803, 9.925498945402973, -6.246886633119274, 3.4299792846517057, 6.545253865348242, 22.703163836508836, 3.6588396222785105, 5.065104343357275, 8.813377173837889, -27.399526966769162, 11.094663935896612, 5.361461411038948, -25.659110230656147, 20.003995097171273, -9.76929533836518, -27.00812957273605, 4.513309971713809, 23.177497034690546, 7.973605434089363, -14.150742513014803, -8.579503894755025, -18.001177452821494, -16.35906418449372, -12.405585813281503, 1.52548317113967, 0.7177455830803238, 4.019696654594773, 25.56874420215987, -12.407709114855566, 2.942137079451076, -25.032682972851216, -0.5600215658875219, 17.538043563323438, 4.245150669538096, -23.08714537612018, 21.89108102270598, -1.2536908927746613, -5.278526088961643, 15.3414441897585, 15.237861142848418, -3.4916072620264713, 30.663274813866952, -11.814628734984437, 8.891631503352325, 8.896965658997484, 1.5408509840845945, 21.838087006605125, -6.439515609241822, -16.894647499045263, -7.840660454753153, -9.098687683151406, -7.144530527278474, 17.216209726212444, -14.759143742402385, 9.409418641118354, -1.5214604126427558, -17.78127407919826, 3.2669765581008203, 0.90297174502008, 11.418715296693524, 1.996161839697856, -1.6098739146654626, -16.859896074166404, 6.340322075472175, -3.625157575611474, -12.219386015270953, -8.243527892435116, 6.519387156595971, 32.108010408754126, 20.324703685591345, 19.333644699466237, -8.927838206638974, 20.360265830050484, 6.079800625209559, -14.800170262892507, 5.3379776951569955, 1.969962879488365, -56.07762438012598, -34.28529727426828, 16.852027729995214, -24.470534502437385, -18.53518887837286, -15.854107837693084, -15.090905747738741, -27.262978889246607, -26.349609895346042, -3.7998982306172735, 46.50265658944801, 2.9373470614285333, 18.43835689367242, 7.694329293113967, 21.80509636630067, -4.704658084868251, -3.9850121648239307, -20.41316239319743, 34.57383244755877, 11.683550693925225, -19.076793820653734, 6.458650027277642, -19.986487083932598, -6.187171488477073, 12.964708144881737, -48.24838241889194, -9.745136405886619, 14.422673183744788, 9.597133312221006, -19.032087959159327, 1.2648312322675048, 30.043954969090883, 11.73498849727338, -13.636320378739264, 23.619796675410072, 6.553061353823351, 0.9416358597477232, 8.133163646656099, -12.062077713356953, 21.449811438446897, -15.59304052280511, -9.613657193097957, 3.3999465959593755, 4.259955986680852, 11.280375000237708, 25.92757014742133, -35.700755091153034, -9.961550859951254, -5.5904729359028345, 14.599798165184287, -0.5205686957999678, 25.16229795848272, 6.349069914259144, -34.138973045104265, -4.065389818740281, -30.679270798546742, -41.01955623243123, -21.359267953117868, -7.9718017675916, -15.524306704348914, 21.273922582705865, -14.479450122754209, 22.00175692531448, -4.472609119174532, 4.544142634286613, -3.9264265452122045, 7.627264017334795, 25.99108806199884, -2.988153814007508, -12.425871495431947, 12.272754349359603, -8.719884413920184, 37.657378332315645, -17.793206663117775, -24.295800380625582, -23.879109731581327, -4.244361007841561, 1.3852542144135958, -24.827155919466627, 21.750176396162097, 14.116940570567209, 0.8337379444561053, 36.15782169409838, -38.084699877846376, 10.52998144517291, 3.960827750419366, 1.34271328323888, 8.087561198678447, -2.40246749087063, 19.557674397591352, -17.10160677645777, -1.4952404022031962, -25.282320500426906, -14.95908191022457, -9.778417578294334, -2.039923287245604, 9.545286954189198, -2.834235525011387, 0.7568656623562907, 6.279903300197343, 9.040301514655768, -13.291669574993987, -3.311799446607504, -6.667995689268492, 11.018265840478616, -16.59127842333974, 12.05361481616908, -4.1582033759907535, 0.29278547981148784, -9.01404341605632, -17.38490565582414, -32.674335433872294, -10.074569421946943, -2.194333466857797, -14.06678533198227, 16.835967261701132, 28.847057260777625, 0.7156723166893106, -3.8964309398423707, -9.47305061851303, -22.995412413922597, 1.8564795906115177, -0.24332450111011816, 19.488323752844174, -0.9314057746045503, -17.70356180435656, 0.13093522578810185, 0.6802062903067267, 24.826947701129, -1.158786926732053, -3.0417632281622704, -3.133228266548068, -10.90982660159016, 24.096426709544886, 22.879508089556897, -0.9606015980150736, -8.83677647074549, 0.030153027822657524, -0.8041936022622886, 7.607398005809101, 5.105353547324846, 3.0960474064113397, -4.78061642001436, 10.157720503108191, -38.28841401657489, -21.10901402450027, 11.295914752534276, -22.015493082226346, -23.282252911477688, 21.08502599590677, -12.449474235286853, -9.114743283927643, -16.586496309434274, 15.730218556420857, -6.740542981529207, 0.5973960210100229, 9.332546449200814, -14.291750622032312, 9.086926940092253, 25.862832104442287, 5.706190168982038, -7.344563622904495, 17.96452227227141, -12.607241981542185, -28.15731115120792, -15.799919603599232, -12.184213327830227, 56.313187376796066, 16.176009163530352, 4.800245803297766, 35.73518240666849, 10.011147100615215, 12.057131263589083, -8.52690763756802, -8.227688295838432, -15.52434719608561, -34.419982958685104, -39.246043946527145, -0.7025268349685403, -34.10920573073803, -5.130538512885327, 14.901857580048322, 7.001739009078013, -0.25086043427076776, 4.386265692586, 26.484840106297558, 0.6939754788044304, -27.791496960497682, 7.827827836144436, -31.932773585502954, -12.283416938625942, -7.762167791572606, -15.26970765734402, 11.508891740788291, 28.358320043874034, 25.950648386607696, -11.570176196603441, -1.6915597593018525, -5.284914000259533, -11.747408068501896, 41.02565055218747, 18.853178406062746, -9.77085540986884, -18.80679848811391, -43.930541029856975, -6.767094917112544, 5.209885491203579, -11.284580780453886, -29.521537745531656, -1.1515759085755568, -1.891574758606849, -13.328113569306383, 2.121905113493921, -29.098162616136353, 29.11221041923547, -0.7058233443241797, 0.7282043944460982, -31.977566268384564, 30.623342423904756, 24.264489230550986, -9.76347231015054, 21.772400278583337, -10.522328460785463, -4.908169972089706, 1.547872549082588, 2.67597401262263, 6.407070435122935, -8.329698498229083, 0.46127568068791514, -35.6657502562853, 0.9974963040418015, -38.74051447078539, 4.001921433930968, 1.5123543711930463, 34.728676670104576, 15.022000681370354, 9.522107147653141, -5.574035751423266, 15.29883390371505, 7.273613052594385, -14.264747648924901, 5.155142346626713, -18.264115610809704, 27.882646127569675, -6.858670735583754, 2.0425628603204817, 11.779516477045359, -5.868638649510505, -9.053622269590303, 9.991565998386479, 5.612381320019327, 4.93965747291182, -10.83214995267173, 0.7279316433919738, 16.912974483932864, -2.1809607315884483, 33.656735933911435, -4.138694507734299, -14.921135620279943, -7.111574378181533, -27.85479163410013, -10.038415951796305, -18.98550297212444, -19.176612476546484, 27.35487273713464, 1.2386272829260103, -17.870985817524414, 5.916963386890854, -4.825803198755643, -10.832500424819953, -1.881974005927558, -3.062687091587273, 27.11522543379627, -4.751688272314692, -29.010673829012696, 14.479689261632416, -19.78293885599254, 0.47659186862397857, 15.11649864810133, 38.84967656308318, 28.446386380741973, 5.2508723190619735, 8.951910062875841, 42.802477471099714, -13.219584445768918, -8.79469730238566, 10.350094027063324, 0.25830648533850703, -19.81146477564451, -8.997128644178485, 6.899896411358495, -20.19807115341604, 6.020457595992177, -3.385460505632226, 4.097519014976113, 3.937997669070692, 6.251212174250771, -5.40175684496766, -35.427402056577634, -7.051329491494398, 8.801576411946499, -10.161622758726017, 9.096751275218276, 4.944872729300815, 5.832294302521142, -24.72365777931449, 7.804112561641293, -18.161549276172003, 1.403403647210418, -4.452088568981898, -26.340597287063616, 19.882034287463743, -6.633306541066633, -31.31315723688272, -4.243920700199771, -37.68127141787832, 7.0467608970922315, 12.547967212969828, -17.481713057093085, -33.23118484273105, 13.32875599726787, -23.900660932005646, 24.12889693013073, -6.538281036099588, -30.896089619536454, -28.661773691698567, 10.750167950171646, -3.7624680495914156, -11.119912141141933, -13.30902318225847, 1.4140248754058937, 13.776904823956881, -14.615443510879201, -20.259024735076906, -1.2639578077319238, -7.159457652915127, -7.183974292882983, -7.456150806580916, 5.207750141604125, 10.436265605260571, 24.79206847608214, -18.689132799833715, 25.592929863982384, 12.896166822191995, -26.461207616406842, -41.22767864197979, 40.442093237708015, -61.61677288083078, 3.7750056703741164, 32.11853938277125, -24.5282909419528, 13.871984199990333, 0.2837938873316245, 13.3570675047959, 8.002348287306, -9.85593121332624, 14.015057701475522, 18.170680618128284, -40.96836761686019, 13.063034995949241, 6.222304503248312, -13.700115774464239, -1.5618878377993077, -0.9876322413880811, -1.9443250592506371, -17.171931888059202, -14.554825116826693, -18.652730996306058, -1.8611247794273427, 1.3254195952710885, -0.8899031069527626, 1.8167279415725155, -9.317119768084572, -0.5350970610611084, -15.514291722939635, 0.10678508291533195, -10.674275662176694, 14.450858203675772, 2.926938980533228, -3.8290393965247747, -12.026112303972923, 17.86855660760444, 9.929169911228135, 4.929020546951997, -16.127664373270004, -1.8486305086403507, 13.343262848337062, 2.5824132937757094, -23.964052696653805, -5.7002388966284325, -6.160952359017935, 28.43215534816111, -13.585548055906655, 25.00252551993001, 19.430321070303393, -10.8590064717411, 0.6354325743545214, 14.393045090118841, 10.842540376323694, -11.627322457769685, 17.38358776527979, 10.651126039786524, 26.44844330409357, -16.45399385369481, 17.568931350751367, 25.405977954318367, -14.455268565274517, 4.853826336534107, 6.047946120007635, 1.5133410580250404, -4.040047316752363, -26.774060834432515, -2.9682762313173248, -35.41232843097257, 9.224706142522955, 3.46758168887615, -6.655158770805309, -22.349741847612965, -13.320979104762555, 11.724530796482224, 5.340400327030657, -17.059202095238998, 14.46234318822146, -9.958690702376332, 6.57796364668796, 9.86682569072534, -10.469196624063642, -19.430946264448, 2.5214852515804855, 10.928838221645776, -32.98114760621798, 24.39351393941077, -13.862437062809231, -1.3135211988214068, 17.30679444318509, -3.3621332417871104, -7.717964919637576, 3.1718455797788794, 9.968030122786391, -17.888493231228427, 8.499453711129563, 33.946384747132115, 6.266317114534191, 0.08970380944183456, -13.455399490408402, 2.4026898847325273, 20.48072436359038, -15.614831954346458, -1.2421544314893804, -23.749676263389915, 29.13845213862817, 17.985290009719478, -18.271438472451166, -19.653800238387934, -50.97634744294987, 6.8096902047012975, -21.279804380608933, -9.515025319203179, -15.078052547003358, 1.6095651233138741, 1.1819063404045584, 17.72802352236981, 8.314190289679837, 22.284381465279036, -21.75018603933935, -13.843011453270632, 25.932529613329663, 11.497128338204027, 24.342395637212018, -8.322724272881398, -12.506472031894823, -7.395086122906624, -6.885557245690576, -10.54027966621548, 0.785896435028819, -13.935612599688532, 13.179775608492434, -17.214802915495838, -10.223658388891131, -15.449732914358556, -1.4397060024394717, -2.930440465502168, 5.626074660737983, 40.939940213319936, -0.12189682423196767, 6.453621871273219, -8.144434256125004, -18.340431640277853, 5.607810860580986, -22.414637350768842, 1.2825445996910492, -0.49084281395088236, -22.343002372906074, 17.237110264196104, -2.2811788464228444, -27.88276891857995, -4.039587476313329, -44.67092765397396, 7.964915990857326, -20.15489245987154, 4.584793762414913, 42.379778551477436, 14.514394232949101, 2.0113868080922495, -15.678785584658392, 11.618279512423552, -12.247743420749396, 17.630365800663597, -13.807010355003658, -14.384493841464705, 37.59631371775465, -26.657702334562366, 0.028849094507549883, 22.207632788281977, -3.2889595117061434, -0.6475962438419406, -25.2653234010919, -25.007417436801354, 22.63959565680257, -3.308773018687482, 1.5755217048470518, 26.470239111463552, -6.932164015683434, -8.936539478041457, -25.218747587894086, -26.17674587250357, 2.278047140697411, 23.640434394163314, 19.990855280651736, 12.773207316566104, 0.279404490205312, -5.340358836131521, -44.4808810199179, 0.21900149342734032, 14.725402602887016, -8.347290671558422, -0.7294181125629722, -17.73264188977849, 5.890668391640909, -21.6747531849418, 3.039755982013181, 12.541272523936135, 6.050226591338869, 18.666260698471977, -27.819388120335727, -31.647150082659955, -27.049520156093106, -14.722699412316404, -6.064905433951974, -10.50819504476348, -14.32711158960322, 8.488297991167014, 1.5417412764580125, -9.948201883552644, 1.0266656400315384, 10.466449086218594, 18.649503684924966, -3.1022574683150137, 44.46670088385576, 5.896519405309034, 8.702121294113374, 9.304622828941538, 22.977767788292578, -25.688879531064913, 6.636334776920655, 6.566019317218068, -19.471058445326097, 8.10774420353641, 11.994328497710068, 13.921754293503453, -36.51104789944646, -16.71683156357981, -18.094207823506004, -37.47129578672097, 12.39400654934785, -23.1899756903651, -13.217347144721574, -4.65333166394158, -4.47733307504531, -14.646997445139457, 10.259374836056983, -26.089069262990197, -23.20376432017812, -11.68171898629964, 5.027398328860444, -8.950524419130568, 8.28756851443715, 24.831552182524575, -5.622666621524405, 3.1945776997480198, 22.867073746171815, -28.65739185041946, -20.162210770631475, 11.597955483055635, 0.45676634049727094, 14.355952086770673, -13.774616660946664, -9.493932667067428, 7.943001732591687, -2.2122042031040676, 0.5490633244533591, -12.382562241197526, -10.876880354320189, -12.558427720929439, 2.9357612651926286, 15.438615263819932, 17.39567371148934, -29.69980620132299, -20.938342745056097, -9.446156399709052, -3.5936305036528555, -1.5795733960358098, 34.24149678786443, 11.34262604655571, 7.029327053642452, -15.823530045520476, 26.973968790656127, -6.675833707023216, 18.621069595760215, -0.7294912135452256, -8.60196689219074, -0.7078675046804049, -3.0374011030845955, 4.267928426167472, 5.818652191371706, 19.751782150920853, -0.6791885779378355, -3.8040472900730995, 12.451936528998894, -3.366186564742739, 23.25927845167604, 9.345884646565569, 5.9798392027317275, 18.203377935173663, 9.416046802918158, 13.477095744983233, 0.8424050921662303, 15.852384473105076, 15.089668184805051, 23.990946808229047, -3.7836297875072495, 29.626724937491563, -30.374987080891255, 16.35579596756247, -4.68199809147458, -14.486856366906682, 11.514392031733927, -10.805713475758001, -1.1907501527952877, 7.835704261028207, 8.896116755268935, 13.669737753095832, 24.74307047668826, 4.8344871758483094, -8.232202229586429, -11.719063231922586, 7.308734724361071, -12.966632702368699, -0.5431890504303111, -31.600543462387183, 2.0472127226374774, 1.2323908051941554, -11.327154089682974, -20.38904964693391, 8.020212737130757, 12.888439211074536, -15.59326342176616, 29.97133685678125, -21.793250188793508, -17.598596576697474, -21.8989710876088, -0.15918566340493354, -19.830911590486508, -11.850387492279106, -17.711504787658328, 21.391993506364063, 9.972010531640512, -24.439341620286537, 18.158521372218704, -28.919619128441894, 18.828852925920124, 0.03225621083509378, -2.616502597962074, 0.8969486021493617, -1.08530069625189, -19.086827151951077, 16.393868850660546, -7.37544915226386, -18.812889993635594, -2.0859766103526, -4.885241850898329, 11.461827316795729, -11.68574258524799, -1.770960425548974, 9.241554858870888, 12.915728888307358, 41.273753598219066, 23.849176232528894, 5.313415126714357, -12.957180447897006, 9.195467759141573, 7.233252526021107, 9.233636813227864, -15.269142690673839, -4.182557433841009, -3.0721972816236818, 3.3054979704996854, 32.14080393621444, -3.762324238312963, 5.060778497276094, -2.8742141810556694, -17.345927848638308, 13.22612068634533, 24.783203311455498, -3.567065467044105, -13.210085681739292, -7.557800036619744, 16.616793303956843, 16.92964387000058, 1.924765074671627, 2.335297292293782, -23.85478638102954, -13.43996637859941, 17.52429539383564, 20.15098118495029, 44.22706091729035, 30.976571649246274, -59.29255435853759, 18.48944594959309, -1.9409049919258807, -16.219833379988696, -50.30062017248805, -2.5539812575000007, 17.52870735198583, 13.725731120649534, -11.495079240514498, -0.9807448583852054, -8.332079378171786, -9.544009206196222, -17.103312709562463, 19.129452528242236, 6.920611024998619, 6.272958251939203, 2.9656075470023175, 9.217657908953916, 20.397016141506374, -4.325485368033618, 21.601553350974726, -26.75053442656311, 14.524068369580862, -36.05389403152473, 24.367240055229303, 4.566904522137131, -15.783298034341882, 27.705089594848154, 4.2753148980608575, 3.0439009600913103, -10.735487431635892, -8.922270472133468, -21.6163345140713, -4.042790370974139, -13.463723916646623, -17.679046200906946, 3.1545552480299683, -25.851504525493283, -22.769450187533398, -8.147929440828586, 0.7814915897392294, 22.730779708407155, 2.739373909272434, -16.61227015304047, -15.503539602800538, -4.496472684309671, -11.007570597479075, -7.940658601374679, -33.495018219747045, -8.63922574523629, -9.03785450581599, 10.357937125329302, 34.34451783942961, -0.3069857066310528, 7.507322141694446, 5.008899057953923, 4.69643257497452, -2.4946221411580547, 12.177578133053474, 14.566702630206246, 19.397946449724156, 40.11991825386967, 7.073259961954857, -14.756041690077046, -1.9092739677940096, -1.4203154405162137, 49.693419780011375, -7.778800028551934, 9.29852037147189, -34.82423189172862, -16.84227617411941, 4.302635297499689, 8.974914335999832, 7.37472221531418, -4.528673227134224, 44.03862014715398, -7.753774491175248, -11.840249551304012, 14.14638853483463, 19.055696427568538, -4.110262641729738, -1.733552555053319, 5.825628765879684, 3.14364954733941, -29.769734160550726, -20.982623599075477, 3.7577124075013657, 24.929405978468626, -13.046113415853881, -2.8485984354088085, -8.623481898377785, -19.588963829497462, -7.554422618798696, -13.542923912965733, 25.773031372984267, -12.756733884575937, 49.3635060847102, -18.66550889013378, 7.414437009799993, -3.638890807186589, -21.707512425497494, -40.28380502273158, 9.708698539377853, -29.06735110073042, 4.607516556490889, -4.224690644078311, -2.2501767434957953, 10.426286149672952, -27.048042974305197, -8.872388252054696, -37.74104585593919, 15.22761260363114, -1.038408889630809, -2.864548762352654, 18.630618617979064, 18.034830418676965, -21.715434181112524, 13.642688285701349, 7.64922969784092, -2.1408190463843133, -1.9288470496503567, 18.67712713434477, -49.06855348402336, -24.62295570848025, -12.772958335412298, -20.853750547590835, 14.658486245543067, -6.930055574433381, 6.750000521580803, -22.1456693866094, -11.85366225779151, -24.127447774094744, 28.887564583935433, -22.773962974614008, 12.196798559700307, 4.811288134274661, 11.529899792545644, -21.491988716025354, 3.8990817848948183, -13.719832330961287, 4.1620088301751625, -19.834175357496317, 3.6625701714676695, 4.907913999436366, -9.407235144948709, 3.585909482002109, -3.2500989120678843, -2.0355863326981076, 0.8262307458009057, -19.135832200721325, -3.1052934910594616, -6.393304615803246, 31.53506015402499, 5.553488902498841, -8.660846286738634, -3.0197741474123467, -1.0834503879452582, 6.273446782581621, -14.979287607173413, 1.118716761586377, 2.4034991057972, -11.950781013706258, 1.513241697477124, -22.513998864851853, 20.065118282658226, -9.510903033088104, -6.662103242181243, 6.9135636108962935, -3.5458849057043924, 4.408504798383278, -4.907364737473676, -7.290313160517777, -17.712261239322036, -10.486235037794701, -5.365734930444387, 12.952246193147523, -23.406925198103657, -0.9294958855026032, 8.549238734417205, -0.9863000408843192, -10.099115016114375, -12.753450949108139, -26.394702524807105, -0.938081552976309, -31.72200643606765, -9.73901706493635, -27.270110800225382, -9.945918954158113, -10.588214169419903, -2.8490013653234354, 14.986579924362188, -3.9768639904388414, -13.606797267407757, 2.194767402102529, -15.66277701206583, 15.736050569602382, 0.05972976268407268, -27.996103442756098, -2.8481135686421397, 29.3590728925078, -19.71935484777641, 6.380409602944753, -17.235886755876358, 8.63064680387912, -26.01768760875852, 44.76908687232026, -17.723980005694276, 13.583758399720233, -16.1341149349822, -13.860842375209852, 26.27327021019488, 8.53126017186575, 1.5312911463677692, -11.924157250674382, -1.3832032729698818, 13.746171157965536, 2.09769819611678, -5.326807623575514, 22.44139532580904, -12.676361193692147, 10.819186388583589, 11.140930677732314, -22.77214773449099, 34.62740894190267, -12.50681211351294, -18.681568664744013, 24.99230175345529, -8.88595697951588, -24.175738658666578, 6.729266156758647, 34.02614424444143, -10.075092447563863, -10.273639091986308, -19.01747816936656, -10.839974976601162, -2.617898622206999, -24.91088052973547, -8.087513463532407, -0.1057012232809944, -18.11589251917666, -4.2566379242699615, 10.924554915754564, 21.027880284191642, -16.320800563975325, -1.512230378537944, -15.194047879110364, -10.882279695085654, 13.382029402815087, 8.611387113699404, 21.190260908018676, 4.350802195171285, 11.182491467139723, 10.38455751811026, -1.5607385352256153, 20.03960959345072, -8.667994012896989, -13.87203488763727, 8.6341373092443, -37.997888131103565, -2.92756609746246, 3.1463964082981906, 23.642218429825647, 17.812118716401475, 7.4318849821307955, 2.8078918329739864, -17.294571233588275, 20.72031445137002, 2.139647337325783, -6.815501446954495, 14.407383217036898, -7.338526107864994, -9.826701891577535, -1.7386701673725145, 9.472432646203034, -37.614342183923505, -21.54722391586692, -22.856337983259642, 9.474724438647414, 3.3389661941189885, -13.801292172354483, -31.76360220454146, 20.549702575229446, 9.600271423870886, -25.992952988505294, 18.40295761607558, -22.635835606624546, -32.60642913313717, 5.81293245622936, -10.698740090497271, 1.5800494664307296, -13.502061787283594, -13.665047279182202, -9.327718302663355, -1.3665529240737087, -17.484139184543498, -0.7421442463799921, -13.919382152012002, -15.385763601534403, 20.61840693624062, -13.960250651456187, -35.077099347572364, 15.424775524957477, 3.7108916641208562, -3.5571704321688062, 6.645600816495357, -2.1837190089107223, 24.478680447766372, -6.7407658726831325, -10.774992521847517, 13.585796376115196, -3.038030258396513, 16.773429130410953, 8.5927428309886, -6.033848482764912, 7.088533754230731, 37.2529490366866, -13.520081902624197, 19.5493307495182, -32.38802802578774, 15.666048946719531, 24.57425680872174, 10.040594469547454, 19.088155519814038, -17.210580988676412, 10.950094447537033, 37.48628503370625, 8.179570578298028, 22.35802066592012, -0.6076533871776479, 2.1983572920519743, -25.69317358109094, 10.583884176962199, 20.956663700221476, -1.3324358696801553, -30.424439147512004, 36.63595060527281, -41.177177726071044, 23.07429874585991, -21.254858511266665, -10.854918554785886, 0.7299463563712592, 12.905639744439714, 32.37808996207505, 6.427392371588796, -6.742200217860232, -9.545111170151227, -14.004705346771207, -3.609228098857689, 12.389604099828553, 27.184937600210247, 16.967365147148513, 18.35827406796571, -13.195784353013316, 6.6958344533486995, -16.317502332531866, 2.6980877347000454, 19.245581899707563, -1.002805863767744, -7.901188613310734, -18.92370778126111, 16.57997530122314, 11.19805412503137, 12.990737523602144, 1.075427056525705, -19.7176624269758, 16.549523120271797, 27.229619082801058, 11.536922579673606, -9.049446762727328, 8.697170210114912, 5.927912074126002, 13.000573344094752, 0.21102332602095433, -8.421038404202234, 25.156874982861854, -0.7300619349611841, 4.211139403391339, -18.779177710201903, 7.785315818823572, 11.043380604062365, 40.04779826681643, 9.856280814764741, -6.146206473236482, -7.949304108177286, 0.9213696570942229, 14.577580348468658, -27.018299842868334, -10.225317502941014, -19.634916699320012, 3.9392871026508667, 9.276826054569714, -5.2452991753089915, -33.446049068251426, -0.6642358121228991, 17.035643681815955, 36.88810860313574, -8.731708270547223, 4.985303880073808, 19.25364535976553, 0.14726832141055243, 11.497498456728449, 25.512526960104154, 13.933269410491306, 2.6705786711187924, -7.705838456732271, -8.77676694828881, 2.526936227208707, 17.758183229278977, 28.370980977766813, -2.679729168439079, 17.55356763836657, 19.835581998617894, 1.202716325527289, 17.021510520967038, -7.833313393143228, -4.080598872932264, 9.902839419902707, -4.299069595520787, -14.09863333749445, -36.87026525941897, -31.478672697946042, -4.230878742958478, -24.267278908122325, -0.42912597133004543, 3.770555245535079, -18.359081926108406, -7.772127361088241, 11.070338474339247, -13.71586927814859, 22.028748098617154, 22.692632522712035, 25.57706892063728, 37.490025132068716, -0.6670638450459936, -20.140439312274495, -6.512645190651417, -11.255187010418844, 0.11202743494584122, -24.385180080315042, -2.8093920135508883, -3.5516860641416708, 7.60420111403664, 23.791510804312495, 13.600690926871836, 22.776431420682336, 25.258381548359097, 1.428386217151768, 3.9607823717094455, -31.613872154528146, 0.4734790148940579, 8.700132939821945, 2.0413715686825293, -9.215931386161179, -9.465902677254968, 12.984826234509848, 33.0884058184469, 26.66222846537111, -8.957371281067056, -7.205216029497165, -35.553812243981056, 9.691032651674002, -8.380575112969558, 0.9810786792775027, -11.719711736905941, -19.981592966240406, -5.769676740400964, 19.347838243704775, -12.15723187572243, 13.023584787793567, 5.3287051717029215, 19.273614020586255, -17.095532981621524, -20.181211429278044, 20.784556932080566, 9.242881081247152, -21.589703743388753, -11.260890324992284, 7.052171586868, -6.677700301675003, -0.0469158190109808, 13.690519361396502, -14.617167425420446, 2.5312177679759866, 7.5529657132396615, 10.372998865344602, 11.795285661528226, 9.371518733690118, -3.0589113654147835, -11.422035927059886, -1.4088276679585385, 38.359830946632655, -16.374721950852173, 27.438290011008277, 0.309973740630508, 28.26101229351171, -39.981342248185236, 1.23027340571696, -5.07761351734115, 19.735574615693974, -2.1837525202002523, 2.48807723233024, -3.1365010309017554, -21.428548351860044, -25.60200218631028, -27.426656486013847, 13.674146984429688, 20.946578096617962, -16.16712063153563, -13.52349414048861, 0.13603877080600701, -11.871035044220775, 26.377216098506604, 6.6519796507456705, 3.23106345669847, 14.199561460948969, -15.919162236570756, -1.0244530504354228, 0.6706948755036188, 8.876258646844438, 17.662821641753293, -11.338908974923815, -36.97625618664182, -7.393362853705235, -15.10796227092066, -23.397484180200333, -8.55302364339179, -5.138114662258064, -41.27914601197102, -32.013925501658285, -2.0648377858766906, -17.319595732223938, 16.975160606581714, 10.908126406373448, 9.616036668893367, -24.220167181234775, -6.554774331666192, -23.355290436261484, 10.639456180806937, 5.888629762645931, 11.083488255665092, -5.51460249981716, 24.64621415395682, -19.317064417908206, 17.941130461633392, 5.725769161603261, 25.739078142739643, 4.897147387725644, 22.908376703071447, -21.24637047290668, 13.662168486276174, 17.286858032808954, -24.415000192065687, 18.820761457015784, -37.80246465685356, 11.259137763068635, -3.4861053259590857, -20.17670912277042, 2.0931532379546094, -6.840936649362554, -15.592718292408431, -29.84138117686668, 14.968229342182289, -6.6218454096857045, -3.7334591288198054, -0.00780118417465403, 25.91821296152596, -14.5039884061429, 0.40253886318846266, 17.61131803479397, 9.82453681601412, -2.2679739472766856, -9.858396642885111, -2.834814212667078, -24.278755509387615, -3.6812903164267192, -3.597327457473829, -0.6101590967924223, -4.720513340747064, 5.532809664544019, -6.4371776858421885, -5.251520126932922, -13.067212820992786, -15.813611066433797, 5.826352857950495], "model_name": "mlp"}