{"model_name": "echo_state", "model": {"output_layers": [], "echo_state_seed": 56422, "activation": "relu", "n_readouts": 50, "n_components": 300}, "weights": [-8.301895742159493, -19.681800727812213, 3.78085539078584, -3.7487632665680994, 5.446841932976439, -3.115340708906158, -14.603130362106326, -33.94173404319, -17.26273361639411, 0.6967725002957879, -11.796340200540175, -0.8460902891509332, 32.741365705439726, 11.497882213273314, 22.565173665983572, -22.80409213804662, -8.265132155479812, 84.44500451047199, 30.14518229620152, -11.84818070037684, -46.28364441697947, -39.0158547769573, 1.0257012690196925, -24.65534389099224, 24.229117020844203, 14.550825670872257, 23.435185887811958, 11.177492884753404, 39.285805803817425, 24.312320556854104, 15.824122904027616, -11.154553414763548, 33.79313416219026, 4.687354865603288, -12.251282621186602, 32.109492574898965, 14.06604280848034, 5.093628243464893, -27.713727833701753, 40.9253829390114, 55.49189747588859, -17.900707033847908, 2.079988198463024, 16.150389584352595, -45.5225110284301, -10.165132933387582, 6.218709912446428, -22.531913378692686, 3.862168393295711, -1.747235651325422, -17.080825049200413, -15.667237287273316, -5.835042756738046, 2.0451485733418586, -16.90602107077775, -33.66758829426768, 1.208831755255542, 42.62944274682057, 40.35061851779966, -0.33873037971058295, 17.30709203659554, -18.69142493698575, 3.8390054579730535, -5.017207392377217, 2.0904922871875113, 15.135718983378595, 12.85638410684706, -17.58689863404467, -39.81808142643197, 10.134337742806178, -9.860072643697766, -32.262986982295764, -30.986003701027947, -0.7944028052922116, 32.106276048102664, -14.94778873918074, 7.872454972639229, 14.575440396120724, 31.584312598127827, -7.685306991372991, -21.098445065040675, 2.0539577059325973, -3.22696885202308, 0.7457325332021544, 28.592647490509314, 10.440455660940312, -24.180084491340686, 0.31430045921533445, 5.0180194273970535, 12.471959406783593, 44.792826118002566, 26.846851096792477, -11.476886130166845, -49.26929403233999, -15.969568019825044, 25.36822901771142, 7.872003187822852, 12.68161203510779, 4.4937447100276495, 28.05983493314855, -25.041286620578866, 25.331010976578206, 6.447113201680024, 4.158848082596824, 28.81978455434446, 31.982953862110122, -7.7769811786557055, -11.616561039678386, 27.46900026683821, 15.12893731487964, -8.229311018771096, -14.058552225395259, -9.746879875787295, 34.573027570160924, -41.76367611798346, -13.73824169969624, -22.20227405736462, -46.79783308472016, -40.092694042939826, 1.4942092351799792, -1.8406258131066084, 42.01442031588162, -16.796558350002293, 4.01484494505841, 41.53182573704979, -14.266800185726751, 45.94731083106499, -1.7430479763990787, -25.16550961290711, 26.164076484429913, 9.271124995482158, 17.812683024051527, 7.6880199606958755, 13.387973941832392, 17.70368440711443, -55.60163172033181, 30.67343268185466, -1.6341332293453932, 32.57792814446515, 7.032298742527434, -20.792928731473037, 32.38426192323008, -25.078507943600584, -1.5586205773385924, 4.907436232624233, -1.580770870330055, 17.104087616230135, 20.834019032553257, -38.4864702324705, -4.3420326435446475, 1.5125556070527713, 3.9376893492903786, -13.023193347078912, -3.1574156830333857, -24.420086733511024, 16.094254123009875, -22.461187474979056, -1.8536490333802786, -15.50283338965395, -31.663825818657624, 10.52042127131566, -2.7722937765030315, 11.245228409875917, 22.264520591319172, -0.5157224157054325, 11.779799927510362, 13.605571932853305, -1.6889108471588887, 31.42786778571289, -17.571682514898622, 36.49739272715734, 42.36469236979079, 1.3607402913532551, 24.179455523618877, 14.061880872853791, 8.017759190931226, 26.943103456700616, -2.1591191594625276, -8.769988397635037, 20.916629322055527, -26.91638298160017, 19.81370002178513, -22.118139439995254, 0.42194059439699805, -4.358015294076792, -1.7922808130030838, 5.166341287680847, 4.8010939816389016, -63.690223513613645, -15.591756202331469, -36.27317549633326, -21.916879546861608, -8.271342094532951, -27.32097403577734, 15.546041964393481, 12.13548184989852, -30.66537597788051, 6.304294434023561, -28.50763526908177, -1.7677826601984457, 29.267293218859177, 8.442186103812043, 31.503949876351683, 26.822332778894058, -9.09247911290284, -23.097472719882987, 5.48049722869097, 19.081661313077674, -29.16929877464846, -22.973235120728887, -6.020982380039373, -16.968799262314878, 23.754267390082507, 27.605067205778454, 2.2876471415734, -46.4837479805131, 47.09520979825785, -20.168422797640204, -19.73676149049795, 6.509413855365339, 58.01402531398555, 12.735999450579344, 1.2359614456798012, -42.46737892655453, -28.503410661217043, -45.89385180331674, -38.31410744254382, -57.5732227208486, 13.839040868221073, 40.7353400293828, -24.184180983152313, -31.333443480724434, -35.12992076149143, -20.526599501079545, 40.26567471814371, -11.592698570058456, 5.923509041242808, -6.47362906339615, 30.8051812086096, 19.699110248435062, 22.828001194331364, 14.410667873573297, -9.713605621250984, 36.423700270363526, 6.181770066628405, 19.92708652868511, 18.676529020389783, -41.05978818223099, -25.35598008198828, 45.63693556643285, 60.63864516492999, 18.6903957402518, 16.92059301498219, 10.608625811865341, 23.364891150225457, 2.7906683154264798, -6.167159758783382, -13.12670503672761, 20.27984533619537, -23.57454310622162, -22.79058024894691, 3.254415216031089, 34.55026319862475, 45.41282688435451, 38.77564325466831, -22.819993051362662, 1.7064513870804854, -37.37197606031586, 13.299830086519387, 35.48147546010438, 32.50318192275444, 15.852360967398493, -6.7959048697232145, -29.222490557439983, 30.094600047921862, 13.929462286847912, 21.559880135240284, -13.111946174183073, 16.336042758636438, 2.787565103048522, 1.698105461420223, 24.41468193487008, 26.331744913409878, 21.0254757377617, -22.583747244757507, 53.02589334167317, 2.1325158122487573, -2.848711250138732, 18.278491064862042, -26.274184186976278, 11.115994151889419, -6.589817200192352, 11.575364893812218, -3.7034559646134277, -73.04018425018747, 20.29158299269774, -6.085481080158125, 2.359202198898219, -18.255288954859573, -15.576712595352806, 21.13341985490179, -7.40970524077021, 29.416644532905124, -51.00685420817493, 18.736618912395492, 30.36239783065034, 15.903077444290487, 22.149555584192957, -9.488101647904989, -3.6049829019271957, 31.619611256013524, -6.046789128856526, 6.090371657470226, 20.549178060067547, 5.860072603563344, 18.286390461152607, -8.09865664116477, 7.133402265064702, -6.1496853018324265, -28.69748926537324, -9.34147290281273, -39.95530741372288, -50.21991930483641, -23.064963728386978, -9.852874322423762, 3.3099928714547087, -9.196855157109134, 10.099817489153985, 62.82544891831451, -22.77406350453414, -9.620245986361475, -48.361718572518235, 10.080483454188144, 0.28709594345483147, 5.600148197772587, -13.194173032021075, -29.5854539640487, -16.180043376201084, -22.87286799603774, -3.501579955472872, 30.11433008703251, 46.315791215441806, -30.743777413622475, -17.242339003873642, -3.236520513976923, -9.47679241312477, 39.249551054989375, -5.70146627164638, 6.108628681971735, -4.3297362278981275, 21.97288927573403, 8.419472742679133, -13.513032527117971, -61.53427429656735, -15.997241913855408, -12.595711137043356, -6.146851914263202, -1.8737920286510268, 24.600331772869033, -0.5029150812994145, 24.0169580933392, 7.8349979300586305, 15.812400087963457, -5.765662621297761, 30.790101454076748, -9.697404411710114, -3.8533785618379084, -22.208008950162423, 21.29318528768757, 1.9661982229046076, -1.036664408332972, -7.381413238679965, -13.867454272500371, -51.92132214628967, -4.352443460241856, -50.56545749511774, 13.279048895690892, 18.975483480313752, 10.820286453381655, -38.01185006513385, 5.046291880634645, 22.54716211899027, -19.44407130859636, 59.741859440170174, 7.284206923874343, -19.78417606059461, 14.097228014792337, -17.797763918192313, 47.09453858310935, 2.262712719568066, -43.50817058767441, -37.70212390937976, 20.60308174286076, -27.289362686256304, -5.095508811417757, 19.69222342970752, -3.3017718461796814, -8.2710563135842, -78.16604537724072, 23.139061940692663, 20.306957545116838, -1.2366129237729853, 29.880614190956628, 1.6907570353010484, 17.30101057361336, 24.99227499344433, -17.668136979051056, 14.906298849866019, 3.857270487427237, 13.434720255461006, 15.641739592465214, -4.740220718570396, -15.860897775654122, -10.446974480658884, 27.15706801978812, 32.92492998942807, -13.519256325546486, 16.534941304618588, -8.540296350486434, 36.01589795694563, 9.270315214312832, -7.584515746337653, 19.0488167774498, -14.753988854843149, 12.044533531000168, -27.809886036732518, -13.568156310811869, 50.65942208817225, -38.040061738949916, 2.6149342062110583, -18.687141790718847, -8.290462781620638, 33.0479954823506, 43.095597118782685, -14.365806298302882, -28.315454853544345, 36.677831130860575, 43.52216954154216, -38.080256854914204, 51.05284127950106, 8.174308732338421, -19.21977043157974, 40.326606602172504, -7.485471132707002, -9.592212434207589, 4.1055750149741925, 28.158320005363827, 13.919419024417284, -17.444324737426175, -9.016249424084737, 1.9926974718591641, -13.727137084969133, 5.543202907532658, -19.63090030469094, 43.46056836012842, -1.6043919964335718, 11.521037635475015, -25.499124911286806, -8.066877824801251, 7.4535241842595505, 12.500705935045154, 7.039863477845914, 36.132155100305255, -30.523362583445557, -15.822755594053989, -1.480152257144976, 11.31327821780335, -40.0576977572836, -52.30803054446738, 9.819336726141582, 3.624078288842565, 4.084839502180385, -1.5242987636762049, 13.0925005427125, -12.924373065428343, -15.591823189212217, 16.174331774131815, 8.24833289518629, -18.41496080215906, -5.41714560414596, 17.740499903987782, 22.916461431257883, 1.5623254885565991, -42.08407205940242, -14.97581648650323, 36.66151407195329, 8.796056406485686, 5.920227855874273, 4.027785262044703, -13.694095165152929, -21.457179858269154, -35.31751199978395, -15.068557999494764, -12.140901458467415, 13.580687354580217, 12.770800544835536, -29.193384838778925, -4.224198178341407, -31.05866576350121, -1.7471539420558404, 41.8377028973658, -9.837881697131373, -8.109294355332317, -20.49201964090362, 15.119561705380825, -28.09484172668968, 51.85798798224478, 0.8448606090320364, 21.614212180448074, -6.565312314524222, 32.52788195532645, 7.865366277506282, -0.6061461238931858, 6.287591446158046, -32.261563543245245, 39.220886769194976, -8.241857565612683, -25.839477774226047, 16.57722162582509, 28.685201515378953, 18.403703757787188, 28.513491504689362, -0.6262973839317239, 24.208365567151873, 42.700899039112535, -3.644224664349305, 2.7217828866859413, -5.175281562098714, -5.588206649486848, -37.95434760278644, -3.2984227337602188, -35.98859013260158, -30.836061204039982, 23.187754076559596, -30.894687494048977, -48.43183790979451, 4.401388669946005, -0.3982425057992204, -20.3418016759931, -54.16817014796032, 8.7760528179229, -7.57349033501213, -12.513747424424169, -20.59067037484567, -13.940143724316314, -42.434970782743015, -48.42056751799142, 34.2669782037754, 30.570630547283127, -4.638159655835087, -29.296365111779192, 36.28552513026276, 17.535339448872726, 16.871340022181545, -15.042994985936794, 7.340991297656711, -13.347681932380882, -12.700742560684677, -13.004654027675969, 11.826530293101282, 6.5338034516003205, 45.70932661323117, -14.417046546582323, -29.081408051225864, 7.692352148582078, -0.11938483366666652, 6.605896911748555, -12.940834702803757, -5.524319348057438, -18.938651481912665, 10.819134079667899, -34.177088207388834, -13.181303461744905, 4.218332856911093, -32.26402988286641, -49.50710352199696, -8.562370841537353, 50.04652304771821, -8.489450540415868, -12.940000926297358, 25.96690883313412, 3.403597012498407, 23.282129113147022, -9.527321234290184, -5.224439719113253, -37.2570930687799, -19.893358927428594, 0.739946401024759, -26.90147346862774, 48.30163865669887, -26.86527026097111, -11.586665978011215, 11.821023010024849, 18.078694054907267, -39.46215423943741, -5.2796347769572165, -3.534208542771413, -55.82698897590612, -4.759322707116454, 3.8251288330773563, -2.941125183762555, -5.229688333322147, 20.749064263485685, -16.353151954675653, -20.498314466385104, 31.70078864866361, -14.098819032312054, -11.094755014933607, 2.1150091130594015, 5.387753524738752, 46.571077961535785, 9.000289500446337, 27.00794715976924, -21.480933220571423, 1.5639010555268187, -4.416196162312602, -21.077162728442005, 11.489136426145077, -30.68156822953985, -7.1905193654831665, -12.222337088327563, -6.45444768227744, -33.57484708800185, -20.51237177050692, -68.86807304892848, 13.905886776020301, 9.139552883190891, -13.443980318209217, -29.90550325526887, -7.134819896323833, 5.354772056850985, -0.29120621991831097, 20.837168427852216, 25.79691173216873, -19.316498439610932, 12.55552292328957, 21.059108504092148, -4.629822777094118, -11.292226422064152, 14.900415231701396, 29.289860016761825, 21.86562679170055, -54.307453039314325, 21.907469671080225, 45.13066525593308, -3.9473696002926957, 13.168159411130118, -32.615826468111976, -13.922579565405622, 16.468782967220097, -45.859755838846446, -23.255734863067463, -16.229724993393607, -44.407426225215694, 10.514607080438966, 11.495269883034009, -32.16440039638979, -1.3908841143240025, 0.21191039248257404, 5.826791476984002, 11.110121367357717, 3.106557908136956, -17.972548958348998, 35.89782394674309, -28.056516307438905, 25.799169532251028, 7.801757581714922, -13.461848748860762, 39.69431429478587, -23.67073493646174, -32.54855098275175, 42.700096639103975, 34.992884620714364, -2.2027315516658668, -42.43929305619616, -5.684390386186047, -8.00709165825639, -26.762766047983142, 33.09250634531075, -0.05193147168014001, 3.2815562846528943, 13.367083298272437, -13.50227733182585, 52.04610790531106, -33.43569107743929, -15.851506089280512, -3.543200342302901, -3.516600375703378, 48.39467090942198, 32.34118853160252, -12.502280652279104, -16.95451245927942, -20.243902915887496, 6.218804194641272, -52.63624789632893, 0.004836960807619306, 14.024720420044964, -3.1269546838054705, 27.063649119796946, -14.019953717497485, 10.453328724990833, 23.032338364101633, -3.663695936373391, 70.96222530968883, 6.901614607847838, -22.083507145207342, 23.08656534947686, -19.594206841093232, 3.5862331903952427, -25.206648556952693, 18.334305319967097, 6.256761970525188, 3.3186042301649, 28.138982991863255, 23.313674005388815, -13.121189870919004, 14.631615678067863, -10.42034071977776, 17.73449440642574, 7.8240583459306405, -47.015435565926985, -24.422683410616713, -2.103287352712905, 2.4181680712977665, 2.113109293019699, -9.254424334921332, 3.9110673892372216, 15.73241774228848, 21.18246685804134, 9.4754378690501, -16.264298323630708, 10.872858226394253, -4.761015240444602, 33.72116861155659, 0.2056119724027035, -47.90652284660252, 0.6403358970263318, 24.974914657815948, -27.696444945572328, 38.36171082355048, 12.629701753381337, -22.693404674077247, 16.46993869168025, -2.460331398310154, -15.119420368095573, -10.380985394336387, 13.885469354708267, 2.235102981929429, 9.320740593667605, 14.107762428497283, 0.7038975403590015, -40.41621056725983, 8.093982945998773, 34.771579785724, -17.402986476233423, -6.211512125842958, 15.665896052215313, 28.533164252901905, -7.8410227055130814, 2.156266621840175, 17.91860679491124, 17.962823924816366, -4.826830671983885, -14.245826691344877, 19.74858696898734, -6.140831852847067, -7.836053177720676, -2.1545957743489432, 31.052181561890617, 17.955694117193932, -36.75933219706558, -19.909175940349186, -9.002298281460789, -35.42184629027509, 2.8680137370259557, -9.241448570863941, 0.7425517385390146, -40.95954680513792, -2.432946216637621, 11.936699192079121, -11.81612753346197, -4.978088778965865, -10.744131419041166, -4.391642003074744, -22.340597300932956, 19.02073721328494, 5.600482402098397, -29.610593553526655, 37.25965266076565, 29.67237115991301, 25.2831440721832, -20.420646023351416, 39.536392329862146, 8.315448957208286, -43.577093356251304, -6.9507592812271906, -31.60762656832812, -26.149889501852698, 23.019473546828657, 11.48078101256024, 16.77707069893056, -39.11289048468061, 0.11373689717346092, 25.478762989254346, -15.376304262942824, 30.78946621799316, 3.0825690226101043, -19.434394897381583, 8.61665076477701, 21.693258458377993, -42.39009982553986, -47.911053458674296, 8.741502490834552, -35.874946046095495, -3.761856134658815, 43.021290296762615, 3.8096375837857774, -29.359576466888342, 20.551460968503118, -35.67150983610357, 4.258742765601707, -7.218092888961442, -3.5629026623676485, 25.183364593316842, 2.0499463918187235, -3.177447632565012, -2.539107052674412, 23.366337230820562, -12.909650768409113, -20.367439495331425, -7.15320571563724, 13.01905978523484, -16.657611123843402, 2.8670828783152906, -26.996912107039194, -12.424133719709204, 21.102867211300936, 37.81984800391904, 35.035142664168454, 1.2068133860417967, 14.950636780175877, 3.6328482451673834, -6.664160206327098, -12.42898793977207, -1.3659142201677392, -24.265775834356155, 17.48873879257124, -25.265729718487624, 29.68917048218621, 26.866980210754964, 18.04268429841389, -30.65976483655525, 9.421661195865857, 30.17007522071804, -4.613369680525082, -1.3827217259452258, -62.45868336404901, 12.359365021982892, -6.607624469409653, 30.155687903773963, -23.516683067538715, -0.9915876828323089, -10.295690048017098, 11.638385241275813, -84.7826774302246, -28.210251390909143, 25.507579401720058, -3.5950393400254352, 34.294863742015416, 41.475009070882265, 38.00820995533511, -2.5459366425043832, -25.005694187789203, 7.1135766749306555, -32.43884878184447, -29.037316877678446, 12.826039971070333, -2.7676337767789874, 0.018693631995569504, -5.384775175758014, 23.797243453866727, 40.26642361109373, -0.6508358961923809, 19.41084758150201, -0.1313598031777694, 12.340072923983904, 0.8051160130928534, 13.784458002005874, -13.086309581567171, -16.61182334626455, 9.570467223183954, -9.088066733539552, 14.429928081308528, 11.595827351753686, 4.325991060158475, -21.634415294521936, -34.1098153364443, 2.113868917381619, 5.5068933895980985, 2.7127759684343724, 9.482022072531436, 30.323955084632754, 6.174518709847348, 35.35217033741563, 2.428665397578336, 10.564895511937358, -25.278872598287023, -6.808392889765599, 2.291461949237079, 0.4677959825486613, -5.545830524355601, -21.005042664061815, -27.473757126259773, 5.072286617042684, -3.725709045055862, 12.245499953272816, -3.1934772445940016, -44.63751857508226, 19.78519972333756, -7.731452033822954, 27.248317371292213, -16.926864160638992, 23.071164075356528, -11.759754088439076, -8.048328138495254, 37.74265573536741, 5.356633159476413, 27.83212469855504, -73.95039154794966, -12.06327432738961, 0.3684170822549345, -67.40668501507022, 0.6943382625982419, -52.70803393504627, 0.12070702796483657, 15.136409338372218, -24.80398813853277, -28.59162738867975, -39.777772241446996, 3.954535833433459, 13.806063316652688, -68.72263818881419, 24.730570347831218, 8.064414578871471, 26.7740753277877, 4.182694327099403, -39.69219008420967, -12.349381178971118, -12.35461865361928, 41.944024894564365, 12.169159351546025, -45.369865059941276, -18.537314673344348, -18.190981258585907, 30.664817496871613, 17.549891717670285, -23.939573738903928, -12.545735502476266, -6.3960982993735715, 7.1467416832250015, 9.12344326987715, -5.106714217117084, 3.2936202145602755, -30.156274286770728, 3.851611946444916, -7.417676947053701, -29.230471933694762, 0.510290051261503, -59.40856343130408, -23.241440124907847, 13.572523869758259, -5.102759271748979, 1.413970495831388, -21.333247264933163, -40.56422773208427, 36.32597404595816, -31.87431845182447, 17.293722086293528, 41.5473597746627, 17.577509246855225, -6.4008775118489964, -19.17376488413807, -14.026883891687078, 28.32857954462846, 0.5305765138930786, -6.240262621893674, 36.1542465803156, -6.778109987192142, -5.876066423166387, 1.68613613666178, -1.7857457525764375, -27.407894526079065, 23.479579255420592, 4.942300196654588, -40.26459173625849, 29.820957782162385, 44.19306628258431, 0.8522047777819219, -2.0969534276750275, -3.6749668148591415, -23.4245122225326, -15.002704823216341, -11.970288585830662, 28.623870488743098, -9.089660380775804, -0.07227372303822577, -24.96848406988952, 17.029003353545775, -14.880719155172331, 51.22524019097546, -13.270015157996873, 20.35441915220566, -25.376414416384208, -15.830046829976316, 6.300830043445385, -38.46107611036683, 14.068421399623452, 32.466347328941424, 37.003436585344204, -19.540505286057982, 19.306539153349792, 21.560582544623205, -18.241553673646035, -0.5113118225868996, -25.84777321891378, 16.54790081756354, 0.5689576735280077, -8.318473531469845, -11.732695484236789, -20.03719714376478, -0.03772351892120529, 16.70236240060053, 17.726292630210544, 20.76812650331461, -6.510345790127941, 55.03951182728601, -26.8665845877638, -21.81052650392311, 15.684618115599083, -4.69697770281147, 21.780423562344556, -11.09532508964086, 22.845181518139395, -23.528855878886095, -1.4526012542504376, 34.107899338030236, 3.7135834427663243, 6.950011690321351, -28.871069823071974, -12.251238154513434, 18.916678046157436, -23.573805543943948, -18.529516877521694, 16.861511787792736, 5.981520077095182, 2.045080024566885, 26.87951558709056, -19.52420057511657, 21.79149691669625, -15.477734240475952, 54.41921186248224, -0.2526013650349652, 2.0056014367900143, -24.6322380231878, -25.73167515680396, 47.19276464177904, 20.43677619419185, -39.56987443212456, 14.02323050134683, 21.578917816709428, 7.586791841414146, -17.215327134456132, 40.94102479824171, 8.841144305017174, 3.0122490860250357, -64.13957722104021, 17.531502732371592, -33.51158283229607, 0.06692872349651835, 2.5421905471994215, -31.21417409666565, -20.55717692994943, -23.80845005717338, 0.20088803890448403, 18.473948678508748, -18.133021294101805, 3.4430757851415823, 17.550073447938324, 21.2477044685605, 10.406629352945725, 68.14755195736993, -5.3282234000010495, 11.499691161843527, 6.663868498107711, 34.608693446320736, 11.700795624924762, -3.515059715318723, -8.999713434570626, 3.9207636856498773, 29.30759877155876, 28.17245083215953, -21.77593686055757, -11.972464007531856, -21.79156526838865, 9.538683917807218, -3.0823724678231184, -14.156435401402044, 19.45204653331554, 26.098775299602153, 6.4188596195945795, -44.880179098492086, -2.509610827078319, 5.98458357376955, 33.62104886135885, -4.913416404421122, -7.866474180125064, 22.433929448493387, -35.66381669755108, 5.559055300670173, -9.337013547535804, 23.85742387050029, -10.217962237498725, -3.0199011194731566, 2.451571559247674, -27.428313120677423, -27.534419476378527, -13.942580065504632, -0.426045907166559, -23.793808540757023, 7.330908661933222, 2.6046127476265015, -14.973272246505305, 32.36927745697405, -4.242796671762344, 2.687886129363688, 25.899958084229993, 0.6470617128790996, -28.34900278036145, 28.484553897572816, -29.597138717848903, -13.086566328457698, -21.12876116723411, 1.2758286824803928, -7.393066801759562, 3.942439104519257, -2.913584702630502, 6.444036982783882, 32.563542646022704, 16.058647488800904, 15.82363627418667, -43.8327804517785, 29.211079843289088, 21.566434040264213, -0.10690324461578182, 11.854258077100265, 24.563307383249864, 9.961145597892605, -37.48722438876633, 34.10208379586757, -15.108189809324381, 18.188370845145517, 63.75350765286547, -57.75788247177889, -32.18834833650131, -18.95569142965708, 20.111445431317417, -25.695753210895834, -9.996160936922111, -4.583182563914347, -16.170477482090572, -31.272374824963897, 15.67084270575798, 1.8870423085594696, 30.869047625799038, 39.23490010521096, -62.76994924359225, 19.61388891371073, 24.448507642367417, -5.216312627741811, -15.277793423211497, 3.179625196743383, 17.390787200747607, -6.1002584449124715, 4.338436186447092, 22.979421265537837, -4.673382727570338, 2.793873531649265, 33.15180938788799, 22.435171873872388, 15.9441774357798, 8.911187182942166, 27.6065595446353, 12.683438108513718, -13.228983567584194, -26.269447955923383, 11.227890184663547, -16.0222600272384, 3.4673189127508115, -18.57956872774892, -43.58087530872221, 1.8325158854165426, -29.162463428017585, -4.882368461553449, -0.9169160976373241, 5.372776402160921, 5.679375612651869, -10.995553971773852, 5.995288398163659, -20.659889084083133, 12.067791732374813, -10.401660628546248, 8.497983989130988, 13.663882059635288, -13.030620711420212, -2.4584140649760635, 44.31238019993314, 13.79257431087535, -11.917125394747949, -20.486698595929116, -31.28555425998662, -5.099148714470159, 8.914615972140389, 24.914310308739967, 16.55187485050972, -14.749999093738477, 20.30634233708924, -17.05287285402866, 40.712489002551294, 12.258476620623334, -11.438262501529568, 2.7828800980590693, -6.730132900716441, 4.202760473849165, -7.16302847817704, -2.1115459196601076, -7.521960103677711, -9.659235336599092, -22.750359235973907, 12.638949364608665, -10.352576854418382, 48.01414296610128, -7.865113258868465, 22.388116676768995, -18.795751225878384, 10.685309754081063, 34.18893370636969, -32.563394576764225, -10.31669431516967, -4.643145730248587, 19.744703866610365, -35.569806008246815, 6.143821560095136, 30.468722217383153, -25.31180229880202, 33.81484020989889, 20.795137702843903, -25.046845675163887, 26.0330660086175, -19.767128847876442, -1.2837942575539896, 24.661388474017937, -13.363645748633498, 34.685655447881935, 2.7934784689244196, 11.650205000938188, 5.2484548627104255, -22.65363904473332, 15.393115468430533, 5.315548595692209, -22.888403569781595, 12.787482089435237, 29.90180946763434, -47.503343665318035, 39.210692831756745, 19.534149989570718, -22.462465522381255, -0.5455127908051982, 19.008228757570706, 19.184271635068715, 38.064557431009796, -30.669194353036268, 5.909657265114003, -21.71809340898725, -36.40282754606281, 36.21540688986606, -56.22731782587669, -4.362905887727052, 33.54699088202851, -50.074573001753485, 28.470840896700118, -0.4326852561368444, 23.69957747704467, 19.909550755346242, 19.9996543282772, -12.603730371159717, -36.54857044413944, -3.5616145644625465, 9.334605439645303, -25.2129080714637, 40.07683869919341, -4.770225659403504, 27.965313511996655, -36.501864490113235, 29.676980911950416, -15.443661258966518, -2.5961559195194184, 29.714503304775643, 38.2790663503292, -2.021324561009185, -35.5143394495995, 27.34204666566616, 48.00184314496697, -29.63737257911311, 23.61393910208084, 8.176501656215265, -21.912301236059392, -12.056976096775045, -7.250319466702919, 26.141412543328396, 11.11079879325795, -0.7655577838158594, -11.232807028837255, 3.10184722032838, 52.63521369491359, 34.46083736434426, 40.34047504663778, -5.213341896413393, 42.640318870475795, -49.61312142918504, -20.590467271564336, 17.19809335396928, 16.401472040967807, 5.837805849075167, 7.558157509347415, -11.837410202307419, 9.248328554463638, 30.71103836588609, -40.631012971127745, -12.136195326749068, -6.662557466667279, -7.636633250646238, -25.00575468384964, -9.350162495111036, 21.245869200690215, -55.72410654953372, 5.298026606695885, -24.438232207897705, -32.018451939059304, -10.492861948800439, 2.622967461445378, 3.1746332764349745, 18.467232141462233, -13.063841607657226, -18.265750727443507, -26.164702663113914, 3.1402119711474876, 25.750318906987083, 9.228186273189024, -23.583104530216904, -46.27077309077531, -34.86230152493747, 2.1422278077814205, -19.724959794084683, -31.975679678912417, -27.914946748998176, 23.481424129866923, 64.27184536107325, -19.618423339023842, -17.695128009410737, 19.253558815743773, -24.914056115754086, 8.733291840537916, -20.03341278252745, 1.3370561185540129, -4.1658332666444435, -6.087438237392813, -33.435581715795394, -31.23906454159442, 13.660108875472579, 22.291716125510327, 35.51842301495273, 11.484836649441629, -28.186866349255368, -18.408609958868897, 18.39275558896145, 13.393647822758407, 20.863842858826004, 12.072685255048091, 43.92146315256134, -5.226879686164386, 18.69283256362403, 16.723315693191974, 3.958511307586272, -14.609815477337836, 12.743403560733896, -33.718474780252066, -51.78030583362459, -20.94535615747469, 7.713816930344411, 12.999455403341232, -8.344739559475613, 22.28288807386715, -5.564300091032524, -13.016709127723736, 2.3545139994744364, 0.026426677956572497, 25.179318343568152, -13.650461256058875, -7.601294330198302, -6.378459829469893, -6.404327867862517, -20.470528943507677, 6.062669488397604, 47.81646834565319, -22.880529476041083, 17.248017271555852, -33.11425344287924, 30.12465476847241, -6.901378233378519, -27.822817414857237, 13.354856700216493, 20.701909680359197, -43.33182751154947, -5.833384656404043, -3.3626141418631463, -19.001067260071196, 44.26320781510358, -17.350862583648887, -20.82419255990866, 32.344097611901844, -9.81151759742679, 11.643627637589375, 38.256249139834964, 31.007262209490484, -29.551548828005906, -10.745680145006023, -16.42682636056072, 15.055697367696329, 6.374640394659965, -2.01871682257811, -4.431197258555605, -48.81267097673552, -24.23109551336736, 23.49699875638094, 44.53797111373583, 42.155840524970955, 14.970022461238276, -1.0207196235058875, -7.095234527081612, 20.793617625874123, 25.70513946768624, -40.712096735185945, 15.73160464094164, 14.904644485742173, 14.431025453703487, 3.712662040893509, 52.17069413893742, 18.05608473267118, 73.19196525936499, -50.191978257099834, -33.94988934884084, -22.12251534842377, 14.485037956783563, -17.542773089546007, -49.42443925959501, -7.79807847392342, 7.992173115594224, 20.947357618299968, 8.937739256219434, 19.1015698638264, -46.01001521321789, -14.940913319188937, 42.25020886497047, 14.914919266626129, -12.188657586675744, 34.33104723476453, -10.00869908450263, 2.9307658688029017, 36.44637970592816, -27.86359555148111, 6.249245749546882, 57.19528875019327, 58.40424889017246, 31.850013248428844, 18.3560344692147, -6.4809507909356725, -56.39814755503829, 15.491618633605702, 4.901064439114714, 5.808942409404367, -17.645035474062286, -14.330865672171791, 10.319639413457331, 43.67898410968034, 14.653584964171362, 43.118850066467665, 27.82305623860873, -33.31193416396566, 3.4464690543804952, 7.764096849066685, -18.739046160225556, 2.1237544985254493, -1.5717009449619268, 37.073710678519895, 5.291690885772304, -26.341921662585058, 10.798372959598883, -24.182578330221517, -18.450607469847156, -3.689304745616927, -19.47654297283977, 34.592203043001625, -6.486207973823129, 34.44993223483468, 20.144096641922992, 26.32947622928953, -17.510206858216495, -20.01000840618145, -5.652254224886805, -1.8050386098148437, 63.095267145779324, 26.323148289558098, 7.458740072348646, -1.639107416320471, 6.231784944340504, -4.375447083085047, 10.380859085862955, -18.40856862140729, -3.7706667815499126, -6.955308493324831, 42.68884353255594, -11.35067059723606, -44.567138599868215, -25.293091518574435, -9.954834154962445, -23.50334654707684, -23.793149924047942, 11.979301411100053, -27.18921091950578, 3.9373059101400143, 17.415123234258324, 7.6589443445456595, 3.0260985963415363, -13.168130228956484, -34.518050877763734, 50.146973173038766, -19.60149716910456, 36.69957151621175, -2.7591845129724284, 18.21024022279072, 3.685626470076353, -10.376575424766154, 12.931558611338057, 16.99886652002131, -18.824018317320522, -46.89153263347596, -26.539122150464358, -19.71677495327783, 8.76357392524918, -4.336075672653399, 9.044642576390562, 28.888868044051954, -49.231198904374985, -34.23964669197662, -35.14679361038847, 32.8671891883616, -39.37101920331786, -12.004563417998176, 20.216487766259572, -21.80371169578643, -7.688129547913576, -54.01672154947474, -40.57191877563914, 2.5450092110501497, 29.335374009999445, -27.975486444512168, -7.427233340825465, 11.512750387315513, 20.03728379988946, -0.33570263400736167, -4.943836128041374, 5.900911859368823, 37.2743938571337, 34.94646611788608, -1.2946849372830207, -12.681917977781488, -4.561358707726077, -21.513946445282542, 9.357200251427846, 3.5058955187545893, -20.93075559214384, -39.980160935201155, -4.360981030392222, -35.89764179260399, -23.262073188749753, -21.537351532761853, -0.48550896831284884, 39.09390128310625, 8.490751194169338, 7.314453214087065, 11.922170454554438, -41.65539898619324, -13.49068305952796, -34.08432676535461, 28.927441888506966, 15.860145856465904, -12.85532734982967, -28.348092176618586, 8.228923373896816, -54.90466952645027, 38.5222328059909, -35.809119477711555, -2.4937905481491303, 3.215291131500546, -7.647128457730783, 24.535474008702025, 44.46100385232213, 27.41909671156965, -21.359550065459413, -31.70411189495668, 32.56970669845332, -15.858783801464153, 28.880864929984746, 4.338658193214618, 25.333904868745233, 54.27528775633053, 5.381597020448818, -28.313681221037022, -5.050337217571241, -4.191616655603004, -7.032836234104662, 28.140466640462172, 5.409383990507644, 15.035600144990845, -5.053259959303837, -17.671774653302702, -39.08050600137796, 9.808336272972912, -35.37171790073091, -24.053607271008023, 18.57750988342035, 3.1022872150185057, -1.6390934565259263, 43.87622383389035, 29.283691843777927, -46.43000667411336, 67.36031608760766, -23.64865922368525, 18.699029706016095, -7.263146483109594, -2.0462835901978202, -40.774067170496366, 3.5042502945116984, -37.353416943147614, -14.921345327530423, -6.354744451286631, -17.305957470555168, -1.986644140680537, -9.47964875926769, 19.863918298863883, 8.322097103213062, 20.153386716386507, -2.0903828057945706, -12.169979510165291, 14.608441151151784, -0.9548595939255673, -7.242603328639887, -11.616649986153774, 15.896804820832172, 19.315362296729205, -35.99864914822318, -26.333794449348034, 26.237364712978525, -15.386546133000936, -18.173842458172217, -23.102357540726373, -10.487600518385474, -7.160736606642842, -7.902020324800472, 12.244187970170767, 33.595232448407465, -16.645241287850393, 10.754134312953783, -27.00637598269744, -1.8031481036524601, 41.407997878022826, 47.73968997756448, -8.164692299115481, -31.174711910836148, -8.32365258785882, 7.556106359344479, -20.217156630948057, 19.708134138850877, 58.5417127766237, 16.97054575746911, -8.519154513373923, 49.0225791775565, -23.90263341855396, -8.516282873062146, 25.513247025046656, -12.081953642039494, 36.96230967100733, -7.93995530939891, 19.649838956940638, 3.51914298357781, -48.48219166419502, -0.41363204803793163, -42.66589319885527, 16.015198731766866, 12.308308231562345, 32.48801402802601, -49.47420721852665, 29.341947010498004, 7.399015627987939, -14.808763055691788, -23.656170990687087, 4.719338793746519, -28.678670156238283, -15.961465723213704, 32.77086803168556, -21.269476383321024, 4.713184950224155, 33.838918254909984, 9.675139930003025, -14.51181684153031, -6.960710423445541, -15.193088076623985, -44.237350359144806, -5.71838389303946, -17.380226375035296, 26.440653755178673, 1.0450945518165975, 30.801273511235525, -2.510799381643894, 1.5214208202064383, -26.22329543813092, 11.263988474550676, -1.0730133269856894, -13.902834151771385, -34.788801223993616, -7.326239954005934, -4.132324920451723, 20.981211290250418, -2.4775491655954474, 10.67027674459101, -35.223680765065005, 7.677533008982065, 24.856524356156694, 20.353693216068667, 7.240591283749853, -31.581468343119592, 14.434145032432173, 15.599179232738479, 18.752204123342903, 46.99218585513489, 11.018921064371831, -1.893096119893526, 18.373381909836908, -25.050760471155083, 4.017204431634264, 13.961259539827106, 43.38015899585907, -20.450422084290246, -7.235810353677675, 22.167919028163354, -8.100336728943734, -2.666579635806788, 44.42333409301142, 10.796877327445127, 36.90493053703677, -30.872278557152807, 16.04881846282737, -17.03558892599922, -9.764922101799279, -8.454656681012004, 11.92692617719893, -22.87188784613772, 17.457692146377227, -25.287274199060874, 4.76161834136809, 0.35027007333721727, -4.7655489986432595, -6.59547369173811, -22.270072092606725, 25.718735089875445, 1.1887337118093984, -19.60107732519207, 21.617490666294483, 23.18872898306123, -9.694258000871454, -3.6263141004114563, -8.328675495852977, -38.78276988124366, -1.2852783061266146, 31.956600075997407, 40.88822763807747, -20.94845628484368, -15.04284311182499, -49.30813101640226, 19.560081676945092, 10.73328590430927, -19.269562135370386, -5.880732153313863, -4.146645899634065, 28.190263058187394, 25.347045130629088, -7.335318007714047, -20.119676964229082, -24.603148102293968, 27.064847443087192, -3.295438796275074, 13.674918384659442, 8.313433121092967, 3.335480544144632, -25.42299324929045, -5.525665833248094, 11.872514431436807, -9.009010863615707, -12.045965582962502, -15.542228478469234, -19.394247778198384, -4.604732309868492, 29.826685614625262, 4.535002271261477, 5.2994412897656575, 6.254643934396524, -7.602607089926895, -13.315990765030651, 25.03926371128533, -14.848304485384118, -38.46694147584239, 24.24512994842638, -20.9614615784046, -31.491142475789722, -41.74120373573972, 14.11272534229034, 46.27706296650042, -10.46024247716625, 8.847742773535089, 5.422490929567085, 26.49456578125685, 5.395764333236673, 23.43974682366705, -11.67288879199053, 11.633019236641235, 1.3641099659513354, 19.410989945084218, -27.021669854960532, 12.539116936996583, 24.19277010757332, 34.31998080712095, 12.827455088014238, -10.51167691381579, -21.608139681621125, 0.4274481926867537, -3.9638310548402833, 5.536479813685093, -23.329357743269448, 24.076278050502157, -7.436341017261131, -9.410764786715514, 10.558057108082656, -7.4857038108266725, 10.74577509637467, 4.267999260249692, -8.172424364115468, -10.328009869952508, 46.096156022980836, -20.90699117619806, 38.50565231899289, -1.5740838705007538, -27.64523715618358, 18.179322289821087, 17.32200300358453, 30.16939893224996, -23.732231327091288, -31.36600482021977, 8.93527807675707, -33.91782577663722, -0.07295170209022839, -3.030341403513421, 47.07346969232956, 39.3608458339771, -11.61286878024012, -38.13646590010113, -22.500975838775684, 5.041350414984298, -17.165310327670277, -45.76501372932695, 44.37983859503578, 62.01707369808148, 31.7324982827243, 6.3657651223841984, 1.0346821922892853, 1.835131262260731, 22.10411952670382, 13.261092995807722, -0.4621843936448964, -1.2340012941734209, 18.002452455800903, -19.410507569721133, -2.337960222731925, 2.8386075015551526, -7.8492458405536265, -4.333390053612174, 2.28729426886473, 13.439995271170872, 50.74603630350077, 4.631883380534967, -35.923982097501465, 28.249957267333798, -6.086240128250892, 9.558567808122783, -5.467835175829669, 22.674153684325084, -14.20411037926794, -38.88844752088428, 39.89332671403816, -17.63514358586781, -39.41041884052436, -5.531381606461814, -47.07843637218896, -7.135621145852891, 4.826041920802343, 42.66568884669551, -28.316002946095217, 11.85613557759553, -46.71110920192553, 38.05751785079819, 1.0366420800603622, -46.798653008137634, -27.533447219394272, -6.51957223030432, -31.845556780108623, 4.8528904863161335, -23.075263845453268, 30.710805211758213, 4.178988496310557, 12.648523239744833, 8.746745006508322, 33.11015028298887, -41.58264250991811, -27.202815454938772, -12.482572906023684, 6.04530155769867, 41.25759558903255, 31.795195124630613, 19.858980464282606, -24.54779843503733, -29.246060446667467, 8.210924852115552, -1.0492268562987443, 6.197939223438169, 4.927235486937951, -8.577384116956075, 1.894968723114368, 20.38032749902478, 12.92884013501477, -20.837970076156378, 8.197776776474468, 15.538897743141767, 34.10393627853288, -23.37531781423777, -4.678442823482667, 20.97904115928306, 10.358937620092338, -2.6289208198340037, 9.752430418031258, 0.09797773038563395, 27.048614362465212, 19.69318236193722, -33.48824989747353, 54.07299939221178, 7.153135117525769, 34.75829076726377, -45.23552638809653, 27.21399799767867, -7.520013662533651, -11.765992619235998, 35.966318427990856, -2.309199564432175, -11.351321216816768, -9.562972711661128, -0.04458483852215167, 57.46720815771604, 39.838488981481554, -35.34613208030846, 14.570202237021704, 25.565134001252723, 7.750873262446051, -17.36045568905813, -21.184345045018688, 0.5113651862613482, -13.091264675027514, -4.634888882603865, -19.515653435249583, -17.985848642321482, -35.3392559332779, 41.89228542576981, 40.80152487806254, 10.837418774060417, 14.915538206745154, -1.7778946747006767, 0.6832950184132369, -19.35564190012293, -3.8758297582792123, 14.12830542520167, 33.20070282478724, 9.181115361021805, 11.586696514231726, -68.43030142016742, -30.469236752555943, -23.060040784729992, 2.678274382607193, 38.47928751239334, -12.254235387217557, 8.733149053473117, 11.082314797670364, -8.244146701135396, 29.336921558677385, -51.100839394563316, 51.10947407251158, -12.740096116437531, 25.24900746833972, -16.59606765077308, -8.936725019954626, -21.108710270901472, -1.7079593249999083, -6.48074394091958, 17.265277798027018, 6.9607334503302924, 11.342695823996877, -12.879739650955312, -10.314205270955917, 45.38345774379982, -18.37985361012247, 21.418068566823038, -9.017114143282178, 20.331259661863676, -1.719445595084168, 8.32514123743581, 1.8939290894890104, 2.5132630358779493, 33.7369602423457, -40.6987584389883, 23.349046122818702, -16.686729401880683, -0.316252761823291, 24.34618370793812, 3.5948191998022456, 36.311876171642034, -7.5769974491991565, 15.69379318937997, 13.08479969099203, -46.056481730388555, 8.125008523970616, -31.196746302671926, -50.75365748155776, 33.99632628258744, 4.4063647486590725, 8.490011441193793, 21.955435057292778, -31.290917051483966, -64.44638458134594, 12.930036914716604, -23.357210597161846, 11.036404797440772, -24.107074559036683, -16.842127967952365, 2.4870192814366536, 34.885238167657434, -13.751640199021383, -5.5442763344523325, 8.224536231453536, -4.466718807924867, -6.980236232443086, -0.9525096092616172, -5.344051577114142, 1.876968785290587, -23.269177907296545, -29.87624869637859, -11.401371383845683, -18.67332391869904, -1.6559306779659742, -21.753478392166468, -6.848164708201262, 4.218020460258331, 22.316811125424064, 46.593490169669735, 18.160138456406443, 13.66302694026486, -2.3522628045955285, 15.763239130898551, -14.49596821819574, -7.629762707119507, -23.76438692565845, 51.74801192634789, 9.722306843246821, 20.04804773619163, 23.17814322207212, 17.685232498031237, -36.41631119369564, -21.517712726611034, -25.106146864206536, -41.89565648319442, -3.0330441677509787, -15.189048168277244, 14.935860285678299, -16.190945957195062, -6.791099365275835, 25.73482627417596, 16.92249443111179, -11.453656170412996, 21.86469015521417, 4.992360709274627, -20.034037820762215, 15.38562428096199, -2.5801648373965307, 22.926245455408427, 22.44404699439701, -0.7261613734706405, -21.927131679919658, 16.885680982985008, -17.950140647356605, -21.342571763239636, 16.34419289717282, -4.97380141043245, -5.922569566055133, 8.802618271819474, 28.503792515563433, 19.78716743264845, 17.251901499458278, -19.369880813001036, 5.869085572295206, -29.059905126442285, 22.38784467263396, -22.6920153914187, 9.912711905415588, -10.996052004772643, -1.1095953363671232, -2.15988662277237, 16.212307099048942, 33.65506829538213, 25.84550901635837, 21.926766267830725, 10.49310859482021, 4.209253383396062, -25.9666253485407, -16.83230004722638, -11.878990041121197, -3.58229107829864, -34.345213795753885, -7.3545556822355795, -7.351677483334694, 25.56435730329595, -25.688713570492194, 22.590389790314504, 19.31381829454616, 30.45786222640879, -3.6605656867674563, 22.13112542736521, -26.238447633693887, 29.273188079284473, 2.89131506248115, -2.3259670659218066, -24.93647719669307, 3.2744618965302115, -17.28930520872727, 44.69186570664629, 28.586774521736658, 30.486602989891562, -32.793927653315635, 15.484615721555363, -4.732052322646831, -6.336516651450061, 9.623804036797473, -11.361442009601756, -31.488419666152033, -24.055637828014135, -16.129884714420903, -35.455872873808985, 9.154862191445972, 27.141354105102966, 28.96953614104454, 21.007789022290254, 28.10813879400396, -6.017599452224945, 13.238319585169748, -4.914991902078743, 1.757858986552506, 0.8136503196722469, -3.444512794461563, 19.728938940308666, 9.867633115480132, 43.34599143154796, -32.79931563728449, -3.5304886293058164, -28.122427241102304, -5.621032766324197, 49.024938422816476, -12.72431403234824, 5.720341516261786, -11.235609534256636, 8.240766910820993, -9.648757527802616, -22.725034504023228, -12.362231257086187, 17.153541559891885, 18.757559049309048, 10.697359552108203, 25.73546016656335, 22.17751227129585, -25.056354056344077, -62.11577575366434, -45.287067611389524, 9.780339206208646, -43.56657367250128, 6.353401559213841, -37.72720237483132, -28.662094553729947, 6.303445959880382, 46.909731748541496, 33.712195697232886, -2.6093869314041904, -15.101027356628192, -13.55745426893421, -43.283606583149606, 46.692395240716294, 5.634838547931959, 23.437924171198752, 8.627354371403388, -26.383799603701757, 1.3852879932030415, 10.537790619742118, -3.6470386886551363, 21.53471978137176, 25.468236845662652, 8.421833974741782, -31.844746355451782, 13.339185697431253, -4.1351051741339155, -18.410109765975278, -9.297933371278564, -28.958930477819266, -33.305651903721866, -43.85812921075328, -14.269570189332706, 36.53866464675448, 60.45354433558635, -5.819200652083078, 18.209215484200797, -7.528702374815648, -24.70891482578167, 3.0794781370053115, 19.68857475559443, 31.6254681395175, -18.604816920172677, -17.115965648596895, -6.8558395710042355, -45.32156667220886, 21.749539230291244, 41.3527216666419, 46.19210924978112, 25.326677689033072, 36.35009722149993, 11.04617259394596, -57.14055530280618, -53.84297618930807, 43.641392941022865, 3.216021205875064, -19.720202322704736, 9.639836876636291, 4.526255390880462, -1.1145278167566528, -15.918760957180154, 41.16518395137944, 5.813761191131377, -2.0710513793707515, 10.091715341759008, -10.633595957697473, -10.258444567317895, -23.333324545171923, -23.968652356392127, -0.06322894486728248, -8.793059316401461, 20.225820119848542, 5.30865155088369, -7.576626398962033, -27.729765164616314, -27.082133205860067, 48.474327530053614, 18.82342132763197, 3.174045882110629, 2.8168185524429923, 43.84323964046174, -25.458488143231257, 8.08593556456203, 26.493013577494818, 31.138915994996413, -8.738487849139378, 18.31841570757296, 17.957420504154186, 65.09595452983208, -18.4808645809855, -11.17787934827459, -7.792786476609045, -16.384538746533813, -18.988204586803164, 4.370635319498872, -4.559912308154838, -27.265797587066157, -8.979901948809221, 2.9317908239523787, -21.643323939294305, -8.747113585412954, -15.374412621067037, -58.584473244568684, 12.488479427761114, -20.967551355085142, -26.878046136223286, -2.4219456915941624, 28.809805326915708, -4.057310315637568, -37.96641092139572, 0.04476184063665567, -25.918760895695698, 31.178661896474605, 39.18584813721031, 20.27618366772238, -11.796293991192538, -6.125383101643929, 1.9833322747102278, 60.33907530069634, 10.256674014288983, -3.7043992043218594, -16.260748929890482, -24.67554933717476, 47.44803239353054, -32.12507151937556, 41.01996597195507, 23.279399491292985, 30.097766108599288, 10.085345860974284, -5.0184894850971205, -13.989404476597468, 5.327781931739826, 1.9245454311632129, -22.74509305255869, 23.551927422453854, 0.01869623905109563, 7.673855300889864, 76.85644731810692, 6.766595619014918, 23.708451756361413, -11.763644096259764, 24.535264671430678, 19.439397987291738, -35.23085982005759, -29.800501512802633, -38.99860750707353, -25.392870890719287, -8.49454854682146, -32.47015299066057, 17.842980233565875, -7.247373234610277, -21.387977865724753, 48.025435870328785, 32.36663283486421, -0.42047244666756756, 13.801403726252067, 43.42120787283126, 28.53193006508559, 11.858351784873927, -16.498976723433824, 28.65658414780964, -5.239358466920232, 22.185880882980094, -23.36966404172867, 6.878787430580994, -4.938747759199161, -18.468665975648562, -39.465806788323924, -26.61205900466644, 26.154742429664765, -15.471848703548744, -24.50958564275337, 6.266634395568813, 16.49900049061216, 11.885054352803632, 20.281023897142425, 4.500947162976726, -30.75104108721453, -26.413459507772757, -15.107673528470103, -35.584094088007305, -13.750775644828202, 25.247456960776987, -21.27972949186991, -7.5473268367468185, 10.135014623959389, -21.285436099436634, -21.501800764459414, -0.46779538012034244, 7.785050720558384, -23.7501829889793, -4.909386869208229, 49.970292142106125, 31.48968950933525, 18.59070329649444, 28.222336819797334, 4.405546082673051, -47.751717908673086, -61.622124595690146, 11.574991552827818, -10.396269774868236, 4.181471511060552, -1.7491021213026547, 4.258984293174835, -18.566636063706937, -25.345228155570883, 20.45974932703211, 23.511828078380898, 13.750030183830589, 31.501432621383337, 49.482346249308215, -53.598957385443185, -7.254607442796275, -8.101825805924507, -5.130745490444017, 6.520005477651328, -54.787006524680564, -23.264868534637703, 13.937709931883461, -13.162224213430141, -3.945458731707888, -36.56920141071712, 39.952351631965364, 6.487306607468795, -6.216882835688215, 46.251909541306986, 1.0637779251954287, 78.41600597332908, -17.019123464364313, 4.0088984316678955, 37.49434507828812, 43.13169551800524, -39.46760082887533, 6.643292168714343, -55.631879021060804, 19.120491088343638, 19.38232842119579, -4.965268307652743, 43.67919372836736, 21.805474641702137, 2.406702505274808, -13.463672572381654, 31.78501767222051, 18.802285372255334, -7.777067310087686, 20.623716375423363, -6.883856067504204, 25.845395687043112, -6.440868391229839, -30.768846493489622, 19.459695853087652, -27.804078794315483, -3.2000566014161995, -1.7297486832632043, -42.36294216778956, 10.34767393877517, -0.13821856598813498, 17.88855246813601, 11.159942955259755, 36.31050997256165, 47.02534012714027, 10.418994513299682, 0.2291631191913739, -7.454476543323388, 36.787578877880605, 2.3795885132435695, 10.089473887197528, 9.16311301227586, 4.898736102985236, 3.0848175011064907, -42.16495374163035, 8.299248191243255, -2.3683703756473937, -18.731872641208657, -19.97441977124253, 46.25286622875772, -20.911822361440922, 21.108943560176783, -21.668935045252738, -10.229943704603418, -28.602235540950666, 21.308068759086193, 0.3838057775144872, -11.016176114615572, 5.865857877853228, -43.532827842627704, 16.82065079599651, 26.599691759073544, -0.3287263041701878, 31.142096427670346, 5.447796183421449, -1.3822344650930616, 55.34701346720453, -49.33146298891365, 49.866784350814484, 7.544063813681792, 30.5042998462541, 12.673014410420867, -0.375058907959527, 20.142721453712635, -0.05778365877103564, 12.866840074106516, -8.29387085064814, 31.43973381007584, 8.264737921151838, -26.767941296396284, 27.782120372743325, 10.507698382276365, 4.041044283077237, -32.06673226762883, 5.446165476278608, -40.33839464115061, -3.5393661877863565, 7.265305708150933, -25.84952735416819, -29.173456338437425, -18.136527506529752, 32.41100627013169, -7.1896963212953215, 20.30310008874346, -8.587129526329399, 19.5261578763285, -3.620038400866236, -20.02532489730956, 26.106817036826868, 9.958477868755082, 0.04470130919710957, 63.916669776525, -19.74986418719607, 12.019613797791315, 19.647591258171197, 24.72155355688909, 15.442701823668326, 47.26497904419231, -12.605015795590107, -2.248589056427848, 41.83435221298372, -14.438632327423708, 16.36162167723686, 13.546468897608177, 28.735886834298444, -11.866261972801693, 5.037439691025989, 6.448783619246836, -4.839232849732268, 14.780253615874473, 0.20344102486456883, 5.33734029423276, -27.681411351501673, -23.302151945870985, 26.665493343287416, 11.927542040213115, 2.321943250051531, -17.132899041201767, 23.3999690573449, 35.55402663341425, -21.850546425275148, -37.87744576606626, -16.35212945620906, -9.377235947540523, -8.322967397165105, 14.217362545989204, -31.289153963059242, -12.134063538433143, 20.094275498035596, 20.115681135936057, 4.502608329907636, -2.4569780299707276, -0.6071490808814775, -6.196755544249641, 9.906368067646993, 28.223045243790224, 10.165765617158097, -2.1265063850516563, -25.064071291586533, -7.2451586111053, 36.12636584915087, 6.421739194819504, -4.746986085039127, 8.889508175292205, -12.567725247987166, 18.941536517838422, 10.433931749888544, -1.0182531407028037, 2.9948997812181766, 45.43686450357587, -20.529946548496124, -0.21519267492902294, -12.125715502264331, -9.4019957626936, -21.555675754873594, -23.17855236717964, 35.42087323896038, 15.910863556362555, 2.822957457320684, -11.742339981803948, 47.43739942298819, -14.00884431080319, 8.417629375718999, -13.89761799179939, 6.341808740650318, 55.19209759789531, -14.505519026790935, -24.9161766474658, -2.9502917498241645, 9.613897478473877, 27.724988840305254, 7.257810926669408, 16.150737886999778, -17.288505514864326, -29.18237681659761, -22.71349123235379, 11.358759294116375, 4.018473799563823, 37.53911832599172, 25.22299503276403, 46.491477198050774, -14.768931043087033, -8.252774042222578, -11.28601272501846, -27.46321142218385, -42.93769872906072, -11.181549586160056, 2.3472439687275424, -22.023710937370712, -27.09239096089731, 35.168727797847474, 10.286412814869701, -13.033508742553343, 28.28846376019795, -13.157742303847797, -4.07757979471041, 28.467004386583703, 9.524084531246197, -6.842403733522174, -12.108884182406705, 49.769695824999694, 15.483925006937318, -12.072938788574815, -24.75246540593886, -32.124150912536244, 10.558097157189549, -12.034275284562561, -20.532059345854524, -9.916495596791183, 7.7117095932182895, -35.60806002418374, -2.154278623474052, -24.203029363094736, 35.778046368984256, 24.747236638729948, 4.45863213007072, 4.568848673497023, -9.738592178274704, 16.642469038727363, -6.752504359648333, -36.22115502553933, -2.1809064777126332, -6.825435283376238, 22.193207017889637, 5.761271939519536, 47.0203262731538, -2.1914201553713726, 18.921327731612557, -19.56976063742505, -26.90622328818445, -28.177543767999744, 18.627370606217053, 5.114903152046176, 1.6674574320605648, -23.888982116742635, 9.405457785781612, 29.779488547915975, 2.0539435592822577, -33.513979922463086, -41.897771769890134, -10.586200385572726, -6.063332119827631, 12.635881583437689, -14.49470083805265, 1.564892562084475, -26.172460098802283, 37.10337928306822, 16.42246721566829, 52.240238907892355, -0.40445892020054597, -40.61526795049348, 13.513709887928826, 37.96408018974544, 26.686529668764397, -45.8070815454236, -55.34785397831917, 13.809417767495823, 13.113363870805186, 41.76181643389834, -0.7139290722446947, 29.151894547703808, 21.04216891103878, 17.458717797677924, 8.935902949049161, -11.622259933625545, 9.718411475764377, 11.571205780753314, -40.75240081773931, -24.30643591471257, -8.699851030790974, 18.432720221436693, 11.22536080236398, 16.51832113841667, 3.310497103189462, 34.41833734643444, 2.9232154678625815, -47.240534531523636, 3.2142542048912683, 12.165881122904612, -5.998496041412083, -18.540408287715984, 24.8251766181952, -9.751774589967535, 17.64375495574625, -21.53213640035959, 2.8892072174418226, -24.151544831777645, -49.112408624268966, -51.57483774459245, -25.70005532171938, -21.1554201651862, 23.963370837939472, -7.116068925844235, 5.89243864876892, -40.63123575450119, 29.720933420860376, -4.882913200866731, -20.63058133807992, -25.40395831745907, 42.843967926243074, -16.58069736874552, -36.159208353523134, -11.475006092177297, -37.2895975084184, -1.0137887001081385, -55.19208284455701, -26.005679120646832, 8.365926044668619, 7.12929080147778, -10.74374890989807, 16.00569894153526, 38.94189063067414, -20.21283379928203, -49.61701946270777, 67.57083753377194, -29.037957874077257, 40.68300484517013, 47.005273604665426, -58.44738718860157, -5.94801018645876, -18.398792428951587, 33.25483205581383, 22.16708641751754, -3.666889707647804, -60.312083111458634, 3.658906330875672, 20.564304738885234, -25.527493918441806, -27.26091076807073, -39.29376714575845, 0.8698517343721823, -36.7393166898857, -22.04881312964542, 28.654502128700386, -5.067753073412138, -29.769453758260646, -10.830629982666984, 43.82465829535708, 8.772883171885633, 41.40104130780272, 28.597463679475556, -11.929804234003388, -41.27626319827081, 20.926259918519747, 13.619816249056608, -16.266141123632508, -18.41478621089422, 5.022141588944902, 10.356789351580591, -8.589531627888197, 14.600553507301806, -40.17332140780165, 55.41158138824886, -9.26043100383356, 42.76173267673502, 24.750504960781186, -37.73952264306861, -18.108939032754694, -3.785396286203889, 20.4767540043828, -21.728406670123345, -13.078276607054628, -1.4718901886729214, 13.137066830097176, 17.062177993553945, 14.085428357357998, -18.73276543678452, 14.85301981182512, -13.323390786637825, 51.682573061264584, 6.675462350276325, 6.593594383577525, -35.52415865075973, -21.33971526390704, -21.958234322564074, -51.01238375832859, -7.490767190037485, -3.182381796248594, 14.540916373375483, 23.979456607865714, -61.18413787118578, 28.57332188565737, 15.902840221778483, 6.755536043337727, 10.977007495599729, 26.19462023976834, -20.37661497327071, -26.25780448031036, 7.658446098712306, -40.525771401688225, -3.2404060462449333, -26.636781578596054, 8.544686600751252, -9.180569930499692, 14.27630302719118, 6.896352700376177, -41.77049758887485, -15.806307340131347, -41.56758360062228, -31.87725803162965, 22.00935371684427, -36.47207943509443, -11.842429819557989, -23.523579988400986, 10.97147125878401, 11.571096000444697, 17.682695842030935, -36.84213509667027, 42.033646788034964, -25.839475372385316, 15.053273905587549, 4.486046786035343, 34.775205996031126, -21.079147374110562, -9.427926578096049, -12.903785303574649, -25.081378404226953, 5.627061919973055, -7.600838015634552, -55.28874275278004, 9.393867995174197, 23.17748958339343, 16.240127074081904, -20.01737724017131, 12.064384904142669, -0.8618556601838097, 9.907632137500258, 12.168585301916428, 12.464273055693667, 9.913613357393901, 30.907259091015057, -1.2957372708650747, -27.858772296105872, -40.721344026241546, -14.151623113776392, -28.611398133107034, -30.14415377003104, 40.04439999774736, 16.683785186136458, 11.487308942059649, 1.7261895671226881, -29.918801187564995, 8.682028335946162, -13.423245572092814, 4.0265245300880785, 27.866511168726493, 32.66378940595012, -28.27494501206478, -2.721119297482276, -4.005388319380764, 20.813622478101227, -7.825372356840857, -4.475997276070307, -56.22742449644186, 55.29615527405022, -11.362364853039141, -27.767676962353253, -45.6078240866787, -17.13985891791302, 17.048880966226942, 8.215888956321823, -12.099755043280872, 13.410871922521139, 36.72420313874584, 20.97610025166539, -2.66804014578303, -27.07256791845636, -1.0087176933070852, -27.627135891842453, 12.05765564471737, -4.773477370564099, 1.7585755495500976, 12.820426776305824, -15.879090266348229, 8.418566911526943, 43.157351541873155, 11.654746366275264, 7.49785283561746, 10.439655750240728, 14.418824267213797, 45.62113041964601, 25.52079577405882, 25.79766696405177, 23.62995176947702, -50.31900587305717, 10.772610977115377, 14.127944353082533, -0.17371538438993372, 4.142559119874725, 9.473889161527964, -18.16514130351154, 35.28575507032244, -24.239222474201938, 19.71301957759806, -8.274461505982329, 27.308698181155783, 19.251596326810198, -24.572020883255046, 23.321314483850625, -4.51305199436298, -1.494421307260136, -4.2984635201055195, -27.135536970637652, -12.517046551255714, -17.33706742092654, -24.37524767864928, -47.15642831939767, 14.376802310669428, -9.470862558856584, 0.20213060249997827, 25.63070839540946, 8.552565930726004, 14.679451612277889, -22.751425298076253, -41.007576767620165, 43.313962416178185, -4.627821804315136, -4.842164711441271, -6.7308075592347425, -0.3161619619652627, -12.766369957108237, -11.381821133387971, -26.09768188389267, 9.719351966786567, -48.23620879826232, 10.268146058272372, 20.652016440041223, 25.98268271919765, 23.12350697228653, 10.389539032157959, 5.747651311406709, -27.97223943165077, -31.836780462652968, -8.719783077387056, -4.735915232282733, 14.001255599034657, 49.61616784056072, 5.926437872563074, 2.0800092474272454, -25.030640695755704, 32.63059454628589, 15.125871820137533, 14.436655555919298, 21.184002779483194, 19.07879923721419, -23.692730003507897, 22.637546344736272, -5.193425512965846, -10.967934092923752, 43.108375468282766, 22.509222018231423, 26.505191371055478, -42.31221549217423, -30.06717802433631, -11.903057407825925, 59.691254243961424, 17.07841655628484, -3.7533338460714956, -64.26541312181091, 41.95996470914061, 5.641986907066249, -22.293791409864347, -2.193988800251981, -20.290761147276008, -6.226362991902656, -14.612958553735998, -26.989625740648933, -33.03772023225096, 10.792851759799452, 48.915440036000376, -11.030015773321155, 32.61445835474586, -1.6030783132871376, 22.6165343946464, -19.72757361314598, 9.138411716743912, 8.70044971453596, -34.96056121859499, -9.714200732558986, 7.581551555986507, 6.10554236781313, -3.442636916891308, -20.203159243583457, 24.073367022734807, -16.73490335769324, -35.01372502830696, -21.515316616063373, 63.18328543327754, -5.210504378334592, 35.94150811548759, 4.3374346236597034, -7.556016668054566, -26.520139313696205, -34.265968432036686, 34.41137050938728, -22.09733548622497, -7.398119532759088, -13.864110875640081, 41.86904572319074, -24.886067402625883, 32.70997934992971, 3.3478999221437604, 3.4270623342564925, 16.071197435990413, -18.578486795093617, -1.880984844789541, -49.48308651456838, -15.196567372788909, 10.067831326945507, 4.7945311110094995, 2.0703134316002494, -7.1000431903340235, -21.191520584733574, 17.87146573691282, -43.741363456063326, 15.995681025998746, -6.883161161287105, -7.645541756648839, 36.843093765373084, -17.84679556235813, -4.220485166590476, -51.97224347662294, 9.181860211387221, 39.85323603313149, 11.472794867654212, -21.30169286336334, 12.723067004840125, -0.9637455608969807, 7.1805258393158695, -6.278897343651332, -4.924542367980116, -27.749955236016337, 29.11118193628373, 7.161213720076392, -18.040089260753533, -12.669236417695378, 4.375577725152182, -23.956247502852598, -2.7487869548040766, -10.200826396616186, 56.54474543028491, 27.14380896476078, -11.24640983791081, -20.84487094280526, -25.050075609452723, 31.471401493553742, 4.902552670502166, -17.473785072063762, 7.064785790028754, 1.9404681756238336, 46.60427115615346, 18.190842179160178, 32.133956071668514, -17.327713439548695, 22.515848858609516, 5.413530219108555, 49.924239276107905, -9.490057648509705, -3.403143587399889, -3.387082523130913, 10.531357783438851, -0.20446342531407177, 43.89011178049301, -25.882851762668544, 14.654994940493886, -10.356515373276425, -31.847172063204045, -16.66654171586863, 2.407269292268441, -20.596588052827293, 7.4431347449234, -43.847624537639234, 0.846453172983515, -7.158504771448422, 29.110708162702522, 9.110580763894097, -0.7234480423118441, -24.364629503365695, 37.45304056181496, -49.196599724780896, 23.85357397277752, -33.32058437132596, -44.38161853801485, -5.929956518049744, -60.698069340817, -9.84710509376783, -40.55849967818026, 13.600978690150274, 16.807223672602902, 53.843068288719216, -43.727907978849245, 6.466383924282798, 12.157265491183564, 0.33961280506465874, -60.76157553958318, 12.059313465377109, -17.808725531891003, 0.6027327057152999, -5.933342977008675, 14.44174750362137, -11.39488169037482, 20.22206323908661, -5.0737868313628045, -22.86864677152079, 12.225141119520625, 31.565774750966657, -35.48527031811504, 0.9484476273401978, 29.3907276612847, -26.967181021208866, 31.556486437430014, -47.41937174974837, 0.7069182090141437, 28.08259179479407, -7.372896016003613, 4.3084454725515595, 4.493794954186422, 25.48517266174785, -0.3928321583417178, 2.6605727725706982, -29.736367896835567, 40.377159325423676, -0.28213660623177805, 40.28508962565608, -3.3343399159373375, -4.402592287504381, 14.694113964244389, -33.01285479014758, 0.4820766972536412, -11.802487441610955, -21.62758990499442, -45.29717958785422, 20.906259791953573, 16.392780599499254, -25.420195709491377, -34.396166513637695, -20.619184726722136, 31.726169819716887, -32.86938579417249, -41.69304300610389, -8.46722721549235, -8.995842350713282, -22.934436171381382, 15.931984158780615, -13.435282742419327, 0.416232352729928, -19.30031708367546, -3.0811521282199683, -15.601847302789686, 8.902823336007152, 18.861269485173775, -13.185050078358069, 13.178193161560756, 44.46785134482623, -11.119085057219152, 16.310854383637867, -4.376743178879294, -0.3845733781939029, 1.1756555549992336, 18.04263397031723, -6.234513337260211, 6.700507722196473, 17.461233799855563, -1.5500171654860058, 1.9647442196011464, 10.971007515902958, -17.710719640167962, -30.410449517565965, 2.468697920165247, -22.285912309833, -19.448542021652504, 16.68594372917221, 7.855951934127826, 0.5387699926226999, -20.027260858501954, -24.13251929680555, 26.85638734181539, -3.548042477258104, 14.720592276693496, -2.737710924268345, -21.749284213924287, -41.40701804080588, 17.359763367565783, -37.20009976774387, -26.460586727436976, -18.274839645846555, -14.653488727366215, -40.02617503795559, -6.322314397745796, -9.356695682028526, -20.357115078964902, -0.6028627419761623, -1.0108865755004441, -12.50147269143399, 39.097184098810395, 11.94896905652217, -8.214521371474685, -12.196992285953879, -29.014129025460605, 12.465664139124879, 41.36766412144797, 0.1299300501259122, -52.535768337723276, -6.041189875556513, 22.531113217048436, 8.384519785444462, 25.680921872224992, -24.334095686028746, -52.44868458645635, 58.87467416712379, 24.930419560229826, -31.78339887861438, 18.537522753714796, 26.1927846467048, -11.144476596275787, 14.782968553473577, 15.696829400661484, 9.80252701480327, 21.051642633716284, 27.08220684106083, 1.4265340347711595, 17.10841292495034, -31.729613630980236, -23.795016487787304, -12.594623996339564, 3.223751287011833, -18.01746485653698, -3.9006330653909522, 29.30116282243909, 50.60793353274319, 9.883817054310132, 10.056055497026584, -1.974906024737031, 34.80355610219813, -3.291053261105792, 19.491170835850834, -22.809738031740935, -42.427281820496184, 13.80123377424922, -12.184629530860146, -39.631807298777275, -29.896994863892335, -16.35637874192036, 22.984919692813556, -0.5903703249160221, -17.797137349420396, 36.82032105707971, -1.2799208899203354, -4.9311339506189, -39.23120447964484, 38.62465268616418, -18.57559671720292, -48.63200446163985, 15.272309353141516, -21.65369665937199, -11.568010015006015, 18.945324998365244, -22.59551128284519, 7.687962414676003, 5.313839822758346, -17.337023675956914, -15.970546888665918, 20.047775204449504, 11.98490226283412, -10.532586160208144, 0.6164981672380849, 10.204767301533852, 15.546778871854727, 54.51514013496635, -56.034921149466825, 1.4795881144302294, 24.040439849734557, -41.266595377127075, 6.090280064588214, 64.56674422827521, 21.315702003269877, -3.611125838938416, -10.892933836891293, -4.648795040308361, 6.815867673099865, -5.759140949585772, 7.057233325509385, 20.19860332254978, -30.137647643901495, -23.939304232671148, -35.855287043206424, 19.94021467269775, 17.852984903423206, 0.40198984683452954, 7.107246719011484, 24.180421759457502, 25.242196122805353, -21.26358176523972, -14.28511560207125, -8.122201858877172, 3.786545734634135, -17.340332125544247, 14.841590028962536, 10.994696483563285, -20.324877611145613, 15.784567343263525, 37.7732013917935, 32.37141459692462, 24.01144060791483, -8.814620723728853, -21.611304795630932, -12.0363497219629, 23.57452275527587, 3.661796971223208, -4.073000900385319, -26.64462136420702, -41.51814015822016, 32.74001325478439, 21.732612386949178, -17.429974060725286, -7.58583057806155, -1.772652756634172, -1.322844689091995, 13.110621164153455, -33.83803343252655, 21.706439812949785, 17.25821450228279, 18.550855259463116, 0.539585656158406, 56.468043354925015, -12.77154030789115, 6.409560586611477, 30.137265830511453, 10.871771211217096, 29.664671697996543, -36.636130123713706, 7.444019303730151, 20.405790323603348, -31.829861714668912, -12.995842504371453, 2.3421902041203886, -19.61117741393327, 10.28990680331716, 16.54101726570642, -13.14451672336368, -19.147502985633754, -11.2886918139123, -0.6227855519145304, 0.16925972818192037, -28.964515160182977, 18.823091094390836, 27.46005809799028, -38.92682351818668, 9.871872458824711, -11.400758027026342, -0.36502174185231073, 38.90790748638781, -19.649486388202078, 18.51249281809771, -3.604349849791947, 7.377494572630628, 4.267860439669834, 20.87730397067595, -2.9089964423755226, 23.22706957158504, 25.25988884439537, -3.782655759489054, -14.139881323121147, 0.3314904767557323, 1.550792440360885, -24.821495765486617, 7.160800142836353, -8.665964504542687, -18.66615871564488, -3.9756770724286503, 19.193297050212653, 6.578866855183596, 63.927473714282826, -11.323323025797833, -18.184565800458437, 20.857121454409782, -2.2467195045572876, -24.782667782169952, -17.184530126857, -24.523985646790454, -10.9922210602179, -31.114614618330002, -9.862687247801755, -37.18340583549947, -18.168386766378283, 20.082372534860383, -16.851236488307507, -2.3256027484842896, -29.461549945559078, 37.94198904956292, 0.8216094020503029, -10.319206834292983, -8.367562945182325, 27.624100452872668, -25.967558969870257, 16.360225952158288, 25.28948366896421, -21.88692212596835, -1.4230564133139436, -39.445774415622154, 13.020391790455324, -15.238333436469926, -11.981496389138686, -4.374125145568163, 31.77102271882078, -17.466189260638952, 10.697319638541568, 49.805542582722325, -27.687098295232317, 19.23079387630213, -23.754602903356137, 7.404033144547423, 12.275292266910103, -22.510500279558713, -23.40011338981075, 16.20644375610982, -2.907138031065765, 26.69613611491688, 16.187627771602205, 56.46959636502084, -12.76954963199708, -5.805504483074326, -4.301156603870137, -2.3203662642076046, -0.5709304543812386, 29.590128859664997, 16.08077033890296, -3.477537679010676, 17.932178922034968, -13.497195283812403, -48.20731844502299, 9.129413835502476, -34.21348362970846, 11.944091376567059, 47.57444776240656, -18.77143976353627, -41.23942751259386, 0.49999404198389485, -15.953816651534865, -10.278666001506739, -2.7960676348806843, -0.39610329724403126, -16.163045593407816, 59.529250638739704, 13.499624778888833, 15.778981743439996, 18.256991859466872, -16.295544136564065, -10.075018588129792, 27.35429094395207, -5.119189704489553, 19.094546534337017, 30.54075164588896, 28.753864474787957, -10.649813952940569, 16.556576286532692, 33.27736605451104, -2.9735520782834715, -7.057589193016721, 46.678781249020034, -14.73852908291914, -11.106122479589011, -27.437696954868507, -22.74207486055348, 8.31639217734915, -9.382046045386005, 24.675402964592944, 11.288360551654227, -6.19439430620101, 16.083763006293985, -24.39190591802358, -6.433908371675409, -27.818343104116515, 35.31809057741814, -32.89316344936362, 31.860815830973078, -5.833696929344676, -1.482989422044, -8.995309952918907, -0.6048607782491038, -10.427951965855405, -39.507573307623865, 16.202597768009014, -22.27868487700229, -21.42836798321665, 31.800421344669545, -1.690822214375083, 32.120596185177206, 23.434259501756124, 2.7367495355164477, 18.781463705491593, -7.118145525776774, 6.688104858845588, 13.36359303678418, -43.99181265033317, -46.27455216013272, 39.37847462917684, -29.826996312740626, -12.644712686407477, -44.42669922898087, -29.590833696639887, 14.297900020967642, 24.088134472129102, 6.746577536292936, -4.377794979150938, -13.053250944174422, -4.308585371988544, 10.034071580128673, -13.265058576450553, 19.392943029057733, -17.39236352770033, 7.650669599025955, -14.767540230956065, 15.343787761800918, -15.464701155994465, -12.71588784701332, 21.884904467156947, 26.318341279874932, 11.7526957403973, 13.632021712727548, 20.328913470385093, -18.88190844037305, 10.570793203294764, 16.950976547743476, -31.79158049962786, 0.0009841030385784322, -22.846235843584136, -10.00955487259107, -28.9711744736848, 47.555136290460986, 3.954868965011868, -2.3252488401945737, -18.644485082639452, -35.52631375532844, 48.84790221373403, -8.616081837958587, 56.645128789288016, -65.49512701526777, -3.2701137535923737, -8.415070618842527, 49.97833450191373, -27.588164801068004, 6.617978410107662, -19.39126716682284, -18.79215060893566, -20.75845008825218, 33.49276369218611, -20.439885173546823, -24.543321802127892, -40.84889372553152, 35.314170795184666, -31.08116463021251, 15.916033282927103, 15.069645942666538, -2.521067132763722, 6.28848248975369, -0.4235159224949334, -0.07829942638787735, 0.9649816691428086, -8.128294238832968, -1.6850687465800558, 33.57152985422966, 24.32708302872144, -10.734734351051905, 12.12755491915039, 8.021136305569767, -9.683207608924716, 17.781388619941783, -14.960930296354622, 8.150039375829916, -31.732680370440836, 40.43346187298526, 41.3016527501231, -43.076791419442515, 7.009105585922052, -19.623475485551147, -1.2940242214503663, 11.302952185675608, 16.321521739016553, -35.96409895125908, -26.475413388589498, -57.89524196397741, -1.431682940122256, 13.879947990064721, 33.65739909875771, -47.94343675060898, -6.679709252252094, -28.428708950229534, 9.856139903710023, 43.18793750399493, 31.593603082537282, 6.938123393818371, 5.875274479585107, -24.863783273457308, 4.601630712192096, 16.37978944901575, 8.509147827107395, -11.822156579451516, 26.57472511964698, -25.056743393166517, 12.901964090372301, -29.304605839153663, 35.802889935220556, 37.88195686277634, -18.617389796805483, -2.911679049909022, -26.582917301509674, 19.3241757280299, -4.042422087177911, 23.304810504542395, -1.4551387492801733, -1.082541648035031, 13.974258784934984, -14.708158652882457, -10.627628605726834, 30.149369576682155, 6.192532433218391, 5.139596605737743, -37.25096294617405, -23.450504523333294, -22.500551683345925, 59.298977966960976, -34.24323254779385, -13.528842540752123, 0.8046997384832542, 19.178438947554056, -3.47151393839757, -1.917254762232616, -9.661824682505952, 0.2492346758289461, -7.987780139746617, -2.8987624700532, 4.39482198385961, -5.361213487329353, -22.470686672548407, -32.48911608293366, 41.67276094468234, -12.389970406210093, 47.136205661773616, 48.02751957926026, 46.881775795858246, 13.803642687768576, -15.05557793299723, 35.983763538735055, -12.968491796051554, 37.68395402297239, -13.109933631176622, 8.25202086185632, 4.3758274323699995, 17.95369597156431, -16.544239602256777, -11.038502760655906, -1.0970074196618347, -40.828043146973656, -2.7446478979622246, 3.4552789543761815, 17.21911155330659, 4.842439132942065, 7.541663074962547, -0.5885977109997338, 15.201735385266971, 3.483382674663824, -15.890584505098694, 18.423698105907228, -4.759690901284155, 25.118077700717013, -9.941384405002696, -9.611193129913257, 11.930232943713902, -53.59621996941915, -0.8708322558753689, -19.706636324173488, -1.3417561058618988, -16.25811596570091, -13.712311544350246, -3.508854730259427, -1.745933252553229, -9.066021400118913, 11.551510539217656, -0.8477070705212313, -31.421570886966585, -39.39624073618694, 12.551529914869137, -26.129899591906444, 41.17828360032199, -64.97714062091616, 20.90662996907448, -55.659952887781046, -11.437237011122573, 7.782301002572903, 20.788807533897664, 46.45204756190124, 13.45117552202447, -0.6622770432949125, -7.204889058657548, -37.599883730022036, 10.323248695608285, -12.545989901455151, 39.26118483519642, -12.963771503622766, -13.296033670140648, 36.111671059231966, -5.652547160255702, 44.97990337099987, -50.228086852172765, -14.204613691291918, 36.570979718370005, 11.95835991470629, -23.75500347203301, 4.768387897386956, 0.8537008744649448, -28.56458446634193, 17.844874717152315, 7.497768627743932, 1.9708540000709376, 15.617122042615222, 25.574835829309396, 22.041840780036672, 23.26608104283927, 7.097834356813116, -47.55311893818211, -24.79976551499772, -7.700656721179861, 26.12055606921946, 4.500522502391794, 14.279512688977018, 21.584743506731535, -11.024559125481437, -28.06187774635311, 14.620150116268043, -6.757890372650264, 9.900392020605292, -10.700907241409812, 13.634315819676779, -25.792314929247603, -16.11869166335149, -5.035166123015672, -5.157312279306576, -8.631497791901115, 25.49255596279367, -55.81565545657463, 26.176627205733126, -33.09297633607651, 19.39095252939921, -34.263786618585655, -59.347033733887336, 17.415673734889506, 1.8306483699902771, -0.7812818114344785, -8.956463984111522, -18.212268447406842, -25.80470828424378, -14.961417130724772, 31.511834503403225, 42.6563531154086, 16.744724059422637, 8.408431519826934, -11.456295150470645, 17.050883996789924, 4.765137059932416, -5.817573351374374, -21.439197379899305, -7.102119668490355, -4.265222472186245, 11.651083457110344, 0.3275304843446145, 12.029603953173858, -4.400929234386323, 48.398426722208775, 18.627438157216417, -19.527748705947737, 27.684833873180533, -1.049125529508828, 24.670899830016737, -27.897973812470255, 9.465792045344894, 1.8544030508486837, 66.7929264244735, -0.22337033477870705, -13.06784965356049, -1.9361915051287688, -1.2465955673429976, 22.056321793552808, -4.195769831221096, -24.926563931479905, -14.994297439618213, -17.363600855209906, 16.20876413337625, -1.968968105308436, 22.85585950329148, -14.491076854470414, 1.7029283802207313, -11.710754407392962, 36.42519512285895, -7.496396455828176, -64.67692063632131, 14.684711657676326, -25.73570039237952, -59.088432269282826, 15.313554962224735, 0.5319108231298437, 11.448881843698018, 38.23420961439928, -5.37739354524723, -7.112948267171804, -21.536616424903286, -44.02061831022614, 11.360376391023472, 18.199147951531955, 1.7634226571387996, -13.738351765920346, 18.53848129439335, 12.564119182834578, -3.483582162016665, -26.301592053941715, -38.09698853578505, -24.297811095977366, 4.501751481082359, -15.690146992528216, 9.760804921335836, -2.6070963831279728, -3.5123907729364197, -6.7182944555890485, -19.666543043734478, -7.759192296899332, 0.7227723994902817, 25.18563798283125, -36.389514996819344, 15.795749578418317, -26.64252196071761, -1.2211817827971365, -17.049023651258267, 5.1873889438126835, -9.010513053485868, -31.278991547361393, 6.077663388132368, 12.569445244123997, -27.47758350416008, 2.694305040478003, 31.617048693050577, -51.87951282353007, 3.4849332386889094, -8.718988308659837, -26.698927425741463, 27.46907421181604, -10.912865028644404, -5.217477556767676, -22.077724693001795, 7.792761332454059, 11.446477867674885, -4.757831516558547, -18.125622589442553, -20.87034160325897, 37.951318598148745, 31.646397682842483, -27.649311980168388, -25.31636742828503, 9.830098060089217, 1.0594805222439683, -13.22756939363389, -19.596567606467243, -25.671380725586936, 28.20723769904079, 27.229104282113912, 25.65026603687729, 12.444262350061726, 18.74614292022505, -13.634274102385461, -20.420928768007013, -7.857451774226528, -25.178011674117254, -53.07765703413569, -12.089347460295116, 5.2224460608971475, -11.321188781119464, -3.3912917506064613, -36.46961967836135, -34.06935713347527, -9.048004580589604, 21.591416401273428, -5.675503680123439, 26.986609813879735, 20.61098738169997, 68.58307585294487, 5.01209044368616, 20.48552605164671, -14.459607617896697, 12.78397094561884, -5.478820742787568, 1.6126460035399472, -35.7950708488158, 5.813765275336997, -1.8146832462445888, 24.83396762829921, 0.9738423316064191, 1.4802699258138294, -47.23069827880238, -27.072783541121957, 37.19288655370457, -20.62290268475799, 0.9869271892825872, -9.542582938466008, -3.0050818713328473, 17.813462075504567, -33.603264508045136, 14.19834996327539, 50.883333855995495, 14.220443435707047, 10.14885354755041, 35.483635893115974, 27.077401019437303, 0.34288501661515014, 31.89270570584355, -5.752143246352749, -25.186465527536676, -81.95120770386323, 29.069049891275373, 31.34156068615501, -3.062363578296833, 8.999314508370123, -20.44509277999366, 7.729160270795542, -16.038045002877244, 1.8411844841970153, -35.06653775667364, 23.54114849798562, 13.583228366840025, 14.902867618127598]}