{"model_name": "echo_state", "model": {"output_layers": [], "echo_state_seed": 56422, "activation": "relu", "n_readouts": 50, "n_components": 300}, "weights": [-14.488135761659521, -8.992367465225133, 6.877455179661505, -16.117449200498804, 2.37645669507442, -20.99473882465297, -29.636233441651672, -28.766531347288854, -3.8228313993632663, -0.04257915518033584, -11.012282841096251, 23.42945444067362, 42.68120625672239, 10.493018065206298, 4.905165899753897, -0.9704111682140582, 29.32992138836233, 76.5215145672948, 19.839855646549402, -13.239303192755226, -56.084652384933676, -49.59600843201749, -0.7458458514120334, -26.690423972194516, 43.767683727320026, 5.707554208145239, 41.318049370483514, 14.097482220137376, 25.090921027575874, 43.571094778009396, 6.238254678212718, -22.02607798107031, 22.028348182789767, 4.950769952557927, -28.498116356667346, 22.976678485617605, 16.77437879019289, -22.204340674345367, -7.302699101577621, 55.221510044171886, 33.86459766517283, -26.5821479818558, 24.34261161508239, 35.68627078317319, -39.8166213017779, 3.9474718736610277, -12.20073379135679, 0.08745169011598275, -5.796364184435166, -8.203696531506678, -6.285063369940425, -28.696504089366343, 1.9451370661684462, -6.145391689336142, -29.91206911579944, -13.812332288193796, 21.05397850564693, 49.90382400201507, 34.74064687531267, -0.49767694986894784, 12.041699452980996, -13.698075247878327, 6.358179999216342, 10.481327211099753, 8.378714723919538, 34.16030142603554, -4.191415958607925, -23.800572863825085, -60.78064506462182, 3.516105932722669, -10.560893953998558, -59.89939070866092, -59.52797502008054, 18.576752884799813, 39.96581935384591, 0.5763084934155032, 7.703391787116731, 12.272759728609104, 27.156852078283457, 5.376166360711112, -31.241471611245284, 3.871635378638358, 5.230381476604528, -6.175542261591721, 38.47996626142296, 27.82746135454046, -19.356741204683686, -0.6487314030426747, -2.2238463630836907, 1.3102750157748146, 30.76838697512361, 20.21099084761501, 15.09670874640616, -29.321614432221637, -8.689255127135153, 11.632964044834626, -0.11655967197516226, 6.076496393809616, -22.73318775427628, 42.29000621992812, -42.52492261018619, 38.149194433835106, 20.950984455145857, -12.863677118101585, 25.13955462796695, 29.73419602435609, -2.12482448136865, -11.138760066468677, 31.9171151398618, 30.742859508371012, 1.5773502900187035, -16.538262225150852, 4.112647090215907, 30.80977169587358, -24.326636723680895, -22.777076953801988, -46.40277529177675, -51.66972975440901, -38.31146793522511, 28.16310845425062, -4.067022049744227, 36.47688976812282, -4.032778343643548, 2.3611398902242913, 66.60284381508556, -34.169406449345104, 40.51593234754249, -4.432398310618504, -15.409439572004542, -2.8809228366169295, 10.226913281322236, -0.17039530395238572, -11.490087065662184, 8.767622738793127, 7.728025795991074, -45.52576790836022, 12.667770638601718, 7.5892410993259825, 37.949079107382715, 7.429449478571155, -7.837213394614287, 32.129214321978104, -19.57063830370672, -7.102630137166291, -3.1394125807305944, -13.145473608500724, 24.518058210335912, 21.439792377025046, -45.371978946563054, 8.790464745324819, -4.0555698400994284, 20.16220394193806, -21.205260538912572, -6.381626720252737, -37.98201940474249, 7.0932076541079185, -42.281714936115236, -6.459279906046727, -18.689612589363755, -53.04971834203337, 35.842663866536036, 0.3098727159754322, 13.347257614373945, 7.904877461508178, -0.1298106665940963, -5.27653861451005, 7.185443664393115, -16.343994630232086, 13.088557864321253, -24.00545407908388, 34.81465515971437, 23.887683477921087, 3.7291633113732177, 27.989433367920157, 14.258264610088105, 6.608420362866568, 28.676913879653622, -8.942396631422623, -7.280810823995781, 27.495432427890762, -19.945087139772493, 28.48576512306541, -5.711632330574921, 13.993557254154146, -3.1094953107848937, -2.1851863906375115, 1.2074820381669973, 7.419313646295499, -76.03329855320504, -26.3284422501842, -19.801920258238926, -18.034513025239338, -22.48294999154632, -16.51478859708886, 3.9771756950238384, 19.158211852238423, -33.05035115334756, 7.934643997691303, -35.98952048582622, -5.242353446882911, 43.59517224587033, 5.105604809226367, 36.390296039218555, 27.104703178355763, 0.2730565439914443, -16.28158184719299, -0.9229745778769936, 14.588993648325275, -45.96928617115632, -22.806495579796085, -9.478154921845999, -6.566126876568017, 28.144072151286377, 23.923181392585768, -6.104449534004299, -61.37642080145586, 69.94048246035706, -16.458197677836985, -0.29158127498114483, -5.727252981668439, 57.595796204606856, -0.18376105738065718, 6.349294607317552, -33.58747632348617, -28.850369436693466, -57.9679707840368, -69.04411815761719, -41.70197958407438, 15.532502844167894, 53.83319423683476, -27.998247143188266, -40.01365691583142, -40.0424904437517, -22.086823355091415, 23.186968878701915, -34.215168362469775, 20.627256708726716, 3.4941762745453513, 29.087024615817548, 5.302522624321247, 23.57811787780419, 24.716471678902312, -4.957039322698375, 16.35936583365635, 8.579852299518794, -7.122018645796647, 18.113257101354378, -54.617713803152, -30.149063023809703, 44.387132577112816, 56.82693500507631, 16.453118911839436, 0.6330673725376447, -0.31258587833051266, 24.47718676980459, -10.62009258404023, 1.199148101707342, 5.605405823042617, -10.785698749606194, -29.854948878694017, -14.523368160765813, -5.363973157766911, 34.99298468380756, 54.46258407465533, 33.3367364392875, -9.62870896549452, 17.60246149751579, -37.2367653153556, 5.562060939218661, 41.98455987091066, 29.48164921587376, 21.175929821209845, 2.9441831602707538, -22.0569491690637, 23.876386313036857, 9.223832571151307, 22.854652927834692, -13.2709876856667, 30.477657251908088, 1.7008164242471686, 30.970144788246955, 25.72038171833263, 12.09407058251941, 21.65964171642955, -18.632002603305082, 29.626871477671784, 5.318404483641889, -7.573367437305272, 13.981624092447689, -29.876929892529475, 2.6127477353070487, 11.211588329203934, 11.903059840124879, -15.525010425639714, -60.93974309996222, 28.87553737356266, -9.421793281940527, 26.306068760449385, -15.1947346414916, -21.1579466809849, 19.313848308942397, -0.2866305644784459, 25.90088464156141, -58.34510170416395, 10.071914217609383, 21.537763706911647, 5.511112197522785, 49.45981719389225, -10.948337972169348, -0.2477895835965116, 53.01346853314837, -15.166427793986676, 25.16589331261067, 22.524091142780964, 5.461107594510607, 9.772505999924157, 4.829560179105378, -7.018494396409471, -15.370438018585498, -12.494171925624652, 15.476944911191822, -33.58133025159762, -63.100938482107715, -40.48791805129405, -19.546577320049355, 9.576073175958701, -13.410843069438442, 1.609431965666665, 75.17072770500923, -14.853118659276458, -32.83630586847307, -59.16095139482047, 14.604912627057047, -18.886822380249033, 6.732272567751783, 7.902141493871378, -37.07232158696362, -34.66878228808975, -18.002746284835904, 9.740387590389672, 29.274225089110473, 51.08215322100477, -30.812824455759582, -3.9135723562453606, 5.069769927568048, -11.63480731445771, 50.41342432716823, -22.945566798289363, 14.886447794514446, -30.436566125086287, 26.83115016711479, 7.643629887490267, -6.688395775803368, -78.59073424776129, -28.9596074256918, -21.56784962014297, -17.185320612279984, -12.04466117610832, 53.37105052494303, 3.832772625590107, 15.916810696403878, 8.597143442032936, 40.33003460915679, -0.11509799876625593, 42.11275702129494, -0.8501064338383495, 4.894567595241584, -49.153359600910356, 19.27648156913858, 6.985914106888115, 11.219528421983611, -6.840901936825185, -7.381687224544236, -59.40891043467272, 5.001847671578169, -36.10940891901328, 3.9441657983100686, 22.033152141716176, 26.471256392896954, -32.08992846628453, -10.651024208620136, 14.215947690484121, -44.762736772004736, 56.90576944533227, 2.8500654362818616, -9.619551541116065, 7.900142027977369, -7.66479601881416, 36.09887652982124, 25.58382733278651, -48.8161964921711, -45.39271883996567, 28.002387816154634, -18.635738452044073, -3.1740876244186005, 7.112209101733849, 23.97274157499069, 9.7487348883059, -70.10562324921763, 29.7371732548808, 30.961026532761917, 1.3136839539938219, 45.43668644088569, -16.037240892048075, 17.38926806185159, 21.184330657427257, -24.15365544475807, 0.8668413483618074, -0.2629736282325011, 29.142475235534118, 26.166151039788968, 15.560539273183144, -10.064899101877643, -10.53126143393248, 33.98837148142661, 20.710068605842796, -3.2715955966746355, 12.120599315757293, -16.435637864150312, 33.03194841492919, 20.364641480509874, -19.270222628803417, 21.53706245984711, -19.478753863559295, -6.12932547616524, -19.769888663900254, -2.889531792674867, 45.7591177304487, -8.870034854224338, 9.220307162873805, -25.370953996297338, 11.78153517296323, 15.832993604334348, 28.765557507142102, -9.461747868801934, -41.69200934441646, 23.16217057776378, 27.65606677334938, -31.613902286763782, 56.681153185275136, 23.730646152896696, -3.403272579306017, 61.801216522636715, -3.666004079401591, -10.475360621780117, 13.218283599044813, 20.581870057399133, 13.406584286054537, 2.885402865218225, -18.635880471950152, -0.8089892211061714, -22.48842489708739, 15.43240867076352, -8.899078591621667, 57.66862408635632, -17.523351066778527, 4.715038885886532, -23.28100671224786, -17.430850489131466, 7.741748151667446, -1.405482831868376, 5.039169728591123, 27.42944159917286, -7.464150609079576, -24.648028644903203, -0.5205135801903107, 17.506228551192063, -46.81666285582789, -50.68800195939568, 11.390742771811599, 1.2678228542102072, 17.05317024031524, -6.122319526723807, 26.2927351419699, -19.19156787768638, -14.999070579585531, 5.537460417593864, 28.778382269667, -11.470867490296271, 1.2547194461543314, 16.633197894542686, 3.144298612474641, -9.422440839459396, -42.294843876327676, -24.80545730148422, 44.01242395947428, 0.8549399984984571, -0.5123992280860019, 24.516779493827165, -11.298352210313015, -31.282475111845468, -14.272679717661788, -1.5903032592789506, 7.762557081673839, 8.376223982606167, 19.30778328305619, -30.224213160037188, -15.150684289042095, -43.927353062633465, -8.857551771933592, 58.03966119191868, -10.44148469762242, -27.31656296364353, -36.59378266496376, 4.170034630542947, -41.50662383701759, 30.075316133193684, 3.2112464946648966, 30.3623873974858, 3.700927073176201, 36.56747633868793, -12.461422574919743, -15.940153781021566, 19.383937919483156, -1.4002418241088344, 28.98041824967485, -23.916921260051762, -45.188707726683546, -1.6184959037953577, 14.73763241671206, 17.329844011067028, 26.36412264605849, -21.99132091547083, 26.090561060752528, 44.08395849791187, -9.038775345827638, -4.577787120984954, 18.02089587153447, 4.546270624652971, -44.57491177048458, -23.635510885093066, -52.92251924425189, -24.22928159223124, 23.1133726143217, -7.853426472450593, -59.7178052128149, 14.373402823166959, -0.8582601369759564, -31.69950065297334, -57.851346752784046, 0.955051987645801, -8.670480331176948, -7.715605860285168, -22.762934449820325, -2.9248627331294017, -63.31179383620776, -63.039441567995524, 43.19037543413794, 27.28195697580938, 1.1147156534893314, -39.34571243496953, 40.89378651287365, -0.9304249581267785, 16.55816599501427, -13.84931967797753, 14.06716307039937, -29.079339497923563, -16.461302724547995, 13.642769471792104, 18.795312550818785, 21.675685786055556, 66.6308794702203, 4.588072954785057, -45.14999044698121, 28.353135212709198, -10.18634092787879, 2.8915429175775618, -17.284155026281947, -9.86191414956614, -28.003422430228802, 9.356058363828282, -29.745608259583335, -8.660078237143411, -4.630228300755899, -42.657061811921565, -41.43220913157406, -17.418034166345187, 44.836485689629704, 3.0803641309946084, -13.921664111829736, 34.70676913250833, 4.851142685511354, 13.634549481756146, -15.610729287870253, -3.323349649866553, -42.48355475273163, -24.72219967104306, 0.8634552732604011, -5.815151790809516, 49.340016041548985, -26.698923663428694, -2.573122983744518, 24.661356469776162, 12.292814522556865, -42.4235811267175, -11.96789960966869, -8.757167271999677, -53.285467749073526, -4.161210358277022, 2.756551372597613, -6.79880794685681, -2.1651563197142334, 29.385739756715598, -12.267144092833616, -35.10821869075642, 21.304168583080653, -22.17988691795022, -18.979710835261812, 15.441892279102944, -7.596108316570725, 39.443378672486794, 16.687127713445598, 31.49066126320761, -28.30020035878072, -0.9405632702254962, -5.635979553655556, -7.71601819917003, 2.338203782977196, -8.171834504495397, 11.279125825847098, -4.418685222105205, -15.09039045571641, -38.677860398602306, -31.08351563789643, -77.16348512597979, 3.678780501379012, 16.15103875551339, -20.767390536424173, -50.49263394880039, -2.2181326529422956, 13.095263279426195, -24.894195031360404, 1.8308790879175332, 15.425927274706376, -18.1467329795178, 16.583988155615163, 5.074877411694945, 5.664981353139051, -8.214440883083729, 30.625178826487684, 20.93772004616908, 30.720205188036964, -49.44464303029152, 33.890515617731225, 28.660158776942083, -11.324976712128926, 31.76586948514816, -38.03929241080287, -30.230062775543512, 6.136143313473479, -53.388720838958726, -38.87844410024673, -15.965565760671677, -46.843168162608315, 19.824632197505544, 13.313461601821189, -45.31298702461606, 6.581807249466684, 10.254263989094797, -19.12698907427296, 13.594081578196187, 0.5953868920909056, -11.181490809186004, 32.845151178134294, -27.804351865882673, 15.560186058614537, 9.583679868145024, 21.81500998927947, 23.55810974169033, -24.814133491112663, -42.312854144001996, 29.02385549074979, 31.357535883398594, 18.789511180480773, -41.2767491867198, -20.519437607652232, -8.168817144134273, -22.950077722200867, 40.583838763834216, -11.938912854240282, 12.753055438682852, 37.30988562426, -21.8975988200949, 27.130153454997274, -33.814599942209476, -16.910560458693954, -34.87759415485297, -9.235095179789077, 33.09883237088376, 27.148436742248858, -15.064997564806777, -35.20564907223672, -19.604015359388427, -11.790845005929985, -60.54641869865625, 11.094590775236751, 15.456674940710553, -1.6797021806439798, 30.987623723549888, 10.293455876197418, 19.121142325448254, 10.145797733368642, -7.005615066545289, 56.62251191689435, 6.2924020737819415, -25.802000734347235, 18.538424194215008, -4.0779571063637405, 11.227869621613518, -24.086559727392117, 34.67844295610975, 5.8190237589289575, 3.8896883828065323, 50.91121486263125, 23.714411152691543, 1.1255209913441, 3.689591013066465, -8.095918991480582, -4.23312684715062, -1.720639916597126, -54.318286799841935, -14.055890373917316, -0.8954672725769848, 19.09530650308719, 7.108829318831113, 4.823631143786816, -11.136596474063154, 28.901758578051993, 17.668473051473857, 12.469897969973573, -14.119551060463772, 22.065541598255763, 0.12716581277036232, 50.589294344140846, 12.201611070366592, -59.977539021860835, -5.508418390313766, 21.700159412136532, -13.631151489440038, 28.911200554426085, 32.896320023743606, -13.12641499947471, 20.120434882441792, 20.55120132066416, -32.15270010417039, -24.82572579916632, 22.535385498716664, -31.36434568688153, 14.054253919311112, 10.93460351496258, -0.8452659320767899, -39.16995850345683, 23.47075015666665, 30.628946160002204, -9.29169219944501, -13.27421461585528, 22.063252819755252, 18.40489999581309, -14.562324575123817, 6.88874950439353, -2.635183512601878, 39.171518085115515, 2.750031747624897, -3.893760991785242, 9.89976913737055, -2.9294412919449098, 5.068636449709845, 4.5837048595884875, 30.616139050244623, 7.4101974683810905, -36.30150605083681, -44.98348668700759, -24.874743027339093, -38.00722642301067, -1.1306163650144772, -21.34859641522278, -10.637392740566026, -16.764617047647768, 11.461276500763518, 14.09209111200914, -11.324906978304437, 20.23904236220466, 1.3165718207456378, -9.85338637173707, -11.509621003523378, 26.840894739260797, -11.959262620034945, -39.882635636786134, 33.05783963923129, 33.89333229986508, 21.909477952725876, -2.074688379685678, 56.98903693948505, 4.300924914493506, -36.06477779625458, -21.394124014785447, -32.011740855166, -22.128360204909217, 20.406864295868164, -5.555468359336783, 7.53252878793182, -40.996124147791186, 1.28223088676331, 14.437299531769906, -27.517109711034706, 50.08007298130701, 7.896490348166664, -12.359986195013771, 10.38677649498418, 21.983554819494508, -28.69648156346596, -36.50908159667833, -1.563043493576858, -28.929125613147804, 2.7243407827157036, 43.69580631888977, 11.647728027530453, -22.047524026692855, 13.751210898694119, -54.869502429752096, 9.436086239396673, 2.998543109544045, -23.28844078450466, 25.548798892662465, -20.22064761067522, -16.547899856112473, -7.072099563808287, 20.23930626914969, -5.57547860862433, -24.19201181765178, 5.350209368799664, 10.643325506485313, -25.831374691243266, -3.14072995257164, -20.6435612929678, -2.3105765837617422, 18.005529757114473, 43.941229051494524, 40.365817522148134, 21.971774112209733, 12.492954533569332, 15.85793063343122, -26.015045114242245, -23.39623878785288, -9.150712425950752, -33.8248286428622, 11.628183040567691, -1.8555693742265484, 20.988430603365074, 29.834138264716433, 10.806409571386514, -28.106430649572697, 9.702700991782779, 4.795910721011239, 4.562201256529261, -9.793511683953025, -63.13920012362428, 10.47782040358347, -22.708052925706056, 26.741957582886293, -8.568297949078833, 6.113456926386425, -14.472750714377517, -1.351674803234272, -95.7152647956479, -43.59497087598892, 18.371344076049954, -1.8016678872434364, 63.494830200304946, 59.124694212721785, 34.74534456475345, 10.285559189007392, -14.955795773253795, 18.701385452104027, -13.030018969621372, -20.022613745967906, 25.058421085208046, 2.8628831804967048, 13.084988997491482, -6.98916570898157, 9.858402396678795, 32.65611722782708, -8.750872754027448, 12.944441716118158, 12.50120883736749, 11.6175218788007, 5.853526581062961, 23.705141353754797, -31.721855621004647, -1.9441127732228938, 20.071886910453777, -8.69346148831238, 15.831410858193415, 25.358576759637593, 12.250028338907176, -7.595967140360631, -42.1944272772056, 0.09621253798090201, -15.104991481534128, 0.5960629084614195, 33.51472127230385, 63.33770806801031, -8.477877977871483, 34.312423380807196, 12.976658152590277, 29.01948217467624, -19.792060458957607, -11.693688149877053, -2.8355342696540604, 2.427256728425135, -3.3799233739801684, -27.344761927572247, -34.015021635481816, 1.3242257144831306, -2.92825970101684, 7.040653687992323, -4.877133585317663, -65.9693183094265, 8.973152663478599, -9.56593784940952, 39.351176642290824, -13.041292136552208, 14.997402279583804, -10.591248663878442, 4.998390011118004, 42.37550561977017, 7.21435056706936, 25.08079402107306, -69.73351514803194, -11.823497663111679, 2.594744465761162, -78.70247354864907, 9.74028481686876, -63.918804534392805, -0.5661587863982156, 1.964652394386936, -8.677865785639137, -29.96724108635097, -52.62974346621229, 14.927726642432459, 7.715176523248605, -53.323451819358894, 9.46568021251285, 20.17417535582581, 32.06792166728144, -5.656860930494645, -14.826029351081964, -15.032318775201977, -28.851232756672594, 44.870375700807465, 12.113426925291535, -29.341389970377072, -19.4170037038196, -30.89196466470494, 26.038036728595475, 32.42110200050797, -14.400763839844828, -1.801540637709369, -3.3939197594663746, 9.807145773251209, 14.544121106954353, -25.592500353057254, -18.015416632978962, -55.001155406029525, 5.323533752986276, -16.904529950919258, -12.097727598098516, 8.872881379449485, -65.1296053459269, -40.355909629436454, 17.15308415970375, -29.424118653761074, 13.681472119590445, -3.1837069372777576, -25.309968195487798, 29.94219579931542, -42.702899978357145, 2.3050034074649925, 58.66716902014188, 29.602445542660206, 13.018793712854107, -22.340183415640716, -10.828170196091547, 47.63340207655868, -9.129964445544893, -9.770378542410839, 29.390992869303872, 0.17855432908995406, 4.770846103125112, 26.99716149914113, -3.1308305579329256, -22.72146497492012, 22.328711709982805, 19.686542205090674, -50.92932185450766, 34.56180976146729, 43.87299158547628, 23.111867305734297, -19.525992923976112, 16.848391086070233, -29.921133486269813, -27.824091848869834, -1.4493037148208745, 31.08803947133589, -20.824157747669684, -4.30868100631693, -7.599159687964206, 16.42660513361982, -13.943253070871975, 53.878529358476015, -16.056201788806423, 22.46547003245012, -19.98131076450177, -21.180135499209563, 28.247776861929708, -41.728578937737254, 0.21912405332234997, 42.306603227620215, 44.67643531743109, -29.36157614573638, 26.501525211583985, 18.89365053029814, -6.906865195454682, -13.735106271228672, -18.924976687836402, -6.716663509518984, 13.205973019323952, 0.838897922268266, -29.69202875726179, -29.248657270138715, 13.738365200752362, 2.891067821793682, 35.14700896873753, 31.781195916317067, 1.8888893085375447, 48.87359309599758, -38.651576911191235, -21.204121315793113, 18.341626702335038, 10.276649692841247, 17.441012785910345, -1.7676461892754731, 18.41271491518293, -24.137819414094903, 11.987768408198313, 59.636897633050374, 19.23263276983527, 8.601549219695602, -27.307230961814923, -2.9316302814889257, 5.73498080089323, -30.46891022124553, -22.577292843768415, 10.949009099640218, -7.855883689697814, 25.855982666053116, 4.848912236389447, -13.548906875727898, 23.421896621423485, -15.866344711178755, 52.35221792747405, -3.6608871442330138, -3.7516064023645725, -16.08597532519199, -39.55029456328703, 28.634870691839403, 8.829802396279549, -41.82803948889712, 5.3993221777237554, 30.154479251579797, 6.255832931296061, -27.350961562223056, 33.006620899872104, 4.841081549043895, 7.191817194849659, -89.8728506495384, 6.168840629787862, -34.35369645976878, 0.6018615656082345, -6.918968494251025, -43.44092595578327, 0.3261054852200358, -6.862400181300388, -1.7570399528824145, 23.237270132951224, -7.978581732547358, 8.462909636732833, 13.714681222501609, 30.876006142369224, 11.73336897029667, 75.99231681968719, -18.18230319122106, 16.515533143508645, 23.563913690843183, 42.18161302314184, 17.71894404882679, 0.33553853821628365, -7.503826205980108, 8.364995466135051, 39.532009447091575, 5.92052772226032, 4.926166246157975, -5.840751899690254, -17.47581193352655, 0.7020514640190486, 18.706073104461936, -1.9981459222320856, 21.258510965274432, 43.72812240642976, 30.36534301776508, -54.6171849989683, 2.525364752376205, -3.30855193721662, 32.01924621829847, 15.66625521662515, 13.070025381450636, 15.655746233869209, -63.788679647655464, 3.5797493002167293, -20.019939272593245, 16.794848471474083, -9.605224847762871, -10.9608901832241, 23.03674189228374, -14.148455860345774, -24.804594430473827, -34.223910478388866, -3.376272642367524, -32.432186101708034, 0.22907475321869275, 12.107227618327148, -24.86032367419778, 21.11552489573583, 13.76519273892497, -5.968958074020263, 17.785810674704905, 16.087055351705814, -44.81910789707329, 31.559149177094195, -58.32666709320154, -8.980746902714426, -4.693092503643691, -1.5397495885598826, 16.320397534864846, -14.090554869825091, -10.72606048636096, -1.8063824751712012, 35.543961385077026, 31.952401593967004, 6.815963987741456, -31.48240749723815, 41.91054065404888, 26.565939384911452, 5.108234579837945, 18.928635283670786, 38.13364715653052, 32.28375622694542, -40.57025518793192, 38.57076797339723, -35.513596397505424, 37.912491068199316, 90.2364829894197, -50.219198301941475, -47.87403730355372, -7.28622963021261, 5.592941171563449, -14.844519844421955, -6.883530681086961, -15.640217155549665, -8.662707396551921, -22.355945161919934, 47.38938276387674, -12.055140685389464, 28.998910426151877, 50.421746241818646, -53.954489788383704, -0.46199092279731513, 51.331547097421556, -19.155602401563375, -18.73397713736699, -7.887552648238334, 4.024582065032433, -9.984641177898345, -15.02570193500371, 20.077296308004016, 10.919935452014506, 3.725277099878089, 30.146079793699617, 5.830240413948396, 23.150530467174555, 11.020527719191074, 27.229075588081095, 19.930372026431815, -18.501895423518988, -10.040844205934224, 24.42436663316142, -11.356821574121113, -4.930810698686427, 0.6030235871037988, -41.579188397350364, 1.7176612372668916, -41.14699181945176, -11.872060590622752, -4.793687173394888, 27.04341829290719, 3.1090854759560576, -0.761645485072779, 27.843360984688008, -24.212803130632395, 0.18794930308593094, -22.870926005866348, 8.244183346356738, -8.187658969229258, -15.785248124468664, -0.2713867970322905, 54.68959888381049, 19.63100150598278, -18.379873436275496, -8.114664158409536, -32.01109419504534, -9.624484725821675, -1.6075027872267034, 15.32673536412668, 22.762486254388374, -26.428679490583022, 44.11223648369648, -9.763734742911803, 50.61957719960705, 7.14853293384796, -1.9775457959181593, 13.246846819223673, -19.130731970667515, -3.1462276064571526, 1.153668478911775, 11.542533784630425, 0.6431088320640272, -13.929055593679784, -16.926930913733763, 1.7666697983060589, 3.008527541079382, 38.858574768503836, -7.141111627179, 14.91594519783293, -3.6726870012464357, 8.272086794826278, 30.442782961841694, -27.95658624414302, 8.25866601233959, 8.485158639636339, 24.28541593273863, -26.490222872254577, -21.374502543889285, 37.44584925230113, -26.62473027779316, 59.30150044354322, 31.48143821261419, -21.176638606334702, 12.825355054275168, -0.9067264741728067, -9.609616461199908, 7.947653741393024, 11.600653849921924, 13.354961541261986, 10.2420632395974, 5.143669227627845, 19.98456025682141, -31.89708819975891, 16.87483610519389, 6.3678420591702265, -19.17426987730312, 2.2979324306036877, 28.218045565397922, -54.163990935948064, 54.76027166032598, 5.31407874500671, -41.54339465457167, -9.418562454894746, 12.073372754305158, 8.687726326217087, 30.41533625102394, -8.028397065367313, 12.806795844950388, 0.15182715948254444, -13.907659972778731, 28.736749188108366, -68.09689514766252, 14.714083348555064, 52.09790283998582, -38.26298674183282, 27.82324819179701, 16.320780909474063, 23.798822965581664, 36.32657209634896, 8.206381297170577, -22.385425177323437, -42.182686754062054, -3.83443054909796, -7.764498634470968, -28.419147738325364, 27.418117212167306, -8.209412128857215, 28.27475041570989, -44.19672176567282, 26.616889692312537, -26.90019918153674, -1.3175589725930161, 40.28806450071094, 30.657988362572624, -3.912807057364092, -38.93221602044018, 20.797260551159212, 26.00944412980061, -26.17863961625808, 41.93710424257113, 22.44753035139429, -29.584313236146592, -15.198975329412248, -37.71210424159244, 26.132128856149013, 14.130395358609297, -10.30469583515984, 9.593639961903982, 3.813729976009202, 48.73820150569209, 42.828271490091375, 42.48535537385423, 0.009591884650943072, 25.64478614665227, -45.82902245988885, -15.393965022426316, 10.831069181177364, 2.770385402995357, 11.67172585198028, -3.1840822609994888, -26.622456465958123, 20.100266097519093, 31.518777373863873, -44.689588457129126, 2.9561219219653676, -4.838413053770875, -4.007725806888883, -17.107782099141897, 6.394331861896297, 24.570596458535, -55.889355440970085, 0.663612791753821, -17.36747978991194, -25.344796181450306, -9.2403750502606, 27.00757223926253, -12.031980369035088, 24.527188734240276, -3.951703213192313, -16.70457072351372, -45.90735943923559, 5.940989505786399, 17.24498154418158, 14.329816890647225, -13.941914272871255, -52.63797742534016, -49.53863103400216, 7.987709279758688, -26.684008606185582, -24.87520237955967, -42.463906487198514, 36.38083758716815, 77.12255564898702, 4.802645081404258, -8.850696775594386, 28.41435233329438, -49.298797075347395, -1.685314722303501, -33.409105306158395, 3.545089337424936, -6.794836704325529, 13.953058199320333, -25.772919121415452, -7.374878312492241, 2.22917233333356, 20.622390825618552, 25.622378410778474, -20.49428834770596, -39.021056421765245, -41.34824584197594, -4.442244842968059, 23.200054522984008, 8.548983537418193, 9.535129985823628, 46.45767381980703, -14.454027825132268, 41.4134152353234, 6.984947571520575, -7.721039450248574, -10.278347145675813, 13.169334727788994, -49.661135797122746, -41.58073136220648, 1.8297967522975522, 23.178827242528275, 11.239648231825043, 1.3758713282607422, 45.2784473287835, 21.146532956825837, -24.813689763071302, -5.753461458825457, -27.087480647047627, 29.068364570670656, -27.103644572469296, -29.93730280102329, 1.4730731210390875, 5.250984423633491, -26.607093379061812, 22.99884172193396, 41.253039967404675, -19.344399841213257, 7.82731123619139, -38.480997189106795, 14.210031905751794, 1.265975633210716, -14.697708129795565, 20.369987433137382, 26.940830071152643, -60.739390685575415, -5.733265330533008, -3.2829110706975153, -24.216313310962796, 58.06781928773198, 2.4723176240237223, 3.837710455629372, 37.21094796706831, 8.020783994555318, -9.365434181459865, 40.891169540715985, 13.488660876020594, -23.05561056541429, -14.929415783458952, -14.039129836243836, 12.543386956038852, 5.821400993191865, -4.460417999023804, -11.759688928734684, -42.99683867986842, -24.484803116158098, 10.42252173609981, 43.504138822593745, 29.88273277016211, 18.696335930127177, 20.378516427595798, -8.284839621317385, 33.72262575919845, 9.476007896264377, -39.07655735665222, 20.727560180448314, 12.252664813240553, 5.868589669516594, 21.904635630263602, 40.98627987133732, 0.6884715594509432, 86.01528868458465, -61.639991241301686, -38.923762734330936, -20.305393052895422, 37.87930519714683, -8.063028628832328, -55.68650613868919, -5.300408360881195, 0.16563953264069586, 17.29678892789402, 23.99854565924832, 23.100711176928236, -75.5852633241498, -25.72928428605039, 8.721757027872366, 23.25317202793608, -9.772907808816786, 29.879304640565646, -8.576846401716425, 10.049727279978224, 40.062406691237015, -13.457162760442662, 7.46506062453158, 64.08805279072881, 59.465231931444954, 38.68984624641965, -0.3969359259822537, 3.402829031839779, -52.08938709037419, -1.8744640392373384, 27.872546915497516, 9.479179321280293, -27.42854716592728, 6.099930169349182, 4.644393809480601, 41.91351097113284, -0.48654158535924397, 55.03909937498611, 9.851806172548125, -23.698092678861364, 2.207528920838569, 2.7733197851677183, -13.401587339652462, 20.227111404096366, -5.420163871721199, 22.458956770199453, -2.018012000623484, -46.24452286949983, 11.097538019080863, -36.0026673471215, -17.482391097176624, 26.822840975341162, -33.30057768603576, 41.659824444205015, 2.0806893195114835, 37.580417654227006, 22.30778427183727, 24.1502274850284, -26.19888832766434, -27.13709618146665, -4.061266894911062, -6.459708106016238, 58.32930626513511, 18.501513893488692, 2.798772489234575, -12.392182743659045, 5.663659819694326, -18.640260287858688, 12.067828881335608, -9.554572129368466, 13.394150025327784, -28.085466851861067, 31.739016387923133, -16.339907330986385, -34.535690685750545, -23.090410479934743, -6.741269904494546, -33.09487885859852, -31.250561411067345, 2.0159845087039843, -53.44686614554661, -2.6074394628605977, 18.970369708444878, 1.5208189502796268, -16.73024864242305, -32.14672639028002, -26.984501125356335, 43.26717183500704, -8.568573943797134, 54.584811211277305, -4.737051379694496, 4.264690769005059, 3.7058081500702555, -12.203597423201026, 11.706834811011383, 3.5259315908192725, -48.49387067179281, -36.198033558027696, -38.84327000534768, -38.25971924859216, 1.132173563699857, 11.672641355706345, 8.602817046205217, 24.47382707897102, -60.257887792874435, -23.11061043152619, -36.03890615540179, 50.295749108385365, -46.18200525364341, -22.03174060523087, 20.00160872345703, -32.27951244431753, -18.419320853370156, -58.10940325662055, -29.46655854097721, -3.143779896912746, 13.020166303299066, -38.29402134025575, 7.062251491359657, -0.8424003941193958, 27.326081313224467, 19.650995599321227, 1.0039043088342747, -9.95595669805309, 40.3161959787818, 53.03383769002238, 1.9242152587294439, -5.445946761554229, 23.89235842849438, -21.995629145840194, 0.869603369586426, -3.00413533737112, 1.3735494843373144, -34.611023192776976, 1.8333861493656323, -41.89710261048794, -28.272760960374626, -26.98881152306315, 7.910626284749594, 45.35862043239976, 8.621859811123091, -3.6150350322845264, 33.622112129901915, -37.11773669489984, -21.402789347342715, -59.54408212204464, 21.990891564805906, -2.508625539816692, 17.68358439653044, -15.72211633728685, -3.624772012965649, -39.18012601746235, 52.74885802913138, -35.76225035557097, -4.489573015306454, -0.5460369616160232, -22.454207708072758, 21.44538263858831, 57.16725194772269, 8.807124446233674, -9.107344228787234, -23.897494915219628, 37.71870211838638, -24.018773874235706, 12.920507361535982, 28.314105964453265, 29.939813879271103, 49.43385031357303, -4.8851846277639, -13.31343625062249, -4.565368364360047, -17.249886066994883, -5.803313445830549, 10.468220202538683, -1.7537346801434726, 16.13197357761623, -20.676719078889484, -15.564874984524588, -28.28458121576627, 26.347574444465174, -19.964310030466034, -19.942765519760297, 16.513110638702873, 16.233035644407916, -8.643835564510342, 51.37307442372528, 25.088857310558655, -37.05919738639211, 73.34478047155216, -13.586025080282731, 20.498475092148375, -10.11200043230592, 4.553480129807134, -34.672445932308214, 8.20333980251693, -30.342321414652993, -14.689711791671472, -6.230786222572657, -11.156808069106791, 13.486342233751099, 3.3328455551678635, 19.102206477956358, 1.3222027541271377, 4.49180955571433, -10.502770129091186, -16.732996389346575, 22.922939261515417, 9.782717267679429, 0.047987936588870794, -16.47356731324226, 13.54390224465707, -4.681639510398348, -17.22692213776281, -42.95659365314978, 28.993385857790795, -12.791144070480374, 2.7714737481757017, -24.34666005982639, -21.20063856440962, -13.037684950131798, -16.960838753718143, 11.67326326115036, 17.0992881368295, -25.045293147248017, -7.787679723891227, -28.230871599078323, -0.012237244368087152, 12.609357041620417, 50.87802147443206, -6.957439125731465, -25.075986714244905, -20.206944168338207, 11.0030752157532, -35.57526607135322, 25.801345746653425, 69.88188163899648, 23.210876934919195, 5.142578562466569, 40.71693240199303, -27.372756471061148, -11.91205113969826, 20.84914049237082, -25.49101381833753, 27.893291304067336, -38.67077479344183, 24.68906056623223, 9.027987602089986, -38.724526612692415, -16.551101151246623, -62.198151743459285, 10.22426778106706, 17.10324178667115, 37.71803507614588, -62.60197250394828, 52.32302108717117, 11.934209893655911, -22.659096291503307, -35.92945240006144, 17.58864924737769, -24.579110442639603, -15.805337719682532, 33.55150659386548, -26.239215226316055, 1.1531290576718574, 32.03212018245335, 2.8677217151347545, -17.96436668158511, -2.201343288415738, -47.3587787930332, -24.705086577816672, -19.836785352753964, -19.115274552635412, 15.65004372283938, -3.5349903032738412, 42.58456156937833, 21.084154927476764, -13.923798225488277, -53.61104499947414, 5.039010089550029, 14.39118833507477, -27.593467119877065, -46.60183678176773, -21.78344029233505, -18.654610701685026, 21.414777963015784, 13.930048363195532, -10.192769567752714, -20.20827501498209, -0.33279205560680347, 31.669947169711566, 39.342894278854814, 13.617181434746254, -17.40371724493979, -0.020705239002867026, 2.5115499600767377, 23.204197300751723, 63.182413910182, 1.268030468141128, -0.7818171220127201, 30.79613556240812, -21.298701814895054, 10.60001545372466, -3.6982907998135617, 17.925515982272717, -38.22165212685577, -3.83076098982683, 18.098843941745177, -3.6694450657363435, 0.669252120532664, 37.77868276302752, 25.715495101438854, 39.92402357524781, -36.076257801796, 28.460980336804628, -23.571303190479576, -10.589503108188879, -1.8583098294208424, 1.300275539655762, 5.36924119850583, 14.606156666937084, -9.937329956056557, 14.2631171977391, -15.24161790355431, -6.942589824507021, 2.00845971793809, -36.72902963292752, 25.447243289434674, -11.287960727412958, -19.803124225619072, 24.178152962817343, 23.510175092255373, -25.599643792641842, -1.6846954165649666, -10.757788736019899, -30.790325168767925, 20.659026006474928, 65.28208963896171, 51.164107992546754, -24.30539964689082, -1.5419553280855691, -30.0513720170326, 8.011428540345733, -13.739957904150412, -26.134206991768583, -18.20531399840202, 12.251411015921725, 16.103031373807966, 22.849332034121762, -31.355561293521994, -33.18705335801666, -1.0627977731918752, 46.44675158705991, -20.474384827452948, 11.445576548359476, 23.60200419325562, 4.048673156682684, -25.17897191420841, -3.782277107651078, -7.234102594588729, -3.6586215751272393, -0.7038379836665535, -35.27638481834403, -30.0831824230583, 0.8388806821786843, 13.365385118940228, -6.155192302959454, 12.037564540712387, 12.797558508651468, -8.478685184333568, -10.845268492011957, 40.19933172423161, -9.005068810840186, -42.22843113532525, 18.41253628988524, -27.055527855770613, -29.951382435428012, -43.78233045559173, 11.95711388337918, 35.326254493901274, -21.644626345236937, -4.238608753351593, 9.330183057466385, 38.33011048630894, -1.6644828336343802, 29.900497882958327, -14.234811997656495, 15.374635764552696, -18.314510025134744, 13.222822442702002, -30.395027686949227, 1.796600662047156, -6.660737611708023, 49.944986137659, -2.6243884456712414, 8.466293761752935, -7.74564784784194, 26.113351136672602, -12.206869236842627, 13.900829364022615, -31.208001582184334, 29.13566598484847, 9.46888797529649, 17.924614742150663, 9.952566491950112, -0.39614659640229277, 10.351687028946172, -12.15414018666127, -8.772106924701509, -19.53136181736024, 52.659276399016406, -10.018790439676422, 24.048115622915283, -7.2181681215872695, -41.58055173172007, 6.48475498224751, -7.960110411488925, 28.818421620436073, -31.32203855217976, -25.92372647460498, 45.214066490823, -30.69576369531431, -9.30356611254593, -5.1200417003485885, 39.735914954844446, 39.007603584427876, -0.005634472889617381, -53.54001506649291, -19.084193648263376, -19.724630774942565, -22.32149859420425, -49.762860849672734, 43.92069863956227, 51.575806382384236, 16.934474208027954, -7.493555640629918, 1.5660228737092345, 0.8214592934334124, 19.81565897610504, 15.398698367732234, -11.963094486535923, 7.888626379197228, 30.149904794163195, -29.68293919023166, -0.6007087459882432, -4.618403957539421, -13.735278504886445, 0.6577332880166427, -3.5711256239253313, 26.269027370315893, 43.509558241407994, -7.190675443715685, -52.053831007863074, 31.36497703334909, -1.8104000253041788, 6.5323390229270935, -9.318116213876879, 14.539131560006666, -22.582571628808502, -53.198393715466786, 23.78509584233909, -41.097580028852164, -47.01125511972181, 3.1112175349279387, -46.43251829280739, 5.789882640802883, 13.410674899275483, 42.38936805543248, -15.078283735260863, -3.486168656665848, -57.37812039578606, 46.86079736608724, -10.923933174894746, -49.66891708186123, -24.98943145631459, 1.0485598229617912, -27.733658274883705, 18.044377664432307, -10.098636441351042, 31.17440319075176, 14.515674608520195, 29.13971129515791, 30.636387911024936, 22.963779383816288, -57.100900361530094, -31.574749749173417, -29.275773934364146, 11.032821640008125, 38.6645821419582, 32.510001597124806, 21.808245409790757, -6.342133857954957, -19.975168183276644, -9.730657978758298, 0.023968886473551, -5.8742592256394435, 13.95506314544846, -32.65733004471611, 11.057522573710905, 8.49495253871723, 12.388789030162636, -6.355990853024986, -8.051468205999932, 4.348124045095863, 70.45523671456279, -5.905166642852938, 13.977292276678199, 28.590152058744078, -4.535190906239689, 4.725543668970211, -1.2787475157216646, -19.45247148070576, 20.974584168169375, 9.37842955991086, -48.29131189039383, 34.02475228323146, 7.3127663946690245, 35.100696067966865, -47.04631061743033, 33.69723139190583, -6.201206854925617, -2.291610229156177, 28.260260220077868, -9.900726350779733, -12.499453931434548, 5.185666398453045, 6.228769132216611, 57.54124716839637, 35.51421033977944, -31.904226548028703, 34.54844871528135, 17.98097442649876, -10.244014505536216, -3.7749305019306725, -26.90242278399594, -17.854921859007582, -0.12004539168406592, 13.81705448899126, -30.710190996873102, -14.335913720674483, -16.334741366796315, 28.771047456801362, 47.26922270197142, 5.390470670633347, 29.304501900058952, 2.389797954753243, 17.63261806203777, -29.118191430044508, 1.9958593916884695, 16.23577122991329, 33.546115401365796, -10.069301427927613, 22.047178009936108, -79.40180654983921, -35.37233554496764, -13.702735443415449, 2.172272656384237, 41.72890155900307, -32.10993018331589, 5.1446653963904465, -3.5019217474383164, -31.80419142003487, 21.403697731712526, -39.628345644343476, 65.19338089448789, -24.836021311356212, 19.25998810876634, -19.55488031599685, 7.080033407299277, -6.66749424339789, 10.166612816711421, -19.767025611812493, 16.021698734634548, -2.2539565291297965, 0.13491647828021947, 4.719156692210652, -7.796970808385932, 55.331868916213985, -10.662272284935925, 5.053659452709345, -6.813255309027013, 22.816767954441183, -20.984715816124062, -1.7811238217562928, 6.582414494777274, -16.675883693126103, 30.324986638911994, -50.67042690953225, -0.38311890363110124, -9.246933247567682, 13.192198190774043, 36.14827028109912, 0.7469568419326995, 38.66999606177419, -24.927630379953847, 9.428886089675194, 33.60107594926084, -41.72228291961336, 16.02855705911493, -47.681424709786874, -50.522833996325986, 39.911935798639995, -7.247639151922128, 6.89570994468445, 10.499894877175096, -24.39482969954901, -41.75178777358348, 38.798890241607694, -36.43606505772159, 14.216936897197142, -32.082286853654765, -18.24616955839783, 3.2958402080232014, 38.96287152190077, 9.81152284897684, -7.673760059633339, 8.568043287029887, 3.958275208734608, -13.909112879386823, 9.066229571300294, -28.77759929797903, 12.897353644495276, -51.09118285653441, -33.85633976276533, -12.891727418795606, -25.17920037839051, -5.879379471813003, -2.4645856184216504, -14.176746641886833, 22.10121124220028, 20.34132078265739, 57.72524529493402, 1.9536312493531693, 8.208466772758324, 9.538966745879836, 21.996235765546423, 11.829957202829613, -11.99948208096287, -15.875844667955082, 37.71291433074042, 27.98864398904169, -10.014858309594771, 36.73927297791265, 10.841413417964446, -36.61789419754612, -16.379249530653595, -33.81042531291084, -48.92279419116115, -4.295666197566084, -18.381298745441995, -3.6758210794504818, -15.85575255407612, -13.401875541377075, 28.970576575366717, 14.987114927652398, 1.1152768914981395, 13.108658427206926, 12.14576277174282, -37.0627775701892, 4.985733996124486, -16.691661269131995, 8.552983401199333, 11.082918110802188, 2.155398190392103, -34.980441440380865, 33.579466231056664, -11.68305188106924, -20.45525815739665, 7.982188152931413, -21.73912648563031, -6.198649198870026, 3.4456014885934265, 16.3921499420852, 27.35919162472119, 1.7385070069680533, -7.737681530763152, -4.325407392142095, -26.567219534737504, -4.262215527487005, -31.471578609004286, 10.494067205703658, 9.834599669028652, 5.652814426446064, -11.430582246837362, -5.661750558569883, 27.98566814960198, 46.01470476173737, 20.960272239179165, 8.529685228441423, -3.920049180744032, -28.855151904275147, -24.45725293135379, -11.737934526048948, 4.878987259506726, -37.5311960474557, 15.573357700169606, 11.132165123784722, 3.3890771679226432, 0.9687133489621459, 9.97277003163336, -3.655717440536259, 7.577414771900069, -4.23590945707229, 23.893582600005885, -18.282713773095, 34.522313252916966, 23.491257866102707, 3.184830978041353, -24.997284351708643, 11.659750257329666, 2.960221992401066, 40.585064810750126, 30.23583363375157, 17.78354019924783, -41.43207507018633, 1.4417632466550905, -12.483790664594483, -19.15816343817225, 21.294089758448088, -2.023767830559457, -51.154849995992464, -8.781547837538099, 0.6229592112144422, -36.756164747793015, 9.387964029677878, 19.14817456379279, 45.739194729302746, 20.027539054511763, 23.38628709740513, -6.522758784528624, 4.80683644976318, -0.8145361019105071, 11.01432997851894, -16.971617565396006, -2.529732857727449, 26.96222834311041, 26.75092953494461, 55.51424912218621, -38.51441511315137, -9.767884776856837, -24.99404440323964, 4.839296808762582, 48.72817801280325, -12.476558338678151, 14.524494507410433, -27.53101614528461, 19.874486447268993, -15.028883322427564, 2.7052413633658317, -5.3262708204748295, 23.05709904442174, 13.797444767271653, 0.6518688038703937, 17.65487208072326, 13.26058061601081, -31.530125251409352, -69.82708723138451, -50.149935677908125, 14.087293907503343, -70.97814086741101, 8.913812763664922, -26.746370883708185, -57.486004080151375, -17.74712530374479, 44.88454349732769, 30.095696610817956, -0.10251757343442064, -15.703364178177809, -23.81974403660662, -49.4676570537245, 48.49338903879276, 3.900132123352993, 35.94246582569204, 30.032495776213423, -13.455755847002385, 11.777086823455138, 13.199589128025863, 8.261595122420756, 24.08009905908317, 6.447149447826601, -2.3533329722515557, -28.456388824295132, 6.13676653537589, 4.008511249520236, -11.53635169476275, -8.986264561425623, -29.163194037479016, -20.178657961470073, -57.62009010128183, -10.633990859976194, 18.17714232509337, 55.56884790168264, -11.888611205329491, 14.598535882082661, -19.234467297170003, -21.297447579668777, 0.5643930784013609, 21.38068277669343, 27.750503417560374, -6.910775112433939, -10.032696037530116, -14.631302082949666, -61.539845954328875, 36.600732703469156, 31.883943204486087, 50.79005570517971, 22.049659339612784, 34.14078950366127, 15.999010921096954, -50.591259431162, -49.01735681932801, 36.09678771857464, 11.54483026285087, -2.2315142771716427, 24.61015891690244, 7.561633169174158, 9.390041448463677, -16.861551283694066, 16.72227177607016, 5.002746785095082, 12.89832561522249, 13.962277193047552, -16.782698989227782, -3.906910869235282, -21.412425889274807, -7.2186283783204646, -2.9402970905214976, 1.980960036540644, 40.3382144393774, 7.813230795189654, 5.835466240425435, -42.31084109233977, -32.04231769610279, 58.36238786092558, 41.073097551889376, 24.752142541679294, -0.08947526542841766, 45.49653896317128, -27.487425508629766, 19.179103481154105, 32.741228555291066, 56.47426334496299, -16.975091351489393, 30.16405763360467, 18.294798406072527, 74.32136249322431, -23.897186228219574, 1.5752241901833224, 2.4754425714435797, -22.71737088974099, -23.698930960192616, 5.594266350065924, -3.4008151250621292, -6.9507824880722024, -4.387427609388933, -0.16258815989957753, -18.636760877603233, -2.187180058076865, -16.70792233305479, -74.64152797564984, -6.319208078672424, -35.04140341006029, -23.388305461241337, -15.567137227397357, 21.976220504336087, -16.42673116128722, -40.99093885321362, -9.48350417094841, -18.809860470900052, 12.73421206647886, 36.9009439593373, 27.804094981099635, 9.38722838017361, -6.720347674169286, 4.510835520769955, 68.28973067619428, 9.181678607088301, -21.096194617701798, -21.88023151716249, -13.325911416781727, 58.49173519552639, -26.78621373976758, 37.73254592551919, 38.602376241018106, 24.252411765004275, 3.1666062723503785, -6.333316538135679, 3.404136332856977, -7.208160812986739, -16.795445785879693, -27.257556540613233, 13.170382918682257, 9.72511391866501, -10.959177656064272, 68.89901597856128, -24.397467485488587, 35.96757053806202, 15.528635323774466, 23.96766029142506, 44.47503253621399, -24.180359509213403, -43.59619795084368, -29.48507592201687, -15.835215613290037, -4.798193461522911, -31.022634231557056, -1.6963598212586735, 3.3408886991991613, -15.227454481329207, 48.483579913606434, 30.36579165787524, -10.420700996226763, 28.4681304193048, 44.8416582384729, 25.139012629321872, 9.262040127283584, -2.1854845344858975, 36.58082467659097, 4.0769994506996685, 14.010170862568707, -36.13151611783768, 27.07504244998054, -13.929003060499863, -25.524418835989717, -28.52342194493343, -3.9816965205272656, 36.335572866004284, -5.719529715138787, -20.936967254514155, 13.996152153493252, 5.840328904414702, 11.443627976730056, 24.859306216027775, -5.411582901352539, -21.701190129275027, -18.343054285548572, -16.446927719420856, -29.976789622625102, -5.757657918817197, 12.780870134914545, -23.587967623658983, -11.122920427114556, 11.021019132055216, -16.833514049980653, -5.303400924575952, 15.627344306740174, 12.602472723472479, -5.309921359742056, -3.8673127867382027, 17.3679647824689, 32.78154804376493, 9.887813714399122, 38.41456821630769, 19.193244732237424, -41.08407936566989, -60.599019559089164, 27.7193803460952, -9.528247972402207, 20.940129515988016, -12.08766489923553, -1.5159692347292189, -23.538347674970794, -21.030896279967376, 36.982492052065844, 22.53044964223748, 31.9955975372515, 26.646425213934396, 46.50210361393186, -52.530176943151204, -12.527628723874235, -20.089281918947293, -12.472304390673212, 6.8755509345288255, -70.69715557166815, -35.773776141994276, 24.646889592566225, -13.503639079948808, -5.046778299683242, -40.04726062006778, 30.357698704716775, -10.394835545885527, -13.42321352437709, 34.42751722768448, -11.562122786290862, 76.8201857706091, 3.515678797621282, 5.917436013425162, 31.237219896502413, 57.21657543560044, -27.354976679866777, 17.7359812169133, -70.13665657981755, 15.019823315282045, 17.156713772473683, 5.81421505360166, 36.921136521904835, 37.26411204546742, 0.23351883766183867, 1.606272679185433, 37.6127266516268, 42.6785878538824, -23.54186943401762, 20.856370200399642, -20.237468195221933, 41.70958473556182, -7.87076825056346, -26.845736562096057, 18.889508019739765, -40.756451845072235, 14.748732542180466, -13.171107776738957, -41.88880445186005, 12.227369339130927, -8.16009532727232, 25.776192660938026, -2.768417853244147, 29.821700533124428, 44.57361492371195, 33.74884537862628, -12.288334139667835, -0.7061693562482692, 42.89926230884446, 3.369962894075127, 18.05596399829961, 8.330932827450562, -22.446846279055865, 2.43077622267, -26.957173884607794, -0.1021211369385071, 22.11465830579421, -31.98846559707738, 15.070038512119721, 27.15360794368746, -5.736952139184947, 41.89731663405847, -14.266996841762905, -5.639150013924433, -39.26355965370035, 11.602580613070362, -17.17149229068801, 0.0659066632531995, 3.8457454214958418, -52.69751879205483, 6.602736052640812, 39.742266063608646, 13.015650858196679, 21.535892347271695, 11.672837669895271, -5.044547771804002, 55.25686677249999, -71.48792324539174, 47.339518572166895, 18.117693986337258, 21.477590006473765, 1.8963464900184501, 14.912631592455051, -14.10529666861964, 11.218767388097561, 5.749538785030538, -33.7486579231782, 49.6006621721649, 12.383759947375772, -33.80914649887641, 34.57670766597573, 13.321972536883619, -3.39884569252892, -21.093298454126852, -6.733337786929896, -6.314810811050754, -2.7240297220042997, -1.9282666717711583, -31.410344053915207, -10.660474017835663, -11.041923586878216, 23.007794674982158, 7.905679328540259, 17.692606229232815, 0.9814259880378016, 17.93721982811217, -12.848241390202002, -28.33031810355489, 18.150451388868806, -5.687125140291539, -10.708137242883856, 69.32133896839508, -26.452780795912076, 0.6485642002214327, 19.41150993081678, 23.835173488907213, 24.823845720184472, 46.6577076918057, -11.083218125781203, -3.651159853715978, 35.52764074969207, -18.31363936343764, 10.740468538228548, 18.320483761745262, 30.417751858872442, 7.476792899344593, 1.1290554841725822, -20.409144167958768, -11.787144768188345, 12.44755528397914, 2.9291737970349825, 8.051828798969524, -24.99213419722282, -36.539415008671426, 17.597698398536036, -6.873978846785624, -11.292122980589639, -19.470211684496498, -0.5719024142816114, 33.15774912214403, -35.02130658606065, -30.234168073071643, -21.452422470413513, -19.18976556409026, -6.458936395834426, -20.536753313258682, -30.465263409758876, -20.71024699476199, 2.8077092780499076, 2.137165197542741, 5.844258299004007, -5.305456401558921, -1.3664823976285305, -7.2368611596758905, 15.535403171664944, 16.524782764119664, 2.355305455134024, -0.8607063702717231, -40.778067333255244, 14.33224346674787, 17.738571530709418, -14.390488884660222, 3.2382073141925645, 14.122089740072933, -5.665438841224069, 0.5977713748777402, 13.067497056950668, -26.51852265413045, -5.241504109368018, 24.641288965070842, -30.458374720003626, -20.779831673978688, -10.341442880343093, -10.74474843282216, -13.922086301041896, -42.72396105278126, 54.40282485923544, 24.59864334406865, -4.986122645644567, -20.377329308978666, 67.49196681394625, -22.527840485335545, 0.7669849641004824, -2.87205785269174, -1.1831040902017618, 56.489104378480505, -17.596887598522084, -37.59405155869097, -11.107037479519056, -8.931391717956082, 47.66846672184033, 15.660168134845303, 32.31125741001229, -32.666437714694574, -16.386052506284344, -26.49081838235037, 12.18748802970128, -1.027814411461561, 34.57829452352497, 36.085259551263974, 39.407761925066815, -19.978251601039787, -9.854381609797127, -15.427745189683854, -33.93049671335659, -39.04940926996568, -14.45422916836794, 1.0484493716891183, -10.290839669093932, -52.42192672501925, 44.699146913822545, -14.736696435214622, -5.06892790471317, 35.12208023290975, 5.399502193980132, 5.780318833611468, 44.43596021644401, 18.890602626578733, -12.061446721480719, -7.045682172063683, 56.74378290166147, 15.74727217919598, -4.220204091720237, -17.25835439189581, -32.610353408660174, 15.70621616894195, -10.169726114504682, -4.867703734739378, -4.1737347269887755, 15.939478621363168, -22.694092218730283, -4.5745812490681175, -31.29627424549309, 28.598907965699514, 28.84576489530422, -12.669803980428402, -21.249430456636937, -2.5945083936153583, 26.92578900167043, 19.10223495056791, -27.699440540367615, -14.027363761133007, -26.671155291766393, 17.57886236456361, 10.796965557734644, 38.5663937490677, 7.656086341720072, 22.93902163698915, -12.062892499596515, -9.58149359166067, -29.941907432963657, 31.446591857396157, 3.4040770649221512, -19.36014961304146, -4.909679814084649, 0.7354668788998016, 8.440721397211544, -10.327422623156009, -48.84152191037762, -50.39942645798141, 0.017003145037912004, -5.930206535706662, 36.62393091056616, -15.999232621588238, 14.221943596599667, -34.51419373834902, 56.07651379210349, 36.37318482083655, 48.02696069714931, -3.3741260956291477, -37.28591972710449, -6.441279959393892, 29.50502412671098, 20.4524878619569, -31.383494733433327, -50.00059388667498, -0.363457088388877, 26.872253111272833, 34.65086815577275, 16.98772348518841, 54.700583438981845, 26.910204159201058, 20.294381603057065, 7.289168541484633, 0.6910739741996804, 14.947823234624556, 3.123809688384946, -44.04777027365169, -32.11488829315677, -3.989528218129851, 14.398585499998676, -12.636863659448476, 13.807390946642178, 1.7337711898099029, 39.472789821967545, -0.9937139674976732, -45.07622777808031, 13.666074676637072, 14.641387666508423, -24.721231820728253, -0.0010462312219594594, 26.882646450923733, -17.417635936945096, 14.735798702264134, -1.8841368528229008, 29.341947283710667, -47.7736600242276, -29.433052705722574, -26.10447905217899, -0.6722955049939259, -7.45220009888287, 16.796661016478634, -17.095460363787094, 12.549008174190183, -48.509600320017746, 16.639463859886554, 1.5345924638834987, -5.346684042971633, -43.83984680924224, 46.27175224106432, -4.714319875976823, -25.057510760235473, -4.1189914586713, -49.84931890084575, -12.726582216714604, -41.84725771764465, -16.305852087337207, -2.8916662709042678, 5.438847426018595, -30.043849500930534, 6.2104772477551515, 31.620335576987415, -19.99057795445609, -46.17039166246822, 78.96894866930205, -26.058703398236705, 31.131015588531806, 65.54697393309563, -68.78781087609043, 6.506915467543278, -17.885866294333592, 34.0852728483422, 26.150744418057876, 8.820286744689916, -51.55967449720446, 10.135327675321134, 23.079935884695736, -16.629928630502143, -15.17036101780314, -41.11107361134364, -1.6215872147433021, -38.821026047943796, -17.01054730314152, 41.392792485815065, 5.827679137259546, -16.21241182701316, 5.597983236727257, 49.699910238864234, 0.2255107924641031, 48.572275848867626, 10.33183893786987, -24.908761052954343, -40.36686089784283, 27.92771745956638, 29.277408626252633, -19.59128011474213, 7.367134406465015, 13.978407100529665, 9.545088129617639, 3.440633944412914, 19.45783759097527, -47.37069811158621, 53.85772909431141, -8.149196203062175, 40.26801284470656, 34.065523996089055, -26.451259107441768, -4.605208553905289, -10.901957009503711, -6.891462564735808, -26.935041857905965, -31.044751842081098, -14.331304473839635, 3.437694922875263, 14.689907988260215, 2.968438638132377, -10.388230489767572, 11.671921422084525, -7.379705339872624, 54.91240391160678, 2.6035788730548455, 10.805790976253252, -55.78469595964404, -26.34329067332411, -15.770216978345767, -33.975719353404045, -29.20479332454039, 11.669799565912243, 14.686798974156645, 15.59581826569979, -85.66432515072151, 42.93546014042185, 17.923169853047348, -5.757529623793303, 11.133282791312913, 13.427714857266157, -17.891835256666802, -26.366632127864158, 2.5307899615545804, -33.58530019967523, -0.9466631335391068, -44.419702107757544, -7.552980343508398, -10.357272300963793, 12.16441953212562, 18.15556440799765, -44.1663842351263, 2.2928169305073633, -69.83187831132928, -25.826476019704007, 27.3436230082602, -45.576535672338636, -13.117747923916228, -35.66198960146844, 27.18064591026407, 6.94201811718579, 17.075283874078142, -35.90896244418996, 51.018812570217946, -32.354299688775754, 27.18609413171306, 8.541582391640485, 23.94191671173086, -21.22460294460122, -19.362780449557373, 8.195635787135597, -30.59186484388454, 28.831355140596962, -11.52453325013926, -62.58072765412455, -0.6744832276954409, 35.09363551561812, 13.939761642746445, -32.423877622749764, 6.188349516799644, 0.5781755612966473, 1.0776805637374642, 18.168720575010635, -5.860339614215982, 3.1459277977089495, 21.588732461189345, -13.871053476672323, -22.154778173715254, -30.38667874040976, -0.6529614667667456, -31.190472595920976, -16.649380941530776, 26.433270007570773, 36.77181216489357, 11.680080451479888, 11.780468112013018, -36.78592869880737, -10.60078479260937, 2.1795044888717463, 11.440817492413792, 41.77622435748853, 33.5152885223051, -23.75635383976752, 14.445598633412498, -3.096322950984841, 44.36965494314368, -16.734924732247713, -24.922965989995454, -44.84316364947881, 46.53582166010668, -8.390541399972351, -19.844863828759546, -39.04520848917584, -13.411125867361289, 13.614799276897463, 6.626070680792403, 9.123946811780984, 19.869503131906097, 55.632785789080685, 13.018800980116437, -6.3777468420648304, -27.31781419338002, -13.740393171856493, -25.05423480737102, 24.31361042219656, -3.043062917757615, -8.464580715820349, 36.931793386239065, -12.153211062813686, -0.3629211581259657, 38.26735929060139, -1.9753771136266756, -0.08326970376553633, -1.0712257896290343, 25.74588621223933, 24.897488498399728, -2.3648292607673786, 39.057647038610426, 3.501226796209359, -45.81050849887049, 10.357177659004714, 12.213158774376527, -4.323380833544911, 28.306530482468304, 4.9696411349509635, 2.781523457112605, 51.641711879784445, -29.521816532760997, 25.574282900372836, 0.44282852659691185, 53.100474073851096, 20.827491676468604, -19.56135210933072, 23.492159995778557, -4.586020988353609, -9.66943939443169, -6.599543257217619, -1.982095626872632, -0.6575178195764746, 1.7469280285799256, -22.70992564811744, -59.73113204838356, -1.9809141152342922, -6.0414942901021496, -0.6012209317219557, 23.769273911207428, 9.410973837451547, 19.540183155764662, -13.752921855440432, -27.98804936178407, 51.450708074754836, 9.096287395744124, -5.035397299750851, -10.108609024416026, 7.6538137896766045, -20.428983684761278, -9.498997357331618, -24.568042001600563, 6.046744152855665, -42.67661086748332, 9.496683140670608, 25.47097474470852, 17.424832156982845, 23.511816462069707, 0.7861589301851062, 9.252062184714307, -33.48367233512436, -25.630375903794423, -5.968810179922968, 2.1111395230502508, 23.047004795785455, 56.107043274098025, -6.599687559693485, 19.13138821781059, -8.92534296752754, 27.756038483372137, 21.468160489029128, 22.018712956268555, 12.816080840720257, 21.820914171161228, 3.1473204393081557, -7.771730155711113, -2.292441629220078, -7.069401696859793, 39.62272295157551, 20.165485370139862, 20.10808025901845, -63.98126144366697, -27.07199773401919, -0.3952810987507249, 56.528743571096705, 31.89655480755456, -12.984031558915623, -53.421577461730294, 46.00657143892998, -3.6318422925682188, -33.68348932363625, 3.1980555482645694, -0.47022407038611913, 21.369887780178455, -26.202546215919185, -42.8777312992192, -44.20732967989551, 7.887340833742185, 76.22306276619939, -13.447622569182748, 17.098982035250952, -10.352291432004703, 34.44541493044882, -38.71826358574812, 26.40803150443036, 24.056889727775516, -56.748692525463, -11.70206736061731, 5.621801989155754, 26.47685356803731, -2.5671851983496436, -35.87268892616847, 28.301567737956727, -26.443815647492386, -20.230170866560247, -42.955812757398284, 58.560147091758104, 5.140876144320312, 30.04282894158497, -1.5933013959280626, 10.961254555421757, -35.30235181268958, -52.35239416036542, 45.55518130332157, -38.73011571732563, -40.74015548748681, 1.9679820764615703, 37.634598964880496, -8.165192381285229, 31.1848687589392, 28.69864276828994, 3.1500513334697997, 7.418039836297693, -29.88537423783813, 12.245435766581881, -52.9739037265696, -20.430957092782588, -10.90854814500107, 9.717190621790603, 4.693311922163367, -9.863758677253685, -2.2569715224700095, 20.721107103403288, -45.64465884951453, 12.297032889310286, -22.344859313937587, 2.761585506666866, 36.472208396676294, -2.3473070017664726, -6.433365540415121, -21.006664604627453, -9.684834136733777, 48.9055559104072, -3.615006212337384, -10.881926813874163, 4.650755244264631, 26.058168961597623, -1.4156564855218776, -17.950767980646695, 13.577395339692583, -16.57283796640898, 26.273096545551155, -4.074759236564905, -8.134255785741361, -13.482018807015722, 3.919664689567915, -29.323757624760486, -11.008487063386722, -10.618157780425745, 55.565232882649674, 26.615835595925702, -14.94630626210293, -19.243537461621994, -8.041525958102579, 14.806180209695583, 3.6041177879475628, -8.612564212096979, -2.1092853867696313, 13.852950313418521, 32.59271917914643, 26.436029268277643, 49.93462903123025, -11.680769459039706, 10.715225651618349, -3.7059682803754734, 43.645347568325974, -9.788113370513948, 0.6332174051006885, -1.1171904925055074, 20.771625169435122, -7.9293413935703025, 28.012654420641766, -41.1824884934244, 1.0814543499713247, -0.20580712357224717, -48.70667774159851, -19.88827163782436, 33.175067640428026, -8.507668263085966, 6.049272456905481, -47.36503556468895, 9.548959799896233, -9.718042267499714, 46.479251368613845, 17.101622157797888, -2.1486025295057356, -32.72061839532549, 13.0145912517876, -43.21148160710373, 37.495687024437245, -17.637806406191988, -42.817357408392574, 3.014210739245841, -45.88328392228291, -3.80086108180983, -32.373509903897066, 19.57056615591442, 17.02610741931973, 51.22445499053881, -53.170906482539124, 7.987371463261753, 8.355949162896774, -13.62004276733354, -48.52525553047067, -0.08746015791355854, -27.143407711038112, -13.686202197689715, -4.878381727641604, 1.9497057661836728, -12.959231890968983, 15.83491779033676, -11.581048982629518, -40.03497507726427, -25.19555495202163, 25.86442495242639, -46.15358024814739, -2.5161248679696935, 9.219786689840243, -28.70805348929537, 16.319262253566666, -39.61657999546161, 13.793587047237562, 27.378140405393488, 10.516686792577389, -5.972007545363106, 12.038359740712474, 29.540277574198008, 5.794248832109457, 13.671993511468933, -36.83324830352887, 29.902731242364457, -5.6668469204507925, 27.89740729768025, -9.893264758044749, -7.525771048144154, 20.551461829351947, -23.10320723460885, -2.545481165656527, -28.26461653555424, -13.448698478328364, -23.896023982306808, 25.176122809216718, 17.998111987580263, -25.52248210422007, -35.2829102255048, -30.16901301772682, 36.50252489669832, -11.435850033793663, -34.48960789938532, -9.042852428827196, -13.636669219070843, -41.19399606587757, 33.468345088986155, -17.421258473846034, 18.529173761997985, -26.411823334245234, -18.877803795774327, -16.399430072307368, 0.7390347628802796, 22.907172745461796, -1.7123731656102827, -0.962629099317942, 47.95698100424846, -13.444870789614065, 0.9439608217418871, -19.099270428973817, -27.370673876054024, 6.876614301749389, 10.186620544209841, 12.202906504291327, 3.78772078331608, 10.368136281804762, -4.447551089645938, 1.7181327149162335, -9.181717941130602, -18.644763285795307, -11.488441232966599, 7.163151931012237, -17.83433420775045, -8.922000679802078, 21.743539522138573, 16.68487642495097, 7.845354094546694, -22.58575728912315, -38.92088412711325, 25.627787531500935, -23.08079771051633, 41.021715512255504, -17.269376574202912, -11.45093427996195, -32.87765864455359, 13.429931315114828, -27.62164922358506, -12.861289629017648, -10.108424728120161, -22.570873890873724, -36.62927420310084, 3.3746870241400537, -13.459043334400445, 3.7916604889811207, -8.663600243220598, -11.836110229316231, -12.991872567589411, 35.902784351102056, 32.83416268668685, -29.39884828817902, -19.49752433885245, -30.655861841269875, 6.590589094236577, 34.41713318914253, -6.968293941804003, -36.56751660449155, -25.154563102634377, 35.608389234817594, 9.693485147659912, 15.642797496737984, -28.278315126152712, -46.06053870780936, 43.83844684377566, 27.624055913378026, -48.8403228218884, 35.03102413223638, 37.93107554657547, -20.255688472972246, 24.107979924920503, 14.355563295279264, 11.749843458215956, 10.87797981379942, 21.96653345068805, -12.810040650803863, 14.098875146888838, -23.48667383228425, -10.518039627449674, -14.401620838725727, -10.61313094086412, -18.076643432290304, -16.946521979574822, 10.662625078188245, 75.57221856236531, 28.112479834831362, 0.5313423452052468, -17.079213724402173, 31.289445255121525, 19.49016907418114, 28.052038428186183, -45.60801443719739, -34.14191430205436, 24.705033294683755, -14.411993035810376, -43.1782074095211, -14.743517794700406, 1.1165014860807667, 25.026138469292025, 5.318830923747762, -13.27264333570567, 30.877557771983774, -7.839296575277835, 5.993805655122959, -47.313598938726415, 38.97701948455522, -17.770652702280245, -34.826529138191084, 16.506387241999448, -24.574577110843556, -23.08552508668989, 15.746250061047437, -23.70995096590369, 25.476874361831776, -12.993164777205637, -26.002066678342604, -5.498376023442273, 48.354151284271666, 23.31235781412737, -7.221166157043195, 2.6626387746098046, 7.460948138291529, 8.42650735379797, 63.15711388589873, -47.62260775394743, 19.197567826886214, 20.699328881171244, -23.074637633222196, 16.795316704338305, 81.10410605064065, 5.133463074909398, 3.1439149590780415, -11.779250277482587, -6.8678017837927765, 1.1656957743758185, -15.197462537258469, 9.503124458835757, 28.803549851797516, -13.317386117966517, -18.431593048210544, -46.17715918728461, 13.570050659142868, 26.366719677908385, 4.3143589897403665, 26.269338911193937, 17.4747377273615, 11.7224976560373, 11.719925857439787, 0.24114268007517825, -6.629073116022877, -1.165426449380605, -39.41655861501507, 13.54460383119774, 13.589709912655348, -20.225644567236127, 4.579034088064106, 46.89119157676219, 24.30689784972801, 24.64162421349434, 1.7377670529251543, -10.596104795422182, 1.0451784591541258, 16.36096227584054, -9.090173434774417, 6.2199625165209245, -20.1613611993233, -29.929537911393414, 50.367249953182494, 40.0268358389882, -6.667036432874088, 16.139092681680424, -4.973862047696048, 20.731521691626327, 3.6077008027886137, -44.57342820273197, 8.867682251918897, 13.86150890651227, 17.116237522516844, 15.015069616740464, 53.04507215318093, -1.091481183469949, -5.598778248185335, 24.425789657860797, 48.29824465676988, 26.384967856491457, -26.783918393166275, -1.0765709121662006, 20.549238083103262, -40.56281789454413, -23.793647318003877, 5.8470560967101735, -5.6117783682871325, 16.451519872450426, 20.325159668500284, 2.519468397917181, -6.650395142471103, -3.1779441938967823, 9.869570459238453, -11.22539379637272, -30.927508979310698, 19.24942552383292, 26.747059963322087, -35.74198111868495, 13.666696477620333, -39.15095375309704, 4.805450973551964, 26.469834926909947, -3.1109624989038926, 24.73845051420856, -7.678116563799392, 13.93521166757518, 12.17764408983776, 5.391370947998301, -18.534496330517594, 2.3070536474491687, 9.300971747335382, -17.224264290453064, -13.829456622613652, -11.060711140805937, -1.5867371144917337, -30.61804512925957, 7.970137321998703, 1.3487220180421513, -31.77506176837479, 6.381116116425222, 12.966432162498325, -0.5818541278322029, 58.0136138218997, -22.049483711376933, -30.791944699254824, 30.137349633939987, 17.26623904669529, -36.44979496699907, -15.099494477632772, -19.878165823254076, -6.855141394853926, -36.73600596546024, -14.483087474662378, -33.72845586496195, -7.4327928502313405, 12.974874109651713, -13.564640315792305, 1.0622075471987595, -14.60220762425728, 37.842483919145366, 11.539171186173343, -16.070809098520776, 0.779039775357304, 36.21184252033562, -20.917751988874475, -3.734393111531708, 16.696284265339997, -17.634648083539375, -15.311479703917918, -45.67695045103884, 16.14295867546643, -21.189153480871774, -3.934238377752597, -13.516231143207898, 35.505265806346, -21.157156914717955, 12.552381313484945, 38.12326468862449, -43.12716587165196, 7.173852294365188, -8.036734553665916, 1.7859552869773776, 16.663436553361528, -19.418986991441393, -28.822903205743284, 17.686085811663425, -13.56175350953865, 36.27015343182939, 20.28647118199581, 35.19812241516361, -11.00476263061268, -13.885338251000437, -2.617026343264338, -13.804766855953476, 7.984331051094698, 23.118527788557685, -10.138200698817526, -4.05660662833514, -0.14438860496113204, 0.10199737766923134, -53.149517995681954, 9.787275553602823, -38.45964592544797, 30.208158371658897, 53.67689537103352, -6.719066621986688, -20.31235269895198, 11.007348032318248, 4.346109339488702, -12.716094875656406, -16.11966448468101, -16.0980497091408, -6.985539692595026, 65.29228694758586, 3.4311007484611356, 25.84785401196113, 33.0656694865807, -8.148819547189744, -5.409661742728725, 15.779922039967838, -7.899374500256612, 8.724164670673405, 40.22714579752232, 28.397441426583477, 0.6560854104781282, 21.85415271535575, 44.34053700868438, 18.107985512376167, 8.96646462981401, 36.512397478532066, 7.9742186176837615, -3.2696094411435808, -33.399402446864734, -22.97126274935668, 3.398453053897831, -16.354736992413066, 19.400504128995312, 0.808389545463907, 29.711507314812632, 48.1142961522201, -11.233595254664479, -20.623056830428997, -15.195160063002776, 23.404686624024425, -38.752454392402235, 29.143172089905335, -12.594332828961335, 23.705663015337528, -31.867813200994792, 1.227579838174556, -3.616860981677804, -28.15723422841501, 20.893512495200586, -17.29964444321317, -35.84020960534137, 26.151020569954746, -3.2269093277530714, 45.30602537811123, 6.1406598940869035, 3.5617334264177636, 25.715309302467343, -21.599516371665043, 10.155462384768132, 18.585509983525018, -48.68440673455648, -35.63005039857782, 44.64232139883089, -32.77441457276601, -13.522564853489643, -54.68258500893021, -29.112052795939263, 14.829545562154719, 32.933870010428116, 6.880918887622533, -0.7265261488796151, 0.4960792630540998, -11.768311211606509, 7.527397780725208, -49.731390788368316, 37.02665475357737, -7.402352086763255, 20.506885494970728, -15.143812293737213, 4.665798573574547, -18.44938820525078, -11.44220517719317, 32.92106206077605, 38.45650683549845, 20.3972570353847, 18.782347191879623, 11.777822551613145, -20.333031669936528, 4.999720184357643, 37.98557644089693, -44.640161476046394, 12.672131482000424, -28.297368027876537, 0.026031896044235392, -42.832505718116785, 41.64880730234601, 3.58424177448545, 1.5952194145937726, -14.559159137752225, -47.87249892418105, 46.6270871261219, 5.394866457784729, 53.350593478594774, -38.37021918617446, -1.7750712674455515, -5.792253380239052, 77.78663372034529, -31.601195923845225, 8.957573514779307, -9.116766725811384, -16.087245415538142, -30.746360531775547, 19.74454034916589, -1.4980059316749936, -18.87455361034604, -52.2594538215818, 27.37991692479927, -39.40791731859159, 31.091714674403242, 20.144793256137483, -1.7654000034034798, 12.198786741680768, 5.957147222974622, -6.305912926378123, 7.504630117470491, -16.227367423264003, -24.36074021037797, 18.033814058288616, 22.274395771157298, -9.389218100289119, -10.301311371616293, 29.147002092591276, -14.045530232412212, 23.554908464435645, 7.40057693004601, 16.63353962045733, -22.09953874440744, 54.90830525505122, 56.770959388861925, -68.85150404176842, -12.060033373240945, -50.06315321019647, -3.9429166287121875, 20.961388020857374, 30.504503262844434, -44.31708037492604, -10.81429245614597, -41.073739260555534, 7.812729384224141, 21.056920905356414, 33.719383792504594, -34.45347651941864, 7.249553123993931, -25.896832784320573, 12.465646604819232, 39.50439634513176, 20.399984154993007, 26.161854750997154, -7.23149922285997, -11.962942948998194, 16.615386325587814, 25.005454652031474, 18.654820322408668, -25.09203860222501, 13.23047650585048, -19.70871794374674, 10.577571691625053, -14.145398011149963, 28.895313037819452, 49.73500297232434, -21.479887737755675, -11.896521588329371, -10.898158899319654, 22.795113096927885, 2.2699674714190685, 8.49078398576738, -22.63836496965761, 2.6968430068244755, 19.600142973247795, -4.233089427021915, -2.325445052938254, 24.961789526076522, 2.3909340176084597, 4.1099219245454535, -44.05549021612671, -12.094605663481014, -23.44367803705384, 66.25900121134653, -54.87186554775758, -0.37170818736507627, 5.727408255641273, 4.144584365606169, -11.929536343209206, 20.040671931476915, 4.800762053002078, -7.163370644292237, 10.492257419321573, -12.835374425937355, 6.806155525273614, -12.75223377074608, -48.37795984832689, -34.31517380768913, 41.53938583290584, -6.6099351379152225, 33.149152187766774, 51.34254374730601, 51.79559009523238, 5.462788004824617, 2.672245888448357, 25.066876791783823, -6.278301356893564, 29.16568495240472, 1.041535227646492, 16.934196448204574, -5.680350265285353, 16.591741022018642, -27.601108799186306, -16.760082421472983, -28.83787126426637, -12.023469693795027, 9.150580397831447, 9.036942171250953, 10.453043559705407, 8.849877532038903, -16.10992728679146, -4.925429523797461, 22.759189300274326, 6.734926450600561, -31.40756407427082, 0.38205113843987604, 25.87717228722336, 15.709106100850455, -11.083260392546016, 1.5626953960568915, 14.871184258840348, -49.038457686601134, -1.134432563844003, -15.003194083993456, 9.223105109562116, -20.480821689922305, -27.328679472914196, -9.53290268426672, 1.1967067893795038, 1.6757692537342326, 8.955403524498655, 1.748621889989189, -35.13522328143458, -40.86076514140018, 21.440608064683328, -20.07515421118457, 40.83565949055958, -54.308372494793836, 28.748692230423526, -41.41120888424637, -16.35831495773363, 8.448954458600191, 19.71126562758908, 32.18139561900046, 30.267421962459565, -1.3786050798212717, -8.911939684064865, -35.336576901612155, 13.399534945103731, -30.12448388688826, 34.33051750010246, -34.75597067907153, -9.870839199843745, 25.282349128231957, 0.4476254183212436, 43.21489176816411, -70.9712255401929, 6.543370607429003, 44.67414578958566, 25.764765522573015, -13.74448430718307, 33.27803969730681, -18.825328696220943, -23.584158075892205, -6.33889337893287, 24.862661602455244, -7.489780805738406, 16.342757285387695, 20.922289447813654, 34.834493128516506, 4.358763158509446, 12.18058785283689, -48.225835654157976, -22.42801388391119, -5.96236012436975, 38.865284033809964, -0.9413391795714352, 15.929787462499185, 22.926974602166865, 2.0224208716929817, -15.555750943675628, 15.759252459968785, 0.040463781762367645, 5.380410998209881, -14.553855911396232, 2.33111116957852, -34.11280238373418, -5.134403463021117, 11.610378484970235, -10.109482035287492, 8.734752235053541, 7.433106669075747, -47.634549955948735, 25.668831866053267, -18.71277878360785, 16.644724327252913, -23.729318063985946, -54.77138570217366, -17.671499870721515, -0.1329892441160765, -12.805938700858583, -16.72487311282439, -16.266144598703242, -33.6056481684187, -13.528260678347586, 14.871139944358088, 48.037748082823825, 16.531461414556667, 3.365515799082119, -44.993389691876, 20.80657403594495, 4.3198835721807, 6.4672775947905405, 0.9329209537380412, -0.8420332581256424, -24.01612624797994, -0.2864336432909895, -24.43586996889859, 15.849500417042927, 0.2403281151866088, 55.08206957673901, 20.913570366200016, -25.37882589536525, 23.591671841309704, 1.0560015459643999, 2.3277975553819372, -27.68002217822008, 18.596773497143847, 15.785710302337307, 74.97421153331231, 3.028243139480316, -20.840947378408284, 13.677216455299085, 17.86833704471314, 14.675830095079395, -11.191500063734878, -8.152797624437586, -11.792661042828193, -29.609106794867955, 16.53356558703468, 1.4053896062343947, 32.25370736064147, -25.527251038434336, 19.541832632897872, 18.37264712164301, 32.33372033338022, -16.515464141176626, -77.53616415811054, 22.320642449893253, 14.386953252993774, -58.567858597135555, 13.354511279644365, 2.5041757709656145, 20.481490071417152, 34.21417902205682, 0.3681770541942479, -31.468706066880088, -16.21037618089899, -49.871032215697824, 19.236318841353558, 7.834500083186012, 5.705917332575859, -18.11860007845184, 26.541235570270103, 23.0271941998217, 3.7726877187871724, -13.297517526858028, -40.65549295096714, -35.42468065607662, -5.328453186285193, -30.862645165780638, -2.5299528484166736, 3.723085618967522, 8.435531859798619, -0.8394469744360785, -24.76365958468613, 4.134065693605984, -2.882104453908, 18.91721320498189, -34.928001455207436, 17.585997344189423, -7.392488158204364, -12.149550490798804, -25.29697147282997, 31.04013689893942, 3.6226193994107803, -36.80876244294705, 7.465185773104736, 6.012128811929376, -16.57670606919466, -5.389061445138442, 43.44774168442818, -29.644950852723454, -15.25652000442776, 15.15947057480964, -31.224636127832696, 42.39105433427656, -2.5322173228724987, -12.615662263165547, -15.052612270986492, 24.629560462791858, 3.017491714184396, -2.7019393402521956, -15.23305697118651, -11.000297103409043, 35.57749219526629, 44.1181937179425, -25.71902401016973, -19.713828158176206, 13.76183266562442, -15.657378144939713, 9.054812355818584, -23.468940612155066, -29.800272482249774, 14.997040293842065, 13.398647366592813, 7.468578595800913, -5.536504319787344, 37.478814866752955, -6.27890851833595, -20.89506796084502, -11.413870333580613, -36.35087954476584, -52.917986166344555, -14.257615896708263, 20.676274324153066, -9.204522658958096, -29.2383527075667, -45.961874620508326, -19.181199761364844, 5.209546267959109, 25.277535372600603, -5.234048753641695, 19.721181438895883, 34.794087404308534, 69.38255753285281, -2.4051427913194954, 21.690745176388887, -11.00004826129845, 8.718108996895186, -6.124178345196517, -2.678723320946655, -26.898309460571053, 9.653311432215759, -0.8828847075081714, 32.81730695169629, 12.829173562990402, 14.926413848179186, -39.845811588517805, -22.466257289056948, 49.11003288120949, 0.850709322886259, -4.407626442526302, -20.077287695643747, 0.7987955727600808, 12.036464070209457, -45.210581948268754, 13.037986114454817, 70.1725956530095, 11.086746245411689, 2.174647560170293, 37.43165813867228, 43.00050664265467, 0.18383752138615783, 32.71600580445994, 2.935208987901954, -13.841720163401826, -75.41517277331275, 38.04217398242905, 21.500589148562096, 5.358140196490147, -9.627910576141895, -16.795097180752705, 12.378757273060119, -11.356524991039782, 8.85894977590694, -27.323596719122296, 39.062907847910296, 3.6537367445859283, 15.275866940669895]}