{"model_name": "echo_state", "model": {"output_layers": [], "echo_state_seed": 56422, "activation": "relu", "n_readouts": 50, "n_components": 300}, "weights": [-14.718673721125592, -8.567055726015004, -1.877859494201898, 1.2491527965006357, 4.686453347675084, -0.6974711926545791, -19.091398434585216, -11.427363951794181, -18.747965036707406, -14.032232554099416, -16.84955869322264, 2.1620578974844165, 23.29797213084234, 15.448562943444157, 14.053757959255629, -19.917121311409932, 5.150893622817784, 52.91935876689432, 37.2371545523267, 5.252383163287739, -24.52395972810071, -33.13565108806544, -2.4428237478791415, -2.1159408010221767, 16.2343632052386, 4.978144886089504, 37.5632936310812, 14.335523108710193, 23.447046338502346, 37.28229217452044, 10.387874167576486, -16.05059907612386, 23.32125497596286, 2.3457325760133534, -16.932748025328802, 17.21480233925201, 2.770952811508553, -5.788327824971707, -26.823992687094822, 21.56619742450246, 30.724817691717206, 19.760854023664166, 26.332294082080473, 17.200164478683913, -62.132263466732724, -8.307769780110089, -9.875284945714775, -17.609205790493807, 17.089502689317612, 16.55876245118012, -11.675355928757364, -0.8564043949180782, -18.60818031658505, 15.381272211383477, -20.157684645559044, -26.865517157827014, -15.438159406492854, 26.898887951387174, 10.471570272025936, -11.112361653163113, 18.05926531124267, -7.606875800485597, -3.2179480384195287, -3.785699810887021, -15.708686837014119, 12.673498010743335, 8.263947572002161, -25.23519189329471, -43.36309165565767, -21.064296594667454, 4.3098183260051215, -17.60608776072775, -4.992011469931786, -10.42113376055001, 14.281693513935439, -6.621654041237155, 25.282294244020505, 1.4288364767660489, 20.057011902446302, -10.538456721004962, -6.2021403729220355, 15.645559290832262, -19.592152969318445, -6.366297364879593, -3.8204666745797637, 7.7525097346246685, -7.046097050868825, 2.353025131544553, -5.6352646321908555, 8.681538367058316, 35.6425780069101, 17.244198295879556, -37.643362859535635, -33.74974773702893, -3.3484758268548407, 26.530011292225513, -4.852737148509043, 15.104627674333766, -16.606270787594983, 39.28169612314981, -18.52537008199581, 14.129763364368813, 8.943118900483524, -11.022192205835964, 14.267778561402817, 19.93569899614264, -16.975640453120292, -6.137577407527057, 30.364357661102495, -2.7935195516983864, 5.753267546760936, -21.972185921630444, -22.400510664064395, 24.0982162516745, -11.53503906317319, -8.224270404449458, -32.88690689230759, -50.737191457721046, -28.960414817590127, 13.743745262828973, -1.7482338108347633, 38.86154949616315, -14.461276146102072, -3.3108039570073027, 27.87097515990662, -10.52269259235316, 18.386304919885585, -5.7354686790294425, -22.552900420145292, 14.876317798738228, 1.3154136084056836, 11.450385687047214, 28.893992673996983, 1.1714717056074617, 12.075305166177733, -24.203998467337843, 11.610298401181183, -10.300144149104861, 25.914434987236923, 13.108239268687793, -19.52390285333596, 29.874353615872874, 6.051782291397793, 1.808915162940878, 6.085319466296857, 17.051146051928193, 2.3023104551530693, 15.212542786705281, -32.663835570435296, 11.50441309574122, 0.010142853518599892, -11.95301260038218, 4.405630931521561, 1.145825069186419, -16.27887476847468, 3.121010659239664, -13.526481222450549, -4.709583721686508, -12.93851305400236, -25.246526067814486, 34.22805935732408, -1.1493797427413108, -22.438181577721537, 20.896857876638602, 7.444130692629755, -14.733972127777845, 18.9531179293927, -12.464304530670656, -2.061071352547462, 6.753698090752975, -1.5393381581496879, 31.55875783176929, -5.934980993528167, 8.966860503378696, -5.081008422081127, 7.805292306419403, 25.77441538548741, 4.137534148799185, -35.53807058727812, 7.406168526073525, -28.36971146656386, 17.731912681975658, -5.313934323963416, 21.783396784319518, 1.3023342248184087, 6.0855137688537635, 1.025421822699462, -13.681796497930979, -37.70601247342057, -12.406162601329873, -42.68520318913451, -14.19567414438475, -13.946981210871453, 4.690694004034097, -8.429711397646294, 26.226327674142, -27.216999937446225, 9.49087221667963, -21.887809416560046, 9.841371286563747, 9.462894943436394, -1.200413861058145, -5.679796031457656, 14.8792004336114, -18.332073337975636, -3.51410263402669, -3.090642448147251, 21.073281663612235, -20.855728873950298, -22.90034411554306, -19.083091767882156, -6.512878120731506, 29.140996339068504, 13.967153110561533, -3.190461693342905, -24.071627199301652, 23.662859918306253, -15.184174668057894, -13.056285178663419, -11.333905010303523, 33.83295252786366, 5.568251281803402, 15.853179816851846, -17.655201066116593, -22.561023865190787, -35.030890728965154, -8.53070749416753, -32.190076596509684, 18.501485345130636, 30.047853918193354, -10.46717608933395, -10.658035144554933, -13.050545871095323, -16.094650083997486, 24.42302737397987, -10.276729993382814, 6.317315622855881, -5.201698295796499, 17.838677371776157, -0.18414922245472898, 8.482055312578266, 2.069263256955899, -7.041772958550787, 31.86703007011365, -18.835568638926027, 4.1099920381769754, 21.43431080415677, -46.44942714864322, 7.0345094327650015, 27.880173293447164, 38.25172896022203, 11.741835116338171, -1.4946068951231086, 18.735279316224005, 8.6734367280643, 1.1577307339912202, 5.7211971445926615, -6.876494674475007, 0.8847560643446992, -10.931799572059445, 0.740546145332399, 17.27376270670952, 18.211467778091965, 23.587241495152913, 27.294576071334255, -6.264338823984778, -8.51424703298081, -24.82183517204594, -5.40393793487117, 13.132687336683784, 6.920054569161917, 16.986567409138676, -13.19093349887067, -10.152147362380749, -0.9793615809796696, 27.417949149105777, 23.091733983177615, -14.666511959164747, -15.42929499850769, -3.9477888961162133, -13.148680450902607, 9.25327956787393, -2.3655928099061745, 6.279751249896565, -4.556769959866453, 38.1946443240159, -8.17976798972649, 19.004631344479808, 39.577064094121496, -1.2155298270731105, -8.6860559932596, -1.5473037656771425, -5.5961977184057705, -0.6102946052367737, -35.23025289048324, 16.55539916032923, -2.1646440631674775, 5.615897849557344, -6.898862441728543, -15.524661562073662, 14.818974072604183, 12.607773253928965, 13.913171871003264, -34.622976016082035, -0.4690085654935694, 7.967727391572478, 9.662596940535842, 7.956638752079745, 23.450303736153376, 12.114361279381507, 3.0792971284174158, 2.487110562851072, 13.34017004856014, 20.636136680391296, 10.64341090135585, 10.05720904455387, -1.318363175758475, 4.6812084941003755, -0.35314125489129733, -18.390215525613698, 4.768643676077928, -38.02187434204295, -65.14091327106163, -31.82035413054774, -24.712890546824976, -6.416268445939141, -9.094308216355873, 12.98659432627085, 41.431306069981375, -18.670821121038973, -21.713364501889874, -32.12988120941149, 5.625476008124366, -6.886095361248568, 7.622557690708937, -28.045674145925947, -10.257981110156845, -22.0744726741056, -34.21421262475614, -12.525610983184135, 28.4800723535349, 14.34223190338534, -17.200918289417707, -5.917803672252513, -13.00747624233632, -0.9506546974618363, 6.305901332388683, -22.890954389234913, 20.98604637519281, 6.310764469193979, 1.5923156389701072, 10.12967921805444, -6.730868575237113, -6.176749391721774, -12.455407153412228, 0.894551327445102, 7.278824341093514, 15.770343746175245, 8.060290437591398, -12.657111259750067, 11.62524606186191, -0.4434803657269274, 13.91154654312718, -17.54202536940614, 17.12350362853585, -2.89329177133916, -14.453064540216996, -6.708498248245413, 4.463265704691138, 26.539843301767846, -4.047256931601379, -16.637988318247462, -12.551163996404492, -13.901654561939221, 10.82868806248474, -26.2899393788536, 13.313596829775898, 34.16715112684719, 21.31763639827092, -16.36696432027635, -17.535871424822272, 20.51620147940215, -17.55410333000394, 19.0395672243401, 14.212353574222751, -22.739486736011735, 7.7684469293205325, -31.973834947731444, 35.879297147245175, 13.71514746979207, -28.80023705524883, -3.5880892182781254, 25.291186290512115, 10.301045449683533, 11.843190027795984, -2.5532069560664326, -12.766800176372989, 10.319149235201277, -42.393739532941666, 2.1912063632945404, 18.28235619470054, -2.885215163801006, 13.719270369149605, -14.021860382661817, 29.781141549240445, -2.0877373572280087, -4.433311325206975, 20.37735500728185, 28.58257937276636, 33.53511191183684, 13.758349300142559, -9.910342406636742, -9.36435859092998, -10.565894393126548, 1.6613502293102203, 33.32001163236198, -5.826259622108847, -1.2423934684507847, 14.488806094681383, 26.26045657476282, -13.461776085098858, 5.863284731916084, 1.327208990318152, -18.03541411440365, 5.051528580856749, -25.684583118016914, 8.979274530053823, 47.5427966702033, -37.58291739626126, -0.5940794887898457, -16.9339420825683, -19.10621424166213, 5.202055230731444, 35.90110658234013, 0.06608979393136483, -37.12706187574368, 26.23588982143196, 24.38316464462498, -22.16518448403345, 35.968014886514595, -12.659913325017436, -0.25033061188882577, 48.41727508789574, -1.657202680720573, -17.004786991167215, 18.43978632407733, 11.933747147616856, 0.994465796639395, -8.7822465435082, -2.7850240700332636, 17.834171117080103, 4.65518429059556, 15.44319995015012, -18.041899917140704, 35.981505386374806, 8.003772361324954, 25.27856707919747, -13.735050814897384, 1.930168551984392, 28.980643029184776, 5.819264985318783, -12.054010979581342, -7.081316920532181, -16.101562227408625, -14.55912152664069, -18.948978553568192, -3.597099399492107, -20.41990132122727, -22.425141693377334, -9.98833230129484, 17.99094407848762, -20.29994873016922, -28.358306519897805, 12.879337145589403, -11.718158859095714, -18.915150244399207, -1.4651132337780783, -7.892627549989651, -16.072886625801104, -11.124507253815672, -2.4516301605495574, 46.349213195072586, -21.434921037678226, -12.902434689543826, -1.5264709633829097, 29.72469578905616, -8.588812971968267, 20.2783250585975, 9.492135605541442, 0.17942941111960975, 7.130973461156264, -20.957532186651164, -16.492340427604322, 1.6187949145219398, 6.232203863264429, 6.783253913519709, -28.9210643939659, 3.795152045636131, -12.729302689845328, 22.40681833706424, 31.56369341750838, -0.6328912536479916, -13.902635732199258, -13.725737802853299, 9.625972914012197, -8.95982268809362, 42.58759526576951, 1.8270007551184244, -7.178732107556506, -33.1132748309969, 2.7149002343594226, 11.999157099005604, 10.816746432017323, -33.47519286235147, 10.595419448899207, 30.71783033918298, -20.73265078786304, -20.4115341551002, 12.705342907897153, 26.146859880503225, 18.013627015238, 31.16813315120817, -0.6697796211879954, 6.475639309974756, 20.757650138747255, -0.3533497758560369, -28.504499628936717, 4.42658036509334, -2.699980748805593, -20.15743590441103, -5.548430259868806, -7.1077182285482845, -22.576321906350568, 19.585569567004832, -23.90183963281465, -19.6635798610707, -15.94623978721824, -26.14791456029564, -16.389793006785236, -31.340309934380706, 2.5221391375794777, -0.8419646226961781, 0.5588000561342321, -6.89473782085, -11.89857719378287, -31.694670672323273, -36.68550720744644, 10.853754906179084, 25.431130489233226, -10.92116179089393, -0.4883785392492537, 30.864511803286412, 28.251303846546005, 33.52917969401768, -23.96297876306549, 6.023203924071032, 16.384820241074348, 19.982290509677863, -11.83790885669541, -2.17387550509614, 23.6812319085501, 7.055153247022956, 2.0406047897415442, -7.393324391664344, 19.903209859559272, -10.492129612670357, -0.17235090553541732, -25.581784201145144, 20.278389994007963, -14.592364612774357, 11.352604700722326, -0.09710756432240242, 0.43672465786434994, 17.948160386490382, -28.553133124968554, -21.21408940010075, -3.6680871399046238, 34.664939845446185, -0.43658194707915676, -4.737577570795659, 2.8010913761865126, -19.15532576516131, 24.616193536068582, -11.290565022332434, -18.767348820382157, -28.943427507236084, -9.445256185977561, 12.568547257790248, -2.2325961949355126, 39.694099924197104, -8.903583178830894, 2.7095615865759695, -1.2156993100325686, 20.21337774259187, -50.139555061742115, 4.027854388319489, 12.900292764864645, -37.32565763872184, -3.0907620122665174, 0.06153284701059469, -4.67031690192316, 21.405392456150572, 4.434650380638563, -12.085022882947447, -26.284811083052684, 25.959784584510654, 7.07747314351999, 6.257457881758751, -1.8922791234899363, 1.3694695941259443, 18.86035538090527, 14.866478508690841, 12.207493992104082, -1.9558286236431481, 3.1713658536844878, -13.912805345717127, -42.61468084419637, -25.706852342930834, -3.5922855624549666, -0.8994881417924081, -13.741898388086078, -1.1794298300495631, -11.083202528830551, -7.598383727208367, -35.689493539901335, 30.10639469163432, -9.68654194743743, -32.654717525430435, -35.36661467781999, -3.070342041750473, -19.325555355282674, -0.28628199384367203, 10.419741785494622, 0.8844844396023994, 5.176019118529067, 3.9963264063093487, 14.149872343850074, -11.687890808711126, -22.950988384929822, 40.6765845844992, -5.9787670240568795, 12.275274442858814, -24.739226409205298, -0.07248614180497226, 14.338759242853623, 17.840423617131247, -10.320333019923764, -17.527145937226166, -28.12086628085827, -7.260861247212172, -9.53375490671943, -17.03941008584965, 14.73150320593944, -19.502189890260727, 7.374877514453648, 9.121330346935633, -26.843082350991846, -17.550252741313688, -1.9874921664519167, 1.2105674653453458, -10.906022035451663, -22.915959184896035, 7.003403070382188, 18.89798979745791, -17.11835425202476, 24.721388679008985, 4.53858302604112, 4.88189013041682, 15.089770084561392, -14.258852733088403, -32.52847266990027, 7.116722237899302, 41.97312089889037, -23.312863199014117, -34.15988641002667, -1.2608997908865525, 10.559760853406164, -3.8349721867064517, -2.9291762242866852, 8.174137893554697, 12.465564741009155, 5.667802690490928, -18.19737972209045, 35.37578907361312, 1.7508658734238747, -0.3871212518762066, -26.47897881762226, -4.223623718074999, 9.805680231995913, 16.409219307058947, 19.009291176461456, 1.23682850932062, -10.662650793783392, -6.935967984493071, -45.487122738627974, 4.94665001583336, 20.029996919505166, 3.8122355945002617, 28.82296512014942, -32.625622228318065, 8.583812776796503, -19.35441218660388, 27.29754109286926, 47.859752195392005, 3.043969662607198, -30.586258903213533, 3.493707877583141, -7.754565588580973, 11.354477630752804, -19.46836779381017, -4.482437599737763, -12.869099764306558, 5.671062451616425, 16.222872118100828, 8.785919789319184, -28.36344060858397, 5.001161943345701, -9.053176005079155, 22.45976188051808, -19.22853678920412, -46.3648191630665, -5.192484228707024, -11.80121736348236, -15.996483638994615, 12.069133677146652, -10.986460074504725, 0.8484391225865018, 27.481386687289177, 5.233979809369665, 4.083287943672773, -7.978248227582734, 6.6054299718827405, -19.538482543839628, -0.8701670806636965, 6.52765076731506, -47.9312468292401, 2.145834080217127, 5.468941142394919, 6.216656279796294, 18.083806659242473, 4.01284907578415, -26.6833148024804, 17.16281060856753, 9.22183580559668, -12.266916967678018, -19.380640376067685, -0.14945842038040968, 13.127153893167984, 5.826799795618332, 28.690266513437212, -2.0401687157346036, -12.370258021072049, 20.426291937129797, 26.61725049734807, 2.469912252537253, -3.3364249599212275, 32.1540233056796, 9.276186283613278, -12.608560456744062, 4.352192710214338, -4.692335427344294, 1.2244585030632553, 4.515256719592863, 16.123916275020335, 24.926078693691576, -24.622442103723927, -5.635373696554947, 11.959314256228293, 25.68538532775188, 15.739233835818364, -17.288372871662904, -28.095518993111984, -3.019962943206111, -23.836522373969835, 19.376864791443943, -41.40187040421049, 0.7239943715337311, -4.983324016653342, 7.1712312290943006, 7.469314322656436, -27.110161665510415, 16.709442096783874, 0.8711491028553473, 10.457559039647874, -11.390942774843559, 15.967377512269266, 27.519754584348167, -13.147090256055154, -8.611888521860452, 2.396892155168723, 11.881997412437986, -16.363567816698016, 28.102786236726068, 2.826693469845792, -27.478856045499167, -11.618100194697243, -27.859436770003988, 6.6506278396503316, 37.26785648295894, 11.880685329370488, 7.405275790912991, -40.46226666718581, -21.093833556707274, 17.6846969184087, -8.679828667262049, -1.0416076814924624, -12.192977005463643, -9.633068481470337, 11.236379886877913, 17.71916978375897, -40.53040490743047, -21.602766305258935, 10.795602899278652, -28.268588334983097, -14.90892726497045, 31.46452411530195, 8.292493135177327, -10.932228056977642, 19.156093601572216, -15.100565570654464, -10.615083647436737, 14.222417380955003, 11.078774020938805, 13.741824849024724, 12.381125883030116, 3.4385357421869767, -27.428195615348162, 17.878137970403355, -9.950774637852506, -31.652870221407092, -13.850804378733498, 5.028125763652573, 12.0349844115848, 12.681374117074478, 1.676861683978065, -3.26614615894525, 5.872365682747396, 32.74594644643687, -9.843197408607018, -2.2752716180829298, 0.3665654981376316, 7.807668808360323, 16.40344982483107, -6.514599305388126, -5.595831128203502, -9.267847785675036, -14.433371578108037, -14.673828648821068, 30.69849937305526, 26.47383856253459, 0.6950004356685122, -20.992993231458364, 10.461366222091014, 12.586514515600912, 22.220794076653146, -6.779251150383043, -25.102030326978536, 19.380446047861593, -3.4436694389727083, 44.61866814054976, -4.118299963398684, 9.984802519299985, -4.460930506894775, -8.101892222137309, -65.95980338615485, -27.4435230567422, 8.286057510718985, 14.902395922342048, 23.50276456025251, 24.486685911175137, 26.011005082744173, -9.50033070425018, -4.822143505003254, 7.39186952241988, -34.022062798384695, -11.477137192685325, 4.1378280587289185, 0.5334791986097049, 0.5164494978383085, -7.787315593380423, 24.837887488624595, 19.835367650780842, -8.000686724125915, 20.897036671097112, 1.2619479408749927, -9.427199627757817, -13.760075053502804, 14.276346096712887, 5.54815388843647, -15.484071437912522, 17.943211327257867, -5.432785148725415, 18.4327743127495, 22.839583339705328, -18.24066938290997, -15.100495540441765, -32.313103611035444, -0.8841364564254248, -0.7412970042149616, 0.8103414251978185, 8.173919813844917, 5.415377213931232, 8.287118822896414, 24.410786131005906, -21.624004641801253, 8.750580862759286, -9.072118628765566, -10.386957936334841, 6.319725915358441, -16.947685082248263, -9.035836268467905, -35.64029685899606, -33.45339320242626, -10.397587119347582, 24.815561286415395, 14.591502458664088, -7.47281235809195, -34.470853895022145, 20.192946838970336, -17.468152158640468, 18.094845240320986, 12.786026459255538, 34.806999860425364, -18.920903370395344, -1.3998709186788467, 9.04748737225425, 5.071050499362951, 8.52966184655317, -24.562625326325602, -28.111009686621784, 16.702712849819804, -24.66541267692339, -3.0546730642610607, -21.581004934417052, -1.4646969967931884, 2.9478171481678235, -33.21280755532782, -0.10283767022171642, -30.300105485646498, -11.891768555775107, 13.097752901040664, -19.622831725363856, 29.186571455675764, 18.79778392080925, 24.773218136289433, -6.015094927583435, -2.9954274063058426, -5.471105486213865, -16.872225797650664, 27.35957913586925, 0.8829360039550247, -25.853882877493085, -1.335536392724288, 6.047557824801564, 18.952047487555397, 10.651753342207783, -7.22820324014199, 2.479637105032392, -0.32132703391313244, 22.540027226388666, -5.387774808045359, -12.896998953852528, 9.134914833907938, -29.171357044442235, 11.358380229073191, -7.271482446813861, -7.442095606404312, 12.308740728139115, -34.754089253700144, 3.9016746294690146, 25.59105671572004, -3.569151147736356, -0.614350844607461, -24.876812644092123, -18.28963179508374, 29.918244176815683, -8.936531400884192, 13.43980503859338, 29.873546230024196, -2.813019275320313, 9.36476439479923, 9.811021382840213, -17.573423045076204, 4.380215549750068, -3.2232636132823966, -12.59165763177118, 24.68272432798503, 18.932308715222838, -7.964585170292302, 0.4650058336831464, 2.2447666751435538, -25.570720604716637, 9.089965084867305, -9.243920006336147, -18.51027518441068, 28.39174756059144, -3.60658520617644, 6.277151221109715, -19.24526133346204, 30.614865205293995, -17.335470215361937, -30.89473814945491, -29.954690858921282, 5.939080584831831, 5.564796247279267, -9.866238845517051, -5.6038902750256705, -7.001349010672206, -22.629702643449235, 24.32840943789117, 0.8466554326436275, 12.756440660646868, -5.602616146297215, -10.907373885214238, -3.3612086977823035, -24.870667331157634, 17.34966789546829, 36.23162597244964, 25.364378919345004, -22.957282676745074, -15.561199398718117, 0.12805234672759114, -18.20251788696717, -14.0296057171961, -12.289885485616427, -0.8026215334184539, -2.01134979825687, -14.714993538562167, -18.68559985461271, -26.961436467440492, 7.717867057360703, 25.468569559792563, 27.194897223978302, 30.268544710812126, 6.184987217571826, 39.54548851711571, -2.915493236346612, -23.603410168419675, 10.624060763959362, 5.757874486271637, 7.24217159965454, 2.816308987316068, 18.76843888567115, -17.756678301724456, 13.081283470978525, 24.825347562561255, 3.357237695651535, -2.5716578524531433, -28.68730080766188, -3.307426745952907, -11.031787290918807, -27.44108857244819, -19.638245523783578, -2.704887485370186, -15.133812660053668, 4.1067147809932845, 13.085425799959152, 9.113144786986323, 30.909411217362948, -8.639539124354872, 28.53795132469745, -19.618147736717102, 15.236496647485207, -35.86390468898788, -6.821523417327774, 30.097920583939896, 15.234704822584597, -15.079252844778026, -12.334090920944792, 16.182623495111393, 6.814068075573694, -18.98968623680848, 14.590135169003997, -7.660925433778496, -12.446453044773918, -30.597170509284034, -3.37065241741817, -35.345288244819066, -0.5972328575778096, 18.20825115230619, -25.99920453850375, 3.1082578499518374, -10.016544857078667, 12.355519209180478, -3.460794236762913, -12.763741242107809, 12.310289251769959, 26.72455820856632, 8.870713649053078, 18.73432067411319, 30.993185529801593, 0.022599229643158747, 8.781183412435016, 26.889968024559614, 37.3066076088822, -14.535993099468435, -10.177022765560814, -10.391494822088333, 1.682998094270455, 27.639207339019652, 14.68415912876595, -14.095637002121993, -12.15485614831933, -34.200715625999074, 6.776376406170771, -8.98510827310649, 5.938865150953992, 0.9158851569843733, 14.957087124292286, 25.442392352708858, -32.81553415019508, -7.833625638281259, -4.979241075265694, 27.1494641538655, 15.146515931721128, -5.7949784201277375, 20.523191679989285, -20.950332296817844, -3.2277778531648558, -18.636595017714946, 31.475113436313343, -21.645577514553676, -7.046653703358796, -20.71987117430507, -14.325153971927628, -13.735950795522736, -29.223751484137754, -24.186425993412563, -19.014439122821113, 19.750680972312882, -10.0693995067219, 16.011575858591925, 25.015369385285098, -10.118899988916016, 18.578147656631163, 9.106181421815823, -9.214563319595635, -25.882477792009205, 0.6865948646215618, -27.018285395577298, -9.681914603828396, -22.103159369052392, 3.686212976251908, 2.882055020710136, 15.409452066647155, -2.444147601093192, -2.5472212088135633, 30.570972180355543, 13.837300343040823, 11.856342755583245, -19.82339206935562, 20.17453607010282, -5.030226690856158, -20.52157192985655, -5.824026563014819, -9.220247412115318, -12.998579589285212, -38.36200440676194, 13.45482707085435, -20.30399239563648, 2.136152181610213, 48.02436513524723, -24.882692419963163, -4.723036002475446, -9.04887525614722, 7.54484784303943, -14.538521817679225, -28.26441656510102, -8.53087541890661, -2.4554537901734053, -9.914101570045148, 18.65969465108124, -5.828909810258759, 43.94448280677825, 47.594817119932024, -9.950015260973945, 44.20392649234719, 11.242998546897853, 11.916543995979204, -11.287741121573239, 6.308350723489659, 34.6661088617973, 7.091007662612911, 14.501165311673383, 22.963189141482946, -1.040647463161029, 11.490477172001338, -24.000312268132852, 42.817787148455515, 4.1392389226477935, 12.256032582660012, -9.97897025005787, 21.157830270424387, 9.311251880241079, -9.732352051457575, 20.56568478432563, 13.271741882350515, 3.2263725399989904, -4.284458091333024, -17.270890367908567, 19.53354881330302, -27.242577235562567, -9.740489118502008, -9.312579274291666, 16.81076767261827, 3.159197965845116, -1.0447469076585727, -1.9181518520275782, -23.935128873887002, 15.483611352102608, -11.582285948213721, -23.65428724429396, 8.237509419366202, -25.135908539763232, 16.713285423670726, 17.096922628745116, 14.967197552727132, -8.388526134348195, -25.80173094791505, -34.53741108604477, -6.337949427024069, 6.0592572538695215, 14.926519710824433, 7.4551034955279825, -23.894228586536165, 12.001437244114902, -14.434521000616076, 31.320954972367915, 5.743037287981368, -1.8463429144825674, -11.637013271726723, -0.05902826926363014, 18.663214991198757, -9.016595290589715, -13.640051385178756, 19.453910898165223, -24.390316212564862, 2.79895864496685, 16.076567663503667, -9.888144286662357, 12.313044186442333, 11.699602606194691, 20.81875331961527, -3.5080319772850537, -12.30017892952492, 5.893404848526642, -24.56192664061212, 1.1434345710504243, -5.204233082935175, 7.843137150377624, 10.471204870851654, -28.425737018886693, 25.8731719533719, -33.989184719354306, 49.82986382424969, -4.7432586001359685, -17.980301468268532, 24.886478459483534, -18.871907470989015, 10.328557932713288, 5.251183511682969, -8.0599510510444, 14.320244978202803, 10.801914529262246, 7.1621887848835115, -2.3114358124953536, -8.223856059466172, -6.763607055826009, 5.129224434095432, 3.674926051729803, 21.444273527515502, 30.921146997157333, -10.076333925800842, 36.89535692298982, 8.242728451215845, -13.2625556618354, 3.8286196808797515, 21.022792255533176, 31.64502979918675, 23.561540881909654, -28.50828647575468, -0.8891654001431817, 2.641033296335591, -12.677554949907535, 24.313462326355154, -16.704064360024272, -7.281876756621142, 41.12390486286102, -11.087677557995363, 19.187461016624944, -11.224707707062478, 30.298059980584043, 23.90363231651491, 8.596427300538846, 5.405245492782106, -16.511868839890976, 9.084320334954807, 19.061107850755747, -31.13555949722374, 30.557549552974233, -14.684196349593364, 39.85192431159214, -46.1365902128518, 23.897740366338525, -23.957295123043632, 7.908340194969801, 18.64715135076328, 24.50827223082966, -1.818427703613212, -24.598795211249207, 39.10232142867965, 15.1691623553583, -0.520634372278387, 15.673128502616617, 4.635689737166064, -10.901446436083393, 19.166199629877646, -1.0867818964452605, 2.1113954201661285, 9.507788758330452, -4.338702889822081, 6.00554150285788, 6.660509412401641, 12.151092371207906, 38.80730705513178, 15.097407500837456, 2.8154148953183222, 8.264955511625475, -31.722432439574828, 5.371265628748925, 14.906401318016302, 5.696304086214575, -5.780464572500389, -1.9651811183747554, -10.947852595101377, 8.862375980519523, 22.35603305191824, -26.356343211157107, 8.317538653889454, -0.4900251060359917, -18.96562247081345, -6.543889524131416, 10.64027547796792, 12.433222850464666, -32.907565740055325, -4.414423529242102, -1.0288954610685161, 1.781706223916346, -6.1258901066750955, -0.6707330720418256, 14.521486429962028, 29.417944078955614, -2.4739582658741606, 3.056113752609217, -26.917614749658288, 13.028835585085465, 23.12873315601195, 8.47392629203534, 0.19621999457687966, -39.05926068500152, -32.74254089042626, -6.4433013851099625, -5.707392006874612, -34.118309204730714, -19.0529967058022, 14.202985737943118, 35.29929271574947, -15.218886232030806, -9.558996207859403, 34.69094612160878, -1.788861527178414, 24.05468032198919, -9.260565017813036, 7.556481709056554, -22.097709324707925, -9.492415200046247, -16.680139574775044, -22.832458809794336, 8.782366806821836, 13.159953004037678, 17.32591761037008, -3.5165789696140606, -26.83720359296191, -18.864320193761152, 11.449139618159789, -3.953388664481847, 25.86311582110885, 21.31847831650286, 49.387494165796696, 8.343246176093775, 7.534730548787733, 3.5369424904407643, 1.4606714772291003, -13.814660716519805, -0.901621992229753, -18.474458290336923, -13.446927883024099, -10.489506972644493, 10.2808277548611, -6.629642795789778, 14.868885220947735, 34.21389596876634, -4.588611687288927, -8.785271958933873, 6.864273469318406, 8.603987365701833, 16.61833057707422, -17.253630837098132, -21.57837568836804, -1.8005095733775778, -18.383466569961485, 16.56904246013343, 17.463644041167985, 25.180327771051424, -21.85049281966198, 18.47259942397774, -20.93985406543753, 30.26578634136853, -12.371800566204453, -21.16540576207806, 2.6870624181479, 15.384545262896166, -16.698588452045897, 6.573230974614103, -2.534329192722306, 1.3966189900853645, 28.94144705887619, -18.293938208331014, -7.571675723323411, 24.64882437643745, 1.0191387195256223, 12.049574339508158, 30.35839195087021, -7.737873672432961, -5.033869479169114, -42.06705594644235, -33.76733211948188, 21.69058315198392, 14.617565544773095, -5.469200778460284, 14.242491348685267, -30.184194747626755, -11.44987526424835, -13.473819772809122, 27.624168451252906, 27.41040649396902, 14.521396031939027, -12.80678231672453, -18.061529072557843, 2.716038855224776, 6.987161363866867, -32.52085027560177, -1.8572485599613122, 16.41239201878574, 14.954227910785495, -11.41065606642842, 27.198281901802776, -5.571775791350101, 33.58008602752814, -32.27242728568938, 3.8896276102918845, -17.335032675376986, 16.675348274435123, -12.239194888815268, -36.47400749609632, 7.232527963338111, -20.44957947922474, 17.251678686720457, -0.620457881639441, 4.340191117735385, -14.564094234384779, -38.88196732418288, 23.500060494327606, -3.1696326869585594, 4.482261076478837, 13.547624501204094, -16.398760715136167, 0.7013533858208905, 26.145114433445062, -20.60288466192791, -0.4365872879452668, 48.38150901546944, 14.000244951175441, 13.353961841791786, -5.681204614167717, -13.728959770143957, -36.85966246637346, 27.960601037656158, 7.1210036872130855, 13.41186917658587, -4.287894972495037, 0.7426809182956506, -1.1677512255472529, 21.864439125786724, 8.62607360867536, 14.819797637564685, 13.716350376940408, -14.046306171820248, -8.789397081501818, -3.8706766629725333, -10.994330603368164, -10.008988531194701, 3.306956633753831, 38.3356744218011, -7.70587019705253, -22.781933760075372, 19.046988648099223, 2.943080797579675, -20.412321009276138, -21.576396832028742, -11.403479639597242, 17.742021571915753, 4.823365673446239, 10.897623950072823, 8.176124494204819, -15.052274216491597, -3.667469715846948, -5.612070074296314, -4.951254326783415, -8.567707142099348, 49.509636178246396, 18.308316076709282, 14.146830790744009, 17.2821193004366, 20.063138530300073, 7.610436663860325, 27.403524441493467, -24.254679129145465, -8.378597008340261, -11.342112825036189, 25.293504270464794, -15.557785309208919, -28.29549041863209, -11.020718860577709, -6.291366833428089, -44.02975613626204, -13.254939955538202, 7.379897738323187, -10.147575991522666, 6.959475633088836, -3.1572317413496735, -9.227791071629706, 1.0148512566276267, -10.465880116046495, -18.38751835057353, 41.46666278174853, 13.321827098564423, 23.756695381210633, 15.070597475064648, 7.546828990313083, -7.239865115959085, -3.597055888364214, -2.7032818217657244, 25.233533258193642, -27.811244651841555, -34.49693265884848, -16.628764612859833, -31.302659681979648, -10.482369799086433, 2.769732289420908, 25.07215186429569, 13.799070962628319, -40.07434696097667, -41.42959849840137, -19.31126191628212, 18.614418285687986, -9.77593342313715, -15.92811821075583, 4.674278435437699, -49.583108414541655, -2.25869471293894, -47.70877854923118, -36.43151027437383, 9.547897259576619, -6.292874148400713, -49.78936593850848, 24.376545186363153, 12.873007704653777, 29.56446063186855, 41.15015635510728, -10.391291529520068, 8.194397219622601, 11.1550425339167, 33.50721139375681, -13.951916086342113, -25.490008191115574, 5.486963222081849, 3.783817654473881, -15.296639305656868, -1.2504290219184986, 8.019154225768823, -26.652989930579956, -13.606091941283314, -15.47214225550335, -14.732900776161586, -12.230570875002218, 30.167850479467496, 21.173487340958523, -0.29818819138169284, 18.363664049830568, -9.07151258843417, -15.091212634937829, 3.4939590029675274, -19.784767815679185, 3.8579165307441494, 15.442637800025736, 18.131562144137906, -0.2746278355027809, -8.314439613416255, -32.507409429414885, 15.157205811846936, -19.841061246442102, 15.307882271133602, -16.83775239573277, -1.7371948158242017, 13.601592683009498, 36.11725024177033, 13.868368996261198, -21.08276832097309, -7.660149320283505, 16.62425769894373, -18.46833885673212, 20.885877200605297, 14.69753606156093, 10.746170661432114, 36.31918336328695, -9.011076542369818, -8.335759756935303, -18.31244268894434, 0.2666797738162705, -6.491517955992895, 4.058466071982712, -6.4418185637851, 26.174969735714438, -7.53940439293696, -8.017697489202481, -13.207944069249422, 31.591241200390805, -14.602401492098018, -4.76119407911613, 14.192061592544771, -5.089550359361001, -5.765906967401376, 32.66436611563173, 20.11374494403019, -15.73295396315743, 36.430002633496144, -14.602735906854559, 19.5625403420859, -16.898583397052256, 18.27883165172064, -15.883378994241628, 1.258368075749626, -27.53718404922922, -6.4899627571454905, -3.032423951980234, 21.940676575859086, 9.03077606207245, -19.64974990539194, -0.33074807992220245, 17.5506764896512, -34.24781219768407, 0.15596144135311585, -0.2006100013559693, -15.76026047575158, 10.598186592599815, -9.356856976874138, -0.9346185382852488, 6.46637534878119, -4.177641074583519, -14.328768766463451, -31.53783238436966, 6.3739914315659885, -15.1850776217667, -28.737946719243293, 9.818109139981512, 1.7018443995406192, -17.675993326384706, -8.689606848500242, -11.181604514693056, 14.672612967276326, -16.037036051233205, 16.13408153924018, 0.8608733153024248, -12.4844730663823, 63.985979991562004, 26.44686404263344, -21.758830912426703, -30.26970605604256, 9.530554357115353, -27.60542709542928, 11.893654605175472, -3.5594609134094295, 19.90538724164309, 16.698007370700644, -12.224056451431693, 17.374311132250273, -25.83526279870472, 4.412710523277058, 13.051153628479959, -6.6411813444001275, 25.979254721988823, 3.9208718041925605, -1.94183171542806, -9.022601807373587, -15.54103906463618, -5.349202248970178, -28.228014199510582, -11.488275748281694, 19.975141152831338, 15.61378204458504, -31.111068966140284, 18.927129217066515, 17.412576225777627, -8.150405019340102, -11.231866670589449, 30.962618244578117, -31.447099639583612, 2.1361061421553513, 25.409053536426775, -28.615546706352365, -3.132503662280163, 15.828521683498336, -9.892388045409788, -17.71355164464656, 17.608495567703173, -20.281971076969718, -26.077020252057572, -1.359788709890981, -1.7856291607727597, 32.27777329197261, -17.53467173220512, 9.753098729677028, -1.0939253812666845, -6.184049781624744, -17.29410152407488, 4.648806953880132, -13.842851590179109, -3.8965838850957324, -22.644349210230395, -10.490849793075057, 13.724753401484417, 17.723092384808485, -20.63280104151817, 14.061981620058019, -15.77548450824567, 22.563943091991845, -2.7879989839355064, -0.255714314958146, -27.727609314669493, -6.658754778808131, 18.088596272667235, -5.7369686351253435, 7.0114531727681335, 38.01424321391168, -2.490021611283411, 3.0713010197647317, 8.578626954987254, -6.175050672736937, 17.901576412876782, 1.080333524733866, 48.43145708202118, -28.77158550815118, -27.4090123672412, 1.0327210942656917, -8.504571037149477, 25.19563285509735, 31.102494123078756, 1.1369104015819342, 29.906925095823247, -13.552499145794968, 10.234648204533935, -3.365968891256029, -19.201494619340455, -2.577438652558593, -14.844410298394049, -20.129068452362436, 26.617342655101666, -24.286166588174137, 18.66794525860279, -10.275080569788964, 7.439694156946208, 5.436560367309522, -36.9957535201186, 19.355938739432197, -17.29847765721874, -17.768016550518112, 9.704222534363074, 12.15393829268178, -10.448235671825474, -6.894686390414389, 6.541947970397271, -12.375843910816872, 4.654530398642741, 4.262228541848938, 19.444404982657364, -25.354562072256808, -18.598054471756246, -26.290897136343638, 27.048395460735605, -8.304535488260386, 0.3078810707037578, -19.044498310178856, 10.446113994820296, 9.213845394453157, 15.34951564300015, 6.538112879935056, -18.80528627043327, 5.681304456576522, 0.7550802856122458, 15.715689961346603, 4.663257550261431, 8.974833745039104, 19.470478583731985, -8.765441125385603, 2.4290742350196695, 35.26492476803147, -4.70345093447394, -3.3168307271404593, -25.591653172875443, -10.602532235449637, -13.831302388093075, -4.228019638716651, -1.892074194745497, 18.96483560750758, 8.231042589137603, -10.734415551997, -26.937808659478794, 25.98597407138647, 9.953320904224455, -28.158591336696233, 17.17440661942086, -11.050961622402985, -28.476587972760022, -15.444074445630601, 33.92885688082573, 39.513844706977814, -13.286769712486292, -14.906624020328053, -15.266845628353373, 4.170625821612152, 3.4999520554179595, 23.963512183681992, -2.9196609665987605, -10.691379181549195, 10.220014596025667, 4.9015719623480365, -14.749014711975045, 3.8003587875455858, 4.557426312265891, 24.323298829471945, 9.846842286097498, -4.161045284679847, -8.16970916715488, -6.0408204634935245, -10.083880754455544, 3.7985894135394123, -7.199353284233158, 3.6112793527544067, -1.6102576693952262, -5.462231189065782, 7.74379790454328, -5.1339522681502565, 3.381119813258075, 0.464821664607884, 3.4676098175912893, -10.692916577538501, 30.732654545266502, 0.7039684055543685, 39.77275090480259, 11.984333900915008, -32.13840310695858, 2.1235411682266125, 26.885166512236953, 25.149848154018652, -15.655462470658, -6.951303591543283, 20.38259521908799, -25.993207299294635, 11.695190148090356, 4.755562392242629, 12.972038949099776, 24.198710992118578, 1.9586888475332438, -26.304337012145513, -4.8813061584238495, -13.373430526263842, -6.425548854044585, -25.228288783195232, 60.303464069278206, 40.852064994642895, 13.20739013602998, -11.483937377590696, -7.029881457569587, 4.75593916675297, 11.962876306198247, 8.874400461142315, -32.45756643012217, -15.211733202913798, 27.65068048626847, -3.7394467558285367, -0.9726038477969281, 12.585386561515564, -6.944416625306025, -1.029004936331246, -4.193269878570558, 15.843936370392827, 2.0722981888854495, 7.603827123703464, -41.137699668234816, 9.345139225959862, 16.9962106743139, 1.7461810567883735, 3.0766330492555842, 26.37618380156892, -9.33224604203703, -22.41064513796428, -6.745178368291345, 7.390815852262877, -17.575589628191285, -3.3751342653928535, -20.180888152156758, -2.480424347234997, -15.968997088224908, 31.895132873983822, 11.190710119888717, 15.159156766119597, -14.605587806046254, 43.251740096056025, -10.143215009178947, -37.98636222532924, -21.950733902906034, -14.503199475007653, -25.29552334637422, 2.7228073582616776, 5.646604934936079, 40.56448144515403, 7.502592995340642, -13.558410588842285, 14.231956920190388, 18.60546284926157, -21.609813308167844, 3.5690140036052664, -0.7532690251750669, -6.252551525398016, 12.564961445337675, 1.9656602541190198, -27.54276050447087, -3.336123123988209, -8.09116441861377, -1.8185703300376597, 8.54506946840434, 34.17102864266731, -17.436461482721636, -4.40617679438401, -3.1298142436451184, 20.122095753653326, 24.064057660809283, -10.65933384025213, 20.88181866666082, 3.1261303488859085, 24.32420901278862, -17.75813561369865, -4.379308990180091, 10.46651188979134, 38.23696806053706, -3.136586737569698, -0.5963863012724213, 4.187762168094686, 13.41806614843872, -0.6108335526535935, -33.04874365357115, 43.773510590111044, -9.271253696875318, 35.350405326948334, -50.12314973357073, 7.8561139480123465, 9.77531707336312, -11.784308803367502, 34.72302951660126, 11.434851973189561, -13.593012293748794, -11.431676981879136, -6.2396700007512225, 35.8794693277515, 33.50237373362395, -20.22848082040016, -5.009508618002565, 3.9948952448200608, 10.474381528039252, 16.055304404349453, -8.804657839666302, -27.598867812010827, -24.55871258100458, -15.614901413600402, -28.103264543116236, -39.28975340571147, -0.4825695353041093, 35.297162534983485, 22.240810070005374, 16.71591542460288, 7.433780625763376, 22.750423807870913, -12.42535909185407, -22.465303512708935, -18.501376519777374, -9.175659293922696, 2.286845694112139, 4.348830978287333, 6.20037353815555, -9.701333583537966, -39.6970011225985, 8.980928279549481, 8.890991149311397, 34.65513534788147, 6.884493134317859, 3.6153554613584595, 4.710132618275753, 12.902740998798134, 3.3874827146936446, -26.598592126109537, 41.81838995694622, -4.560945620407903, 9.911494773750505, -6.621599994515417, -7.095890109192139, -2.7167984996966266, -3.8148571197568044, -28.363314238266085, 13.144031984150814, -0.7772302181556534, 17.352139286573784, -23.060082036267687, 9.200667470585378, 33.421058871546364, -13.432879485970684, 22.911365853574473, -5.50226479631546, 31.20001745524285, 5.799485657432946, 16.95734059822178, 3.743659874595237, 4.3514246119435125, 21.567575650294856, -22.91466804228455, 19.683970146739277, -11.392890090307137, 31.523192570630577, 19.57859033861159, 9.843263468688255, 28.515167497273147, 4.636807570527774, 23.221850298799495, 27.80509645096707, -41.46392574031463, 16.262552157270303, -9.102009433066014, -32.253887438528785, 18.899083310521466, -0.20514348084271816, -2.7555374858697794, 12.197228079848083, -33.355425633404714, -44.30622534253147, 4.592157980377213, -26.983148437982056, -9.47906582082697, -14.49384361627615, -20.901750355760512, 0.6490608392974568, 11.709668577121732, -7.141944242143717, -4.779368016346536, 2.098242406175934, 7.519867665719232, -16.170038722642552, -2.3965666276051203, -13.201264706356449, 2.203360694627473, -26.097522477309372, -14.527327882423677, -19.873084129176263, -16.204329626915374, -9.48494005950402, -8.043339019607615, 6.5825217846455235, 10.007402803847741, 2.9121800850860695, 25.64869316299394, 3.7318361386526577, -14.671382710933159, 5.768458810516114, -3.0321000422586746, -19.629182087789353, -7.786727862507331, -38.85122831440096, 38.633638701768504, 10.731902520276641, 11.772759863885035, 14.946944353946193, 16.917967239993573, -16.391548605149186, 16.04808563068514, -29.30197726220644, -26.2230884374842, -17.846584236435476, -17.64590456031286, 23.404555175892593, -0.06407713590939101, -13.949863873933204, 1.8241232586815284, 38.11620936702012, -23.8888657397639, 13.10119068158727, 21.207400881148757, -9.371016190695633, 23.238817103383024, -21.356283304754946, 32.06427461524702, -11.267754218675082, -7.214776531205626, -27.639271054680982, -12.94564221367537, -6.941228304395927, -2.380736621214079, -2.3078846504206787, 6.099774443235559, 0.5256118614026617, 2.1716336654090664, 23.810583533074567, 10.5819843456778, 0.26832444258104504, 1.70517400749273, -7.00007739306231, -29.426959228549276, 33.4718486966001, -25.7013950218146, 6.05758624277604, -6.373641456076916, -14.872613055851529, -4.486352293721898, 22.983688348217413, 28.4556122502761, 21.247863569129713, 12.248840319608668, 21.53855707073738, 0.27097657426513666, -44.10232500381704, -18.215570664460902, -7.333599180083779, 9.76118228856918, -0.46913811072682576, -3.1174922594806773, 6.532433191552721, 24.945377901710387, -9.795444856703607, 6.053558927198733, 26.2482273875382, 3.7014681744585287, -13.058128451478717, 29.647255175800133, -7.093035411236659, 35.14421382274702, -19.988312186655378, 3.2621561804026156, -10.997408081385316, 1.7123853629495764, -13.04763629274023, 19.921743490041077, 38.86517407719232, 8.983346406656121, 3.085210301326919, 15.689548720878152, -2.3741363394717476, -19.25837476344628, -2.307484057343199, -10.882990290447808, -9.350800435634476, 2.4257283235407785, -1.9068090124316972, -3.518623571578051, -0.7318270926143784, 8.091118455642697, 21.35023872443307, 4.073380909984144, 12.728422375784389, 2.77897838337309, 11.873815499268593, -10.3628725735216, -13.924021577767931, -5.336429788714466, -6.566355450959074, 17.320719143804737, 1.0018146970685766, 45.1094363264545, -47.34333519501771, 4.805362839212095, -7.453078354127182, 17.08131186102719, 10.620916377919867, -14.127022315248945, -4.59119641912082, -26.011412447060806, -8.097085639219909, 0.024801090225216038, -14.831312093685831, -18.601175705862186, 21.961705400241975, 5.190317810886775, 14.111803024076194, 16.513054766694573, -6.2308173632187716, -1.7803658489530378, -28.353214903885306, -5.699812784498359, 13.369327515109093, -22.472330023673127, 31.79241680295142, -25.46975814484704, -30.146294797537035, 5.319393639238096, 44.92035554978299, 23.48925584173032, -1.6326616827601512, 24.029874939224868, 1.6052275901289477, -11.505798881972941, 37.73791790658572, -8.538215079278647, -2.4370406371299937, 11.681845741758114, -15.942134853037466, -14.230563100440207, 14.28103189115968, -5.037931184857781, 27.29105528420327, 33.11570685125895, 5.980620419296416, -7.355788861503169, -4.7249506704828095, -3.0276506772493748, 1.8496326344774154, -2.4075809254941696, 3.8840153912884765, -22.399407248054537, -37.64242667192234, 7.750798431849957, 3.0505010681299236, 36.97127033517858, -11.44198298650658, 12.62086263814475, -1.4307612425614669, 9.17639575194939, 6.260391783807403, -1.9869432125182778, 15.140142421926832, -4.77830310003588, -8.58203084938676, 9.771001452418682, -23.510133688824773, -7.959444427579412, 33.021297864504334, 41.64738829263165, 13.122535202490518, 11.15200241565789, 23.326019967092662, -35.77244558685966, -21.57316517069527, 13.802463638960855, -14.845708740310224, -23.725255909029066, -7.707774972262227, 5.403089892902969, -5.477494928436806, -17.276920356344114, 28.47020542520135, -2.741642309163237, -1.6812144549819634, -11.054067053707481, 9.209630095265005, -21.204368927695462, -10.24991731389564, -0.2757724264699357, -7.523990780266964, 14.358711870449923, 7.468704900457331, -4.265326075550364, -9.694760802210395, -16.714976923536597, -4.120621227658789, 51.63114444386399, 12.100611676490217, 12.368116127145353, 29.150913707384223, 26.08659656349475, -30.473866519441476, -2.0565094825192434, 2.4881699370917856, 25.43084686931137, -7.623212462839111, 6.44127378407986, 13.150464053295806, 26.159690660814654, -16.145922310665348, -8.922824260396863, 12.651561621130114, -0.2358972982702614, -6.046574383877666, 10.992902810151792, 26.852342129308994, -32.68574903857378, -21.218780757553574, 25.774523328172126, -19.473228912149747, 10.286971602662362, -24.901936664824905, -54.85623074742417, 4.563119332273848, -12.448092156419152, -19.061308402779332, -2.989927063922125, 8.857199947643768, -4.646371051556423, -21.535142719117363, 11.523969768608993, -4.750798328094871, 34.07935588451646, 48.93873110406095, 28.739636664533315, -7.744877632340332, -8.43013640447856, 14.033450634527755, 49.46725689581021, 12.59660599335255, 0.919094360885758, 4.903413321085025, -15.017708896081718, 32.81801650632982, -31.973727303093913, 7.075193317611992, 21.97345258679383, 0.8119664590463234, 8.784040624980797, 35.95215131715791, 6.703970717212818, 19.4119712574843, -2.5627007588492337, -8.875455240696178, 9.924602151257377, 3.8267119641993994, 22.82792515496372, 18.83186647939149, 8.920565420511203, 14.201578530832446, -7.6470992816889805, 21.478463961263486, 26.145345905724835, -28.841430996127368, -8.469092987750182, -22.058698380027277, -28.983692665121097, -13.389818326810651, -34.021838864159974, -8.253528217760026, 3.9340519787481982, -20.299973514842836, 35.871266078296614, 23.496642955297908, 5.748772819753243, 33.84348304470298, 52.2240330048207, -3.1082731086465474, -13.994934778746106, 22.153358929609702, 7.483961052960863, -10.686395004146473, 4.446136643807125, -8.095968254931227, 25.78995783295602, -8.891367418276111, -39.2931701326624, -42.4444324476754, -1.9085556320413528, 29.40528274683256, 4.790255875781333, -15.831883426411538, -14.067755258527132, 12.818268834123359, -9.769042878521116, 21.206660149985296, 13.481892871165655, -26.49786307332646, 16.100296837466523, -6.686656525256133, -20.769635254929035, -13.230102666800525, 15.770915227585567, -11.989012292378067, -14.169281634828451, 9.586916003537388, -28.805231586814962, -22.31452332545568, -1.690622399255036, 11.810826380601291, -43.173126372385596, -7.143598687259935, 6.407571937484996, 10.618382869824389, 14.183120569393825, 44.98889122487751, 2.3169947359606704, -2.79220575474191, -27.656073837176802, 16.231427641417017, 9.041224484375931, 4.12028041839717, -10.241281227590864, 20.049945376924562, 17.884891725153416, -19.770803565824238, 44.130938669191835, 11.458674755143635, 11.943603433082444, 4.592672785930942, 51.067747455819045, -51.32186978677968, 11.34212244072652, 7.2426261205832905, 12.977196841444297, 11.641083047841214, -22.44860219936306, -6.1783084812169875, 7.201336116440336, 7.877986504518211, 5.113390437867986, -19.53253450908888, 12.704144895920544, 15.67084691151437, -14.178116617609314, 24.172697503448703, 13.795089792321056, 57.297187538422506, -1.814324514292566, -5.290974655918896, 0.5891248983069719, 37.26112771371769, 0.9762979079365368, 12.92164496077464, -18.537039701860117, -7.3051390413467985, 24.590571298060716, -6.000277912735634, 37.569221199648325, 13.379314447215195, 9.495516229728096, 3.4453444109608244, 0.15074461862286936, -0.5647561990305792, 1.3516463187101393, 2.86623501174024, 3.922014974672792, 5.662132563272462, 16.146605030128566, -27.477454708496946, 8.89840237279483, -8.579187370248441, 14.865772666110981, -7.02391801967607, -19.418307475090977, 9.312974463113607, -6.987392325949374, 0.44862624095930537, 16.192746656096197, 11.734018856469124, 23.75726381498442, 0.36627006732166817, 18.26478351551258, 4.37601637005011, 27.471503105053824, 10.003213130371616, 14.25323699024095, 14.374229733559387, -10.653727945802494, -11.498920828538559, -12.901728201335644, -11.781293594532384, -19.173198992815095, -14.061363696734155, -10.86980391845103, 41.345489832116044, -16.022281910951556, 15.870127309188033, 4.753132166985265, -1.8301516569637988, -21.023753346704602, -0.7274750983527728, -12.627465091305911, 23.94826030795619, -26.67839299485569, -9.95274997041454, 19.17705432283401, 12.413388113000547, -6.850021673078497, 7.248010168525282, -2.636818998157021, -7.135883804676565, 26.829063736358385, -40.34588873213543, 34.348751523477475, 11.348656118037315, 23.633024150839436, 3.813306351186006, -2.557807456698925, 1.180664193616769, -23.307273987323253, 1.109927851479036, 9.137691897052406, 21.704825893797537, -6.509148289477376, -21.995041606995855, 25.24158903754813, 31.410492251169426, -1.1026989579502793, -25.739902963769737, 1.4791443789874918, -19.762855049546967, 3.0372533221959075, 2.5818201175711595, -11.215588559413437, -24.448922428406494, -7.4637888796965655, 5.536554405808209, -0.4093142348283516, 11.855964799975556, -39.105444617971365, 10.170946646130377, 4.433791635555162, -35.619668751691606, 19.69420768880173, -4.512244341282482, -0.6087156001048428, 21.957693665467033, -45.31360329729487, 1.6996438054713847, 17.96606958595649, 7.928637034392531, -6.364049571503758, 26.811624042742785, -1.8147327696794084, -6.2711446726391324, 34.63699386148351, -31.654022840045165, 32.96143768547378, 12.135147587345967, 17.14312033798927, -6.366662829744306, 9.568730161475656, -1.6665035699216797, -13.725830190629578, -1.4029904863552751, 8.610912205249248, -15.929738247703186, -8.070405236020626, -13.48531696854672, 24.401344964005705, 26.47954694673648, 11.081346153146928, -17.57396526890379, 16.583385357104763, 14.789895694452131, -12.478521771541834, -17.204594040378968, -20.241266981380484, -3.459684281338034, 11.569556023589623, 8.83665200299793, -15.052224404593026, -3.914751793559219, 12.675353544955325, 23.950445134099066, -31.330122140346447, 19.29647013905812, 8.410494301524635, 5.293750747103049, 30.628395788416775, 12.214488383230943, -7.825579842446052, 2.3039551571818473, -16.813970127944184, 0.034168304292936824, 20.078686706375876, -0.1780852575084062, 4.315417424236856, 6.218989387909164, 1.5051636017230239, 19.118010222394357, 3.5400236077062144, -4.531284807371423, -6.55692466326901, 33.22026468766283, -10.126912669972377, -1.4175606533547473, -25.747265611782368, 7.423829476148244, -5.424251568730048, -9.815139056938392, 3.299146728244912, -11.580544082023632, -4.757537562406883, -2.2948244902029815, 29.82247134436752, -5.332792137755453, 2.370658308191855, -42.18419970248682, -9.72264728905427, 28.823746179104933, -13.420010587890996, -2.3821401917688454, 0.5358158874139116, -2.718967864126934, 15.31642437083543, -7.309579318497463, 16.054335330217665, -4.06602413365248, -11.46041309168811, -14.161429306689222, 25.20636250918467, 7.739338235535764, 31.053238850747793, 5.943135121064776, 32.5052652562736, -15.286693509087534, 11.707311743416009, -7.104445867918844, 3.8238283336482044, -15.676616837462596, -4.64615551377123, -1.5327890389598338, -12.860153849845505, -31.911488235377934, 13.722354150112341, -38.242245975451866, 1.9083047454122521, -14.886619051080748, -0.34324509479967596, -23.195342550370334, 27.290854430828034, -4.4920219488605575, 17.400969841830474, -6.4220761465516985, 2.4739453224485803, 9.19766071376089, -17.32789966571626, -32.316553046100964, -19.753559832313034, -5.165841216759639, 0.31203769983493634, -3.0230326155682805, 11.47176106684628, -5.984907426081395, -20.690222015237296, 8.61897130645432, -3.7428145717886743, 33.73323853760573, 23.016151436708867, 13.528658631445364, 11.432019520377388, 1.5545576887687558, -1.8202279064314828, -5.907637745767898, -14.698724346680635, -13.630094964843327, -10.040097313493945, 16.547304469919425, 14.609430666948263, 29.99779227484478, -7.733582192352059, 6.863281032094293, -21.08581243933244, -17.19520224414683, 8.087775509423263, 5.4187871848274245, 3.7560797083452613, -11.089951246918748, -30.628465324984358, -10.07850030487158, 25.811743643373106, 4.830660990581043, -5.435466615956724, -9.177058780713008, -13.034582792944493, -17.45625776751467, -5.6506358845285165, -46.76342232271414, -13.788293428476823, -10.975259098369417, 17.11364556607175, 9.226322617979585, 37.46701481090498, 8.91176146595835, -20.39195684145897, -1.509073607272447, 40.51142424218659, -9.317413291987936, -23.016991151235693, -54.631183674705426, 8.206238236203111, 8.063658585916626, 22.941300008415322, -24.019739129850706, 18.87861343373783, 20.57818869775436, 25.130964586278928, -8.569509103727007, -4.332329506137925, 18.153297344688564, -25.046459519779187, -19.846202939510498, -12.051424899447245, -22.11289763579446, -13.685167446204042, -15.39382535647055, 23.736402260858757, -10.030140788532314, 30.872869458770456, -10.251032855138275, -24.709450902975846, -9.144939752968837, 13.65426618072605, 1.3177419069134904, -0.31376753828891735, 9.972259312266774, -21.163368207427762, 37.25110219202608, -12.835787693844464, -9.347328536191645, -25.380852608880833, -27.122792861292698, -30.68044346101765, -8.708570976815029, -8.159623416741022, 7.53199590165839, -13.07374960929107, 18.768461296564677, -8.937927018438783, 24.59901849876096, -3.5415670582830225, -20.190734615599553, -8.763290629679767, 25.804919259323807, -19.623983350273015, -19.726138482683215, 2.7150854776809306, -41.5874927909566, -13.566509756440823, -36.43261683180968, -25.151458287099988, 10.489430980406453, 8.016273945383578, -53.056164052299735, 10.969882170746754, 7.955713462724516, -37.5792201943514, -36.92049596034174, 20.565724916586394, -26.143771194860413, 41.374908723959976, 27.330615328109516, -29.122065736183984, -2.719454599849687, -14.34004131970149, 1.638450590216051, -8.21477869525215, -3.397272492989354, -62.067452554499326, -11.92683952257143, 12.059000959645726, -7.838598138433834, -13.391497453904758, -1.3944005260340102, -6.182594899857027, -28.062538088466198, 13.79676366976881, 2.164250042086442, 1.5322406823694696, -28.754135247503736, -24.141821412420196, 60.234024467563714, 13.735051687059265, 10.427543068888328, 33.616517723134194, -9.063149765615817, -16.237759196829778, 25.907368313109394, 14.122371384185643, -37.365315904999, -8.822401365069052, 7.691724503177916, 26.981137506585466, -5.667034214342198, 6.1608990182923975, -21.78804541279326, 35.10902719356829, -7.636361078933852, 20.180282069774975, 33.188411695438795, 0.5718188965506252, -17.332794676605033, -2.9867114985859597, 21.29675974231572, -25.205430231402307, 4.90375748875505, 1.6704493519349963, 42.76104321853125, -23.016711719338332, 17.974239569568805, -17.64615855087537, -10.495188591758412, -5.059801150473368, 38.93233729181529, 6.039497415400115, -8.831404906055754, -25.430834663389717, -15.616862635340627, -8.635588249663687, -44.855519358437434, -15.743805885585003, 2.9869029731098924, -6.907500906230641, 11.14360911740066, -40.82753986225441, 15.567307429235466, -1.2221226048965919, -9.55205359855362, 27.105450323055702, 17.897433728147845, 16.471229154202405, 1.1771531043482713, -16.293842690350463, -26.5728259868583, 8.082420795545183, -26.83336491190331, 5.08907955585418, -10.051429983698249, 13.332303300877447, 19.473707653611573, -32.64149188668254, -8.982978218105497, -30.986790816664133, -25.294455831261544, 22.1278556229132, -30.693043074254266, -18.830859333141643, -10.810290899906631, 16.573278019057977, 20.748245830758652, 6.89733651681613, -32.18579156486457, 32.22847735172069, -43.718542207658864, 18.80474648558369, 27.687447769877306, -1.2428127796780122, -32.68786010406864, -5.955059899826862, -13.09139163837256, -17.005250364437615, 1.6079077273996583, -4.356660732615475, -36.806983213463646, -6.911228092382761, 8.067516608363515, 3.8746522572150814, -19.506046701294732, 11.836179240870706, 0.2109819910274151, 7.52496066790307, 24.042370746382794, -0.4023356079614171, 19.680635437622858, 13.51220492740799, 11.52557192376657, -0.2168456886422685, -28.17775665981277, 10.956098676469168, -27.20672530544826, -16.519052255302274, 36.497258516515494, 10.761996815555513, 32.40362580445853, 24.592292107463393, -16.4504443725346, -16.00823182306429, -2.096369161312849, -8.656366141552446, 22.76221984289432, 7.759568351301645, -14.12070396161845, -13.742648753457079, 25.239801751909496, 6.4459866313316, -1.2589718226715418, -9.17375469941583, -41.22908173921006, 31.56992609471248, -24.09066062479345, -25.81950397876685, -9.60808053478915, -16.678355568120022, 14.754383750270001, 14.498408782555044, -1.1990149113829087, 1.398772113678695, 41.57004485117551, 5.7765831124320215, 1.4415544733742864, -37.439830486725974, 17.76149134248861, -12.021257653085902, 23.038356545924565, 13.247059605162427, 3.419419129595088, 8.74020664084771, -1.4517072450131687, 12.506983941870118, 25.543339233188227, 13.695341226823603, 7.475594442380134, 9.448622512147422, 9.442897485859506, 23.707336943343908, 2.9247571354667996, 16.121352305666942, 22.856471624237315, -30.38362337294208, 20.82822439416984, -23.417615487026172, 23.17725615296349, -8.031217311526566, 12.217232273269477, -1.625154515971818, 19.436647250362704, -11.527963397050094, -0.7842981946673477, -22.151631063232013, 25.209231908173976, 2.508479192521576, -4.590191889218252, 8.34694412680427, -13.836414153780739, 2.252984074305491, 10.602338759773563, -18.107801949699855, -17.275758710787162, -17.96895915200972, -23.628643283234798, -41.126762498482826, 10.424855294402022, -9.505211927171864, 11.641000675455757, 19.356587592761112, -7.0529736608583224, 35.46029320097704, -10.828072415504469, -38.6770849014311, 31.59771914655676, 0.3622055095953405, 9.558485603216797, 0.8980256777421962, 5.512533571037914, -18.81799808454806, -15.854933342519853, -23.949352468117524, -4.673348752737429, -35.19529754092923, 2.636517216904739, 31.490471415059027, 18.55260872410193, 18.220442210256905, 20.290403611454096, 5.023984968793037, -10.390242585855681, -9.17365516815078, -10.175522597604852, 0.5128824658142399, -10.20296528318406, 62.72572839984657, 8.770757025130466, 2.123183468469602, -33.2290107790864, 22.359505660667473, 17.47966119008739, 12.921233808089362, 8.408511169988605, 1.0180753329353478, -2.484197928697145, 14.544822407463506, 17.461232309408473, 7.09781295433681, 27.3934306683174, 5.210543168973293, 21.102377741924702, -29.492545094210985, -9.89153718490575, -10.026114986242924, 21.533624139203265, 14.654736809469226, -10.10721611110196, -41.70875890861395, 27.91447525959572, -3.571659848999182, -0.5229281419415344, 10.599559007615499, -10.985120560844948, -14.30448692329514, 0.4850628699027646, -22.45801918593064, -18.412630279306555, -4.145928039679523, 38.95746516159422, 0.6673888320289922, -6.32800546707183, 9.880684205173262, 14.83600776284557, -13.705615904946816, -2.0617294770206973, -14.092979737528733, 1.7721519923696478, -10.794827196460849, 7.35930537978386, 32.47008292114877, -9.0847710126855, -16.081563428179674, 8.060505200714681, 7.835901069251285, -23.089232538894592, -7.919592283166912, 18.83998282432982, 7.915263123042652, 24.359530108342465, 14.014930190585792, -21.333665724741888, -24.7073641368537, -36.311078585548955, 9.821195722163168, -12.980772381487185, -9.282207637965683, -24.85443508284089, 21.53269936202573, -9.038639582957043, 29.467258261905748, -8.82898980038026, 13.239558225888896, -2.8564597842342083, -6.839499677212546, 4.532297742313487, 5.936773645020137, 1.6072188518451456, 4.614199755019721, -8.00882199593747, 3.6808368403214655, 3.2680760312921375, 2.1823859581182994, 8.603283894030007, -30.002975063920324, 11.000177072610363, -0.030336584574978787, -13.845373000465267, 22.7121495475916, -13.187636262517316, -21.437236881381402, -51.87025939096427, -12.416410596730866, 8.037929042517373, -4.426770765119246, -6.000780005685551, 2.599293255925511, -14.676622782467147, -16.287226500046206, -0.9860167788655567, -10.450072193097276, -2.3478397596692164, 13.84207512234558, 11.667214316617038, 3.397221316520554, -17.342515694453304, 9.35730764841448, -3.698687772302237, 5.105652356520666, -23.715228848090838, 31.38470060269201, 8.994478662907444, -12.120469264896691, -12.795477426906011, -22.89372955779723, 27.36030176710604, 8.405444915131104, -7.605406432186859, 16.59262185131545, -5.482348647161475, 32.24723012380328, 12.174894305505875, 39.589467080542356, -10.818128826266111, 5.626448138486533, -10.445383007559455, 21.565219877076586, -4.485763399172047, 26.529175669579036, 6.5682898483992185, 11.845448781858856, -12.89298987670204, 16.04296622216823, -31.473162628631528, -0.5337511924380975, -1.584720059297858, 2.394946865525151, -16.50919591388185, -9.733473227221834, -28.89315485800891, -8.74307359097523, -15.57159311942648, -12.644106722261746, -20.756202528915374, 13.71513368630891, -24.140988504210796, 5.8920999192739245, -40.05669734652375, 15.224637533352587, -32.450898113704326, 22.05458218349843, -7.56997184110653, -19.384080462514166, 7.230511340222713, -37.34612502219326, -1.8655854587163494, -32.191845212095096, 18.015778038211543, 11.923266778759055, 37.82632728553849, -23.986913970795296, 11.057646160044085, 19.188744499336206, 6.072995284067595, -32.87380378639947, 14.266646751308976, 3.8804969533811198, 2.3237813202077335, 20.241120913512635, -0.22535423075025562, -1.115181097894033, 15.112733232871628, -25.404597564239086, -8.064746514787165, -14.660441401612795, 38.34964513383933, -9.869653184119977, 2.680072423727715, 11.481027589070491, -5.958245247684808, 21.411826084775942, -2.820782553254153, 17.201328197227266, 0.49232709658911056, -3.3689053590637545, -11.527190978746404, 4.64626765181107, -13.120862389286259, 16.598851915607764, -4.863901239359979, -13.158906565437885, 22.34471166256521, -14.91792005980155, 45.36475871056671, -1.604616823545364, 20.182272035225445, 22.931525292420826, -32.49811109866808, -16.268598800501127, -20.003784936731016, -17.064048924248972, -7.863720702482057, 12.821538692837482, 8.214056489805985, -20.793074446583347, -22.644627134911108, -27.455167979535776, 17.144826687344036, -36.113874339287975, -22.73138435391341, -11.873018902748177, -13.40032166066014, 5.074382692338603, 19.417839851765457, -0.33293313004491765, -2.3476961326932453, -8.501395515693778, 0.6408540759698402, -34.81190128734087, -15.948065625348383, -3.0339249779228337, -1.2969810674974944, 7.83627496993497, 45.63919073412983, -17.200321841848492, 1.21323860339686, -10.88190833230044, -19.9058654981176, 11.570991922338397, 46.37760726212851, 24.14954108470025, 1.6315656741227649, 24.308987947598716, 0.49762197333951264, 12.344927776314073, 15.961897846022959, 7.398152597005483, 4.699085634505565, -7.320374677476952, -37.19449407456099, -38.28875723491436, -7.3618823137283895, 2.761949444673589, 21.756257016602763, -5.85039070382634, -15.672355317801848, 5.446063058308936, 23.93230999700767, 16.578010693607766, 6.254195494668636, -0.3334280502203013, -25.200306161995414, 26.901706458698897, -5.11462614839786, -15.662258146782925, -19.033692201943094, -5.816097844202503, -25.65368471414343, 13.046870347526236, 0.9133744125988237, -4.175798427658288, 1.5554525334771412, -0.013404082278502871, -6.032175818177537, 33.6048948458853, 13.252477898616561, -0.7237543428575259, 1.120945174683854, -17.68999985451877, -4.481652601499967, 35.546749044316286, 0.02325414098027556, -50.433039834895496, -29.468026659538616, -0.26070911253019824, 18.98357206011641, 11.01710251878966, -14.046431704517282, -17.14495166461391, 39.85148530731931, 0.745003702749993, -17.598838993896678, 0.2490366640950885, 38.114326094572014, -14.726347429617492, 27.357213513470697, 6.473978063755887, 17.51157514162643, 12.953500716558308, 9.242872606024441, 8.884127763517153, 12.789978127412368, -29.628076088089987, -15.728639338251192, -13.75915462696125, -12.214806381676969, -18.206090863425363, 22.23464000135775, 14.359112690639321, 19.10377266873982, -0.4482418172534396, -9.569349044689842, -5.778802548371128, -7.123613116420607, 3.219238604045343, 21.66122517158768, 5.621737894732839, -10.628721303622482, 0.628604849445796, 5.513371838701027, -24.6694303666471, -26.722494126974034, 3.5948466839481625, 27.872544110223615, -11.781188597742085, -9.269548189399673, 37.50735482148079, -8.703895927843806, 26.64727026349025, -7.106091682863575, 17.975567770242485, -15.335076444622583, -23.305312672242152, 11.430170821743314, -19.066473795074096, -18.38885466511259, 10.12783346174056, -10.603522581790507, -0.3289991283190476, 8.645154067706107, -19.255863711366953, -7.065912764448157, 17.397319075052422, 22.723793822547158, 9.210238553005805, 5.308305496927856, 9.72757438568143, 10.178937259508924, 30.19859046187664, -42.07139208178332, 15.65563271927712, 2.947476491418587, -23.963680044256677, 0.31206939451495797, 46.393759219490306, 32.273282074896436, 3.0438597656749558, -0.6194507938492404, -16.21965025614324, 14.715649619089904, -1.25206226861681, 11.113259917215576, 14.373225982885954, -17.903158692755337, -13.018765863514307, -38.35532515140549, 24.748811230202374, -0.19936607590950395, 16.516562649981754, 14.629615227970046, 15.674186369515603, 21.800259597028187, 15.315163485708425, -15.559666627066099, -14.744362340009584, 12.15817078317483, -0.37150986919104523, -7.103751238005248, 15.263881783210236, -18.442190106496543, -8.488609985654307, 14.316541806483581, 25.068370929309204, -16.07283784374423, -24.499748832448105, -12.66003085090086, -3.5159130337308815, 13.872464229214593, -30.160286022960108, 10.473207907280646, -16.140147098656627, -22.238302838630712, 14.839504845368953, 14.648712327303635, 1.9775259501254143, 3.1051921920554677, 0.14260194349187927, 16.158664677305087, -5.653431782351369, -8.347682187689607, 12.814380654072885, -8.83102791120583, 7.039485913889804, -8.895849617489304, 47.46691163075091, -17.756548278649795, 18.203022361744598, 10.733270385833324, 10.992992068439108, 11.440124662048195, -5.526138207673632, 26.327680744949344, -0.9861441055602636, 0.29983693018934954, -21.913769203761852, 10.856244010974349, -23.57459593100731, -6.959445320117743, 0.29149413125268187, 2.6022890218855808, -3.602037028898504, 1.1422752645361154, -17.64459013296762, 8.29611903671504, -6.638311196203775, 14.819998391058402, 33.46740331320924, -9.172013140996597, 15.675921898529733, 6.473581476521941, -9.661680175108758, 11.109113662072955, -17.67634892113007, 11.511977707909196, -11.064597555659947, 15.82454727635935, -5.257105666742696, -2.0405427448877527, -8.031382139985343, 9.650880701524308, 16.066754680098924, 25.929348520930045, 7.9286372251502755, 10.544989266257225, -0.9814363928667378, -24.01379525521128, 18.754721714939244, 1.2660208437043816, -0.7296579034761366, 18.296584580048606, 6.894941686936136, 6.73395269144237, 45.37340499094972, -10.116187014341183, -2.500901149367003, 29.66817042178777, -3.3819146242726923, -40.735587266800124, -7.4795545211320515, -36.17054635555718, -25.286775995120543, -3.654157512128792, -17.561466202036282, -15.081909280908903, -2.761845878790647, 4.11922170951281, -6.197373135489216, -1.3720881419512185, -2.1064977829997473, 29.119327197803955, -7.787697771361611, -16.664363752812175, 15.922445216268017, 37.6784470348443, -27.39771613423634, 8.567750898384553, -4.324484981834973, 1.6223701912973132, -14.96355337123236, -13.716281200123424, 27.519788211276275, 1.9954046559619207, -3.1182824649495164, 21.203921868452248, 28.38369865720317, -15.160234938791312, -5.343012277789189, 18.458946545714216, -29.815469524156192, 25.868017050824857, 6.649015831061902, -1.3802206371082093, 19.29952263814194, -9.098869892213997, 1.173382902854128, 7.07584872451747, -3.876015529466632, 10.883891543126598, 6.468782178673312, 19.977769018225636, -4.061278508118562, 2.5624800187941688, -0.15184943302223575, -4.988872778275645, -0.8644918629975109, 1.044784698071927, -2.493904318458206, 22.272146550648095, 9.257926396519036, -14.273510362553072, -31.826938007247275, 0.11898417080143098, 3.2132893951662567, 23.608557279877125, 26.646088029581907, -4.716903983961419, -28.912452480766962, -15.656608553483583, -7.673335034176333, 3.8442949658940915, 3.9772795561117515, -14.875849016421256, 0.5386538518448125, 25.397837672680662, -10.244891226902679, 22.664114783199324, 13.657988569421878, -20.63598655791951, 0.25335424119148264, -6.288347446088359, -10.726450451389566, -13.88458275294355, 16.61979982646134, 22.325134469588804, -9.426089876822019, 19.256101484917938, 19.893900377042847, -7.148856825588006, -3.690400542987337, 24.467988570171862, 0.8370314210007082, -23.721096744049806, -10.287629527638975, -25.6020068818231, 21.374029410570145, 12.12003044258806, 1.8792191936248015, -13.375917542120815, -5.288353163561621, 18.321290470244254, -18.198705559623033, -3.3340199629280445, -3.813381493731554, 27.05460583945797, -30.283286457008536, 8.573677978016695, -8.599951060520246, -3.40496502994167, 11.550513294946398, -9.47065300983927, 5.3623678724761294, -24.124360369694017, 4.7810179148328755, -25.458767501759816, -13.638989700521176, -5.014207552715674, -4.728186994384275, 14.916659062333736, 17.764589988644776, 5.751395999098158, 7.560882333376634, -32.33103196793297, -2.429871812679147, 20.67420699882816, -20.690657913963573, -27.331552125147642, 10.138162003377852, -8.164458305586937, 19.478667204024042, -31.466136707887536, -31.181970369304203, 15.867288170746614, 20.191500312581777, 10.90601470445519, -2.736057943336794, -11.390870673281055, 6.094341289908578, 7.229338862897446, 17.787867256270687, -14.578377781306521, -20.016975400956213, 11.839836811881286, -20.49741107358476, 8.120847831501749, -12.761181723375996, -27.24504051702008, 3.653586723512018, 13.51442585105919, 14.828976319722356, 15.14705081697078, 41.827950341873695, 10.44561287353004, -14.969988685691973, -1.5417598172729745, -14.792704345076324, -20.079725804498636, -8.862824367697698, 4.028516321394118, -19.02228257297478, 38.32881118137413, 8.182172043531306, 6.99018463677457, -1.7081948431303289, -23.357399047857058, 7.866066446404496, 8.604325786429772, 55.669385398020694, -45.288068961288424, 13.669197961942778, 8.934275333085328, 20.63431502583972, -3.323846245266219, -14.116785831236875, -17.1792045935425, 7.785568728118377, -15.381702418635712, 25.688045756762495, -31.834325389394948, -38.958253059423065, -25.662795235046822, 6.842603730767754, -27.172578195720828, -5.983343413897038, -3.361061675403902, 3.3644445142260837, -1.5911272505641927, -6.19328876309524, -6.8363877292369875, -4.292402409543206, -1.9619308121145105, -8.271153155622116, 27.59468221588631, 14.195168864797429, -4.60499717664567, 3.6064172610959786, 14.857095803360853, -12.3742315884707, 11.523156521849174, -17.329080044405526, -7.245046038376983, -24.244470941297713, 24.15557751753296, 15.163502541641874, -31.47575488400793, -17.623214389037557, -16.27681644900519, -11.062765514310529, -22.09133275686636, 9.19075406858012, -28.670374370244975, -19.768976307987757, -27.747889294647685, 10.962775660068324, 11.347498482976729, 11.439176651941272, -23.314734260411623, 5.865151385871668, -35.041324484787836, 6.933521723183352, 24.679698326246026, 24.538368200846865, 7.685576889249736, -16.826700109326396, -7.816709858917056, -1.5962268452332502, -2.339090290860648, -0.4954508787812424, -8.223470001859955, 13.878239010313994, -7.41916868210274, 7.267656716089267, -34.07977158060856, 19.84930752347831, 19.410160517767196, -16.714139752804343, -19.426625500704983, -8.159881628784902, 25.283562316616568, 12.473747238201774, 5.570818846208918, 23.67106012678255, 5.0592162104500575, 14.683073114194736, 9.090082266295658, -2.0320687786657445, 16.348682432776105, -11.183865661978786, -13.594816284382368, -12.640088113930243, -17.40818533519909, -1.6361638751476164, 18.816142514050068, -25.209578427237293, -17.565534871594338, -6.184855716771381, 2.7871367888319067, 13.411408801499642, -5.257217130127519, 3.431210983930262, -40.728406302206125, 12.00073580208675, 5.55308725007435, 5.461280953843822, -4.884950246256662, -15.23180223474443, -22.35347128562702, 10.995654993257169, -21.778291350778957, 19.39087592189949, 30.40004579800895, 29.68816703905734, -1.091545577668329, 3.6689684275319063, 5.578387887118302, -16.73299607207503, 12.446030008559472, -11.034743729913096, -8.000560837107045, 13.339033156583465, 1.8535481684572752, -17.937874865317816, -4.179658927885831, 17.354546399492417, -20.13970067305025, -9.472619115888, -5.0252575119242024, 14.356407208446413, 6.900370942222269, 17.829360770122214, 5.441490891126008, 17.855512046627027, 3.9340585594913895, -8.56079011057762, 4.862916796999917, 4.319427361932978, 36.48482932128908, -11.90552295057008, -25.756543542628194, 2.6891017875130894, -36.0705530088201, -15.659339244526922, -17.145399344801085, 7.271041114494766, -12.181739664568495, 25.794566493318634, -6.420451717866788, 3.2532546266166356, -7.96054155093228, 18.800392688298817, 13.030863184775143, -23.8717829611364, -32.122046034017295, 16.13220590453257, -3.2631894947308333, 43.65976746353084, -36.96931320969787, 3.070466232322156, -22.678671112876174, -4.053256920972866, 6.152852358317199, -11.696146455638969, 30.997263864414013, 37.04638418695193, 14.815842386827278, -0.015644072691701094, -11.290823983518674, 27.484677955580093, 1.176552697362082, 38.319443970072804, -11.262448962384589, -12.911078550036938, 12.412876897615304, 5.823488407941966, 6.77793170918154, -45.88088383198806, -4.59182937797986, 18.191183791902112, -4.223504228309441, -5.2042559913231905, 27.8223335378917, -5.703106569523568, -30.392608850176092, 7.135367246412, 27.369089765962887, -4.417575134191232, 4.807539940411108, 14.43695217264815, 21.541964215418744, 33.67490998594449, 9.335493618669933, -40.20078499829837, -17.10290107524275, 0.8285582847795385, 12.16909621610799, -14.717316541023967, 14.793542646951805, 11.815228557666337, -41.507642326863945, 1.96303817992159, 23.61912617546858, -5.194145641538362, -0.13889102885558424, -18.80007161277486, 9.644218573550507, -40.39018019975725, 2.484725395812932, 11.941404499117741, 7.095001113425474, -8.95094809393349, 4.18237777692511, -46.957689976196704, 10.620098903576448, -36.132167612785395, 8.04886150280654, -9.546714792249915, -53.37392321995864, 4.98726295051611, 18.549362893250255, 3.14437561403284, -24.399293128528413, -16.037104660949865, 2.120375164647249, 0.4148372543989156, -5.118810068144974, 9.313604472559534, 15.728985564336519, -10.276090491928837, -10.861042221370674, -21.362297069480185, 15.813893620392017, 15.092748671347591, -23.399452868998605, -17.384081236331593, 5.581378566636212, -25.135929443625272, 9.521739530030432, 2.934725425526355, -23.817591658456823, 15.760244051416372, 11.174246478023296, -12.62698451764762, 13.736986106847215, -15.187752682216034, 15.86805985008668, -21.757315021525756, -1.5809899079955978, -7.0703030338655, 51.87796214062197, -11.01283315766522, -28.313708902269244, -4.8469584303201865, 8.137111102637295, 18.900518198794824, 6.168379011478218, -6.460842484819544, 13.367612536801387, 10.104985851308154, -12.946158766312603, -7.9441669120338725, 25.52210460276003, 14.146385286900383, 21.815176747882468, -26.1755204421677, 15.970730069344821, -9.189111895951987, -46.42186136526954, 11.170657780340772, -4.0062786119136025, -11.430739446291835, 22.35746423330716, -5.31024680353118, -8.306986808217163, 25.816168620726746, -11.179396245409354, -12.601535167399444, -29.492948800705534, -17.992913091416188, 38.04194553529581, 16.13406944301976, 10.942448756750412, -9.175152615045393, -2.6323414860329697, 27.228449685778703, 2.221169068261258, -17.738436211393875, -9.73435239937959, -7.345619294620329, -13.696918890335285, -4.644629702055278, 13.898308447735754, 5.475065258316596, 11.748395981482894, -10.450697865878725, -8.726333510652822, 30.96991515180548, -10.704541723466567, -0.7497191865982504, -23.945368154516235, 7.878419128097906, -19.522599282710868, 20.835543598668508, 9.675617098882157, 6.033847959426196, -0.9434302212524539, 3.0984872511981276, -10.313404492759934, 18.83260830163855, -9.794866717947695, 0.8200545857020352, -0.6842794030825726, -13.561395963630622, 11.73377819133204, -8.260698596127295, -17.10741379115082, 24.844833310910705, -8.15221397752019, 3.2131260325046216, -3.356161836008579, -8.382606076816813, 10.375343153432667, -11.834482978739391, -17.930543197131925, -6.385707113059525, 9.020289982239012, 14.099150403434313, -4.881686738048035, -14.286285882875706, 35.16518347153378, 0.38102079184898674, -12.331942168176054, -14.08977314362878, -30.08655711931469, 2.084154304729646, 12.021878772693762, 30.15586738390482, 0.8704964884153483, -17.14398108297341, -15.379547608365224, -31.414711456574707, 22.886588772175365, -7.2261759417256775, -33.53974979713321, -13.919554360197393, 12.750437433206208, 3.1706396640654537, -30.213639275467877, -27.016418465012848, -13.575252466650046, 16.10581829617031, 15.36665086633723, 11.115116429391428, 29.096085867633246, 17.612758728110265, 46.4278967906671, -13.566087742665568, -15.122788949887617, -7.322820789588802, -1.2651048636654814, -10.368107169413605, 1.1257953199055746, -26.091789478162784, -15.609454392833769, -22.609802956830464, 4.795097766356188, 18.960434512606074, 10.02508072538731, -18.26136747270299, -16.368589397883966, 38.11486331799809, -2.7363394336260964, 5.557188252960857, -17.136778768510077, -13.660412826530132, 13.496052405080569, -16.768642152619254, -17.666005793268457, 14.74210325140642, 20.16306167237247, 7.767064011978083, 18.044601100373153, 18.36410535971164, 5.106715190892, 37.62598779343464, -9.192495006494955, -8.703542977437884, -38.951121235058245, 7.913112779928674, 8.550086049310657, -14.179200439756393, -0.3848613932631899, -13.229344421001967, 11.03266961471915, -8.135972324010009, -4.023991624067806, -24.633068585472238, 30.578272265691876, 4.534430985616082, -0.5896159534401111]}