{"model_name": "echo_state", "model": {"n_readouts": 200, "output_layers": [], "activation": "relu", "n_components": 1000, "echo_state_seed": 21727}, "weights": [-3.2891234613129323, -3.0494851703254344, 0.3169698370378954, 1.813368838999792, 14.911435851929998, -2.583440448470907, 13.99517880327537, -4.958382437390321, 1.8313719206012304, -4.869145182054946, 0.8745504006291853, -6.326892229664642, 12.002665903389763, -5.188607947556666, -3.6401074883991926, -6.812555210358522, 7.83994547680944, 1.3432550667349954, 5.442880648184073, -10.97123565773428, -0.9650409681308493, 7.674607082409211, 14.287584416356461, -4.4334854542819055, -0.27608785171815026, 11.415336683608512, -3.544410296605748, -2.3470943609495136, -0.547984039801266, 4.566873319791204, 14.115249273826741, 10.297779027526477, -12.38542189340699, -7.268418095406898, 1.5504915590580994, 1.3561569016718693, 17.091508847263885, -7.183202688263375, -9.907613485569486, 0.656504801371814, -1.1313432330439772, -4.914568770064543, 7.6252813186084065, -5.8743832145440225, -3.4151851936813356, 4.0090825545091, -11.456818932136338, 4.351637474977931, 15.736398384196617, -4.814591491748325, -3.543300625129323, -9.449977422841531, -9.74442775766805, -2.614040035441108, -13.73567660421157, 7.733655293665702, -2.7589864572512455, -1.1839436288540222, 0.6683949845817355, -10.44652661250464, -6.488488801983765, -9.45210793441578, -11.029904702715664, 9.327649224216904, 4.496970487580731, 3.0190542175876467, -7.801092216781507, -1.0071514144798308, 11.104396300062135, 4.786934336307945, 3.4249521717472184, 11.56619724629769, 5.605305718563084, -6.172157378475946, 12.713702105147677, 2.704152709401639, -4.654274165899894, -0.4628625736517087, 1.4505509093787359, -10.185367566422327, -0.13257197564405826, 8.38420855867551, -6.226473369899019, 0.7070324276675256, 11.525929938872187, -10.369186813400368, 2.3736801506845704, -4.938273454460033, -2.3938485883058918, -2.2107236045104237, 4.669238687334328, 0.9985089261653876, -13.682701936483571, 9.882346605864356, 0.33042763667166525, 0.3968384482624293, 7.494415383840899, -4.128729921225596, 10.420737360626628, -1.911902131720263, -7.647005439802043, 12.011383213337862, 10.41470349906853, 8.122057372503585, 0.36517084238950026, -0.4751775383874058, 2.6632001329803865, 4.833318467148372, 1.6509962154596114, 7.049926506378793, -10.381637302207864, -0.7550712656983433, -12.623899256931011, 0.3182092399350184, 12.053650978683304, -1.4948079454179577, 18.540721156328676, -3.28053174058891, -7.423073183754103, -7.080650861200701, 17.759612084617594, -3.0537074723190325, 3.0541725727568023, 1.228208818734228, -11.254372102152214, 21.573727379045565, 5.149847527816046, -8.517724418660647, 3.419352145026597, 14.914780224288688, -3.454594041214764, 7.754025311581474, -6.706083636662334, -2.5543555426128113, 5.312647716197388, -14.30613860368388, 9.23424845587019, -6.121079389017445, 6.247493948954466, 3.095225601917677, -11.47931514938449, -0.8339731081417625, -1.338999259119698, -5.5846843070561, 16.9215716149762, 8.156145139765192, 4.474737267360379, 13.500304838684762, -11.322900164526839, 11.778028766478435, 25.19322486122581, 7.697552512875564, 14.241036673209608, -10.515961049427979, -9.276470354493792, 6.147726273673662, 9.76726706640258, -9.744184791948987, -14.43573396877024, -3.7673606869918177, -9.050357068638299, -6.864113839993471, 11.955322312151708, 6.992459319167804, -8.036150062272041, 3.3254822375016433, 3.633482287861444, -12.504449887961444, 6.616627377146387, 11.153771172719686, -12.384176144618568, 5.265554064284827, -5.8741596668754905, 0.8871374221184646, 4.817306040252894, 0.4177153238942638, -12.05633958853594, -9.554734251873473, -15.108062395073743, -7.323825303801372, -5.003822456048618, 4.2078329400420165, 0.02562881531962291, -3.1195535712622915, 1.9381354858015976, -5.098013548321297, -15.35601460446977, 7.639691633488076, 4.050449675747453, 8.938096522806147, 4.280050744067042, -0.8892431702180702, -1.1800343637191748, 3.829837424878956, 3.2435145480057472, -0.47287240562801985, -3.195584150310973, -7.54255785868898, -5.886920241630874, -9.549680912762232, -8.182931309478777, 7.624071888133093, -6.231557308160323, -5.928518941003645, 1.2735727782275708, -6.115130913256053, 9.1912530351456, 0.8062945990763031, 2.716512737539205, -14.245714339638985, -3.790002113683138, -6.874824804425853, 7.2284117782318855, -1.6846869682685595, 13.565146261228556, 2.3556128346324936, -1.6967434911690416, 3.290829415990574, -4.953270467947845, 7.498927345922131, -2.5178430444045374, -11.398114009602455, 5.865923233299312, -0.4700812431963135, 8.411793025970555, 10.39418594394492, -1.4745138976019425, -9.24120494823483, 11.647424799925322, 3.806861640786083, 5.991550556733604, 4.649008347580453, -8.362476535633126, -7.67939950757817, 9.37173628987925, -8.17514321259797, 17.402630551181836, 5.370573827380815, 4.682996185053817, -3.098744341237218, -4.289806346878895, -17.011673488544027, 9.351305838955508, 5.810188953905845, -0.8768837975425713, -7.101562575846058, 11.24169112910008, 0.5434240225297191, -22.20179740540974, 4.271703440079521, -7.852443562575377, 2.715363251819559, -6.273519660389155, 6.620926385737736, 7.80665017390092, -5.131416628794666, -3.63764961937751, -25.030573689277727, -16.161996647746143, 12.035213198402115, -6.437304316057023, 9.657040619048619, -10.418054179320205, 3.8905693209822783, 4.317371410882544, -10.26136859627247, 12.36122540343177, 7.007814728727135, -6.9242425029540415, 5.9550357888121725, 13.562865869879973, 1.7645039526249682, 4.538830383392741, -6.474439581417456, -1.234604751934899, -3.1921041375342023, -9.412058164573045, -16.070353432563618, 0.11831008402489696, 11.4316255738647, 4.300205382334661, -3.793494739479509, 4.074291296081583, 4.200265738796551, -7.950129661021623, -6.004355678652499, -2.2106410559517338, -6.743372688727899, 10.042270548513123, -12.971657898398215, 1.0925642584838822, 14.812212643670772, 0.7706124219389175, 2.6833622815330544, -2.78499845840331, 6.906279353641589, -4.003702526111351, -1.0224019777396924, 0.8046744630101668, -9.043971191958429, 2.30643251486428, -13.774240054056179, -9.659404778902093, 5.500866423365414, 2.4967214121674877, -3.4045868073994234, 4.3822377524329275, -4.812981905844025, -4.0705285648712755, -5.745721588437637, -0.8230573803391372, 3.003567984188243, 2.44270860877107, 0.5005952298392377, 1.5939258444238913, -2.588943584242702, 7.113618086613972, -0.9004181346101126, -1.6911425122907497, -14.006232014074435, -6.8905705139711175, -6.765628246016352, 4.322151554534055, -8.21034463201107, -10.878241804234253, 6.401520463982013, 5.465570842832948, 5.9518689819733925, 5.681868947670405, 1.6320967585460084, -8.458236052422437, 0.8130128847353045, -5.430836413238833, -3.1262043990095902, 3.756373396954257, 7.050652146769113, -10.707777154412252, 0.6351324928915165, -4.0524972746623416, 1.08027509959607, 10.324935291767352, -9.506936627374962, 5.844847634537494, -19.47889268331874, 4.090263684900869, -12.18219161771107, -14.331270051211458, -17.786614565297295, -10.343269278625378, -0.413270225123359, -3.5604152580309387, 5.647198115482352, -8.357068921333365, 10.672435050308742, -3.574219828313423, -13.731749680124041, -2.766485582130433, 7.180240448290059, -0.37607535451699436, -0.06987790045862252, -8.339166826032955, -9.048659368232773, 8.28899840920195, 3.373810470984846, -13.410819724222645, -2.9829082286537503, -3.0983124381142226, 9.214821130740248, 9.112127977766256, -5.279765427742489, -3.284576547617111, 11.032003301690251, -1.7602958988301922, -13.648355211396147, -9.608921176504913, 10.157966581783112, -1.8264305213081822, -9.093929396693127, -2.3475348832019742, 7.1215353715549785, -8.90261357862189, 6.5015690702748605, 14.969888677994687, -5.78819328066305, 7.5984223243788955, -4.055026022252468, 11.027053463271555, -6.655586860852356, 6.485172377615232, 2.6368386226720184, 11.823505502481597, -9.457202160797316, 6.249346422847941, -11.066498487334421, 3.133613818632183, -2.1268728569460817, 1.9260400427419748, 1.1791751070714442, 2.8926866103855007, 0.290293411372347, 2.3026341973360456, 1.214902670584508, -5.568449776650381, -12.964333978723742, 9.23312387793902, -9.434202701380448, 1.61919766394597, 1.3010885840840174, 2.0360598619309096, 1.3594689802566506, -0.3306804316881309, -4.262789228272801, -4.417084131263409, 13.931505998140075, -3.306931240719087, 1.6785668222222883, 2.274771503147874, -6.797699419733776, 8.085586191552705, -6.024503458514238, -0.9818492369375751, 2.0498796207349375, -5.030401843831585, 5.9465890003088795, 7.027774070114059, 9.114779248266844, 1.8353438580936736, -5.698665105311167, 8.338450126239067, 2.168175811258302, -6.826328364431969, -1.6557733716395373, -8.052938900465335, -7.966266824080778, -0.667311661074302, 12.056174031627773, -4.202350633883006, 24.503894685517395, -9.435304949627412, -1.5522866896884047, 0.757214424436343, 14.353386719236092, -6.71038075805601, 1.2915312264885561, 8.315161021181833, -5.476724883410925, -1.6792690639845926, -5.901035154072731, -0.4472226732547616, 10.645224698024132, -3.9300154776375633, 1.3903540754491415, -3.719657601166763, 9.2085085892155, -7.88013238399545, -3.3111514686728376, -3.500106194049625, 2.1265443447118244, -8.442460989320029, -2.371289652956187, 12.515086756986666, 19.3319643723858, -16.50954714927304, 11.703233201513589, 3.5824373898051007, 19.435279689300447, 1.317898300243664, -9.674338701853722, -5.708107103726655, 8.368822939523193, 2.2072500242900484, -4.90000979417022, 8.96757289119173, 5.249083614441628, -8.59114263873983, -10.178263493551865, 4.464687601105616, -6.348710509387087, -2.063223552818398, -2.4013871602825576, -8.076122337234414, -4.716453860168023, -9.215509373776921, -0.2077711050137024, -10.704034035122703, -2.321816663503546, 13.510581566967756, 12.403386800912731, 3.5200568939914696, 14.557684688844246, 1.1798577033893387, -9.130641677137337, 0.8834236911538096, -1.5140498935972417, 0.6992179268023311, 3.131086526681053, 4.427394221564617, -1.3865512634739054, 0.1631436254084364, 0.07213325857508779, 8.913051301920472, 5.137113324364417, 8.323005989141087, -1.9606183887328563, -12.120144149306222, 9.88594026677794, -9.28888206247507, -11.48009896611215, -1.1166216623657068, -5.077636150952751, -14.088716495346988, 0.09583568024049982, -4.3581755479493385, 0.07629340075300475, -6.803651962283942, -4.23575647413503, 1.70431051721581, -11.2058978069813, 1.719426716247825, 6.761304798307829, 13.583324470287652, 2.5429803594309224, -5.806203019238779, 3.666439551533425, 2.238260859459916, 13.623814686051682, -2.589774903605999, 12.264320608656881, 1.188885230786598, 4.53536605789273, -4.237106643924339, -3.712317225395847, -2.506685851482191, 8.143361293238252, 1.559328452972168, -8.933941048918864, 2.5778113073588784, -11.445295299193564, -5.644976286231659, 0.7941509343212902, 0.844003104528769, -15.014725261102575, -5.21759793034883, 10.130448493484376, -12.194090699640421, -2.497568676565885, -18.902467290913062, -5.701591731255285, 10.181418449438608, 0.6969040465408292, -8.886651639953751, 10.026538371587852, 1.7295354927931048, 0.7039072122584875, -0.628734998108976, 7.457584665536626, 4.964380841535466, -13.680875937293582, -11.572015186937488, 3.4221048913877867, 1.7386635390588916, 2.5005446273072036, 1.1963426793375538, 5.146501162090617, 6.41727530923883, -14.5320558960976, 17.866587704977437, 10.392498376563422, 4.368292319998061, 3.6126137748385956, -3.5687839775012655, 8.780849582917051, -7.132285935316623, -8.55215425043485, -4.968309104309183, 10.643982610924386, 14.387374617358935, 8.165365022269848, 8.61394438716155, -12.732117798739434, -9.889293857461873, -1.4618179544715781, -7.658107792381015, -5.7059049183209956, -2.6009249705330677, 8.317686754272048, 17.241361885825487, -1.3068330504888466, 1.0625651515320151, 13.446304813940834, -4.0443852743979685, -1.2289007943591639, 13.952356046120453, -4.778386501517834, 9.281356112632574, 8.55107413305118, -1.0149633599667618, -2.0097301266936842, -5.7508433471856515, -0.5288081548458753, 11.590095766187412, 1.286536446826061, 1.9393579981794598, 13.780048090916905, 4.486141017867249, -7.4328818485620936, -8.251559258600807, -9.663502513143786, -21.899889294201568, -7.996803485347737, -10.280312056612699, -7.267884332465335, -1.5361366281623567, -3.4982017870738487, -2.6659238691977674, 0.16744522802367845, 10.685689698947286, 10.703567735159488, 5.644281638559831, -3.2265397520757393, 3.6577683077131526, 5.842534035048709, 5.868566602569124, -5.5198983616555335, 2.2166086108482577, -4.972059203168419, 6.3760739877667945, 6.222476167839428, -2.474672184247301, 12.840373823730792, -5.15563707565042, 0.32863784716157407, 5.241074497331239, -3.622988200921418, -7.822900584067249, 10.456989988617705, 2.873637678635466, -6.208508980626983, 11.055344275067364, -7.477928513934208, -12.412005729734139, 0.12609848330468676, 15.790872649269884, 6.455188002979412, -6.679022752224913, 9.857935194308974, -13.344089634276079, 6.983220909771166, 2.7818601114349084, -0.2925001925038234, -8.061023103672293, -9.993137865788402, 2.8557975156678124, -0.8033004156906239, 1.8214155940145003, -1.2402437325439597, 4.764597616741739, -8.00595037526281, -13.336843521817695, -9.565940381844195, -6.297147343606609, 10.991777729654554, -10.39539072907384, 5.830931841208158, -9.654497894848273, 11.310055936856932, 8.019062647312063, -0.8394717787702412, 1.908741053379178, -6.204135141770755, 1.4352891372338366, 3.2824751492050623, -9.703742925707164, 0.9267919943514965, 0.30481925575126556, -16.245278772583163, -7.0952932181968, 11.173686058326751, 8.198695766688934, -3.4270355769475493, 8.606049269967373, 12.254184269343975, 7.734601858711704, 10.065165329175755, 8.791583522739831, -21.7526931902362, 10.129196189676815, 1.784197114623392, -1.4515443854856125, -0.3362505543929269, 4.317029238059195, 3.0640801855663, 4.56757993514334, 12.206433017622667, -14.564881930969136, -1.852408552689212, -8.104040477379439, 13.419902447300283, -2.3589426035900747, 1.8638610594683351, 3.533540627457103, 6.921056214268223, -12.617985655564588, 10.017782630269275, -4.107227775447508, 11.063142675298499, 6.717289081992916, 3.17080051525764, -2.918911112654182, 12.478561253480986, -15.170269356788355, 0.8567252682227008, -2.408015092807892, 2.1687615784256944, -7.91694900823288, -9.681848429706319, -6.334625813420445, 2.976202914401133, -7.0068367014656845, 8.459349817003067, 7.973522382413775, 0.8958786314437015, 0.4442266417431153, -16.09654692300857, -4.661753056455077, 7.759332889388526, 9.495375972913946, -4.857620041722631, -5.26201093729476, -3.4293391407281293, 3.9289099454878005, 1.6924595964173146, 15.099292108775355, 9.977587836264636, 12.750690825272798, 4.383504247135809, -1.6395813062116393, -19.017637879096696, -5.97166231520947, 0.4148706506709441, 0.24275371838602366, 7.895151541598247, -12.046767712967862, -16.18061833889103, 9.820679752438513, -2.2416122558279863, -3.283594127732914, 4.593742486994298, -0.39935604385024304, -7.830170925485797, -3.145292475407087, -2.317325380539555, -1.666685990621354, -8.300992008380401, -4.674743232107437, -1.8489336891814623, -10.46510400958876, 4.717159914434575, 5.146601624000254, -14.063215923089285, 1.2155078468264984, -6.603674701386038, 6.571055417935444, 6.771486600676419, 4.933542588250574, 0.45322785293017387, 2.760684108512822, 7.701156776159951, 2.162637929279072, 4.756426055829693, -6.713545923167604, 12.161744612308272, 7.784164056161129, -2.3270668642182066, 6.326851543380358, 12.216648199385135, -6.700798137540607, 21.891698305640247, -1.9156966031072558, -6.7150813159366995, 1.4920079574102634, 4.981921642149653, 11.382232385749385, 3.988379150948372, -6.975408580271881, -0.8530198239431965, -7.593532277754579, 7.5691234190786885, 4.858807117864784, 2.3916856300554903, -8.44681976261629, -12.203866978201198, 3.888307557777837, -4.849347259805619, -0.03383595578812115, -0.14396043852726303, -6.4038191051430875, 7.490278663599125, 8.225169231507323, 7.251697256092397, -8.179655659018497, 4.395944321922451, 2.1935916045892845, 2.9287265098349016, 8.029083986752859, -1.7482366996487035, 5.413298355687062, -11.104983122780043, 3.6918529533365367, -6.551620441756095, -0.520319012237895, 10.842367190035771, -9.328726670393738, -5.027933392547252, 12.40820285914032, -18.6355022679099, -8.005101705295763, -7.713835933412719, 2.1442904049312608, 4.255388498605412, -0.11470641202761811, 8.13619632056848, 3.0305924712282226, 20.869931635618332, 3.0105121694221655, -15.396797088491454, 2.6823866583629092, 14.592178983849236, -1.1814669304702041, 2.481567583090732, -8.308379864295132, 0.3782036089148467, -3.269448631491777, -3.2690413009040604, -5.3444899873732306, -6.038875421818695, 2.2877830568780566, -13.729705159298792, 5.9581155974150715, 2.0434780155254395, 0.5377045888102625, 5.290597022856385, -1.1561680352449921, 2.85650256344174, 10.071413310835725, -3.0270098497830613, 3.7463486748656885, -0.1279612935008846, 7.273505796443775, -2.753584745043966, 2.936606316319039, 7.555681048752988, 1.7447914219954985, 2.1646508966323563, 7.723249518997737, -13.982463476321012, 13.194577345499404, 9.395980706447094, 2.221568678742638, 3.0222259460214755, 1.481493622485427, 5.5274093707621885, -12.891955849136668, 11.39501790696185, 6.5001999753763755, 2.504783282175038, -2.8117710399436477, 0.5761406019762461, -0.33553136767162095, 3.682610303765131, 11.902315042773697, -6.632919576671946, 1.1133424765231974, 1.435694160505129, 9.663920433976832, -11.25040722737362, -14.127338200989778, -3.5169056201695654, -2.8591570868075356, 12.047283731114497, 1.9018498825542551, 13.332201229554045, 9.078941728395689, -5.438470062059855, 2.166821033136922, -5.069441558229966, -1.7744361710461085, -3.9651503818153637, -3.552217228152247, -10.58724585030924, 9.732188801042513, 3.7308886124730787, -3.0169161043128625, -3.942747652515366, 6.465955866822657, 3.000560557113589, -2.7210328674412194, 8.333568483139965, -6.028422875315722, -11.770421197272254, 9.281639664136813, 0.36714538032463595, -9.434356368567833, -1.6582700184130026, 1.6573935442210301, -8.707541565362726, 8.086804054812555, 2.8136858619435725, 0.16233620791753622, -16.283669580841803, 7.893107104395162, 1.8402731794865244, -10.332526301080437, 4.841483078674582, -7.186058790241385, 0.5061856517640211, -3.0833017234726006, 4.276656031978783, 2.4003678345992507, 10.311695583206129, 6.539696450098088, 0.987483796750769, 0.08614469020777948, 4.986456601510237, -2.358391371966496, -2.9498511093967785, -1.9640756583319103, 9.38793934629145, -3.1546658330005286, 16.32659133893066, -14.406845460487297, 3.951085032711908, 4.226675468059053, -2.36397208356623, 13.536333891141192, 0.7089522915505633, 0.3941632635131048, -7.593591895644633, -3.427094775990011, 4.339159654150247, 5.653104340257891, -11.086179234883666, -14.056568703869104, -7.135405162821391, 5.317478990891132, -8.163516312977631, -2.9309034297844434, -13.66390507595666, -15.184017457139827, 4.623097857629667, -5.572687195697212, 2.9724477273061582, -14.00138916284926, 1.544886235854402, 5.291434140588242, 9.171094629533869, -10.427051003660573, -7.6669733333311845, 11.701805212638941, -3.630025605834367, -8.546387165729037, -3.078275127977793, -19.22098916934173, -4.153591607985006, 0.6107315098932906, 6.807873026156044, -5.373246472388724, 8.610244985726778, 10.893304067460322, -11.681551190862756, -2.7164132742322393, 2.1869456602027086, -3.5372969380635513, 4.675368551469086, 5.978741065986514, -2.265878745432942, -5.069376725289796, -2.7872643874699987, 15.959863017219815, -0.003980245806176619, -7.998022757744295, 13.016265306536683, -6.346116968568923, 6.174156628258616, -12.480188311063182, 12.200885097492463, -11.372067604336738, -2.4710666470113902, -6.944915585093921, -2.8407536460731477, 11.342666811253341, 3.7664614021245653, 2.3329283409693966, 3.211496965396144, 4.152769926286544, 4.023237093417429, 7.992134154814607, -6.496775821296653, 7.302102100298099, 12.643831779834716, 4.614862820000156, -10.969567275605742, 8.654867225964477, -13.038485542725656, -1.0151344968244542]}