{"model_name": "echo_state", "model": {"n_readouts": 200, "output_layers": [], "activation": "relu", "n_components": 1000, "echo_state_seed": 21727}, "weights": [-3.4274189560288706, -2.737209478758062, 1.3563660047981498, 1.129386215607127, 15.046794052794798, -1.4893458764321967, 14.556230480029782, -5.684482343647929, 3.2458268915267636, -4.349760003833595, 1.5233488838934934, -5.026622356540157, 11.483300334591707, -4.862200356627269, -4.6906417311388955, -6.130803384032253, 8.249050528742828, 0.18171301566821185, 4.668438454014869, -10.326943209805306, -0.29358426611551064, 7.657209411987068, 12.505000724442459, -5.349384531905836, 0.25713922663027033, 11.046283482042643, -3.2732677109084514, -2.061210172730238, 0.4585978326786574, 3.3477859123488516, 13.706310189685054, 11.84885135274487, -14.029282897854584, -6.722633357836277, 1.249866374979666, 1.6125721292732054, 17.482085679561102, -6.899273833245976, -8.341966195766277, 0.1986086301812507, -0.3420662098977596, -4.787492995560604, 6.954206244197427, -6.565910185695545, -3.4725972659896693, 4.798227263390096, -11.271469681633047, 4.854525371246539, 16.222338970855354, -6.646804689106485, -3.999406924900275, -9.816256732269629, -9.99847808006956, -0.8207150690698262, -12.746114388698784, 9.138612723075136, -1.2435738887944308, -0.22692043684014496, 0.6947745578281636, -9.942266463416907, -6.69674488509601, -11.38294427791714, -10.530547244886312, 8.959253889399955, 4.270687493373933, 3.2833166891473473, -7.290289789405816, -1.0073712475140728, 11.002654933787603, 3.0938414114322668, 4.210839375321421, 10.336711371483046, 5.957504873681021, -7.154678889779449, 12.431349122323034, 2.9432724442936475, -3.580368127707677, 1.4452787259827542, 2.868775777600566, -9.894911971358603, 0.41354697537520624, 7.688362436287871, -5.518402528213943, -0.36977259248805056, 11.973831892548185, -10.960847725132638, 2.8541381311127743, -4.789827832294291, -2.3673458989742038, -2.897929196005892, 5.623010627409034, 0.9565557900704535, -14.632642859876123, 9.740752943451477, 0.05811211688266489, 0.8003183673000039, 6.927564923175521, -4.740446377489451, 9.160066449246422, -0.3402962720267866, -8.300977992272157, 11.490328178508584, 8.939643417331773, 8.099834630642976, -0.20597367074139775, 0.48142546793753116, 3.364394888443762, 5.432183012119245, 2.8077325537064493, 7.7592196273512, -10.016582730487846, -0.9067103853066931, -12.31175380641229, -0.020860404676843386, 13.188759355913017, -0.2517738227172976, 19.25111369902575, -1.9029602503340797, -6.737735445282848, -7.568161756147285, 19.277272777193414, -3.473874705844997, 2.925992748794606, 0.1999252542720491, -11.977082664034233, 24.56581189636801, 3.9435073544194, -9.553713426374697, 2.9692386758087412, 15.165215811885718, -4.279364664403187, 7.237878709915145, -5.383527953698172, -3.997474745500616, 4.2482495109285106, -13.124167144285781, 10.04384412369526, -4.361678524817277, 5.575050210647181, 4.325786813555273, -14.524204940392133, -1.0484850954812566, -1.350749085942747, -5.10779376349285, 18.535215417141405, 7.7761149139188905, 4.336741065272313, 11.764771643094276, -10.906755489566509, 11.902814062589103, 25.139383454764772, 8.409022253982677, 15.666869915759028, -10.65582296623987, -9.226898605935183, 7.223685010682762, 9.297750190824463, -9.042131382230842, -14.349501122314336, -3.43000533889201, -8.386219355120454, -6.10501218740103, 12.9571045504842, 4.919687477832635, -7.0541744308842045, 4.137349832853769, 2.769288607453821, -11.190643568465221, 6.311899937862812, 12.025585686263954, -12.236805206281034, 5.503243775761209, -6.64927944369712, -0.8773540933352595, 3.376141675249429, 0.8981661732679539, -12.082033644766861, -8.501969995431134, -14.976048902083283, -6.573451880840723, -6.7437423774979175, 2.9667436893684256, 1.8763518789902425, -3.3387745372558495, 1.6071444715611276, -5.301338918870573, -16.32189024270416, 6.527020283926789, 4.400344513354162, 9.738104948445862, 5.655505622774701, -0.018837165836478542, -1.883671436309128, 1.686184255237696, 2.821596371598714, -1.444853159029555, -1.873981253315055, -8.24090144691608, -5.991563748495742, -9.403342479850037, -7.824250697773861, 8.392925596486545, -7.646723225880832, -5.16367555114715, 2.0983831258350083, -5.921401986673001, 10.087384091617963, 1.358062095382864, 1.5091543706114117, -13.769053860011462, -4.345607589397879, -7.451389931421159, 8.18190671714147, -0.7946570079675288, 14.02407162970787, 1.8098067197300693, -2.2798956538751787, 2.7246372469813727, -5.8889401985736, 6.7676615134801255, -4.426059029087704, -10.604590609124557, 6.324533454694557, -0.7735330542551724, 6.4125459737877355, 10.928759540786594, -0.016239997764348257, -6.973641176637422, 10.974307984321051, 3.5398767747872943, 7.711736308101721, 6.032516276456211, -8.78050190333674, -9.378470141436065, 9.92901692035371, -8.412861889324075, 16.62555828496113, 5.201034727331695, 5.980674652233953, -1.4286722817632478, -3.1956316000272524, -16.9790321753687, 10.813050494584353, 6.018191929121176, -0.5306101221593189, -7.549668590960191, 11.369729765470412, 2.0427536523984644, -22.83796587882577, 6.06985384216338, -7.893868570914665, 1.540229684833676, -6.257411769151322, 4.8741926587429845, 8.182221541851346, -5.9278110515386135, -3.7412711176294065, -24.232999416996115, -16.06717969450132, 12.056386239049111, -6.318113101028785, 10.236822341790816, -11.171881455332322, 4.3115190625351945, 3.8247362333165116, -10.470728856163554, 12.593068606422014, 7.023414251207036, -6.761243129734149, 6.184192388282674, 10.658467081009663, 4.059909310169605, 4.173999057996733, -6.633704127531013, -2.4593159899805137, -4.402877719756018, -10.118295527635706, -14.637163128434423, -1.926346746098312, 12.045859660389882, 3.121654507458367, -3.543608675755701, 3.4911732228414785, 4.122865551145174, -8.212324941838562, -4.316223142396577, -2.773607718646864, -7.57075945709035, 10.275277771861093, -11.47152481229559, -0.5074410033483734, 14.101843003942376, 1.019746830678855, 3.1532677169319023, -3.32682830568969, 6.886179341867877, -5.772730983473716, -2.081166151246804, 0.6376265764193942, -8.93697698131297, 2.64176962061138, -11.727927784356176, -11.21533501197152, 6.2663790251366445, 2.3245036622077855, -3.3183376398996702, 6.073004951047437, -3.843754519109846, -4.438018210053953, -6.744118480454862, -1.8716481628245918, 3.524205227805041, 3.0308447530786906, 1.72073784899053, -0.5407198013416332, -3.0091910289481514, 6.04897787023431, -2.462811634588223, -2.2965928619312406, -15.402304617903308, -7.050455418540135, -6.445628771890745, 4.359766648077397, -6.192666803969037, -10.490269653786212, 6.296030141726254, 5.704819854600102, 5.842366375921612, 5.223182229441858, 3.512317012616834, -9.307665778900521, -0.34494801392828633, -4.709193087921907, -2.394292529348562, 3.356145490032033, 7.134185335038348, -11.371527235187338, 0.9913676477187875, -3.2899533257725335, 2.266061387008704, 10.624361975278887, -10.56428692599918, 5.396354851767968, -19.966679854340654, 4.320807554781303, -12.181316650691732, -13.111907155769117, -17.210374155535952, -9.077387008078489, 0.9161633879582836, -5.1087558676227465, 5.473753810747325, -6.047757219552988, 11.174336728550553, -3.038891331741273, -15.222766772493985, -3.600730500085116, 6.976479600809927, 0.23202797456807425, 2.383471471503983, -7.360544886309401, -9.301352196996532, 6.447315253217246, 1.9806014926827062, -13.418540640711523, -3.197954743256766, -3.2339514787021293, 8.527131554300661, 8.39894817517925, -6.962539453125713, -2.6453753802357194, 10.518405990053102, -0.9265365322204147, -14.079285024881687, -10.580939904917068, 10.637490863273628, -2.283246315141489, -9.697225599971134, -4.8776049849803, 6.5882046020328815, -10.646357304464887, 5.398827439584171, 13.703844733094755, -5.898006453136199, 8.185091903199742, -4.236035454033648, 9.889964871251827, -6.796597415598836, 4.447673257220671, 2.75608865727673, 12.679398158453864, -10.302327586922841, 8.492066404351375, -10.661235637147286, 1.8308403319034805, -2.0352865246788867, 2.663456497302433, 0.3246463045015772, 3.270281739378665, 0.33326680328175345, 3.8233882505549146, 1.8042402739179004, -4.096658494390187, -14.196810106862078, 9.361961523309958, -10.413922794292601, 2.3864325447421293, 1.2071283975180147, 1.3231270646410827, 4.407056564464738, 1.3934245516077377, -2.683577900477747, -3.3427982294053042, 13.518781588609587, -3.0568944464746304, 2.080277272641866, 3.370104014858081, -6.096437412351431, 9.189101439242256, -7.6188254122413, -2.7406323507910355, 2.991844846308299, -5.224346621219942, 7.993813675225178, 6.215424875516585, 8.40129696393733, 2.202340116663117, -5.613874485276029, 6.842086644550879, 1.980180793162489, -7.19406361770233, -1.4806204567114267, -6.0229063943635825, -7.3106572771198675, -1.384223025165563, 12.766569702707374, -4.262346095281464, 24.004766857791328, -10.834986720250471, -0.7146814816382341, 1.2139255399130664, 15.122257937298912, -4.233617353279007, 2.4658941012351363, 9.438236952257288, -4.223062162386497, -1.2715193094614248, -8.094773046289307, -2.2304823876303796, 11.352222557786282, -4.685368789650468, -0.20432661367128416, -1.4157967054071212, 7.042355055086073, -9.226400052989453, -3.193294293613483, -4.920274697524217, 1.8320258528106013, -9.121105430718497, -1.3616469374953653, 12.129320064853685, 17.612942337464524, -17.97469443871663, 11.959571292344275, 4.746412671993389, 18.32727786260226, -0.9393928544769157, -9.888347630942645, -4.405604707302659, 8.348681405088684, 2.652365218691293, -4.567800209908223, 7.590151657437431, 3.3846620356273345, -9.867394158184416, -9.909081433431641, 6.617410386001487, -6.441849136569691, -2.51441657307073, -2.242055558512107, -7.673220424261059, -5.57367392885382, -8.591836565561945, -0.3435544043958859, -10.081670479467494, -2.918677411974588, 13.611208633794638, 12.506920884220744, 2.2339428160062145, 13.925747118453577, 0.8803649196045644, -7.024201979188793, 3.611417554115291, -2.1162637153661437, 1.0798285665769398, 4.86029007773526, 3.7374910290413603, -1.2128078789122372, 0.6643751892720908, 1.6790997328136332, 8.176433209530936, 5.799771990641718, 8.901761238147353, -1.1348177815373015, -11.57342796965093, 8.780118007993872, -9.24098176100383, -10.556659620543773, -1.473118801555814, -6.15006806839403, -13.738769314027659, 1.6983492946606202, -5.696143100336385, -0.3365536525758419, -6.668412121514449, -3.645194808520145, 2.6739084962150765, -11.107476587373245, -0.5155813564332833, 6.4496850491102045, 12.483908881985686, 2.4938200278995475, -7.567472948080576, 5.393798907730338, 1.9157171821879473, 13.861014534910915, -1.4744047335893773, 11.977879625528173, 1.4546268149263781, 3.8480617872279157, -3.7657487073639286, -3.105849356086402, -1.9212850405712962, 7.615719078663145, 0.15098701905346057, -9.49489238913756, 3.838013197552905, -11.33486989129433, -7.2817086089037, 2.9057302362459088, 1.1207833842099515, -15.370667033749465, -4.790330941904301, 10.357500525922173, -12.93394211266513, -2.299213906802739, -19.45211591152614, -6.2922686706370206, 10.123727480995715, 1.7842520940777569, -8.492631967084465, 9.13312946533754, 1.6661860799364347, -0.24226203509558086, -0.03720690352168177, 6.606051170403966, 5.824585591787448, -14.010073595716733, -10.464353943163063, 3.897066232563161, 2.2503685872086487, 2.059072066684875, 1.005851714291028, 6.542024724525531, 5.476726987051388, -14.226929887592881, 17.272268361108907, 10.463047937341477, 5.419951798223676, 4.6256013151515925, -1.2753761463461015, 8.788173506606707, -6.54759756177752, -7.279929595984022, -4.371080062306783, 10.98402067204185, 14.571640033256983, 7.113856125415673, 6.868214706165832, -10.28560701135073, -9.447509157822537, -0.9419197117878553, -7.285677405324035, -5.166442502659822, -2.7683243471063435, 9.118220402645827, 16.536948130929915, -0.17725349148771563, -0.1669271905924028, 13.028519406794826, -5.180287780704138, 0.11057807844605128, 14.081594263739092, -4.750906482146808, 9.632174426467182, 8.73667039314183, 0.3137555407139754, -0.6851256402589556, -5.563755554504555, -0.461689447489097, 10.943664342081293, 1.975545432303198, 2.1522770338006283, 13.178695409019141, 5.458595963569044, -8.436147225428174, -9.561599285633692, -8.587508056586003, -22.019250568477595, -7.5612088241350275, -11.47586138874289, -7.468009504223809, -1.5534384805553119, -3.0807797143579503, -1.6703142235569006, -0.49012259096447985, 9.971616073459598, 10.962244388947624, 3.8200454090316196, -3.2679535771171198, 2.1552067135921575, 4.75937700755999, 4.0957351007032425, -7.653272178261798, 2.2849822506414394, -6.225316875618697, 6.420192331449296, 5.355827329576418, -3.413607573540206, 11.472095844876522, -3.150770552333226, -1.2002428841180517, 4.735227154990873, -4.301271982569488, -8.21245650673711, 10.72585161399441, 1.4522021758473378, -6.09415905161163, 10.45686208646405, -7.607879899471079, -12.334543702272025, -0.7659620373853799, 14.11629483876024, 6.213563841088264, -3.769158421300522, 9.101056490600216, -11.976846373468506, 7.401565327312352, 4.740765689886858, -1.4907606458140308, -8.640122497557371, -10.418539340645523, 2.6716142108499605, -0.40528974707826965, 2.4428443542543596, 0.19427703466570478, 2.7008240284679754, -7.129424084415516, -13.518833599948703, -8.634868452050485, -7.631128242392466, 11.344087673619578, -10.969615194563172, 6.822041431155024, -7.065953219018906, 10.671909505306816, 7.549940047304757, -2.04183478325988, -0.18059200638761896, -5.958949308548872, 1.7177756295282094, 5.014763293978766, -10.003964691609948, 2.5847607813972577, 1.573396588826511, -16.44611767629654, -7.488883947892584, 12.248477495973802, 9.087642845987395, -3.251626224265986, 8.338904031985967, 11.813999999787871, 7.892332119256487, 9.845922890236716, 7.902218396305084, -23.96923661911121, 11.958308505844217, 1.2095227240104411, -0.882001432811895, -1.0177269972405272, 4.639000091315665, 2.285354911883803, 5.574222224665499, 12.471903925520595, -14.637707440140899, -1.2097331215759841, -8.053021839523213, 14.508397362646006, -1.2935398868388197, 1.2767277512191144, 2.850066753756939, 7.194958821253664, -12.502836765398843, 11.069257066285598, -2.716247952351922, 11.660645003999933, 5.191121279126893, 5.141089364147734, -3.629950005950599, 11.282294131109936, -14.79037176064031, 0.882720888053024, -0.2622091894197347, 2.828416486063973, -6.719095865105121, -8.484587142156421, -7.17963005176703, 2.243037836155863, -6.714305855489095, 7.468634504025195, 9.085911816430857, 0.086198581987588, 1.2845759872198566, -13.452439170183474, -5.19192733317888, 7.0894865446474, 9.555227374384987, -5.923804675071609, -5.680333464870963, -1.7505657627224436, 4.84122504197267, 2.35487365702631, 15.935201634225697, 9.154820067249616, 11.821355197284637, 4.206889049581427, 0.9745066022513328, -20.71476735713507, -5.7485130188097555, 1.44864962175513, -0.013062945160350004, 5.342664160977525, -12.439951543034432, -17.189208631230034, 8.886976565936841, -2.9017186784440954, -3.6695235657067693, 3.368372828263491, 0.7134760367710001, -10.592711401874755, -2.757811303774586, -1.5450202396566257, -1.8214741393558056, -9.411572467631911, -4.488649045001812, -1.968180821393419, -9.83704961502507, 3.7723845890885506, 6.389870290610999, -12.28477296441601, 2.1807944629908396, -5.959844305617265, 5.77831730920041, 5.41870518810062, 5.273238007220092, 1.227029250833644, 3.0884813783665037, 8.007328155611228, 1.8949681125877664, 4.213598335005579, -6.893664824775388, 11.919914848417722, 6.565796702358186, -1.883975572606826, 7.275138208660525, 13.02694704481109, -6.984932642970558, 20.363535357493646, -2.6589134803172936, -6.4609767047898545, 2.813720910936656, 4.6936514957572, 11.312341893029528, 4.026435997475445, -7.669377931346318, -1.3075616826069263, -9.751237803770467, 8.030517772428079, 4.477940929414931, 1.0679827562716462, -6.885235179272566, -12.80204513831221, 4.95237742526229, -5.233739146334026, -1.0777458005437686, -0.8606839643284582, -6.43676514051153, 6.702356576343748, 6.909127109227907, 6.422328809432127, -8.666034909067127, 3.2230297339147205, 3.3432819368821765, 2.118408935660877, 7.463672908534087, -2.786404178290318, 6.596042960125885, -11.946213567677454, 3.973492528341166, -7.552935784418243, -0.9485557935386081, 11.437843120479162, -9.460465156219392, -4.958915689424893, 12.156430332475344, -18.111884896366668, -7.792795472356628, -6.9485920579774385, 1.6936026826095354, 3.3633002360076887, 1.3175416960501698, 7.736103485022655, 3.622828856730862, 20.834114168102577, 3.5835656411169294, -14.107396779538117, 4.271649888781613, 14.72184852731605, -0.5312280999858147, 3.0039840295163343, -7.718370077315269, 0.416782099177458, -3.0235211539336944, -3.355621479203305, -6.310609066768274, -5.41255792437765, 2.5016648107347046, -14.329846116263326, 5.888175571949373, 1.7139206559773086, 0.8477892198043029, 5.201556330133083, -1.1931272096239356, 3.024183130437044, 10.080737125200974, -3.776467606413534, 3.9906054572874137, -1.0691953339580795, 7.548443162944086, -1.7936168940584793, 3.788293499523162, 7.237793880789862, 2.5598435481080775, 2.979186426240889, 7.969553392079638, -12.600464849761378, 12.794229183272972, 8.006123803155297, 2.1459496539482794, 4.658435858441264, 1.1794436571461133, 6.3925039014080545, -13.065291288605438, 9.927692774907927, 4.2191737345620135, 1.6064761773380813, -2.602830444579828, 2.3720183812587767, -0.5433960633832376, 5.184761458835308, 14.55923561043273, -4.383829640033878, -1.5196779547138974, 1.943319800439108, 11.478371707841335, -13.185232672698227, -13.89149464314171, -2.270055755735294, -2.1475470494671036, 11.831859364755548, 1.7163847224350588, 13.684690494978542, 7.257718715299996, -5.492870994714432, 2.8729069061442813, -2.6656649491512785, 0.3352806281304934, -2.875783037952031, -3.442469777083862, -9.77066488148118, 9.066061310093668, 3.607213701383594, -3.480615378997476, -3.701843182397135, 6.21655811756024, 4.65429665530982, -4.620324956592195, 9.682463212300346, -5.281270060125936, -13.942097768356174, 6.957992280851874, 0.42073876808411304, -10.4069513631537, -2.7274945233429513, 2.1548607053321898, -8.919513604754348, 8.118565345367537, 4.76233879379645, 0.6202803778766971, -16.81525632206541, 5.842978808656905, 2.3432455468711972, -10.741672314494593, 6.360498857959355, -5.088499228328348, 3.88247742855046, -3.5490534412085526, 3.845903757261764, 3.212582377467344, 9.964593917624443, 7.9143202736426534, 1.3202668852646213, -0.5550183055571554, 5.730637904150264, -2.431070669229201, -1.4977154342137977, -0.7216313303522451, 9.40329955876481, -2.035824883075162, 16.785838381025584, -12.507456268084827, 3.8928291157240573, 3.720489058538533, -3.2745223538628334, 13.955075405486697, -0.7422060486672881, -0.23145237755826276, -7.348706076405439, -1.5273360714564785, 4.847744758433577, 6.296886985637046, -8.179499303641977, -13.803091693351053, -6.449676951231331, 6.292275414532691, -9.336435144438411, -2.4868890631391896, -13.920846486426179, -14.39377239735099, 3.262240837072009, -5.291022544807416, 0.8085618467269864, -14.444767036097405, 0.13541711966391007, 4.9978598924277335, 10.253499732129866, -9.447782021906278, -9.357451539822588, 11.986827686733765, -2.6354422742718246, -9.754090669306988, -3.6480658455402284, -19.4584379845309, -5.022419207272489, -0.83678061590523, 5.189533719658755, -5.311724880358251, 8.170199101973733, 10.461412965222477, -11.115624021608461, -2.858320648775141, 2.647424467814959, -2.6725706541267695, 4.86931076310209, 4.5318873836026965, -2.645718874065935, -3.9060654762168547, -2.9593517705961396, 15.17168031862888, -0.9168102248874657, -8.425730203014119, 12.20387066298798, -5.410387815147068, 4.978552249021058, -13.469695971390435, 11.373284748348407, -12.824115469277146, -2.0782175129234615, -5.90895438158899, -3.0186428452639644, 11.703190988964504, 4.122200042258294, 0.8423988546451935, 1.1397512804606194, 6.227258505134389, 4.31132572618159, 9.020282924430427, -4.99872821620905, 4.644326812277979, 13.200519916347718, 2.3660358305795115, -10.260204463117248, 9.071641301578124, -11.25238126342607, -1.0080266166106335]}