{"model": {"activation": "relu", "hidden_layers": [100, 100]}, "weights": [3.262460666428808, 8.519348817094222, 8.447976043469339, 0.2974065859675735, -0.018024845152308178, 1.075874877135698, 3.26105828245281, 8.551300317917333, -3.195293840812238, -10.991764250092846, 5.922290494150883, -1.3211561123263569, 0.621157212757268, 0.8948988717135803, 7.783310533173301, 0.037903995300613724, 5.697720993680465, 5.386528490566605, -6.792250220677582, 0.9402241207118073, -6.59189478977721, 2.686119438135486, -7.27377434072076, -1.325449625349046, 3.232363995986299, -4.794867816388152, 3.4878159858288376, 7.470891692125729, 3.2004465217268856, 0.0020751982911559885, 0.1586133818734165, -1.8991963654837345, -4.639638657061253, -6.395379858593136, -9.211636452220969, -1.870579170169492, -2.596512343174673, -3.8336963979076906, -1.1608474579638088, 0.8446885770083394, 2.59523009212398, -4.7267694483249745, 7.25519709659037, -2.366745663728989, 0.023318677859499343, -0.2859305956058509, 1.8650411201598383, -2.3126003237780424, -2.90115966118107, 5.646542716193705, -2.644599907315407, 4.26298252168694, 1.4936964409036544, -2.529063252841893, -1.9738360622626918, -4.336844614387511, -2.39985782874125, 2.285231058473046, 4.228172801748567, -1.964515231269733, 0.08562190254665736, -2.255199148010748, -0.4456779883641151, 3.598587857238928, -0.9968904382009974, -2.516951537802873, -3.699515058773134, 1.9892151546127983, 5.911379855766424, -0.7671031739169072, -6.52737729816859, 4.354460465049001, 0.651285978683572, -1.4913007550057595, -2.531504394517581, -0.07756678893774738, -3.093165463393391, 3.8832285253272225, 4.04382985759667, -6.988994735223366, 0.7721545427454726, 4.802106869508094, 1.1783441268403254, -4.642847723467035, -10.041370334407784, -0.9059844379384996, 2.212545941939296, 0.45918385694211167, -0.8329301598796983, 6.250213745848859, -4.750262393604167, 3.468328197334561, -0.01720150095930123, -1.4778083654700311, -0.5577493694535168, 7.638523223935959, -4.934570821095077, -2.148907010376046, 5.234613888858657, -1.524149261885522, 3.6202678063965137, 4.151960562170715, -3.670961132439672, 5.511969050938429, 7.564655975781456, 4.689538427207148, 1.2510292880840495, 7.967830818331179, -0.051751260751170425, -2.3183347460438903, -5.4803154290644915, 5.863642586936316, 2.001146305677299, 1.3545025141390046, -6.850097724773406, -2.7208312583309695, 1.2671738936878199, -3.388233867437087, 1.757500190518974, 3.413639457371329, 12.114797581141902, 4.761530847887176, -2.817253918227144, 4.1486055875237575, -5.721140384676083, -2.997756519348723, -0.073507811744003, 0.3331629182656337, 6.232840155978815, -9.385896691505952, -3.1334002632646922, 1.7887144146868414, -3.5707097678861084, -2.306802810819297, 2.401871726488542, -0.6534246700510945, 3.5027520635115774, -1.1319176152661494, 0.32586602498713296, -6.927694869870967, 1.9284934125574882, 0.8179078192035885, -6.100306367124525, -0.7714973145990065, 4.4553284394495, -0.5442858960406722, 3.709712621053037, 1.5280804922341606, 1.138969999964634, 2.8211941469620645, -2.3095890938521983, 0.8276085113303567, -2.062928805559485, 5.124817923006806, 0.0006601287115006738, 4.6955944047278555, -2.0760353009409758, 3.8686327968406107, 0.09043944384900933, -9.000319198294013, -0.9206302086421565, 0.3516157095815413, -2.8140180658330443, -5.60686681247754, 1.2684367695632845, 1.7909868661425947, 10.167678220766797, 0.617671045188531, 6.101807865771704, 0.28078186158216134, -1.1270533109550844, 1.7700519618194446, -4.62530676957279, -4.339212519282664, -2.0935572758955705, -1.309232015037806, -2.0532208776030836, 3.82481996216585, -6.196368564272706, -1.4577658868455878, -3.3825590924691546, -1.5428594832360545, 0.697263221928051, -4.649756339811223, -8.34822908340808, 8.34352526931003, -1.418198975755963, 2.8235964637609525, 2.963687183142056, -2.371557787911046, -5.9466629427122815, 1.3938578961214083, 0.7448748696925717, 4.987662314206307, -3.017519431608778, 1.8623301108864059, -0.24182857686051848, -3.0593695949041044, -3.203691091036475, -6.920391616199299, -3.793474753608714, 9.845605124585651, 3.9981023856648026, 2.6201793447362296, -4.48664251993138, 6.065378958604365, 3.0964441878464144, 5.07170692206477, 2.447700786879877, -8.609713070138138, -0.22541242232184322, 2.05244103629965, 1.8919258251137612, 0.21737095256769745, -2.024381569080541, 3.768360193670927, -5.61434424653478, -9.490391541668496, 0.8975223799421977, -2.331575816565513, 2.03643029364088, 2.6947145612903554, -0.06053116673764919, -1.4523505428476058, -5.602994095328889, 3.222209341756826, 3.0360676527988306, 2.4735356606089254, 7.185992497791522, 10.039988889939508, -1.8458235060725006, -3.1579642839367152, 1.062354963422038, -3.3244701091724647, 4.44106355669105, 2.5670378256498387, 5.443747902516462, -5.293315414880937, -1.70723441687493, 4.163360156937168, -4.57683508732514, -0.7690532646398237, -3.9907016232985333, -1.783098883696017, -3.132386960254148, -2.1891626778052644, -0.42104536687222094, 3.8868919195231193, -5.507503720319438, 2.6457239408395816, -6.049004562645842, -1.505119067130743, -0.41774647173154167, -2.0370744173176534, -2.3900373868887197, -4.922082239947483, 1.2085662186775885, -3.045081496798777, 5.9972540384160835, 1.9823677645009368, -1.5342680741970924, 4.038446729092232, -3.5794951885648, 1.0598228132452363, 4.503118047549746, 4.6929767921274115, -2.98231011295601, 2.8236536732319735, -3.1999773562459817, 6.906204750278232, -2.131585323083038, 1.3775698470849005, 4.638796483586461, 1.1362658888578756, -1.0407315762153115, 6.306679911373242, -4.751072716014456, 0.6934153823590602, -2.728668994889642, 4.668593153486039, 1.8477896819006765, 0.777122332166613, -1.342896122294325, 3.776913253432742, -0.8824712640434766, 4.121327508420544, 8.17376176183161, -4.287417959864368, -7.756498085124672, 0.8797882833265134, -4.7435714676696685, -7.674040285523752, 0.5728201386295231, 10.891713320313183, -1.2009135828551059, -2.3333275637864945, 4.996734748968364, -5.317022800065395, 6.132160932050088, -4.2269235437134665, -5.1102975860875235, 2.5354288231266096, 0.7183085396149423, -1.0126769363132744, 3.29887495256939, 0.48893981059234015, -1.9059168183396142, -3.7137140973702376, -1.0605150316819023, -5.315763165429125, 5.37960448256332, -2.2671219705783585, -1.3320082393685282, 3.322124177557928, -12.369577570975775, -12.575136502383419, 4.136447737529241, 5.566426804927904, -0.6714905012785848, -4.654370497395292, -3.5592834496731145, 3.1822258239764754, -3.7433693153532395, 2.5001661684120635, -8.877095582565667, -2.548472868530716, -2.9150713654713347, 0.7119808029909733, -0.5831521174721527, -0.19595792534602352, 6.531516193118514, 0.16332260100620116, -3.702123350988263, -8.715460316301431, -5.229997454346462, 1.482612461012292, -0.14107543028945824, -1.9718883190990302, -2.2038739863476753, -0.4022630583353064, 9.136694476572261, -4.366131959651777, 4.103084205794371, -8.754046564334084, 3.1764943395173253, 1.2580372993097235, -3.7853821827075285, 0.19790437022431231, -1.766057862824137, -7.029982376433935, 3.2327991121035318, 4.686334531794993, 3.5444018961429276, -2.914785775952633, -5.912874858459652, -4.873654082974335, -2.4678761174186485, -0.9543880598280605, -4.6587897029362555, -2.8605918779008404, -4.712884681237474, -1.65142288911328, 4.098821110508795, 0.21856035909024407, -8.542748955184207, 8.306393420699443, 0.07570825045050561, -6.703945594915048, -2.4325392788182287, -1.3788555863576781, 4.570489267471715, 9.22789329347026, -4.305259890494186, -0.4409317339090966, 6.108700446565587, 4.679026807033346, 1.1336670650327494, 11.031201355381024, -9.725515044534777, -9.53283134706409, 6.3690251491612315, 2.443577066086955, 8.3338134514008, -0.7753810098254609, 2.6744325229867285, -2.5185322164187047, -7.233472141375661, 5.323973162444037, -0.2977845273235012, -0.24575608430217077, 1.5382594392710751, -5.948959339237292, 3.7621128934030748, -2.2934651013865444, 3.6072285995387934, -2.2777001030137307, 2.4168742676256705, 3.5820641578567955, -6.9841200518996835, -1.2077100705608577, 1.0953416850142244, 2.50021523056293, -7.263660621704537, 1.1884293744913148, 4.42144693869414, 0.3649577395182201, 6.166366289072618, 0.37954468849117384, 2.433494578581898, -2.760527644789092, 2.0386579872212534, 0.2985356196807055, -3.1084702432361278, -4.823879737986993, 4.527322626015434, 2.052671757218146, -2.3891977351655487, 1.4006008315256695, 3.495366196909606, 3.1978739103612464, 3.99799341995908, 4.319783420553656, 0.9140725084754107, -4.7965815419109505, 1.2479012713029016, -0.14643917959744296, 5.4335444146418865, 3.472910903748416, 1.7019096889042333, 3.5323821257398906, 1.0976178122232425, 2.9326810612400394, 2.102124134604927, -1.5157287656406824, -2.933186236335258, -1.8899624492230356, -8.897834353201217, -1.8828219727782125, -3.500283270740911, 1.5507334720103136, 4.951420441688948, 1.670947612527835, -1.1789038614238176, 5.5278998640882815, -3.190242207523417, -2.9105369742565506, 4.981648864091121, -1.6524618332615193, -2.2804128537207724, 1.8146546842414608, -2.5794256672153097, 2.204900285822542, -6.292680029309802, 5.442956110609377, 2.4254672915943183, -2.9268608103541927, 5.034983474149073, -3.1782944452090343, -1.5740805673817475, -7.058524173131556, -5.38152026746636, -0.9996561578487699, 2.1245464484223158, 6.194777187752756, 0.8532444804965953, -0.9716449706480876, 2.4620737899822918, 0.9168550812469536, 8.27368393705516, -5.047060625535949, 5.06426755341758, -0.8227221638115532, -7.214936578727606, -7.61509004605694, -0.8941521959395295, 2.146513892722838, -2.1715173296126995, -2.9654727585773477, 0.8059150231794022, 3.0723203943680883, -4.321391915534816, 1.4823605604891226, 7.322494960886772, -1.8938108998508791, 0.4014855066311068, 6.27965383989949, 11.351053708669237, -2.991298169471181, 1.307119307987488, 0.5933203588408213, 1.3359123380111448, 0.571383515491458, 2.7677168427641967, -4.275772166432081, 3.0902388848477855, 3.570773518913226, 6.675669114139037, 3.9051292144123906, 5.185605174576794, 0.7041516166128778, -6.8422226327092135, 3.2080305819211126, 6.100388005825403, 4.927633920889276, -1.2987628688501984, 2.578217401524308, 4.821394918559735, 3.093897538108436, -3.8039801327530394, 3.423409356647138, 7.158079607888643, -9.015996445287499, 3.031218148376929, 3.902479923596702, -2.0557072949872595, -9.842135186041915, 12.685869698197477, 0.6216662417493198, 0.35593175111826847, -0.5223930999709212, -0.49303772556913594, -4.491439094712379, -3.1323250694606095, 2.390723090645934, 3.0494945354847127, 6.834088843833366, -1.6027899652984565, 6.0956096370232595, -5.896507369632071, -6.375987596974239, -5.17227976828515, -2.130379592069435, -3.8726191174931044, 6.072711632899738, -1.4948016199352745, -7.042950552646532, -3.1929451534659714, 0.3949732083290025, 2.5988781376324983, 3.9302325334731663, 4.1502073082508515, -6.559485801261204, 2.9971084601625364, -1.59791465622752, 3.3527214429780363, -6.713339880373678, 4.8879302262352295, -3.6315034903512697, 1.4204111366259415, 2.7965417167513493, -2.8351124407281443, 3.909910287863246, 4.547765969894981, -6.024630643650084, -3.1952392674754053, 2.1742978165930613, -5.975711485195877, 2.77728596051064, -2.0108032038462462, -2.034583646975709, -1.268165275075746, 4.918940870073135, 1.8958830935436808, -10.872290470157951, -7.2785900434598005, 10.165276172218677, 1.2448436279590405, -4.606366909300025, -1.786152290573296, 2.176795710222801, -2.533522722909197, 2.890331892915601, 2.76703389523068, -2.513662109533624, -1.339043962003402, 1.466785992151665, 3.342048492839999, 2.3658343348881825, 3.756966001466301, 3.3841664204221407, -6.4605365685071465, 6.4408794369296904, -7.929682027488633, -0.10819938450885314, 1.611582003507725, 4.710033050685315, -0.23680933564103523, 0.05496887315141108, -3.07431278127602, 2.257811946862378, -9.755069141689908, -1.7947775818609149, 3.637592602328306, 1.3656328895487664, -0.875317534155325, 3.3813940156997706, 3.0226268133942455, 0.6243319914998897, -3.823946512201871, -8.108186159604859, 7.213609889659346, -3.7295856557505314, 2.8251490031109667, -3.6894791449028075, -3.1480064557169958, 2.04149649069799, -0.8248492205662826, -2.506170999282717, 3.4440036965556153, 12.01345229294926, -2.5607212808786124, -4.240162982619365, 3.9179436302994475, -2.9246083919831953, 4.336922930350216, 2.6866937069132253, 4.786129991264685, 2.5003523624784414, -2.4151423958495615, 3.012836496482267, -0.5375031540673608, -2.265780063088594, 1.6176578877422667, -4.649460051602887, -2.022287342732344, -6.612157524468611, -3.7000585541821462, 1.7226182564153418, -4.092947998140827, -5.1136018639593175, -1.2881062460457726, -4.150127743974511, 4.580083281424143, 10.554584329554213, 6.226042614954689, 0.7309531680484075, -6.784645523907404, -1.092278810642703, 1.3887574707857668, 1.4801344473792846, -2.901916498764706, -0.11614558326063912, 3.5820272596206166, -8.61289161048588, -6.9965106357674705, -1.894041666007452, -5.346340278566909, 1.511287538423262, -1.9390529791745754, 2.1476530640357097, -2.345507600296502, 1.740184801955611, 3.890475630536907, 0.9634466321821232, 0.07554388923047117, -2.525880603883622, 2.5846290870825235, 0.6095961699485655, 4.087382517400252, 7.930389409484638, 4.803270085639091, 6.1700516102101615, 2.2257099349680742, -3.4937031713535696, 4.683345618362153, 8.447329219515726, -2.1448411736350623, -1.2135316871460182, 4.3598016141676075, -4.52870026699647, 11.371953767824781, -6.179767646120836, 0.03351558505976193, -1.2778716288778202, 1.0624177373021588, -1.1433879361375792, -9.597506990320184, 1.5455559840796407, 4.270825371622195, 1.3869563530020406, -3.567237193880974, 4.588205757954222, -4.384727444638473, -0.5662935602310648, 5.073183723139208, -3.0586023556918778, 2.6396493867135375, 4.995591529072726, 3.465644970787255, 2.2509600075378207, 3.779759736234879, -0.6061756711700337, -7.845561285936441, 1.088156471042863, -3.594047524254905, -10.614728103810391, 5.017431084082692, 4.354258697083434, 5.376773559129016, 1.9866023970912452, 3.5220387965232316, -6.101982300286839, -4.39478742367187, 7.451647943860691, -3.7491556103474, -7.570044098798045, 1.5911010926109783, -0.07870664475224731, -0.7741209302934784, -3.935281102630131, 1.836730554235551, -0.9969024813434635, 1.667830217709433, 5.873734102054902, 4.0354600937903715, 1.3251734968019364, -4.477939650314563, -4.9728837323853226, 0.18994267563586476, -5.125984958919399, 0.6974258184238235, 2.350273949421251, -3.1959672797219123, 1.2766636914728333, 7.207700368632761, -9.505907647413997, 7.80452461631595, -4.670863660637892, 1.3797641021105511, -1.8700890564831627, 2.6055576930514643, 7.021375437490674, 5.933927202385827, 1.1400640710778236, -8.243634660427912, -7.039813089798016, 0.6935026388321996, -1.1446624941400092, -3.7048626140082863, 1.1752807499089217, -0.39219281977539944, -0.2857552891503022, 4.256204458945334, -6.111013176712955, -2.8198666193718696, 0.8966672274258645, 2.298016448573764, -2.720017426266448, -0.506126698925677, 6.707533974711619, 1.0483093616612007, -3.521361558848331, 3.914488738515028, -1.2149672771026168, -9.008371806195758, 1.6923062018840995, -5.520230079952858, -17.36078384978432, 0.596554514184495, 2.228076007280693, -9.903748133881454, 4.416458318895165, 0.4541240160412246, -2.71182823710913, 1.2564404100907856, 3.704295844732994, -5.360607069797953, 3.2305014025266052, 2.791918529821868, 0.8102213433001344, 6.372961155013633, 4.659550648603051, 1.5355741816041901, -7.944806551596459, -8.848624110661575, -8.868483153321433, -3.131793364619186, -0.13603104047213965, -1.4740685812936547, 0.13518866050152623, 1.1874414993221727, 2.0800122265888956, 2.810192974103194, 4.8380177405104865, 4.25577434544245, -0.27560706439571947, 4.802285627746302, -5.968674709676022, 3.4071984023614292, 3.2895873471425165, 1.8369849578425268, -2.2638770777890005, 0.4381667512242421, -5.2198217793584645, -1.0311244377192488, -9.231307530396373, -7.335815717822585, 3.434950263834077, 8.854099036167739, 3.063227160944611, -3.907420611924481, 2.1422928761197064, -5.003363824233113, 5.502348539945557, -8.476172975085705, -0.06446673703850037, 3.070788062215993, 3.7806334408442064, 6.476249876573657, 6.512029902630867, -4.815702064071955, 8.822423104248243, -2.671800344790878, -3.9081077289399535, -3.7192907216238003, -3.6755559818005756, 6.708413866144338, 0.055484339846895825, 5.266964186558044, -7.992804800893237, -3.582431056283569, 5.073644207711445, -5.900675534969789, 7.845148709977152, 2.8020168964839245, 4.9070743151852465, 4.537667806942703, 1.4454134792332556, 4.574597795282848, -3.1990495981110643, -3.8298636110041753, 5.846327623195589, -0.15927528209598196, -2.448626879757028, 5.925668395958308, 3.78536398684369, 0.8768102207095927, -0.23241288534652083, 0.6238066760130709, 7.522346118478115, 4.945567959148412, -1.713612128897556, -1.4702607845197622, -0.38444921743160876, 2.879331736928868, -5.7452239704797625, -1.9202147270414558, -5.642593290068758, -4.606329415081641, 2.607279663730079, 1.4822050780563314, -1.3112333910302902, -2.4743184780742897, 5.921876886936037, 4.13665992837287, 3.3621189030668486, 3.383007955158096, 2.3487272545978373, -1.5009376342556462, 1.0660444672366274, 2.2816638397052253, 2.4822946717540115, 3.604763551627976, -8.234328965595843, 4.417173855448134, 1.2195839807599094, 0.038805612685644864, -5.454099205137376, -0.8841855156812897, -2.668243789022908, 5.4333745060819005, 2.5655663755739506, -3.4322638498840625, 5.738073838128556, 2.2023022262709477, 2.5175400383579785, 2.17195966293945, -0.0579113739208208, 3.3211731028952878, -0.4328880204757657, -1.8853340265292482, 1.8809551515406266, 9.877017694524088, 1.1887843869952472, 0.9405247628246143, 2.101326418927439, -6.41419296601011, 7.5276876142158216, 3.461896716633767, 7.186371274237537, 3.7405065254635446, 2.4605131935945046, 0.6096114453329157, 5.424002941475877, -2.27356182409372, -0.6093367348666171, -0.2557258112092815, 6.476712053153694, -0.8807875659687312, 1.781248179524624, -2.945420821134715, -5.303568815132102, 5.336569387505529, 3.758516900832216, 2.3729730597044734, -7.744793789388357, 7.798118495012596, -2.831081735119258, -2.8066060434984283, 1.7564896207638856, 4.781788731012296, -3.319108268528088, 1.1701052595300223, 1.0367463320832093, 6.586386732916913, 5.502389587068339, 3.491149013803311, -5.016657180680695, 12.385385036923486, -1.034397599499306, 5.733450622707877, 1.79811848920644, -10.206884117422112, -4.932230366629374, -2.0182628034889016, 6.11041196991023, 0.8033212442920084, -2.6760962315947476, -4.581527938460665, 1.1474435384847068, -2.542662041338009, -0.39268118853190737, 1.9356299889909017, 2.236944371076844, 0.7092487072447062, -4.7643821878024175, 5.209622819925446, -3.6539088071550148, -9.236336305754412, 2.0655313862048517, 2.3489899351222956, -8.868968688704776, -10.275250733967553, -2.9738390468168165, -0.8767403052377194, -5.780243884561081, -2.1031170610956655, 5.256093410219906, 0.652217830255506, 3.7299234934462797, -0.7990308847317797, -4.993781483443911, 3.013879592351489, 4.216459350675045, -7.632613602162449, 1.5517422704499784, 2.21508255870888, -0.9561556569519367, -3.8058327513934724, -0.69855967979973, -3.693369673092481, -3.024342265792318, 1.6451758093699567, -2.8944224454496403, -6.170157219896869, 1.8623123008288065, 0.1836029197920015, 5.998621495147724, -3.4763597300678355, 3.371554993097505, -0.41663202476233907, -0.5297416260317225, 4.44766201595078, -11.070349924447527, 4.19161837737528, -2.557676563924935, 4.397962637107492, -8.311319767708195, 3.561684181824126, -8.919073616861526, 1.8714331010690257, 5.001075679759474, -0.7151503919773872, 0.7120334246677194, 1.4943857785914776, -1.8025444805173634, -3.0373099482637906, 10.598216519291974, -6.59166765282864, 7.528583172189211, -9.187384867292142, 6.028932642981491, -4.254735757076289, -2.2282431648421186, 3.433572755224654, 2.228827243863269, -2.037886307456523, 6.956906295829105, 3.7267218537714775, -2.6071583610780014, -4.062022636123951, 5.456123600877649, 10.904811523054825, 1.9000984050194294, -4.143030953802015, 4.696509613659824, 3.484907834188514, -1.8590291544101363, 7.46508410833616, -7.341473430933527, -2.853528012614799, -1.1904644670419617, 5.321021887830041, -0.24268337714034294, -2.837561581197598, -4.148716548672357, -0.22074868547115145, -1.789387951665373, 1.7515596164197036, 7.010740301475563, 0.34638913693976736, 6.204423005545276, 10.025071067362802, -3.3274282896602525, -0.9483619569739248, -3.227501730389285, -6.6210594305966755, -0.3499549813479961, -8.564194794631309, 3.1693124934871735, -0.9426835579867769, -0.7897481383728584, -4.158769935205824, 4.758299171259006, -0.5231491172541409, -3.4190902246679644, -2.9795478294043107, -3.2020303217940946, 2.735490748193384, 3.36816319179039, -0.7882679754437008, -4.8826747551516965, -1.5770237154576556, 0.38604893585949335, -0.2659803613397195, 0.12793278170029154, -6.727668748770758, -3.9039619271698602, 2.714880861797816, -1.92650416575208, -5.225659956186049, 9.038156585083021, 2.0163199898653046, 0.36512785714721807, -4.975440647373999, -5.179862323992106, 8.72265513634533, 0.19712290451772135, 3.4266982636321868, -1.9836975390428657, -6.627237801708141, 8.152369909360948, -6.712034816091741, -0.37795377584022316, -6.519095276502867, 0.3268736247932005, 8.201712477142726, 3.853892684649308, -4.196015410256812, 2.3830214186773007, 0.526869496609164, -5.59282327793602, -6.963313874164992, 5.167488762521078, -2.0243260270778616, 0.16901014215805077, 2.136270735005082, -1.381669706074056, 1.2831190098090364, 4.67449290730089, -4.667693155845701, -2.031618412732113, -1.2646818401677227, 5.73141788123489, 1.342266840595982, -2.6093223914412236, 0.6520936600211743, 2.9119685721777695, 3.048225220815641, -9.629718828944752, 7.546885771966879, 5.873137708856377, -2.570617298771274, 0.8454691679481796, 1.1200319868466542, -1.0176061139262267, -1.86356332639019, -0.06161856200739035, -4.387626186511891, 5.022300634754556, -2.4039936825032804, 0.23619186669862935, 0.5340534734612963, -4.667250725039887, -5.298107971601484, 6.589888373076582, -5.216666356364778, 5.56120496303591, 3.1970194163078958, -4.976814287643788, 2.8585273941167326, -3.9193436361046095, 0.7451247379603975, -0.1584369103490727, 3.823916134811453, -4.263602329825558, -0.26465769504012554, -6.663145685940908, -2.606180803006168, 3.270749197673582, -1.126387690909549, 3.053681143315522, 2.0346114522622973, -4.39251056094188, -5.254121196817202, 6.074043194136032, -6.5057299570708444, -2.9629916914445733, 2.57138670124216, -1.1936218294856196, -1.1089176919131705, 0.1599813773975864, -6.963866353432104, 1.0228099413542369, 2.6470306458656263, 4.251050044096163, -0.13786772442411632, -1.1289687498366214, 4.888358262391467, 5.254911666934681, 0.020061350201659167, -1.2608365042991232, -2.631713731570093, -1.2619196947168156, -6.374466908130969, -8.912249368128455, -4.247295246430144, 2.6070035086481127, 1.5903893879027888, 4.131708511727819, -3.4752715531581204, 8.890010662124919, 3.1286387954710113, -6.646440231947016, 3.3318191315173507, -1.3105637490435869, 4.966063969204628, 9.246954667935364, -1.0479829268400205, 3.227377829069539, 2.5973500956068576, 8.19462751137642, 7.334325539564269, -2.6626535678521557, -2.564354587005657, -4.059297200596742, -3.7686876218124223, -0.9450303507232278, 8.02016101396768, 0.47228548908107315, -6.186516609531826, -6.994886799899129, 1.6285946167184098, 6.634804467533508, 8.015577808823345, -2.3386905280761443, 9.074386598483585, 5.608389653036242, 5.921833768052181, 6.985272481289294, 0.1890571796034619, 15.520307845562927, -2.347929032205731, -6.862462303091186, 0.1075866081362625, 0.7154046758089068, 5.804609166615022, -1.903015614015988, 2.923036943384381, 4.006497120736781, -0.6497156330107694, 2.315418650883906, 4.641254981437716, 1.256261205784234, -1.1199064633477198, 2.2306804453405746, 5.247164812040858, 2.9288135524213583, -0.7380035509050166, 2.9157200661551608, -4.083149432528547, -2.8832505522659284, -3.510619252924071, 5.253544781169591, -9.049967462328475, -4.803200606084629, 6.7358619631478245, 3.408164091141008, -9.486143996728222, -9.147499877441193, 4.008248844343143, -3.1553982159741083, -5.275844692430393, 0.25330943124723954, -5.2530448377672, 0.6852285198964925, -0.8348837272180132, -3.681594005717091, 2.285603682506348, -6.6040956080836635, 0.451001378656322, 3.2918211026797874, 1.6414499795462008, -3.229897028948263, -4.337627548240148, -1.8026421383796032, -2.8985774419214088, 6.412430904663188, 5.521816163947383, 2.8816404823714628, -5.035837035412931, -1.0125419416706998, 4.1294829751513, 1.8635676230883202, -1.1506390649256484, 1.3562451205355521, -3.0338678563717054, 2.1492852530395647, -8.830352043022796, 2.30321733328286, 2.884207169611191, 0.3099635903236178, -7.773052976268833, -2.680405741164923, 3.026550900373818, -4.218419446925651, 2.975293214923905, 2.137191345208733, 8.908981533341665, -0.20393287859201936, 3.613905905852044, 1.414720668149486, 5.849278860763875, -6.639181487026638, 9.234384362734659, 1.369261012568451, -2.3759946424794425, -2.3141454706785263, -2.6150110138155203, -5.220131193228805, 7.664763319619004, 3.3077148329990163, -7.752643378641343, 2.3306245595532378, -5.605794364866281, -3.571820558686884, 0.046666845816841496, 5.440878564402373, -2.5683336449824576, 6.526787743204442, 5.898163402807805, 0.6449449920041309, 4.198121251142777, -11.080597571231133, -0.5136380306387357, 2.4943484021538467, -2.8051362772487103, -1.5556473445629966, -2.0763008083740453, 7.369605240279364, -3.6972163598783885, 2.8748894452848774, -1.4817854339417993, 2.733175189325186, -6.334219950492306, 3.2906627911646638, 1.9435290953154252, -0.886255124246063, -1.7015218824744498, 4.347881183658416, -0.9528499464937598, -1.8314888292308211, 1.531287712406804, -4.531239581472011, 1.9916573988318986, 2.919638387364514, -4.631145654174053, -5.033600458355112, 3.3995453568903082, 0.6327385241438975, -7.089121905563817, 6.598053811798978, 2.8102819343751815, 2.3060478751350866, 2.3481051837144715, -0.6157815180617079, -6.759351053450459, -1.4279075337282752, -5.43390174155678, -2.942315845489814, -2.310402235197323, 0.13506400263663135, -8.779837620071207, -6.209867078279722, 1.4614373025818945, -0.2074140089357216, -2.896912471355302, -0.9048565136442572, 3.8610555913275375, -4.941318265498154, 1.5708997048201696, 1.282853685945768, -1.3971688973129976, -4.32377987050323, 2.250322310673256, 4.57109949009815, 2.4760624118439134, -3.5166308054165656, -5.740912891047709, -1.0796587860115179, 0.9228364676783457, 2.8904581637619113, 3.274850267306516, -1.278825769363717, -8.700044513699703, -1.8138388198682525, 2.20814534072084, -5.981774437541808, -4.59630035600104, -0.6865197184948528, -2.542652356799172, 0.16940949675216962, 2.7029346143780755, 1.5332539551614996, 0.6434349336331201, -3.886282590033437, -0.5784743613292296, -3.812665977238066, 4.345248317255265, -2.4531575563083905, 8.617810988555446, -11.43606286917227, -1.5501323309520258, 1.1994014387450942, 0.29129818934895124, -9.00419819678439, -4.416190583520841, -1.2912715838811568, -3.6828328695587746, 3.225831082339262, -1.7342031173229973, 1.1379309355333533, 3.751397438310285, 5.507757692692853, -5.835918048240042, -2.77546133394302, 5.477269197545215, 2.467969317541871, 4.74891996655767, -2.8286462420890874, -1.8566691288920185, 1.7975481787224088, -5.705904021941182, 2.6364623323667096, -1.6012917347033537, 3.02536527738392, 6.9427409653714385, 1.642275510187301, -3.183580106874777, 1.4396016537653096, -0.32309074939137783, 0.19850669903557727, -10.772328427124089, -0.3424034386156697, -9.701269441185687, 8.188467680062473, 1.522097913473319, -0.6770510671283698, -2.3516571396273216, -4.510115051193226, 3.2997111426313945, 4.663142085285339, -0.10717691417494035, 0.9570135390263682, 4.2868978556377755, -6.589089830304633, 0.4381538172452288, 1.969235876792947, 0.38018276512504257, 1.2975809188917504, 1.7086366666175419, -2.179034956159187, -2.975909342065547, 5.44866138611153, 3.2458097519675224, -2.5229690390863455, 3.885034530628888, -3.42767147658949, -1.2578673922470722, 1.749478874564356, 0.7784262159359598, -7.615888289210802, 3.7293288372743785, 4.865114832213981, 3.684966649420229, 2.7813391539781454, -6.49422773979892, -2.433054183224125, 4.345040126119387, 1.5492757464732347, 10.552914343724547, 7.436146877114955, 4.17567152784404, -4.503922789238976, 4.088779298409407, -1.1331984530000712, 3.3317903398028537, 0.8946175436479908, -6.141405783369208, -8.186230757669842, -0.7611390335822781, 0.5201108924656663, 3.304135706702933, -6.252292634629619, 1.14808984991725, 2.1591464895076053, -2.522008455441531, -0.9564298905734604, -0.33208204066132563, 1.2149255801876846, -4.200383158541612, 7.295143549050837, -8.047029877311994, 6.9150247780358445, 11.698277243467167, -0.08748362357485484, 5.771767095613565, -8.195468826370893, 0.7608889634552319, 2.1371530190252432, -3.279444642613339, 1.2678744004726885, -6.448092180619945, 8.579566021357685, -1.9030622629471377, -1.345774300553875, 5.005233877503739, -3.5162290057789702, -5.255228080955699, 5.080074951286454, 2.0124887438316366, -2.724433720678956, -6.055047017352232, 0.24639602082537904, 3.983845982034302, -1.2180643213299924, -3.394479066583521, 8.9029848262629, 4.49206430402665, 4.800315245770555, -5.752947320239386, -4.428562899095486, 0.9413154876054044, 1.4313198821060351, 2.176011980962564, -5.851539230186186, 5.44521696100771, -0.31143700072009606, -2.894834306268451, -9.919579267282518, 4.330384224520889, 7.365754501965338, 3.199335753256923, 2.143491912377976, -6.637666858775882, 1.3655133775489976, 1.1455937914092127, -3.2728446214286606, -6.017252422194034, 1.988468536381622, 4.139023271194049, -12.592404741269409, 3.918229541829614, 4.9840020540444065, -1.3750298212113772, 4.1278779349594545, -1.6562305901770633, 3.3708570169101515, -1.9247740492963321, 0.7210786841807009, -2.8169577920986146, -3.0993539022248604, 1.1153179093374315, -2.3721397378754685, 4.276115365711929, -0.8087629614765793, 3.7229407749005237, 2.0848322511676023, -4.210222811578887, -7.7876244253484606, 4.0111640768262, 1.737438040891713, -1.6428483163546912, -13.142857577932432, 2.3682749622633987, -1.0413621596539082, 9.20190299746772, -3.359062733295191, 0.5968497589051802, 0.8363740984310762, 4.187402614825604, -2.058720064315927, -2.730363692230303, -0.4781013215643443, 6.80041353488589, 6.893518667659472, 1.6381766314452664, 6.095335432821264, 1.3578852066929614, -3.182457528026416, -2.030235694815559, -5.56141211296251, 7.832954688936106, 3.6249629207819334, 0.9459505865895735, -7.678958303040796, -0.29367328076689597, 0.879130244351618, 2.042577954166568, -3.614722650238795, -1.9384462748930924, -4.3214507451230055, 0.7546686327929423, -0.28802332741158815, 8.099644950239123, -5.991585542906462, 2.617812081750145, -1.4506816295200666, 0.339966105153263, -2.5549648908051696, 4.455367664262635, 0.9068809798663038, 1.4978979460778896, 7.83719496459406, -2.458660807019814, -4.587527406117969, -3.3295894925649407, -1.8237632499690326, 1.9503302845769923, 3.912574774448412, 3.3359204152665853, -7.279762102816581, 3.437809115196904, 10.056158262525019, -2.5680305124146443, 2.4679960823930993, 3.149914175757708, -0.20200867711025183, -2.4661734468090204, 6.390364710228868, 3.515745525631039, -1.514450218475573, -7.62934130572279, -2.233092565278734, -9.487601175492957, 11.531790019867993, -3.1949468102151077, 2.980651348285947, 4.461126237684513, -6.8828816810350055, 0.844626359043921, -4.5932684146666976, -1.609001428285967, 0.8841171138953692, -7.419367810842797, 5.598297121428582, 5.182292582117335, -0.8591686408623915, 5.157419500854954, 6.326693908522594, 2.200937104678353, -1.4779157531030185, 4.32697205962993, -0.1519959712687621, -5.03017000778949, 6.9548231580929185, -10.837190582475904, -5.503986742772332, 6.8211351251986745, -0.4178157091462961, -3.5653435657183743, -2.728090625280969, 1.5708328439118275, -1.5052040143868917, 6.138172782410253, -0.5132240963369219, -5.612959668020898, -5.191209223191361, -1.3230900616776633, -10.408985968911185, 3.294670628261529, 7.430925616481281, -8.090274251666688, -2.2769689071911396, -4.326017273634147, 1.5745618535808283, -9.959941423411282, 4.426458114546593, -3.182627689679078, -7.076534211401622, -0.15570964665905795, 7.530908680814952, 3.8752664371520495, -4.500107871270755, 4.681415411013828, 2.77379209582604, 2.9439278958527915, -4.60949024371244, -0.9535346068582651, -3.080831400853031, 0.547031863194712, 0.9470742251072424, -10.672798963546743, 2.4889732377253657, 8.85819664555331, 6.08018040419441, -10.475760686603634, 8.705361898912296, -6.680425439309198, -9.340123617267624, 3.91468838831013, -0.9970452182907318, 0.12390568699424742, 6.145398013761211, 3.8122520964292517, -0.16655387875848432, -4.564195470412917, 4.291261733408749, -2.11299029150954, -5.354543811611398, -0.681536122544153, 0.9544755218443204, -2.9384561323605016, 14.949038989139925, 1.1926016094545902, 2.994640468559644, -1.0929262973836789, -0.6408586398143676, 4.762533985643251, 3.1421972609182807, 2.1185693080585577, 5.91072238544431, -5.054965593381398, 1.2064500550671808, 8.221289446140574, 9.607064771217551, 8.689085273420154, -0.09576105255994345, 4.653861493673556, 9.259858881766997, 3.9675322378042086, -4.218840471775842, -3.1285392378434462, 3.7625408553645756, 3.4308461921601525, -8.313811079334597, 0.27186408128747896, -1.2944071182217507, -3.48822596454652, -1.667226418034583, 1.6479132371613023, -6.727983752444945, -1.9072042147719785, 8.915219723834724, 3.340010031690225, 3.8785638173118975, -3.976299815598744, 4.353750055636469, 2.1762237875873813, -4.925068890186786, 3.7991120005560735, 1.8581364351143077, 2.0529333071598477, 7.1699041931009795, 1.890188253929605, -3.0633184823231328, 6.944566480289231, 0.04372755795504535, 3.6938098039187937, 0.1627680172463271, -2.0193673326165995, -8.837982867328222, -8.790320919219333, -8.046294057759795, -8.418695279320671, 0.5402282576983922, -9.453714487607042, -5.08264788890664, 3.1056688203778373, -2.911212521777478, -2.344629619283412, -6.346524851782882, 7.180065220810787, -0.22417936350823786, 1.9920736613018137, 0.9840119540761569, -1.3282822096165952, -6.4188834610318075, 0.0502589601379122, 3.2159388407270617, -5.595433119858739, 6.676342280965307, -1.2720954491880816, 1.640999871039765, -12.605166751507843, 0.5208248960659101, 4.919696833423377, 1.602092885815663, 6.181970648989245, -2.1045698483864395, 3.9863106913600648, 0.6053240565141526, -0.08357227955634716, -3.533015358412419, 1.0780617345736299, 2.3864198853541985, 0.5722142352748399, -2.07264311890608, -5.993014563248469, -3.6437644659125166, -5.746410753982035, 1.6904229720256139, -2.234206521415566, 6.482833436523979, 1.793552445522972, -0.15140236513317906, -11.093013431601316, -0.23477890084580721, 3.2496558512152527, 2.615808715834729, 3.5533922201797967, -2.0299994070530816, -0.9188371191707794, 6.113811886357794, -1.7337861386718354, -3.0926520457595497, -5.294231382291784, 5.011331211933094, -0.5639903236370153, -7.046482853871661, 1.5504898596303491, -3.5607936924809773, 3.514479016491075, 2.7635144001391625, -4.539028467135802, 4.348071507663395, -2.434313934271496, 4.7536581934957685, -2.2810716592386835, 2.653495142142405, 0.6397058029159478, -3.7786400529994895, 6.084148541386856, -4.672512120314003, -4.834749106408369, -0.9242053654791942, -4.5568078582222125, -0.10378961416931398, -1.884450154233381, -1.2551511279328096, 0.31852570907392164, 2.528356628404124, 2.7243405474993674, 8.640913827813634, 7.165079200253842, -6.458860451860672, -3.927076681508007, 2.863936267976632, -0.15837650636714135, -1.7317922302674518, -2.6392332973845942, -8.822187809283967, 6.49295303295413, -0.4733172126188602, 0.721737137084091, 10.581186626421712, -0.8260567154411043, -1.3541459188330034, -5.755471957957571, -1.7331463412431933, 0.4612725952722938, 1.7167756416431308, -4.157727138851221, -3.9462299310808495, -0.7220475658730563, -11.431711305633879, 5.925822011449078, 4.289996108347764, 3.181840547684244, -4.150941522484375, 0.48690839087172044, 1.4636702320699357, -2.3039364619417495, -3.4167383136903435, 2.332463476165085, 2.3002051378611, -0.003651235599112762, -12.524864349820069, 2.741265074879628, -2.300809730506441, -8.795985361328599, 8.257628007897138, -4.749102581207145, 4.290226446939148, -0.7366337592177763, 9.715904886509248, 1.4838156898910484, -4.816047163870516, -3.667743991258682, -9.781029849022259, -7.4411127091331695, 0.4458179257983035, 4.301621446129596, 2.5019868697818692, -3.8352829207422166, -3.5818467242115077, 1.185542034449936, 6.820464452563641, 4.320470226631525, -6.250190485773871, 6.796969130682831, 8.646432826934806, 5.989000490258725, -0.6267208602466245, 1.3705096519663627, 1.0374058715178152, 2.970980063974295, 0.6447950997524583, -8.83633961614435, 0.21053944940228453, -5.2069957558688795, -4.464243724565733, -1.7762206736089694, -0.8958603170145036, 0.22813132884577736, 1.9820445039651178, 6.970163568431708, 2.029735412664281, 7.0683778819562155, 1.9286100438021359, -5.848885409333876, -5.721490631028844, -4.573728799025591, 0.14682415332361165, -1.5432814870684126, -0.25026860433252607, 8.988176415939686, 1.9966569262345835, -3.634178615069034, -8.34008113350508, 0.9378627428503928, -7.428705807826993, 1.4117318553259115, -0.5858849126981184, 5.2174116632474155, -3.4870547387830984, -5.657858232521965, 0.7405040546145196, 5.258195779629542, -3.2296354665516045, -3.999616723452786, -1.6913983567435997, -8.470913925257413, 0.11818683674338604, 3.6066767861652638, -4.6602970368137395, 7.10982295195906, -0.8502801249228221, -1.5088775675772197, 2.941088058037948, 2.9342609283088548, 1.306877163988069, -1.0595439641414095, -11.253749449218818, -0.4635441211350855, -0.2127949425659374, 2.6492354539960146, -1.876931496911101, 0.7663114548367871, -9.790399974830525, 1.211234312276206, -5.58726961813298, -2.8247121727036246, -2.509686662421214, -1.8838806391193, -0.6450744086536464, -2.009384798356258, -1.1139561313734392, -3.542003986868743, -2.1938353575191716, -6.807340614264217, 12.945111052508745, -2.6211660900214566, -2.208711525769228, 4.325369795853872, 7.145702647692384, -4.855761071927744, 5.136694630203275, 0.2359600893305458, 1.602388472062147, -1.5992484990323486, -4.666664426838154, 7.649009592204849, 8.98597582385109, -0.12309672496048427, 0.9795060249506617, -6.391278887362285, 9.00968627454967, -1.6110019654131118, 1.2329339438403992, 8.169810572012654, -4.467085779796102, 3.038473356593752, 2.3257617598826323, -0.6286831182467247, 1.639613196142908, -1.9460248360312329, 1.2252832959249536, 2.3826905140209833, 7.18394302100443, -1.352069161795669, 3.563611043971565, 3.806615610367434, 5.136402841831045, 2.0303143762637124, -2.9720602667866682, -4.200850997334067, 6.72277285611229, -0.5005492269379082, -0.26377968256598217, 3.2160134320401075, 6.7176998941178745, -2.2196953876116146, 2.06762125013725, 2.145915922789004, -4.938647864329678, -1.0430892848835818, -3.8520242281869788, -2.443018276067847, -4.868939403806936, 2.233798555779827, 6.2019489170113165, -10.013646384884314, -3.072189094517309, 2.6947888840476684, -0.0720426288200553, -10.84296763825095, -0.5522650539755702, -0.147359021835745, -2.1487159648265024, -3.2909722792493916, 4.261182546021532, 0.7454538954076888, -2.22508575215781, -3.6777305872079604, 2.786633860265138, 3.7672908031333354, 4.260057278895475, 0.5372688682664368, 1.107886565669825, -3.300337116543312, 0.45474738892425526, 3.822642668086423, 3.4881473871292092, 3.2851113019329343, -1.1817905260767034, 0.2669157282899991, -1.3912423860280854, -3.329145964684743, 2.655298247791281, -0.48219967489436033, 6.07714477100348, 1.8962045170078823, -1.4973670533946546, 4.293520510573232, -3.913974406308325, 3.8978106778285104, 1.7157025184531447, -1.3947758948647517, 6.531634721534776, 3.8265204607956047, -4.495269560443214, 4.548919553123301, -8.37607148435624, 1.8863506731414446, -5.110045205827334, 9.607444834976171, 2.749536533430372, -8.36874082692591, -0.925579251152324, 7.207779262141353, -6.115282613759579, -6.1256612848425025, -6.898211417753062, 1.6737856569724399, -5.214969318760204, 3.2618369886226786, 4.1662886290890535, -7.159228048070971, 0.2951206265156527, 0.790154451650964, -3.433149346715518, 4.679748995701356, -7.439656656995863, -3.4778705951997813, 4.8846749562769975, 2.0260418961481803, -1.7423064960852392, 8.379599803285306, 0.974485646574672, -0.058276920114829156, -3.417396237962915, 2.789884354612002, 3.984591250974816, -7.115814158012157, 5.897863339712045, -2.9345507520355745, 5.18664134122667, 6.0517059136305935, 6.738087577908365, 3.0568717561200995, 9.733222205612051, 3.732800891397997, 9.289930444553416, 2.82480738703385, 6.216773302622801, -0.474117450183992, 10.565464233468942, 3.700023237527148, 5.516154903348721, 3.8241557007610476, 10.047274852622603, 5.692702878631218, -9.727704699664589, 0.6646612424082424, 2.8485674758701363, -0.5448111229465222, -7.200145828570027, -4.378602853731542, 1.2922821638639326, -0.2670414046013947, 1.6356054095836206, 8.381884135620268, 6.097330234884566, 5.927654980947463, 2.047170230434012, 0.23735964594601922, -4.191796533079722, 4.856201816840878, 4.919203111242033, 5.757054078245893, 0.6792923153064854, 9.942217578662573, -2.913300179598944, -2.473030399258527, 6.841823537591639, -5.991587897951179, 5.06479397157783, -10.492530986321086, -0.27308825255786995, -3.714125497026774, 6.537233230212982, -0.6104932357497546, -3.8561757342794074, -5.293508313493611, 4.7132504165936755, 1.4430335512874004, -1.3073661761374709, 5.176841432271914, -0.5838409204047352, 8.301989487777725, 1.5529346630072824, -1.2001779034781777, -1.9733513796227662, -4.109942243657017, 4.4281531980732405, -0.8630932448233718, 2.781156976991168, 5.011099287918494, 6.049160270112123, -5.606975962591465, -2.9589634856617195, -0.029026156914571333, -2.958747716637986, 2.614486655278284, -0.9725986966792379, -3.4222848013721685, -1.3430721052215313, -3.607976921792828, 0.6637130628732244, -4.996105404981993, -3.8532471865546847, 3.475378771815607, 3.826830561581476, -6.22948564436258, 1.2303603283195295, 0.37755883163521275, 1.2078509790490477, -4.463175607042382, -0.8745154785671884, -2.6464465468306497, -0.17339410789112297, -4.031708988199564, 5.572524659006035, -5.506567758652185, 0.6758811292784619, -0.1377764552295513, 2.3228125368113743, -4.2226648371295825, -2.6940761063827154, 0.6085734884419649, 3.2308291232293023, -2.5425716029828713, -2.6215813969580823, -2.458501969778654, 1.081631595069719, -2.065498056742222, -14.152994862282883, 4.265238445127877, -2.542960223986006, 1.89016244102559, -3.94669688953078, 3.531724719076622, 4.461681650029606, -0.4075200274015426, 0.20618995124030892, 1.7662179222462728, 5.314495626815622, 1.1600426603802367, -2.3980283253888715, 4.7171512625561, -3.3602196416919723, -8.698457122292071, 4.0377491425947145, -0.8964064818118387, -3.564034651978063, -3.1529985034875407, 6.022789144596871, -4.932754813887735, 6.679773272226191, 3.5290989776682293, 6.345915077578293, 9.331495280159652, 1.1053556412956584, -4.745364307631217, -9.255124018192397, 4.587104235907203, -7.768231215963828, 6.1644361282826745, -13.043297526921062, -3.788549960127073, -2.1149826872119726, -0.5661595916538914, 2.0940697001644653, 3.888691827116217, -6.55954202265215, -3.234401548129595, 2.744742469416712, 3.213890373995513, -0.3029595511192599, 2.113595339635344, -4.423310513370863, 8.459699483396133, -4.996231191040325, -1.2188932077506223, 2.3724791629349467, 10.135189915209452, 3.4887222836257523, -1.971630307005535, -4.03732056853946, 1.60887834955793, 3.163010614634491, -2.6530141922244663, 3.3584392142231474, 3.104230300955003, -0.10528309303473415, -2.9104823211686544, 0.5647667663148285, -7.001251031119418, 3.1178376093440474, -2.0332602986689805, 2.1124017357667317, -6.842881369350446, 6.555968158013307, 6.161485307646145, 3.045485952718535, 3.3157845374124264, -7.8242692024155, 7.049170206660888, 1.4448449383310487, -1.5025529294816582, -5.942308269061218, -6.342962849825945, 0.034992723517636604, -9.158857140140524, -5.429547071549541, 2.485347967385807, 5.199411024886416, -0.22987879668397104, -0.8716217304603486, 2.796483549372774, 0.8488561786836355, -0.2872669062762794, -2.1993979902317475, 2.2576194662411475, -1.1311503487327248, 10.335932901867084, -1.047694233836376, 9.701634704332575, 0.4700705400278871, -2.760565663895577, 2.852649191346557, 2.6841811149897277, 12.268201762949078, 6.885323710195062, -2.300572113577958, -3.867209072752255, -2.4013683845081446, 2.855672050297313, -12.13318983990232, 2.3446402657241245, -1.9907959555166692, -0.07859193892554561, 1.66141800823775, -0.2777562661226153, -8.577408971571563, 2.45605067618573, 0.4896755581481754, 2.8299485442479027, -0.18753395444534005, 5.5222189769083, -4.850583650466305, 3.426638992215953, 1.9377027539618676, -8.78124586835609, 5.296441356981788, 5.2761029983289705, 2.6545912849955275, -5.8626719093776964, -8.019774234791205, -4.975222430505269, 0.0021643605815483413, -5.848738758533414, 3.3993314852650833, -1.0911975068855329, -4.066422309059594, -0.9894572496124577, -0.47133970999320873, 0.9362725071800291, 3.615421585837417, 2.6920204048325025, 4.400894177768615, 2.792432142357702, 7.737084638167349, -2.0281610740876306, -0.31473593139223055, 0.19962615586025995, -2.151003619759305, 1.1821552979866847, 5.645516890725989, 5.362399168845553, -4.96384858517978, 3.3120622529209234, 0.8560554766830706, 1.6765911800754498, 9.087848476539635, 0.9915954736579906, 4.464261237103489, 4.824915240981889, 4.780403618663454, -3.8730705985732974, 2.7400568982671443, 12.681784482287846, 1.0387607291796823, -8.43475188289324, 0.5471094509259867, -2.1623158023697977, -3.583300024880459, -6.454147865469228, 4.82478818863432, -2.5620153029294768, -4.031215802757813, -7.231890381446636, 1.0436542557738633, 5.661504567100763, 1.2163401727084833, -5.783837737439242, -7.45691018985765, -2.490282431275633, -1.2187270634142813, -1.2736730864019143, 3.6345717545464025, 1.031400611455233, -1.218277773268659, 2.513926517861495, 1.8647164823106857, 4.0805327347578215, -1.9606202280395266, -3.886175613970615, 1.9404243339306206, 8.196203382006457, 3.0170182455469807, -2.852698941745791, 9.54924666981208, 0.6690632056874851, -2.2125584485673517, 6.951035550609023, 10.862875399359886, 1.7459462527710774, 6.633280882152334, -4.257803060393254, 3.106461506539456, 5.261723394441669, -3.3618481575365005, 2.186713278528214, -0.791032350508513, -1.4055933786114692, 6.4609866390313915, 2.0865862597209954, -5.026282884582122, -6.385399701949682, 4.164751479997653, -1.8094400978298815, -9.387918063540427, 3.709563238865049, 3.8660623798855447, -1.715519044715248, -1.4900141807874725, 0.5977174602821408, 1.054778883973474, -4.279467860525751, -2.9850300426826726, 3.7383829069967187, -4.926572146633621, 2.381596289439545, -0.7821242466705222, 5.694450943371879, -0.9979156344480253, 5.672480972131551, -4.987476706059951, 4.221424814640151, -1.953757885799, 2.8850334216550557, 2.552246272585778, 0.7163916459915334, -1.6038909681243685, -5.556164917037123, 6.299666983468273, -12.273450950945962, -3.8052317012036734, -4.216663162627869, 10.18828580206475, -2.1505519273430016, 0.0690851381818891, 0.11894912995799786, 9.035081513190523, 4.515884146225691, -10.903461699730533, -3.8102775881715116, 0.8660257176475196, 0.9726915436377213, -3.862692302405459, -3.5305586969682543, 0.47296406982852396, -4.5601722371324245, 4.880590082110861, -7.602350640547552, -4.492728018472519, 4.3535938138351185, -2.8081750778382153, 2.9869368802277747, -7.587074866533816, -6.766856260615246, -0.5598114589694378, -2.266724884119904, -11.114621743390845, -3.5791877717812324, 2.081232570510969, 8.549656096830402, -3.4869402672236736, -3.7458358921610184, -2.368787568434489, 13.560817881170477, -5.6650788130200995, 0.7076164930969796, 1.7420421098651482, -6.92334350723489, -2.506985480354933, 1.4178252173797516, 2.0205841634326385, -1.1585122176795521, 4.206864035193983, 5.156449629131117, 1.4125425062556547, 2.974773386186408, -10.193931067277132, 3.0202293557731674, 3.4174807038180997, 3.220571059390989, 3.9005547797164515, -2.847109526984556, 4.909270204169101, -0.5999285551246578, -2.266727992981274, -2.6881602288554687, 4.468001021582614, -0.9649116744978131, 3.1728282167195494, 9.064860557227766, -1.1077319786383408, -1.6971098625397745, 2.125801090678097, -2.9140755737472377, 0.6867948521889939, 6.594085787599769, 1.1054467862120143, -4.095306561393638, 6.489809546999999, -0.850810500195808, -8.08948570247258, -7.098169699467235, 3.101763222263932, 7.396601050407782, 4.507285925830441, 1.3406387666960302, 3.605243877631766, 0.14823621633115414, -0.9312348897476368, -0.6529425955578758, -2.998483576659755, 2.4580381108825713, 1.4255769752303076, 1.8209110486292033, 3.970318700385076, 0.24534861926717355, -1.7215890112290653, 3.7530919134233196, -8.835198064674316, 8.686286969772286, -0.7992739347407654, -5.229165005485625, -3.660213205777459, 3.054313581969801, 0.848400837683741, 2.114543115849922, 6.2828221896541, 0.6199937708055714, 4.273352462845178, -3.6616042328043665, 0.6070178044470077, -5.509187804282862, 5.284151239041731, 3.5446198228810895, -1.070870907579995, 5.714899320279077, 5.914142757368867, -1.8306862709314913, -4.74030672145543, -7.617358848285665, -4.487369512213301, 8.412802095674746, -1.2192600859165958, 2.0481614075388865, 4.497954153483334, 1.9109763920057055, -8.759696225843097, -5.986543438268824, 5.621816041814231, -6.88215093933958, 6.355039605876245, -2.6672418686404957, -2.993439853788794, -2.537880944097177, 1.0107897981573424, 0.9215680126047833, -3.9322451037774213, 1.5063733266195418, -6.19467753614895, 5.010409298381968, -0.3800633866736266, -0.4051212070649651, 12.93972102190737, -4.05388348560137, -0.9221304583272627, -9.379948646679757, 3.3436201174827556, 12.290932426144595, -1.708353579862758, -6.3260496675938045, -0.11872744277622971, -2.9997829804203295, 4.182517426591287, 8.825048596653215, -6.675233262422637, -6.239199620445055, 0.4954298415686284, -3.7686227152490854, -0.679622982755841, 1.4426497110859358, 2.4520283977785717, -5.268956602590945, 1.9541551140011566, 0.4918315341045024, -4.860877427615617, -1.2442158590914787, 3.0028332256752694, -12.312436102040861, -0.01579707159191268, 1.6393755225801567, 3.6447826526600635, -8.366334692494979, 7.383220998853638, 6.624458746505473, -4.714082243893742, -1.4008341347907887, -8.903247821565948, 0.9730758798552236, 3.833735302162702, 0.16353629023068994, 5.260370857031559, 2.244655946135348, 3.2358069937024108, -4.654908606558119, 3.041513160816587, 2.770980718485783, -0.18153108899080816, -12.746764346146067, 4.8226503716185345, -12.932597928003158, 2.084604620758202, 0.0805674752959179, 4.754999300039475, 8.651415138907785, 0.64918155796216, -10.338060080872147, -4.756255731247673, -2.8244992292378006, -1.857082544835472, -5.4856618253854, -0.43182162351897113, -1.2069453748632781, 2.065381007686448, 2.650712606086702, -1.1986178725459808, 7.051896756727528, 2.973734130107964, 2.111677753193984, -6.283962689750954, -2.6047389729898716, 7.420875419795275, -3.4357838109473713, -3.75444939936047, -1.9703815943159868, 2.1048707857771887, -1.9447357584568379, 1.1265744595482738, 2.0301376379419147, 1.5314791104828052, -0.35457964326871716, -1.747298184792858, -2.0782659135785697, -0.8840236046090388, 4.910706806248493, 4.092769886330754, 2.3049850631945485, 0.9457185585354757, -2.0200143307141696, -5.06855176076293, 2.4410284107549494, 3.7630527143047137, 3.0495858233602013, 6.1877213194836855, -8.515601470650381, 2.2012855683698445, -1.6229714999659486, -4.209767902906776, 2.4916501901069954, -5.906932311931277, 1.8982662275294735, 3.3376491243905004, 5.08575033283211, 5.173494910634835, 2.596346195633709, 2.4209382140660822, -1.6852969211300728, -4.6675296178905645, -1.1442091029105335, 3.1781157800773236, -0.15622390766402616, 0.4278768066125247, -2.6355690095465727, -1.9231800336777796, -3.1001725018480535, 8.97275319922138, -8.365387164503908, 0.875028131832546, 5.575354835365012, -0.865566512810511, 5.045650108215385, -2.344191083831889, 3.50826891387101, 2.0419560116606505, -1.6868234433875897, -2.844401269347941, -4.391081844641833, 4.046163128782991, 6.542012466211036, -9.87312189077209, 0.2275612068011068, 2.478099412241018, 0.8698787887482264, 1.953720241978687, -4.772570829698506, 5.5935621771704245, 1.0917833329940838, -1.0439252575467015, 1.5099989608861095, 5.137129365247139, -0.39730087735787134, -0.1148416321650077, -2.982874399658762, -0.3240113661509799, 0.8795598067220579, -0.9189513103333977, 1.475869488505673, 3.1497761222697798, -4.700506603898284, -7.680796659648326, 1.4443560470844214, -1.098361749341414, -6.3318029491660175, 10.747486036476458, -6.271012305202659, -0.040222981877900965, 2.9904561162542267, -3.4449125633618394, 2.6884619800519345, -3.2868083957105143, -0.540594693399274, -5.556246336135925, -3.296969603016181, -1.2690428416537676, -4.806044897036811, 2.6250106262305075, 0.057046053101889704, -4.259956398938323, 10.280498461342965, -0.803277740534097, -2.951938441040113, -0.732764156565874, 1.4314116275339082, -5.574947106360714, 3.593719307113855, -7.721892266573864, -3.839878446182281, -0.40861185165828817, 0.2585945851335634, -7.921009277421786, 1.6498163354089166, 1.3226269239085393, -3.887937154811497, -5.29263125172347, 2.283478633609741, 10.354136869527732, -0.14826466331323074, -8.527871872556767, -10.278920065921008, -0.09676305941708141, -5.424857506905739, -1.5790352567296206, -2.7756563181813276, -3.797830026035997, -6.7603062365898134, -4.342596532616849, 3.315198963043932, 9.749609884204185, -3.1206648246335247, 0.10992583999563754, 2.6437084968320517, -0.5872611344731942, -1.536627888134257, -6.766277293706976, -0.8644253542353407, 0.946375931660458, 6.288169129997868, 1.4268547237546776, -8.315769151895864, 0.4239515870150661, -0.48298860533993665, 1.1450494017256059, 5.887070867798647, 0.6527705881049237, 0.379321258706646, -1.6354781074633356, -0.5620295324709743, 2.4170688438403234, -1.9759600759735678, 6.656283959023732, -1.5167259648599793, 6.427993904555644, -6.053009449753173, -1.5110981916302622, 2.3685160457527052, -1.051894502869572, 1.5402532947950345, 0.6925214668667348, -0.9982340075248696, -0.5019737442159974, 2.2614603739870387, -1.4635079499750523, -0.13250936831324694, -0.30360223629176625, -0.22736633866818023, 3.76430642571914, 1.1311303006841757, 8.555859700815114, 0.9074983720296922, -3.927489734158773, 2.807660790134355, 0.7501014435960192, 0.9966587793136523, -2.5556908592070893, -0.4548116774247144, 2.9850880671863305, -3.723317254188356, -2.5658946203475432, 0.257009549617736, -5.306081199261467, 2.6388440066147654, -9.09336988931075, 4.662815046799507, 7.1479015728771405, -0.35532982635181165, 4.148168458513266, 7.9779657348623605, 7.235105935820256, 1.4893499979526463, -0.2429753910366077, 2.7751156706110582, -0.33734400304708634, 11.802727720936634, 8.324439405174687, 3.8861884238423903, 6.427617133971643, 5.212372614228852, -0.7836678126476557, 4.2816990606435255, 1.9536665968571232, 6.055687111028564, 2.5855840598644138, -3.337926169399399, -0.6345960107981377, -3.667924832091787, -12.292111703893912, -1.439135840092042, 3.56438650998662, 0.5748255211072353, -2.3410662431227456, -3.7027086425838194, 0.10330014989701608, 1.7406065205806622, -1.0831740402921146, -6.0012035932817485, -6.242149116474421, 5.211894029865762, -1.7568634519455368, -3.17531409542619, -6.4812383160588585, 5.37706030876436, -6.178817883710609, 3.942259825830739, 0.4752075744407635, -0.7621816180177183, -2.089152804605635, 6.681164680517891, -4.6256354883246855, 0.32736015896424847, -0.562486389363781, -0.3647147978898252, 1.4218893052305788, 3.9896424921706974, 1.1058225997172422, -2.272656369167633, 1.4567415501802647, -3.62725271272457, -2.112440327664367, 9.714727653132977, -0.36077145370323627, 0.3041034575227377, -3.94378996605694, 1.4850239291515028, -4.059398979631572, 3.2153966295412557, -7.98377701590321, 0.05729619752178694, -2.5151362262766637, -3.2237592330874256, -2.556219752171172, 0.27224182980267153, -4.208590721140487, 2.545854201876269, 7.530056752877092, 2.241154361141338, -1.603904567492998, 0.9696709217623263, 0.055169931164993136, 4.946288825330986, -3.0486767999144706, -0.6388338327604621, -4.622846917915667, -0.27073963623678743, -2.936904683765191, -2.3505579401569574, -4.428508687983299, 3.254112533054569, 5.640203893100877, 5.440478900779524, 0.5102204728816843, 0.04999510301808252, 2.558877865730831, -1.5534818279130707, -2.3839834417977714, 0.8057892705857163, 1.2043388926579055, -1.4649761083875252, 0.84044209245019, -0.8309278029195183, -6.448604642031533, -1.9862112347659013, -0.8492278488557525, -9.63759657788027, 6.597445584746186, 2.626497262295787, -1.8259044839738445, -4.302060252393924, 2.35138926064473, -7.466003294436019, 4.820490721432356, 2.7294518694657617, -2.8254701589809303, -0.6682608132884215, 2.357704485609581, -2.1133947477772925, -3.9022689044942345, 7.779869080175818, -4.317742371367243, -1.1602435580619603, 8.49274683429298, -4.071295147197135, 10.038083860293103, -0.16012952796649754, 6.9493768555091355, 4.058602177546112, -5.204943369830959, 2.1086300393261146, -3.5457514504607563, 2.6518667872462456, -2.475895982298992, -3.028518305992497, -2.5747578064214927, 9.916592544949388, 2.9262115976696537, -1.2621396112157057, 1.7923129322441127, 2.3687102815807295, 2.1419183675165456, 1.612215992755919, 2.19829628475346, 2.1622342685134615, 1.142267460316245, 10.255969858069978, -4.450929903514724, 2.1795973878430868, 2.6123396929618634, 0.3563889502247438, 1.0884930290769341, -4.242620891801686, 2.8698130074506896, -1.3523917207410436, 8.113210784899886, 6.396187857663467, -0.853701979297163, -1.6659880807339689, -2.161533518710648, 1.0714865634639055, 1.6721198695846597, -7.242657784598813, -2.9505866134436523, -1.8088200439955355, -1.2627254429599335, 5.271240663215594, -3.0481008450683413, 3.476819540464157, 2.9534816738219005, -3.1044124748591178, -8.148891514731222, -3.5988772903316573, 6.945169026860117, 3.439859462076521, 0.05133748688172146, 3.917785181738621, -5.556319967985672, -2.1478476793313908, -1.808484831703936, 1.6724758894936222, 1.1639562554018716, 7.989581305032678, -5.898111127063255, 0.7865669422022503, 2.2792752273549097, -2.9521729295021713, 5.50239232682768, 3.016560516463959, -0.5384219170236387, -5.674794488281747, 0.1826550430619283, 8.78447827172384, 0.023094479641064813, 3.9809905989651657, -0.7375543353207743, -4.563028363411443, -0.09005906094537408, 1.494115319191046, -0.7787549260850569, -2.5303805432679125, -3.6351671081343127, -7.7131736865867655, 4.7616282301630415, 0.6880524081609515, -3.722019470975611, 0.8791795216761547, -8.841702105904547, -1.564448783947252, -0.7855411442328393, 0.46905216784090414, -2.1734882204131987, -0.4809700720219352, -3.0061870995771964, 1.2683300928218706, -6.092767594211409, -9.504249693413598, 9.264518192174844, 4.921762534499269, -3.646597973179734, -1.3184264325586834, -2.1574653342504964, -0.5171104014149197, -1.0423471088455218, 2.0473126442787555, 1.3584507436570723, 0.14952517690501893, -3.9797441833925924, 2.0158716388919604, 5.890952709051248, -0.08562513276745523, 6.242594019307903, 4.854946445235261, 2.7113510756708967, 4.5750241516314, 0.36260114273013433, -0.706170134028149, -2.4786782546253527, 0.9790886267964762, 2.1589709674516318, 1.213037996207259, -3.317156063404978, 4.652966380843443, -0.4926946188233957, 3.325874194654637, -5.921499333573067, 2.5795326547704485, -9.768101462697015, 2.664355052992401, -4.371713951381707, 0.2916703130800094, -1.9047549813289908, -3.3231167307791623, 1.500141383872257, -0.5367470197486648, -3.5627509925269827, 2.4034578735954155, 4.973770539576368, -0.4515835210002649, -0.41499666175757133, -6.441555281506127, 5.7824195706310615, 5.661144725259171, -0.6022967415648294, 11.775040309517824, -5.069387526134094, -2.7566736538042154, 0.6893357578455755, -7.917621613286288, -1.7057302904958918, -1.7770716847858992, 7.195878238764198, -0.9252085362403146, -0.4797782617620875, -3.943136036346933, -3.9821198309322154, -2.104455237032246, 3.3626432196897738, -0.320858501611077, 0.6356104736823834, 2.2414821742028543, -3.624128416006358, -1.8682626670837539, 9.555322878942583, -1.314935457389425, -7.062992716673742, -7.379055933383886, -5.6579085144914485, 1.3961983300650491, 1.232170520398903, 4.393348773826091, 1.128782383460416, -1.6591975123431137, -5.4344437583488245, -0.11175278947106126, 4.98269376410685, 4.982455513360741, -1.5038452095310522, 6.76076517323375, 1.4237434695148445, 10.127685982155022, -4.860525795912416, -4.134650058624796, 4.902724203665507, -2.574668937193672, 2.72943659626822, 2.839253036898499, 4.039723215656027, -6.707348502168311, -0.2960183493603557, 0.40073392902251004, 3.466358519576824, -2.6930687684983585, -2.7522276564060704, 7.131272124089449, -7.905193419290284, 4.301797468069199, 4.10151332051063, 3.4126747442532923, 3.279532039356394, 8.862016732752524, 0.9575182856016025, 3.764220849215157, 0.015735388240704307, 2.767726977786914, 1.7865317961900167, -2.3883346638262823, 0.44937448038895345, 4.771367330332615, 2.1282578777263743, -0.976387505310575, 1.2019502881918087, -1.2450627398871439, 6.626230940132249, 2.8122108314300576, -0.1401171388509117, 5.033263407049634, 4.677638972324418, 4.655213910012867, 5.020271680786532, -3.340458267628854, -0.49957242139937874, -3.3773873708556184, -4.567744751726394, 1.084845886147424, -6.806587360465656, -11.31114687557891, 1.7795128551321036, 3.9499527421932976, -1.2802944565696155, 3.0298385517498154, -6.393171180284309, -0.07766374309845259, -3.062815152991045, -1.6906347701003597, -8.792339611148703, 4.033620884786004, 0.17905981306899155, -14.14834607327166, 1.3394640816330363, 3.095143297157831, -0.5118488971457941, 6.124910462551279, 2.3440717447533164, 2.058193119405872, -0.20897579164945213, -0.08344937708145783, -0.30769716046007856, -3.1825208829070535, 1.0450481830925307, -5.463282640404647, -1.817263205325467, 4.415139338423131, 8.104907381370362, -1.4140073407880898, -3.181295192560491, -6.427101115111689, 4.920454365738182, -9.579649721130389, 0.9224571838242016, 4.963216742967781, 3.673012317206437, 1.809580894441578, -4.184698368413924, -3.517921770636419, -0.45245917268097413, -4.978567810067765, 5.146719403463667, -1.2895261162219815, 1.20418030821495, -0.9668533014225389, 5.826769117511694, -1.8572178333129945, 5.845731892272139, 0.7419012047364121, -8.33227860651726, 1.8971694129206516, -2.2800700910257636, 2.801224699612212, -2.555771307342343, 2.0062782237663934, -0.8125793708004558, -4.1388270156612705, 9.95328362121898, -1.8003961851487396, -1.4481870274115947, -6.143167396150262, -4.090507840204759, 3.8090972879448355, -1.945472221376256, -5.892689872016597, 1.2025076131595553, 2.6757464853719055, -5.45459729476465, -1.9690244786700195, 0.15429782473509124, -6.236669877431794, -5.229688408462872, -5.898475851506304, -3.9642079706150524, -4.891181160181885, -0.9432872111295734, 4.091484657948794, 4.503380674612086, -10.129916221259673, -1.045499709194537, -3.6486027470817746, 7.745367133033511, -2.736074436704059, -8.975670326480687, 2.6770465882148833, 1.1287539184345912, 2.540965409021496, -3.0849482411362943, 1.3568813910245194, -1.1311413213795691, -2.0210456253797755, -9.764143845994754, -1.0048504065957842, 1.9099327014820182, 1.8941139912042078, 2.954571040042344, 0.034005815614099766, -3.470919446881135, 3.6910376523243777, -0.16948470093257662, 2.6945221448073515, -3.7622911430710753, 1.8879496943162564, 1.3465429268084905, 2.157495028225865, -6.2121954818347875, 0.045233094148561026, 2.8930096037268727, 3.260104434824891, -5.846065804438532, 5.447505067827607, 0.46275760770786634, 0.3125820722470163, 2.1150194138499296, -2.1229165231483185, 2.4698012655015535, -0.8792355757338982, -0.8696490563103902, 3.974782220330648, 3.784205169036183, 4.770348316535221, 0.1743646186809732, 2.1144002677011406, -0.9732163007369864, 4.174891409796588, -0.6292231289188663, 2.890056296400762, -1.905877448128876, -3.497034292730815, -5.714532542298652, 7.716628724030678, -3.928280483246003, -8.195626526304922, 2.0617159143936656, -4.756085083720257, 15.07058048502767, 5.119967831198537, -0.9557269038653733, 4.040400195565191, -4.587478561209123, -4.649797964498459, -3.3891498310184334, -0.09063818052449624, 3.014946361174374, -1.7851228684291556, -1.0604901746533866, 4.693799251662827, -0.5243309891089044, 2.0362004632774497, -4.216826563931745, 2.9176118093045296, 0.3563389256858125, 1.3693417082878523, -5.570714330087454, -2.345263487637945, 0.2550341735866938, 8.122829891987159, -1.9836540502361648, 0.28194820313660496, 0.47685762409204413, 2.1492276833781494, 0.3134542523302084, 1.4941760349324142, -0.8943362701268105, 4.907953932466854, 2.929041267877748, -1.0392076824750558, 3.391221057064134, -8.81097609694411, -0.38153916794464715, -12.020745481612233, 0.483840901938117, 3.100211473066806, 1.495781393644807, -2.676874331251046, -2.551723814433619, -1.318364959698374, -5.752593418638772, -1.87512883418752, 2.1856423977647075, 1.972860221496758, -5.725922316471906, 6.071402319293102, -0.1503341388110817, 1.2096291501231675, -5.8729997211463, 3.6537653167636606, -2.1738918358153887, -3.9603462558816123, -4.3653252126620234, -9.741211201456926, -2.462619671571226, 2.9002281231335876, -1.2694649311201596, 0.46395335790650605, -1.079483245074667, -0.6845594677460844, 2.6213895147247666, -3.6368223948614546, 4.323794597956565, -0.0752179813110353, -2.1508340372322774, -0.9273780753800767, -8.759584312816878, 0.7480072536604179, 2.0901497636574278, 7.489697089812508, -4.941484974000742, 3.569112312059049, 6.466079691850075, 1.557641708640395, -3.7651053562447516, 0.7839187836565256, 1.111621250155364, -5.645793447683583, -1.160922028256609, -0.2698183475970194, -5.010669615320348, -4.89927860966686, 0.6454779960787227, -4.001239573963694, -0.9346557400506267, 4.479370313649729, -0.8737554664266001, -2.5669940672451914, 1.2704505675418685, 1.6787485373696138, -1.0085481062612012, -4.14766143578942, -6.654622161922582, 1.557123580673232, 4.569845847839048, -0.8484566596207417, 9.028711307645741, -6.829697464901126, 5.385771844002524, -1.6685298781948683, 5.851938399496485, 4.853991612400774, -6.282316186669232, 4.2507680898269244, 5.543180314759797, 2.2128320768962695, -1.7709276605358766, 4.788167504782895, 2.5530986483125067, -11.406604456422594, 0.3576065774791808, 1.0691766616472782, 2.9598988142815275, 2.4090341007311658, -2.4692191653693545, -3.7448957595495433, -3.0082451781070016, -6.010452197014082, -3.979931543709647, -4.0137690677578695, -8.197793382731497, -0.9741705687062495, 0.8652505322622237, 1.3054400535960866, 7.825879912249176, 9.669178826398117, -7.038337469927472, 2.296916626810884, 7.416556052459432, -3.1786681463432, -1.4820054709620225, -2.081057151149753, -1.8629581531933999, -4.895699304884943, -0.4352906112048658, 2.6756989193458627, -1.933286812943476, -3.7607391122562004, 4.029049119974243, 2.857838736933206, 1.8727338774606546, 3.326510152513764, -1.6376024604796813, -5.513349325105113, 4.4226238238957745, -1.6960105651891848, 0.29546941434107754, -0.4065753452413201, 5.678444376501581, -2.8220512005979352, 0.6140771968439099, -0.48024801031273523, -2.1935645724251085, 1.424076877717827, 2.6413929891632124, 4.408507654834574, -5.15866103235529, 1.5450967777877147, -1.0994433374317456, 1.9701321060200216, 2.476417618781955, -1.690797311265377, 1.2491652307992183, 11.730736755494185, 5.30109952324847, 1.9440208459010184, -3.6609255072975113, 1.7378738518215073, -3.7452374563575552, 1.5344705576674555, 2.867918684404395, -1.93467410323623, -2.47510906586377, 1.0857243537777435, 0.7877761037569433, -4.677652239229371, -5.188850203688846, -0.031335096209297864, 1.3791434163236156, -3.301423342247058, 5.496644268462639, -2.542797684062196, 0.3770607682615973, 2.2385867203227243, -2.675584158971035, 1.7258670141590333, 6.734149413908052, -0.9784745429887598, 2.3150028553780087, 0.290584596329134, -1.3885680184673201, 4.717304121683082, 2.8245204839477567, 0.7565865437080603, 0.6524308476439122, 4.870103482858627, -0.19398450912626797, 2.1957150163176475, -0.5848153263235698, 2.0484310951271825, -0.9989740278902923, 4.256353757781441, -3.032988703516907, 0.08471436603335232, 2.759804772050746, 7.163495280797287, 1.0807333637747591, -4.139200337693248, 6.664190143955901, 4.00233946131852, -2.2561205511913194, 2.3125591295608725, -1.5264574680435263, -0.16348320771689084, -1.427069222449082, 0.8935697028350618, -3.1056071738321442, -2.5758550542025844, -8.496535318448691, 2.9629898845812814, 3.0710793241734846, 7.370869389652389, 0.8332596856903105, 2.2777147723012248, -4.191953856037585, -2.8527312342435263, -3.265262228200731, 12.304865656254043, -3.6883932235499497, 6.750136093558012, -6.973261079351907, -11.274116174758154, -1.6352073687756112, 1.314889918929254, -2.1209385507300107, -5.3099044604290455, 7.6407317758405355, 5.28420552757915, -2.788849801994137, 2.5672076046175425, 3.6430404968546775, -0.3438390992068904, 2.2483291587159306, 4.442612764831246, 3.797527927333623, 11.734851768690367, 5.992729167068785, 11.176453606673363, -3.4577368541588482, 1.021436869045169, 0.44239337355629627, 5.28546906729404, 4.298154999518578, 0.9755373786467877, 2.1032330640241406, 0.13631093538233735, -3.837395644686687, -0.49174751454546706, 2.9325734252580684, -0.21969936524416167, -1.5825443865999849, 2.479210162030424, 0.4345154004219719, 1.0488685285595674, 8.770209502255911, 2.4487026304038606, 0.36911155171479687, -2.353706320240641, 0.2952167497070404, 9.526590482178523, -8.670050568037134, 2.42834373296117, 1.8563240212189727, 0.9351193121906607, 2.8088285082547424, -3.8994640692448432, 8.123785407225608, 3.4025558744356377, 1.201381126227857, 3.188045583884851, 4.29762707428103, 5.405456897676717, -1.405829367230091, -0.47747664132219864, 2.5984947264732563, -0.88036414081211, -6.8648495431952234, 10.758916607645208, 1.5686510751803295, -4.844412199456201, 7.124813889320167, -7.481983581060832, 9.550936742856113, -1.5722662246333927, -4.097180216393726, 9.603942497390499, -5.069241569261654, 0.00214864267077311, 1.2682763491654074, -4.5936017640793505, 0.272856452796322, 3.2799146741780003, 3.45525531339025, -1.0141063427648984, -4.501152581789623, 0.3816972406109448, 0.31262617024450745, -0.5135103115881814, 6.214083544782707, 1.6209661606374228, -0.1334949030771755, 1.2262400299581109, -0.9439462494830219, 3.0603765931039826, 5.244253783583513, 6.838307661915412, 9.759095606827048, 6.190937439094221, -0.5428401018231568, -2.6156196611203484, 7.103072573287609, 5.791443220089633, 1.0056248009441011, -4.038641980417487, 4.921893301770123, 0.9603585996744951, -7.471554793959231, -0.3817292528080994, -0.1918480056619383, 7.410992485813715, 0.5079861072285021, 0.5098601604656129, -0.19252810070900545, 14.832995355521149, -2.0837504938810802, 2.5727335637113695, -0.2826665448299188, -9.32185168076876, 0.02964564827379057, -9.121222709243613, 4.1289303286545, -11.91257855223586, 9.195930983809625, 5.84199033299626, 5.826473910934639, -1.2546274045692793, -3.3186560533839433, 0.27588076580306437, 2.5070357626298847, 2.973196913845329, 0.2728297985929624, -3.600820578214204, -0.05115658252805333, 1.3988590971759296, 1.0373366218182996, 1.6800052873133862, -4.367829532169106, -2.35305736173482, -3.4906829928821694, -0.6500796033437907, -0.5241588582468658, -2.7602476798362092, -3.6464763454409383, 1.8437219098649005, -5.795060253170587, -1.5157689139982333, 0.7872546189436979, -0.30039773848813445, 0.09420048872071796, 2.9241562238437475, 7.780827062790699, -2.085772934055156, -7.496782087970735, 1.1108926484774082, 4.946626430250866, 3.3343009534595582, 7.674042888990766, -7.761072517839801, 2.94376932130235, -0.38967912028719276, 6.434039528133203, 3.9653647994470895, 3.439714904635215, -0.9979067798174655, -0.9905299309221105, 3.7748678544525474, 6.230184473033542, 1.1676332678727546, 1.7944940877857811, -1.4990389529098949, -3.2896347622989595, 6.460217560258339, -3.566999624614519, 3.686048862179685, -4.082984011380049, 8.459502049729364, -5.794908650069007, -1.515631329146402, 0.678140291165788, -0.6928245096401073, -3.829422064992936, 4.650784923943152, 4.168267988926166, 1.4400248216802858, -4.329312936482342, 2.9415381461590897, 1.4635333925251288, 2.477317163426944, 2.0483685344053737, 0.5900881352457477, 6.312219609768942, 3.6321205128524303, -3.8477321041096135, 3.104092505080118, 0.5424814568727473, -7.910410972928721, -6.924237632462756, 1.1070488093207616, -4.9536204962261134, 5.664646629892848, 0.20224183679385233, -6.175123348887928, -2.404820009883286, 1.5145963524711261, 5.542813990510802, -6.403426823331974, -5.532834365345682, 6.74376064769968, -2.001504946297658, 0.28323781951119065, -4.477068568812065, 2.192177638984492, -4.052237526985593, -1.4515226473537934, -7.344157910304015, -1.1090097770632015, 4.870873225248924, -8.539892159411648, 0.22489546894592172, 1.1297805612212415, -5.344942320339672, 7.445323261761077, 1.677972942713025, -0.5015480555592954, 1.5549360912766266, 4.952338495766295, 2.247126117944445, 3.8757349071848473, 1.5373096932600163, -5.402369953115363, 0.25103587432366287, 5.363046757049299, -8.380175644737172, -1.6689746107365582, 3.2088695050146905, -5.1967516601879264, -7.420222543632592, 3.096258308672321, -0.6007139951847038, 3.717637442356359, 7.200839984166389, 4.223259699089092, 2.4922777226965502, 5.881086321805062, -2.460295443834152, 0.6298478841777071, -0.37494471929313333, -0.5699804215862603, 13.450275352023764, -0.9662703706860357, 3.790954288458032, -5.577738986930926, 0.19062954417167433, -0.4408784170288179, -5.287393625513961, -6.082749469234122, 2.681936671213566, 4.921395815139322, 4.902708464340294, 0.6258474288474503, 6.037925182597785, -2.6647399140656747, -0.3049431390766467, 5.478606198544302, -3.1759888005733687, -0.4542954430761279, -2.09819949056489, 8.149614730556937, 2.4133662632894444, -1.614764246343365, -1.7640330296757252, -2.774287882190746, -4.885260157380973, -0.3974101287416045, -5.217122564857098, -0.2537602070337299, 3.265656791502553, 5.954802101347, -1.28066957213812, 0.4418013012135639, -1.229097078044284, -2.349996038401409, -11.317371886096055, -7.0184576342785014, 1.647868713511368, 1.2067655952389809, 1.1153211873650828, -13.295629341811857, -4.407309844081516, -6.440010329042938, 4.1434134571155825, 8.606159008242756, 0.5850112564504092, -2.771850304438796, -3.088756323980171, -3.402111567916382, -5.58244350950667, 2.16995741714353, 2.2075548680528994, 6.766337986869435, 1.3315136271574046, -1.76957782334975, -4.223575093536231, 2.547232115137825, 5.801970959064859, 0.7542136249462111, -3.5838802390283884, 4.52671428763266, 4.605992660547477, 1.36947478564309, 1.3182795153495621, -7.3137549618862145, 4.5333690689123, -10.195471031284445, 0.5139386609965264, 3.1857274974751597, -3.9310543518944643, -3.363935437381125, 0.3726613987616988, 6.05804790595019, -0.2868848706061687, 0.3750176931038005, -0.4584971892221492, 2.8310284494782234, -2.810945324376169, 2.790964494211398, -4.279412847476783, -1.2132146069145224, 1.8590815568011758, -9.469801087714275, -7.364911839641659, -1.9498904691509549, -6.559751313611047, -2.0174914508407675, -3.0648153699927936, 4.0040860712087225, -5.251588145675092, 1.5021080830590292, 0.10837309413226637, 6.754481820901329, 1.7864718582572894, 0.13664913517196853, 5.48065994398525, -4.720275931952367, -3.637152259939598, -1.4363657532797682, 7.753242324077739, -2.098341418107193, -2.911442343274456, -3.4212913583328506, 2.638217502165837, 2.020833700046227, -1.8508615989552641, -0.7646360910236916, -7.810331417731965, -0.5735824658597843, -1.4373863117073196, 2.426715880739377, -1.0559033044543922, 11.246703865976876, -0.3490127004120682, -0.14212092540064836, -2.334545542030264, 7.552030175231484, -1.4667487712224543, 2.2893030669468803, 3.0780577752806426, -4.8663163809150385, -10.052201310371451, 0.4559898821510383, -10.213437921899672, -7.316693013661751, -0.4086425406204493, 7.425704454239419, -2.80222126992081, 4.099388867978019, -1.2930015450343317, -0.21523275807730458, -0.982188200471134, -1.2908961979215827, 6.15521411845334, -9.973908703582948, 2.6271632763092025, -2.866947004444169, -1.3951922740971354, -0.4468607840011808, -6.451124847012203, -0.8577734092167232, 3.402736570305966, -3.4242146264786095, -0.49203881202217636, 1.8089158039378312, -1.3997647848507724, -4.0026033876798905, 1.8084290065671975, 5.573522684467465, 0.5846608618831528, 3.7332233967772597, 0.4701420717595808, 1.5100710025023907, -2.263222418509067, -6.362133008605504, 1.2842997920740093, -10.184857492873189, 4.078716944664649, 1.6442595976918373, -9.054285416698669, -0.06502302186213971, 2.5727966946722334, 12.359722590406195, -6.883550019611172, 11.120295493768493, 1.5446565331678317, 2.7799190789261568, 1.2003683249290964, -2.553709789600911, 2.1805501462629344, 2.8635398681033335, -4.029160963661989, 3.0495936227457503, -1.9922373524900445, -11.739182947146716, 6.998201618973529, 4.451902642868659, 2.591879247654321, -2.446018847500447, 3.9925919271996464, -2.06001794757164, 1.2698440782170628, -0.36052121545449034, -6.515437045173055, -4.562000290534097, 5.436959797191668, -0.09341698561570544, 1.1372650330348653, 8.98771508515489, 5.179485342786412, 4.208562103322622, 2.61444565274735, -0.11935526354937265, 3.443433217603901, 4.514616384752195, 2.8398785547401513, -4.4323504493864565, -4.711066409484509, -8.367209276850957, -7.146086614919962, -3.681553460365887, -0.6636439755428167, 8.789457297473032, 3.9475361390940287, -1.0302502440886265, -2.6852848841577486, 4.395967963053235, -10.336372233146257, -3.440499290544052, -7.247365648641313, -1.6140071425423979, -7.389073966373367, 1.5558029992184685, 5.7140938533285315, 4.401246909669318, 4.889180142615762, -2.683736574564156, -0.0479383676933946, 7.310942487985108, 4.084591552144517, -4.932996573693589, -3.74873064316622, -4.990579659685193, -1.4513751700752897, -4.045744469942414, 3.6255583672653025, 0.39885781846896795, 0.6332798118914107, 5.2058666924402, 5.486970871206755, -0.16339499635196997, -5.663244674396323, -0.019871166952834043, 5.107584687780215, 1.1544002079823263, 7.56490954580563, -0.9472487430447876, 2.3257693249592926, -8.272081732425654, -3.0305576765204085, -3.774275224185048, 0.6510641268034619, -3.009125502343052, -0.07482803088167878, 1.3257716514604951, 1.3542840449655518, -4.382981713781909, -0.20946351962840803, -6.091401199900888, 5.109767589210347, 6.495921172909795, -3.748099091035918, 8.790987965892121, -7.465991481553699, -0.9670766955507474, 0.8920896107964655, 2.4604222396987794, -2.3558901391237788, 6.099265067652247, -4.031652079361704, -0.938740895380396, -4.414151061032717, 0.18037256720800532, -1.3810894393275683, -3.795628786646531, -6.558894842078907, -7.578893667831361, 6.97481511427064, 3.6836204370899432, 5.539570677486869, -3.5692584229922906, -2.0501420109973374, 0.4980171931978634, 2.454709155939452, 2.345002626867223, 1.6000362097652099, -2.662084623229995, 0.07598107603453808, -2.4980294122751507, -0.007305447728253936, 3.19732729644284, -0.6028551374189097, -8.144096461057279, 1.788310894718731, -2.3035330597015333, 3.344707203594079, -6.236009851272661, 0.07333660192475266, -3.70120437435811, 7.422298950319091, 0.7797137855390602, -4.724278713143233, 0.5412408427800001, 0.8692514322704242, 3.8768832368051007, 3.9871206223224176, 10.795701500498907, 0.1091585366138133, -7.109450528442704, -0.8959102175789201, -2.9078108889526173, 1.140292237637231, -5.598342307861501, -2.5318664244119926, 4.791443214154516, -7.9627565397625855, -4.869673425108753, 4.2390696581357945, -2.5915658490189246, 1.083670696573551, -0.6604607573506835, 1.2550237527716415, 8.010215991145808, 3.5107030520348923, -3.2968982821636414, 2.0373878211043888, -1.291066629539696, -0.575812905861937, -1.1056912088776885, -6.091814511318054, 0.3148239116747178, -0.8802380987222915, -3.2802621957527593, 0.8693693484194979, 0.6400976520629713, 0.6108839895857309, -2.467981821919227, -4.551565901070558, -5.310127865186522, -0.6350458039372792, 5.6913554498469585, 0.8799893304590813, -1.5934431931623076, -2.493717135605692, -7.9721343121085235, 1.6033966574240752, 3.9273068233921897, -2.033487430701613, 2.958128080046846, 7.649403312422738, -2.5421960131161847, 0.13925036543918135, 3.368082950517768, -1.4128992301572167, 3.5456184144103142, -4.8955989456264986, -0.7395910751883127, -9.81313359203648, -1.3240076644124072, 2.7412575462258357, 5.655859651294459, 7.526766839659927, 3.1883871985182592, 5.903100694942367, 4.702085474742406, 8.88394502262331, -8.046046344088884, -0.5669144417448437, 1.6184077786743283, 6.340620036478558, -1.1089638283429124, -3.4103429397339413, 7.517151602720661, 2.444885453069844, 2.8481169250124894, -4.600472790119388, -5.750944641628887, 2.7464509565247415, 1.4611367064934568, -6.557845839229036, -3.231844173936335, -0.5380374485543034, 8.953908550643272, -9.946413017460776, -6.104070638992841, 1.736765771655668, -3.5819096318065924, -0.11440262744004648, -2.58591761457403, 10.716405805418221, -6.548756666918996, 1.0437562409999814, -11.144950313402118, -3.5912871565512083, -8.747700758095936, 3.18650751336671, 6.73454636462902, 5.9677407335886326, -3.1506251922502906, 5.242565415491183, -14.947402619592697, 0.7579465585358259, -0.6919195142363189, -1.2812576743483435, -1.443201353170998, 0.35042329711309184, -2.430976549932022, -3.7877291064169514, -2.0509701941229297, 2.7194836379171607, -3.5366827163973467, -6.375202679798109, -3.9332042102015867, -3.137271440503723, 3.326215848308236, -0.641663535707941, 5.782829685997136, -4.199316098342749, 0.6439406884685257, -1.2713983558477953, -3.2364884590996246, -2.2595221937887624, 2.614527672799313, 0.8598160897829149, -0.7412883594615295, 0.5647329013736702, -3.7770228521039666, -1.7197373088404708, -5.949793391209186, -5.75106199530502, -7.893546647645153, -0.9063668993762073, -0.6825103651584276, -1.0457211818343004, 4.828231127984673, 0.2803340139481777, -5.40270185579855, -8.455342586224766, -9.550225268876954, 2.320734260231566, 3.0462881917914544, 0.7454831973512419, 0.8160002136979738, -3.2026745479856835, 3.088033908082147, -4.180485510014973, 0.8495280721676666, 2.5643852252349326, -3.9987979408965253, 0.5694593814567704, -1.3777702202301854, 0.3148057531014637, -6.018893610694521, 3.2428058105843913, 4.433034834630356, 1.9804178077209615, -8.729718732323065, 0.8939376382620323, 3.673757446207171, 5.949356125531219, -2.9756214054081376, 5.196240802119883, -1.4908102384252773, 0.026984572727955847, 3.695331763103148, -4.804920883298111, 8.607516219636604, 6.228191443035926, 4.976823935349254, 2.078576076521902, -2.4262030179729686, -3.1022907492146676, -1.5951486764724636, 4.07582417140364, 6.981883476464772, -1.3904840739471556, 8.12443004626953, 8.853071554170644, -4.538484887987681, -2.6380459262736875, -1.1697702936299068, -2.538402951624404, -0.848021325953806, -1.6073726636555286, 7.954825862530875, 1.7201698244168797, 8.742338257210639, 0.1342124568253863, 5.87547796790595, 0.9624404281927907, -2.037151151110229, 0.5189244678223927, 2.101790911081481, 9.535323782676546, -7.051783277649597, -2.908331067972073, 4.550615599723454, 3.237086269359639, -0.3705020420595218, -3.152437740432243, 1.8457386863633878, -5.514853562789558, 3.46484678904616, -4.259965236693292, -0.8619113639112171, -2.923456117981704, 6.88597301744994, 1.4073131208266896, 0.8112234484244699, 0.6346266406401337, 3.033668766932538, -0.11681082129222853, -3.506962829679929, -1.0558210273676893, -0.19868990659588281, 4.063146736973111, -7.0513377388011245, -1.6933767406849152, 3.2692104890211375, 5.490028976200919, -3.9410905404629726, 7.508237069058206, 1.7863868136922374, 2.300172064352193, 0.7983999140035782, -0.8996307912947629, 4.14975243684026, 1.3194008633083545, -8.226747365325178, 2.169351989242924, 9.530375753554015, 0.047637075957844915, -3.1714279475072056, 4.436048772564731, -0.8442031325811694, 0.3739317625327403, -0.782610249329287, 6.837444812122464, 5.54587659110337, -1.5070030636521148, 2.4627408155178983, -5.954544454114201, 6.898475529832497, 5.483363568982053, 0.990292684076535, -1.6831415861260282, -2.1253928425039876, 2.1318839475592, 4.205012771402908, -0.14095582993229705, 6.648393710748335, -0.3406042553413038, -2.0410436076489002, -5.846631317216624, -0.09304292596339983, -7.2300444686998855, 3.816412584650764, -4.351104727305702, 0.7681899828535677, -1.386382802682212, -6.0706430718156525, 5.589990978198257, -2.684994044891252, -2.480895452529453, -3.943563107547409, 4.5099642780685985, -1.2859165007424318, 4.306048693414061, -3.565006533575143, -3.0155143289547226, 0.5190771687992074, 0.38371770356619833, 2.7007938798431774, -4.731175848504511, 1.1042008785521102, 1.8589123892844994, -3.7637794012624184, 1.152258225265352, 4.354010708805407, -6.881747859399638, -10.892233489641228, 3.806296057322779, -1.5148515728796457, -3.2134280575025347, -0.7571351623792162, 4.335322808864247, -1.5282489005303566, -4.259355946587808, -1.8489061333137888, 8.868013032872026, -2.458981428517937, 7.710562270855307, -0.057518671132855914, 1.9367360496740522, 2.9614901450412647, -1.0190415868318663, -2.24597989946632, 5.905098137419699, -2.497626334185185, -0.21797959644990028, -1.5651456761155504, -10.96494247347254, -1.1080521724041528, -3.2671317401374034, -1.5600685581864409, -2.8375167176830836, -1.5019204702941114, 5.289990494100982, -2.6968435012031358, -5.821622773647658, -3.3638468180863117, 11.756370726759524, 1.2556364251569985, 9.296408614384296, 3.936518076263962, 1.054203479273233, -1.0173244645475723, -0.2945354870331351, 2.6840404204869466, 5.157508251573267, 1.5577904261583753, -1.6862587450008886, 3.2807774948397816, -2.93137267942067, -0.7852035617829015, 9.323217445252054, -1.775749937183019, -6.2938659620569055, -2.469811037649988, 0.8712022262624, 0.36473746084616354, -9.702999677121475, -3.350167464177365, -2.715720892238725, 2.4727931113458594, 3.3027134582833453, 5.055874711921905, -0.7848507393747848, 0.864325827731586, 3.2004848589084496, -5.604814580520792, -1.2292028578143164, 2.4077567550370245, -1.7148723207642274, 0.35130970612182355, 9.713963682129123, -2.5981189548087595, 1.9510241772610857, -4.802898062974559, 5.174231911155648, -7.906642186688304, -4.4529788030985555, 7.809317511966767, 5.276494333830945, -5.957260962629749, 1.4237109450953498, 0.6427863674658695, -6.1709432702786415, 2.954027765286374, -1.6608254583357391, -2.6610492557734795, -2.465835868843119, -3.791246133641765, -1.596686901363999, 2.945353288099755, -5.258457057760756, -5.579017478304157, 2.218658072106348, 1.7567242892232373, 1.1201136149242639, 0.9699033282942242, -2.019407299357315, 6.994484214720344, 5.803124008475585, -6.341702884279708, -4.864865858576021, -7.249706960171461, 0.4273692482026397, 3.472851289650124, -2.6486087830816216, -11.393967821676032, 3.0928523665635548, -4.891224428081104, -4.126507817533702, -1.8502351306089926, -3.9246729610654043, 4.604711841711132, -1.7247578536840429, 4.197113168192414, 0.1138125017584306, 0.581694089950023, 0.11875992794975365, -1.2268651268034476, 1.8691641035411493, -1.7125381971000206, -3.2037503536755585, -3.56307733542152, -8.309003335014324, 9.672539450332255, 1.5531921148526975, 2.5567483670281956, -1.1095592552113869, 3.832514441170035, 11.77116365809566, 0.9538231243037145, 9.55474362230633, 0.26743080278045084, 3.6019790240370755, -4.678964338962256, -4.313519231390645, 10.492016796660929, -2.5220153493814936, -5.382342697070415, 1.4721471414535061, 0.93636990690386, 7.84247698087788, 3.1582659400773263, 2.482133615118977, -6.653064716456406, 6.842178301914381, -0.21106289099690256, 1.160494675487377, -0.8814770565253104, 1.9409149936057588, -2.8410562417679044, -8.843198960332177, 1.2488508920178216, 2.4849491358911844, 2.332344087115849, 1.8830793843191789, -3.9925741034473727, 0.5066663244835634, -5.850280146508764, 2.4269036205115384, -1.195663941085494, -2.9432094537494042, 7.80297681499451, -5.065464288149741, 3.6269619303751206, 3.9908675620032743, -0.05859186787549231, 0.619993173674261, 9.618149937866795, 2.6250213112233745, 0.06320704055440574, -3.822964377218256, -0.7530311768002037, -4.626628966877431, 0.9880855442709324, 12.228386845985007, 3.3100849158358825, 4.926116368036165, -1.410756444131505, 2.4596994824370904, 6.321608207386398, -1.1152891023146059, -4.137458047583688, -3.0419258711651014, 3.448709367490293, -0.2977539597887716, 4.719109307784267, -0.5328285289600845, 5.028198754279233, -0.9108509021107583, 3.1311621462900177, -6.77758955451449, -2.8580075001605385, 2.607582070892934, 5.419454637438044, 3.2695394770049493, 7.265777655649876, 1.1112439055421557, 6.29080107226695, -4.021775646494992, -5.018686972881249, -3.7824666264422313, -1.021859124537444, 4.023320391670013, -1.502176036802482, -2.7117453730478087, 8.608109238485323, -3.4438328296457943, -4.717034051126538, -3.7441013769119476, -5.010183943027998, -1.4238592754190305, -4.659458470229286, -7.532676714950864, 2.5837829106843477, 2.874381299964258, 0.523076781321719, 0.39184669236947245, -0.26064478560180815, -3.152117449390958, 8.6883662348562, -0.7653592070207054, 0.9406489623858095, -0.5234889502131801, 0.1688821367563781, -0.3287414396459435, -1.185630818190103, 4.81651444242072, 3.9256991375293993, 3.94169540745345, 2.342682537690808, 0.5006356030183488, 0.1052407278391716, -7.181543705347329, -3.6139461360071223, 2.0061980331875513, 0.19081090017255664, 8.602848439051549, 0.9426964157787774, -4.415396096588357, 4.697113326831256, 1.282307171488176, -0.05617667940492155, -3.3495854900329003, -1.7135625476408298, 6.174599622472416, -2.311128444954926, 0.5597078924266068, -0.275843540729528, -6.441018984369354, -0.6777553813328592, 4.6771795938285905, 3.943400252110447, 4.577534074649403, -3.157934566596302, -0.8931604030665248, -6.764970714515163, -6.04425148864974, 5.148443979781745, 8.804730850729594, -0.5897429360909527, -5.401289286651949, 5.605714390879302, -4.25694069913776, -5.200426514379153, -4.991282594270831, 2.7478670714603473, 8.10123310419833, -7.383030558712702, 0.6838993236265182, -6.672819558011687, 1.973379152887544, -4.06896985867792, -5.012683076256063, -0.5622324462945572, 3.2775300679722834, 0.24897764622734586, 4.06393055031542, -2.2063113859364485, 5.667056007768434, -1.372766734010276, 2.7818390175868055, 6.308952244420702, 4.853650924833607, 4.2039351170730965, -2.8566726418529407, 4.280695242452027, -0.1978330377256045, -5.974715984062433, -8.104601406695387, -2.399727169797113, -6.007053240991725, -0.6531235303913747, 1.3333931675644863, -4.5611308700883955, -0.6074201031178178, 6.448306440175688, -0.695179188522332, 1.5789797132863335, -1.9822315525985303, 5.655657767834218, 4.26731419726082, 1.5531905064553468, -3.043284527413756, -5.588619244347739, -4.504797467173226, -3.831057237920904, 3.766724851446342, 4.957226661227263, 0.904769362037574, 1.571587275926352, -4.149149654845377, 1.8205847527412082, 3.4149329144616, 1.0879661016816522, 0.6795352535518935, -0.9739498809725082, -1.1486790812084802, -2.171415861169173, -9.562878515670404, -6.222015280993666, -2.505194732225468, 0.13451787991586506, 11.161919855382601, 3.4948014469655795, 5.5838598006526485, -5.624973407097291, -1.2638588646039026, 0.10617000185058018, -0.4531351301377997, 2.017881141458766, 1.657316364938607, -7.372694140266411, -9.695667460380474, -0.6829942408312633, -2.167632495163501, -2.6128811462837818, -3.4359071121879765, -2.7238655051805445, 3.3951478747845028, -5.417120458945281, -2.981168033072052, -3.623246657123585, -1.6881620500562493, -3.0893270652986637, 1.877886777176216, 2.7415809938218962, 3.407984616494403, 1.9214278957595043, 3.4620696676201064, -5.2961601031705925, -2.966663649935188, 3.726434012315394, -3.6227508708356404, 0.47757277689142186, -0.9126419068242302, -5.949204619531843, -3.488451649586315, -5.315084773390153, 0.7312150595543616, 2.0850448391757594, -7.947703418610343, 7.141845851441022, -9.501738928452081, -2.3214716102910153, -1.1144528627012655, 1.3209098774189139, -4.0647813998425475, -0.9631271934411789, 0.9830154499852907, -1.4413274148209112, -7.6123865062685665, -10.724424338989742, -2.6175193221263493, -4.891183978607736, 2.7109692461428416, 2.292177935029899, -1.6299680220187855, -2.5766338726280353, 5.937461700049924, -2.9439610903044584, 13.122514782625574, 5.583846728331411, -0.10750651094415092, 1.9572968325916866, -1.7381583362062694, -5.374930176331943, 0.9357888105198897, -1.7378317663821066, -2.0830761611177846, 7.863717130071569, -5.942994930295812, -2.5042325491959954, -4.144294966025079, -6.475244253648296, 7.408601281615173, 4.868569429167902, -2.944526164345575, -3.0652468182631165, -0.015564348061279099, -5.786447875089838, -9.447325454158474, 5.011442963782519, 10.035824503784594, -8.508848200642678, 1.758450293857224, -2.106352260879373, 4.163503551929712, -6.330676467751017, 2.2002206811408085, 0.44434656525168714, 0.3410715682456342, -1.8278613951884068, -1.1476603621911572, -3.146231022118674, -1.8149970865510896, -1.6626230500076988, -7.1967892435989915, -2.8183370932995215, -1.6159737904849032, -7.141321089917097, -2.6479607333919244, -2.5759028978033345, 1.574772863016436, -3.752362717985258, 3.624719259468154, -2.9827162468809547, -1.1482028942358173, 3.1600172074655424, 8.354597411627555, 3.7384075284000398, -0.9632360921814143, 3.1931877847680505, -12.705329674194507, 0.4534789500691017, -0.5274931806422003, 5.052110149585585, -0.6598989516756649, 0.15508985663528985, 2.670411198238821, -0.4385652681907396, -5.861962254313758, 1.3034463540637002, 5.43084460127065, 1.710494636105706, 2.0591385999695717, -2.698649932112339, -4.359199379052452, 2.0294221056565744, 4.975468523386899, -4.36746599267905, -5.092270856106687, -7.6983174831121834, -10.250869041434994, 5.125714624008462, -0.957821837477101, -3.2570745291136833, -3.595050340469444, 2.2395790815444143, -7.902581555011754, -0.9883325273590396, 1.3943669967648329, -5.125142455584053, -8.5798227509338, 1.712859442631874, 3.038216189912145, -5.600273061274016, -5.871057585781596, 3.6766578822786533, -3.45532164889931, 3.969396150815419, -5.190780938010866, 0.028787921587710263, 0.45873444061793345, 0.9520525752332574, 7.227884748193719, -2.7100360953452296, 6.438100531775924, 1.42138331819495, 2.7468369919741304, -4.176312927073616, 5.985507870536029, -5.868523544011839, -1.4873673603564712, -6.930929344240159, 5.800169705425708, -5.062799137611383, -4.533369578906068, -6.013011757753253, -0.011646784440770871, -1.3034209989921712, -0.9895172932973175, 1.6599740733840191, 8.882259895233329, -1.9767426330203413, 1.744529362994349, -3.4261088386707246, -4.181624212881982, 1.6650946131878186, 1.636021084990509, -0.9049493693613827, 8.097083227384676, 8.827420055416342, 1.7864041286565735, 5.999478026303815, -3.9497190853214352, 7.763297955954511, -1.7399023166498355, -2.465604366394751, 8.001855381928237, 0.9760897218182166, 3.856610642349031, -0.7750968162657732, -2.0155208710412467, 5.084861354478765, 5.919563799737896, -10.436851853453984, -0.10103492812426862, 3.348621669739649, -3.309066955441433, -7.318803264750244, -2.1525244772882175, 2.3414367966815344, -2.062860408368002, -5.728569963769805, -1.1546699249567647, -1.9703515980000061, -1.074599411546692, 0.21169730417802557, -0.3482296312377985, -3.893195961968784, -6.752250954423896, -3.3112542912542238, -7.118022667014414, -0.3992022345802348, -3.83281578202778, 4.8252023446529435, 1.72906809710462, -12.831166967709718, -4.825123675689343, -0.80273043246844, 2.440327161700006, 3.926003707818285, -3.1813313055815855, 2.210879410892637, 3.745192405203641, -3.443733573424224, 2.8286467069875543, -2.9104056336794124, -1.3528020147029691, 2.0658443848625914, -8.682184150450967, -3.4027687249829133, 8.302904726007991, 2.1492789088211497, -0.22881873771963013, 2.102298148498428, 2.7123998674116514, 5.86668784211595, 2.2446181283265885, 3.7195304294959683, -1.0704214980969569, 1.7908232994197113, 6.248009405329196, 6.523944301641643, 3.373167519128697, -2.099101360899859, 4.515959294866579, 7.127905346561589, -0.9195575305430485, -4.469668273908832, -5.80795575404692, -0.47428861256327143, 5.494570455220718, -9.205915369671008, 0.6479316832783437, 1.8730880884906767, -7.438009079239942, 2.9364211840668717, -4.284864493016107, -8.964527555249552, -0.42161023801706476, 1.8052303664250027, -5.340637769043112, 1.9955668422408521, -7.199549163096223, -2.9613991257461025, -2.979434061773257, 2.0278726402297056, 5.618649793569265, 3.001513928725081, 5.859056581825531, -2.403881761010659, 4.4351138650451425, 3.310018813475745, 2.636014435584121, 2.381989627515722, 2.6889791957549165, 4.192991717920107, -4.945588873230215, -2.8574774307660404, -4.204231154476574, -5.5378864142448485, -1.267427987354693, 1.7344233581797757, -0.8921458294076975, 1.9383179403384947, -2.856448616362397, 0.45145227307141084, -0.9147036978644707, -5.764848576679039, -7.325273096403066, -3.527266230424793, -5.953690812789802, 0.387610388447341, -3.3066854170117894, 2.5932244133482447, 5.244125971138498, -2.478333975096265, -0.06986781300630757, 0.9264689162611749, -2.3459292473082494, 2.040103304446661, 1.7863416411797735, -2.502597279940812, 4.829935160755282, 3.8863967483107973, 1.4665637468716448, 0.579402668550807, -2.602806855810437, 6.4994930716885255, -8.445669544463321, 6.0525276857880455, -0.690906144366195, 1.4726912761022066, 1.7218235712745458, -9.781731947913292, -3.0716535901741246, -9.698598532184507, 2.9319947326669364, -4.166129289606208, 1.8389578645481417, -3.158202373118068, -3.34117145809048, -0.22984915945897, -8.869302380382564, 2.6201576286950945, 1.4984405504451297, 0.5451319597798759, 1.0466109004563495, 0.9851018612796575, -1.3300260629878595, -6.424267276221305, -1.9603640659090387, 1.9070472263049039, 0.5783057239212823, 7.915108133945144, 0.09320268445864394, 1.7747612871043577, 1.432077485686339, -2.0346941403539773, 1.4206237351245834, 4.344524992058182, 1.9912342080844518, -4.103089397767773, -7.491413053744699, 3.341241582789971, 7.454511934503039, 0.9834522160815511, 11.19345753755793, -1.5895456092931397, -6.9309557954205925, -0.859895709268212, -2.3736070070889475, 5.043295725769115, 0.8843689838236081, -5.899494190229202, 6.075863477043249, -5.805336141483748, 3.4566397946595364, 0.28997312472284786, -0.4740153075640855, 3.2020886497745873, -1.5269085157295201, -11.409481183373192, 1.9272535301240765, 7.153334874028365, 0.6030161733894619, -2.483059248824123, -7.4165777212279975, -3.283350785324498, 6.106257167209892, 0.755500537648931, -9.282242978026385, 0.5473011593160869, -4.556022094976258, -5.420483086194196, 1.4938535791906133, 8.62044517802029, 2.5761001352054613, -1.9598820790400273, -1.93559088622575, 6.622803353319255, 5.0838031395156005, -0.0048349144450201, 8.7745417858856, -3.2556322948646255, -10.290926842352178, 2.778780051990699, -2.8987677468239297, -0.14459033454114034, -0.6163554244575749, -6.945804150637781, -13.531867727383819, -1.1559860112714837, -1.6997165204255875, 1.1255319884296935, -0.23811959735982513, -2.4785443521853225, 0.5105811600694524, 0.43902697773763, 2.0747414767693724, -0.6716629065458872, 2.8757111232115102, -8.58594885592973, -0.31697480227103386, 3.6135532718433594, -0.11926939951527671, -4.544213929642765, -3.450092482386385, 0.12397187520012498, 1.4355267117971726, -3.0717246284554354, 5.434048149358426, 1.5376982189748007, 7.415276580058777, -6.338822361677595, 1.4246420589481366, -3.5153910936081836, 