{"model_name": "mlp", "weights": [-11.33088503854, 23.658051570154452, 11.451394816559208, 20.010547904107636, 6.051091535192569, -22.409146104385144, 12.69576760839082, -11.618585402794563, 5.101748927385019, -19.265292914859295, -5.028158432089853, 8.592286357838931, -9.8366309066555, 1.3005892572138131, 0.16651568899801353, 7.913305692998345, 22.986897756783314, 11.906588592070356, -35.36536530520624, 26.022102359904224, 5.881474658829492, -4.290187017138292, 27.777382466643605, -4.268696272370449, -4.082044226088445, 19.931334359472032, 10.43159712575746, -5.555547376532918, -3.7368945955671564, 34.456502166313626, -13.529907734365313, -1.691237950620649, -31.885699335770745, -23.437085533578053, 13.243440675415421, 18.457210099115198, -1.1199678152527526, 0.21468939446284724, -14.034613357325343, 1.617903699625837, 20.592952697454756, -1.51195406948241, -5.006781356792981, 8.698516551628364, 23.015659244382515, 2.0184750165610663, -2.7895713951686107, 28.06801885898948, 1.0715562786456787, 3.0793038639176604, -4.813886108942997, -16.042251935927982, -6.051634096137306, -5.050239624904772, -0.6038884774651498, -2.7242869981830804, -8.45383060846314, -6.190057298730304, 14.893798039579579, 10.25372378705096, -23.467573889567184, -17.424587200788334, -1.127318975140879, 18.993799650334125, -19.159840355011347, -4.664915905163066, 3.8148254262929693, -16.772899813109063, 17.346648689496753, -26.880387023687625, -38.088471559708914, 22.17086851377319, -7.871038635358359, -5.73381486328459, 19.493965430045925, 24.074230580310267, 8.773387459020192, -10.860912939859448, -5.621123647502894, 19.308673415527288, 15.765646287156065, 34.54947957232613, -6.8481597978035476, 29.234491115487113, -16.895384485531817, -40.41785358651372, -8.65559107221286, 2.095548877484083, 19.28128167839393, -13.338818691044693, 31.09913083552698, -10.613166162967891, 2.3515977898678266, -10.536147493195815, 5.871554298811089, -9.247345710684156, -7.709522365913107, 18.323637825518862, -16.092805327209007, -4.462935130025702, 3.673122611574837, 17.520791468314375, -2.9414042403843763, -4.04901120487677, 7.797760408727591, 34.04756571211451, 23.644549422408417, 37.67403735685466, 27.876202212487588, -5.05897401080939, -23.19872284621545, 5.367246887714484, -16.822466021383924, -7.1575952911817335, 24.106751111972518, -0.6516662545695675, -12.276188011063597, 6.251247176662871, 16.375111801203946, 6.5527832129455295, -10.629575774087217, -1.0105299898513334, 41.31858170288382, 7.495193177877905, -25.120378956582517, 8.520051110331357, -2.7853916532998495, 9.834698211802914, 5.2673345023644815, -25.00588762100542, 42.51084650405833, 4.0785981057185445, -29.910589480286156, 14.611053885794943, 26.24283678455703, -18.98865413775708, -48.7564469445001, -6.059595468124849, 8.623422206422582, 10.183291161605634, -5.906504443798089, 22.837636826884612, -5.8226608967015405, 19.657490863476387, -2.7061294378050498, -22.61209687481031, 21.66595121818527, -1.217316425152461, -8.449542014710799, -4.129416846419949, -16.620917082156396, -4.3727946849467685, -2.647572619033538, 23.07426607995273, -4.280866825081777, 3.6599259383375182, 28.536674014690906, -32.25831402022492, 8.048034591319619, -1.372014822528893, 13.35098387683188, 7.927305079180245, 37.84691958259413, -15.287484121321036, 10.906566312870353, -21.314345088266627, -2.450114590967657, -12.09509196026122, 5.697557331628411, 9.931877827424326, -5.27555953218728, -16.515748254921753, 20.274905862291423, 35.82651520392969, -11.826353096463787, -18.668752659532526, 7.988556477105174, 43.87944963794957, 13.935861320623154, -10.385123611101323, 12.59026732941401, 30.662584998488267, 13.816749220020014, -6.261619008002598, -37.172542824650904, 2.7989381025935622, 25.079967442405547, -7.973320739683533, -25.56612703411455, -26.106659351438665, 21.70342383127675, -26.126700180036238, 24.20178008553063, 5.377384067759769, 0.21939671245730574, 22.03365954313, -25.431055505425736, 26.961174807240525, 1.8770296843297922, 12.96922179702046, -1.2597824590959013, 2.592255978140204, 4.521602932813348, -9.812734182660671, 12.046384310310613, -11.768788624867533, 48.91894632698376, -24.034742756086718, -27.00981190307937, 12.139395336388596, -9.865932513036418, 11.560254390653114, 1.462892090672004, -11.992766141177938, 4.127838454876187, -8.476219032602685, 8.217683805138215, 17.226232022806723, -30.24403528140179, 0.9057291125469293, 5.723157871081675, -4.162998060501497, -14.516368149962538, -3.867564315917238, 4.028138832641378, 15.424039056386333, -14.267325040963414, -38.516022863820496, 15.625477681709475, 7.927249234118635, -4.926715671892405, -12.95661006743346, -9.545369081133884, -3.707033096875536, -20.145262951362884, -9.025382353657353, 28.693194701727936, -9.698372340135345, -2.104485508814559, -18.172330621665346, -28.31051789783698, -0.15960540530330936, 16.365932577958933, -19.420259452338083, 5.736602485342858, -4.306189059378461, -6.17124022161763, 14.915170521917318, -9.908862544147016, 1.9771886886132044, 0.11837318168970523, -16.28972176447821, 28.679185782697488, -6.062117373966977, -3.6252741078178015, 16.25601595904884, 5.697352745875356, -12.72053297284169, 2.9904761922683383, -6.961824975435584, 23.122083780554043, -16.23577543965771, -3.6353356936768138, 9.907130399781805, 7.158434903140359, -38.36193345362196, 12.937039120647981, 2.87234235987391, 16.939544389996897, 15.357233570451438, -18.509389502340344, -1.0713397128023427, 19.866664138244104, -2.550705623374171, -40.37981357666111, 6.801228087539865, -1.0252843055108274, 24.77701530104337, 1.404298805857453, 17.75406558420105, -1.9096831672907346, -10.019140861598602, 5.743133318749873, 4.096097327076667, -14.937462906571072, -10.350050786229147, 2.1364194280744644, -18.152652126411223, 8.805580915174977, 9.913017124928059, -17.647913349960017, 21.001570357203136, 3.820372798907986, 24.294915044359502, 1.7050187742518574, -14.257545740043387, 1.100017236614211, 1.3796361975015472, 15.879828162990908, 10.942483753245272, 12.772643190590646, 15.158288950808416, 13.078786280938473, 26.12624740117589, 0.19028433895814495, -14.260591077940568, -9.412858095518729, -15.241322546981594, -7.9509269751177, -10.965172717487249, -0.9155380108794835, 31.3740245320603, -24.97810426340192, 8.596652782760021, -0.5444856645135547, -6.315612370274344, 7.63618052825467, 13.41867903864243, -6.727749755380633, -10.426133253791107, -7.404329098732913, -18.627458324909387, 27.409151298001618, 9.703817545308379, -15.84547879401099, 16.713020359370294, 9.136233467795709, -7.130429517934557, -0.6906027846830135, 24.063115149365103, -10.882248810503059, -13.148371396683684, 29.785390526182915, -1.6475591109231407, -7.4462012415195, -10.070646941844608, 0.4628159356277971, 8.891534152505084, -42.64768061906002, 22.247661866872143, -14.10563514938781, 15.584609867274137, -22.11478257586086, 25.57096031010955, -16.522738503344417, -15.996019829872852, 9.198657825951559, 7.264965327555831, 18.65686806422065, 5.9316233974823165, 3.1758946690842556, 7.526589023302797, 8.247199044600332, 14.315819911905814, 12.451653633013251, -32.87803760608355, -13.421716674456109, 4.140192976084513, 0.9213833546803003, 9.069665227449352, 11.327730990292023, -50.49945661970242, 19.398833107735882, -24.543697086800236, -19.86775138201998, 0.2719513791615371, -10.44365524806738, 23.030790169874685, 33.99136305149628, -18.949892428915888, -19.708369829081743, 8.795546542950825, -12.474113683129616, -18.117063749361858, 12.724770753947688, 1.7142122531230335, 19.484577683877152, -7.0843580140064075, 9.727012609651256, -11.363928749404032, -30.60339626161324, 17.09483054408257, -22.744074582619746, -3.860262467830498, 15.500467200466101, 0.9017819151636259, -11.375117900473574, -8.870555835094548, -19.60329418786806, 44.21425589829466, 28.655067261596397, 5.537402989156935, -30.48738497179436, -4.392360029356139, 23.285216994956155, -5.559398789155483, -4.539263519752836, 2.6648336872597724, -13.60053011724295, -19.017389393429628, 4.643812212084301, 6.579797822871774, -17.81189826549094, 2.492358572435306, 3.4566436137414382, 4.817838353848054, 12.49923781128227, -18.55408316303978, -16.345183085220903, 41.63363313949268, 23.251421937108912, -5.681308019795578, 26.108020714939226, 3.833324995780724, 1.9401160363490808, 9.956487148782955, 13.362824236462568, -3.7286053444387437, -2.327033437550196, 0.22327389348253907, 2.785545343617477, -45.40396823179937, 8.735307724041407, 5.193236345829062, -14.766563032605946, 1.790235031672829, 9.238183868318425, 3.894099369236038, 7.0478187705800295, -14.984108528043722, 31.960308241898684, -5.668388923817475, -18.837142370194588, 1.0208135129480298, 10.39671089703553, 5.607672978479866, -26.40829614758662, 8.717350596404888, 44.434959170543756, 46.36613619715598, -23.292576125543665, 10.893807113265058, 13.987062013736764, 9.726828958345958, -3.5954258561185757, 36.1561498460987, -9.53165990197195, 9.691369749117154, -26.883617471624706, 2.212907900826658, 17.568521829535435, 1.222689017129924, -11.105663981294807, 0.6514853441392398, 10.33288742740267, -21.106425512642105, 0.34634579096755214, -6.319557940225694, -14.582722147062464, 14.434635060584895, 23.569470266548073, 30.268697878580674, 5.353833768033707, -1.9078561633935145, -1.9291811956304128, -6.094366742753236, 19.776716030160603, 7.970467188697274, 17.14131773839731, 7.529248603125451, 10.158769890134234, 5.841370299175821, -18.57359829284856, -4.228366175813043, 19.909681465827926, 12.808467525519633, 7.786179670885863, 36.152932517143846, -28.541258656308766, 11.090750763402841, -9.911538431931426, -3.365199356715865, 18.160956746180865, 6.72733690347258, -2.8478286438912157, -29.951977303828407, 4.050795671041475, 19.23430717616845, -0.6799342351268047, 18.921912329466178, -4.133687710511102, -7.01856978715888, 12.260849841584601, 25.895751104783077, 26.174298859714746, 14.704521542069081, 4.468338290948876, -35.831725452813835, -14.736061085052322, -28.101131896043945, -2.057257722995684, 1.5520257188108637, 24.630480347113252, -4.555623772379671, 10.300600604112882, 10.805598237127386, 26.715714343069433, -6.953668702646657, -2.07292819551545, -6.3216195229119565, 11.109115261377672, -7.107388904210912, 9.904767450133996, 1.7108791922331474, -0.4280841728167064, -17.43520777410365, -2.8800418507496723, -1.8149186198130542, 6.355060945753451, 22.85781096326219, 37.35028623561017, -24.584472536356383, 25.446798434701204, -1.961225873505584, 0.5515028411456094, -0.5386545697743703, 2.674126204768912, 10.443920033360277, 7.061782274327021, -7.315612493957898, 9.56212499995408, 3.371600252089155, -35.24077211514103, 15.7666886428454, 37.4118761585862, -18.56710454744091, -6.599039450966689, 2.702261048550396, -13.998150809541153, 7.614294659049834, 4.954712777336508, 3.0866191028992858, -7.334661959763434, 20.464581205372934, -9.296980292574155, 25.806554312922167, 25.56439376157456, -19.784670976322552, 13.688344900302168, 15.18347337435357, 24.015189537854685, 13.309088196974152, -3.697670209204849, 32.54932615063911, 40.85654964539845, -2.801407663618336, -22.08970726415617, 19.04773304795581, 21.051249980334532, 27.65673519436214, -28.80887576434168, -4.244280253222792, 23.010300685970734, 4.952853740977373, -31.056251594818505, 28.47009245637788, -3.6668585413631027, 13.447495291078775, -13.577306810538506, 19.181983907864133, 24.599432797170625, 37.37203728689567, -10.27703658707214, 20.204273261409025, -4.920108988261153, -3.316515888445136, 13.479882627126571, -32.565080809960406, -5.352521989320174, 13.592168523277063, 8.020696992416104, -0.7740078484986037, -4.289041411072243, 24.60176387909771, -7.039751494160225, 22.810236813994145, 8.823280615580842, -36.484318846336315, 2.8881595001407483, -41.658970152697904, -9.289470029592426, 11.945036739915558, -10.575365284046569, 6.410548925152197, 24.80494479795229, 6.432005039107516, -14.899094791175045, -25.42515094356466, 6.055344176540045, -6.324665453719205, -10.980501747840835, -5.540402949352435, -10.27437392793174, 18.376793448139594, 1.2152605465073307, -12.036520536595836, 36.565922270010496, 12.161272787008793, -6.57764234495383, 27.691391594415965, -13.466759779533495, -3.2113544271987284], "model": {"hidden_layers": [16, 16], "activation": "relu"}}