{"model_name": "mlp", "weights": [-10.523130142187584, 23.54576145043523, 12.106938335107909, 19.861437876389218, 5.6506990533594506, -21.97636336093032, 12.877326756442825, -12.661097929317028, 4.176527325729001, -19.623531164850192, -4.630712940772476, 8.526988965554589, -9.752405695834163, 2.3699743639815463, -0.43564246015472446, 8.605437709615416, 24.617388099604412, 11.634947603663157, -36.53663681910767, 26.700990292938624, 5.845851364360307, -4.073966855556818, 27.000993986087877, -2.7792672520515533, -3.8726457024411474, 19.124504352066634, 9.12864643834296, -7.043163077296503, -3.7350332427639445, 34.26766180389968, -13.31046624284205, -1.6544834498605123, -32.185491885246336, -22.636525545356204, 13.269794606399255, 18.854819059138567, -0.9501586563535411, -0.022850461502332164, -14.26292448430775, 1.39763104537252, 19.97248604415905, -1.2724300145907126, -4.7125597135128405, 8.008397477313133, 22.5512518182886, 1.1919036426414655, -2.4118488322359495, 28.54788362776901, 1.892976040554548, 2.431556043082275, -3.787335658413416, -15.314470434979485, -5.623523232091821, -5.04722228321929, -1.1488646356082959, -1.3269983331168107, -8.117591653288724, -6.626739998115543, 14.15649672443742, 10.389410010638992, -24.46898980473267, -16.032219095706182, -1.3408122438643555, 18.878901241303176, -19.752538401716855, -6.059870983184828, 3.309450590819491, -17.303223497924204, 17.138906760608148, -26.025056884137776, -37.54989942629267, 21.44640203545382, -7.832070518074189, -5.116136879788663, 19.352133436107106, 23.201515455696597, 8.48174485649905, -10.323250513403458, -5.932041139123957, 19.21603994390807, 16.374938457853837, 34.39028546264782, -7.590407427411611, 29.229192363163136, -15.972995050484863, -40.39963811032124, -9.468302950325734, 1.045574881302164, 17.840743925985336, -14.066172100579925, 31.5819438334816, -10.210945237219935, 1.9247856006136512, -10.525717670380068, 7.072753437831076, -8.86866863488404, -7.563796703735728, 18.679204150507534, -17.215227702315996, -5.133059327636522, 3.8210001457270466, 18.037576913050298, -1.63192895248824, -2.6019137063595514, 6.7503176674512675, 33.92553964403507, 22.157020236319656, 38.00434890258392, 27.640626199792127, -3.407813964182491, -21.79572943059188, 5.667525963605871, -15.96839498083669, -6.098225321074812, 25.362158056471845, 0.37955411835877706, -13.27931610542833, 5.942233536847914, 16.42050184906851, 7.056781243923228, -10.227267003700442, -1.2483887410683994, 40.69766862491058, 8.399252287463566, -25.25775932442137, 8.89590151250069, -3.30013005592438, 10.361715349393998, 4.338878329412257, -24.04423616490712, 42.96660544029033, 4.171979234331032, -30.07389999951736, 13.906402789971686, 26.51507875605417, -18.06310153331208, -47.391416654605074, -5.600973254766259, 9.202837518909734, 10.474345880924465, -6.08058997415917, 22.461856433734898, -5.294689509149689, 19.446853985180397, -3.131396168434949, -21.894802081360137, 21.371377627015104, -1.6719059973196553, -8.136427086737676, -4.171145508568523, -16.888167526161556, -3.7906964448196314, -2.3770533290462255, 23.384947775474345, -5.1341482305922925, 4.479589126323289, 28.51845950581825, -31.405939019147564, 7.758514850883881, -2.317405741412193, 13.105279711719103, 7.303295654206627, 37.17462845417297, -14.072707476523277, 11.521150291111782, -20.63602031920167, -1.5914567754557978, -11.301994299210854, 6.69758501785678, 9.205125230169319, -6.282952031701124, -16.308768328826456, 21.264702265933046, 35.38820261462609, -11.766023510549351, -18.826467239553985, 10.221629119861767, 43.49939513685893, 13.829911004521657, -8.99878575484588, 13.177100967492315, 31.63384571214563, 13.996117999797764, -6.493042493898046, -38.53954890127286, 0.9299453954325206, 24.969642411957373, -8.574881774294713, -25.898190647378588, -25.71258259377688, 21.37376604631025, -25.7670575648461, 24.281004004061423, 6.0823300255945725, 1.3484032053183537, 22.207993906973925, -25.39516936911345, 26.67973546425983, 2.598968143961892, 12.890987451870007, -1.3431197509431, 2.0259762228883487, 3.5156342865180177, -9.726521837610004, 12.956859114887868, -11.553618990697927, 48.7529770200318, -24.302479955330018, -26.761999595854853, 12.17976036726314, -11.291277747814563, 10.98938279829844, 2.207216714658592, -13.711643715827783, 3.3570716257367517, -7.557120125630741, 7.791102381152117, 17.078014264588838, -30.526958854766754, 1.1364497692973001, 5.816010693739618, -4.521821240378411, -14.160965608286357, -4.05039393017308, 3.3828317051169834, 14.844685232638291, -14.465495540854722, -39.020201674843484, 16.119741464683102, 7.395886752878498, -4.970071536262439, -12.138767481837743, -10.475805004603151, -3.4718455755387723, -19.884159785227812, -8.135304856692406, 29.57438010950038, -9.959806872909564, -3.220949171049012, -17.2002474022406, -28.43360833780759, 1.1486250758961947, 15.688017988802864, -19.00820379137217, 5.791742095164525, -3.5593543417768676, -6.244509158096169, 14.58454868245803, -9.427338357623162, 2.7244418608639336, -0.9259904999590433, -16.839055145718326, 28.062653007178742, -5.50854907553558, -2.341884193156726, 16.494480296601775, 6.327254157753913, -11.802352934473578, 2.7111891404653354, -6.823648749174223, 24.439040563984275, -15.360817863709848, -3.708243389483978, 9.535450680956048, 6.6782606740614865, -38.90083934998981, 13.079285688251597, 2.8750937228685003, 16.552104284455293, 15.693749812110585, -19.216565783027004, -1.1182156255688631, 20.65262334036988, -2.1056074424856757, -39.70629790681525, 6.837628996467742, -0.13130052037484477, 25.262957095325035, 2.712348810390729, 18.98225537579323, -1.4999620103595679, -10.368867811773598, 4.321728506902881, 3.771336890416034, -14.054393641539159, -10.76563202762023, 1.7150904805797484, -18.77502219190503, 9.663310684263184, 10.440823716773934, -17.673329359325027, 20.08989429022257, 3.839617410541902, 25.074915829216124, 2.4963517941509323, -13.787297853593302, 0.9811396384108435, -0.02070235342842419, 16.031365099904153, 10.369531824340683, 11.726584869996163, 15.474146089808182, 12.449645223463389, 25.80022600113688, 0.5466068315138218, -14.44234424342699, -8.706044378407478, -16.26615441596724, -8.265816311460851, -9.978047086961274, -1.5196824348419886, 32.60416290750994, -25.30149008015219, 9.583143476938895, -1.4440783953075433, -6.782478668968792, 7.689749500892389, 13.890107087987497, -8.234940881579426, -12.084236072390325, -7.098556698221593, -18.214814742915355, 28.398127496268142, 9.697076683283736, -16.4950388657699, 14.962235993524246, 8.151571960164928, -4.960465177299738, -0.8685077190256729, 24.71359002072609, -11.516561121235956, -13.368851290263695, 30.287580149241023, -1.620919623217702, -8.225448806118903, -9.931264096476108, 0.9377685984723663, 8.901950550668642, -43.387058784343296, 21.625965010525658, -13.403372967575129, 15.209548471825915, -22.25748471534554, 24.89198651747149, -16.90755217772515, -15.54944737627952, 8.000106754084811, 7.297495245861654, 16.7575829756548, 5.8543169572410925, 4.413324915933931, 7.072188088474488, 8.10316566660642, 16.250729858573433, 13.012778105212584, -33.93073340600824, -13.334961853809295, 3.730803108679475, 3.009268832214098, 9.456123712517556, 11.784409365634316, -49.981851175675814, 19.167425126228107, -24.841414227117333, -20.358934482553245, 0.14468628879188755, -12.134070485375272, 21.691561178057803, 33.76838791105821, -19.46627432537522, -20.242685487673207, 8.21792809996771, -12.511957656135605, -17.88693276310943, 12.082856979634206, 1.730144752457045, 19.11514561182854, -7.4048755381993265, 9.81915190959431, -10.271033081747099, -29.824091983370497, 17.1570197163801, -21.87682817954039, -4.629857860915803, 14.79122759598574, 0.16013728054557597, -11.572200370211279, -8.19446073033003, -20.148792962432424, 44.48711363561632, 31.002846605177112, 6.198332496570992, -30.46527480510557, -4.331520858943042, 23.689507369149798, -6.243651892180505, -3.0764742952611916, 1.1068187708044364, -13.975780815303517, -18.066427325503266, 4.136403877872391, 5.863225956582863, -17.98363801612482, 2.569605024927848, 3.403081239188064, 4.915591138480669, 11.963597185199182, -18.738905443579853, -16.823813269146214, 41.62449293309732, 21.23888310578188, -5.043006139124503, 27.13630455065961, 3.4695297954460944, 1.455517711062207, 9.977127918004165, 13.98227246530726, -4.0491520517311335, -3.199029512933381, 1.1644359365267838, 2.793388886761685, -46.76670755483788, 10.133607766716713, 4.444672117538717, -15.433393222993331, 1.0817590238261845, 8.734023861859157, 3.4236548677200367, 6.330118500025037, -14.854567577337988, 31.702471228727216, -4.916631086674747, -19.457164756080264, 1.3041079841931027, 10.62876052873123, 5.712226441234657, -28.314005485903138, 8.941349611681273, 43.48755629797275, 47.066870901776426, -22.825900851404548, 10.987946607429716, 14.49698027839642, 8.612055713722713, -3.642171154819216, 36.37874251774158, -8.963364128175884, 8.93888569965562, -27.17964320244999, 2.4598688591112716, 16.616769204398388, -0.6677814023617823, -12.710552422575871, 2.5859070451401287, 10.13346442168569, -20.430579235693877, 0.18203393901447293, -6.367327516930913, -13.959376268442444, 15.561044774405307, 23.19190045380448, 28.964437257055923, 5.278163314164754, -1.240256887095811, -1.625693457991773, -6.674389575736391, 19.48609113487439, 8.494750216411838, 18.459209338553627, 6.694128911946574, 8.885446857200403, 6.157843491925108, -18.551884108987977, -3.3597355466624332, 20.61590773192633, 11.753584305547395, 8.052035793305663, 36.5846779340035, -27.292008411286652, 12.440307915465933, -9.979103780368815, -2.8138831549620713, 18.130462861472306, 6.911426469666696, -3.60726123820812, -29.96643991472267, 2.9474618994584234, 18.017403646632946, -1.8559988759152684, 19.411493952286953, -4.9372885492780405, -7.24877057007674, 13.48876519196144, 26.144723376020888, 25.43737135260778, 14.478460590832611, 4.228796695112172, -34.848127539585015, -13.826402841151934, -29.08834651901932, -2.087999553533968, 0.8431623281277493, 25.502927130796404, -4.459297514643906, 11.42500733390101, 11.012445466978077, 26.488930729381593, -6.156821867078453, -1.213184587554016, -6.707765371175573, 11.828213175517503, -7.369502451919967, 9.033520382492307, 1.2281081025411653, -1.1360533802212056, -18.27535947034073, -3.1904243187653774, -0.9853025970064115, 6.106441240335258, 23.100445799631814, 37.354159974570784, -25.615690634141686, 26.11236033928765, -3.392628854086504, 1.1587974873055547, -0.5054758670264701, 3.2038496153321145, 9.948049573170197, 6.3572029437364135, -8.641011413388883, 10.08016604514013, 2.4545669297882458, -33.96148767589966, 14.669051682725232, 37.08403420445601, -19.269145416839258, -8.438750101376698, 1.7594460005837438, -14.19646894460946, 7.838836011329483, 4.671862344016799, 3.2721134103771052, -6.845864024693998, 20.610551553994537, -9.01436258214397, 25.25586243823264, 26.77459099012246, -20.431701141146444, 13.102999093654548, 15.90013762529657, 24.27204830192443, 13.299798448135164, -2.5821767451059205, 32.0032829032015, 40.554961295506814, -1.6229444276037635, -21.438389378183366, 19.705023599036448, 21.060951353064848, 27.87655142635592, -30.037333900576574, -4.450088877086282, 24.035475665491408, 4.816771518413212, -31.004367635934404, 29.484651962061587, -2.5367866125170337, 13.401093422388904, -13.159042757161947, 19.00647885541956, 24.06216658619597, 37.4336894710796, -10.099275105558315, 20.065053053185313, -5.495452232868035, -3.3377445660736393, 13.624871938386761, -32.907462025566886, -5.423922434457145, 13.003015098718455, 8.227071723666835, -1.5286879017576098, -5.030807992955802, 23.749579109874457, -6.532079090829603, 21.347284938237372, 9.176138230023517, -36.79504747924599, 3.0294402177816986, -41.92661537672121, -10.42241225680874, 12.596433629656763, -10.847156585849813, 5.765745311086716, 25.84149717425516, 6.70189827145087, -14.731335390784505, -24.078041904570792, 6.407080664674595, -7.538595032377725, -10.14816596320091, -5.753153153508339, -10.83902787777849, 18.708267036917817, 0.16697637267169624, -11.973869789987786, 36.77579674625905, 12.025923094359309, -7.13464663723094, 27.212888219249724, -13.050729614126734, -2.90139420394835], "model": {"hidden_layers": [16, 16], "activation": "relu"}}